
/* Species #1 : (Size 7) (AF 0.429816) (Age 9)  */


/* Organism #0 Fitness: 0.355553 Error: 0.544447 */
genomestart 0
trait 1 0.109465 0 0 0 0 0 0.00764725 0.0875415 
trait 2 0.2 0 0 0 0 0 0 0 
trait 3 0.386199 0 0 0 0 0 0 0 
node 1 1 1 1
node 2 2 1 1
node 3 1 1 1
node 4 1 0 2
node 9 1 0 0
gene 2 1 4 2.19792 0 1 2.19792 1
gene 1 2 4 1.87874 0 2 1.87874 1
gene 2 3 4 -2.2466 0 3 -2.2466 1
gene 1 3 9 1.62401 0 46 1.62401 1
gene 2 9 4 -7.92368 0 47 -7.92368 1
genomeend 0

/* Organism #1 Fitness: 0.574258 Error: 0.325742 */
genomestart 1
trait 1 0.1 0 0 0 0 0 0 0 
trait 2 0.270231 0 0 0.0397058 0.0422008 0 0 0.0139808 
trait 3 0.3 0 0 0 0 0 0.012266 0 
node 1 1 1 1
node 2 3 1 1
node 3 2 1 1
node 4 1 0 2
gene 2 1 4 3.02964 0 1 3.02964 1
gene 2 2 4 0.798837 0 2 0.798837 1
gene 2 3 4 0.200348 0 3 0.200348 0
genomeend 1

/* Organism #2 Fitness: 0.256183 Error: 0.643817 */
genomestart 2
trait 1 0.1 0 0 0 0 0 0 0 
trait 2 0.270231 0 0 0.0397058 0.0422008 0 0 0.0139808 
trait 3 0.3 0 0 0 0 0 0.012266 0 
node 1 1 1 1
node 2 3 1 1
node 3 2 1 1
node 4 1 0 2
gene 2 1 4 4.79383 0 1 4.79383 1
gene 2 2 4 -0.769378 0 2 -0.769378 1
gene 2 3 4 -4.37659 0 3 -4.37659 0
genomeend 2

/* Organism #3 Fitness: 0.569039 Error: 0.330961 */
genomestart 3
trait 1 0.1 0.14311 0 0 0 0 0.173294 0.0762786 
trait 2 0.225882 0 0 0 0 0 0 0.0139808 
trait 3 1 0.829912 0.803055 0 0 0 0 0 
node 1 3 1 1
node 2 2 1 1
node 3 2 1 1
node 4 2 0 2
gene 3 1 4 6.15904 0 1 6.15904 1
gene 1 2 4 1.83209 0 2 1.83209 1
gene 3 3 4 -4.8926 0 3 -4.8926 1
genomeend 3

/* Organism #4 Fitness: 0.378371 Error: 0.521629 */
genomestart 4
trait 1 0.1 0 0 0 0 0 0 0 
trait 2 0.2 0 0 0 0 0 0 0 
trait 3 0.3 0 0 0 0 0 0 0 
node 1 2 1 1
node 2 1 1 1
node 3 3 1 1
node 4 2 0 2
node 5 1 0 0
gene 2 1 4 1.8098 0 1 1.8098 1
gene 3 2 4 -0.041686 0 2 -0.041686 1
gene 3 3 4 -4.29774 0 3 -4.29774 0
gene 3 3 5 1.52937 0 5 1.52937 1
gene 3 5 4 -0.114008 0 6 -0.114008 1
gene 3 2 5 -8 0 69 -8 1
gene 2 1 5 -2.23028 0 143 -2.23028 1
genomeend 4

/* Organism #5 Fitness: 0.425743 Error: 0.474257 */
genomestart 5
trait 1 0.1 0 0 0 0 0 0 0 
trait 2 0.2 0 0 0 0 0 0 0 
trait 3 0.3 0 0 0 0 0 0 0 
node 1 2 1 1
node 2 1 1 1
node 3 3 1 1
node 4 2 0 2
node 5 1 0 0
gene 2 1 4 1.8098 0 1 1.8098 1
gene 3 2 4 -0.041686 0 2 -0.041686 1
gene 3 3 4 -4.29774 0 3 -4.29774 0
gene 3 3 5 1.52937 0 5 1.52937 1
gene 3 5 4 -0.114008 0 6 -0.114008 1
gene 3 2 5 -8 0 69 -8 1
gene 2 1 5 -2.23028 0 143 -2.23028 1
genomeend 5

/* Organism #6 Fitness: 0.449564 Error: 0.450436 */
genomestart 6
trait 1 0.112093 0 0 0 0.119096 0 0.0639485 0 
trait 2 0.2 0 0 0 0 0 0 0 
trait 3 0.308164 0 0.212985 0 0.0926722 0 0 0.0409003 
node 1 2 1 1
node 2 1 1 1
node 3 3 1 1
node 4 2 0 2
node 6 1 0 0
gene 3 1 4 2.38118 0 1 2.38118 1
gene 3 2 4 -1.1101 0 2 -1.1101 1
gene 3 3 4 -3.8642 0 3 -3.8642 1
gene 2 1 6 1.64148 0 8 1.64148 1
gene 2 6 4 1.88721 0 9 1.88721 1
gene 3 3 6 -0.811261 0 174 -0.811261 1
genomeend 6

/* Species #2 : (Size 7) (AF 0.404795) (Age 9)  */


/* Organism #7 Fitness: 0.445422 Error: 0.454578 */
genomestart 7
trait 1 0.1 0 0 0 0 0 0 0 
trait 2 0.2 0 0 0 0 0 0 0 
trait 3 0.3 0 0 0 0 0 0 0 
node 1 2 1 1
node 2 3 1 1
node 3 3 1 1
node 4 2 0 2
node 5 1 0 0
gene 3 1 4 -0.0162236 0 1 -0.0162236 1
gene 3 2 4 -3.36689 0 2 -3.36689 1
gene 2 3 4 6.39842 0 3 6.39842 0
gene 3 3 5 -3.56588 0 5 -3.56588 1
gene 3 5 4 1.08807 0 6 1.08807 1
genomeend 7

/* Organism #8 Fitness: 0.364822 Error: 0.535178 */
genomestart 8
trait 1 0.1 0 0 0 0 0 0 0 
trait 2 0.2 0 0.888484 0 0 0 0 0.907265 
trait 3 0.3 0 0 0 0 0 0 0 
node 1 2 1 1
node 2 1 1 1
node 3 3 1 1
node 4 2 0 2
node 5 1 0 0
gene 3 1 4 0.782802 0 1 0.782802 1
gene 3 2 4 -2.64583 0 2 -2.64583 1
gene 3 3 4 3.12373 0 3 3.12373 1
gene 3 3 5 -1.04059 0 5 -1.04059 1
gene 3 5 4 2.11825 0 6 2.11825 1
gene 1 2 5 0.724107 0 124 0.724107 1
gene 3 1 5 0.442669 0 233 0 1
genomeend 8

/* Organism #9 Fitness: 0.33238 Error: 0.56762 */
genomestart 9
trait 1 0.1 0 0 0 0 0 0 0 
trait 2 0.2 0 0 0 0 0 0 0 
trait 3 0.3 0 0 0 0 0 0 0 
node 1 2 1 1
node 2 1 1 1
node 3 3 1 1
node 4 2 0 2
node 5 1 0 0
gene 3 1 4 0.782802 0 1 0.782802 1
gene 3 2 4 -2.64583 0 2 -2.64583 1
gene 3 3 4 3.12373 0 3 3.12373 0
gene 3 3 5 -1.04059 0 5 -1.04059 1
gene 3 5 4 2.11825 0 6 2.11825 1
gene 1 2 5 0.724107 0 124 0.724107 1
gene 3 1 5 0.442669 0 233 0 1
gene 1 5 5 0.387748 1 281 0.387748 1
genomeend 9

/* Organism #10 Fitness: 0.360464 Error: 0.539536 */
genomestart 10
trait 1 0.1 0 0 0 0 0 0 0 
trait 2 0.2 0 0 0 0 0 0 0 
trait 3 0.3 0 0 0 0 0 0 0 
node 1 2 1 1
node 2 1 1 1
node 3 3 1 1
node 4 2 0 2
node 5 1 0 0
gene 3 1 4 0.782802 0 1 0.782802 1
gene 3 2 4 -2.64583 0 2 -2.64583 1
gene 3 3 4 3.12373 0 3 3.12373 0
gene 3 3 5 -1.04059 0 5 -1.04059 1
gene 3 5 4 2.11825 0 6 2.11825 1
gene 1 2 5 0.724107 0 124 0.724107 1
gene 3 1 5 0.442669 0 233 0 1
genomeend 10

/* Organism #11 Fitness: 0.442893 Error: 0.457107 */
genomestart 11
trait 1 0.1 0 0 0 0 0 0 0 
trait 2 0.2 0 0 0 0 0 0 0 
trait 3 0.3 0 0 0 0 0 0 0 
node 1 2 1 1
node 2 1 1 1
node 3 3 1 1
node 4 1 0 2
node 5 1 0 0
gene 3 1 4 0.733126 0 1 0.733126 1
gene 3 2 4 -2.04655 0 2 -2.04655 1
gene 3 3 4 5.48414 0 3 5.48414 0
gene 3 3 5 1.30855 0 5 1.30855 1
gene 3 5 4 0.358015 0 6 0.358015 1
gene 1 2 5 -5.12425 0 69 -5.12425 1
gene 2 1 5 0.442669 0 233 0 1
genomeend 11

/* Organism #12 Fitness: 0.445149 Error: 0.454851 */
genomestart 12
trait 1 0.1 0 0 0 0 0 0 0 
trait 2 0.20647 0 0 0 0 0 0 0.00349519 
trait 3 0.326914 0 0.212985 0 0.0926722 0 0 0 
node 1 3 1 1
node 2 1 1 1
node 3 3 1 1
node 4 1 0 2
node 5 1 0 0
gene 2 1 4 -1.68493 0 1 -1.68493 0
gene 3 2 4 -3.09151 0 2 -3.09151 1
gene 3 3 4 4.56766 0 3 4.56766 0
gene 3 3 5 -1.72672 0 5 -1.72672 1
gene 2 5 4 0.910429 0 6 0.910429 1
genomeend 12

/* Organism #13 Fitness: 0.442432 Error: 0.457568 */
genomestart 13
trait 1 0.1 0 0 0 0 0 0 0 
trait 2 0.2 0 0 0 0 0 0 0 
trait 3 0.3 0 0 0 0 0 0 0 
node 1 2 1 1
node 2 1 1 1
node 3 3 1 1
node 4 2 0 2
node 5 1 0 0
gene 3 1 4 0.612732 0 1 0.612732 1
gene 3 2 4 -1.43556 0 2 -1.43556 1
gene 3 3 4 6.81674 0 3 6.81674 0
gene 3 3 5 -1.81379 0 5 -1.81379 1
gene 3 5 4 -0.0940763 0 6 -0.0940763 1
gene 2 2 5 -7.29162 0 180 -7.29162 1
genomeend 13

/* Species #3 : (Size 2) (AF 0.00561453) (Age 8)  */


/* Organism #14 Fitness: 0.00561453 Error: 0.894385 */
genomestart 14
trait 1 0.156788 0 0 0 0 0 0.0458835 0.0372325 
trait 2 0.2 0 0 0 0 0 0 0 
trait 3 0.3 0 0.0399756 0 0 0.0273314 0 0 
node 1 2 1 1
node 2 1 1 1
node 3 3 1 1
node 4 2 0 2
node 5 1 0 0
gene 2 1 4 1.05432 0 1 1.05432 1
gene 1 2 4 -6.84065 0 2 -6.84065 1
gene 3 3 4 -0.324325 0 3 -0.324325 0
gene 3 3 5 -3.43509 0 5 -3.43509 1
gene 3 5 4 -7.40585 0 6 -7.40585 1
gene 3 2 5 2.23111 0 69 2.23111 1
gene 2 1 5 0.95357 0 273 0.95357 1
genomeend 14

/* Organism #15 Fitness: 0.00561453 Error: 0.894385 */
genomestart 15
trait 1 0.156788 0 0 0 0 0 0.0458835 0.0372325 
trait 2 0.2 0 0 0 0 0 0 0 
trait 3 0.3 0 0.0399756 0 0 0.0273314 0 0 
node 1 2 1 1
node 2 1 1 1
node 3 3 1 1
node 4 2 0 2
node 5 1 0 0
gene 2 1 4 1.05432 0 1 1.05432 1
gene 1 2 4 -6.84065 0 2 -6.84065 1
gene 3 3 4 -0.324325 0 3 -0.324325 0
gene 3 3 5 -3.43509 0 5 -3.43509 1
gene 3 5 4 -7.40585 0 6 -7.40585 1
gene 3 2 5 2.23111 0 69 2.23111 1
gene 2 1 5 0.95357 0 273 0 1
genomeend 15

/* Species #6 : (Size 4) (AF 0.362564) (Age 8)  */


/* Organism #16 Fitness: 0.442523 Error: 0.457477 */
genomestart 16
trait 1 0.269288 0 0.00403457 0 0 0 0.0625199 0.0620542 
trait 2 0.2 0 0 0 0 0 0 0 
trait 3 0.88184 0 0 0 0 0 0.763584 0 
node 1 3 1 1
node 2 2 1 1
node 3 2 1 1
node 4 2 0 2
gene 3 1 4 5.26677 0 1 5.26677 1
gene 1 2 4 3.92185 0 2 3.92185 1
gene 3 3 4 -1.06115 0 3 -1.06115 1
genomeend 16

/* Organism #17 Fitness: 0.416731 Error: 0.483269 */
genomestart 17
trait 1 0.1 0 0 0 0 0 0 0 
trait 2 0.2 0 0 0 0 0 0 0 
trait 3 0.3 0 0 0 0 0 0 0 
node 1 2 1 1
node 2 1 1 1
node 3 3 1 1
node 4 2 0 2
node 5 1 0 0
gene 3 1 4 6.15537 0 1 6.15537 1
gene 3 2 4 3.10611 0 2 3.10611 1
gene 3 3 4 -0.208827 0 3 -0.208827 1
gene 3 3 5 0.321697 0 5 0.321697 1
gene 1 5 4 7.7472 0 6 7.7472 1
gene 3 2 5 0.443892 0 69 0.443892 1
gene 2 1 5 0.95357 0 273 0 1
genomeend 17

/* Organism #18 Fitness: 0.583053 Error: 0.316947 */
genomestart 18
trait 1 0.1 0 0 0 0 0 0 0 
trait 2 0.244349 0 0 0.0397058 0.0422008 0 0 0 
trait 3 0.3 0 0 0 0 0 0.012266 0 
node 1 1 1 1
node 2 2 1 1
node 3 1 1 1
node 4 1 0 2
gene 2 1 4 6.0987 0 1 6.0987 1
gene 1 2 4 0.629954 0 2 0.629954 1
gene 2 3 4 -0.533038 0 3 -0.533038 0
genomeend 18

/* Organism #19 Fitness: 0.00794628 Error: 0.892054 */
genomestart 19
trait 1 0.1 0 0 0 0 0 0 0 
trait 2 0.2 0 0 0 0 0 0 0 
trait 3 0.3 0 0 0 0 0 0 0 
node 1 1 1 1
node 2 1 1 1
node 3 3 1 1
node 4 2 0 2
node 5 1 0 0
gene 3 1 4 4.21153 0 1 4.21153 1
gene 3 2 4 2.05539 0 2 2.05539 1
gene 3 3 4 1.91916 0 3 1.91916 0
gene 3 3 5 -1.97616 0 5 -1.97616 1
gene 3 5 4 8 0 6 8 1
gene 3 2 5 0.339551 0 69 0.339551 1
gene 2 1 5 -3.46475 0 179 -3.46475 1
genomeend 19

/* Species #7 : (Size 3) (AF 0.293013) (Age 8)  */


/* Organism #20 Fitness: 0.524478 Error: 0.375522 */
genomestart 20
trait 1 0.1 0 0 0 0 0 0 0 
trait 2 0.2 0 0 0 0 0 0 0 
trait 3 0.3 0 0 0 0 0 0 0 
node 1 2 1 1
node 2 1 1 1
node 3 3 1 1
node 4 2 0 2
node 5 1 0 0
gene 3 1 4 1.44351 0 1 1.44351 1
gene 3 2 4 -0.660046 0 2 -0.660046 1
gene 3 3 4 6.54931 0 3 6.54931 0
gene 3 3 5 -3.35486 0 5 -3.35486 1
gene 3 5 4 3.32556 0 6 3.32556 1
gene 3 2 5 -0.259405 0 232 0 1
gene 2 1 5 0.95357 0 273 0 1
genomeend 20

/* Organism #21 Fitness: 0.348713 Error: 0.551287 */
genomestart 21
trait 1 0.1 0 0 0 0 0 0 0 
trait 2 0.2 0 0 0 0 0 0 0 
trait 3 0.3 0 0 0 0 0 0 0 
node 1 2 1 1
node 2 1 1 1
node 3 3 1 1
node 4 2 0 2
node 5 1 0 0
gene 3 1 4 1.44351 0 1 1.44351 1
gene 3 2 4 -0.660046 0 2 -0.660046 1
gene 3 3 4 6.54931 0 3 6.54931 0
gene 3 3 5 -3.35486 0 5 -3.35486 1
gene 3 5 4 3.32556 0 6 3.32556 1
gene 3 1 5 0.442669 0 233 0 1
gene 2 2 5 -0.0201742 0 274 -0.0201742 1
genomeend 21

/* Organism #22 Fitness: 0.00584846 Error: 0.894152 */
genomestart 22
trait 1 0.1 0 0 0 0 0 0 0 
trait 2 0.2 0 0 0 0 0 0 0 
trait 3 0.3 0 0 0 0 0 0 0 
node 1 2 1 1
node 2 1 1 1
node 3 3 1 1
node 4 2 0 2
node 5 2 0 0
gene 3 1 4 -3.50239 0 1 -3.50239 1
gene 1 2 4 -0.951951 0 2 -0.951951 1
gene 3 3 4 6.5374 0 3 6.5374 0
gene 3 3 5 -2.74271 0 5 -2.74271 1
gene 2 5 4 3.7292 0 6 3.7292 1
gene 3 2 5 2.35662 0 232 2.35662 1
genomeend 22

/* Species #8 : (Size 5) (AF 0.128775) (Age 8)  */


/* Organism #23 Fitness: 0.464682 Error: 0.435318 */
genomestart 23
trait 1 0.1 0 0 0 0 0 0 0 
trait 2 0.2 0 0 0 0 0 0 0 
trait 3 0.325527 0 0 0.0206356 0 0 0 0 
node 1 1 1 1
node 2 2 1 1
node 3 1 1 1
node 4 1 0 2
gene 3 1 4 7.3294 0 1 7.3294 1
gene 2 2 4 -0.787864 0 2 -0.787864 1
gene 2 3 4 2.6841 0 3 2.6841 0
genomeend 23

/* Organism #24 Fitness: 0.0584846 Error: 0.841515 */
genomestart 24
trait 1 0.1 0 0 0 0 0 0 0 
trait 2 0.2 0 0 0 0 0 0 0 
trait 3 0.40066 0 0.105469 0.301142 0 0 0 0 
node 1 1 1 1
node 2 2 1 1
node 3 1 1 1
node 4 1 0 2
node 5 1 0 0
gene 3 1 4 8 0 1 8 1
gene 1 2 4 -1.21059 0 2 -1.21059 1
gene 3 3 4 1.88597 0 3 1.88597 0
gene 3 3 5 3.42601 0 5 3.42601 1
gene 3 5 4 -2.13766 0 6 -2.13766 1
genomeend 24

/* Organism #25 Fitness: 0.0112913 Error: 0.888709 */
genomestart 25
trait 1 0.184644 0 0.00201728 0 0 0 0.0312599 0.0310271 
trait 2 0.2 0 0 0 0 0 0 0 
trait 3 0.3 0 0 0 0 0 0 0 
node 1 2 1 1
node 2 1 1 1
node 3 3 1 1
node 4 2 0 2
node 5 2 0 0
gene 3 1 4 6.17146 0 1 6.17146 1
gene 3 2 4 -1.06808 0 2 -1.06808 1
gene 3 3 4 1.84218 0 3 1.84218 0
gene 3 3 5 1.23961 0 5 1.23961 1
gene 2 5 4 -5.66105 0 6 -5.66105 1
gene 3 2 5 2.31621 0 69 2.31621 1
gene 2 1 5 3.14559 0 179 3.14559 1
genomeend 25

/* Organism #26 Fitness: 0.0509314 Error: 0.849069 */
genomestart 26
trait 1 0.1 0 0 0 0 0 0 0 
trait 2 0.2 0 0 0 0 0 0 0 
trait 3 0.3 0 0 0 0 0 0 0 
node 1 2 1 1
node 2 1 1 1
node 3 3 1 1
node 4 2 0 2
node 5 1 0 0
gene 3 1 4 8 0 1 8 1
gene 3 2 4 0.50561 0 2 0.50561 1
gene 3 3 4 2.0847 0 3 2.0847 1
gene 1 3 5 0.536263 0 5 0.536263 1
gene 1 5 4 3.33567 0 6 3.33567 1
gene 3 2 5 3.19628 0 69 3.19628 1
gene 2 1 5 -4.85127 0 179 -4.85127 1
genomeend 26

/* Organism #27 Fitness: 0.0584846 Error: 0.841515 */
genomestart 27
trait 1 0.1 0 0 0 0 0 0 0 
trait 2 0.2 0 0 0 0 0 0 0 
trait 3 0.3 0 0 0 0 0 0 0 
node 1 3 1 1
node 2 3 1 1
node 3 1 1 1
node 4 2 0 2
node 9 1 0 0
gene 1 1 4 8 0 1 8 1
gene 1 2 4 0.726656 0 2 0.726656 1
gene 2 3 4 1.7206 0 3 1.7206 0
gene 2 3 9 1.93983 0 46 1.93983 1
gene 2 9 4 0.958933 0 47 0.958933 1
gene 2 2 9 4.91228 0 139 4.91228 1
genomeend 27

/* Species #11 : (Size 4) (AF 0.286587) (Age 8)  */


/* Organism #28 Fitness: 0.00584846 Error: 0.894152 */
genomestart 28
trait 1 0.126126 0 0.783269 0 0 0.432169 0 0 
trait 2 0.2 0 0 0 0 0 0 0 
trait 3 0.3 0 0.0364848 0 0 0 0 0 
node 1 2 1 1
node 2 1 1 1
node 3 3 1 1
node 4 2 0 2
node 5 1 0 0
gene 2 1 4 -1.86763 0 1 -1.86763 1
gene 2 2 4 2.42124 0 2 2.42124 1
gene 2 3 4 0.838409 0 3 0.838409 0
gene 3 3 5 -3.20714 0 5 -3.20714 1
gene 3 5 4 -4.14247 0 6 -4.14247 1
gene 2 2 5 -3.31549 0 180 -3.31549 1
genomeend 28

/* Organism #29 Fitness: 0.449589 Error: 0.450411 */
genomestart 29
trait 1 0.126126 0 0 0 0 0 0 0 
trait 2 0.2 0 0 0 0 0 0 0 
trait 3 0.3 0 0.0364848 0 0 0 0 0 
node 1 2 1 1
node 2 1 1 1
node 3 3 1 1
node 4 2 0 2
node 5 1 0 0
gene 2 1 4 -0.493794 0 1 -0.493794 1
gene 2 2 4 3.43577 0 2 3.43577 1
gene 2 3 4 1.9538 0 3 1.9538 0
gene 3 3 5 -0.136307 0 5 -0.136307 1
gene 3 5 4 -4.57726 0 6 -4.57726 1
gene 2 2 5 0.286039 0 180 0.286039 1
genomeend 29

/* Organism #30 Fitness: 0.448974 Error: 0.451026 */
genomestart 30
trait 1 0.1 0 0 0 0 0 0 0 
trait 2 0.2 0 0 0 0 0 0 0 
trait 3 0.3 0 0 0 0 0 0 0 
node 1 2 1 1
node 2 1 1 1
node 3 3 1 1
node 4 2 0 2
node 5 1 0 0
gene 3 1 4 0.386838 0 1 0.386838 1
gene 3 2 4 4.17706 0 2 4.17706 1
gene 3 3 4 2.95655 0 3 2.95655 1
gene 3 3 5 0.331727 0 5 0.331727 1
gene 2 5 4 -0.242185 0 6 -0.242185 1
gene 3 1 5 4.60588 0 113 4.60588 1
gene 2 2 5 -0.0409491 0 180 -0.0409491 1
genomeend 30

/* Organism #31 Fitness: 0.241937 Error: 0.658063 */
genomestart 31
trait 1 0.1 0 0 0 0 0 0 0 
trait 2 0.2 0 0 0 0 0 0 0 
trait 3 0.3 0 0 0 0 0 0 0 
node 1 2 1 1
node 2 1 1 1
node 3 3 1 1
node 4 2 0 2
node 5 1 0 0
gene 3 1 4 4.19681 0 1 4.19681 1
gene 3 2 4 2.1905 0 2 2.1905 1
gene 3 3 4 2.42274 0 3 2.42274 1
gene 3 3 5 -0.697637 0 5 -0.697637 1
gene 3 5 4 -4.75236 0 6 -4.75236 1
gene 2 2 5 -3.19175 0 180 -3.19175 1
genomeend 31

/* Species #13 : (Size 1) (AF 0.00560172) (Age 8)  */


/* Organism #32 Fitness: 0.00560172 Error: 0.894398 */
genomestart 32
trait 1 0.1 0 0 0 0 0 0 0 
trait 2 0 0 0 0 0 0 0 0.453678 
trait 3 0.3 0 0 0 0 0 0 0 
node 1 1 1 1
node 2 3 1 1
node 3 1 1 1
node 4 1 0 2
gene 3 1 4 4.16936 0 1 4.16936 1
gene 2 2 4 -0.726153 0 2 -0.726153 1
gene 3 3 4 -8 0 3 -8 1
gene 3 4 4 -3.38517 1 234 -3.38517 1
genomeend 32

/* Species #15 : (Size 2) (AF 0.442161) (Age 8)  */


/* Organism #33 Fitness: 0.437597 Error: 0.462403 */
genomestart 33
trait 1 0.184644 0 0.00201728 0 0 0 0.0312599 0.0310271 
trait 2 0.2 0 0 0 0 0 0 0 
trait 3 0.3 0 0 0 0 0 0 0 
node 1 3 1 1
node 2 2 1 1
node 3 2 1 1
node 4 2 0 2
node 5 1 0 0
gene 3 1 4 2.7257 0 1 2.7257 1
gene 3 2 4 1.66644 0 2 1.66644 1
gene 3 3 4 1.66519 0 3 1.66519 0
gene 3 3 5 -3.11115 0 5 -3.11115 1
gene 3 5 4 2.09436 0 6 2.09436 1
gene 3 2 5 2.72933 0 144 2.72933 1
genomeend 33

/* Organism #34 Fitness: 0.446725 Error: 0.453275 */
genomestart 34
trait 1 0.196737 0 0.00201728 0 0.119096 0 0.0952085 0.0310271 
trait 2 0.2 0 0 0 0 0 0 0 
trait 3 0.28125 0 0 0 0 0 0 0.0409003 
node 1 2 1 1
node 2 2 1 1
node 3 2 1 1
node 4 2 0 2
gene 3 1 4 -0.861498 0 1 -0.861498 1
gene 1 2 4 1.54505 0 2 1.54505 1
gene 2 3 4 0.825361 0 3 0.825361 1
genomeend 34

/* Species #21 : (Size 4) (AF 0.497695) (Age 8)  */


/* Organism #35 Fitness: 0.490747 Error: 0.409253 */
genomestart 35
trait 1 0.1 0 0 0 0 0 0 0 
trait 2 0.2 0 0 0 0 0 0 0 
trait 3 0.3 0 0 0 0 0 0 0 
node 1 1 1 1
node 2 3 1 1
node 3 1 1 1
node 4 1 0 2
gene 3 1 4 1.3247 0 1 1.3247 1
gene 2 2 4 -0.726153 0 2 -0.726153 1
gene 3 3 4 -8 0 3 -8 1
gene 3 4 4 0.0358686 1 234 0.0358686 1
genomeend 35

/* Organism #36 Fitness: 0.527291 Error: 0.372709 */
genomestart 36
trait 1 0.1 0 0 0 0 0 0 0 
trait 2 0.2 0 0 0 0 0 0 0 
trait 3 0.3 0 0 0 0 0 0 0 
node 1 1 1 1
node 2 3 1 1
node 3 1 1 1
node 4 1 0 2
gene 3 1 4 1.3247 0 1 1.3247 1
gene 2 2 4 -0.726153 0 2 -0.726153 1
gene 3 3 4 -8 0 3 -8 1
gene 3 4 4 0.0358686 1 234 0.0358686 1
genomeend 36

/* Organism #37 Fitness: 0.446609 Error: 0.453391 */
genomestart 37
trait 1 0.1 0 0 0 0 0 0 0 
trait 2 0.2 0 0 0 0 0 0 0 
trait 3 0 0.586474 0 0.227483 0 0 0 0 
node 1 2 1 1
node 2 1 1 1
node 3 3 1 1
node 4 2 0 2
node 5 1 0 0
gene 3 1 4 0.189654 0 1 0.189654 1
gene 3 2 4 -1.1714 0 2 -1.1714 1
gene 3 3 4 -8 0 3 -8 0
gene 3 3 5 5.98891 0 5 5.98891 1
gene 3 5 4 -1.62878 0 6 -1.62878 1
gene 3 2 5 -0.240401 0 69 -0.240401 1
genomeend 37

/* Organism #38 Fitness: 0.526132 Error: 0.373868 */
genomestart 38
trait 1 0.1 0 0 0 0 0 0 0 
trait 2 0.2 0 0 0 0 0 0 0 
trait 3 0.3 0 0 0 0 0 0 0 
node 1 1 1 1
node 2 2 1 1
node 3 1 1 1
node 4 1 0 2
node 9 1 0 0
gene 2 1 4 1.40131 0 1 1.40131 1
gene 1 2 4 -0.69691 0 2 -0.69691 1
gene 2 3 4 -8 0 3 -8 1
gene 2 3 9 -1.40624 0 46 -1.40624 1
gene 2 9 4 -0.0319348 0 47 -0.0319348 1
gene 2 2 9 -4.24009 0 139 -4.24009 1
genomeend 38

/* Species #22 : (Size 1) (AF 0.347756) (Age 8)  */


/* Organism #39 Fitness: 0.347756 Error: 0.552244 */
genomestart 39
trait 1 0.367466 0 0 0 0.213333 0 0.112891 0 
trait 2 0.075 0.0177622 0 0 0 0 0 0.240038 
trait 3 0.2625 0 0.0833719 0 0 0 0.0712136 0 
node 1 2 1 1
node 2 3 1 1
node 3 3 1 1
node 4 2 0 2
node 15 1 0 0
gene 3 1 4 4.06563 0 1 4.06563 1
gene 1 2 4 4.18517 0 2 4.18517 0
gene 3 3 4 -5.38895 0 3 -5.38895 0
gene 1 2 15 1.61948 0 89 1.61948 1
gene 1 15 4 3.6902 0 90 3.6902 1
gene 2 1 15 -1.05259 0 213 -1.05259 0
gene 3 3 15 -0.316887 0 275 -0.316887 1
genomeend 39

/* Species #24 : (Size 4) (AF 0.207371) (Age 8)  */


/* Organism #40 Fitness: 0.345669 Error: 0.554331 */
genomestart 40
trait 1 0.1 0 0 0 0 0 0 0 
trait 2 0.2 0.209834 0.219667 0 0 0 0 0 
trait 3 0.3 0 0 0 0 0 0 0 
node 1 2 1 1
node 2 1 1 1
node 3 3 1 1
node 4 2 0 2
node 5 1 0 0
gene 2 1 4 7.84838 0 1 7.84838 1
gene 3 2 4 -1.20337 0 2 -1.20337 1
gene 3 3 4 6.76207 0 3 6.76207 0
gene 3 3 5 4.05961 0 5 4.05961 1
gene 3 5 4 -4.46635 0 6 -4.46635 1
gene 3 2 5 2.23457 0 69 2.23457 1
gene 2 1 5 -0.383107 0 179 0 1
genomeend 40

/* Organism #41 Fitness: 0.0699353 Error: 0.830065 */
genomestart 41
trait 1 0.1 0 0 0 0 0 0 0 
trait 2 0.2 0.209834 0.219667 0 0 0 0 0 
trait 3 0.3 0 0 0 0 0 0 0 
node 1 2 1 1
node 2 1 1 1
node 3 3 1 1
node 4 2 0 2
node 5 1 0 0
gene 2 1 4 8 0 1 8 1
gene 3 2 4 -1.30939 0 2 -1.30939 1
gene 3 3 4 3.70727 0 3 3.70727 0
gene 3 3 5 7.93377 0 5 7.93377 1
gene 3 5 4 -3.30432 0 6 -3.30432 1
gene 3 2 5 6.01808 0 69 6.01808 1
gene 2 1 5 0.931643 0 179 0.931643 1
genomeend 41

/* Organism #42 Fitness: 0.353815 Error: 0.546185 */
genomestart 42
trait 1 0.1 0 0 0 0 0 0 0 
trait 2 0.2 0.209834 0.219667 0 0 0 0 0 
trait 3 0.3 0 0 0 0 0 0 0 
node 1 2 1 1
node 2 1 1 1
node 3 3 1 1
node 4 2 0 2
node 5 1 0 0
gene 2 1 4 7.84838 0 1 7.84838 1
gene 3 2 4 -1.20337 0 2 -1.20337 1
gene 3 3 4 6.76207 0 3 6.76207 0
gene 3 3 5 4.05961 0 5 4.05961 1
gene 3 5 4 -4.46635 0 6 -4.46635 1
gene 3 2 5 2.23457 0 69 2.23457 1
gene 2 1 5 -0.383107 0 179 0 1
genomeend 42

/* Organism #43 Fitness: 0.0600629 Error: 0.839937 */
genomestart 43
trait 1 0.1 0 0 0 0 0 0 0 
trait 2 0.2 0 0 0 0 0 0 0 
trait 3 0.124752 0 0.111325 0 0 0 0 0 
node 1 2 1 1
node 2 1 1 1
node 3 3 1 1
node 4 2 0 2
node 5 1 0 0
gene 3 1 4 8 0 1 8 1
gene 3 2 4 -1.58017 0 2 -1.58017 1
gene 3 3 4 3.9677 0 3 3.9677 0
gene 3 3 5 0.655222 0 5 0.655222 1
gene 3 5 4 -4.94348 0 6 -4.94348 1
gene 3 2 5 2.53971 0 69 2.53971 1
genomeend 43

/* Species #25 : (Size 3) (AF 0.366332) (Age 8)  */


/* Organism #44 Fitness: 0.404824 Error: 0.495176 */
genomestart 44
trait 1 0.1 0 0 0 0 0 0 0 
trait 2 0.2 0 0 0 0 0 0 0 
trait 3 0.3 0 0 0 0 0 0 0 
node 1 2 1 1
node 2 1 1 1
node 3 3 1 1
node 4 2 0 2
node 5 1 0 0
gene 3 1 4 2.50653 0 1 2.50653 1
gene 3 2 4 3.07755 0 2 3.07755 1
gene 3 3 4 -5.05232 0 3 -5.05232 1
gene 3 3 5 -4.57081 0 5 -4.57081 1
gene 3 5 4 -1.41014 0 6 -1.41014 1
gene 3 2 5 -0.898783 0 69 -0.898783 1
gene 2 1 5 -0.383107 0 179 0 1
genomeend 44

/* Organism #45 Fitness: 0.438768 Error: 0.461232 */
genomestart 45
trait 1 0.1 0 0 0 0 0 0 0 
trait 2 0.2 0 0 0 0 0 0 0 
trait 3 0.3 0 0 0 0 0 0 0 
node 1 2 1 1
node 2 1 1 1
node 3 3 1 1
node 4 2 0 2
node 5 1 0 0
gene 3 1 4 2.50653 0 1 2.50653 1
gene 3 2 4 3.07755 0 2 3.07755 1
gene 3 3 4 -5.05232 0 3 -5.05232 0
gene 3 3 5 -4.57081 0 5 -4.57081 1
gene 3 5 4 -1.41014 0 6 -1.41014 1
gene 3 2 5 -0.898783 0 69 -0.898783 1
gene 2 1 5 -0.383107 0 179 0 1
genomeend 45

/* Organism #46 Fitness: 0.255406 Error: 0.644594 */
genomestart 46
trait 1 0.1 0 0 0 0 0 0 0 
trait 2 0.0433736 0 0 0.585032 0.334137 0 0 0 
trait 3 0.3 0 0 0 0 0 0 0 
node 1 2 1 1
node 2 1 1 1
node 3 3 1 1
node 4 2 0 2
node 5 1 0 0
gene 3 1 4 2.25556 0 1 2.25556 1
gene 3 2 4 3.21874 0 2 3.21874 1
gene 3 3 4 -7.80784 0 3 -7.80784 1
gene 3 3 5 -4.16921 0 5 -4.16921 1
gene 3 5 4 -1.85584 0 6 -1.85584 1
gene 2 2 5 4.45049 0 180 4.45049 1
genomeend 46

/* Species #30 : (Size 2) (AF 0.533034) (Age 8)  */


/* Organism #47 Fitness: 0.555733 Error: 0.344267 */
genomestart 47
trait 1 0.1 0 0 0 0 0 0 0 
trait 2 0.2 0 0 0 0 0 0 0 
trait 3 0.3 0 0 0 0 0 0 0 
node 1 2 1 1
node 2 2 1 1
node 3 3 1 1
node 4 3 0 2
gene 1 1 4 7.35966 0 1 7.35966 1
gene 1 2 4 -7.78759 0 2 -7.78759 1
gene 3 3 4 3.81106 0 3 3.81106 0
genomeend 47

/* Organism #48 Fitness: 0.510335 Error: 0.389665 */
genomestart 48
trait 1 0.1 0 0 0 0 0 0 0 
trait 2 0.66208 0 0.616866 0 0.60427 0 0 0 
trait 3 0.3 0 0 0 0 0 0 0 
node 1 2 1 1
node 2 1 1 1
node 3 3 1 1
node 4 2 0 2
node 5 1 0 0
gene 3 1 4 6.17517 0 1 6.17517 1
gene 3 2 4 -5.14907 0 2 -5.14907 1
gene 3 3 4 5.3035 0 3 5.3035 0
gene 3 3 5 -0.524652 0 5 -0.524652 1
gene 3 5 4 0.760935 0 6 0.760935 1
gene 3 2 5 8 0 69 8 1
genomeend 48

/* Species #31 : (Size 2) (AF 0.535203) (Age 8)  */


/* Organism #49 Fitness: 0.491419 Error: 0.408581 */
genomestart 49
trait 1 0.1 0 0 0 0 0 0 0 
trait 2 0.2 0 0 0 0 0 0 0 
trait 3 0.3 0 0 0 0 0 0 0 
node 1 2 1 1
node 2 1 1 1
node 3 3 1 1
node 4 2 0 2
node 5 1 0 0
gene 3 1 4 6.84338 0 1 6.84338 1
gene 3 2 4 0.0565186 0 2 0.0565186 1
gene 3 3 4 -6.10534 0 3 -6.10534 1
gene 3 3 5 -0.828671 0 5 -0.828671 1
gene 3 5 4 1.10748 0 6 1.10748 1
genomeend 49

/* Organism #50 Fitness: 0.578987 Error: 0.321013 */
genomestart 50
trait 1 0.1 0 0 0 0 0 0 0 
trait 2 0.2 0 0 0 0 0 0 0 
trait 3 0.40066 0 0.105469 0.301142 0 0 0 0 
node 1 1 1 1
node 2 2 1 1
node 3 1 1 1
node 4 1 0 2
node 5 1 0 0
gene 3 1 4 6.84338 0 1 6.84338 1
gene 3 2 4 0.0565186 0 2 0.0565186 1
gene 3 3 4 -6.10534 0 3 -6.10534 1
gene 3 3 5 -0.828671 0 5 -0.828671 1
gene 3 5 4 1.10748 0 6 1.10748 1
genomeend 50

/* Species #32 : (Size 3) (AF 0.15298) (Age 8)  */


/* Organism #51 Fitness: 0.447244 Error: 0.452756 */
genomestart 51
trait 1 0.1 0 0 0.161316 0.0641187 0.664936 0 0 
trait 2 0.2 0 0 0 0 0 0 0 
trait 3 0.15 0 0 0 0 0 0 0.327202 
node 1 3 1 1
node 2 2 1 1
node 3 3 1 1
node 4 2 0 2
gene 2 1 4 0.645255 0 1 0.645255 1
gene 3 2 4 -8 0 2 -8 1
gene 3 3 4 8 0 3 8 1
genomeend 51

/* Organism #52 Fitness: 0.00584846 Error: 0.894152 */
genomestart 52
trait 1 0.1 0 0 0.0806579 0.0320593 0.332468 0 0 
trait 2 0.2 0 0 0 0 0 0 0.380717 
trait 3 0.225 0 0 0 0 0 0 0.163601 
node 1 3 1 1
node 2 2 1 1
node 3 3 1 1
node 4 3 0 2
node 5 1 0 0
gene 2 1 4 -2.88492 0 1 -2.88492 1
gene 3 2 4 -8 0 2 -8 1
gene 3 3 4 8 0 3 8 1
gene 3 3 5 3.46965 0 5 3.46965 0
gene 3 5 4 -5.24151 0 6 -5.24151 1
gene 1 2 5 -0.556665 0 69 -0.556665 1
genomeend 52

/* Organism #53 Fitness: 0.00584846 Error: 0.894152 */
genomestart 53
trait 1 0.1 0 0 0 0 0 0 0 
trait 2 0.2 0 0 0 0 0 0 0 
trait 3 0.3 0 0 0 0 0 0 0 
node 1 2 1 1
node 2 1 1 1
node 3 3 1 1
node 4 2 0 2
node 5 1 0 0
gene 3 1 4 -1.12548 0 1 -1.12548 1
gene 3 2 4 -0.00476502 0 2 -0.00476502 1
gene 3 3 4 7.92139 0 3 7.92139 0
gene 3 3 5 5.51815 0 5 5.51815 1
gene 3 5 4 -8 0 6 -8 1
gene 3 2 5 -1.55013 0 69 -1.55013 1
genomeend 53

/* Species #37 : (Size 4) (AF 0.43794) (Age 8)  */


/* Organism #54 Fitness: 0.491992 Error: 0.408008 */
genomestart 54
trait 1 0.1 0 0 0 0 0 0 0 
trait 2 0.2 0 0 0 0 0 0 0 
trait 3 0.3 0 0 0 0 0 0 0 
node 1 3 1 1
node 2 2 1 1
node 3 1 1 1
node 4 2 0 2
node 9 1 0 0
gene 1 1 4 2.95524 0 1 2.95524 1
gene 1 2 4 -8 0 2 -8 1
gene 2 3 4 -4.46286 0 3 -4.46286 0
gene 3 3 9 6.00135 0 46 6.00135 1
gene 2 9 4 -1.13233 0 47 -1.13233 1
genomeend 54

/* Organism #55 Fitness: 0.453483 Error: 0.446517 */
genomestart 55
trait 1 0.106531 0.016872 0 0 0 0 0 0.256033 
trait 2 0.258234 0 0 0 0 0 0 0.0314568 
trait 3 0.271875 0 0.00912119 0 0 0 0 0.0613504 
node 1 2 1 1
node 2 1 1 1
node 3 3 1 1
node 4 2 0 2
node 5 1 0 0
gene 3 1 4 2.37509 0 1 2.37509 1
gene 3 2 4 -8 0 2 -8 1
gene 3 3 4 -4.57346 0 3 -4.57346 0
gene 3 3 5 5.74358 0 5 5.74358 1
gene 3 5 4 -0.0736179 0 6 -0.0736179 1
gene 2 2 5 -0.0201742 0 274 0 1
genomeend 55

/* Organism #56 Fitness: 0.253975 Error: 0.646025 */
genomestart 56
trait 1 0.1 0 0 0 0 0 0 0 
trait 2 0.2 0 0.335203 0 0.237161 0 0 0 
trait 3 0.3 0 0 0 0 0 0 0 
node 1 1 1 1
node 2 1 1 1
node 3 3 1 1
node 4 2 0 2
node 5 1 0 0
gene 3 1 4 4.0826 0 1 4.0826 1
gene 3 2 4 -8 0 2 -8 1
gene 3 3 4 -2.75807 0 3 -2.75807 1
gene 3 3 5 7.79668 0 5 7.79668 1
gene 3 5 4 0.232573 0 6 0.232573 1
gene 2 4 4 -0.0940476 1 192 -0.0940476 1
gene 3 1 5 -3.65346 0 233 -3.65346 1
genomeend 56

/* Organism #57 Fitness: 0.55231 Error: 0.34769 */
genomestart 57
trait 1 0.1 0 0 0 0 0 0 0 
trait 2 0.2 0 0 0 0 0 0 0 
trait 3 0 0 0 0 0.985764 0 0 0 
node 1 2 1 1
node 2 1 1 1
node 3 3 1 1
node 4 2 0 2
node 5 1 0 0
gene 3 1 4 2.68 0 1 2.68 1
gene 3 2 4 -8 0 2 -8 1
gene 3 3 4 -4.77524 0 3 -4.77524 0
gene 3 3 5 2.21473 0 5 2.21473 1
gene 3 5 4 -1.67634 0 6 -1.67634 1
gene 3 2 5 -8 0 69 -8 1
genomeend 57

/* Species #38 : (Size 2) (AF 0.152986) (Age 8)  */


/* Organism #58 Fitness: 0.169525 Error: 0.730475 */
genomestart 58
trait 1 0.1 0 0 0 0 0 0 0 
trait 2 0.2 0 0.335203 0 0.237161 0 0 0 
trait 3 0.3 0 0 0 0 0 0 0 
node 1 2 1 1
node 2 1 1 1
node 3 3 1 1
node 4 2 0 2
node 5 1 0 0
gene 3 1 4 3.39079 0 1 3.39079 1
gene 3 2 4 -8 0 2 -8 1
gene 3 3 4 1.40799 0 3 1.40799 1
gene 3 3 5 5.2034 0 5 5.2034 1
gene 3 5 4 -2.80644 0 6 -2.80644 1
gene 2 4 4 -0.154724 1 192 -0.154724 1
gene 3 1 5 0.442669 0 233 0 1
genomeend 58

/* Organism #59 Fitness: 0.136448 Error: 0.763552 */
genomestart 59
trait 1 0.1 0 0 0 0 0 0 0 
trait 2 0.2 0 0 0 0 0 0 0 
trait 3 0.492805 0 0.860118 0.0226825 0 0 0 0 
node 1 2 1 1
node 2 1 1 1
node 3 3 1 1
node 4 2 0 2
node 5 1 0 0
gene 3 1 4 3.99792 0 1 3.99792 1
gene 3 2 4 -7.98347 0 2 -7.98347 1
gene 3 3 4 1.81907 0 3 1.81907 0
gene 3 3 5 3.35261 0 5 3.35261 1
gene 3 5 4 -3.19971 0 6 -3.19971 1
gene 2 5 5 0.445546 1 181 0.445546 1
genomeend 59

/* Species #41 : (Size 4) (AF 0.248865) (Age 8)  */


/* Organism #60 Fitness: 0.237597 Error: 0.662403 */
genomestart 60
trait 1 0.109465 0 0.0125025 0.00595959 0 0 0.00764725 0.0587568 
trait 2 0.2 0 0 0 0 0 0 0 
trait 3 0.290625 0 0.00666261 0 0 0.00455523 0 0.0204501 
node 1 2 1 1
node 2 2 1 1
node 3 3 1 1
node 4 3 0 2
gene 1 1 4 4.39748 0 1 4.39748 1
gene 3 2 4 -8 0 2 -8 1
gene 2 3 4 8 0 3 8 0
genomeend 60

/* Organism #61 Fitness: 0.189302 Error: 0.710698 */
genomestart 61
trait 1 0.109465 0 0.0125025 0.00595959 0 0 0.00764725 0.0587568 
trait 2 0.2 0 0 0 0 0 0 0 
trait 3 0.290625 0 0.00666261 0 0 0.00455523 0 0.0204501 
node 1 2 1 1
node 2 2 1 1
node 3 3 1 1
node 4 3 0 2
gene 1 1 4 4.39748 0 1 4.39748 1
gene 3 2 4 -8 0 2 -8 1
gene 2 3 4 8 0 3 8 0
genomeend 61

/* Organism #62 Fitness: 0.19731 Error: 0.70269 */
genomestart 62
trait 1 0.109465 0 0.0125025 0.00595959 0 0 0.00764725 0.0587568 
trait 2 0.2 0 0 0 0 0 0 0 
trait 3 0.290625 0 0.00666261 0 0 0.00455523 0 0.0204501 
node 1 2 1 1
node 2 2 1 1
node 3 3 1 1
node 4 3 0 2
gene 1 1 4 4.39748 0 1 4.39748 1
gene 1 2 4 -8 0 2 -8 1
gene 2 3 4 8 0 3 8 0
genomeend 62

/* Organism #63 Fitness: 0.371253 Error: 0.528747 */
genomestart 63
trait 1 0.1 0 0 0 0 0 0 0 
trait 2 0.2 0 0 0 0 0 0 0 
trait 3 0.3 0 0 0 0 0 0 0 
node 1 2 1 1
node 2 1 1 1
node 3 3 1 1
node 4 2 0 2
node 5 1 0 0
gene 3 1 4 5.53607 0 1 5.53607 1
gene 3 2 4 -4.54187 0 2 -4.54187 1
gene 3 3 4 8 0 3 8 0
gene 3 3 5 -3.99952 0 5 -3.99952 1
gene 2 5 4 7.00605 0 6 7.00605 1
gene 3 2 5 2.13007 0 69 2.13007 1
genomeend 63

/* Species #42 : (Size 1) (AF 0.0102849) (Age 8)  */


/* Organism #64 Fitness: 0.0102849 Error: 0.889715 */
genomestart 64
trait 1 0.1 0 0 0 0 0 0 0 
trait 2 0.2 0 0 0 0 0 0 0 
trait 3 0.3 0 0 0 0 0 0 0 
node 1 2 1 1
node 2 1 1 1
node 3 3 1 1
node 4 2 0 2
node 5 1 0 0
gene 3 1 4 -0.399606 0 1 -0.399606 1
gene 3 2 4 0.339289 0 2 0.339289 1
gene 3 3 4 -0.144337 0 3 -0.144337 0
gene 3 3 5 5.62828 0 5 5.62828 1
gene 3 5 4 -3.69341 0 6 -3.69341 1
gene 1 2 5 -3.98775 0 54 -3.98775 1
gene 1 5 5 -2.079 1 74 -2.079 1
gene 2 1 5 -0.0829159 0 143 -0.0829159 1
genomeend 64

/* Species #56 : (Size 1) (AF 0.401438) (Age 7)  */


/* Organism #65 Fitness: 0.401438 Error: 0.498562 */
genomestart 65
trait 1 0.1 0 0 0 0 0 0 0 
trait 2 0.2 0 0 0 0 0 0 0 
trait 3 0.492805 0 0.860118 0.0226825 0 0 0 0 
node 1 2 1 1
node 2 1 1 1
node 3 3 1 1
node 4 2 0 2
node 5 1 0 0
node 29 1 0 0
gene 3 1 4 7.74886 0 1 7.74886 0
gene 3 2 4 -8 0 2 -8 1
gene 3 3 4 -0.456634 0 3 -0.456634 0
gene 3 3 5 3.94623 0 5 3.94623 1
gene 3 5 4 -4.86467 0 6 -4.86467 1
gene 2 5 5 -0.047324 1 181 -0.047324 1
gene 3 1 29 1 0 286 0 1
gene 3 29 4 7.74886 0 287 0 1
genomeend 65

/* Species #58 : (Size 2) (AF 0.543516) (Age 7)  */


/* Organism #66 Fitness: 0.496712 Error: 0.403288 */
genomestart 66
trait 1 0.1 0 0 0 0 0 0 0 
trait 2 0.2 0 0 0 0 0 0 0 
trait 3 0.3 0 0 0 0 0 0 0 
node 1 2 1 1
node 2 3 1 1
node 3 3 1 1
node 4 2 0 2
node 15 1 0 0
gene 3 1 4 6.69629 0 1 6.69629 1
gene 1 2 4 6.79372 0 2 6.79372 1
gene 2 3 4 2.83316 0 3 2.83316 1
gene 1 2 15 -3.63558 0 89 -3.63558 1
gene 1 15 4 2.28715 0 90 2.28715 1
gene 2 3 15 -3.56145 0 250 -3.56145 1
genomeend 66

/* Organism #67 Fitness: 0.59032 Error: 0.30968 */
genomestart 67
trait 1 0.1 0 0 0 0 0 0 0 
trait 2 0.2 0 0 0 0 0 0 0 
trait 3 0.3 0 0 0 0 0 0 0 
node 1 2 1 1
node 2 1 1 1
node 3 3 1 1
node 4 2 0 2
node 5 1 0 0
gene 3 1 4 7.14669 0 1 7.14669 1
gene 3 2 4 6.05497 0 2 6.05497 1
gene 3 3 4 3.90759 0 3 3.90759 1
gene 3 3 5 -4.61029 0 5 -4.61029 1
gene 1 5 4 8 0 6 8 1
gene 3 2 5 -1.43162 0 69 -1.43162 1
genomeend 67

/* Species #61 : (Size 9) (AF 0.320045) (Age 7)  */


/* Organism #68 Fitness: 0.227921 Error: 0.672079 */
genomestart 68
trait 1 0.1 0.14311 0 0 0 0 0.173294 0.0762786 
trait 2 0.225882 0 0 0 0 0 0 0.0139808 
trait 3 0.3 0 0 0 0 0 0 0 
node 1 3 1 1
node 2 2 1 1
node 3 2 1 1
node 4 2 0 2
gene 3 1 4 2.52212 0 1 2.52212 1
gene 1 2 4 7.88197 0 2 7.88197 1
gene 3 3 4 -8 0 3 -8 1
genomeend 68

/* Organism #69 Fitness: 0.00584846 Error: 0.894152 */
genomestart 69
trait 1 0.1 0.14311 0 0 0 0 0.173294 0.0762786 
trait 2 0.225882 0 0 0 0 0 0 0.0139808 
trait 3 0.3 0 0 0 0 0 0 0 
node 1 3 1 1
node 2 2 1 1
node 3 2 1 1
node 4 2 0 2
gene 3 1 4 -3.50668 0 1 -3.50668 1
gene 1 2 4 5.08054 0 2 5.08054 1
gene 3 3 4 -8 0 3 -8 1
genomeend 69

/* Organism #70 Fitness: 0.384838 Error: 0.515162 */
genomestart 70
trait 1 0.1 0.14311 0 0 0 0 0.173294 0.0762786 
trait 2 0.225882 0 0 0 0 0 0 0.0139808 
trait 3 0.3 0 0 0 0 0 0 0 
node 1 3 1 1
node 2 2 1 1
node 3 2 1 1
node 4 2 0 2
gene 3 1 4 2.27228 0 1 2.27228 1
gene 1 2 4 5.08054 0 2 5.08054 1
gene 3 3 4 -8 0 3 -8 1
genomeend 70

/* Organism #71 Fitness: 0.203501 Error: 0.696499 */
genomestart 71
trait 1 0.1 0.14311 0 0 0 0 0.173294 0.0762786 
trait 2 0.225882 0 0 0 0 0 0 0.0139808 
trait 3 1 0.829912 0.803055 0 0 0 0 0 
node 1 3 1 1
node 2 2 1 1
node 3 2 1 1
node 4 2 0 2
gene 3 1 4 4.40037 0 1 4.40037 1
gene 1 2 4 3.57162 0 2 3.57162 1
gene 3 3 4 -8 0 3 -8 1
genomeend 71

/* Organism #72 Fitness: 0.445179 Error: 0.454821 */
genomestart 72
trait 1 0.1 0 0 0 0 0 0 0 
trait 2 0.2 0 0 0 0 0 0 0 
trait 3 0.3 0 0 0 0 0 0 0 
node 1 2 1 1
node 2 1 1 1
node 3 3 1 1
node 4 2 0 2
node 5 3 0 0
gene 3 1 4 0.573015 0 1 0.573015 1
gene 3 2 4 4.75231 0 2 4.75231 1
gene 3 3 4 -8 0 3 -8 0
gene 3 3 5 -3.14803 0 5 -3.14803 1
gene 2 5 4 -1.64185 0 6 -1.64185 1
gene 3 2 5 7.20142 0 69 7.20142 1
gene 2 1 5 0.95357 0 273 0 1
genomeend 72

/* Organism #73 Fitness: 0.409282 Error: 0.490718 */
genomestart 73
trait 1 0.1 0 0 0 0 0 0 0 
trait 2 0.2 0 0 0 0 0 0 0 
trait 3 0.3 0 0 0 0 0 0 0 
node 1 2 1 1
node 2 1 1 1
node 3 3 1 1
node 4 2 0 2
node 5 3 0 0
gene 3 1 4 1.66242 0 1 1.66242 1
gene 3 2 4 2.75033 0 2 2.75033 1
gene 3 3 4 -8 0 3 -8 0
gene 3 3 5 -0.497022 0 5 -0.497022 1
gene 2 5 4 -4.60256 0 6 -4.60256 1
gene 3 2 5 3.66883 0 69 3.66883 1
genomeend 73

/* Organism #74 Fitness: 0.537771 Error: 0.362229 */
genomestart 74
trait 1 0.1 0 0 0 0 0 0 0 
trait 2 0.2 0 0 0 0 0 0 0 
trait 3 0.3 0 0 0 0 0 0 0 
node 1 2 1 1
node 2 1 1 1
node 3 3 1 1
node 4 2 0 2
node 5 3 0 0
gene 3 1 4 1.66242 0 1 1.66242 1
gene 3 2 4 2.75033 0 2 2.75033 1
gene 3 3 4 -8 0 3 -8 0
gene 3 3 5 -0.497022 0 5 -0.497022 1
gene 2 5 4 -4.60256 0 6 -4.60256 1
gene 3 2 5 3.66883 0 69 3.66883 1
genomeend 74

/* Organism #75 Fitness: 0.369318 Error: 0.530682 */
genomestart 75
trait 1 0.1 0 0 0 0 0 0 0 
trait 2 0.2 0 0 0 0 0 0 0 
trait 3 0.3 0 0 0 0 0 0 0 
node 1 2 1 1
node 2 2 1 1
node 3 1 1 1
node 4 1 0 2
node 5 1 0 0
gene 2 1 4 2.14932 0 1 2.14932 1
gene 3 2 4 6.2269 0 2 6.2269 1
gene 1 3 4 -6.83825 0 3 -6.83825 1
gene 3 3 5 2.64662 0 5 2.64662 1
gene 3 5 4 1.73953 0 6 1.73953 1
gene 1 2 5 -3.63955 0 26 -3.63955 1
genomeend 75

/* Organism #76 Fitness: 0.296746 Error: 0.603254 */
genomestart 76
trait 1 0.1 0 0 0 0 0 0 0 
trait 2 0.2 0 0 0 0 0 0 0 
trait 3 0.3 0 0 0 0 0 0 0 
node 1 2 1 1
node 2 1 1 1
node 3 3 1 1
node 4 2 0 2
node 5 1 0 0
gene 3 1 4 1.55935 0 1 1.55935 1
gene 3 2 4 4.96665 0 2 4.96665 1
gene 3 3 4 -6.54584 0 3 -6.54584 0
gene 3 3 5 2.69713 0 5 2.69713 1
gene 3 5 4 -3.58272 0 6 -3.58272 1
gene 3 2 5 2.4081 0 144 2.4081 1
genomeend 76

/* Species #63 : (Size 4) (AF 0.237067) (Age 7)  */


/* Organism #77 Fitness: 0.442523 Error: 0.457477 */
genomestart 77
trait 1 0.1 0 0 0 0 0 0 0 
trait 2 0.2 0 0 0 0 0 0 0 
trait 3 0.3 0 0 0 0 0 0 0 
node 1 1 1 1
node 2 2 1 1
node 3 1 1 1
node 4 1 0 2
node 5 1 0 0
gene 2 1 4 0.0072739 0 1 0.0072739 1
gene 3 2 4 8 0 2 8 1
gene 1 3 4 -8 0 3 -8 0
gene 3 3 5 8 0 5 8 1
gene 3 5 4 0.612854 0 6 0.612854 1
gene 1 2 5 -2.97604 0 26 -2.97604 1
genomeend 77

/* Organism #78 Fitness: 0.00598793 Error: 0.894012 */
genomestart 78
trait 1 0.1 0 0 0 0 0 0 0 
trait 2 0.2 0 0 0 0 0 0 0 
trait 3 0.3 0 0 0 0 0 0 0 
node 1 1 1 1
node 2 2 1 1
node 3 1 1 1
node 4 1 0 2
node 5 1 0 0
gene 2 1 4 -0.723957 0 1 -0.723957 1
gene 1 2 4 5.90385 0 2 5.90385 1
gene 1 3 4 -4.94679 0 3 -4.94679 0
gene 3 3 5 8 0 5 8 1
gene 3 5 4 -2.10327 0 6 -2.10327 1
gene 1 2 5 -6.51062 0 26 -6.51062 1
gene 2 1 5 0.95357 0 273 0 1
genomeend 78

/* Organism #79 Fitness: 0.185324 Error: 0.714676 */
genomestart 79
trait 1 0.1 0 0 0 0 0 0 0 
trait 2 0.2 0 0 0 0 0 0 0 
trait 3 0.3 0 0 0 0 0 0 0 
node 1 2 1 1
node 2 2 1 1
node 3 1 1 1
node 4 1 0 2
node 5 2 0 0
gene 2 1 4 3.79112 0 1 3.79112 1
gene 3 2 4 8 0 2 8 1
gene 1 3 4 -2.73981 0 3 -2.73981 0
gene 3 3 5 8 0 5 8 1
gene 3 5 4 -3.55979 0 6 -3.55979 1
gene 1 2 5 -4.09848 0 26 -4.09848 1
gene 2 1 5 -3.24264 0 143 -3.24264 1
genomeend 79

/* Organism #80 Fitness: 0.314434 Error: 0.585566 */
genomestart 80
trait 1 0.1 0 0 0 0 0 0 0 
trait 2 0.2 0 0 0 0 0 0 0 
trait 3 0.3 0 0 0 0 0 0 0 
node 1 2 1 1
node 2 2 1 1
node 3 1 1 1
node 4 1 0 2
node 5 2 0 0
gene 2 1 4 0.496608 0 1 0.496608 1
gene 3 2 4 8 0 2 8 1
gene 1 3 4 -5.75381 0 3 -5.75381 0
gene 3 3 5 8 0 5 8 1
gene 3 5 4 -6.28873 0 6 -6.28873 1
gene 1 2 5 -0.258273 0 26 -0.258273 1
gene 2 1 5 -4.89383 0 143 -4.89383 1
genomeend 80

/* Species #64 : (Size 6) (AF 0.431814) (Age 7)  */


/* Organism #81 Fitness: 0.599725 Error: 0.300275 */
genomestart 81
trait 1 0.118929 0 0 0 0 0 0.0152945 0.0124108 
trait 2 0.2 0 0 0 0 0 0 0 
trait 3 0.3 0 0 0 0 0 0 0 
node 1 2 1 1
node 2 1 1 1
node 3 3 1 1
node 4 2 0 2
gene 3 1 4 3.03354 0 1 3.03354 1
gene 2 2 4 5.82825 0 2 5.82825 1
gene 3 3 4 3.39149 0 3 3.39149 0
genomeend 81

/* Organism #82 Fitness: 0.571144 Error: 0.328856 */
genomestart 82
trait 1 0.109465 0 0 0 0 0 0.00764725 0.00620542 
trait 2 0.2 0 0 0 0 0 0 0 
trait 3 0.3 0 0 0 0 0 0 0 
node 1 2 1 1
node 2 1 1 1
node 3 3 1 1
node 4 2 0 2
gene 3 1 4 3.03354 0 1 3.03354 1
gene 2 2 4 5.82825 0 2 5.82825 1
gene 3 3 4 3.39149 0 3 3.39149 0
genomeend 82

/* Organism #83 Fitness: 0.485188 Error: 0.414812 */
genomestart 83
trait 1 0.109465 0 0 0 0 0 0.00764725 0.00620542 
trait 2 0.2 0 0 0 0 0 0 0 
trait 3 0.3 0 0 0 0 0 0 0 
node 1 2 1 1
node 2 1 1 1
node 3 3 1 1
node 4 2 0 2
gene 3 1 4 1.31855 0 1 1.31855 1
gene 2 2 4 8 0 2 8 1
gene 2 3 4 8 0 3 8 0
genomeend 83

/* Organism #84 Fitness: 0.00584846 Error: 0.894152 */
genomestart 84
trait 1 0.109465 0 0 0 0 0 0.00764725 0.00620542 
trait 2 0.2 0 0 0 0 0 0 0 
trait 3 0.3 0 0 0 0 0 0 0 
node 1 3 1 1
node 2 3 1 1
node 3 2 1 1
node 4 2 0 2
gene 3 1 4 -1.88549 0 1 -1.88549 1
gene 2 2 4 7.46228 0 2 7.46228 1
gene 2 3 4 7.31461 0 3 7.31461 0
genomeend 84

/* Organism #85 Fitness: 0.441276 Error: 0.458724 */
genomestart 85
trait 1 0.1 0 0 0 0 0 0 0 
trait 2 0.2 0 0 0 0 0 0 0 
trait 3 0.3 0 0 0 0 0 0 0 
node 1 2 1 1
node 2 1 1 1
node 3 3 1 1
node 4 2 0 2
node 5 1 0 0
gene 3 1 4 -0.491234 0 1 -0.491234 1
gene 3 2 4 5.64859 0 2 5.64859 1
gene 3 3 4 6.82452 0 3 6.82452 0
gene 3 3 5 5.62244 0 5 5.62244 1
gene 3 5 4 -1.82216 0 6 -1.82216 1
gene 2 2 5 4.24797 0 180 4.24797 1
genomeend 85

/* Organism #86 Fitness: 0.487702 Error: 0.412298 */
genomestart 86
trait 1 0.1 0 0 0 0 0 0 0 
trait 2 0.2 0 0 0 0 0 0 0 
trait 3 0.3 0 0 0 0 0 0 0 
node 1 2 1 1
node 2 1 1 1
node 3 3 1 1
node 4 2 0 2
node 5 3 0 0
gene 2 1 4 1.69304 0 1 1.69304 1
gene 3 2 4 5.23911 0 2 5.23911 1
gene 2 3 4 4.6177 0 3 4.6177 0
gene 3 3 5 -8 0 5 -8 1
gene 3 5 4 3.04436 0 6 3.04436 1
genomeend 86

/* Species #66 : (Size 3) (AF 0.489154) (Age 7)  */


/* Organism #87 Fitness: 0.447581 Error: 0.452419 */
genomestart 87
trait 1 0.118929 0.0715552 0 0 0 0 0.101942 0.0505502 
trait 2 0.212941 0 0 0 0 0 0 0.00699039 
trait 3 0.3 0 0 0 0 0 0 0 
node 1 1 1 1
node 2 2 1 1
node 3 1 1 1
node 4 1 0 2
node 9 1 0 0
gene 3 1 4 6.84671 0 1 6.84671 1
gene 1 2 4 5.59238 0 2 5.59238 1
gene 3 3 4 -8 0 3 -8 1
gene 2 3 9 3.57522 0 46 3.57522 1
gene 3 9 4 -6.69269 0 47 -6.69269 1
gene 3 2 9 2.41064 0 129 2.41064 1
genomeend 87

/* Organism #88 Fitness: 0.481974 Error: 0.418026 */
genomestart 88
trait 1 0.137858 0 0 0 0 0 0.030589 0.0248217 
trait 2 0.2 0 0 0 0 0 0 0 
trait 3 0.3 0 0 0 0 0 0 0 
node 1 1 1 1
node 2 2 1 1
node 3 1 1 1
node 4 1 0 2
node 9 1 0 0
gene 3 1 4 6.84671 0 1 6.84671 1
gene 1 2 4 5.59238 0 2 5.59238 1
gene 2 3 4 -5.20583 0 3 -5.20583 0
gene 2 3 9 3.57522 0 46 3.57522 1
gene 3 9 4 -6.69269 0 47 -6.69269 1
gene 3 2 9 2.41064 0 129 2.41064 1
genomeend 88

/* Organism #89 Fitness: 0.537907 Error: 0.362093 */
genomestart 89
trait 1 0.137858 0 0 0 0 0 0.030589 0.0248217 
trait 2 0.2 0 0 0 0 0 0 0 
trait 3 0.3 0 0 0 0 0 0 0 
node 1 1 1 1
node 2 2 1 1
node 3 1 1 1
node 4 1 0 2
node 9 1 0 0
gene 3 1 4 6.84671 0 1 6.84671 1
gene 1 2 4 5.59238 0 2 5.59238 1
gene 2 3 4 -5.20583 0 3 -5.20583 0
gene 2 3 9 3.57522 0 46 3.57522 1
gene 3 9 4 -6.69269 0 47 -6.69269 1
gene 3 2 9 2.41064 0 129 2.41064 1
genomeend 89

/* Species #76 : (Size 6) (AF 0.367307) (Age 7)  */


/* Organism #90 Fitness: 0.445263 Error: 0.454737 */
genomestart 90
trait 1 0.1 0 0 0 0 0 0 0 
trait 2 0.2 0 0 0 0 0 0 0 
trait 3 0.3 0 0 0 0 0 0 0 
node 1 1 1 1
node 2 3 1 1
node 3 1 1 1
node 4 1 0 2
node 5 1 0 0
gene 3 1 4 5.85779 0 1 5.85779 1
gene 2 2 4 -2.78568 0 2 -2.78568 1
gene 3 3 4 -0.992213 0 3 -0.992213 0
gene 3 3 5 -8 0 5 -8 1
gene 3 5 4 0.437376 0 6 0.437376 1
gene 3 2 5 1.21117 0 69 1.21117 1
gene 2 1 5 0.284771 0 179 0.284771 1
genomeend 90

/* Organism #91 Fitness: 0.00584846 Error: 0.894152 */
genomestart 91
trait 1 0.1 0 0 0 0 0 0 0 
trait 2 0.2 0 0 0 0 0 0 0 
trait 3 0.3 0 0 0 0 0 0 0 
node 1 1 1 1
node 2 3 1 1
node 3 1 1 1
node 4 1 0 2
node 5 1 0 0
gene 3 1 4 -2.09812 0 1 -2.09812 1
gene 2 2 4 -1.79923 0 2 -1.79923 1
gene 3 3 4 -0.027145 0 3 -0.027145 0
gene 3 3 5 -8 0 5 -8 1
gene 3 5 4 -0.193262 0 6 -0.193262 1
gene 3 2 5 0.27195 0 69 0.27195 1
gene 2 1 5 2.23793 0 179 2.23793 1
genomeend 91

/* Organism #92 Fitness: 0.366908 Error: 0.533092 */
genomestart 92
trait 1 0.1 0 0 0 0 0 0 0 
trait 2 0.2 0 0 0 0 0 0 0 
trait 3 0.3 0 0 0 0 0 0 0 
node 1 1 1 1
node 2 3 1 1
node 3 1 1 1
node 4 1 0 2
node 5 1 0 0
gene 3 1 4 1.54484 0 1 1.54484 1
gene 2 2 4 -3.04269 0 2 -3.04269 1
gene 3 3 4 -0.992213 0 3 -0.992213 0
gene 3 3 5 -7.90291 0 5 -7.90291 1
gene 3 5 4 -1.74511 0 6 -1.74511 1
gene 3 2 5 1.60396 0 69 1.60396 1
gene 2 1 5 -0.383107 0 179 0 1
genomeend 92

/* Organism #93 Fitness: 0.490892 Error: 0.409108 */
genomestart 93
trait 1 0.1 0 0 0 0 0 0 0 
trait 2 0.2 0 0 0 0 0 0 0 
trait 3 0.3 0 0 0 0 0 0 0 
node 1 2 1 1
node 2 1 1 1
node 3 3 1 1
node 4 2 0 2
node 5 1 0 0
gene 3 1 4 7.96361 0 1 7.96361 1
gene 3 2 4 -6.36291 0 2 -6.36291 1
gene 3 3 4 -0.992213 0 3 -0.992213 0
gene 3 3 5 -8 0 5 -8 1
gene 3 5 4 -2.2243 0 6 -2.2243 1
gene 3 2 5 5.13984 0 69 5.13984 1
gene 2 1 5 -0.383107 0 179 0 1
genomeend 93

/* Organism #94 Fitness: 0.479379 Error: 0.420621 */
genomestart 94
trait 1 0.1 0 0 0 0 0 0 0 
trait 2 0.2 0 0 0 0 0 0 0 
trait 3 0.3 0 0 0 0 0 0 0 
node 1 2 1 1
node 2 1 1 1
node 3 3 1 1
node 4 2 0 2
node 5 1 0 0
gene 3 1 4 7.96361 0 1 7.96361 1
gene 3 2 4 -6.36291 0 2 -6.36291 1
gene 3 3 4 -0.992213 0 3 -0.992213 0
gene 3 3 5 -8 0 5 -8 1
gene 3 5 4 -2.2243 0 6 -2.2243 1
gene 3 2 5 5.13984 0 69 5.13984 1
gene 2 1 5 -0.383107 0 179 0 1
genomeend 94

/* Organism #95 Fitness: 0.415549 Error: 0.484451 */
genomestart 95
trait 1 0.1 0 0 0 0 0 0 0 
trait 2 0.2 0 0 0 0 0 0 0 
trait 3 0.3 0 0 0 0 0 0 0 
node 1 2 1 1
node 2 1 1 1
node 3 3 1 1
node 4 2 0 2
node 5 1 0 0
gene 3 1 4 7.96361 0 1 7.96361 1
gene 3 2 4 -6.36291 0 2 -6.36291 1
gene 3 3 4 -0.992213 0 3 -0.992213 0
gene 3 3 5 -8 0 5 -8 1
gene 3 5 4 -2.2243 0 6 -2.2243 1
gene 3 2 5 5.13984 0 69 5.13984 1
gene 2 1 5 -0.383107 0 179 0 1
genomeend 95

/* Species #78 : (Size 1) (AF 0.457228) (Age 7)  */


/* Organism #96 Fitness: 0.457228 Error: 0.442772 */
genomestart 96
trait 1 0.1 0 0 0 0 0 0 0 
trait 2 0.2 0 0 0 0 0 0 0 
trait 3 0.3 0 0 0 0 0 0 0 
node 1 2 1 1
node 2 1 1 1
node 3 3 1 1
node 4 2 0 2
node 5 1 0 0
gene 3 1 4 5.7776 0 1 5.7776 1
gene 3 2 4 0.714491 0 2 0.714491 1
gene 3 3 4 1.47022 0 3 1.47022 0
gene 3 3 5 -3.78454 0 5 -3.78454 1
gene 1 5 4 -0.555109 0 6 -0.555109 1
gene 3 2 5 -3.70138 0 69 -3.70138 1
gene 3 5 5 -0.269873 1 160 -0.269873 1
gene 2 1 5 -0.383107 0 179 0 1
gene 1 4 4 0.0602231 1 239 0.0602231 1
genomeend 96

/* Species #82 : (Size 2) (AF 0.444351) (Age 7)  */


/* Organism #97 Fitness: 0.448974 Error: 0.451026 */
genomestart 97
trait 1 0.1 0 0 0 0 0 0 0 
trait 2 0.2 0 0 0 0 0 0 0 
trait 3 0.3 0 0 0 0 0 0 0 
node 1 2 1 1
node 2 1 1 1
node 3 3 1 1
node 4 2 0 2
node 5 1 0 0
gene 3 1 4 0.736063 0 1 0.736063 1
gene 3 2 4 8 0 2 8 1
gene 3 3 4 5.69349 0 3 5.69349 0
gene 3 3 5 -1.36431 0 5 -1.36431 1
gene 3 5 4 -0.796897 0 6 -0.796897 1
gene 1 2 5 3.58441 0 54 3.58441 1
gene 3 5 5 -0.2439 1 190 -0.2439 1
genomeend 97

/* Organism #98 Fitness: 0.439729 Error: 0.460271 */
genomestart 98
trait 1 0.1 0 0 0 0 0 0 0 
trait 2 0.2 0 0 0 0 0 0 0 
trait 3 0.3 0 0 0 0 0 0 0 
node 1 2 1 1
node 2 1 1 1
node 3 3 1 1
node 4 2 0 2
node 5 1 0 0
gene 3 1 4 0.736063 0 1 0.736063 1
gene 3 2 4 8 0 2 8 1
gene 3 3 4 5.69349 0 3 5.69349 1
gene 3 3 5 -1.36431 0 5 -1.36431 1
gene 3 5 4 -0.796897 0 6 -0.796897 1
gene 1 2 5 3.58441 0 54 3.58441 1
gene 3 5 5 -0.2439 1 190 -0.2439 1
genomeend 98

/* Species #84 : (Size 1) (AF 0.439878) (Age 7)  */


/* Organism #99 Fitness: 0.439878 Error: 0.460122 */
genomestart 99
trait 1 0.1 0 0 0 0 0 0 0 
trait 2 0.2 0 0 0 0 0 0 0 
trait 3 0.3 0 0 0 0 0 0 0 
node 1 2 1 1
node 2 1 1 1
node 3 3 1 1
node 4 2 0 2
node 5 1 0 0
gene 3 1 4 0.0409949 0 1 0.0409949 0
gene 3 2 4 8 0 2 8 1
gene 3 3 4 1.49301 0 3 1.49301 1
gene 3 3 5 2.66874 0 5 2.66874 1
gene 2 5 4 -0.703796 0 6 -0.703796 1
gene 2 4 4 -0.0486896 1 125 -0.0486896 1
gene 1 5 5 0.988286 1 191 0.988286 1
gene 3 2 5 -0.259405 0 232 0 1
genomeend 99

/* Species #90 : (Size 6) (AF 0.283446) (Age 7)  */


/* Organism #100 Fitness: 0.00584846 Error: 0.894152 */
genomestart 100
trait 1 0.1 0 0 0 0 0 0 0 
trait 2 0.2 0 0 0 0 0 0 0 
trait 3 0.3 0 0 0 0 0 0 0 
node 1 2 1 1
node 2 1 1 1
node 3 3 1 1
node 4 2 0 2
node 5 1 0 0
gene 3 1 4 -1.42395 0 1 -1.42395 1
gene 3 2 4 1.89685 0 2 1.89685 1
gene 3 3 4 -3.77091 0 3 -3.77091 0
gene 3 3 5 0.076658 0 5 0.076658 1
gene 3 5 4 -0.939658 0 6 -0.939658 1
gene 1 2 5 6.76733 0 54 6.76733 1
genomeend 100

/* Organism #101 Fitness: 0.00584846 Error: 0.894152 */
genomestart 101
trait 1 0.1 0 0 0 0 0 0 0 
trait 2 0.2 0 0 0 0 0 0 0 
trait 3 0.3 0 0 0 0 0 0 0 
node 1 2 1 1
node 2 3 1 1
node 3 3 1 1
node 4 2 0 2
node 15 1 0 0
gene 3 1 4 -1.7799 0 1 -1.7799 1
gene 1 2 4 -1.37938 0 2 -1.37938 1
gene 2 3 4 -3.60581 0 3 -3.60581 1
gene 1 2 15 -8 0 89 -8 1
gene 1 15 4 -3.52328 0 90 -3.52328 1
genomeend 101

/* Organism #102 Fitness: 0.359593 Error: 0.540407 */
genomestart 102
trait 1 0.1 0 0 0 0 0 0 0 
trait 2 0.2 0 0 0 0 0 0 0 
trait 3 0.3 0 0 0 0 0 0 0 
node 1 2 1 1
node 2 1 1 1
node 3 3 1 1
node 4 2 0 2
node 5 1 0 0
gene 2 1 4 -3.31382 0 1 -3.31382 1
gene 3 2 4 -0.041686 0 2 -0.041686 1
gene 3 3 4 -3.26513 0 3 -3.26513 0
gene 3 3 5 -0.48427 0 5 -0.48427 1
gene 3 5 4 -2.74836 0 6 -2.74836 1
gene 3 2 5 -4.41384 0 69 -4.41384 0
gene 2 1 5 -0.994565 0 143 -0.994565 1
genomeend 102

/* Organism #103 Fitness: 0.443623 Error: 0.456377 */
genomestart 103
trait 1 0.1 0 0 0 0 0 0 0 
trait 2 0.20647 0 0 0 0 0 0 0.00349519 
trait 3 0.326914 0 0.212985 0 0.0926722 0 0 0 
node 1 3 1 1
node 2 1 1 1
node 3 3 1 1
node 4 1 0 2
node 5 1 0 0
gene 2 1 4 -1.90141 0 1 -1.90141 0
gene 3 2 4 -0.17211 0 2 -0.17211 1
gene 3 3 4 -1.2133 0 3 -1.2133 0
gene 3 3 5 2.26508 0 5 2.26508 1
gene 2 5 4 -0.642815 0 6 -0.642815 1
gene 3 5 5 0.242461 1 298 0.242461 1
genomeend 103

/* Organism #104 Fitness: 0.445361 Error: 0.454639 */
genomestart 104
trait 1 0 0.540585 0.329652 0.431812 0 0 0 0 
trait 2 0.20647 0 0 0 0 0 0 0.00349519 
trait 3 0.326914 0 0.212985 0 0.0926722 0 0 0 
node 1 3 1 1
node 2 1 1 1
node 3 3 1 1
node 4 1 0 2
node 5 1 0 0
gene 2 1 4 -1.90141 0 1 -1.90141 0
gene 3 2 4 -0.17211 0 2 -0.17211 1
gene 3 3 4 -1.2133 0 3 -1.2133 0
gene 3 3 5 2.26508 0 5 2.26508 1
gene 2 5 4 -0.642815 0 6 -0.642815 1
genomeend 104

/* Organism #105 Fitness: 0.440402 Error: 0.459598 */
genomestart 105
trait 1 0.196745 0 0 0 0.952771 0 0.511588 0 
trait 2 0.2 0 0 0 0 0 0 0 
trait 3 0.3 0 0 0 0 0 0 0 
node 1 2 1 1
node 2 1 1 1
node 3 3 1 1
node 4 2 0 2
node 5 1 0 0
gene 3 1 4 -0.241166 0 1 -0.241166 1
gene 3 2 4 -1.25952 0 2 -1.25952 1
gene 3 3 4 -1.94743 0 3 -1.94743 0
gene 3 3 5 0.357581 0 5 0.357581 1
gene 3 5 4 -2.44569 0 6 -2.44569 1
gene 2 2 5 -1.55749 0 180 -1.55749 1
genomeend 105

/* Species #91 : (Size 2) (AF 0.387056) (Age 7)  */


/* Organism #106 Fitness: 0.357324 Error: 0.542676 */
genomestart 106
trait 1 0.1 0 0 0 0 0 0 0 
trait 2 0.2 0 0 0 0 0 0 0 
trait 3 0.3 0 0 0 0 0 0 0 
node 1 2 1 1
node 2 1 1 1
node 3 3 1 1
node 4 2 0 2
node 5 1 0 0
gene 3 1 4 -0.2875 0 1 -0.2875 1
gene 3 2 4 6.02036 0 2 6.02036 1
gene 3 3 4 3.59399 0 3 3.59399 1
gene 3 3 5 8 0 5 8 1
gene 3 5 4 -3.44849 0 6 -3.44849 1
gene 2 1 5 -0.383107 0 179 0 1
gene 3 2 5 -0.259405 0 232 0 1
gene 1 5 5 -0.0832089 1 276 -0.0832089 1
genomeend 106

/* Organism #107 Fitness: 0.416788 Error: 0.483212 */
genomestart 107
trait 1 0.1 0 0 0 0 0 0 0 
trait 2 0.2 0 0 0 0 0 0 0 
trait 3 0.3 0 0 0 0 0 0 0 
node 1 2 1 1
node 2 1 1 1
node 3 3 1 1
node 4 2 0 2
node 5 1 0 0
gene 3 1 4 -0.2875 0 1 -0.2875 1
gene 3 2 4 6.02036 0 2 6.02036 1
gene 3 3 4 3.59399 0 3 3.59399 1
gene 3 3 5 8 0 5 8 1
gene 3 5 4 -3.44849 0 6 -3.44849 1
gene 2 1 5 -0.383107 0 179 0 1
gene 3 2 5 -0.259405 0 232 0 1
genomeend 107

/* Species #93 : (Size 5) (AF 0.301447) (Age 7)  */


/* Organism #108 Fitness: 0.396436 Error: 0.503564 */
genomestart 108
trait 1 0.184644 0 0.00201728 0 0 0 0.0312599 0.0310271 
trait 2 0.2 0 0 0 0 0 0 0 
trait 3 0.3 0 0 0 0 0 0 0 
node 1 2 1 1
node 2 1 1 1
node 3 3 1 1
node 4 2 0 2
node 5 2 0 0
gene 3 1 4 2.16249 0 1 2.16249 1
gene 3 2 4 -0.544436 0 2 -0.544436 1
gene 3 3 4 0.670693 0 3 0.670693 0
gene 3 3 5 5.29869 0 5 5.29869 1
gene 2 5 4 -2.27017 0 6 -2.27017 1
gene 3 2 5 2.84491 0 69 2.84491 1
gene 2 1 5 -0.383107 0 179 0 1
genomeend 108

/* Organism #109 Fitness: 0.266749 Error: 0.633251 */
genomestart 109
trait 1 0.1 0 0 0 0 0 0 0 
trait 2 0.2 0 0 0 0 0 0 0 
trait 3 0.3 0 0 0 0 0 0 0 
node 1 2 1 1
node 2 1 1 1
node 3 3 1 1
node 4 2 0 2
node 5 1 0 0
gene 3 1 4 6.32195 0 1 6.32195 1
gene 3 2 4 4.58386 0 2 4.58386 1
gene 3 3 4 1.00336 0 3 1.00336 0
gene 3 3 5 6.7248 0 5 6.7248 1
gene 3 5 4 -3.46185 0 6 -3.46185 1
gene 3 2 5 4.6249 0 69 4.6249 1
gene 2 1 5 -0.383107 0 179 0 1
gene 1 4 4 -0.6 1 277 -0.6 1
genomeend 109

/* Organism #110 Fitness: 0.346002 Error: 0.553998 */
genomestart 110
trait 1 0.1 0 0 0 0 0 0 0 
trait 2 0.2 0 0 0 0.472111 0 0 0 
trait 3 0.3 0 0 0 0 0 0 0 
node 1 2 1 1
node 2 2 1 1
node 3 1 1 1
node 4 1 0 2
node 5 1 0 0
gene 2 1 4 4.80368 0 1 4.80368 1
gene 3 2 4 5.65649 0 2 5.65649 1
gene 1 3 4 1.99831 0 3 1.99831 0
gene 3 3 5 6.79792 0 5 6.79792 1
gene 3 5 4 -3.50778 0 6 -3.50778 1
gene 1 2 5 -1.04822 0 26 -1.04822 0
genomeend 110

/* Organism #111 Fitness: 0.138567 Error: 0.761433 */
genomestart 111
trait 1 0.1 0 0 0 0 0 0 0 
trait 2 0.2 0 0 0 0 0 0 0 
trait 3 0.3 0 0 0 0 0 0 0 
node 1 2 1 1
node 2 1 1 1
node 3 3 1 1
node 4 2 0 2
node 5 1 0 0
gene 3 1 4 3.74842 0 1 3.74842 1
gene 1 2 4 4.70096 0 2 4.70096 1
gene 3 3 4 2.35195 0 3 2.35195 0
gene 3 3 5 6.70782 0 5 6.70782 1
gene 3 5 4 -3.27852 0 6 -3.27852 1
genomeend 111

/* Organism #112 Fitness: 0.35948 Error: 0.54052 */
genomestart 112
trait 1 0.1 0 0 0 0 0 0 0 
trait 2 0.2 0 0 0 0 0 0 0 
trait 3 0.3 0 0 0 0 0 0 0 
node 1 2 1 1
node 2 2 1 1
node 3 1 1 1
node 4 1 0 2
node 5 1 0 0
gene 2 1 4 6.11795 0 1 6.11795 1
gene 3 2 4 4.92293 0 2 4.92293 1
gene 1 3 4 1.97772 0 3 1.97772 0
gene 3 3 5 5.12181 0 5 5.12181 1
gene 3 5 4 -3.83134 0 6 -3.83134 1
gene 1 2 5 -4.72768 0 26 -4.72768 0
gene 3 5 5 -2.24281 1 79 -2.24281 0
genomeend 112

/* Species #95 : (Size 1) (AF 0.210227) (Age 7)  */


/* Organism #113 Fitness: 0.210227 Error: 0.689773 */
genomestart 113
trait 1 0.1 0 0.0380309 0 0 0.381444 0 0.543585 
trait 2 0.2 0 0 0 0 0 0 0 
trait 3 0.3 0 0 0 0 0 0 0 
node 1 1 1 1
node 2 3 1 1
node 3 1 1 1
node 4 1 0 2
node 9 1 0 0
gene 2 1 4 2.06217 0 1 2.06217 1
gene 2 2 4 3.73395 0 2 3.73395 1
gene 2 3 4 -3.55427 0 3 -3.55427 0
gene 2 3 9 -3.19926 0 46 -3.19926 1
gene 2 9 4 2.42571 0 47 2.42571 1
gene 2 2 9 -2.6471 0 70 -2.6471 1
genomeend 113

/* Species #97 : (Size 1) (AF 0.00584846) (Age 7)  */


/* Organism #114 Fitness: 0.00584846 Error: 0.894152 */
genomestart 114
trait 1 0.1 0 0 0 0 0 0 0 
trait 2 0.2 0 0 0 0 0 0 0 
trait 3 0.3 0 0 0 0 0 0 0 
node 1 2 1 1
node 2 1 1 1
node 3 3 1 1
node 4 2 0 2
node 5 2 0 0
gene 3 1 4 -3.19656 0 1 -3.19656 1
gene 1 2 4 -1.79222 0 2 -1.79222 1
gene 3 3 4 8 0 3 8 0
gene 3 3 5 -5.66166 0 5 -5.66166 1
gene 2 5 4 8 0 6 8 1
gene 3 2 5 0.0762389 0 232 0.0762389 1
genomeend 114

/* Species #102 : (Size 2) (AF 0.447508) (Age 7)  */


/* Organism #115 Fitness: 0.462879 Error: 0.437121 */
genomestart 115
trait 1 0.1 0 0 0 0 0 0 0 
trait 2 0.2 0 0 0 0 0 0 0 
trait 3 0.3 0 0 0 0 0 0 0 
node 1 2 1 1
node 2 2 1 1
node 3 3 1 1
node 4 2 0 2
node 5 1 0 0
gene 3 1 4 6.87151 0 1 6.87151 1
gene 3 2 4 2.60718 0 2 2.60718 1
gene 3 3 4 -2.78478 0 3 -2.78478 1
gene 3 3 5 0.63677 0 5 0.63677 1
gene 3 5 4 -4.8796 0 6 -4.8796 1
gene 3 1 5 -0.257438 0 113 -0.257438 1
gene 2 2 5 0.286039 0 180 0 1
genomeend 115

/* Organism #116 Fitness: 0.432136 Error: 0.467864 */
genomestart 116
trait 1 0.1 0 0 0 0 0 0 0 
trait 2 0.2 0 0 0 0 0 0 0 
trait 3 0.0570472 0 0.727437 0 0 0 0 0 
node 1 2 1 1
node 2 1 1 1
node 3 3 1 1
node 4 2 0 2
node 5 1 0 0
gene 3 1 4 0.354061 0 1 0.354061 1
gene 3 2 4 -0.844649 0 2 -0.844649 1
gene 3 3 4 -1.53906 0 3 -1.53906 1
gene 3 3 5 -2.99069 0 5 -2.99069 1
gene 2 5 4 -2.20017 0 6 -2.20017 1
gene 3 1 5 -0.0202766 0 113 -0.0202766 1
gene 2 2 5 -0.629705 0 180 -0.629705 1
genomeend 116

/* Species #106 : (Size 2) (AF 0.432692) (Age 6)  */


/* Organism #117 Fitness: 0.444487 Error: 0.455513 */
genomestart 117
trait 1 0.1 0 0 0 0 0 0 0 
trait 2 0.2 0 0 0 0 0 0 0 
trait 3 0.3 0 0 0 0 0 0 0 
node 1 2 1 1
node 2 2 1 1
node 3 1 1 1
node 4 1 0 2
node 5 1 0 0
gene 2 1 4 -0.489804 0 1 -0.489804 1
gene 3 2 4 4.22992 0 2 4.22992 1
gene 1 3 4 -0.836739 0 3 -0.836739 0
gene 3 3 5 6.91084 0 5 6.91084 1
gene 3 5 4 4.88905 0 6 4.88905 1
gene 1 2 5 3.4394 0 26 3.4394 0
genomeend 117

/* Organism #118 Fitness: 0.420897 Error: 0.479103 */
genomestart 118
trait 1 0.1 0 0 0 0 0 0 0 
trait 2 0.2 0 0 0 0 0 0 0 
trait 3 0.3 0 0 0 0 0 0 0 
node 1 2 1 1
node 2 2 1 1
node 3 1 1 1
node 4 1 0 2
node 5 1 0 0
gene 2 1 4 1.08735 0 1 1.08735 1
gene 3 2 4 4.2635 0 2 4.2635 1
gene 1 3 4 -0.836739 0 3 -0.836739 0
gene 3 3 5 8 0 5 8 1
gene 3 5 4 0.200092 0 6 0.200092 1
gene 1 2 5 3.4394 0 26 3.4394 0
gene 2 1 5 0.95357 0 273 0 1
genomeend 118

/* Species #109 : (Size 1) (AF 0.449639) (Age 6)  */


/* Organism #119 Fitness: 0.449639 Error: 0.450361 */
genomestart 119
trait 1 0.1 0 0 0 0 0 0 0 
trait 2 0.2 0 0 0 0 0 0 0 
trait 3 0.209693 0 0.42597 0 0 0 0 0.866795 
node 1 3 1 1
node 2 1 1 1
node 3 3 1 1
node 4 1 0 2
node 6 1 0 0
gene 2 1 4 -4.17749 0 1 -4.17749 0
gene 3 2 4 -1.34182 0 2 -1.34182 1
gene 2 3 4 1.07232 0 3 1.07232 1
gene 2 1 6 8 0 8 8 1
gene 2 6 4 0.0415543 0 9 0.0415543 1
gene 2 2 6 -4.06721 0 241 -4.06721 1
genomeend 119

/* Species #111 : (Size 1) (AF 0.502259) (Age 6)  */


/* Organism #120 Fitness: 0.502259 Error: 0.397741 */
genomestart 120
trait 1 0.1 0 0 0 0 0 0 0 
trait 2 0.2 0 0 0 0 0 0 0 
trait 3 0.3 0 0 0 0 0 0 0 
node 1 1 1 1
node 2 2 1 1
node 3 1 1 1
node 4 1 0 2
node 9 1 0 0
gene 2 1 4 6.04646 0 1 6.04646 1
gene 1 2 4 4.03502 0 2 4.03502 1
gene 2 3 4 -0.0497078 0 3 -0.0497078 1
gene 2 3 9 1.2903 0 46 1.2903 1
gene 2 9 4 -6.76192 0 47 -6.76192 1
gene 2 2 9 0.304804 0 139 0 1
gene 3 1 9 0.071516 0 193 0.071516 1
gene 1 9 9 -0.319619 1 278 -0.319619 1
genomeend 120

/* Species #121 : (Size 2) (AF 0.286101) (Age 6)  */


/* Organism #121 Fitness: 0.186549 Error: 0.713451 */
genomestart 121
trait 1 0.1 0 0 0 0 0 0 0 
trait 2 0.2 0.653186 0.889735 0 0 0 0 0 
trait 3 0.3 0 0 0 0 0 0 0 
node 1 2 1 1
node 2 1 1 1
node 3 3 1 1
node 4 2 0 2
node 5 1 0 0
gene 3 1 4 2.0205 0 1 2.0205 1
gene 3 2 4 -7.03895 0 2 -7.03895 1
gene 3 3 4 0.863816 0 3 0.863816 1
gene 3 3 5 1.10871 0 5 1.10871 1
gene 3 5 4 -7.69688 0 6 -7.69688 1
gene 3 2 5 -0.139529 0 144 -0.139529 1
genomeend 121

/* Organism #122 Fitness: 0.385653 Error: 0.514347 */
genomestart 122
trait 1 0.1 0 0 0 0 0 0 0 
trait 2 0.2 0.653186 0.889735 0 0 0 0 0 
trait 3 0.3 0 0 0 0 0 0 0 
node 1 2 1 1
node 2 1 1 1
node 3 3 1 1
node 4 2 0 2
node 5 1 0 0
gene 3 1 4 1.6668 0 1 1.6668 1
gene 3 2 4 -3.94427 0 2 -3.94427 1
gene 3 3 4 -3.45938 0 3 -3.45938 1
gene 3 3 5 1.10871 0 5 1.10871 1
gene 3 5 4 -8 0 6 -8 1
gene 3 2 5 -2.32962 0 144 -2.32962 1
genomeend 122

/* Species #122 : (Size 3) (AF 0.39455) (Age 6)  */


/* Organism #123 Fitness: 0.415291 Error: 0.484709 */
genomestart 123
trait 1 0.1 0 0 0 0 0 0 0 
trait 2 0.2 0 0 0 0 0 0 0 
trait 3 0.3 0 0 0 0 0 0 0 
node 1 2 1 1
node 2 1 1 1
node 3 3 1 1
node 4 2 0 2
node 5 1 0 0
gene 3 1 4 2.2761 0 1 2.2761 1
gene 3 2 4 6.25371 0 2 6.25371 1
gene 3 3 4 4.98698 0 3 4.98698 0
gene 3 3 5 -0.733893 0 5 -0.733893 1
gene 3 5 4 -1.24636 0 6 -1.24636 1
gene 1 2 5 -0.343317 0 54 -0.343317 1
gene 3 1 5 -0.895313 0 113 0 1
genomeend 123

/* Organism #124 Fitness: 0.359921 Error: 0.540079 */
genomestart 124
trait 1 0.1 0 0 0 0 0 0 0 
trait 2 0.2 0 0 0 0 0 0 0 
trait 3 0.3 0 0 0 0 0 0 0 
node 1 2 1 1
node 2 1 1 1
node 3 3 1 1
node 4 2 0 2
node 5 1 0 0
gene 3 1 4 2.2761 0 1 2.2761 1
gene 3 2 4 6.25371 0 2 6.25371 1
gene 3 3 4 4.98698 0 3 4.98698 0
gene 3 3 5 -0.733893 0 5 -0.733893 1
gene 3 5 4 -1.24636 0 6 -1.24636 1
gene 1 2 5 -0.343317 0 54 -0.343317 1
gene 3 1 5 -0.895313 0 113 0 1
genomeend 124

/* Organism #125 Fitness: 0.408437 Error: 0.491563 */
genomestart 125
trait 1 0.1 0 0 0 0 0 0 0 
trait 2 0.2 0 0 0 0 0 0 0 
trait 3 0.3 0 0 0 0 0 0 0 
node 1 2 1 1
node 2 1 1 1
node 3 3 1 1
node 4 2 0 2
node 5 1 0 0
gene 3 1 4 2.34303 0 1 2.34303 1
gene 3 2 4 4.37806 0 2 4.37806 1
gene 3 3 4 4.9916 0 3 4.9916 0
gene 3 3 5 -3.48479 0 5 -3.48479 1
gene 3 5 4 -0.972817 0 6 -0.972817 1
gene 3 2 5 0.00496449 0 144 0.00496449 1
genomeend 125

/* Species #135 : (Size 1) (AF 0.291809) (Age 6)  */


/* Organism #126 Fitness: 0.291809 Error: 0.608191 */
genomestart 126
trait 1 0.1 0 0 0 0 0 0 0 
trait 2 0.2 0 0 0 0 0 0 0 
trait 3 0.599818 0.932256 0 0 0 0 0.701623 0 
node 1 1 1 1
node 2 1 1 1
node 3 3 1 1
node 4 1 0 2
node 13 1 0 0
gene 2 1 4 1.22745 0 1 1.22745 1
gene 2 2 4 -4.56017 0 2 -4.56017 1
gene 2 3 4 8 0 3 8 1
gene 2 3 13 -5.00224 0 82 -5.00224 1
gene 2 13 4 5.75241 0 83 5.75241 1
gene 3 2 13 -4.02766 0 135 -4.02766 1
genomeend 126

/* Species #139 : (Size 2) (AF 0.446034) (Age 6)  */


/* Organism #127 Fitness: 0.44541 Error: 0.45459 */
genomestart 127
trait 1 0.1 0 0 0 0 0 0 0 
trait 2 0.2 0 0 0 0 0 0 0 
trait 3 0.3 0 0 0 0 0 0 0 
node 1 2 1 1
node 2 3 1 1
node 3 2 1 1
node 4 2 0 2
node 22 1 0 0
gene 2 1 4 -0.5967 0 1 -0.5967 1
gene 3 2 4 4.67233 0 2 4.67233 1
gene 2 3 4 5.26711 0 3 5.26711 0
gene 2 4 4 0.0383432 1 84 0.0383432 1
gene 2 3 22 1 0 197 0 1
gene 2 22 4 5.26711 0 198 0 1
gene 2 2 22 0.0557967 0 242 0 1
gene 1 22 22 0.932924 1 279 0.932924 1
genomeend 127

/* Organism #128 Fitness: 0.446659 Error: 0.453341 */
genomestart 128
trait 1 0.1 0 0 0 0 0 0 0 
trait 2 0.2 0 0 0 0 0 0 0 
trait 3 0.3 0 0 0 0 0 0 0 
node 1 2 1 1
node 2 3 1 1
node 3 2 1 1
node 4 2 0 2
node 22 1 0 0
gene 2 1 4 -0.5967 0 1 -0.5967 1
gene 3 2 4 4.67233 0 2 4.67233 1
gene 2 3 4 5.26711 0 3 5.26711 0
gene 2 4 4 0.0383432 1 84 0.0383432 1
gene 2 3 22 1 0 197 0 1
gene 2 22 4 5.26711 0 198 0 1
gene 2 2 22 0.0557967 0 242 0 1
gene 2 1 22 0.00460189 0 280 0.00460189 1
genomeend 128

/* Species #146 : (Size 2) (AF 0.482825) (Age 6)  */


/* Organism #129 Fitness: 0.561054 Error: 0.338946 */
genomestart 129
trait 1 0.1 0 0 0 0 0 0 0 
trait 2 0.2 0 0.335203 0 0.237161 0 0 0 
trait 3 0.3 0 0 0 0 0 0 0 
node 1 2 1 1
node 2 1 1 1
node 3 3 1 1
node 4 2 0 2
node 5 1 0 0
gene 3 1 4 7.46766 0 1 7.46766 1
gene 3 2 4 -2.69487 0 2 -2.69487 1
gene 3 3 4 8 0 3 8 1
gene 3 3 5 1.98483 0 5 1.98483 1
gene 3 5 4 1.76871 0 6 1.76871 1
gene 1 2 5 1.29355 0 124 1.29355 1
genomeend 129

/* Organism #130 Fitness: 0.404597 Error: 0.495403 */
genomestart 130
trait 1 0.1 0 0 0 0 0 0 0 
trait 2 0.2 0 0.335203 0 0.237161 0 0 0 
trait 3 0.3 0 0 0 0 0 0 0 
node 1 2 1 1
node 2 1 1 1
node 3 3 1 1
node 4 2 0 2
node 5 1 0 0
gene 3 1 4 4.75682 0 1 4.75682 1
gene 3 2 4 -7.4286 0 2 -7.4286 1
gene 3 3 4 5.76326 0 3 5.76326 1
gene 3 3 5 1.19486 0 5 1.19486 1
gene 3 5 4 1.20741 0 6 1.20741 1
gene 1 2 5 1.29355 0 124 1.29355 1
gene 2 1 5 0.95357 0 273 0 1
genomeend 130

/* Species #149 : (Size 2) (AF 0.319181) (Age 6)  */


/* Organism #131 Fitness: 0.225929 Error: 0.674071 */
genomestart 131
trait 1 0.1 0 0 0 0 0 0 0 
trait 2 0.2 0 0 0 0 0 0 0 
trait 3 0.3 0 0 0 0 0 0 0 
node 1 2 1 1
node 2 1 1 1
node 3 3 1 1
node 4 2 0 2
node 5 1 0 0
gene 2 1 4 4.59253 0 1 4.59253 1
gene 3 2 4 2.34767 0 2 2.34767 1
gene 1 3 4 8 0 3 8 0
gene 2 3 5 -2.75541 0 5 -2.75541 1
gene 3 5 4 -3.01845 0 6 -3.01845 1
gene 3 2 5 0.179408 0 144 0.179408 0
genomeend 131

/* Organism #132 Fitness: 0.412434 Error: 0.487566 */
genomestart 132
trait 1 0.1 0 0 0 0 0 0 0 
trait 2 0.2 0 0 0 0 0 0 0 
trait 3 0.3 0 0 0 0 0 0 0 
node 1 2 1 1
node 2 1 1 1
node 3 3 1 1
node 4 2 0 2
node 5 1 0 0
gene 3 1 4 5.92307 0 1 5.92307 1
gene 3 2 4 4.35478 0 2 4.35478 1
gene 1 3 4 1.33483 0 3 1.33483 1
gene 3 3 5 -6.50348 0 5 -6.50348 1
gene 3 5 4 -0.742946 0 6 -0.742946 1
gene 3 2 5 0.98549 0 144 0.98549 1
genomeend 132

/* Species #152 : (Size 1) (AF 0.530305) (Age 6)  */


/* Organism #133 Fitness: 0.530305 Error: 0.369695 */
genomestart 133
trait 1 0.1 0 0 0 0 0 0 0 
trait 2 0.2 0 0 0 0 0 0 0 
trait 3 0.3 0 0 0 0 0 0 0 
node 1 2 1 1
node 2 1 1 1
node 3 3 1 1
node 4 2 0 2
node 5 1 0 0
gene 3 1 4 5.02414 0 1 5.02414 1
gene 3 2 4 -3.88042 0 2 -3.88042 1
gene 3 3 4 6.30498 0 3 6.30498 0
gene 3 3 5 -2.26715 0 5 -2.26715 1
gene 3 5 4 -5.53178 0 6 -5.53178 1
gene 3 2 5 -2.05868 0 69 -2.05868 1
genomeend 133

/* Species #164 : (Size 3) (AF 0.222306) (Age 5)  */


/* Organism #134 Fitness: 0.176911 Error: 0.723089 */
genomestart 134
trait 1 0.1 0 0 0 0 0 0 0 
trait 2 0.2 0 0 0 0 0 0 0 
trait 3 0.3 0 0 0 0 0 0 0 
node 1 2 1 1
node 2 1 1 1
node 3 3 1 1
node 4 2 0 2
node 5 1 0 0
gene 2 1 4 8 0 1 8 1
gene 3 2 4 2.00266 0 2 2.00266 1
gene 3 3 4 4.1164 0 3 4.1164 1
gene 3 3 5 8 0 5 8 1
gene 3 5 4 -2.07298 0 6 -2.07298 1
gene 3 2 5 -0.769782 0 69 -0.769782 1
gene 2 1 5 0.690522 0 143 0.690522 1
genomeend 134

/* Organism #135 Fitness: 0.225372 Error: 0.674628 */
genomestart 135
trait 1 0.1 0 0 0 0 0 0 0 
trait 2 0.2 0 0 0 0 0 0 0 
trait 3 0.3 0 0 0 0 0 0 0 
node 1 2 1 1
node 2 1 1 1
node 3 3 1 1
node 4 2 0 2
node 5 1 0 0
gene 3 1 4 5.03959 0 1 5.03959 1
gene 3 2 4 4.31108 0 2 4.31108 1
gene 3 3 4 6.44432 0 3 6.44432 0
gene 3 3 5 7.4317 0 5 7.4317 1
gene 3 5 4 -5.91985 0 6 -5.91985 1
gene 1 2 5 6.2168 0 54 6.2168 1
gene 2 1 5 -2.5585 0 143 -2.5585 1
genomeend 135

/* Organism #136 Fitness: 0.264635 Error: 0.635365 */
genomestart 136
trait 1 0.1 0 0 0 0 0 0 0 
trait 2 0.2 0 0 0 0 0 0 0 
trait 3 0.3 0 0 0 0 0 0 0 
node 1 2 1 1
node 2 1 1 1
node 3 3 1 1
node 4 2 0 2
node 5 1 0 0
gene 3 1 4 5.03959 0 1 5.03959 1
gene 3 2 4 4.31108 0 2 4.31108 1
gene 3 3 4 6.44432 0 3 6.44432 0
gene 3 3 5 7.4317 0 5 7.4317 1
gene 3 5 4 -5.91985 0 6 -5.91985 1
gene 1 2 5 6.2168 0 54 6.2168 1
gene 2 1 5 -2.5585 0 143 -2.5585 1
genomeend 136

/* Species #168 : (Size 2) (AF 0.166204) (Age 5)  */


/* Organism #137 Fitness: 0.00598793 Error: 0.894012 */
genomestart 137
trait 1 0.1 0 0 0 0 0 0 0 
trait 2 0.2 0 0 0 0 0 0 0 
trait 3 0.300417 0 0 0 0 0.0819753 0 0 
node 1 2 1 1
node 2 2 1 1
node 3 1 1 1
node 4 3 0 2
node 14 1 0 0
gene 3 1 4 7.09404 0 1 7.09404 0
gene 3 2 4 -3.23146 0 2 -3.23146 1
gene 2 3 4 -5.1754 0 3 -5.1754 1
gene 3 1 14 2.18228 0 86 2.18228 1
gene 3 14 4 -2.24697 0 87 -2.24697 1
gene 1 14 14 3.00454 1 203 3.00454 1
genomeend 137

/* Organism #138 Fitness: 0.32642 Error: 0.57358 */
genomestart 138
trait 1 0.1 0 0 0 0 0 0 0 
trait 2 0.2 0 0 0 0 0 0 0 
trait 3 0.300417 0 0 0 0 0.0819753 0 0 
node 1 2 1 1
node 2 2 1 1
node 3 1 1 1
node 4 1 0 2
node 14 1 0 0
gene 3 1 4 6.61226 0 1 6.61226 0
gene 3 2 4 -0.556934 0 2 -0.556934 1
gene 2 3 4 -6.13197 0 3 -6.13197 1
gene 3 1 14 0.259051 0 86 0.259051 1
gene 3 14 4 0.746491 0 87 0.746491 1
gene 1 14 14 0.968656 1 203 0.968656 1
gene 2 4 4 0.372082 1 282 0.372082 1
genomeend 138

/* Species #170 : (Size 1) (AF 0.445994) (Age 5)  */


/* Organism #139 Fitness: 0.445994 Error: 0.454006 */
genomestart 139
trait 1 0.096875 0 0 0.0047905 0 0.0197409 0 0.0283751 
trait 2 0.2 0 0 0 0 0 0 0 
trait 3 0.3 0 0 0 0.147794 0 0 0 
node 1 2 1 1
node 2 1 1 1
node 3 3 1 1
node 4 3 0 2
node 5 1 0 0
gene 3 1 4 -0.977967 0 1 -0.977967 1
gene 3 2 4 0.556097 0 2 0.556097 1
gene 2 3 4 -5.41428 0 3 -5.41428 0
gene 3 3 5 3.32169 0 5 3.32169 1
gene 3 5 4 -0.948253 0 6 -0.948253 1
gene 3 2 5 0.667274 0 144 0.963565 1
genomeend 139

/* Species #171 : (Size 2) (AF 0.242131) (Age 5)  */


/* Organism #140 Fitness: 0.478275 Error: 0.421725 */
genomestart 140
trait 1 0.126126 0 0 0 0 0 0 0 
trait 2 0.2 0 0 0 0 0 0 0 
trait 3 0.3 0 0.0364848 0 0 0 0 0 
node 1 2 1 1
node 2 1 1 1
node 3 3 1 1
node 4 2 0 2
node 5 1 0 0
gene 2 1 4 1.20012 0 1 1.20012 1
gene 2 2 4 1.06906 0 2 1.06906 1
gene 2 3 4 3.72774 0 3 3.72774 0
gene 3 3 5 3.52225 0 5 3.52225 1
gene 3 5 4 -6.59542 0 6 -6.59542 1
gene 2 2 5 -3.85928 0 180 -3.85928 1
genomeend 140

/* Organism #141 Fitness: 0.00598793 Error: 0.894012 */
genomestart 141
trait 1 0.1 0 0 0 0 0 0 0 
trait 2 0.2 0 0 0 0 0 0 0 
trait 3 0.3 0 0 0 0 0 0 0 
node 1 2 1 1
node 2 1 1 1
node 3 3 1 1
node 4 2 0 2
node 5 1 0 0
gene 3 1 4 -0.435781 0 1 -0.435781 1
gene 3 2 4 2.29429 0 2 2.29429 1
gene 3 3 4 3.1055 0 3 3.1055 0
gene 3 3 5 5.84697 0 5 5.84697 1
gene 3 5 4 -7.78841 0 6 -7.78841 1
gene 2 1 5 0.95357 0 273 0 1
genomeend 141

/* Species #180 : (Size 2) (AF 0.440058) (Age 5)  */


/* Organism #142 Fitness: 0.444358 Error: 0.455642 */
genomestart 142
trait 1 0.1 0 0 0 0 0 0 0 
trait 2 0.2 0 0 0 0 0 0 0 
trait 3 0.3 0 0 0 0 0 0 0 
node 1 2 1 1
node 2 1 1 1
node 3 3 1 1
node 4 2 0 2
node 5 1 0 0
gene 3 1 4 0.234078 0 1 0.234078 1
gene 3 2 4 2.42687 0 2 2.42687 1
gene 3 3 4 -1.27882 0 3 -1.27882 0
gene 3 3 5 0.257882 0 5 0.257882 1
gene 3 5 4 -3.32204 0 6 -3.32204 0
gene 1 2 5 0.201157 0 54 0.201157 1
gene 1 5 5 -4.7625 1 74 -4.7625 1
gene 1 4 4 0.584946 1 173 0.584946 1
genomeend 142

/* Organism #143 Fitness: 0.435758 Error: 0.464242 */
genomestart 143
trait 1 0.1 0 0 0 0 0 0 0 
trait 2 0.2 0 0 0 0 0 0 0 
trait 3 0.3 0 0 0 0 0 0 0 
node 1 2 1 1
node 2 1 1 1
node 3 3 1 1
node 4 2 0 2
node 5 1 0 0
gene 3 1 4 0.234078 0 1 0.234078 1
gene 3 2 4 2.42687 0 2 2.42687 1
gene 3 3 4 -1.27882 0 3 -1.27882 0
gene 3 3 5 0.257882 0 5 0.257882 1
gene 3 5 4 -3.32204 0 6 -3.32204 1
gene 1 2 5 0.201157 0 54 0.201157 1
gene 1 5 5 -4.7625 1 74 -4.7625 1
gene 1 4 4 0.584946 1 173 0.584946 1
genomeend 143

/* Species #185 : (Size 3) (AF 0.485348) (Age 5)  */


/* Organism #144 Fitness: 0.448389 Error: 0.451611 */
genomestart 144
trait 1 0.1 0 0 0 0 0 0 0 
trait 2 0.2 0 0 0 0 0 0 0 
trait 3 0.3 0 0 0 0 0 0 0 
node 1 2 1 1
node 2 2 1 1
node 3 1 1 1
node 4 1 0 2
node 5 1 0 0
gene 2 1 4 0.950865 0 1 0.950865 1
gene 3 2 4 5.72667 0 2 5.72667 1
gene 1 3 4 4.493 0 3 4.493 1
gene 3 3 5 0.924332 0 5 0.924332 1
gene 3 5 4 4.09334 0 6 4.09334 1
gene 1 2 5 2.42227 0 26 2.42227 0
gene 3 5 5 5.76206 1 79 5.76206 0
genomeend 144

/* Organism #145 Fitness: 0.46417 Error: 0.43583 */
genomestart 145
trait 1 0.1 0 0 0 0 0 0 0 
trait 2 0.2 0 0 0 0 0 0 0 
trait 3 0.3 0 0 0 0 0 0 0 
node 1 2 1 1
node 2 2 1 1
node 3 1 1 1
node 4 1 0 2
node 5 1 0 0
gene 2 1 4 1.28315 0 1 1.28315 1
gene 3 2 4 2.30959 0 2 2.30959 1
gene 1 3 4 4.19124 0 3 4.19124 1
gene 3 3 5 -0.491097 0 5 -0.491097 1
gene 3 5 4 3.61496 0 6 3.61496 1
gene 1 2 5 -2.10742 0 26 -2.10742 0
gene 3 5 5 2.28562 1 79 2.28562 0
genomeend 145

/* Organism #146 Fitness: 0.543484 Error: 0.356516 */
genomestart 146
trait 1 0.1 0 0 0 0 0 0 0 
trait 2 0.2 0 0 0 0 0 0 0 
trait 3 0.3 0 0 0 0 0 0 0 
node 1 2 1 1
node 2 1 1 1
node 3 3 1 1
node 4 2 0 2
node 5 1 0 0
gene 3 1 4 2.6552 0 1 2.6552 1
gene 3 2 4 3.69596 0 2 3.69596 1
gene 3 3 4 3.50668 0 3 3.50668 0
gene 3 3 5 -1.53056 0 5 -1.53056 1
gene 2 5 4 4.12529 0 6 4.12529 1
gene 3 2 5 -2.83819 0 69 -2.83819 1
genomeend 146

/* Species #188 : (Size 2) (AF 0.299565) (Age 5)  */


/* Organism #147 Fitness: 0.539067 Error: 0.360933 */
genomestart 147
trait 1 0.1 0 0 0 0 0 0 0 
trait 2 0.2 0 0 0 0 0 0 0 
trait 3 0.3 0 0 0 0 0 0 0 
node 1 2 1 1
node 2 3 1 1
node 3 3 1 1
node 4 2 0 2
node 15 1 0 0
gene 3 1 4 2.9904 0 1 2.9904 1
gene 1 2 4 5.69351 0 2 5.69351 1
gene 3 3 4 1.55621 0 3 1.55621 1
gene 1 2 15 -8 0 89 -8 1
gene 1 15 4 0.423387 0 90 0.423387 1
gene 3 3 15 -0.316887 0 275 0 1
genomeend 147

/* Organism #148 Fitness: 0.0600629 Error: 0.839937 */
genomestart 148
trait 1 0.1 0 0 0 0 0 0 0 
trait 2 0.2 0 0 0 0 0 0 0 
trait 3 0.3 0 0 0 0 0 0 0 
node 1 2 1 1
node 2 3 1 1
node 3 3 1 1
node 4 2 0 2
node 15 1 0 0
gene 3 1 4 8 0 1 8 1
gene 1 2 4 8 0 2 8 1
gene 2 3 4 -0.631778 0 3 -0.631778 1
gene 1 2 15 -8 0 89 -8 1
gene 1 15 4 0.299602 0 90 0.299602 1
genomeend 148

/* Species #192 : (Size 2) (AF 0.127393) (Age 5)  */


/* Organism #149 Fitness: 0.104824 Error: 0.795176 */
genomestart 149
trait 1 0.1 0 0 0 0 0 0 0 
trait 2 0.2 0 0 0.639571 0.473044 0 0 0 
trait 3 0.3 0 0 0 0 0 0 0 
node 1 2 1 1
node 2 3 1 1
node 3 3 1 1
node 4 2 0 2
node 15 1 0 0
gene 3 1 4 5.78293 0 1 5.78293 1
gene 1 2 4 6.00537 0 2 6.00537 0
gene 3 3 4 4.25277 0 3 4.25277 1
gene 1 2 15 3.7823 0 89 3.7823 1
gene 1 15 4 5.44928 0 90 5.44928 1
gene 1 3 15 -0.125887 0 207 -0.125887 1
gene 2 1 15 -1.06459 0 248 -1.06459 1
genomeend 149

/* Organism #150 Fitness: 0.149963 Error: 0.750037 */
genomestart 150
trait 1 0.1 0 0 0 0 0 0 0 
trait 2 0.2 0 0 0 0 0 0 0 
trait 3 0.3 0 0 0 0 0 0 0 
node 1 2 1 1
node 2 3 1 1
node 3 3 1 1
node 4 2 0 2
node 15 1 0 0
gene 3 1 4 5.78293 0 1 5.78293 1
gene 1 2 4 7.57017 0 2 7.57017 0
gene 3 3 4 5.89814 0 3 5.89814 1
gene 1 2 15 -0.549227 0 89 -0.549227 1
gene 1 15 4 4.42975 0 90 4.42975 1
gene 1 3 15 -0.125887 0 207 -0.125887 1
gene 2 1 15 0.774922 0 248 0.387461 1
gene 3 15 15 -0.787925 1 284 -0.787925 1
genomeend 150

/* Species #193 : (Size 1) (AF 0.184627) (Age 5)  */


/* Organism #151 Fitness: 0.184627 Error: 0.715373 */
genomestart 151
trait 1 0.1 0 0 0 0 0 0 0 
trait 2 0 0 0.331644 0 0.0379779 0 0 0.290845 
trait 3 0.3 0 0 0 0 0 0 0 
node 1 2 1 1
node 2 3 1 1
node 3 3 1 1
node 4 2 0 2
node 15 1 0 0
gene 3 1 4 4.37093 0 1 4.37093 1
gene 1 2 4 3.95807 0 2 3.95807 0
gene 3 3 4 -5.80082 0 3 -5.80082 1
gene 1 2 15 -0.575739 0 89 -0.575739 1
gene 1 15 4 8 0 90 8 1
gene 2 3 15 -0.781573 0 250 -0.781573 1
genomeend 151

/* Species #196 : (Size 4) (AF 0.332674) (Age 5)  */


/* Organism #152 Fitness: 0.330363 Error: 0.569637 */
genomestart 152
trait 1 0.1 0 0 0 0 0 0 0 
trait 2 0.2 0 0 0 0 0 0 0 
trait 3 0.3 0 0 0 0 0 0 0 
node 1 2 1 1
node 2 1 1 1
node 3 3 1 1
node 4 2 0 2
node 5 1 0 0
gene 3 1 4 6.71845 0 1 6.71845 1
gene 3 2 4 -6.15702 0 2 -6.15702 1
gene 2 3 4 -2.30835 0 3 -2.30835 1
gene 1 3 5 -6.54685 0 5 -6.54685 1
gene 3 5 4 -6.69996 0 6 -6.69996 1
gene 3 2 5 0.169286 0 69 0.169286 1
genomeend 152

/* Organism #153 Fitness: 0.486757 Error: 0.413243 */
genomestart 153
trait 1 0.1 0 0 0 0 0 0 0 
trait 2 0.2 0 0 0 0 0 0 0 
trait 3 0.3 0 0 0 0 0 0 0 
node 1 2 1 1
node 2 1 1 1
node 3 3 1 1
node 4 2 0 2
node 5 1 0 0
gene 3 1 4 6.71845 0 1 6.71845 1
gene 3 2 4 -6.15702 0 2 -6.15702 1
gene 2 3 4 -2.30835 0 3 -2.30835 1
gene 1 3 5 -6.54685 0 5 -6.54685 1
gene 3 5 4 -6.69996 0 6 -6.69996 1
gene 3 2 5 0.169286 0 69 0.169286 1
genomeend 153

/* Organism #154 Fitness: 0.127424 Error: 0.772576 */
genomestart 154
trait 1 0.1 0 0 0 0 0 0 0 
trait 2 0.2 0 0 0 0 0 0 0 
trait 3 0.3 0 0 0 0 0 0 0 
node 1 2 1 1
node 2 1 1 1
node 3 3 1 1
node 4 2 0 2
node 5 1 0 0
gene 3 1 4 6.71845 0 1 6.71845 1
gene 3 2 4 -6.15702 0 2 -6.15702 1
gene 2 3 4 -2.30835 0 3 -2.30835 1
gene 1 3 5 -6.54685 0 5 -6.54685 1
gene 3 5 4 -6.69996 0 6 -6.69996 1
gene 3 2 5 0.169286 0 69 0.169286 1
gene 2 1 5 0.95357 0 273 0 1
genomeend 154

/* Organism #155 Fitness: 0.386152 Error: 0.513848 */
genomestart 155
trait 1 0.1 0 0 0 0 0 0 0 
trait 2 0.2 0 0 0 0 0 0 0 
trait 3 0.3 0 0 0 0 0 0 0 
node 1 2 1 1
node 2 1 1 1
node 3 3 1 1
node 4 2 0 2
node 5 1 0 0
gene 3 1 4 4.71958 0 1 4.71958 1
gene 3 2 4 -8 0 2 -8 1
gene 2 3 4 -2.30835 0 3 -2.30835 1
gene 3 3 5 -7.67139 0 5 -7.67139 1
gene 3 5 4 -5.255 0 6 -5.255 1
gene 3 2 5 1.65473 0 69 1.65473 1
genomeend 155

/* Species #197 : (Size 2) (AF 0.399342) (Age 5)  */


/* Organism #156 Fitness: 0.362446 Error: 0.537554 */
genomestart 156
trait 1 0.1 0 0 0 0 0 0 0 
trait 2 0.2 0 0 0 0 0 0 0 
trait 3 0.3 0 0 0 0 0 0 0 
node 1 2 1 1
node 2 1 1 1
node 3 3 1 1
node 4 2 0 2
node 5 1 0 0
gene 3 1 4 -1.17843 0 1 -1.17843 1
gene 3 2 4 -7.23308 0 2 -7.23308 1
gene 3 3 4 -7.71128 0 3 -7.71128 0
gene 3 3 5 0.396681 0 5 0.396681 1
gene 3 5 4 1.45117 0 6 1.45117 1
gene 3 2 5 -3.62202 0 69 -3.62202 1
gene 2 1 5 0.882593 0 143 0.882593 1
genomeend 156

/* Organism #157 Fitness: 0.436238 Error: 0.463762 */
genomestart 157
trait 1 0.1 0 0 0 0 0 0 0 
trait 2 0.2 0 0 0 0 0 0 0 
trait 3 0.3 0 0 0 0 0 0 0 
node 1 2 1 1
node 2 1 1 1
node 3 3 1 1
node 4 2 0 2
node 5 1 0 0
gene 3 1 4 1.8647 0 1 1.8647 1
gene 3 2 4 -5.36865 0 2 -5.36865 1
gene 3 3 4 -5.4445 0 3 -5.4445 0
gene 3 3 5 -2.85906 0 5 -2.85906 1
gene 3 5 4 2.69854 0 6 2.69854 1
gene 3 2 5 -2.96038 0 69 -2.96038 1
gene 2 1 5 -0.0119115 0 143 -0.0119115 1
genomeend 157

/* Species #206 : (Size 2) (AF 0.428816) (Age 5)  */


/* Organism #158 Fitness: 0.418829 Error: 0.481171 */
genomestart 158
trait 1 0.1 0 0 0 0 0 0 0 
trait 2 0.2 0 0 0 0 0 0 0 
trait 3 0.3 0 0 0 0 0 0 0 
node 1 1 1 1
node 2 2 1 1
node 3 1 1 1
node 4 1 0 2
node 9 1 0 0
gene 2 1 4 -0.368841 0 1 -0.368841 1
gene 1 2 4 2.86694 0 2 2.86694 1
gene 2 3 4 -6.37436 0 3 -6.37436 0
gene 2 3 9 -1.81409 0 46 -1.81409 1
gene 2 9 4 -7.05958 0 47 -7.05958 1
gene 1 2 9 -5.49034 0 70 -5.49034 1
gene 1 1 9 -0.299391 0 231 0 1
genomeend 158

/* Organism #159 Fitness: 0.438804 Error: 0.461196 */
genomestart 159
trait 1 0.1 0 0 0 0 0 0 0 
trait 2 0.2 0 0 0 0 0 0 0 
trait 3 0.3 0 0 0 0 0 0 0 
node 1 1 1 1
node 2 2 1 1
node 3 1 1 1
node 4 1 0 2
node 9 1 0 0
gene 2 1 4 -0.368841 0 1 -0.368841 1
gene 1 2 4 2.86694 0 2 2.86694 1
gene 2 3 4 -6.37436 0 3 -6.37436 0
gene 2 3 9 -1.81409 0 46 -1.81409 1
gene 2 9 4 -7.05958 0 47 -7.05958 1
gene 1 2 9 -5.49034 0 70 -5.49034 1
gene 1 1 9 -0.299391 0 231 0 1
genomeend 159

/* Species #207 : (Size 3) (AF 0.296893) (Age 5)  */


/* Organism #160 Fitness: 0.498106 Error: 0.401894 */
genomestart 160
trait 1 0.1 0 0 0 0 0 0 0 
trait 2 0.2 0 0 0 0 0 0 0 
trait 3 0.3 0 0 0 0 0 0 0 
node 1 2 1 1
node 2 1 1 1
node 3 3 1 1
node 4 2 0 2
node 5 1 0 0
gene 3 1 4 2.16621 0 1 2.16621 1
gene 3 2 4 0.33638 0 2 0.33638 1
gene 3 3 4 7.1799 0 3 7.1799 1
gene 3 3 5 6.72673 0 5 6.72673 1
gene 3 5 4 2.75884 0 6 2.75884 1
gene 1 2 5 -1.61739 0 69 -1.61739 1
gene 2 1 5 0.95357 0 273 0 1
genomeend 160

/* Organism #161 Fitness: 0.307561 Error: 0.592439 */
genomestart 161
trait 1 0.1 0 0 0 0 0 0 0 
trait 2 0.2 0 0 0 0 0 0 0 
trait 3 0.3 0 0 0 0 0 0 0 
node 1 2 1 1
node 2 1 1 1
node 3 3 1 1
node 4 2 0 2
node 5 1 0 0
gene 3 1 4 2.16621 0 1 2.16621 1
gene 3 2 4 0.33638 0 2 0.33638 1
gene 3 3 4 7.1799 0 3 7.1799 1
gene 3 3 5 6.72673 0 5 6.72673 1
gene 3 5 4 2.75884 0 6 2.75884 1
gene 1 2 5 -1.61739 0 69 -1.61739 1
gene 3 5 5 0.616492 1 285 0.616492 1
genomeend 161

/* Organism #162 Fitness: 0.0850128 Error: 0.814987 */
genomestart 162
trait 1 0.1 0 0 0 0 0 0 0 
trait 2 0.2 0 0 0 0 0 0 0 
trait 3 0.3 0 0 0 0 0 0 0 
node 1 2 1 1
node 2 1 1 1
node 3 3 1 1
node 4 2 0 2
node 5 1 0 0
gene 3 1 4 3.70576 0 1 3.70576 1
gene 3 2 4 1.2282 0 2 1.2282 1
gene 3 3 4 5.36645 0 3 5.36645 1
gene 3 3 5 7.04031 0 5 7.04031 1
gene 3 5 4 1.21097 0 6 1.21097 1
gene 1 2 5 1.84401 0 69 1.84401 1
genomeend 162

/* Species #209 : (Size 1) (AF 0.446579) (Age 5)  */


/* Organism #163 Fitness: 0.446579 Error: 0.453421 */
genomestart 163
trait 1 0.1 0 0 0 0 0 0 0 
trait 2 0.2 0 0 0 0 0 0 0 
trait 3 0.353828 0 1 0.414356 0.185344 0 0 0 
node 1 3 1 1
node 2 1 1 1
node 3 3 1 1
node 4 1 0 2
node 6 1 0 0
gene 2 1 4 -5.20504 0 1 -5.20504 0
gene 3 2 4 2.60213 0 2 2.60213 1
gene 2 3 4 2.26386 0 3 2.26386 1
gene 2 1 6 -0.151083 0 8 -0.151083 1
gene 2 6 4 2.7076 0 9 2.7076 1
gene 3 3 6 -0.146723 0 174 -0.146723 1
gene 3 2 6 -0.924883 0 241 0 1
genomeend 163

/* Species #212 : (Size 2) (AF 0.475771) (Age 5)  */


/* Organism #164 Fitness: 0.460741 Error: 0.439259 */
genomestart 164
trait 1 0.1 0 0 0 0 0 0 0 
trait 2 0.2 0 0 0 0 0 0 0 
trait 3 0.3 0 0 0 0 0 0 0 
node 1 3 1 1
node 2 2 1 1
node 3 1 1 1
node 4 2 0 2
node 9 1 0 0
gene 1 1 4 6.45628 0 1 6.45628 1
gene 1 2 4 0.401281 0 2 0.401281 1
gene 2 3 4 -2.86828 0 3 -2.86828 0
gene 2 3 9 -2.26848 0 46 -2.26848 1
gene 2 9 4 -0.376642 0 47 -0.376642 1
gene 2 2 9 0.304804 0 139 0 1
gene 1 1 9 -0.299391 0 231 0 1
genomeend 164

/* Organism #165 Fitness: 0.490801 Error: 0.409199 */
genomestart 165
trait 1 0.1 0 0 0 0 0 0 0 
trait 2 0.2 0 0 0 0 0 0 0 
trait 3 0.3 0 0 0 0 0 0 0 
node 1 3 1 1
node 2 2 1 1
node 3 1 1 1
node 4 2 0 2
node 9 1 0 0
gene 1 1 4 6.45628 0 1 6.45628 1
gene 1 2 4 0.401281 0 2 0.401281 1
gene 2 3 4 -2.86828 0 3 -2.86828 0
gene 2 3 9 -2.26848 0 46 -2.26848 1
gene 2 9 4 -0.376642 0 47 -0.376642 1
gene 2 2 9 0.304804 0 139 0 1
gene 1 1 9 -0.299391 0 231 0 1
genomeend 165

/* Species #213 : (Size 2) (AF 0.214221) (Age 5)  */


/* Organism #166 Fitness: 0.230418 Error: 0.669582 */
genomestart 166
trait 1 0.137858 0 0 0 0 0 0.030589 0.0248217 
trait 2 0.2 0 0 0 0 0 0 0 
trait 3 0.3 0 0 0 0 0 0 0 
node 1 1 1 1
node 2 2 1 1
node 3 1 1 1
node 4 1 0 2
node 9 1 0 0
gene 3 1 4 2.95767 0 1 2.95767 1
gene 1 2 4 5.02118 0 2 5.02118 1
gene 2 3 4 -6.14033 0 3 -6.14033 0
gene 2 3 9 -1.82932 0 46 -1.82932 1
gene 2 9 4 -8 0 47 -8 1
gene 3 2 9 -5.34497 0 129 -5.34497 1
gene 1 1 9 -1.77775 0 231 -1.77775 1
genomeend 166

/* Organism #167 Fitness: 0.198025 Error: 0.701975 */
genomestart 167
trait 1 0.1 0 0 0 0 0 0 0 
trait 2 0.2 0 0 0 0 0 0 0 
trait 3 0.3 0 0 0.13342 0 0 0 0 
node 1 3 1 1
node 2 2 1 1
node 3 1 1 1
node 4 2 0 2
node 9 1 0 0
gene 1 1 4 5.17465 0 1 5.17465 1
gene 1 2 4 4.01001 0 2 4.01001 0
gene 2 3 4 -5.60417 0 3 -5.60417 1
gene 2 3 9 -4.69791 0 46 -4.69791 1
gene 2 9 4 -6.50812 0 47 -6.50812 1
gene 3 2 9 -1.62777 0 129 -1.62777 1
gene 2 4 4 -0.563115 1 295 -0.563115 1
genomeend 167

/* Species #217 : (Size 2) (AF 0.446888) (Age 5)  */


/* Organism #168 Fitness: 0.448396 Error: 0.451604 */
genomestart 168
trait 1 0.1 0 0 0 0 0 0 0 
trait 2 0.2 0 0 0 0 0 0 0 
trait 3 0.3 0 0 0 0 0 0 0 
node 1 2 1 1
node 2 1 1 1
node 3 3 1 1
node 4 2 0 2
node 5 1 0 0
node 21 1 0 0
gene 3 1 4 0.736063 0 1 0.736063 1
gene 3 2 4 7.9762 0 2 7.9762 1
gene 3 3 4 3.24319 0 3 3.24319 1
gene 3 3 5 -1.36431 0 5 -1.36431 1
gene 3 5 4 -0.796897 0 6 -0.796897 1
gene 1 2 5 3.58441 0 54 3.58441 0
gene 1 2 21 1 0 176 0 1
gene 1 21 5 3.58441 0 177 0 1
gene 1 1 21 0.549727 0 211 0.549727 1
gene 1 3 21 0.33885 0 252 0.33885 1
genomeend 168

/* Organism #169 Fitness: 0.44538 Error: 0.45462 */
genomestart 169
trait 1 0.1 0 0 0 0 0 0 0 
trait 2 0.2 0 0 0 0 0 0 0 
trait 3 0.3 0 0 0 0 0 0 0 
node 1 2 1 1
node 2 1 1 1
node 3 3 1 1
node 4 2 0 2
node 5 1 0 0
node 21 1 0 0
gene 3 1 4 0.736063 0 1 0.736063 1
gene 3 2 4 7.9762 0 2 7.9762 1
gene 3 3 4 3.24319 0 3 3.24319 0
gene 3 3 5 -1.36431 0 5 -1.36431 1
gene 3 5 4 -0.796897 0 6 -0.796897 1
gene 1 2 5 3.58441 0 54 3.58441 0
gene 1 2 21 1 0 176 0 1
gene 1 21 5 3.58441 0 177 0 1
gene 1 1 21 0.549727 0 211 0.549727 1
gene 1 21 21 -0.372735 1 253 -0.372735 1
genomeend 169

/* Species #218 : (Size 4) (AF 0.446917) (Age 5)  */


/* Organism #170 Fitness: 0.390394 Error: 0.509606 */
genomestart 170
trait 1 0.1 0 0 0 0 0 0 0 
trait 2 0.2 0 0 0 0 0 0 0 
trait 3 0.3 0 0 0 0 0 0 0 
node 1 2 1 1
node 2 1 1 1
node 3 3 1 1
node 4 2 0 2
node 5 1 0 0
gene 3 1 4 5.60724 0 1 5.60724 1
gene 3 2 4 4.18256 0 2 4.18256 1
gene 3 3 4 3.83308 0 3 3.83308 1
gene 3 3 5 -2.85352 0 5 -2.85352 1
gene 3 5 4 -6.79542 0 6 -6.79542 1
gene 1 2 5 2.86141 0 54 2.86141 1
genomeend 170

/* Organism #171 Fitness: 0.444702 Error: 0.455298 */
genomestart 171
trait 1 0.1 0 0 0 0 0 0 0 
trait 2 0.2 0 0 0 0 0 0 0 
trait 3 0.3 0 0 0 0 0 0 0 
node 1 2 1 1
node 2 1 1 1
node 3 3 1 1
node 4 2 0 2
node 5 1 0 0
gene 3 1 4 2.70863 0 1 2.70863 1
gene 3 2 4 5.99458 0 2 5.99458 1
gene 3 3 4 -0.834564 0 3 -0.834564 1
gene 3 3 5 -2.85352 0 5 -2.85352 1
gene 3 5 4 -8 0 6 -8 1
gene 1 2 5 2.3696 0 54 2.3696 1
genomeend 171

/* Organism #172 Fitness: 0.470678 Error: 0.429322 */
genomestart 172
trait 1 0.1 0 0 0 0 0 0 0 
trait 2 0.2 0 0 0 0 0 0 0 
trait 3 0.3 0 0 0 0 0 0 0 
node 1 2 1 1
node 2 1 1 1
node 3 3 1 1
node 4 2 0 2
node 5 1 0 0
gene 3 1 4 5.60724 0 1 5.60724 1
gene 3 2 4 4.18256 0 2 4.18256 1
gene 3 3 4 3.83308 0 3 3.83308 1
gene 3 3 5 -2.85352 0 5 -2.85352 1
gene 3 5 4 -6.79542 0 6 -6.79542 1
gene 1 2 5 2.86141 0 54 2.86141 1
genomeend 172

/* Organism #173 Fitness: 0.481893 Error: 0.418107 */
genomestart 173
trait 1 0.148373 0 0 0 0.476386 0 0.255794 0 
trait 2 0.2 0 0 0 0 0 0 0 
trait 3 0.3 0 0 0 0 0 0 0 
node 1 2 1 1
node 2 1 1 1
node 3 3 1 1
node 4 2 0 2
node 5 1 0 0
gene 3 1 4 7.98701 0 1 7.98701 1
gene 3 2 4 4.07467 0 2 4.07467 0
gene 2 3 4 3.96323 0 3 3.96323 0
gene 3 3 5 -5.9114 0 5 -5.9114 1
gene 3 5 4 -5.6916 0 6 -5.6916 1
gene 2 2 5 8 0 180 8 1
genomeend 173

/* Species #223 : (Size 3) (AF 0.367169) (Age 5)  */


/* Organism #174 Fitness: 0.409994 Error: 0.490006 */
genomestart 174
trait 1 0.1 0 0 0 0 0 0 0 
trait 2 0.2 0 0 0 0 0 0 0 
trait 3 0.3 0 0 0 0 0 0 0 
node 1 2 1 1
node 2 2 1 1
node 3 1 1 1
node 4 1 0 2
node 5 2 0 0
gene 2 1 4 5.15484 0 1 5.15484 1
gene 3 2 4 8 0 2 8 1
gene 1 3 4 -3.04588 0 3 -3.04588 0
gene 3 3 5 8 0 5 8 1
gene 3 5 4 -6.28873 0 6 -6.28873 1
gene 1 2 5 -0.258273 0 26 -0.258273 1
gene 2 1 5 -0.792652 0 143 0 1
genomeend 174

/* Organism #175 Fitness: 0.298805 Error: 0.601195 */
genomestart 175
trait 1 0.1 0 0 0 0 0 0 0 
trait 2 0.2 0 0 0 0 0 0 0 
trait 3 0.3 0 0 0 0 0 0 0 
node 1 2 1 1
node 2 2 1 1
node 3 1 1 1
node 4 1 0 2
node 5 2 0 0
gene 2 1 4 5.15484 0 1 5.15484 1
gene 3 2 4 8 0 2 8 1
gene 1 3 4 -3.04588 0 3 -3.04588 0
gene 3 3 5 8 0 5 8 1
gene 3 5 4 -6.28873 0 6 -6.28873 1
gene 1 2 5 -0.258273 0 26 -0.258273 1
gene 2 1 5 -0.792652 0 143 0 1
genomeend 175

/* Organism #176 Fitness: 0.392708 Error: 0.507292 */
genomestart 176
trait 1 0.1 0 0 0 0 0 0 0 
trait 2 0.2 0 0 0 0 0 0 0 
trait 3 0.3 0 0 0 0 0 0 0 
node 1 2 1 1
node 2 2 1 1
node 3 1 1 1
node 4 1 0 2
node 5 2 0 0
gene 2 1 4 5.15484 0 1 5.15484 1
gene 3 2 4 8 0 2 8 1
gene 1 3 4 -3.04588 0 3 -3.04588 0
gene 3 3 5 8 0 5 8 1
gene 3 5 4 -6.28873 0 6 -6.28873 1
gene 1 2 5 -0.258273 0 26 -0.258273 1
gene 2 1 5 -0.792652 0 143 0 1
genomeend 176

/* Species #228 : (Size 1) (AF 0.0725729) (Age 5)  */


/* Organism #177 Fitness: 0.0725729 Error: 0.827427 */
genomestart 177
trait 1 0.1 0 0 0 0 0 0 0 
trait 2 0.2 0 0 0 0 0 0 0 
trait 3 0.3 0 0 0 0 0 0 0 
node 1 2 1 1
node 2 3 1 1
node 3 3 1 1
node 4 2 0 2
node 15 1 0 0
gene 3 1 4 8 0 1 8 1
gene 1 2 4 3.70713 0 2 3.70713 1
gene 3 3 4 2.81154 0 3 2.81154 1
gene 1 2 15 8 0 89 8 1
gene 1 15 4 4.27038 0 90 4.27038 1
gene 2 1 15 4.24542 0 122 4.24542 1
gene 2 3 15 -0.133414 0 250 -0.133414 1
genomeend 177

/* Species #235 : (Size 8) (AF 0.281867) (Age 5)  */


/* Organism #178 Fitness: 0.467293 Error: 0.432707 */
genomestart 178
trait 1 0.1 0 0 0 0 0 0 0 
trait 2 0.2 0 0 0 0 0 0 0 
trait 3 0.325527 0 0 0.0206356 0 0 0 0 
node 1 1 1 1
node 2 3 1 1
node 3 3 1 1
node 4 1 0 2
gene 2 1 4 1.85005 0 1 1.85005 1
gene 1 2 4 -4.68536 0 2 -4.68536 1
gene 1 3 4 7.25689 0 3 7.25689 1
genomeend 178

/* Organism #179 Fitness: 0.463594 Error: 0.436406 */
genomestart 179
trait 1 0.1 0 0 0 0 0 0 0 
trait 2 0.2 0 0 0 0 0 0 0 
trait 3 0.3 0 0 0 0 0 0 0 
node 1 2 1 1
node 2 1 1 1
node 3 3 1 1
node 4 2 0 2
node 5 1 0 0
gene 2 1 4 1.34304 0 1 1.34304 1
gene 3 2 4 -3.3931 0 2 -3.3931 1
gene 3 3 4 4.62702 0 3 4.62702 0
gene 3 3 5 4.52466 0 5 4.52466 1
gene 3 5 4 -8 0 6 -8 1
gene 1 2 5 -2.5864 0 69 -2.5864 1
genomeend 179

/* Organism #180 Fitness: 0.37927 Error: 0.52073 */
genomestart 180
trait 1 0.1 0 0 0 0 0 0 0 
trait 2 0.2 0 0 0 0 0 0 0 
trait 3 0.3 0 0 0 0 0 0 0 
node 1 2 1 1
node 2 1 1 1
node 3 3 1 1
node 4 2 0 2
node 5 1 0 0
gene 3 1 4 1.19589 0 1 1.19589 1
gene 3 2 4 -3.08762 0 2 -3.08762 1
gene 3 3 4 4.15625 0 3 4.15625 0
gene 3 3 5 -5.73349 0 5 -5.73349 1
gene 3 5 4 -5.53178 0 6 -5.53178 1
gene 3 2 5 -3.70415 0 69 -3.70415 1
genomeend 180

/* Organism #181 Fitness: 0.438246 Error: 0.461754 */
genomestart 181
trait 1 0.1 0 0 0 0 0 0 0 
trait 2 0.2 0 0 0 0 0 0 0 
trait 3 0.325527 0 0 0.0206356 0 0 0 0 
node 1 1 1 1
node 2 3 1 1
node 3 3 1 1
node 4 1 0 2
gene 2 1 4 0.401654 0 1 0.401654 1
gene 1 2 4 -4.48836 0 2 -4.48836 1
gene 1 3 4 5.532 0 3 5.532 1
genomeend 181

/* Organism #182 Fitness: 0.00561453 Error: 0.894385 */
genomestart 182
trait 1 0.1 0 0 0 0 0 0 0 
trait 2 0.2 0 0 0 0 0 0 0 
trait 3 0.212376 0 0.0556627 0 0 0 0 0 
node 1 2 1 1
node 2 1 1 1
node 3 3 1 1
node 4 2 0 2
node 5 1 0 0
gene 3 1 4 1.73271 0 1 1.73271 1
gene 3 2 4 -4.19955 0 2 -4.19955 1
gene 3 3 4 5.4006 0 3 5.4006 0
gene 3 3 5 -0.300407 0 5 -0.300407 1
gene 3 5 4 -7.86171 0 6 -7.86171 1
gene 3 2 5 -3.95679 0 69 -3.95679 1
gene 2 1 5 0.95357 0 273 0 1
genomeend 182

/* Organism #183 Fitness: 0.354688 Error: 0.545312 */
genomestart 183
trait 1 0.1 0 0 0 0 0 0 0 
trait 2 0.2 0 0 0 0 0 0 0 
trait 3 0.492805 0 0.860118 0.0226825 0 0 0 0 
node 1 2 1 1
node 2 1 1 1
node 3 3 1 1
node 4 2 0 2
node 5 1 0 0
gene 3 1 4 1.70981 0 1 1.70981 1
gene 3 2 4 -3.64112 0 2 -3.64112 1
gene 3 3 4 3.62663 0 3 3.62663 0
gene 3 3 5 0.733209 0 5 0.733209 1
gene 3 5 4 -7.86481 0 6 -7.86481 1
gene 2 5 5 4.91288 1 181 4.91288 1
gene 3 2 5 -0.794468 0 232 -0.794468 1
genomeend 183

/* Organism #184 Fitness: 0.00561453 Error: 0.894385 */
genomestart 184
trait 1 0.1 0 0 0 0 0 0 0 
trait 2 0.2 0 0 0 0 0 0 0 
trait 3 0.3 0 0 0 0 0 0 0 
node 1 2 1 1
node 2 1 1 1
node 3 3 1 1
node 4 2 0 2
node 5 1 0 0
gene 3 1 4 1.1785 0 1 1.1785 1
gene 3 2 4 -4.75256 0 2 -4.75256 1
gene 3 3 4 5.02373 0 3 5.02373 0
gene 3 3 5 0.400255 0 5 0.400255 1
gene 3 5 4 -6.28454 0 6 -6.28454 1
gene 3 2 5 -7.8766 0 69 -7.8766 1
gene 2 1 5 0.95357 0 273 0 1
genomeend 184

/* Organism #185 Fitness: 0.140611 Error: 0.759389 */
genomestart 185
trait 1 0.1 0 0 0 0 0 0 0 
trait 2 0.2 0 0 0 0 0 0 0 
trait 3 0.3 0 0 0 0 0 0 0 
node 1 2 1 1
node 2 1 1 1
node 3 3 1 1
node 4 2 0 2
node 5 1 0 0
gene 3 1 4 1.1785 0 1 1.1785 1
gene 3 2 4 -4.75256 0 2 -4.75256 1
gene 3 3 4 5.02373 0 3 5.02373 0
gene 3 3 5 0.400255 0 5 0.400255 1
gene 3 5 4 -6.28454 0 6 -6.28454 1
gene 3 2 5 -7.8766 0 69 -7.8766 1
gene 2 4 4 -0.645439 1 305 -0.645439 1
genomeend 185

/* Species #239 : (Size 1) (AF 0.136227) (Age 5)  */


/* Organism #186 Fitness: 0.136227 Error: 0.763773 */
genomestart 186
trait 1 0.156788 0 0 0 0 0 0.0458835 0.0372325 
trait 2 0.2 0 0 0 0 0 0 0 
trait 3 0.3 0 0.0399756 0 0 0.0273314 0 0 
node 1 2 1 1
node 2 1 1 1
node 3 3 1 1
node 4 2 0 2
node 5 1 0 0
gene 2 1 4 3.9292 0 1 3.9292 1
gene 1 2 4 -2.63242 0 2 -2.63242 1
gene 3 3 4 0.49373 0 3 0.49373 0
gene 3 3 5 1.52846 0 5 1.52846 1
gene 3 5 4 -8 0 6 -8 1
gene 3 2 5 0.972174 0 69 0.972174 1
genomeend 186

/* Species #244 : (Size 1) (AF 0.486079) (Age 4)  */


/* Organism #187 Fitness: 0.486079 Error: 0.413921 */
genomestart 187
trait 1 0.1 0 0 0 0 0 0 0 
trait 2 0.2 0 0 0 0 0 0 0 
trait 3 0.3 0 0 0 0 0 0 0 
node 1 2 1 1
node 2 1 1 1
node 3 3 1 1
node 4 2 0 2
node 5 1 0 0
gene 3 1 4 6.35353 0 1 6.35353 1
gene 3 2 4 6.05497 0 2 6.05497 1
gene 3 3 4 0.0445827 0 3 0.0445827 1
gene 3 3 5 -8 0 5 -8 1
gene 1 5 4 8 0 6 8 1
gene 3 2 5 -5.34712 0 69 -5.34712 1
genomeend 187

/* Species #245 : (Size 3) (AF 0.159383) (Age 4)  */


/* Organism #188 Fitness: 0.403415 Error: 0.496585 */
genomestart 188
trait 1 0.1 0 0 0 0 0 0 0 
trait 2 0.590171 0.267258 0 0 0 0 0 0 
trait 3 0.3 0 0 0 0 0 0 0 
node 1 1 1 1
node 2 2 1 1
node 3 1 1 1
node 4 1 0 2
node 9 1 0 0
gene 2 1 4 2.56188 0 1 2.56188 1
gene 1 2 4 -1.16106 0 2 -1.16106 1
gene 2 3 4 -0.0398647 0 3 -0.0398647 1
gene 2 3 9 1.11541 0 46 1.11541 1
gene 2 9 4 3.67425 0 47 3.67425 1
gene 1 2 9 -4.41513 0 70 -4.41513 1
gene 3 1 9 0.071516 0 193 0 1
genomeend 188

/* Organism #189 Fitness: 0.0202407 Error: 0.879759 */
genomestart 189
trait 1 0.1 0 0 0 0 0 0 0 
trait 2 0.590171 0.267258 0 0 0 0 0 0 
trait 3 0.3 0 0 0 0 0 0 0 
node 1 1 1 1
node 2 2 1 1
node 3 1 1 1
node 4 1 0 2
node 9 1 0 0
gene 2 1 4 4.77791 0 1 4.77791 1
gene 1 2 4 -2.82021 0 2 -2.82021 1
gene 2 3 4 -0.785154 0 3 -0.785154 0
gene 2 3 9 3.669 0 46 3.669 1
gene 2 9 4 4.26893 0 47 4.26893 1
gene 1 2 9 -4.392 0 70 -4.392 1
gene 3 1 9 -3.75411 0 193 -3.75411 1
genomeend 189

/* Organism #190 Fitness: 0.0544947 Error: 0.845505 */
genomestart 190
trait 1 0.1 0 0 0 0 0 0 0 
trait 2 0.590171 0.267258 0 0 0 0 0 0 
trait 3 0.3 0 0 0 0 0 0 0 
node 1 1 1 1
node 2 2 1 1
node 3 1 1 1
node 4 1 0 2
node 9 1 0 0
gene 2 1 4 3.90316 0 1 3.90316 1
gene 1 2 4 1.16121 0 2 1.16121 1
gene 2 3 4 -4.84616 0 3 -4.84616 0
gene 2 3 9 0.729065 0 46 0.729065 1
gene 2 9 4 4.1812 0 47 4.1812 1
gene 1 2 9 -6.91084 0 70 -6.91084 1
gene 3 1 9 -1.56677 0 193 -1.56677 1
genomeend 190

/* Species #248 : (Size 2) (AF 0.0172404) (Age 4)  */


/* Organism #191 Fitness: 0.0117918 Error: 0.888208 */
genomestart 191
trait 1 0.137858 0 0 0 0 0 0.030589 0.0248217 
trait 2 0.2 0 0 0 0 0 0 0 
trait 3 0.3 0 0 0 0 0 0 0 
node 1 1 1 1
node 2 2 1 1
node 3 1 1 1
node 4 1 0 2
node 9 1 0 0
gene 3 1 4 6.03318 0 1 6.03318 1
gene 1 2 4 5.59238 0 2 5.59238 1
gene 2 3 4 -3.93951 0 3 -3.93951 0
gene 2 3 9 1.29647 0 46 1.29647 1
gene 2 9 4 -8 0 47 -8 1
gene 3 2 9 -1.68777 0 129 -1.68777 1
gene 1 1 9 -0.299391 0 231 0 1
gene 1 4 4 -0.989686 1 288 -0.989686 1
genomeend 191

/* Organism #192 Fitness: 0.0226891 Error: 0.877311 */
genomestart 192
trait 1 0.137858 0 0 0 0 0 0.030589 0.0248217 
trait 2 0.2 0 0 0 0 0 0 0 
trait 3 0.3 0 0 0 0 0 0 0 
node 1 1 1 1
node 2 2 1 1
node 3 1 1 1
node 4 1 0 2
node 9 1 0 0
gene 3 1 4 5.54594 0 1 5.54594 1
gene 1 2 4 8 0 2 8 1
gene 2 3 4 -2.90909 0 3 -2.90909 0
gene 2 3 9 -0.838331 0 46 -0.838331 1
gene 2 9 4 -5.82643 0 47 -5.82643 1
gene 3 2 9 1.58672 0 129 1.58672 1
gene 1 1 9 2.60242 0 231 2.60242 1
genomeend 192

/* Species #253 : (Size 2) (AF 0.241992) (Age 4)  */


/* Organism #193 Fitness: 0.478136 Error: 0.421864 */
genomestart 193
trait 1 0.1 0 0 0 0 0 0 0 
trait 2 0.2 0 0 0 0 0 0 0 
trait 3 0.3 0 0 0 0 0 0 0 
node 1 2 1 1
node 2 1 1 1
node 3 3 1 1
node 4 2 0 2
node 5 1 0 0
gene 2 1 4 1.23865 0 1 1.23865 1
gene 3 2 4 6.44041 0 2 6.44041 1
gene 3 3 4 0.523817 0 3 0.523817 1
gene 3 3 5 1.7617 0 5 1.7617 1
gene 3 5 4 -5.57811 0 6 -5.57811 1
gene 1 2 5 7.34833 0 54 7.34833 1
genomeend 193

/* Organism #194 Fitness: 0.00584846 Error: 0.894152 */
genomestart 194
trait 1 0.1 0 0 0 0 0 0 0 
trait 2 0.2 0 0 0 0 0 0 0 
trait 3 0.820395 0.422009 0 0.708186 0 0 0 0.551569 
node 1 2 1 1
node 2 1 1 1
node 3 3 1 1
node 4 2 0 2
node 5 1 0 0
gene 3 1 4 -3.7369 0 1 -3.7369 1
gene 1 2 4 6.38242 0 2 6.38242 1
gene 3 3 4 0.74905 0 3 0.74905 0
gene 3 3 5 2.81461 0 5 2.81461 1
gene 3 5 4 -7.67059 0 6 -7.67059 1
genomeend 194

/* Species #255 : (Size 2) (AF 0.229546) (Age 4)  */


/* Organism #195 Fitness: 0.215949 Error: 0.684051 */
genomestart 195
trait 1 0.1 0 0 0 0 0 0 0 
trait 2 0.2 0 0 0 0 0 0 0 
trait 3 0.3 0 0 0 0 0 0.0490641 0 
node 1 3 1 1
node 2 2 1 1
node 3 2 1 1
node 4 3 0 2
node 9 1 0 0
gene 2 1 4 4.91119 0 1 4.91119 1
gene 1 2 4 -2.77443 0 2 -2.77443 1
gene 2 3 4 3.32025 0 3 3.32025 0
gene 2 3 9 7.03702 0 46 7.03702 1
gene 2 9 4 -0.389412 0 47 -0.389412 1
gene 2 2 9 1.742 0 139 1.742 1
gene 3 1 9 0.965704 0 193 0.965704 1
genomeend 195

/* Organism #196 Fitness: 0.243142 Error: 0.656858 */
genomestart 196
trait 1 0.1 0 0 0 0 0 0 0 
trait 2 0.2 0 0 0 0 0 0 0 
trait 3 0.3 0 0 0 0 0 0.0490641 0 
node 1 3 1 1
node 2 2 1 1
node 3 2 1 1
node 4 3 0 2
node 9 1 0 0
gene 2 1 4 5.34304 0 1 5.34304 1
gene 1 2 4 -2.21601 0 2 -2.21601 1
gene 2 3 4 4.83961 0 3 4.83961 0
gene 2 3 9 6.557 0 46 6.557 1
gene 2 9 4 -2.07212 0 47 -2.07212 1
gene 2 2 9 1.6828 0 139 1.6828 1
gene 3 1 9 0.442651 0 193 0.442651 1
genomeend 196

/* Species #257 : (Size 2) (AF 0.260929) (Age 4)  */


/* Organism #197 Fitness: 0.00626283 Error: 0.893737 */
genomestart 197
trait 1 0.1 0 0 0 0 0 0 0 
trait 2 0.2 0 0 0 0 0 0 0 
trait 3 0.833416 0 0.347578 0.815371 0.025379 0 0 0 
node 1 2 1 1
node 2 2 1 1
node 3 1 1 1
node 4 1 0 2
node 5 1 0 0
gene 2 1 4 0.635186 0 1 0.635186 1
gene 3 2 4 -1.86718 0 2 -1.86718 1
gene 1 3 4 -5.66899 0 3 -5.66899 0
gene 3 3 5 -0.889615 0 5 -0.889615 1
gene 3 5 4 -1.71639 0 6 -1.71639 1
gene 1 2 5 6.5581 0 26 6.5581 1
gene 3 5 5 -3.10513 1 79 -3.10513 1
gene 2 1 5 0.95357 0 273 0 1
genomeend 197

/* Organism #198 Fitness: 0.515595 Error: 0.384405 */
genomestart 198
trait 1 0.1 0 0 0 0 0 0 0 
trait 2 0.2 0 0 0 0 0 0 0 
trait 3 0.833416 0 0.347578 0.815371 0.025379 0 0 0 
node 1 2 1 1
node 2 2 1 1
node 3 1 1 1
node 4 1 0 2
node 5 1 0 0
gene 2 1 4 1.59733 0 1 1.59733 1
gene 3 2 4 -5.68447 0 2 -5.68447 0
gene 1 3 4 -5.66899 0 3 -5.66899 0
gene 3 3 5 -3.68519 0 5 -3.68519 1
gene 3 5 4 -0.709517 0 6 -0.709517 1
gene 1 2 5 4.27149 0 26 4.27149 1
gene 3 5 5 -0.0786851 1 79 -0.0786851 1
genomeend 198

/* Species #265 : (Size 2) (AF 0.00584846) (Age 4)  */


/* Organism #199 Fitness: 0.00584846 Error: 0.894152 */
genomestart 199
trait 1 0.1 0 0 0 0 0 0 0 
trait 2 0.2 0 0 0 0 0 0 0 
trait 3 0.3 0 0 0 0 0 0 0 
node 1 2 1 1
node 2 3 1 1
node 3 2 1 1
node 4 2 0 2
node 22 1 0 0
gene 2 1 4 -2.41785 0 1 -2.41785 1
gene 3 2 4 4.67233 0 2 4.67233 1
gene 2 3 4 -4.51542 0 3 -4.51542 0
gene 2 4 4 3.3878 1 84 3.3878 1
gene 2 3 22 1 0 197 1 1
gene 2 22 4 0.825175 0 198 0.825175 1
gene 2 2 22 -4.40915 0 242 -4.40915 1
genomeend 199

/* Organism #200 Fitness: 0.00584846 Error: 0.894152 */
genomestart 200
trait 1 0.1 0 0 0 0 0 0 0 
trait 2 0.2 0 0 0 0 0 0 0 
trait 3 0.3 0 0 0 0 0 0 0 
node 1 2 1 1
node 2 1 1 1
node 3 3 1 1
node 4 2 0 2
node 5 3 0 0
gene 1 1 4 -3.4023 0 1 -3.4023 1
gene 3 2 4 3.84266 0 2 3.84266 1
gene 3 3 4 -4.66883 0 3 -4.66883 0
gene 3 3 5 -4.04604 0 5 -4.04604 1
gene 3 5 4 2.5543 0 6 2.5543 1
gene 1 2 5 -2.86423 0 124 -2.86423 1
genomeend 200

/* Species #267 : (Size 2) (AF 0.442956) (Age 4)  */


/* Organism #201 Fitness: 0.447819 Error: 0.452181 */
genomestart 201
trait 1 0.1 0 0 0 0 0 0 0 
trait 2 0.407055 0 0 0 0 0 0 0.111846 
trait 3 0.3 0 0 0 0 0 0 0 
node 1 1 1 1
node 2 3 1 1
node 3 3 1 1
node 4 1 0 2
node 18 1 0 0
gene 3 1 4 0.0957438 0 1 0.0957438 0
gene 1 2 4 8 0 2 8 1
gene 3 3 4 -7.32371 0 3 -7.32371 1
gene 3 1 18 1 0 118 0 1
gene 3 18 4 0.0957438 0 119 0 1
gene 1 3 18 0.926646 0 220 0.926646 1
gene 2 2 18 0.11892 0 256 0.11892 1
genomeend 201

/* Organism #202 Fitness: 0.438093 Error: 0.461907 */
genomestart 202
trait 1 0.1 0 0 0 0 0 0 0 
trait 2 0.407055 0 0 0 0 0 0 0.111846 
trait 3 0.3 0 0 0 0 0 0 0 
node 1 1 1 1
node 2 3 1 1
node 3 3 1 1
node 4 1 0 2
node 18 1 0 0
gene 3 1 4 0.0957438 0 1 0.0957438 0
gene 1 2 4 8 0 2 8 1
gene 3 3 4 -7.32371 0 3 -7.32371 1
gene 3 1 18 1 0 118 0 1
gene 3 18 4 0.0957438 0 119 0 1
gene 1 3 18 0.926646 0 220 0.926646 1
gene 2 2 18 0.11892 0 256 0.11892 1
genomeend 202

/* Species #272 : (Size 4) (AF 0.288305) (Age 4)  */


/* Organism #203 Fitness: 0.0584846 Error: 0.841515 */
genomestart 203
trait 1 0.1 0 0 0 0 0 0 0 
trait 2 0.2 0 0 0 0 0 0 0 
trait 3 0.3 0 0 0 0 0 0 0 
node 1 2 1 1
node 2 1 1 1
node 3 3 1 1
node 4 2 0 2
node 5 1 0 0
gene 3 1 4 8 0 1 8 1
gene 3 2 4 3.20688 0 2 3.20688 1
gene 3 3 4 3.92694 0 3 3.92694 1
gene 3 3 5 -3.18776 0 5 -3.18776 1
gene 1 5 4 5.97189 0 6 5.97189 1
gene 3 2 5 -4.10269 0 69 -4.10269 1
genomeend 203

/* Organism #204 Fitness: 0.207692 Error: 0.692308 */
genomestart 204
trait 1 0.1 0 0 0 0 0 0 0 
trait 2 0.2 0 0 0 0 0 0 0 
trait 3 0.3 0 0 0 0 0 0 0 
node 1 2 1 1
node 2 1 1 1
node 3 3 1 1
node 4 2 0 2
node 5 1 0 0
gene 3 1 4 2.43189 0 1 2.43189 1
gene 3 2 4 1.50979 0 2 1.50979 1
gene 3 3 4 3.50668 0 3 3.50668 1
gene 3 3 5 -2.9105 0 5 -2.9105 1
gene 2 5 4 4.12529 0 6 4.12529 1
gene 3 1 5 4.48172 0 113 4.48172 1
gene 2 2 5 0.286039 0 180 0 1
genomeend 204

/* Organism #205 Fitness: 0.513621 Error: 0.386379 */
genomestart 205
trait 1 0.1 0 0 0 0 0 0 0 
trait 2 0.2 0 0 0 0 0 0 0 
trait 3 0.3 0 0 0 0 0 0 0 
node 1 2 1 1
node 2 1 1 1
node 3 3 1 1
node 4 2 0 2
node 5 1 0 0
gene 3 1 4 5.34488 0 1 5.34488 1
gene 3 2 4 4.56588 0 2 4.56588 1
gene 3 3 4 3.7622 0 3 3.7622 0
gene 3 3 5 -0.436769 0 5 -0.436769 1
gene 2 5 4 3.9451 0 6 3.9451 1
gene 3 2 5 -5.40128 0 69 -5.40128 1
genomeend 205

/* Organism #206 Fitness: 0.373424 Error: 0.526576 */
genomestart 206
trait 1 0.1 0 0 0 0 0 0 0 
trait 2 0.2 0 0 0 0 0 0 0 
trait 3 0.3 0 0 0 0 0 0 0 
node 1 1 1 1
node 2 1 1 1
node 3 3 1 1
node 4 2 0 2
node 5 1 0 0
gene 3 1 4 2.98383 0 1 2.98383 1
gene 3 2 4 2.64726 0 2 2.64726 1
gene 3 3 4 1.93381 0 3 1.93381 0
gene 3 3 5 -0.568931 0 5 -0.568931 1
gene 3 5 4 3.11579 0 6 3.11579 1
gene 3 2 5 2.21392 0 69 2.21392 1
gene 2 1 5 0.840408 0 179 0.840408 1
genomeend 206

/* Species #279 : (Size 3) (AF 0.294122) (Age 4)  */


/* Organism #207 Fitness: 0.0671895 Error: 0.83281 */
genomestart 207
trait 1 0.184644 0 0.00201728 0 0 0 0.0312599 0.0310271 
trait 2 0.254999 0 0 0 0 0 0 0.0297092 
trait 3 0.59092 0 0 0 0 0 0.381792 0 
node 1 1 1 1
node 2 3 1 1
node 3 3 1 1
node 4 1 0 2
gene 3 1 4 8 0 1 8 1
gene 1 2 4 3.19601 0 2 3.19601 1
gene 3 3 4 4.71623 0 3 4.71623 0
genomeend 207

/* Organism #208 Fitness: 0.425538 Error: 0.474462 */
genomestart 208
trait 1 0.1 0 0 0 0 0 0 0 
trait 2 0.2 0 0 0 0 0 0 0 
trait 3 0.3 0 0 0 0 0 0 0 
node 1 1 1 1
node 2 1 1 1
node 3 3 1 1
node 4 2 0 2
node 5 1 0 0
gene 3 1 4 6.71094 0 1 6.71094 1
gene 3 2 4 2.88217 0 2 2.88217 0
gene 3 3 4 4.34024 0 3 4.34024 0
gene 3 3 5 -0.367185 0 5 -0.367185 1
gene 3 5 4 0.954922 0 6 0.954922 1
gene 3 2 5 3.74718 0 69 3.74718 1
gene 3 1 5 0.442669 0 233 0 1
genomeend 208

/* Organism #209 Fitness: 0.389637 Error: 0.510363 */
genomestart 209
trait 1 0.1 0 0 0 0 0 0 0 
trait 2 0.2 0 0 0 0 0 0 0 
trait 3 0.3 0 0 0 0 0 0 0 
node 1 1 1 1
node 2 1 1 1
node 3 3 1 1
node 4 2 0 2
node 5 1 0 0
gene 3 1 4 6.71094 0 1 6.71094 1
gene 3 2 4 2.88217 0 2 2.88217 0
gene 3 3 4 4.34024 0 3 4.34024 0
gene 3 3 5 -0.367185 0 5 -0.367185 1
gene 3 5 4 0.954922 0 6 0.954922 1
gene 3 2 5 3.74718 0 69 3.74718 1
gene 3 1 5 0.442669 0 233 0 1
genomeend 209

/* Species #280 : (Size 1) (AF 0.135367) (Age 4)  */


/* Organism #210 Fitness: 0.135367 Error: 0.764633 */
genomestart 210
trait 1 0.1 0 0 0 0 0 0 0 
trait 2 0 0.505574 0 0 0 0 0 0 
trait 3 0.3 0 0 0 0 0 0 0 
node 1 2 1 1
node 2 1 1 1
node 3 3 1 1
node 4 2 0 2
node 5 1 0 0
node 27 1 0 0
gene 3 1 4 8 0 1 8 1
gene 3 2 4 -3.53132 0 2 -3.53132 1
gene 3 3 4 -6.25232 0 3 -6.25232 1
gene 3 3 5 -8 0 5 -8 1
gene 2 5 4 -1.02751 0 6 -1.02751 1
gene 3 1 5 2.66033 0 113 2.66033 0
gene 3 1 27 1 0 258 0 1
gene 3 27 5 2.66033 0 259 0 1
gene 2 4 4 0.434504 1 289 0.434504 1
genomeend 210

/* Species #281 : (Size 3) (AF 0.173454) (Age 4)  */


/* Organism #211 Fitness: 0.115952 Error: 0.784048 */
genomestart 211
trait 1 0.1 0 0 0 0 0 0 0 
trait 2 0.2 0 0 0 0 0 0 0 
trait 3 0.3 0 0 0 0 0 0 0 
node 1 2 1 1
node 2 2 1 1
node 3 3 1 1
node 4 2 0 2
node 5 1 0 0
gene 3 1 4 6.14531 0 1 6.14531 1
gene 3 2 4 3.05914 0 2 3.05914 1
gene 3 3 4 -2.11121 0 3 -2.11121 1
gene 3 3 5 3.49129 0 5 3.49129 1
gene 3 5 4 -6.02325 0 6 -6.02325 1
gene 3 1 5 2.21548 0 113 2.21548 1
gene 2 2 5 3.82627 0 180 3.82627 1
genomeend 211

/* Organism #212 Fitness: 0.380057 Error: 0.519943 */
genomestart 212
trait 1 0.1 0 0 0 0 0 0 0 
trait 2 0.2 0 0 0 0 0 0 0 
trait 3 0.3 0 0 0 0 0 0 0 
node 1 2 1 1
node 2 2 1 1
node 3 3 1 1
node 4 2 0 2
node 5 1 0 0
gene 3 1 4 8 0 1 8 1
gene 3 2 4 -0.585619 0 2 -0.585619 1
gene 3 3 4 -4.16148 0 3 -4.16148 1
gene 3 3 5 0.726409 0 5 0.726409 1
gene 3 5 4 -7.83372 0 6 -7.83372 1
gene 3 1 5 -0.252932 0 113 -0.252932 1
gene 2 2 5 -0.91259 0 180 -0.91259 1
genomeend 212

/* Organism #213 Fitness: 0.0243517 Error: 0.875648 */
genomestart 213
trait 1 0.1 0 0 0 0 0 0 0 
trait 2 0.2 0 0 0 0 0 0 0 
trait 3 0.3 0 0 0 0 0 0 0 
node 1 2 1 1
node 2 2 1 1
node 3 3 1 1
node 4 2 0 2
node 5 1 0 0
gene 3 1 4 6.87151 0 1 6.87151 1
gene 3 2 4 1.26142 0 2 1.26142 1
gene 3 3 4 -6.57285 0 3 -6.57285 1
gene 3 3 5 -1.75276 0 5 -1.75276 1
gene 3 5 4 -3.2817 0 6 -3.2817 1
gene 3 1 5 3.65132 0 113 3.65132 1
gene 2 2 5 -1.10274 0 180 -1.10274 1
genomeend 213

/* Species #282 : (Size 1) (AF 0.511131) (Age 4)  */


/* Organism #214 Fitness: 0.511131 Error: 0.388869 */
genomestart 214
trait 1 0.1 0 0 0 0 0 0 0 
trait 2 0.2 0 0 0 0 0 0 0 
trait 3 0.3 0 0 0 0 0 0 0 
node 1 2 1 1
node 2 1 1 1
node 3 3 1 1
node 4 2 0 2
node 5 1 0 0
