
/* Species #1 : (Size 15) (AF 0.405948) (Age 7)  */


/* Organism #0 Fitness: 0.445422 Error: 0.454578 */
genomestart 0
trait 1 0.1 0 0 0 0 0 0 0 
trait 2 0.2 0 0 0 0 0 0 0 
trait 3 0.3 0 0 0 0 0 0 0 
node 1 1 1 1
node 2 2 1 1
node 3 1 1 1
node 4 1 0 2
gene 1 1 4 0.846178 0 1 0.846178 1
gene 1 2 4 -0.727274 0 2 -0.727274 1
gene 3 3 4 -4.8528 0 3 -4.8528 1
genomeend 0

/* Organism #1 Fitness: 0.37312 Error: 0.52688 */
genomestart 1
trait 1 0.1 0.286221 0 0 0 0 0.346588 0.152557 
trait 2 0.303527 0 0 0 0 0 0 0.0559231 
trait 3 0.3 0 0 0 0 0 0 0 
node 1 3 1 1
node 2 2 1 1
node 3 2 1 1
node 4 2 0 2
gene 3 1 4 1.77109 0 1 1.77109 1
gene 2 2 4 4.43905 0 2 4.43905 1
gene 3 3 4 -5.52984 0 3 -5.52984 1
genomeend 1

/* Organism #2 Fitness: 0.450223 Error: 0.449777 */
genomestart 2
trait 1 0.1 0 0 0 0 0 0 0 
trait 2 0.251764 0 0 0 0 0 0 0.0279616 
trait 3 0.3 0 0 0 0 0 0 0 
node 1 1 1 1
node 2 2 1 1
node 3 1 1 1
node 4 1 0 2
gene 2 1 4 0.0447914 0 1 0.0447914 1
gene 1 2 4 3.49221 0 2 3.49221 1
gene 2 3 4 -4.25707 0 3 -4.25707 1
genomeend 2

/* Organism #3 Fitness: 0.443642 Error: 0.456358 */
genomestart 3
trait 1 0.152252 0 0 0 0 0 0 0 
trait 2 0.2 0 0 0 0 0 0 0 
trait 3 0.3 0 0.0729695 0 0 0 0 0 
node 1 2 1 1
node 2 1 1 1
node 3 3 1 1
node 4 2 0 2
gene 2 1 4 0.0773421 0 1 0.0773421 1
gene 2 2 4 -0.0293135 0 2 -0.0293135 1
gene 2 3 4 -6.01974 0 3 -6.01974 1
genomeend 3

/* Organism #4 Fitness: 0.482445 Error: 0.417555 */
genomestart 4
trait 1 0.269288 0 0.00403457 0 0 0 0.0625199 0.0620542 
trait 2 0.2 0 0 0 0 0 0 0 
trait 3 0.3 0 0 0 0 0 0 0 
node 1 2 1 1
node 2 3 1 1
node 3 2 1 1
node 4 2 0 2
gene 3 1 4 3.04628 0 1 3.04628 1
gene 1 2 4 1.93253 0 2 1.93253 1
gene 2 3 4 -3.99159 0 3 -3.99159 1
genomeend 4

/* Organism #5 Fitness: 0.101173 Error: 0.798827 */
genomestart 5
trait 1 0.269288 0 0.00403457 0 0 0 0.0625199 0.0620542 
trait 2 0.2 0 0 0 0 0 0 0 
trait 3 0.3 0 0 0 0 0 0 0 
node 1 2 1 1
node 2 3 1 1
node 3 2 1 1
node 4 2 0 2
gene 3 1 4 3.63131 0 1 3.63131 1
gene 1 2 4 1.93253 0 2 1.93253 1
gene 2 3 4 -3.17474 0 3 -3.17474 1
genomeend 5

/* Organism #6 Fitness: 0.255391 Error: 0.644609 */
genomestart 6
trait 1 0.1 0 0 0 0 0 0 0 
trait 2 0.2 0 0 0 0 0 0 0 
trait 3 0.856126 0 0.368041 0 0.130831 0 0.189991 0 
node 1 3 1 1
node 2 2 1 1
node 3 3 1 1
node 4 2 0 2
gene 3 1 4 2.23642 0 1 2.23642 1
gene 3 2 4 -1.05773 0 2 -1.05773 1
gene 3 3 4 -5.00212 0 3 -5.00212 1
genomeend 6

/* Organism #7 Fitness: 0.295602 Error: 0.604398 */
genomestart 7
trait 1 0.118929 0 0 0 0 0 0.0152945 0.0124108 
trait 2 0.2 0 0 0 0 0 0 0 
trait 3 0.3 0 0 0 0 0 0 0 
node 1 2 1 1
node 2 1 1 1
node 3 3 1 1
node 4 2 0 2
node 5 1 0 0
gene 3 1 4 2.006 0 1 2.006 1
gene 1 2 4 2.23836 0 2 2.23836 1
gene 1 3 4 -4.047 0 3 -4.047 1
gene 3 3 5 8 0 5 8 1
gene 3 5 4 -1.54251 0 6 -1.54251 1
gene 1 2 5 -2.51544 0 26 -2.51544 1
genomeend 7

/* Organism #8 Fitness: 0.470913 Error: 0.429087 */
genomestart 8
trait 1 0.1 0 0 0 0 0 0 0 
trait 2 0.2 0 0 0 0 0 0 0 
trait 3 0.3 0 0 0 0 0 0 0 
node 1 1 1 1
node 2 2 1 1
node 3 1 1 1
node 4 1 0 2
node 9 1 0 0
gene 2 1 4 1.36929 0 1 1.36929 1
gene 1 2 4 0.702454 0 2 0.702454 1
gene 2 3 4 -4.78587 0 3 -4.78587 1
gene 2 3 9 -3.57972 0 46 -3.57972 1
gene 2 9 4 -8 0 47 -8 1
gene 1 2 9 -0.652679 0 70 -0.652679 1
genomeend 8

/* Organism #9 Fitness: 0.575485 Error: 0.324515 */
genomestart 9
trait 1 0.1 0 0 0 0 0 0 0 
trait 2 0.2 0 0 0 0 0 0 0 
trait 3 0.3 0 0 0 0 0 0 0 
node 1 1 1 1
node 2 2 1 1
node 3 1 1 1
node 4 1 0 2
node 9 1 0 0
gene 2 1 4 1.36929 0 1 1.36929 1
gene 1 2 4 0.702454 0 2 0.702454 1
gene 2 3 4 -4.78587 0 3 -4.78587 1
gene 2 3 9 -3.57972 0 46 -3.57972 1
gene 2 9 4 -8 0 47 -8 1
gene 1 2 9 -0.652679 0 70 -0.652679 1
genomeend 9

/* Organism #10 Fitness: 0.50874 Error: 0.39126 */
genomestart 10
trait 1 0.1 0 0 0 0 0 0 0 
trait 2 0.2 0 0 0 0 0 0 0 
trait 3 0.3 0 0 0 0 0 0 0 
node 1 2 1 1
node 2 1 1 1
node 3 3 1 1
node 4 2 0 2
node 5 1 0 0
gene 3 1 4 1.82136 0 1 1.82136 1
gene 3 2 4 3.02576 0 2 3.02576 1
gene 3 3 4 -3.0112 0 3 -3.0112 0
gene 3 3 5 -4.16921 0 5 -4.16921 1
gene 3 5 4 -7.00443 0 6 -7.00443 1
genomeend 10

/* Organism #11 Fitness: 0.445436 Error: 0.454564 */
genomestart 11
trait 1 0.1 0 0 0 0 0 0 0 
trait 2 0.2 0 0 0 0 0 0 0 
trait 3 0.2625 0 0 0 0 0 0 0.0818005 
node 1 2 1 1
node 2 1 1 1
node 3 3 1 1
node 4 2 0 2
node 5 1 0 0
gene 2 1 4 0.237888 0 1 0.237888 1
gene 3 2 4 0.733626 0 2 0.733626 1
gene 3 3 4 -3.58509 0 3 -3.58509 1
gene 3 3 5 3.16379 0 5 3.16379 1
gene 3 5 4 -2.95351 0 6 -2.95351 1
gene 3 2 5 4.17367 0 69 4.17367 1
genomeend 11

/* Organism #12 Fitness: 0.300214 Error: 0.599786 */
genomestart 12
trait 1 0.1 0 0 0 0 0 0 0 
trait 2 0.2 0 0 0 0 0 0 0 
trait 3 0.3 0 0 0 0 0 0 0 
node 1 2 1 1
node 2 3 1 1
node 3 3 1 1
node 4 2 0 2
node 15 1 0 0
gene 3 1 4 2.28692 0 1 2.28692 1
gene 1 2 4 1.82663 0 2 1.82663 1
gene 3 3 4 -4.24947 0 3 -4.24947 1
gene 1 2 15 7.05083 0 89 7.05083 1
gene 1 15 4 4.58119 0 90 4.58119 1
genomeend 12

/* Organism #13 Fitness: 0.5054 Error: 0.3946 */
genomestart 13
trait 1 0.1 0 0 0 0 0 0 0 
trait 2 0.2 0 0 0 0 0 0 0 
trait 3 0.3 0 0 0 0 0 0 0 
node 1 2 1 1
node 2 3 1 1
node 3 3 1 1
node 4 2 0 2
node 15 1 0 0
gene 3 1 4 1.42093 0 1 1.42093 1
gene 1 2 4 1.20893 0 2 1.20893 1
gene 3 3 4 -5.42657 0 3 -5.42657 1
gene 1 2 15 8 0 89 8 1
gene 1 15 4 8 0 90 8 1
genomeend 13

/* Organism #14 Fitness: 0.43601 Error: 0.46399 */
genomestart 14
trait 1 0.1 0 0 0 0 0 0 0 
trait 2 0.2 0 0 0 0 0 0 0 
trait 3 0.3 0 0 0 0 0 0 0 
node 1 2 1 1
node 2 1 1 1
node 3 3 1 1
node 4 2 0 2
node 5 1 0 0
gene 3 1 4 0.469369 0 1 0.469369 1
gene 3 2 4 -0.590849 0 2 -0.590849 1
gene 3 3 4 -3.62784 0 3 -3.62784 0
gene 3 3 5 4.19428 0 5 4.19428 1
gene 3 5 4 8 0 6 8 1
genomeend 14

/* Species #2 : (Size 2) (AF 0.207896) (Age 7)  */


/* Organism #15 Fitness: 0.409803 Error: 0.490197 */
genomestart 15
trait 1 0.269288 0 0.00403457 0 0 0 0.0625199 0.0620542 
trait 2 0.2 0 0 0 0 0 0 0 
trait 3 0.3 0 0 0 0 0 0 0 
node 1 3 1 1
node 2 2 1 1
node 3 2 1 1
node 4 2 0 2
gene 3 1 4 1.78305 0 1 1.78305 1
gene 1 2 4 -0.582492 0 2 -0.582492 1
gene 3 3 4 0.861837 0 3 0.861837 1
genomeend 15

/* Organism #16 Fitness: 0.00598793 Error: 0.894012 */
genomestart 16
trait 1 0.1 0 0 0 0 0 0 0 
trait 2 0.2 0 0 0 0 0 0 0 
trait 3 0.353828 0 0.42597 0 0.185344 0 0 0 
node 1 3 1 1
node 2 1 1 1
node 3 3 1 1
node 4 1 0 2
node 6 1 0 0
gene 2 1 4 2.18192 0 1 2.18192 0
gene 3 2 4 -0.396391 0 2 -0.396391 1
gene 1 3 4 2.26386 0 3 2.26386 1
gene 2 1 6 -4.30259 0 8 -4.30259 1
gene 2 6 4 1.07004 0 9 1.07004 1
genomeend 16

/* Species #3 : (Size 7) (AF 0.370638) (Age 6)  */


/* Organism #17 Fitness: 0.394331 Error: 0.505669 */
genomestart 17
trait 1 0.251434 0 0 0 0 0 0.122356 0.0992867 
trait 2 0.2 0 0 0 0 0 0 0 
trait 3 0.3 0 0.106602 0 0 0.0728837 0 0 
node 1 1 1 1
node 2 1 1 1
node 3 1 1 1
node 4 1 0 2
gene 2 1 4 1.7353 0 1 1.7353 1
gene 1 2 4 -8 0 2 -8 1
gene 2 3 4 -4.87479 0 3 -4.87479 1
genomeend 17

/* Organism #18 Fitness: 0.452659 Error: 0.447341 */
genomestart 18
trait 1 0.137858 0 0 0 0 0 0.030589 0.0248217 
trait 2 0.2 0 0 0 0 0 0 0 
trait 3 0.351054 0 0.0266504 0.0412712 0 0.0182209 0 0 
node 1 3 1 1
node 2 2 1 1
node 3 1 1 1
node 4 2 0 2
gene 2 1 4 0.429751 0 1 0.429751 1
gene 2 2 4 -6.96678 0 2 -6.96678 0
gene 1 3 4 1.20167 0 3 1.20167 1
genomeend 18

/* Organism #19 Fitness: 0.442397 Error: 0.457603 */
genomestart 19
trait 1 0.213575 0 0 0 0 0 0.0917671 0.074465 
trait 2 0.2 0 0 0 0 0 0 0 
trait 3 0.3 0 0.0799513 0 0 0.0546628 0 0 
node 1 1 1 1
node 2 1 1 1
node 3 1 1 1
node 4 1 0 2
gene 3 1 4 -0.265364 0 1 -0.265364 1
gene 1 2 4 -6.84065 0 2 -6.84065 1
gene 2 3 4 0.400245 0 3 0.400245 0
genomeend 19

/* Organism #20 Fitness: 0.00584846 Error: 0.894152 */
genomestart 20
trait 1 0.152252 0 0 0 0 0 0 0 
trait 2 0.2 0 0 0 0 0 0 0 
trait 3 0.3 0 0.0729695 0 0 0 0 0 
node 1 2 1 1
node 2 1 1 1
node 3 3 1 1
node 4 2 0 2
gene 2 1 4 -1.7775 0 1 -1.7775 1
gene 2 2 4 -8 0 2 -8 1
gene 2 3 4 -1.58953 0 3 -1.58953 0
genomeend 20

/* Organism #21 Fitness: 0.39115 Error: 0.50885 */
genomestart 21
trait 1 0.1 0 0 0 0 0 0 0 
trait 2 0.2 0 0 0 0 0 0 0 
trait 3 0.3 0 0.0364848 0 0 0 0 0 
node 1 2 1 1
node 2 1 1 1
node 3 3 1 1
node 4 2 0 2
node 5 1 0 0
gene 2 1 4 1.85675 0 1 1.85675 1
gene 1 2 4 -8 0 2 -8 1
gene 1 3 4 -1.58989 0 3 -1.58989 0
gene 3 3 5 6.11706 0 5 6.11706 1
gene 3 5 4 -7.65213 0 6 -7.65213 1
genomeend 21

/* Organism #22 Fitness: 0.428582 Error: 0.471418 */
genomestart 22
trait 1 0.1 0 0 0 0 0 0 0 
trait 2 0.2 0 0 0 0 0 0 0 
trait 3 0.3 0 0.0364848 0 0 0 0 0 
node 1 2 1 1
node 2 1 1 1
node 3 3 1 1
node 4 2 0 2
node 5 1 0 0
gene 2 1 4 1.85675 0 1 1.85675 1
gene 1 2 4 -8 0 2 -8 1
gene 1 3 4 -1.58989 0 3 -1.58989 0
gene 3 3 5 6.11706 0 5 6.11706 1
gene 3 5 4 -7.65213 0 6 -7.65213 1
gene 2 1 5 -0.383107 0 179 0 1
genomeend 22

/* Organism #23 Fitness: 0.479496 Error: 0.420504 */
genomestart 23
trait 1 0.1 0 0 0 0 0 0 0 
trait 2 0.2 0 0 0 0 0 0 0 
trait 3 0.3 0 0 0 0 0 0 0 
node 1 2 1 1
node 2 1 1 1
node 3 3 1 1
node 4 2 0 2
node 5 1 0 0
gene 2 1 4 1.05432 0 1 1.05432 1
gene 3 2 4 -5.85597 0 2 -5.85597 1
gene 3 3 4 -0.324325 0 3 -0.324325 0
gene 3 3 5 -3.43509 0 5 -3.43509 1
gene 3 5 4 -7.40585 0 6 -7.40585 1
gene 3 2 5 2.23111 0 69 2.23111 1
genomeend 23

/* Species #5 : (Size 3) (AF 0.516954) (Age 6)  */


/* Organism #24 Fitness: 0.522028 Error: 0.377972 */
genomestart 24
trait 1 0.1 0 0 0 0 0 0 0 
trait 2 0.2 0 0 0 0 0 0 0 
trait 3 0.3 0 0 0 0 0 0 0 
node 1 1 1 1
node 2 3 1 1
node 3 1 1 1
node 4 1 0 2
node 9 1 0 0
gene 2 1 4 1.97676 0 1 1.97676 1
gene 2 2 4 4.89712 0 2 4.89712 1
gene 2 3 4 -0.12874 0 3 -0.12874 0
gene 2 3 9 2.93852 0 46 2.93852 1
gene 2 9 4 -4.26947 0 47 -4.26947 1
gene 1 2 9 -3.76206 0 70 -3.76206 1
genomeend 24

/* Organism #25 Fitness: 0.455808 Error: 0.444192 */
genomestart 25
trait 1 0.118929 0 0 0 0 0 0.0152945 0.0124108 
trait 2 0.2 0 0 0 0 0 0 0 
trait 3 0.3 0 0 0 0 0 0 0 
node 1 2 1 1
node 2 2 1 1
node 3 3 1 1
node 4 2 0 2
gene 3 1 4 3.16344 0 1 3.16344 1
gene 1 2 4 4.35167 0 2 4.35167 1
gene 1 3 4 -1.0365 0 3 -1.0365 0
genomeend 25

/* Organism #26 Fitness: 0.573028 Error: 0.326972 */
genomestart 26
trait 1 0.137858 0 0 0 0 0 0.030589 0.0248217 
trait 2 0.2 0 0 0 0 0 0 0 
trait 3 0.3 0 0 0 0 0 0 0 
node 1 1 1 1
node 2 2 1 1
node 3 1 1 1
node 4 1 0 2
node 9 1 0 0
gene 3 1 4 3.0035 0 1 3.0035 1
gene 1 2 4 3.82428 0 2 3.82428 1
gene 2 3 4 -1.68142 0 3 -1.68142 0
gene 2 3 9 0.690067 0 46 0.690067 1
gene 3 9 4 -5.14521 0 47 -5.14521 1
gene 3 2 9 0.454142 0 129 0 1
genomeend 26

/* Species #6 : (Size 6) (AF 0.440683) (Age 6)  */


/* Organism #27 Fitness: 0.479371 Error: 0.420629 */
genomestart 27
trait 1 0.1 0 0 0 0 0 0 0 
trait 2 0.251764 0 0 0 0 0 0 0.0279616 
trait 3 0.3 0 0 0 0 0 0 0 
node 1 1 1 1
node 2 3 1 1
node 3 2 1 1
node 4 3 0 2
gene 2 1 4 3.3565 0 1 3.3565 1
gene 2 2 4 2.30931 0 2 2.30931 1
gene 2 3 4 1.37238 0 3 1.37238 1
genomeend 27

/* Organism #28 Fitness: 0.619963 Error: 0.280037 */
genomestart 28
trait 1 0.1 0 0 0 0 0 0 0 
trait 2 0.288698 0 0 0.0794116 0.0844017 0 0 0 
trait 3 0.3 0 0 0 0 0 0.024532 0 
node 1 1 1 1
node 2 3 1 1
node 3 2 1 1
node 4 1 0 2
gene 2 1 4 6.0712 0 1 6.0712 1
gene 1 2 4 1.5237 0 2 1.5237 1
gene 2 3 4 -1.29135 0 3 -1.29135 0
genomeend 28

/* Organism #29 Fitness: 0.41973 Error: 0.48027 */
genomestart 29
trait 1 0.137858 0 0 0 0 0 0.030589 0.0248217 
trait 2 0.2 0 0 0 0 0 0 0 
trait 3 0.3 0 0 0 0 0 0 0 
node 1 2 1 1
node 2 1 1 1
node 3 3 1 1
node 4 2 0 2
node 5 1 0 0
gene 3 1 4 3.0035 0 1 3.0035 1
gene 1 2 4 3.48511 0 2 3.48511 1
gene 3 3 4 -2.16804 0 3 -2.16804 0
gene 3 3 5 8 0 5 8 1
gene 3 5 4 -2.06538 0 6 -2.06538 1
gene 3 4 4 0.0517514 1 138 0.0517514 1
gene 1 4 5 -0.254319 1 212 -0.254319 1
genomeend 29

/* Organism #30 Fitness: 0.203673 Error: 0.696327 */
genomestart 30
trait 1 0.148373 0 0 0 0.476386 0 0.255794 0 
trait 2 0.2 0 0 0 0 0 0 0 
trait 3 0.3 0 0 0 0 0 0 0 
node 1 2 1 1
node 2 1 1 1
node 3 3 1 1
node 4 2 0 2
node 5 1 0 0
gene 3 1 4 3.99407 0 1 3.99407 1
gene 3 2 4 3.0236 0 2 3.0236 1
gene 3 3 4 -0.19048 0 3 -0.19048 1
gene 3 3 5 -7.11544 0 5 -7.11544 1
gene 3 5 4 2.71662 0 6 2.71662 1
genomeend 30

/* Organism #31 Fitness: 0.43624 Error: 0.46376 */
genomestart 31
trait 1 0.1 0 0 0 0 0 0 0 
trait 2 0.2 0 0 0 0 0 0 0 
trait 3 0.3 0 0 0 0 0 0.0490641 0 
node 1 3 1 1
node 2 2 1 1
node 3 2 1 1
node 4 3 0 2
node 9 1 0 0
gene 2 1 4 2.37138 0 1 2.37138 1
gene 1 2 4 2.54643 0 2 2.54643 1
gene 2 3 4 -2.11647 0 3 -2.11647 0
gene 2 3 9 3.97398 0 46 3.97398 1
gene 2 9 4 -2.73539 0 47 -2.73539 1
gene 2 2 9 0.304804 0 139 0.304804 1
genomeend 31

/* Organism #32 Fitness: 0.485125 Error: 0.414875 */
genomestart 32
trait 1 0.1 0 0 0 0 0 0 0.162672 
trait 2 0.2 0 0 0 0 0 0 0 
trait 3 0.3 0 0 0 0 0 0 0 
node 1 1 1 1
node 2 2 1 1
node 3 1 1 1
node 4 1 0 2
node 9 1 0 0
gene 2 1 4 2.44016 0 1 2.44016 1
gene 1 2 4 2.37369 0 2 2.37369 1
gene 2 3 4 -2.49244 0 3 -2.49244 1
gene 1 3 9 1.43372 0 46 1.43372 1
gene 2 9 4 -6.1198 0 47 -6.1198 1
genomeend 32

/* Species #7 : (Size 7) (AF 0.444433) (Age 6)  */


/* Organism #33 Fitness: 0.45979 Error: 0.44021 */
genomestart 33
trait 1 0.1 0 0 0 0 0 0 0 
trait 2 0.2 0 0 0 0 0 0 0 
trait 3 0.3 0 0 0 0 0 0 0 
node 1 2 1 1
node 2 1 1 1
node 3 3 1 1
node 4 2 0 2
node 5 1 0 0
gene 3 1 4 1.92069 0 1 1.92069 1
gene 1 2 4 -2.7226 0 2 -2.7226 1
gene 3 3 4 6.23175 0 3 6.23175 1
gene 3 3 5 -2.51019 0 5 -2.51019 1
gene 3 5 4 0.0474956 0 6 0.0474956 1
genomeend 33

/* Organism #34 Fitness: 0.541822 Error: 0.358178 */
genomestart 34
trait 1 0.1 0 0 0 0 0 0 0 
trait 2 0.2 0 0 0 0 0 0 0 
trait 3 0.3 0 0 0 0 0 0 0 
node 1 2 1 1
node 2 3 1 1
node 3 3 1 1
node 4 2 0 2
gene 3 1 4 3.00667 0 1 3.00667 1
gene 3 2 4 -4.35488 0 2 -4.35488 1
gene 2 3 4 6.19789 0 3 6.19789 1
genomeend 34

/* Organism #35 Fitness: 0.551406 Error: 0.348594 */
genomestart 35
trait 1 0.1 0 0.10002 0.0476768 0 0 0 0.420411 
trait 2 0.2 0 0 0 0 0 0 0 
trait 3 0.225 0 0 0 0 0 0 0.163601 
node 1 3 1 1
node 2 2 1 1
node 3 3 1 1
node 4 2 0 2
gene 2 1 4 1.37376 0 1 1.37376 1
gene 3 2 4 -0.782244 0 2 -0.782244 1
gene 2 3 4 6.19789 0 3 6.19789 1
genomeend 35

/* Organism #36 Fitness: 0.0914067 Error: 0.808593 */
genomestart 36
trait 1 0.1 0 0 0 0 0 0 0 
trait 2 0.377396 0 0 0.158823 0.168803 0 0 0 
trait 3 0.3 0 0 0 0 0 0 0 
node 1 2 1 1
node 2 1 1 1
node 3 3 1 1
node 4 2 0 2
gene 2 1 4 3.95216 0 1 3.95216 1
gene 1 2 4 -3.93423 0 2 -3.93423 1
gene 2 3 4 8 0 3 8 1
genomeend 36

/* Organism #37 Fitness: 0.499828 Error: 0.400172 */
genomestart 37
trait 1 0.1 0 0.10002 0.0476768 0 0 0 0.420411 
trait 2 0.2 0 0 0 0 0 0 0 
trait 3 0.225 0 0 0 0 0 0 0.163601 
node 1 3 1 1
node 2 2 1 1
node 3 3 1 1
node 4 2 0 2
gene 2 1 4 3.13448 0 1 3.13448 1
gene 1 2 4 -3.69501 0 2 -3.69501 1
gene 3 3 4 8 0 3 8 1
genomeend 37

/* Organism #38 Fitness: 0.482106 Error: 0.417894 */
genomestart 38
trait 1 0.1 0 0 0 0 0 0 0 
trait 2 0.2 0 0 0 0 0 0 0 
trait 3 0.3 0 0 0 0 0 0 0 
node 1 3 1 1
node 2 1 1 1
node 3 3 1 1
node 4 1 0 2
gene 1 1 4 2.68004 0 1 2.68004 1
gene 1 2 4 -3.38507 0 2 -3.38507 1
gene 3 3 4 4.14948 0 3 4.14948 1
genomeend 38

/* Organism #39 Fitness: 0.484671 Error: 0.415329 */
genomestart 39
trait 1 0.1 0 0 0 0 0 0 0 
trait 2 0.2 0 0 0 0 0 0 0 
trait 3 0.3 0 0 0 0 0 0 0 
node 1 3 1 1
node 2 1 1 1
node 3 3 1 1
node 4 1 0 2
gene 1 1 4 5.68173 0 1 5.68173 1
gene 1 2 4 -3.38507 0 2 -3.38507 1
gene 3 3 4 8 0 3 8 1
genomeend 39

/* Species #8 : (Size 6) (AF 0.422956) (Age 6)  */


/* Organism #40 Fitness: 0.58248 Error: 0.31752 */
genomestart 40
trait 1 0.1 0 0 0 0 0 0 0 
trait 2 0.288698 0 0 0.0794116 0.0844017 0 0 0 
trait 3 0.3 0 0 0 0 0 0 0 
node 1 3 1 1
node 2 2 1 1
node 3 2 1 1
node 4 3 0 2
gene 3 1 4 6.3533 0 1 6.3533 1
gene 3 2 4 0.716228 0 2 0.716228 1
gene 2 3 4 3.95387 0 3 3.95387 1
genomeend 40

/* Organism #41 Fitness: 0.489763 Error: 0.410237 */
genomestart 41
trait 1 0.2125 0 0.00403457 0 0 0 0.0166364 0.0248217 
trait 2 0.21477 0 0 0 0 0 0 0 
trait 3 0.3 0 0 0 0 0 0 0 
node 1 2 1 1
node 2 3 1 1
node 3 2 1 1
node 4 2 0 2
gene 2 1 4 6.43778 0 1 6.43778 1
gene 2 2 4 1.05385 0 2 1.05385 1
gene 2 3 4 1.0116 0 3 1.0116 1
genomeend 41

/* Organism #42 Fitness: 0.420706 Error: 0.479294 */
genomestart 42
trait 1 0.1 0 0 0 0 0 0 0 
trait 2 0.2 0 0 0 0 0 0 0 
trait 3 0.368071 0 0 0.0550282 0 0 0 0 
node 1 1 1 1
node 2 3 1 1
node 3 3 1 1
node 4 1 0 2
gene 3 1 4 6.78309 0 1 6.78309 1
gene 2 2 4 -0.403256 0 2 -0.403256 1
gene 1 3 4 3.68026 0 3 3.68026 1
genomeend 42

/* Organism #43 Fitness: 0.346826 Error: 0.553174 */
genomestart 43
trait 1 0.1 0 0 0 0 0 0 0 
trait 2 0.2 0 0 0 0 0 0 0 
trait 3 0.3 0 0 0 0 0 0 0 
node 1 2 1 1
node 2 1 1 1
node 3 3 1 1
node 4 2 0 2
node 5 1 0 0
gene 3 1 4 5.77805 0 1 5.77805 1
gene 3 2 4 1.47189 0 2 1.47189 1
gene 3 3 4 3.63159 0 3 3.63159 0
gene 3 3 5 4.37474 0 5 4.37474 1
gene 3 5 4 -2.56855 0 6 -2.56855 1
genomeend 43

/* Organism #44 Fitness: 0.432922 Error: 0.467078 */
genomestart 44
trait 1 0.1 0 0 0 0 0 0 0 
trait 2 0.2 0 0 0 0 0 0 0 
trait 3 0.3 0 0 0 0 0 0.0981281 0 
node 1 1 1 1
node 2 2 1 1
node 3 1 1 1
node 4 1 0 2
node 9 1 0 0
gene 2 1 4 6.41406 0 1 6.41406 1
gene 1 2 4 1.163 0 2 1.163 1
gene 2 3 4 2.08379 0 3 2.08379 1
gene 2 3 9 3.45276 0 46 3.45276 1
gene 2 9 4 5.09366 0 47 5.09366 1
gene 3 2 9 5.37611 0 129 5.37611 1
genomeend 44

/* Organism #45 Fitness: 0.26504 Error: 0.63496 */
genomestart 45
trait 1 0.1 0 0 0 0 0 0 0 
trait 2 0.2 0 0 0 0 0 0 0 
trait 3 0.3 0 0 0 0 0 0 0 
node 1 3 1 1
node 2 2 1 1
node 3 1 1 1
node 4 2 0 2
node 19 1 0 0
gene 3 1 4 6.24858 0 1 6.24858 0
gene 2 2 4 -1.37567 0 2 -1.37567 1
gene 1 3 4 3.34941 0 3 3.34941 1
gene 3 1 19 3.5114 0 149 3.5114 1
gene 3 19 4 8 0 150 8 1
genomeend 45

/* Species #11 : (Size 3) (AF 0.439336) (Age 6)  */


/* Organism #46 Fitness: 0.544448 Error: 0.355552 */
genomestart 46
trait 1 0.1 0 0 0 0 0 0 0 
trait 2 0.2 0 0 0 0 0 0 0 
trait 3 0.3 0 0 0 0 0 0 0 
node 1 2 1 1
node 2 1 1 1
node 3 3 1 1
node 4 2 0 2
node 5 1 0 0
gene 2 1 4 1.00903 0 1 1.00903 1
gene 3 2 4 5.83819 0 2 5.83819 1
gene 3 3 4 3.14513 0 3 3.14513 0
gene 3 3 5 -0.136307 0 5 -0.136307 1
gene 3 5 4 -4.57726 0 6 -4.57726 1
gene 2 2 5 0.286039 0 180 0.286039 1
genomeend 46

/* Organism #47 Fitness: 0.43952 Error: 0.46048 */
genomestart 47
trait 1 0.152252 0 0 0 0 0 0 0 
trait 2 0.2 0 0 0 0 0 0 0 
trait 3 0.3 0 0.0729695 0 0 0 0 0 
node 1 2 1 1
node 2 1 1 1
node 3 3 1 1
node 4 2 0 2
gene 2 1 4 -0.493794 0 1 -0.493794 1
gene 2 2 4 3.43577 0 2 3.43577 1
gene 2 3 4 1.9538 0 3 1.9538 0
genomeend 47

/* Organism #48 Fitness: 0.33404 Error: 0.56596 */
genomestart 48
trait 1 0.1 0 0 0 0 0 0 0 
trait 2 0.2 0 0 0 0 0 0 0 
trait 3 0.3 0 0 0 0 0 0 0 
node 1 2 1 1
node 2 3 1 1
node 3 3 1 1
node 4 2 0 2
node 15 1 0 0
gene 3 1 4 1.24346 0 1 1.24346 1
gene 1 2 4 4.21131 0 2 4.21131 0
gene 3 3 4 1.19219 0 3 1.19219 1
gene 1 2 15 2.19206 0 89 2.19206 1
gene 1 15 4 5.49576 0 90 5.49576 1
genomeend 48

/* Species #13 : (Size 6) (AF 0.35825) (Age 6)  */


/* Organism #49 Fitness: 0.537564 Error: 0.362436 */
genomestart 49
trait 1 0.1 0 0 0 0 0 0 0 
trait 2 0.407055 0 0 0 0 0 0 0.111846 
trait 3 0.3 0 0 0 0 0 0 0 
node 1 1 1 1
node 2 3 1 1
node 3 3 1 1
node 4 1 0 2
gene 3 1 4 6.22747 0 1 6.22747 1
gene 1 2 4 -0.447432 0 2 -0.447432 1
gene 3 3 4 -0.516177 0 3 -0.516177 1
genomeend 49

/* Organism #50 Fitness: 0.489372 Error: 0.410628 */
genomestart 50
trait 1 0.401286 0 0 0 0.853333 0 0.451565 0 
trait 2 0.2 0 0 0 0 0 0 0 
trait 3 0.3 0 0 0 0 0 0 0 
node 1 1 1 1
node 2 2 1 1
node 3 1 1 1
node 4 1 0 2
gene 3 1 4 5.88292 0 1 5.88292 1
gene 3 2 4 -1.38249 0 2 -1.38249 1
gene 3 3 4 -0.807086 0 3 -0.807086 1
genomeend 50

/* Organism #51 Fitness: 0.0612829 Error: 0.838717 */
genomestart 51
trait 1 0.1 0 0 0 0 0 0 0 
trait 2 0.2 0 0 0 0 0 0 0 
trait 3 0.3 0 0 0 0 0 0 0 
node 1 3 1 1
node 2 2 1 1
node 3 1 1 1
node 4 2 0 2
node 19 1 0 0
gene 3 1 4 8 0 1 8 0
gene 2 2 4 1.59298 0 2 1.59298 1
gene 1 3 4 1.08345 0 3 1.08345 1
gene 3 1 19 3.26596 0 149 3.26596 1
gene 3 19 4 2.99131 0 150 2.99131 1
genomeend 51

/* Organism #52 Fitness: 0.0584846 Error: 0.841515 */
genomestart 52
trait 1 0.1 0 0 0 0 0 0 0 
trait 2 0.407055 0 0 0 0 0 0 0.111846 
trait 3 0.3 0 0 0 0 0 0 0 
node 1 1 1 1
node 2 3 1 1
node 3 3 1 1
node 4 1 0 2
gene 3 1 4 8 0 1 8 1
gene 1 2 4 3.12582 0 2 3.12582 1
gene 3 3 4 1.62369 0 3 1.62369 1
genomeend 52

/* Organism #53 Fitness: 0.518197 Error: 0.381803 */
genomestart 53
trait 1 0.1 0 0 0 0 0 0 0 
trait 2 0.212941 0 0 0 0 0 0 0.00699039 
trait 3 0.3 0 0 0 0 0 0 0 
node 1 3 1 1
node 2 3 1 1
node 3 3 1 1
node 4 2 0 2
node 5 1 0 0
gene 3 1 4 6.91437 0 1 6.91437 1
gene 3 2 4 2.0808 0 2 2.0808 1
gene 3 3 4 1.58641 0 3 1.58641 0
gene 3 3 5 3.55994 0 5 3.55994 1
gene 3 5 4 -1.70994 0 6 -1.70994 1
genomeend 53

/* Organism #54 Fitness: 0.484598 Error: 0.415402 */
genomestart 54
trait 1 0.1 0 0 0 0 0 0 0 
trait 2 0.2 0 0 0 0 0 0 0 
trait 3 0.3 0 0 0 0 0 0 0 
node 1 2 1 1
node 2 3 1 1
node 3 3 1 1
node 4 2 0 2
node 15 1 0 0
gene 3 1 4 5.51528 0 1 5.51528 1
gene 1 2 4 2.47229 0 2 2.47229 0
gene 3 3 4 2.05366 0 3 2.05366 1
gene 1 2 15 -0.278129 0 89 -0.278129 1
gene 1 15 4 8 0 90 8 1
genomeend 54

/* Species #14 : (Size 3) (AF 0.387167) (Age 6)  */


/* Organism #55 Fitness: 0.55004 Error: 0.34996 */
genomestart 55
trait 1 0.196745 0 0 0 0.952771 0 0.511588 0 
trait 2 0.2 0 0 0 0 0 0 0 
trait 3 0.3 0 0 0 0 0 0 0 
node 1 2 1 1
node 2 1 1 1
node 3 3 1 1
node 4 2 0 2
node 5 1 0 0
gene 3 1 4 2.85877 0 1 2.85877 1
gene 3 2 4 -3.07744 0 2 -3.07744 1
gene 3 3 4 -5.57401 0 3 -5.57401 0
gene 3 3 5 -6.79841 0 5 -6.79841 1
gene 3 5 4 2.83883 0 6 2.83883 1
genomeend 55

/* Organism #56 Fitness: 0.392525 Error: 0.507475 */
genomestart 56
trait 1 0.1 0 0 0 0 0 0 0 
trait 2 0.2 0 0 0 0 0 0 0 
trait 3 0.3 0 0 0 0 0 0 0 
node 1 1 1 1
node 2 3 1 1
node 3 1 1 1
node 4 1 0 2
gene 1 1 4 2.00082 0 1 2.00082 1
gene 2 2 4 -3.06281 0 2 -3.06281 1
gene 2 3 4 -7.42555 0 3 -7.42555 1
genomeend 56

/* Organism #57 Fitness: 0.218936 Error: 0.681064 */
genomestart 57
trait 1 0.1 0 0 0 0 0 0 0 
trait 2 0.2 0 0 0 0 0 0 0 
trait 3 0.3 0 0 0 0 0 0 0 
node 1 1 1 1
node 2 3 1 1
node 3 1 1 1
node 4 1 0 2
gene 1 1 4 2.25315 0 1 2.25315 1
gene 2 2 4 -1.79534 0 2 -1.79534 1
gene 2 3 4 -5.72607 0 3 -5.72607 1
genomeend 57

/* Species #15 : (Size 3) (AF 0.442306) (Age 6)  */


/* Organism #58 Fitness: 0.447226 Error: 0.452774 */
genomestart 58
trait 1 0.1 0 0 0 0 0 0 0 
trait 2 0.2 0 0 0 0 0 0 0 
trait 3 0.3 0 0 0 0 0 0 0 
node 1 2 1 1
node 2 1 1 1
node 3 3 1 1
node 4 2 0 2
node 5 1 0 0
gene 3 1 4 0.736734 0 1 0.736734 1
gene 1 2 4 0.118027 0 2 0.118027 1
gene 3 3 4 1.85245 0 3 1.85245 1
gene 3 3 5 -3.17037 0 5 -3.17037 1
gene 3 5 4 3.28148 0 6 3.28148 1
genomeend 58

/* Organism #59 Fitness: 0.435714 Error: 0.464286 */
genomestart 59
trait 1 0.1 0 0 0 0 0 0 0 
trait 2 0.2 0 0 0 0 0 0 0 
trait 3 0.3 0 0 0 0 0 0 0 
node 1 2 1 1
node 2 1 1 1
node 3 3 1 1
node 4 2 0 2
node 5 1 0 0
gene 3 1 4 0.545965 0 1 0.545965 1
gene 3 2 4 -0.167243 0 2 -0.167243 1
gene 3 3 4 1.40341 0 3 1.40341 0
gene 3 3 5 -2.33149 0 5 -2.33149 1
gene 3 5 4 4.55187 0 6 4.55187 1
gene 3 2 5 -0.592583 0 144 0 1
genomeend 59

/* Organism #60 Fitness: 0.443978 Error: 0.456022 */
genomestart 60
trait 1 0.1 0.314087 0 0 0 0 0.114312 0.832559 
trait 2 0.2 0 0 0 0 0 0 0 
trait 3 0.3 0 0 0 0 0 0 0 
node 1 2 1 1
node 2 1 1 1
node 3 3 1 1
node 4 2 0 2
node 5 1 0 0
gene 3 1 4 0.736734 0 1 0.736734 1
gene 3 2 4 -4.76419 0 2 -4.76419 1
gene 3 3 4 2.2085 0 3 2.2085 0
gene 3 3 5 -2.76578 0 5 -2.76578 1
gene 3 5 4 5.61889 0 6 5.61889 1
gene 3 2 5 -1.15649 0 144 -1.15649 1
genomeend 60

/* Species #18 : (Size 8) (AF 0.33382) (Age 6)  */


/* Organism #61 Fitness: 0.16817 Error: 0.73183 */
genomestart 61
trait 1 0.1 0 0 0 0 0 0 0 
trait 2 0.2 0 0 0 0 0 0 0 
trait 3 0.3 0 0 0 0 0 0 0 
node 1 2 1 1
node 2 3 1 1
node 3 3 1 1
node 4 2 0 2
gene 3 1 4 2.18102 0 1 2.18102 1
gene 3 2 4 4.70369 0 2 4.70369 1
gene 2 3 4 8 0 3 8 1
genomeend 61

/* Organism #62 Fitness: 0.527244 Error: 0.372756 */
genomestart 62
trait 1 0.1 0 0 0 0 0 0 0 
trait 2 0.2 0 0 0 0 0 0 0 
trait 3 0.3 0 0 0 0 0 0 0 
node 1 2 1 1
node 2 3 1 1
node 3 3 1 1
node 4 2 0 2
gene 3 1 4 5.67519 0 1 5.67519 1
gene 3 2 4 4.50491 0 2 4.50491 1
gene 2 3 4 6.47101 0 3 6.47101 1
genomeend 62

/* Organism #63 Fitness: 0.106686 Error: 0.793314 */
genomestart 63
trait 1 0.1 0 0 0 0 0 0 0 
trait 2 0.2 0 0 0 0 0 0 0 
trait 3 0.3 0 0 0 0 0 0 0 
node 1 2 1 1
node 2 3 1 1
node 3 3 1 1
node 4 2 0 2
gene 3 1 4 3.55423 0 1 3.55423 1
gene 3 2 4 7.66721 0 2 7.66721 1
gene 2 3 4 8 0 3 8 1
genomeend 63

/* Organism #64 Fitness: 0.0570618 Error: 0.842938 */
genomestart 64
trait 1 0.1 0 0 0 0 0 0 0 
trait 2 0.2 0 0 0 0 0 0 0 
trait 3 0.334036 0 0 0.0275141 0 0 0 0 
node 1 2 1 1
node 2 2 1 1
node 3 3 1 1
node 4 3 0 2
gene 2 1 4 8 0 1 8 1
gene 2 2 4 4.45556 0 2 4.45556 1
gene 1 3 4 7.27713 0 3 7.27713 1
genomeend 64

/* Organism #65 Fitness: 0.554408 Error: 0.345592 */
genomestart 65
trait 1 0.1 0 0 0 0 0 0 0 
trait 2 0.2 0 0 0 0 0 0 0 
trait 3 0.3 0 0 0 0 0 0 0 
node 1 2 1 1
node 2 3 1 1
node 3 3 1 1
node 4 2 0 2
gene 3 1 4 6.04728 0 1 6.04728 1
gene 3 2 4 2.7677 0 2 2.7677 1
gene 2 3 4 8 0 3 8 1
genomeend 65

/* Organism #66 Fitness: 0.552584 Error: 0.347416 */
genomestart 66
trait 1 0.1 0 0 0 0 0 0 0 
trait 2 0.2 0 0 0 0 0 0 0 
trait 3 0.3 0 0 0 0 0 0 0 
node 1 2 1 1
node 2 3 1 1
node 3 1 1 1
node 4 2 0 2
gene 3 1 4 1.92266 0 1 1.92266 1
gene 3 2 4 5.48782 0 2 5.48782 1
gene 2 3 4 7.31461 0 3 7.31461 1
genomeend 66

/* Organism #67 Fitness: 0.530577 Error: 0.369423 */
genomestart 67
trait 1 0.1 0 0 0 0 0 0 0 
trait 2 0.2 0 0 0 0 0 0 0 
trait 3 0.3 0 0 0 0 0 0 0 
node 1 2 1 1
node 2 3 1 1
node 3 3 1 1
node 4 2 0 2
gene 3 1 4 6.94924 0 1 6.94924 1
gene 3 2 4 4.95951 0 2 4.95951 1
gene 2 3 4 8 0 3 8 1
genomeend 67

/* Organism #68 Fitness: 0.173826 Error: 0.726174 */
genomestart 68
trait 1 0.1 0 0 0 0 0 0 0 
trait 2 0.2 0 0 0 0 0 0 0 
trait 3 0.3 0 0 0 0 0 0 0 
node 1 2 1 1
node 2 3 1 1
node 3 3 1 1
node 4 2 0 2
gene 3 1 4 3.99459 0 1 3.99459 1
gene 3 2 4 8 0 2 8 1
gene 3 3 4 8 0 3 8 1
genomeend 68

/* Species #21 : (Size 4) (AF 0.478842) (Age 6)  */


/* Organism #69 Fitness: 0.421367 Error: 0.478633 */
genomestart 69
trait 1 0.1 0 0 0 0 0 0 0 
trait 2 0 0.142097 0 0 0 0 0 0.860536 
trait 3 0.3 0 0 0 0 0 0 0 
node 1 1 1 1
node 2 2 1 1
node 3 1 1 1
node 4 1 0 2
node 9 1 0 0
gene 2 1 4 3.17759 0 1 3.17759 1
gene 1 2 4 -0.552454 0 2 -0.552454 1
gene 2 3 4 -8 0 3 -8 0
gene 2 3 9 5.649 0 46 5.649 1
gene 2 9 4 -6.19502 0 47 -6.19502 1
genomeend 69

/* Organism #70 Fitness: 0.441246 Error: 0.458754 */
genomestart 70
trait 1 0.1 0 0 0 0 0 0 0 
trait 2 0.2 0 0 0 0 0 0 0 
trait 3 0.225 0 0 0 0 0 0 0.163601 
node 1 3 1 1
node 2 2 1 1
node 3 3 1 1
node 4 2 0 2
gene 3 1 4 -0.799349 0 1 -0.799349 1
gene 3 2 4 -2.27099 0 2 -2.27099 1
gene 3 3 4 -6.41821 0 3 -6.41821 1
genomeend 70

/* Organism #71 Fitness: 0.442508 Error: 0.457492 */
genomestart 71
trait 1 0.1 0 0 0 0 0 0 0 
trait 2 0.2 0 0 0 0 0 0 0 
trait 3 0.225 0 0 0 0 0 0 0.163601 
node 1 3 1 1
node 2 2 1 1
node 3 3 1 1
node 4 2 0 2
gene 3 1 4 -0.799349 0 1 -0.799349 1
gene 3 2 4 -2.27099 0 2 -2.27099 1
gene 3 3 4 -6.41821 0 3 -6.41821 1
genomeend 71

/* Organism #72 Fitness: 0.610247 Error: 0.289753 */
genomestart 72
trait 1 0.1 0 0 0 0 0 0 0 
trait 2 0.2 0 0 0 0 0 0 0 
trait 3 0.3 0 0 0 0 0 0 0 
node 1 1 1 1
node 2 3 1 1
node 3 1 1 1
node 4 1 0 2
gene 3 1 4 1.3247 0 1 1.3247 1
gene 2 2 4 -0.726153 0 2 -0.726153 1
gene 3 3 4 -8 0 3 -8 1
genomeend 72

/* Species #22 : (Size 5) (AF 0.336398) (Age 6)  */


/* Organism #73 Fitness: 0.291718 Error: 0.608282 */
genomestart 73
trait 1 0.1 0 0 0 0 0 0 0 
trait 2 0.407055 0 0 0 0 0 0 0.111846 
trait 3 0.3 0 0 0 0 0 0 0 
node 1 1 1 1
node 2 3 1 1
node 3 3 1 1
node 4 1 0 2
gene 3 1 4 1.14069 0 1 1.14069 1
gene 1 2 4 5.85741 0 2 5.85741 1
gene 3 3 4 -8 0 3 -8 1
genomeend 73

/* Organism #74 Fitness: 0.434539 Error: 0.465461 */
genomestart 74
trait 1 0.1 0 0 0 0 0 0 0 
trait 2 0.1 0.0710487 0 0 0 0 0 0.430268 
trait 3 0.15 0 0.333488 0 0 0 0.284855 0 
node 1 1 1 1
node 2 2 1 1
node 3 1 1 1
node 4 1 0 2
gene 2 1 4 0.450755 0 1 0.450755 1
gene 1 2 4 4.89519 0 2 4.89519 1
gene 3 3 4 -5.38895 0 3 -5.38895 0
genomeend 74

/* Organism #75 Fitness: 0.531511 Error: 0.368489 */
genomestart 75
trait 1 0.1 0 0 0 0 0 0 0 
trait 2 0.1 0.0710487 0 0 0 0 0 0.430268 
trait 3 0.3 0 0 0 0 0 0 0 
node 1 2 1 1
node 2 3 1 1
node 3 3 1 1
node 4 2 0 2
node 15 1 0 0
gene 2 1 4 3.26711 0 1 3.26711 1
gene 1 2 4 5.21887 0 2 5.21887 1
gene 2 3 4 -4.21419 0 3 -4.21419 0
gene 1 2 15 -1.37346 0 89 -1.37346 1
gene 1 15 4 5.81999 0 90 5.81999 1
genomeend 75

/* Organism #76 Fitness: 0.00598793 Error: 0.894012 */
genomestart 76
trait 1 0.1 0 0 0 0 0 0 0 
trait 2 0.68378 0 0 0.837639 0 0.191504 0 0.111846 
trait 3 0.3 0 0 0 0 0 0 0 
node 1 3 1 1
node 2 3 1 1
node 3 3 1 1
node 4 1 0 2
node 18 1 0 0
gene 3 1 4 2.20207 0 1 2.20207 0
gene 1 2 4 8 0 2 8 1
gene 3 3 4 -4.32065 0 3 -4.32065 1
gene 3 1 18 0.502285 0 118 0.502285 1
gene 3 18 4 -4.11593 0 119 -4.11593 1
genomeend 76

/* Organism #77 Fitness: 0.418233 Error: 0.481767 */
genomestart 77
trait 1 0.1 0 0 0 0 0 0 0 
trait 2 0.2 0 0 0 0 0 0 0 
trait 3 0.3 0 0 0 0 0 0 0 
node 1 2 1 1
node 2 1 1 1
node 3 3 1 1
node 4 2 0 2
node 5 1 0 0
gene 3 1 4 0.623718 0 1 0.623718 1
gene 3 2 4 4.23015 0 2 4.23015 1
gene 3 3 4 -3.50169 0 3 -3.50169 0
gene 3 3 5 6.93409 0 5 6.93409 1
gene 3 5 4 6.67027 0 6 6.67027 1
genomeend 77

/* Species #24 : (Size 3) (AF 0.173883) (Age 6)  */


/* Organism #78 Fitness: 0.0435749 Error: 0.856425 */
genomestart 78
trait 1 0.1 0 0 0 0 0 0 0 
trait 2 0.2 0 0 0 0 0 0 0 
trait 3 0.368071 0 0 0.0550282 0 0 0 0 
node 1 1 1 1
node 2 3 1 1
node 3 3 1 1
node 4 1 0 2
gene 3 1 4 8 0 1 8 1
gene 2 2 4 -1.87865 0 2 -1.87865 1
gene 1 3 4 2.18778 0 3 2.18778 1
genomeend 78

/* Organism #79 Fitness: 0.455763 Error: 0.444237 */
genomestart 79
trait 1 0.1 0 0 0 0 0 0 0 
trait 2 0.2 0 0 0 0 0 0 0 
trait 3 0.334036 0 0 0.0275141 0 0 0 0 
node 1 1 1 1
node 2 3 1 1
node 3 3 1 1
node 4 1 0 2
gene 3 1 4 7.3294 0 1 7.3294 1
gene 2 2 4 -0.787864 0 2 -0.787864 1
gene 2 3 4 6.87941 0 3 6.87941 0
genomeend 79

/* Organism #80 Fitness: 0.0223103 Error: 0.87769 */
genomestart 80
trait 1 0.1 0 0 0 0 0 0 0 
trait 2 0.2 0 0 0 0 0 0 0 
trait 3 0.3 0 0 0 0 0 0 0 
node 1 3 1 1
node 2 2 1 1
node 3 1 1 1
node 4 2 0 2
node 19 1 0 0
gene 3 1 4 6.20987 0 1 6.20987 1
gene 2 2 4 -1.96488 0 2 -1.96488 1
gene 1 3 4 2.63891 0 3 2.63891 1
gene 3 1 19 -3.57741 0 149 -3.57741 1
gene 3 19 4 5.02648 0 150 5.02648 1
genomeend 80

/* Species #25 : (Size 3) (AF 0.429557) (Age 6)  */


/* Organism #81 Fitness: 0.397648 Error: 0.502352 */
genomestart 81
trait 1 0.1 0 0 0 0 0 0 0 
trait 2 0.253527 0.0355243 0 0 0 0 0 0.271057 
trait 3 0.225 0 0.166744 0 0 0 0.142427 0 
node 1 1 1 1
node 2 2 1 1
node 3 1 1 1
node 4 1 0 2
gene 3 1 4 2.59528 0 1 2.59528 1
gene 1 2 4 4.03682 0 2 4.03682 1
gene 3 3 4 -6.76043 0 3 -6.76043 0
genomeend 81

/* Organism #82 Fitness: 0.43954 Error: 0.46046 */
genomestart 82
trait 1 0.137858 0 0 0 0 0 0.030589 0.0248217 
trait 2 0.2 0 0 0 0 0 0 0 
trait 3 0.3 0 0 0 0 0 0 0 
node 1 1 1 1
node 2 2 1 1
node 3 1 1 1
node 4 1 0 2
node 9 1 0 0
gene 3 1 4 0.572233 0 1 0.572233 1
gene 1 2 4 4.22473 0 2 4.22473 1
gene 2 3 4 -3.8574 0 3 -3.8574 0
gene 2 3 9 1.60194 0 46 1.60194 1
gene 2 9 4 -2.24202 0 47 -2.24202 1
gene 3 2 9 2.61371 0 129 2.61371 1
genomeend 82

/* Organism #83 Fitness: 0.451483 Error: 0.448517 */
genomestart 83
trait 1 0.1 0 0 0 0 0 0 0 
trait 2 0.2 0 0 0 0 0 0 0 
trait 3 0 0.586474 0 0.227483 0 0 0 0 
node 1 2 1 1
node 2 1 1 1
node 3 3 1 1
node 4 2 0 2
node 5 1 0 0
gene 3 1 4 0.745883 0 1 0.745883 1
gene 3 2 4 4.71861 0 2 4.71861 1
gene 3 3 4 -5.48836 0 3 -5.48836 0
gene 3 3 5 -3.33031 0 5 -3.33031 1
gene 3 5 4 -1.51183 0 6 -1.51183 1
gene 3 2 5 -3.56082 0 69 -3.56082 1
genomeend 83

/* Species #30 : (Size 3) (AF 0.428316) (Age 6)  */


/* Organism #84 Fitness: 0.116856 Error: 0.783144 */
genomestart 84
trait 1 0.175717 0 0.10002 0.0476768 0 0 0.061178 0.470054 
trait 2 0.2 0 0 0 0 0 0 0 
trait 3 0.225 0.421429 0 0 0 0.0364418 0 0.163601 
node 1 2 1 1
node 2 1 1 1
node 3 1 1 1
node 4 2 0 2
gene 2 1 4 3.76124 0 1 3.76124 1
gene 3 2 4 -8 0 2 -8 1
gene 3 3 4 3.01349 0 3 3.01349 0
genomeend 84

/* Organism #85 Fitness: 0.587995 Error: 0.312005 */
genomestart 85
trait 1 0.137858 0 0.0500101 0.0238384 0 0 0.030589 0.235027 
trait 2 0.2 0 0 0 0 0 0 0 
trait 3 0.2625 0 0.0266504 0 0 0.0182209 0 0.0818005 
node 1 2 1 1
node 2 1 1 1
node 3 3 1 1
node 4 2 0 2
gene 3 1 4 6.26666 0 1 6.26666 1
gene 3 2 4 -6.09071 0 2 -6.09071 1
gene 3 3 4 3.18936 0 3 3.18936 1
genomeend 85

/* Organism #86 Fitness: 0.580096 Error: 0.319904 */
genomestart 86
trait 1 0.05 0 0 0.076648 0 0.315855 0 0.454001 
trait 2 0.2 0 0 0 0 0 0 0 
trait 3 0.3 0 0 0 0 0 0 0 
node 1 3 1 1
node 2 1 1 1
node 3 3 1 1
node 4 2 0 2
node 5 1 0 0
gene 3 1 4 6.51875 0 1 6.51875 1
gene 3 2 4 -7.45932 0 2 -7.45932 1
gene 3 3 4 -0.589003 0 3 -0.589003 0
gene 3 3 5 3.25777 0 5 3.25777 1
gene 3 5 4 -1.22235 0 6 -1.22235 1
genomeend 86

/* Species #31 : (Size 11) (AF 0.450761) (Age 6)  */


/* Organism #87 Fitness: 0.465967 Error: 0.434033 */
genomestart 87
trait 1 0.83171 0 0 0.936924 0 0.665087 0 0.0124108 
trait 2 0.2 0 0 0 0 0 0 0 
trait 3 0.3 0 0 0 0 0 0 0 
node 1 1 1 1
node 2 3 1 1
node 3 1 1 1
node 4 1 0 2
gene 3 1 4 7.82144 0 1 7.82144 1
gene 1 2 4 1.10465 0 2 1.10465 1
gene 2 3 4 -4.33163 0 3 -4.33163 0
genomeend 87

/* Organism #88 Fitness: 0.579461 Error: 0.320539 */
genomestart 88
trait 1 0.1 0 0 0 0 0 0 0 
trait 2 0.2 0 0 0 0 0 0 0 
trait 3 0.3 0 0 0 0 0 0 0 
node 1 1 1 1
node 2 3 1 1
node 3 1 1 1
node 4 1 0 2
gene 1 1 4 7.73695 0 1 7.73695 1
gene 2 2 4 1.57494 0 2 1.57494 1
gene 2 3 4 -8 0 3 -8 1
genomeend 88

/* Organism #89 Fitness: 0.136325 Error: 0.763675 */
genomestart 89
trait 1 0.465855 0 0 0.468462 0 0.332544 0 0.00620542 
trait 2 0.244349 0 0 0.0397058 0.0422008 0 0 0 
trait 3 0.3 0 0 0 0 0 0.012266 0 
node 1 1 1 1
node 2 3 1 1
node 3 2 1 1
node 4 1 0 2
gene 2 1 4 6.94632 0 1 6.94632 1
gene 1 2 4 1.31417 0 2 1.31417 1
gene 2 3 4 -2.81149 0 3 -2.81149 0
gene 3 4 4 -0.79907 1 182 -0.79907 1
genomeend 89

/* Organism #90 Fitness: 0.579133 Error: 0.320867 */
genomestart 90
trait 1 0.114062 0 0.000504321 0 0 0 0.00207955 0.00310271 
trait 2 0.212933 0 0 0.00992646 0.0105502 0 0 0 
trait 3 0.3 0 0 0 0 0 0 0 
node 1 2 1 1
node 2 3 1 1
node 3 2 1 1
node 4 2 0 2
gene 2 1 4 7.42835 0 1 7.42835 1
gene 2 2 4 2.97877 0 2 2.97877 1
gene 2 3 4 -4.12129 0 3 -4.12129 0
genomeend 90

/* Organism #91 Fitness: 0.506512 Error: 0.393488 */
genomestart 91
trait 1 0.534692 0 0 0 0.706666 0 0 0 
trait 2 0.2 0 0 0 0 0 0 0 
trait 3 0.3 0 0 0 0 0 0 0 
node 1 1 1 1
node 2 2 1 1
node 3 1 1 1
node 4 1 0 2
gene 3 1 4 6.81002 0 1 6.81002 1
gene 3 2 4 -2.1735 0 2 -2.1735 1
gene 3 3 4 -5.14068 0 3 -5.14068 1
genomeend 91

/* Organism #92 Fitness: 0.650784 Error: 0.249216 */
genomestart 92
trait 1 0.401286 0 0 0 0.853333 0 0.451565 0 
trait 2 0.2 0 0 0 0 0 0 0 
trait 3 0.3 0 0 0 0 0 0 0 
node 1 1 1 1
node 2 2 1 1
node 3 1 1 1
node 4 1 0 2
gene 3 1 4 6.81002 0 1 6.81002 1
gene 3 2 4 -2.1735 0 2 -2.1735 1
gene 3 3 4 -5.14068 0 3 -5.14068 1
genomeend 92

/* Organism #93 Fitness: 0.492521 Error: 0.407479 */
genomestart 93
trait 1 0.269288 0 0.00403457 0 0 0 0.0625199 0.0620542 
trait 2 0.2 0 0 0 0 0 0 0 
trait 3 0.3 0 0 0 0 0 0 0 
node 1 2 1 1
node 2 3 1 1
node 3 2 1 1
node 4 2 0 2
gene 3 1 4 6.28466 0 1 6.28466 1
gene 1 2 4 4.69284 0 2 4.69284 1
gene 2 3 4 -5.43425 0 3 -5.43425 1
genomeend 93

/* Organism #94 Fitness: 0.406203 Error: 0.493797 */
genomestart 94
trait 1 0.1 0 0 0 0 0 0 0 
trait 2 0.2 0 0 0 0 0 0 0 
trait 3 0.300417 0 0 0 0 0.0819753 0 0 
node 1 2 1 1
node 2 2 1 1
node 3 1 1 1
node 4 1 0 2
node 14 1 0 0
gene 3 1 4 5.30038 0 1 5.30038 0
gene 3 2 4 1.79917 0 2 1.79917 1
gene 2 3 4 -5.08536 0 3 -5.08536 1
gene 3 1 14 3.94066 0 86 3.94066 1
gene 3 14 4 1.80246 0 87 1.80246 1
genomeend 94

/* Organism #95 Fitness: 0.0602692 Error: 0.839731 */
genomestart 95
trait 1 0.1 0 0 0 0 0 0 0 
trait 2 0.2 0 0 0 0 0 0 0 
trait 3 0.529394 0 0.787373 0 0 0.86783 0.719387 0.599 
node 1 2 1 1
node 2 2 1 1
node 3 1 1 1
node 4 1 0 2
node 14 1 0 0
gene 3 1 4 6.91002 0 1 6.91002 0
gene 3 2 4 2.22755 0 2 2.22755 1
gene 2 3 4 -6.69077 0 3 -6.69077 1
gene 3 1 14 -4.27063 0 86 -4.27063 1
gene 3 14 4 -2.81594 0 87 -2.81594 1
genomeend 95

/* Organism #96 Fitness: 0.509798 Error: 0.390202 */
genomestart 96
trait 1 0.1 0 0 0 0 0 0 0 
trait 2 0 0 0.663287 0 0.0759557 0 0 0.316749 
trait 3 0.3 0 0 0 0 0 0 0 
node 1 2 1 1
node 2 3 1 1
node 3 3 1 1
node 4 2 0 2
node 15 1 0 0
gene 3 1 4 7.71228 0 1 7.71228 1
gene 1 2 4 2.32905 0 2 2.32905 0
gene 3 3 4 -3.11391 0 3 -3.11391 1
gene 1 2 15 3.89074 0 89 3.89074 1
gene 1 15 4 8 0 90 8 1
genomeend 96

/* Organism #97 Fitness: 0.571401 Error: 0.328599 */
genomestart 97
trait 1 0.1 0 0 0 0 0 0 0 
trait 2 0.2 0 0 0 0 0 0 0 
trait 3 0.3 0 0 0 0 0 0 0 
node 1 2 1 1
node 2 3 1 1
node 3 3 1 1
node 4 2 0 2
node 15 1 0 0
gene 3 1 4 6.21554 0 1 6.21554 1
gene 1 2 4 2.58536 0 2 2.58536 0
gene 3 3 4 -3.00051 0 3 -3.00051 1
gene 1 2 15 0.542217 0 89 0.542217 1
gene 1 15 4 8 0 90 8 1
genomeend 97

/* Species #32 : (Size 4) (AF 0.391868) (Age 6)  */


/* Organism #98 Fitness: 0.538559 Error: 0.361441 */
genomestart 98
trait 1 0.1 0 0.20004 0.0953535 0 0 0 0.840822 
trait 2 0.2 0 0 0 0 0 0 0 
trait 3 0.15 0 0 0 0 0 0 0.327202 
node 1 3 1 1
node 2 2 1 1
node 3 3 1 1
node 4 2 0 2
gene 2 1 4 1.37376 0 1 1.37376 1
gene 3 2 4 -8 0 2 -8 1
gene 3 3 4 8 0 3 8 1
genomeend 98

/* Organism #99 Fitness: 0.443113 Error: 0.456887 */
genomestart 99
trait 1 0.1 0 0.20004 0.0953535 0 0 0 0.840822 
trait 2 0.2 0 0 0 0 0 0 0 
trait 3 0.15 0 0 0 0 0 0 0.327202 
node 1 3 1 1
node 2 2 1 1
node 3 3 1 1
node 4 2 0 2
gene 2 1 4 0.645255 0 1 0.645255 1
gene 3 2 4 -8 0 2 -8 1
gene 3 3 4 8 0 3 8 1
genomeend 99

/* Organism #100 Fitness: 0.383867 Error: 0.516133 */
genomestart 100
trait 1 0.1 0 0 0 0 0 0 0 
trait 2 0.2 0 0.335203 0 0.237161 0 0 0 
trait 3 0.3 0 0 0 0 0 0 0 
node 1 2 1 1
node 2 1 1 1
node 3 3 1 1
node 4 2 0 2
node 5 1 0 0
gene 3 1 4 2.19957 0 1 2.19957 1
gene 3 2 4 -8 0 2 -8 1
gene 3 3 4 4.38761 0 3 4.38761 1
gene 3 3 5 6.07164 0 5 6.07164 1
gene 3 5 4 -5.10459 0 6 -5.10459 1
gene 2 1 5 -0.383107 0 179 0 1
genomeend 100

/* Organism #101 Fitness: 0.201934 Error: 0.698066 */
genomestart 101
trait 1 0.1 0 0 0 0 0 0 0 
trait 2 0.2 0 0.335203 0 0.237161 0 0 0 
trait 3 0.3 0 0 0 0 0 0 0 
node 1 2 1 1
node 2 1 1 1
node 3 3 1 1
node 4 2 0 2
node 5 1 0 0
gene 3 1 4 4.3731 0 1 4.3731 1
gene 3 2 4 -8 0 2 -8 1
gene 3 3 4 2.87474 0 3 2.87474 1
gene 3 3 5 7.77168 0 5 7.77168 1
gene 3 5 4 1.43004 0 6 1.43004 1
genomeend 101

/* Species #35 : (Size 3) (AF 0.301671) (Age 6)  */


/* Organism #102 Fitness: 0.447811 Error: 0.452189 */
genomestart 102
trait 1 0.402867 0 0 0 0 0 0.244712 0.198573 
trait 2 0.2 0 0 0 0 0 0 0 
trait 3 0.3 0 0 0 0 0 0 0 
node 1 1 1 1
node 2 2 1 1
node 3 3 1 1
node 4 1 0 2
node 9 1 0 0
gene 2 1 4 -0.127524 0 1 -0.127524 1
gene 1 2 4 -7.20897 0 2 -7.20897 1
gene 2 3 4 5.53738 0 3 5.53738 0
gene 3 4 4 0.195751 1 32 0.195751 1
gene 2 3 9 -2.98349 0 46 -2.98349 1
gene 2 9 4 4.2864 0 47 4.2864 1
gene 2 9 9 0.78785 1 183 0.78785 1
genomeend 102

/* Organism #103 Fitness: 0.447163 Error: 0.452837 */
genomestart 103
trait 1 0.402867 0 0 0 0 0 0.244712 0.198573 
trait 2 0.2 0 0 0 0 0 0 0 
trait 3 0.3 0 0 0 0 0 0 0 
node 1 1 1 1
node 2 2 1 1
node 3 3 1 1
node 4 1 0 2
node 9 1 0 0
gene 2 1 4 -0.127524 0 1 -0.127524 1
gene 1 2 4 -7.20897 0 2 -7.20897 1
gene 2 3 4 5.53738 0 3 5.53738 0
gene 3 4 4 0.195751 1 32 0.195751 1
gene 2 3 9 -2.98349 0 46 -2.98349 1
gene 2 9 4 4.2864 0 47 4.2864 1
gene 3 2 9 0.132633 0 184 0.132633 1
genomeend 103

/* Organism #104 Fitness: 0.0100395 Error: 0.889961 */
genomestart 104
trait 1 0.402867 0 0 0 0 0 0.244712 0.198573 
trait 2 0.2 0 0 0 0 0 0 0 
trait 3 0.3 0 0 0 0 0 0 0 
node 1 1 1 1
node 2 2 1 1
node 3 3 1 1
node 4 1 0 2
node 9 1 0 0
gene 2 1 4 1.32827 0 1 1.32827 1
gene 1 2 4 -6.62725 0 2 -6.62725 1
gene 2 3 4 8 0 3 8 0
gene 3 4 4 1.53505 1 32 1.53505 1
gene 2 3 9 1.31888 0 46 1.31888 1
gene 2 9 4 4.95614 0 47 4.95614 1
genomeend 104

/* Species #37 : (Size 4) (AF 0.489868) (Age 6)  */


/* Organism #105 Fitness: 0.4972 Error: 0.4028 */
genomestart 105
trait 1 0.15625 0 0.00201728 0 0 0 0.00831818 0.0124108 
trait 2 0.207385 0 0 0 0 0 0 0 
trait 3 0.3 0 0 0 0 0 0 0 
node 1 2 1 1
node 2 3 1 1
node 3 2 1 1
node 4 2 0 2
gene 2 1 4 2.97342 0 1 2.97342 1
gene 2 2 4 -3.9222 0 2 -3.9222 1
gene 2 3 4 -2.11666 0 3 -2.11666 0
genomeend 105

/* Organism #106 Fitness: 0.557943 Error: 0.342057 */
genomestart 106
trait 1 0.126126 0 0 0 0 0 0 0 
trait 2 0.303527 0 0 0 0 0 0 0.0559231 
trait 3 0.3 0 0.0364848 0 0 0 0 0 
node 1 2 1 1
node 2 1 1 1
node 3 3 1 1
node 4 2 0 2
gene 3 1 4 1.92053 0 1 1.92053 1
gene 1 2 4 -7.64702 0 2 -7.64702 1
gene 3 3 4 -5.23902 0 3 -5.23902 0
genomeend 106

/* Organism #107 Fitness: 0.534929 Error: 0.365071 */
genomestart 107
trait 1 0.1 0 0 0 0 0 0 0 
trait 2 0.303527 0 0 0 0 0 0 0.0559231 
trait 3 0.1875 0 0 0 0 0 0 0.245402 
node 1 1 1 1
node 2 3 1 1
node 3 3 1 1
node 4 1 0 2
gene 2 1 4 1.22832 0 1 1.22832 1
gene 3 2 4 -5.75287 0 2 -5.75287 1
gene 3 3 4 -5.23902 0 3 -5.23902 1
genomeend 107

/* Organism #108 Fitness: 0.369402 Error: 0.530598 */
genomestart 108
trait 1 0.1 0 0 0 0 0 0 0 
trait 2 0.2 0 0 0 0 0 0 0 
trait 3 0.353828 0 0.42597 0 0.185344 0 0 0 
node 1 3 1 1
node 2 1 1 1
node 3 3 1 1
node 4 1 0 2
node 6 3 0 0
gene 2 1 4 1.34896 0 1 1.34896 1
gene 3 2 4 -8 0 2 -8 1
gene 2 3 4 -4.22181 0 3 -4.22181 1
gene 2 1 6 2.68344 0 8 2.68344 1
gene 2 6 4 -0.0870747 0 9 -0.0870747 1
genomeend 108

/* Species #38 : (Size 2) (AF 0.482086) (Age 6)  */


/* Organism #109 Fitness: 0.500298 Error: 0.399702 */
genomestart 109
trait 1 0.1 0 0 0 0 0 0 0 
trait 2 0.2 0 0.335203 0 0.237161 0 0 0 
trait 3 0.3 0 0 0 0 0 0 0 
node 1 2 1 1
node 2 1 1 1
node 3 3 1 1
node 4 2 0 2
node 5 1 0 0
gene 3 1 4 3.39079 0 1 3.39079 1
gene 3 2 4 -8 0 2 -8 1
gene 3 3 4 1.40799 0 3 1.40799 1
gene 3 3 5 5.2034 0 5 5.2034 1
gene 3 5 4 -2.80644 0 6 -2.80644 1
gene 2 4 4 -0.154724 1 192 -0.154724 1
genomeend 109

/* Organism #110 Fitness: 0.463875 Error: 0.436125 */
genomestart 110
trait 1 0.1 0 0 0 0 0 0 0 
trait 2 0.2 0 0.335203 0 0.237161 0 0 0 
trait 3 0.3 0 0 0 0 0 0 0 
node 1 2 1 1
node 2 1 1 1
node 3 3 1 1
node 4 2 0 2
node 5 1 0 0
gene 3 1 4 3.39079 0 1 3.39079 1
gene 3 2 4 -8 0 2 -8 1
gene 3 3 4 1.40799 0 3 1.40799 1
gene 3 3 5 5.2034 0 5 5.2034 1
gene 3 5 4 -2.80644 0 6 -2.80644 1
gene 2 1 5 -0.383107 0 179 0 1
genomeend 110

/* Species #41 : (Size 2) (AF 0.437914) (Age 6)  */


/* Organism #111 Fitness: 0.45687 Error: 0.44313 */
genomestart 111
trait 1 0.1 0 0 0 0 0 0 0 
trait 2 0.2 0 0 0 0 0 0 0 
trait 3 0.3 0 0 0 0 0 0 0 
node 1 3 1 1
node 2 1 1 1
node 3 3 1 1
node 4 1 0 2
gene 1 1 4 5.68173 0 1 5.68173 1
gene 1 2 4 -5.98999 0 2 -5.98999 1
gene 3 3 4 8 0 3 8 1
genomeend 111

/* Organism #112 Fitness: 0.418958 Error: 0.481042 */
genomestart 112
trait 1 0.1 0 0 0 0 0 0 0 
trait 2 0.2 0.209834 0.219667 0 0 0 0 0 
trait 3 0.3 0 0 0 0 0 0 0 
node 1 2 1 1
node 2 1 1 1
node 3 3 1 1
node 4 2 0 2
node 5 1 0 0
gene 3 1 4 6.24344 0 1 6.24344 1
gene 3 2 4 -3.2619 0 2 -3.2619 1
gene 3 3 4 7.1446 0 3 7.1446 0
gene 3 3 5 4.75426 0 5 4.75426 1
gene 3 5 4 -8 0 6 -8 1
gene 3 2 5 5.54242 0 69 5.54242 0
genomeend 112

/* Species #42 : (Size 2) (AF 0.33252) (Age 6)  */


/* Organism #113 Fitness: 0.34605 Error: 0.55395 */
genomestart 113
trait 1 0.1 0 0 0 0 0 0 0 
trait 2 0.2 0 0 0 0 0 0 0 
trait 3 0.3 0 0 0 0 0 0 0 
node 1 2 1 1
node 2 1 1 1
node 3 3 1 1
node 4 2 0 2
node 5 1 0 0
gene 3 1 4 -0.399606 0 1 -0.399606 1
gene 3 2 4 2.42687 0 2 2.42687 1
gene 3 3 4 0.494661 0 3 0.494661 0
gene 3 3 5 4.15272 0 5 4.15272 1
gene 3 5 4 -2.15311 0 6 -2.15311 1
gene 1 2 5 -0.907638 0 54 0 1
gene 1 5 5 0.45769 1 74 0.45769 1
gene 2 1 5 -0.792652 0 143 0 1
genomeend 113

/* Organism #114 Fitness: 0.31899 Error: 0.58101 */
genomestart 114
trait 1 0.1 0 0 0 0 0 0 0 
trait 2 0.2 0 0 0 0 0 0 0 
trait 3 0.3 0 0 0 0 0 0 0 
node 1 2 1 1
node 2 1 1 1
node 3 3 1 1
node 4 2 0 2
node 5 1 0 0
gene 3 1 4 -0.399606 0 1 -0.399606 1
gene 3 2 4 2.42687 0 2 2.42687 1
gene 3 3 4 0.494661 0 3 0.494661 0
gene 3 3 5 4.15272 0 5 4.15272 1
gene 3 5 4 -2.15311 0 6 -2.15311 1
gene 1 2 5 -0.907638 0 54 0 1
gene 1 5 5 0.45769 1 74 0.45769 1
gene 2 1 5 -0.792652 0 143 0 1
genomeend 114

/* Species #51 : (Size 2) (AF 0.395217) (Age 5)  */


/* Organism #115 Fitness: 0.337776 Error: 0.562224 */
genomestart 115
trait 1 0.1 0 0 0 0 0 0 0 
trait 2 0.2 0 0 0 0 0 0 0 
trait 3 0.3 0.419934 0 0 0.025379 0 0.102053 0 
node 1 2 1 1
node 2 2 1 1
node 3 1 1 1
node 4 1 0 2
node 5 1 0 0
gene 2 1 4 0.0876142 0 1 0.0876142 1
gene 3 2 4 4.35124 0 2 4.35124 1
gene 1 3 4 0.965613 0 3 0.965613 0
gene 3 3 5 2.90544 0 5 2.90544 1
gene 3 5 4 -0.810154 0 6 -0.810154 1
gene 1 2 5 2.33945 0 26 2.33945 1
gene 3 5 5 0.195078 1 79 0.195078 1
gene 3 4 4 0.858129 1 145 0.858129 1
gene 2 1 5 -0.383107 0 179 0 1
genomeend 115

/* Organism #116 Fitness: 0.452659 Error: 0.447341 */
genomestart 116
trait 1 0.1 0 0 0 0 0 0 0 
trait 2 0.2 0 0 0 0 0 0 0 
trait 3 0.3 0.419934 0 0 0.025379 0 0.102053 0 
node 1 2 1 1
node 2 2 1 1
node 3 1 1 1
node 4 1 0 2
node 5 1 0 0
gene 2 1 4 0.0876142 0 1 0.0876142 1
gene 3 2 4 4.35124 0 2 4.35124 0
gene 1 3 4 0.965613 0 3 0.965613 0
gene 3 3 5 2.90544 0 5 2.90544 1
gene 3 5 4 -0.810154 0 6 -0.810154 1
gene 1 2 5 2.33945 0 26 2.33945 1
gene 3 5 5 0.195078 1 79 0.195078 1
gene 2 1 5 -0.383107 0 179 0 1
genomeend 116

/* Species #52 : (Size 2) (AF 0.457564) (Age 5)  */


/* Organism #117 Fitness: 0.434588 Error: 0.465412 */
genomestart 117
trait 1 0.1 0 0 0 0 0 0 0 
trait 2 0.2 0 0 0 0 0 0 0 
trait 3 0.368071 0 0 0.0550282 0 0 0 0 
node 1 1 1 1
node 2 3 1 1
node 3 3 1 1
node 4 1 0 2
gene 3 1 4 5.65087 0 1 5.65087 1
gene 2 2 4 -4.91212 0 2 -4.91212 1
gene 1 3 4 3.68026 0 3 3.68026 1
genomeend 117

/* Organism #118 Fitness: 0.48054 Error: 0.41946 */
genomestart 118
trait 1 0.1 0 0 0 0 0 0 0 
trait 2 0.2 0 0 0 0 0 0 0 
trait 3 0.3 0 0 0 0 0 0 0 
node 1 2 1 1
node 2 2 1 1
node 3 3 1 1
node 4 3 0 2
gene 2 1 4 5.90682 0 1 5.90682 1
gene 2 2 4 -6.43842 0 2 -6.43842 1
gene 2 3 4 4.64338 0 3 4.64338 0
genomeend 118

/* Species #56 : (Size 2) (AF 0.49208) (Age 5)  */


/* Organism #119 Fitness: 0.567999 Error: 0.332001 */
genomestart 119
trait 1 0.1 0 0 0 0 0 0 0 
trait 2 0.2 0 0 0 0 0 0 0 
trait 3 0.3 0 0 0 0 0 0 0 
node 1 1 1 1
node 2 3 1 1
node 3 1 1 1
node 4 1 0 2
gene 1 1 4 7.53862 0 1 7.53862 1
gene 2 2 4 -6.67424 0 2 -6.67424 1
gene 2 3 4 -3.62449 0 3 -3.62449 1
genomeend 119

/* Organism #120 Fitness: 0.416161 Error: 0.483839 */
genomestart 120
trait 1 0.534692 0 0 0 0.706666 0 0 0 
trait 2 0.2 0 0 0 0 0 0 0 
trait 3 0.3 0 0 0 0 0 0 0 
node 1 1 1 1
node 2 2 1 1
node 3 1 1 1
node 4 1 0 2
gene 3 1 4 5.19854 0 1 5.19854 1
gene 3 2 4 -2.13379 0 2 -2.13379 1
gene 3 3 4 -2.60196 0 3 -2.60196 1
genomeend 120

/* Species #57 : (Size 1) (AF 0.0387614) (Age 5)  */


/* Organism #121 Fitness: 0.0387614 Error: 0.861239 */
genomestart 121
trait 1 0.1 0 0 0 0 0 0 0 
trait 2 0.2 0 0 0 0 0 0 0 
trait 3 0.990448 0.385718 0.917978 0 0.295881 0.624489 0 0.220724 
node 1 3 1 1
node 2 1 1 1
node 3 3 1 1
node 4 1 0 2
node 6 1 0 0
gene 2 1 4 -8 0 1 -8 1
gene 3 2 4 2.00857 0 2 2.00857 1
gene 2 3 4 5.95391 0 3 5.95391 1
gene 2 1 6 2.54904 0 8 2.54904 1
gene 2 6 4 8 0 9 8 1
gene 1 3 6 2.86938 0 104 2.86938 1
genomeend 121

/* Species #58 : (Size 1) (AF 0.617417) (Age 5)  */


/* Organism #122 Fitness: 0.617417 Error: 0.282583 */
genomestart 122
trait 1 0.118929 0 0 0 0 0 0.0152945 0.0124108 
trait 2 0.2 0 0 0 0 0 0 0 
trait 3 0.3 0 0 0 0 0 0 0 
node 1 2 1 1
node 2 1 1 1
node 3 3 1 1
node 4 2 0 2
gene 3 1 4 7.34449 0 1 7.34449 1
gene 2 2 4 6.82867 0 2 6.82867 1
gene 3 3 4 1.84138 0 3 1.84138 0
genomeend 122

/* Species #61 : (Size 2) (AF 0.422906) (Age 5)  */


/* Organism #123 Fitness: 0.316881 Error: 0.583119 */
genomestart 123
trait 1 0.1 0 0 0 0 0 0 0 
trait 2 0.2 0 0 0 0 0 0 0 
trait 3 0.3 0 0 0 0 0 0 0 
node 1 1 1 1
node 2 3 1 1
node 3 1 1 1
node 4 1 0 2
node 9 1 0 0
gene 2 1 4 2.5204 0 1 2.5204 1
gene 2 2 4 1.15019 0 2 1.15019 1
gene 3 3 4 -7.38399 0 3 -7.38399 1
gene 2 3 9 -3.46588 0 46 -3.46588 1
gene 2 9 4 -1.96589 0 47 -1.96589 1
gene 2 4 4 0.64492 1 185 0.64492 1
genomeend 123

/* Organism #124 Fitness: 0.528931 Error: 0.371069 */
genomestart 124
trait 1 0.1 0 0 0 0 0 0 0 
trait 2 0.2 0 0 0 0 0 0 0 
trait 3 1 0.102696 0.435945 0.602283 0.808343 0 0 0.176905 
node 1 1 1 1
node 2 2 1 1
node 3 1 1 1
node 4 1 0 2
node 9 1 0 0
gene 1 1 4 2.46257 0 1 2.46257 1
gene 1 2 4 1.95126 0 2 1.95126 1
gene 2 3 4 -7.63045 0 3 -7.63045 0
gene 2 3 9 -1.00575 0 46 -1.00575 1
gene 2 9 4 -2.98823 0 47 -2.98823 1
genomeend 124

/* Species #63 : (Size 3) (AF 0.43983) (Age 5)  */


/* Organism #125 Fitness: 0.440604 Error: 0.459396 */
genomestart 125
trait 1 0.1 0 0 0 0 0 0 0 
trait 2 0.2 0 0 0 0 0 0 0 
trait 3 0.3 0 0 0 0 0 0 0 
node 1 1 1 1
node 2 2 1 1
node 3 1 1 1
node 4 1 0 2
node 5 1 0 0
gene 2 1 4 0.357526 0 1 0.357526 1
gene 3 2 4 8 0 2 8 1
gene 1 3 4 -4.45856 0 3 -4.45856 0
gene 3 3 5 8 0 5 8 1
gene 3 5 4 -4.03395 0 6 -4.03395 1
gene 1 2 5 -4.62555 0 26 -4.62555 1
gene 2 1 5 -0.792652 0 143 0 1
genomeend 125

/* Organism #126 Fitness: 0.441616 Error: 0.458384 */
genomestart 126
trait 1 0.1 0 0 0 0 0 0 0 
trait 2 0.2 0 0 0 0 0 0 0 
trait 3 0.3 0 0 0 0 0 0 0 
node 1 1 1 1
node 2 2 1 1
node 3 1 1 1
node 4 1 0 2
node 5 1 0 0
gene 2 1 4 0.0072739 0 1 0.0072739 1
gene 3 2 4 8 0 2 8 1
gene 1 3 4 -4.03692 0 3 -4.03692 0
gene 3 3 5 8 0 5 8 1
gene 3 5 4 -3.9931 0 6 -3.9931 1
gene 1 2 5 -2.6538 0 26 -2.6538 1
genomeend 126

/* Organism #127 Fitness: 0.437269 Error: 0.462731 */
genomestart 127
trait 1 0.1 0 0 0 0 0 0 0 
trait 2 0.2 0 0 0 0 0 0 0 
trait 3 0.3 0 0 0 0 0 0 0 
node 1 2 1 1
node 2 2 1 1
node 3 1 1 1
node 4 1 0 2
node 5 1 0 0
gene 2 1 4 2.91665 0 1 2.91665 1
gene 3 2 4 8 0 2 8 1
gene 1 3 4 0.0111318 0 3 0.0111318 0
gene 3 3 5 8 0 5 8 1
gene 2 5 4 -0.919197 0 6 -0.919197 1
gene 1 2 5 -4.09943 0 26 -4.09943 1
genomeend 127

/* Species #64 : (Size 3) (AF 0.453219) (Age 5)  */


/* Organism #128 Fitness: 0.507615 Error: 0.392385 */
genomestart 128
trait 1 0.1 0 0 0 0 0 0 0 
trait 2 0.2 0 0 0 0 0 0 0 
trait 3 0.3 0 0 0 0 0 0 0 
node 1 3 1 1
node 2 3 1 1
node 3 2 1 1
node 4 2 0 2
gene 1 1 4 1.03595 0 1 1.03595 1
gene 3 2 4 6.46939 0 2 6.46939 1
gene 2 3 4 6.30396 0 3 6.30396 1
genomeend 128

/* Organism #129 Fitness: 0.490163 Error: 0.409837 */
genomestart 129
trait 1 0.1 0 0 0 0 0 0 0 
trait 2 0.2 0 0 0 0 0 0 0 
trait 3 0.3 0 0 0 0 0 0 0 
node 1 2 1 1
node 2 1 1 1
node 3 3 1 1
node 4 2 0 2
gene 3 1 4 1.82137 0 1 1.82137 1
gene 3 2 4 6.46939 0 2 6.46939 1
gene 2 3 4 6.30396 0 3 6.30396 0
genomeend 129

/* Organism #130 Fitness: 0.361878 Error: 0.538122 */
genomestart 130
trait 1 0.1 0 0 0 0 0 0 0 
trait 2 0.2 0 0 0 0 0 0 0 
trait 3 0.3 0 0 0 0 0 0 0 
node 1 3 1 1
node 2 3 1 1
node 3 2 1 1
node 4 2 0 2
gene 1 1 4 1.03595 0 1 1.03595 1
gene 3 2 4 6.46939 0 2 6.46939 1
gene 2 3 4 6.30396 0 3 6.30396 1
gene 3 4 4 0.3875 1 186 0.3875 1
genomeend 130

/* Species #66 : (Size 3) (AF 0.368276) (Age 5)  */


/* Organism #131 Fitness: 0.414302 Error: 0.485698 */
genomestart 131
trait 1 0.1 0.14311 0 0 0 0 0.173294 0.0762786 
trait 2 0.225882 0 0 0 0 0 0 0.0139808 
trait 3 0.3 0 0 0 0 0 0 0 
node 1 3 1 1
node 2 2 1 1
node 3 2 1 1
node 4 2 0 2
gene 3 1 4 5.77194 0 1 5.77194 1
gene 1 2 4 8 0 2 8 1
gene 3 3 4 -4.07478 0 3 -4.07478 1
genomeend 131

/* Organism #132 Fitness: 0.630334 Error: 0.269666 */
genomestart 132
trait 1 0.1 0.14311 0 0 0 0 0.173294 0.0762786 
trait 2 0.225882 0 0 0 0 0 0 0.0139808 
trait 3 0.3 0 0 0 0 0 0 0 
node 1 3 1 1
node 2 2 1 1
node 3 2 1 1
node 4 2 0 2
gene 3 1 4 5.77194 0 1 5.77194 1
gene 1 2 4 6.79247 0 2 6.79247 1
gene 3 3 4 -4.88496 0 3 -4.88496 1
genomeend 132

/* Organism #133 Fitness: 0.060191 Error: 0.839809 */
genomestart 133
trait 1 0 0 0 0 0 0 0 0 
trait 2 0 0 0 0 0 0 0 0.264942 
trait 3 0.3 0 0 0 0 0 0 0 
node 1 2 1 1
node 2 3 1 1
node 3 3 1 1
node 4 2 0 2
node 15 1 0 0
gene 3 1 4 8 0 1 8 1
gene 1 2 4 8 0 2 8 0
gene 3 3 4 -4.60789 0 3 -4.60789 1
gene 1 2 15 1.77038 0 89 1.77038 1
gene 1 15 4 8 0 90 8 1
gene 1 3 15 2.01275 0 207 2.01275 1
genomeend 133

/* Species #71 : (Size 1) (AF 0.210028) (Age 5)  */


/* Organism #134 Fitness: 0.210028 Error: 0.689972 */
genomestart 134
trait 1 0.1 0 0 0 0 0 0 0 
trait 2 0.2 0 0 0 0 0 0 0 
trait 3 0.3 0 0 0 0 0 0 0 
node 1 1 1 1
node 2 2 1 1
node 3 3 1 1
node 4 1 0 2
node 14 1 0 0
gene 3 1 4 5.31382 0 1 5.31382 0
gene 1 2 4 -1.3097 0 2 -1.3097 1
gene 2 3 4 0.113063 0 3 0.113063 1
gene 3 1 14 1 0 86 0 1
gene 3 14 4 5.31382 0 87 0 1
gene 2 2 14 -0.149932 0 121 0 1
gene 2 3 14 -0.323424 0 154 -0.323424 1
gene 3 14 14 -0.214446 1 187 -0.214446 1
genomeend 134

/* Species #75 : (Size 3) (AF 0.257858) (Age 5)  */


/* Organism #135 Fitness: 0.434744 Error: 0.465256 */
genomestart 135
trait 1 0.1 0 0 0 0 0 0 0 
trait 2 0.2 0 0 0 0 0 0 0 
trait 3 0.3 0 0 0 0 0 0 0 
node 1 2 1 1
node 2 1 1 1
node 3 3 1 1
node 4 2 0 2
node 5 1 0 0
gene 3 1 4 5.86903 0 1 5.86903 1
gene 3 2 4 -0.792637 0 2 -0.792637 1
gene 3 3 4 -5.39392 0 3 -5.39392 0
gene 3 3 5 -7.76001 0 5 -7.76001 1
gene 3 5 4 -8 0 6 -8 1
genomeend 135

/* Organism #136 Fitness: 0.280345 Error: 0.619655 */
genomestart 136
trait 1 0.1 0 0 0 0 0 0 0 
trait 2 0.2 0 0 0 0 0 0 0 
trait 3 0.3 0 0 0 0 0 0 0 
node 1 1 1 1
node 2 3 1 1
node 3 1 1 1
node 4 1 0 2
gene 2 1 4 6.81758 0 1 6.81758 1
gene 3 2 4 -3.33136 0 2 -3.33136 1
gene 3 3 4 -7.41234 0 3 -7.41234 1
gene 2 4 4 -0.303133 1 156 -0.303133 1
genomeend 136

/* Organism #137 Fitness: 0.0584846 Error: 0.841515 */
genomestart 137
trait 1 0.1 0 0 0 0 0 0 0 
trait 2 0.2 0 0 0 0 0 0 0 
trait 3 0.3 0 0 0 0 0 0 0 
node 1 2 1 1
node 2 1 1 1
node 3 3 1 1
node 4 2 0 2
node 5 1 0 0
gene 3 1 4 8 0 1 8 1
gene 3 2 4 -1.82106 0 2 -1.82106 1
gene 3 3 4 -6.73278 0 3 -6.73278 1
gene 3 3 5 6.88656 0 5 6.88656 1
gene 3 5 4 8 0 6 8 1
genomeend 137

/* Species #76 : (Size 3) (AF 0.326817) (Age 5)  */


/* Organism #138 Fitness: 0.387215 Error: 0.512785 */
genomestart 138
trait 1 0.1 0 0 0 0 0 0 0 
trait 2 0.2 0 0 0 0 0 0 0 
trait 3 0.3 0 0 0 0 0 0 0 
node 1 2 1 1
node 2 1 1 1
node 3 3 1 1
node 4 2 0 2
node 5 1 0 0
gene 3 1 4 1.25306 0 1 1.25306 1
gene 3 2 4 -2.66931 0 2 -2.66931 1
gene 3 3 4 -0.992213 0 3 -0.992213 0
gene 3 3 5 -5.09558 0 5 -5.09558 1
gene 3 5 4 -1.74511 0 6 -1.74511 1
gene 3 2 5 0.169286 0 69 0 1
gene 2 1 5 -0.383107 0 179 0 1
genomeend 138

/* Organism #139 Fitness: 0.265386 Error: 0.634614 */
genomestart 139
trait 1 0.1 0 0 0 0 0 0 0 
trait 2 0.2 0 0 0 0 0 0 0 
trait 3 0.3 0 0 0 0 0 0 0 
node 1 2 1 1
node 2 1 1 1
node 3 3 1 1
node 4 2 0 2
node 5 1 0 0
gene 3 1 4 2.12958 0 1 2.12958 1
gene 3 2 4 -1.71207 0 2 -1.71207 1
gene 3 3 4 -1.71463 0 3 -1.71463 0
gene 3 3 5 -6.41122 0 5 -6.41122 1
gene 3 5 4 -1.74511 0 6 -1.74511 1
gene 3 2 5 -1.11568 0 69 -1.20032 1
gene 3 5 5 0.776128 1 188 0.776128 1
genomeend 139

/* Organism #140 Fitness: 0.32785 Error: 0.57215 */
genomestart 140
trait 1 0.1 0 0 0 0 0 0 0 
trait 2 0.2 0 0 0 0 0 0 0 
trait 3 0.3 0 0 0 0 0 0 0 
node 1 1 1 1
node 2 3 1 1
node 3 1 1 1
node 4 1 0 2
node 5 1 0 0
gene 3 1 4 1.54484 0 1 1.54484 1
gene 2 2 4 -3.04269 0 2 -3.04269 1
gene 3 3 4 1.78239 0 3 1.78239 0
gene 3 3 5 -7.90291 0 5 -7.90291 1
gene 3 5 4 -1.71122 0 6 -1.71122 1
gene 3 2 5 1.60396 0 69 1.60396 1
gene 2 1 5 -3.81354 0 143 -3.81354 1
genomeend 140

/* Species #77 : (Size 1) (AF 0.0786961) (Age 5)  */


/* Organism #141 Fitness: 0.0786961 Error: 0.821304 */
genomestart 141
trait 1 0.1 0 0 0 0 0 0 0 
trait 2 0.2 0 0 0 0 0 0 0 
trait 3 0.990448 0.385718 0.917978 0 0.295881 0.624489 0 0.220724 
node 1 3 1 1
node 2 1 1 1
node 3 3 1 1
node 4 1 0 2
node 6 1 0 0
gene 2 1 4 -2.40119 0 1 -2.40119 1
gene 3 2 4 -4.97287 0 2 -4.97287 1
gene 2 3 4 1.22284 0 3 1.22284 1
gene 2 1 6 0.733386 0 8 0.733386 1
gene 2 6 4 4.14953 0 9 4.14953 1
gene 3 2 6 -0.827537 0 95 -0.827537 1
gene 3 4 4 -0.588077 1 189 -0.588077 1
genomeend 141

/* Species #78 : (Size 4) (AF 0.382736) (Age 5)  */


/* Organism #142 Fitness: 0.472684 Error: 0.427316 */
genomestart 142
trait 1 0.1 0 0 0 0 0 0 0 
trait 2 0.2 0 0 0 0 0 0 0 
trait 3 0.3 0 0 0 0 0 0 0 
node 1 2 1 1
node 2 1 1 1
node 3 3 1 1
node 4 2 0 2
node 5 1 0 0
gene 3 1 4 5.7776 0 1 5.7776 1
gene 3 2 4 0.714491 0 2 0.714491 1
gene 3 3 4 1.47022 0 3 1.47022 0
gene 3 3 5 -3.78454 0 5 -3.78454 1
gene 1 5 4 -0.555109 0 6 -0.555109 1
gene 3 2 5 -3.70138 0 69 -3.70138 1
gene 3 5 5 -0.269873 1 160 -0.269873 1
gene 2 1 5 -0.383107 0 179 0 1
genomeend 142

/* Organism #143 Fitness: 0.389442 Error: 0.510558 */
genomestart 143
trait 1 0.1 0 0 0 0 0 0 0 
trait 2 0.2 0 0 0 0 0 0 0 
trait 3 0.3 0 0 0 0 0 0 0 
node 1 2 1 1
node 2 1 1 1
node 3 3 1 1
node 4 2 0 2
node 5 1 0 0
gene 3 1 4 5.7776 0 1 5.7776 1
gene 3 2 4 0.714491 0 2 0.714491 1
gene 3 3 4 1.47022 0 3 1.47022 0
gene 3 3 5 -3.78454 0 5 -3.78454 1
gene 1 5 4 -0.555109 0 6 -0.555109 1
gene 3 2 5 -3.70138 0 69 -3.70138 1
gene 3 5 5 -0.269873 1 160 -0.269873 1
gene 2 1 5 -0.383107 0 179 0 1
genomeend 143

/* Organism #144 Fitness: 0.416577 Error: 0.483423 */
genomestart 144
trait 1 0.1 0 0 0 0 0 0 0 
trait 2 0.2 0 0 0 0 0 0 0 
trait 3 0.3 0 0 0 0 0 0 0 
node 1 2 1 1
node 2 1 1 1
node 3 3 1 1
node 4 2 0 2
node 5 1 0 0
gene 3 1 4 5.7776 0 1 5.7776 1
gene 3 2 4 0.714491 0 2 0.714491 1
gene 3 3 4 1.47022 0 3 1.47022 0
gene 3 3 5 -3.78454 0 5 -3.78454 1
gene 1 5 4 -0.555109 0 6 -0.555109 1
gene 3 2 5 -3.70138 0 69 -3.70138 1
gene 3 5 5 -0.269873 1 160 -0.269873 1
gene 2 1 5 -0.383107 0 179 0 1
genomeend 144

/* Organism #145 Fitness: 0.252241 Error: 0.647759 */
genomestart 145
trait 1 0.1 0 0 0 0 0 0 0 
trait 2 0.2 0 0 0 0 0 0 0 
trait 3 0.3 0 0 0 0 0 0 0 
node 1 2 1 1
node 2 1 1 1
node 3 3 1 1
node 4 2 0 2
node 5 1 0 0
gene 3 1 4 6.63124 0 1 6.63124 1
gene 3 2 4 -0.418754 0 2 -0.418754 1
gene 3 3 4 -2.87099 0 3 -2.87099 0
gene 3 3 5 -4.06402 0 5 -4.06402 1
gene 1 5 4 -2.1005 0 6 -2.1005 1
gene 3 2 5 0.163586 0 69 0.163586 1
gene 3 5 5 -1.04667 1 160 -1.04667 1
genomeend 145

/* Species #82 : (Size 4) (AF 0.322976) (Age 5)  */


/* Organism #146 Fitness: 0.111662 Error: 0.788338 */
genomestart 146
trait 1 0.1 0 0 0 0 0 0 0 
trait 2 0.2 0 0 0 0 0 0 0 
trait 3 0.3 0 0 0 0 0 0 0 
node 1 2 1 1
node 2 1 1 1
node 3 3 1 1
node 4 2 0 2
node 5 1 0 0
gene 3 1 4 3.63624 0 1 3.63624 1
gene 3 2 4 8 0 2 8 1
gene 3 3 4 5.08494 0 3 5.08494 0
gene 3 3 5 0.633186 0 5 0.633186 1
gene 3 5 4 -2.18324 0 6 -2.18324 1
gene 1 2 5 3.77453 0 54 3.77453 1
genomeend 146

/* Organism #147 Fitness: 0.44906 Error: 0.45094 */
genomestart 147
trait 1 0.1 0 0 0 0 0 0 0 
trait 2 0.2 0 0 0 0 0 0 0 
trait 3 0.3 0 0 0 0 0 0 0 
node 1 2 1 1
node 2 1 1 1
node 3 3 1 1
node 4 2 0 2
node 5 1 0 0
gene 3 1 4 -0.249091 0 1 -0.249091 1
gene 3 2 4 8 0 2 8 1
gene 3 3 4 5.69349 0 3 5.69349 0
gene 3 3 5 -3.07242 0 5 -3.07242 1
gene 3 5 4 -3.63384 0 6 -3.63384 1
gene 1 2 5 4.48563 0 54 4.48563 1
gene 3 5 5 -0.2439 1 190 -0.2439 1
genomeend 147

/* Organism #148 Fitness: 0.377396 Error: 0.522604 */
genomestart 148
trait 1 0.1 0 0 0 0 0 0 0 
trait 2 0.2 0 0 0 0 0 0 0 
trait 3 0.3 0 0 0 0 0 0 0 
node 1 2 1 1
node 2 1 1 1
node 3 3 1 1
node 4 2 0 2
node 5 1 0 0
gene 3 1 4 0.736063 0 1 0.736063 1
gene 3 2 4 7.9762 0 2 7.9762 1
gene 3 3 4 3.24319 0 3 3.24319 0
gene 3 3 5 -1.36431 0 5 -1.36431 1
gene 3 5 4 -0.796897 0 6 -0.796897 1
gene 1 2 5 3.58441 0 54 3.58441 1
gene 2 1 5 -0.792652 0 143 0 1
genomeend 148

/* Organism #149 Fitness: 0.353785 Error: 0.546215 */
genomestart 149
trait 1 0.1 0 0 0 0 0 0 0 
trait 2 0.2 0 0 0 0 0 0 0 
trait 3 0.3 0 0 0 0 0 0 0 
node 1 2 1 1
node 2 1 1 1
node 3 3 1 1
node 4 2 0 2
node 5 1 0 0
gene 3 1 4 0.736063 0 1 0.736063 1
gene 3 2 4 7.9762 0 2 7.9762 1
gene 3 3 4 3.24319 0 3 3.24319 0
gene 3 3 5 -1.36431 0 5 -1.36431 1
gene 3 5 4 -0.796897 0 6 -0.796897 1
gene 1 2 5 3.58441 0 54 3.58441 1
gene 2 1 5 -0.792652 0 143 0 1
genomeend 149

/* Species #84 : (Size 3) (AF 0.445256) (Age 5)  */


/* Organism #150 Fitness: 0.444882 Error: 0.455118 */
genomestart 150
trait 1 0.1 0 0 0 0 0 0 0 
trait 2 0.2 0 0 0 0 0 0 0 
trait 3 0.3 0 0 0 0 0 0 0 
node 1 2 1 1
node 2 1 1 1
node 3 3 1 1
node 4 2 0 2
node 5 1 0 0
gene 3 1 4 0.0409949 0 1 0.0409949 1
gene 3 2 4 8 0 2 8 1
gene 3 3 4 1.49301 0 3 1.49301 0
gene 3 3 5 2.66874 0 5 2.66874 1
gene 2 5 4 -0.703796 0 6 -0.703796 1
gene 2 4 4 -0.0486896 1 125 -0.0486896 1
gene 1 5 5 0.988286 1 191 0.988286 1
genomeend 150

/* Organism #151 Fitness: 0.440661 Error: 0.459339 */
genomestart 151
trait 1 0.1 0 0 0 0 0 0 0 
trait 2 0.2 0 0 0 0 0 0 0 
trait 3 0.3 0 0 0 0 0 0 0 
node 1 2 1 1
node 2 1 1 1
node 3 3 1 1
node 4 2 0 2
node 5 1 0 0
gene 3 1 4 0.0409949 0 1 0.0409949 1
gene 3 2 4 8 0 2 8 1
gene 3 3 4 1.49301 0 3 1.49301 0
gene 3 3 5 2.66874 0 5 2.66874 1
gene 2 5 4 -0.703796 0 6 -0.703796 1
gene 2 4 4 -0.0486896 1 125 -0.0486896 1
genomeend 151

/* Organism #152 Fitness: 0.450223 Error: 0.449777 */
genomestart 152
trait 1 0.1 0 0 0 0 0 0 0 
trait 2 0.2 0 0 0 0 0 0 0 
trait 3 0.3 0 0 0 0 0 0 0 
node 1 2 1 1
node 2 1 1 1
node 3 3 1 1
node 4 2 0 2
node 5 1 0 0
gene 3 1 4 0.0409949 0 1 0.0409949 1
gene 3 2 4 8 0 2 8 1
gene 3 3 4 1.49301 0 3 1.49301 0
gene 3 3 5 2.66874 0 5 2.66874 1
gene 2 5 4 -0.703796 0 6 -0.703796 1
gene 2 4 4 -0.0486896 1 125 -0.0486896 1
gene 2 2 5 0.286039 0 180 0 1
genomeend 152

/* Species #86 : (Size 5) (AF 0.256532) (Age 5)  */


/* Organism #153 Fitness: 0.00584846 Error: 0.894152 */
genomestart 153
trait 1 0.152252 0 0 0 0 0 0 0 
trait 2 0.2 0 0 0 0 0 0 0 
trait 3 0.3 0 0.0729695 0 0 0 0 0 
node 1 2 1 1
node 2 1 1 1
node 3 3 1 1
node 4 2 0 2
gene 2 1 4 -5.01687 0 1 -5.01687 1
gene 2 2 4 -4.4437 0 2 -4.4437 1
gene 2 3 4 -6.05128 0 3 -6.05128 0
genomeend 153

/* Organism #154 Fitness: 0.441903 Error: 0.458097 */
genomestart 154
trait 1 0.1 0 0 0 0 0 0 0 
trait 2 0.2 0 0 0 0 0 0 0 
trait 3 0.3 0 0 0 0 0 0 0 
node 1 1 1 1
node 2 2 1 1
node 3 1 1 1
node 4 1 0 2
node 9 1 0 0
gene 2 1 4 -0.663426 0 1 -0.663426 1
gene 1 2 4 -3.72027 0 2 -3.72027 1
gene 2 3 4 -5.13414 0 3 -5.13414 1
gene 2 3 9 -2.83552 0 46 -2.83552 1
gene 2 9 4 -8 0 47 -8 1
gene 1 2 9 -1.36755 0 70 -1.36755 1
genomeend 154

/* Organism #155 Fitness: 0.439233 Error: 0.460767 */
genomestart 155
trait 1 0.1 0 0 0 0 0 0 0 
trait 2 0.2 0 0 0 0 0 0 0 
trait 3 0.3 0 0 0 0 0 0 0 
node 1 2 1 1
node 2 1 1 1
node 3 3 1 1
node 4 2 0 2
node 5 1 0 0
gene 3 1 4 0.422537 0 1 0.422537 1
gene 3 2 4 -4.05862 0 2 -4.05862 1
gene 3 3 4 -4.36582 0 3 -4.36582 0
gene 3 3 5 -0.500854 0 5 -0.500854 1
gene 3 5 4 1.08354 0 6 1.08354 1
gene 1 2 5 0.617582 0 124 0.617582 1
genomeend 155

/* Organism #156 Fitness: 0.389825 Error: 0.510175 */
genomestart 156
trait 1 0.1 0 0 0 0 0 0 0 
trait 2 0.2 0 0 0 0 0 0 0 
trait 3 0.3 0 0 0 0 0 0 0 
node 1 1 1 1
node 2 2 1 1
node 3 2 1 1
node 4 3 0 2
node 5 1 0 0
gene 2 1 4 -0.620869 0 1 -0.620869 1
gene 3 2 4 -5.21266 0 2 -5.21266 1
gene 2 3 4 -4.73129 0 3 -4.73129 0
gene 3 3 5 4.3036 0 5 4.3036 1
gene 3 5 4 -0.863455 0 6 -0.863455 1
gene 3 1 5 -8 0 71 -8 1
genomeend 156

/* Organism #157 Fitness: 0.00584846 Error: 0.894152 */
genomestart 157
trait 1 0.1 0 0 0 0 0 0 0 
trait 2 0.2 0 0 0 0 0 0 0 
trait 3 0.50132 0 0.210939 0.602283 0 0 0 0 
node 1 1 1 1
node 2 2 1 1
node 3 1 1 1
node 4 1 0 2
node 9 1 0 0
gene 1 1 4 -1.4719 0 1 -1.4719 1
gene 1 2 4 -3.75209 0 2 -3.75209 1
gene 2 3 4 -3.78331 0 3 -3.78331 1
gene 2 3 9 -2.94608 0 46 -2.94608 1
gene 2 9 4 -4.38163 0 47 -4.38163 1
genomeend 157

/* Species #90 : (Size 2) (AF 0.435713) (Age 5)  */


/* Organism #158 Fitness: 0.438 Error: 0.462 */
genomestart 158
trait 1 0.1 0 0 0 0 0 0 0 
trait 2 0.2 0 0 0 0 0 0 0 
trait 3 0.3 0 0 0 0 0 0 0 
node 1 2 1 1
node 2 1 1 1
node 3 3 1 1
node 4 2 0 2
node 5 3 0 0
gene 3 1 4 -0.788621 0 1 -0.788621 1
gene 3 2 4 -3.49677 0 2 -3.49677 1
gene 3 3 4 -1.93064 0 3 -1.93064 1
gene 3 3 5 -1.43404 0 5 -1.43404 1
gene 3 5 4 0.271431 0 6 0.271431 1
gene 3 2 5 -3.39605 0 69 -3.39605 1
genomeend 158

/* Organism #159 Fitness: 0.433426 Error: 0.466574 */
genomestart 159
trait 1 0.1 0 0 0 0 0 0 0 
trait 2 0.2 0 0 0 0 0 0 0 
trait 3 0.3 0 0 0 0 0 0 0 
node 1 2 1 1
node 2 1 1 1
node 3 3 1 1
node 4 2 0 2
node 5 1 0 0
gene 3 1 4 1.15285 0 1 1.15285 1
gene 3 2 4 -2.67447 0 2 -2.67447 1
gene 3 3 4 -1.35781 0 3 -1.35781 0
gene 3 3 5 -0.179718 0 5 -0.179718 1
gene 3 5 4 -4.50168 0 6 -4.50168 1
gene 3 2 5 -3.39605 0 69 -3.39605 1
gene 2 1 5 -0.383107 0 179 0 1
genomeend 159

/* Species #91 : (Size 2) (AF 0.40581) (Age 5)  */


/* Organism #160 Fitness: 0.390771 Error: 0.509229 */
genomestart 160
trait 1 0.1 0 0 0 0 0 0 0 
trait 2 0.2 0 0 0 0 0 0 0 
trait 3 0.3 0 0 0 0 0 0 0 
node 1 2 1 1
node 2 1 1 1
node 3 3 1 1
node 4 2 0 2
node 5 1 0 0
gene 3 1 4 0.43755 0 1 0.43755 1
gene 3 2 4 4.2993 0 2 4.2993 1
gene 3 3 4 6.90716 0 3 6.90716 0
gene 3 3 5 8 0 5 8 1
gene 3 5 4 -2.79832 0 6 -2.79832 1
gene 2 1 5 -0.383107 0 179 0 1
genomeend 160

/* Organism #161 Fitness: 0.42085 Error: 0.47915 */
genomestart 161
trait 1 0.1 0 0 0 0 0 0 0 
trait 2 0.2 0 0 0 0 0 0 0 
trait 3 0.3 0 0 0 0 0 0 0 
node 1 2 1 1
node 2 1 1 1
node 3 3 1 1
node 4 2 0 2
node 5 1 0 0
gene 3 1 4 -0.2875 0 1 -0.2875 1
gene 3 2 4 6.02036 0 2 6.02036 1
gene 3 3 4 3.59399 0 3 3.59399 1
gene 3 3 5 8 0 5 8 1
gene 3 5 4 -3.44849 0 6 -3.44849 1
gene 2 1 5 -0.383107 0 179 0 1
genomeend 161

/* Species #92 : (Size 1) (AF 0.00598793) (Age 5)  */


/* Organism #162 Fitness: 0.00598793 Error: 0.894012 */
genomestart 162
trait 1 0.1 0 0 0 0 0 0 0 
trait 2 0.2 0 0 0 0 0 0 0 
trait 3 0.3 0 0 0 0 0 0 0 
node 1 2 1 1
node 2 1 1 1
node 3 3 1 1
node 4 2 0 2
node 5 1 0 0
gene 3 1 4 -0.43037 0 1 -0.43037 1
gene 3 2 4 -2.76177 0 2 -2.76177 1
gene 3 3 4 0.731837 0 3 0.731837 0
gene 3 3 5 3.43502 0 5 3.43502 1
gene 3 5 4 2.07289 0 6 2.07289 1
gene 2 1 5 -0.383107 0 179 -0.383107 1
genomeend 162

/* Species #93 : (Size 3) (AF 0.265885) (Age 5)  */


/* Organism #163 Fitness: 0.287948 Error: 0.612052 */
genomestart 163
trait 1 0.1 0 0 0 0 0 0 0 
trait 2 0.2 0 0 0 0 0 0 0 
trait 3 0.3 0 0 0 0 0 0 0 
node 1 2 1 1
node 2 1 1 1
node 3 3 1 1
node 4 2 0 2
node 5 1 0 0
gene 3 1 4 6.32195 0 1 6.32195 1
gene 3 2 4 4.58386 0 2 4.58386 1
gene 3 3 4 1.00336 0 3 1.00336 0
gene 3 3 5 6.7248 0 5 6.7248 1
gene 3 5 4 -3.46185 0 6 -3.46185 1
gene 3 2 5 4.6249 0 69 4.6249 1
gene 2 1 5 -0.383107 0 179 0 1
genomeend 163

/* Organism #164 Fitness: 0.451223 Error: 0.448777 */
genomestart 164
trait 1 0.1 0 0 0 0 0 0 0 
trait 2 0.2 0 0 0 0 0 0 0 
trait 3 0.3 0 0 0 0 0 0 0 
node 1 2 1 1
node 2 1 1 1
node 3 3 1 1
node 4 2 0 2
node 5 1 0 0
gene 2 1 4 7.63248 0 1 7.63248 1
gene 3 2 4 4.34222 0 2 4.34222 1
gene 3 3 4 1.02995 0 3 1.02995 0
gene 3 3 5 7.91344 0 5 7.91344 1
gene 3 5 4 -3.46185 0 6 -3.46185 1
gene 3 2 5 4.6249 0 69 4.6249 1
gene 2 1 5 -0.383107 0 179 0 1
genomeend 164

/* Organism #165 Fitness: 0.0584846 Error: 0.841515 */
genomestart 165
trait 1 0.1 0 0 0 0 0 0 0 
trait 2 0.2 0 0 0 0 0 0 0 
trait 3 0.3 0 0 0 0 0 0 0 
node 1 2 1 1
node 2 1 1 1
node 3 3 1 1
node 4 2 0 2
node 5 1 0 0
gene 2 1 4 8 0 1 8 1
gene 3 2 4 0.350478 0 2 0.350478 1
gene 3 3 4 1.88971 0 3 1.88971 0
gene 3 3 5 7.08121 0 5 7.08121 1
gene 1 5 4 -8 0 6 -8 1
gene 3 2 5 4.93488 0 69 4.93488 1
genomeend 165

/* Species #95 : (Size 1) (AF 0.18217) (Age 5)  */


/* Organism #166 Fitness: 0.18217 Error: 0.71783 */
genomestart 166
trait 1 0.1 0 0 0 0 0 0 0 
trait 2 0.2 0 0 0 0 0 0 0 
trait 3 0.3 0 0 0 0 0 0 0 
node 1 1 1 1
node 2 3 1 1
node 3 1 1 1
node 4 1 0 2
node 9 1 0 0
gene 2 1 4 4.37589 0 1 4.37589 1
gene 2 2 4 2.63197 0 2 2.63197 1
gene 2 3 4 -4.20592 0 3 -4.20592 0
gene 2 3 9 -4.22023 0 46 -4.22023 1
gene 2 9 4 1.90248 0 47 1.90248 1
gene 2 2 9 -0.0807101 0 70 -0.0807101 1
genomeend 166

/* Species #97 : (Size 1) (AF 0.00584846) (Age 5)  */


/* Organism #167 Fitness: 0.00584846 Error: 0.894152 */
genomestart 167
trait 1 0.1 0 0 0 0 0 0 0 
trait 2 0.2 0 0 0 0 0 0 0 
trait 3 0.3 0 0 0 0 0 0 0 
node 1 1 1 1
node 2 1 1 1
node 3 3 1 1
node 4 1 0 2
node 13 1 0 0
gene 2 1 4 -4.68283 0 1 -4.68283 1
gene 2 2 4 -2.74933 0 2 -2.74933 1
gene 2 3 4 8 0 3 8 0
gene 2 3 13 5.0133 0 82 5.0133 1
gene 2 13 4 5.93026 0 83 5.93026 1
gene 3 2 13 4.05959 0 135 4.05959 1
genomeend 167

/* Species #102 : (Size 1) (AF 0.0857686) (Age 5)  */


/* Organism #168 Fitness: 0.0857686 Error: 0.814231 */
genomestart 168
trait 1 0.1 0 0 0 0 0 0 0 
trait 2 0.2 0 0 0 0 0 0 0 
trait 3 0.3 0 0 0 0 0 0 0 
node 1 2 1 1
node 2 1 1 1
node 3 3 1 1
node 4 2 0 2
node 5 1 0 0
gene 3 1 4 2.27976 0 1 2.27976 1
gene 3 2 4 1.51006 0 2 1.51006 1
gene 3 3 4 -0.349565 0 3 -0.349565 1
gene 3 3 5 -2.35652 0 5 -2.35652 1
gene 3 5 4 -4.8796 0 6 -4.8796 1
gene 3 1 5 -0.895313 0 113 0 1
gene 3 5 5 -0.919394 1 162 -0.919394 1
gene 2 2 5 0.286039 0 180 0 1
genomeend 168

/* Species #103 : (Size 2) (AF 0.22104) (Age 5)  */


/* Organism #169 Fitness: 0.438582 Error: 0.461418 */
genomestart 169
trait 1 0.1 0 0 0 0 0 0 0 
trait 2 0.2 0 0 0 0 0 0 0 
trait 3 0.353828 0 0.42597 0 0.185344 0 0 0 
node 1 3 1 1
node 2 1 1 1
node 3 3 1 1
node 4 1 0 2
node 6 1 0 0
gene 2 1 4 -4.92868 0 1 -4.92868 0
gene 3 2 4 6.26728 0 2 6.26728 1
gene 2 3 4 6.35956 0 3 6.35956 1
gene 2 1 6 -2.76998 0 8 -2.76998 1
gene 2 6 4 -0.421493 0 9 -0.421493 1
genomeend 169

/* Organism #170 Fitness: 0.00349856 Error: 0.896501 */
genomestart 170
trait 1 0.1 0 0 0 0 0 0 0 
trait 2 0.2 0 0 0 0 0 0 0 
trait 3 0.3 0 0 0 0 0 0 0 
node 1 2 1 1
node 2 3 1 1
node 3 2 1 1
node 4 2 0 2
gene 2 1 4 -4.81116 0 1 -4.81116 1
gene 3 2 4 4.12807 0 2 4.12807 1
gene 2 3 4 4.15341 0 3 4.15341 1
gene 2 4 4 -3.38786 1 84 -3.38786 1
genomeend 170

/* Species #106 : (Size 4) (AF 0.46598) (Age 4)  */


/* Organism #171 Fitness: 0.432708 Error: 0.467292 */
genomestart 171
trait 1 0.1 0 0 0 0 0 0 0 
trait 2 0 0.142097 0 0 0 0 0 0.860536 
trait 3 0.3 0 0 0 0 0 0 0 
node 1 1 1 1
node 2 2 1 1
node 3 1 1 1
node 4 1 0 2
node 9 1 0 0
gene 2 1 4 1.74489 0 1 1.74489 1
gene 1 2 4 5.01601 0 2 5.01601 1
gene 2 3 4 -8 0 3 -8 0
gene 2 3 9 1 0 46 1 1
gene 2 9 4 -3.25224 0 47 -3.25224 1
gene 3 2 9 0.132633 0 184 0 1
genomeend 171

/* Organism #172 Fitness: 0.421239 Error: 0.478761 */
genomestart 172
trait 1 0.1 0 0 0 0 0 0 0 
trait 2 0.1 0.0710487 0 0 0 0 0 0.430268 
trait 3 0.3 0 0 0 0 0 0 0 
node 1 2 1 1
node 2 3 1 1
node 3 3 1 1
node 4 2 0 2
node 15 1 0 0
gene 3 1 4 2.99107 0 1 2.99107 1
gene 1 2 4 4.27933 0 2 4.27933 1
gene 2 3 4 -8 0 3 -8 0
gene 1 2 15 -2.24617 0 89 -2.24617 1
gene 1 15 4 2.63124 0 90 2.63124 1
genomeend 172

/* Organism #173 Fitness: 0.463844 Error: 0.436156 */
genomestart 173
trait 1 0.1 0 0 0 0 0 0 0 
trait 2 0.2 0 0 0 0 0 0 0 
trait 3 0.3 0 0 0 0 0 0 0 
node 1 2 1 1
node 2 1 1 1
node 3 3 1 1
node 4 2 0 2
node 5 3 0 0
gene 3 1 4 1.66242 0 1 1.66242 1
gene 3 2 4 2.75033 0 2 2.75033 1
gene 3 3 4 -8 0 3 -8 0
gene 3 3 5 -0.497022 0 5 -0.497022 1
gene 2 5 4 -4.60256 0 6 -4.60256 1
gene 3 2 5 3.66883 0 69 3.66883 1
genomeend 173

/* Organism #174 Fitness: 0.546129 Error: 0.353871 */
genomestart 174
trait 1 0.1 0 0 0 0 0 0 0 
trait 2 0.2 0.622899 0 0 0 0.812727 0 0.295258 
trait 3 0.3 0 0 0 0 0 0 0 
node 1 2 1 1
node 2 2 1 1
node 3 1 1 1
node 4 1 0 2
node 5 1 0 0
gene 2 1 4 2.70093 0 1 2.70093 1
gene 3 2 4 4.62676 0 2 4.62676 1
gene 1 3 4 -7.09255 0 3 -7.09255 0
gene 3 3 5 7.51898 0 5 7.51898 1
gene 3 5 4 2.31555 0 6 2.31555 1
gene 1 2 5 3.26278 0 26 3.26278 1
genomeend 174

/* Species #107 : (Size 1) (AF 0.464) (Age 4)  */


/* Organism #175 Fitness: 0.464 Error: 0.436 */
genomestart 175
trait 1 0.1 0 0 0 0 0 0 0 
trait 2 0.2 0 0 0 0 0 0 0 
trait 3 0.3 0 0 0 0 0 0 0 
node 1 2 1 1
node 2 1 1 1
node 3 3 1 1
node 4 2 0 2
node 5 1 0 0
gene 3 1 4 1.51052 0 1 1.51052 1
gene 3 2 4 4.48631 0 2 4.48631 1
gene 3 3 4 8 0 3 8 0
gene 3 3 5 8 0 5 8 1
gene 3 5 4 -1.68203 0 6 -1.68203 1
gene 2 2 5 0.286039 0 180 0 1
genomeend 175

/* Species #109 : (Size 1) (AF 0.433989) (Age 4)  */


/* Organism #176 Fitness: 0.433989 Error: 0.466011 */
genomestart 176
trait 1 0.1 0 0 0 0 0 0 0 
trait 2 0.2 0 0 0 0 0 0 0 
trait 3 0.353828 0 0.42597 0 0.185344 0 0 0 
node 1 3 1 1
node 2 1 1 1
node 3 3 1 1
node 4 1 0 2
node 6 1 0 0
gene 2 1 4 -6.83601 0 1 -6.83601 0
gene 3 2 4 -1.34182 0 2 -1.34182 1
gene 2 3 4 2.13634 0 3 2.13634 1
gene 2 1 6 4.54932 0 8 4.54932 1
gene 2 6 4 0.0415543 0 9 0.0415543 1
genomeend 176

/* Species #111 : (Size 3) (AF 0.458275) (Age 4)  */


/* Organism #177 Fitness: 0.468324 Error: 0.431676 */
genomestart 177
trait 1 0.1 0 0 0 0 0 0 0 
trait 2 0.2 0 0 0 0 0 0 0 
trait 3 0.3 0 0 0 0 0 0 0 
node 1 1 1 1
node 2 2 1 1
node 3 1 1 1
node 4 1 0 2
node 9 1 0 0
gene 2 1 4 6.38735 0 1 6.38735 1
gene 1 2 4 5.473 0 2 5.473 1
gene 2 3 4 -4.41924 0 3 -4.41924 1
gene 2 3 9 -1.15823 0 46 -1.15823 1
gene 2 9 4 -8 0 47 -8 1
gene 2 2 9 0.304804 0 139 0.304804 1
genomeend 177

/* Organism #178 Fitness: 0.50905 Error: 0.39095 */
genomestart 178
trait 1 0.1 0 0 0 0 0 0 0 
trait 2 0.2 0 0 0 0 0 0 0 
trait 3 0.3 0 0 0 0 0 0 0 
node 1 1 1 1
node 2 2 1 1
node 3 1 1 1
node 4 1 0 2
node 9 1 0 0
gene 2 1 4 6.04646 0 1 6.04646 1
gene 1 2 4 4.03502 0 2 4.03502 1
gene 2 3 4 -0.0497078 0 3 -0.0497078 1
gene 2 3 9 1.2903 0 46 1.2903 1
gene 2 9 4 -6.76192 0 47 -6.76192 1
gene 2 2 9 0.304804 0 139 0 1
gene 3 1 9 0.071516 0 193 0.071516 1
genomeend 178

/* Organism #179 Fitness: 0.397453 Error: 0.502547 */
genomestart 179
trait 1 0.1 0 0 0 0 0 0 0 
trait 2 0.2 0 0 0 0 0 0 0 
trait 3 0.3 0 0 0 0 0 0 0 
node 1 1 1 1
node 2 2 1 1
node 3 1 1 1
node 4 1 0 2
node 9 1 0 0
gene 1 1 4 5.70558 0 1 5.70558 1
gene 1 2 4 4.03502 0 2 4.03502 1
gene 2 3 4 -0.0497078 0 3 -0.0497078 0
gene 2 3 9 0.690067 0 46 0.690067 1
gene 2 9 4 -5.52384 0 47 -5.52384 1
gene 3 1 9 0.071516 0 193 0 1
genomeend 179

/* Species #113 : (Size 2) (AF 0.171036) (Age 4)  */


/* Organism #180 Fitness: 0.0115481 Error: 0.888452 */
genomestart 180
trait 1 0.1 0 0 0 0 0 0 0 
trait 2 0.2 0 0 0 0 0 0 0 
trait 3 0.3 0 0 0 0 0 0.0981281 0 
node 1 1 1 1
node 2 2 1 1
node 3 1 1 1
node 4 1 0 2
node 9 1 0 0
gene 2 1 4 3.03659 0 1 3.03659 1
gene 1 2 4 2.33375 0 2 2.33375 1
gene 2 3 4 2.12745 0 3 2.12745 1
gene 2 3 9 4.68579 0 46 4.68579 1
gene 2 9 4 3.96716 0 47 3.96716 1
gene 3 2 9 0.454142 0 129 0 1
gene 2 4 9 0.469571 1 194 0.469571 1
genomeend 180

/* Organism #181 Fitness: 0.330523 Error: 0.569477 */
genomestart 181
trait 1 0.1 0 0 0 0 0 0 0 
trait 2 0.2 0 0 0 0 0 0 0 
trait 3 0.3 0 0 0 0 0 0.0981281 0 
node 1 1 1 1
node 2 2 1 1
node 3 1 1 1
node 4 1 0 2
node 9 1 0 0
gene 2 1 4 5.25513 0 1 5.25513 1
gene 1 2 4 2.49508 0 2 2.49508 1
gene 2 3 4 2.12745 0 3 2.12745 1
gene 2 3 9 3.89738 0 46 3.89738 1
gene 2 9 4 3.29652 0 47 3.29652 1
gene 3 2 9 2.83787 0 129 2.83787 1
genomeend 181

/* Species #121 : (Size 1) (AF 0.415055) (Age 4)  */


/* Organism #182 Fitness: 0.415055 Error: 0.484945 */
genomestart 182
trait 1 0.1 0 0 0 0 0 0 0 
trait 2 0.2 0 0 0 0 0 0 0 
trait 3 0.3 0 0 0 0 0 0 0 
node 1 2 1 1
node 2 1 1 1
node 3 3 1 1
node 4 2 0 2
node 5 1 0 0
gene 3 1 4 0.392221 0 1 0.392221 1
gene 3 2 4 -2.53661 0 2 -2.53661 1
gene 3 3 4 -3.38129 0 3 -3.38129 0
gene 3 3 5 1.73672 0 5 1.73672 1
gene 3 5 4 -4.49279 0 6 -4.49279 1
gene 3 2 5 -0.592583 0 144 0 1
gene 2 1 5 -0.383107 0 179 0 1
genomeend 182

/* Species #122 : (Size 3) (AF 0.289742) (Age 4)  */


/* Organism #183 Fitness: 0.0528216 Error: 0.847178 */
genomestart 183
trait 1 0.1 0 0 0 0 0 0 0 
trait 2 0.2 0 0 0 0 0 0 0 
trait 3 0.3 0 0 0 0 0 0 0 
node 1 2 1 1
node 2 1 1 1
node 3 3 1 1
node 4 2 0 2
node 5 1 0 0
gene 3 1 4 2.2761 0 1 2.2761 1
gene 3 2 4 7.38306 0 2 7.38306 0
gene 3 3 4 4.58628 0 3 4.58628 0
gene 3 3 5 3.59627 0 5 3.59627 1
gene 3 5 4 -1.81718 0 6 -1.81718 1
gene 1 2 5 -1.10305 0 54 -1.10305 1
gene 3 1 5 1.76303 0 113 1.76303 1
genomeend 183

/* Organism #184 Fitness: 0.414437 Error: 0.485563 */
genomestart 184
trait 1 0.1 0 0 0 0 0 0 0 
trait 2 0.2 0 0 0 0 0 0 0 
trait 3 0.3 0 0 0 0 0 0 0 
node 1 2 1 1
node 2 1 1 1
node 3 3 1 1
node 4 2 0 2
node 5 1 0 0
gene 3 1 4 2.2761 0 1 2.2761 1
gene 3 2 4 6.25371 0 2 6.25371 1
gene 3 3 4 4.98698 0 3 4.98698 0
gene 3 3 5 -0.733893 0 5 -0.733893 1
gene 3 5 4 -1.24636 0 6 -1.24636 1
gene 1 2 5 -0.343317 0 54 -0.343317 1
gene 3 1 5 -0.895313 0 113 0 1
genomeend 184

/* Organism #185 Fitness: 0.401968 Error: 0.498032 */
genomestart 185
trait 1 0.1 0 0 0 0 0 0 0 
trait 2 0.2 0 0 0 0 0 0 0 
trait 3 0.3 0 0 0 0 0 0 0 
node 1 2 1 1
node 2 1 1 1
node 3 3 1 1
node 4 2 0 2
node 5 1 0 0
gene 3 1 4 2.2761 0 1 2.2761 1
gene 3 2 4 6.25371 0 2 6.25371 1
gene 3 3 4 4.98698 0 3 4.98698 0
gene 3 3 5 -0.733893 0 5 -0.733893 1
gene 3 5 4 -1.24636 0 6 -1.24636 1
gene 1 2 5 -0.343317 0 54 -0.343317 1
gene 3 1 5 -0.895313 0 113 0 1
genomeend 185

/* Species #127 : (Size 1) (AF 0.00587807) (Age 4)  */


/* Organism #186 Fitness: 0.00587807 Error: 0.894122 */
genomestart 186
trait 1 0.402867 0 0 0 0 0 0.244712 0.198573 
trait 2 0.2 0 0 0 0 0 0 0 
trait 3 0.3 0 0.264329 0.274947 0 0 0 0.356756 
node 1 1 1 1
node 2 2 1 1
node 3 3 1 1
node 4 1 0 2
node 9 1 0 0
gene 1 1 4 6.89394 0 1 6.89394 1
gene 1 2 4 -6.71276 0 2 -6.71276 1
gene 2 3 4 6.78398 0 3 6.78398 0
gene 3 4 4 3.29727 1 32 3.29727 1
gene 2 3 9 0.505418 0 46 0.505418 1
gene 2 9 4 -5.38501 0 47 -5.38501 1
genomeend 186

/* Species #133 : (Size 2) (AF 0.0584846) (Age 4)  */


/* Organism #187 Fitness: 0.0584846 Error: 0.841515 */
genomestart 187
trait 1 0.1 0 0 0 0 0 0 0 
trait 2 0.2 0 0 0 0 0 0 0 
trait 3 0.3 0 0 0 0 0 0 0 
node 1 2 1 1
node 2 3 1 1
node 3 3 1 1
node 4 2 0 2
node 15 1 0 0
gene 3 1 4 8 0 1 8 1
gene 1 2 4 3.0542 0 2 3.0542 0
gene 3 3 4 8 0 3 8 1
gene 1 2 15 -4.45923 0 89 -4.45923 1
gene 1 15 4 5.72976 0 90 5.72976 1
genomeend 187

/* Organism #188 Fitness: 0.0584846 Error: 0.841515 */
genomestart 188
trait 1 0.1 0 0 0 0 0 0 0 
trait 2 0.2 0 0 0 0 0 0 0 
trait 3 0.3 0 0 0 0 0 0 0 
node 1 2 1 1
node 2 3 1 1
node 3 3 1 1
node 4 2 0 2
node 15 1 0 0
gene 3 1 4 8 0 1 8 1
gene 1 2 4 5.11883 0 2 5.11883 0
gene 3 3 4 5.77353 0 3 5.77353 1
gene 1 2 15 -3.74639 0 89 -3.74639 1
gene 1 15 4 -0.807899 0 90 -0.807899 1
genomeend 188

/* Species #134 : (Size 3) (AF 0.301981) (Age 4)  */


/* Organism #189 Fitness: 0.450225 Error: 0.449775 */
genomestart 189
trait 1 0.1 0 0 0 0 0 0 0 
trait 2 0.2 0 0 0 0 0 0 0 
trait 3 0.3 0 0 0 0 0 0 0 
node 1 1 1 1
node 2 1 1 1
node 3 3 1 1
node 4 1 0 2
node 13 1 0 0
gene 2 1 4 -0.36729 0 1 -0.36729 1
gene 2 2 4 -0.269935 0 2 -0.269935 1
gene 2 3 4 7.61871 0 3 7.61871 1
gene 2 3 13 1 0 82 0 1
gene 2 13 4 7.61871 0 83 0 1
gene 3 2 13 0.118012 0 135 0.118012 1
gene 1 4 13 -0.0348305 1 195 -0.0348305 1
genomeend 189

/* Organism #190 Fitness: 0.449729 Error: 0.450271 */
genomestart 190
trait 1 0.1 0 0 0 0 0 0 0 
trait 2 0.2 0 0 0 0 0 0 0 
trait 3 0.3 0 0 0 0 0 0 0 
node 1 1 1 1
node 2 1 1 1
node 3 3 1 1
node 4 1 0 2
node 13 1 0 0
gene 2 1 4 -0.36729 0 1 -0.36729 1
gene 2 2 4 -0.269935 0 2 -0.269935 1
gene 2 3 4 7.61871 0 3 7.61871 1
gene 2 3 13 1 0 82 0 1
gene 2 13 4 7.61871 0 83 0 1
gene 3 2 13 0.118012 0 135 0.118012 1
genomeend 190

/* Organism #191 Fitness: 0.00598793 Error: 0.894012 */
genomestart 191
trait 1 0.1 0 0 0 0 0 0 0 
trait 2 0.2 0 0 0 0 0 0 0 
trait 3 0.3 0 0 0 0 0 0 0 
node 1 1 1 1
node 2 1 1 1
node 3 3 1 1
node 4 1 0 2
node 13 1 0 0
gene 2 1 4 -0.36729 0 1 -0.36729 1
gene 2 2 4 -0.269935 0 2 -0.269935 1
gene 2 3 4 7.61871 0 3 7.61871 1
gene 2 3 13 1 0 82 0 1
gene 2 13 4 7.61871 0 83 0 1
gene 3 2 13 0.118012 0 135 0.118012 1
gene 2 1 13 -0.710846 0 196 -0.710846 1
genomeend 191

/* Species #135 : (Size 1) (AF 0.450223) (Age 4)  */


/* Organism #192 Fitness: 0.450223 Error: 0.449777 */
genomestart 192
trait 1 0.1 0 0 0 0 0 0 0 
trait 2 0.2 0 0 0 0 0 0 0 
trait 3 0.3 0 0 0 0 0 0 0 
node 1 1 1 1
node 2 1 1 1
node 3 3 1 1
node 4 1 0 2
node 13 1 0 0
gene 2 1 4 -0.656078 0 1 -0.656078 1
gene 2 2 4 0.412516 0 2 0.412516 1
gene 2 3 4 7.46164 0 3 7.46164 1
gene 2 3 13 -6.29761 0 82 -6.29761 1
gene 2 13 4 8 0 83 8 1
gene 3 2 13 -4.09307 0 135 -4.09307 1
genomeend 192

/* Species #138 : (Size 2) (AF 0.00584846) (Age 4)  */


/* Organism #193 Fitness: 0.00584846 Error: 0.894152 */
genomestart 193
trait 1 0.1 0.336401 0.068755 0.265574 0.062698 0 0 0.0859582 
trait 2 0.421745 0 0 0.198529 0.211004 0 0 0 
trait 3 0.3 0 0 0 0 0 0 0 
node 1 1 1 1
node 2 3 1 1
node 3 2 1 1
node 4 1 0 2
gene 2 1 4 -3.30517 0 1 -3.30517 1
gene 1 2 4 3.92775 0 2 3.92775 1
gene 2 3 4 8 0 3 8 0
genomeend 193

/* Organism #194 Fitness: 0.00584846 Error: 0.894152 */
genomestart 194
trait 1 0.1 0 0 0 0 0 0 0 
trait 2 0.2 0 0 0 0 0 0 0 
trait 3 0.3 0 0 0 0 0 0 0 
node 1 2 1 1
node 2 3 1 1
node 3 2 1 1
node 4 2 0 2
gene 2 1 4 -3.18066 0 1 -3.18066 1
gene 1 2 4 7.61369 0 2 7.61369 1
gene 2 3 4 5.37781 0 3 5.37781 1
gene 2 4 4 -0.0818731 1 84 -0.0818731 1
genomeend 194

/* Species #139 : (Size 1) (AF 0.437539) (Age 4)  */


/* Organism #195 Fitness: 0.437539 Error: 0.462461 */
genomestart 195
trait 1 0.1 0 0 0 0 0 0 0 
trait 2 0.2 0 0 0 0 0 0 0 
trait 3 0.3 0 0 0 0 0 0 0 
node 1 2 1 1
node 2 3 1 1
node 3 2 1 1
node 4 2 0 2
node 22 1 0 0
gene 2 1 4 -0.5967 0 1 -0.5967 1
gene 3 2 4 4.67233 0 2 4.67233 1
gene 2 3 4 5.26711 0 3 5.26711 0
gene 2 4 4 0.0383432 1 84 0.0383432 1
gene 2 3 22 1 0 197 0 1
gene 2 22 4 5.26711 0 198 0 1
genomeend 195

/* Species #143 : (Size 1) (AF 0.437388) (Age 4)  */


/* Organism #196 Fitness: 0.437388 Error: 0.462612 */
genomestart 196
trait 1 0.1 0 0 0 0 0 0 0 
trait 2 0.2 0 0 0 0 0 0 0 
trait 3 0.3 0 0 0 0 0 0 0 
node 1 2 1 1
node 2 1 1 1
node 3 3 1 1
node 4 2 0 2
node 5 1 0 0
gene 3 1 4 0.782802 0 1 0.782802 1
gene 3 2 4 -2.64583 0 2 -2.64583 1
gene 3 3 4 3.12373 0 3 3.12373 0
gene 3 3 5 -1.04059 0 5 -1.04059 1
gene 3 5 4 2.11825 0 6 2.11825 1
gene 1 2 5 0.724107 0 124 0.724107 1
genomeend 196

/* Species #146 : (Size 2) (AF 0.247987) (Age 4)  */


/* Organism #197 Fitness: 0.249229 Error: 0.650771 */
genomestart 197
trait 1 0.1 0 0 0 0 0 0 0 
trait 2 0.2 0 0.335203 0 0.237161 0 0 0 
trait 3 0.3 0 0 0 0 0 0 0 
node 1 2 1 1
node 2 1 1 1
node 3 3 1 1
node 4 2 0 2
node 5 1 0 0
gene 3 1 4 4.75682 0 1 4.75682 1
gene 3 2 4 -7.4286 0 2 -7.4286 1
gene 3 3 4 5.76326 0 3 5.76326 1
gene 3 3 5 1.19486 0 5 1.19486 1
gene 3 5 4 1.20741 0 6 1.20741 1
gene 1 2 5 1.29355 0 124 1.29355 1
genomeend 197

/* Organism #198 Fitness: 0.246746 Error: 0.653254 */
genomestart 198
trait 1 0.1 0 0 0 0 0 0 0 
trait 2 0.2 0 0.335203 0 0.237161 0 0 0 
trait 3 0.3 0 0 0 0 0 0 0 
node 1 2 1 1
node 2 1 1 1
node 3 3 1 1
node 4 2 0 2
node 5 1 0 0
gene 3 1 4 4.75682 0 1 4.75682 1
gene 3 2 4 -7.4286 0 2 -7.4286 1
gene 3 3 4 5.76326 0 3 5.76326 1
gene 3 3 5 1.19486 0 5 1.19486 1
gene 3 5 4 1.20741 0 6 1.20741 1
gene 1 2 5 1.29355 0 124 1.29355 1
genomeend 198

/* Species #149 : (Size 3) (AF 0.245362) (Age 4)  */


/* Organism #199 Fitness: 0.185511 Error: 0.714489 */
genomestart 199
trait 1 0.1 0 0 0 0 0 0 0 
trait 2 0.2 0 0 0 0 0 0 0 
trait 3 0.3 0 0 0 0 0 0 0 
node 1 2 1 1
node 2 1 1 1
node 3 3 1 1
node 4 2 0 2
node 5 1 0 0
gene 3 1 4 4.17487 0 1 4.17487 1
gene 3 2 4 7.15023 0 2 7.15023 1
gene 3 3 4 2.40206 0 3 2.40206 0
gene 3 3 5 -7.64204 0 5 -7.64204 1
gene 3 5 4 0.442605 0 6 0.442605 1
gene 3 2 5 0.00496449 0 144 0.00496449 1
genomeend 199

/* Organism #200 Fitness: 0.392287 Error: 0.507713 */
genomestart 200
trait 1 0.1 0 0 0 0 0 0 0 
trait 2 0.2 0 0 0 0 0 0 0 
trait 3 0.3 0 0 0 0 0 0 0 
node 1 2 1 1
node 2 1 1 1
node 3 3 1 1
node 4 2 0 2
node 5 1 0 0
gene 3 1 4 2.89736 0 1 2.89736 1
gene 3 2 4 5.60487 0 2 5.60487 1
gene 3 3 4 -0.308227 0 3 -0.308227 0
gene 3 3 5 -4.42364 0 5 -4.42364 1
gene 3 5 4 -1.70566 0 6 -1.70566 1
gene 3 2 5 -0.592583 0 144 0 1
gene 2 1 5 -0.383107 0 179 0 1
genomeend 200

/* Organism #201 Fitness: 0.158288 Error: 0.741712 */
genomestart 201
trait 1 0.1 0 0 0 0 0 0 0 
trait 2 0.2 0 0 0 0 0 0 0 
trait 3 0.3 0 0 0 0 0 0 0 
node 1 2 1 1
node 2 1 1 1
node 3 3 1 1
node 4 2 0 2
node 5 1 0 0
gene 3 1 4 4.08184 0 1 4.08184 1
gene 3 2 4 5.10313 0 2 5.10313 1
gene 3 3 4 0.219465 0 3 0.219465 1
gene 3 3 5 -3.23811 0 5 -3.23811 1
gene 3 5 4 -1.5798 0 6 -1.5798 1
gene 1 2 5 -8 0 54 -8 1
gene 1 5 5 -1.82625 1 74 -1.82625 1
genomeend 201

/* Species #152 : (Size 1) (AF 0.464445) (Age 4)  */


/* Organism #202 Fitness: 0.464445 Error: 0.435555 */
genomestart 202
trait 1 0.1 0 0 0 0 0 0 0 
trait 2 0.2 0 0 0 0 0 0 0 
trait 3 0.3 0 0 0 0 0 0 0 
node 1 2 1 1
node 2 1 1 1
node 3 3 1 1
node 4 2 0 2
node 5 1 0 0
gene 3 1 4 5.50616 0 1 5.50616 1
gene 3 2 4 -5.97763 0 2 -5.97763 1
gene 3 3 4 2.89553 0 3 2.89553 0
gene 3 3 5 -1.30916 0 5 -1.30916 1
gene 3 5 4 -8 0 6 -8 1
gene 3 2 5 1.11626 0 69 1.11626 1
genomeend 202

/* Species #157 : (Size 2) (AF 0.209429) (Age 4)  */


/* Organism #203 Fitness: 0.360373 Error: 0.539627 */
genomestart 203
trait 1 0.1 0 0 0 0 0 0 0 
trait 2 0.2 0 0 0 0 0 0 0 
trait 3 0.3 0 0 0 0 0 0 0 
node 1 2 1 1
node 2 1 1 1
node 3 3 1 1
node 4 2 0 2
node 5 1 0 0
gene 3 1 4 8 0 1 8 1
gene 3 2 4 8 0 2 8 1
gene 3 3 4 -3.23547 0 3 -3.23547 0
gene 1 3 5 8 0 5 8 1
gene 3 5 4 -0.830968 0 6 -0.830968 1
gene 3 1 5 -5.64004 0 71 -5.64004 1
genomeend 203

/* Organism #204 Fitness: 0.0584846 Error: 0.841515 */
genomestart 204
trait 1 0.1 0 0 0 0 0 0 0 
trait 2 0.203527 0 0 0 0 0 0 0.188394 
trait 3 0.3 0 0 0 0 0 0 0 
node 1 1 1 1
node 2 3 1 1
node 3 3 1 1
node 4 1 0 2
gene 3 1 4 8 0 1 8 1
gene 1 2 4 8 0 2 8 0
gene 3 3 4 -0.959414 0 3 -0.959414 1
genomeend 204

/* Species #158 : (Size 2) (AF 0.0584846) (Age 4)  */


/* Organism #205 Fitness: 0.0584846 Error: 0.841515 */
genomestart 205
trait 1 0.1 0 0 0 0 0 0 0 
trait 2 0.2 0 0 0 0 0 0 0 
trait 3 0.3 0 0 0 0 0 0 0 
node 1 2 1 1
node 2 1 1 1
node 3 3 1 1
node 4 2 0 2
node 5 1 0 0
gene 2 1 4 8 0 1 8 1
gene 3 2 4 1.84933 0 2 1.84933 1
gene 3 3 4 1.28183 0 3 1.28183 0
gene 3 3 5 5.71136 0 5 5.71136 1
gene 3 5 4 1.43121 0 6 1.43121 1
gene 3 2 5 8 0 69 8 1
genomeend 205

/* Organism #206 Fitness: 0.0584846 Error: 0.841515 */
genomestart 206
trait 1 0.1 0 0 0 0 0 0 0 
trait 2 0.2 0 0 0 0 0 0 0 
trait 3 0.3 0 0 0 0 0 0 0 
node 1 3 1 1
node 2 1 1 1
node 3 3 1 1
node 4 2 0 2
node 5 1 0 0
gene 3 1 4 8 0 1 8 1
gene 3 2 4 3.50807 0 2 3.50807 1
gene 3 3 4 -0.428202 0 3 -0.428202 0
gene 3 3 5 5.61218 0 5 5.61218 1
gene 3 5 4 2.34216 0 6 2.34216 1
gene 2 2 5 0.286039 0 180 0 1
genomeend 206

/* Species #163 : (Size 2) (AF 0.386035) (Age 3)  */


/* Organism #207 Fitness: 0.27953 Error: 0.62047 */
genomestart 207
trait 1 0.1 0 0 0 0 0 0 0 
trait 2 0.2 0 0 0 0 0 0 0 
trait 3 0.3 0 0 0 0 0 0 0 
node 1 1 1 1
node 2 3 1 1
node 3 1 1 1
node 4 1 0 2
node 9 1 0 0
gene 2 1 4 4.37589 0 1 4.37589 1
gene 2 2 4 2.63197 0 2 2.63197 1
gene 2 3 4 -4.20592 0 3 -4.20592 0
gene 2 3 9 -4.22023 0 46 -4.22023 1
gene 2 9 4 1.90248 0 47 1.90248 1
gene 2 2 9 -0.0807101 0 70 -0.0807101 1
gene 3 9 9 0.510455 1 201 0.510455 1
genomeend 207

/* Organism #208 Fitness: 0.492539 Error: 0.407461 */
genomestart 208
trait 1 0.1 0 0 0 0 0 0 0 
trait 2 0.2 0 0 0 0 0 0 0 
trait 3 0.3 0 0 0 0 0 0 0 
node 1 1 1 1
node 2 3 1 1
node 3 1 1 1
node 4 1 0 2
node 9 1 0 0
gene 2 1 4 4.37589 0 1 4.37589 1
gene 2 2 4 2.63197 0 2 2.63197 1
gene 2 3 4 -4.20592 0 3 -4.20592 0
gene 2 3 9 -4.22023 0 46 -4.22023 1
gene 2 9 4 1.90248 0 47 1.90248 1
gene 2 2 9 -0.0807101 0 70 -0.0807101 1
gene 2 4 4 -0.191936 1 202 -0.191936 1
genomeend 208

/* Species #164 : (Size 1) (AF 0.473841) (Age 3)  */


/* Organism #209 Fitness: 0.473841 Error: 0.426159 */
genomestart 209
trait 1 0.1 0 0 0 0 0 0 0 
trait 2 0.2 0 0 0 0 0 0 0 
trait 3 0.3 0 0 0 0 0 0 0 
node 1 2 1 1
node 2 1 1 1
node 3 3 1 1
node 4 2 0 2
node 5 1 0 0
gene 2 1 4 6.25436 0 1 6.25436 1
gene 3 2 4 5.76319 0 2 5.76319 1
gene 3 3 4 6.42672 0 3 6.42672 1
gene 3 3 5 7.89834 0 5 7.89834 1
gene 3 5 4 -3.74868 0 6 -3.74868 1
gene 3 2 5 -2.80476 0 69 -2.80476 1
gene 2 1 5 -0.0273428 0 143 -0.0273428 1
genomeend 209

/* Species #165 : (Size 1) (AF 0.0409547) (Age 3)  */


/* Organism #210 Fitness: 0.0409547 Error: 0.859045 */
genomestart 210
trait 1 0.1 0 0 0 0 0 0 0 
trait 2 0.2 0 0 0 0 0 0 0 
trait 3 0.3 0 0 0 0 0 0 0 
node 1 2 1 1
node 2 1 1 1
node 3 3 1 1
node 4 2 0 2
node 5 1 0 0
gene 2 1 4 7.94121 0 1 7.94121 1
gene 3 2 4 -8 0 2 -8 1
gene 3 3 4 2.80372 0 3 2.80372 0
gene 3 3 5 -2.86813 0 5 -2.86813 1
gene 3 5 4 -8 0 6 -8 1
gene 3 2 5 0.410979 0 69 0.410979 1
gene 3 4 4 1.25334 1 171 1.25334 1
genomeend 210

/* Species #168 : (Size 1) (AF 0.286451) (Age 3)  */


/* Organism #211 Fitness: 0.286451 Error: 0.613549 */
genomestart 211
trait 1 0.1 0 0 0 0 0 0 0 
trait 2 0.2 0 0 0 0 0 0 0 
trait 3 0.300417 0 0 0 0 0.0819753 0 0 
node 1 2 1 1
node 2 2 1 1
node 3 1 1 1
node 4 1 0 2
node 14 1 0 0
gene 3 1 4 6.61226 0 1 6.61226 0
gene 3 2 4 -0.556934 0 2 -0.556934 1
gene 2 3 4 -6.13197 0 3 -6.13197 1
gene 3 1 14 0.259051 0 86 0.259051 1
gene 3 14 4 0.746491 0 87 0.746491 1
gene 1 14 14 0.968656 1 203 0.968656 1
genomeend 211

/* Species #170 : (Size 1) (AF 0.361933) (Age 3)  */


/* Organism #212 Fitness: 0.361933 Error: 0.538067 */
genomestart 212
trait 1 0.1 0 0 0 0 0 0 0 
trait 2 0.2 0 0 0 0 0 0 0 
trait 3 0.3 0 0 0 0 0 0 0 
node 1 1 1 1
node 2 2 1 1
node 3 2 1 1
node 4 3 0 2
node 5 1 0 0
gene 2 1 4 -1.33514 0 1 -1.33514 1
gene 3 2 4 2.20422 0 2 2.20422 1
gene 2 3 4 -4.59387 0 3 -4.59387 0
gene 3 3 5 2.83585 0 5 2.83585 1
gene 3 5 4 -0.645619 0 6 -0.645619 1
gene 3 1 5 -3.17459 0 71 -3.17459 1
gene 3 2 5 -0.592583 0 144 0 1
genomeend 212

/* Species #171 : (Size 3) (AF 0.28081) (Age 3)  */


/* Organism #213 Fitness: 0.435401 Error: 0.464599 */
genomestart 213
trait 1 0.251434 0 0 0 0 0 0.122356 0.0992867 
trait 2 0.2 0 0 0 0 0 0 0 
trait 3 0.3 0 0.106602 0 0 0.0728837 0 0 
node 1 1 1 1
node 2 1 1 1
node 3 1 1 1
node 4 1 0 2
gene 2 1 4 -0.769778 0 1 -0.769778 1
gene 3 2 4 1.64973 0 2 1.64973 1
gene 2 3 4 1.41728 0 3 1.41728 1
genomeend 213

/* Organism #214 Fitness: 0.0706653 Error: 0.829335 */
genomestart 214
trait 1 0.1 0 0 0 0 0 0 0 
trait 2 0.2 0 0 0 0 0 0 0 
trait 3 0.353828 0 0.42597 0 0.185344 0 0 0 
node 1 3 1 1
node 2 1 1 1
node 3 3 1 1
node 4 1 0 2
node 6 1 0 0
gene 2 1 4 -2.77474 0 1 -2.77474 0
gene 3 2 4 5.67564 0 2 5.67564 1
gene 2 3 4 -1.24341 0 3 -1.24341 1
gene 2 1 6 -7.80832 0 8 -7.80832 1
gene 2 6 4 -2.34341 0 9 -2.34341 1
genomeend 214

/* Organism #215 Fitness: 0.336362 Error: 0.563638 */
genomestart 215
trait 1 0.1 0 0 0 0 0 0 0 
trait 2 0.2 0 0 0 0 0 0 0 
trait 3 0.353828 0 0.42597 0 0.185344 0 0 0 
node 1 3 1 1
node 2 1 1 1
node 3 3 1 1
node 4 1 0 2
node 6 1 0 0
gene 2 1 4 -2.41194 0 1 -2.41194 0
gene 3 2 4 5.14333 0 2 5.14333 1
gene 2 3 4 1.1502 0 3 1.1502 1
gene 2 1 6 -0.566558 0 8 -0.566558 1
gene 2 6 4 -1.8138 0 9 -1.8138 1
gene 3 3 6 0.28678 0 174 0.28678 1
genomeend 215

/* Species #175 : (Size 1) (AF 0.264242) (Age 3)  */


/* Organism #216 Fitness: 0.264242 Error: 0.635758 */
genomestart 216
trait 1 0.1 0 0 0 0 0 0 0 
trait 2 0.2 0 0 0 0 0 0 0 
trait 3 0.3 0 0 0 0 0 0 0 
node 1 3 1 1
node 2 3 1 1
node 3 3 1 1
node 4 1 0 2
node 6 1 0 0
gene 2 1 4 3.0186 0 1 3.0186 0
gene 3 2 4 -0.134745 0 2 -0.134745 1
gene 2 3 4 -0.0602378 0 3 -0.0602378 1
gene 2 1 6 4.68577 0 8 4.68577 1
gene 2 6 4 1.43354 0 9 1.43354 1
gene 2 2 6 -4.12563 0 50 -4.12563 1
genomeend 216

/* Species #176 : (Size 2) (AF 0.437968) (Age 3)  */


/* Organism #217 Fitness: 0.432538 Error: 0.467462 */
genomestart 217
trait 1 0.1 0 0 0 0 0 0 0 
trait 2 0.2 0 0 0 0 0 0 0 
trait 3 0.3 0 0 0 0 0 0 0 
node 1 3 1 1
node 2 1 1 1
node 3 3 1 1
node 4 1 0 2
node 6 1 0 0
gene 2 1 4 4.1492 0 1 4.1492 0
gene 3 2 4 -2.69758 0 2 -2.69758 1
gene 2 3 4 3.89559 0 3 3.89559 1
gene 2 1 6 5.67999 0 8 5.67999 1
gene 2 6 4 -0.135767 0 9 -0.135767 1
gene 2 2 6 -4.03604 0 50 -4.03604 1
gene 3 3 6 -3.80523 0 73 -3.80523 1
gene 2 4 4 -0.302796 1 172 -0.302796 1
gene 1 6 6 -0.163325 1 204 -0.163325 1
genomeend 217

/* Organism #218 Fitness: 0.443397 Error: 0.456603 */
genomestart 218
trait 1 0.1 0 0 0 0 0 0 0 
trait 2 0.2 0 0 0 0 0 0 0 
trait 3 0.3 0 0 0 0 0 0 0 
node 1 3 1 1
node 2 1 1 1
node 3 3 1 1
node 4 1 0 2
node 6 1 0 0
gene 2 1 4 4.1492 0 1 4.1492 0
gene 3 2 4 -2.69758 0 2 -2.69758 1
gene 2 3 4 3.89559 0 3 3.89559 1
gene 2 1 6 5.67999 0 8 5.67999 1
gene 2 6 4 -0.135767 0 9 -0.135767 1
gene 2 2 6 -4.03604 0 50 -4.03604 1
gene 3 3 6 -3.80523 0 73 -3.80523 1
gene 2 4 4 -0.302796 1 172 -0.302796 1
genomeend 218

/* Species #179 : (Size 1) (AF 0.0143272) (Age 3)  */


/* Organism #219 Fitness: 0.0143272 Error: 0.885673 */
genomestart 219
trait 1 0.1 0 0 0 0 0 0 0 
trait 2 0.2 0 0 0 0 0 0 0 
trait 3 0.3 0 0 0 0 0 0 0 
node 1 2 1 1
node 2 1 1 1
node 3 3 1 1
node 4 2 0 2
node 5 1 0 0
gene 3 1 4 4.50586 0 1 4.50586 1
gene 3 2 4 -0.421289 0 2 -0.421289 1
gene 3 3 4 -4.01883 0 3 -4.01883 0
gene 3 3 5 4.15272 0 5 4.15272 1
gene 3 5 4 1.0303 0 6 1.0303 1
gene 1 2 5 0.8313 0 54 0.8313 1
gene 1 5 5 -4.0471 1 74 -4.0471 1
gene 2 1 5 -0.383107 0 179 0 1
genomeend 219

/* Species #180 : (Size 2) (AF 0.449624) (Age 3)  */


/* Organism #220 Fitness: 0.452659 Error: 0.447341 */
genomestart 220
trait 1 0.1 0 0 0 0 0 0 0 
trait 2 0.2 0 0 0 0 0 0 0 
trait 3 0.3 0 0 0 0 0 0 0 
node 1 2 1 1
node 2 1 1 1
node 3 3 1 1
node 4 2 0 2
node 5 1 0 0
gene 3 1 4 0.234078 0 1 0.234078 1
gene 3 2 4 2.42687 0 2 2.42687 1
gene 3 3 4 -1.27882 0 3 -1.27882 0
gene 3 3 5 0.257882 0 5 0.257882 1
gene 3 5 4 -3.32204 0 6 -3.32204 1
gene 1 2 5 0.201157 0 54 0.201157 1
gene 1 5 5 -4.7625 1 74 -4.7625 1
gene 1 4 4 0.584946 1 173 0.584946 1
genomeend 220

/* Organism #221 Fitness: 0.446589 Error: 0.453411 */
genomestart 221
trait 1 0.1 0 0 0 0 0 0 0 
trait 2 0.2 0 0 0 0 0 0 0 
trait 3 0.3 0 0 0 0 0 0 0 
node 1 2 1 1
node 2 1 1 1
node 3 3 1 1
node 4 2 0 2
node 5 1 0 0
gene 3 1 4 0.364055 0 1 0.364055 1
gene 3 2 4 0.669327 0 2 0.669327 1
gene 3 3 4 -0.969746 0 3 -0.969746 1
gene 3 3 5 4.55415 0 5 4.55415 1
gene 3 5 4 -4.21157 0 6 -4.21157 1
gene 1 2 5 1.68552 0 54 1.68552 1
gene 1 5 5 -5.7023 1 74 -5.7023 1
genomeend 221

/* Species #185 : (Size 1) (AF 0.506653) (Age 3)  */


/* Organism #222 Fitness: 0.506653 Error: 0.393347 */
genomestart 222
trait 1 0.1 0 0 0 0 0 0 0 
trait 2 0.2 0 0 0 0 0 0 0 
trait 3 0.3 0 0 0 0 0 0 0 
node 1 2 1 1
node 2 2 1 1
node 3 1 1 1
node 4 1 0 2
node 5 1 0 0
gene 2 1 4 1.28315 0 1 1.28315 1
gene 3 2 4 2.30959 0 2 2.30959 1
gene 1 3 4 4.19124 0 3 4.19124 0
gene 3 3 5 -0.491097 0 5 -0.491097 1
gene 3 5 4 3.61496 0 6 3.61496 1
gene 1 2 5 -2.10742 0 26 -2.10742 0
gene 3 5 5 2.28562 1 79 2.28562 0
genomeend 222

/* Species #188 : (Size 5) (AF 0.386676) (Age 3)  */


/* Organism #223 Fitness: 0.51441 Error: 0.38559 */
genomestart 223
trait 1 0.1 0 0 0 0 0 0 0 
trait 2 0.2 0 0 0 0 0 0 0 
trait 3 0.3 0 0 0 0 0 0 0 
node 1 2 1 1
node 2 3 1 1
node 3 3 1 1
node 4 2 0 2
gene 3 1 4 2.74166 0 1 2.74166 1
gene 3 2 4 8 0 2 8 1
gene 2 3 4 1.49102 0 3 1.49102 1
genomeend 223

/* Organism #224 Fitness: 0.0152394 Error: 0.884761 */
genomestart 224
trait 1 0.1 0 0 0 0 0 0 0 
trait 2 0.397832 0 0 0 0 0.177484 0.101348 0 
trait 3 0.3 0 0 0 0 0 0 0 
node 1 2 1 1
node 2 3 1 1
node 3 3 1 1
node 4 2 0 2
node 5 1 0 0
gene 3 1 4 2.74166 0 1 2.74166 1
gene 3 2 4 8 0 2 8 1
gene 2 3 4 1.49102 0 3 1.49102 1
gene 3 3 5 -4.09546 0 5 -4.09546 1
gene 2 5 4 -8 0 6 -8 1
gene 2 1 5 -0.792652 0 143 0 1
gene 1 4 5 0.329704 1 205 0.329704 1
genomeend 224

/* Organism #225 Fitness: 0.485886 Error: 0.414114 */
genomestart 225
trait 1 0.1 0 0 0 0 0 0 0 
trait 2 0.595664 0 0 0 0 0.354968 0.202697 0 
trait 3 0.3 0 0 0 0 0 0 0 
node 1 3 1 1
node 2 3 1 1
node 3 2 1 1
node 4 2 0 2
node 5 1 0 0
gene 3 1 4 2.1919 0 1 2.1919 1
gene 3 2 4 8 0 2 8 1
gene 2 3 4 1.27977 0 3 1.27977 1
gene 3 3 5 -4.09546 0 5 -4.09546 1
gene 2 5 4 -8 0 6 -8 1
gene 2 1 5 -0.792652 0 143 0 1
gene 2 2 5 0.286039 0 180 0 1
genomeend 225

/* Organism #226 Fitness: 0.440726 Error: 0.459274 */
genomestart 226
trait 1 0.1 0 0 0 0 0 0 0 
trait 2 0.595664 0 0 0 0 0.354968 0.202697 0 
trait 3 0.3 0 0 0 0 0 0 0 
node 1 3 1 1
node 2 3 1 1
node 3 2 1 1
node 4 2 0 2
node 5 1 0 0
gene 3 1 4 2.1919 0 1 2.1919 1
gene 3 2 4 8 0 2 8 1
gene 2 3 4 1.27977 0 3 1.27977 1
gene 3 3 5 -4.09546 0 5 -4.09546 1
gene 2 5 4 -8 0 6 -8 1
gene 2 1 5 -0.792652 0 143 0 1
genomeend 226

/* Organism #227 Fitness: 0.47712 Error: 0.42288 */
genomestart 227
trait 1 0.1 0 0 0 0 0 0 0 
trait 2 0.2 0 0 0 0 0 0 0 
trait 3 0.3 0 0 0 0 0 0 0 
node 1 2 1 1
node 2 1 1 1
node 3 2 1 1
node 4 2 0 2
node 5 1 0 0
gene 3 1 4 1.82022 0 1 1.82022 1
gene 3 2 4 8 0 2 8 1
gene 3 3 4 -2.00804 0 3 -2.00804 0
gene 3 3 5 -3.29485 0 5 -3.29485 1
gene 3 5 4 -8 0 6 -8 1
gene 1 2 5 6.76733 0 54 6.76733 1
genomeend 227

/* Species #190 : (Size 3) (AF 0.153565) (Age 3)  */


/* Organism #228 Fitness: 0.00598793 Error: 0.894012 */
genomestart 228
trait 1 0.1 0 0 0 0 0 0 0 
trait 2 0.2 0 0 0 0 0 0 0 
trait 3 0.300417 0 0 0 0 0.0819753 0 0 
node 1 1 1 1
node 2 2 1 1
node 3 1 1 1
node 4 1 0 2
node 14 1 0 0
gene 3 1 4 6.9633 0 1 6.9633 0
gene 3 2 4 3.6542 0 2 3.6542 1
gene 2 3 4 -6.5585 0 3 -6.5585 1
gene 3 1 14 -1.15766 0 86 -1.15766 1
gene 3 14 4 8 0 87 8 1
gene 2 3 14 0.272085 0 154 0.272085 1
genomeend 228

/* Organism #229 Fitness: 0.00631634 Error: 0.893684 */
genomestart 229
trait 1 0.1 0 0 0 0 0 0 0 
trait 2 0.2 0 0 0 0 0 0 0 
trait 3 0.300417 0 0 0 0 0.0819753 0 0 
node 1 2 1 1
node 2 2 1 1
node 3 1 1 1
node 4 1 0 2
node 14 1 0 0
gene 3 1 4 8 0 1 8 0
gene 3 2 4 3.27466 0 2 3.27466 1
gene 2 3 4 -2.29442 0 3 -2.29442 1
gene 3 1 14 -0.0944536 0 86 -0.0944536 1
gene 3 14 4 8 0 87 8 1
gene 2 3 14 -0.323424 0 154 0 1
gene 3 14 14 0.51026 1 206 0.51026 1
genomeend 229

/* Organism #230 Fitness: 0.448389 Error: 0.451611 */
genomestart 230
trait 1 0.1 0 0 0 0 0 0 0 
trait 2 0.2 0 0 0 0 0 0 0 
trait 3 0.300417 0 0 0 0 0.0819753 0 0 
node 1 2 1 1
node 2 2 1 1
node 3 1 1 1
node 4 1 0 2
node 14 1 0 0
gene 3 1 4 8 0 1 8 0
gene 3 2 4 3.27466 0 2 3.27466 1
gene 2 3 4 -2.29442 0 3 -2.29442 1
gene 3 1 14 -0.0944536 0 86 -0.0944536 1
gene 3 14 4 8 0 87 8 1
gene 2 3 14 -0.323424 0 154 0 1
genomeend 230

/* Species #192 : (Size 1) (AF 0.497693) (Age 3)  */


/* Organism #231 Fitness: 0.497693 Error: 0.402307 */
genomestart 231
trait 1 0.1 0 0 0 0 0 0 0 
trait 2 0.2 0 0 0 0 0 0 0 
trait 3 0.3 0 0 0 0 0 0 0 
node 1 2 1 1
node 2 3 1 1
node 3 3 1 1
node 4 2 0 2
node 15 1 0 0
gene 3 1 4 5.78293 0 1 5.78293 1
gene 1 2 4 7.57017 0 2 7.57017 0
gene 3 3 4 5.89814 0 3 5.89814 1
gene 1 2 15 -0.549227 0 89 -0.549227 1
gene 1 15 4 4.42975 0 90 4.42975 1
gene 1 3 15 -0.125887 0 207 -0.125887 1
genomeend 231

/* Species #193 : (Size 1) (AF 0.561081) (Age 3)  */


/* Organism #232 Fitness: 0.561081 Error: 0.338919 */
genomestart 232
trait 1 0.1 0 0 0 0 0 0 0 
trait 2 0 0 0 0 0 0 0 0.264942 
trait 3 0.3 0 0 0 0 0 0 0 
node 1 2 1 1
node 2 3 1 1
node 3 3 1 1
node 4 2 0 2
node 15 1 0 0
gene 3 1 4 5.77194 0 1 5.77194 1
gene 1 2 4 3.31628 0 2 3.31628 0
gene 3 3 4 -3.27821 0 3 -3.27821 1
gene 1 2 15 3.89074 0 89 3.89074 1
gene 1 15 4 8 0 90 8 1
genomeend 232

/* Species #196 : (Size 4) (AF 0.342091) (Age 3)  */


/* Organism #233 Fitness: 0.469888 Error: 0.430112 */
genomestart 233
trait 1 0.1 0 0 0 0 0 0 0 
trait 2 0.2 0 0 0 0 0 0 0 
trait 3 0.3 0 0 0 0 0 0 0 
node 1 1 1 1
node 2 3 1 1
node 3 1 1 1
node 4 1 0 2
node 5 1 0 0
gene 3 1 4 6.71845 0 1 6.71845 1
gene 2 2 4 -6.15702 0 2 -6.15702 1
gene 3 3 4 -2.30835 0 3 -2.30835 0
gene 3 3 5 -6.54685 0 5 -6.54685 1
gene 3 5 4 -6.69996 0 6 -6.69996 1
gene 3 2 5 0.169286 0 69 0.169286 1
genomeend 233

/* Organism #234 Fitness: 0.471382 Error: 0.428618 */
genomestart 234
trait 1 0.1 0 0 0 0 0 0 0 
trait 2 0.2 0 0 0 0 0 0 0 
trait 3 0.3 0 0 0 0 0 0 0 
node 1 2 1 1
node 2 1 1 1
node 3 3 1 1
node 4 2 0 2
node 5 1 0 0
gene 3 1 4 6.71845 0 1 6.71845 1
gene 3 2 4 -6.15702 0 2 -6.15702 1
gene 2 3 4 -2.30835 0 3 -2.30835 1
gene 3 3 5 -6.54685 0 5 -6.54685 1
gene 3 5 4 -6.69996 0 6 -6.69996 1
gene 3 2 5 0.169286 0 69 0.169286 1
genomeend 234

/* Organism #235 Fitness: 0.0111943 Error: 0.888806 */
genomestart 235
trait 1 0.1 0 0 0 0 0 0 0 
trait 2 0.2 0 0 0 0 0 0 0 
trait 3 0.3 0 0 0 0 0 0 0 
node 1 2 1 1
node 2 1 1 1
node 3 3 1 1
node 4 2 0 2
node 5 1 0 0
gene 2 1 4 4.10429 0 1 4.10429 1
gene 3 2 4 -7.12951 0 2 -7.12951 1
