
/* Species #1 : (Size 28) (AF 257.505) (Age 8)  */


/* Organism #0 Fitness: 254.326 Error: 395.674 */
genomestart 0
trait 1 0.1 0 0 0 0 0 0 0 
trait 2 0.2 0 0 0 0.0292556 0 0.0264787 0 
trait 3 0.292902 0.0313505 0 0.0603948 0.0140138 0 0 0 
node 1 1 1 1
node 2 1 1 1
node 3 1 1 1
node 4 1 0 2
node 7 1 0 0
gene 1 1 4 2.205 0 1 2.205 0
gene 3 2 4 -0.719473 0 2 -0.719473 1
gene 1 3 4 0.633589 0 3 0.633589 1
gene 3 1 7 0.964327 0 18 0.464327 1
gene 3 7 4 1.78298 0 19 0.990988 1
gene 3 2 7 0.683519 0 59 0 1
gene 1 3 7 0.363324 0 70 0 1
genomeend 0

/* Organism #1 Fitness: 207.657 Error: 442.343 */
genomestart 1
trait 1 0.1 0 0 0 0 0 0 0 
trait 2 0.2 0 0 0 0 0 0 0 
trait 3 0.3 0 0 0 0 0 0.0162134 0.182761 
node 1 1 1 1
node 2 3 1 1
node 3 2 1 1
node 4 2 0 2
node 7 1 0 0
gene 3 1 4 -0.0293145 0 1 -0.0293145 0
gene 3 2 4 -0.851245 0 2 -0.851245 1
gene 1 3 4 -0.804023 0 3 -0.804023 1
gene 3 1 7 1.92036 0 18 1.92036 1
gene 3 7 4 4.2057 0 19 4.2057 1
gene 3 2 7 -0.505072 0 59 -0.505072 1
gene 1 3 7 -1.5104 0 70 -1.5104 1
genomeend 1

/* Organism #2 Fitness: 300.777 Error: 349.223 */
genomestart 2
trait 1 0.1 0 0 0 0 0 0 0 
trait 2 0.2 0 0 0 0.0146278 0 0.0132394 0 
trait 3 0.296451 0.0156753 0 0.0301974 0.00700691 0 0.00810668 0.0913805 
node 1 1 1 1
node 2 1 1 1
node 3 1 1 1
node 4 1 0 2
node 7 1 0 0
gene 1 1 4 0.270393 0 1 0.270393 1
gene 3 2 4 -0.0718454 0 2 -0.0718454 1
gene 1 3 4 -0.720319 0 3 -0.720319 1
gene 3 1 7 0.712913 0 18 0.462913 1
gene 3 7 4 3.13651 0 19 2.74051 1
gene 3 2 7 0.355886 0 59 0.0141263 1
gene 1 3 7 0.180215 0 70 -0.00144708 1
genomeend 2

/* Organism #3 Fitness: 2.57332 Error: 647.427 */
genomestart 3
trait 1 0.1 0 0 0.337845 0.178566 0 0.285432 0 
trait 2 0.2 0 0 0 0.0146278 0 0.0132394 0 
trait 3 0.296451 0.0156753 0 0.0301974 0.00700691 0 0 0 
node 1 1 1 1
node 2 3 1 1
node 3 2 1 1
node 4 2 0 2
node 7 1 0 0
gene 3 1 4 2.06085 0 1 2.06085 0
gene 3 2 4 -3.32471 0 2 -3.32471 1
gene 1 3 4 -2.27599 0 3 -2.27599 1
gene 3 1 7 1.2681 0 18 1.2681 1
gene 3 7 4 -1.74144 0 19 -1.74144 1
gene 3 2 7 -0.682727 0 59 -0.682727 1
gene 1 3 7 1.0245 0 70 1.0245 1
genomeend 3

/* Organism #4 Fitness: 178.729 Error: 471.271 */
genomestart 4
trait 1 0.1 0 0 0.337845 0.178566 0 0.285432 0 
trait 2 0.2 0 0 0 0 0 0 0 
trait 3 0.3 0 0 0 0 0 0 0 
node 1 1 1 1
node 2 3 1 1
node 3 2 1 1
node 4 2 0 2
node 7 1 0 0
gene 3 1 4 -2.85484 0 1 -2.85484 0
gene 3 2 4 0.0488322 0 2 0.0488322 1
gene 1 3 4 -1.71716 0 3 -1.71716 1
gene 3 1 7 0.467404 0 18 0.467404 1
gene 2 7 4 -0.255397 0 19 -0.255397 1
gene 3 2 7 -3.48554 0 59 -3.48554 1
gene 1 3 7 -0.446958 0 70 -0.446958 1
genomeend 4

/* Organism #5 Fitness: 301.011 Error: 348.989 */
genomestart 5
trait 1 0.1 0 0 0 0 0 0 0 
trait 2 0.2 0 0 0 0.0146278 0 0.0132394 0 
trait 3 0.296451 0.0156753 0 0.0301974 0.00700691 0 0.00810668 0.0913805 
node 1 1 1 1
node 2 1 1 1
node 3 1 1 1
node 4 1 0 2
node 7 1 0 0
gene 3 1 4 -1.66421 0 1 -1.66421 0
gene 3 2 4 0.575783 0 2 0.575783 1
gene 1 3 4 -2.07423 0 3 -2.07423 1
gene 3 1 7 0.964327 0 18 0.464327 1
gene 3 7 4 1.78298 0 19 0.990988 1
gene 3 2 7 0.683519 0 59 0 1
gene 1 3 7 -0.00289416 0 70 -0.00289416 1
genomeend 5

/* Organism #6 Fitness: 178.729 Error: 471.271 */
genomestart 6
trait 1 0.1 0 0 0 0 0 0 0 
trait 2 0.2 0 0 0 0 0 0 0 
trait 3 0.3 0 0 0 0 0 0 0 
node 1 2 1 1
node 2 2 1 1
node 3 3 1 1
node 4 3 0 2
node 7 1 0 0
gene 3 1 4 2.66762 0 1 2.66762 0
gene 2 2 4 0.131297 0 2 0.131297 1
gene 1 3 4 0.00578483 0 3 0.00578483 1
gene 3 1 7 0.480634 0 18 0.230634 1
gene 3 7 4 1.2199 0 19 1.2199 1
gene 2 3 7 1.75705 0 47 1.27723 1
genomeend 6

/* Organism #7 Fitness: 326.395 Error: 323.605 */
genomestart 7
trait 1 0.1 0 0 0 0 0 0 0 
trait 2 0.2 0 0 0 0.0585113 0 0.0529574 0 
trait 3 0.285804 0.0627011 0 0.12079 0.0280276 0 0 0 
node 1 1 1 1
node 2 1 1 1
node 3 1 1 1
node 4 1 0 2
node 7 1 0 0
gene 3 1 4 2.56667 0 1 2.56667 1
gene 2 2 4 -0.477038 0 2 -0.477038 1
gene 1 3 4 1.6436 0 3 1.6436 1
gene 3 1 7 0.433056 0 18 0.433056 1
gene 3 7 4 1.91714 0 19 1.91714 1
gene 2 3 7 1.98776 0 47 1.98776 1
genomeend 7

/* Organism #8 Fitness: 323.832 Error: 326.168 */
genomestart 8
trait 1 0.1 0 0 0 0 0 0 0 
trait 2 0.2 0 0 0 0 0 0 0 
trait 3 0.3 0 0 0 0 0 0 0 
node 1 2 1 1
node 2 2 1 1
node 3 3 1 1
node 4 3 0 2
node 7 1 0 0
gene 3 1 4 2.66762 0 1 2.66762 0
gene 2 2 4 0.131297 0 2 0.131297 1
gene 1 3 4 0.00578483 0 3 0.00578483 1
gene 3 1 7 0.480634 0 18 0.230634 1
gene 3 7 4 2.87 0 19 2.474 1
gene 2 3 7 1.75705 0 47 1.27723 1
genomeend 8

/* Organism #9 Fitness: 265.475 Error: 384.525 */
genomestart 9
trait 1 0.1 0 0 0 0 0 0 0 
trait 2 0.2 0 0 0 0 0 0 0 
trait 3 0.3 0 0 0 0 0 0 0 
node 1 2 1 1
node 2 2 1 1
node 3 3 1 1
node 4 3 0 2
node 7 1 0 0
gene 3 1 4 2.66762 0 1 2.66762 0
gene 2 2 4 0.131297 0 2 0.131297 1
gene 1 3 4 0.00578483 0 3 0.00578483 1
gene 3 1 7 0.480634 0 18 0.230634 1
gene 3 7 4 2.87 0 19 2.474 1
gene 2 3 7 1.75705 0 47 1.27723 1
genomeend 9

/* Organism #10 Fitness: 345.049 Error: 304.951 */
genomestart 10
trait 1 0.1 0 0 0 0 0 0 0 
trait 2 0.2 0 0 0 0 0 0 0 
trait 3 0.3 0 0 0 0 0 0 0 
node 1 2 1 1
node 2 2 1 1
node 3 3 1 1
node 4 1 0 2
node 7 1 0 0
gene 3 1 4 2.56347 0 1 2.56347 1
gene 3 2 4 -0.552591 0 2 -0.552591 1
gene 1 3 4 0.076569 0 3 0.076569 1
gene 3 1 7 0.514555 0 18 0.514555 1
gene 3 7 4 2.28795 0 19 2.28795 1
gene 2 3 7 2.16142 0 47 2.16142 1
gene 2 2 7 0.239259 0 132 0 1
genomeend 10

/* Organism #11 Fitness: 341.948 Error: 308.052 */
genomestart 11
trait 1 0.1 0 0 0 0 0 0 0 
trait 2 0.2 0 0.0355303 0 0 0 0 0 
trait 3 0.3 0 0 0 0 0 0 0 
node 1 2 1 1
node 2 2 1 1
node 3 3 1 1
node 4 1 0 2
node 7 1 0 0
gene 1 1 4 1.93596 0 1 1.93596 0
gene 3 2 4 -1.60553 0 2 -1.60553 1
gene 1 3 4 0.294339 0 3 0.294339 1
gene 3 1 7 1.00524 0 18 1.00524 1
gene 3 7 4 4.83058 0 19 4.83058 1
gene 1 3 7 -0.178495 0 70 -0.178495 1
gene 3 4 4 0.0478928 1 141 0.0478928 1
genomeend 11

/* Organism #12 Fitness: 294.26 Error: 355.74 */
genomestart 12
trait 1 0.1 0 0 0 0 0 0 0 
trait 2 1 0 0.0177651 0 0.0292556 0 0.0264787 0 
trait 3 0.292902 0.0313505 0 0.0603948 0.0140138 0 0 0 
node 1 2 1 1
node 2 2 1 1
node 3 3 1 1
node 4 1 0 2
node 7 1 0 0
gene 1 1 4 2.73178 0 1 2.73178 1
gene 3 2 4 -1.00694 0 2 -1.00694 1
gene 1 3 4 1.40024 0 3 1.40024 1
gene 3 1 7 1.00524 0 18 1.00524 1
gene 3 7 4 1.98198 0 19 1.98198 1
gene 1 3 7 0.363324 0 70 0 1
gene 3 4 4 0.0478928 1 141 0.0478928 1
genomeend 12

/* Organism #13 Fitness: 274.846 Error: 375.154 */
genomestart 13
trait 1 0.1 0 0 0 0 0 0 0 
trait 2 0.2 0 0.00888257 0 0.0447977 0 0.0405455 0 
trait 3 0.289353 0.0470258 0 0.0905923 0.0210207 0 0 0 
node 1 2 1 1
node 2 1 1 1
node 3 2 1 1
node 4 1 0 2
node 7 1 0 0
gene 1 1 4 2.55023 0 1 2.55023 1
gene 2 2 4 -0.905777 0 2 -0.905777 1
gene 1 3 4 1.56154 0 3 1.56154 1
gene 3 1 7 1.03296 0 18 1.03296 1
gene 3 7 4 2.75576 0 19 2.75576 1
gene 1 3 7 0.227869 0 70 -0.0446239 1
gene 3 4 4 0.0478928 1 141 0.0478928 1
genomeend 13

/* Organism #14 Fitness: 180.367 Error: 469.633 */
genomestart 14
trait 1 0.1 0 0 0 0 0 0 0 
trait 2 0 0 0 0.40508 0.314879 0.672236 0 0 
trait 3 0.292902 0.0313505 0 0.0603948 0.0140138 0 0 0 
node 1 2 1 1
node 2 1 1 1
node 3 2 1 1
node 4 1 0 2
node 7 1 0 0
gene 1 1 4 2.34014 0 1 2.34014 0
gene 2 2 4 0.39741 0 2 0.39741 1
gene 2 3 4 1.68812 0 3 1.68812 1
gene 3 1 7 0.0051739 0 18 0.0051739 1
gene 3 7 4 -1.43498 0 19 -1.43498 1
gene 1 3 7 -0.271707 0 70 -0.271707 1
gene 3 4 4 0.922845 1 141 0.922845 1
genomeend 14

/* Organism #15 Fitness: 319.27 Error: 330.73 */
genomestart 15
trait 1 0.1 0 0 0 0 0 0 0 
trait 2 0.2 0 0.0177651 0 0.0292556 0 0.0264787 0 
trait 3 0.292902 0.0313505 0 0.0603948 0.0140138 0 0 0 
node 1 2 1 1
node 2 2 1 1
node 3 3 1 1
node 4 1 0 2
node 7 1 0 0
gene 1 1 4 2.33387 0 1 2.33387 1
gene 3 2 4 -1.30624 0 2 -1.30624 1
gene 1 3 4 0.847288 0 3 0.847288 1
gene 3 1 7 0.966946 0 18 0.966946 1
gene 3 7 4 3.40628 0 19 3.40628 1
gene 1 3 7 0.0924143 0 70 -0.0892477 1
gene 3 4 4 0.0478928 1 141 0.0478928 1
genomeend 15

/* Organism #16 Fitness: 291.55 Error: 358.45 */
genomestart 16
trait 1 0.1 0 0 0 0 0 0 0 
trait 2 0.2 0 0.0177651 0 0.0292556 0 0.0264787 0 
trait 3 0.292902 0.0313505 0 0.0603948 0.0140138 0 0 0 
node 1 1 1 1
node 2 1 1 1
node 3 1 1 1
node 4 1 0 2
node 7 1 0 0
gene 1 1 4 2.33387 0 1 2.33387 0
gene 3 2 4 -1.30624 0 2 -1.30624 1
gene 1 3 4 0.847288 0 3 0.847288 1
gene 3 1 7 0.966946 0 18 0.966946 1
gene 3 7 4 3.40628 0 19 3.40628 1
gene 1 3 7 0.0924143 0 70 -0.0892477 1
gene 3 4 4 0.0478928 1 141 0.0478928 1
gene 2 7 7 0.626191 1 212 0.626191 1
genomeend 16

/* Organism #17 Fitness: 2.80726 Error: 647.193 */
genomestart 17
trait 1 0.1 0 0 0 0 0 0 0 
trait 2 0.2 0 0 0 0 0 0 0 
trait 3 0.3 0 0 0 0 0 0 0 
node 1 2 1 1
node 2 2 1 1
node 3 3 1 1
node 4 1 0 2
node 7 1 0 0
gene 2 1 4 1.37127 0 1 1.37127 0
gene 1 2 4 1.06472 0 2 1.06472 1
gene 1 3 4 0.268656 0 3 0.268656 0
gene 3 1 7 -0.363972 0 18 -0.363972 1
gene 3 7 4 1.84332 0 19 1.84332 1
gene 3 7 7 1.14481 1 63 1.14481 1
gene 3 3 7 0.822707 0 70 0.822707 1
genomeend 17

/* Organism #18 Fitness: 291.058 Error: 358.942 */
genomestart 18
trait 1 0.1 0 0 0 0 0 0 0 
trait 2 0.2 0 0 0 0.0292556 0 0.0264787 0 
trait 3 0.292902 0.0313505 0 0.0603948 0.0140138 0 0 0 
node 1 1 1 1
node 2 3 1 1
node 3 2 1 1
node 4 2 0 2
node 7 1 0 0
gene 3 1 4 1.79215 0 1 1.79215 1
gene 3 2 4 -2.22211 0 2 -2.22211 1
gene 1 3 4 -0.246869 0 3 -0.246869 1
gene 3 1 7 -0.826724 0 18 -0.826724 1
gene 3 7 4 -0.676665 0 19 -0.676665 1
gene 3 2 7 1.08367 0 59 1.08367 1
genomeend 18

/* Organism #19 Fitness: 324.977 Error: 325.023 */
genomestart 19
trait 1 0.1 0 0 0 0 0 0 0 
trait 2 0.2 0 0 0 0.0292556 0 0.0264787 0 
trait 3 0.292902 0.0313505 0 0.0603948 0.0140138 0 0 0 
node 1 1 1 1
node 2 3 1 1
node 3 2 1 1
node 4 2 0 2
node 7 1 0 0
gene 3 1 4 2.41325 0 1 2.41325 1
gene 3 2 4 -3.65404 0 2 -3.65404 1
gene 1 3 4 -0.344707 0 3 -0.344707 1
gene 3 1 7 -1.86081 0 18 -1.86081 1
gene 3 7 4 -1.09431 0 19 -1.09431 1
gene 3 2 7 -0.149839 0 59 -0.149839 1
genomeend 19

/* Organism #20 Fitness: 341.709 Error: 308.291 */
genomestart 20
trait 1 0.1 0 0 0 0 0 0 0 
trait 2 0.2 0 0 0 0.0292556 0 0.0264787 0 
trait 3 0.292902 0.0313505 0 0.0603948 0.0140138 0 0 0 
node 1 1 1 1
node 2 3 1 1
node 3 2 1 1
node 4 2 0 2
node 7 1 0 0
gene 3 1 4 1.79215 0 1 1.79215 1
gene 3 2 4 -2.22211 0 2 -2.22211 1
gene 1 3 4 -0.246869 0 3 -0.246869 1
gene 3 1 7 -0.826724 0 18 -0.826724 1
gene 3 7 4 -0.676665 0 19 -0.676665 1
gene 3 2 7 1.08367 0 59 1.08367 1
gene 2 3 7 0.983567 0 226 0 1
genomeend 20

/* Organism #21 Fitness: 183.89 Error: 466.11 */
genomestart 21
trait 1 0.1 0 0 0 0 0 0 0 
trait 2 0.2 0 0 0 0 0 0 0 
trait 3 0.3 0 0 0 0 0 0.0162134 0.182761 
node 1 2 1 1
node 2 2 1 1
node 3 3 1 1
node 4 2 0 2
node 7 1 0 0
gene 3 1 4 2.87677 0 1 2.87677 0
gene 3 2 4 -0.108165 0 2 -0.108165 0
gene 1 3 4 2.70192 0 3 2.70192 1
gene 3 1 7 4.11563 0 18 4.11563 1
gene 3 7 4 3.55337 0 19 3.55337 1
gene 3 2 7 -2.09713 0 59 -2.09713 1
gene 1 3 7 1.23329 0 70 1.23329 1
genomeend 21

/* Organism #22 Fitness: 178.495 Error: 471.505 */
genomestart 22
trait 1 0.1 0 0 0 0 0 0 0 
trait 2 0.2 0 0 0 0.0146278 0 0.0132394 0 
trait 3 0.296451 0.0156753 0 0.0301974 0.00700691 0 0.00810668 0.0913805 
node 1 1 1 1
node 2 3 1 1
node 3 2 1 1
node 4 2 0 2
node 7 1 0 0
gene 3 1 4 -1.35642 0 1 -1.35642 0
gene 3 2 4 -2.22211 0 2 -2.22211 1
gene 1 3 4 -0.444998 0 3 -0.444998 1
gene 3 1 7 -0.440443 0 18 -0.440443 1
gene 3 7 4 0.81032 0 19 0.81032 1
gene 3 2 7 1.08367 0 59 1.08367 1
genomeend 22

/* Organism #23 Fitness: 268.591 Error: 381.409 */
genomestart 23
trait 1 0.1 0 0 0 0 0 0 0 
trait 2 0.2 0 0 0 0 0 0 0 
trait 3 0.3 0 0 0 0 0 0.0162134 0.182761 
node 1 2 1 1
node 2 2 1 1
node 3 3 1 1
node 4 1 0 2
node 7 1 0 0
gene 3 1 4 4.63342 0 1 4.63342 0
gene 3 2 4 -0.309565 0 2 -0.309565 1
gene 1 3 4 1.3227 0 3 1.3227 1
gene 3 1 7 2.67566 0 18 2.67566 1
gene 3 7 4 1.96177 0 19 1.96177 1
gene 3 2 7 -0.590505 0 59 -0.590505 1
gene 1 3 7 1.46801 0 70 1.46801 1
genomeend 23

/* Organism #24 Fitness: 327.722 Error: 322.278 */
genomestart 24
trait 1 0.1 0 0 0 0 0 0 0 
trait 2 0.2 0 0 0 0.0292556 0 0.0264787 0 
trait 3 0.292902 0.0313505 0 0.0603948 0.0140138 0 0 0 
node 1 1 1 1
node 2 3 1 1
node 3 2 1 1
node 4 2 0 2
node 7 1 0 0
gene 3 1 4 1.79215 0 1 1.79215 1
gene 3 2 4 -2.22211 0 2 -2.22211 1
gene 1 3 4 -0.246869 0 3 -0.246869 1
gene 3 1 7 -0.826724 0 18 -0.826724 1
gene 3 7 4 -0.676665 0 19 -0.676665 1
gene 3 2 7 1.08367 0 59 1.08367 1
gene 2 3 7 0.983567 0 226 0 1
genomeend 24

/* Organism #25 Fitness: 345.075 Error: 304.925 */
genomestart 25
trait 1 0.1 0 0 0 0 0 0 0 
trait 2 0.2 0 0 0 0 0 0 0 
trait 3 0.3 0 0 0 0 0 0 0 
node 1 2 1 1
node 2 2 1 1
node 3 3 1 1
node 4 1 0 2
node 7 1 0 0
gene 3 1 4 2.80636 0 1 2.80636 1
gene 3 2 4 -1.67924 0 2 -1.67924 1
gene 1 3 4 -1.08128 0 3 -1.08128 1
gene 3 1 7 1.39578 0 18 1.39578 1
gene 3 7 4 0.353282 0 19 0.353282 1
gene 1 3 7 -1.33229 0 70 -1.33229 1
gene 2 2 7 1.62836 0 132 1.62836 1
genomeend 25

/* Organism #26 Fitness: 261.336 Error: 388.664 */
genomestart 26
trait 1 0.1 0 0 0 0 0 0 0 
trait 2 0.2 0 0 0 0 0 0 0 
trait 3 0.3 0 0 0 0 0 0 0 
node 1 2 1 1
node 2 2 1 1
node 3 3 1 1
node 4 1 0 2
node 7 1 0 0
gene 3 1 4 3.94179 0 1 3.94179 1
gene 3 2 4 -0.120327 0 2 -0.120327 1
gene 1 3 4 -1.5271 0 3 -1.5271 1
gene 3 1 7 2.1028 0 18 2.1028 1
gene 3 7 4 1.19868 0 19 1.19868 1
gene 1 3 7 -1.0193 0 70 -1.0193 1
gene 2 2 7 1.4973 0 132 1.4973 1
genomeend 26

/* Organism #27 Fitness: 297.697 Error: 352.303 */
genomestart 27
trait 1 0.1 0 0 0 0 0 0 0 
trait 2 0.2 0 0 0 0 0 0 0 
trait 3 0.3 0 0 0 0 0 0 0 
node 1 2 1 1
node 2 2 1 1
node 3 3 1 1
node 4 1 0 2
node 7 1 0 0
gene 3 1 4 3.78204 0 1 3.78204 1
gene 3 2 4 -1.89471 0 2 -1.89471 1
gene 1 3 4 0.390678 0 3 0.390678 1
gene 3 1 7 2.7738 0 18 2.7738 1
gene 3 7 4 1.2677 0 19 1.2677 1
gene 1 3 7 0.0686818 0 70 0.0686818 1
gene 2 2 7 3.03741 0 132 3.03741 1
genomeend 27

/* Species #2 : (Size 13) (AF 219.008) (Age 8)  */


/* Organism #28 Fitness: 289.963 Error: 360.037 */
genomestart 28
trait 1 0.1 0 0 0 0 0 0 0 
trait 2 0.2 0 0 0 0.0365696 0 0.0330984 0 
trait 3 0.292902 0.0313505 0 0.0603948 0.0140138 0 0 0 
node 1 1 1 1
node 2 3 1 1
node 3 2 1 1
node 4 2 0 2
node 7 1 0 0
gene 3 1 4 2.73277 0 1 2.73277 1
gene 2 2 4 -0.56533 0 2 -0.56533 1
gene 1 3 4 0.0404618 0 3 0.0404618 1
gene 3 1 7 -0.144046 0 18 -0.144046 1
gene 3 7 4 2.95605 0 19 2.95605 1
gene 3 7 7 -0.390936 1 60 -0.390936 1
gene 1 2 7 -0.114255 0 75 -0.114255 1
genomeend 28

/* Organism #29 Fitness: 141.362 Error: 508.638 */
genomestart 29
trait 1 0.1 0 0 0 0 0 0 0 
trait 2 0.2 0 0 0 0.117023 0 0.105915 0 
trait 3 0.271609 0.125402 0 0.241579 0.0560552 0 0 0 
node 1 1 1 1
node 2 1 1 1
node 3 1 1 1
node 4 1 0 2
node 7 1 0 0
gene 1 1 4 3.69476 0 1 3.69476 1
gene 2 2 4 -1.69752 0 2 -1.69752 1
gene 1 3 4 -0.330792 0 3 -0.330792 1
gene 3 1 7 -0.33192 0 18 -0.33192 1
gene 3 7 4 4.85309 0 19 4.85309 1
gene 1 2 7 4.13201 0 98 4.13201 1
genomeend 29

/* Organism #30 Fitness: 377.297 Error: 272.703 */
genomestart 30
trait 1 0.1 0 0 0 0 0 0 0 
trait 2 0.2 0 0 0 0.0585113 0 0.0529574 0 
trait 3 0.285804 0.0627011 0 0.12079 0.0280276 0 0 0 
node 1 1 1 1
node 2 3 1 1
node 3 2 1 1
node 4 2 0 2
gene 3 1 4 2.59986 0 1 2.59986 1
gene 3 2 4 -0.763388 0 2 -0.763388 1
gene 3 3 4 -0.417824 0 3 -0.417824 1
gene 3 4 4 0.0794002 1 22 0.0794002 1
genomeend 30

/* Organism #31 Fitness: 253.776 Error: 396.224 */
genomestart 31
trait 1 0.1 0 0 0 0 0 0 0 
trait 2 0.2 0 0 0 0 0 0 0 
trait 3 0.3 0 0 0 0 0 0 0 
node 1 1 1 1
node 2 3 1 1
node 3 2 1 1
node 4 2 0 2
node 7 1 0 0
gene 3 1 4 2.4011 0 1 2.4011 1
gene 2 2 4 -1.24466 0 2 -1.24466 1
gene 1 3 4 -1.8453 0 3 -1.8453 1
gene 3 1 7 -0.435021 0 18 -0.435021 1
gene 3 7 4 2.95605 0 19 2.95605 1
gene 3 7 7 -0.681751 1 60 -0.681751 1
gene 1 2 7 -1.79537 0 75 -1.79537 1
gene 2 3 7 0.619876 0 104 0 1
genomeend 31

/* Organism #32 Fitness: 285.602 Error: 364.398 */
genomestart 32
trait 1 0.1 0 0 0 0 0 0 0 
trait 2 0.2 0 0 0 0 0 0 0 
trait 3 0.3 0 0 0 0 0 0 0 
node 1 1 1 1
node 2 3 1 1
node 3 2 1 1
node 4 2 0 2
node 7 1 0 0
gene 3 1 4 2.53467 0 1 2.53467 1
gene 2 2 4 -0.535404 0 2 -0.535404 1
gene 1 3 4 -0.778865 0 3 -0.778865 1
gene 3 1 7 -0.144046 0 18 -0.144046 1
gene 3 7 4 2.95605 0 19 2.95605 1
gene 3 7 7 -0.390936 1 60 -0.390936 1
gene 1 2 7 -0.114255 0 75 -0.114255 1
gene 2 3 7 0.619876 0 104 0 1
genomeend 32

/* Organism #33 Fitness: 40.4609 Error: 609.539 */
genomestart 33
trait 1 0.1 0 0 0 0 0 0 0 
trait 2 0.2 0 0 0 0 0 0 0 
trait 3 0.3 0 0 0 0 0 0 0 
node 1 1 1 1
node 2 2 1 1
node 3 2 1 1
node 4 1 0 2
node 7 1 0 0
gene 3 1 4 2.99203 0 1 2.99203 1
gene 2 2 4 -3.97164 0 2 -3.97164 1
gene 1 3 4 -0.940566 0 3 -0.940566 1
gene 3 1 7 -1.03939 0 18 -1.03939 1
gene 3 7 4 3.7048 0 19 3.7048 1
gene 3 7 7 -1.17787 1 60 -1.17787 1
gene 1 2 7 -1.258 0 75 -1.258 1
gene 1 3 7 -2.31089 0 134 -2.31089 1
genomeend 33

/* Organism #34 Fitness: 288.902 Error: 361.098 */
genomestart 34
trait 1 0.1 0 0 0 0 0 0 0 
trait 2 0.2 0 0 0 0 0 0 0 
trait 3 0.3 0 0 0 0 0 0.00405334 0.0456903 
node 1 1 1 1
node 2 2 1 1
node 3 2 1 1
node 4 2 0 2
node 7 1 0 0
gene 3 1 4 2.53467 0 1 2.53467 1
gene 2 2 4 -1.79394 0 2 -1.79394 1
gene 1 3 4 0.681647 0 3 0.681647 1
gene 3 1 7 -0.144046 0 18 -0.144046 1
gene 3 7 4 1.41618 0 19 1.41618 1
gene 3 7 7 -0.390936 1 60 -0.390936 1
gene 1 2 7 -0.114255 0 75 -0.114255 1
gene 2 3 7 0.619876 0 104 0 1
genomeend 34

/* Organism #35 Fitness: 273.06 Error: 376.94 */
genomestart 35
trait 1 0.1 0 0 0 0 0 0 0 
trait 2 0.2 0 0 0 0 0 0 0 
trait 3 0.3 0 0 0 0 0 0 0 
node 1 1 1 1
node 2 3 1 1
node 3 2 1 1
node 4 2 0 2
node 7 1 0 0
gene 3 1 4 2.4011 0 1 2.4011 1
gene 2 2 4 -1.24466 0 2 -1.24466 1
gene 1 3 4 -1.8453 0 3 -1.8453 1
gene 3 1 7 -0.435021 0 18 -0.435021 1
gene 3 7 4 2.95605 0 19 2.95605 1
gene 3 7 7 -0.681751 1 60 -0.681751 1
gene 1 2 7 -1.79537 0 75 -1.79537 1
gene 2 3 7 0.619876 0 104 0 1
genomeend 35

/* Organism #36 Fitness: 38.036 Error: 611.964 */
genomestart 36
trait 1 0.1 0 0 0 0 0 0 0 
trait 2 0.2 0 0 0 0.0877669 0 0.0794362 0 
trait 3 0.278707 0.0940516 0 0.181185 0.0420414 0 0 0 
node 1 2 1 1
node 2 2 1 1
node 3 3 1 1
node 4 1 0 2
node 7 2 0 0
gene 3 1 4 2.78379 0 1 2.78379 1
gene 2 2 4 -0.435718 0 2 -0.435718 1
gene 1 3 4 -0.323172 0 3 -0.323172 1
gene 3 1 7 -0.439563 0 18 -0.439563 1
gene 3 7 4 4.87269 0 19 4.87269 1
gene 3 7 7 -1.70152 1 102 -1.70152 1
gene 1 3 7 0.963478 0 134 0.963478 1
genomeend 36

/* Organism #37 Fitness: 290.176 Error: 359.824 */
genomestart 37
trait 1 0.1 0.581743 0 0.240029 0 0 0.705051 0 
trait 2 0.2 0 0 0 0 0 0 0 
trait 3 0.3 0 0 0 0 0 0 0 
node 1 1 1 1
node 2 3 1 1
node 3 2 1 1
node 4 2 0 2
node 7 1 0 0
gene 3 1 4 0.795307 0 1 0.795307 1
gene 2 2 4 -2.30248 0 2 -2.30248 1
gene 1 3 4 0.681647 0 3 0.681647 1
gene 3 1 7 2.4673 0 18 2.4673 1
gene 3 7 4 1.14096 0 19 1.14096 1
gene 3 7 7 -0.75467 1 60 -0.75467 1
gene 1 2 7 -1.66666 0 75 -1.66666 0
gene 1 3 7 -0.571248 0 134 0 1
genomeend 37

/* Organism #38 Fitness: 165.162 Error: 484.838 */
genomestart 38
trait 1 0.1 0.581743 0 0.240029 0 0 0.705051 0 
trait 2 0.2 0 0 0 0 0 0 0 
trait 3 0.3 0 0 0 0 0 0 0 
node 1 1 1 1
node 2 3 1 1
node 3 2 1 1
node 4 2 0 2
node 7 1 0 0
gene 3 1 4 0.795307 0 1 0.795307 1
gene 2 2 4 -2.30248 0 2 -2.30248 1
gene 1 3 4 0.681647 0 3 0.681647 1
gene 3 1 7 2.4673 0 18 2.4673 1
gene 3 7 4 1.14096 0 19 1.14096 1
gene 3 7 7 -0.75467 1 60 -0.75467 1
gene 1 2 7 -1.66666 0 75 -1.66666 0
gene 1 3 7 -0.571248 0 134 0 1
genomeend 38

/* Organism #39 Fitness: 178.495 Error: 471.505 */
genomestart 39
trait 1 0.1 0.290871 0 0.120015 0 0 0.352526 0 
trait 2 0.2 0 0 0 0 0 0 0 
trait 3 0.3 0 0 0 0 0 0 0 
node 1 1 1 1
node 2 3 1 1
node 3 2 1 1
node 4 2 0 2
node 7 1 0 0
gene 3 1 4 0.252825 0 1 0.252825 1
gene 2 2 4 -0.187677 0 2 -0.187677 1
gene 2 3 4 -0.00614328 0 3 -0.00614328 1
gene 1 1 7 0.696836 0 18 0.696836 1
gene 3 7 4 0.646303 0 19 0.646303 1
gene 3 7 7 -0.75467 1 60 -0.75467 1
gene 1 2 7 -0.0884943 0 75 -0.0884943 0
gene 1 3 7 1.09028 0 134 1.09028 1
genomeend 39

/* Organism #40 Fitness: 224.808 Error: 425.192 */
genomestart 40
trait 1 0.1 0 0 0 0 0 0 0 
trait 2 0.2 0 0 0 0 0 0 0 
trait 3 0.3 0 0 0 0 0 0 0 
node 1 1 1 1
node 2 3 1 1
node 3 2 1 1
node 4 2 0 2
node 7 1 0 0
gene 3 1 4 0.0428873 0 1 0.0428873 0
gene 2 2 4 -1.63974 0 2 -1.63974 1
gene 1 3 4 0.283361 0 3 0.283361 1
gene 3 1 7 2.4673 0 18 2.4673 1
gene 3 7 4 1.14096 0 19 1.14096 1
gene 3 7 7 -0.75467 1 60 -0.75467 1
gene 1 2 7 -1.66666 0 75 -1.66666 1
gene 1 3 7 -0.571248 0 134 0 1
genomeend 40

/* Species #3 : (Size 15) (AF 276.555) (Age 7)  */


/* Organism #41 Fitness: 386.659 Error: 263.341 */
genomestart 41
trait 1 0.1 0 0 0 0 0 0 0 
trait 2 0.2 0 0 0 0 0 0 0 
trait 3 0.3 0 0 0 0 0 0 0 
node 1 1 1 1
node 2 1 1 1
node 3 3 1 1
node 4 2 0 2
gene 3 1 4 3.4388 0 1 3.4388 1
gene 3 2 4 -6.2539 0 2 -6.2539 1
gene 2 3 4 0.135958 0 3 0.135958 1
gene 2 4 4 -0.373262 1 30 -0.373262 1
genomeend 41

/* Organism #42 Fitness: 305.953 Error: 344.047 */
genomestart 42
trait 1 0.1 0 0 0 0 0 0 0 
trait 2 0.2 0 0 0 0 0 0 0 
trait 3 0.3 0 0 0 0 0 0 0 
node 1 1 1 1
node 2 1 1 1
node 3 3 1 1
node 4 2 0 2
gene 1 1 4 1.45238 0 1 1.45238 1
gene 3 2 4 -5.96089 0 2 -5.96089 1
gene 2 3 4 1.39572 0 3 1.39572 1
gene 1 4 4 0.426675 1 204 0.426675 1
genomeend 42

/* Organism #43 Fitness: 289.296 Error: 360.704 */
genomestart 43
trait 1 0.1 0 0 0 0 0 0 0 
trait 2 0.2 0 0 0 0 0 0 0 
trait 3 0.3 0 0 0 0 0 0 0 
node 1 1 1 1
node 2 1 1 1
node 3 3 1 1
node 4 2 0 2
gene 1 1 4 1.45238 0 1 1.45238 1
gene 3 2 4 -5.96089 0 2 -5.96089 1
gene 2 3 4 1.39572 0 3 1.39572 1
genomeend 43

/* Organism #44 Fitness: 299.593 Error: 350.407 */
genomestart 44
trait 1 0.1 0 0 0 0 0 0 0 
trait 2 0.2 0 0 0 0 0 0 0 
trait 3 0.3 0 0 0 0 0 0 0 
node 1 1 1 1
node 2 1 1 1
node 3 3 1 1
node 4 2 0 2
gene 3 1 4 3.4388 0 1 3.4388 1
gene 3 2 4 -5.57787 0 2 -5.57787 1
gene 2 3 4 1.71927 0 3 1.71927 1
gene 2 4 4 -0.373262 1 30 -0.373262 1
genomeend 44

/* Organism #45 Fitness: 362.659 Error: 287.341 */
genomestart 45
trait 1 0.1 0 0 0 0 0 0 0 
trait 2 0.2 0 0 0 0 0 0 0 
trait 3 0.3 0 0 0 0 0 0 0 
node 1 1 1 1
node 2 1 1 1
node 3 3 1 1
node 4 2 0 2
gene 1 1 4 2.44559 0 1 2.44559 1
gene 3 2 4 -6.10739 0 2 -6.10739 1
gene 2 3 4 0.765838 0 3 0.765838 1
gene 2 4 4 -0.373262 1 30 -0.373262 1
genomeend 45

/* Organism #46 Fitness: 299.656 Error: 350.344 */
genomestart 46
trait 1 0.1 0 0 0 0 0 0 0 
trait 2 0.231811 0 0.0177651 0 0 0 0.0484216 0 
trait 3 0.3 0 0 0 0 0 0 0 
node 1 1 1 1
node 2 1 1 1
node 3 3 1 1
node 4 2 0 2
gene 3 1 4 2.17064 0 1 2.17064 1
gene 3 2 4 -3.22753 0 2 -3.22753 0
gene 2 3 4 -0.627016 0 3 -0.627016 1
gene 2 4 4 0.287029 1 30 0.287029 1
genomeend 46

/* Organism #47 Fitness: 34.389 Error: 615.611 */
genomestart 47
trait 1 0.1 0 0 0 0 0 0 0 
trait 2 0.2 0 0 0 0 0 0 0 
trait 3 0.3 0 0 0 0 0 0 0 
node 1 1 1 1
node 2 1 1 1
node 3 3 1 1
node 4 2 0 2
gene 3 1 4 3.53799 0 1 3.53799 1
gene 3 2 4 -6.12435 0 2 -6.12435 1
gene 2 3 4 0.594482 0 3 0.594482 1
gene 2 4 4 1.15724 1 30 1.15724 1
genomeend 47

/* Organism #48 Fitness: 220.997 Error: 429.003 */
genomestart 48
trait 1 0.1 0 0 0 0 0 0 0 
trait 2 0.2 0 0 0 0 0 0 0 
trait 3 0.3 0 0 0 0 0 0 0 
node 1 1 1 1
node 2 1 1 1
node 3 3 1 1
node 4 2 0 2
gene 1 1 4 1.64806 0 1 1.64806 1
gene 3 2 4 -5.70014 0 2 -5.70014 1
gene 2 3 4 0.384351 0 3 0.384351 1
genomeend 48

/* Organism #49 Fitness: 329.225 Error: 320.775 */
genomestart 49
trait 1 0.1 0 0 0 0 0 0 0 
trait 2 0.2 0 0.0177651 0 0.0292556 0 0.0264787 0 
trait 3 0.292902 0.0313505 0 0.0603948 0.0140138 0 0 0 
node 1 1 1 1
node 2 1 1 1
node 3 3 1 1
node 4 2 0 2
gene 3 1 4 3.77791 0 1 3.77791 1
gene 2 2 4 -3.50544 0 2 -3.50544 1
gene 2 3 4 -1.81629 0 3 -1.81629 1
gene 2 4 4 0.287029 1 30 0.287029 1
genomeend 49

/* Organism #50 Fitness: 332.706 Error: 317.294 */
genomestart 50
trait 1 0.0875 0 0 0 0 0 0 0.0745736 
trait 2 0.2 0 0.0133239 0 0.080453 0 0.0728165 0 
trait 3 0.294677 0.0235129 0 0.0452961 0.0105104 0 0 0 
node 1 1 1 1
node 2 1 1 1
node 3 3 1 1
node 4 2 0 2
gene 3 1 4 3.71628 0 1 3.71628 1
gene 2 2 4 -3.50544 0 2 -3.50544 1
gene 2 3 4 -1.81629 0 3 -1.81629 1
gene 2 4 4 0.287029 1 30 0.287029 1
genomeend 50

/* Organism #51 Fitness: 91.2116 Error: 558.788 */
genomestart 51
trait 1 0.075 0 0 0 0 0 0 0.149147 
trait 2 0.2 0 0.00888257 0 0.13165 0 0.119154 0 
trait 3 0.296451 0.0156753 0 0.0301974 0.00700691 0 0 0 
node 1 1 1 1
node 2 1 1 1
node 3 3 1 1
node 4 2 0 2
gene 1 1 4 4.13836 0 1 4.13836 1
gene 2 2 4 -3.28337 0 2 -3.28337 1
gene 2 3 4 -0.654891 0 3 -0.654891 1
gene 2 4 4 -0.0651956 1 30 -0.0651956 1
genomeend 51

/* Organism #52 Fitness: 317.889 Error: 332.111 */
genomestart 52
trait 1 0.1 0 0 0 0 0 0 0 
trait 2 0.2 0 0.00888257 0 0.0146278 0 0.0132394 0 
trait 3 0.258951 0.0156753 0 0.0301974 0.00700691 0.0922674 0 0.0842648 
node 1 1 1 1
node 2 1 1 1
node 3 3 1 1
node 4 2 0 2
gene 3 1 4 2.7956 0 1 2.7956 1
gene 2 2 4 -3.50544 0 2 -3.50544 1
gene 2 3 4 -0.211165 0 3 -0.211165 1
gene 2 4 4 0.287029 1 30 0.287029 1
genomeend 52

/* Organism #53 Fitness: 356.201 Error: 293.799 */
genomestart 53
trait 1 0.0875 0 0 0 0 0 0 0.0745736 
trait 2 0.2 0 0.0133239 0 0.080453 0 0.0728165 0 
trait 3 0.294677 0.0235129 0 0.0452961 0.0105104 0 0 0 
node 1 1 1 1
node 2 1 1 1
node 3 3 1 1
node 4 2 0 2
gene 1 1 4 3.65466 0 1 3.65466 1
gene 2 2 4 -3.50544 0 2 -3.50544 1
gene 2 3 4 -1.81629 0 3 -1.81629 1
gene 2 4 4 0.287029 1 30 0.287029 1
genomeend 53

/* Organism #54 Fitness: 344.335 Error: 305.665 */
genomestart 54
trait 1 0.0875 0 0 0 0 0 0 0.0745736 
trait 2 0.2 0 0.0133239 0 0.080453 0 0.0728165 0 
trait 3 0.294677 0.0235129 0 0.0452961 0.0105104 0 0 0 
node 1 1 1 1
node 2 1 1 1
node 3 3 1 1
node 4 2 0 2
gene 3 1 4 3.77791 0 1 3.77791 1
gene 2 2 4 -3.50544 0 2 -3.50544 1
gene 2 3 4 -1.81629 0 3 -1.81629 1
gene 2 4 4 0.287029 1 30 0.287029 1
genomeend 54

/* Organism #55 Fitness: 177.559 Error: 472.441 */
genomestart 55
trait 1 0.1 0 0 0 0 0 0 0 
trait 2 0.2 0 0 0 0 0 0 0 
trait 3 0.3 0 0 0 0 0 0 0 
node 1 1 1 1
node 2 1 1 1
node 3 1 1 1
node 4 1 0 2
gene 2 1 4 0.973532 0 1 0.973532 1
gene 3 2 4 -4.85301 0 2 -4.85301 1
gene 2 3 4 0.016564 0 3 0.016564 1
genomeend 55

/* Species #4 : (Size 23) (AF 221.208) (Age 7)  */


/* Organism #56 Fitness: 27.7723 Error: 622.228 */
genomestart 56
trait 1 0.1 0 0 0 0 0 0 0 
trait 2 0.2 0 0 0 0.0292556 0 0.0264787 0 
trait 3 0.292902 0.0313505 0.0646245 0.0603948 0.0140138 0 0 0 
node 1 1 1 1
node 2 3 1 1
node 3 2 1 1
node 4 2 0 2
gene 3 1 4 1.7788 0 1 1.7788 1
gene 3 2 4 0.0945804 0 2 0.0945804 1
gene 3 3 4 -2.11726 0 3 -2.11726 1
gene 3 4 4 1.51045 1 22 1.51045 1
genomeend 56

/* Organism #57 Fitness: 311.222 Error: 338.778 */
genomestart 57
trait 1 0.1 0 0 0 0 0 0 0 
trait 2 0.2 0 0 0 0.0146278 0 0.0132394 0 
trait 3 0.3 0 0.0646245 0 0 0 0 0 
node 1 1 1 1
node 2 1 1 1
node 3 3 1 1
node 4 2 0 2
gene 1 1 4 1.11131 0 1 1.11131 1
gene 3 2 4 -1.49195 0 2 -1.49195 1
gene 3 3 4 0.4358 0 3 0.4358 1
gene 2 4 4 0.011444 1 35 0.011444 1
genomeend 57

/* Organism #58 Fitness: 278.247 Error: 371.753 */
genomestart 58
trait 1 0.1 0.00135273 0 0 0 0.00116536 0.00256076 0 
trait 2 0.263622 0.0574341 0.0575419 0 0.0438835 0 0.136561 0 
trait 3 0.289353 0.0470258 0 0.0905923 0.0210207 0 0 0 
node 1 1 1 1
node 2 1 1 1
node 3 1 1 1
node 4 1 0 2
gene 3 1 4 1.53486 0 1 1.53486 1
gene 2 2 4 -0.450479 0 2 -0.450479 0
gene 3 3 4 0.246291 0 3 0.246291 1
gene 1 4 4 0.123713 1 35 0.123713 1
genomeend 58

/* Organism #59 Fitness: 179.632 Error: 470.368 */
genomestart 59
trait 1 0.1 0.184625 0 0 0.0624952 0 0 0 
trait 2 0.2 0 0 0 0 0 0 0 
trait 3 0.3 0 0.0646245 0 0 0 0 0 
node 1 2 1 1
node 2 3 1 1
node 3 1 1 1
node 4 1 0 2
node 13 1 0 0
gene 1 1 4 1.54773 0 1 1.54773 1
gene 2 2 4 -0.97061 0 2 -0.97061 1
gene 2 3 4 -0.438053 0 3 -0.438053 0
gene 1 3 13 2.10922 0 117 2.10922 1
gene 1 13 4 -0.920676 0 118 -0.920676 1
genomeend 59

/* Organism #60 Fitness: 351.618 Error: 298.382 */
genomestart 60
trait 1 0.1 0 0 0 0 0 0 0 
trait 2 0.435934 0 0.42854 0 0.0292556 0 0.0264787 0.917546 
trait 3 0.292902 0.0313505 0 0.0603948 0.0140138 0 0 0 
node 1 1 1 1
node 2 1 1 1
node 3 3 1 1
node 4 2 0 2
gene 3 1 4 4.32194 0 1 4.32194 1
gene 2 2 4 0.275617 0 2 0.275617 1
gene 2 3 4 -0.717763 0 3 -0.717763 1
gene 2 4 4 -0.556177 1 30 -0.556177 1
genomeend 60

/* Organism #61 Fitness: 206.075 Error: 443.925 */
genomestart 61
trait 1 0.1 0.0189383 0 0 0 0.016315 0.0358506 0 
trait 2 0.1 0 0 0 0 0 0.4763 0 
trait 3 0.3 0 0 0.0127505 0 0 0.0299985 0 
node 1 2 1 1
node 2 3 1 1
node 3 1 1 1
node 4 1 0 2
gene 3 1 4 2.6213 0 1 2.6213 1
gene 2 2 4 3.27254 0 2 3.27254 1
gene 2 3 4 0.217871 0 3 0.217871 0
genomeend 61

/* Organism #62 Fitness: 335.045 Error: 314.955 */
genomestart 62
trait 1 0.1 0 0 0 0 0 0 0 
trait 2 0.2 0 0 0 0.0877669 0 0.0794362 0 
trait 3 0.285804 0.0627011 0 0.12079 0.0280276 0 0 0 
node 1 1 1 1
node 2 1 1 1
node 3 1 1 1
node 4 1 0 2
gene 1 1 4 3.23496 0 1 3.23496 1
gene 2 2 4 1.12214 0 2 1.12214 1
gene 3 3 4 0.73194 0 3 0.73194 1
gene 1 4 4 0.143645 1 35 0.143645 1
genomeend 62

/* Organism #63 Fitness: 301.716 Error: 348.284 */
genomestart 63
trait 1 0.1 0 0 0 0 0 0 0 
trait 2 0.2 0 0 0 0.0877669 0 0.0794362 0 
trait 3 0.285804 0.0627011 0 0.12079 0.0280276 0 0 0 
node 1 1 1 1
node 2 1 1 1
node 3 1 1 1
node 4 1 0 2
gene 1 1 4 3.23496 0 1 3.23496 1
gene 2 2 4 1.12214 0 2 1.12214 1
gene 3 3 4 0.73194 0 3 0.73194 1
gene 1 4 4 0.143645 1 35 0.143645 1
genomeend 63

/* Organism #64 Fitness: 356.676 Error: 293.324 */
genomestart 64
trait 1 0.1 0 0 0 0 0 0 0 
trait 2 0.2 0 0 0 0.0585113 0 0.0529574 0 
trait 3 0.217902 0.0313505 0 0.0603948 0.0140138 0.184535 0 0.16853 
node 1 1 1 1
node 2 3 1 1
node 3 2 1 1
node 4 2 0 2
gene 3 1 4 3.40418 0 1 3.40418 1
gene 2 2 4 1.12214 0 2 1.12214 1
gene 3 3 4 -0.582696 0 3 -0.582696 1
gene 1 4 4 0.143645 1 35 0.143645 1
genomeend 64

/* Organism #65 Fitness: 316.865 Error: 333.135 */
genomestart 65
trait 1 0.1 0.00135273 0 0 0 0.00116536 0.00256076 0 
trait 2 0.2 0.0574341 0.0575419 0 0.0585113 0 0.0529574 0 
trait 3 0.251853 0.0470258 0 0.0905923 0.0210207 0.0922674 0 0.0842648 
node 1 1 1 1
node 2 2 1 1
node 3 2 1 1
node 4 2 0 2
gene 3 1 4 3.77788 0 1 3.77788 1
gene 1 2 4 0.362957 0 2 0.362957 1
gene 3 3 4 -0.724223 0 3 -0.724223 1
gene 1 4 4 0.322304 1 35 0.322304 1
genomeend 65

/* Organism #66 Fitness: 15.206 Error: 634.794 */
genomestart 66
trait 1 0.1 0 0 0 0 0 0 0 
trait 2 0.2 0 0 0 0.0877669 0 0.0794362 0 
trait 3 0.203707 0.0940516 0 0.181185 0.0420414 0.184535 0 0.16853 
node 1 1 1 1
node 2 3 1 1
node 3 2 1 1
node 4 2 0 2
gene 1 1 4 4.10429 0 1 4.10429 1
gene 2 2 4 0.40861 0 2 0.40861 1
gene 3 3 4 0.083757 0 3 0.083757 1
gene 1 4 4 1.24937 1 35 1.24937 1
genomeend 66

/* Organism #67 Fitness: 306.514 Error: 343.486 */
genomestart 67
trait 1 0.1 0.00135273 0 0 0 0.00116536 0.00256076 0 
trait 2 0.2 0.0574341 0.0575419 0 0.0585113 0 0.0529574 0 
trait 3 0.251853 0.0470258 0 0.0905923 0.0210207 0.0922674 0 0.0842648 
node 1 1 1 1
node 2 3 1 1
node 3 2 1 1
node 4 2 0 2
gene 3 1 4 4.15157 0 1 4.15157 1
gene 1 2 4 -0.396226 0 2 -0.396226 1
gene 3 3 4 -0.865749 0 3 -0.865749 1
gene 1 4 4 0.500962 1 35 0.500962 1
genomeend 67

/* Organism #68 Fitness: 37.8317 Error: 612.168 */
genomestart 68
trait 1 0.1 0 0 0 0 0 0 0 
trait 2 0.2 0 0 0 0.0585113 0 0.0529574 0 
trait 3 0.135804 0.0627011 0 0.12079 0.0280276 0.36907 0 0.337059 
node 1 1 1 1
node 2 3 1 1
node 3 2 1 1
node 4 2 0 2
gene 3 1 4 1.16892 0 1 1.16892 1
gene 2 2 4 0.337071 0 2 0.337071 1
gene 3 3 4 0.337151 0 3 0.337151 1
gene 1 4 4 -1.45962 1 35 -1.45962 1
genomeend 68

/* Organism #69 Fitness: 341.178 Error: 308.822 */
genomestart 69
trait 1 0.1 0 0 0 0 0 0 0 
trait 2 0.2 0 0 0 0.0585113 0 0.0529574 0 
trait 3 0.217902 0.0313505 0 0.0603948 0.0140138 0.184535 0 0.16853 
node 1 1 1 1
node 2 3 1 1
node 3 2 1 1
node 4 2 0 2
gene 3 1 4 3.40418 0 1 3.40418 1
gene 2 2 4 1.12214 0 2 1.12214 1
gene 3 3 4 -0.582696 0 3 -0.582696 1
gene 1 4 4 0.143645 1 35 0.143645 1
genomeend 69

/* Organism #70 Fitness: 340.456 Error: 309.544 */
genomestart 70
trait 1 0.1 0 0 0 0 0 0 0 
trait 2 0.2 0 0 0 0.0585113 0 0.0529574 0 
trait 3 0.217902 0.0313505 0 0.0603948 0.0140138 0.184535 0 0.16853 
node 1 1 1 1
node 2 3 1 1
node 3 2 1 1
node 4 2 0 2
gene 3 1 4 3.40418 0 1 3.40418 1
gene 2 2 4 1.12214 0 2 1.12214 1
gene 3 3 4 -0.582696 0 3 -0.582696 1
gene 1 4 4 0.143645 1 35 0.143645 1
genomeend 70

/* Organism #71 Fitness: 21.0545 Error: 628.946 */
genomestart 71
trait 1 0.1 0.00270546 0 0 0 0.00233072 0.00512151 0 
trait 2 0.2 0.114868 0.115084 0 0.0950808 0 0.0860558 0 
trait 3 0.278707 0.0940516 0 0.181185 0.0420414 0 0 0 
node 1 1 1 1
node 2 3 1 1
node 3 2 1 1
node 4 2 0 2
gene 3 1 4 3.75075 0 1 3.75075 1
gene 2 2 4 -0.710449 0 2 -0.710449 1
gene 3 3 4 0.309912 0 3 0.309912 1
gene 2 4 4 2.13874 1 35 2.13874 1
genomeend 71

/* Organism #72 Fitness: 301.901 Error: 348.099 */
genomestart 72
trait 1 0.1 0 0 0 0 0 0 0 
trait 2 0.2 0 0.0532954 0 0.0877669 0 0.0794362 0 
trait 3 0.278707 0.0940516 0 0.181185 0.0420414 0 0 0 
node 1 1 1 1
node 2 1 1 1
node 3 1 1 1
node 4 1 0 2
gene 1 1 4 6.11074 0 1 6.11074 1
gene 2 2 4 -1.58897 0 2 -1.58897 1
gene 2 3 4 -0.636005 0 3 -0.636005 1
genomeend 72

/* Organism #73 Fitness: 290.913 Error: 359.087 */
genomestart 73
trait 1 0.1 0 0 0 0 0 0 0 
trait 2 0.2 0 0.0532954 0 0.0877669 0 0.0794362 0 
trait 3 0.278707 0.0940516 0 0.181185 0.0420414 0 0 0 
node 1 1 1 1
node 2 1 1 1
node 3 1 1 1
node 4 1 0 2
gene 1 1 4 5.80504 0 1 5.80504 1
gene 2 2 4 -2.17043 0 2 -2.17043 1
gene 2 3 4 -0.5971 0 3 -0.5971 1
genomeend 73

/* Organism #74 Fitness: 30.8799 Error: 619.12 */
genomestart 74
trait 1 0.1 0 0 0 0 0 0 0 
trait 2 0.2 0 0 0 0 0 0 0 
trait 3 0.3 0 0.208944 0 0 0 0 0 
node 1 1 1 1
node 2 1 1 1
node 3 3 1 1
node 4 3 0 2
gene 2 1 4 5.4395 0 1 5.4395 1
gene 2 2 4 -1.08538 0 2 -1.08538 1
gene 3 3 4 -0.666218 0 3 -0.666218 1
gene 3 4 4 1.3125 1 169 1.3125 1
genomeend 74

/* Organism #75 Fitness: 157.91 Error: 492.09 */
genomestart 75
trait 1 0.1 0.0461562 0 0 0.0156238 0 0 0 
trait 2 0.2 0 0 0 0 0.0579943 0 0 
trait 3 0.3 0 0.0183882 0 0 0 0 0.0460407 
node 1 2 1 1
node 2 3 1 1
node 3 1 1 1
node 4 1 0 2
node 6 1 0 0
gene 3 1 4 2.56945 0 1 2.56945 1
gene 2 2 4 -0.645005 0 2 -0.645005 1
gene 3 3 4 -1.39346 0 3 -1.39346 1
gene 3 3 6 1.27841 0 16 1.27841 1
gene 3 6 4 0.851994 0 17 0.851994 1
gene 3 6 6 -1.67417 1 79 -1.67417 1
genomeend 75

/* Organism #76 Fitness: 302.716 Error: 347.284 */
genomestart 76
trait 1 0.1 0 0 0 0 0 0 0 
trait 2 0.2 0 0.0355303 0 0.0585113 0 0.0529574 0 
trait 3 0.285804 0.0627011 0 0.12079 0.0280276 0 0 0 
node 1 2 1 1
node 2 2 1 1
node 3 3 1 1
node 4 1 0 2
gene 3 1 4 2.96587 0 1 2.96587 1
gene 2 2 4 2.54694 0 2 2.54694 1
gene 2 3 4 -0.197737 0 3 -0.197737 1
genomeend 76

/* Organism #77 Fitness: 249.539 Error: 400.461 */
genomestart 77
trait 1 0.1 0 0 0 0 0 0 0 
trait 2 0.2 0 0 0 0 0 0 0 
trait 3 0.3 0 0 0 0 0 0 0 
node 1 1 1 1
node 2 3 1 1
node 3 2 1 1
node 4 2 0 2
node 7 1 0 0
gene 3 1 4 1.93917 0 1 1.93917 1
gene 2 2 4 -0.785425 0 2 -0.785425 1
gene 1 3 4 -0.397919 0 3 -0.397919 1
gene 3 1 7 -1.71169 0 18 -1.71169 1
gene 3 7 4 -1.54931 0 19 -1.54931 1
gene 2 3 7 1.86719 0 47 1.86719 1
gene 2 2 7 -0.109637 0 132 -0.109637 1
genomeend 77

/* Organism #78 Fitness: 26.8069 Error: 623.193 */
genomestart 78
trait 1 1 0 0 0 0.00363425 0.772965 0 0 
trait 2 0.215905 0 0 0 0 0 0.0242108 0 
trait 3 0.3 0 0 0 0 0 0 0 
node 1 1 1 1
node 2 1 1 1
node 3 3 1 1
node 4 3 0 2
gene 2 1 4 2.19754 0 1 2.19754 1
gene 3 2 4 -0.0260915 0 2 -0.0260915 1
gene 3 3 4 -1.79065 0 3 -1.79065 0
gene 2 4 4 -1.13706 1 170 -1.13706 1
genomeend 78

/* Species #5 : (Size 6) (AF 234.149) (Age 7)  */


/* Organism #79 Fitness: 370.29 Error: 279.71 */
genomestart 79
trait 1 0.1 0 0 0 0 0 0 0 
trait 2 0.2 0 0.0177651 0 0.0292556 0 0.0264787 0 
trait 3 0.292902 0.0313505 0 0.0603948 0.0140138 0 0 0 
node 1 1 1 1
node 2 1 1 1
node 3 3 1 1
node 4 2 0 2
node 20 1 0 0
gene 3 1 4 3.77791 0 1 3.77791 1
gene 2 2 4 -3.50544 0 2 -3.50544 0
gene 2 3 4 -1.81629 0 3 -1.81629 1
gene 2 4 4 0.287029 1 30 0.287029 1
gene 2 2 20 1 0 205 0 1
gene 2 20 4 -3.50544 0 206 0 1
genomeend 79

/* Organism #80 Fitness: 19.8848 Error: 630.115 */
genomestart 80
trait 1 0.1 0 0 0 0 0 0 0 
trait 2 0.2 0 0.0177651 0 0.0292556 0 0.0264787 0 
trait 3 0.292902 0.0313505 0 0.0603948 0.0140138 0 0 0 
node 1 1 1 1
node 2 1 1 1
node 3 3 1 1
node 4 2 0 2
gene 3 1 4 2.74036 0 1 2.74036 1
gene 2 2 4 -3.24601 0 2 -3.24601 1
gene 2 3 4 -3.19015 0 3 -3.19015 1
gene 2 4 4 2.01312 1 30 2.01312 1
genomeend 80

/* Organism #81 Fitness: 314.626 Error: 335.374 */
genomestart 81
trait 1 0.1 0 0 0 0.263085 0 0 0 
trait 2 0.2 0 0.0710606 0 0.117023 0 0.105915 0 
trait 3 0.271609 0.125402 0 0.241579 0.0560552 0 0 0 
node 1 1 1 1
node 2 1 1 1
node 3 1 1 1
node 4 1 0 2
gene 1 1 4 6.016 0 1 6.016 1
gene 2 2 4 -2.1421 0 2 -2.1421 1
gene 2 3 4 -0.889218 0 3 -0.889218 1
genomeend 81

/* Organism #82 Fitness: 260.225 Error: 389.775 */
genomestart 82
trait 1 0.1 0 0 0 0.0876949 0 0 0 
trait 2 0.2 0 0.0532954 0 0.0877669 0 0.0794362 0 
trait 3 0.278707 0.0940516 0 0.181185 0.0420414 0 0 0 
node 1 2 1 1
node 2 2 1 1
node 3 3 1 1
node 4 1 0 2
gene 1 1 4 6.24126 0 1 6.24126 1
gene 2 2 4 -1.47407 0 2 -1.47407 1
gene 2 3 4 -2.07103 0 3 -2.07103 1
genomeend 82

/* Organism #83 Fitness: 223.645 Error: 426.355 */
genomestart 83
trait 1 0.1 0 0 0 0.0876949 0 0 0 
trait 2 0.2 0 0.0532954 0 0.0877669 0 0.0794362 0 
trait 3 0.278707 0.0940516 0 0.181185 0.0420414 0 0 0 
node 1 1 1 1
node 2 1 1 1
node 3 1 1 1
node 4 1 0 2
gene 1 1 4 5.69241 0 1 5.69241 1
gene 2 2 4 -2.38341 0 2 -2.38341 1
gene 2 3 4 -0.937205 0 3 -0.937205 1
genomeend 83

/* Organism #84 Fitness: 216.22 Error: 433.78 */
genomestart 84
trait 1 0.1 0 0 0 0.17539 0 0 0 
trait 2 0.2 0 0.062178 0 0.102395 0 0.0926755 0 
trait 3 0.275158 0.109727 0 0.211382 0.0490483 0 0 0 
node 1 1 1 1
node 2 1 1 1
node 3 1 1 1
node 4 1 0 2
gene 1 1 4 5.79075 0 1 5.79075 1
gene 2 2 4 -2.81013 0 2 -2.81013 1
gene 2 3 4 -0.636005 0 3 -0.636005 1
genomeend 84

/* Species #6 : (Size 2) (AF 178.495) (Age 7)  */


/* Organism #85 Fitness: 177.559 Error: 472.441 */
genomestart 85
trait 1 0.1 0 0 0 0 0 0 0 
trait 2 0.2 0 0 0 0 0 0 0 
trait 3 0.3 0 0 0 0 0 0 0 
node 1 1 1 1
node 2 3 1 1
node 3 2 1 1
node 4 2 0 2
node 7 1 0 0
gene 3 1 4 -0.279085 0 1 -0.279085 1
gene 2 2 4 -4.48504 0 2 -4.48504 1
gene 1 3 4 -2.0879 0 3 -2.0879 1
gene 3 1 7 -1.25313 0 18 -1.25313 0
gene 3 7 4 3.35876 0 19 3.35876 1
gene 3 7 7 -0.908849 1 60 -0.908849 1
gene 1 2 7 -0.326584 0 75 -0.326584 1
gene 2 3 7 2.29415 0 104 2.29415 1
genomeend 85

/* Organism #86 Fitness: 179.431 Error: 470.569 */
genomestart 86
trait 1 0.1 0 0 0 0 0 0 0 
trait 2 0.2 0 0 0 0 0 0 0 
trait 3 0.3 0 0 0 0 0 0.00810668 0.0913805 
node 1 1 1 1
node 2 3 1 1
node 3 2 1 1
node 4 1 0 2
node 7 1 0 0
gene 3 1 4 1.58652 0 1 1.58652 0
gene 3 2 4 -0.717889 0 2 -0.717889 1
gene 1 3 4 -1.68859 0 3 -1.68859 1
gene 3 1 7 1.78642 0 18 1.78642 1
gene 3 7 4 -0.419637 0 19 -0.419637 1
gene 1 2 7 1.05118 0 75 1.05118 1
gene 2 3 7 -0.0788405 0 104 -0.0788405 0
genomeend 86

/* Species #7 : (Size 10) (AF 274.123) (Age 7)  */


/* Organism #87 Fitness: 315.917 Error: 334.083 */
genomestart 87
trait 1 0.1 0 0 0 0 0 0 0 
trait 2 0.2 0 0 0 0 0 0 0 
trait 3 0.3 0 0 0 0 0 0 0 
node 1 1 1 1
node 2 1 1 1
node 3 3 1 1
node 4 3 0 2
gene 3 1 4 1.39237 0 1 1.39237 1
gene 2 2 4 3.14392 0 2 3.14392 1
gene 1 3 4 -1.74505 0 3 -1.74505 1
gene 2 4 4 0.0506704 1 30 0.0506704 1
genomeend 87

/* Organism #88 Fitness: 308.28 Error: 341.72 */
genomestart 88
trait 1 0.1 0.00946913 0 0 0 0.00815751 0.0179253 0 
trait 2 0.15 0 0 0 0 0 0.23815 0 
trait 3 0.3 0 0 0.00637525 0 0 0.0149992 0 
node 1 1 1 1
node 2 1 1 1
node 3 3 1 1
node 4 3 0 2
gene 3 1 4 1.02525 0 1 1.02525 1
gene 2 2 4 5.03409 0 2 5.03409 1
gene 2 3 4 -3.15866 0 3 -3.15866 0
genomeend 88

/* Organism #89 Fitness: 241.812 Error: 408.188 */
genomestart 89
trait 1 0.1 0.0378765 0 0 0 0.03263 0.0717012 0 
trait 2 0.2 0 0 0 0 0 0 0 
trait 3 0.3 0 0 0.025501 0 0 0.059997 0 
node 1 2 1 1
node 2 1 1 1
node 3 3 1 1
node 4 3 0 2
gene 2 1 4 2.8019 0 1 2.8019 1
gene 3 2 4 4.1165 0 2 4.1165 1
gene 2 3 4 -3.39273 0 3 -3.39273 1
genomeend 89

/* Organism #90 Fitness: 321.316 Error: 328.684 */
genomestart 90
trait 1 0.1 0.0189383 0 0 0 0.016315 0.0358506 0 
trait 2 0.2 0 0 0 0 0 0 0 
trait 3 0.3 0 0 0.0127505 0 0 0.0299985 0 
node 1 2 1 1
node 2 1 1 1
node 3 3 1 1
node 4 3 0 2
gene 3 1 4 0.681348 0 1 0.681348 1
gene 2 2 4 3.05296 0 2 3.05296 1
gene 1 3 4 -2.96933 0 3 -2.96933 1
gene 2 4 4 0.546162 1 30 0.546162 1
genomeend 90

/* Organism #91 Fitness: 375.721 Error: 274.279 */
genomestart 91
trait 1 0.1 0 0 0 0 0 0 0 
trait 2 0.2 0 0 0 0 0 0 0 
trait 3 0.3 0 0 0 0 0 0 0 
node 1 1 1 1
node 2 1 1 1
node 3 3 1 1
node 4 3 0 2
gene 2 1 4 1.4862 0 1 1.4862 1
gene 2 2 4 5.03409 0 2 5.03409 1
gene 1 3 4 -1.94873 0 3 -1.94873 1
gene 2 4 4 0.0506704 1 30 0.0506704 1
genomeend 91

/* Organism #92 Fitness: 178.495 Error: 471.505 */
genomestart 92
trait 1 0.1 0.0189383 0 0 0 0.016315 0.0358506 0 
trait 2 0.2 0 0 0 0 0 0 0 
trait 3 0.3 0 0.0367764 0.0127505 0 0 0.0299985 0.0920813 
node 1 2 1 1
node 2 2 1 1
node 3 3 1 1
node 4 3 0 2
gene 3 1 4 -0.546619 0 1 -0.546619 1
gene 2 2 4 1.36617 0 2 1.36617 1
gene 2 3 4 -2.00956 0 3 -2.00956 1
genomeend 92

/* Organism #93 Fitness: 313.759 Error: 336.241 */
genomestart 93
trait 1 0.1 0 0 0 0 0 0 0 
trait 2 0.2 0 0 0 0 0 0 0 
trait 3 0.3 0 0 0 0 0 0 0 
node 1 1 1 1
node 2 1 1 1
node 3 3 1 1
node 4 3 0 2
gene 2 1 4 1.366 0 1 1.366 1
gene 2 2 4 4.83474 0 2 4.83474 1
gene 1 3 4 -0.178465 0 3 -0.178465 1
gene 3 4 4 0.165781 1 162 0.165781 1
genomeend 93

/* Organism #94 Fitness: 101.763 Error: 548.237 */
genomestart 94
trait 1 0.1 0 0 0 0 0 0 0 
trait 2 0.2 0 0 0 0 0 0 0 
trait 3 0.3 0 0 0 0 0 0 0 
node 1 1 1 1
node 2 1 1 1
node 3 3 1 1
node 4 3 0 2
gene 2 1 4 3.78019 0 1 3.78019 1
gene 2 2 4 3.91755 0 2 3.91755 1
gene 3 3 4 -0.641413 0 3 -0.641413 1
genomeend 94

/* Organism #95 Fitness: 322.631 Error: 327.369 */
genomestart 95
trait 1 0.1 0 0 0 0 0 0 0 
trait 2 0.2 0 0 0 0 0 0 0 
trait 3 0.3 0 0 0 0 0 0 0 
node 1 1 1 1
node 2 1 1 1
node 3 3 1 1
node 4 3 0 2
gene 2 1 4 1.366 0 1 1.366 1
gene 2 2 4 4.83474 0 2 4.83474 1
gene 1 3 4 -0.178465 0 3 -0.178465 1
gene 3 4 4 0.165781 1 162 0.165781 1
genomeend 95

/* Organism #96 Fitness: 261.54 Error: 388.46 */
genomestart 96
trait 1 0.1 0 0 0 0 0 0 0 
trait 2 0.2 0 0 0 0 0 0 0 
trait 3 0.3 0 0 0 0 0 0 0 
node 1 1 1 1
node 2 1 1 1
node 3 3 1 1
node 4 3 0 2
gene 2 1 4 1.17803 0 1 1.17803 1
gene 2 2 4 4.32718 0 2 4.32718 1
gene 1 3 4 -0.327504 0 3 -0.327504 1
genomeend 96

/* Species #8 : (Size 6) (AF 243.694) (Age 7)  */


/* Organism #97 Fitness: 321.521 Error: 328.479 */
genomestart 97
trait 1 0.1 0 0 0 0 0 0 0 
trait 2 0.2 0 0 0 0 0 0 0 
trait 3 0.3 0 0 0 0 0 0 0 
node 1 1 1 1
node 2 1 1 1
node 3 3 1 1
node 4 3 0 2
gene 2 1 4 3.08056 0 1 3.08056 1
gene 2 2 4 6.0993 0 2 6.0993 1
gene 3 3 4 -2.38054 0 3 -2.38054 1
gene 3 4 4 -0.319295 1 162 -0.319295 1
genomeend 97

/* Organism #98 Fitness: 177.559 Error: 472.441 */
genomestart 98
trait 1 0.1 0 0 0 0 0 0 0.866706 
trait 2 0.2 0 0 0 0 0 0 0 
trait 3 0.3 0 0 0 0 0 0 0 
node 1 1 1 1
node 2 1 1 1
node 3 3 1 1
node 4 3 0 2
gene 2 1 4 0.19195 0 1 0.19195 1
gene 2 2 4 4.83474 0 2 4.83474 1
gene 1 3 4 1.45135 0 3 1.45135 1
gene 3 4 4 -0.703077 1 162 -0.703077 1
genomeend 98

/* Organism #99 Fitness: 256.241 Error: 393.759 */
genomestart 99
trait 1 0.1 0 0 0 0 0 0 0 
trait 2 0.2 0 0 0 0 0 0 0 
trait 3 0.3 0 0 0 0 0 0 0 
node 1 1 1 1
node 2 1 1 1
node 3 3 1 1
node 4 3 0 2
gene 2 1 4 3.08056 0 1 3.08056 1
gene 2 2 4 6.0993 0 2 6.0993 1
gene 3 3 4 -2.38054 0 3 -2.38054 1
gene 3 4 4 -0.319295 1 162 -0.319295 1
genomeend 99

/* Organism #100 Fitness: 203.458 Error: 446.542 */
genomestart 100
trait 1 0.1 0 0 0 0 0 0 0 
trait 2 0.2 0 0 0 0 0 0 0 
trait 3 0.3 0 0 0 0 0 0 0 
node 1 1 1 1
node 2 1 1 1
node 3 3 1 1
node 4 3 0 2
gene 2 1 4 1.92764 0 1 1.92764 1
gene 2 2 4 5.40715 0 2 5.40715 1
gene 1 3 4 1.01444 0 3 1.01444 1
gene 2 4 4 0.907883 1 207 0.907883 1
genomeend 100

/* Organism #101 Fitness: 322.549 Error: 327.451 */
genomestart 101
trait 1 0.1 0 0 0 0 0 0 0 
trait 2 0.2 0 0 0 0 0 0 0 
trait 3 0.3 0 0 0 0 0 0 0 
node 1 1 1 1
node 2 1 1 1
node 3 3 1 1
node 4 3 0 2
gene 2 1 4 1.45061 0 1 1.45061 1
gene 2 2 4 5.65668 0 2 5.65668 1
gene 1 3 4 0.519392 0 3 0.519392 1
genomeend 101

/* Organism #102 Fitness: 180.834 Error: 469.166 */
genomestart 102
trait 1 0.1 0 0 0 0 0 0 0 
trait 2 0.2 0 0 0 0 0 0 0 
trait 3 0.3 0 0 0 0 0 0 0 
node 1 1 1 1
node 2 1 1 1
node 3 3 1 1
node 4 3 0 2
gene 2 1 4 -0.965446 0 1 -0.965446 1
gene 2 2 4 4.13751 0 2 4.13751 1
gene 2 3 4 0.149957 0 3 0.149957 1
gene 2 4 4 -0.306544 1 170 -0.306544 1
genomeend 102

/* Species #9 : (Size 16) (AF 198.532) (Age 7)  */


/* Organism #103 Fitness: 304.171 Error: 345.829 */
genomestart 103
trait 1 0.1 0 0 0 0 0 0 0 
trait 2 0.2 0 0 0 0 0 0 0 
trait 3 0.3 0 0 0.029969 0 0.779071 0 0 
node 1 1 1 1
node 2 3 1 1
node 3 2 1 1
node 4 2 0 2
node 7 1 0 0
gene 3 1 4 -0.770243 0 1 -0.770243 0
gene 3 2 4 -3.2782 0 2 -3.2782 1
gene 1 3 4 -0.343247 0 3 -0.343247 1
gene 3 1 7 0.505328 0 18 0.505328 1
gene 3 7 4 1.92085 0 19 1.92085 1
gene 3 2 7 0.0692744 0 59 0.0692744 1
gene 2 7 7 0.812078 1 94 0.812078 1
gene 2 3 7 0.885786 0 104 0.885786 1
genomeend 103

/* Organism #104 Fitness: 281.196 Error: 368.804 */
genomestart 104
trait 1 0.1 0 0 0 0 0 0 0 
trait 2 0.2 0 0 0 0 0 0 0 
trait 3 0.3 0 0 0.0149845 0 0.389535 0 0 
node 1 1 1 1
node 2 3 1 1
node 3 2 1 1
node 4 2 0 2
node 7 1 0 0
gene 3 1 4 0.348795 0 1 0.348795 1
gene 3 2 4 -1.93823 0 2 -1.93823 0
gene 1 3 4 -1.53114 0 3 -1.53114 1
gene 3 1 7 1.89817 0 18 1.89817 1
gene 3 7 4 0.77222 0 19 0.77222 1
gene 3 2 7 0.34451 0 59 0.34451 1
gene 2 7 7 -0.172104 1 94 -0.172104 1
gene 2 3 7 -0.354651 0 104 -0.354651 1
genomeend 104

/* Organism #105 Fitness: 225.985 Error: 424.015 */
genomestart 105
trait 1 0.1 0 0 0 0 0 0 0 
trait 2 0.2 0 0 0 0 0 0 0 
trait 3 0.3 0 0 0.0149845 0 0.389535 0 0 
node 1 1 1 1
node 2 3 1 1
node 3 2 1 1
node 4 2 0 2
node 7 1 0 0
gene 3 1 4 -1.81545 0 1 -1.81545 0
gene 3 2 4 -3.2782 0 2 -3.2782 0
gene 1 3 4 -0.343247 0 3 -0.343247 1
gene 3 1 7 0.505328 0 18 0.505328 1
gene 3 7 4 1.92085 0 19 1.92085 1
gene 3 2 7 0.0692744 0 59 0.0692744 1
gene 2 7 7 0.812078 1 94 0.812078 1
gene 2 3 7 0.885786 0 104 0.885786 1
genomeend 105

/* Organism #106 Fitness: 319.419 Error: 330.581 */
genomestart 106
trait 1 0.1 0 0 0 0 0 0 0 
trait 2 0.2 0 0 0 0 0 0 0 
trait 3 0.3 0 0 0.0149845 0 0.389535 0 0 
node 1 1 1 1
node 2 3 1 1
node 3 2 1 1
node 4 2 0 2
node 7 1 0 0
gene 3 1 4 -1.29284 0 1 -1.29284 0
gene 3 2 4 -3.62961 0 2 -3.62961 0
gene 1 3 4 -2.33436 0 3 -2.33436 1
gene 3 1 7 0.604213 0 18 0.604213 1
gene 3 7 4 2.3952 0 19 2.3952 1
gene 3 2 7 0.0994165 0 59 0.0994165 1
gene 2 7 7 0.812078 1 94 0.812078 1
gene 2 3 7 0.885786 0 104 0.885786 1
genomeend 106

/* Organism #107 Fitness: 32.919 Error: 617.081 */
genomestart 107
trait 1 0.1 0 0 0 0 0 0 0 
trait 2 0.2 0 0 0 0 0 0 0 
trait 3 0.3 0 0 0.029969 0 0.779071 0 0 
node 1 1 1 1
node 2 3 1 1
node 3 2 1 1
node 4 2 0 2
node 7 1 0 0
gene 3 1 4 0.111083 0 1 0.111083 0
gene 3 2 4 -2.47395 0 2 -2.47395 1
gene 1 3 4 -2.05918 0 3 -2.05918 1
gene 3 1 7 1.27209 0 18 1.27209 1
gene 3 7 4 0.558139 0 19 0.558139 1
gene 3 2 7 1.20261 0 59 1.20261 1
gene 2 7 7 1.45289 1 94 1.45289 1
gene 2 3 7 -0.538852 0 104 -0.538852 1
genomeend 107

/* Organism #108 Fitness: 324.96 Error: 325.04 */
genomestart 108
trait 1 0.1 0 0 0 0 0 0 0 
trait 2 0.2 0 0 0 0 0 0 0 
trait 3 0.3 0 0 0.029969 0 0.779071 0 0 
node 1 1 1 1
node 2 3 1 1
node 3 2 1 1
node 4 2 0 2
node 7 1 0 0
gene 3 1 4 -0.770243 0 1 -0.770243 0
gene 3 2 4 -3.2782 0 2 -3.2782 1
gene 1 3 4 -0.343247 0 3 -0.343247 1
gene 3 1 7 0.505328 0 18 0.505328 1
gene 3 7 4 1.92085 0 19 1.92085 1
gene 3 2 7 0.0692744 0 59 0.0692744 1
gene 2 7 7 0.812078 1 94 0.812078 1
gene 2 3 7 0.885786 0 104 0.885786 1
genomeend 108

/* Organism #109 Fitness: 177.559 Error: 472.441 */
genomestart 109
trait 1 0.1 0 0 0 0 0 0 0 
trait 2 0.2 0 0 0 0 0 0 0 
trait 3 0.3 0 0 0.029969 0 0.779071 0 0 
node 1 1 1 1
node 2 3 1 1
node 3 2 1 1
node 4 2 0 2
node 7 1 0 0
gene 3 1 4 -1.78967 0 1 -1.78967 0
gene 3 2 4 -3.48821 0 2 -3.48821 1
gene 1 3 4 -2.04518 0 3 -2.04518 1
gene 3 1 7 0.134 0 18 0.134 1
gene 3 7 4 2.94792 0 19 2.94792 1
gene 3 2 7 0.746126 0 59 0.746126 1
gene 2 7 7 -0.654394 1 94 -0.654394 1
gene 2 3 7 -0.470647 0 104 -0.470647 1
genomeend 109

/* Organism #110 Fitness: 296.955 Error: 353.045 */
genomestart 110
trait 1 0.1 0 0 0 0 0 0 0 
trait 2 0.2 0 0 0 0 0 0 0 
trait 3 0.3 0 0 0.029969 0 0.779071 0 0 
node 1 1 1 1
node 2 3 1 1
node 3 2 1 1
node 4 2 0 2
node 7 1 0 0
gene 3 1 4 -0.770243 0 1 -0.770243 0
gene 3 2 4 -3.2782 0 2 -3.2782 1
gene 1 3 4 -0.343247 0 3 -0.343247 1
gene 3 1 7 0.505328 0 18 0.505328 1
gene 3 7 4 1.92085 0 19 1.92085 1
gene 3 2 7 0.0692744 0 59 0.0692744 1
gene 2 7 7 0.812078 1 94 0.812078 1
gene 2 3 7 0.885786 0 104 0.885786 1
gene 2 4 4 -0.946514 1 209 -0.946514 1
genomeend 110

/* Organism #111 Fitness: 220.943 Error: 429.057 */
genomestart 111
trait 1 0.1 0 0 0 0 0 0 0 
trait 2 0.2 0 0 0 0 0 0 0 
trait 3 0.3 0 0 0 0 0 0 0 
node 1 1 1 1
node 2 3 1 1
node 3 2 1 1
node 4 2 0 2
node 7 1 0 0
gene 3 1 4 -0.663837 0 1 -0.663837 0
gene 3 2 4 -3.3335 0 2 -3.3335 1
gene 1 3 4 -3.46038 0 3 -3.46038 1
gene 3 1 7 2.84899 0 18 2.84899 1
gene 3 7 4 2.78214 0 19 2.78214 1
gene 3 2 7 2.8366 0 59 2.8366 1
gene 2 7 7 0.675714 1 94 0.675714 1
gene 2 3 7 0.250507 0 104 0.250507 1
genomeend 111

/* Organism #112 Fitness: 227.586 Error: 422.414 */
genomestart 112
trait 1 0.1 0 0 0 0 0 0 0 
trait 2 0.2 0 0 0 0 0 0 0 
trait 3 0.3 0 0 0 0 0 0 0 
node 1 1 1 1
node 2 3 1 1
node 3 2 1 1
node 4 2 0 2
node 7 1 0 0
gene 3 1 4 -1.3091 0 1 -1.3091 0
gene 3 2 4 -4.39318 0 2 -4.39318 1
gene 1 3 4 -4.2479 0 3 -4.2479 1
gene 3 1 7 1.43189 0 18 1.43189 1
gene 3 7 4 3.70193 0 19 3.70193 1
gene 3 2 7 0.579928 0 59 0.579928 1
gene 2 7 7 0.675714 1 94 0.675714 1
gene 2 3 7 -0.86979 0 104 -0.86979 1
genomeend 112

/* Organism #113 Fitness: 2.57332 Error: 647.427 */
genomestart 113
trait 1 0.1 0 0 0 0 0 0 0 
trait 2 0.2 0 0 0 0 0 0 0 
trait 3 0.3 0 0 0 0 0 0 0 
node 1 1 1 1
node 2 3 1 1
node 3 2 1 1
node 4 2 0 2
node 7 1 0 0
gene 3 1 4 -1.18657 0 1 -1.18657 0
gene 3 2 4 -3.11642 0 2 -3.11642 1
gene 1 3 4 1.02784 0 3 1.02784 1
gene 3 1 7 3.57255 0 18 3.57255 1
gene 3 7 4 -0.891758 0 19 -0.891758 1
gene 3 2 7 1.77554 0 59 1.77554 1
gene 2 7 7 -0.271579 1 94 -0.271579 1
gene 2 3 7 -0.92654 0 104 -0.92654 1
genomeend 113

/* Organism #114 Fitness: 172.079 Error: 477.921 */
genomestart 114
trait 1 0.1 0 0 0 0 0 0 0 
trait 2 0.2 0 0 0 0 0 0 0 
trait 3 0.3 0 0 0 0 0 0 0 
node 1 1 1 1
node 2 3 1 1
node 3 2 1 1
node 4 2 0 2
node 7 1 0 0
gene 3 1 4 -1.04097 0 1 -1.04097 0
gene 3 2 4 -3.65726 0 2 -3.65726 1
gene 1 3 4 -3.42824 0 3 -3.42824 1
gene 3 1 7 2.01266 0 18 2.01266 1
gene 3 7 4 2.7066 0 19 2.7066 1
gene 3 2 7 1.70826 0 59 1.70826 1
gene 2 7 7 0.675714 1 94 0.675714 1
gene 2 3 7 0.250507 0 104 0.250507 1
genomeend 114

/* Organism #115 Fitness: 211.659 Error: 438.341 */
genomestart 115
trait 1 0.1 0 0 0 0 0 0 0 
trait 2 0.2 0 0 0 0 0 0 0 
trait 3 0.3 0 0 0 0 0 0 0 
node 1 1 1 1
node 2 3 1 1
node 3 2 1 1
node 4 2 0 2
node 7 1 0 0
gene 3 1 4 1.09801 0 1 1.09801 0
gene 3 2 4 -1.85802 0 2 -1.85802 1
gene 1 3 4 -0.462485 0 3 -0.462485 1
gene 3 1 7 2.6804 0 18 2.6804 1
gene 3 7 4 2.63324 0 19 2.63324 1
gene 3 2 7 1.42382 0 59 1.42382 1
gene 2 7 7 -0.0203946 1 94 -0.0203946 1
gene 2 3 7 -0.439873 0 104 -0.439873 1
genomeend 115

/* Organism #116 Fitness: 180.367 Error: 469.633 */
genomestart 116
trait 1 0.1 0 0 0 0 0 0 0 
trait 2 0.2 0 0 0 0 0 0 0 
trait 3 0.3 0 0 0 0 0 0 0 
node 1 1 1 1
node 2 3 1 1
node 3 2 1 1
node 4 2 0 2
node 7 1 0 0
gene 3 1 4 0.385691 0 1 0.385691 0
gene 3 2 4 -2.26859 0 2 -2.26859 1
gene 1 3 4 -0.905086 0 3 -0.905086 1
gene 3 1 7 2.38179 0 18 2.38179 1
gene 3 7 4 1.39582 0 19 1.39582 0
gene 3 2 7 1.99057 0 59 1.99057 1
gene 2 7 7 0.471395 1 94 0.471395 1
gene 2 3 7 -1.06523 0 104 -1.06523 1
gene 3 4 4 -0.202488 1 228 -0.202488 1
genomeend 116

/* Organism #117 Fitness: 178.729 Error: 471.271 */
genomestart 117
trait 1 0.1 0 0 0 0 0 0 0 
trait 2 0.2 0 0 0 0 0 0 0 
trait 3 0.3 0 0 0 0 0 0 0 
node 1 1 1 1
node 2 3 1 1
node 3 2 1 1
node 4 2 0 2
node 7 1 0 0
gene 3 1 4 0.385691 0 1 0.385691 0
gene 3 2 4 -1.62883 0 2 -1.62883 1
gene 1 3 4 -0.462485 0 3 -0.462485 1
gene 3 1 7 2.38179 0 18 2.38179 1
gene 3 7 4 2.45325 0 19 2.45325 0
gene 3 2 7 1.99057 0 59 1.99057 1
gene 2 7 7 0.471395 1 94 0.471395 1
gene 2 3 7 -0.439873 0 104 -0.439873 1
genomeend 117

/* Organism #118 Fitness: 19.4169 Error: 630.583 */
genomestart 118
trait 1 0.1 0 0 0 0 0 0 0 
trait 2 0.2 0 0 0 0 0 0 0 
trait 3 0.3 0 0 0 0 0 0 0 
node 1 1 1 1
node 2 3 1 1
node 3 2 1 1
node 4 2 0 2
node 7 1 0 0
gene 3 1 4 -2.10584 0 1 -2.10584 0
gene 3 2 4 -3.47989 0 2 -3.47989 1
gene 1 3 4 -1.80208 0 3 -1.80208 1
gene 3 1 7 2.36154 0 18 2.36154 1
gene 3 7 4 2.09783 0 19 2.09783 1
gene 3 2 7 1.14693 0 59 1.14693 1
gene 2 7 7 -1.59488 1 94 -1.59488 1
gene 2 3 7 1.6602 0 104 1.6602 1
genomeend 118

/* Species #10 : (Size 4) (AF 204.803) (Age 7)  */


/* Organism #119 Fitness: 295.192 Error: 354.808 */
genomestart 119
trait 1 0.1 0 0 0 0 0 0 0 
trait 2 0.2 0 0.0355303 0 0 0.238693 0 0.656591 
trait 3 0.3 0 0 0 0 0 0 0 
node 1 2 1 1
node 2 2 1 1
node 3 3 1 1
node 4 1 0 2
node 7 1 0 0
gene 1 1 4 2.38587 0 1 2.38587 0
gene 3 2 4 -3.11755 0 2 -3.11755 1
gene 1 3 4 -1.3423 0 3 -1.3423 1
gene 3 1 7 1.30875 0 18 1.30875 1
gene 3 7 4 5.6965 0 19 5.6965 1
gene 1 3 7 0.677947 0 70 0.677947 1
gene 3 4 4 0.00318034 1 141 0.00318034 1
genomeend 119

/* Organism #120 Fitness: 166.463 Error: 483.537 */
genomestart 120
trait 1 0.1 0 0 0 0 0 0 0 
trait 2 0.2 0 0.0355303 0 0 0 0 0 
trait 3 0.3 0 0 0 0 0 0 0 
node 1 2 1 1
node 2 2 1 1
node 3 3 1 1
node 4 1 0 2
node 7 1 0 0
gene 1 1 4 1.93596 0 1 1.93596 0
gene 3 2 4 -1.60553 0 2 -1.60553 1
gene 1 3 4 0.294339 0 3 0.294339 1
gene 3 1 7 1.00524 0 18 1.00524 1
gene 3 7 4 4.83058 0 19 4.83058 1
gene 1 3 7 -0.178495 0 70 -0.178495 1
gene 3 4 4 0.0478928 1 141 0.0478928 1
gene 3 7 7 0.82121 1 210 0.82121 1
genomeend 120

/* Organism #121 Fitness: 329.288 Error: 320.712 */
genomestart 121
trait 1 0.1 0 0 0 0 0 0 0 
trait 2 0.2 0 0.0355303 0 0 0 0 0 
trait 3 0.3 0 0 0 0 0 0 0 
node 1 2 1 1
node 2 2 1 1
node 3 3 1 1
node 4 1 0 2
node 7 1 0 0
gene 1 1 4 1.93596 0 1 1.93596 1
gene 3 2 4 -1.60553 0 2 -1.60553 1
gene 1 3 4 0.294339 0 3 0.294339 1
gene 3 1 7 1.00524 0 18 1.00524 1
gene 3 7 4 4.83058 0 19 4.83058 1
gene 1 3 7 -0.178495 0 70 -0.178495 1
gene 3 4 4 0.0478928 1 141 0.0478928 1
gene 3 2 7 -0.0834363 0 211 -0.0834363 1
genomeend 121

/* Organism #122 Fitness: 28.2699 Error: 621.73 */
genomestart 122
trait 1 0.1 0 0 0 0 0 0 0 
trait 2 0.2 0 0.0355303 0 0 0 0 0 
trait 3 0.3 0 0 0 0 0 0 0 
node 1 2 1 1
node 2 2 1 1
node 3 3 1 1
node 4 1 0 2
node 7 1 0 0
gene 1 1 4 1.93596 0 1 1.93596 0
gene 3 2 4 -0.695697 0 2 -0.695697 1
gene 1 3 4 -1.35643 0 3 -1.35643 1
gene 3 1 7 2.61128 0 18 2.61128 1
gene 3 7 4 4.1777 0 19 4.1777 1
gene 1 3 7 1.54646 0 70 1.54646 1
gene 3 4 4 1.4481 1 141 1.4481 1
genomeend 122

/* Species #11 : (Size 11) (AF 244.247) (Age 7)  */


/* Organism #123 Fitness: 296.128 Error: 353.872 */
genomestart 123
trait 1 0.1 0 0 0 0 0 0 0 
trait 2 0.2 0 0 0 0 0 0 0 
trait 3 0.3 0 0 0 0 0 0 0 
node 1 1 1 1
node 2 1 1 1
node 3 3 1 1
node 4 2 0 2
gene 1 1 4 1.45238 0 1 1.45238 1
gene 3 2 4 -5.76938 0 2 -5.76938 1
gene 2 3 4 1.55749 0 3 1.55749 1
gene 1 4 4 0.345805 1 148 0.345805 1
genomeend 123

/* Organism #124 Fitness: 24.5635 Error: 625.436 */
genomestart 124
trait 1 0.1 0 0 0 0 0 0 0 
trait 2 0.22273 0 0 0 0.208776 0 0 0 
trait 3 0.3 0 0.0969367 0 0 0 0 0 
node 1 1 1 1
node 2 2 1 1
node 3 3 1 1
node 4 2 0 2
gene 1 1 4 2.34305 0 1 2.34305 1
gene 3 2 4 -2.54541 0 2 -2.54541 1
gene 1 3 4 1.78547 0 3 1.78547 1
gene 2 4 4 -1.09626 1 152 -1.09626 1
genomeend 124

/* Organism #125 Fitness: 283.366 Error: 366.634 */
genomestart 125
trait 1 0.1 0 0 0 0 0 0 0 
trait 2 0.2 0 0 0 0 0 0 0 
trait 3 0.3 0 0 0 0 0 0 0 
node 1 1 1 1
node 2 1 1 1
node 3 1 1 1
node 4 1 0 2
gene 1 1 4 1.91647 0 1 1.91647 1
gene 3 2 4 -4.85301 0 2 -4.85301 1
gene 2 3 4 3.7095 0 3 3.7095 1
genomeend 125

/* Organism #126 Fitness: 291.582 Error: 358.418 */
genomestart 126
trait 1 0.1 0 0 0 0 0 0 0 
trait 2 0.2 0 0 0 0 0 0 0 
trait 3 0.3 0 0 0 0 0 0 0 
node 1 1 1 1
node 2 1 1 1
node 3 1 1 1
node 4 1 0 2
gene 3 1 4 1.43624 0 1 1.43624 1
gene 3 2 4 -4.66063 0 2 -4.66063 1
gene 2 3 4 3.95301 0 3 3.95301 1
genomeend 126

/* Organism #127 Fitness: 294.937 Error: 355.063 */
genomestart 127
trait 1 0.1 0 0 0 0 0 0 0 
trait 2 0.2 0 0 0 0 0 0 0 
trait 3 0.3 0 0 0 0 0 0 0 
node 1 1 1 1
node 2 1 1 1
node 3 3 1 1
node 4 2 0 2
gene 3 1 4 2.32739 0 1 2.32739 1
gene 3 2 4 -4.52814 0 2 -4.52814 1
gene 2 3 4 4.19274 0 3 4.19274 1
gene 3 4 4 -0.496196 1 213 -0.496196 1
genomeend 127

/* Organism #128 Fitness: 206.248 Error: 443.752 */
genomestart 128
trait 1 0.1 0 0 0 0 0 0 0 
trait 2 0.2 0 0 0 0 0 0 0 
trait 3 0.3 0 0 0 0 0 0 0 
node 1 1 1 1
node 2 1 1 1
node 3 1 1 1
node 4 1 0 2
gene 1 1 4 2.12193 0 1 2.12193 1
gene 3 2 4 -3.53225 0 2 -3.53225 1
gene 2 3 4 5.42128 0 3 5.42128 1
genomeend 128

/* Organism #129 Fitness: 252.961 Error: 397.039 */
genomestart 129
trait 1 0.1 0 0 0 0 0 0 0 
trait 2 0.2 0 0 0 0 0 0 0 
trait 3 0.3 0 0 0 0 0 0 0 
node 1 1 1 1
node 2 1 1 1
node 3 3 1 1
node 4 2 0 2
gene 3 1 4 2.56707 0 1 2.56707 1
gene 3 2 4 -5.14876 0 2 -5.14876 1
gene 2 3 4 3.77455 0 3 3.77455 1
genomeend 129

/* Organism #130 Fitness: 307.531 Error: 342.469 */
genomestart 130
trait 1 0.1 0 0 0 0 0 0 0 
trait 2 0.2 0 0 0 0 0 0 0 
trait 3 0.3 0 0 0 0 0 0 0 
node 1 2 1 1
node 2 2 1 1
node 3 3 1 1
node 4 3 0 2
node 5 1 0 0
gene 1 1 4 1.21851 0 1 1.21851 1
gene 1 2 4 -3.41264 0 2 -3.41264 1
gene 3 3 4 4.13851 0 3 4.13851 1
gene 2 2 5 1.38999 0 6 1.38999 1
gene 2 5 4 0.134551 0 7 0.134551 1
gene 1 3 5 -0.728453 0 146 -0.728453 1
genomeend 130

/* Organism #131 Fitness: 244.92 Error: 405.08 */
genomestart 131
trait 1 0.1 0 0 0 0 0 0 0 
trait 2 0.2 0 0 0 0 0 0 0 
trait 3 0.3 0 0 0 0 0 0 0 
node 1 2 1 1
node 2 2 1 1
node 3 3 1 1
node 4 3 0 2
node 5 1 0 0
gene 1 1 4 1.63513 0 1 1.63513 1
gene 1 2 4 -5.17241 0 2 -5.17241 1
gene 3 3 4 5.88209 0 3 5.88209 1
gene 2 2 5 2.4068 0 6 2.4068 1
gene 2 5 4 -1.1598 0 7 -1.1598 1
gene 1 3 5 -0.693592 0 146 -0.693592 1
genomeend 131

/* Organism #132 Fitness: 180.601 Error: 469.399 */
genomestart 132
trait 1 0.1 0 0 0 0 0 0 0 
trait 2 0.2 0 0 0 0 0 0 0 
trait 3 0.3 0 0 0 0 0 0 0 
node 1 2 1 1
node 2 2 1 1
node 3 3 1 1
node 4 3 0 2
node 5 1 0 0
gene 1 1 4 0.077497 0 1 0.077497 1
gene 1 2 4 -4.77945 0 2 -4.77945 1
gene 3 3 4 3.0212 0 3 3.0212 1
gene 2 2 5 0.0649995 0 6 0.0649995 1
gene 2 5 4 1.32623 0 7 1.32623 1
gene 1 3 5 -0.106422 0 146 -0.106422 1
genomeend 132

/* Organism #133 Fitness: 303.881 Error: 346.119 */
genomestart 133
trait 1 0.1 0 0 0 0 0 0 0 
trait 2 0.2 0 0 0 0 0 0 0 
trait 3 0.3 0 0 0 0 0 0 0 
node 1 2 1 1
node 2 2 1 1
node 3 3 1 1
node 4 3 0 2
node 5 1 0 0
gene 1 1 4 1.93603 0 1 1.93603 1
gene 1 2 4 -2.71227 0 2 -2.71227 1
gene 3 3 4 4.17973 0 3 4.17973 1
gene 2 2 5 3.02219 0 6 3.02219 1
gene 2 5 4 1.12612 0 7 1.12612 1
gene 1 3 5 -1.34046 0 146 -1.34046 1
genomeend 133

/* Species #12 : (Size 3) (AF 103.636) (Age 7)  */


/* Organism #134 Fitness: 2.57332 Error: 647.427 */
genomestart 134
trait 1 0.1 0 0 0 0 0 0 0 
trait 2 0.2 0 0 0 0 0 0 0 
trait 3 0.3 0 0 0 0 0 0 0 
node 1 1 1 1
node 2 3 1 1
node 3 2 1 1
node 4 2 0 2
node 7 1 0 0
gene 3 1 4 -1.38127 0 1 -1.38127 0
gene 3 2 4 0.4126 0 2 0.4126 1
gene 1 3 4 -2.37269 0 3 -2.37269 1
gene 3 1 7 -1.42588 0 18 -1.42588 1
gene 3 7 4 2.96001 0 19 2.96001 1
gene 3 2 7 -1.29616 0 59 -1.29616 1
gene 2 4 4 1.67327 1 113 1.67327 1
gene 1 3 7 -0.571248 0 134 0 1
genomeend 134

/* Organism #135 Fitness: 2.80726 Error: 647.193 */
genomestart 135
trait 1 0.1 0 0 0 0 0 0 0 
trait 2 0.2 0 0 0 0 0 0 0 
trait 3 0.3 0 0 0 0 0 0 0 
node 1 1 1 1
node 2 3 1 1
node 3 2 1 1
node 4 2 0 2
node 7 1 0 0
gene 3 1 4 0.0628981 0 1 0.0628981 0
gene 3 2 4 0.4126 0 2 0.4126 1
gene 1 3 4 -2.92224 0 3 -2.92224 1
gene 3 1 7 -0.236612 0 18 -0.236612 1
gene 3 7 4 1.78188 0 19 1.78188 1
gene 3 2 7 -1.29616 0 59 -1.29616 1
gene 2 4 4 1.67327 1 113 1.67327 1
gene 1 3 7 -0.571248 0 134 0 1
genomeend 135

/* Organism #136 Fitness: 305.527 Error: 344.473 */
genomestart 136
trait 1 0.0883696 0 0.0389145 0.368137 0 0 0.275399 0 
trait 2 0.2 0 0 0 0 0 0 0 
trait 3 0.3 0 0 0 0 0 0 0 
node 1 1 1 1
node 2 3 1 1
node 3 2 1 1
node 4 2 0 2
node 7 1 0 0
gene 3 1 4 -1.05423 0 1 -1.05423 0
gene 3 2 4 -0.00583646 0 2 -0.00583646 1
gene 1 3 4 -4.11967 0 3 -4.11967 1
gene 3 1 7 0.703098 0 18 0.703098 1
gene 3 7 4 2.86955 0 19 2.86955 1
gene 3 2 7 -2.04517 0 59 -2.04517 1
gene 1 4 4 0.665466 1 182 0.665466 1
genomeend 136

/* Species #13 : (Size 16) (AF 223.537) (Age 7)  */


/* Organism #137 Fitness: 25.9305 Error: 624.069 */
genomestart 137
trait 1 0.1 0 0 0 0 0 0 0 
trait 2 0.2 0 0.213182 0 0.022856 0 0.0206865 0 
trait 3 0.296451 0.0156753 0 0.0301974 0.00700691 0 0 0 
node 1 1 1 1
node 2 1 1 1
node 3 1 1 1
node 4 2 0 2
gene 3 1 4 3.35252 0 1 3.35252 1
gene 3 2 4 1.60484 0 2 1.60484 1
gene 1 3 4 3.33326 0 3 3.33326 1
gene 1 4 4 2.01836 1 35 2.01836 1
genomeend 137

/* Organism #138 Fitness: 31.5084 Error: 618.492 */
genomestart 138
trait 1 0.1 0 0 0 0 0 0 0 
trait 2 0.2 0 0.213182 0 0 0 0 0 
trait 3 0.3 0 0.0646245 0 0 0 0 0 
node 1 1 1 1
node 2 1 1 1
node 3 1 1 1
node 4 2 0 2
gene 3 1 4 3.11258 0 1 3.11258 1
gene 3 2 4 0.751894 0 2 0.751894 1
gene 1 3 4 2.86227 0 3 2.86227 1
gene 1 4 4 1.79876 1 97 1.79876 1
genomeend 138

/* Organism #139 Fitness: 315.152 Error: 334.848 */
genomestart 139
trait 1 0.1 0 0 0 0 0 0 0 
trait 2 0.2 0 0.426363 0 0 0 0 0 
trait 3 0.3 0 0 0 0 0 0 0 
node 1 1 1 1
node 2 1 1 1
node 3 1 1 1
node 4 2 0 2
gene 3 1 4 2.76252 0 1 2.76252 1
gene 3 2 4 1.24464 0 2 1.24464 1
gene 1 3 4 3.3098 0 3 3.3098 1
gene 1 4 4 0.104462 1 97 0.104462 1
genomeend 139

/* Organism #140 Fitness: 317.175 Error: 332.825 */
genomestart 140
trait 1 0.1 0.00135273 0 0 0 0.00116536 0.00256076 0 
trait 2 0.2 0.0574341 0.0575419 0 0.0585113 0 0.0529574 0 
trait 3 0.210804 0.0627011 0 0.12079 0.0280276 0.184535 0 0.16853 
node 1 1 1 1
node 2 3 1 1
node 3 2 1 1
node 4 2 0 2
gene 3 1 4 4.99715 0 1 4.99715 1
gene 1 2 4 0.982268 0 2 0.982268 1
gene 3 3 4 0.14001 0 3 0.14001 1
gene 1 4 4 0.134432 1 35 0.134432 1
genomeend 140

/* Organism #141 Fitness: 341.655 Error: 308.345 */
genomestart 141
trait 1 0.1 0.00135273 0 0 0 0.00116536 0.00256076 0 
trait 2 0.2 0.0574341 0.0575419 0 0.0585113 0 0.0529574 0 
trait 3 0.210804 0.0627011 0 0.12079 0.0280276 0.184535 0 0.16853 
node 1 1 1 1
node 2 3 1 1
node 3 2 1 1
node 4 2 0 2
node 21 1 0 0
gene 3 1 4 4.15157 0 1 4.15157 1
gene 2 2 4 0.390419 0 2 0.390419 1
gene 3 3 4 -0.582696 0 3 -0.582696 1
gene 1 4 4 0.500962 1 35 0.500962 0
gene 1 4 21 1 1 214 0 1
gene 1 21 4 0.500962 0 215 0 1
genomeend 141

/* Organism #142 Fitness: 18.2472 Error: 631.753 */
genomestart 142
trait 1 0.1 0 0 0 0 0 0 0 
trait 2 0.2 0 0 0 0.0585113 0 0.0529574 0 
trait 3 0.176853 0.0470258 0 0.0905923 0.0210207 0.276802 0 0.252794 
node 1 1 1 1
node 2 3 1 1
node 3 2 1 1
node 4 2 0 2
gene 3 1 4 3.76433 0 1 3.76433 1
gene 2 2 4 1.25514 0 2 1.25514 1
gene 3 3 4 0.469741 0 3 0.469741 1
gene 1 4 4 1.21033 1 35 1.21033 1
genomeend 142

/* Organism #143 Fitness: 354.773 Error: 295.227 */
genomestart 143
trait 1 0.1 0.638092 0 0 0 0.32606 0.44967 0 
trait 2 0.2 0.114868 0.115084 0 0.117023 0 0.105915 0 
trait 3 0.271609 0.125402 0 0.241579 0.0560552 0 0 0 
node 1 1 1 1
node 2 1 1 1
node 3 1 1 1
node 4 1 0 2
gene 3 1 4 4.7612 0 1 4.7612 1
gene 1 2 4 1.79716 0 2 1.79716 1
gene 3 3 4 -0.336665 0 3 -0.336665 1
gene 1 4 4 -0.358386 1 35 -0.358386 1
genomeend 143

/* Organism #144 Fitness: 311.54 Error: 338.46 */
genomestart 144
trait 1 0.1 0.00270546 0 0 0 0.00233072 0.00512151 0 
trait 2 0.2 0.114868 0.115084 0 0.0950808 0 0.0860558 0 
trait 3 0.278707 0.0940516 0 0.181185 0.0420414 0 0 0 
node 1 1 1 1
node 2 3 1 1
node 3 2 1 1
node 4 2 0 2
gene 3 1 4 4.7612 0 1 4.7612 1
gene 2 2 4 0.496705 0 2 0.496705 1
gene 3 3 4 0.27689 0 3 0.27689 1
gene 2 4 4 0.428531 1 35 0.428531 1
genomeend 144

/* Organism #145 Fitness: 330.377 Error: 319.623 */
genomestart 145
trait 1 0.1 0.00270546 0 0 0 0.00233072 0.00512151 0 
trait 2 0.2 0.114868 0.115084 0 0.0950808 0 0.0860558 0 
trait 3 0.278707 0.0940516 0 0.091013 0.0610064 0 0 0 
node 1 1 1 1
node 2 1 1 1
node 3 1 1 1
node 4 1 0 2
gene 3 1 4 5.31151 0 1 5.31151 1
gene 2 2 4 1.3022 0 2 1.3022 1
gene 3 3 4 0.780303 0 3 0.780303 1
gene 2 4 4 0.0579603 1 35 0.0579603 1
genomeend 145

/* Organism #146 Fitness: 346.297 Error: 303.703 */
genomestart 146
trait 1 0.1 0.319046 0 0 0 0.16303 0.224835 0 
trait 2 0.2 0.0574341 0.0575419 0 0.0950808 0 0.0860558 0 
trait 3 0.278707 0.0940516 0 0.181185 0.0420414 0 0 0 
node 1 1 1 1
node 2 3 1 1
node 3 2 1 1
node 4 2 0 2
gene 3 1 4 4.7612 0 1 4.7612 1
gene 2 2 4 0.496705 0 2 0.496705 1
gene 3 3 4 0.27689 0 3 0.27689 1
gene 1 4 4 -0.358386 1 35 -0.358386 1
genomeend 146

/* Organism #147 Fitness: 304.111 Error: 345.889 */
genomestart 147
trait 1 0.1 0.00270546 0 0 0 0.00233072 0.00512151 0 
trait 2 0.2 0.114868 0.115084 0 0.0950808 0 0.0860558 0 
trait 3 0.278707 0.0940516 0 0.091013 0.0610064 0 0 0 
node 1 1 1 1
node 2 1 1 1
node 3 1 1 1
node 4 1 0 2
gene 3 1 4 4.7612 0 1 4.7612 1
gene 2 2 4 2.10769 0 2 2.10769 1
gene 3 3 4 0.27689 0 3 0.27689 1
gene 2 4 4 0.428531 1 35 0.428531 1
genomeend 147

/* Organism #148 Fitness: 21.7563 Error: 628.244 */
genomestart 148
trait 1 0.1 0.00135273 0 0 0 0.00116536 0.00256076 0 
trait 2 0.2 0.0574341 0.0575419 0 0.08411 0 0.0761263 0 
trait 3 0.282255 0.0783763 0 0.0608156 0.0539995 0 0 0 
node 1 1 1 1
node 2 3 1 1
node 3 2 1 1
node 4 2 0 2
gene 3 1 4 4.46919 0 1 4.46919 1
gene 2 2 4 1.43505 0 2 1.43505 1
gene 3 3 4 -0.0492933 0 3 -0.0492933 1
gene 2 4 4 1.8336 1 35 1.8336 1
genomeend 148

/* Organism #149 Fitness: 21.5223 Error: 628.478 */
genomestart 149
trait 1 0.1 0.638092 0 0 0 0.32606 0.44967 0 
trait 2 0.2 0.114868 0.115084 0 0.117023 0 0.105915 0 
trait 3 0.271609 0.125402 0 0.241579 0.0560552 0 0 0 
node 1 1 1 1
node 2 1 1 1
node 3 1 1 1
node 4 1 0 2
gene 3 1 4 5.56338 0 1 5.56338 1
gene 1 2 4 3.15154 0 2 3.15154 1
gene 3 3 4 -0.336665 0 3 -0.336665 1
gene 1 4 4 -1.87646 1 35 -1.87646 1
genomeend 149

/* Organism #150 Fitness: 266.411 Error: 383.589 */
genomestart 150
trait 1 0.1 0 0 0 0 0 0 0 
trait 2 0.2 0 0 0 0 0 0 0 
trait 3 0.3 0 0.129249 0 0 0 0 0 
node 1 1 1 1
node 2 1 1 1
node 3 3 1 1
node 4 2 0 2
node 13 1 0 0
gene 1 1 4 3.11946 0 1 3.11946 1
gene 3 2 4 1.43217 0 2 1.43217 1
gene 1 3 4 -0.256998 0 3 -0.256998 1
gene 1 3 13 1.41201 0 117 1.41201 1
gene 1 13 4 2.89121 0 118 2.89121 1
genomeend 150

/* Organism #151 Fitness: 338.541 Error: 311.459 */
genomestart 151
trait 1 0.1 0 0 0 0 0 0 0 
trait 2 0.2 0 0 0 0 0 0 0 
trait 3 0.3 0 0 0 0 0 0 0 
node 1 1 1 1
node 2 1 1 1
node 3 3 1 1
node 4 3 0 2
gene 2 1 4 4.16137 0 1 4.16137 1
gene 2 2 4 2.60262 0 2 2.60262 1
gene 2 3 4 1.43152 0 3 1.43152 1
gene 3 4 4 -0.585869 1 168 -0.585869 1
genomeend 151

/* Organism #152 Fitness: 231.597 Error: 418.403 */
genomestart 152
trait 1 0.1 0 0 0 0 0 0 0 
trait 2 0.2 0 0 0 0 0 0 0 
trait 3 0.3 0 0.0735528 0 0 0 0 0.184163 
node 1 2 1 1
node 2 3 1 1
node 3 2 1 1
node 4 1 0 2
node 6 1 0 0
gene 3 1 4 2.85495 0 1 2.85495 1
gene 2 2 4 1.36617 0 2 1.36617 1
gene 3 3 4 0.652808 0 3 0.652808 1
gene 3 3 6 -1.3791 0 16 -1.3791 1
gene 3 6 4 0.503852 0 17 0.503852 1
gene 3 6 6 -0.254034 1 79 -0.254034 1
genomeend 152

/* Species #14 : (Size 2) (AF 238.914) (Age 6)  */


/* Organism #153 Fitness: 229.124 Error: 420.876 */
genomestart 153
trait 1 0.1 0 0 0 0 0 0 0 
trait 2 0.2 0 0 0 0.0877669 0 0.0794362 0 
trait 3 0.278707 0.0940516 0 0.181185 0.0420414 0 0 0 
node 1 2 1 1
node 2 2 1 1
node 3 3 1 1
node 4 1 0 2
node 7 2 0 0
gene 3 1 4 2.99162 0 1 2.99162 1
gene 2 2 4 1.34686 0 2 1.34686 1
gene 1 3 4 -0.577917 0 3 -0.577917 1
gene 3 1 7 -0.333526 0 18 -0.333526 1
gene 3 7 4 3.33613 0 19 3.33613 1
gene 3 7 7 -0.851638 1 102 -0.851638 1
gene 1 3 7 -1.7022 0 134 -1.7022 1
genomeend 153

/* Organism #154 Fitness: 248.705 Error: 401.295 */
genomestart 154
trait 1 0.1 0 0 0 0.0876949 0 0 0 
trait 2 0.2 0 0.062178 0 0.102395 0 0.0926755 0 
trait 3 0.275158 0.109727 0 0.211382 0.0490483 0 0 0 
node 1 1 1 1
node 2 1 1 1
node 3 1 1 1
node 4 1 0 2
gene 1 1 4 5.94541 0 1 5.94541 1
gene 2 2 4 1.32692 0 2 1.32692 1
gene 2 3 4 -2.37511 0 3 -2.37511 1
genomeend 154

/* Species #15 : (Size 11) (AF 161.481) (Age 6)  */


/* Organism #155 Fitness: 172.413 Error: 477.587 */
genomestart 155
trait 1 0.1 0 0 0 0 0 0 0 
trait 2 0.2 0 0 0 0 0 0 0 
trait 3 0.3 0 0 0 0.40977 0 0 0 
node 1 1 1 1
node 2 1 1 1
node 3 2 1 1
node 4 2 0 2
gene 3 1 4 -1.61784 0 1 -1.61784 0
gene 3 2 4 0.436166 0 2 0.436166 1
gene 3 3 4 0.367832 0 3 0.367832 0
gene 3 4 4 1.15904 1 36 1.15904 1
genomeend 155

/* Organism #156 Fitness: 175.22 Error: 474.78 */
genomestart 156
trait 1 0.1 0 0 0 0 0 0 0 
trait 2 0.2 0 0 0 0 0 0 0 
trait 3 0.3 0 0 0 0.40977 0 0 0 
node 1 1 1 1
node 2 1 1 1
node 3 2 1 1
node 4 2 0 2
gene 3 1 4 -0.72221 0 1 -0.72221 0
gene 3 2 4 -0.599195 0 2 -0.599195 1
gene 3 3 4 0.441742 0 3 0.441742 0
gene 3 4 4 -0.0239308 1 36 -0.0239308 1
genomeend 156

/* Organism #157 Fitness: 179.431 Error: 470.569 */
genomestart 157
trait 1 0.1 0 0 0 0 0 0 0 
trait 2 0.2 0 0 0 0 0 0 0 
trait 3 0.3 0 0 0 0.40977 0 0 0 
node 1 1 1 1
node 2 3 1 1
node 3 2 1 1
node 4 2 0 2
gene 3 1 4 -1.706 0 1 -1.706 0
gene 3 2 4 0.436166 0 2 0.436166 1
gene 3 3 4 0.929416 0 3 0.929416 0
gene 3 4 4 0.269004 1 36 0.269004 1
genomeend 157

/* Organism #158 Fitness: 2.33939 Error: 647.661 */
genomestart 158
trait 1 0.1 0 0 0 0 0 0 0 
trait 2 0.2 0 0 0 0 0 0 0 
trait 3 0.3 0 0 0 0.40977 0 0 0 
node 1 1 1 1
node 2 1 1 1
node 3 2 1 1
node 4 2 0 2
gene 3 1 4 -1.61784 0 1 -1.61784 1
gene 3 2 4 0.436166 0 2 0.436166 1
gene 3 3 4 0.367832 0 3 0.367832 0
gene 3 4 4 1.15904 1 36 1.15904 1
genomeend 158

/* Organism #159 Fitness: 178.729 Error: 471.271 */
genomestart 159
trait 1 0.1 0 0 0 0 0 0 0 
trait 2 0.2 0 0 0 0 0 0 0 
trait 3 0.3 0 0 0 0.40977 0 0 0 
node 1 1 1 1
node 2 1 1 1
node 3 2 1 1
node 4 2 0 2
gene 3 1 4 -1.61784 0 1 -1.61784 0
gene 3 2 4 0.436166 0 2 0.436166 1
gene 3 3 4 0.367832 0 3 0.367832 0
gene 3 4 4 1.15904 1 36 1.15904 1
genomeend 159

/* Organism #160 Fitness: 178.729 Error: 471.271 */
genomestart 160
trait 1 0.1 0 0 0 0 0 0 0 
trait 2 0.2 0 0 0 0 0 0 0 
trait 3 0.3 0 0 0 0.40977 0 0 0 
node 1 1 1 1
node 2 1 1 1
node 3 2 1 1
node 4 2 0 2
gene 3 1 4 -3.04557 0 1 -3.04557 0
gene 3 2 4 -1.0778 0 2 -1.0778 1
gene 3 3 4 1.57875 0 3 1.57875 0
gene 3 4 4 2.77215 1 36 2.77215 1
genomeend 160

/* Organism #161 Fitness: 175.454 Error: 474.546 */
genomestart 161
trait 1 0.1 0 0 0 0 0 0 0 
trait 2 0.2 0 0 0 0 0 0 0 
trait 3 0.3 0 0 0 0.40977 0 0 0 
node 1 1 1 1
node 2 1 1 1
node 3 2 1 1
node 4 2 0 2
gene 3 1 4 -3.04557 0 1 -3.04557 0
gene 3 2 4 -1.0778 0 2 -1.0778 1
gene 3 3 4 1.57875 0 3 1.57875 0
gene 3 4 4 2.77215 1 36 2.77215 1
genomeend 161

/* Organism #162 Fitness: 177.325 Error: 472.675 */
genomestart 162
trait 1 0.1 0 0 0 0 0 0 0 
trait 2 0.2 0 0 0 0 0 0 0 
trait 3 0.3 0 0 0 0.40977 0 0 0 
node 1 1 1 1
node 2 1 1 1
node 3 2 1 1
node 4 2 0 2
gene 3 1 4 -3.04557 0 1 -3.04557 0
gene 3 2 4 -1.0778 0 2 -1.0778 1
gene 3 3 4 1.57875 0 3 1.57875 0
gene 3 4 4 2.77215 1 36 2.77215 1
genomeend 162

/* Organism #163 Fitness: 180.834 Error: 469.166 */
genomestart 163
trait 1 0.1 0 0 0 0 0 0 0 
trait 2 0.2 0 0 0 0 0 0 0 
trait 3 0.3 0 0 0 0.40977 0 0 0 
node 1 1 1 1
node 2 1 1 1
node 3 2 1 1
node 4 2 0 2
gene 3 1 4 -3.04557 0 1 -3.04557 0
gene 3 2 4 -1.0778 0 2 -1.0778 1
gene 3 3 4 1.57875 0 3 1.57875 0
gene 3 4 4 2.77215 1 36 2.77215 1
genomeend 163

/* Organism #164 Fitness: 174.752 Error: 475.248 */
genomestart 164
trait 1 0.1 0 0 0 0 0 0 0 
trait 2 0.2 0 0 0 0 0 0 0 
trait 3 0.3 0 0 0 0.40977 0 0 0 
node 1 1 1 1
node 2 1 1 1
node 3 2 1 1
node 4 2 0 2
gene 3 1 4 -2.8853 0 1 -2.8853 0
gene 3 2 4 0.331313 0 2 0.331313 1
gene 3 3 4 2.96424 0 3 2.96424 0
gene 3 4 4 2.09984 1 36 2.09984 1
genomeend 164

/* Organism #165 Fitness: 181.068 Error: 468.932 */
genomestart 165
trait 1 0.1 0 0 0 0 0 0 0 
trait 2 0.2 0 0 0 0 0 0 0 
trait 3 1 0.394733 0 0 1 0 0 0 
node 1 1 1 1
node 2 1 1 1
node 3 2 1 1
node 4 2 0 2
gene 3 1 4 -2.20196 0 1 -2.20196 0
gene 3 2 4 -0.809137 0 2 -0.809137 1
gene 3 3 4 0.147395 0 3 0.147395 0
gene 3 4 4 4.37797 1 36 4.37797 1
genomeend 165

/* Species #18 : (Size 11) (AF 265.21) (Age 6)  */


/* Organism #166 Fitness: 307.839 Error: 342.161 */
genomestart 166
trait 1 0.1 0 0 0 0 0 0 0 
trait 2 0 0 0 0 0 0 0.952599 0 
trait 3 0.3 0 0 0 0 0 0 0 
node 1 2 1 1
node 2 3 1 1
node 3 1 1 1
node 4 1 0 2
node 6 1 0 0
gene 3 1 4 1.43484 0 1 1.43484 1
gene 2 2 4 1.55813 0 2 1.55813 1
gene 3 3 4 -4.66398 0 3 -4.66398 0
gene 3 3 6 2.60602 0 16 2.60602 1
gene 3 6 4 1.13806 0 17 1.13806 1
gene 3 2 6 0.0463632 0 101 0.0463632 1
genomeend 166

/* Organism #167 Fitness: 193.514 Error: 456.486 */
genomestart 167
trait 1 0.1 0 0 0 0 0 0 0 
trait 2 0.025 0 0 0 0 0 0.83945 0 
trait 3 0.3 0 0.404162 0 0 0.13198 0 0 
node 1 2 1 1
node 2 3 1 1
node 3 1 1 1
node 4 1 0 2
node 6 1 0 0
gene 3 1 4 2.28477 0 1 2.28477 1
gene 2 2 4 -0.876337 0 2 -0.876337 1
gene 3 3 4 -2.82452 0 3 -2.82452 0
gene 3 3 6 2.21579 0 16 2.21579 1
gene 3 6 4 2.88354 0 17 2.88354 1
gene 3 2 6 -1.19111 0 101 -1.19111 1
genomeend 167

/* Organism #168 Fitness: 229.183 Error: 420.817 */
genomestart 168
trait 1 0.1 0 0 0 0 0 0 0 
trait 2 0 0 0 0 0 0 0.952599 0 
trait 3 0.3 0 0 0 0 0 0 0 
node 1 2 1 1
node 2 3 1 1
node 3 1 1 1
node 4 1 0 2
node 6 1 0 0
gene 3 1 4 2.37586 0 1 2.37586 1
gene 2 2 4 -1.2794 0 2 -1.2794 1
gene 3 3 4 -3.44611 0 3 -3.44611 0
gene 3 3 6 2.35838 0 16 2.35838 1
gene 3 6 4 0.769794 0 17 0.769794 1
gene 3 2 6 1.10601 0 101 1.10601 1
genomeend 168

/* Organism #169 Fitness: 324.324 Error: 325.676 */
genomestart 169
trait 1 0.1 0 0 0 0 0 0 0 
trait 2 0 0 0 0 0 0 0.952599 0 
trait 3 0.3 0 0 0 0 0 0 0 
node 1 2 1 1
node 2 3 1 1
node 3 1 1 1
node 4 1 0 2
node 6 1 0 0
gene 3 1 4 1.80901 0 1 1.80901 1
gene 2 2 4 -0.129748 0 2 -0.129748 1
gene 3 3 4 -2.67096 0 3 -2.67096 1
gene 3 3 6 0.881387 0 16 0.881387 1
gene 3 6 4 1.8552 0 17 1.8552 1
gene 3 2 6 0.100007 0 101 0.100007 1
gene 1 1 6 0.11417 0 216 0.11417 1
genomeend 169

/* Organism #170 Fitness: 329.693 Error: 320.307 */
genomestart 170
trait 1 0.1 0 0 0 0 0 0 0 
trait 2 0 0 0 0 0 0 0.952599 0 
trait 3 0.3 0 0 0 0 0 0 0 
node 1 2 1 1
node 2 3 1 1
node 3 1 1 1
node 4 1 0 2
node 6 1 0 0
gene 3 1 4 1.43484 0 1 1.43484 1
gene 2 2 4 1.55813 0 2 1.55813 1
gene 3 3 4 -4.66398 0 3 -4.66398 0
gene 3 3 6 2.60602 0 16 2.60602 1
gene 3 6 4 1.13806 0 17 1.13806 1
gene 3 2 6 0.0463632 0 101 0.0463632 1
gene 1 1 6 0.11417 0 216 0 1
genomeend 170

/* Organism #171 Fitness: 204.012 Error: 445.988 */
genomestart 171
trait 1 0.1 0 0 0 0 0 0 0 
trait 2 0 0 0 0 0 0 0.952599 0 
trait 3 0.3 0 0 0 0 0 0 0 
node 1 2 1 1
node 2 3 1 1
node 3 1 1 1
node 4 1 0 2
node 6 1 0 0
gene 3 1 4 2.06867 0 1 2.06867 1
gene 2 2 4 1.46427 0 2 1.46427 1
gene 3 3 4 -2.50511 0 3 -2.50511 1
gene 3 3 6 -0.811883 0 16 -0.811883 1
gene 3 6 4 0.230473 0 17 0.230473 1
gene 3 2 6 0.982025 0 101 0.982025 1
genomeend 171

/* Organism #172 Fitness: 264.756 Error: 385.244 */
genomestart 172
trait 1 0.1 0 0 0 0 0 0 0 
trait 2 0.2 0 0 0 0 0 0 0 
trait 3 0.3 0 0.0367764 0 0 0 0 0.0920813 
node 1 2 1 1
node 2 3 1 1
node 3 2 1 1
node 4 1 0 2
node 6 1 0 0
gene 3 1 4 1.30953 0 1 1.30953 1
gene 2 2 4 0.995118 0 2 0.995118 1
gene 3 3 4 -2.03579 0 3 -2.03579 0
gene 3 3 6 0.604923 0 16 0.604923 1
gene 3 6 4 0.547201 0 17 0.547201 1
gene 3 6 6 -0.728076 1 79 -0.728076 1
genomeend 172

/* Organism #173 Fitness: 284.916 Error: 365.084 */
genomestart 173
trait 1 0.1 0.0461562 0 0 0.0156238 0 0 0 
trait 2 0.2 0 0 0 0 0.0579943 0 0 
trait 3 0.3 0 0.0275823 0 0 0 0 0.069061 
node 1 2 1 1
node 2 3 1 1
node 3 1 1 1
node 4 1 0 2
node 6 1 0 0
gene 3 1 4 1.30953 0 1 1.30953 1
gene 2 2 4 0.995118 0 2 0.995118 1
gene 3 3 4 -2.03579 0 3 -2.03579 0
gene 3 3 6 0.565429 0 16 0.565429 1
gene 3 6 4 0.547201 0 17 0.547201 1
gene 3 6 6 -0.728076 1 79 -0.728076 1
genomeend 173

/* Organism #174 Fitness: 309.754 Error: 340.246 */
genomestart 174
trait 1 0.1 0 0 0 0 0 0 0 
trait 2 0.2 0 0.0355303 0 0.0585113 0 0.0529574 0 
trait 3 0.285804 0.0627011 0 0.12079 0.0280276 0 0 0 
node 1 2 1 1
node 2 2 1 1
node 3 3 1 1
node 4 1 0 2
gene 3 1 4 3.01991 0 1 3.01991 1
gene 3 2 4 0.885914 0 2 0.885914 1
gene 2 3 4 -5.19268 0 3 -5.19268 1
genomeend 174

/* Organism #175 Fitness: 289.188 Error: 360.812 */
genomestart 175
trait 1 0.384605 0 0 0 0.474175 0 0.720913 0 
trait 2 0.2 0 0.0355303 0 0.0585113 0 0.0529574 0 
trait 3 0.285804 0.0627011 0 0.12079 0.0280276 0 0 0 
node 1 2 1 1
node 2 2 1 1
node 3 3 1 1
node 4 1 0 2
gene 3 1 4 1.79046 0 1 1.79046 1
gene 3 2 4 1.06162 0 2 1.06162 1
gene 2 3 4 -4.10389 0 3 -4.10389 1
genomeend 175

/* Organism #176 Fitness: 180.133 Error: 469.867 */
genomestart 176
trait 1 0.1 0 0 0 0 0 0 0 
trait 2 0 0 0 0 0 0 0.952599 0 
trait 3 0.3 0 0 0 0 0 0 0 
node 1 2 1 1
node 2 3 1 1
node 3 1 1 1
node 4 1 0 2
node 6 1 0 0
gene 3 1 4 -0.875404 0 1 -0.875404 1
gene 2 2 4 -0.492916 0 2 -0.492916 1
gene 3 3 4 -5.08116 0 3 -5.08116 0
gene 3 3 6 0.996868 0 16 0.996868 1
gene 3 6 4 -1.8632 0 17 -1.8632 1
gene 3 2 6 2.13672 0 101 2.13672 1
genomeend 176

/* Species #20 : (Size 9) (AF 235.589) (Age 6)  */


/* Organism #177 Fitness: 359.097 Error: 290.903 */
genomestart 177
trait 1 0.1 0 0 0 0 0 0 0 
trait 2 0.327243 0 0 0 0 0 0.193686 0 
trait 3 0.3 0 0 0 0 0 0 0 
node 1 2 1 1
node 2 3 1 1
node 3 1 1 1
node 4 1 0 2
node 5 1 0 0
gene 3 1 4 0.395194 0 1 0.395194 1
gene 2 2 4 -3.01292 0 2 -3.01292 0
gene 3 3 4 -3.1831 0 3 -3.1831 0
gene 2 2 5 -1.55553 0 6 -1.55553 1
gene 2 5 4 2.05777 0 7 2.05777 1
gene 2 1 5 0.914111 0 110 0.914111 1
gene 1 3 5 -0.728453 0 146 0 1
genomeend 177

/* Organism #178 Fitness: 263.142 Error: 386.858 */
genomestart 178
trait 1 0.1 0 0 0 0 0 0 0 
trait 2 0.327243 0 0 0 0 0 0.193686 0 
trait 3 0.3 0 0 0 0 0 0 0 
node 1 2 1 1
node 2 3 1 1
node 3 1 1 1
node 4 1 0 2
node 5 1 0 0
gene 3 1 4 0.287934 0 1 0.287934 1
gene 2 2 4 -2.95691 0 2 -2.95691 1
gene 3 3 4 -3.26097 0 3 -3.26097 0
gene 2 2 5 -1.55553 0 6 -1.55553 1
gene 2 5 4 2.05777 0 7 2.05777 1
gene 2 1 5 0.914111 0 110 0.914111 1
gene 1 3 5 -0.728453 0 146 -0.364227 1
gene 3 4 4 0.796832 1 217 0.796832 1
genomeend 178

/* Organism #179 Fitness: 267.215 Error: 382.785 */
genomestart 179
trait 1 0.1 0 0 0 0 0 0 0 
trait 2 0.327243 0 0 0 0 0 0.193686 0 
trait 3 0.3 0 0 0 0 0 0 0 
node 1 2 1 1
node 2 3 1 1
node 3 1 1 1
node 4 1 0 2
node 5 1 0 0
gene 3 1 4 0.395194 0 1 0.395194 1
gene 2 2 4 -3.01292 0 2 -3.01292 0
gene 3 3 4 -3.1831 0 3 -3.1831 0
gene 2 2 5 -1.55553 0 6 -1.55553 1
gene 2 5 4 2.05777 0 7 2.05777 1
gene 2 1 5 0.914111 0 110 0.914111 1
gene 1 3 5 -0.728453 0 146 0 1
genomeend 179

/* Organism #180 Fitness: 303.516 Error: 346.484 */
genomestart 180
trait 1 0.1 0 0 0 0 0 0 0 
trait 2 0.327243 0 0 0 0 0 0.193686 0 
trait 3 0.3 0 0 0 0 0 0 0 
node 1 2 1 1
node 2 3 1 1
node 3 1 1 1
node 4 1 0 2
node 5 1 0 0
gene 3 1 4 0.287934 0 1 0.287934 1
gene 2 2 4 -2.95691 0 2 -2.95691 0
gene 3 3 4 -3.26097 0 3 -3.26097 1
gene 2 2 5 -1.55553 0 6 -1.55553 1
gene 2 5 4 2.05777 0 7 2.05777 1
gene 2 1 5 0.914111 0 110 0.914111 1
gene 1 3 5 -0.728453 0 146 -0.364227 1
genomeend 180

/* Organism #181 Fitness: 320.354 Error: 329.646 */
genomestart 181
trait 1 0.1 0 0 0 0 0 0 0 
trait 2 0.359054 0 0 0 0 0 0.242108 0 
trait 3 0.3 0 0 0 0 0 0 0 
node 1 2 1 1
node 2 3 1 1
node 3 1 1 1
node 4 1 0 2
node 5 1 0 0
gene 3 1 4 1.367 0 1 1.367 1
gene 2 2 4 -0.201072 0 2 -0.201072 0
gene 3 3 4 -2.5406 0 3 -2.5406 0
gene 2 2 5 -1.36498 0 6 -1.36498 1
gene 2 5 4 0.394654 0 7 0.394654 1
gene 2 1 5 2.11717 0 110 2.11717 1
gene 1 3 5 -1.03593 0 146 -1.03593 1
genomeend 181

/* Organism #182 Fitness: 329.523 Error: 320.477 */
genomestart 182
trait 1 0.1 0 0 0 0 0 0 0 
trait 2 0.390865 0 0 0 0 0 0.290529 0 
trait 3 0.3 0 0 0 0 0 0 0 
node 1 2 1 1
node 2 3 1 1
node 3 1 1 1
node 4 1 0 2
node 5 1 0 0
gene 3 1 4 1.00749 0 1 1.00749 1
gene 1 2 4 -3.94141 0 2 -3.94141 0
gene 3 3 4 -3.45629 0 3 -3.45629 0
gene 2 2 5 -1.05234 0 6 -1.05234 1
gene 2 5 4 3.51211 0 7 3.51211 1
gene 2 1 5 0.862935 0 110 0.862935 1
gene 1 3 5 -1.52301 0 146 -1.52301 1
genomeend 182

/* Organism #183 Fitness: 2.33939 Error: 647.661 */
genomestart 183
trait 1 0.1 0 0 0 0 0 0 0 
trait 2 0.327243 0 0 0 0 0 0.193686 0 
trait 3 0.3 0 0 0 0 0 0 0 
node 1 2 1 1
node 2 3 1 1
node 3 1 1 1
node 4 1 0 2
node 5 1 0 0
gene 3 1 4 -1.00955 0 1 -1.00955 1
gene 2 2 4 -3.04725 0 2 -3.04725 0
gene 3 3 4 -2.12914 0 3 -2.12914 0
gene 2 2 5 -0.947909 0 6 -0.947909 1
gene 2 5 4 1.33806 0 7 1.33806 1
gene 2 1 5 -0.814305 0 110 -0.814305 1
gene 1 3 5 -0.513501 0 146 -0.513501 1
genomeend 183

/* Organism #184 Fitness: 101.997 Error: 548.003 */
genomestart 184
trait 1 0.1 0 0.499847 0 0 0 0.517774 0 
trait 2 0.390865 0 0 0 0 0 0.290529 0 
trait 3 0.3 0 0 0 0 0 0 0 
node 1 2 1 1
node 2 3 1 1
node 3 1 1 1
node 4 1 0 2
node 5 1 0 0
gene 3 1 4 -1.16265 0 1 -1.16265 1
gene 2 2 4 -4.38017 0 2 -4.38017 0
gene 3 3 4 -3.89344 0 3 -3.89344 0
gene 2 2 5 -0.576192 0 6 -0.576192 1
gene 2 5 4 3.7697 0 7 3.7697 1
gene 2 1 5 1.68342 0 110 1.68342 1
gene 1 3 5 -1.75898 0 146 -1.75898 1
genomeend 184

/* Organism #185 Fitness: 173.115 Error: 476.885 */
genomestart 185
trait 1 0.1 0 0 0 0 0 0 0 
trait 2 0.327243 0 0.139141 0.0108138 0 0 0.193686 0.0647628 
trait 3 0.3 0 0 0 0 0 0 0 
node 1 1 1 1
node 2 1 1 1
node 3 1 1 1
node 4 1 0 2
node 5 1 0 0
gene 2 1 4 0.402379 0 1 0.402379 1
gene 1 2 4 -2.76614 0 2 -2.76614 0
gene 3 3 4 -1.69214 0 3 -1.69214 1
gene 2 2 5 -0.139359 0 6 -0.139359 1
gene 2 5 4 0.165401 0 7 0.165401 1
genomeend 185

/* Species #21 : (Size 3) (AF 340.104) (Age 6)  */


/* Organism #186 Fitness: 332.764 Error: 317.236 */
genomestart 186
trait 1 0.1 0 0 0 0 0 0 0 
trait 2 0.2 0 0 0 0 0 0 0 
trait 3 0.3 0 0 0 0 0 0 0 
node 1 1 1 1
node 2 1 1 1
node 3 3 1 1
node 4 3 0 2
gene 2 1 4 4.13726 0 1 4.13726 1
gene 2 2 4 4.13751 0 2 4.13751 1
gene 2 3 4 0.21197 0 3 0.21197 1
gene 2 4 4 0.176786 1 170 0.176786 1
genomeend 186

/* Organism #187 Fitness: 343.176 Error: 306.824 */
genomestart 187
trait 1 0.1 0 0 0 0 0 0 0 
trait 2 0.2 0 0 0 0 0 0 0 
trait 3 0.3 0 0 0 0 0 0 0 
node 1 1 1 1
node 2 1 1 1
node 3 3 1 1
node 4 3 0 2
gene 2 1 4 4.13726 0 1 4.13726 1
gene 2 2 4 4.13751 0 2 4.13751 1
gene 2 3 4 0.21197 0 3 0.21197 1
gene 2 4 4 0.176786 1 170 0.176786 1
genomeend 187

/* Organism #188 Fitness: 344.373 Error: 305.627 */
genomestart 188
trait 1 0.1 0 0 0 0 0 0 0 
trait 2 0.2 0 0 0 0 0 0 0 
trait 3 0.3 0 0 0 0 0 0 0 
node 1 1 1 1
node 2 1 1 1
node 3 3 1 1
node 4 3 0 2
gene 2 1 4 4.13726 0 1 4.13726 1
gene 2 2 4 4.13751 0 2 4.13751 1
gene 2 3 4 0.21197 0 3 0.21197 1
gene 2 4 4 0.176786 1 170 0.176786 1
genomeend 188

/* Species #22 : (Size 5) (AF 62.5828) (Age 6)  */


/* Organism #189 Fitness: 2.33939 Error: 647.661 */
genomestart 189
trait 1 0.1 0 0 0 0 0 0 0 
trait 2 0.2 0 0 0 0 0 0 0 
trait 3 0.3 0 0 0 0 0 0 0 
node 1 1 1 1
node 2 1 1 1
node 3 3 1 1
node 4 2 0 2
gene 1 1 4 -1.72562 0 1 -1.72562 1
gene 3 2 4 -5.92388 0 2 -5.92388 1
gene 2 3 4 -0.544979 0 3 -0.544979 1
gene 1 4 4 -0.086894 1 148 -0.086894 1
genomeend 189

/* Organism #190 Fitness: 180.834 Error: 469.166 */
genomestart 190
trait 1 0.1 0 0 0 0 0 0 0 
trait 2 0.2 0 0 0 0 0 0 0 
trait 3 0.3 0 0 0 0 0 0 0 
node 1 1 1 1
node 2 1 1 1
node 3 3 1 1
node 4 2 0 2
gene 1 1 4 -0.10247 0 1 -0.10247 1
gene 3 2 4 -3.86601 0 2 -3.86601 1
gene 2 3 4 1.25871 0 3 1.25871 1
gene 1 4 4 -0.690035 1 148 -0.690035 1
genomeend 190

/* Organism #191 Fitness: 106.208 Error: 543.792 */
genomestart 191
trait 1 0.1 0 0 0 0 0 0 0 
trait 2 0.2 0 0 0 0 0 0 0 
trait 3 0.3 0 0 0 0 0 0 0 
node 1 1 1 1
node 2 1 1 1
node 3 3 1 1
node 4 2 0 2
gene 1 1 4 -1.61567 0 1 -1.61567 1
gene 3 2 4 -4.52295 0 2 -4.52295 1
gene 2 3 4 0.315615 0 3 0.315615 1
gene 1 4 4 -0.690035 1 148 -0.690035 1
genomeend 191

/* Organism #192 Fitness: 21.1924 Error: 628.808 */
genomestart 192
trait 1 0.1 0 0 0 0 0 0 0 
trait 2 0.2 0 0 0 0 0 0 0 
trait 3 0.3 0 0 0 0 0 0 0 
node 1 1 1 1
node 2 1 1 1
node 3 3 1 1
node 4 2 0 2
gene 1 1 4 -2.6715 0 1 -2.6715 1
gene 3 2 4 -5.64119 0 2 -5.64119 1
gene 2 3 4 -0.562964 0 3 -0.562964 1
gene 1 4 4 -1.48473 1 148 -1.48473 1
genomeend 192

/* Organism #193 Fitness: 2.33939 Error: 647.661 */
genomestart 193
trait 1 0.1 0 0 0 0 0 0 0 
trait 2 0.2 0 0.278281 0.0216276 0 0 0 0.129526 
trait 3 0.3 0 0 0 0 0 0 0 
node 1 2 1 1
node 2 2 1 1
node 3 3 1 1
node 4 3 0 2
node 5 1 0 0
gene 2 1 4 -1.37326 0 1 -1.37326 1
gene 1 2 4 -4.50727 0 2 -4.50727 1
gene 3 3 4 -1.39144 0 3 -1.39144 1
gene 2 2 5 0.318725 0 6 0.318725 1
gene 2 5 4 -1.19143 0 7 -1.19143 1
genomeend 193

/* Species #25 : (Size 3) (AF 89.1416) (Age 6)  */


/* Organism #194 Fitness: 4.44483 Error: 645.555 */
genomestart 194
trait 1 0.1 0 0 0 0 0 0 0 
trait 2 0.2 0 0 0 0 0 0 0 
trait 3 0.3 0 0 0 0 0 0 0 
node 1 1 1 1
node 2 1 1 1
node 3 3 1 1
node 4 3 0 2
gene 2 1 4 -2.00966 0 1 -2.00966 1
gene 2 2 4 6.48314 0 2 6.48314 1
gene 2 3 4 0.691202 0 3 0.691202 1
gene 2 4 4 -0.905312 1 170 -0.905312 1
genomeend 194

/* Organism #195 Fitness: 2.33939 Error: 647.661 */
genomestart 195
trait 1 0.1 0 0 0 0 0 0 0 
trait 2 0.2 0 0 0 0 0 0 0 
trait 3 0.3 0 0 0 0 0 0 0 
node 1 1 1 1
node 2 1 1 1
node 3 3 1 1
node 4 3 0 2
gene 2 1 4 -2.22325 0 1 -2.22325 1
gene 2 2 4 5.02842 0 2 5.02842 1
gene 2 3 4 0.410099 0 3 0.410099 1
gene 2 4 4 0.81592 1 170 0.81592 1
genomeend 195

/* Organism #196 Fitness: 260.641 Error: 389.359 */
genomestart 196
trait 1 0.1 0 0 0 0 0 0 0 
trait 2 0.2 0 0 0 0 0 0 0 
trait 3 0.3 0 0 0 0 0 0 0 
node 1 1 1 1
node 2 1 1 1
node 3 3 1 1
node 4 3 0 2
gene 2 1 4 5.09342 0 1 5.09342 1
gene 2 2 4 4.39427 0 2 4.39427 1
gene 2 3 4 -1.40295 0 3 -1.40295 1
gene 2 4 4 -0.312446 1 170 -0.312446 1
genomeend 196

/* Species #26 : (Size 8) (AF 265.794) (Age 5)  */


/* Organism #197 Fitness: 333.472 Error: 316.528 */
genomestart 197
trait 1 0.1 0 0 0 0 0 0 0 
trait 2 0.2 0 0 0 0 0 0 0 
trait 3 0.3 0 0 0 0 0 0 0 
node 1 2 1 1
node 2 2 1 1
node 3 3 1 1
node 4 1 0 2
node 7 1 0 0
gene 2 1 4 1.91764 0 1 1.91764 0
gene 1 2 4 1.44804 0 2 1.44804 1
gene 1 3 4 -0.757154 0 3 -0.757154 1
gene 3 1 7 1.52588 0 18 1.52588 1
gene 3 7 4 2.18088 0 19 2.18088 1
gene 3 7 7 0.0122621 1 63 0.0122621 1
gene 1 3 7 2.86126 0 70 2.86126 1
genomeend 197

/* Organism #198 Fitness: 199.049 Error: 450.951 */
genomestart 198
trait 1 0.1 0 0 0 0 0 0 0 
trait 2 0.2 0 0 0 0 0 0 0 
trait 3 0.3 0 0 0 0 0 0 0 
node 1 2 1 1
node 2 2 1 1
node 3 3 1 1
node 4 1 0 2
node 7 1 0 0
gene 2 1 4 3.65405 0 1 3.65405 0
gene 1 2 4 2.48604 0 2 2.48604 1
gene 1 3 4 -1.58383 0 3 -1.58383 1
gene 3 1 7 1.71638 0 18 1.71638 1
gene 3 7 4 1.57062 0 19 1.57062 1
gene 3 7 7 -0.833039 1 63 -0.833039 1
gene 1 3 7 2.05222 0 70 2.05222 1
genomeend 198

/* Organism #199 Fitness: 329.548 Error: 320.452 */
genomestart 199
trait 1 0.1 0 0 0 0 0 0 0 
trait 2 0.2 0 0 0 0 0 0 0 
trait 3 0.3 0 0 0 0 0 0 0 
node 1 2 1 1
node 2 2 1 1
node 3 3 1 1
node 4 1 0 2
node 7 1 0 0
gene 2 1 4 1.97578 0 1 1.97578 0
gene 1 2 4 2.23008 0 2 2.23008 1
gene 1 3 4 -0.0612059 0 3 -0.0612059 0
gene 3 1 7 0.744955 0 18 0.744955 1
gene 3 7 4 2.4449 0 19 2.4449 1
gene 3 7 7 -0.496277 1 63 -0.496277 1
gene 1 3 7 2.05222 0 70 2.05222 1
genomeend 199

/* Organism #200 Fitness: 332.97 Error: 317.03 */
genomestart 200
trait 1 0.1 0 0 0 0 0 0 0 
trait 2 0.2 0 0 0 0 0 0 0 
trait 3 0.3 0 0 0 0 0 0 0 
node 1 2 1 1
node 2 2 1 1
node 3 3 1 1
node 4 1 0 2
node 7 1 0 0
gene 2 1 4 1.97578 0 1 1.97578 0
gene 1 2 4 2.23008 0 2 2.23008 1
gene 1 3 4 0.268656 0 3 0.268656 0
gene 3 1 7 0.744955 0 18 0.744955 1
gene 3 7 4 2.4449 0 19 2.4449 1
gene 3 7 7 -0.349099 1 63 -0.349099 1
gene 3 3 7 2.07877 0 70 2.07877 1
gene 3 2 7 -0.0834363 0 211 0 1
genomeend 200

/* Organism #201 Fitness: 340.068 Error: 309.932 */
genomestart 201
trait 1 0.1 0 0 0 0 0 0 0 
trait 2 0.2 0 0 0 0 0 0 0 
trait 3 0.3 0 0 0 0 0 0 0 
node 1 2 1 1
node 2 2 1 1
node 3 3 1 1
node 4 1 0 2
node 7 1 0 0
gene 2 1 4 1.97578 0 1 1.97578 0
gene 1 2 4 2.23008 0 2 2.23008 1
gene 1 3 4 0.268656 0 3 0.268656 0
gene 3 1 7 0.744955 0 18 0.744955 1
gene 3 7 4 2.4449 0 19 2.4449 1
gene 3 7 7 -0.349099 1 63 -0.349099 1
gene 3 3 7 2.07877 0 70 2.07877 1
gene 3 2 7 -0.0834363 0 211 0 1
genomeend 201

/* Organism #202 Fitness: 325.33 Error: 324.67 */
genomestart 202
trait 1 0.1 0 0 0 0 0 0 0 
trait 2 0.2 0 0 0 0 0 0 0 
trait 3 0.3 0 0 0 0 0 0 0 
node 1 2 1 1
node 2 2 1 1
node 3 3 1 1
node 4 1 0 2
node 7 1 0 0
gene 2 1 4 1.91764 0 1 1.91764 1
gene 1 2 4 1.44804 0 2 1.44804 1
gene 1 3 4 -0.757154 0 3 -0.757154 1
gene 3 1 7 1.52588 0 18 1.52588 1
gene 3 7 4 2.18088 0 19 2.18088 1
gene 3 7 7 0.0122621 1 63 0.0122621 1
gene 1 3 7 2.86126 0 70 2.86126 1
genomeend 202

/* Organism #203 Fitness: 92.0967 Error: 557.903 */
genomestart 203
trait 1 0.1 0 0 0 0 0 0 0 
trait 2 0.2 0 0 0 0 0 0 0 
trait 3 0.3 0 0 0 0 0 0.0324267 0.365522 
node 1 1 1 1
node 2 2 1 1
node 3 2 1 1
node 4 2 0 2
node 7 1 0 0
gene 3 1 4 0.166953 0 1 0.166953 0
gene 3 2 4 -0.442056 0 2 -0.442056 1
gene 1 3 4 -1.46644 0 3 -1.46644 1
gene 3 1 7 1.65661 0 18 1.65661 1
gene 3 7 4 4.73093 0 19 4.73093 1
gene 1 3 7 2.93889 0 70 2.93889 1
gene 1 7 7 0.750197 1 163 0.750197 1
genomeend 203

/* Organism #204 Fitness: 173.816 Error: 476.184 */
genomestart 204
trait 1 0.1 0 0 0 0 0 0 0 
trait 2 0.2 0 0 0 0 0 0 0 
trait 3 0.3 0 0 0 0 0 0 0 
node 1 2 1 1
node 2 2 1 1
node 3 3 1 1
node 4 1 0 2
node 7 1 0 0
gene 2 1 4 -0.266442 0 1 -0.266442 0
gene 1 2 4 1.37331 0 2 1.37331 1
gene 1 3 4 0.339598 0 3 0.339598 1
gene 3 1 7 -1.16268 0 18 -1.16268 1
gene 3 7 4 0.295541 0 19 0.295541 1
gene 3 7 7 -0.274277 1 63 -0.274277 1
gene 1 3 7 0.491668 0 70 0.491668 1
gene 2 2 7 0.694536 0 132 0.694536 0
genomeend 204

/* Species #27 : (Size 11) (AF 233.361) (Age 5)  */


/* Organism #205 Fitness: 174.752 Error: 475.248 */
genomestart 205
trait 1 0.1 0 0 0 0 0 0 0 
trait 2 0.2 0 0.213182 0 0 0 0 0 
trait 3 0.3 0 0.0646245 0 0 0 0 0 
node 1 1 1 1
node 2 1 1 1
node 3 3 1 1
node 4 2 0 2
gene 1 1 4 0.904667 0 1 0.904667 1
gene 3 2 4 0.172064 0 2 0.172064 1
gene 1 3 4 4.28957 0 3 4.28957 0
gene 1 4 4 -0.846196 1 97 -0.846196 1
genomeend 205

/* Organism #206 Fitness: 331.47 Error: 318.53 */
genomestart 206
trait 1 0.1 0 0 0 0 0 0 0 
trait 2 0.2 0 0 0 0 0 0 0 
trait 3 0.3 0 0 0 0 0 0 0 
node 1 2 1 1
node 2 2 1 1
node 3 3 1 1
node 4 3 0 2
node 5 1 0 0
gene 1 1 4 1.48338 0 1 1.48338 1
gene 1 2 4 1.05951 0 2 1.05951 1
gene 3 3 4 5.31867 0 3 5.31867 1
gene 2 2 5 -0.596083 0 6 -0.596083 1
gene 2 5 4 -3.12781 0 7 -3.12781 1
genomeend 206

/* Organism #207 Fitness: 342.074 Error: 307.926 */
genomestart 207
trait 1 0.1 0 0 0 0 0 0 0 
trait 2 0.2 0 0 0 0 0 0 0 
trait 3 0.3 0 0 0 0 0 0 0 
node 1 2 1 1
node 2 2 1 1
node 3 3 1 1
node 4 3 0 2
node 5 1 0 0
gene 1 1 4 1.48338 0 1 1.48338 1
gene 1 2 4 1.05951 0 2 1.05951 1
gene 3 3 4 5.31867 0 3 5.31867 1
gene 2 2 5 -0.596083 0 6 -0.596083 1
gene 2 5 4 -3.12781 0 7 -3.12781 1
gene 1 3 5 -0.721669 0 218 -0.721669 1
genomeend 207

/* Organism #208 Fitness: 255.216 Error: 394.784 */
genomestart 208
trait 1 0.1 0 0 0 0 0 0 0 
trait 2 0.2 0 0.106591 0 0 0 0 0 
trait 3 0.3 0 0.0323122 0 0 0 0 0 
node 1 1 1 1
node 2 1 1 1
node 3 3 1 1
node 4 2 0 2
node 5 1 0 0
gene 1 1 4 1.19403 0 1 1.19403 1
gene 1 2 4 0.615787 0 2 0.615787 1
gene 1 3 4 4.80412 0 3 4.80412 0
gene 2 2 5 -0.596083 0 6 -0.596083 1
gene 2 5 4 -3.12781 0 7 -3.12781 1
genomeend 208

/* Organism #209 Fitness: 266.456 Error: 383.544 */
genomestart 209
trait 1 0.1 0 0 0 0 0 0 0 
trait 2 0.2 0 0.106591 0 0 0 0 0 
trait 3 0.3 0 0.0323122 0 0 0 0 0 
node 1 2 1 1
node 2 2 1 1
node 3 3 1 1
node 4 3 0 2
node 5 1 0 0
gene 1 1 4 2.843 0 1 2.843 1
gene 3 2 4 -0.75624 0 2 -0.75624 1
gene 1 3 4 4.28506 0 3 4.28506 0
gene 2 2 5 1.06914 0 6 1.06914 1
gene 2 5 4 -2.48363 0 7 -2.48363 1
genomeend 209

/* Organism #210 Fitness: 297.701 Error: 352.299 */
genomestart 210
trait 1 0.1 0 0 0 0 0 0 0 
trait 2 0.2 0 0.106591 0 0 0 0 0 
trait 3 0.3 0 0.0323122 0 0 0 0 0 
node 1 2 1 1
node 2 2 1 1
node 3 3 1 1
node 4 3 0 2
node 5 1 0 0
gene 1 1 4 1.48338 0 1 1.48338 1
gene 1 2 4 1.05951 0 2 1.05951 1
gene 3 3 4 5.31867 0 3 5.31867 0
gene 2 2 5 -0.596083 0 6 -0.596083 1
gene 2 5 4 -3.12781 0 7 -3.12781 1
gene 2 1 5 -0.0612924 0 219 -0.0612924 1
genomeend 210

/* Organism #211 Fitness: 179.197 Error: 470.803 */
genomestart 211
trait 1 0.1 0 0 0 0 0 0 0 
trait 2 0.2 0 0.213182 0 0 0 0 0 
trait 3 0.3 0 0.0646245 0 0 0 0 0 
node 1 1 1 1
node 2 1 1 1
node 3 3 1 1
node 4 2 0 2
gene 1 1 4 0.904667 0 1 0.904667 1
gene 3 2 4 0.172064 0 2 0.172064 1
gene 1 3 4 4.28957 0 3 4.28957 0
gene 1 4 4 -0.846196 1 97 -0.846196 1
genomeend 211

/* Organism #212 Fitness: 174.05 Error: 475.95 */
genomestart 212
trait 1 0.1 0 0 0 0 0 0 0 
trait 2 0.2 0 0.106591 0 0 0 0 0 
trait 3 0.3 0 0.0323122 0 0 0 0 0 
node 1 2 1 1
node 2 2 1 1
node 3 3 1 1
node 4 3 0 2
node 5 1 0 0
gene 1 1 4 0.167888 0 1 0.167888 1
gene 3 2 4 -1.60772 0 2 -1.60772 1
gene 1 3 4 1.77183 0 3 1.77183 0
gene 2 2 5 1.3795 0 6 1.3795 1
gene 2 5 4 -3.12781 0 7 -3.12781 1
genomeend 212

/* Organism #213 Fitness: 170.686 Error: 479.314 */
genomestart 213
trait 1 0.1 0 0 0 0 0 0 0 
trait 2 0.2 0 0 0 0 0 0 0 
trait 3 0.3 0 0 0 0 0 0 0 
node 1 2 1 1
node 2 2 1 1
node 3 3 1 1
node 4 3 0 2
node 5 1 0 0
gene 1 1 4 2.07786 0 1 2.07786 1
gene 1 2 4 1.05951 0 2 1.05951 1
gene 3 3 4 5.4794 0 3 5.4794 1
gene 2 2 5 0.153759 0 6 0.153759 1
gene 2 5 4 1.27943 0 7 1.27943 1
genomeend 213

/* Organism #214 Fitness: 177.325 Error: 472.675 */
genomestart 214
trait 1 0.1 0 0 0 0 0 0 0 
trait 2 0.2 0 0 0 0 0 0 0 
trait 3 0.3 0 0 0 0 0 0 0 
node 1 1 1 1
node 2 1 1 1
node 3 3 1 1
node 4 3 0 2
gene 2 1 4 0.460991 0 1 0.460991 1
gene 2 2 4 -0.267454 0 2 -0.267454 1
gene 3 3 4 4.76671 0 3 4.76671 1
genomeend 214

/* Organism #215 Fitness: 198.043 Error: 451.957 */
genomestart 215
trait 1 0.1 0 0 0 0 0 0 0 
trait 2 0.2 0 0 0 0 0 0 0 
trait 3 0.3 0 0 0 0 0 0 0 
node 1 1 1 1
node 2 1 1 1
node 3 1 1 1
node 4 3 0 2
gene 2 1 4 1.60419 0 1 1.60419 1
gene 2 2 4 2.44935 0 2 2.44935 1
gene 3 3 4 4.37815 0 3 4.37815 1
genomeend 215

/* Species #28 : (Size 17) (AF 270.425) (Age 5)  */


/* Organism #216 Fitness: 309.89 Error: 340.11 */
genomestart 216
trait 1 0.1 0 0 0 0 0 0 0 
trait 2 0.2 0 0 0 0.117023 0 0.105915 0 
trait 3 0.271609 0.125402 0 0.241579 0.0560552 0 0 0 
node 1 1 1 1
node 2 1 1 1
node 3 1 1 1
node 4 1 0 2
node 7 1 0 0
gene 1 1 4 5.07027 0 1 5.07027 1
gene 2 2 4 -1.9265 0 2 -1.9265 1
gene 1 3 4 0.468612 0 3 0.468612 1
gene 3 1 7 0.0812995 0 18 0.0812995 1
gene 3 7 4 3.57447 0 19 3.57447 1
gene 1 2 7 2.36345 0 98 2.36345 1
genomeend 216

/* Organism #217 Fitness: 298.3 Error: 351.7 */
genomestart 217
trait 1 0.1 0 0 0 0 0 0 0 
trait 2 0.2 0 0 0 0.234045 0 0.21183 0 
trait 3 0.243217 0.250804 0 0.483159 0.11211 0 0 0 
node 1 1 1 1
node 2 1 1 1
node 3 1 1 1
node 4 1 0 2
node 7 1 0 0
gene 1 1 4 1.40723 0 1 1.40723 1
gene 2 2 4 -2.12161 0 2 -2.12161 1
gene 1 3 4 2.45872 0 3 2.45872 1
gene 3 1 7 0.335518 0 18 0.335518 1
gene 3 7 4 3.89692 0 19 3.89692 1
gene 2 2 7 1.03386 0 98 1.03386 1
gene 1 3 7 -0.571248 0 134 0 1
genomeend 217

/* Organism #218 Fitness: 324.01 Error: 325.99 */
genomestart 218
trait 1 0.1 0 0 0 0 0 0 0 
trait 2 0.2 0 0.0355303 0 0.175534 0 0.158872 0 
trait 3 0.257413 0.188103 0 0.362369 0.0840829 0 0 0 
node 1 1 1 1
node 2 1 1 1
node 3 1 1 1
node 4 1 0 2
node 7 1 0 0
gene 1 1 4 3.21219 0 1 3.21219 0
gene 3 2 4 -0.652851 0 2 -0.652851 1
gene 2 3 4 1.92436 0 3 1.92436 1
gene 3 1 7 1.94596 0 18 1.94596 1
gene 3 7 4 0.892791 0 19 0.892791 1
gene 2 2 7 -1.54154 0 98 -1.54154 1
gene 1 3 7 0.676627 0 134 0.676627 1
genomeend 218

/* Organism #219 Fitness: 276.552 Error: 373.448 */
genomestart 219
trait 1 0.1 0 0 0 0 0 0 0 
trait 2 0.2 0 0.0355303 0 0.0877669 0 0.0794362 0 
trait 3 0.278707 0.0940516 0 0.181185 0.0420414 0 0 0 
node 1 1 1 1
node 2 1 1 1
node 3 1 1 1
node 4 1 0 2
node 7 1 0 0
gene 1 1 4 2.90359 0 1 2.90359 1
gene 3 2 4 -1.00694 0 2 -1.00694 1
gene 2 3 4 1.89931 0 3 1.89931 1
gene 3 1 7 0.928655 0 18 0.928655 1
gene 3 7 4 2.47501 0 19 2.47501 1
gene 2 2 7 0.595235 0 98 0 1
gene 1 3 7 -0.571248 0 134 0 1
genomeend 219

/* Organism #220 Fitness: 306.597 Error: 343.403 */
genomestart 220
trait 1 0.1 0 0 0 0 0 0 0 
trait 2 0.2 0 0.0532954 0 0.146278 0 0.132394 0 
trait 3 0.264511 0.156753 0 0.301974 0.0700691 0 0 0 
node 1 2 1 1
node 2 1 1 1
node 3 1 1 1
node 4 3 0 2
node 7 1 0 0
node 22 1 0 0
gene 1 1 4 1.79574 0 1 1.79574 1
gene 2 2 4 -1.31823 0 2 -1.31823 1
gene 2 3 4 1.89931 0 3 1.89931 1
gene 3 1 7 1.60991 0 18 1.60991 1
gene 3 7 4 1.40436 0 19 1.40436 0
gene 2 2 7 0.595235 0 98 0 1
gene 1 3 7 -0.397427 0 134 -0.111803 1
gene 3 7 22 1 0 220 0 1
gene 3 22 4 1.40436 0 221 0 1
genomeend 220

/* Organism #221 Fitness: 241.362 Error: 408.638 */
genomestart 221
trait 1 0.1 0 0 0 0 0 0 0 
trait 2 0.2 0 0.0710606 0 0.117023 0 0.105915 0 
trait 3 0.271609 0.125402 0 0.241579 0.0560552 0 0 0 
node 1 2 1 1
node 2 1 1 1
node 3 1 1 1
node 4 3 0 2
node 7 1 0 0
gene 1 1 4 2.90359 0 1 2.90359 1
gene 3 2 4 -1.3899 0 2 -1.3899 1
gene 2 3 4 1.89931 0 3 1.89931 1
gene 3 1 7 1.60991 0 18 1.60991 1
gene 3 7 4 2.47501 0 19 2.47501 1
gene 2 2 7 0.595235 0 98 0 1
gene 1 3 7 -0.571248 0 134 0 1
genomeend 221

/* Organism #222 Fitness: 179.899 Error: 470.101 */
genomestart 222
trait 1 0.1 0 0 0 0 0 0 0 
trait 2 0.2 0 0 0 0.175534 0 0.158872 0 
trait 3 0.257413 0.188103 0 0.362369 0.0840829 0 0 0 
node 1 1 1 1
node 2 1 1 1
node 3 1 1 1
node 4 1 0 2
node 7 1 0 0
gene 1 1 4 0.775377 0 1 0.775377 1
gene 2 2 4 -1.62475 0 2 -1.62475 1
gene 1 3 4 1.165 0 3 1.165 1
gene 3 1 7 -0.656086 0 18 -0.656086 1
gene 3 7 4 0.126744 0 19 0.126744 1
gene 2 2 7 2.58629 0 98 2.58629 1
gene 1 3 7 0.616377 0 134 0.616377 1
genomeend 222

/* Organism #223 Fitness: 377.364 Error: 272.636 */
genomestart 223
trait 1 0.1 0 0 0 0 0 0 0 
trait 2 0.2 0 0.0177651 0 0.20479 0 0.185351 0 
trait 3 0.250315 0.219454 0 0.422764 0.0980967 0 0 0 
node 1 1 1 1
node 2 1 1 1
node 3 1 1 1
node 4 1 0 2
node 7 1 0 0
node 22 1 0 0
gene 1 1 4 1.69054 0 1 1.69054 1
gene 2 2 4 -2.27516 0 2 -2.27516 1
gene 1 3 4 1.59241 0 3 1.59241 1
gene 3 1 7 1.16384 0 18 1.16384 1
gene 3 7 4 2.42934 0 19 2.42934 0
gene 2 2 7 0.178832 0 98 0.178832 1
gene 1 3 7 -1.03275 0 134 -0.889938 1
gene 3 7 22 1 0 220 0 1
gene 3 22 4 2.42934 0 221 0 1
genomeend 223

/* Organism #224 Fitness: 328.364 Error: 321.636 */
genomestart 224
trait 1 0.1 0 0 0 0 0 0 0 
trait 2 0.2 0 0.0355303 0 0.117023 0 0.105915 0 
trait 3 0.271609 0.125402 0 0.241579 0.0560552 0 0 0 
node 1 1 1 1
node 2 1 1 1
node 3 1 1 1
node 4 1 0 2
node 7 1 0 0
gene 1 1 4 3.77498 0 1 3.77498 1
gene 3 2 4 -2.98889 0 2 -2.98889 1
gene 2 3 4 2.24721 0 3 2.24721 1
gene 3 1 7 1.08249 0 18 1.08249 1
gene 3 7 4 1.04933 0 19 1.04933 1
gene 2 2 7 1.22548 0 98 1.22548 1
gene 1 3 7 -0.0124356 0 134 -0.0124356 1
genomeend 224

/* Organism #225 Fitness: 310.112 Error: 339.888 */
genomestart 225
trait 1 0.1 0 0 0 0 0 0 0 
trait 2 0.2 0 0.0710606 0 0.117023 0 0.105915 0 
trait 3 0.271609 0.125402 0 0.241579 0.0560552 0 0 0 
node 1 2 1 1
node 2 1 1 1
node 3 1 1 1
node 4 3 0 2
node 7 1 0 0
gene 1 1 4 2.90359 0 1 2.90359 1
gene 3 2 4 -2.44314 0 2 -2.44314 1
gene 2 3 4 2.61566 0 3 2.61566 1
gene 3 1 7 2.43373 0 18 2.43373 1
gene 3 7 4 1.5576 0 19 1.5576 1
gene 3 2 7 -0.802101 0 98 -0.802101 1
gene 1 3 7 0.507001 0 134 0.507001 1
genomeend 225

/* Organism #226 Fitness: 231.643 Error: 418.357 */
genomestart 226
trait 1 0.1 0 0 0 0 0 0 0 
trait 2 0.2 0 0.0710606 0 0.117023 0 0.105915 0 
