
/* Species #6 : (Size 20) (AF 0.403024) (Age 30)  */


/* Organism #0 Fitness: 0.514455 Error: 0.385545 */
genomestart 0
trait 1 0.22271 0.0486742 0.00563658 0.103878 0.15131 0.115551 0.169035 0.385555 
trait 2 0.2 0 0 0.0252557 0.00622203 0 0 0.010667 
trait 3 0.310418 0.0266793 0.0164855 0.00282244 0.0278406 0 0 0.00117294 
node 1 2 1 1
node 2 3 1 1
node 3 1 1 1
node 4 1 0 2
gene 2 1 4 7.35306 0 1 7.35306 1
gene 1 2 4 -1.52857 0 2 -1.52857 1
gene 3 3 4 -3.62177 0 3 -3.62177 0
genomeend 0

/* Organism #1 Fitness: 0.493621 Error: 0.406379 */
genomestart 1
trait 1 0.20303 0.0500778 0.00695774 0.0923821 0.134498 0.118884 0.150352 0.360039 
trait 2 0.2 0 0 0.0212255 0.00522915 0 0 0.00896484 
trait 3 0.308503 0.0217758 0.0134556 0.00230369 0.0227237 0 0 0.000957359 
node 1 2 1 1
node 2 3 1 1
node 3 1 1 1
node 4 1 0 2
gene 2 1 4 7.08602 0 1 7.08602 1
gene 1 2 4 0.654787 0 2 0.654787 1
gene 3 3 4 -5.20475 0 3 -5.20475 0
genomeend 1

/* Organism #2 Fitness: 0.448389 Error: 0.451611 */
genomestart 2
trait 1 0.3144 0.0328876 0.00366601 0.0597095 0.0840611 0.0762554 0.114731 0.229065 
trait 2 0.2 0 0 0.126547 0.0311763 0 0 0.0534486 
trait 3 0.412638 0.084625 0.10253 0.167484 0.185448 0.0394429 0 0.00238528 
node 1 3 1 1
node 2 2 1 1
node 3 2 1 1
node 4 3 0 2
gene 3 1 4 4.87727 0 1 4.87727 0
gene 3 2 4 0.606392 0 2 0.606392 1
gene 1 3 4 -2.34015 0 3 -2.34015 1
genomeend 2

/* Organism #3 Fitness: 0.0265741 Error: 0.873426 */
genomestart 3
trait 1 0.344167 0.0104015 0.0601279 0.00270615 0 0.0226636 0.014067 0.111817 
trait 2 0.2 0 0 0.0639452 0.0157536 0 0 0.027008 
trait 3 0.376094 0.0929557 0.0825309 0.0890999 0.145572 0.0197214 0.0170914 0.00341914 
node 1 1 1 1
node 2 2 1 1
node 3 2 1 1
node 4 1 0 2
node 30 2 0 0
gene 3 1 4 4.47082 0 1 4.47082 0
gene 2 2 4 -0.257524 0 2 -0.257524 1
gene 2 3 4 -2.01949 0 3 -2.01949 0
gene 2 2 30 1.22386 0 326 1.22386 1
gene 2 30 4 4.9225 0 327 4.9225 1
gene 1 3 30 -1.00031 0 412 -1.00031 1
gene 3 30 30 0.735944 1 500 0.735944 0
gene 1 4 4 1.16316 1 684 1.16316 1
gene 3 1 30 0.0839415 0 1423 0.0839415 1
genomeend 3

/* Organism #4 Fitness: 0.0720432 Error: 0.827957 */
genomestart 4
trait 1 0.290509 0.0295604 0.00845102 0.00302567 0 0.0701757 0.00648124 0.0751762 
trait 2 0.181902 0.116418 0 0.0881262 0.014827 0.124207 0 0.0372211 
trait 3 0.346596 0.093852 0.0803132 0.102406 0.154602 0.0128526 0 0.00334728 
node 1 2 1 1
node 2 3 1 1
node 3 1 1 1
node 4 1 0 2
node 19 1 0 0
gene 3 1 4 2.93444 0 1 2.93444 1
gene 2 2 4 -3.669 0 2 -3.669 1
gene 1 3 4 -2.48153 0 3 -2.48153 0
gene 1 1 19 3.47359 0 157 3.47359 1
gene 3 19 4 8 0 158 8 0
gene 1 2 19 0.946727 0 224 0.946727 1
gene 1 3 19 0.291187 0 340 0.291187 1
genomeend 4

/* Organism #5 Fitness: 0.451483 Error: 0.448517 */
genomestart 5
trait 1 0.375417 0.0198515 0.00453852 0.00392775 0 0.0453082 0.0249539 0.0504852 
trait 2 0.2 0 0 0.12789 0.0315073 0 0 0.054016 
trait 3 0.431394 0.132658 0.132211 0.172566 0.235572 0.0394429 0.0341827 0.00449704 
node 1 1 1 1
node 2 2 1 1
node 3 2 1 1
node 4 3 0 2
node 19 1 0 0
gene 3 1 4 4.41105 0 1 4.41105 0
gene 2 2 4 -1.57492 0 2 -1.57492 1
gene 1 3 4 -3.4425 0 3 -3.4425 0
gene 3 1 19 -1.24186 0 157 -1.24186 1
gene 3 19 4 0.482553 0 158 0.482553 0
gene 1 2 19 6.74432 0 224 6.74432 1
gene 1 3 19 -2.62888 0 340 -2.62888 1
genomeend 5

/* Organism #6 Fitness: 0.435698 Error: 0.464302 */
genomestart 6
trait 1 0.207322 0.0269301 0.00367951 0.0468908 0.0672489 0.0611318 0.0766747 0.181804 
trait 2 0.2 0 0 0.00859768 0.00211814 0 0 0.00363133 
trait 3 0.313475 0.0345091 0.0212554 0.00365077 0.0360112 0 0 0.00151717 
node 1 2 1 1
node 2 3 1 1
node 3 1 1 1
node 4 1 0 2
gene 1 1 4 7.01146 0 1 7.01146 0
gene 2 2 4 -2.24042 0 2 -2.24042 1
gene 2 3 4 -4.13415 0 3 -4.13415 0
genomeend 6

/* Organism #7 Fitness: 0.434408 Error: 0.465592 */
genomestart 7
trait 1 0.268378 0.0393117 0.00571958 0.0705067 0.100873 0.0933252 0.115377 0.274488 
trait 2 0.190951 0.058209 0 0.0554819 0.0102266 0.0621034 0 0.0234334 
trait 3 0.328229 0.0595538 0.0479595 0.0525388 0.0904785 0.00642631 0 0.00222882 
node 1 2 1 1
node 2 3 1 1
node 3 1 1 1
node 4 1 0 2
gene 2 1 4 6.56713 0 1 6.56713 0
gene 3 2 4 -1.42572 0 2 -1.42572 1
gene 1 3 4 -2.48153 0 3 -2.48153 0
genomeend 7

/* Organism #8 Fitness: 0.535505 Error: 0.364495 */
genomestart 8
trait 1 0.219243 0.0502722 0.00517357 0.115127 0.168122 0.119345 0.187189 0.418704 
trait 2 0.2 0 0 0.0200165 0.00493129 0 0 0.00845418 
trait 3 0.308225 0.021064 0.0130157 0.00222839 0.0219809 0 0 0.000926065 
node 1 2 1 1
node 2 3 1 1
node 3 1 1 1
node 4 1 0 2
gene 2 1 4 6.56713 0 1 6.56713 1
gene 3 2 4 -1.42572 0 2 -1.42572 1
gene 3 3 4 -3.98517 0 3 -3.98517 1
genomeend 8

/* Organism #9 Fitness: 0.556722 Error: 0.343278 */
genomestart 9
trait 1 0.264111 0.0407809 0.00511123 0.0761034 0.109279 0.0959034 0.132665 0.292767 
trait 2 0.2 0 0 0.0759014 0.0186992 0 0 0.0320578 
trait 3 0.361528 0.0556521 0.0595078 0.0851535 0.106644 0.0197214 0 0.00177911 
node 1 2 1 1
node 2 3 1 1
node 3 1 1 1
node 4 1 0 2
node 116 1 0 0
gene 2 1 4 7.05707 0 1 7.05707 1
gene 3 2 4 0.998191 0 2 0.998191 0
gene 3 3 4 -3.3165 0 3 -3.3165 0
gene 3 2 116 1 0 1364 0 1
gene 3 116 4 0.998191 0 1365 0 1
genomeend 9

/* Organism #10 Fitness: 0.450223 Error: 0.449777 */
genomestart 10
trait 1 0.375417 0.0198515 0.00453852 0.00392775 0 0.0453082 0.0249539 0.0504852 
trait 2 0.2 0 0 0.12789 0.0315073 0 0 0.054016 
trait 3 0.431394 0.132658 0.132211 0.172566 0.235572 0.0394429 0.0341827 0.00449704 
node 1 1 1 1
node 2 2 1 1
node 3 2 1 1
node 4 3 0 2
node 19 1 0 0
gene 3 1 4 2.03427 0 1 2.03427 0
gene 2 2 4 -0.584456 0 2 -0.584456 1
gene 1 3 4 -1.54313 0 3 -1.54313 0
gene 3 1 19 2.61734 0 157 2.61734 1
gene 3 19 4 1.9315 0 158 1.9315 0
gene 1 2 19 8 0 224 8 1
gene 1 3 19 -2.85976 0 340 -2.85976 1
genomeend 10

/* Organism #11 Fitness: 0.285236 Error: 0.614764 */
genomestart 11
trait 1 0.3144 0.0328876 0.00366601 0.0597095 0.0840611 0.0762554 0.114731 0.229065 
trait 2 0.2 0 0 0.126547 0.0311763 0 0 0.0534486 
trait 3 0.412638 0.084625 0.10253 0.167484 0.185448 0.0394429 0 0.00238528 
node 1 3 1 1
node 2 2 1 1
node 3 2 1 1
node 4 3 0 2
node 116 1 0 0
gene 3 1 4 6.21594 0 1 6.21594 1
gene 3 2 4 0.998191 0 2 0.998191 0
gene 3 3 4 -3.3165 0 3 -3.3165 0
gene 3 2 116 1 0 1364 0 1
gene 3 116 4 0.998191 0 1365 0 1
gene 1 3 116 0.738522 0 1424 0.738522 1
genomeend 11

/* Organism #12 Fitness: 0.543423 Error: 0.356577 */
genomestart 12
trait 1 0.27588 0.0409753 0.00378701 0.0931581 0.134498 0.096365 0.160284 0.33689 
trait 2 0.2 0 0 0.0746923 0.0184013 0 0 0.0315472 
trait 3 0.36125 0.0549403 0.059068 0.0850782 0.105902 0.0197214 0 0.00174782 
node 1 2 1 1
node 2 3 1 1
node 3 1 1 1
node 4 1 0 2
node 116 1 0 0
gene 2 1 4 7.06411 0 1 7.06411 1
gene 3 2 4 -1.5453 0 2 -1.5453 0
gene 3 3 4 -2.33556 0 3 -2.33556 0
gene 3 2 116 0.00285457 0 1364 0.00285457 1
gene 3 116 4 1.70329 0 1365 1.70329 1
genomeend 12

/* Organism #13 Fitness: 0.436326 Error: 0.463674 */
genomestart 13
trait 1 0.222405 0.00237888 0 0.00151457 0 4.78248e-05 0.00324435 0 
trait 2 0.2 0 0 0 0 0 0 0 
trait 3 0.320362 0.0521459 0.0320852 0.00551659 0.0544157 0 0 0.00229256 
node 1 2 1 1
node 2 2 1 1
node 3 2 1 1
node 4 1 0 2
node 30 1 0 0
gene 1 1 4 7.9196 0 1 7.9196 0
gene 2 2 4 -1.0403 0 2 -1.0403 1
gene 1 3 4 2.36076 0 3 2.36076 0
gene 2 2 30 0.017045 0 326 0.017045 1
gene 2 30 4 -1.57773 0 327 -1.57773 1
gene 1 3 30 -0.238181 0 412 -0.238181 1
gene 3 30 30 0.102204 1 500 0.102204 1
gene 1 4 4 -0.42215 1 684 -0.42215 1
genomeend 13

/* Organism #14 Fitness: 0.442813 Error: 0.457187 */
genomestart 14
trait 1 0.280664 0.0397661 0.00390126 0.0875661 0.126092 0.0934945 0.151277 0.319272 
trait 2 0.2 0 0 0.0775134 0.0190963 0 0 0.0327387 
trait 3 0.362887 0.059132 0.0616581 0.0855216 0.110276 0.0197214 0 0.0019321 
node 1 3 1 1
node 2 2 1 1
node 3 2 1 1
node 4 3 0 2
gene 3 1 4 7.42522 0 1 7.42522 0
gene 3 2 4 -1.13557 0 2 -1.13557 1
gene 1 3 4 -1.65161 0 3 -1.65161 0
genomeend 14

/* Organism #15 Fitness: 0.562222 Error: 0.337778 */
genomestart 15
trait 1 0.214799 0.0502722 0.00563351 0.109437 0.159716 0.119345 0.177971 0.404162 
trait 2 0.2 0 0 0.0200165 0.00493129 0 0 0.00845418 
trait 3 0.308225 0.021064 0.0130157 0.00222839 0.0219809 0 0 0.000926065 
node 1 2 1 1
node 2 3 1 1
node 3 1 1 1
node 4 1 0 2
gene 2 1 4 7.46148 0 1 7.46148 1
gene 3 2 4 -1.21437 0 2 -1.21437 1
gene 3 3 4 -3.99568 0 3 -3.99568 1
genomeend 15

/* Organism #16 Fitness: 0.44338 Error: 0.45662 */
genomestart 16
trait 1 0.256591 0.0411839 0.0056864 0.0703801 0.100873 0.0968603 0.123376 0.27925 
trait 2 0.2 0 0 0.074961 0.0184675 0 0 0.0316606 
trait 3 0.360982 0.0542549 0.0586445 0.0850056 0.105186 0.0197214 0 0.00171768 
node 1 2 1 1
node 2 3 1 1
node 3 1 1 1
node 4 1 0 2
gene 2 1 4 6.99167 0 1 6.99167 0
gene 1 2 4 -1.17116 0 2 -1.17116 1
gene 3 3 4 -4.26323 0 3 -4.26323 0
genomeend 16

/* Organism #17 Fitness: 0.442996 Error: 0.457004 */
genomestart 17
trait 1 0.298911 0.0111152 0.00226926 0.00272116 0 0.022678 0.0140991 0.0252426 
trait 2 0.2 0 0 0.0639452 0.0157536 0 0 0.027008 
trait 3 0.375878 0.0924021 0.0821479 0.0890413 0.144994 0.0197214 0.0170914 0.0033948 
node 1 1 1 1
node 2 2 1 1
node 3 2 1 1
node 4 3 0 2
node 30 1 0 0
gene 3 1 4 5.67596 0 1 5.67596 0
gene 2 2 4 -1.11943 0 2 -1.11943 1
gene 1 3 4 -0.367515 0 3 -0.367515 0
gene 2 2 30 0.017045 0 326 0.017045 1
gene 2 30 4 -1.57773 0 327 -1.57773 1
gene 1 3 30 -0.238181 0 412 -0.238181 1
gene 3 30 30 0.102204 1 500 0.102204 1
gene 1 4 4 -0.42215 1 684 -0.42215 1
genomeend 17

/* Organism #18 Fitness: 0.42234 Error: 0.47766 */
genomestart 18
trait 1 0.3144 0.0328876 0.00366601 0.0597095 0.0840611 0.0762554 0.114731 0.229065 
trait 2 0.2 0 0 0.126547 0.0311763 0 0 0.0534486 
trait 3 0.412638 0.084625 0.10253 0.167484 0.185448 0.0394429 0 0.00238528 
node 1 3 1 1
node 2 2 1 1
node 3 2 1 1
node 4 3 0 2
node 116 1 0 0
gene 3 1 4 6.21594 0 1 6.21594 1
gene 3 2 4 0.998191 0 2 0.998191 0
gene 3 3 4 -3.3165 0 3 -3.3165 0
gene 3 2 116 1 0 1364 0 1
gene 3 116 4 0.998191 0 1365 0 1
gene 1 1 116 -0.691581 0 1425 -0.691581 1
genomeend 18

/* Organism #19 Fitness: 0.0626224 Error: 0.837378 */
genomestart 19
trait 1 0.391393 0.0451528 0.00362674 0.00403556 0.0144504 0.0377369 0.0251849 0.0505205 
trait 2 0.2 0 0 0.155564 0.038325 0 0 0.0657043 
trait 3 0.436273 0.145154 0.355715 0.170837 0.218516 0.043404 0.267148 0.00462917 
node 1 3 1 1
node 2 2 1 1
node 3 2 1 1
node 4 3 0 2
node 19 1 0 0
gene 3 1 4 1.09087 0 1 1.09087 1
gene 3 2 4 -0.533445 0 2 -0.533445 1
gene 1 3 4 -3.17908 0 3 -3.17908 0
gene 3 1 19 1.36395 0 157 1.36395 1
gene 3 19 4 5.01493 0 158 5.01493 1
gene 1 2 19 0.945431 0 224 0.945431 1
gene 1 3 19 -2.88857 0 340 -2.88857 1
genomeend 19

/* Species #7 : (Size 11) (AF 0.440667) (Age 30)  */


/* Organism #20 Fitness: 0.448385 Error: 0.451615 */
genomestart 20
trait 1 0.184898 0.0135522 0.00367991 0.0169335 0 0 0.0576869 0 
trait 2 0.472663 0.380874 0.0105763 0.0312971 0.0172828 0.133929 0 0 
trait 3 0.685171 0.172298 0.419011 0.000156183 0.00154059 0 0 0.000148356 
node 1 1 1 1
node 2 1 1 1
node 3 1 1 1
node 4 2 0 2
node 9 1 0 0
node 39 1 0 0
gene 3 1 4 -1.50736 0 1 -1.50736 0
gene 1 2 4 3.96843 0 2 3.96843 0
gene 2 3 4 6.49595 0 3 6.49595 0
gene 1 2 9 2.16759 0 42 2.16759 1
gene 1 9 4 -0.0579354 0 43 -0.0579354 1
gene 3 2 39 -1.7418 0 480 -1.7418 1
gene 3 39 4 5.67632 0 481 5.67632 1
gene 1 39 39 -0.584417 1 511 -0.584417 0
gene 1 3 9 1.35448 0 614 1.35448 1
gene 1 39 9 0.040067 0 965 0.040067 1
gene 3 1 9 0.54724 0 1125 0.54724 1
genomeend 20

/* Organism #21 Fitness: 0.443052 Error: 0.456948 */
genomestart 21
trait 1 0.184898 0 0.118805 0 0.704583 0.796169 0 0 
trait 2 0.225915 0 0.0105763 0.0312971 0.0172828 0.0182744 0 0 
trait 3 0.71836 0.186375 0.453775 0.000139449 0.00137552 0 0 0.000148356 
node 1 1 1 1
node 2 1 1 1
node 3 1 1 1
node 4 2 0 2
node 9 1 0 0
node 39 1 0 0
gene 3 1 4 0.123144 0 1 0.123144 0
gene 1 2 4 4.44715 0 2 4.44715 0
gene 2 3 4 7.63837 0 3 7.63837 0
gene 1 2 9 1.13552 0 42 1.13552 1
gene 1 9 4 1.05493 0 43 1.05493 1
gene 3 2 39 -1.74028 0 480 -1.74028 1
gene 3 39 4 6.49923 0 481 6.49923 1
gene 1 39 39 -1.48875 1 511 -1.48875 1
gene 1 3 9 4.30055 0 614 4.30055 1
gene 1 39 9 1.39207 0 965 1.39207 1
gene 3 9 9 -1.15788 1 1243 -1.15788 1
genomeend 21

/* Organism #22 Fitness: 0.436162 Error: 0.463838 */
genomestart 22
trait 1 0.184898 0.0135522 0.00367991 0.0169335 0 0 0.0576869 0 
trait 2 0.178732 0 0.0105763 0.0234728 0.0172828 0.0182744 0.16284 0 
trait 3 0.696234 0.17699 0.430599 0.000150605 0.00148557 0 0 0.000148356 
node 1 1 1 1
node 2 1 1 1
node 3 1 1 1
node 4 2 0 2
node 9 1 0 0
node 39 1 0 0
gene 3 1 4 0.49816 0 1 0.49816 0
gene 1 2 4 5.1786 0 2 5.1786 0
gene 2 3 4 7.18544 0 3 7.18544 0
gene 1 2 9 0.696769 0 42 0.696769 1
gene 1 9 4 -3.40317 0 43 -3.40317 1
gene 3 2 39 -2.76569 0 480 -2.76569 1
gene 3 39 4 5.25982 0 481 5.25982 1
gene 1 39 39 0.337822 1 511 0.337822 0
gene 1 3 9 1.33662 0 614 1.33662 1
gene 1 39 9 2.82652 0 965 2.82652 1
gene 3 9 9 -0.139776 1 1243 -0.139776 1
genomeend 22

/* Organism #23 Fitness: 0.442996 Error: 0.457004 */
genomestart 23
trait 1 0.184898 0.0135522 0.00367991 0.0169335 0 0 0.0576869 0 
trait 2 0.472663 0.380874 0.0105763 0.0312971 0.0172828 0.133929 0 0 
trait 3 0.690703 0.174644 0.424805 0.000153394 0.00151308 0 0 0.000148356 
node 1 1 1 1
node 2 1 1 1
node 3 1 1 1
node 4 2 0 2
node 9 1 0 0
node 39 1 0 0
gene 3 1 4 -1.26748 0 1 -1.26748 0
gene 1 2 4 0.74822 0 2 0.74822 0
gene 2 3 4 6.77926 0 3 6.77926 0
gene 1 2 9 1.76608 0 42 1.76608 1
gene 1 9 4 -4.62006 0 43 -4.62006 1
gene 3 2 39 -2.80556 0 480 -2.80556 1
gene 3 39 4 -1.16013 0 481 -1.16013 1
gene 1 39 39 0.81623 1 511 0.81623 0
gene 1 3 9 0.096679 0 614 0.096679 1
gene 1 39 9 3.17927 0 965 3.17927 1
gene 3 1 9 -0.118931 0 1125 -0.118931 1
genomeend 23

/* Organism #24 Fitness: 0.439277 Error: 0.460723 */
genomestart 24
trait 1 0.184898 0.0135522 0.00367991 0.0169335 0 0 0.0576869 0 
trait 2 0.42548 0.380874 0.0105763 0.0234728 0.508641 0.133929 0.496112 0 
trait 3 0.701766 0.179336 0.436393 0.000147816 0.00145806 0 0 0.000148356 
node 1 1 1 1
node 2 1 1 1
node 3 1 1 1
node 4 2 0 2
node 9 1 0 0
node 39 1 0 0
gene 3 1 4 -3.13367 0 1 -3.13367 0
gene 1 2 4 -0.165934 0 2 -0.165934 0
gene 2 3 4 6.20704 0 3 6.20704 0
gene 1 2 9 2.83331 0 42 2.83331 1
gene 1 9 4 0.543679 0 43 0.543679 1
gene 3 2 39 -2.01832 0 480 -2.01832 1
gene 3 39 4 4.89725 0 481 4.89725 1
gene 1 39 39 1.604 1 511 1.604 0
gene 1 3 9 -0.12967 0 614 -0.12967 1
gene 1 39 9 0.040067 0 965 0.040067 1
gene 3 1 9 0.54724 0 1125 0.54724 1
genomeend 24

/* Organism #25 Fitness: 0.427413 Error: 0.472587 */
genomestart 25
trait 1 0.184898 0.0135522 0.00367991 0.0169335 0 0 0.0576869 0 
trait 2 0.225915 0 0.0105763 0.0312971 0.0172828 0.0182744 0 0 
trait 3 0.651983 0.158221 0.384246 0.000172916 0.00170565 0 0 0.000148356 
node 1 1 1 1
node 2 1 1 1
node 3 1 1 1
node 4 2 0 2
node 9 1 0 0
node 39 1 0 0
gene 3 1 4 1.59148 0 1 1.59148 0
gene 1 2 4 1.2941 0 2 1.2941 0
gene 2 3 4 5.34488 0 3 5.34488 0
gene 1 2 9 3.95024 0 42 3.95024 1
gene 1 9 4 -6.18222 0 43 -6.18222 1
gene 3 2 39 -3.11149 0 480 -3.11149 1
gene 3 39 4 5.67632 0 481 5.67632 1
gene 3 39 39 -1.85038 1 511 -1.85038 0
gene 1 3 9 1.27967 0 614 1.27967 1
gene 1 39 9 0.755353 0 965 0.755353 1
gene 3 9 9 -0.0208054 1 1243 -0.0208054 1
gene 2 9 39 0.421723 1 1355 0.421723 0
genomeend 25

/* Organism #26 Fitness: 0.445994 Error: 0.454006 */
genomestart 26
trait 1 0.184898 0.0135522 0.00367991 0.0169335 0 0 0.0576869 0 
trait 2 0.178732 0 0.0105763 0.0234728 0.0172828 0.0182744 0.16284 0 
trait 3 0.668577 0.165259 0.401628 0.000164549 0.00162312 0 0 0.000148356 
node 1 1 1 1
node 2 1 1 1
node 3 1 1 1
node 4 3 0 2
node 9 1 0 0
node 39 1 0 0
gene 3 1 4 -0.64806 0 1 -0.64806 0
gene 1 2 4 -1.26472 0 2 -1.26472 0
gene 2 3 4 6.668 0 3 6.668 0
gene 1 2 9 4.45769 0 42 4.45769 1
gene 1 9 4 0.380455 0 43 0.380455 1
gene 3 2 39 1.295 0 480 1.295 1
gene 3 39 4 5.44679 0 481 5.44679 0
gene 1 39 39 0.0146283 1 511 0.0146283 0
gene 1 3 9 -0.270393 0 614 -0.270393 1
gene 1 39 9 -1.37289 0 965 -1.37289 1
gene 3 9 9 1.627 1 1243 1.627 1
genomeend 26

/* Organism #27 Fitness: 0.42942 Error: 0.47058 */
genomestart 27
trait 1 0.184898 0.0135522 0.00367991 0.0169335 0 0 0.0576869 0 
trait 2 0.225915 0 0.0105763 0.0312971 0.0172828 0.0182744 0 0 
trait 3 0.64092 0.153529 0.372658 0.000178494 0.00176067 0 0 0.000148356 
node 1 1 1 1
node 2 1 1 1
node 3 1 1 1
node 4 2 0 2
node 9 1 0 0
node 39 1 0 0
gene 3 1 4 -1.66467 0 1 -1.66467 0
gene 1 2 4 2.1292 0 2 2.1292 0
gene 2 3 4 6.3609 0 3 6.3609 0
gene 1 2 9 1.52914 0 42 1.52914 1
gene 1 9 4 -3.30102 0 43 -3.30102 1
gene 3 2 39 -2.57279 0 480 -2.57279 1
gene 3 39 4 6.55711 0 481 6.55711 1
gene 1 39 39 -0.584417 1 511 -0.584417 0
gene 1 3 9 0.774613 0 614 0.774613 1
gene 1 39 9 4.14003 0 965 4.14003 1
gene 3 9 9 -1.70017 1 1243 -1.70017 1
gene 2 9 39 1.26792 1 1355 1.26792 1
gene 2 3 39 -1.42173 0 1372 -1.42173 1
genomeend 27

/* Organism #28 Fitness: 0.450225 Error: 0.449775 */
genomestart 28
trait 1 0.184898 0.0135522 0.00367991 0.0169335 0 0 0.0576869 0 
trait 2 0.225915 0 0.0105763 0.0312971 0.0172828 0.0182744 0 0 
trait 3 0.707297 0.181683 0.442187 0.000145027 0.00143055 0 0 0.000148356 
node 1 1 1 1
node 2 1 1 1
node 3 1 1 1
node 4 2 0 2
node 9 1 0 0
node 39 1 0 0
gene 3 1 4 0.49816 0 1 0.49816 0
gene 1 2 4 5.1786 0 2 5.1786 0
gene 2 3 4 5.76458 0 3 5.76458 0
gene 1 2 9 0.696769 0 42 0.696769 1
gene 1 9 4 -3.45735 0 43 -3.45735 1
gene 3 2 39 -2.76569 0 480 -2.76569 1
gene 3 39 4 5.25982 0 481 5.25982 1
gene 1 39 39 0.337822 1 511 0.337822 1
gene 1 3 9 3.51524 0 614 3.51524 1
gene 1 39 9 2.82652 0 965 2.82652 1
gene 3 9 9 -0.139776 1 1243 -0.139776 1
gene 3 3 39 -0.610839 0 1467 -0.610839 1
genomeend 28

/* Organism #29 Fitness: 0.441603 Error: 0.458397 */
genomestart 29
trait 1 0.184898 0.0135522 0.00367991 0.0169335 0 0 0.0576869 0 
trait 2 0.225915 0 0.0105763 0.0312971 0.0172828 0.0182744 0 0 
trait 3 0.67964 0.169952 0.413217 0.000158972 0.0015681 0 0 0.000148356 
node 1 1 1 1
node 2 1 1 1
node 3 1 1 1
node 4 2 0 2
node 9 1 0 0
node 39 1 0 0
gene 3 1 4 1.85304 0 1 1.85304 0
gene 1 2 4 1.18168 0 2 1.18168 0
gene 2 3 4 8 0 3 8 0
gene 1 2 9 1.49957 0 42 1.49957 1
gene 1 9 4 -3.94956 0 43 -3.94956 1
gene 3 2 39 -1.65505 0 480 -1.65505 1
gene 3 39 4 6.13883 0 481 6.13883 1
gene 1 39 39 -1.18137 1 511 -1.18137 0
gene 1 3 9 1.405 0 614 1.405 1
gene 1 39 9 3.97899 0 965 3.97899 1
gene 3 9 9 0.35874 1 1243 0.35874 1
genomeend 29

/* Organism #30 Fitness: 0.442813 Error: 0.457187 */
genomestart 30
trait 1 0.184898 0.0135522 0.00367991 0.0169335 0 0 0.0576869 0 
trait 2 0.472663 0.380874 0.0105763 0.0312971 0.0172828 0.133929 0 0 
trait 3 0.71836 0.186375 0.453775 0.000139449 0.00137552 0 0 0.000148356 
node 1 1 1 1
node 2 1 1 1
node 3 1 1 1
node 4 2 0 2
node 9 1 0 0
node 39 1 0 0
gene 3 1 4 -2.82508 0 1 -2.82508 0
gene 1 2 4 2.28695 0 2 2.28695 0
gene 2 3 4 7.20064 0 3 7.20064 0
gene 1 2 9 0.477143 0 42 0.477143 1
gene 3 9 4 -0.289649 0 43 -0.289649 1
gene 3 2 39 -4.66408 0 480 -4.66408 1
gene 3 39 4 4.49924 0 481 4.49924 1
gene 1 39 39 -0.624781 1 511 -0.624781 0
gene 1 3 9 2.26108 0 614 2.26108 1
gene 1 39 9 -1.09558 0 965 -1.09558 1
gene 3 1 9 0.54724 0 1125 0.54724 1
genomeend 30

/* Species #8 : (Size 27) (AF 0.388301) (Age 30)  */


/* Organism #31 Fitness: 0.445994 Error: 0.454006 */
genomestart 31
trait 1 0.607884 0 0.381958 0 0.460019 0 0.243965 0.265122 
trait 2 0.2 0 0 0 0 0 0 0 
trait 3 0.298896 0.00184451 0 0 0 0.000291854 0 0 
node 1 1 1 1
node 2 3 1 1
node 3 3 1 1
node 4 3 0 2
node 6 3 0 0
gene 3 1 4 -0.082662 0 1 -0.082662 0
gene 2 2 4 -2.32997 0 2 -2.32997 1
gene 3 3 4 5.40603 0 3 5.40603 0
gene 1 4 4 -0.532667 1 6 -0.532667 1
gene 2 2 6 0.831595 0 13 0.831595 1
gene 2 6 4 -3.90679 0 14 -3.90679 1
gene 1 3 6 2.56536 0 68 2.56536 1
gene 2 1 6 -3.51313 0 99 -3.51313 0
genomeend 31

/* Organism #32 Fitness: 0.230291 Error: 0.669709 */
genomestart 32
trait 1 0 0.476451 0.381958 0 0 0.139064 0.243965 0 
trait 2 0.2 0 0 0 0 0 0 0 
trait 3 0.298896 0.00184451 0 0 0 0.000291854 0 0 
node 1 1 1 1
node 2 3 1 1
node 3 3 1 1
node 4 3 0 2
node 6 3 0 0
gene 3 1 4 -0.640573 0 1 -0.640573 0
gene 2 2 4 -0.918763 0 2 -0.918763 1
gene 3 3 4 6.13467 0 3 6.13467 1
gene 1 4 4 -0.340393 1 6 -0.340393 1
gene 2 2 6 1.57758 0 13 1.57758 1
gene 2 6 4 -4.53961 0 14 -4.53961 1
gene 1 3 6 2.36834 0 68 2.36834 1
gene 2 1 6 -4.15703 0 99 -4.15703 1
genomeend 32

/* Organism #33 Fitness: 0.45207 Error: 0.44793 */
genomestart 33
trait 1 0.215769 0 0.381958 0 0 0 0.243965 0 
trait 2 0.2 0 0 0 0 0.103813 0 0 
trait 3 0.298896 0.00184451 0 0 0 0.000291854 0 0 
node 1 1 1 1
node 2 3 1 1
node 3 3 1 1
node 4 3 0 2
node 6 3 0 0
gene 3 1 4 -2.28998 0 1 -2.28998 0
gene 2 2 4 -3.8798 0 2 -3.8798 1
gene 3 3 4 5.34312 0 3 5.34312 0
gene 1 4 4 -2.9178 1 6 -2.9178 1
gene 2 2 6 0.33534 0 13 0.33534 1
gene 2 6 4 -5.0767 0 14 -5.0767 1
gene 1 3 6 0.649551 0 68 0.649551 1
gene 2 1 6 -4.70871 0 99 -4.70871 0
genomeend 33

/* Organism #34 Fitness: 0.445994 Error: 0.454006 */
genomestart 34
trait 1 0.411826 0 0.381958 0 0.230009 0 0.243965 0.132561 
trait 2 0.2 0 0 0 0 0.103813 0 0 
trait 3 0.298896 0.00184451 0 0 0 0.000291854 0 0 
node 1 1 1 1
node 2 3 1 1
node 3 3 1 1
node 4 3 0 2
node 6 3 0 0
gene 3 1 4 -1.36482 0 1 -1.36482 0
gene 2 2 4 -5.27215 0 2 -5.27215 1
gene 3 3 4 4.16471 0 3 4.16471 0
gene 1 4 4 -1.14733 1 6 -1.14733 1
gene 2 2 6 0.341367 0 13 0.341367 1
gene 2 6 4 -2.49283 0 14 -2.49283 1
gene 1 3 6 1.43596 0 68 1.43596 1
gene 2 1 6 -4.01101 0 99 -4.01101 0
genomeend 34

/* Organism #35 Fitness: 0.437969 Error: 0.462031 */
genomestart 35
trait 1 0.215769 0 0.381958 0 0 0 0.243965 0 
trait 2 0.2 0 0 0 0 0 0 0 
trait 3 0.715879 0.00184451 0 0 0.640379 0.000291854 0 0.574001 
node 1 1 1 1
node 2 3 1 1
node 3 3 1 1
node 4 3 0 2
node 6 3 0 0
gene 3 1 4 1.38754 0 1 1.38754 0
gene 2 2 4 -0.0538492 0 2 -0.0538492 1
gene 3 3 4 6.55611 0 3 6.55611 0
gene 1 4 4 1.6516 1 6 1.6516 1
gene 2 2 6 0.588157 0 13 0.588157 1
gene 2 6 4 -1.34125 0 14 -1.34125 1
gene 1 3 6 1.65472 0 68 1.65472 1
gene 2 1 6 -3.39125 0 99 -3.39125 0
genomeend 35

/* Organism #36 Fitness: 0.442105 Error: 0.457895 */
genomestart 36
trait 1 0.222792 0 0.306378 5.72077e-06 0 0 0.195702 0.0133058 
trait 2 0.200111 0 0.00152924 0.00558951 0 0.000893813 0.00113124 0.000304818 
trait 3 0.298902 0.00183551 0 0.0100751 0 0.000275038 0.00759782 0.00287578 
node 1 1 1 1
node 2 3 1 1
node 3 3 1 1
node 4 3 0 2
node 6 3 0 0
gene 3 1 4 -2.57904 0 1 -2.57904 0
gene 2 2 4 -1.08693 0 2 -1.08693 1
gene 3 3 4 3.65248 0 3 3.65248 1
gene 1 4 4 -0.440363 1 6 -0.440363 1
gene 2 2 6 -0.315821 0 13 -0.315821 0
gene 2 6 4 -5.55849 0 14 -5.55849 1
gene 1 3 6 2.48775 0 68 2.48775 1
gene 2 1 6 -4.21298 0 99 -4.21298 0
genomeend 36

/* Organism #37 Fitness: 0.442996 Error: 0.457004 */
genomestart 37
trait 1 0.215769 0 0.381958 0 0 0 0.243965 0 
trait 2 0.2 0 0 0 0 0.207626 0 0 
trait 3 0.298896 0.00184451 0 0 0 0.000291854 0 0 
node 1 1 1 1
node 2 3 1 1
node 3 3 1 1
node 4 3 0 2
node 6 3 0 0
gene 3 1 4 1.63148 0 1 1.63148 0
gene 2 2 4 -0.377283 0 2 -0.377283 1
gene 3 3 4 3.50325 0 3 3.50325 0
gene 1 4 4 -0.643279 1 6 -0.643279 1
gene 2 2 6 0.540414 0 13 0.540414 1
gene 2 6 4 -0.767675 0 14 -0.767675 1
gene 1 3 6 0.83421 0 68 0.83421 1
gene 2 1 6 -5.03612 0 99 -5.03612 0
genomeend 37

/* Organism #38 Fitness: 0.449641 Error: 0.450359 */
genomestart 38
trait 1 0.607884 0 0.381958 0 0.460019 0 0.243965 0.265122 
trait 2 0.2 0 0 0.368526 0.323814 0 0 0 
trait 3 0.298896 0.00184451 0 0 0 0.000291854 0 0 
node 1 1 1 1
node 2 3 1 1
node 3 3 1 1
node 4 3 0 2
node 6 3 0 0
gene 3 1 4 -0.568491 0 1 -0.568491 0
gene 2 2 4 -4.13306 0 2 -4.13306 1
gene 3 3 4 5.50516 0 3 5.50516 0
gene 1 4 4 -0.312156 1 6 -0.312156 1
gene 2 2 6 1.19808 0 13 1.19808 1
gene 2 6 4 -8 0 14 -8 1
gene 1 3 6 1.58778 0 68 1.58778 1
gene 2 1 6 -3.42759 0 99 -3.42759 0
genomeend 38

/* Organism #39 Fitness: 0.44041 Error: 0.45959 */
genomestart 39
trait 1 0.215769 0 0.381958 0 0 0 0.243965 0 
trait 2 0.2 0 0 0 0 0 0 0 
trait 3 0.298896 0.00184451 0 0 0 0.000291854 0 0 
node 1 1 1 1
node 2 3 1 1
node 3 3 1 1
node 4 3 0 2
node 6 3 0 0
gene 3 1 4 -1.0258 0 1 -1.0258 0
gene 2 2 4 -1.29805 0 2 -1.29805 1
gene 3 3 4 7.47834 0 3 7.47834 1
gene 1 4 4 0.764073 1 6 0.764073 1
gene 2 2 6 2.28952 0 13 2.28952 1
gene 2 6 4 -3.51721 0 14 -3.51721 1
gene 1 3 6 2.14727 0 68 2.14727 1
gene 2 1 6 -4.6237 0 99 -4.6237 0
genomeend 39

/* Organism #40 Fitness: 0.443607 Error: 0.456393 */
genomestart 40
trait 1 0.215769 0 0.381958 0 0 0 0.243965 0 
trait 2 0.2 0 0 0 0 0.103813 0 0 
trait 3 0.298896 0.00184451 0 0 0 0.000291854 0 0 
node 1 1 1 1
node 2 3 1 1
node 3 3 1 1
node 4 3 0 2
node 6 3 0 0
gene 3 1 4 -0.0632902 0 1 -0.0632902 0
gene 2 2 4 -1.4337 0 2 -1.4337 1
gene 3 3 4 5.08389 0 3 5.08389 0
gene 1 4 4 -0.579122 1 6 -0.579122 1
gene 2 2 6 0.588053 0 13 0.588053 1
gene 2 6 4 -3.1706 0 14 -3.1706 1
gene 1 3 6 1.25731 0 68 1.25731 1
gene 2 1 6 -3.92388 0 99 -3.92388 0
genomeend 40

/* Organism #41 Fitness: 0.447234 Error: 0.452766 */
genomestart 41
trait 1 0.411826 0 0.381958 0 0.230009 0 0.243965 0.132561 
trait 2 0.2 0.13019 0 0 0 0 0.434041 0.0451391 
trait 3 0.298896 0.00184451 0 0 0 0.000291854 0 0 
node 1 1 1 1
node 2 3 1 1
node 3 3 1 1
node 4 3 0 2
node 6 3 0 0
gene 3 1 4 -1.04998 0 1 -1.04998 0
gene 2 2 4 -1.42919 0 2 -1.42919 1
gene 3 3 4 7.55098 0 3 7.55098 0
gene 1 4 4 -0.427899 1 6 -0.427899 1
gene 2 2 6 0.529068 0 13 0.529068 1
gene 2 6 4 -4.17036 0 14 -4.17036 1
gene 1 3 6 1.59564 0 68 1.59564 1
gene 2 1 6 -1.94804 0 99 -1.94804 0
gene 2 6 6 -1.44597 1 1289 -1.44597 1
genomeend 41

/* Organism #42 Fitness: 0.438277 Error: 0.461723 */
genomestart 42
trait 1 0.411826 0 0.381958 0 0.230009 0 0.243965 0.132561 
trait 2 0.2 0 0 0 0 0.103813 0 0 
trait 3 0.298896 0.00184451 0 0 0 0.000291854 0 0 
node 1 1 1 1
node 2 3 1 1
node 3 3 1 1
node 4 3 0 2
node 6 3 0 0
gene 3 1 4 0.35543 0 1 0.35543 0
gene 2 2 4 -0.848245 0 2 -0.848245 1
gene 3 3 4 6.45109 0 3 6.45109 0
gene 1 4 4 0.375356 1 6 0.375356 1
gene 2 2 6 0.674077 0 13 0.674077 1
gene 2 6 4 -1.92236 0 14 -1.92236 1
gene 1 3 6 0.966287 0 68 0.966287 1
gene 2 1 6 -4.69048 0 99 -4.69048 0
genomeend 42

/* Organism #43 Fitness: 0.449641 Error: 0.450359 */
genomestart 43
trait 1 0.411826 0 0.381958 0 0.230009 0 0.243965 0.132561 
trait 2 0.2 0 0 0 0 0 0 0 
trait 3 0.507388 0.00184451 0 0 0.32019 0.000291854 0 0.287 
node 1 1 1 1
node 2 3 1 1
node 3 3 1 1
node 4 3 0 2
node 6 3 0 0
gene 3 1 4 -0.0679774 0 1 -0.0679774 0
gene 2 2 4 -1.28174 0 2 -1.28174 1
gene 3 3 4 8 0 3 8 0
gene 1 4 4 -0.447818 1 6 -0.447818 1
gene 2 2 6 -0.604234 0 13 -0.604234 1
gene 2 6 4 -0.512105 0 14 -0.512105 1
gene 1 3 6 1.01071 0 68 1.01071 1
gene 2 1 6 -1.55382 0 99 -1.55382 0
genomeend 43

/* Organism #44 Fitness: 0.440203 Error: 0.459797 */
genomestart 44
trait 1 0.215769 0 0.381958 0 0 0 0.243965 0 
trait 2 0.2 0 0 0 0 0.103813 0 0 
trait 3 0.298896 0.00184451 0 0 0 0.000291854 0 0 
node 1 1 1 1
node 2 3 1 1
node 3 3 1 1
node 4 3 0 2
node 6 3 0 0
gene 3 1 4 -2.28998 0 1 -2.28998 0
gene 2 2 4 -3.05124 0 2 -3.05124 1
gene 3 3 4 5.34312 0 3 5.34312 0
gene 1 4 4 0.896814 1 6 0.896814 1
gene 2 2 6 0.516559 0 13 0.516559 1
gene 2 6 4 -5.0767 0 14 -5.0767 1
gene 1 3 6 -0.632784 0 68 -0.632784 1
gene 2 1 6 -4.70871 0 99 -4.70871 0
genomeend 44

/* Organism #45 Fitness: 0.444252 Error: 0.455748 */
genomestart 45
trait 1 0.215769 0 0.381958 0 0 0 0.243965 0 
trait 2 0.2 0.13019 0 0 0 0 0.434041 0.0451391 
trait 3 0.507388 0.00184451 0 0 0.32019 0.000291854 0 0.287 
node 1 1 1 1
node 2 3 1 1
node 3 3 1 1
node 4 3 0 2
node 6 3 0 0
gene 3 1 4 1.34306 0 1 1.34306 0
gene 2 2 4 -1.12862 0 2 -1.12862 1
gene 3 3 4 5.74163 0 3 5.74163 0
gene 1 4 4 1.26901 1 6 1.26901 1
gene 2 2 6 0.588157 0 13 0.588157 1
gene 2 6 4 -1.34125 0 14 -1.34125 1
gene 1 3 6 1.11742 0 68 1.11742 1
gene 2 1 6 -5.04829 0 99 -5.04829 0
gene 1 6 6 0.828874 1 1426 0.828874 1
genomeend 45

/* Organism #46 Fitness: 0.441847 Error: 0.458153 */
genomestart 46
trait 1 0.215769 0 0.381958 0 0 0 0.243965 0 
trait 2 0.2 0 0 0 0 0 0 0 
trait 3 0.298896 0.00184451 0 0 0 0.000291854 0 0 
node 1 1 1 1
node 2 3 1 1
node 3 3 1 1
node 4 3 0 2
node 6 3 0 0
gene 3 1 4 -1.09536 0 1 -1.09536 0
gene 2 2 4 -1.75658 0 2 -1.75658 1
gene 3 3 4 5.75917 0 3 5.75917 0
gene 1 4 4 0.696866 1 6 0.696866 1
gene 2 2 6 -0.448631 0 13 -0.448631 1
gene 2 6 4 -5.00887 0 14 -5.00887 1
gene 1 3 6 0.897895 0 68 0.897895 1
gene 2 1 6 -4.59246 0 99 -4.59246 0
genomeend 46

/* Organism #47 Fitness: 0.443593 Error: 0.456407 */
genomestart 47
trait 1 0.222792 0 0.306378 5.72077e-06 0 0 0.195702 0.0133058 
trait 2 0.200111 0.13019 0.00152924 0.00558951 0 0.000893813 0.435172 0.045444 
trait 3 0.298902 0.00183551 0 0.0100751 0 0.000275038 0.00759782 0.00287578 
node 1 1 1 1
node 2 3 1 1
node 3 3 1 1
node 4 3 0 2
node 6 3 0 0
gene 3 1 4 2.53899 0 1 2.53899 0
gene 2 2 4 -3.54659 0 2 -3.54659 1
gene 3 3 4 0.363819 0 3 0.363819 0
gene 1 4 4 2.01011 1 6 2.01011 1
gene 2 2 6 -1.46121 0 13 -1.46121 0
gene 2 6 4 -5.46262 0 14 -5.46262 1
gene 1 3 6 0.556148 0 68 0.556148 1
gene 2 1 6 0.0517063 0 99 0.0517063 0
genomeend 47

/* Organism #48 Fitness: 0.00809374 Error: 0.891906 */
genomestart 48
trait 1 0.411826 0 0.381958 0 0.230009 0 0.243965 0.132561 
trait 2 0.2 0 0 0 0 0 0 0 
trait 3 0.298896 0.00184451 0 0 0 0.000291854 0 0 
node 1 1 1 1
node 2 3 1 1
node 3 3 1 1
node 4 3 0 2
node 6 3 0 0
gene 3 1 4 -0.408952 0 1 -0.408952 0
gene 2 2 4 -1.61756 0 2 -1.61756 1
gene 3 3 4 5.57802 0 3 5.57802 0
gene 1 4 4 0.267412 1 6 0.267412 1
gene 2 2 6 -0.526923 0 13 -0.526923 1
gene 2 6 4 -1.19224 0 14 -1.19224 1
gene 1 3 6 -0.376491 0 68 -0.376491 1
gene 2 1 6 -3.44666 0 99 -3.44666 1
gene 2 6 6 -1.3814 1 1289 -1.3814 1
genomeend 48

/* Organism #49 Fitness: 0.00584846 Error: 0.894152 */
genomestart 49
trait 1 0.411826 0 0.381958 0 0.230009 0 0.243965 0.132561 
trait 2 0.2 0 0 0 0 0 0 0 
trait 3 0.298896 0.00184451 0 0 0 0.000291854 0 0 
node 1 1 1 1
node 2 3 1 1
node 3 3 1 1
node 4 3 0 2
node 6 3 0 0
gene 3 1 4 -1.18632 0 1 -1.18632 1
gene 2 2 4 -2.69061 0 2 -2.69061 1
gene 3 3 4 5.37457 0 3 5.37457 1
gene 1 4 4 0.182073 1 6 0.182073 1
gene 2 2 6 0.583468 0 13 0.583468 1
gene 2 6 4 -4.49174 0 14 -4.49174 1
gene 1 3 6 1.60745 0 68 1.60745 1
gene 2 1 6 -4.11092 0 99 -4.11092 0
genomeend 49

/* Organism #50 Fitness: 0.00648805 Error: 0.893512 */
genomestart 50
trait 1 0.222792 0 0.306378 5.72077e-06 0 0 0.195702 0.0133058 
trait 2 0.200111 0 0.00152924 0.00558951 0 0.000893813 0.00113124 0.000304818 
trait 3 0.507393 0.00183551 0 0.0100751 0.32019 0.000275038 0.00759782 0.289876 
node 1 1 1 1
node 2 3 1 1
node 3 3 1 1
node 4 3 0 2
node 6 3 0 0
gene 3 1 4 -0.135059 0 1 -0.135059 0
gene 2 2 4 -1.54992 0 2 -1.54992 1
gene 3 3 4 2.76919 0 3 2.76919 0
gene 1 4 4 1.14376 1 6 1.14376 1
gene 2 2 6 1.57494 0 13 1.57494 0
gene 2 6 4 -3.05851 0 14 -3.05851 1
gene 1 3 6 1.83418 0 68 1.83418 1
gene 2 1 6 -2.26688 0 99 -2.26688 1
gene 2 6 6 0.645501 1 1427 0.645501 1
genomeend 50

/* Organism #51 Fitness: 0.444267 Error: 0.455733 */
genomestart 51
trait 1 0.215769 0 0.381958 0 0 0 0.243965 0 
trait 2 0.2 0 0 0 0 0.103813 0 0 
trait 3 0.298896 0.00184451 0 0 0 0.000291854 0 0 
node 1 1 1 1
node 2 3 1 1
node 3 3 1 1
node 4 3 0 2
node 6 3 0 0
gene 3 1 4 0.453914 0 1 0.453914 0
gene 2 2 4 -1.12862 0 2 -1.12862 1
gene 3 3 4 5.10949 0 3 5.10949 0
gene 1 4 4 -0.507162 1 6 -0.507162 1
gene 2 2 6 -1.90269 0 13 -1.90269 1
gene 2 6 4 -5.09529 0 14 -5.09529 1
gene 1 3 6 -0.735701 0 68 -0.735701 1
gene 2 1 6 -3.08753 0 99 -3.08753 0
genomeend 51

/* Organism #52 Fitness: 0.449639 Error: 0.450361 */
genomestart 52
trait 1 0.215769 0 0.381958 0 0 0 0.243965 0 
trait 2 0.2 0 0 0 0 0 0 0 
trait 3 0.507388 0.00184451 0 0 0.32019 0.000291854 0 0.287 
node 1 1 1 1
node 2 3 1 1
node 3 3 1 1
node 4 3 0 2
node 6 3 0 0
gene 3 1 4 -1.43149 0 1 -1.43149 0
gene 2 2 4 -2.38455 0 2 -2.38455 1
gene 3 3 4 5.75041 0 3 5.75041 0
gene 1 4 4 0.535713 1 6 0.535713 1
gene 2 2 6 0.588157 0 13 0.588157 1
gene 2 6 4 -1.34125 0 14 -1.34125 1
gene 1 3 6 1.65472 0 68 1.65472 1
gene 2 1 6 -4.47621 0 99 -4.47621 0
genomeend 52

/* Organism #53 Fitness: 0.450808 Error: 0.449192 */
genomestart 53
trait 1 0.411826 0 0.381958 0 0.230009 0 0.243965 0.132561 
trait 2 0.2 0.13019 0 0 0 0 0.434041 0.0451391 
trait 3 0.298896 0.00184451 0 0 0 0.000291854 0 0 
node 1 1 1 1
node 2 3 1 1
node 3 3 1 1
node 4 3 0 2
node 6 3 0 0
gene 3 1 4 -0.438851 0 1 -0.438851 1
gene 2 2 4 -1.15259 0 2 -1.15259 1
gene 3 3 4 6.00316 0 3 6.00316 0
gene 1 4 4 0.0145305 1 6 0.0145305 1
gene 2 2 6 -0.124607 0 13 -0.124607 1
gene 2 6 4 -2.71146 0 14 -2.71146 1
gene 1 3 6 0.321994 0 68 0.321994 1
gene 2 1 6 -2.28807 0 99 -2.28807 0
gene 2 6 6 -0.782604 1 1289 -0.782604 1
genomeend 53

/* Organism #54 Fitness: 0.445436 Error: 0.454564 */
genomestart 54
trait 1 0.215769 0 0.381958 0 0 0 0.243965 0 
trait 2 0.2 0 0 0 0 0.207626 0 0 
trait 3 0.298896 0.00184451 0 0 0 0.000291854 0 0 
node 1 1 1 1
node 2 3 1 1
node 3 3 1 1
node 4 3 0 2
node 6 3 0 0
gene 3 1 4 2.18453 0 1 2.18453 0
gene 2 2 4 -3.939 0 2 -3.939 1
gene 3 3 4 2.39935 0 3 2.39935 0
gene 1 4 4 -3.00121 1 6 -3.00121 1
gene 2 2 6 2.27486 0 13 2.27486 1
gene 2 6 4 -5.7255 0 14 -5.7255 1
gene 1 3 6 2.40843 0 68 2.40843 1
gene 2 1 6 -5.49741 0 99 -5.49741 0
genomeend 54

/* Organism #55 Fitness: 0.445422 Error: 0.454578 */
genomestart 55
trait 1 0.41885 0 0.306378 5.72077e-06 0.230009 0 0.195702 0.145867 
trait 2 0.200111 0 0.00152924 0.00558951 0 0.000893813 0.00113124 0.000304818 
trait 3 0.298902 0.00183551 0 0.0100751 0 0.000275038 0.00759782 0.00287578 
node 1 1 1 1
node 2 3 1 1
node 3 3 1 1
node 4 3 0 2
node 6 3 0 0
gene 3 1 4 -1.65766 0 1 -1.65766 0
gene 2 2 4 -1.17657 0 2 -1.17657 1
gene 3 3 4 6.2647 0 3 6.2647 0
gene 1 4 4 0.635929 1 6 0.635929 1
gene 2 2 6 2.56172 0 13 2.56172 0
gene 2 6 4 -4.77576 0 14 -4.77576 1
gene 1 3 6 -0.473428 0 68 -0.473428 1
gene 2 1 6 -1.14251 0 99 -1.14251 0
genomeend 55

/* Organism #56 Fitness: 0.450223 Error: 0.449777 */
genomestart 56
trait 1 0.411826 0 0.381958 0 0.230009 0 0.243965 0.132561 
trait 2 0.2 0 0 0 0 0 0 0 
trait 3 0.298896 0.00184451 0 0 0 0.000291854 0 0 
node 1 1 1 1
node 2 3 1 1
node 3 3 1 1
node 4 3 0 2
node 6 3 0 0
gene 3 1 4 -2.28998 0 1 -2.28998 0
gene 2 2 4 -1.17657 0 2 -1.17657 1
gene 3 3 4 5.34312 0 3 5.34312 0
gene 1 4 4 -1.23995 1 6 -1.23995 1
gene 2 2 6 0.33534 0 13 0.33534 1
gene 2 6 4 -5.0767 0 14 -5.0767 1
gene 1 3 6 0.649551 0 68 0.649551 1
gene 2 1 6 0.472165 0 99 0.472165 0
gene 2 6 6 -0.782604 1 1289 -0.782604 1
genomeend 56

/* Organism #57 Fitness: 0.441786 Error: 0.458214 */
genomestart 57
trait 1 0.2297 0 0.164496 2.28831e-05 0 0 0.105116 0.035482 
trait 2 0.200445 0 0.00611698 0.022358 0 0.00357525 0.00452494 0.00121927 
trait 3 0.298956 0.00174364 0 0.026867 0 0.000234851 0.02033 0.0115031 
node 1 1 1 1
node 2 3 1 1
node 3 3 1 1
node 4 3 0 2
node 6 3 0 0
node 94 1 0 0
gene 3 1 4 -2.29229 0 1 -2.29229 0
gene 2 2 4 -1.47579 0 2 -1.47579 1
gene 3 3 4 0.00125791 0 3 0.00125791 0
gene 1 4 4 -0.886365 1 6 -0.886365 1
gene 2 2 6 0.383684 0 13 0.383684 1
gene 2 6 4 -2.9191 0 14 -2.9191 1
gene 3 3 6 1.23595 0 51 1.23595 0
gene 3 6 6 -2.60152 1 70 -2.60152 1
gene 2 1 6 -1.38221 0 99 -1.38221 0
gene 2 4 6 1.76199 1 575 1.76199 1
gene 3 3 94 3.69292 0 1126 3.69292 1
gene 3 94 6 3.58684 0 1127 3.58684 1
gene 2 94 4 -1.58008 0 1373 -1.58008 1
genomeend 57

/* Species #10 : (Size 20) (AF 0.401181) (Age 30)  */


/* Organism #58 Fitness: 0.437787 Error: 0.462213 */
genomestart 58
trait 1 0.349279 0.00112997 0.159111 0.00148829 0 2.27168e-05 0.00318805 0.238078 
trait 2 0.2 0 0 0 0 0 0 0 
trait 3 0.32074 0.0654857 0.0327555 0.00561908 0.103183 0 0.0473542 0.00218984 
node 1 2 1 1
node 2 2 1 1
node 3 2 1 1
node 4 1 0 2
node 30 1 0 0
node 118 1 0 0
gene 1 1 4 4.23022 0 1 4.23022 0
gene 2 2 4 3.55753 0 2 3.55753 1
gene 2 3 4 0.340885 0 3 0.340885 0
gene 2 2 30 -2.98052 0 326 -2.98052 1
gene 2 30 4 5.77381 0 327 5.77381 1
gene 1 3 30 1.86041 0 412 1.86041 1
gene 3 30 30 -0.548356 1 500 -0.548356 0
gene 1 4 4 -0.251009 1 684 -0.251009 1
gene 2 3 118 1 0 1375 0 1
gene 2 118 4 0.340885 0 1376 0 1
genomeend 58

/* Organism #59 Fitness: 0.444595 Error: 0.455405 */
genomestart 59
trait 1 0.263214 0.00211125 0.0506263 0.00150894 0 4.24445e-05 0.00323228 0.0757522 
trait 2 0.2 0 0 0 0 0 0 0 
trait 3 0.660181 0.0195547 0.274208 0.0027583 0.310859 0 0.332612 0.00222903 
node 1 2 1 1
node 2 2 1 1
node 3 2 1 1
node 4 3 0 2
node 30 1 0 0
gene 1 1 4 3.82757 0 1 3.82757 0
gene 2 2 4 2.88654 0 2 2.88654 1
gene 1 3 4 1.32777 0 3 1.32777 0
gene 1 2 30 0.814564 0 326 0.814564 1
gene 2 30 4 -1.48415 0 327 -1.48415 1
gene 1 3 30 4.60777 0 412 4.60777 1
gene 3 30 30 -1.46301 1 500 -1.46301 1
gene 1 4 4 -0.251174 1 684 -0.251174 1
genomeend 59

/* Organism #60 Fitness: 0.449641 Error: 0.450359 */
genomestart 60
trait 1 0.222405 0.00237888 0 0.00151457 0 4.78248e-05 0.00324435 0 
trait 2 0.2 0 0 0 0 0 0 0 
trait 3 0.320362 0.0195547 0.204086 0.00551659 0.377583 0.0444342 0 0.00229256 
node 1 2 1 1
node 2 2 1 1
node 3 2 1 1
node 4 1 0 2
node 30 1 0 0
gene 1 1 4 2.89815 0 1 2.89815 0
gene 2 2 4 0.0198195 0 2 0.0198195 1
gene 1 3 4 -0.46117 0 3 -0.46117 0
gene 2 2 30 -0.522989 0 326 -0.522989 1
gene 2 30 4 4.65104 0 327 4.65104 1
gene 1 3 30 1.1882 0 412 1.1882 1
gene 3 30 30 -0.298149 1 500 -0.298149 1
gene 1 4 4 -4.23654 1 684 -4.23654 1
genomeend 60

/* Organism #61 Fitness: 0.439206 Error: 0.460794 */
genomestart 61
trait 1 0.285842 0.00175442 0.0795556 0.00150143 0 3.52708e-05 0.0032162 0.119039 
trait 2 0.2 0 0 0 0 0 0 0 
trait 3 0.320551 0.0327429 0.0834316 0.00556784 0.285792 0.0444342 0.0236771 0.0022412 
node 1 2 1 1
node 2 2 1 1
node 3 2 1 1
node 4 1 0 2
node 30 1 0 0
node 118 1 0 0
gene 1 1 4 3.96934 0 1 3.96934 0
gene 2 2 4 2.70621 0 2 2.70621 1
gene 2 3 4 1.68667 0 3 1.68667 0
gene 2 2 30 -2.8755 0 326 -2.8755 1
gene 2 30 4 6.42246 0 327 6.42246 1
gene 1 3 30 -0.676461 0 412 -0.676461 1
gene 3 30 30 2.0395 1 500 2.0395 0
gene 1 4 4 -3.00605 1 684 -3.00605 1
gene 2 3 118 2.38817 0 1375 2.38817 1
gene 2 118 4 -0.164817 0 1376 -0.164817 1
genomeend 61

/* Organism #62 Fitness: 0.0310317 Error: 0.868968 */
genomestart 62
trait 1 0.316144 0.0019031 0.115717 0.00150456 0 3.82598e-05 0.0032229 0.173148 
trait 2 0.2 0 0 0 0 0 0 0 
trait 3 0.320506 0.077257 0.0323405 0.00555564 0.150313 0 0.0947084 0.00201816 
node 1 2 1 1
node 2 2 1 1
node 3 2 1 1
node 4 1 0 2
node 30 1 0 0
gene 1 1 4 3.10829 0 1 3.10829 0
gene 2 2 4 6.09409 0 2 6.09409 1
gene 1 3 4 -0.866896 0 3 -0.866896 0
gene 2 2 30 -2.86861 0 326 -2.86861 1
gene 2 30 4 2.65095 0 327 2.65095 1
gene 1 3 30 4.86615 0 412 4.86615 1
gene 3 30 30 0.735944 1 500 0.735944 0
gene 1 4 4 -1.3582 1 684 -1.3582 1
gene 3 1 30 0.0839415 0 1423 0 1
genomeend 62

/* Organism #63 Fitness: 0.44848 Error: 0.45152 */
genomestart 63
trait 1 0.285842 0.00175442 0.0795556 0.00150143 0 3.52708e-05 0.0032162 0.119039 
trait 2 0 0 0 0 0 0 0 0.230736 
trait 3 0.320551 0.0522976 0.15341 0.00556784 0.194973 0 0.0236771 0.0022412 
node 1 2 1 1
node 2 2 1 1
node 3 2 1 1
node 4 1 0 2
node 30 1 0 0
node 118 1 0 0
gene 1 1 4 4.28698 0 1 4.28698 0
gene 2 2 4 2.39119 0 2 2.39119 1
gene 1 3 4 0.0904755 0 3 0.0904755 0
gene 2 2 30 -1.62616 0 326 -1.62616 1
gene 2 30 4 -1.63751 0 327 -1.63751 1
gene 1 3 30 0.702842 0 412 0.702842 1
gene 3 30 30 -2.20232 1 500 -2.20232 0
gene 1 4 4 -0.418502 1 684 -0.418502 1
gene 2 3 118 -0.722523 0 1375 -0.722523 1
gene 2 118 4 -0.0564711 0 1376 -0.0564711 1
genomeend 63

/* Organism #64 Fitness: 0.450808 Error: 0.449192 */
genomestart 64
trait 1 0.304023 0.00184363 0.101253 0.00150331 0 3.70642e-05 0.00322022 0.151504 
trait 2 0.2 0 0 0 0 0 0 0 
trait 3 0.320524 0.0584139 0.153362 0.00556052 0.218779 0 0.0473542 0.0021655 
node 1 2 1 1
node 2 2 1 1
node 3 2 1 1
node 4 1 0 2
node 30 1 0 0
gene 1 1 4 4.30501 0 1 4.30501 0
gene 2 2 4 2.88654 0 2 2.88654 1
gene 1 3 4 -0.46117 0 3 -0.46117 0
gene 2 2 30 -4.72329 0 326 -4.72329 1
gene 2 30 4 -1.77386 0 327 -1.77386 1
gene 1 3 30 1.67501 0 412 1.67501 1
gene 3 30 30 -0.139184 1 500 -0.139184 1
gene 1 4 4 0.655212 1 684 0.655212 1
genomeend 64

/* Organism #65 Fitness: 0.443593 Error: 0.456407 */
genomestart 65
trait 1 0.350893 0.00160574 0.159111 0.00149831 0 3.22817e-05 0.0032095 0.238078 
trait 2 0.2 0 0 0 0 0 0 0 
trait 3 0.320596 0.0651167 0.0325001 0.00558004 0.102798 0 0.0473542 0.00217362 
node 1 2 1 1
node 2 2 1 1
node 3 2 1 1
node 4 1 0 2
node 30 1 0 0
gene 1 1 4 4.27707 0 1 4.27707 0
gene 2 2 4 1.34578 0 2 1.34578 1
gene 1 3 4 0.672938 0 3 0.672938 0
gene 2 2 30 -3.13544 0 326 -3.13544 1
gene 2 30 4 2.65095 0 327 2.65095 1
gene 1 3 30 -0.444044 0 412 -0.444044 1
gene 3 30 30 2.68965 1 500 2.68965 1
gene 1 4 4 -1.3582 1 684 -1.3582 1
genomeend 65

/* Organism #66 Fitness: 0.440447 Error: 0.459553 */
genomestart 66
trait 1 0.385642 0.00130838 0.202505 0.00149205 0 2.63036e-05 0.0031961 0.303009 
trait 2 0.2 0 0 0 0 0 0 0 
trait 3 0.320686 0.0777184 0.0326598 0.00560444 0.150795 0 0.0947084 0.00203844 
node 1 2 1 1
node 2 2 1 1
node 3 2 1 1
node 4 1 0 2
node 30 1 0 0
gene 1 1 4 4.53588 0 1 4.53588 0
gene 2 2 4 8 0 2 8 1
gene 2 3 4 0.755779 0 3 0.755779 0
gene 2 2 30 -5.19917 0 326 -5.19917 1
gene 2 30 4 8 0 327 8 1
gene 1 3 30 3.13357 0 412 3.13357 1
gene 2 30 30 -0.502581 1 500 -0.502581 1
gene 1 4 4 2.06176 1 684 2.06176 1
genomeend 66

/* Organism #67 Fitness: 0.441049 Error: 0.458951 */
genomestart 67
trait 1 0.385642 0.00130838 0.202505 0.00149205 0 2.63036e-05 0.0031961 0.303009 
trait 2 0.2 0 0 0 0 0 0 0 
trait 3 0.320686 0 0.0326598 0.114635 0 0 0.0947084 0.00203844 
node 1 2 1 1
node 2 2 1 1
node 3 2 1 1
node 4 1 0 2
node 30 1 0 0
gene 1 1 4 4.7553 0 1 4.7553 0
gene 2 2 4 7.66604 0 2 7.66604 1
gene 2 3 4 -1.04203 0 3 -1.04203 0
gene 2 2 30 -0.402016 0 326 -0.402016 1
gene 2 30 4 8 0 327 8 1
gene 1 3 30 1.55379 0 412 1.55379 1
gene 3 30 30 -0.628164 1 500 -0.628164 1
gene 1 4 4 0.221477 1 684 0.221477 1
genomeend 67

/* Organism #68 Fitness: 0.441991 Error: 0.458009 */
genomestart 68
trait 1 0.316144 0.0019031 0.115717 0.00150456 0 3.82598e-05 0.0032229 0.173148 
trait 2 0.2 0 0 0 0 0 0 0 
trait 3 0.320506 0.077257 0.0323405 0.00555564 0.150313 0 0.0947084 0.00201816 
node 1 2 1 1
node 2 2 1 1
node 3 2 1 1
node 4 3 0 2
node 30 1 0 0
gene 1 1 4 2.87413 0 1 2.87413 0
gene 2 2 4 6.64559 0 2 6.64559 1
gene 1 3 4 0.39583 0 3 0.39583 1
gene 2 2 30 -2.02893 0 326 -2.02893 1
gene 2 30 4 2.18922 0 327 2.18922 1
gene 1 3 30 1.88934 0 412 1.88934 1
gene 3 30 30 0.997886 1 500 0.997886 1
gene 1 4 4 -1.02841 1 684 -1.02841 1
genomeend 68

/* Organism #69 Fitness: 0.443637 Error: 0.456363 */
genomestart 69
trait 1 0.36746 0.00121918 0.180808 0.00149017 0 2.45102e-05 0.00319207 0.270544 
trait 2 0.2 0 0 0 0 0 0 0 
trait 3 0.320713 0.071602 0.0327076 0.00561176 0.126989 0 0.0710313 0.00211414 
node 1 2 1 1
node 2 2 1 1
node 3 2 1 1
node 4 1 0 2
node 30 1 0 0
node 118 1 0 0
gene 1 1 4 4.49276 0 1 4.49276 0
gene 2 2 4 5.77877 0 2 5.77877 1
gene 2 3 4 0.78085 0 3 0.78085 0
gene 2 2 30 -3.85191 0 326 -3.85191 1
gene 2 30 4 6.88691 0 327 6.88691 1
gene 1 3 30 1.76771 0 412 1.76771 1
gene 3 30 30 -0.34377 1 500 -0.34377 0
gene 1 4 4 0.589179 1 684 0.589179 1
gene 2 3 118 1 0 1375 0 1
gene 2 118 4 0.340885 0 1376 0 1
genomeend 69

/* Organism #70 Fitness: 0.447234 Error: 0.452766 */
genomestart 70
trait 1 0.316144 0.0019031 0.115717 0.00150456 0 3.82598e-05 0.0032229 0.173148 
trait 2 0.2 0 0 0 0 0 0 0 
trait 3 0.320506 0.0525149 0.0323405 0.00555564 0.0548009 0 0 0.00230879 
node 1 2 1 1
node 2 2 1 1
node 3 2 1 1
node 4 3 0 2
node 30 1 0 0
gene 1 1 4 2.63998 0 1 2.63998 0
gene 2 2 4 7.1971 0 2 7.1971 1
gene 1 3 4 -0.866896 0 3 -0.866896 0
gene 2 2 30 -2.86861 0 326 -2.86861 1
gene 2 30 4 2.65095 0 327 2.65095 1
gene 1 3 30 -1.08747 0 412 -1.08747 1
gene 3 30 30 1.25983 1 500 1.25983 1
gene 1 4 4 -1.3582 1 684 -1.3582 1
genomeend 70

/* Organism #71 Fitness: 0.445361 Error: 0.454639 */
genomestart 71
trait 1 0.269275 0.00214099 0.0578586 0.00150957 0 4.30423e-05 0.00323362 0.086574 
trait 2 0.2 0 0 0 0 0 0 0 
trait 3 0.320434 0.0458122 0.153202 0.00553611 0.170782 0 0 0.00230067 
node 1 2 1 1
node 2 2 1 1
node 3 2 1 1
node 4 3 0 2
node 30 1 0 0
gene 1 1 4 3.47249 0 1 3.47249 0
gene 2 2 4 5.04182 0 2 5.04182 1
gene 1 3 4 -0.664033 0 3 -0.664033 0
gene 2 2 30 -1.70576 0 326 -1.70576 1
gene 2 30 4 0.438542 0 327 0.438542 1
gene 1 3 30 0.0503673 0 412 0.0503673 1
gene 3 30 30 0.480839 1 500 0.480839 1
gene 1 4 4 -0.351496 1 684 -0.351496 1
genomeend 71

/* Organism #72 Fitness: 0.00935122 Error: 0.890649 */
genomestart 72
trait 1 0.349279 0.00112997 0.159111 0.00148829 0 2.27168e-05 0.00318805 0.238078 
trait 2 0.2 0 0 0 0 0 0 0 
trait 3 0.32074 0.0654857 0.0327555 0.00561908 0.103183 0 0.0473542 0.00218984 
node 1 2 1 1
node 2 2 1 1
node 3 2 1 1
node 4 1 0 2
node 30 1 0 0
node 118 1 0 0
gene 1 1 4 4.63975 0 1 4.63975 1
gene 2 2 4 2.56301 0 2 2.56301 1
gene 2 3 4 -0.519039 0 3 -0.519039 0
gene 2 2 30 -3.87206 0 326 -3.87206 1
gene 2 30 4 4.18955 0 327 4.18955 1
gene 1 3 30 0.619379 0 412 0.619379 1
gene 3 30 30 0.178264 1 500 0.178264 0
gene 1 4 4 -1.94396 1 684 -1.94396 1
gene 2 3 118 0.149886 0 1375 0.149886 1
gene 2 118 4 0.385518 0 1376 0.385518 1
genomeend 72

/* Organism #73 Fitness: 0.448974 Error: 0.451026 */
genomestart 73
trait 1 0.349279 0.00112997 0.159111 0.00148829 0 2.27168e-05 0.00318805 0.238078 
trait 2 0.2 0 0 0 0 0 0 0 
trait 3 0.32074 0.0654857 0.0327555 0.00561908 0.103183 0 0.0473542 0.00218984 
node 1 2 1 1
node 2 2 1 1
node 3 2 1 1
node 4 1 0 2
node 30 1 0 0
node 118 1 0 0
gene 1 1 4 3.70699 0 1 3.70699 0
gene 2 2 4 2.63722 0 2 2.63722 1
gene 2 3 4 1.62195 0 3 1.62195 0
gene 2 2 30 -2.24127 0 326 -2.24127 1
gene 2 30 4 5.32931 0 327 5.32931 1
gene 1 3 30 0.608754 0 412 0.608754 1
gene 3 30 30 -0.154982 1 500 -0.154982 0
gene 1 4 4 0.223006 1 684 0.223006 1
gene 2 3 118 2.1702 0 1375 2.1702 1
gene 2 118 4 0.63139 0 1376 0.63139 1
genomeend 73

/* Organism #74 Fitness: 0.442813 Error: 0.457187 */
genomestart 74
trait 1 0.269275 0.00214099 0.0578586 0.00150957 0 4.30423e-05 0.00323362 0.086574 
trait 2 0.2 0 0 0 0 0 0 0 
trait 3 0.320434 0.0705542 0.153202 0.00553611 0.266295 0 0.0947084 0.00201005 
node 1 2 1 1
node 2 2 1 1
node 3 2 1 1
node 4 1 0 2
node 30 1 0 0
gene 1 1 4 4.30501 0 1 4.30501 0
gene 2 2 4 2.88654 0 2 2.88654 1
gene 1 3 4 1.65856 0 3 1.65856 0
gene 1 2 30 -0.542903 0 326 -0.542903 1
gene 2 30 4 1.7275 0 327 1.7275 1
gene 1 3 30 1.1882 0 412 1.1882 1
gene 3 30 30 0.735944 1 500 0.735944 0
gene 1 4 4 0.655212 1 684 0.655212 1
genomeend 74

/* Organism #75 Fitness: 0.43541 Error: 0.46459 */
genomestart 75
trait 1 0.326651 0.0014868 0.130182 0.0014958 0 2.98905e-05 0.00320414 0.194791 
trait 2 0.2 0 0 0 0 0 0 0 
trait 3 0.66037 0.0327429 0.153553 0.00280954 0.219068 0 0.356289 0.00217767 
node 1 2 1 1
node 2 2 1 1
node 3 2 1 1
node 4 1 0 2
node 30 1 0 0
node 118 1 0 0
gene 1 1 4 3.44068 0 1 3.44068 0
gene 2 2 4 7.37137 0 2 7.37137 1
gene 2 3 4 2.06649 0 3 2.06649 0
gene 2 2 30 -4.17105 0 326 -4.17105 1
gene 2 30 4 7.47936 0 327 7.47936 1
gene 1 3 30 2.57102 0 412 2.57102 1
gene 3 30 30 -1.03108 1 500 -1.03108 0
gene 1 4 4 -1.51787 1 684 -1.51787 1
gene 2 3 118 1.23707 0 1375 1.23707 1
gene 2 118 4 -1.75725 0 1376 -1.75725 1
genomeend 75

/* Organism #76 Fitness: 0.440066 Error: 0.459934 */
genomestart 76
trait 1 0.222405 0.00237888 0 0.00151457 0 4.78248e-05 0.00324435 0 
trait 2 0.2 0 0 0 0 0 0 0 
trait 3 0.320362 0.0391094 0.274064 0.00551659 0.286764 0 0 0.00229256 
node 1 2 1 1
node 2 2 1 1
node 3 2 1 1
node 4 1 0 2
node 30 1 0 0
gene 1 1 4 4.43602 0 1 4.43602 0
gene 2 2 4 3.72918 0 2 3.72918 1
gene 1 3 4 -1.95114 0 3 -1.95114 0
gene 1 2 30 -1.37806 0 326 -1.37806 1
gene 2 30 4 -0.653915 0 327 -0.653915 1
gene 1 3 30 0.173571 0 412 0.173571 1
gene 3 30 30 0.949299 1 500 0.949299 1
gene 1 4 4 1.53556 1 684 1.53556 1
genomeend 76

/* Organism #77 Fitness: 0.442138 Error: 0.457862 */
genomestart 77
trait 1 0.222405 0.00237888 0 0.00151457 0 4.78248e-05 0.00324435 0 
trait 2 0.2 0 0 0 0 0 0 0 
trait 3 0.320362 0.0195547 0.204086 0.00551659 0.377583 0.0444342 0 0.00229256 
node 1 2 1 1
node 2 2 1 1
node 3 2 1 1
node 4 1 0 2
node 30 1 0 0
gene 1 1 4 3.77884 0 1 3.77884 0
gene 2 2 4 -1.01327 0 2 -1.01327 1
gene 1 3 4 2.4505 0 3 2.4505 0
gene 2 2 30 -1.98204 0 326 -1.98204 1
gene 2 30 4 -0.0804233 0 327 -0.0804233 1
gene 1 3 30 -1.73425 0 412 -1.73425 1
gene 3 30 30 0.218676 1 500 0.218676 1
gene 1 4 4 -3.64594 1 684 -3.64594 1
genomeend 77

/* Species #14 : (Size 19) (AF 0.374572) (Age 29)  */


/* Organism #78 Fitness: 0.442796 Error: 0.457204 */
genomestart 78
trait 1 0.2297 0 0.164496 2.28831e-05 0 0 0.105116 0.035482 
trait 2 0.200445 0 0.00611698 0.022358 0 0.00357525 0.00452494 0.00121927 
trait 3 0.298956 0.00174364 0 0.026867 0 0.000234851 0.02033 0.0115031 
node 1 1 1 1
node 2 3 1 1
node 3 3 1 1
node 4 3 0 2
node 6 3 0 0
node 94 1 0 0
gene 3 1 4 -1.64104 0 1 -1.64104 0
gene 2 2 4 0.241174 0 2 0.241174 1
gene 3 3 4 -1.14668 0 3 -1.14668 0
gene 1 4 4 0.0987501 1 6 0.0987501 1
gene 2 2 6 2.5362 0 13 2.5362 1
gene 2 6 4 -2.47126 0 14 -2.47126 1
gene 3 3 6 2.66103 0 51 2.66103 0
gene 3 6 6 -0.943582 1 70 -0.943582 1
gene 2 1 6 0.0179279 0 99 0.0179279 0
gene 2 4 6 0.349375 1 575 0.349375 1
gene 3 3 94 1.95832 0 1126 1.95832 1
gene 3 94 6 2.78855 0 1127 2.78855 1
gene 2 94 4 -0.482493 0 1373 -0.482493 1
genomeend 78

/* Organism #79 Fitness: 0.447811 Error: 0.452189 */
genomestart 79
trait 1 0.193341 0 0.354006 0.0118536 0 0.2093 0.142592 0.0371452 
trait 2 0.200657 0 0.00305849 0.011179 0 0.00209454 0.00226247 0.00421154 
trait 3 0.298885 0.00186275 0 0.0276599 0 0.000252486 0.0205407 0.00575156 
node 1 1 1 1
node 2 3 1 1
node 3 3 1 1
node 4 3 0 2
node 6 3 0 0
node 94 1 0 0
gene 3 1 4 -1.13076 0 1 -1.13076 0
gene 2 2 4 -0.00657455 0 2 -0.00657455 0
gene 3 3 4 -0.511461 0 3 -0.511461 0
gene 1 4 4 1.68742 1 6 1.68742 1
gene 2 2 6 3.411 0 13 3.411 0
gene 2 6 4 -2.23324 0 14 -2.23324 1
gene 3 3 6 2.55535 0 51 2.55535 0
gene 3 6 6 0.323923 1 70 0.323923 1
gene 2 1 6 0.0250428 0 99 0.0250428 0
gene 2 4 6 1.88835 1 575 1.88835 1
gene 3 3 94 0.94318 0 1126 0.94318 1
gene 3 94 6 2.72961 0 1127 2.72961 1
gene 2 94 4 -0.482493 0 1373 -0.482493 1
genomeend 79

/* Organism #80 Fitness: 0.442752 Error: 0.457248 */
genomestart 80
trait 1 0.2297 0 0.164496 2.28831e-05 0 0 0.105116 0.035482 
trait 2 0.200445 0 0.00611698 0.022358 0 0.00357525 0.00452494 0.00121927 
trait 3 0.298956 0.00174364 0 0.026867 0 0.000234851 0.02033 0.0115031 
node 1 1 1 1
node 2 3 1 1
node 3 3 1 1
node 4 3 0 2
node 6 3 0 0
node 94 1 0 0
gene 3 1 4 -1.64104 0 1 -1.64104 0
gene 2 2 4 0.241174 0 2 0.241174 1
gene 3 3 4 -1.14668 0 3 -1.14668 0
gene 1 4 4 0.0987501 1 6 0.0987501 1
gene 2 2 6 2.5362 0 13 2.5362 1
gene 2 6 4 -2.47126 0 14 -2.47126 1
gene 3 3 6 2.66103 0 51 2.66103 0
gene 3 6 6 -0.943582 1 70 -0.943582 1
gene 2 1 6 0.0179279 0 99 0.0179279 0
gene 2 4 6 0.349375 1 575 0.349375 1
gene 3 3 94 1.95832 0 1126 1.95832 1
gene 3 94 6 2.78855 0 1127 2.78855 1
gene 2 94 4 -0.482493 0 1373 -0.482493 1
genomeend 80

/* Organism #81 Fitness: 0.442813 Error: 0.457187 */
genomestart 81
trait 1 0.193341 0 0.354006 0.0118536 0 0.2093 0.142592 0.0371452 
trait 2 0.200657 0 0.00305849 0.011179 0 0.00209454 0.00226247 0.00421154 
trait 3 0.298885 0.00186275 0 0.0276599 0 0.000252486 0.0205407 0.00575156 
node 1 1 1 1
node 2 3 1 1
node 3 3 1 1
node 4 3 0 2
node 6 3 0 0
node 94 1 0 0
gene 3 1 4 -1.64104 0 1 -1.64104 0
gene 2 2 4 0.241174 0 2 0.241174 0
gene 3 3 4 -1.14668 0 3 -1.14668 0
gene 1 4 4 3.2761 1 6 3.2761 1
gene 2 2 6 4.28579 0 13 4.28579 0
gene 2 6 4 -2.47126 0 14 -2.47126 1
gene 3 3 6 2.44966 0 51 2.44966 0
gene 3 6 6 1.59143 1 70 1.59143 1
gene 2 1 6 0.0321577 0 99 0.0321577 0
gene 2 4 6 3.42732 1 575 3.42732 1
gene 3 3 94 1.95832 0 1126 1.95832 1
gene 3 94 6 2.67067 0 1127 2.67067 1
gene 3 2 94 -0.761194 0 1234 -0.761194 1
genomeend 81

/* Organism #82 Fitness: 0.44906 Error: 0.45094 */
genomestart 82
trait 1 0.153441 0 0.527658 0.02369 0 0.418601 0.169952 0.0393629 
trait 2 0.100435 0 0 0.00558951 0 0.00150764 0.00113124 0.448508 
trait 3 0.298846 0.0019276 0 0.0291525 0 0.000260467 0.0213272 0.00287578 
node 1 1 1 1
node 2 3 1 1
node 3 3 1 1
node 4 3 0 2
node 6 3 0 0
node 94 1 0 0
gene 3 1 4 -0.400554 0 1 -0.400554 0
gene 2 2 4 0.473834 0 2 0.473834 0
gene 3 3 4 -0.651436 0 3 -0.651436 1
gene 1 4 4 -1.98157 1 6 -1.98157 1
gene 2 2 6 0.277994 0 13 0.277994 0
gene 2 6 4 2.8196 0 14 2.8196 1
gene 3 3 6 -1.83643 0 51 -1.83643 0
gene 3 6 6 -0.550046 1 70 -0.550046 1
gene 2 1 6 0.208631 0 99 0.208631 0
gene 2 4 6 2.80041 1 575 2.80041 1
gene 3 3 94 -0.158561 0 1126 -0.158561 1
gene 3 94 6 2.67067 0 1127 2.67067 1
gene 3 2 94 -0.761194 0 1234 -0.761194 1
genomeend 82

/* Organism #83 Fitness: 0.440699 Error: 0.459301 */
genomestart 83
trait 1 0.2297 0 0.164496 2.28831e-05 0 0 0.105116 0.035482 
trait 2 0.200445 0 0.00611698 0.022358 0 0.00357525 0.00452494 0.00121927 
trait 3 0.298956 0.00174364 0 0.026867 0 0.000234851 0.02033 0.0115031 
node 1 1 1 1
node 2 3 1 1
node 3 3 1 1
node 4 3 0 2
node 6 3 0 0
node 94 1 0 0
gene 3 1 4 -2.50837 0 1 -2.50837 0
gene 2 2 4 -0.205227 0 2 -0.205227 1
gene 3 3 4 -2.89765 0 3 -2.89765 0
gene 1 4 4 -0.423116 1 6 -0.423116 1
gene 2 2 6 0.776251 0 13 0.776251 1
gene 2 6 4 -0.824613 0 14 -0.824613 1
gene 3 3 6 1.35094 0 51 1.35094 0
gene 3 6 6 0.533984 1 70 0.533984 1
gene 2 1 6 -1.25584 0 99 -1.25584 0
gene 2 4 6 0.145901 1 575 0.145901 1
gene 3 3 94 2.11276 0 1126 2.11276 1
gene 3 94 6 2.78855 0 1127 2.78855 1
genomeend 83

/* Organism #84 Fitness: 0.00584846 Error: 0.894152 */
genomestart 84
trait 1 0.156982 0 0.543516 0.0236843 0 0.418601 0.180069 0.0388085 
trait 2 0.200869 0 0 0 0 0.000613829 0 0.0072038 
trait 3 0.298814 0.00198186 0 0.0284528 0 0.000270122 0.0207513 0 
node 1 1 1 1
node 2 3 1 1
node 3 3 1 1
node 4 3 0 2
node 6 3 0 0
node 94 1 0 0
gene 3 1 4 -0.620468 0 1 -0.620468 0
gene 2 2 4 -0.254323 0 2 -0.254323 0
gene 3 3 4 0.123761 0 3 0.123761 0
gene 1 4 4 3.2761 1 6 3.2761 1
gene 2 2 6 4.28579 0 13 4.28579 0
gene 2 6 4 -1.99523 0 14 -1.99523 1
gene 3 3 6 2.44966 0 51 2.44966 0
gene 3 6 6 1.59143 1 70 1.59143 1
gene 2 1 6 0.0321577 0 99 0.0321577 0
gene 2 4 6 3.42732 1 575 3.42732 1
gene 3 3 94 -0.071963 0 1126 -0.071963 1
gene 3 94 6 2.67067 0 1127 2.67067 1
gene 3 2 94 -0.761194 0 1234 -0.761194 1
gene 2 1 94 0.999743 0 1479 0.999743 1
genomeend 84

/* Organism #85 Fitness: 0.447811 Error: 0.452189 */
genomestart 85
trait 1 0.193341 0 0.354006 0.0118536 0 0.2093 0.142592 0.0371452 
trait 2 0.200657 0 0.00305849 0.011179 0 0.00209454 0.00226247 0.00421154 
trait 3 0.298885 0.00186275 0 0.0276599 0 0.000252486 0.0205407 0.00575156 
node 1 1 1 1
node 2 3 1 1
node 3 3 1 1
node 4 3 0 2
node 6 3 0 0
node 94 1 0 0
gene 3 1 4 -1.29128 0 1 -1.29128 0
gene 2 2 4 1.32052 0 2 1.32052 1
gene 3 3 4 -0.954529 0 3 -0.954529 0
gene 1 4 4 2.05271 1 6 2.05271 1
gene 2 2 6 2.05132 0 13 2.05132 1
gene 2 6 4 -3.88569 0 14 -3.88569 1
gene 3 3 6 3.59914 0 51 3.59914 0
gene 3 6 6 -0.909609 1 70 -0.909609 1
gene 2 1 6 0.214159 0 99 0.214159 0
gene 2 4 6 -0.768519 1 575 -0.768519 1
gene 3 3 94 -0.208153 0 1126 -0.208153 1
gene 3 94 6 1.42897 0 1127 1.42897 1
gene 3 2 94 -2.51865 0 1234 -2.51865 1
genomeend 85

/* Organism #86 Fitness: 0.0045852 Error: 0.895415 */
genomestart 86
trait 1 0.1499 0 0.511799 0.0236958 0 0.418601 0.159835 0.0399173 
trait 2 0 0 0 0.011179 0 0.00240145 0.00226247 0.889813 
trait 3 0.298879 0.00187333 0 0.0298522 0 0.000250812 0.0219031 0.00575156 
node 1 1 1 1
node 2 3 1 1
node 3 3 1 1
node 4 3 0 2
node 6 3 0 0
node 94 1 0 0
gene 3 1 4 -1.98543 0 1 -1.98543 0
gene 2 2 4 0.190946 0 2 0.190946 1
gene 3 3 4 -1.15329 0 3 -1.15329 1
gene 1 4 4 -0.464261 1 6 -0.464261 1
gene 2 2 6 2.07013 0 13 2.07013 1
gene 2 6 4 1.83962 0 14 1.83962 1
gene 3 3 6 -1.10082 0 51 -1.10082 0
gene 3 6 6 -1.63161 1 70 -1.63161 1
gene 2 1 6 1.35633 0 99 1.35633 1
gene 2 4 6 2.09431 1 575 2.09431 1
gene 3 3 94 -0.221023 0 1126 -0.221023 1
gene 3 94 6 2.09348 0 1127 2.09348 1
gene 3 2 94 -1.60479 0 1234 -1.60479 1
genomeend 86

/* Organism #87 Fitness: 0.444595 Error: 0.455405 */
genomestart 87
trait 1 0.2297 0 0.164496 2.28831e-05 0 0 0.105116 0.035482 
trait 2 0.200445 0 0.00611698 0.022358 0 0.00357525 0.00452494 0.00121927 
trait 3 0.298956 0.00174364 0 0.026867 0 0.000234851 0.02033 0.0115031 
node 1 1 1 1
node 2 3 1 1
node 3 3 1 1
node 4 3 0 2
node 6 3 0 0
node 94 1 0 0
gene 3 1 4 -0.620197 0 1 -0.620197 0
gene 2 2 4 1.29265 0 2 1.29265 1
gene 3 3 4 -1.74948 0 3 -1.74948 0
gene 1 4 4 -0.339034 1 6 -0.339034 1
gene 2 2 6 -1.43099 0 13 -1.43099 1
gene 2 6 4 -3.83905 0 14 -3.83905 1
gene 3 3 6 -1.05667 0 51 -1.05667 0
gene 3 6 6 0.396502 1 70 0.396502 1
gene 2 1 6 -0.147338 0 99 -0.147338 0
gene 2 4 6 0.755568 1 575 0.755568 1
gene 3 3 94 0.596928 0 1126 0.596928 1
gene 3 94 6 -0.66559 0 1127 -0.66559 1
gene 2 94 4 0.430586 0 1373 0.430586 1
genomeend 87

/* Organism #88 Fitness: 0.445994 Error: 0.454006 */
genomestart 88
trait 1 0.1898 0 0.338147 0.0118593 0 0.2093 0.132475 0.0376996 
trait 2 0.100223 0 0.00305849 0.0167685 0 0.00298835 0.00339371 0.445516 
trait 3 0.298918 0.00180849 0 0.0283596 0 0.000242832 0.0211166 0.00862734 
node 1 1 1 1
node 2 3 1 1
node 3 3 1 1
node 4 3 0 2
node 6 3 0 0
node 94 1 0 0
gene 3 1 4 -1.64104 0 1 -1.64104 0
gene 2 2 4 0.190946 0 2 0.190946 1
gene 3 3 4 -1.15329 0 3 -1.15329 1
gene 1 4 4 0.0987501 1 6 0.0987501 1
gene 2 2 6 2.5362 0 13 2.5362 1
gene 2 6 4 1.83962 0 14 1.83962 1
gene 3 3 6 -1.10082 0 51 -1.10082 0
gene 3 6 6 -1.63161 1 70 -1.63161 1
gene 2 1 6 0.0179279 0 99 0.0179279 0
gene 2 4 6 2.09431 1 575 2.09431 1
gene 3 3 94 1.95832 0 1126 1.95832 1
gene 3 94 6 2.09348 0 1127 2.09348 1
gene 3 2 94 -1.60479 0 1234 -1.60479 1
gene 1 94 94 0.0696336 1 1480 0.0696336 1
genomeend 88

/* Organism #89 Fitness: 0.443699 Error: 0.456301 */
genomestart 89
trait 1 0.1898 0 0.338147 0.0118593 0 0.2093 0.132475 0.0376996 
trait 2 0.100223 0 0.00305849 0.0167685 0 0.00298835 0.00339371 0.445516 
trait 3 0.298918 0.00180849 0 0.0283596 0 0.000242832 0.0211166 0.00862734 
node 1 1 1 1
node 2 3 1 1
node 3 3 1 1
node 4 3 0 2
node 6 3 0 0
node 94 1 0 0
gene 3 1 4 -1.81324 0 1 -1.81324 0
gene 2 2 4 0.21606 0 2 0.21606 1
gene 3 3 4 -1.14999 0 3 -1.14999 1
gene 1 4 4 -0.182755 1 6 -0.182755 1
gene 2 2 6 2.30317 0 13 2.30317 1
gene 2 6 4 -0.315818 0 14 -0.315818 1
gene 3 3 6 0.780107 0 51 0.780107 1
gene 3 6 6 -1.2876 1 70 -1.2876 1
gene 2 1 6 0.687131 0 99 0.687131 1
gene 2 4 6 1.22184 1 575 1.22184 1
gene 3 3 94 0.86865 0 1126 0.86865 1
gene 3 94 6 2.44101 0 1127 2.44101 1
gene 3 2 94 -1.60479 0 1234 -1.60479 1
gene 3 94 4 -0.0505573 0 1481 -0.0505573 1
genomeend 89

/* Organism #90 Fitness: 0.00878497 Error: 0.891215 */
genomestart 90
trait 1 0.2297 0 0.164496 2.28831e-05 0 0 0.105116 0.035482 
trait 2 0.200445 0 0.00611698 0.022358 0 0.00357525 0.00452494 0.00121927 
trait 3 0.298956 0.00174364 0 0.026867 0 0.000234851 0.02033 0.0115031 
node 1 1 1 1
node 2 3 1 1
node 3 3 1 1
node 4 3 0 2
node 6 3 0 0
node 94 1 0 0
gene 3 1 4 -1.64104 0 1 -1.64104 1
gene 2 2 4 0.241174 0 2 0.241174 1
gene 3 3 4 -1.14668 0 3 -1.14668 1
gene 1 4 4 0.0987501 1 6 0.0987501 1
gene 2 2 6 2.5362 0 13 2.5362 1
gene 2 6 4 -2.47126 0 14 -2.47126 1
gene 3 3 6 2.66103 0 51 2.66103 1
gene 3 6 6 -0.943582 1 70 -0.943582 1
gene 2 1 6 0.0179279 0 99 0.0179279 0
gene 2 4 6 0.349375 1 575 0.349375 1
gene 3 3 94 1.95832 0 1126 1.95832 1
gene 3 94 6 2.78855 0 1127 2.78855 1
gene 2 94 4 -0.482493 0 1373 -0.482493 1
genomeend 90

/* Organism #91 Fitness: 0.448389 Error: 0.451611 */
genomestart 91
trait 1 0.2297 0 0.164496 2.28831e-05 0 0 0.105116 0.035482 
trait 2 0.200445 0 0.00611698 0.022358 0 0.00357525 0.00452494 0.00121927 
trait 3 0.298956 0.00174364 0 0.026867 0 0.000234851 0.02033 0.0115031 
node 1 1 1 1
node 2 3 1 1
node 3 3 1 1
node 4 3 0 2
node 6 3 0 0
node 94 1 0 0
gene 3 1 4 -2.68429 0 1 -2.68429 0
gene 2 2 4 -0.577899 0 2 -0.577899 1
gene 3 3 4 0.559384 0 3 0.559384 0
gene 1 4 4 -0.689686 1 6 -0.689686 1
gene 2 2 6 0.708219 0 13 0.708219 1
gene 2 6 4 -2.05416 0 14 -2.05416 1
gene 2 3 6 2.69646 0 51 2.69646 0
gene 3 6 6 -0.141964 1 70 -0.141964 1
gene 2 1 6 -0.785614 0 99 -0.785614 0
gene 2 4 6 1.44208 1 575 1.44208 1
gene 3 3 94 1.95832 0 1126 1.95832 1
gene 3 94 6 1.09168 0 1127 1.09168 1
gene 2 94 4 0.0990141 0 1373 0.0990141 1
genomeend 91

/* Organism #92 Fitness: 0.446872 Error: 0.453128 */
genomestart 92
trait 1 0.156982 0 0.543516 0.0236843 0 0.418601 0.180069 0.0388085 
trait 2 0.200869 0 0 0 0 0.000613829 0 0.0072038 
trait 3 0.298814 0.00198186 0 0.0284528 0 0.000270122 0.0207513 0 
node 1 1 1 1
node 2 3 1 1
node 3 3 1 1
node 4 3 0 2
node 6 3 0 0
node 94 1 0 0
gene 3 1 4 -0.967138 0 1 -0.967138 0
gene 2 2 4 0.126875 0 2 0.126875 0
gene 3 3 4 -0.405154 0 3 -0.405154 1
gene 1 4 4 1.58273 1 6 1.58273 1
gene 2 2 6 5.80517 0 13 5.80517 0
gene 2 6 4 -2.55474 0 14 -2.55474 1
gene 3 3 6 1.99332 0 51 1.99332 1
gene 3 6 6 3.27746 1 70 3.27746 1
gene 2 1 6 -0.338618 0 99 -0.338618 0
gene 2 4 6 4.95895 1 575 4.95895 1
gene 3 3 94 1.02875 0 1126 1.02875 1
gene 3 94 6 2.67067 0 1127 2.67067 1
gene 3 2 94 -0.761194 0 1234 -0.761194 1
genomeend 92

/* Organism #93 Fitness: 0.44518 Error: 0.45482 */
genomestart 93
trait 1 0.2297 0 0.164496 2.28831e-05 0 0 0.105116 0.035482 
trait 2 0.200445 0 0.00611698 0.022358 0 0.00357525 0.00452494 0.00121927 
trait 3 0.298956 0.00174364 0 0.026867 0 0.000234851 0.02033 0.0115031 
node 1 1 1 1
node 2 3 1 1
node 3 3 1 1
node 4 3 0 2
node 6 3 0 0
node 94 1 0 0
gene 3 1 4 -1.64104 0 1 -1.64104 0
gene 2 2 4 0.241174 0 2 0.241174 1
gene 3 3 4 -1.14668 0 3 -1.14668 0
gene 1 4 4 0.0987501 1 6 0.0987501 1
gene 2 2 6 2.5362 0 13 2.5362 1
gene 2 6 4 -2.47126 0 14 -2.47126 1
gene 3 3 6 2.66103 0 51 2.66103 0
gene 3 6 6 -0.943582 1 70 -0.943582 1
gene 2 1 6 0.0179279 0 99 0.0179279 0
gene 2 4 6 0.349375 1 575 0.349375 1
gene 3 3 94 1.95832 0 1126 1.95832 1
gene 3 94 6 2.78855 0 1127 2.78855 1
gene 2 94 4 -0.482493 0 1373 -0.482493 1
gene 1 2 94 0.88362 0 1482 0.88362 1
genomeend 93

/* Organism #94 Fitness: 0.435714 Error: 0.464286 */
genomestart 94
trait 1 0.2297 0 0.164496 2.28831e-05 0 0 0.105116 0.035482 
trait 2 0.200445 0 0.00611698 0.022358 0 0.00357525 0.00452494 0.00121927 
trait 3 0.298956 0.00174364 0 0.026867 0 0.000234851 0.02033 0.0115031 
node 1 1 1 1
node 2 3 1 1
node 3 3 1 1
node 4 3 0 2
node 6 3 0 0
node 94 1 0 0
gene 3 1 4 -1.64104 0 1 -1.64104 0
gene 2 2 4 0.241174 0 2 0.241174 1
gene 3 3 4 -1.14668 0 3 -1.14668 0
gene 1 4 4 0.0987501 1 6 0.0987501 1
gene 2 2 6 2.5362 0 13 2.5362 0
gene 2 6 4 -2.47126 0 14 -2.47126 1
gene 3 3 6 2.66103 0 51 2.66103 0
gene 3 6 6 -0.943582 1 70 -0.943582 1
gene 2 1 6 0.0179279 0 99 0.0179279 0
gene 2 4 6 0.349375 1 575 0.349375 1
gene 3 3 94 1.95832 0 1126 1.95832 1
gene 3 94 6 2.78855 0 1127 2.78855 1
genomeend 94

/* Organism #95 Fitness: 0.442813 Error: 0.457187 */
genomestart 95
trait 1 0.1898 0 0.338147 0.0118593 0 0.2093 0.132475 0.0376996 
trait 2 0.100223 0 0.00305849 0.0167685 0 0.00298835 0.00339371 0.445516 
trait 3 0.298918 0.00180849 0 0.0283596 0 0.000242832 0.0211166 0.00862734 
node 1 1 1 1
node 2 3 1 1
node 3 3 1 1
node 4 3 0 2
node 6 3 0 0
node 94 1 0 0
gene 3 1 4 -2.82324 0 1 -2.82324 0
gene 2 2 4 -1.48826 0 2 -1.48826 1
gene 3 3 4 -2.17738 0 3 -2.17738 1
gene 1 4 4 -0.947141 1 6 -0.947141 1
gene 2 2 6 3.30951 0 13 3.30951 1
gene 2 6 4 -1.98042 0 14 -1.98042 1
gene 3 3 6 0.735667 0 51 0.735667 0
gene 3 6 6 -2.10445 1 70 -2.10445 1
gene 2 1 6 0.552304 0 99 0.552304 0
gene 2 4 6 0.784232 1 575 0.784232 1
gene 3 3 94 -0.855807 0 1126 -0.855807 1
gene 3 94 6 2.44101 0 1127 2.44101 1
gene 3 2 94 -1.56017 0 1234 -1.56017 1
genomeend 95

/* Organism #96 Fitness: 0.430651 Error: 0.469349 */
genomestart 96
trait 1 0.1898 0 0.338147 0.0118593 0 0.2093 0.132475 0.0376996 
trait 2 0.100223 0 0.00305849 0.0167685 0 0.00298835 0.00339371 0.445516 
trait 3 0.298918 0.00180849 0 0.0283596 0 0.000242832 0.0211166 0.00862734 
node 1 1 1 1
node 2 3 1 1
node 3 3 1 1
node 4 3 0 2
node 6 3 0 0
node 94 1 0 0
gene 3 1 4 -1.81324 0 1 -1.81324 0
gene 2 2 4 0.21606 0 2 0.21606 1
gene 3 3 4 -1.14999 0 3 -1.14999 0
gene 1 4 4 -0.182755 1 6 -0.182755 1
gene 2 2 6 2.30317 0 13 2.30317 1
gene 2 6 4 -0.315818 0 14 -0.315818 1
gene 3 3 6 0.780107 0 51 0.780107 0
gene 3 6 6 -1.2876 1 70 -1.2876 1
gene 2 1 6 0.687131 0 99 0.687131 0
gene 2 4 6 1.22184 1 575 1.22184 1
gene 3 3 94 0.86865 0 1126 0.86865 1
gene 3 94 6 2.44101 0 1127 2.44101 1
gene 3 2 94 -1.60479 0 1234 -1.60479 1
genomeend 96

/* Species #26 : (Size 72) (AF 0.316655) (Age 28)  */


/* Organism #97 Fitness: 0.524988 Error: 0.375012 */
genomestart 97
trait 1 0.327011 0.02526 0.00608474 0.0034138 0 0.0581477 0.023853 0.0642396 
trait 2 0.2 0 0 0.133264 0.0328311 0 0 0.0562856 
trait 3 0.422747 0.110513 0.118527 0.170223 0.212463 0.0394429 0 0.00352345 
node 1 2 1 1
node 2 3 1 1
node 3 1 1 1
node 4 1 0 2
node 19 1 0 0
gene 3 1 4 1.11371 0 1 1.11371 1
gene 3 2 4 2.30219 0 2 2.30219 1
gene 1 3 4 -0.216641 0 3 -0.216641 0
gene 3 1 19 -0.81457 0 157 -0.81457 1
gene 3 19 4 -1.19757 0 158 -1.19757 0
gene 1 2 19 -0.929418 0 224 -0.929418 1
gene 1 3 19 -0.0190384 0 340 -0.0190384 1
genomeend 97

/* Organism #98 Fitness: 0.447811 Error: 0.452189 */
genomestart 98
trait 1 0.475878 0.00300354 0.169786 0.00432812 0 0.00713034 0.144933 0.00763842 
trait 2 0.2 0 0.0367019 0.20293 0.0169451 0 0.0271497 0.0290506 
trait 3 0.347435 0.111357 0.249405 0.117469 0.135723 0 0.00851058 0.282413 
node 1 1 1 1
node 2 2 1 1
node 3 2 1 1
node 4 1 0 2
node 19 1 0 0
gene 3 1 4 0.630259 0 1 0.630259 1
gene 2 2 4 2.7576 0 2 2.7576 0
gene 1 3 4 0.287924 0 3 0.287924 0
gene 3 1 19 0.848148 0 157 0.848148 1
gene 3 19 4 -1.49015 0 158 -1.49015 0
gene 2 4 4 -0.418208 1 280 -0.418208 1
gene 2 2 19 0.0410427 0 359 0.0410427 1
gene 1 3 19 0.770652 0 407 0.770652 1
gene 1 19 19 -0.205367 1 695 -0.205367 1
genomeend 98

/* Organism #99 Fitness: 0.444851 Error: 0.455149 */
genomestart 99
trait 1 0.41073 0.0703425 0.00268306 0.00417836 0.0289007 0.0299007 0.0254908 0.0502719 
trait 2 0.2 0.0472027 0.401335 0.121442 0.0149593 0 0 0.0512925 
trait 3 0.44177 0.159232 0.148631 0.175377 0.263303 0.0394429 0.0820385 0.00566534 
node 1 3 1 1
node 2 2 1 1
node 3 2 1 1
node 4 3 0 2
node 19 1 0 0
node 29 1 0 0
gene 3 1 4 3.10442 0 1 3.10442 0
gene 3 2 4 1.57092 0 2 1.57092 1
gene 1 3 4 0.165861 0 3 0.165861 0
gene 3 1 19 0.58167 0 157 0.58167 1
gene 3 19 4 5.32832 0 158 5.32832 0
gene 1 2 19 0.74648 0 224 0.74648 1
gene 3 19 29 0.535644 0 320 0.535644 1
gene 3 29 4 -0.310313 0 321 -0.310313 1
gene 1 3 19 -3.29337 0 340 -3.29337 1
gene 3 2 29 -2.26545 0 405 -2.26545 1
gene 1 1 29 0.812816 0 434 0.812816 0
gene 3 3 29 2.24444 0 496 2.24444 1
genomeend 99

/* Organism #100 Fitness: 0.256223 Error: 0.643777 */
genomestart 100
trait 1 0.36887 0.0478012 0.0043839 0.00379608 0.0144504 0.0440242 0.0246719 0.0572557 
trait 2 0.2 0.0472027 0.401335 0.127353 0.0164156 0 0 0.053789 
trait 3 0.432259 0.134873 0.133579 0.1728 0.237883 0.0394429 0.0410193 0.0045944 
node 1 3 1 1
node 2 2 1 1
node 3 2 1 1
node 4 3 0 2
node 19 1 0 0
gene 3 1 4 1.98395 0 1 1.98395 0
gene 3 2 4 -0.469199 0 2 -0.469199 1
gene 1 3 4 2.78481 0 3 2.78481 0
gene 3 1 19 2.44637 0 157 2.44637 1
gene 3 19 4 4.50921 0 158 4.50921 1
gene 1 2 19 -0.140425 0 224 -0.140425 1
gene 1 3 19 -3.8246 0 340 -3.8246 1
gene 3 4 4 -0.0849385 1 1360 -0.0849385 1
genomeend 100

/* Organism #101 Fitness: 0.441278 Error: 0.458722 */
genomestart 101
trait 1 0.401444 0.0141317 0.0879355 0.00387096 0 0.032639 0.0843931 0.035939 
trait 2 0.2 0 0.0183509 0.168097 0.0248881 0 0.0135748 0.0426681 
trait 3 0.385091 0.110935 0.183966 0.143846 0.174093 0.0197214 0.00425529 0.142968 
node 1 2 1 1
node 2 3 1 1
node 3 1 1 1
node 4 1 0 2
node 19 1 0 0
node 121 1 0 0
gene 3 1 4 0.591667 0 1 0.591667 1
gene 2 2 4 2.06308 0 2 2.06308 0
gene 1 3 4 -0.326212 0 3 -0.326212 1
gene 3 1 19 -0.31073 0 157 -0.31073 1
gene 3 19 4 -1.21815 0 158 -1.21815 0
gene 1 2 19 -0.929418 0 224 -0.929418 0
gene 1 3 19 -0.0190384 0 340 -0.0190384 1
gene 1 2 121 1 0 1428 0 1
gene 1 121 19 -0.929418 0 1429 0 1
genomeend 101

/* Organism #102 Fitness: 0.450808 Error: 0.449192 */
genomestart 102
trait 1 0.349534 0.0226115 0.00532758 0.00365328 0 0.0518604 0.024366 0.0575043 
trait 2 0.2 0 0 0.161475 0.0397813 0 0 0.0682009 
trait 3 0.426761 0.120795 0.340663 0.16826 0.193096 0.043404 0.226128 0.00355822 
node 1 3 1 1
node 2 2 1 1
node 3 2 1 1
node 4 3 0 2
node 19 1 0 0
gene 3 1 4 -1.10208 0 1 -1.10208 0
gene 3 2 4 -4.08319 0 2 -4.08319 1
gene 1 3 4 -4.18846 0 3 -4.18846 0
gene 3 1 19 1.34922 0 157 1.34922 1
gene 3 19 4 6.03383 0 158 6.03383 0
gene 1 2 19 1.64933 0 224 1.64933 1
gene 1 3 19 -1.61724 0 340 -1.61724 1
genomeend 102

/* Organism #103 Fitness: 0.00584846 Error: 0.894152 */
genomestart 103
trait 1 0.349534 0.0226115 0.00532758 0.00365328 0 0.0518604 0.024366 0.0575043 
trait 2 0.2 0 0 0.161475 0.0397813 0 0 0.0682009 
trait 3 0.426761 0.120795 0.340663 0.16826 0.193096 0.043404 0.226128 0.00355822 
node 1 3 1 1
node 2 2 1 1
node 3 2 1 1
node 4 3 0 2
node 19 1 0 0
gene 3 1 4 -1.52728 0 1 -1.52728 1
gene 3 2 4 -2.62962 0 2 -2.62962 1
gene 1 3 4 0.194241 0 3 0.194241 1
gene 2 1 19 3.20554 0 157 3.20554 1
gene 3 19 4 4.81472 0 158 4.81472 0
gene 1 2 19 0.0739306 0 224 0.0739306 1
gene 1 3 19 -3.35574 0 340 -3.35574 1
genomeend 103

/* Organism #104 Fitness: 0.427524 Error: 0.472476 */
genomestart 104
trait 1 0.391393 0.0451528 0.00362674 0.00403556 0.0144504 0.0377369 0.0251849 0.0505205 
trait 2 0.2 0 0 0.155564 0.038325 0 0 0.0657043 
trait 3 0.436273 0.145154 0.355715 0.170837 0.218516 0.043404 0.267148 0.00462917 
node 1 3 1 1
node 2 2 1 1
node 3 2 1 1
node 4 3 0 2
node 19 1 0 0
gene 3 1 4 1.09087 0 1 1.09087 1
gene 3 2 4 -0.533445 0 2 -0.533445 1
gene 1 3 4 -3.17908 0 3 -3.17908 0
gene 3 1 19 1.36395 0 157 1.36395 1
gene 3 19 4 5.01493 0 158 5.01493 0
gene 1 2 19 0.945431 0 224 0.945431 1
gene 1 3 19 -2.88857 0 340 -2.88857 1
gene 1 4 19 0.484436 0 1430 0.484436 1
genomeend 104

/* Organism #105 Fitness: 0.00482429 Error: 0.895176 */
genomestart 105
trait 1 0.36887 0.0478012 0.0043839 0.00379608 0.0144504 0.0440242 0.0246719 0.0572557 
trait 2 0.2 0 0 0.127353 0.0313749 0 0 0.053789 
trait 3 0.432259 0.134873 0.133579 0.1728 0.237883 0.0394429 0.0410193 0.0045944 
node 1 3 1 1
node 2 2 1 1
node 3 2 1 1
node 4 3 0 2
node 19 1 0 0
gene 3 1 4 0.69497 0 1 0.69497 1
gene 3 2 4 0.765351 0 2 0.765351 1
gene 1 3 4 -0.36978 0 3 -0.36978 0
gene 3 1 19 0.529809 0 157 0.529809 1
gene 3 19 4 -1.22355 0 158 -1.22355 0
gene 1 2 19 0.828065 0 224 0.828065 1
gene 1 3 19 -1.19091 0 340 -1.19091 1
gene 1 4 4 2.66892 1 1360 2.66892 1
genomeend 105

/* Organism #106 Fitness: 0.44848 Error: 0.45152 */
genomestart 106
trait 1 0.36887 0.0478012 0.0043839 0.00379608 0.0144504 0.0440242 0.0246719 0.0572557 
trait 2 0.2 0.0472027 0.401335 0.127353 0.0164156 0 0 0.053789 
trait 3 0.432259 0.134873 0.133579 0.1728 0.237883 0.0394429 0.0410193 0.0045944 
node 1 2 1 1
node 2 3 1 1
node 3 1 1 1
node 4 1 0 2
node 19 1 0 0
gene 3 1 4 2.21235 0 1 2.21235 0
gene 3 2 4 1.31886 0 2 1.31886 1
gene 1 3 4 1.13928 0 3 1.13928 0
gene 3 1 19 0.521511 0 157 0.521511 1
gene 3 19 4 0.15057 0 158 0.15057 0
gene 1 2 19 -1.21225 0 224 -1.21225 1
gene 1 3 19 -1.63896 0 340 -1.63896 1
genomeend 106

/* Organism #107 Fitness: 0.439315 Error: 0.460685 */
genomestart 107
trait 1 0.475878 0.00300354 0.169786 0.00432812 0 0.00713034 0.144933 0.00763842 
trait 2 0.2 0 0.0367019 0.20293 0.0169451 0 0.0271497 0.0290506 
trait 3 0.347435 0.111357 0.249405 0.117469 0.135723 0 0.00851058 0.282413 
node 1 1 1 1
node 2 2 1 1
node 3 2 1 1
node 4 1 0 2
node 19 1 0 0
gene 3 1 4 0.0696241 0 1 0.0696241 1
gene 2 2 4 1.82397 0 2 1.82397 0
gene 1 3 4 -0.435783 0 3 -0.435783 0
gene 3 1 19 0.19311 0 157 0.19311 1
gene 3 19 4 -1.23873 0 158 -1.23873 0
gene 2 4 4 -0.187263 1 280 -0.187263 1
gene 2 2 19 0.485956 0 359 0.485956 1
gene 1 3 19 0.3513 0 407 0.3513 1
gene 1 19 19 -0.236121 1 695 -0.236121 1
genomeend 107

/* Organism #108 Fitness: 0.448974 Error: 0.451026 */
genomestart 108
trait 1 0.327011 0.02526 0.00608474 0.0034138 0 0.0581477 0.023853 0.0642396 
trait 2 0.2 0 0 0.133264 0.0328311 0 0 0.0562856 
trait 3 0.422747 0.110513 0.118527 0.170223 0.212463 0.0394429 0 0.00352345 
node 1 2 1 1
node 2 3 1 1
node 3 3 1 1
node 4 1 0 2
node 19 1 0 0
gene 3 1 4 0.657731 0 1 0.657731 1
gene 3 2 4 3.38756 0 2 3.38756 1
gene 1 3 4 0.728314 0 3 0.728314 0
gene 3 1 19 -0.81457 0 157 -0.81457 1
gene 3 19 4 -1.65745 0 158 -1.65745 0
gene 1 2 19 0.435108 0 224 0.435108 1
gene 1 3 19 1.26386 0 340 1.26386 1
genomeend 108

/* Organism #109 Fitness: 0.452659 Error: 0.447341 */
genomestart 109
trait 1 0.475878 0.00300354 0.169786 0.00432812 0 0.00713034 0.144933 0.00763842 
trait 2 0.2 0 0.0367019 0.20293 0.0169451 0 0.0271497 0.0290506 
trait 3 0.347435 0.111357 0.249405 0.117469 0.135723 0 0.00851058 0.282413 
node 1 1 1 1
node 2 2 1 1
node 3 2 1 1
node 4 1 0 2
node 19 1 0 0
gene 3 1 4 0.0696241 0 1 0.0696241 1
gene 2 2 4 1.82397 0 2 1.82397 0
gene 1 3 4 -0.435783 0 3 -0.435783 0
gene 3 1 19 0.19311 0 157 0.19311 1
gene 3 19 4 -1.23873 0 158 -1.23873 0
gene 2 4 4 -0.187263 1 280 -0.187263 1
gene 2 2 19 0.485956 0 359 0.485956 1
gene 1 3 19 0.3513 0 407 0.3513 1
gene 1 19 19 -0.236121 1 695 -0.236121 1
gene 1 4 19 0.484436 0 1430 0 1
genomeend 109

/* Organism #110 Fitness: 0.0608578 Error: 0.839142 */
genomestart 110
trait 1 0.502823 0.00375442 0.200715 0.00410153 0 0.00891292 0.169114 0.00954803 
trait 2 0.2 0 0.0336434 0.208946 0.0211814 0 0.0248872 0.0363133 
trait 3 0.348753 0.0556785 0.177031 0.144337 0.0904819 0.357163 0.00425529 0.318941 
node 1 1 1 1
node 2 2 1 1
node 3 2 1 1
node 4 1 0 2
node 19 1 0 0
gene 3 1 4 -0.540663 0 1 -0.540663 1
gene 2 2 4 -0.86462 0 2 -0.86462 0
gene 1 3 4 -2.48872 0 3 -2.48872 0
gene 3 1 19 0.445767 0 157 0.445767 1
gene 3 19 4 -0.315057 0 158 -0.315057 1
gene 2 4 4 -1.0864 1 280 -1.0864 1
gene 2 2 19 1.70288 0 359 1.70288 1
gene 1 3 19 1.18118 0 407 1.18118 1
gene 1 19 19 -0.455545 1 695 -0.455545 1
genomeend 110

/* Organism #111 Fitness: 0.115304 Error: 0.784696 */
genomestart 111
trait 1 0.391393 0.0451528 0.00362674 0.00403556 0.0144504 0.0377369 0.0251849 0.0505205 
trait 2 0.2 0 0 0.155564 0.038325 0 0 0.0657043 
trait 3 0.436273 0.145154 0.355715 0.170837 0.218516 0.043404 0.267148 0.00462917 
node 1 3 1 1
node 2 2 1 1
node 3 2 1 1
node 4 3 0 2
node 19 1 0 0
gene 3 1 4 1.18505 0 1 1.18505 1
gene 3 2 4 0.143921 0 2 0.143921 1
gene 1 3 4 -4.55093 0 3 -4.55093 0
gene 3 1 19 1.84925 0 157 1.84925 1
gene 3 19 4 5.32832 0 158 5.32832 0
gene 1 2 19 0.0106054 0 224 0.0106054 1
gene 1 3 19 -4.02642 0 340 -4.02642 1
genomeend 111

/* Organism #112 Fitness: 0.443039 Error: 0.456961 */
genomestart 112
trait 1 0.43744 0.0118588 0.102643 0.00399714 0 0.027243 0.0969963 0.0301585 
trait 2 0.2 0 0.0168217 0.199316 0.0339564 0 0.0124436 0.0582147 
trait 3 0.389764 0.0933775 0.369914 0.155317 0.132105 0.202264 0.228256 0.161267 
node 1 3 1 1
node 2 2 1 1
node 3 2 1 1
node 4 3 0 2
node 19 1 0 0
gene 3 1 4 -0.294793 0 1 -0.294793 1
gene 2 2 4 -0.313993 0 2 -0.313993 0
gene 1 3 4 -2.03931 0 3 -2.03931 1
gene 3 1 19 1.12882 0 157 1.12882 1
gene 3 19 4 1.45764 0 158 1.45764 0
gene 1 2 19 1.14438 0 224 1.14438 1
gene 1 3 19 -2.48376 0 340 -2.48376 1
genomeend 112

/* Organism #113 Fitness: 0.253631 Error: 0.646369 */
genomestart 113
trait 1 0.349534 0.0226115 0.00532758 0.00365328 0 0.0518604 0.024366 0.0575043 
trait 2 0.2 0 0 0.161475 0.0397813 0 0 0.0682009 
trait 3 0.946198 0.120795 1 0.730356 0.193096 0.043404 0.226128 0.65686 
node 1 3 1 1
node 2 2 1 1
node 3 2 1 1
node 4 3 0 2
node 19 1 0 0
gene 3 1 4 1.45627 0 1 1.45627 1
gene 3 2 4 0.805611 0 2 0.805611 1
gene 1 3 4 -2.24859 0 3 -2.24859 0
gene 3 1 19 0.87886 0 157 0.87886 1
gene 3 19 4 2.6858 0 158 2.6858 0
gene 1 2 19 0.453647 0 224 0.453647 1
gene 1 3 19 -1.81776 0 340 -1.81776 1
genomeend 113

/* Organism #114 Fitness: 0.439851 Error: 0.460149 */
genomestart 114
trait 1 0.36887 0.0478012 0.0043839 0.00379608 0.0144504 0.0440242 0.0246719 0.0572557 
trait 2 0.2 0.0472027 0.401335 0.127353 0.0164156 0 0 0.053789 
trait 3 0.432259 0.134873 0.133579 0.1728 0.237883 0.0394429 0.0410193 0.0045944 
node 1 2 1 1
node 2 3 1 1
node 3 1 1 1
node 4 1 0 2
node 19 1 0 0
gene 3 1 4 2.27079 0 1 2.27079 0
gene 3 2 4 1.35673 0 2 1.35673 1
gene 1 3 4 -0.236751 0 3 -0.236751 0
gene 3 1 19 3.40028 0 157 3.40028 1
gene 3 19 4 -0.0053052 0 158 -0.0053052 0
gene 1 2 19 -0.248837 0 224 -0.248837 1
gene 1 3 19 -2.72607 0 340 -2.72607 1
genomeend 114

/* Organism #115 Fitness: 0.00548829 Error: 0.894512 */
genomestart 115
trait 1 0.36887 0.0478012 0.0043839 0.00379608 0.0144504 0.0440242 0.0246719 0.0572557 
trait 2 0.2 0.0472027 0.401335 0.127353 0.0164156 0 0 0.053789 
trait 3 0.432259 0.134873 0.133579 0.1728 0.237883 0.0394429 0.0410193 0.0045944 
node 1 3 1 1
node 2 2 1 1
node 3 2 1 1
node 4 3 0 2
node 19 1 0 0
gene 3 1 4 1.25635 0 1 1.25635 1
gene 3 2 4 1.07677 0 2 1.07677 1
gene 1 3 4 1.34434 0 3 1.34434 0
gene 3 1 19 2.41177 0 157 2.41177 1
gene 3 19 4 4.18285 0 158 4.18285 0
gene 1 2 19 -0.0960552 0 224 -0.0960552 1
gene 1 3 19 -3.4769 0 340 -3.4769 1
gene 3 4 4 1.27805 1 1360 1.27805 1
genomeend 115

/* Organism #116 Fitness: 0.00419513 Error: 0.895805 */
genomestart 116
trait 1 0.502823 0.00375442 0.200715 0.00410153 0 0.00891292 0.169114 0.00954803 
trait 2 0.2 0 0.0336434 0.208946 0.0211814 0 0.0248872 0.0363133 
trait 3 0.348753 0.0556785 0.177031 0.144337 0.0904819 0.357163 0.00425529 0.318941 
node 1 1 1 1
node 2 2 1 1
node 3 2 1 1
node 4 1 0 2
node 19 1 0 0
gene 3 1 4 -1.1593 0 1 -1.1593 1
gene 2 2 4 3.4088 0 2 3.4088 0
gene 2 3 4 -2.77303 0 3 -2.77303 0
gene 3 1 19 0.210686 0 157 0.210686 1
gene 3 19 4 -3.24009 0 158 -3.24009 1
gene 2 4 4 -2.74089 1 280 -2.74089 1
gene 2 2 19 -0.133644 0 359 -0.133644 1
gene 1 3 19 -0.778423 0 407 -0.778423 1
gene 1 19 19 0.189765 1 695 0.189765 1
genomeend 116

/* Organism #117 Fitness: 0.447819 Error: 0.452181 */
genomestart 117
trait 1 0.421249 0.178515 0.00216471 0.00404016 0.0867022 0.0179753 0.00865436 0.0681321 
trait 2 0.2 0 0 0.00752297 0.00185337 0 0 0.00317741 
trait 3 0.372223 0.184962 0.114291 0.0195674 0.193014 0 0.191423 0.00813176 
node 1 1 1 1
node 2 2 1 1
node 3 2 1 1
node 4 3 0 2
node 19 1 0 0
node 29 1 0 0
gene 3 1 4 0.0776878 0 1 0.0776878 0
gene 2 2 4 -3.13399 0 2 -3.13399 1
gene 1 3 4 -0.782982 0 3 -0.782982 0
gene 3 1 19 0.630997 0 157 0.630997 1
gene 3 19 4 0.285833 0 158 0.285833 0
gene 1 2 19 -1.85943 0 224 -1.85943 0
gene 3 19 29 0.333265 0 320 0.333265 1
gene 3 29 4 0.355678 0 321 0.355678 1
gene 1 3 19 -2.51674 0 340 -2.51674 1
gene 3 2 29 -5.56943 0 405 -5.56943 1
gene 1 1 29 -0.164714 0 434 -0.164714 1
gene 3 3 29 2.24444 0 496 2.24444 1
gene 1 29 29 0.0375544 1 1255 0.0375544 1
genomeend 117

/* Organism #118 Fitness: 0.342001 Error: 0.557999 */
genomestart 118
trait 1 0.40646 0.0709911 0.0034369 0.00413257 0.0289007 0.0323499 0.0171225 0.0519213 
trait 2 0.2 0 0 0.0834243 0.0205525 0 0 0.0352352 
trait 3 0.401222 0.157308 0.127791 0.120678 0.227903 0.021702 0.0991299 0.00603971 
node 1 3 1 1
node 2 2 1 1
node 3 2 1 1
node 4 3 0 2
node 19 1 0 0
node 29 1 0 0
gene 3 1 4 0.273276 0 1 0.273276 0
gene 3 2 4 -0.8168 0 2 -0.8168 1
gene 1 3 4 -0.480365 0 3 -0.480365 0
gene 3 1 19 2.05678 0 157 2.05678 1
gene 3 19 4 3.89292 0 158 3.89292 0
gene 1 2 19 -1.23742 0 224 -1.23742 1
gene 3 19 29 0.287824 0 320 0.287824 1
gene 3 29 4 -0.985705 0 321 -0.985705 1
gene 1 3 19 -1.79129 0 340 -1.79129 1
gene 3 2 29 -2.03602 0 405 -2.03602 1
gene 1 1 29 -1.26803 0 434 -1.26803 1
gene 3 3 29 0.976201 0 496 0.976201 1
genomeend 118

/* Organism #119 Fitness: 0.297936 Error: 0.602064 */
genomestart 119
trait 1 0.370995 0.0750195 0.00458859 0.00375586 0.0289007 0.0419133 0.0163156 0.0621662 
trait 2 0.2 0 0 0.0720055 0.0177394 0 0 0.0304124 
trait 3 0.394891 0.141094 0.112304 0.0941925 0.195806 0.0197214 0.0820385 0.00553553 
node 1 2 1 1
node 2 3 1 1
node 3 1 1 1
node 4 1 0 2
node 19 1 0 0
node 29 1 0 0
gene 3 1 4 2.59877 0 1 2.59877 1
gene 2 2 4 0.0559911 0 2 0.0559911 1
gene 1 3 4 -0.915225 0 3 -0.915225 1
gene 3 1 19 0.967336 0 157 0.967336 1
gene 3 19 4 5.99624 0 158 5.99624 0
gene 1 2 19 0.452647 0 224 0.452647 1
gene 3 19 29 0.535644 0 320 0.535644 1
gene 3 29 4 1.07945 0 321 1.07945 1
gene 1 3 19 -1.41066 0 340 -1.41066 1
gene 3 2 29 -2.26545 0 405 -2.26545 1
gene 1 1 29 0.812816 0 434 0.812816 0
gene 3 3 29 2.24444 0 496 2.24444 1
genomeend 119

/* Organism #120 Fitness: 0.00598793 Error: 0.894012 */
genomestart 120
trait 1 0.40219 0.0716397 0.00419074 0.00408679 0.0289007 0.0347991 0.00875425 0.0535708 
trait 2 0.2 0 0.417871 0 0.218744 0.26751 0 0.850286 
trait 3 0.360673 0.155383 0.10695 0.0659794 0.192503 0.00396113 0.116221 0.00641407 
node 1 3 1 1
node 2 2 1 1
node 3 1 1 1
node 4 3 0 2
node 19 1 0 0
node 29 1 0 0
gene 3 1 4 1.47692 0 1 1.47692 0
gene 2 2 4 1.38122 0 2 1.38122 1
gene 1 3 4 -1.78801 0 3 -1.78801 0
gene 3 1 19 2.3986 0 157 2.3986 1
gene 3 19 4 3.51333 0 158 3.51333 0
gene 1 2 19 0.186393 0 224 0.186393 1
gene 3 19 29 0.448873 0 320 0.448873 1
gene 3 29 4 -2.56631 0 321 -2.56631 1
gene 1 3 19 -2.09839 0 340 -2.09839 1
gene 3 2 29 -1.03377 0 405 -1.03377 1
gene 1 1 29 -1.26509 0 434 -1.26509 0
gene 3 3 29 0.305944 0 496 0.305944 1
genomeend 120

/* Organism #121 Fitness: 0.310317 Error: 0.589683 */
genomestart 121
trait 1 0.370995 0.0750195 0.00458859 0.00375586 0.0289007 0.0419133 0.0163156 0.0621662 
trait 2 0.2 0 0 0.0720055 0.0177394 0 0 0.0304124 
trait 3 0.394891 0.141094 0.112304 0.0941925 0.195806 0.0197214 0.0820385 0.00553553 
node 1 2 1 1
node 2 3 1 1
node 3 1 1 1
node 4 1 0 2
node 19 1 0 0
node 29 1 0 0
gene 3 1 4 2.89755 0 1 2.89755 1
gene 2 2 4 0.162195 0 2 0.162195 1
gene 1 3 4 -1.46067 0 3 -1.46067 0
gene 3 1 19 0.58167 0 157 0.58167 1
gene 3 19 4 6.66416 0 158 6.66416 0
gene 1 2 19 0.158814 0 224 0.158814 1
gene 3 19 29 0.535644 0 320 0.535644 1
gene 3 29 4 1.07945 0 321 1.07945 1
gene 1 3 19 -0.505274 0 340 -0.505274 1
gene 3 2 29 -2.26545 0 405 -2.26545 1
gene 1 1 29 0.812816 0 434 0.812816 0
gene 3 3 29 2.24444 0 496 2.24444 1
genomeend 121

/* Organism #122 Fitness: 0.0267826 Error: 0.873217 */
genomestart 122
trait 1 0.411719 0.125077 0.00317772 0.00406347 0.0578015 0.0263872 0.0087043 0.0608514 
trait 2 0.2 0 0 0.0264647 0.00651989 0 0 0.0111777 
trait 3 0.366448 0.170173 0.110621 0.0427734 0.192758 0.00198057 0.153822 0.00727291 
node 1 3 1 1
node 2 2 1 1
node 3 1 1 1
node 4 3 0 2
node 19 1 0 0
node 29 1 0 0
gene 3 1 4 -0.515189 0 1 -0.515189 0
gene 2 2 4 -2.63892 0 2 -2.63892 1
gene 1 3 4 0.841671 0 3 0.841671 0
gene 3 1 19 2.3986 0 157 2.3986 1
gene 3 19 4 0.285833 0 158 0.285833 0
gene 1 2 19 -0.417733 0 224 -0.417733 1
gene 3 19 29 1.18238 0 320 1.18238 1
gene 3 29 4 -0.331882 0 321 -0.331882 1
gene 1 3 19 -2.29846 0 340 -2.29846 1
gene 3 2 29 -4.67621 0 405 -4.67621 1
gene 1 1 29 -1.83337 0 434 -1.83337 0
gene 3 3 29 0.783073 0 496 0.783073 1
gene 1 29 29 -1.10634 1 1255 -1.10634 1
genomeend 122

/* Organism #123 Fitness: 0.17569 Error: 0.72431 */
genomestart 123
trait 1 0.369708 0.157055 0.00417479 0.00355509 0.0722518 0.0346667 0.0076153 0.0778668 
trait 2 0.2 0 0 0.0145086 0.00357436 0 0 0.00612787 
trait 3 0.360982 0.156174 0.0965022 0.0165219 0.162972 0 0.143567 0.00686609 
node 1 2 1 1
node 2 3 1 1
node 3 1 1 1
node 4 1 0 2
node 19 1 0 0
node 29 1 0 0
gene 3 1 4 2.60184 0 1 2.60184 0
gene 2 2 4 -2.63202 0 2 -2.63202 1
gene 1 3 4 -0.976693 0 3 -0.976693 1
gene 3 1 19 0.606334 0 157 0.606334 1
gene 3 19 4 5.80277 0 158 5.80277 0
gene 1 2 19 -1.39266 0 224 -1.39266 1
gene 3 19 29 -1.26112 0 320 -1.26112 1
gene 3 29 4 1.78899 0 321 1.78899 1
gene 1 3 19 -1.34468 0 340 -1.34468 1
gene 3 2 29 -3.70155 0 405 -3.70155 1
gene 1 1 29 0.997297 0 434 0.997297 1
gene 3 3 29 -0.163598 0 496 -0.163598 1
genomeend 123

/* Organism #124 Fitness: 0.448974 Error: 0.451026 */
genomestart 124
trait 1 0.218142 0 0 0.0351484 0 0 0.0752909 0 
trait 2 0.2 0 0 0 0 0 0 0 
trait 3 0.3 0 0 0 0 0 0 0 
node 1 2 1 1
node 2 1 1 1
node 3 1 1 1
node 4 2 0 2
node 7 1 0 0
gene 1 1 4 1.22014 0 1 1.22014 0
gene 2 2 4 1.56117 0 2 1.56117 0
gene 2 3 4 1.35831 0 3 1.35831 1
gene 1 1 7 0.43385 0 34 0.43385 1
gene 1 7 4 -2.13631 0 35 -2.13631 0
gene 2 3 7 1.54282 0 82 1.54282 1
gene 2 2 7 0.024261 0 106 0.024261 0
gene 2 7 7 0.915192 1 289 0.915192 1
gene 3 4 4 1.11333 1 598 1.11333 1
genomeend 124

/* Organism #125 Fitness: 0.445994 Error: 0.454006 */
genomestart 125
trait 1 0.218142 0 0 0.0351484 0 0 0.0752909 0 
trait 2 0.2 0 0 0 0 0 0 0 
trait 3 0.3 0 0 0 0 0 0 0 
node 1 2 1 1
node 2 1 1 1
node 3 1 1 1
node 4 2 0 2
node 7 1 0 0
gene 1 1 4 1.04613 0 1 1.04613 0
gene 2 2 4 2.76696 0 2 2.76696 1
gene 2 3 4 0.191673 0 3 0.191673 1
gene 1 1 7 1.82743 0 34 1.82743 1
gene 1 7 4 0.198912 0 35 0.198912 0
gene 2 3 7 0.460103 0 82 0.460103 1
gene 2 2 7 -1.3794 0 106 -1.3794 0
gene 2 7 7 1.75128 1 289 1.75128 1
gene 3 4 4 3.45018 1 598 3.45018 1
genomeend 125

/* Organism #126 Fitness: 0.417775 Error: 0.482225 */
genomestart 126
trait 1 0.162423 0.0509253 0 0.00382148 0 0 0.00818593 0 
trait 2 0.260731 0.00244938 0.0665222 0.0654894 0.19889 0.0200466 0.0359521 0.0565213 
trait 3 0.906868 0.824322 0.436129 0.463076 0.44859 0 0.0241163 0.294329 
node 1 1 1 1
node 2 2 1 1
node 3 3 1 1
node 4 1 0 2
node 33 1 0 0
gene 1 1 4 1.8606 0 1 1.8606 1
gene 3 2 4 1.35231 0 2 1.35231 1
gene 1 3 4 -0.892619 0 3 -0.892619 1
gene 3 4 4 -1.00695 1 76 -1.00695 0
gene 1 4 33 -0.321152 1 353 -0.321152 1
gene 3 33 4 -1.94142 0 354 -1.94142 0
gene 2 1 33 -0.726207 0 402 -0.726207 1
gene 1 33 33 2.95601 1 661 2.95601 1
gene 2 3 33 -0.591609 0 773 -0.591609 1
genomeend 126

/* Organism #127 Fitness: 0.448389 Error: 0.451611 */
genomestart 127
trait 1 0.162423 0.0509253 0 0.00382148 0 0 0.00818593 0 
trait 2 0.260731 0.00244938 0.0665222 0.0654894 0.19889 0.0200466 0.0359521 0.0565213 
trait 3 0.906868 0.824322 0.436129 0.463076 0.44859 0 0.0241163 0.294329 
node 1 1 1 1
node 2 2 1 1
node 3 3 1 1
node 4 1 0 2
node 33 1 0 0
gene 1 1 4 0.130816 0 1 0.130816 1
gene 3 2 4 2.95 0 2 2.95 1
gene 1 3 4 -1.04544 0 3 -1.04544 1
gene 3 4 4 -1.29451 1 76 -1.29451 0
gene 1 4 33 1.82903 1 353 1.82903 1
gene 3 33 4 -0.904928 0 354 -0.904928 0
gene 2 1 33 0.24109 0 402 0.24109 1
gene 1 33 33 2.88847 1 661 2.88847 1
gene 2 3 33 -0.47712 0 773 -0.47712 1
genomeend 127

/* Organism #128 Fitness: 0.442229 Error: 0.457771 */
genomestart 128
trait 1 0.557342 0.307455 0 0.487157 0 0.0855912 0.179662 0.0179833 
trait 2 0.2 0.0476606 0 0.219584 0.426228 0 0 0.222171 
trait 3 0.384329 0.215965 0.133448 0.0228473 0.225366 0 0 0.00949478 
node 1 1 1 1
node 2 1 1 1
node 3 2 1 1
node 4 3 0 2
node 19 1 0 0
node 29 1 0 0
gene 3 1 4 1.091 0 1 1.091 0
gene 3 2 4 2.48459 0 2 2.48459 1
gene 1 3 4 -3.22639 0 3 -3.22639 0
gene 3 1 19 2.1889 0 157 2.1889 1
gene 3 19 4 -0.24313 0 158 -0.24313 0
gene 1 2 19 -3.86152 0 224 -3.86152 1
gene 3 19 29 0.228811 0 320 0.228811 1
gene 3 29 4 -0.259339 0 321 -0.259339 1
gene 1 3 19 2.70217 0 340 2.70217 1
gene 2 4 4 0.824629 1 497 0.824629 1
gene 3 3 29 0.343558 0 552 0.343558 1
gene 3 4 29 0.831584 1 662 0.831584 1
gene 2 1 29 0.846523 0 711 0.846523 0
gene 2 2 29 -1.62893 0 885 -1.62893 1
genomeend 128

/* Organism #129 Fitness: 0.0180756 Error: 0.881924 */
genomestart 129
trait 1 0.557342 0.307455 0 0.487157 0 0.0855912 0.179662 0.0179833 
trait 2 0.2 0.0475664 0 0.21915 0.425385 0 0 0.221732 
trait 3 0.384329 0.195106 0.133448 0.0228473 0.419024 0 0 0.216429 
node 1 1 1 1
node 2 1 1 1
node 3 2 1 1
node 4 3 0 2
node 19 1 0 0
node 29 1 0 0
gene 3 1 4 -1.16389 0 1 -1.16389 0
gene 3 2 4 3.55746 0 2 3.55746 1
gene 1 3 4 -1.50517 0 3 -1.50517 0
gene 3 1 19 1.55472 0 157 1.55472 1
gene 3 19 4 -0.727141 0 158 -0.727141 0
gene 1 2 19 -3.16463 0 224 -3.16463 1
gene 3 19 29 2.01447 0 320 2.01447 1
gene 3 29 4 -0.188969 0 321 -0.188969 1
gene 1 3 19 -0.377209 0 340 -0.377209 1
gene 2 4 4 -1.12351 1 497 -1.12351 1
gene 3 3 29 0.581711 0 552 0.581711 1
gene 3 4 29 -0.634018 1 662 -0.634018 1
gene 2 1 29 1.74857 0 711 1.74857 0
gene 2 2 29 0.729264 0 885 0.729264 0
gene 1 4 19 1.7976 1 1151 1.7976 1
genomeend 129

/* Organism #130 Fitness: 0.441616 Error: 0.458384 */
genomestart 130
trait 1 0.557342 0.307455 0 0.487157 0 0.0855912 0.179662 0.0179833 
trait 2 0.2 0.0474722 0 0.218716 0.424543 0 0 0.221293 
trait 3 0.384329 0.215965 0.133448 0.0228473 0.225366 0 0 0.00949478 
node 1 1 1 1
node 2 3 1 1
node 3 2 1 1
node 4 3 0 2
node 19 1 0 0
node 29 1 0 0
gene 3 1 4 1.72913 0 1 1.72913 0
gene 3 2 4 2.48459 0 2 2.48459 1
gene 1 3 4 -3.22639 0 3 -3.22639 0
gene 3 1 19 2.1889 0 157 2.1889 1
gene 3 19 4 -0.24313 0 158 -0.24313 0
gene 1 2 19 -3.86152 0 224 -3.86152 1
gene 3 19 29 0.228811 0 320 0.228811 1
gene 3 29 4 -0.0998671 0 321 -0.0998671 1
gene 1 3 19 1.19124 0 340 1.19124 1
gene 2 4 4 -0.443892 1 497 -0.443892 1
gene 3 3 29 0.267137 0 552 0.267137 1
gene 3 4 29 0.831584 1 662 0.831584 1
gene 2 1 29 0.846523 0 711 0.846523 0
gene 2 2 29 -0.937401 0 885 -0.937401 0
genomeend 130

/* Organism #131 Fitness: 0.440594 Error: 0.459406 */
genomestart 131
trait 1 0.557342 0.307455 0 0.487157 0 0.0855912 0.179662 0.0179833 
trait 2 0.2 0.0475664 0 0.21915 0.425385 0 0 0.221732 
trait 3 0.384329 0.215965 0.133448 0.0228473 0.225366 0 0 0.00949478 
node 1 1 1 1
node 2 3 1 1
node 3 2 1 1
node 4 3 0 2
node 19 1 0 0
node 29 1 0 0
gene 3 1 4 1.72913 0 1 1.72913 0
gene 3 2 4 3.57099 0 2 3.57099 1
gene 1 3 4 -3.22639 0 3 -3.22639 0
gene 3 1 19 2.1889 0 157 2.1889 1
gene 3 19 4 -0.24313 0 158 -0.24313 0
gene 1 2 19 -3.86152 0 224 -3.86152 1
gene 3 19 29 0.228811 0 320 0.228811 1
gene 3 29 4 -0.0998671 0 321 -0.0998671 1
gene 1 3 19 0.0686174 0 340 0.0686174 1
gene 2 4 4 -0.443892 1 497 -0.443892 1
gene 3 3 29 -0.722116 0 552 -0.722116 1
gene 3 4 29 0.831584 1 662 0.831584 1
gene 2 1 29 0.846523 0 711 0.846523 0
gene 2 2 29 -0.937401 0 885 -0.937401 0
genomeend 131

/* Organism #132 Fitness: 0.0240857 Error: 0.875914 */
genomestart 132
trait 1 0.557342 0.307455 0 0.487157 0 0.0855912 0.179662 0.0179833 
trait 2 0.2 0.0478489 0 0.220452 0.427912 0 0 0.223049 
trait 3 0.384329 0.174246 0.133448 0.0228473 0.612683 0 0 0.423364 
node 1 1 1 1
node 2 3 1 1
node 3 2 1 1
node 4 3 0 2
node 19 1 0 0
node 29 1 0 0
gene 3 1 4 1.45482 0 1 1.45482 0
gene 3 2 4 3.80306 0 2 3.80306 1
gene 1 3 4 -2.54203 0 3 -2.54203 0
gene 3 1 19 1.24737 0 157 1.24737 1
gene 3 19 4 0.0931197 0 158 0.0931197 0
gene 1 2 19 -2.93574 0 224 -2.93574 1
gene 3 19 29 -0.193763 0 320 -0.193763 1
gene 3 29 4 -1.37233 0 321 -1.37233 1
gene 1 3 19 -0.0103532 0 340 -0.0103532 1
gene 2 4 4 0.907181 1 497 0.907181 1
gene 3 3 29 1.55341 0 552 1.55341 1
gene 3 4 29 2.50347 1 662 2.50347 1
gene 2 1 29 -0.791605 0 711 -0.791605 1
gene 2 2 29 -0.173494 0 885 -0.173494 0
gene 3 29 29 -1.76627 1 1390 -1.76627 1
genomeend 132

/* Organism #133 Fitness: 0.450223 Error: 0.449777 */
genomestart 133
trait 1 0.557342 0.307455 0 0.487157 0 0.0855912 0.179662 0.0179833 
trait 2 0.2 0.0474722 0 0.218716 0.424543 0 0 0.221293 
trait 3 0.384329 0.215965 0.133448 0.0228473 0.225366 0 0 0.00949478 
node 1 1 1 1
node 2 3 1 1
node 3 2 1 1
node 4 3 0 2
node 19 1 0 0
node 29 1 0 0
gene 3 1 4 1.72913 0 1 1.72913 0
gene 3 2 4 2.48459 0 2 2.48459 1
gene 1 3 4 -3.22639 0 3 -3.22639 0
gene 3 1 19 2.1889 0 157 2.1889 1
gene 3 19 4 -0.24313 0 158 -0.24313 0
gene 1 2 19 -3.86152 0 224 -3.86152 1
gene 3 19 29 0.228811 0 320 0.228811 1
gene 3 29 4 -0.0998671 0 321 -0.0998671 1
gene 1 3 19 1.19124 0 340 1.19124 1
gene 2 4 4 -0.443892 1 497 -0.443892 1
gene 3 3 29 0.267137 0 552 0.267137 1
gene 3 4 29 0.831584 1 662 0.831584 1
gene 2 1 29 0.846523 0 711 0.846523 0
gene 2 2 29 -0.937401 0 885 -0.937401 0
genomeend 133

/* Organism #134 Fitness: 0.00502979 Error: 0.89497 */
genomestart 134
trait 1 0.557342 0.307455 0 0.487157 0 0.0855912 0.179662 0.0179833 
trait 2 0.2 0.0476606 0 0.219584 0.426228 0 0 0.222171 
trait 3 0.384329 0.174246 0.133448 0.0228473 0.612683 0 0 0.423364 
node 1 1 1 1
node 2 1 1 1
node 3 2 1 1
node 4 3 0 2
node 19 1 0 0
node 29 1 0 0
gene 3 1 4 0.753282 0 1 0.753282 1
gene 3 2 4 2.38978 0 2 2.38978 1
gene 1 3 4 -3.03862 0 3 -3.03862 0
gene 3 1 19 3.01403 0 157 3.01403 1
gene 3 19 4 -0.352049 0 158 -0.352049 0
gene 1 2 19 -1.93716 0 224 -1.93716 1
gene 3 19 29 2.59316 0 320 2.59316 1
gene 3 29 4 1.24917 0 321 1.24917 1
gene 1 3 19 1.2992 0 340 1.2992 1
gene 2 4 4 0.993347 1 497 0.993347 1
gene 3 3 29 -0.754587 0 552 -0.754587 1
gene 3 4 29 0.537836 1 662 0.537836 1
gene 2 1 29 0.0107948 0 711 0.0107948 1
gene 2 2 29 -1.1161 0 885 -1.1161 0
gene 1 4 19 -0.773615 1 1151 -0.773615 1
genomeend 134

/* Organism #135 Fitness: 0.450223 Error: 0.449777 */
genomestart 135
trait 1 0.557342 0.307455 0 0.487157 0 0.0855912 0.179662 0.0179833 
trait 2 0.2 0.0477547 0 0.220018 0.42707 0 0 0.22261 
trait 3 0.384329 0.195106 0.133448 0.0228473 0.419024 0 0 0.216429 
node 1 1 1 1
node 2 3 1 1
node 3 2 1 1
node 4 3 0 2
node 19 1 0 0
node 29 1 0 0
gene 3 1 4 1.72913 0 1 1.72913 0
gene 3 2 4 2.48459 0 2 2.48459 1
gene 1 3 4 -3.22639 0 3 -3.22639 0
gene 3 1 19 2.1889 0 157 2.1889 1
gene 3 19 4 -0.24313 0 158 -0.24313 0
gene 1 2 19 -3.86152 0 224 -3.86152 1
gene 3 19 29 0.228811 0 320 0.228811 1
gene 3 29 4 -0.259339 0 321 -0.259339 1
gene 1 3 19 0.0686174 0 340 0.0686174 1
gene 2 4 4 -0.443892 1 497 -0.443892 1
gene 3 3 29 0.267137 0 552 0.267137 1
gene 3 4 29 0.831584 1 662 0.831584 1
gene 2 1 29 0.846523 0 711 0.846523 0
gene 2 2 29 -0.937401 0 885 -0.937401 0
gene 3 29 29 -0.476371 1 1390 -0.476371 1
genomeend 135

/* Organism #136 Fitness: 0.444595 Error: 0.455405 */
genomestart 136
trait 1 0.557342 0.307455 0 0.487157 0 0.0855912 0.179662 0.0179833 
trait 2 0.2 0.0475664 0 0.21915 0.425385 0 0 0.221732 
trait 3 0.384329 0.215965 0.133448 0.0228473 0.225366 0 0 0.00949478 
node 1 1 1 1
node 2 3 1 1
node 3 2 1 1
node 4 3 0 2
node 19 1 0 0
node 29 1 0 0
gene 3 1 4 1.72913 0 1 1.72913 0
gene 3 2 4 3.02779 0 2 3.02779 1
gene 1 3 4 -3.22639 0 3 -3.22639 0
gene 3 1 19 2.1889 0 157 2.1889 1
gene 3 19 4 -0.24313 0 158 -0.24313 0
gene 1 2 19 -3.86152 0 224 -3.86152 1
gene 3 19 29 0.228811 0 320 0.228811 1
gene 3 29 4 -0.179603 0 321 -0.179603 1
gene 1 3 19 0.629927 0 340 0.629927 1
gene 2 4 4 -0.443892 1 497 -0.443892 1
gene 3 3 29 -0.22749 0 552 -0.22749 1
gene 3 4 29 0.831584 1 662 0.831584 1
gene 2 1 29 0.846523 0 711 0.846523 0
gene 2 2 29 -0.937401 0 885 -0.937401 0
genomeend 136

/* Organism #137 Fitness: 0.412454 Error: 0.487546 */
genomestart 137
trait 1 0.557342 0.307455 0 0.487157 0 0.0855912 0.179662 0.0179833 
trait 2 0.2 0.0474722 0 0.218716 0.424543 0 0 0.221293 
trait 3 0.384329 0.215965 0.133448 0.0228473 0.225366 0 0 0.00949478 
node 1 1 1 1
node 2 3 1 1
node 3 2 1 1
node 4 3 0 2
node 19 1 0 0
node 29 1 0 0
gene 3 1 4 1.72913 0 1 1.72913 1
gene 3 2 4 2.48459 0 2 2.48459 1
gene 1 3 4 -3.22639 0 3 -3.22639 0
gene 3 1 19 2.1889 0 157 2.1889 1
gene 3 19 4 -0.24313 0 158 -0.24313 0
gene 1 2 19 -3.86152 0 224 -3.86152 1
gene 3 19 29 0.228811 0 320 0.228811 1
gene 3 29 4 -0.0998671 0 321 -0.0998671 1
gene 1 3 19 1.19124 0 340 1.19124 1
gene 2 4 4 -0.443892 1 497 -0.443892 1
gene 3 3 29 0.267137 0 552 0.267137 1
gene 3 4 29 0.831584 1 662 0.831584 1
gene 2 1 29 0.846523 0 711 0.846523 1
gene 2 2 29 -0.937401 0 885 -0.937401 1
genomeend 137

/* Organism #138 Fitness: 0.444191 Error: 0.455809 */
genomestart 138
trait 1 0.510558 0.00225265 0.231 0.00403985 0 0.00534775 0.193647 0.00572882 
trait 2 0.2 0 0.0397604 0.196913 0.0127088 0 0.0294121 0.021788 
trait 3 0.346117 0.107139 0.32178 0.0906003 0.0698904 0 0.0092198 0.523669 
node 1 1 1 1
node 2 2 1 1
node 3 2 1 1
node 4 1 0 2
node 19 1 0 0
gene 3 1 4 0.516253 0 1 0.516253 1
gene 2 2 4 3.32112 0 2 3.32112 0
gene 1 3 4 1.25634 0 3 1.25634 0
gene 3 1 19 0.418313 0 157 0.418313 1
gene 3 19 4 -0.45221 0 158 -0.45221 0
gene 2 4 4 -0.92349 1 280 -0.92349 1
gene 2 2 19 0.169153 0 359 0.169153 1
gene 1 3 19 1.27045 0 407 1.27045 1
gene 1 19 19 -0.872269 1 695 -0.872269 1
gene 2 4 19 -0.750202 0 1309 0 1
genomeend 138

/* Organism #139 Fitness: 0.117816 Error: 0.782184 */
genomestart 139
trait 1 0.510558 0.00225265 0.231 0.00403985 0 0.00534775 0.193647 0.00572882 
trait 2 0.2 0 0.0397604 0.196913 0.0127088 0 0.0294121 0.021788 
trait 3 0.346117 0.107139 0.32178 0.0906003 0.0698904 0 0.0092198 0.523669 
node 1 1 1 1
node 2 2 1 1
node 3 2 1 1
node 4 1 0 2
node 19 1 0 0
gene 3 1 4 0.516253 0 1 0.516253 1
gene 2 2 4 3.32112 0 2 3.32112 0
gene 1 3 4 1.25634 0 3 1.25634 1
gene 3 1 19 0.418313 0 157 0.418313 1
gene 3 19 4 -0.45221 0 158 -0.45221 1
gene 2 4 4 -0.92349 1 280 -0.92349 1
gene 2 2 19 0.169153 0 359 0.169153 1
gene 1 3 19 1.27045 0 407 1.27045 1
gene 1 19 19 -0.872269 1 695 -0.872269 1
gene 1 4 19 0.708805 1 1462 0.708805 1
genomeend 139

/* Organism #140 Fitness: 0.028502 Error: 0.871498 */
genomestart 140
trait 1 0.510558 0.00225265 0.231 0.00403985 0 0.00534775 0.193647 0.00572882 
trait 2 0.2 0 0.0397604 0.196913 0.0127088 0 0.0294121 0.021788 
trait 3 0.346117 0.107139 0.32178 0.0906003 0.0698904 0 0.0092198 0.523669 
node 1 1 1 1
node 2 2 1 1
node 3 2 1 1
node 4 1 0 2
node 19 1 0 0
gene 3 1 4 1.26993 0 1 1.26993 1
gene 2 2 4 2.49312 0 2 2.49312 0
gene 1 3 4 0.455061 0 3 0.455061 1
gene 3 1 19 -0.77315 0 157 -0.77315 1
gene 3 19 4 -1.09884 0 158 -1.09884 1
gene 2 4 4 -1.36774 1 280 -1.36774 1
gene 2 2 19 0.379291 0 359 0.379291 1
gene 1 3 19 1.51519 0 407 1.51519 1
gene 1 19 19 -0.762842 1 695 -0.762842 1
genomeend 140

/* Organism #141 Fitness: 0.45207 Error: 0.44793 */
genomestart 141
trait 1 0.481679 0.00187721 0.1925 0.00428186 0 0.00445646 0.163333 0.00477401 
trait 2 0.2 0 0.0412896 0.193905 0.0105907 0 0.0305434 0.0181566 
trait 3 0.345459 0.10503 0.247171 0.0771662 0.104836 0 0.00957441 0.287539 
node 1 1 1 1
node 2 2 1 1
node 3 2 1 1
node 4 1 0 2
node 19 1 0 0
gene 3 1 4 0.22979 0 1 0.22979 1
gene 2 2 4 2.15179 0 2 2.15179 1
gene 1 3 4 1.26706 0 3 1.26706 1
gene 3 1 19 0.265366 0 157 0.265366 1
gene 3 19 4 -0.995877 0 158 -0.995877 0
gene 2 4 4 -0.246075 1 280 -0.246075 1
gene 2 2 19 0.0327201 0 359 0.0327201 1
gene 1 3 19 0.259081 0 407 0.259081 1
gene 1 19 19 -0.279817 1 695 -0.279817 1
gene 1 4 19 0.484436 0 1430 0 1
genomeend 141

/* Organism #142 Fitness: 0.443084 Error: 0.456916 */
genomestart 142
trait 1 0.480713 0.00206493 0.188714 0.00428957 0 0.00490211 0.160267 0.00525141 
trait 2 0.2 0 0.040525 0.195409 0.0116498 0 0.0299778 0.0199723 
trait 3 0.345788 0.106084 0.247544 0.0838833 0.109983 0 0.0093971 0.286685 
node 1 1 1 1
node 2 2 1 1
node 3 2 1 1
node 4 1 0 2
node 19 1 0 0
gene 3 1 4 0.242441 0 1 0.242441 1
gene 2 2 4 3.32112 0 2 3.32112 0
gene 1 3 4 1.25634 0 3 1.25634 0
gene 3 1 19 0.418313 0 157 0.418313 1
gene 3 19 4 -0.45221 0 158 -0.45221 0
gene 2 4 4 -0.92349 1 280 -0.92349 1
gene 2 2 19 0.169153 0 359 0.169153 1
gene 1 3 19 1.46174 0 407 1.46174 1
gene 1 19 19 -0.374687 1 695 -0.374687 1
genomeend 142

/* Organism #143 Fitness: 0.00584846 Error: 0.894152 */
genomestart 143
trait 1 0.510558 0.00225265 0.231 0.00403985 0 0.00534775 0.193647 0.00572882 
trait 2 0.2 0 0.0397604 0.196913 0.0127088 0 0.0294121 0.021788 
trait 3 0.215118 0.364009 0.32178 0.0906003 0.0698904 0 0.0092198 0.523669 
node 1 1 1 1
node 2 2 1 1
node 3 2 1 1
node 4 1 0 2
node 19 1 0 0
gene 3 1 4 -1.24806 0 1 -1.24806 1
gene 2 2 4 2.01525 0 2 2.01525 0
gene 1 3 4 0.116644 0 3 0.116644 0
gene 3 1 19 1.40479 0 157 1.40479 1
gene 3 19 4 -0.161439 0 158 -0.161439 0
gene 2 4 4 0.859201 1 280 0.859201 1
gene 2 2 19 -0.355801 0 359 -0.355801 1
gene 1 3 19 1.25735 0 407 1.25735 1
gene 1 19 19 0.294988 1 695 0.294988 1
genomeend 143

/* Organism #144 Fitness: 0.447234 Error: 0.452766 */
genomestart 144
