
/* Species #1 : (Size 11) (AF 412.809) (Age 9)  */


/* Organism #0 Fitness: 411.968 Error: 238.032 */
genomestart 0
trait 1 0.1 0 0 0 0 0 0 0 
trait 2 0.2 0.0920747 0 0 0 0 0 0 
trait 3 0.422543 0 0.0389114 0 0 0 0 0 
node 1 1 1 1
node 2 1 1 1
node 3 2 1 1
node 4 3 0 2
node 6 1 0 0
gene 3 1 4 2.54508 0 1 2.54508 1
gene 1 2 4 -0.986947 0 2 -0.986947 1
gene 2 3 4 2.22433 0 3 2.22433 0
gene 3 3 6 2.147 0 18 2.147 1
gene 3 6 4 -0.0900484 0 19 -0.0900484 1
gene 3 1 6 0.600675 0 53 0.600675 1
gene 2 2 6 1.16597 0 180 1.16597 1
genomeend 0

/* Organism #1 Fitness: 419.223 Error: 230.777 */
genomestart 1
trait 1 0.1 0 0 0 0 0 0 0 
trait 2 0.2 0.0920747 0 0 0 0 0 0 
trait 3 0.422543 0 0.0389114 0 0 0 0 0 
node 1 1 1 1
node 2 1 1 1
node 3 2 1 1
node 4 3 0 2
node 6 1 0 0
gene 3 1 4 1.78757 0 1 1.78757 1
gene 1 2 4 -1.50876 0 2 -1.50876 1
gene 2 3 4 4.70876 0 3 4.70876 1
gene 3 3 6 2.17376 0 18 2.17376 1
gene 3 6 4 -0.0297281 0 19 -0.0297281 1
gene 3 1 6 -1.22064 0 53 -1.22064 1
gene 2 2 6 -1.07747 0 180 -1.07747 1
genomeend 1

/* Organism #2 Fitness: 419.375 Error: 230.625 */
genomestart 2
trait 1 0.1 0 0 0 0 0 0 0 
trait 2 0.2 0.0575467 0.0915571 0 0 0 0.0382568 0 
trait 3 0.376589 0 0.0243196 0.165124 0 0 0.0833349 0 
node 1 1 1 1
node 2 1 1 1
node 3 2 1 1
node 4 3 0 2
node 6 1 0 0
gene 3 1 4 1.15052 0 1 1.15052 1
gene 1 2 4 -1.45249 0 2 -1.45249 1
gene 2 3 4 -1.08405 0 3 -1.08405 0
gene 2 3 6 0.691697 0 18 0.691697 1
gene 3 6 4 -0.775401 0 19 -0.775401 1
gene 3 1 6 -1.24807 0 53 -1.24807 1
genomeend 2

/* Organism #3 Fitness: 406.145 Error: 243.855 */
genomestart 3
trait 1 0.1 0.0560429 0 0 0 0.0543937 0 0 
trait 2 0.2 0.0230187 0 0 0 0 0 0 
trait 3 0.274219 0.0225839 0 0 0 0 0 0.00767918 
node 1 1 1 1
node 2 1 1 1
node 3 2 1 1
node 4 3 0 2
node 6 1 0 0
gene 3 1 4 5.53432 0 1 5.53432 1
gene 2 2 4 -1.33337 0 2 -1.33337 1
gene 2 3 4 4.09594 0 3 4.09594 1
gene 3 3 6 2.6923 0 18 2.6923 1
gene 3 6 4 0.076575 0 19 0.076575 1
gene 3 1 6 2.67546 0 53 2.67546 1
genomeend 3

/* Organism #4 Fitness: 420.244 Error: 229.756 */
genomestart 4
trait 1 0.1 0.0373619 0 0 0 0.0362625 0 0 
trait 2 0.2 0.0460373 0 0 0 0 0 0 
trait 3 0.307198 0.0150559 0.00972785 0 0 0 0 0.00511945 
node 1 1 1 1
node 2 1 1 1
node 3 2 1 1
node 4 3 0 2
node 6 1 0 0
gene 3 1 4 3.82211 0 1 3.82211 1
gene 2 2 4 -0.431045 0 2 -0.431045 1
gene 2 3 4 1.02846 0 3 1.02846 0
gene 2 3 6 0.29878 0 18 0.29878 1
gene 3 6 4 1.14827 0 19 1.14827 1
gene 3 1 6 1.08195 0 53 1.08195 1
genomeend 4

/* Organism #5 Fitness: 403.394 Error: 246.606 */
genomestart 5
trait 1 0.491041 0.270327 0 0 0.740907 0 0 0 
trait 2 0.2 0.0460373 0 0 0 0 0 0 
trait 3 0.356584 0.0150559 0.0194557 0 0 0 0 0.00511945 
node 1 1 1 1
node 2 1 1 1
node 3 2 1 1
node 4 3 0 2
node 6 1 0 0
gene 3 1 4 1.00016 0 1 1.00016 1
gene 1 2 4 -2.5158 0 2 -2.5158 1
gene 2 3 4 2.0909 0 3 2.0909 0
gene 2 3 6 2.95501 0 18 2.95501 1
gene 3 6 4 0.429441 0 19 0.429441 1
gene 3 1 6 -1.31038 0 53 -1.31038 1
gene 2 2 6 -0.317197 0 141 -0.317197 1
genomeend 5

/* Organism #6 Fitness: 403.916 Error: 246.084 */
genomestart 6
trait 1 0.1 0.0747239 0 0 0 0.072525 0 0 
trait 2 0.2 0 0 0 0 0 0 0 
trait 3 0.290625 0.0301119 0 0 0 0 0 0.0102389 
node 1 1 1 1
node 2 1 1 1
node 3 2 1 1
node 4 3 0 2
node 6 1 0 0
gene 3 1 4 6.98454 0 1 6.98454 1
gene 2 2 4 2.25336 0 2 2.25336 1
gene 1 3 4 4.83814 0 3 4.83814 0
gene 2 3 6 2.26108 0 18 2.26108 1
gene 3 6 4 2.17349 0 19 2.17349 1
gene 3 1 6 0.611042 0 53 0.611042 1
gene 2 2 6 0.323486 0 180 0.323486 1
genomeend 6

/* Organism #7 Fitness: 423.486 Error: 226.514 */
genomestart 7
trait 1 0.1 0.0373619 0 0 0 0.0362625 0 0 
trait 2 0.2 0 0.160225 0 0 0 0.0669493 0 
trait 3 0.295312 0.0150559 0 0 0 0 0 0.00511945 
node 1 1 1 1
node 2 1 1 1
node 3 2 1 1
node 4 3 0 2
node 6 1 0 0
gene 3 1 4 6.03995 0 1 6.03995 1
gene 1 2 4 -2.46243 0 2 -2.46243 1
gene 2 3 4 1.7658 0 3 1.7658 1
gene 2 3 6 1.41099 0 18 1.28599 1
gene 3 6 4 -1.08696 0 19 -1.08696 1
gene 3 1 6 0.530514 0 53 0.530514 0
gene 2 2 6 0.150497 0 180 0.150497 1
genomeend 7

/* Organism #8 Fitness: 418.188 Error: 231.812 */
genomestart 8
trait 1 0.1 0.0747239 0 0 0 0.072525 0 0 
trait 2 0.2 0 0 0 0 0 0 0 
trait 3 0.290625 0.0301119 0 0 0 0 0 0.0102389 
node 1 1 1 1
node 2 1 1 1
node 3 2 1 1
node 4 3 0 2
node 6 1 0 0
gene 3 1 4 5.2233 0 1 5.2233 1
gene 2 2 4 1.61989 0 2 1.61989 1
gene 1 3 4 5.31243 0 3 5.31243 0
gene 2 3 6 3.83063 0 18 3.83063 1
gene 3 6 4 0.570836 0 19 0.570836 1
gene 3 1 6 -0.0201038 0 53 -0.0201038 1
gene 2 2 6 0.0444632 0 180 0.0444632 1
genomeend 8

/* Organism #9 Fitness: 408.284 Error: 241.716 */
genomestart 9
trait 1 0.1 0.0373619 0 0 0 0.0362625 0 0 
trait 2 0.2 0.0460373 0 0 0 0 0 0 
trait 3 0.257812 0.0150559 0 0 0 0 0 0.00511945 
node 1 1 1 1
node 2 1 1 1
node 3 2 1 1
node 4 3 0 2
node 6 1 0 0
gene 3 1 4 4.26495 0 1 4.26495 1
gene 2 2 4 -0.258539 0 2 -0.258539 1
gene 2 3 4 2.32566 0 3 2.32566 0
gene 3 3 6 0.315284 0 18 0.315284 1
gene 3 6 4 3.432 0 19 3.432 1
gene 3 1 6 2.54867 0 53 2.54867 1
genomeend 9

/* Organism #10 Fitness: 406.678 Error: 243.322 */
genomestart 10
trait 1 0.1 0 0 0 0 0 0 0 
trait 2 0.2 0 0 0 0 0 0 0 
trait 3 0.3 0 0 0 0 0 0 0 
node 1 1 1 1
node 2 1 1 1
node 3 2 1 1
node 4 3 0 2
node 6 1 0 0
gene 3 1 4 2.67644 0 1 2.67644 1
gene 2 2 4 -1.19502 0 2 -1.19502 1
gene 2 3 4 2.93653 0 3 2.93653 1
gene 3 3 6 -0.327915 0 18 -0.327915 0
gene 3 6 4 1.48942 0 19 1.48942 1
gene 3 1 6 2.16568 0 53 2.16568 1
gene 2 2 6 2.28165 0 113 2.28165 1
genomeend 10

/* Species #2 : (Size 12) (AF 382.764) (Age 9)  */


/* Organism #11 Fitness: 435.126 Error: 214.874 */
genomestart 11
trait 1 0.1 0.0710758 0 0 0 0 0 0 
trait 2 0.25 0 0 0 0 0 0 0 
trait 3 0.361271 0 0.0194557 0 0 0 0 0 
node 1 1 1 1
node 2 1 1 1
node 3 2 1 1
node 4 3 0 2
node 6 1 0 0
gene 3 1 4 -1.39596 0 1 -1.39596 1
gene 1 2 4 -0.919323 0 2 -0.919323 1
gene 2 3 4 -0.611545 0 3 -0.611545 0
gene 3 3 6 0.848006 0 18 0.848006 1
gene 3 6 4 3.40175 0 19 3.40175 1
gene 3 1 6 3.31912 0 53 3.31912 1
gene 2 2 6 -2.55799 0 113 -2.55799 1
genomeend 11

/* Organism #12 Fitness: 427.874 Error: 222.126 */
genomestart 12
trait 1 0.1 0 0 0 0 0 0 0 
trait 2 0.2 0.0460373 0.0014203 0.322665 0 0 0.401798 0 
trait 3 0.3 0 0 0 0 0 0 0 
node 1 1 1 1
node 2 1 1 1
node 3 2 1 1
node 4 3 0 2
node 6 1 0 0
gene 3 1 4 -1.24575 0 1 -1.24575 1
gene 2 2 4 3.90648 0 2 3.90648 0
gene 2 3 4 -2.74284 0 3 -2.74284 0
gene 3 3 6 1.9269 0 18 1.9269 1
gene 3 6 4 2.9608 0 19 2.9608 1
gene 3 1 6 1.85253 0 53 1.85253 1
genomeend 12

/* Organism #13 Fitness: 445.887 Error: 204.113 */
genomestart 13
trait 1 0.1 0 0 0 0 0 0 0 
trait 2 0.2 0.0460373 0.0014203 0.322665 0 0 0.401798 0 
trait 3 0.3 0 0 0 0 0 0 0 
node 1 1 1 1
node 2 1 1 1
node 3 2 1 1
node 4 3 0 2
node 6 1 0 0
gene 3 1 4 -1.1105 0 1 -1.1105 1
gene 2 2 4 2.09758 0 2 2.09758 0
gene 2 3 4 -2.71629 0 3 -2.71629 0
gene 3 3 6 0.976673 0 18 0.976673 1
gene 3 6 4 3.92545 0 19 3.92545 1
gene 3 1 6 0.22561 0 53 0.22561 1
genomeend 13

/* Organism #14 Fitness: 389.881 Error: 260.119 */
genomestart 14
trait 1 0.1 0 0 0 0 0 0 0 
trait 2 0.2 0 0 0 0 0 0 0 
trait 3 0.15 0 0 0 0 0 0 0 
node 1 3 1 1
node 2 1 1 1
node 3 3 1 1
node 4 2 0 2
node 6 1 0 0
gene 3 1 4 1.70262 0 1 1.70262 1
gene 1 2 4 -0.634143 0 2 -0.634143 1
gene 1 3 4 -0.572798 0 3 -0.572798 1
gene 3 3 6 1.70173 0 18 1.70173 1
gene 3 6 4 3.96157 0 19 3.96157 1
gene 2 2 6 0.368139 0 113 0.368139 1
gene 1 1 6 -1.48575 0 149 -1.48575 1
genomeend 14

/* Organism #15 Fitness: 412.119 Error: 237.881 */
genomestart 15
trait 1 0.1 0 0 0 0 0 0 0 
trait 2 0.2 0 0 0 0 0 0 0 
trait 3 0.3 0.728247 0 0 0 0 0 0.406 
node 1 1 1 1
node 2 1 1 1
node 3 2 1 1
node 4 3 0 2
node 6 1 0 0
gene 2 1 4 3.35415 0 1 3.35415 1
gene 1 2 4 -1.05764 0 2 -1.05764 1
gene 2 3 4 -3.48526 0 3 -3.48526 0
gene 3 3 6 4.45357 0 18 4.45357 1
gene 3 6 4 4.13603 0 19 4.13603 1
gene 3 1 6 2.13584 0 53 2.13584 1
gene 2 2 6 -2.51873 0 113 -2.51873 1
genomeend 15

/* Organism #16 Fitness: 399.003 Error: 250.997 */
genomestart 16
trait 1 0.1 0.0177689 0 0 0 0 0 0 
trait 2 0.2125 0 0 0 0 0 0 0 
trait 3 0.315318 0 0.00486393 0 0 0 0 0 
node 1 1 1 1
node 2 1 1 1
node 3 2 1 1
node 4 3 0 2
node 6 1 0 0
gene 3 1 4 0.899755 0 1 0.899755 1
gene 1 2 4 0.120215 0 2 0.120215 1
gene 2 3 4 3.68814 0 3 3.68814 0
gene 3 3 6 -1.52053 0 18 -1.52053 1
gene 3 6 4 1.86654 0 19 1.86654 1
gene 3 1 6 1.43564 0 53 1.43564 1
gene 2 2 6 -2.0243 0 113 -2.0243 1
genomeend 16

/* Organism #17 Fitness: 2.33939 Error: 647.661 */
genomestart 17
trait 1 0.1 0.131935 0 0 0 0 0 0 
trait 2 0.2 0 0 0 0 0 0 0 
trait 3 0.3 0 0 0 0 0 0 0 
node 1 1 1 1
node 2 1 1 1
node 3 3 1 1
node 4 3 0 2
node 6 1 0 0
gene 3 1 4 -0.281832 0 1 -0.281832 1
gene 1 2 4 -1.35574 0 2 -1.35574 1
gene 3 3 4 1.33829 0 3 1.33829 0
gene 3 3 6 2.97245 0 18 2.97245 1
gene 3 6 4 -1.35989 0 19 -1.35989 1
gene 3 1 6 5.17282 0 53 5.17282 1
gene 2 2 6 -0.936511 0 113 -0.936511 1
genomeend 17

/* Organism #18 Fitness: 429.089 Error: 220.911 */
genomestart 18
trait 1 0.1 0.263871 0 0 0 0 0 0 
trait 2 0.2 0 0 0 0 0 0 0 
trait 3 0.3 0 0 0 0 0 0 0 
node 1 1 1 1
node 2 1 1 1
node 3 2 1 1
node 4 3 0 2
node 6 1 0 0
gene 2 1 4 2.75178 0 1 2.75178 1
gene 1 2 4 0.197386 0 2 0.197386 1
gene 3 3 4 -2.30564 0 3 -2.30564 0
gene 3 3 6 4.19297 0 18 4.19297 1
gene 3 6 4 3.74357 0 19 3.74357 1
gene 3 1 6 3.49705 0 53 3.49705 1
gene 2 2 6 -0.936511 0 113 -0.936511 1
genomeend 18

/* Organism #19 Fitness: 419.881 Error: 230.119 */
genomestart 19
trait 1 0.1 0.263871 0 0 0 0 0 0 
trait 2 0.2 0 0 0 0 0 0 0 
trait 3 0.3 0 0 0 0 0 0 0 
node 1 1 1 1
node 2 1 1 1
node 3 2 1 1
node 4 3 0 2
node 6 1 0 0
gene 2 1 4 2.58604 0 1 2.58604 1
gene 1 2 4 -1.30664 0 2 -1.30664 1
gene 3 3 4 -3.88797 0 3 -3.88797 0
gene 3 3 6 3.05075 0 18 3.05075 1
gene 3 6 4 3.74357 0 19 3.74357 1
gene 3 1 6 3.49705 0 53 3.49705 1
gene 2 2 6 -0.936511 0 113 -0.936511 1
genomeend 19

/* Organism #20 Fitness: 418.774 Error: 231.226 */
genomestart 20
trait 1 0.1 0.263871 0 0 0 0 0 0 
trait 2 0.2 0 0 0 0 0 0 0 
trait 3 0.3 0 0 0 0 0 0 0 
node 1 1 1 1
node 2 1 1 1
node 3 2 1 1
node 4 3 0 2
node 6 1 0 0
gene 2 1 4 2.58604 0 1 2.58604 1
gene 1 2 4 -1.30664 0 2 -1.30664 1
gene 3 3 4 -3.88797 0 3 -3.88797 0
gene 3 3 6 3.05075 0 18 3.05075 1
gene 3 6 4 3.74357 0 19 3.74357 1
gene 3 1 6 3.49705 0 53 3.49705 1
gene 2 2 6 -0.936511 0 113 -0.936511 1
genomeend 20

/* Organism #21 Fitness: 408.123 Error: 241.877 */
genomestart 21
trait 1 0.220447 0.684632 0.188971 0.46945 0.403118 0.474327 0 0 
trait 2 0.2 0 0 0 0 0 0 0 
trait 3 0.3 0 0 0 0 0 0 0 
node 1 1 1 1
node 2 1 1 1
node 3 2 1 1
node 4 3 0 2
node 6 1 0 0
gene 2 1 4 1.6539 0 1 1.6539 1
gene 1 2 4 -1.70121 0 2 -1.70121 1
gene 2 3 4 -4.80733 0 3 -4.80733 1
gene 3 3 6 2.86359 0 18 2.86359 1
gene 3 6 4 4.52878 0 19 4.52878 1
gene 3 1 6 2.19288 0 53 2.19288 1
gene 2 2 6 -1.66679 0 113 -1.66679 1
genomeend 21

/* Organism #22 Fitness: 405.068 Error: 244.932 */
genomestart 22
trait 1 0.1 0 0 0 0 0 0 0 
trait 2 0.2 0 0 0 0 0 0 0 
trait 3 0.3 0 0 0 0 0 0 0 
node 1 1 1 1
node 2 1 1 1
node 3 2 1 1
node 4 3 0 2
node 6 1 0 0
gene 3 1 4 1.54188 0 1 1.54188 1
gene 2 2 4 -0.913366 0 2 -0.913366 1
gene 2 3 4 -0.904279 0 3 -0.904279 1
gene 3 3 6 -1.76033 0 18 -1.76033 0
gene 3 6 4 2.53927 0 19 2.53927 1
gene 3 1 6 0.739282 0 53 0.739282 1
gene 2 2 6 1.18496 0 113 1.18496 1
genomeend 22

/* Species #3 : (Size 20) (AF 410.915) (Age 8)  */


/* Organism #23 Fitness: 406.163 Error: 243.837 */
genomestart 23
trait 1 0.1 0.132842 0.156015 0 0.125398 0.128933 0 0 
trait 2 0.2 0 0.0014203 0.322665 0 0 0.401798 0 
trait 3 0.3 0 0 0 0 0 0 0 
node 1 2 1 1
node 2 1 1 1
node 3 1 1 1
node 4 2 0 2
gene 2 1 4 3.78808 0 1 3.78808 1
gene 1 2 4 -0.63571 0 2 -0.63571 1
gene 2 3 4 -0.686037 0 3 -0.686037 0
genomeend 23

/* Organism #24 Fitness: 422.744 Error: 227.256 */
genomestart 24
trait 1 0.1 0 0 0 0 0 0 0 
trait 2 0.2 0.0552255 0.834725 0 0 0.102269 0 0 
trait 3 0.3 0 0 0 0 0 0 0 
node 1 2 1 1
node 2 1 1 1
node 3 2 1 1
node 4 3 0 2
gene 2 1 4 3.49617 0 1 3.49617 1
gene 2 2 4 -2.73813 0 2 -2.73813 1
gene 1 3 4 -4.19879 0 3 -4.19879 1
genomeend 24

/* Organism #25 Fitness: 415.628 Error: 234.372 */
genomestart 25
trait 1 0.1 0 0 0 0 0 0 0 
trait 2 0.2 0.0276127 0.520266 0 0 0.0511345 0 0 
trait 3 0.3 0 0 0 0 0 0 0 
node 1 3 1 1
node 2 1 1 1
node 3 3 1 1
node 4 2 0 2
gene 1 1 4 3.60891 0 1 3.60891 1
gene 1 2 4 -0.827628 0 2 -0.827628 1
gene 1 3 4 -3.81402 0 3 -3.81402 1
genomeend 25

/* Organism #26 Fitness: 411.124 Error: 238.876 */
genomestart 26
trait 1 0.1 0 0 0 0 0 0 0 
trait 2 0.2 0 0.102904 0 0 0 0 0 
trait 3 0.3 0 0 0 0 0 0 0 
node 1 1 1 1
node 2 3 1 1
node 3 3 1 1
node 4 2 0 2
gene 3 1 4 3.62913 0 1 3.62913 1
gene 2 2 4 -0.578251 0 2 -0.578251 1
gene 3 3 4 -3.21363 0 3 -3.21363 0
genomeend 26

/* Organism #27 Fitness: 396.079 Error: 253.921 */
genomestart 27
trait 1 0.1 0.149448 0 0 0 0.14505 0 0 
trait 2 0.2 0.0276127 0 0 0 0 0 0 
trait 3 0.3 0 0 0 0 0 0 0 
node 1 3 1 1
node 2 1 1 1
node 3 3 1 1
node 4 1 0 2
gene 2 1 4 4.56286 0 1 4.56286 1
gene 2 2 4 -3.56681 0 2 -3.56681 1
gene 1 3 4 -4.93323 0 3 -4.93323 1
genomeend 27

/* Organism #28 Fitness: 424.392 Error: 225.608 */
genomestart 28
trait 1 0.1 0 0 0 0 0 0 0 
trait 2 0.15 0.00690318 0 0.109844 0.0759299 0 0.172067 0 
trait 3 0.3 0 0 0 0 0 0 0 
node 1 2 1 1
node 2 1 1 1
node 3 2 1 1
node 4 3 0 2
gene 2 1 4 5.0588 0 1 5.0588 1
gene 2 2 4 -4.02264 0 2 -4.02264 1
gene 2 3 4 -2.23521 0 3 -2.23521 1
genomeend 28

/* Organism #29 Fitness: 423.006 Error: 226.994 */
genomestart 29
trait 1 0.1 0.149448 0 0 0 0.14505 0 0 
trait 2 0.2 0.0276127 0 0 0 0 0 0 
trait 3 0.3 0 0 0 0 0 0 0 
node 1 3 1 1
node 2 1 1 1
node 3 3 1 1
node 4 1 0 2
gene 2 1 4 5.38177 0 1 5.38177 1
gene 2 2 4 -3.24626 0 2 -3.24626 1
gene 1 3 4 -6.14106 0 3 -6.14106 1
genomeend 29

/* Organism #30 Fitness: 396.877 Error: 253.123 */
genomestart 30
trait 1 0.1 0.0747239 0 0 0 0.072525 0 0 
trait 2 0.1 0.0276127 0 0.219688 0.15186 0 0.344134 0 
trait 3 0.3 0 0 0 0 0 0 0 
node 1 3 1 1
node 2 1 1 1
node 3 3 1 1
node 4 1 0 2
gene 2 1 4 4.15476 0 1 4.15476 1
gene 2 2 4 -3.28845 0 2 -3.28845 1
gene 1 3 4 -4.93323 0 3 -4.93323 1
genomeend 30

/* Organism #31 Fitness: 414.869 Error: 235.131 */
genomestart 31
trait 1 0.1 0.315501 0 0 0 0.306217 0 0 
trait 2 0.2 0.2566 0.498277 0 0.713871 0 0 0.0893345 
trait 3 0.3 0 0 0 0 0 0 0 
node 1 3 1 1
node 2 1 1 1
node 3 3 1 1
node 4 1 0 2
gene 3 1 4 1.55858 0 1 1.55858 1
gene 2 2 4 -1.21835 0 2 -1.21835 1
gene 3 3 4 -5.98025 0 3 -5.98025 1
genomeend 31

/* Organism #32 Fitness: 422.062 Error: 227.938 */
genomestart 32
trait 1 0.1 0.315501 0 0 0 0.306217 0 0 
trait 2 0.2 0.2566 0.498277 0 0.713871 0 0 0.0893345 
trait 3 0.3 0 0 0 0 0 0 0 
node 1 3 1 1
node 2 1 1 1
node 3 3 1 1
node 4 1 0 2
gene 3 1 4 1.55858 0 1 1.55858 1
gene 2 2 4 -1.21835 0 2 -1.21835 1
gene 3 3 4 -5.98025 0 3 -5.98025 1
genomeend 32

/* Organism #33 Fitness: 397.104 Error: 252.896 */
genomestart 33
trait 1 0.1 0.315501 0 0 0 0.306217 0 0 
trait 2 0.2 0.2566 0.498277 0 0.713871 0 0 0.0893345 
trait 3 0.3 0 0 0 0 0 0 0 
node 1 3 1 1
node 2 1 1 1
node 3 3 1 1
node 4 1 0 2
gene 3 1 4 1.55858 0 1 1.55858 1
gene 2 2 4 -1.21835 0 2 -1.21835 1
gene 3 3 4 -5.98025 0 3 -5.98025 1
genomeend 33

/* Organism #34 Fitness: 410.564 Error: 239.436 */
genomestart 34
trait 1 0.1 0 0 0 0 0.306217 0 0 
trait 2 0.2 0.2566 0.498277 0 0.713871 0 0 0.0893345 
trait 3 0.3 0 0 0 0 0 0 0 
node 1 3 1 1
node 2 1 1 1
node 3 3 1 1
node 4 1 0 2
gene 3 1 4 1.55858 0 1 1.55858 1
gene 2 2 4 -1.21835 0 2 -1.21835 1
gene 3 3 4 -5.98025 0 3 -5.98025 1
genomeend 34

/* Organism #35 Fitness: 417.615 Error: 232.385 */
genomestart 35
trait 1 0.1 0.0664212 0.0780073 0 0.134524 0.0644667 0 0 
trait 2 0.15 0.00690318 0.00071015 0.271177 0.0759299 0 0.372966 0 
trait 3 0.3 0 0 0 0 0 0 0 
node 1 2 1 1
node 2 1 1 1
node 3 1 1 1
node 4 2 0 2
gene 2 1 4 1.81644 0 1 1.81644 1
gene 1 2 4 -2.30087 0 2 -2.30087 1
gene 2 3 4 -0.670751 0 3 -0.670751 0
genomeend 35

/* Organism #36 Fitness: 411.266 Error: 238.734 */
genomestart 36
trait 1 0.1 0.265685 0.624058 0 0.501593 0.257867 0 0 
trait 2 0.2 0 0 0 0 0 0 0 
trait 3 0.3 0 0 0 0 0 0 0 
node 1 3 1 1
node 2 1 1 1
node 3 3 1 1
node 4 1 0 2
gene 2 1 4 2.31957 0 1 2.31957 1
gene 2 2 4 -3.96653 0 2 -3.96653 1
gene 2 3 4 -1.39467 0 3 -1.39467 1
genomeend 36

/* Organism #37 Fitness: 420.349 Error: 229.651 */
genomestart 37
trait 1 0.1 0.199264 0.468044 0 0.376195 0.1934 0 0 
trait 2 0.2 0 0.0257259 0 0 0 0 0 
trait 3 0.3 0 0 0 0 0 0 0 
node 1 3 1 1
node 2 1 1 1
node 3 3 1 1
node 4 1 0 2
gene 2 1 4 2.36877 0 1 2.36877 1
gene 2 2 4 -3.33047 0 2 -3.33047 1
gene 2 3 4 -1.39731 0 3 -1.39731 1
genomeend 37

/* Organism #38 Fitness: 407.284 Error: 242.716 */
genomestart 38
trait 1 0.1 0.199264 0.468044 0 0.376195 0.1934 0 0 
trait 2 0.2 0 0.0257259 0 0 0 0 0 
trait 3 0.3 0 0 0 0 0 0 0 
node 1 3 1 1
node 2 1 1 1
node 3 3 1 1
node 4 1 0 2
gene 2 1 4 2.36877 0 1 2.36877 1
gene 1 2 4 -3.33047 0 2 -3.33047 1
gene 2 3 4 -1.39731 0 3 -1.39731 1
genomeend 38

/* Organism #39 Fitness: 398.712 Error: 251.288 */
genomestart 39
trait 1 0.1 0.0747239 0 0 0 0.072525 0 0 
trait 2 0.2 0.0414191 0 0 0 0 0 0 
trait 3 0.3 0 0 0 0 0 0 0 
node 1 3 1 1
node 2 1 1 1
node 3 3 1 1
node 4 1 0 2
gene 2 1 4 3.96504 0 1 3.96504 1
gene 2 2 4 -5.69017 0 2 -5.69017 1
gene 1 3 4 -5.41334 0 3 -5.41334 1
genomeend 39

/* Organism #40 Fitness: 408.68 Error: 241.32 */
genomestart 40
trait 1 0.1 0.0747239 0 0 0 0.072525 0 0 
trait 2 0.2 0.0414191 0 0 0 0 0 0 
trait 3 0.3 0 0 0 0 0 0 0 
node 1 3 1 1
node 2 1 1 1
node 3 3 1 1
node 4 1 0 2
gene 2 1 4 3.77054 0 1 3.77054 1
gene 2 2 4 -7.44203 0 2 -7.44203 1
gene 1 3 4 -4.31824 0 3 -4.31824 1
genomeend 40

/* Organism #41 Fitness: 401.168 Error: 248.832 */
genomestart 41
trait 1 0.1 0.0373619 0 0 0 0.0362625 0 0 
trait 2 0.175 0.0241611 0 0.0549221 0.0379649 0 0.0860336 0 
trait 3 0.3 0 0 0 0 0 0 0 
node 1 2 1 1
node 2 1 1 1
node 3 2 1 1
node 4 3 0 2
gene 2 1 4 3.0434 0 1 3.0434 1
gene 2 2 4 -4.24147 0 2 -4.24147 1
gene 2 3 4 -4.4875 0 3 -4.4875 1
genomeend 41

/* Organism #42 Fitness: 412.605 Error: 237.395 */
genomestart 42
trait 1 0.1 0.0747239 0 0 0 0.072525 0 0 
trait 2 0.2 0.0414191 0 0 0 0 0 0 
trait 3 0.3 0 0 0 0 0 0 0 
node 1 3 1 1
node 2 1 1 1
node 3 3 1 1
node 4 1 0 2
gene 2 1 4 3.96504 0 1 3.96504 1
gene 2 2 4 -5.69017 0 2 -5.69017 1
gene 1 3 4 -5.41334 0 3 -5.41334 1
genomeend 42

/* Species #4 : (Size 21) (AF 389.841) (Age 8)  */


/* Organism #43 Fitness: 2.33939 Error: 647.661 */
genomestart 43
trait 1 0.1 0 0 0 0 0 0 0 
trait 2 0.2 0.0276127 0 0 0 0 0 0 
trait 3 0.3 0 0 0 0 0 0 0 
node 1 2 1 1
node 2 1 1 1
node 3 2 1 1
node 4 3 0 2
gene 2 1 4 -0.103058 0 1 -0.103058 1
gene 1 2 4 1.2685 0 2 1.2685 1
gene 2 3 4 -0.381589 0 3 -0.381589 1
genomeend 43

/* Organism #44 Fitness: 429.475 Error: 220.525 */
genomestart 44
trait 1 0.1 0.417145 0 0 0 0.128933 0 0 
trait 2 0.4 0 0 0 0 0 0 0 
trait 3 0.3 0 0 0 0 0 0 0 
node 1 1 1 1
node 2 3 1 1
node 3 1 1 1
node 4 2 0 2
gene 1 1 4 1.33847 0 1 1.33847 1
gene 2 2 4 0.950657 0 2 0.950657 1
gene 2 3 4 3.05998 0 3 3.05998 1
genomeend 44

/* Organism #45 Fitness: 416.449 Error: 233.551 */
genomestart 45
trait 1 0.1 0.32481 0 0 0 0.177283 0 0 
trait 2 0.3 0 0.0222331 0.0340719 0 0 0.0273373 0 
trait 3 0.3 0 0 0 0 0 0.0381444 0 
node 1 3 1 1
node 2 1 1 1
node 3 3 1 1
node 4 1 0 2
gene 3 1 4 2.03315 0 1 2.03315 1
gene 2 2 4 2.13397 0 2 2.13397 0
gene 2 3 4 4.26137 0 3 4.26137 0
genomeend 45

/* Organism #46 Fitness: 388.005 Error: 261.995 */
genomestart 46
trait 1 0.1 0.190961 0 0 0 0.185342 0 0 
trait 2 0.2 0 0.0222331 0.0340719 0 0 0.0273373 0 
trait 3 0.3 0 0 0 0 0 0.0381444 0 
node 1 3 1 1
node 2 1 1 1
node 3 3 1 1
node 4 1 0 2
gene 3 1 4 2.57798 0 1 2.57798 1
gene 3 2 4 2.40871 0 2 2.40871 1
gene 3 3 4 2.66422 0 3 2.66422 0
genomeend 46

/* Organism #47 Fitness: 414.134 Error: 235.866 */
genomestart 47
trait 1 0.1 0.166053 0 0 0 0.161167 0 0 
trait 2 0.2 0 0.0222331 0.0340719 0 0 0.0273373 0 
trait 3 0.3 0 0 0 0 0 0.0762887 0 
node 1 1 1 1
node 2 1 1 1
node 3 2 1 1
node 4 3 0 2
gene 3 1 4 1.55949 0 1 1.55949 1
gene 2 2 4 3.53026 0 2 3.53026 0
gene 2 3 4 4.38531 0 3 4.38531 0
genomeend 47

/* Organism #48 Fitness: 407.238 Error: 242.762 */
genomestart 48
trait 1 0.1 0 0 0 0 0 0 0 
trait 2 0.2 0 0.0514518 0 0 0 0 0 
trait 3 0.3 0 0 0 0 0 0 0 
node 1 3 1 1
node 2 1 1 1
node 3 3 1 1
node 4 2 0 2
node 5 1 0 0
gene 1 1 4 0.766255 0 1 0.766255 1
gene 1 2 4 -0.507656 0 2 -0.507656 1
gene 1 3 4 3.72561 0 3 3.72561 1
gene 1 1 5 -2.53705 0 4 -2.53705 1
gene 1 5 4 -0.689436 0 5 -0.689436 1
gene 1 5 5 3.38939 1 80 3.38939 1
genomeend 48

/* Organism #49 Fitness: 403.401 Error: 246.599 */
genomestart 49
trait 1 0.1 0 0 0 0 0 0 0 
trait 2 0.2 0 0.0514518 0 0 0 0 0 
trait 3 0.3 0 0 0 0 0 0 0 
node 1 3 1 1
node 2 1 1 1
node 3 3 1 1
node 4 2 0 2
node 5 1 0 0
gene 1 1 4 2.18412 0 1 2.18412 1
gene 1 2 4 -0.921521 0 2 -0.921521 1
gene 1 3 4 3.06778 0 3 3.06778 1
gene 1 1 5 -0.827826 0 4 -0.827826 0
gene 1 5 4 -0.945875 0 5 -0.945875 1
gene 1 5 5 1.863 1 80 1.863 1
genomeend 49

/* Organism #50 Fitness: 429.845 Error: 220.155 */
genomestart 50
trait 1 0.1 0 0 0 0 0 0 0 
trait 2 0.2 0 0.102904 0 0 0 0 0 
trait 3 0.3 0 0 0 0 0 0 0 
node 1 3 1 1
node 2 1 1 1
node 3 3 1 1
node 4 2 0 2
node 5 1 0 0
gene 1 1 4 1.83523 0 1 1.83523 1
gene 1 2 4 0.905848 0 2 0.905848 1
gene 1 3 4 3.08444 0 3 3.08444 1
gene 1 1 5 -1.91689 0 4 -1.91689 0
gene 1 5 4 -1.49849 0 5 -1.49849 1
gene 1 5 5 0.709225 1 80 0.709225 1
gene 2 2 5 -0.311946 0 260 0 1
genomeend 50

/* Organism #51 Fitness: 403.032 Error: 246.968 */
genomestart 51
trait 1 0.1 0.182658 0 0 0 0.177283 0 0 
trait 2 0.2 0.000720522 0 0 0 0 0.0191284 0.157046 
trait 3 0.28125 0.0602238 0 0 0 0 0 0.0204778 
node 1 1 1 1
node 2 3 1 1
node 3 3 1 1
node 4 2 0 2
gene 1 1 4 3.0539 0 1 3.0539 1
gene 1 2 4 -2.80925 0 2 -2.80925 1
gene 3 3 4 2.73519 0 3 2.73519 1
genomeend 51

/* Organism #52 Fitness: 405.016 Error: 244.984 */
genomestart 52
trait 1 0.145193 0.239926 0.00679155 0.0268918 0.038471 0.229399 0.0270331 0 
trait 2 0.2 0 0 0 0 0 0 0 
trait 3 0.280078 0.0706409 0 0 0 0 0.00904406 0.0217577 
node 1 3 1 1
node 2 1 1 1
node 3 3 1 1
node 4 1 0 2
gene 1 1 4 5.1062 0 1 5.1062 1
gene 3 2 4 -1.05608 0 2 -1.05608 1
gene 3 3 4 3.10678 0 3 3.10678 1
genomeend 52

/* Organism #53 Fitness: 405.196 Error: 244.804 */
genomestart 53
trait 1 0.145193 0.239926 0.00679155 0.0268918 0.038471 0.229399 0.0270331 0 
trait 2 0.2 0 0 0 0 0 0 0 
trait 3 0.280078 0.0706409 0 0 0 0 0.00904406 0.0217577 
node 1 3 1 1
node 2 1 1 1
node 3 3 1 1
node 4 1 0 2
gene 1 1 4 5.1062 0 1 5.1062 1
gene 2 2 4 -1.05608 0 2 -1.05608 1
gene 3 3 4 3.10678 0 3 3.10678 1
genomeend 53

/* Organism #54 Fitness: 423.806 Error: 226.194 */
genomestart 54
trait 1 0.1 0.170708 0.0780073 0 0.0626992 0.0967 0 0 
trait 2 0.25 0.00690318 0.00071015 0.161332 0 0 0.200899 0 
trait 3 0.3 0 0 0 0 0 0 0 
node 1 2 1 1
node 2 1 1 1
node 3 2 1 1
node 4 3 0 2
gene 1 1 4 1.74683 0 1 1.74683 1
gene 2 2 4 0.476379 0 2 0.476379 1
gene 2 3 4 -1.61839 0 3 -1.61839 0
genomeend 54

/* Organism #55 Fitness: 398.294 Error: 251.706 */
genomestart 55
trait 1 0.1 0.265685 0 0 0 0.57509 0 0.338732 
trait 2 0.2 0 0 0 0 0 0 0 
trait 3 0.3 0 0 0 0 0 0 0 
node 1 3 1 1
node 2 1 1 1
node 3 3 1 1
node 4 1 0 2
node 14 1 0 0
gene 2 1 4 1.63501 0 1 1.63501 1
gene 3 2 4 -0.879127 0 2 -0.879127 1
gene 3 3 4 4.86615 0 3 4.86615 0
gene 3 3 14 1.08159 0 125 1.08159 1
gene 3 14 4 4.56102 0 126 4.56102 1
genomeend 55

/* Organism #56 Fitness: 412.086 Error: 237.914 */
genomestart 56
trait 1 0.1 0 0 0 0 0 0 0 
trait 2 0.2 0 0.102904 0 0 0 0 0 
trait 3 0.3 0 0 0 0 0 0 0 
node 1 3 1 1
node 2 1 1 1
node 3 3 1 1
node 4 2 0 2
node 5 1 0 0
gene 1 1 4 1.83523 0 1 1.83523 1
gene 1 2 4 2.26205 0 2 2.26205 1
gene 1 3 4 3.08444 0 3 3.08444 1
gene 1 1 5 -1.43481 0 4 -1.43481 1
gene 1 5 4 -1.49849 0 5 -1.49849 1
gene 1 5 5 0.709225 1 80 0.709225 1
gene 2 2 5 0.311851 0 219 0 1
genomeend 56

/* Organism #57 Fitness: 391.796 Error: 258.204 */
genomestart 57
trait 1 0.1 0 0 0 0 0 0 0 
trait 2 0.2 0 0.102904 0 0 0 0 0 
trait 3 0.3 0 0 0 0 0 0 0 
node 1 3 1 1
node 2 1 1 1
node 3 3 1 1
node 4 2 0 2
node 5 1 0 0
gene 1 1 4 1.41551 0 1 1.41551 1
gene 1 2 4 1.58395 0 2 1.58395 1
gene 1 3 4 2.81842 0 3 2.81842 1
gene 1 1 5 -1.67585 0 4 -1.67585 1
gene 1 5 4 -1.49849 0 5 -1.49849 1
gene 1 5 5 0.709225 1 80 0.709225 1
gene 2 2 5 0.311851 0 219 0 1
gene 2 3 5 0.507408 0 261 0 1
genomeend 57

/* Organism #58 Fitness: 411.938 Error: 238.062 */
genomestart 58
trait 1 0.1 0 0 0 0 0 0 0 
trait 2 0.2 0 0.102904 0 0 0 0 0 
trait 3 0.3 0 0 0 0 0 0 0 
node 1 3 1 1
node 2 1 1 1
node 3 3 1 1
node 4 1 0 2
node 5 1 0 0
gene 1 1 4 0.995798 0 1 0.995798 1
gene 1 2 4 0.905848 0 2 0.905848 1
gene 1 3 4 2.55239 0 3 2.55239 1
gene 1 1 5 -1.91689 0 4 -1.91689 1
gene 1 5 4 -1.49849 0 5 -1.49849 1
gene 1 5 5 0.709225 1 80 0.709225 1
gene 2 2 5 0.311851 0 219 0 1
genomeend 58

/* Organism #59 Fitness: 402.806 Error: 247.194 */
genomestart 59
trait 1 0.1 0.232474 0 0 0 0.225633 0 0 
trait 2 0.2 0 0.0444662 0.0681439 0 0 0.0546745 0 
trait 3 0.3 0 0 0 0 0 0.0762887 0 
node 1 3 1 1
node 2 1 1 1
node 3 3 1 1
node 4 1 0 2
gene 3 1 4 3.10039 0 1 3.10039 1
gene 3 2 4 2.97873 0 2 2.97873 0
gene 3 3 4 4.83194 0 3 4.83194 1
genomeend 59

/* Organism #60 Fitness: 395.01 Error: 254.99 */
genomestart 60
trait 1 0.1 0 0 0 0 0 0 0 
trait 2 0.2 0 0 0 0 0 0 0 
trait 3 0.3 0 0 0 0 0 0 0 
node 1 1 1 1
node 2 1 1 1
node 3 2 1 1
node 4 3 0 2
node 6 1 0 0
gene 3 1 4 1.24572 0 1 1.24572 1
gene 2 2 4 1.47936 0 2 1.47936 1
gene 2 3 4 2.48264 0 3 2.48264 1
gene 3 3 6 -1.32636 0 18 -1.32636 0
gene 3 6 4 3.89591 0 19 3.89591 1
gene 3 1 6 1.30323 0 53 1.30323 1
gene 2 2 6 2.4934 0 113 2.4934 1
genomeend 60

/* Organism #61 Fitness: 409.085 Error: 240.915 */
genomestart 61
trait 1 0.244616 0.0996319 0 0.0860539 0.0911664 0.0967 0.0865059 0 
trait 2 0.2 0 0 0 0 0 0 0 
trait 3 0.3 0 0 0 0 0 0 0 
node 1 3 1 1
node 2 1 1 1
node 3 3 1 1
node 4 1 0 2
node 5 1 0 0
gene 1 1 4 2.21105 0 1 2.21105 1
gene 1 2 4 -1.17519 0 2 -1.17519 1
gene 1 3 4 3.07602 0 3 3.07602 1
gene 1 1 5 2.21631 0 4 2.21631 1
gene 1 5 4 -1.31804 0 5 -1.31804 1
gene 3 4 4 3.02954 1 138 3.02954 1
genomeend 61

/* Organism #62 Fitness: 426.386 Error: 223.614 */
genomestart 62
trait 1 0.244616 0.0996319 0 0.0860539 0.0911664 0.0967 0.0865059 0 
trait 2 0.2 0 0 0 0 0 0 0 
trait 3 0.3 0 0 0 0 0 0 0 
node 1 3 1 1
node 2 1 1 1
node 3 3 1 1
node 4 1 0 2
node 5 1 0 0
gene 1 1 4 3.6538 0 1 3.6538 1
gene 1 2 4 0.392632 0 2 0.392632 1
gene 1 3 4 3.14172 0 3 3.14172 1
gene 1 1 5 0.738732 0 4 0.738732 1
gene 1 5 4 0.390088 0 5 0.390088 1
gene 3 4 4 2.9917 1 138 2.9917 1
genomeend 62

/* Organism #63 Fitness: 411.316 Error: 238.684 */
genomestart 63
trait 1 0.244616 0.0996319 0 0.0860539 0.0911664 0.0967 0.0865059 0 
trait 2 0.2 0 0 0 0 0 0 0 
trait 3 0.3 0 0 0 0 0 0 0 
node 1 3 1 1
node 2 1 1 1
node 3 3 1 1
node 4 1 0 2
node 5 1 0 0
gene 1 1 4 2.21105 0 1 2.21105 1
gene 1 2 4 -1.17519 0 2 -1.17519 1
gene 1 3 4 3.07602 0 3 3.07602 1
gene 1 1 5 2.21631 0 4 2.21631 1
gene 1 5 4 -1.31804 0 5 -1.31804 1
gene 3 4 4 3.02954 1 138 3.02954 1
genomeend 63

/* Species #5 : (Size 17) (AF 404.475) (Age 8)  */


/* Organism #64 Fitness: 410.066 Error: 239.934 */
genomestart 64
trait 1 0.1 0.0664212 0.0780073 0 0.0626992 0.0644667 0 0 
trait 2 0.2 0 0.00071015 0.161332 0 0 0.200899 0 
trait 3 0.3 0 0 0 0 0 0 0 
node 1 2 1 1
node 2 1 1 1
node 3 1 1 1
node 4 2 0 2
node 5 1 0 0
gene 1 1 4 2.65236 0 1 2.65236 1
gene 1 2 4 -0.441017 0 2 -0.441017 1
gene 1 3 4 -1.38287 0 3 -1.38287 1
gene 1 1 5 -1.99697 0 4 -1.99697 1
gene 1 5 4 -0.756041 0 5 -0.756041 1
gene 1 5 5 0.405437 1 80 0.405437 1
genomeend 64

/* Organism #65 Fitness: 398.09 Error: 251.91 */
genomestart 65
trait 1 0.1 0 0 0 0 0 0 0 
trait 2 0.2 0 0 0 0 0 0 0 
trait 3 0.3 0 0 0 0 0 0 0 
node 1 3 1 1
node 2 1 1 1
node 3 3 1 1
node 4 2 0 2
node 5 1 0 0
gene 1 1 4 3.7636 0 1 3.7636 1
gene 1 2 4 -1.66574 0 2 -1.66574 1
gene 1 3 4 1.37112 0 3 1.37112 1
gene 1 1 5 -1.43476 0 4 -1.43476 1
gene 1 5 4 -1.78756 0 5 -1.78756 1
gene 1 5 5 1.50175 1 80 1.50175 1
gene 3 3 5 -0.736851 0 144 0 1
gene 2 2 5 -0.124312 0 182 0 1
genomeend 65

/* Organism #66 Fitness: 409.403 Error: 240.597 */
genomestart 66
trait 1 0.1 0 0 0 0 0 0 0 
trait 2 0.2 0 0 0 0 0 0 0 
trait 3 0.3 0 0 0 0 0 0 0 
node 1 3 1 1
node 2 1 1 1
node 3 3 1 1
node 4 2 0 2
node 5 1 0 0
gene 1 1 4 3.84742 0 1 3.84742 1
gene 1 2 4 0.866327 0 2 0.866327 1
gene 1 3 4 0.0969869 0 3 0.0969869 1
gene 1 1 5 -1.72027 0 4 -1.72027 1
gene 1 5 4 -0.672882 0 5 -0.672882 1
gene 1 5 5 -1.13365 1 80 -1.13365 1
gene 3 3 5 -0.736851 0 144 0 1
gene 2 2 5 -0.311946 0 260 0 1
genomeend 66

/* Organism #67 Fitness: 409.74 Error: 240.26 */
genomestart 67
trait 1 0.1 0 0 0 0 0 0 0 
trait 2 0.2 0 0 0 0 0 0 0 
trait 3 0 0 0 0 0 0.4231 0 0 
node 1 3 1 1
node 2 1 1 1
node 3 3 1 1
node 4 2 0 2
node 5 1 0 0
gene 1 1 4 3.10652 0 1 3.10652 1
gene 1 2 4 0.333678 0 2 0.333678 1
gene 1 3 4 0.473161 0 3 0.473161 1
gene 1 1 5 -2.42254 0 4 -2.42254 1
gene 1 5 4 -1.48952 0 5 -1.48952 1
gene 1 5 5 -2.05999 1 80 -2.05999 1
gene 3 3 5 -1.87241 0 144 -1.87241 1
genomeend 67

/* Organism #68 Fitness: 420.445 Error: 229.555 */
genomestart 68
trait 1 0.1 0.0332106 0.0390036 0 0.0313496 0.0322333 0 0 
trait 2 0.2 0 0.000355075 0.0806662 0 0 0.10045 0 
trait 3 0.3 0 0 0 0 0 0 0 
node 1 2 1 1
node 2 1 1 1
node 3 1 1 1
node 4 2 0 2
node 5 1 0 0
gene 1 1 4 2.65236 0 1 2.65236 1
gene 1 2 4 -0.855953 0 2 -0.855953 1
gene 1 3 4 -1.38287 0 3 -1.38287 1
gene 1 1 5 -1.99697 0 4 -1.99697 1
gene 1 5 4 -2.0843 0 5 -2.0843 1
gene 1 5 5 0.405437 1 80 0.405437 1
gene 3 3 5 0.893683 0 144 0.893683 1
genomeend 68

/* Organism #69 Fitness: 420.365 Error: 229.635 */
genomestart 69
trait 1 0.1 0 0 0 0 0 0 0 
trait 2 0.2 0 0 0 0 0 0 0 
trait 3 0.3 0 0 0 0 0 0 0 
node 1 3 1 1
node 2 1 1 1
node 3 3 1 1
node 4 2 0 2
node 5 1 0 0
gene 1 1 4 0.812651 0 1 0.812651 1
gene 1 2 4 -3.04692 0 2 -3.04692 1
gene 1 3 4 2.05418 0 3 2.05418 1
gene 2 1 5 -2.00011 0 4 -2.00011 1
gene 1 5 4 -1.83227 0 5 -1.83227 1
gene 1 5 5 2.64043 1 80 2.64043 1
gene 3 3 5 -2.07441 0 144 -2.07441 1
genomeend 69

/* Organism #70 Fitness: 397.121 Error: 252.879 */
genomestart 70
trait 1 0.1 0 0 0 0 0 0 0 
trait 2 0.2 0 0 0 0 0 0 0 
trait 3 0.3 0 0 0 0 0 0 0 
node 1 3 1 1
node 2 1 1 1
node 3 3 1 1
node 4 2 0 2
node 5 1 0 0
gene 1 1 4 2.36224 0 1 2.36224 1
gene 1 2 4 -1.9127 0 2 -1.9127 1
gene 1 3 4 2.81846 0 3 2.81846 1
gene 1 1 5 -0.0746098 0 4 -0.0746098 1
gene 1 5 4 -1.97512 0 5 -1.97512 1
gene 1 5 5 3.2813 1 80 3.2813 1
gene 3 3 5 0.286823 0 144 0.286823 1
gene 2 2 5 0.9027 0 182 0.9027 1
genomeend 70

/* Organism #71 Fitness: 413.792 Error: 236.208 */
genomestart 71
trait 1 0.1 0 0 0 0 0 0 0 
trait 2 0.2 0 0 0 0 0 0 0 
trait 3 0.3 0 0 0 0 0 0 0 
node 1 3 1 1
node 2 1 1 1
node 3 3 1 1
node 4 2 0 2
node 5 1 0 0
gene 1 1 4 0.450145 0 1 0.450145 1
gene 1 2 4 -0.651288 0 2 -0.651288 1
gene 1 3 4 2.81846 0 3 2.81846 1
gene 1 1 5 -1.41848 0 4 -1.41848 1
gene 1 5 4 -1.91019 0 5 -1.91019 1
gene 1 5 5 3.53902 1 80 3.53902 1
gene 3 3 5 0.133513 0 144 0.133513 1
gene 2 2 5 0.9027 0 182 0.9027 1
genomeend 71

/* Organism #72 Fitness: 408.191 Error: 241.809 */
genomestart 72
trait 1 0.1 0 0 0 0 0 0 0 
trait 2 0.2 0 0.0514518 0 0 0 0 0 
trait 3 0.3 0 0 0 0 0 0 0 
node 1 3 1 1
node 2 1 1 1
node 3 3 1 1
node 4 2 0 2
node 5 1 0 0
gene 1 1 4 3.40891 0 1 3.40891 1
gene 3 2 4 -1.36441 0 2 -1.36441 1
gene 1 3 4 1.36508 0 3 1.36508 1
gene 1 1 5 -1.83473 0 4 -1.83473 0
gene 1 5 4 -0.567547 0 5 -0.567547 1
gene 1 5 5 1.64798 1 80 1.64798 1
genomeend 72

/* Organism #73 Fitness: 410.391 Error: 239.609 */
genomestart 73
trait 1 0.05 0 0 0 0 0.410261 0 0 
trait 2 0.2 0 0 0 0 0 0 0 
trait 3 0.3 0 0 0 0 0 0 0 
node 1 3 1 1
node 2 1 1 1
node 3 3 1 1
node 4 2 0 2
node 5 1 0 0
gene 1 1 4 1.27093 0 1 1.27093 1
gene 1 2 4 -0.0604018 0 2 -0.0604018 1
gene 1 3 4 0.508445 0 3 0.508445 1
gene 1 1 5 0.115276 0 4 0.115276 1
gene 1 5 4 0.443747 0 5 0.443747 1
gene 1 5 5 -1.24662 1 80 -1.24662 1
gene 3 3 5 -1.70978 0 144 -1.70978 1
gene 2 4 4 0.540885 1 158 0.540885 1
gene 2 2 5 -0.124312 0 182 0 1
genomeend 73

/* Organism #74 Fitness: 389.921 Error: 260.079 */
genomestart 74
trait 1 0.05 0 0 0 0 0.410261 0 0 
trait 2 0.2 0 0 0 0 0 0 0 
trait 3 0.3 0 0 0 0 0 0 0 
node 1 3 1 1
node 2 1 1 1
node 3 3 1 1
node 4 2 0 2
node 5 1 0 0
gene 1 1 4 1.42928 0 1 1.42928 1
gene 1 2 4 0.595352 0 2 0.595352 1
gene 1 3 4 1.53538 0 3 1.53538 0
gene 1 1 5 0.487047 0 4 0.487047 1
gene 1 5 4 0.0399215 0 5 0.0399215 1
gene 1 5 5 -0.268531 1 80 -0.268531 1
gene 3 3 5 -2.33021 0 144 -2.33021 1
gene 2 4 4 1.70197 1 158 1.70197 1
gene 2 2 5 0.425745 0 182 0.425745 1
genomeend 74

/* Organism #75 Fitness: 415.986 Error: 234.014 */
genomestart 75
trait 1 0.05 0 0 0 0 0.410261 0 0 
trait 2 0.2 0 0 0 0 0 0 0 
trait 3 0.3 0 0 0 0 0 0 0 
node 1 3 1 1
node 2 1 1 1
node 3 3 1 1
node 4 2 0 2
node 5 1 0 0
gene 1 1 4 1.46573 0 1 1.46573 1
gene 1 2 4 0.569825 0 2 0.569825 1
gene 1 3 4 0.161322 0 3 0.161322 1
gene 1 1 5 0.378937 0 4 0.378937 1
gene 1 5 4 -0.499746 0 5 -0.499746 1
gene 1 5 5 0.557273 1 80 0.557273 1
gene 3 3 5 -0.979366 0 144 -0.979366 1
gene 2 4 4 0.861631 1 158 0.861631 1
gene 2 2 5 -0.124312 0 182 0 1
genomeend 75

/* Organism #76 Fitness: 400.89 Error: 249.11 */
genomestart 76
trait 1 0.075 0 0 0 0 0.20513 0 0 
trait 2 0.2 0 0 0 0 0 0 0 
trait 3 0.3 0 0 0 0 0 0 0 
node 1 3 1 1
node 2 1 1 1
node 3 3 1 1
node 4 2 0 2
node 5 1 0 0
gene 1 1 4 1.67022 0 1 1.67022 1
gene 1 2 4 -0.0604018 0 2 -0.0604018 1
gene 1 3 4 0.508445 0 3 0.508445 1
gene 1 1 5 0.115276 0 4 0.115276 1
gene 1 5 4 -0.791827 0 5 -0.791827 1
gene 1 5 5 -1.24662 1 80 -1.24662 1
gene 3 3 5 -1.70978 0 144 -1.70978 1
gene 2 4 4 0.540885 1 158 0.540885 1
gene 2 2 5 -0.124312 0 182 0 1
genomeend 76

/* Organism #77 Fitness: 411.865 Error: 238.135 */
genomestart 77
trait 1 0.05 0 0 0 0 0.410261 0 0 
trait 2 0.2 0 0 0 0 0 0 0 
trait 3 0.3 0 0 0 0 0 0 0 
node 1 3 1 1
node 2 1 1 1
node 3 3 1 1
node 4 2 0 2
node 5 1 0 0
gene 1 1 4 1.27093 0 1 1.27093 1
gene 1 2 4 -0.0604018 0 2 -0.0604018 1
gene 1 3 4 0.508445 0 3 0.508445 1
gene 1 1 5 0.115276 0 4 0.115276 1
gene 1 5 4 0.443747 0 5 0.443747 1
gene 1 5 5 -1.24662 1 80 -1.24662 1
gene 3 3 5 -1.70978 0 144 -1.70978 1
gene 2 4 4 0.540885 1 158 0.540885 1
gene 2 2 5 -0.124312 0 182 0 1
genomeend 77

/* Organism #78 Fitness: 355.038 Error: 294.962 */
genomestart 78
trait 1 0.1 0 0 0 0 0 0 0 
trait 2 0.2 0 0 0 0 0 0 0 
trait 3 0.3 0 0 0 0 0 0 0 
node 1 3 1 1
node 2 1 1 1
node 3 3 1 1
node 4 2 0 2
node 5 1 0 0
node 24 1 0 0
gene 1 1 4 4.55201 0 1 4.55201 0
gene 3 2 4 -0.0875723 0 2 -0.0875723 1
gene 1 3 4 -0.327661 0 3 -0.327661 1
gene 1 1 5 -0.0495373 0 4 -0.0495373 1
gene 1 5 4 -1.61572 0 5 -1.61572 1
gene 1 5 5 2.05579 1 80 2.05579 1
gene 2 2 5 -0.124312 0 182 0 1
gene 1 1 24 1 0 228 0 1
gene 1 24 4 4.55201 0 229 0 1
genomeend 78

/* Organism #79 Fitness: 397.865 Error: 252.135 */
genomestart 79
trait 1 0.1 0 0 0 0 0 0 0 
trait 2 0.2 0 0 0 0 0 0 0 
trait 3 0.3 0 0 0 0 0 0 0 
node 1 3 1 1
node 2 1 1 1
node 3 3 1 1
node 4 2 0 2
node 5 1 0 0
node 24 1 0 0
gene 1 1 4 4.55201 0 1 4.55201 1
gene 3 2 4 -0.0875723 0 2 -0.0875723 1
gene 1 3 4 -0.327661 0 3 -0.327661 1
gene 1 1 5 -0.0495373 0 4 -0.0495373 1
gene 1 5 4 -1.61572 0 5 -1.61572 1
gene 1 5 5 2.05579 1 80 2.05579 1
gene 2 2 5 -0.124312 0 182 0 1
gene 1 1 24 1 0 228 0 0
gene 1 24 4 4.55201 0 229 0 1
genomeend 79

/* Organism #80 Fitness: 406.899 Error: 243.101 */
genomestart 80
trait 1 0.361154 0.0291018 0 0.114586 0.0227916 0.024175 0.0216265 0.0372624 
trait 2 0.2 0 0 0 0 0 0 0 
trait 3 0.3 0 0 0 0 0 0 0 
node 1 2 1 1
node 2 1 1 1
node 3 1 1 1
node 4 1 0 2
node 5 1 0 0
gene 1 1 4 3.96078 0 1 3.96078 1
gene 3 2 4 1.5037 0 2 1.5037 1
gene 1 3 4 1.34611 0 3 1.34611 1
gene 1 1 5 -1.14305 0 4 -1.14305 1
gene 1 5 4 -1.46152 0 5 -1.46152 1
gene 3 3 5 3.29281 0 112 3.29281 1
gene 2 2 5 -0.193895 0 182 -0.193895 1
genomeend 80

/* Species #6 : (Size 9) (AF 342.598) (Age 8)  */


/* Organism #81 Fitness: 456.18 Error: 193.82 */
genomestart 81
trait 1 0.1 0.404395 0 0 0 0 0.72883 0.359795 
trait 2 0.2 0.0920747 0 0 0 0 0 0 
trait 3 0.3 0 0 0 0 0 0 0 
node 1 1 1 1
node 2 1 1 1
node 3 2 1 1
node 4 3 0 2
node 6 1 0 0
gene 3 1 4 -0.377079 0 1 -0.377079 1
gene 2 2 4 4.47615 0 2 4.47615 1
gene 2 3 4 1.30619 0 3 1.30619 0
gene 3 3 6 2.50005 0 18 2.50005 1
gene 3 6 4 3.11567 0 19 3.11567 1
gene 3 1 6 1.47027 0 53 1.47027 1
genomeend 81

/* Organism #82 Fitness: 456.648 Error: 193.352 */
genomestart 82
trait 1 0.1 0 0 0 0 0 0 0 
trait 2 0.2 0.0920747 0 0 0 0 0 0 
trait 3 0.225 0 0 0 0 0 0 0 
node 1 1 1 1
node 2 2 1 1
node 3 2 1 1
node 4 3 0 2
node 6 1 0 0
gene 3 1 4 -0.469129 0 1 -0.469129 1
gene 2 2 4 0.225293 0 2 0.225293 1
gene 2 3 4 4.25703 0 3 4.25703 0
gene 3 3 6 4.92512 0 18 4.92512 1
gene 3 6 4 1.79082 0 19 1.79082 1
gene 3 1 6 2.20559 0 53 2.20559 1
genomeend 82

/* Organism #83 Fitness: 450.332 Error: 199.668 */
genomestart 83
trait 1 0.1 0 0 0 0 0 0 0 
trait 2 0.2 0.0920747 0 0 0 0 0 0 
trait 3 0.225 0 0 0 0 0 0 0 
node 1 1 1 1
node 2 2 1 1
node 3 2 1 1
node 4 3 0 2
node 6 1 0 0
gene 3 1 4 -0.469129 0 1 -0.469129 1
gene 2 2 4 0.225293 0 2 0.225293 1
gene 2 3 4 4.25703 0 3 4.25703 0
gene 3 3 6 4.92512 0 18 4.92512 1
gene 3 6 4 1.79082 0 19 1.79082 1
gene 3 1 6 2.20559 0 53 2.20559 1
gene 2 2 6 -0.469923 0 263 -0.469923 1
genomeend 83

/* Organism #84 Fitness: 452.437 Error: 197.563 */
genomestart 84
trait 1 0.1 0 0 0 0 0 0 0 
trait 2 0.2 0.0920747 0 0 0 0 0 0 
trait 3 0.225 0 0 0 0 0 0 0 
node 1 1 1 1
node 2 2 1 1
node 3 2 1 1
node 4 3 0 2
node 6 1 0 0
gene 3 1 4 -0.469129 0 1 -0.469129 1
gene 2 2 4 0.225293 0 2 0.225293 1
gene 2 3 4 4.25703 0 3 4.25703 0
gene 3 3 6 4.92512 0 18 4.92512 1
gene 3 6 4 1.79082 0 19 1.79082 1
gene 3 1 6 2.20559 0 53 2.20559 1
gene 3 4 4 -0.147691 1 264 -0.147691 1
genomeend 84

/* Organism #85 Fitness: 433.02 Error: 216.98 */
genomestart 85
trait 1 0.1 0 0 0 0 0 0 0 
trait 2 0.2 0.0920747 0 0 0 0 0 0 
trait 3 0.225 0 0 0 0 0 0 0 
node 1 1 1 1
node 2 2 1 1
node 3 2 1 1
node 4 3 0 2
node 6 1 0 0
gene 3 1 4 -0.469129 0 1 -0.469129 1
gene 2 2 4 0.225293 0 2 0.225293 1
gene 2 3 4 4.25703 0 3 4.25703 1
gene 3 3 6 4.92512 0 18 4.92512 1
gene 3 6 4 1.79082 0 19 1.79082 1
gene 3 1 6 2.20559 0 53 2.20559 1
gene 2 2 6 -0.469923 0 263 0 1
genomeend 85

/* Organism #86 Fitness: 407.8 Error: 242.2 */
genomestart 86
trait 1 0.1 0 0 0 0 0 0 0 
trait 2 0.2 0.0460373 0 0 0 0 0 0 
trait 3 0.2625 0 0 0 0 0 0 0 
node 1 1 1 1
node 2 2 1 1
node 3 2 1 1
node 4 3 0 2
node 6 1 0 0
gene 3 1 4 0.38738 0 1 0.38738 1
gene 1 2 4 5.03517 0 2 5.03517 1
gene 2 3 4 4.25703 0 3 4.25703 0
gene 3 3 6 4.92512 0 18 4.92512 1
gene 3 6 4 1.79082 0 19 1.79082 1
gene 3 1 6 2.20559 0 53 2.20559 1
genomeend 86

/* Organism #87 Fitness: 3.0412 Error: 646.959 */
genomestart 87
trait 1 0.1 0 0 0 0 0 0 0 
trait 2 0.2 0.0460373 0 0 0 0 0 0 
trait 3 0.2625 0 0 0 0 0 0 0 
node 1 1 1 1
node 2 2 1 1
node 3 2 1 1
node 4 3 0 2
node 6 1 0 0
gene 3 1 4 0.38738 0 1 0.38738 1
gene 1 2 4 5.03517 0 2 5.03517 1
gene 2 3 4 3.75264 0 3 3.75264 1
gene 3 3 6 4.92512 0 18 4.92512 1
gene 3 6 4 -1.28551 0 19 -1.28551 1
gene 3 1 6 1.41836 0 53 1.41836 1
genomeend 87

/* Organism #88 Fitness: 421.582 Error: 228.418 */
genomestart 88
trait 1 0.1 0.0373619 0 0 0 0.0362625 0 0 
trait 2 0.2 0.0230187 0 0 0 0 0 0 
trait 3 0.276562 0.0150559 0 0 0 0 0 0.00511945 
node 1 1 1 1
node 2 1 1 1
node 3 2 1 1
node 4 3 0 2
node 6 1 0 0
gene 3 1 4 1.78864 0 1 1.78864 1
gene 2 2 4 5.44215 0 2 5.44215 1
gene 3 3 4 3.74192 0 3 3.74192 0
gene 3 3 6 2.86898 0 18 2.86898 1
gene 1 6 4 2.25477 0 19 2.25477 1
gene 2 1 6 1.52222 0 53 1.52222 1
genomeend 88

/* Organism #89 Fitness: 2.33939 Error: 647.661 */
genomestart 89
trait 1 0.127116 0.29682 0 0.0161351 0.0170937 0.288085 0.0162199 0 
trait 2 0.2 0 0 0 0 0 0 0 
trait 3 0.271875 0.0903356 0 0 0 0 0 0.0307167 
node 1 3 1 1
node 2 1 1 1
node 3 3 1 1
node 4 1 0 2
gene 1 1 4 -0.347463 0 1 -0.347463 1
gene 2 2 4 -2.50582 0 2 -2.50582 1
gene 3 3 4 4.12388 0 3 4.12388 1
genomeend 89

/* Species #7 : (Size 19) (AF 404.841) (Age 8)  */


/* Organism #90 Fitness: 419.288 Error: 230.712 */
genomestart 90
trait 1 0.1 0 0 0 0 0 0 0 
trait 2 0.2 0 0.102904 0 0 0 0 0 
trait 3 0.3 0 0 0 0 0 0 0 
node 1 3 1 1
node 2 1 1 1
node 3 3 1 1
node 4 2 0 2
node 5 1 0 0
gene 1 1 4 2.78465 0 1 2.78465 1
gene 1 2 4 0.743492 0 2 0.743492 1
gene 1 3 4 -1.17714 0 3 -1.17714 1
gene 1 1 5 -0.909215 0 4 -0.909215 1
gene 1 5 4 -1.28868 0 5 -1.28868 1
gene 1 5 5 -0.166704 1 80 -0.166704 1
gene 2 2 5 -0.311946 0 260 -0.311946 1
genomeend 90

/* Organism #91 Fitness: 411.648 Error: 238.352 */
genomestart 91
trait 1 0.1 0 0 0 0 0 0 0 
trait 2 0.2 0 0 0 0 0 0 0 
trait 3 0.3 0 0 0 0 0 0 0 
node 1 3 1 1
node 2 1 1 1
node 3 3 1 1
node 4 2 0 2
node 5 1 0 0
gene 1 1 4 2.78465 0 1 2.78465 1
gene 1 2 4 0.743492 0 2 0.743492 1
gene 1 3 4 -1.17714 0 3 -1.17714 1
gene 1 1 5 -0.909215 0 4 -0.909215 1
gene 2 5 4 0.0721844 0 5 0.0721844 1
gene 1 5 5 -0.166704 1 80 -0.166704 1
gene 2 3 5 0.507408 0 261 0.507408 1
genomeend 91

/* Organism #92 Fitness: 397.139 Error: 252.861 */
genomestart 92
trait 1 0.1 0 0 0 0 0 0 0 
trait 2 0.2 0 0.102904 0 0 0 0 0 
trait 3 0.3 0 0 0 0 0 0 0 
node 1 3 1 1
node 2 1 1 1
node 3 3 1 1
node 4 2 0 2
node 5 1 0 0
gene 1 1 4 2.27286 0 1 2.27286 1
gene 1 2 4 1.59299 0 2 1.59299 1
gene 1 3 4 -3.64391 0 3 -3.64391 1
gene 1 1 5 -1.6402 0 4 -1.6402 1
gene 2 5 4 -0.521239 0 5 -0.521239 1
gene 1 5 5 -0.470362 1 80 -0.470362 1
genomeend 92

/* Organism #93 Fitness: 408.128 Error: 241.872 */
genomestart 93
trait 1 0.622308 0.0582036 0 0.229173 0.0455832 0.04835 0.0432529 0.0745249 
trait 2 0.2 0 0 0 0 0 0 0 
trait 3 0.3 0 0 0 0 0 0 0 
node 1 2 1 1
node 2 1 1 1
node 3 1 1 1
node 4 1 0 2
node 5 1 0 0
gene 1 1 4 2.28066 0 1 2.28066 1
gene 3 2 4 0.402857 0 2 0.402857 1
gene 2 3 4 -1.63819 0 3 -1.63819 0
gene 1 1 5 0.675585 0 4 0.675585 1
gene 1 5 4 0.743986 0 5 0.743986 1
gene 2 2 5 -0.124312 0 182 -0.124312 1
genomeend 93

/* Organism #94 Fitness: 410.744 Error: 239.256 */
genomestart 94
trait 1 0.1 0 0 0 0 0 0 0 
trait 2 0.2 0 0 0 0 0 0 0 
trait 3 0.3 0 0 0 0 0 0 0 
node 1 3 1 1
node 2 1 1 1
node 3 3 1 1
node 4 2 0 2
node 5 1 0 0
gene 1 1 4 2.78465 0 1 2.78465 1
gene 1 2 4 0.743492 0 2 0.743492 1
gene 1 3 4 -3.14239 0 3 -3.14239 1
gene 1 1 5 -0.909215 0 4 -0.909215 1
gene 2 5 4 0.0721844 0 5 0.0721844 1
gene 3 5 5 0.426432 1 106 0.426432 1
gene 3 3 5 0.940242 0 112 0 1
gene 2 4 4 -0.0525739 1 157 -0.0525739 1
gene 2 2 5 -0.124312 0 182 0 1
genomeend 94

/* Organism #95 Fitness: 405.915 Error: 244.085 */
genomestart 95
trait 1 0.361154 0.0291018 0 0.114586 0.0227916 0.024175 0.0216265 0.0372624 
trait 2 0.2 0 0 0 0 0 0 0 
trait 3 0.3 0 0 0 0 0 0 0 
node 1 2 1 1
node 2 1 1 1
node 3 1 1 1
node 4 1 0 2
node 5 1 0 0
gene 1 1 4 2.28066 0 1 2.28066 1
gene 3 2 4 0.402857 0 2 0.402857 1
gene 1 3 4 -3.14239 0 3 -3.14239 0
gene 1 1 5 0.607034 0 4 0.607034 1
gene 1 5 4 0.743986 0 5 0.743986 1
gene 2 2 5 -0.124312 0 182 -0.124312 1
genomeend 95

/* Organism #96 Fitness: 421.926 Error: 228.074 */
genomestart 96
trait 1 0.361154 0.0291018 0 0.114586 0.0227916 0.024175 0.0216265 0.0372624 
trait 2 0.2 0 0 0 0 0 0 0 
trait 3 0.3 0 0 0 0 0 0 0 
node 1 2 1 1
node 2 1 1 1
node 3 1 1 1
node 4 1 0 2
node 5 1 0 0
gene 1 1 4 1.75016 0 1 1.75016 1
gene 3 2 4 0.402857 0 2 0.402857 1
gene 2 3 4 -1.63819 0 3 -1.63819 0
gene 1 1 5 0.675585 0 4 0.675585 1
gene 1 5 4 0.358054 0 5 0.358054 1
gene 2 2 5 -0.300835 0 182 -0.300835 1
genomeend 96

/* Organism #97 Fitness: 378.099 Error: 271.901 */
genomestart 97
trait 1 0.1 0 0 0 0 0 0 0 
trait 2 0.2 0 0 0 0 0 0 0 
trait 3 0.3 0 0 0 0 0 0 0 
node 1 3 1 1
node 2 1 1 1
node 3 3 1 1
node 4 2 0 2
node 5 1 0 0
node 24 1 0 0
gene 1 1 4 4.01636 0 1 4.01636 0
gene 3 2 4 0.477468 0 2 0.477468 1
gene 1 3 4 0.0276558 0 3 0.0276558 1
gene 1 1 5 0.598183 0 4 0.598183 1
gene 1 5 4 -1.65372 0 5 -1.65372 1
gene 1 5 5 3.52844 1 80 3.52844 1
gene 2 2 5 -0.210169 0 182 -0.210169 1
gene 1 1 24 2.17053 0 228 2.17053 1
gene 1 24 4 4.26533 0 229 4.26533 1
genomeend 97

/* Organism #98 Fitness: 400.972 Error: 249.028 */
genomestart 98
trait 1 0.1 0.208573 0 0 0 0.0644667 0 0 
trait 2 0.3 0.0138064 0 0 0 0 0 0 
trait 3 0.3 0 0 0 0 0 0 0 
node 1 2 1 1
node 2 1 1 1
node 3 2 1 1
node 4 3 0 2
gene 1 1 4 2.17274 0 1 2.17274 1
gene 2 2 4 -0.149542 0 2 -0.149542 1
gene 1 3 4 -1.24826 0 3 -1.24826 1
genomeend 98

/* Organism #99 Fitness: 296.166 Error: 353.834 */
genomestart 99
trait 1 0.361154 0.095523 0.0780073 0.114586 0.0854908 0.0886417 0.0216265 0.0372624 
trait 2 0.2 0 0.00071015 0.161332 0 0 0.200899 0 
trait 3 0.3 0 0 0 0 0 0 0 
node 1 2 1 1
node 2 1 1 1
node 3 1 1 1
node 4 1 0 2
node 5 1 0 0
gene 1 1 4 -0.554144 0 1 -0.554144 1
gene 1 2 4 0.241421 0 2 0.241421 1
gene 2 3 4 0.908678 0 3 0.908678 0
gene 1 1 5 2.13461 0 4 2.13461 1
gene 1 5 4 0.611549 0 5 0.611549 1
gene 2 2 5 0.126704 0 182 0.126704 1
gene 2 3 5 0.0365585 0 186 0.0365585 1
genomeend 99

/* Organism #100 Fitness: 398.745 Error: 251.255 */
genomestart 100
trait 1 0.1 0.132842 0.156015 0 0.125398 0.128933 0 0 
trait 2 0.2 0 0.0014203 0.322665 0 0 0.401798 0 
trait 3 0.3 0 0 0 0 0 0 0 
node 1 2 1 1
node 2 1 1 1
node 3 1 1 1
node 4 2 0 2
gene 2 1 4 2.13222 0 1 2.13222 1
gene 1 2 4 -0.757833 0 2 -0.757833 1
gene 2 3 4 -2.40954 0 3 -2.40954 0
gene 1 4 4 -0.938148 1 262 -0.938148 1
genomeend 100

/* Organism #101 Fitness: 414.59 Error: 235.41 */
genomestart 101
trait 1 0.361154 0.17075 0 0.114586 0.0227916 0.0926708 0.0216265 0.0372624 
trait 2 0.308223 0 0.445165 0 0.298183 0 0.398763 0 
trait 3 0.3 0 0 0 0 0 0 0 
node 1 1 1 1
node 2 3 1 1
node 3 1 1 1
node 4 2 0 2
node 5 1 0 0
gene 1 1 4 3.05445 0 1 3.05445 1
gene 1 2 4 2.79004 0 2 2.79004 1
gene 3 3 4 -1.66113 0 3 -1.66113 0
gene 1 1 5 -2.87286 0 4 -2.87286 1
gene 1 5 4 1.07 0 5 1.07 1
gene 2 2 5 -2.35011 0 182 -2.35011 1
genomeend 101

/* Organism #102 Fitness: 422.792 Error: 227.208 */
genomestart 102
trait 1 0.1 0 0 0 0 0 0 0 
trait 2 0.2 0 0 0 0 0 0 0 
trait 3 0.3 0 0 0 0 0 0 0 
node 1 3 1 1
node 2 1 1 1
node 3 3 1 1
node 4 2 0 2
node 5 1 0 0
gene 1 1 4 5.3549 0 1 5.3549 1
gene 1 2 4 3.62787 0 2 3.62787 1
gene 1 3 4 -1.46587 0 3 -1.46587 1
gene 1 1 5 -0.0275211 0 4 -0.0275211 1
gene 1 5 4 -0.180395 0 5 -0.180395 1
gene 3 3 5 2.31592 0 112 2.31592 1
gene 2 2 5 -1.38953 0 182 -1.38953 1
genomeend 102

/* Organism #103 Fitness: 392.488 Error: 257.512 */
genomestart 103
trait 1 0.361154 0.0291018 0 0.114586 0.0227916 0.024175 0.0216265 0.0372624 
trait 2 0.2 0 0 0 0 0 0 0 
trait 3 0.3 0 0 0 0 0 0 0 
node 1 3 1 1
node 2 1 1 1
node 3 3 1 1
node 4 2 0 2
node 5 1 0 0
gene 1 1 4 3.64976 0 1 3.64976 1
gene 1 2 4 3.98894 0 2 3.98894 1
gene 1 3 4 -1.05107 0 3 -1.05107 1
gene 1 1 5 -0.855109 0 4 -0.855109 1
gene 1 5 4 -0.734055 0 5 -0.734055 1
gene 2 2 5 -0.4448 0 182 -0.4448 1
genomeend 103

/* Organism #104 Fitness: 415.042 Error: 234.958 */
genomestart 104
trait 1 0.1 0 0 0 0 0 0 0 
trait 2 0.2 0 0 0 0 0 0 0 
trait 3 0.3 0 0 0 0 0 0 0 
node 1 3 1 1
node 2 1 1 1
node 3 3 1 1
node 4 2 0 2
node 5 1 0 0
gene 1 1 4 5.3549 0 1 5.3549 1
gene 1 2 4 3.62787 0 2 3.62787 1
gene 1 3 4 -1.46587 0 3 -1.46587 1
gene 1 1 5 -0.0275211 0 4 -0.0275211 1
gene 1 5 4 -0.180395 0 5 -0.180395 1
gene 3 3 5 2.31592 0 112 2.31592 1
gene 2 2 5 -1.38953 0 182 -1.38953 1
genomeend 104

/* Organism #105 Fitness: 397.002 Error: 252.998 */
genomestart 105
trait 1 0.361154 0.0291018 0 0.114586 0.0227916 0.024175 0.0216265 0.0372624 
trait 2 0.2 0 0 0 0 0 0 0 
trait 3 0.3 0 0 0 0 0 0 0 
node 1 3 1 1
node 2 1 1 1
node 3 3 1 1
node 4 2 0 2
node 5 1 0 0
gene 1 1 4 4.48748 0 1 4.48748 1
gene 3 2 4 0.708023 0 2 0.708023 1
gene 1 3 4 -0.952589 0 3 -0.952589 1
gene 1 1 5 -0.459281 0 4 -0.459281 1
gene 1 5 4 -0.0967349 0 5 -0.0967349 1
gene 2 2 5 -0.797366 0 182 -0.797366 1
genomeend 105

/* Organism #106 Fitness: 404.352 Error: 245.648 */
genomestart 106
trait 1 0.622308 0.0582036 0 0.229173 0.0455832 0.04835 0.0432529 0.0745249 
trait 2 0.2 0 0 0 0 0 0 0 
trait 3 0.3 0 0 0 0 0 0 0 
node 1 2 1 1
node 2 1 1 1
node 3 1 1 1
node 4 1 0 2
node 5 1 0 0
gene 1 1 4 0.91202 0 1 0.91202 1
gene 3 2 4 2.31462 0 2 2.31462 1
gene 3 3 4 -0.424013 0 3 -0.424013 0
gene 1 1 5 2.98643 0 4 2.98643 1
gene 1 5 4 2.3662 0 5 2.3662 1
gene 2 2 5 2.1767 0 182 2.1767 1
genomeend 106

/* Organism #107 Fitness: 467.409 Error: 182.591 */
genomestart 107
trait 1 0.622308 0.0582036 0 0.229173 0.0455832 0.04835 0.0432529 0.0745249 
trait 2 0.2 0 0 0 0 0 0 0 
trait 3 0.3 0 0 0 0 0 0 0 
node 1 2 1 1
node 2 1 1 1
node 3 1 1 1
node 4 1 0 2
node 5 1 0 0
gene 1 1 4 -0.52556 0 1 -0.52556 1
gene 3 2 4 0.981609 0 2 0.981609 1
gene 3 3 4 -1.77351 0 3 -1.77351 0
gene 1 1 5 1.48857 0 4 1.48857 1
gene 1 5 4 4.17133 0 5 4.17133 1
gene 2 2 5 0.948269 0 182 0.948269 1
genomeend 107

/* Organism #108 Fitness: 429.532 Error: 220.468 */
genomestart 108
trait 1 0.622308 0.0582036 0 0.229173 0.0455832 0.04835 0.0432529 0.0745249 
trait 2 0.2 0 0 0 0 0 0 0 
trait 3 0.3 0 0 0 0 0 0 0 
node 1 2 1 1
node 2 1 1 1
node 3 1 1 1
node 4 1 0 2
node 5 1 0 0
gene 1 1 4 0.420338 0 1 0.420338 1
gene 3 2 4 2.30573 0 2 2.30573 1
gene 3 3 4 -0.276602 0 3 -0.276602 0
gene 1 1 5 2.01055 0 4 2.01055 1
gene 1 5 4 3.27837 0 5 3.27837 1
gene 2 2 5 1.84874 0 182 1.84874 1
genomeend 108

/* Species #8 : (Size 11) (AF 336.546) (Age 7)  */


/* Organism #109 Fitness: 408.904 Error: 241.096 */
genomestart 109
trait 1 0.1 0.315501 0 0 0 0.306217 0 0 
trait 2 0.2 0.2566 0 0 0.162275 0.120517 0.327596 0.0893345 
trait 3 0.3 0 0 0 0 0 0 0 
node 1 3 1 1
node 2 1 1 1
node 3 3 1 1
node 4 2 0 2
gene 3 1 4 1.53287 0 1 1.53287 1
gene 2 2 4 3.97488 0 2 3.97488 1
gene 3 3 4 -5.98025 0 3 -5.98025 1
genomeend 109

/* Organism #110 Fitness: 397.423 Error: 252.577 */
genomestart 110
trait 1 0.1 0.15775 0 0 0 0.153108 0 0 
trait 2 0.2 0 0 0 0 0 0 0 
trait 3 0.3 0 0 0 0 0 0 0 
node 1 2 1 1
node 2 1 1 1
node 3 2 1 1
node 4 3 0 2
gene 2 1 4 0.579198 0 1 0.579198 1
gene 2 2 4 3.44185 0 2 3.44185 0
gene 3 3 4 -4.26587 0 3 -4.26587 1
genomeend 110

/* Organism #111 Fitness: 411.461 Error: 238.539 */
genomestart 111
trait 1 0.1 0.303047 0 0 0 0.294129 0 0 
trait 2 0.2 0.06415 0 0 0.0405686 0 0.081899 0 
trait 3 0.3 0 0 0 0 0 0 0 
node 1 3 1 1
node 2 1 1 1
node 3 3 1 1
node 4 1 0 2
gene 3 1 4 4.28054 0 1 4.28054 1
gene 3 2 4 3.8339 0 2 3.8339 1
gene 3 3 4 -5.08125 0 3 -5.08125 1
genomeend 111

/* Organism #112 Fitness: 423.394 Error: 226.606 */
genomestart 112
trait 1 0.1 0.315501 0 0 0 0.306217 0 0 
trait 2 0.2 0.1283 0 0 0.0811373 0.120517 0.163798 0.0893345 
trait 3 0.3 0 0 0 0 0 0 0 
node 1 3 1 1
node 2 1 1 1
node 3 3 1 1
node 4 1 0 2
node 18 1 0 0
gene 3 1 4 3.52896 0 1 3.52896 1
gene 3 2 4 3.44221 0 2 3.44221 1
gene 3 3 4 -5.30513 0 3 -5.30513 1
gene 3 3 18 -0.799123 0 152 -0.799123 1
gene 3 18 4 -2.44662 0 153 -2.44662 1
genomeend 112

/* Organism #113 Fitness: 414.635 Error: 235.365 */
genomestart 113
trait 1 0.1 0.315501 0 0 0 0.306217 0 0 
trait 2 0.2 0.1283 0 0 0.0811373 0.0602586 0.163798 0.0446673 
trait 3 0.3 0 0 0 0 0 0 0 
node 1 3 1 1
node 2 1 1 1
node 3 3 1 1
node 4 2 0 2
gene 3 1 4 3.07271 0 1 3.07271 1
gene 2 2 4 3.91689 0 2 3.91689 1
gene 3 3 4 -6.33449 0 3 -6.33449 1
genomeend 113

/* Organism #114 Fitness: 424.618 Error: 225.382 */
genomestart 114
trait 1 0.1 0.315501 0 0 0 0.306217 0 0 
trait 2 0.2 0.2566 0 0 0.162275 0.241035 0.327596 0.178669 
trait 3 0.3 0 0 0 0 0 0 0 
node 1 3 1 1
node 2 1 1 1
node 3 3 1 1
node 4 1 0 2
gene 3 1 4 0.345507 0 1 0.345507 1
gene 2 2 4 4.98634 0 2 4.98634 1
gene 3 3 4 -6.92459 0 3 -6.92459 1
genomeend 114

/* Organism #115 Fitness: 2.33939 Error: 647.661 */
genomestart 115
trait 1 0.1 0.315501 0 0 0 0.306217 0 0 
trait 2 0.2 0.2566 0.249139 0 0.438073 0.120517 0.163798 0.134002 
trait 3 0.3 0 0 0 0 0 0 0 
node 1 3 1 1
node 2 1 1 1
node 3 3 1 1
node 4 1 0 2
gene 3 1 4 -0.462169 0 1 -0.462169 1
gene 2 2 4 2.24705 0 2 2.24705 1
gene 3 3 4 -6.51568 0 3 -6.51568 1
genomeend 115

/* Organism #116 Fitness: 411.414 Error: 238.586 */
genomestart 116
trait 1 0.1 0.315501 0 0 0 0.306217 0 0 
trait 2 0.2 0.2566 0 0 0.162275 0.241035 0.327596 0.178669 
trait 3 0.3 0 0 0 0 0 0 0 
node 1 3 1 1
node 2 1 1 1
node 3 3 1 1
node 4 1 0 2
gene 3 1 4 0.541214 0 1 0.541214 1
gene 2 2 4 3.28298 0 2 3.28298 1
gene 3 3 4 -6.27571 0 3 -6.27571 1
genomeend 116

/* Organism #117 Fitness: 416.081 Error: 233.919 */
genomestart 117
trait 1 0.1 0.315501 0 0 0 0.306217 0 0 
trait 2 0.2 0.2566 0.249139 0 0.438073 0.120517 0.163798 0.134002 
trait 3 0.3 0 0 0 0 0 0 0 
node 1 3 1 1
node 2 1 1 1
node 3 3 1 1
node 4 1 0 2
gene 3 1 4 1.55858 0 1 1.55858 1
gene 2 2 4 3.28298 0 2 3.28298 1
gene 3 3 4 -6.27571 0 3 -6.27571 1
genomeend 117

/* Organism #118 Fitness: 2.33939 Error: 647.661 */
genomestart 118
trait 1 0.1 0.315501 0 0 0 0.306217 0 0 
trait 2 0.2 0.2566 0 0 0.162275 0.241035 0.327596 0.178669 
trait 3 0.3 0 0 0 0 0 0 0 
node 1 3 1 1
node 2 1 1 1
node 3 2 1 1
node 4 1 0 2
gene 3 1 4 -0.0993468 0 1 -0.0993468 1
gene 2 2 4 3.66757 0 2 3.66757 1
gene 3 3 4 -5.12638 0 3 -5.12638 1
genomeend 118

/* Organism #119 Fitness: 389.399 Error: 260.601 */
genomestart 119
trait 1 0.1 0.265685 0 0 0 0.257867 0 0 
trait 2 0.2 0 0.0444662 0.0681439 0 0 0.0546745 0 
trait 3 0.3 0 0.122716 0 0 0 0 0 
node 1 3 1 1
node 2 1 1 1
node 3 3 1 1
node 4 1 0 2
gene 3 1 4 0.383252 0 1 0.383252 1
gene 3 2 4 3.90149 0 2 3.90149 1
gene 3 3 4 -1.2452 0 3 -1.2452 1
genomeend 119

/* Species #10 : (Size 14) (AF 350.067) (Age 7)  */


/* Organism #120 Fitness: 390.002 Error: 259.998 */
genomestart 120
trait 1 0.1 0.265685 0 0 0 0.257867 0 0 
trait 2 0.2 0 0 0 0 0 0 0 
trait 3 0.3 0 0 0 0 0 0 0 
node 1 3 1 1
node 2 1 1 1
node 3 3 1 1
node 4 1 0 2
node 14 1 0 0
gene 3 1 4 0.37693 0 1 0.37693 1
gene 3 2 4 3.22274 0 2 3.22274 1
gene 3 3 4 5.03982 0 3 5.03982 0
gene 3 3 14 1.07593 0 125 1.07593 1
gene 3 14 4 0.882121 0 126 0.882121 1
gene 1 2 14 0.780969 0 160 0.780969 1
genomeend 120

/* Organism #121 Fitness: 432.236 Error: 217.764 */
genomestart 121
trait 1 0.1 0.265685 0 0 0 0.257867 0 0 
trait 2 0.2 0 0 0 0 0 0 0 
trait 3 0.3 0 0 0 0 0 0 0 
node 1 3 1 1
node 2 1 1 1
node 3 3 1 1
node 4 1 0 2
node 14 1 0 0
gene 3 1 4 0.37693 0 1 0.37693 1
gene 3 2 4 3.22274 0 2 3.22274 1
gene 3 3 4 5.03982 0 3 5.03982 0
gene 3 3 14 1.07593 0 125 1.07593 1
gene 3 14 4 0.882121 0 126 0.882121 1
gene 1 2 14 0.780969 0 160 0.780969 1
gene 2 1 14 0.726682 0 265 0.726682 1
genomeend 121

/* Organism #122 Fitness: 2.33939 Error: 647.661 */
genomestart 122
trait 1 0.0422439 0 0 0 0 0.257867 0 0 
trait 2 0.2 0 0 0 0 0 0 0 
trait 3 0.3 0 0 0 0 0 0 0 
node 1 3 1 1
node 2 1 1 1
node 3 3 1 1
node 4 1 0 2
node 14 1 0 0
gene 3 1 4 -0.690168 0 1 -0.690168 1
gene 3 2 4 3.43801 0 2 3.43801 1
gene 3 3 4 -0.0468956 0 3 -0.0468956 0
gene 3 3 14 -0.987415 0 125 -0.987415 1
gene 3 14 4 0.484405 0 126 0.484405 1
gene 1 2 14 2.52262 0 160 2.52262 1
genomeend 122

/* Organism #123 Fitness: 414.764 Error: 235.236 */
genomestart 123
trait 1 0.1 0.265685 0 0 0 0.257867 0 0 
trait 2 0.2 0 0 0 0 0 0 0 
trait 3 0.3 0 0 0 0 0 0 0 
node 1 3 1 1
node 2 1 1 1
node 3 3 1 1
node 4 1 0 2
node 14 1 0 0
gene 3 1 4 0.37693 0 1 0.37693 1
gene 3 2 4 3.22274 0 2 3.22274 1
gene 3 3 4 5.03982 0 3 5.03982 0
gene 3 3 14 1.07593 0 125 1.07593 1
gene 3 14 4 0.882121 0 126 0.882121 1
gene 1 2 14 0.780969 0 160 0.780969 1
gene 2 1 14 0.726682 0 265 0 1
genomeend 123

/* Organism #124 Fitness: 404.619 Error: 245.381 */
genomestart 124
trait 1 0.1 0.265685 0 0 0 0.257867 0 0 
trait 2 0.2 0 0 0 0 0 0 0 
trait 3 0.3 0 0 0 0 0 0 0 
node 1 3 1 1
node 2 1 1 1
node 3 3 1 1
node 4 1 0 2
node 14 1 0 0
gene 3 1 4 0.37693 0 1 0.37693 1
gene 3 2 4 3.22274 0 2 3.22274 1
gene 3 3 4 5.03982 0 3 5.03982 0
gene 3 3 14 1.07593 0 125 1.07593 1
gene 3 14 4 0.882121 0 126 0.882121 1
gene 1 2 14 0.780969 0 160 0.780969 1
gene 3 14 14 0.83362 1 266 0.83362 1
genomeend 124

/* Organism #125 Fitness: 2.33939 Error: 647.661 */
genomestart 125
trait 1 0.1 0.265685 0 0 0 0.257867 0 0 
trait 2 0.2 0 0 0 0 0 0 0 
trait 3 0.3 0 0 0 0 0 0 0 
node 1 3 1 1
node 2 1 1 1
node 3 3 1 1
node 4 1 0 2
node 14 2 0 0
gene 3 1 4 -0.0767512 0 1 -0.0767512 1
gene 3 2 4 3.27998 0 2 3.27998 1
gene 3 3 4 3.92217 0 3 3.92217 0
gene 3 3 14 1.39015 0 125 1.39015 1
gene 3 14 4 2.45991 0 126 2.45991 1
gene 1 2 14 1.27223 0 160 1.27223 1
genomeend 125

/* Organism #126 Fitness: 396.075 Error: 253.925 */
genomestart 126
trait 1 0.1 0.265685 0 0 0 0.257867 0 0 
trait 2 0.2 0 0 0 0 0 0 0 
trait 3 0.3 0 0 0 0 0 0 0 
node 1 3 1 1
node 2 1 1 1
node 3 3 1 1
node 4 1 0 2
node 14 1 0 0
gene 3 1 4 0.37693 0 1 0.37693 1
gene 3 2 4 3.22274 0 2 3.22274 1
gene 3 3 4 5.03982 0 3 5.03982 0
gene 3 3 14 1.07593 0 125 1.07593 1
gene 3 14 4 0.882121 0 126 0.882121 1
gene 1 2 14 0.780969 0 160 0.780969 1
genomeend 126

/* Organism #127 Fitness: 402.778 Error: 247.222 */
genomestart 127
trait 1 0.1 0.265685 0 0 0 0 0 0 
trait 2 0.2 0 0 0 0 0 0 0 
trait 3 0.3 0 0 0 0 0 0 0 
node 1 3 1 1
node 2 1 1 1
node 3 3 1 1
node 4 1 0 2
node 14 1 0 0
gene 3 1 4 0.37693 0 1 0.37693 1
gene 3 2 4 3.22274 0 2 3.22274 1
gene 3 3 4 5.03982 0 3 5.03982 0
gene 3 3 14 1.07593 0 125 1.07593 1
gene 3 14 4 0.882121 0 126 0.882121 1
gene 1 2 14 0.780969 0 160 0.780969 1
genomeend 127

/* Organism #128 Fitness: 428.909 Error: 221.091 */
genomestart 128
trait 1 0.1 0.265685 0 0 0 0.257867 0 0 
trait 2 0.2 0 0 0 0 0 0 0 
trait 3 0.3 0 0 0 0 0 0 0 
node 1 3 1 1
node 2 1 1 1
node 3 3 1 1
node 4 1 0 2
node 14 1 0 0
gene 3 1 4 1.54045 0 1 1.54045 1
gene 3 2 4 6.92069 0 2 6.92069 1
gene 3 3 4 5.03982 0 3 5.03982 0
gene 3 3 14 0.558133 0 125 0.558133 1
gene 3 14 4 0.0481274 0 126 0.0481274 1
gene 1 2 14 0.244905 0 160 0.244905 1
gene 1 1 14 0.294943 0 223 0 1
genomeend 128

/* Organism #129 Fitness: 400.925 Error: 249.075 */
genomestart 129
trait 1 0.1 0.265685 0 0 0 0.257867 0 0 
trait 2 0.2 0 0 0 0 0 0 0 
trait 3 0.3 0 0 0 0 0 0 0 
node 1 3 1 1
node 2 1 1 1
node 3 3 1 1
node 4 1 0 2
node 14 1 0 0
gene 3 1 4 1.54983 0 1 1.54983 1
gene 3 2 4 5.14909 0 2 5.14909 1
gene 3 3 4 3.61874 0 3 3.61874 0
gene 3 3 14 1 0 125 0 1
gene 3 14 4 3.61874 0 126 0 1
gene 1 2 14 -0.502319 0 160 0 1
gene 2 1 14 0.726682 0 265 0 1
genomeend 129

/* Organism #130 Fitness: 411.189 Error: 238.811 */
genomestart 130
trait 1 0.1 0.265685 0 0 0 0.257867 0 0 
trait 2 0.2 0 0 0 0 0 0 0 
trait 3 0.3 0 0 0 0 0 0 0 
node 1 3 1 1
node 2 1 1 1
node 3 3 1 1
node 4 1 0 2
node 14 1 0 0
gene 3 1 4 1.54045 0 1 1.54045 1
gene 3 2 4 4.97887 0 2 4.97887 1
gene 3 3 4 5.03982 0 3 5.03982 0
gene 3 3 14 0.558133 0 125 0.558133 1
gene 3 14 4 1.83707 0 126 1.83707 1
gene 1 2 14 0.244905 0 160 0.244905 1
gene 1 1 14 0.294943 0 223 0.294943 1
genomeend 130

/* Organism #131 Fitness: 407.193 Error: 242.807 */
genomestart 131
trait 1 0.1 0.265685 0 0 0 0.257867 0 0 
trait 2 0.2 0 0 0 0 0 0 0 
trait 3 0.3 0 0 0 0 0 0 0 
node 1 3 1 1
node 2 1 1 1
node 3 3 1 1
node 4 1 0 2
node 14 1 0 0
gene 3 1 4 1.54983 0 1 1.54983 1
gene 3 2 4 6.92069 0 2 6.92069 1
gene 3 3 4 5.03982 0 3 5.03982 0
gene 3 3 14 0.558133 0 125 0.558133 1
gene 3 14 4 0.0481274 0 126 0.0481274 1
gene 1 2 14 0.244905 0 160 0.244905 1
gene 1 1 14 0.294943 0 223 0 1
genomeend 131

/* Organism #132 Fitness: 393.706 Error: 256.294 */
genomestart 132
trait 1 0.1 0.265685 0 0 0 0.257867 0 0 
trait 2 0.2 0 0 0 0 0 0 0 
trait 3 0.3 0 0 0 0 0 0 0 
node 1 1 1 1
node 2 1 1 1
node 3 3 1 1
node 4 1 0 2
node 14 1 0 0
gene 3 1 4 0.944951 0 1 0.944951 1
gene 3 2 4 6.54717 0 2 6.54717 1
gene 3 3 4 6.62659 0 3 6.62659 0
gene 3 3 14 0.406757 0 125 0.406757 1
gene 3 14 4 3.22161 0 126 3.22161 1
gene 1 2 14 1.77724 0 160 1.77724 1
gene 1 1 14 -1.38802 0 223 -1.38802 1
genomeend 132

/* Organism #133 Fitness: 413.869 Error: 236.131 */
genomestart 133
trait 1 0.1 0.265685 0 0 0 0.257867 0 0 
trait 2 0.2 0 0 0 0 0 0 0 
trait 3 0.3 0 0 0 0 0 0 0 
node 1 3 1 1
node 2 1 1 1
node 3 3 1 1
node 4 1 0 2
node 14 1 0 0
gene 3 1 4 0.8533 0 1 0.8533 1
gene 3 2 4 6.91157 0 2 6.91157 1
gene 3 3 4 4.67355 0 3 4.67355 0
gene 3 3 14 2.30894 0 125 2.30894 1
gene 3 14 4 -1.09707 0 126 -1.09707 1
gene 1 2 14 0.244905 0 160 0.244905 1
gene 1 1 14 -0.298455 0 223 -0.298455 1
genomeend 133

/* Species #11 : (Size 6) (AF 344.621) (Age 7)  */


/* Organism #134 Fitness: 395.422 Error: 254.578 */
genomestart 134
trait 1 0.1 0 0 0 0.18322 0 0.198239 0.357026 
trait 2 0.2 0 0.274671 0 0 0 0.11477 0 
trait 3 0.225 0 0 0 0.0372542 0 0 0 
node 1 2 1 1
node 2 1 1 1
node 3 3 1 1
node 4 1 0 2
node 6 1 0 0
gene 1 1 4 1.85101 0 1 1.85101 1
gene 1 2 4 -3.868 0 2 -3.868 1
gene 2 3 4 3.64415 0 3 3.64415 0
gene 2 3 6 4.48631 0 18 4.48631 1
gene 2 6 4 -5.32651 0 19 -5.32651 1
gene 1 1 6 -1.53867 0 149 -1.53867 1
genomeend 134

/* Organism #135 Fitness: 420.958 Error: 229.042 */
genomestart 135
trait 1 0.1 0 0 0 0.18322 0 0.198239 0.357026 
trait 2 0.2 0 0.274671 0 0 0 0.11477 0 
trait 3 0.225 0 0 0 0.0372542 0 0 0 
node 1 2 1 1
node 2 1 1 1
node 3 3 1 1
node 4 1 0 2
node 6 1 0 0
gene 1 1 4 0.0677814 0 1 0.0677814 1
gene 1 2 4 -3.91935 0 2 -3.91935 1
gene 2 3 4 1.90516 0 3 1.90516 1
gene 2 3 6 3.15591 0 18 3.15591 1
gene 2 6 4 -4.80167 0 19 -4.80167 1
gene 1 1 6 -0.652476 0 149 -0.652476 0
genomeend 135

/* Organism #136 Fitness: 2.33939 Error: 647.661 */
genomestart 136
trait 1 0.1 0 0 0 0.18322 0 0.198239 0.357026 
trait 2 0.2 0 0.274671 0 0 0 0.11477 0 
trait 3 0.225 0 0 0 0.0372542 0 0 0 
node 1 2 1 1
node 2 1 1 1
node 3 3 1 1
node 4 1 0 2
node 6 1 0 0
gene 1 1 4 -1.50755 0 1 -1.50755 1
gene 1 2 4 -4.7274 0 2 -4.7274 1
gene 2 3 4 1.15257 0 3 1.15257 0
gene 2 3 6 4.11349 0 18 4.11349 1
gene 2 6 4 -5.76726 0 19 -5.76726 1
gene 1 1 6 -1.01695 0 149 -1.01695 0
gene 2 2 6 -0.122816 0 180 -0.122816 1
genomeend 136

/* Organism #137 Fitness: 420.367 Error: 229.633 */
genomestart 137
trait 1 0.1 0 0 0 0.18322 0 0.198239 0.357026 
trait 2 0.2 0 0.274671 0 0 0 0.11477 0 
trait 3 0.225 0 0 0 0.0372542 0 0 0 
node 1 2 1 1
node 2 1 1 1
node 3 3 1 1
node 4 1 0 2
node 6 1 0 0
gene 1 1 4 0.118826 0 1 0.118826 1
gene 1 2 4 -3.625 0 2 -3.625 1
gene 2 3 4 2.85477 0 3 2.85477 1
gene 2 3 6 3.5345 0 18 3.5345 1
gene 2 6 4 -4.86148 0 19 -4.86148 1
gene 1 1 6 -0.0906468 0 149 -0.0906468 1
gene 2 2 6 0.150497 0 180 0 1
genomeend 137

/* Organism #138 Fitness: 415.793 Error: 234.207 */
genomestart 138
trait 1 0.1 0 0 0 0.18322 0 0.198239 0.357026 
trait 2 0.2 0 0.274671 0 0 0 0.11477 0 
trait 3 0.225 0 0 0 0.0372542 0 0 0 
node 1 2 1 1
node 2 1 1 1
node 3 3 1 1
node 4 1 0 2
node 6 1 0 0
gene 1 1 4 0.959397 0 1 0.959397 1
gene 1 2 4 -4.04085 0 2 -4.04085 1
gene 2 3 4 2.51506 0 3 2.51506 1
gene 2 3 6 3.82111 0 18 3.82111 1
gene 2 6 4 -5.55432 0 19 -5.55432 1
gene 1 1 6 -0.814657 0 149 -0.814657 0
genomeend 138

/* Organism #139 Fitness: 412.844 Error: 237.156 */
genomestart 139
trait 1 0.1 0 0 0 0.18322 0 0.198239 0.357026 
trait 2 0.2 0 0.274671 0 0 0 0.11477 0 
trait 3 0.225 0 0 0 0.0372542 0 0 0 
node 1 2 1 1
node 2 1 1 1
node 3 3 1 1
node 4 1 0 2
node 6 1 0 0
gene 1 1 4 1.85101 0 1 1.85101 1
gene 1 2 4 -3.868 0 2 -3.868 1
gene 2 3 4 3.64415 0 3 3.64415 0
gene 2 3 6 4.48631 0 18 4.48631 1
gene 2 6 4 -5.32651 0 19 -5.32651 1
gene 1 1 6 -1.53867 0 149 -1.53867 1
genomeend 139

/* Species #13 : (Size 2) (AF 415.963) (Age 7)  */


/* Organism #140 Fitness: 399.654 Error: 250.346 */
genomestart 140
trait 1 0.1 0 0 0 0.14365 0 0 0 
trait 2 0.2 0 0 0 0 0 0 0 
trait 3 0.3 0 0 0 0 0 0 0 
node 1 2 1 1
node 2 1 1 1
node 3 2 1 1
node 4 3 0 2
gene 2 1 4 5.24443 0 1 5.24443 1
gene 2 2 4 -4.53826 0 2 -4.53826 1
gene 2 3 4 -2.6307 0 3 -2.6307 1
gene 1 4 4 -0.0695868 1 267 -0.0695868 1
genomeend 140

/* Organism #141 Fitness: 432.271 Error: 217.729 */
genomestart 141
trait 1 0.1 0.0373619 0 0 0 0.0362625 0 0 
trait 2 0.175 0.0241611 0 0.0549221 0.0379649 0 0.0860336 0 
trait 3 0.3 0 0 0 0 0 0 0 
node 1 3 1 1
node 2 1 1 1
node 3 3 1 1
node 4 1 0 2
gene 2 1 4 6.71608 0 1 6.71608 1
gene 2 2 4 -4.02419 0 2 -4.02419 1
gene 1 3 4 -6.99168 0 3 -6.99168 1
genomeend 141

/* Species #14 : (Size 9) (AF 410.611) (Age 7)  */


/* Organism #142 Fitness: 412.109 Error: 237.891 */
genomestart 142
trait 1 0.1 0.303047 0 0 0 0.294129 0 0 
trait 2 0.2 0.06415 0 0 0.0405686 0 0.081899 0 
trait 3 0.3 0 0 0 0 0 0 0 
node 1 3 1 1
node 2 1 1 1
node 3 3 1 1
node 4 2 0 2
gene 3 1 4 5.60352 0 1 5.60352 1
gene 3 2 4 4.88253 0 2 4.88253 1
gene 3 3 4 -4.26587 0 3 -4.26587 1
genomeend 142

/* Organism #143 Fitness: 414.722 Error: 235.278 */
genomestart 143
trait 1 0.1 0.290593 0 0 0 0.282042 0 0 
trait 2 0.2 0 0 0 0 0 0 0 
trait 3 0.3 0 0 0 0 0 0 0 
node 1 3 1 1
node 2 1 1 1
node 3 3 1 1
node 4 1 0 2
node 18 1 0 0
gene 3 1 4 5.26814 0 1 5.26814 1
gene 3 2 4 3.20626 0 2 3.20626 1
gene 3 3 4 -4.74319 0 3 -4.74319 1
gene 3 3 18 -0.799123 0 152 -0.799123 1
gene 3 18 4 -2.44662 0 153 -2.44662 1
genomeend 143

/* Organism #144 Fitness: 422.435 Error: 227.565 */
genomestart 144
trait 1 0.1 0.298896 0 0 0 0.2901 0 0 
trait 2 0.2 0 0 0 0 0 0 0 
trait 3 0.3 0 0 0 0 0 0 0 
node 1 3 1 1
node 2 1 1 1
node 3 3 1 1
node 4 1 0 2
node 18 1 0 0
gene 3 1 4 5.04418 0 1 5.04418 1
gene 2 2 4 5.49444 0 2 5.49444 1
gene 3 3 4 -2.21638 0 3 -2.21638 0
gene 3 3 18 -0.441564 0 152 -0.441564 1
gene 3 18 4 0.229828 0 153 0.229828 1
genomeend 144

/* Organism #145 Fitness: 416.372 Error: 233.628 */
genomestart 145
trait 1 0.1 0.290593 0 0 0 0.282042 0 0 
trait 2 0.2 0 0 0 0 0 0 0 
trait 3 0.3 0 0 0 0 0 0 0 
node 1 3 1 1
node 2 1 1 1
node 3 3 1 1
node 4 1 0 2
node 18 1 0 0
gene 3 1 4 5.26814 0 1 5.26814 1
gene 3 2 4 3.20626 0 2 3.20626 1
gene 3 3 4 -4.74319 0 3 -4.74319 1
gene 3 3 18 -0.799123 0 152 -0.799123 1
gene 3 18 4 -2.44662 0 153 -2.44662 1
genomeend 145

/* Organism #146 Fitness: 395.957 Error: 254.043 */
genomestart 146
trait 1 0.1 0.290593 0 0 0 0.282042 0 0 
trait 2 0.2 0 0 0 0 0 0 0 
trait 3 0.3 0 0 0 0 0 0 0 
node 1 3 1 1
node 2 1 1 1
node 3 3 1 1
node 4 1 0 2
node 18 1 0 0
gene 3 1 4 5.26814 0 1 5.26814 1
gene 3 2 4 3.20626 0 2 3.20626 1
gene 3 3 4 -4.74319 0 3 -4.74319 1
gene 3 3 18 -0.799123 0 152 -0.799123 1
gene 3 18 4 -2.44662 0 153 -2.44662 1
genomeend 146

/* Organism #147 Fitness: 416.182 Error: 233.818 */
genomestart 147
trait 1 0.1 0.298896 0 0 0 0.2901 0 0 
trait 2 0.2 0 0 0 0 0 0 0 
trait 3 0.3 0 0 0 0 0 0 0 
node 1 3 1 1
node 2 1 1 1
node 3 3 1 1
node 4 1 0 2
node 18 1 0 0
gene 3 1 4 4.2474 0 1 4.2474 1
gene 2 2 4 0.425167 0 2 0.425167 1
gene 3 3 4 -1.67655 0 3 -1.67655 0
gene 3 3 18 -1.72937 0 152 -1.72937 1
gene 3 18 4 0.712433 0 153 0.712433 1
genomeend 147

/* Organism #148 Fitness: 410.002 Error: 239.998 */
genomestart 148
trait 1 0.1 0.300971 0 0 0 0.292115 0 0 
trait 2 0.2 0.032075 0 0 0.0202843 0 0.0409495 0 
trait 3 0.3 0 0 0 0 0 0 0 
node 1 3 1 1
node 2 1 1 1
node 3 3 1 1
node 4 1 0 2
node 18 1 0 0
gene 3 1 4 5.58558 0 1 5.58558 1
gene 3 2 4 7.61691 0 2 7.61691 1
gene 3 3 4 -4.44385 0 3 -4.44385 1
gene 3 3 18 1.382 0 152 1.382 1
gene 3 18 4 0.376193 0 153 0.376193 1
genomeend 148

/* Organism #149 Fitness: 403.946 Error: 246.054 */
genomestart 149
trait 1 0.1 0.298896 0 0 0 0.2901 0 0 
trait 2 0.2 0 0 0 0 0 0 0 
trait 3 0.3 0 0 0 0 0 0 0 
node 1 3 1 1
node 2 1 1 1
node 3 3 1 1
node 4 1 0 2
node 18 1 0 0
gene 3 1 4 5.04418 0 1 5.04418 1
gene 2 2 4 5.49444 0 2 5.49444 1
gene 3 3 4 -2.21638 0 3 -2.21638 0
gene 3 3 18 -0.441564 0 152 -0.441564 1
gene 3 18 4 0.229828 0 153 0.229828 1
gene 3 18 18 0.552865 1 268 0.552865 1
genomeend 149

/* Organism #150 Fitness: 403.774 Error: 246.226 */
genomestart 150
trait 1 0.1 0.315501 0 0 0 0.306217 0 0 
trait 2 0.452865 0 0 0 0 0 0 0 
trait 3 0.3 0 0 0 0 0 0 0 
node 1 3 1 1
node 2 1 1 1
node 3 3 1 1
node 4 1 0 2
node 18 1 0 0
node 25 1 0 0
gene 3 1 4 5.02067 0 1 5.02067 1
gene 3 2 4 3.76967 0 2 3.76967 1
gene 3 3 4 -4.11554 0 3 -4.11554 1
gene 3 3 18 0.638144 0 152 0.638144 0
gene 3 18 4 -1.39965 0 153 -1.39965 1
gene 3 3 25 1.91724 0 243 1.91724 1
gene 3 25 18 -1.84085 0 244 -1.84085 1
genomeend 150

/* Species #15 : (Size 3) (AF 405.647) (Age 7)  */


/* Organism #151 Fitness: 422.027 Error: 227.973 */
genomestart 151
trait 1 0.1 0.265685 0 0 0 0.257867 0 0 
trait 2 0.2 0 0 0 0 0 0 0 
trait 3 0.3 0 0 0 0 0 0 0 
node 1 3 1 1
node 2 1 1 1
node 3 3 1 1
node 4 1 0 2
node 14 1 0 0
gene 3 1 4 0.499205 0 1 0.499205 1
gene 3 2 4 8 0 2 8 1
gene 3 3 4 3.47065 0 3 3.47065 0
gene 3 3 14 1.95109 0 125 1.95109 1
gene 3 14 4 -1.0214 0 126 -1.0214 1
genomeend 151

/* Organism #152 Fitness: 402.903 Error: 247.097 */
genomestart 152
trait 1 0.1 0.265685 0 0 0 0.257867 0 0 
trait 2 0.2 0 0 0 0 0 0 0 
trait 3 0.3 0 0 0 0 0 0 0 
node 1 3 1 1
node 2 1 1 1
node 3 3 1 1
node 4 1 0 2
node 14 1 0 0
gene 3 1 4 0.126432 0 1 0.126432 1
gene 3 2 4 8 0 2 8 1
gene 3 3 4 3.68423 0 3 3.68423 0
gene 3 3 14 -1.20475 0 125 -1.20475 1
gene 3 14 4 -0.375879 0 126 -0.375879 1
genomeend 152

/* Organism #153 Fitness: 392.011 Error: 257.989 */
genomestart 153
trait 1 0.1 0.265685 0 0 0 0.257867 0 0 
trait 2 0.2 0 0 0 0 0 0 0 
trait 3 0.3 0 0 0.382485 0 0 0 0.466068 
node 1 3 1 1
node 2 1 1 1
node 3 3 1 1
node 4 1 0 2
node 14 1 0 0
gene 3 1 4 1.97997 0 1 1.97997 1
gene 3 2 4 6.41818 0 2 6.41818 1
gene 3 3 4 2.43874 0 3 2.43874 0
gene 3 3 14 0.848918 0 125 0.848918 1
gene 3 14 4 2.81007 0 126 2.81007 1
genomeend 153

/* Species #16 : (Size 6) (AF 369.101) (Age 7)  */


/* Organism #154 Fitness: 415.136 Error: 234.864 */
genomestart 154
trait 1 0.1 0 0 0 0 0 0 0 
trait 2 0.2 0 0 0 0 0 0 0 
trait 3 0.3 0 0 0 0 0 0 0 
node 1 2 1 1
node 2 1 1 1
node 3 1 1 1
node 4 1 0 2
node 6 1 0 0
node 10 1 0 0
gene 3 1 4 0.543194 0 1 0.543194 1
gene 1 2 4 -4.74091 0 2 -4.74091 0
gene 3 3 4 0.610098 0 3 0.610098 0
gene 3 3 6 1.24585 0 18 1.24585 1
gene 3 6 4 2.75907 0 19 2.75907 1
gene 1 2 10 1.28452 0 46 1.28452 1
gene 1 10 4 -2.7335 0 47 -2.7335 1
gene 1 4 4 -0.536973 1 77 -0.536973 1
gene 1 1 6 0.510478 0 149 0.510478 1
gene 3 1 10 -0.565627 0 225 -0.565627 1
genomeend 154

/* Organism #155 Fitness: 417.799 Error: 232.201 */
genomestart 155
trait 1 0.1 0 0 0 0 0 0 0 
trait 2 0.2 0 0 0 0 0 0 0 
trait 3 0.321095 0.0887835 0 0 0 0.017938 0 0 
node 1 2 1 1
node 2 1 1 1
node 3 1 1 1
node 4 1 0 2
node 6 1 0 0
node 10 1 0 0
gene 3 1 4 0.8318 0 1 0.8318 1
gene 1 2 4 -3.53768 0 2 -3.53768 0
gene 3 3 4 1.19804 0 3 1.19804 0
gene 3 3 6 0.539082 0 18 0.539082 1
gene 3 6 4 -0.594298 0 19 -0.594298 1
gene 1 2 10 2.24044 0 46 2.24044 1
gene 1 10 4 -3.89017 0 47 -3.89017 1
gene 1 4 4 0.235123 1 77 0.235123 1
gene 1 1 6 0.510478 0 149 0.510478 1
genomeend 155

/* Organism #156 Fitness: 373.834 Error: 276.166 */
genomestart 156
trait 1 0.1 0 0 0 0 0 0 0 
trait 2 0.2 0 0 0 0 0 0 0 
trait 3 0.3 0 0 0 0 0 0 0 
node 1 2 1 1
node 2 1 1 1
node 3 1 1 1
node 4 1 0 2
node 6 1 0 0
node 10 1 0 0
gene 3 1 4 -1.10725 0 1 -1.10725 1
gene 1 2 4 -4.62179 0 2 -4.62179 0
gene 3 3 4 -0.347856 0 3 -0.347856 0
gene 3 3 6 0.694297 0 18 0.694297 1
gene 3 6 4 2.79879 0 19 2.79879 1
gene 1 2 10 -0.424426 0 46 -0.424426 1
gene 1 10 4 -1.35001 0 47 -1.35001 1
gene 1 4 4 -0.820128 1 77 -0.820128 1
gene 1 1 6 0.157342 0 149 0.157342 1
gene 3 1 10 -0.0933738 0 225 -0.0933738 1
genomeend 156

/* Organism #157 Fitness: 185.096 Error: 464.904 */
genomestart 157
trait 1 0.1 0 0 0 0 0 0 0 
trait 2 0.2 0 0 0 0 0 0 0 
trait 3 0.3 0 0 0 0 0 0 0 
node 1 2 1 1
node 2 1 1 1
node 3 1 1 1
node 4 1 0 2
node 6 1 0 0
node 10 1 0 0
gene 3 1 4 0.543194 0 1 0.543194 1
gene 1 2 4 -4.74091 0 2 -4.74091 0
gene 3 3 4 0.610098 0 3 0.610098 0
gene 3 3 6 1.93027 0 18 1.93027 1
gene 3 6 4 2.75907 0 19 2.75907 1
gene 1 2 10 1.28452 0 46 1.28452 1
gene 1 10 4 -1.84767 0 47 -1.84767 1
gene 1 4 4 -1.18205 1 77 -1.18205 1
gene 1 6 10 0.887239 0 130 0.887239 1
gene 1 1 6 -0.379037 0 149 -0.379037 1
genomeend 157

/* Organism #158 Fitness: 407.713 Error: 242.287 */
genomestart 158
trait 1 0.1 0 0 0 0 0 0 0 
trait 2 0.2 0 0 0 0 0 0 0 
trait 3 0.3 0 0 0 0 0 0 0 
node 1 2 1 1
node 2 1 1 1
node 3 1 1 1
node 4 1 0 2
node 6 1 0 0
node 10 1 0 0
gene 3 1 4 0.543194 0 1 0.543194 1
gene 1 2 4 -4.74091 0 2 -4.74091 0
gene 3 3 4 0.610098 0 3 0.610098 0
gene 3 3 6 1.24585 0 18 1.24585 1
gene 3 6 4 2.75907 0 19 2.75907 1
gene 1 2 10 1.28452 0 46 1.28452 1
gene 1 10 4 -2.7335 0 47 -2.7335 1
gene 1 4 4 -0.536973 1 77 -0.536973 1
gene 1 1 6 0.510478 0 149 0.510478 1
gene 3 1 10 -0.565627 0 225 -0.565627 1
genomeend 158

/* Organism #159 Fitness: 415.028 Error: 234.972 */
genomestart 159
trait 1 0.1 0 0 0 0 0 0 0 
trait 2 0.2 0 0 0 0 0 0 0 
trait 3 0.3 0 0 0 0 0 0 0 
node 1 2 1 1
node 2 1 1 1
node 3 1 1 1
node 4 1 0 2
node 6 1 0 0
node 10 1 0 0
gene 3 1 4 0.543194 0 1 0.543194 1
gene 1 2 4 -4.74091 0 2 -4.74091 0
gene 3 3 4 0.610098 0 3 0.610098 1
gene 3 3 6 1.24585 0 18 1.24585 1
gene 3 6 4 2.75907 0 19 2.75907 1
gene 1 2 10 1.28452 0 46 1.28452 1
gene 1 10 4 -2.7335 0 47 -2.7335 1
gene 1 4 4 -0.536973 1 77 -0.536973 1
gene 1 1 6 0.510478 0 149 0.510478 1
gene 3 1 10 -0.565627 0 225 -0.565627 1
gene 1 10 6 -0.00623854 0 269 -0.00623854 1
genomeend 159

/* Species #19 : (Size 11) (AF 404.108) (Age 7)  */


/* Organism #160 Fitness: 392.905 Error: 257.095 */
genomestart 160
trait 1 0.325 0.0623124 0 0.0930729 0 0.0564083 0 0.0372624 
trait 2 0.2 0 0 0 0 0 0 0 
trait 3 0.295312 0.0416686 0 0 0 0 0.0361763 0.00511945 
node 1 2 1 1
node 2 2 1 1
node 3 1 1 1
node 4 1 0 2
node 6 1 0 0
gene 1 1 4 4.72556 0 1 4.72556 1
gene 2 2 4 2.0292 0 2 2.0292 1
gene 3 3 4 -0.0137578 0 3 -0.0137578 0
gene 3 3 6 1.45452 0 18 1.45452 1
gene 3 6 4 0.544963 0 19 0.544963 1
gene 2 2 6 -3.3937 0 74 -3.3937 1
genomeend 160

/* Organism #161 Fitness: 407.011 Error: 242.989 */
genomestart 161
trait 1 0.325 0.0623124 0 0.0930729 0 0.0564083 0 0.0372624 
trait 2 0.2 0 0 0 0 0 0 0 
trait 3 0.295312 0.0416686 0 0 0 0 0.0361763 0.00511945 
node 1 2 1 1
node 2 2 1 1
node 3 1 1 1
node 4 1 0 2
node 6 1 0 0
gene 1 1 4 5.26711 0 1 5.26711 1
gene 2 2 4 -0.0404728 0 2 -0.0404728 1
gene 3 3 4 0.60672 0 3 0.60672 0
gene 3 3 6 0.923961 0 18 0.923961 1
gene 3 6 4 -0.505711 0 19 -0.505711 1
gene 2 2 6 -1.71567 0 74 -1.71567 1
genomeend 161

/* Organism #162 Fitness: 413.425 Error: 236.575 */
genomestart 162
trait 1 0.325 0.0623124 0 0.0930729 0 0.0564083 0 0.0372624 
trait 2 0.2 0 0 0 0 0 0 0 
trait 3 0.295312 0.0416686 0 0 0 0 0.0361763 0.00511945 
node 1 2 1 1
node 2 2 1 1
node 3 1 1 1
node 4 1 0 2
node 6 1 0 0
gene 1 1 4 4.72556 0 1 4.72556 1
gene 2 2 4 2.0292 0 2 2.0292 1
gene 3 3 4 -0.0137578 0 3 -0.0137578 0
gene 3 3 6 1.45452 0 18 1.45452 1
gene 3 6 4 0.544963 0 19 0.544963 1
gene 2 2 6 -3.3937 0 74 -3.3937 1
gene 2 1 6 0.425885 0 270 0.425885 1
genomeend 162

/* Organism #163 Fitness: 416.302 Error: 233.698 */
genomestart 163
trait 1 0.325 0.0623124 0 0.0930729 0 0.0564083 0 0.0372624 
trait 2 0.2 0 0 0 0 0 0 0 
trait 3 0.295312 0.0416686 0 0 0 0 0.0361763 0.00511945 
node 1 2 1 1
node 2 2 1 1
node 3 1 1 1
node 4 1 0 2
node 6 1 0 0
gene 1 1 4 4.72556 0 1 4.72556 1
gene 2 2 4 2.0292 0 2 2.0292 1
gene 3 3 4 -0.0137578 0 3 -0.0137578 0
gene 3 3 6 1.45452 0 18 1.45452 1
gene 3 6 4 0.544963 0 19 0.544963 1
gene 2 2 6 -3.3937 0 74 -3.3937 1
gene 1 6 6 -0.547375 1 271 -0.547375 1
genomeend 163

/* Organism #164 Fitness: 395.885 Error: 254.115 */
genomestart 164
trait 1 0.325 0.0623124 0 0.0930729 0 0.0564083 0 0.0372624 
trait 2 0.2 0 0 0 0 0 0 0 
trait 3 0.295312 0.0416686 0 0 0 0 0.0361763 0.00511945 
node 1 2 1 1
node 2 2 1 1
node 3 1 1 1
node 4 1 0 2
node 6 1 0 0
gene 3 1 4 4.72556 0 1 4.72556 1
gene 2 2 4 2.0292 0 2 2.0292 1
gene 3 3 4 -0.0137578 0 3 -0.0137578 0
gene 3 3 6 1.45452 0 18 1.45452 1
gene 3 6 4 0.544963 0 19 0.544963 1
gene 2 2 6 -3.3937 0 74 -3.3937 1
genomeend 164

/* Organism #165 Fitness: 386.044 Error: 263.956 */
genomestart 165
trait 1 0.325 0.0623124 0 0.0930729 0 0.0564083 0 0.0372624 
trait 2 0.2 0 0 0 0 0 0 0 
trait 3 0.295312 0.0416686 0 0 0 0 0.0361763 0.00511945 
node 1 2 1 1
node 2 2 1 1
node 3 1 1 1
node 4 1 0 2
node 6 1 0 0
gene 1 1 4 6.38439 0 1 6.38439 1
gene 2 2 4 3.46345 0 2 3.46345 1
gene 3 3 4 1.57525 0 3 1.57525 0
gene 3 3 6 2.40803 0 18 2.40803 1
gene 3 6 4 0.500553 0 19 0.500553 1
gene 2 2 6 -1.82604 0 74 -1.82604 1
genomeend 165

/* Organism #166 Fitness: 405.463 Error: 244.537 */
genomestart 166
trait 1 0.325 0.0623124 0 0.0930729 0 0.0564083 0 0.0372624 
trait 2 0.2 0 0 0 0 0 0 0 
trait 3 0.295312 0.0416686 0 0 0 0 0.0361763 0.00511945 
node 1 2 1 1
node 2 2 1 1
node 3 1 1 1
node 4 1 0 2
node 6 1 0 0
gene 1 1 4 5.27115 0 1 5.27115 1
gene 2 2 4 2.79457 0 2 2.79457 1
gene 3 3 4 -1.67131 0 3 -1.67131 0
gene 3 3 6 3.03949 0 18 3.03949 1
gene 3 6 4 -0.871892 0 19 -0.871892 1
gene 2 2 6 -1.93136 0 74 -1.93136 1
genomeend 166

/* Organism #167 Fitness: 393.383 Error: 256.617 */
genomestart 167
trait 1 0.325 0.0623124 0 0.0930729 0 0.0564083 0 0.0372624 
trait 2 0.2 0 0 0 0 0 0 0 
trait 3 0.295312 0.0416686 0 0 0 0 0.0361763 0.00511945 
node 1 2 1 1
node 2 2 1 1
node 3 1 1 1
node 4 1 0 2
node 6 1 0 0
gene 1 1 4 5.76801 0 1 5.76801 1
gene 2 2 4 2.21009 0 2 2.21009 1
gene 3 3 4 0.303728 0 3 0.303728 0
gene 3 3 6 2.82015 0 18 2.82015 1
gene 3 6 4 1.27261 0 19 1.27261 1
gene 2 2 6 -2.16797 0 74 -2.16797 1
genomeend 167

/* Organism #168 Fitness: 407.479 Error: 242.521 */
genomestart 168
trait 1 0.1 0.290593 0 0.104807 0 0.282042 0.0158987 0 
trait 2 0.2 0 0 0 0 0 0 0 
trait 3 0.290625 0.0301119 0 0 0 0 0 0.0102389 
node 1 3 1 1
node 2 1 1 1
node 3 3 1 1
node 4 1 0 2
gene 1 1 4 5.79946 0 1 5.79946 1
gene 2 2 4 0.744707 0 2 0.744707 1
gene 3 3 4 -0.647972 0 3 -0.647972 1
genomeend 168

/* Organism #169 Fitness: 416.484 Error: 233.516 */
genomestart 169
trait 1 0.1 0.0747239 0 0 0 0.072525 0 0 
trait 2 0.2 0 0 0 0 0 0 0 
trait 3 0.290625 0.0301119 0 0 0 0 0 0.0102389 
node 1 1 1 1
node 2 1 1 1
node 3 2 1 1
node 4 3 0 2
node 6 1 0 0
gene 3 1 4 4.94744 0 1 4.94744 1
gene 2 2 4 4.91985 0 2 4.91985 1
gene 3 3 4 2.52135 0 3 2.52135 1
gene 3 3 6 1.3815 0 18 1.3815 1
gene 3 6 4 0.257765 0 19 0.257765 1
gene 3 1 6 2.34294 0 53 2.34294 1
genomeend 169

/* Organism #170 Fitness: 410.805 Error: 239.195 */
genomestart 170
trait 1 0.154231 0.228323 0.813337 0 0.0341874 0 0.0324397 0 
trait 2 0.2 0 0 0 0 0 0 0 
trait 3 0.28125 0.0602238 0 0 0 0 0 0.0204778 
node 1 3 1 1
node 2 1 1 1
node 3 3 1 1
node 4 1 0 2
gene 1 1 4 4.65124 0 1 4.65124 1
gene 3 2 4 0.17902 0 2 0.17902 1
gene 3 3 4 0.0431212 0 3 0.0431212 1
gene 2 4 4 -1.53704 1 238 -1.53704 1
genomeend 170

/* Species #20 : (Size 16) (AF 408.311) (Age 6)  */


/* Organism #171 Fitness: 414.036 Error: 235.964 */
genomestart 171
trait 1 0.1 0 0 0 0 0 0 0 
trait 2 0.2 0 0 0 0 0 0 0 
trait 3 0.15 0 0 0 0 0 0 0 
node 1 3 1 1
node 2 1 1 1
node 3 3 1 1
node 4 2 0 2
node 6 1 0 0
gene 3 1 4 2.27145 0 1 2.27145 1
gene 1 2 4 0.122373 0 2 0.122373 1
gene 1 3 4 -2.25551 0 3 -2.25551 1
gene 3 3 6 0.677676 0 18 0.677676 1
gene 3 6 4 3.96157 0 19 3.96157 1
gene 2 2 6 1.0319 0 113 1.0319 1
gene 1 1 6 -0.726555 0 149 -0.726555 1
genomeend 171

/* Organism #172 Fitness: 381.847 Error: 268.153 */
genomestart 172
trait 1 0.1 0 0 0 0 0 0 0 
trait 2 0.2 0 0 0 0 0 0 0 
trait 3 0.1125 0.0366344 0.00036563 0.0905266 0 0 0 0 
node 1 2 1 1
node 2 1 1 1
node 3 2 1 1
node 4 3 0 2
node 6 1 0 0
gene 3 1 4 2.46335 0 1 2.46335 1
gene 2 2 4 2.50743 0 2 2.50743 1
gene 2 3 4 -0.0496831 0 3 -0.0496831 0
gene 3 3 6 0.747634 0 18 0.747634 1
gene 3 6 4 3.52173 0 19 3.52173 1
gene 2 2 6 0.282849 0 113 0.282849 1
gene 1 1 6 -0.62128 0 114 0 1
genomeend 172

/* Organism #173 Fitness: 418.982 Error: 231.018 */
genomestart 173
trait 1 0.1 0 0 0 0 0 0 0 
trait 2 0.2 0 0 0 0 0 0 0 
trait 3 0.15 0 0 0 0 0 0 0 
node 1 3 1 1
node 2 1 1 1
node 3 3 1 1
node 4 2 0 2
node 6 1 0 0
gene 3 1 4 2.70502 0 1 2.70502 1
gene 1 2 4 -1.36889 0 2 -1.36889 1
gene 1 3 4 -3.71322 0 3 -3.71322 1
gene 3 3 6 -1.03856 0 18 -1.03856 1
gene 2 6 4 5.01245 0 19 5.01245 1
gene 2 2 6 1.09979 0 113 1.09979 1
gene 1 1 6 0.410609 0 149 0.410609 1
genomeend 173

/* Organism #174 Fitness: 412.373 Error: 237.627 */
genomestart 174
trait 1 0.1 0 0 0 0 0 0 0 
trait 2 0.2 0 0 0 0 0 0 0 
trait 3 0.15 0 0 0 0 0 0 0 
node 1 2 1 1
node 2 1 1 1
node 3 2 1 1
node 4 3 0 2
node 6 1 0 0
gene 3 1 4 0.046997 0 1 0.046997 1
gene 3 2 4 1.24162 0 2 1.24162 1
gene 2 3 4 -2.12026 0 3 -2.12026 1
gene 3 3 6 4.41116 0 18 4.41116 1
gene 3 6 4 3.88461 0 19 3.88461 1
gene 2 2 6 1.84456 0 113 1.84456 1
gene 1 1 6 -3.83194 0 114 -3.83194 1
genomeend 174

/* Organism #175 Fitness: 392.392 Error: 257.608 */
genomestart 175
trait 1 0.1 0 0 0 0 0 0 0 
trait 2 0.2 0 0 0 0 0 0 0 
trait 3 0.15 0 0 0 0 0 0 0 
node 1 2 1 1
node 2 1 1 1
node 3 2 1 1
node 4 3 0 2
node 6 1 0 0
gene 3 1 4 1.27347 0 1 1.27347 1
gene 1 2 4 0.276 0 2 0.276 1
gene 1 3 4 -2.56736 0 3 -2.56736 1
gene 3 3 6 -0.973187 0 18 -0.973187 1
gene 3 6 4 5.1269 0 19 5.1269 1
gene 3 2 6 3.20119 0 113 3.20119 1
gene 1 1 6 -2.27326 0 114 -2.27326 1
genomeend 175

/* Organism #176 Fitness: 405.501 Error: 244.499 */
genomestart 176
trait 1 0.1 0 0 0 0 0 0 0 
trait 2 0.2 0 0 0 0 0 0 0 
trait 3 0.15 0 0 0 0 0 0 0 
node 1 2 1 1
node 2 1 1 1
node 3 2 1 1
node 4 3 0 2
node 6 1 0 0
gene 3 1 4 2.27145 0 1 2.27145 1
gene 1 2 4 0.122373 0 2 0.122373 1
gene 2 3 4 -2.12026 0 3 -2.12026 1
gene 3 3 6 0.677676 0 18 0.677676 1
gene 3 6 4 3.96157 0 19 3.96157 1
gene 2 2 6 1.84456 0 113 1.84456 1
gene 1 1 6 -0.726555 0 149 -0.726555 1
genomeend 176

/* Organism #177 Fitness: 406.437 Error: 243.563 */
genomestart 177
trait 1 0.1 0 0 0 0 0 0 0 
trait 2 0.2 0.331327 0 0 0 0 0.0995721 0 
trait 3 0.15 0 0 0 0 0 0 0 
node 1 3 1 1
node 2 1 1 1
node 3 3 1 1
node 4 2 0 2
node 6 1 0 0
gene 3 1 4 0.646639 0 1 0.646639 1
gene 2 2 4 0.589849 0 2 0.589849 1
gene 2 3 4 0.568113 0 3 0.568113 0
gene 3 3 6 2.92129 0 18 2.92129 1
gene 3 6 4 4.00813 0 19 4.00813 1
gene 2 2 6 1.79772 0 113 1.79772 1
gene 1 1 6 -0.349721 0 114 -0.349721 1
genomeend 177

/* Organism #178 Fitness: 391.575 Error: 258.425 */
genomestart 178
trait 1 0.1 0.129194 0 0 0 0.0564083 0 0 
trait 2 0.25 0.00690318 0 0 0 0 0 0 
trait 3 0.2625 0 0 0 0 0.0268294 0 0 
node 1 2 1 1
node 2 1 1 1
node 3 2 1 1
node 4 3 0 2
node 6 1 0 0
gene 1 1 4 2.17274 0 1 2.17274 1
gene 2 2 4 -0.149542 0 2 -0.149542 1
gene 3 3 4 -6.59378 0 3 -6.59378 1
gene 3 3 6 -0.00789579 0 18 -0.00789579 1
gene 3 6 4 2.31278 0 19 2.31278 1
gene 2 2 6 2.68067 0 113 2.68067 1
genomeend 178

/* Organism #179 Fitness: 429.914 Error: 220.086 */
genomestart 179
trait 1 0.1 0.0895051 0 0 0 0.0523792 0 0 
trait 2 0.225 0.00345159 0 0 0 0 0 0 
trait 3 0.285894 0.144096 0 0 0 0.0402442 0.254738 0 
node 1 2 1 1
node 2 1 1 1
node 3 2 1 1
node 4 3 0 2
node 6 1 0 0
gene 1 1 4 2.17274 0 1 2.17274 1
gene 2 2 4 -0.149542 0 2 -0.149542 1
gene 3 3 4 -6.59378 0 3 -6.59378 1
gene 3 3 6 -0.00789579 0 18 -0.00789579 1
gene 3 6 4 2.31278 0 19 2.31278 1
gene 2 2 6 2.68067 0 113 2.68067 1
genomeend 179

/* Organism #180 Fitness: 419.731 Error: 230.269 */
genomestart 180
trait 1 0.1 0.168884 0 0 0 0.0604375 0 0 
trait 2 0.275 0.0103548 0 0 0 0 0 0 
trait 3 0.28125 0 0 0 0 0.0134147 0 0 
node 1 2 1 1
node 2 1 1 1
node 3 2 1 1
node 4 3 0 2
node 6 1 0 0
gene 1 1 4 2.17274 0 1 2.17274 1
gene 2 2 4 -0.149542 0 2 -0.149542 1
gene 3 3 4 -6.59378 0 3 -6.59378 1
gene 3 3 6 -0.00789579 0 18 -0.00789579 1
gene 3 6 4 2.31278 0 19 2.31278 1
gene 2 2 6 2.68067 0 113 2.68067 1
genomeend 180

/* Organism #181 Fitness: 414.906 Error: 235.094 */
genomestart 181
trait 1 0.1 0.129194 0 0 0 0.0564083 0 0 
trait 2 0.25 0.00690318 0 0 0 0 0 0 
trait 3 0.2625 0 0 0 0 0.0268294 0 0 
node 1 2 1 1
node 2 1 1 1
node 3 2 1 1
node 4 3 0 2
node 6 1 0 0
gene 1 1 4 2.17274 0 1 2.17274 1
gene 2 2 4 -0.149542 0 2 -0.149542 1
gene 3 3 4 -6.59378 0 3 -6.59378 1
gene 3 3 6 -0.00789579 0 18 -0.00789579 1
gene 3 6 4 2.31278 0 19 2.31278 1
gene 2 2 6 2.68067 0 113 2.68067 1
genomeend 181

/* Organism #182 Fitness: 412.655 Error: 237.345 */
genomestart 182
trait 1 0.1 0.0895051 0 0 0 0.0523792 0 0 
trait 2 0.225 0.00345159 0 0 0 0 0 0 
trait 3 0.285894 0.144096 0 0 0 0.0402442 0.254738 0 
node 1 2 1 1
node 2 1 1 1
node 3 2 1 1
node 4 3 0 2
node 6 1 0 0
gene 1 1 4 2.17274 0 1 2.17274 1
gene 1 2 4 0.143839 0 2 0.143839 1
gene 3 3 4 -6.59378 0 3 -6.59378 1
gene 3 3 6 -0.00789579 0 18 -0.00789579 1
gene 3 6 4 2.31278 0 19 2.31278 1
gene 2 2 6 2.68067 0 113 2.68067 1
genomeend 182

/* Organism #183 Fitness: 394.179 Error: 255.821 */
genomestart 183
trait 1 0.1 0 0 0 0 0 0 0 
trait 2 0.2 0.331327 0 0 0 0 0.0995721 0 
trait 3 0.15 0 0 0 0 0 0 0 
node 1 3 1 1
node 2 1 1 1
node 3 3 1 1
node 4 2 0 2
node 6 1 0 0
gene 3 1 4 2.03505 0 1 2.03505 1
gene 2 2 4 0.951729 0 2 0.951729 1
gene 2 3 4 -0.979857 0 3 -0.979857 0
gene 3 3 6 1.74257 0 18 1.74257 1
gene 3 6 4 5.83397 0 19 5.83397 1
gene 2 2 6 3.51323 0 113 3.51323 0
gene 1 1 6 -2.04109 0 114 -2.04109 1
genomeend 183

/* Organism #184 Fitness: 416.65 Error: 233.35 */
genomestart 184
trait 1 0.1 0 0 0 0 0.224947 0 0.347621 
trait 2 0.2 0.331327 0 0 0 0 0.0995721 0 
trait 3 0.15 0 0 0 0 0 0 0 
node 1 3 1 1
node 2 1 1 1
node 3 3 1 1
node 4 2 0 2
node 6 1 0 0
gene 3 1 4 1.77943 0 1 1.77943 1
gene 2 2 4 -0.629365 0 2 -0.629365 1
gene 2 3 4 0.439012 0 3 0.439012 0
gene 3 3 6 -0.23218 0 18 -0.23218 1
gene 1 6 4 4.40087 0 19 4.40087 1
gene 2 2 6 1.60494 0 113 1.60494 1
gene 1 1 6 -3.8129 0 114 -3.8129 1
genomeend 184

/* Organism #185 Fitness: 411.549 Error: 238.451 */
genomestart 185
trait 1 0.1 0 0 0 0 0 0 0 
trait 2 0.2 0 0 0 0 0 0 0 
trait 3 0.3 0 0 0 0 0 0 0 
node 1 1 1 1
node 2 1 1 1
node 3 2 1 1
node 4 3 0 2
node 6 1 0 0
gene 3 1 4 2.36758 0 1 2.36758 1
gene 2 2 4 -0.166824 0 2 -0.166824 1
gene 2 3 4 1.14964 0 3 1.14964 1
gene 3 3 6 -1.76033 0 18 -1.76033 0
gene 3 6 4 2.72721 0 19 2.72721 1
gene 3 1 6 0.740515 0 53 0.740515 1
gene 2 2 6 0.811375 0 113 0.811375 1
genomeend 185

/* Organism #186 Fitness: 410.243 Error: 239.757 */
genomestart 186
trait 1 0.1 0 0 0 0 0 0 0 
trait 2 0.2 0 0 0 0 0 0 0 
trait 3 0.3 0 0 0 0 0 0 0 
node 1 1 1 1
node 2 1 1 1
node 3 2 1 1
node 4 3 0 2
node 6 1 0 0
gene 3 1 4 2.36758 0 1 2.36758 1
gene 2 2 4 -0.166824 0 2 -0.166824 1
gene 2 3 4 1.14964 0 3 1.14964 1
gene 3 3 6 -1.76033 0 18 -1.76033 0
gene 3 6 4 2.72721 0 19 2.72721 1
gene 3 1 6 0.740515 0 53 0.740515 1
gene 2 2 6 0.811375 0 113 0.811375 1
genomeend 186

/* Species #22 : (Size 5) (AF 297.135) (Age 6)  */


/* Organism #187 Fitness: 373.158 Error: 276.842 */
genomestart 187
trait 1 0.1 0 0 0 0 0 0 0 
trait 2 0.2 0 0 0 0 0 0 0 
trait 3 0.3 0 0 0 0 0 0 0 
node 1 3 1 1
node 2 1 1 1
node 3 3 1 1
node 4 2 0 2
node 5 1 0 0
node 14 1 0 0
gene 1 1 4 -3.18743 0 1 -3.18743 0
gene 1 2 4 3.48841 0 2 3.48841 1
gene 1 3 4 1.0789 0 3 1.0789 1
gene 1 1 5 0.000547636 0 4 0.000547636 1
gene 1 5 4 0.838844 0 5 0.838844 1
gene 1 3 14 0.0374995 0 125 0.0374995 1
gene 1 14 4 -1.6311 0 126 -1.6311 1
gene 3 3 5 -1.69884 0 144 -1.69884 1
genomeend 187

/* Organism #188 Fitness: 377.57 Error: 272.43 */
genomestart 188
trait 1 0.230577 0.0145509 0 0.0572932 0.0113958 0.0120875 0.0108132 0.0186312 
trait 2 0.2 0 0 0 0 0 0 0 
trait 3 0.475 0 0.0727907 0 0.0254771 0.150438 0 0 
node 1 3 1 1
node 2 1 1 1
node 3 3 1 1
node 4 2 0 2
node 5 1 0 0
node 14 1 0 0
gene 1 1 4 -1.75096 0 1 -1.75096 0
gene 3 2 4 1.77602 0 2 1.77602 1
gene 1 3 4 -0.305076 0 3 -0.305076 0
gene 1 1 5 0.855513 0 4 0.855513 1
gene 1 5 4 0.844051 0 5 0.844051 1
gene 1 3 14 1 0 125 0 1
gene 1 14 4 -1.03929 0 126 0 1
genomeend 188

/* Organism #189 Fitness: 366.662 Error: 283.338 */
genomestart 189
trait 1 0.1 0 0 0 0 0 0 0 
trait 2 0.2 0 0 0 0 0 0 0 
trait 3 0.3 0 0 0 0 0 0 0 
node 1 3 1 1
node 2 1 1 1
node 3 3 1 1
node 4 2 0 2
node 5 1 0 0
node 14 1 0 0
gene 1 1 4 -2.27132 0 1 -2.27132 0
gene 1 2 4 1.87351 0 2 1.87351 1
gene 1 3 4 -0.396293 0 3 -0.396293 0
gene 1 1 5 0.711794 0 4 0.711794 1
gene 1 5 4 1.0352 0 5 1.0352 1
gene 1 3 14 1 0 125 0 1
gene 1 14 4 -1.03929 0 126 0 1
gene 3 14 5 -0.778204 0 272 -0.778204 1
genomeend 189

/* Organism #190 Fitness: 2.33939 Error: 647.661 */
genomestart 190
trait 1 0.1 0 0 0 0 0 0 0 
trait 2 0.2 0 0 0 0 0 0 0 
trait 3 0.3 0 0 0 0 0 0 0 
node 1 3 1 1
node 2 1 1 1
node 3 3 1 1
node 4 2 0 2
node 5 1 0 0
node 14 1 0 0
gene 1 1 4 -1.82502 0 1 -1.82502 0
gene 1 2 4 2.61111 0 2 2.61111 1
gene 1 3 4 -1.57545 0 3 -1.57545 1
gene 1 1 5 0.390675 0 4 0.390675 1
gene 1 5 4 -0.124086 0 5 -0.124086 1
gene 1 3 14 0.659705 0 125 0.659705 1
gene 1 14 4 -1.5094 0 126 -1.5094 1
gene 3 3 5 -2.50977 0 144 -2.50977 1
genomeend 190

/* Organism #191 Fitness: 365.946 Error: 284.054 */
genomestart 191
trait 1 0.1 0 0 0 0 0 0 0 
trait 2 0.2 0 0 0 0 0 0 0 
trait 3 0.3 0 0 0 0 0 0 0 
node 1 3 1 1
node 2 1 1 1
node 3 3 1 1
node 4 2 0 2
node 5 1 0 0
node 14 1 0 0
gene 1 1 4 -2.38045 0 1 -2.38045 0
gene 1 2 4 3.83507 0 2 3.83507 1
gene 1 3 4 1.24358 0 3 1.24358 0
gene 1 1 5 0.608996 0 4 0.608996 1
gene 1 5 4 1.03444 0 5 1.03444 1
gene 1 3 14 -0.932706 0 125 -0.932706 1
gene 1 14 4 -2.71941 0 126 -2.71941 1
gene 3 3 5 -0.559422 0 144 -0.559422 1
gene 2 14 5 -0.00312194 0 205 -0.00312194 1
gene 1 1 14 -0.332617 0 223 -0.332617 1
genomeend 191

/* Species #23 : (Size 5) (AF 321.623) (Age 6)  */


/* Organism #192 Fitness: 422.806 Error: 227.194 */
genomestart 192
trait 1 0.1 0 0 0 0 0 0 0 
trait 2 0.2 0 0 0 0 0 0 0 
trait 3 0.3 0 0 0 0 0 0 0 
node 1 3 1 1
node 2 1 1 1
node 3 3 1 1
node 4 2 0 2
node 5 1 0 0
node 10 1 0 0
gene 1 1 4 1.67906 0 1 1.67906 1
gene 1 2 4 -1.1263 0 2 -1.1263 0
gene 1 3 4 -0.837532 0 3 -0.837532 1
gene 1 1 5 2.88395 0 4 2.88395 1
gene 1 5 4 1.08525 0 5 1.08525 1
gene 1 2 10 0.962249 0 46 0.962249 1
gene 1 10 4 -0.246836 0 47 -0.246836 1
gene 1 2 5 1.54827 0 142 1.54827 1
genomeend 192

/* Organism #193 Fitness: 358.909 Error: 291.091 */
genomestart 193
trait 1 0.1 0 0 0 0 0 0 0 
trait 2 0.2 0 0 0 0 0 0 0 
trait 3 0.3 0 0 0 0 0 0 0 
node 1 3 1 1
node 2 1 1 1
node 3 3 1 1
node 4 2 0 2
node 5 1 0 0
node 10 1 0 0
gene 1 1 4 -0.150496 0 1 -0.150496 0
gene 1 2 4 -0.212082 0 2 -0.212082 0
gene 1 3 4 -0.599485 0 3 -0.599485 1
gene 1 1 5 1.57067 0 4 1.57067 1
gene 1 5 4 0.69702 0 5 0 1
gene 1 2 10 0.897552 0 46 0.897552 1
gene 1 10 4 0.538022 0 47 0.538022 1
gene 1 2 5 1.55303 0 142 1.55303 1
genomeend 193

/* Organism #194 Fitness: 2.33939 Error: 647.661 */
genomestart 194
trait 1 0.1 0 0 0 0 0 0 0 
trait 2 0.2 0 0 0 0 0 0 0 
trait 3 0.3 0 0 0 0 0 0 0 
node 1 3 1 1
node 2 1 1 1
node 3 3 1 1
node 4 2 0 2
node 5 1 0 0
node 10 1 0 0
gene 1 1 4 -0.23024 0 1 -0.23024 0
gene 1 2 4 -1.79338 0 2 -1.79338 0
gene 1 3 4 -1.35344 0 3 -1.35344 1
gene 1 1 5 -0.54279 0 4 -0.54279 1
gene 1 5 4 1.62846 0 5 1.62846 1
gene 1 2 10 1.7981 0 46 1.7981 1
gene 1 10 4 0.229313 0 47 0.229313 1
gene 1 2 5 1.16277 0 142 1.16277 1
genomeend 194

/* Organism #195 Fitness: 409.925 Error: 240.075 */
genomestart 195
trait 1 0.1 0 0 0 0 0 0 0 
trait 2 0.2 0 0 0 0 0 0 0 
trait 3 0.3 0 0 0 0 0 0 0 
node 1 3 1 1
node 2 1 1 1
node 3 3 1 1
node 4 2 0 2
node 5 1 0 0
node 10 1 0 0
gene 1 1 4 2.77865 0 1 2.77865 1
gene 1 2 4 0.337288 0 2 0.337288 1
gene 1 3 4 -1.24341 0 3 -1.24341 1
gene 1 1 5 1.96646 0 4 1.96646 1
gene 1 5 4 -1.03345 0 5 -1.03345 1
gene 1 2 10 0.872244 0 46 0.872244 1
gene 1 10 4 0.713097 0 47 0.713097 1
gene 1 2 5 0.0820124 0 142 0.0820124 1
genomeend 195

/* Organism #196 Fitness: 414.134 Error: 235.866 */
genomestart 196
trait 1 0.1 0 0 0 0 0 0 0 
trait 2 0.2 0 0 0 0 0 0 0 
trait 3 0.3 0 0 0 0 0 0 0 
node 1 3 1 1
node 2 1 1 1
node 3 3 1 1
node 4 2 0 2
node 5 1 0 0
node 10 1 0 0
gene 1 1 4 1.25123 0 1 1.25123 1
gene 1 2 4 -0.212082 0 2 -0.212082 0
gene 1 3 4 -0.599485 0 3 -0.599485 1
gene 1 1 5 1.57067 0 4 1.57067 1
gene 1 5 4 -0.644022 0 5 -0.644022 1
gene 1 2 10 0.897552 0 46 0.897552 1
gene 1 10 4 0.538022 0 47 0.538022 1
gene 1 2 5 1.55303 0 142 1.55303 1
gene 2 5 10 0.170142 0 273 0.170142 1
genomeend 196

/* Species #24 : (Size 4) (AF 216.732) (Age 6)  */


/* Organism #197 Fitness: 407.296 Error: 242.704 */
genomestart 197
trait 1 0 0 0 0 0 0.820522 0 0 
trait 2 0.2 0 0 0 0 0 0 0 
trait 3 0.3 0 0 0 0 0 0 0 
node 1 3 1 1
node 2 1 1 1
node 3 3 1 1
node 4 2 0 2
node 5 1 0 0
gene 1 1 4 1.26123 0 1 1.26123 1
gene 1 2 4 0.92281 0 2 0.92281 1
gene 1 3 4 0.343324 0 3 0.343324 0
gene 1 1 5 0.625746 0 4 0.625746 1
gene 1 5 4 -0.207665 0 5 -0.207665 1
gene 1 5 5 -0.60988 1 80 -0.60988 1
gene 3 3 5 0.0834626 0 144 0.0834626 1
gene 2 4 4 1.49599 1 158 1.49599 1
genomeend 197

/* Organism #198 Fitness: 50.0628 Error: 599.937 */
genomestart 198
trait 1 0 0 0 0 0 0.820522 0 0 
trait 2 0.2 0 0 0 0 0 0 0 
trait 3 0.3 0 0 0 0 0 0 0 
node 1 3 1 1
node 2 1 1 1
node 3 1 1 1
node 4 2 0 2
node 5 1 0 0
gene 1 1 4 -0.900056 0 1 -0.900056 1
gene 1 2 4 -2.43637 0 2 -2.43637 1
gene 1 3 4 -0.193898 0 3 -0.193898 1
gene 1 1 5 0.208313 0 4 0.208313 1
gene 1 5 4 0.921092 0 5 0.921092 1
gene 1 5 5 -1.2733 1 80 -1.2733 1
gene 3 3 5 1.25503 0 144 1.25503 1
gene 2 4 4 -1.54916 1 158 -1.54916 1
genomeend 198

/* Organism #199 Fitness: 2.33939 Error: 647.661 */
genomestart 199
trait 1 0 0 0 0 0 0.820522 0 0 
trait 2 0.2 0 0 0 0 0 0 0 
trait 3 0.3 0 0 0 0 0 0 0 
node 1 3 1 1
node 2 1 1 1
node 3 1 1 1
node 4 2 0 2
node 5 1 0 0
gene 1 1 4 -0.499539 0 1 -0.499539 1
gene 1 2 4 0.40143 0 2 0.40143 1
gene 1 3 4 -0.69911 0 3 -0.69911 1
gene 1 1 5 -1.36457 0 4 -1.36457 1
gene 1 5 4 1.77574 0 5 1.77574 1
gene 1 5 5 -3.04025 1 80 -3.04025 1
gene 3 3 5 1.38825 0 144 1.38825 1
gene 2 4 4 -0.967184 1 158 -0.967184 1
genomeend 199

/* Organism #200 Fitness: 407.229 Error: 242.771 */
genomestart 200
trait 1 0.05 0 0 0 0 0.410261 0 0 
trait 2 0.485125 0 0 0 0 0 0 0 
trait 3 0.3 0 0 0 0 0 0 0 
node 1 3 1 1
node 2 1 1 1
node 3 3 1 1
node 4 2 0 2
node 5 1 0 0
gene 1 1 4 0.525221 0 1 0.525221 1
gene 1 2 4 0.142479 0 2 0.142479 1
gene 1 3 4 0.985165 0 3 0.985165 1
gene 1 1 5 1.04928 0 4 1.04928 0
gene 1 5 4 1.88816 0 5 1.88816 1
gene 1 5 5 -0.333805 1 80 -0.333805 1
gene 3 3 5 -1.57249 0 144 -1.57249 1
gene 2 4 4 -0.116937 1 158 -0.116937 1
gene 2 2 5 1.29245 0 182 1.29245 1
genomeend 200

/* Species #25 : (Size 1) (AF 417.184) (Age 6)  */


/* Organism #201 Fitness: 417.184 Error: 232.816 */
genomestart 201
trait 1 0.1 0.265685 0 0 0 0.257867 0 0 
trait 2 0.2 0 0 0 0 0 0 0 
trait 3 0.3 0 0 0 0 0 0 0 
node 1 3 1 1
node 2 1 1 1
node 3 3 1 1
node 4 1 0 2
node 14 1 0 0
gene 3 1 4 0.356902 0 1 0.356902 1
gene 3 2 4 8 0 2 8 1
gene 3 3 4 3.18036 0 3 3.18036 0
gene 3 3 14 -0.228098 0 125 -0.228098 1
gene 3 14 4 5.98683 0 126 5.98683 1
genomeend 201

/* Species #26 : (Size 12) (AF 408.916) (Age 6)  */


/* Organism #202 Fitness: 417.229 Error: 232.771 */
genomestart 202
trait 1 0.1 0.0747239 0 0 0 0.072525 0 0 
trait 2 0.2 0 0 0 0 0 0 0 
trait 3 0.290625 0.0301119 0 0 0 0 0 0.0102389 
node 1 1 1 1
node 2 1 1 1
node 3 2 1 1
node 4 3 0 2
node 6 1 0 0
gene 3 1 4 3.1899 0 1 3.1899 1
gene 2 2 4 5.84914 0 2 5.84914 1
gene 3 3 4 3.2268 0 3 3.2268 1
gene 3 3 6 0.812845 0 18 0.812845 1
gene 1 6 4 2.71872 0 19 2.71872 1
gene 3 1 6 0.838844 0 53 0.838844 1
genomeend 202

/* Organism #203 Fitness: 395.583 Error: 254.417 */
genomestart 203
trait 1 0.1 0.0747239 0 0 0 0.072525 0 0 
trait 2 0.2 0 0 0 0 0 0 0 
trait 3 0.290625 0.0301119 0 0 0 0 0 0.0102389 
node 1 1 1 1
node 2 1 1 1
node 3 2 1 1
node 4 3 0 2
node 6 1 0 0
gene 2 1 4 3.1899 0 1 3.1899 1
gene 2 2 4 5.84914 0 2 5.84914 1
gene 3 3 4 3.2268 0 3 3.2268 1
gene 3 3 6 0.812845 0 18 0.812845 1
gene 1 6 4 2.71872 0 19 2.71872 1
gene 3 1 6 0.838844 0 53 0.838844 1
genomeend 203

/* Organism #204 Fitness: 414.066 Error: 235.934 */
genomestart 204
trait 1 0.1 0.0747239 0 0 0 0.072525 0 0 
trait 2 0.2 0 0 0 0 0 0 0 
trait 3 0.290625 0.0301119 0 0 0 0 0 0.0102389 
node 1 1 1 1
node 2 1 1 1
node 3 2 1 1
node 4 3 0 2
node 6 1 0 0
gene 3 1 4 2.50557 0 1 2.50557 1
gene 2 2 4 6.69492 0 2 6.69492 1
gene 3 3 4 2.01913 0 3 2.01913 1
gene 3 3 6 0.841681 0 18 0.841681 1
gene 1 6 4 1.05068 0 19 1.05068 1
gene 3 1 6 2.2367 0 53 2.2367 1
genomeend 204

/* Organism #205 Fitness: 406.306 Error: 243.694 */
genomestart 205
trait 1 0.1 0.0373619 0 0 0 0.0362625 0 0 
trait 2 0.2 0.0230187 0 0 0 0 0 0 
trait 3 0.276562 0.0150559 0 0 0 0 0 0.00511945 
node 1 1 1 1
node 2 2 1 1
node 3 2 1 1
node 4 3 0 2
node 6 1 0 0
gene 3 1 4 3.24747 0 1 3.24747 1
gene 1 2 4 5.18158 0 2 5.18158 1
gene 2 3 4 3.40669 0 3 3.40669 0
gene 3 3 6 1.04055 0 18 1.04055 1
gene 3 6 4 1.5841 0 19 1.5841 1
gene 3 1 6 1.64421 0 53 1.64421 1
genomeend 205

/* Organism #206 Fitness: 393.67 Error: 256.33 */
genomestart 206
trait 1 0.1 0 0 0 0 0 0 0 
trait 2 0.2 0.0460373 0.0014203 0.322665 0 0 0.401798 0 
trait 3 0.466496 0 0.901436 0 0 0 0 0 
node 1 1 1 1
node 2 1 1 1
node 3 2 1 1
node 4 3 0 2
node 6 3 0 0
gene 3 1 4 0.439813 0 1 0.439813 1
gene 2 2 4 3.1168 0 2 3.1168 0
gene 2 3 4 -0.228503 0 3 -0.228503 0
gene 3 3 6 5.39365 0 18 5.39365 1
gene 3 6 4 5.73795 0 19 5.73795 1
gene 3 1 6 1.7742 0 53 1.7742 1
genomeend 206

/* Organism #207 Fitness: 417.182 Error: 232.818 */
genomestart 207
trait 1 0.1 0.133791 0 0 0 0.0317297 0.182207 0.0899487 
trait 2 0.2 0.051792 0 0 0 0 0 0 
trait 3 0.321847 0.0131739 0.00972785 0 0 0 0 0.00447952 
node 1 1 1 1
node 2 1 1 1
node 3 2 1 1
node 4 3 0 2
node 6 1 0 0
gene 3 1 4 2.90195 0 1 2.90195 1
gene 2 2 4 4.77551 0 2 4.77551 1
gene 2 3 4 4.43027 0 3 4.43027 0
gene 3 3 6 2.78134 0 18 2.78134 1
gene 3 6 4 4.62437 0 19 4.62437 1
gene 1 1 6 2.74295 0 53 2.74295 1
gene 2 2 6 0.062929 0 141 0.062929 1
genomeend 207

/* Organism #208 Fitness: 416.624 Error: 233.376 */
genomestart 208
trait 1 0.1 0.152472 0 0 0 0.0498609 0.182207 0.0899487 
trait 2 0.2 0.0287733 0 0 0 0 0 0 
trait 3 0.288867 0.0207019 0 0 0 0 0 0.00703925 
node 1 1 1 1
node 2 1 1 1
node 3 2 1 1
node 4 3 0 2
node 6 1 0 0
gene 3 1 4 4.60143 0 1 4.60143 1
gene 2 2 4 5.60696 0 2 5.60696 1
gene 3 3 4 3.82423 0 3 3.82423 0
gene 3 3 6 2.11741 0 18 2.11741 1
gene 3 6 4 1.75872 0 19 1.75872 1
gene 3 1 6 0.296207 0 53 0.296207 1
genomeend 208

/* Organism #209 Fitness: 404.373 Error: 245.627 */
genomestart 209
trait 1 0.1 0.0747239 0 0 0 0.072525 0 0 
trait 2 0.2 0 0 0 0 0 0 0 
trait 3 0.290625 0.0301119 0 0 0 0 0 0.0102389 
node 1 1 1 1
node 2 1 1 1
node 3 2 1 1
node 4 3 0 2
node 6 1 0 0
gene 3 1 4 3.4076 0 1 3.4076 1
gene 2 2 4 5.00666 0 2 5.00666 1
gene 3 3 4 3.17012 0 3 3.17012 1
gene 3 3 6 2.40442 0 18 2.40442 1
gene 3 6 4 3.30337 0 19 3.30337 1
gene 3 1 6 1.76058 0 53 1.76058 1
gene 2 2 6 0.384194 0 217 0 1
genomeend 209

/* Organism #210 Fitness: 416.231 Error: 233.769 */
genomestart 210
trait 1 0.1 0.0747239 0 0 0 0.072525 0 0 
trait 2 0.2 0 0 0 0 0 0 0 
trait 3 0.290625 0.0301119 0 0 0 0 0 0.0102389 
node 1 1 1 1
node 2 1 1 1
node 3 2 1 1
node 4 3 0 2
node 6 1 0 0
gene 3 1 4 3.4076 0 1 3.4076 1
gene 2 2 4 5.00666 0 2 5.00666 1
gene 3 3 4 3.17012 0 3 3.17012 1
gene 3 3 6 2.40442 0 18 2.40442 1
gene 3 6 4 3.30337 0 19 3.30337 1
gene 3 1 6 1.76058 0 53 1.76058 1
gene 2 2 6 0.384194 0 217 0 1
genomeend 210

/* Organism #211 Fitness: 407.163 Error: 242.837 */
genomestart 211
trait 1 0.1 0.542362 0.538263 0.897435 0 0 0 0.991141 
trait 2 0.2 0 0 0 0 0 0 0 
trait 3 0.290625 0.0301119 0 0 0 0 0 0.0102389 
node 1 1 1 1
node 2 1 1 1
node 3 2 1 1
node 4 3 0 2
node 6 1 0 0
gene 3 1 4 2.04518 0 1 2.04518 1
gene 2 2 4 5.44341 0 2 5.44341 1
gene 3 3 4 2.91544 0 3 2.91544 1
gene 3 3 6 2.46479 0 18 2.46479 1
gene 3 6 4 3.58979 0 19 3.58979 1
gene 3 1 6 1.38937 0 53 1.38937 1
gene 2 2 6 1.84414 0 217 1.84414 1
genomeend 211

/* Organism #212 Fitness: 411.44 Error: 238.56 */
genomestart 212
trait 1 0.1 0.0560429 0 0 0 0.0543937 0 0 
trait 2 0.2 0.0230187 0 0 0 0 0 0 
trait 3 0.274219 0.0225839 0 0 0 0 0 0.00767918 
node 1 1 1 1
node 2 1 1 1
node 3 2 1 1
node 4 3 0 2
node 6 1 0 0
gene 3 1 4 3.4076 0 1 3.4076 1
gene 2 2 4 5.00666 0 2 5.00666 1
gene 2 3 4 2.99455 0 3 2.99455 0
gene 3 3 6 1.36983 0 18 1.36983 1
gene 3 6 4 3.42158 0 19 3.42158 1
gene 3 1 6 1.76058 0 53 1.76058 1
gene 2 2 6 0.384194 0 217 0 1
genomeend 212

/* Organism #213 Fitness: 407.126 Error: 242.874 */
genomestart 213
trait 1 0.1 0.0747239 0 0 0 0.072525 0 0 
trait 2 0.2 0 0 0 0 0 0 0 
trait 3 0.290625 0.0301119 0 0 0 0 0 0.0102389 
node 1 1 1 1
node 2 1 1 1
node 3 2 1 1
node 4 3 0 2
node 6 1 0 0
gene 3 1 4 3.4076 0 1 3.4076 1
gene 2 2 4 4.12176 0 2 4.12176 1
gene 3 3 4 3.89777 0 3 3.89777 1
gene 3 3 6 1.17841 0 18 1.17841 1
gene 3 6 4 2.18397 0 19 2.18397 1
gene 3 1 6 0.978597 0 53 0.978597 1
