
/* Species #3 : (Size 250) (AF 416.226) (Age 51)  */


/* Organism #0 Fitness: 457.584 Error: 192.416 */
genomestart 0
trait 1 0.124175 0.203614 0 0.0407658 0.00564323 0.196938 0.0444357 0.124418 
trait 2 0.377173 0.0956477 0.120191 0.0436036 0.0732034 0.0105923 0.0532087 0.0812472 
trait 3 0.261456 0.00436481 0.173864 0.00929471 0.103015 0.00794801 0.0168849 0.0503409 
node 1 3 1 1
node 2 1 1 1
node 3 3 1 1
node 4 3 0 2
node 42 1 0 0
gene 1 1 4 -0.584277 0 1 -0.584277 1
gene 2 2 4 0.553186 0 2 0.553186 1
gene 2 3 4 -1.84029 0 3 -1.84029 0
gene 2 2 42 -2.36919 0 446 -2.36919 1
gene 2 42 4 7.88798 0 447 7.88798 1
gene 2 3 42 -0.369061 0 546 -0.369061 1
gene 3 1 42 4.14344 0 702 4.14344 1
gene 3 42 42 3.80262 1 1316 3.80262 1
gene 1 4 4 0.483202 1 1726 0.483202 1
genomeend 0

/* Organism #1 Fitness: 461.561 Error: 188.439 */
genomestart 1
trait 1 0.124175 0.203614 0 0.0407658 0.00564323 0.196938 0.0444357 0.124418 
trait 2 0.377173 0.0956477 0.120191 0.0436036 0.0732034 0.0105923 0.0532087 0.0812472 
trait 3 0.261456 0.00436481 0.173864 0.00929471 0.103015 0.00794801 0.0168849 0.0503409 
node 1 3 1 1
node 2 1 1 1
node 3 3 1 1
node 4 3 0 2
node 42 1 0 0
node 172 1 0 0
gene 1 1 4 -0.409583 0 1 -0.409583 1
gene 2 2 4 -1.3804 0 2 -1.3804 0
gene 2 3 4 -0.9177 0 3 -0.9177 0
gene 2 2 42 -0.329395 0 446 -0.329395 1
gene 2 42 4 4.60662 0 447 4.60662 1
gene 2 3 42 -1.23073 0 546 -1.23073 1
gene 3 1 42 1.43049 0 702 1.43049 1
gene 3 42 42 3.97224 1 1316 3.97224 0
gene 1 4 4 -0.800097 1 1726 -0.800097 1
gene 3 4 42 -0.969897 1 2014 -0.969897 1
gene 3 42 172 1 1 2165 0 1
gene 3 172 42 3.97224 0 2166 0 1
genomeend 1

/* Organism #2 Fitness: 423.429 Error: 226.571 */
genomestart 2
trait 1 0.124175 0.203614 0 0.0407658 0.00564323 0.196938 0.0444357 0.124418 
trait 2 0.377173 0.0956477 0.120191 0.0436036 0.0732034 0.0105923 0.0532087 0.0812472 
trait 3 0.261456 0.00436481 0.20019 0.00929471 0.0901383 0.040689 0.0168849 0.0503409 
node 1 3 1 1
node 2 1 1 1
node 3 1 1 1
node 4 3 0 2
node 42 1 0 0
gene 1 1 4 -0.656026 0 1 -0.656026 1
gene 2 2 4 -1.27974 0 2 -1.27974 0
gene 2 3 4 -0.599747 0 3 -0.599747 0
gene 2 2 42 -0.867795 0 446 -0.867795 1
gene 2 42 4 5.45761 0 447 5.45761 1
gene 2 3 42 0.209945 0 546 0.209945 1
gene 3 1 42 2.95597 0 702 2.95597 1
gene 3 42 42 2.92552 1 1316 2.92552 1
gene 1 4 4 -0.177896 1 1726 -0.177896 1
genomeend 2

/* Organism #3 Fitness: 417.687 Error: 232.313 */
genomestart 3
trait 1 0.233653 0.18763 0 0.0382179 0.219828 0.397703 0.214464 0.124418 
trait 2 0.377173 0.125407 0.112679 0.0408784 0.0686282 0.0105923 0.0532087 0.0812472 
trait 3 0.261456 0.00436481 0.173864 0.00929471 0.103015 0.00794801 0.0168849 0.0503409 
node 1 3 1 1
node 2 1 1 1
node 3 3 1 1
node 4 3 0 2
node 42 1 0 0
gene 1 1 4 0.236397 0 1 0.236397 0
gene 2 2 4 -0.987561 0 2 -0.987561 0
gene 2 3 4 -0.982203 0 3 -0.982203 0
gene 2 2 42 0.766659 0 446 0.766659 1
gene 2 42 4 7.42874 0 447 7.42874 1
gene 2 3 42 -3.0071 0 546 -3.0071 1
gene 3 1 42 5.82395 0 702 5.82395 1
gene 3 42 42 2.8783 1 1316 2.8783 1
gene 1 4 4 1.32435 1 1726 1.32435 1
gene 3 4 42 -2.18599 1 2014 -2.18599 0
genomeend 3

/* Organism #4 Fitness: 429.277 Error: 220.723 */
genomestart 4
trait 1 0.124175 0.203614 0 0.0407658 0.00564323 0.196938 0.0444357 0.124418 
trait 2 0.377173 0.193334 0.0826313 0.207895 0.0686282 0.00794425 0.127617 0.298304 
trait 3 0.261456 0.00436481 0.162997 0.0155382 0.159077 0.00794801 0.0158296 0.0927577 
node 1 3 1 1
node 2 1 1 1
node 3 3 1 1
node 4 3 0 2
node 42 1 0 0
gene 1 1 4 -0.560054 0 1 -0.560054 1
gene 2 2 4 0.0243589 0 2 0.0243589 0
gene 2 3 4 -1.27311 0 3 -1.27311 1
gene 2 2 42 -0.387341 0 446 -0.387341 1
gene 2 42 4 8 0 447 8 1
gene 2 3 42 -1.92662 0 546 -1.92662 1
gene 3 1 42 5.69678 0 702 5.69678 1
gene 2 42 42 0.830467 1 1316 0.830467 0
gene 1 4 4 1.25488 1 1726 1.25488 1
genomeend 4

/* Organism #5 Fitness: 440.974 Error: 209.026 */
genomestart 5
trait 1 0.124175 0.197251 0 0.0394919 0.00546688 0.190783 0.0497668 0.124418 
trait 2 0.377173 0.155167 0.105167 0.0381532 0.064053 0.0105923 0.0532087 0.0812472 
trait 3 0.261456 0.00436481 0.173864 0.00929471 0.103015 0.00794801 0.0168849 0.0503409 
node 1 3 1 1
node 2 1 1 1
node 3 3 1 1
node 4 3 0 2
node 42 1 0 0
gene 2 1 4 -0.723513 0 1 -0.723513 1
gene 2 2 4 -0.370541 0 2 -0.370541 0
gene 2 3 4 0.627954 0 3 0.627954 0
gene 2 2 42 -0.482497 0 446 -0.482497 1
gene 2 42 4 4.8044 0 447 4.8044 1
gene 2 3 42 -1.79119 0 546 -1.79119 1
gene 3 1 42 5.32863 0 702 5.32863 1
gene 3 42 42 3.28224 1 1316 3.28224 0
gene 1 4 4 4.31109 1 1726 4.31109 1
genomeend 5

/* Organism #6 Fitness: 376.515 Error: 273.485 */
genomestart 6
trait 1 0.124175 0.203614 0 0.0407658 0.00564323 0.196938 0.0444357 0.124418 
trait 2 0.377173 0.102879 0.120191 0.0620991 0.0732034 0.0105923 0.0532087 0.0812472 
trait 3 0.261456 0.00436481 0.20019 0.667589 0.0901383 0.040689 0.0168849 0 
node 1 3 1 1
node 2 1 1 1
node 3 3 1 1
node 4 3 0 2
node 42 1 0 0
gene 1 1 4 -0.0193531 0 1 -0.0193531 1
gene 2 2 4 1.45135 0 2 1.45135 0
gene 1 3 4 -1.77964 0 3 -1.77964 0
gene 2 2 42 -0.911132 0 446 -0.911132 1
gene 2 42 4 7.14809 0 447 7.14809 1
gene 2 3 42 0.549238 0 546 0.549238 1
gene 3 1 42 4.32196 0 702 4.32196 1
gene 3 42 42 1.9633 1 1316 1.9633 1
gene 1 4 4 -1.19358 1 1726 -1.19358 1
gene 3 4 42 -2.09305 1 2014 -2.09305 1
genomeend 6

/* Organism #7 Fitness: 470.216 Error: 179.784 */
genomestart 7
trait 1 0.124175 0.891827 0.615264 0.0407658 0.828113 0.196938 0.0444357 0.124418 
trait 2 0.377173 0.0956477 0.120191 0.0436036 0.0732034 0.0105923 0.0532087 0.0812472 
trait 3 0.261456 0.00436481 0.187027 0.00929471 0.0965767 0.0243185 0.0168849 0.0503409 
node 1 3 1 1
node 2 1 1 1
node 3 3 1 1
node 4 3 0 2
node 42 1 0 0
gene 1 1 4 -0.556309 0 1 -0.556309 1
gene 2 2 4 0.291563 0 2 0.291563 0
gene 2 3 4 -1.14076 0 3 -1.14076 0
gene 2 2 42 -1.40467 0 446 -1.40467 1
gene 2 42 4 6.16892 0 447 6.16892 1
gene 2 3 42 -0.448615 0 546 -0.448615 1
gene 3 1 42 4.25966 0 702 4.25966 1
gene 3 42 42 3.19548 1 1316 3.19548 1
gene 1 4 4 0.0480336 1 1726 0.0480336 1
gene 3 4 42 -0.487465 1 2013 -0.487465 1
genomeend 7

/* Organism #8 Fitness: 446.823 Error: 203.177 */
genomestart 8
trait 1 0.124175 0.178162 0 0.0356701 0.00493783 0.17232 0.0657602 0.124418 
trait 2 0.377173 0.0956477 0.120191 0.0436036 0.0732034 0.0105923 0.0532087 0.0812472 
trait 3 0.261456 0.00436481 0.173864 0.00929471 0.103015 0.00794801 0.0168849 0.0503409 
node 1 3 1 1
node 2 1 1 1
node 3 3 1 1
node 4 3 0 2
node 42 1 0 0
gene 1 1 4 -1.57991 0 1 -1.57991 1
gene 2 2 4 -0.377125 0 2 -0.377125 0
gene 2 3 4 -2.3336 0 3 -2.3336 0
gene 2 2 42 -1.80377 0 446 -1.80377 1
gene 2 42 4 5.21252 0 447 5.21252 1
gene 2 3 42 -1.17151 0 546 -1.17151 1
gene 3 1 42 5.41625 0 702 5.41625 1
gene 3 42 42 2.86555 1 1316 2.86555 1
gene 1 4 4 1.67865 1 1726 1.67865 0
genomeend 8

/* Organism #9 Fitness: 455.478 Error: 194.522 */
genomestart 9
trait 1 0.124175 0.190888 0 0.0382179 0.00529053 0.184629 0.055098 0.124418 
trait 2 0.370157 0.0956477 0.120191 0.0436036 0.10367 0.0231775 0.0532087 0.121648 
trait 3 0.261456 0.00436481 0.187027 0.00929471 0.0965767 0.0243185 0.0168849 0.0503409 
node 1 3 1 1
node 2 1 1 1
node 3 3 1 1
node 4 3 0 2
node 42 1 0 0
gene 1 1 4 -1.35199 0 1 -1.35199 1
gene 2 2 4 3.08668 0 2 3.08668 0
gene 2 3 4 -0.599341 0 3 -0.599341 1
gene 2 2 42 -3.54771 0 446 -3.54771 1
gene 2 42 4 6.73796 0 447 6.73796 1
gene 2 3 42 -0.486367 0 546 -0.486367 1
gene 3 1 42 4.29223 0 702 4.29223 1
gene 3 42 42 4.01563 1 1316 4.01563 1
gene 1 4 4 0.0793533 1 1726 0.0793533 1
genomeend 9

/* Organism #10 Fitness: 433.956 Error: 216.044 */
genomestart 10
trait 1 0.124175 0.203614 0 0.0407658 0.00564323 0.196938 0.0444357 0.124418 
trait 2 0.377173 0.0956477 0.120191 0.0436036 0.0732034 0.0105923 0.0532087 0.0812472 
trait 3 0.261456 0.00436481 0.173864 0.00929471 0.103015 0.00794801 0.0168849 0.0503409 
node 1 3 1 1
node 2 1 1 1
node 3 3 1 1
node 4 3 0 2
node 42 1 0 0
gene 1 1 4 -1.87335 0 1 -1.87335 1
gene 2 2 4 -1.52393 0 2 -1.52393 0
gene 2 3 4 -1.18573 0 3 -1.18573 0
gene 2 2 42 -1.13337 0 446 -1.13337 1
gene 2 42 4 4.49285 0 447 4.49285 1
gene 2 3 42 -2.5431 0 546 -2.5431 1
gene 3 1 42 5.97774 0 702 5.97774 1
gene 3 42 42 4.54611 1 1316 4.54611 0
gene 1 4 4 -0.38393 1 1726 -0.38393 1
gene 1 4 42 0.749724 1 2030 0.749724 1
genomeend 10

/* Organism #11 Fitness: 441.208 Error: 208.792 */
genomestart 11
trait 1 0.124175 0.203614 0 0.0407658 0.00564323 0.196938 0.0444357 0.124418 
trait 2 0.330207 0.0956477 0.120191 0.0864293 0.064053 0.0092683 0.0532087 0.0988199 
trait 3 0.245115 0.00409201 0.16962 0.0149573 0.152638 0.00745126 0.0350717 0.0927577 
node 1 3 1 1
node 2 1 1 1
node 3 3 1 1
node 4 3 0 2
node 42 1 0 0
gene 1 1 4 -2.12779 0 1 -2.12779 1
gene 2 2 4 -0.481061 0 2 -0.481061 0
gene 2 3 4 -2.24119 0 3 -2.24119 0
gene 2 2 42 -0.353872 0 446 -0.353872 1
gene 2 42 4 4.95349 0 447 4.95349 1
gene 2 3 42 -2.49066 0 546 -2.49066 1
gene 3 1 42 6.13209 0 702 6.13209 1
gene 3 42 42 1.82465 1 1316 1.82465 1
gene 1 4 4 1.09889 1 1726 1.09889 1
genomeend 11

/* Organism #12 Fitness: 456.882 Error: 193.118 */
genomestart 12
trait 1 0.124175 0.203614 0 0.0407658 0.00564323 0.196938 0.0444357 0.124418 
trait 2 0.377173 0.0956477 0.120191 0.0436036 0.0732034 0.0105923 0.0532087 0.0812472 
trait 3 0.261456 0.00436481 0.173864 0.00929471 0.103015 0.00794801 0.0168849 0.0503409 
node 1 3 1 1
node 2 1 1 1
node 3 3 1 1
node 4 3 0 2
node 42 1 0 0
gene 1 1 4 -0.409583 0 1 -0.409583 1
gene 2 2 4 -1.3804 0 2 -1.3804 0
gene 2 3 4 -0.9177 0 3 -0.9177 0
gene 2 2 42 -0.329395 0 446 -0.329395 1
gene 2 42 4 4.60662 0 447 4.60662 1
gene 2 3 42 -1.23073 0 546 -1.23073 1
gene 3 1 42 1.43049 0 702 1.43049 1
gene 3 42 42 3.97224 1 1316 3.97224 1
gene 1 4 4 -0.800097 1 1726 -0.800097 1
gene 3 4 42 -0.969897 1 2014 -0.969897 1
genomeend 12

/* Organism #13 Fitness: 467.175 Error: 182.825 */
genomestart 13
trait 1 0.124175 0.203614 0 0.0407658 0.00564323 0.196938 0.0444357 0.124418 
trait 2 0.377173 0.124573 0.120191 0.117586 0.0732034 0.0105923 0.0532087 0.0812472 
trait 3 0.340524 0.00381921 0.173864 0.112238 0.0901383 0.00794801 0.0871442 0.0503409 
node 1 3 1 1
node 2 1 1 1
node 3 3 1 1
node 4 3 0 2
node 42 1 0 0
gene 1 1 4 -0.3597 0 1 -0.3597 1
gene 2 2 4 -1.52659 0 2 -1.52659 1
gene 2 3 4 -3.22387 0 3 -3.22387 0
gene 2 2 42 -2.60686 0 446 -2.60686 1
gene 2 42 4 5.63094 0 447 5.63094 1
gene 2 3 42 -0.350982 0 546 -0.350982 1
gene 3 1 42 4.48848 0 702 4.48848 1
gene 3 42 42 2.38038 1 1316 2.38038 1
gene 1 4 4 0.0268139 1 1726 0.0268139 1
genomeend 13

/* Organism #14 Fitness: 425.393 Error: 224.607 */
genomestart 14
trait 1 0.124175 0.166751 0 0.0382179 0.219828 0.397703 0.214464 0.124418 
trait 2 0.377173 0.0956477 0.120191 0.0436036 0.0732034 0.0105923 0.0532087 0.0812472 
trait 3 0.313992 0.00436481 0.478726 0.381975 0.324402 0.218103 0.0158296 0.0927577 
node 1 3 1 1
node 2 1 1 1
node 3 3 1 1
node 4 3 0 2
node 42 1 0 0
gene 1 1 4 0.81261 0 1 0.81261 1
gene 2 2 4 1.65693 0 2 1.65693 0
gene 2 3 4 -2.30666 0 3 -2.30666 0
gene 2 2 42 -2.41401 0 446 -2.41401 1
gene 2 42 4 5.53517 0 447 5.53517 1
gene 2 3 42 -0.93401 0 546 -0.93401 1
gene 1 1 42 5.323 0 702 5.323 1
gene 3 42 42 2.07849 1 1316 2.07849 1
gene 1 4 4 -0.503472 1 1726 -0.503472 1
gene 3 4 42 -2.04163 1 2067 -2.04163 1
genomeend 14

/* Organism #15 Fitness: 454.777 Error: 195.223 */
genomestart 15
trait 1 0.124175 0.203614 0 0.0407658 0.00564323 0.196938 0.0444357 0.124418 
trait 2 0.377173 0.102879 0.120191 0.0620991 0.0732034 0.0105923 0.0532087 0.0812472 
trait 3 0.261456 0.00436481 0.173864 0.00929471 0.103015 0.00794801 0.0168849 0.0503409 
node 1 2 1 1
node 2 1 1 1
node 3 3 1 1
node 4 3 0 2
node 42 1 0 0
gene 1 1 4 -1.00359 0 1 -1.00359 1
gene 2 2 4 0.297584 0 2 0.297584 1
gene 2 3 4 -0.926233 0 3 -0.926233 0
gene 2 2 42 -1.19992 0 446 -1.19992 1
gene 2 42 4 6.15655 0 447 6.15655 1
gene 2 3 42 -1.07158 0 546 -1.07158 1
gene 3 1 42 4.01053 0 702 4.01053 1
gene 3 42 42 4.18932 1 1316 4.18932 1
gene 1 4 4 -0.674121 1 1726 -0.674121 1
gene 1 4 42 -1.29362 1 2032 -1.29362 1
genomeend 15

/* Organism #16 Fitness: 490.803 Error: 159.197 */
genomestart 16
trait 1 0.124175 0.217654 0 0.0382179 0.00564323 0.196938 0.0444357 0.124418 
trait 2 0.377173 0.11011 0.120191 0.0805947 0.0732034 0.0105923 0.0532087 0.0812472 
trait 3 0.245115 0.00409201 0.180487 0.00871379 0.0965767 0.00745126 0.036127 0.0503409 
node 1 3 1 1
node 2 1 1 1
node 3 3 1 1
node 4 3 0 2
node 42 1 0 0
gene 1 1 4 -0.554993 0 1 -0.554993 1
gene 2 2 4 0.580756 0 2 0.580756 0
gene 2 3 4 -1.24809 0 3 -1.24809 0
gene 2 2 42 -2.50595 0 446 -2.50595 1
gene 2 42 4 8 0 447 8 1
gene 2 3 42 0.18556 0 546 0.18556 1
gene 3 1 42 4.09724 0 702 4.09724 1
gene 3 42 42 4.09461 1 1316 4.09461 1
gene 1 4 4 -1.05744 1 1726 -1.05744 1
gene 3 4 42 1.77092 1 2014 1.77092 1
genomeend 16

/* Organism #17 Fitness: 463.432 Error: 186.568 */
genomestart 17
trait 1 0.124175 0.203614 0 0.279365 0.00282162 0.172899 0.0222178 0.124418 
trait 2 0.377173 0.11011 0.120191 0.0805947 0.0732034 0.0105923 0.0532087 0.0812472 
trait 3 0.245115 0.00409201 0.181635 0.0118355 0.121388 0.0156365 0.0355994 0.0715493 
node 1 3 1 1
node 2 1 1 1
node 3 3 1 1
node 4 3 0 2
node 42 1 0 0
gene 1 1 4 -0.458205 0 1 -0.458205 1
gene 2 2 4 0.265217 0 2 0.265217 0
gene 2 3 4 -3.99564 0 3 -3.99564 0
gene 2 2 42 -3.03047 0 446 -3.03047 1
gene 2 42 4 8 0 447 8 1
gene 2 3 42 -2.72008 0 546 -2.72008 1
gene 3 1 42 5.25382 0 702 5.25382 1
gene 3 42 42 1.96012 1 1316 1.96012 1
gene 1 4 4 -3.97637 1 1726 -3.97637 1
genomeend 17

/* Organism #18 Fitness: 433.488 Error: 216.512 */
genomestart 18
trait 1 0.124175 0.146348 0 0.0394919 0.219652 0.391549 0.219795 0.124418 
trait 2 0.377173 0.0956477 0.120191 0.0436036 0.0732034 0.0105923 0.0532087 0.0812472 
trait 3 0 0.00436481 0.16843 0.0124165 0 0 0.652952 0.0715493 
node 1 3 1 1
node 2 1 1 1
node 3 3 1 1
node 4 3 0 2
node 42 1 0 0
gene 1 1 4 -1.26671 0 1 -1.26671 1
gene 2 2 4 0.364289 0 2 0.364289 0
gene 2 3 4 -0.358575 0 3 -0.358575 0
gene 2 2 42 0.427826 0 446 0.427826 1
gene 2 42 4 5.16925 0 447 5.16925 1
gene 2 3 42 0.327754 0 546 0.327754 1
gene 3 1 42 5.51386 0 702 5.51386 1
gene 3 42 42 -0.247166 1 1316 -0.247166 1
gene 1 4 4 -1.22313 1 1726 -1.22313 1
gene 3 4 42 -0.26268 1 2064 -0.26268 1
genomeend 18

/* Organism #19 Fitness: 458.987 Error: 191.013 */
genomestart 19
trait 1 0.124175 0.197251 0 0.0394919 0.00546688 0.190783 0.0497668 0.124418 
trait 2 0.377173 0.0956477 0.120191 0.0436036 0.0732034 0.0105923 0.0532087 0.0812472 
trait 3 0.261456 0.00436481 0.16843 0.0124165 0.131046 0.00794801 0.0163573 0.0715493 
node 1 3 1 1
node 2 1 1 1
node 3 3 1 1
node 4 3 0 2
node 42 1 0 0
gene 1 1 4 -0.342518 0 1 -0.342518 1
gene 2 2 4 1.44572 0 2 1.44572 0
gene 2 3 4 -4.09945 0 3 -4.09945 0
gene 2 2 42 -0.107499 0 446 -0.107499 1
gene 2 42 4 6.66296 0 447 6.66296 1
gene 2 3 42 1.85638 0 546 1.85638 1
gene 3 1 42 3.59315 0 702 3.59315 1
gene 3 42 42 3.88432 1 1316 3.88432 1
gene 1 4 4 1.71105 1 1726 1.71105 1
genomeend 19

/* Organism #20 Fitness: 463.666 Error: 186.334 */
genomestart 20
trait 1 0.124175 0.203614 0 0.0407658 0.00564323 0.196938 0.0444357 0.124418 
trait 2 0.377173 0.0956477 0.120191 0.0436036 0.0732034 0.0105923 0.0532087 0.0812472 
trait 3 0.261456 0.00436481 0.187027 0.00929471 0.0965767 0.0243185 0.0168849 0.0503409 
node 1 3 1 1
node 2 1 1 1
node 3 3 1 1
node 4 3 0 2
node 42 1 0 0
gene 1 1 4 -1.02834 0 1 -1.02834 1
gene 2 2 4 -0.397642 0 2 -0.397642 1
gene 1 3 4 -0.447036 0 3 -0.447036 0
gene 2 2 42 -2.8586 0 446 -2.8586 1
gene 2 42 4 7.29232 0 447 7.29232 1
gene 2 3 42 -0.0681087 0 546 -0.0681087 1
gene 3 1 42 6.2147 0 702 6.2147 1
gene 3 42 42 3.46345 1 1316 3.46345 1
gene 1 4 4 0.178933 1 1726 0.178933 1
genomeend 20

/* Organism #21 Fitness: 459.689 Error: 190.311 */
genomestart 21
trait 1 0.374802 0.125009 0 0.0203829 0.00282162 0.196938 0.0444357 0.124418 
trait 2 0.377173 0.231501 0.0600955 0.377637 0.0732034 0.00529617 0.202026 0.515361 
trait 3 0.261456 0.00436481 0.173864 0.00929471 0.103015 0.00794801 0.0168849 0.0503409 
node 1 3 1 1
node 2 1 1 1
node 3 3 1 1
node 4 3 0 2
node 42 1 0 0
gene 1 1 4 -0.639326 0 1 -0.639326 1
gene 2 2 4 1.09802 0 2 1.09802 0
gene 2 3 4 -1.51878 0 3 -1.51878 0
gene 2 2 42 -1.59561 0 446 -1.59561 1
gene 2 42 4 7.15452 0 447 7.15452 1
gene 2 3 42 -0.938945 0 546 -0.938945 1
gene 3 1 42 5.40669 0 702 5.40669 1
gene 3 42 42 2.6442 1 1316 2.6442 1
gene 1 4 4 -0.246296 1 1726 -0.246296 1
genomeend 21

/* Organism #22 Fitness: 467.409 Error: 182.591 */
genomestart 22
trait 1 0.124175 0.203614 0 0.0407658 0.00564323 0.196938 0.0444357 0.124418 
trait 2 0.377173 0.0956477 0.120191 0.0436036 0.0732034 0.0105923 0.0532087 0.0812472 
trait 3 0.261456 0.00436481 0.146698 0.0249035 0.243169 0.00794801 0.0142467 0.156383 
node 1 3 1 1
node 2 1 1 1
node 3 3 1 1
node 4 3 0 2
node 42 1 0 0
node 166 1 0 0
gene 1 1 4 -0.761996 0 1 -0.761996 1
gene 2 2 4 1.11233 0 2 1.11233 0
gene 2 3 4 -2.01 0 3 -2.01 0
gene 2 2 42 -1.11935 0 446 -1.11935 1
gene 2 42 4 6.75682 0 447 6.75682 1
gene 2 3 42 -1.05333 0 546 -1.05333 1
gene 3 1 42 5.16681 0 702 5.16681 1
gene 3 42 42 3.13356 1 1316 3.13356 0
gene 1 4 4 -0.122736 1 1726 -0.122736 1
gene 3 42 166 1 1 2129 0 1
gene 3 166 42 4.06837 0 2130 0 1
gene 2 166 166 0.791224 1 2167 0.791224 1
genomeend 22

/* Organism #23 Fitness: 462.263 Error: 187.737 */
genomestart 23
trait 1 0.124175 0.17882 0 0.0382179 0.112559 0.291166 0.134781 0.124418 
trait 2 0.373665 0.0956477 0.120191 0.0436036 0.0884365 0.0168849 0.0532087 0.101448 
trait 3 0.261456 0.00436481 0.180445 0.00929471 0.099796 0.0161333 0.0168849 0.0503409 
node 1 3 1 1
node 2 1 1 1
node 3 3 1 1
node 4 3 0 2
node 42 1 0 0
gene 1 1 4 -0.943234 0 1 -0.943234 1
gene 2 2 4 0.245641 0 2 0.245641 0
gene 2 3 4 -1.37961 0 3 -1.37961 0
gene 2 2 42 -2.57357 0 446 -2.57357 1
gene 2 42 4 6.81203 0 447 6.81203 1
gene 2 3 42 -0.821508 0 546 -0.821508 1
gene 3 1 42 5.6304 0 702 5.6304 1
gene 3 42 42 2.50242 1 1316 2.50242 1
gene 1 4 4 -0.332464 1 1726 -0.332464 1
genomeend 23

/* Organism #24 Fitness: 455.712 Error: 194.288 */
genomestart 24
trait 1 0.124175 0.203614 0 0.0407658 0.00564323 0.196938 0.0444357 0.124418 
trait 2 0.377173 0.163574 0.0901432 0.21062 0.0732034 0.00794425 0.127617 0.298304 
trait 3 0.261456 0.00436481 0.162997 0.0155382 0.159077 0.00794801 0.0158296 0.0927577 
node 1 3 1 1
node 2 1 1 1
node 3 3 1 1
node 4 3 0 2
node 42 1 0 0
gene 1 1 4 -0.935955 0 1 -0.935955 1
gene 2 2 4 0.206408 0 2 0.206408 0
gene 1 3 4 -0.669935 0 3 -0.669935 0
gene 2 2 42 -2.46134 0 446 -2.46134 1
gene 2 42 4 8 0 447 8 1
gene 2 3 42 -2.05992 0 546 -2.05992 1
gene 3 1 42 6.15977 0 702 6.15977 1
gene 2 42 42 2.49768 1 1316 2.49768 1
gene 1 4 4 0.790447 1 1726 0.790447 1
genomeend 24

/* Organism #25 Fitness: 466.24 Error: 183.76 */
genomestart 25
trait 1 0.124175 0.203614 0 0.0407658 0.00564323 0.196938 0.0444357 0.124418 
trait 2 0.377173 0.102879 0.120191 0.0620991 0.0732034 0.0105923 0.0532087 0.0812472 
trait 3 0.340524 0.00381921 0.173864 0.112238 0.0901383 0.00794801 0.0871442 0.0503409 
node 1 3 1 1
node 2 1 1 1
node 3 3 1 1
node 4 3 0 2
node 42 1 0 0
gene 1 1 4 -0.584277 0 1 -0.584277 1
gene 2 2 4 -0.0705843 0 2 -0.0705843 0
gene 2 3 4 -0.417824 0 3 -0.417824 0
gene 2 2 42 0.273493 0 446 0.273493 1
gene 2 42 4 7.88798 0 447 7.88798 1
gene 2 3 42 -0.369061 0 546 -0.369061 1
gene 3 1 42 2.4338 0 702 2.4338 1
gene 3 42 42 3.80262 1 1316 3.80262 1
gene 1 4 4 0.282056 1 1726 0.282056 1
genomeend 25

/* Organism #26 Fitness: 2.33939 Error: 647.661 */
genomestart 26
trait 1 0.124175 0.203614 0 0.0407658 0.00564323 0.196938 0.0444357 0.124418 
trait 2 0.377173 0.0956477 0.120191 0.0436036 0.0732034 0.0105923 0.0532087 0.0812472 
trait 3 0.261456 0.00436481 0.173864 0.00929471 0.103015 0.00794801 0.0168849 0.0503409 
node 1 3 1 1
node 2 1 1 1
node 3 3 1 1
node 4 3 0 2
node 42 1 0 0
gene 1 1 4 -0.432785 0 1 -0.432785 1
gene 2 2 4 1.05331 0 2 1.05331 0
gene 2 3 4 -0.0912153 0 3 -0.0912153 0
gene 2 2 42 -5.45131 0 446 -5.45131 1
gene 2 42 4 6.69009 0 447 6.69009 1
gene 2 3 42 -2.58384 0 546 -2.58384 1
gene 3 1 42 -1.17595 0 702 -1.17595 1
gene 3 42 42 5.37829 1 1316 5.37829 1
gene 1 4 4 0.535965 1 1726 0.535965 1
gene 1 4 42 -0.385115 1 2030 -0.385115 1
genomeend 26

/* Organism #27 Fitness: 451.034 Error: 198.966 */
genomestart 27
trait 1 0.124175 0.203614 0 0.517964 0 0.148861 0 0.124418 
trait 2 0.377173 0.0956477 0.120191 0.0436036 0.0732034 0.0105923 0.0532087 0.0812472 
trait 3 0.261456 0.00436481 0.187027 0.00929471 0.0965767 0.0243185 0.0168849 0.0503409 
node 1 3 1 1
node 2 1 1 1
node 3 3 1 1
node 4 3 0 2
node 42 1 0 0
gene 1 1 4 -0.864918 0 1 -0.864918 1
gene 2 2 4 1.47185 0 2 1.47185 0
gene 2 3 4 -0.00878193 0 3 -0.00878193 0
gene 2 2 42 -0.960334 0 446 -0.960334 1
gene 2 42 4 8 0 447 8 1
gene 2 3 42 -1.44494 0 546 -1.44494 1
gene 1 1 42 5.94609 0 702 5.94609 1
gene 3 42 42 3.94764 1 1316 3.94764 1
gene 1 4 4 1.34253 1 1726 1.34253 1
genomeend 27

/* Organism #28 Fitness: 462.497 Error: 187.503 */
genomestart 28
trait 1 0.124175 0.190888 0 0.0382179 0.00529053 0.184629 0.055098 0.124418 
trait 2 0.34911 0.0956477 0.120191 0.0436036 0.195069 0.0609328 0.0532087 0.24285 
trait 3 0.261456 0.00436481 0.173864 0.00929471 0.103015 0.00794801 0.0168849 0.0503409 
node 1 3 1 1
node 2 1 1 1
node 3 3 1 1
node 4 3 0 2
node 42 1 0 0
gene 1 1 4 -0.713791 0 1 -0.713791 1
gene 2 2 4 1.72158 0 2 1.72158 0
gene 2 3 4 -1.65151 0 3 -1.65151 0
gene 2 2 42 -2.76955 0 446 -2.76955 1
gene 2 42 4 5.52315 0 447 5.52315 1
gene 2 3 42 -1.57016 0 546 -1.57016 1
gene 3 1 42 6.32131 0 702 6.32131 1
gene 2 42 42 4.84828 1 1316 4.84828 1
gene 1 4 4 -0.140392 1 1726 -0.140392 1
gene 2 4 42 0.107392 1 2137 0.107392 1
genomeend 28

/* Organism #29 Fitness: 435.36 Error: 214.64 */
genomestart 29
trait 1 0.124175 0.203614 0 0.0407658 0.00564323 0.196938 0.0444357 0.124418 
trait 2 0.377173 0.0956477 0.120191 0.0436036 0.0732034 0.0105923 0.0532087 0.0812472 
trait 3 0.261456 0.00436481 0.20019 0.00929471 0.0901383 0.040689 0.0168849 0.0503409 
node 1 3 1 1
node 2 1 1 1
node 3 3 1 1
node 4 3 0 2
node 42 1 0 0
gene 1 1 4 -0.90247 0 1 -0.90247 1
gene 2 2 4 -1.1256 0 2 -1.1256 0
gene 1 3 4 -0.281794 0 3 -0.281794 0
gene 2 2 42 -1.4062 0 446 -1.4062 1
gene 2 42 4 6.30861 0 447 6.30861 1
gene 2 3 42 1.65062 0 546 1.65062 1
gene 3 1 42 3.75543 0 702 3.75543 1
gene 3 42 42 1.8788 1 1316 1.8788 1
gene 1 4 4 0.0520322 1 1726 0.0520322 1
gene 1 4 42 0.974583 1 2060 0.974583 1
genomeend 29

/* Organism #30 Fitness: 407.015 Error: 242.985 */
genomestart 30
trait 1 0.124175 0.231695 0 0.0356701 0.00564323 0.196938 0.0444357 0.124418 
trait 2 0.377173 0.0956477 0.120191 0.0436036 0.0732034 0.0105923 0.0532087 0.0812472 
trait 3 0.261456 0.00436481 0.173864 0.00929471 0.103015 0.00794801 0.0168849 0.0503409 
node 1 3 1 1
node 2 3 1 1
node 3 3 1 1
node 4 3 0 2
node 42 1 0 0
gene 1 1 4 0.87547 0 1 0.87547 1
gene 3 2 4 -0.852289 0 2 -0.852289 0
gene 3 3 4 -2.55079 0 3 -2.55079 0
gene 2 2 42 0.266877 0 446 0.266877 1
gene 2 42 4 7.3344 0 447 7.3344 1
gene 2 3 42 0.0683915 0 546 0.0683915 1
gene 3 1 42 3.28426 0 702 3.28426 1
gene 3 42 42 0.759574 1 1316 0.759574 1
gene 1 4 4 -0.177965 1 1726 -0.177965 1
genomeend 30

/* Organism #31 Fitness: 453.841 Error: 196.159 */
genomestart 31
trait 1 0.124175 0.203614 0 0.0407658 0.00564323 0.196938 0.0444357 0.124418 
trait 2 0.377173 0.0956477 0.120191 0.0436036 0.0732034 0.0105923 0.0532087 0.0812472 
trait 3 0.261456 0.00436481 0.173864 0.00929471 0.103015 0.00794801 0.0168849 0.0503409 
node 1 3 1 1
node 2 1 1 1
node 3 3 1 1
node 4 3 0 2
node 42 1 0 0
gene 1 1 4 -1.07408 0 1 -1.07408 1
gene 2 2 4 1.44572 0 2 1.44572 1
gene 2 3 4 1.2639 0 3 1.2639 0
gene 2 2 42 -0.00409605 0 446 -0.00409605 1
gene 2 42 4 6.66296 0 447 6.66296 1
gene 2 3 42 1.85638 0 546 1.85638 1
gene 3 1 42 0.221592 0 702 0.221592 1
gene 3 42 42 5.56505 1 1316 5.56505 1
gene 1 4 4 -1.09112 1 1726 -1.09112 1
genomeend 31

/* Organism #32 Fitness: 465.772 Error: 184.228 */
genomestart 32
trait 1 0.124175 0.203614 0 0.0407658 0.00564323 0.196938 0.0444357 0.124418 
trait 2 0.377173 0.0956477 0.120191 0.0436036 0.0732034 0.0105923 0.0532087 0.0812472 
trait 3 0.261456 0.00436481 0.20019 0.00929471 0.0901383 0.040689 0.0168849 0.0503409 
node 1 3 1 1
node 2 1 1 1
node 3 1 1 1
node 4 3 0 2
node 42 1 0 0
gene 1 1 4 -0.744829 0 1 -0.744829 1
gene 2 2 4 -0.366221 0 2 -0.366221 0
gene 2 3 4 -0.827312 0 3 -0.827312 0
gene 2 2 42 -1.18185 0 446 -1.18185 1
gene 2 42 4 6.58464 0 447 6.58464 1
gene 2 3 42 1.15126 0 546 1.15126 1
gene 3 1 42 4.92667 0 702 4.92667 1
gene 3 42 42 2.762 1 1316 2.762 1
gene 1 4 4 0.0318485 1 1726 0.0318485 1
genomeend 32

/* Organism #33 Fitness: 2.33939 Error: 647.661 */
genomestart 33
trait 1 0.124175 0.203614 0 0.0407658 0.00564323 0.196938 0.0444357 0.124418 
trait 2 0.377173 0.11011 0.120191 0.0805947 0.0732034 0.0105923 0.0532087 0.0812472 
trait 3 0.245115 0.00409201 0.181635 0.0118355 0.121388 0.0156365 0.0355994 0.0715493 
node 1 3 1 1
node 2 1 1 1
node 3 3 1 1
node 4 3 0 2
node 42 1 0 0
gene 1 1 4 -0.145145 0 1 -0.145145 1
gene 2 2 4 -0.625136 0 2 -0.625136 0
gene 2 3 4 -4.86939 0 3 -4.86939 1
gene 2 2 42 -0.613618 0 446 -0.613618 1
gene 2 42 4 -0.396041 0 447 -0.396041 1
gene 2 3 42 -1.9848 0 546 -1.9848 1
gene 3 1 42 3.90108 0 702 3.90108 1
gene 3 42 42 2.58595 1 1316 2.58595 1
gene 1 4 4 -2.84134 1 1726 -2.84134 1
genomeend 33

/* Organism #34 Fitness: 94.1201 Error: 555.88 */
genomestart 34
trait 1 0.625428 0.0464038 0 0 0 0.196938 0.0444357 0.124418 
trait 2 0.377173 0.231501 0.0600955 0.377637 0.0732034 0.00529617 0.202026 0.515361 
trait 3 0.261456 0.00436481 0.173864 0.00929471 0.103015 0.00794801 0.0168849 0.0503409 
node 1 3 1 1
node 2 1 1 1
node 3 3 1 1
node 4 3 0 2
node 42 1 0 0
gene 1 1 4 0.661005 0 1 0.661005 1
gene 2 2 4 0.326069 0 2 0.326069 0
gene 2 3 4 -2.51976 0 3 -2.51976 0
gene 2 2 42 -0.84774 0 446 -0.84774 1
gene 2 42 4 -0.809438 0 447 -0.809438 1
gene 2 3 42 0.690419 0 546 0.690419 1
gene 3 1 42 2.37797 0 702 2.37797 1
gene 3 42 42 4.98782 1 1316 4.98782 1
gene 1 4 4 -0.782566 1 1726 -0.782566 1
genomeend 34

/* Organism #35 Fitness: 449.864 Error: 200.136 */
genomestart 35
trait 1 0.124175 0.203614 0 0.0407658 0.00564323 0.196938 0.0444357 0.124418 
trait 2 0.377173 0.0956477 0.120191 0.0436036 0.0732034 0.0105923 0.0532087 0.0812472 
trait 3 0.261456 0.00436481 0.173864 0.00929471 0.103015 0.00794801 0.0168849 0.0503409 
node 1 3 1 1
node 2 1 1 1
node 3 3 1 1
node 4 3 0 2
node 42 1 0 0
gene 1 1 4 -2.10476 0 1 -2.10476 1
gene 2 2 4 0.15618 0 2 0.15618 1
gene 2 3 4 -1.74471 0 3 -1.74471 1
gene 2 2 42 -1.17044 0 446 -1.17044 1
gene 2 42 4 6.97888 0 447 6.97888 1
gene 2 3 42 -2.09693 0 546 -2.09693 0
gene 3 1 42 4.75493 0 702 4.75493 1
gene 3 42 42 2.28278 1 1316 2.28278 1
gene 1 4 4 0.826116 1 1726 0.826116 1
genomeend 35

/* Organism #36 Fitness: 465.538 Error: 184.462 */
genomestart 36
trait 1 0.124175 0.203614 0 0.0407658 0.00564323 0.196938 0.0444357 0.124418 
trait 2 0.377173 0.0956477 0.120191 0.0436036 0.0732034 0.0105923 0.0532087 0.0812472 
trait 3 0.261456 0.00436481 0.173864 0.00929471 0.103015 0.00794801 0.0168849 0.0503409 
node 1 3 1 1
node 2 1 1 1
node 3 3 1 1
node 4 3 0 2
node 42 1 0 0
gene 1 1 4 -0.383829 0 1 -0.383829 1
gene 2 2 4 1.75347 0 2 1.75347 1
gene 2 3 4 -2.08327 0 3 -2.08327 0
gene 2 2 42 -2.66123 0 446 -2.66123 1
gene 2 42 4 8 0 447 8 1
gene 2 3 42 0.967278 0 546 0.967278 1
gene 3 1 42 1.75283 0 702 1.75283 1
gene 3 42 42 5.47113 1 1316 5.47113 1
gene 1 4 4 -1.40361 1 1726 -1.40361 1
genomeend 36

/* Organism #37 Fitness: 468.345 Error: 181.655 */
genomestart 37
trait 1 0.124175 0.217654 0 0.0382179 0.00564323 0.196938 0.0444357 0.124418 
trait 2 0.377173 0.11011 0.120191 0.0805947 0.0732034 0.0105923 0.0532087 0.0812472 
trait 3 0.245115 0.00409201 0.180487 0.00871379 0.0965767 0.00745126 0.036127 0.0503409 
node 1 3 1 1
node 2 1 1 1
node 3 3 1 1
node 4 3 0 2
node 42 1 0 0
gene 1 1 4 -1.05474 0 1 -1.05474 1
gene 2 2 4 -1.48093 0 2 -1.48093 0
gene 2 3 4 -0.489861 0 3 -0.489861 0
gene 2 2 42 2.12799 0 446 2.12799 1
gene 2 42 4 6.85943 0 447 6.85943 1
gene 2 3 42 -3.80187 0 546 -3.80187 1
gene 1 1 42 4.97576 0 702 4.97576 1
gene 3 42 42 6.02912 1 1316 6.02912 1
gene 1 4 4 2.51017 1 1726 2.51017 1
gene 3 4 42 3.24638 1 2014 3.24638 1
genomeend 37

/* Organism #38 Fitness: 447.291 Error: 202.709 */
genomestart 38
trait 1 0.124175 0.203614 0 0.0407658 0.00564323 0.196938 0.0444357 0.124418 
trait 2 0.377173 0.0956477 0.120191 0.0436036 0.0732034 0.0105923 0.0532087 0.0812472 
trait 3 0.261456 0.00436481 0.173864 0.00929471 0.103015 0.00794801 0.0168849 0.0503409 
node 1 3 1 1
node 2 1 1 1
node 3 3 1 1
node 4 3 0 2
node 42 1 0 0
gene 1 1 4 -0.753226 0 1 -0.753226 1
gene 2 2 4 -0.0782152 0 2 -0.0782152 0
gene 2 3 4 -2.48171 0 3 -2.48171 0
gene 2 2 42 -0.303797 0 446 -0.303797 1
gene 2 42 4 6.81427 0 447 6.81427 1
gene 2 3 42 -1.39831 0 546 -1.39831 1
gene 3 1 42 4.32282 0 702 4.32282 1
gene 3 42 42 3.13168 1 1316 3.13168 1
gene 1 4 4 0.0205795 1 1726 0.0205795 1
gene 2 4 42 -0.954267 1 2101 -0.954267 1
genomeend 38

/* Organism #39 Fitness: 455.244 Error: 194.756 */
genomestart 39
trait 1 0.124175 0.217654 0 0.0382179 0.00564323 0.196938 0.0444357 0.124418 
trait 2 0.377173 0.0956477 0.120191 0.0436036 0.0732034 0.0105923 0.0532087 0.0812472 
trait 3 0.261456 0.00436481 0.173864 0.00929471 0.103015 0.00794801 0.0168849 0.0503409 
node 1 3 1 1
node 2 1 1 1
node 3 3 1 1
node 4 3 0 2
node 42 1 0 0
gene 1 1 4 -1.31186 0 1 -1.31186 1
gene 2 2 4 -0.429063 0 2 -0.429063 0
gene 1 3 4 -0.0667592 0 3 -0.0667592 0
gene 2 2 42 -4.53534 0 446 -4.53534 1
gene 2 42 4 7.619 0 447 7.619 1
gene 2 3 42 -1.28748 0 546 -1.28748 1
gene 3 1 42 7.50273 0 702 7.50273 1
gene 3 42 42 4.61687 1 1316 4.61687 1
gene 1 4 4 -1.15273 1 1726 -1.15273 1
genomeend 39

/* Organism #40 Fitness: 465.07 Error: 184.93 */
genomestart 40
trait 1 0.124175 0.203614 0 0.0407658 0.00564323 0.196938 0.0444357 0.124418 
trait 2 0.377173 0.0956477 0.120191 0.0436036 0.0732034 0.0105923 0.0532087 0.0812472 
trait 3 0.261456 0.00436481 0.173864 0.00929471 0.103015 0.00794801 0.0168849 0.0503409 
node 1 3 1 1
node 2 1 1 1
node 3 3 1 1
node 4 3 0 2
node 42 1 0 0
gene 1 1 4 -0.657364 0 1 -0.657364 1
gene 2 2 4 0.420708 0 2 0.420708 1
gene 2 3 4 -1.46804 0 3 -1.46804 0
gene 2 2 42 -2.15799 0 446 -2.15799 1
gene 2 42 4 7.25362 0 447 7.25362 1
gene 2 3 42 -1.09946 0 546 -1.09946 1
gene 3 1 42 3.94943 0 702 3.94943 1
gene 3 42 42 4.03619 1 1316 4.03619 1
gene 1 4 4 0.40461 1 1726 0.40461 1
gene 1 4 42 0.403706 1 2060 0.403706 1
genomeend 40

/* Organism #41 Fitness: 462.73 Error: 187.27 */
genomestart 41
trait 1 0.124175 0.210634 0 0.0394919 0.00564323 0.196938 0.0444357 0.124418 
trait 2 0.363141 0.0956477 0.120191 0.0436036 0.134136 0.0357626 0.0532087 0.162049 
trait 3 0.261456 0.00436481 0.173864 0.00929471 0.103015 0.00794801 0.0168849 0.0503409 
node 1 3 1 1
node 2 1 1 1
node 3 3 1 1
node 4 3 0 2
node 42 1 0 0
gene 1 1 4 -0.558939 0 1 -0.558939 1
gene 2 2 4 -0.509062 0 2 -0.509062 0
gene 2 3 4 -2.74168 0 3 -2.74168 0
gene 2 2 42 -0.741624 0 446 -0.741624 1
gene 2 42 4 7.22834 0 447 7.22834 1
gene 2 3 42 0.684781 0 546 0.684781 1
gene 3 1 42 0.221592 0 702 0.221592 1
gene 3 42 42 4.62136 1 1316 4.62136 1
gene 1 4 4 -0.646768 1 1726 -0.646768 1
genomeend 41

/* Organism #42 Fitness: 447.291 Error: 202.709 */
genomestart 42
trait 1 0.124175 0.197251 0 0.0394919 0.00546688 0.190783 0.0497668 0.124418 
trait 2 0.377173 0.0956477 0.120191 0.0436036 0.0732034 0.0105923 0.0532087 0.0812472 
trait 3 0.261456 0.00436481 0.173864 0.00929471 0.103015 0.00794801 0.0168849 0.0503409 
node 1 3 1 1
node 2 1 1 1
node 3 3 1 1
node 4 3 0 2
node 42 1 0 0
gene 1 1 4 -2.36854 0 1 -2.36854 1
gene 2 2 4 1.90192 0 2 1.90192 0
gene 2 3 4 0.286582 0 3 0.286582 0
gene 2 2 42 -1.80883 0 446 -1.80883 1
gene 2 42 4 7.17118 0 447 7.17118 1
gene 2 3 42 0.0978268 0 546 0.0978268 1
gene 3 1 42 8 0 702 8 1
gene 3 42 42 4.40274 1 1316 4.40274 1
gene 1 4 4 -0.0910737 1 1726 -0.0910737 1
gene 2 4 42 -0.954267 1 2101 -0.954267 1
genomeend 42

/* Organism #43 Fitness: 454.309 Error: 195.691 */
genomestart 43
trait 1 0.124175 0.197908 0 0.036944 0.00529053 0.184629 0.055098 0.124418 
trait 2 0.377173 0.102879 0.120191 0.0620991 0.0732034 0.0105923 0.0532087 0.0812472 
trait 3 0.299132 0.00409201 0.157564 0.0683108 0.140903 0.044343 0.0201654 0.0819222 
node 1 3 1 1
node 2 1 1 1
node 3 3 1 1
node 4 3 0 2
node 42 1 0 0
gene 1 1 4 -1.01352 0 1 -1.01352 1
gene 2 2 4 -0.982618 0 2 -0.982618 0
gene 2 3 4 -0.18742 0 3 -0.18742 0
gene 2 2 42 0.00972976 0 446 0.00972976 1
gene 2 42 4 6.21576 0 447 6.21576 1
gene 2 3 42 -1.21528 0 546 -1.21528 1
gene 3 1 42 5.83294 0 702 5.83294 1
gene 3 42 42 1.33199 1 1316 1.33199 1
gene 1 4 4 -0.322735 1 1726 -0.322735 1
gene 3 4 42 -1.4383 1 2014 -1.4383 1
genomeend 43

/* Organism #44 Fitness: 462.497 Error: 187.503 */
genomestart 44
trait 1 0.124175 0.203614 0 0.0407658 0.00564323 0.196938 0.0444357 0.124418 
trait 2 0.377173 0.0956477 0.120191 0.0436036 0.0732034 0.0105923 0.0532087 0.0812472 
trait 3 0.261456 0.00436481 0.173864 0.00929471 0.103015 0.00794801 0.0168849 0.0503409 
node 1 2 1 1
node 2 1 1 1
node 3 3 1 1
node 4 3 0 2
node 42 1 0 0
gene 1 1 4 -0.393743 0 1 -0.393743 1
gene 2 2 4 0.860698 0 2 0.860698 1
gene 2 3 4 1.78679 0 3 1.78679 0
gene 2 2 42 1.31766 0 446 1.31766 1
gene 2 42 4 7.8352 0 447 7.8352 1
gene 2 3 42 -2.28706 0 546 -2.28706 1
gene 3 1 42 5.19142 0 702 5.19142 1
gene 3 42 42 1.69057 1 1316 1.69057 1
gene 1 4 4 0.497085 1 1726 0.497085 1
gene 3 4 42 0.701234 1 2168 0.701234 1
genomeend 44

/* Organism #45 Fitness: 416.206 Error: 233.794 */
genomestart 45
trait 1 0.124175 0.190888 0 0.0382179 0.00529053 0.184629 0.055098 0.124418 
trait 2 0.377173 0.102879 0.120191 0.0620991 0.0732034 0.0105923 0.0532087 0.0812472 
trait 3 0.261456 0.00436481 0.173864 0.00929471 0.103015 0.00794801 0.0168849 0.0503409 
node 1 3 1 1
node 2 1 1 1
node 3 3 1 1
node 4 3 0 2
node 42 1 0 0
gene 1 1 4 0.432863 0 1 0.432863 1
gene 2 2 4 -1.41526 0 2 -1.41526 0
gene 2 3 4 -1.76478 0 3 -1.76478 0
gene 2 2 42 -0.762187 0 446 -0.762187 1
gene 2 42 4 8 0 447 8 1
gene 2 3 42 0.933077 0 546 0.933077 1
gene 3 1 42 4.11167 0 702 4.11167 1
gene 3 42 42 4.18282 1 1316 4.18282 1
gene 1 4 4 1.20182 1 1726 1.20182 0
gene 1 4 42 -0.206001 1 2032 -0.206001 1
genomeend 45

/* Organism #46 Fitness: 438.401 Error: 211.599 */
genomestart 46
trait 1 0.124175 0.210634 0 0.0394919 0.00564323 0.196938 0.0444357 0.124418 
trait 2 0.377173 0.102879 0.120191 0.0620991 0.0732034 0.0105923 0.0532087 0.0812472 
trait 3 0.419591 0.00327361 0.16843 0.218304 0.105292 0.00794801 0.156876 0.0715493 
node 1 3 1 1
node 2 1 1 1
node 3 3 1 1
node 4 3 0 2
node 42 1 0 0
gene 1 1 4 -1.17361 0 1 -1.17361 1
gene 2 2 4 -0.158708 0 2 -0.158708 0
gene 1 3 4 -0.968932 0 3 -0.968932 1
gene 2 2 42 -1.37461 0 446 -1.37461 1
gene 2 42 4 6.76157 0 447 6.76157 1
gene 2 3 42 0.0991005 0 546 0.0991005 1
gene 3 1 42 4.44636 0 702 4.44636 1
gene 3 42 42 2.93666 1 1316 2.93666 1
gene 1 4 4 -0.509548 1 1726 -0.509548 1
genomeend 46

/* Organism #47 Fitness: 449.162 Error: 200.838 */
genomestart 47
trait 1 0.124175 0.203614 0 0.0407658 0.00564323 0.196938 0.0444357 0.124418 
trait 2 0.377173 0.0956477 0.120191 0.0436036 0.0732034 0.0105923 0.0532087 0.0812472 
trait 3 0.261456 0.00436481 0.20019 0.00929471 0.0901383 0.040689 0.0168849 0.0503409 
node 1 3 1 1
node 2 1 1 1
node 3 3 1 1
node 4 3 0 2
node 42 1 0 0
gene 1 1 4 -1.01282 0 1 -1.01282 1
gene 2 2 4 -1.17909 0 2 -1.17909 0
gene 2 3 4 -0.164761 0 3 -0.164761 0
gene 2 2 42 -1.91757 0 446 -1.91757 1
gene 2 42 4 6.74237 0 447 6.74237 1
gene 2 3 42 1.65062 0 546 1.65062 1
gene 3 1 42 4.48144 0 702 4.48144 1
gene 3 42 42 1.8788 1 1316 1.8788 1
gene 1 4 4 0.444305 1 1726 0.444305 1
genomeend 47

/* Organism #48 Fitness: 466.941 Error: 183.059 */
genomestart 48
trait 1 0.124175 0.197251 0 0.0394919 0.00546688 0.190783 0.0497668 0.124418 
trait 2 0.377173 0.125407 0.112679 0.0408784 0.0686282 0.0105923 0.0532087 0.0812472 
trait 3 0.261456 0.00436481 0.16843 0.0124165 0.131046 0.00794801 0.0163573 0.0715493 
node 1 3 1 1
node 2 1 1 1
node 3 3 1 1
node 4 3 0 2
node 42 1 0 0
gene 1 1 4 -1.1203 0 1 -1.1203 1
gene 2 2 4 0.0992515 0 2 0.0992515 1
gene 2 3 4 -3.73799 0 3 -3.73799 0
gene 2 2 42 -1.71209 0 446 -1.71209 1
gene 2 42 4 7.76424 0 447 7.76424 1
gene 2 3 42 -1.17928 0 546 -1.17928 1
gene 3 1 42 5.30755 0 702 5.30755 1
gene 3 42 42 3.55189 1 1316 3.55189 0
gene 1 4 4 -1.201 1 1726 -1.201 1
genomeend 48

/* Organism #49 Fitness: 458.286 Error: 191.714 */
genomestart 49
trait 1 0.124175 0.203614 0 0.0407658 0.00564323 0.196938 0.0444357 0.124418 
trait 2 0.377173 0.231501 0.0600955 0.377637 0.0732034 0.00529617 0.202026 0.515361 
trait 3 0.261456 0.00436481 0.173864 0.00929471 0.103015 0.00794801 0.0168849 0.0503409 
node 1 3 1 1
node 2 1 1 1
node 3 3 1 1
node 4 3 0 2
node 42 1 0 0
gene 1 1 4 -1.54734 0 1 -1.54734 1
gene 2 2 4 2.43997 0 2 2.43997 0
gene 2 3 4 -2.72701 0 3 -2.72701 0
gene 2 2 42 -2.50699 0 446 -2.50699 1
gene 2 42 4 8 0 447 8 1
gene 2 3 42 -1.54805 0 546 -1.54805 1
gene 3 1 42 2.06951 0 702 2.06951 1
gene 3 42 42 3.29549 1 1316 3.29549 1
gene 1 4 4 1.06599 1 1726 1.06599 1
genomeend 49

/* Organism #50 Fitness: 470.684 Error: 179.316 */
genomestart 50
trait 1 0.124175 0.197251 0 0.0394919 0.00546688 0.190783 0.0497668 0.124418 
trait 2 0.373665 0.0956477 0.120191 0.0436036 0.0884365 0.0168849 0.0532087 0.101448 
trait 3 0.261456 0.00436481 0.162997 0.0155382 0.159077 0.00794801 0.0158296 0.0927577 
node 1 3 1 1
node 2 1 1 1
node 3 3 1 1
node 4 3 0 2
node 42 1 0 0
gene 1 1 4 -0.713791 0 1 -0.713791 1
gene 2 2 4 1.07426 0 2 1.07426 0
gene 2 3 4 -1.4178 0 3 -1.4178 0
gene 2 2 42 0.485188 0 446 0.485188 1
gene 2 42 4 6.89488 0 447 6.89488 1
gene 2 3 42 -1.63208 0 546 -1.63208 1
gene 3 1 42 0.221592 0 702 0.221592 1
gene 3 42 42 1.64842 1 1316 1.64842 1
gene 1 4 4 -1.02952 1 1726 -1.02952 1
genomeend 50

/* Organism #51 Fitness: 458.987 Error: 191.013 */
genomestart 51
trait 1 0.124175 0.210634 0 0.0394919 0.00564323 0.196938 0.0444357 0.124418 
trait 2 0.34911 0.0956477 0.120191 0.0436036 0.195069 0.0609328 0.0532087 0.24285 
trait 3 0.261456 0.00436481 0.16843 0.0124165 0.131046 0.00794801 0.0163573 0.0715493 
node 1 3 1 1
node 2 1 1 1
node 3 3 1 1
node 4 3 0 2
node 42 1 0 0
gene 1 1 4 -1.73108 0 1 -1.73108 1
gene 2 2 4 0.987993 0 2 0.987993 0
gene 2 3 4 -0.042734 0 3 -0.042734 0
gene 2 2 42 0.137101 0 446 0.137101 1
gene 2 42 4 7.19372 0 447 7.19372 1
gene 2 3 42 -1.19079 0 546 -1.19079 1
gene 3 1 42 1.66014 0 702 1.66014 1
gene 3 42 42 3.37134 1 1316 3.37134 1
gene 1 4 4 -1.33894 1 1726 -1.33894 1
genomeend 51

/* Organism #52 Fitness: 402.331 Error: 247.669 */
genomestart 52
trait 1 0.124175 0.190888 0 0.0382179 0.00529053 0.184629 0.055098 0.124418 
trait 2 0.377173 0.0956477 0.120191 0.0436036 0.0732034 0.0105923 0.0532087 0.0812472 
trait 3 0.261456 0.00436481 0.173864 0.00929471 0.103015 0.00794801 0.0168849 0.0503409 
node 1 3 1 1
node 2 1 1 1
node 3 3 1 1
node 4 3 0 2
node 42 1 0 0
gene 1 1 4 0.253883 0 1 0.253883 1
gene 2 2 4 -1.66604 0 2 -1.66604 0
gene 2 3 4 0.557621 0 3 0.557621 0
gene 2 2 42 -0.28112 0 446 -0.28112 1
gene 2 42 4 6.00985 0 447 6.00985 1
gene 2 3 42 -1.38768 0 546 -1.38768 1
gene 3 1 42 6.91202 0 702 6.91202 1
gene 2 42 42 -0.441419 1 1316 -0.441419 1
gene 1 4 4 0.823959 1 1726 0.823959 1
genomeend 52

/* Organism #53 Fitness: 2.33939 Error: 647.661 */
genomestart 53
trait 1 0.124175 0.190888 0 0.0382179 0.00529053 0.184629 0.055098 0.124418 
trait 2 0.377173 0.102879 0.120191 0.0620991 0.0732034 0.0105923 0.0532087 0.0812472 
trait 3 0.261456 0.00436481 0.173864 0.00929471 0.103015 0.00794801 0.0168849 0.0503409 
node 1 3 1 1
node 2 1 1 1
node 3 3 1 1
node 4 3 0 2
node 42 1 0 0
gene 1 1 4 -0.0892641 0 1 -0.0892641 1
gene 2 2 4 1.00234 0 2 1.00234 0
gene 2 3 4 -1.4 0 3 -1.4 0
gene 2 2 42 0.905618 0 446 0.905618 1
gene 2 42 4 5.33176 0 447 5.33176 1
gene 2 3 42 -1.74378 0 546 -1.74378 1
gene 3 1 42 -0.899577 0 702 -0.899577 1
gene 3 42 42 3.9818 1 1316 3.9818 1
gene 1 4 4 -0.458664 1 1726 -0.458664 0
gene 1 4 42 -1.5733 1 2032 -1.5733 1
genomeend 53

/* Organism #54 Fitness: 454.309 Error: 195.691 */
genomestart 54
trait 1 0.124175 0.185183 0 0.0394919 0.112736 0.29732 0.12945 0.124418 
trait 2 0.377173 0.163574 0.0901432 0.21062 0.0732034 0.00794425 0.127617 0.298304 
trait 3 0.261456 0.00436481 0.173864 0.00929471 0.103015 0.00794801 0.0168849 0.0503409 
node 1 3 1 1
node 2 1 1 1
node 3 3 1 1
node 4 3 0 2
node 42 1 0 0
gene 1 1 4 -0.687578 0 1 -0.687578 1
gene 2 2 4 1.97201 0 2 1.97201 0
gene 2 3 4 -0.517814 0 3 -0.517814 0
gene 2 2 42 -0.921567 0 446 -0.921567 1
gene 2 42 4 7.22845 0 447 7.22845 1
gene 2 3 42 -0.936893 0 546 -0.936893 1
gene 3 1 42 7.13505 0 702 7.13505 1
gene 3 42 42 2.50242 1 1316 2.50242 1
gene 1 4 4 -0.332464 1 1726 -0.332464 1
genomeend 54

/* Organism #55 Fitness: 141.809 Error: 508.191 */
genomestart 55
trait 1 0.124175 0.231695 0 0.0356701 0.00564323 0.196938 0.0444357 0.124418 
trait 2 0.377173 0.124573 0.120191 0.117586 0.0732034 0.0105923 0.0532087 0.0812472 
trait 3 0.228774 0.00381921 0.187109 0.00813287 0.0901383 0.00695451 0.0553691 0.0503409 
node 1 3 1 1
node 2 1 1 1
node 3 3 1 1
node 4 3 0 2
node 42 1 0 0
gene 1 1 4 1.11661 0 1 1.11661 1
gene 2 2 4 -2.21946 0 2 -2.21946 0
gene 2 3 4 -0.990158 0 3 -0.990158 0
gene 2 2 42 -2.85938 0 446 -2.85938 1
gene 2 42 4 -1.43411 0 447 -1.43411 1
gene 2 3 42 1.44335 0 546 1.44335 1
gene 3 1 42 4.61953 0 702 4.61953 1
gene 3 42 42 5.24917 1 1316 5.24917 1
gene 1 4 4 -1.85268 1 1726 -1.85268 1
gene 3 4 42 1.83355 1 2014 1.83355 1
genomeend 55

/* Organism #56 Fitness: 455.946 Error: 194.054 */
genomestart 56
trait 1 0.124175 0.203614 0 0.0407658 0.00564323 0.196938 0.0444357 0.124418 
trait 2 0.377173 0.0956477 0.120191 0.0436036 0.0732034 0.0105923 0.0532087 0.0812472 
trait 3 0.261456 0.00436481 0.162997 0.0155382 0.159077 0.00794801 0.0158296 0.0927577 
node 1 3 1 1
node 2 1 1 1
node 3 3 1 1
node 4 3 0 2
node 42 1 0 0
gene 1 1 4 -0.878772 0 1 -0.878772 1
gene 2 2 4 0.959473 0 2 0.959473 0
gene 2 3 4 -1.10036 0 3 -1.10036 0
gene 2 2 42 -1.15068 0 446 -1.15068 1
gene 2 42 4 6.63732 0 447 6.63732 1
gene 2 3 42 -1.33174 0 546 -1.33174 1
gene 3 1 42 4.09724 0 702 4.09724 1
gene 3 42 42 4.09461 1 1316 4.09461 1
gene 1 4 4 -1.44791 1 1726 -1.44791 1
gene 1 4 42 0.403706 1 2060 0.403706 1
genomeend 56

/* Organism #57 Fitness: 460.157 Error: 189.843 */
genomestart 57
trait 1 0.124175 0.184525 0 0.036944 0.00511418 0.178475 0.0604291 0.124418 
trait 2 0.363141 0.0956477 0.120191 0.0436036 0.134136 0.0357626 0.0532087 0.162049 
trait 3 0.261456 0.00436481 0.173864 0.00929471 0.103015 0.00794801 0.0168849 0.0503409 
node 1 3 1 1
node 2 1 1 1
node 3 3 1 1
node 4 3 0 2
node 42 1 0 0
gene 1 1 4 -0.863656 0 1 -0.863656 1
gene 2 2 4 0.651877 0 2 0.651877 1
gene 2 3 4 -0.840649 0 3 -0.840649 0
gene 2 2 42 -1.99332 0 446 -1.99332 1
gene 2 42 4 5.46258 0 447 5.46258 1
gene 2 3 42 -1.39272 0 546 -1.39272 1
gene 3 1 42 6.07713 0 702 6.07713 1
gene 3 42 42 3.79868 1 1316 3.79868 1
gene 1 4 4 0.554439 1 1726 0.554439 0
genomeend 57

/* Organism #58 Fitness: 455.946 Error: 194.054 */
genomestart 58
trait 1 0.124175 0.185183 0 0.0394919 0.112736 0.29732 0.12945 0.124418 
trait 2 0.377173 0.126411 0.120191 0.0436036 0.235078 0.0105923 0 0.893094 
trait 3 0.261456 0.00436481 0.181594 0.0124165 0.124608 0.0243185 0.0163573 0.0715493 
node 1 3 1 1
node 2 1 1 1
node 3 3 1 1
node 4 3 0 2
node 42 1 0 0
gene 1 1 4 -1.82019 0 1 -1.82019 1
gene 2 2 4 -0.831722 0 2 -0.831722 0
gene 1 3 4 0.584434 0 3 0.584434 1
gene 2 2 42 -2.06008 0 446 -2.06008 1
gene 2 42 4 7.99255 0 447 7.99255 1
gene 2 3 42 1.8844 0 546 1.8844 1
gene 2 1 42 3.95874 0 702 3.95874 1
gene 3 42 42 0.925147 1 1316 0.925147 1
gene 1 4 4 0.192459 1 1726 0.192459 1
genomeend 58

/* Organism #59 Fitness: 467.643 Error: 182.357 */
genomestart 59
trait 1 0.124175 0.203614 0 0.0407658 0.00564323 0.196938 0.0444357 0.124418 
trait 2 0.330207 0.0956477 0.120191 0.0864293 0.064053 0.0092683 0.0532087 0.0988199 
trait 3 0.245115 0.810201 0.0577244 0 0 0.163215 0.0355994 0.0715493 
node 1 3 1 1
node 2 1 1 1
node 3 3 1 1
node 4 3 0 2
node 42 1 0 0
gene 1 1 4 -0.65486 0 1 -0.65486 1
gene 2 2 4 1.88559 0 2 1.88559 0
gene 2 3 4 -2.80914 0 3 -2.80914 0
gene 2 2 42 -0.201957 0 446 -0.201957 1
gene 2 42 4 6.29435 0 447 6.29435 1
gene 2 3 42 -2.09477 0 546 -2.09477 1
gene 3 1 42 3.53666 0 702 3.53666 1
gene 3 42 42 3.02163 1 1316 3.02163 1
gene 1 4 4 0.658436 1 1726 0.658436 1
genomeend 59

/* Organism #60 Fitness: 368.209 Error: 281.791 */
genomestart 60
trait 1 0.124175 0.203614 0 0.0407658 0.00564323 0.196938 0.0444357 0.124418 
trait 2 0.377173 0.102879 0.120191 0.0620991 0.0732034 0.0105923 0.0532087 0.0812472 
trait 3 0.261456 0.00436481 0.16843 0.0124165 0.131046 0.00794801 0.0163573 0.0715493 
node 1 3 1 1
node 2 1 1 1
node 3 3 1 1
node 4 3 0 2
node 42 1 0 0
gene 1 1 4 -0.211825 0 1 -0.211825 1
gene 2 2 4 1.22518 0 2 1.22518 1
gene 2 3 4 -1.70254 0 3 -1.70254 0
gene 2 2 42 -0.353862 0 446 -0.353862 1
gene 2 42 4 8 0 447 8 1
gene 2 3 42 -0.175286 0 546 -0.175286 1
gene 3 1 42 5.13081 0 702 5.13081 1
gene 3 42 42 3.2254 1 1316 3.2254 1
gene 1 4 4 0.503218 1 1726 0.503218 1
gene 3 4 42 -0.959667 1 2014 -0.959667 1
genomeend 60

/* Organism #61 Fitness: 465.538 Error: 184.462 */
genomestart 61
trait 1 0.124175 0.152711 0 0.0407658 0.219828 0.397703 0.214464 0.124418 
trait 2 0.377173 0.0956477 0.120191 0.0436036 0.0732034 0.0105923 0.0532087 0.0812472 
trait 3 0.261456 0.00436481 0.162997 0.0155382 0.159077 0.00794801 0.0158296 0.0927577 
node 1 3 1 1
node 2 1 1 1
node 3 3 1 1
node 4 3 0 2
node 42 1 0 0
gene 1 1 4 -0.728074 0 1 -0.728074 1
gene 2 2 4 1.79067 0 2 1.79067 1
gene 2 3 4 -2.12939 0 3 -2.12939 0
gene 2 2 42 -2.14424 0 446 -2.14424 1
gene 2 42 4 5.20707 0 447 5.20707 1
gene 2 3 42 -0.525833 0 546 -0.525833 1
gene 3 1 42 4.90963 0 702 4.90963 1
gene 3 42 42 2.42918 1 1316 2.42918 1
gene 1 4 4 0.880558 1 1726 0.880558 1
genomeend 61

/* Organism #62 Fitness: 466.941 Error: 183.059 */
genomestart 62
trait 1 0.124175 0.204271 0 0.0382179 0.00546688 0.190783 0.0497668 0.124418 
trait 2 0 0.0956477 0.120191 0.0436036 0.0732034 0.0105923 0 0.0812472 
trait 3 0.261456 0.00436481 0.162997 0.0155382 0.159077 0.00794801 0.0158296 0.0927577 
node 1 3 1 1
node 2 1 1 1
node 3 3 1 1
node 4 3 0 2
node 42 1 0 0
gene 1 1 4 -1.08681 0 1 -1.08681 1
gene 2 2 4 0.0895461 0 2 0.0895461 0
gene 2 3 4 0.118593 0 3 0.118593 0
gene 2 2 42 0.417062 0 446 0.417062 1
gene 2 42 4 7.74172 0 447 7.74172 1
gene 2 3 42 -3.5356 0 546 -3.5356 1
gene 3 1 42 2.13669 0 702 2.13669 1
gene 3 42 42 4.02654 1 1316 4.02654 1
gene 1 4 4 -2.88082 1 1726 -2.88082 1
genomeend 62

/* Organism #63 Fitness: 461.561 Error: 188.439 */
genomestart 63
trait 1 0.124175 0.224675 0 0.036944 0.00564323 0.196938 0.0444357 0.124418 
trait 2 0.377173 0.0956477 0.120191 0.0436036 0.0732034 0.0105923 0.0532087 0.0812472 
trait 3 0.261456 0.00436481 0.162997 0.0155382 0.159077 0.00794801 0.0158296 0.0927577 
node 1 3 1 1
node 2 1 1 1
node 3 3 1 1
node 4 3 0 2
node 42 1 0 0
gene 1 1 4 -0.699409 0 1 -0.699409 1
gene 3 2 4 0.632691 0 2 0.632691 0
gene 2 3 4 -0.780223 0 3 -0.780223 0
gene 2 2 42 -0.410202 0 446 -0.410202 1
gene 2 42 4 6.26509 0 447 6.26509 1
gene 2 3 42 -1.60198 0 546 -1.60198 1
gene 3 1 42 4.61996 0 702 4.61996 1
gene 3 42 42 2.3542 1 1316 2.3542 1
gene 1 4 4 0.642157 1 1726 0.642157 1
genomeend 63

/* Organism #64 Fitness: 459.455 Error: 190.545 */
genomestart 64
trait 1 0.124175 0.231695 0 0.0356701 0.00564323 0.196938 0.0444357 0.124418 
trait 2 0.377173 0.124573 0.120191 0.117586 0.0732034 0.0105923 0.0532087 0.0812472 
trait 3 0.228774 0.00381921 0.187109 0.00813287 0.0901383 0.00695451 0.0553691 0.0503409 
node 1 3 1 1
node 2 1 1 1
node 3 3 1 1
node 4 3 0 2
node 42 1 0 0
gene 1 1 4 -0.554993 0 1 -0.554993 1
gene 2 2 4 -2.46972 0 2 -2.46972 0
gene 2 3 4 -2.26385 0 3 -2.26385 0
gene 2 2 42 -2.50595 0 446 -2.50595 1
gene 2 42 4 8 0 447 8 1
gene 2 3 42 0.18556 0 546 0.18556 1
gene 3 1 42 4.86986 0 702 4.86986 1
gene 3 42 42 5.10533 1 1316 5.10533 1
gene 1 4 4 -1.05744 1 1726 -1.05744 1
gene 3 4 42 1.77092 1 2014 1.77092 1
genomeend 64

/* Organism #65 Fitness: 461.327 Error: 188.673 */
genomestart 65
trait 1 0.124175 0.197251 0 0.0394919 0.00546688 0.190783 0.0497668 0.124418 
trait 2 0 0.477521 0.120191 0 0.870917 0.0105923 0.0532087 0.944336 
trait 3 0.261456 0.00436481 0.173864 0.00929471 0.103015 0.00794801 0.0168849 0.0503409 
node 1 3 1 1
node 2 1 1 1
node 3 3 1 1
node 4 3 0 2
node 42 1 0 0
gene 1 1 4 -1.07297 0 1 -1.07297 1
gene 2 2 4 0.541904 0 2 0.541904 1
gene 2 3 4 -1.49289 0 3 -1.49289 0
gene 2 2 42 -1.59534 0 446 -1.59534 1
gene 2 42 4 7.81456 0 447 7.81456 1
gene 2 3 42 -0.195105 0 546 -0.195105 1
gene 3 1 42 5.68323 0 702 5.68323 1
gene 3 42 42 3.42106 1 1316 3.42106 1
gene 1 4 4 -0.743182 1 1726 -0.743182 1
genomeend 65

/* Organism #66 Fitness: 465.07 Error: 184.93 */
genomestart 66
trait 1 0.124175 0.891827 0.615264 0.0407658 0.828113 0.196938 0.0444357 0.124418 
trait 2 0.377173 0.0956477 0.120191 0.0436036 0.0732034 0.0105923 0.0532087 0.0812472 
trait 3 0.261456 0.00436481 0.187027 0.00929471 0.0965767 0.0243185 0.0168849 0.0503409 
node 1 3 1 1
node 2 1 1 1
node 3 3 1 1
node 4 3 0 2
node 42 1 0 0
gene 1 1 4 -0.844919 0 1 -0.844919 1
gene 2 2 4 0.503243 0 2 0.503243 0
gene 2 3 4 -2.33423 0 3 -2.33423 0
gene 2 2 42 -1.31584 0 446 -1.31584 1
gene 2 42 4 6.22648 0 447 6.22648 1
gene 2 3 42 0.561158 0 546 0.561158 1
gene 3 1 42 5.35568 0 702 5.35568 1
gene 3 42 42 3.68453 1 1316 3.68453 1
gene 1 4 4 0.528063 1 1726 0.528063 1
gene 3 4 42 -0.487465 1 2013 -0.487465 1
genomeend 66

/* Organism #67 Fitness: 453.841 Error: 196.159 */
genomestart 67
trait 1 0.124175 0.891827 0.615264 0.0407658 0.828113 0.196938 0.0444357 0.124418 
trait 2 0.377173 0.0956477 0.120191 0.0436036 0.0732034 0.0105923 0.0532087 0.0812472 
trait 3 0.261456 0.00436481 0.187027 0.00929471 0.0965767 0.0243185 0.0168849 0.0503409 
node 1 3 1 1
node 2 1 1 1
node 3 3 1 1
node 4 3 0 2
node 42 1 0 0
gene 1 1 4 -0.556309 0 1 -0.556309 1
gene 2 2 4 0.291563 0 2 0.291563 0
gene 2 3 4 -1.14076 0 3 -1.14076 0
gene 2 2 42 -1.40467 0 446 -1.40467 1
gene 2 42 4 6.16892 0 447 6.16892 1
gene 2 3 42 -0.448615 0 546 -0.448615 1
gene 3 1 42 4.25966 0 702 4.25966 1
gene 3 42 42 3.19548 1 1316 3.19548 1
gene 1 4 4 0.0480336 1 1726 0.0480336 1
gene 3 4 42 -0.487465 1 2013 -0.487465 1
genomeend 67

/* Organism #68 Fitness: 453.139 Error: 196.861 */
genomestart 68
trait 1 0.124175 0.217654 0 0.0382179 0.00564323 0.196938 0.0444357 0.124418 
trait 2 0.34911 0.0956477 0.120191 0.0436036 0.195069 0.0609328 0.0532087 0.24285 
trait 3 0.261456 0.00436481 0.173864 0.00929471 0.103015 0.00794801 0.0168849 0.0503409 
node 1 3 1 1
node 2 1 1 1
node 3 3 1 1
node 4 3 0 2
node 42 1 0 0
gene 1 1 4 -2.25727 0 1 -2.25727 1
gene 2 2 4 0.473581 0 2 0.473581 0
gene 2 3 4 -0.947883 0 3 -0.947883 0
gene 2 2 42 1.60364 0 446 1.60364 1
gene 2 42 4 8 0 447 8 1
gene 2 3 42 0.973841 0 546 0.973841 1
gene 3 1 42 2.72265 0 702 2.72265 1
gene 3 42 42 4.63917 1 1316 4.63917 1
gene 1 4 4 1.20656 1 1726 1.20656 1
gene 1 4 42 -0.828136 1 2139 -0.828136 1
genomeend 68

/* Organism #69 Fitness: 453.841 Error: 196.159 */
genomestart 69
trait 1 0.124175 0.203614 0 0.0407658 0.00564323 0.196938 0.0444357 0.124418 
trait 2 0.330207 0.0956477 0.120191 0.0864293 0.064053 0.0092683 0.0532087 0.0988199 
trait 3 0.245115 0.00409201 0.175053 0.0118355 0.124608 0.00745126 0.0355994 0.0715493 
node 1 3 1 1
node 2 1 1 1
node 3 3 1 1
node 4 3 0 2
node 42 1 0 0
gene 1 1 4 -0.756779 0 1 -0.756779 1
gene 2 2 4 0.573874 0 2 0.573874 1
gene 2 3 4 -1.9959 0 3 -1.9959 0
gene 2 2 42 -0.371518 0 446 -0.371518 1
gene 2 42 4 6.03371 0 447 6.03371 1
gene 2 3 42 -1.32682 0 546 -1.32682 1
gene 3 1 42 4.34818 0 702 4.34818 1
gene 3 42 42 3.97291 1 1316 3.97291 1
gene 1 4 4 -0.512553 1 1726 -0.512553 1
genomeend 69

/* Organism #70 Fitness: 457.584 Error: 192.416 */
genomestart 70
trait 1 0.581906 0.541357 0.671826 0.0394919 1 0 0.0497668 0 
trait 2 0.377173 0.0956477 0.120191 0.0436036 0.0732034 0.0105923 0.0532087 0.0812472 
trait 3 0.261456 0.00436481 0.175012 0.0124165 0.127827 0.0161333 0.0163573 0.0715493 
node 1 3 1 1
node 2 1 1 1
node 3 3 1 1
node 4 3 0 2
node 42 1 0 0
gene 1 1 4 -0.196978 0 1 -0.196978 1
gene 2 2 4 1.44632 0 2 1.44632 0
gene 2 3 4 0.404462 0 3 0.404462 0
gene 2 2 42 -1.49225 0 446 -1.49225 1
gene 2 42 4 4.54071 0 447 4.54071 1
gene 2 3 42 0.86375 0 546 0.86375 1
gene 3 1 42 4.50478 0 702 4.50478 1
gene 3 42 42 2.4075 1 1316 2.4075 1
gene 1 4 4 -2.20119 1 1726 -2.20119 1
genomeend 70

/* Organism #71 Fitness: 446.589 Error: 203.411 */
genomestart 71
trait 1 0.124175 0.217654 0 0.0382179 0.00564323 0.196938 0.0444357 0.124418 
trait 2 0.377173 0.0956477 0.120191 0.0436036 0.0732034 0.0105923 0.0532087 0.0812472 
trait 3 0.261456 0.00436481 0.152131 0.0217817 0.215138 0.00794801 0.0147743 0.135175 
node 1 3 1 1
node 2 1 1 1
node 3 3 1 1
node 4 3 0 2
node 42 1 0 0
gene 1 1 4 -0.927068 0 1 -0.927068 1
gene 2 2 4 -1.32549 0 2 -1.32549 0
gene 2 3 4 -0.780223 0 3 -0.780223 0
gene 2 2 42 -0.410202 0 446 -0.410202 1
gene 2 42 4 6.26509 0 447 6.26509 1
gene 2 3 42 -1.60198 0 546 -1.60198 1
gene 3 1 42 4.90339 0 702 4.90339 1
gene 3 42 42 4.61687 1 1316 4.61687 1
gene 1 4 4 0.642157 1 1726 0.642157 1
genomeend 71

/* Organism #72 Fitness: 371.514 Error: 278.486 */
genomestart 72
trait 1 0.124175 0.197251 0 0.0394919 0.00546688 0.190783 0.0497668 0.124418 
trait 2 0.377173 0.11011 0.120191 0.0805947 0.0732034 0.0105923 0.0532087 0.0812472 
trait 3 0.245115 0.00409201 0.16962 0.0149573 0.152638 0.00745126 0.0350717 0.0927577 
node 1 3 1 1
node 2 1 1 1
node 3 3 1 1
node 4 3 0 2
node 42 1 0 0
gene 1 1 4 -0.0982538 0 1 -0.0982538 1
gene 2 2 4 1.56605 0 2 1.56605 0
gene 2 3 4 -1.98116 0 3 -1.98116 1
gene 2 2 42 -1.16176 0 446 -1.16176 1
gene 2 42 4 7.01884 0 447 7.01884 1
gene 2 3 42 -0.372343 0 546 -0.372343 1
gene 3 1 42 2.25427 0 702 2.25427 1
gene 2 42 42 3.41194 1 1316 3.41194 1
gene 1 4 4 -2.56177 1 1726 -2.56177 1
gene 3 4 42 -1.83788 1 2064 -1.83788 1
genomeend 72

/* Organism #73 Fitness: 152.762 Error: 497.238 */
genomestart 73
trait 1 0.124175 0.203614 0 0.0407658 0.00564323 0.196938 0.0444357 0.124418 
trait 2 0.377173 0.0956477 0.120191 0.0436036 0.0732034 0.0105923 0.0532087 0.0812472 
trait 3 0.261456 0.00436481 0.173864 0.00929471 0.103015 0.00794801 0.0168849 0.0503409 
node 1 3 1 1
node 2 1 1 1
node 3 3 1 1
node 4 3 0 2
node 42 2 0 0
gene 1 1 4 1.14777 0 1 1.14777 1
gene 2 2 4 0.840957 0 2 0.840957 1
gene 2 3 4 -0.20616 0 3 -0.20616 1
gene 2 2 42 -1.01588 0 446 -1.01588 1
gene 2 42 4 -1.59074 0 447 -1.59074 1
gene 2 3 42 0.921151 0 546 0.921151 1
gene 3 1 42 3.59315 0 702 3.59315 1
gene 3 42 42 3.88432 1 1316 3.88432 1
gene 1 4 4 -0.498744 1 1726 -0.498744 1
genomeend 73

/* Organism #74 Fitness: 464.368 Error: 185.632 */
genomestart 74
trait 1 0.124175 0.203614 0 0.0407658 0.00564323 0.196938 0.0444357 0.124418 
trait 2 0.377173 0.0550551 0.112679 0.0593739 0.0686282 0.359448 0.0532087 0.0812472 
trait 3 0.261456 0.00436481 0.16843 0.0124165 0.131046 0.00794801 0.0163573 0.0715493 
node 1 3 1 1
node 2 1 1 1
node 3 3 1 1
node 4 3 0 2
node 42 1 0 0
gene 1 1 4 -0.756949 0 1 -0.756949 1
gene 2 2 4 0.346886 0 2 0.346886 0
gene 2 3 4 -2.12373 0 3 -2.12373 0
gene 2 2 42 -2.18654 0 446 -2.18654 1
gene 3 42 4 6.53916 0 447 6.53916 1
gene 2 3 42 -0.0550312 0 546 -0.0550312 1
gene 3 1 42 4.41347 0 702 4.41347 1
gene 3 42 42 3.54295 1 1316 3.54295 0
gene 1 4 4 0.543818 1 1726 0.543818 1
genomeend 74

/* Organism #75 Fitness: 172.881 Error: 477.119 */
genomestart 75
trait 1 0.124175 0.190888 0 0.0382179 0.00529053 0.184629 0.055098 0.124418 
trait 2 0.377173 0.0956477 0.120191 0.0436036 0.0732034 0.0105923 0.0532087 0.0812472 
trait 3 0.261456 0.00436481 0.162997 0.0155382 0.159077 0.00794801 0.0158296 0.0927577 
node 1 3 1 1
node 2 1 1 1
node 3 3 1 1
node 4 3 0 2
node 42 3 0 0
gene 1 1 4 0.279689 0 1 0.279689 1
gene 2 2 4 -3.10228 0 2 -3.10228 0
gene 2 3 4 -0.117739 0 3 -0.117739 0
gene 2 2 42 0.320654 0 446 0.320654 1
gene 2 42 4 8 0 447 8 1
gene 2 3 42 -1.45615 0 546 -1.45615 1
gene 3 1 42 -0.320781 0 702 -0.320781 1
gene 3 42 42 3.59524 1 1316 3.59524 1
gene 1 4 4 -2.59017 1 1726 -2.59017 1
genomeend 75

/* Organism #76 Fitness: 465.07 Error: 184.93 */
genomestart 76
trait 1 0.124175 0.210634 0 0.0394919 0.00564323 0.196938 0.0444357 0.124418 
trait 2 0.377173 0.0956477 0.120191 0.0436036 0.0732034 0.0105923 0.0532087 0.0812472 
trait 3 0.261456 0.00436481 0.152131 0.0217817 0.215138 0.00794801 0.0147743 0.135175 
node 1 3 1 1
node 2 1 1 1
node 3 3 1 1
node 4 3 0 2
node 42 1 0 0
gene 1 1 4 -0.800256 0 1 -0.800256 1
gene 2 2 4 -0.449283 0 2 -0.449283 1
gene 3 3 4 -1.57727 0 3 -1.57727 0
gene 2 2 42 -0.894419 0 446 -0.894419 1
gene 2 42 4 6.36459 0 447 6.36459 1
gene 2 3 42 -1.05177 0 546 -1.05177 1
gene 3 1 42 4.01811 0 702 4.01811 1
gene 3 42 42 3.02221 1 1316 3.02221 1
gene 1 4 4 0.967459 1 1726 0.967459 1
genomeend 76

/* Organism #77 Fitness: 454.543 Error: 195.457 */
genomestart 77
trait 1 0.124175 0.101807 0 0.492649 0.00282162 0.196938 0.0222178 0.124418 
trait 2 0.377173 0.129611 0.105167 0.127112 0.0732034 0.0092683 0.0904129 0.189776 
trait 3 0.313992 0.00436481 0.478726 0.381975 0.324402 0.218103 0.0158296 0.0927577 
node 1 3 1 1
node 2 1 1 1
node 3 3 1 1
node 4 3 0 2
node 42 1 0 0
gene 1 1 4 -0.809728 0 1 -0.809728 1
gene 2 2 4 0.772662 0 2 0.772662 0
gene 2 3 4 -0.915816 0 3 -0.915816 0
gene 2 2 42 -1.57782 0 446 -1.57782 1
gene 2 42 4 5.01401 0 447 5.01401 1
gene 2 3 42 -2.07429 0 546 -2.07429 1
gene 1 1 42 6.59805 0 702 6.59805 1
gene 3 42 42 3.761 1 1316 3.761 1
gene 1 4 4 0.306967 1 1726 0.306967 1
genomeend 77

/* Organism #78 Fitness: 454.075 Error: 195.925 */
genomestart 78
trait 1 0.124175 0.197251 0 0.0394919 0.00546688 0.190783 0.0497668 0.124418 
trait 2 0.363141 0.11011 0.120191 0.0805947 0.134136 0.0357626 0.0532087 0.162049 
trait 3 0.245115 0.00409201 0.175053 0.0118355 0.124608 0.00745126 0.0355994 0.0715493 
node 1 3 1 1
node 2 1 1 1
node 3 3 1 1
node 4 3 0 2
node 42 1 0 0
gene 1 1 4 -0.841106 0 1 -0.841106 1
gene 2 2 4 1.7674 0 2 1.7674 0
gene 2 3 4 -2.47036 0 3 -2.47036 0
gene 2 2 42 -2.49278 0 446 -2.49278 1
gene 2 42 4 6.63822 0 447 6.63822 1
gene 2 3 42 -1.54031 0 546 -1.54031 1
gene 3 1 42 5.60969 0 702 5.60969 1
gene 2 42 42 3.60317 1 1316 3.60317 1
gene 1 4 4 -1.33688 1 1726 -1.33688 1
gene 3 4 42 -0.959667 1 2014 -0.959667 1
genomeend 78

/* Organism #79 Fitness: 465.304 Error: 184.696 */
genomestart 79
trait 1 0.124175 0.203614 0 0.0407658 0.00564323 0.196938 0.0444357 0.124418 
trait 2 0.377173 0.0956477 0.120191 0.0436036 0.0732034 0.0105923 0.0532087 0.0812472 
trait 3 0.261456 0.00436481 0.173864 0.00929471 0.103015 0.00794801 0.0168849 0.0503409 
node 1 3 1 1
node 2 1 1 1
node 3 3 1 1
node 4 3 0 2
node 42 1 0 0
gene 1 1 4 -0.584277 0 1 -0.584277 1
gene 2 2 4 0.553186 0 2 0.553186 1
gene 2 3 4 -1.84029 0 3 -1.84029 0
gene 2 2 42 -2.36919 0 446 -2.36919 1
gene 2 42 4 7.88798 0 447 7.88798 1
gene 2 3 42 -0.369061 0 546 -0.369061 1
gene 3 1 42 4.14344 0 702 4.14344 1
gene 3 42 42 3.80262 1 1316 3.80262 1
gene 1 4 4 0.483202 1 1726 0.483202 1
genomeend 79

/* Organism #80 Fitness: 451.735 Error: 198.265 */
genomestart 80
trait 1 0.124175 0.197251 0 0.0394919 0.00546688 0.190783 0.0497668 0.124418 
trait 2 0.377173 0.0956477 0.120191 0.0436036 0.0732034 0.0105923 0.0532087 0.0812472 
trait 3 0.261456 0.00436481 0.173864 0.00929471 0.103015 0.00794801 0.0168849 0.0503409 
node 1 3 1 1
node 2 1 1 1
node 3 3 1 1
node 4 3 0 2
node 42 1 0 0
gene 1 1 4 -1.46063 0 1 -1.46063 1
gene 2 2 4 -0.429063 0 2 -0.429063 0
gene 2 3 4 -1.02963 0 3 -1.02963 0
gene 2 2 42 -4.53534 0 446 -4.53534 1
gene 2 42 4 8 0 447 8 1
gene 2 3 42 -1.60779 0 546 -1.60779 1
gene 3 1 42 7.50273 0 702 7.50273 1
gene 3 42 42 4.16489 1 1316 4.16489 1
gene 1 4 4 0.326018 1 1726 0.326018 1
gene 3 4 42 0.385861 1 2169 0.385861 1
genomeend 80

/* Organism #81 Fitness: 403.326 Error: 246.674 */
genomestart 81
trait 1 0.124175 0.203614 0.198933 0.0407658 0.00282162 0.201901 0.0716845 0.124418 
trait 2 0.377173 0.124573 0.120191 0.117586 0.0732034 0.0105923 0.0532087 0.0812472 
trait 3 0.228774 0.00381921 0.187109 0.00813287 0.0901383 0.00695451 0.0553691 0.0503409 
node 1 3 1 1
node 2 1 1 1
node 3 3 1 1
node 4 3 0 2
node 42 1 0 0
gene 1 1 4 -2.28334 0 1 -2.28334 0
gene 2 2 4 2.37216 0 2 2.37216 0
gene 2 3 4 -1.56804 0 3 -1.56804 0
gene 2 2 42 -0.9097 0 446 -0.9097 1
gene 2 42 4 6.4898 0 447 6.4898 1
gene 2 3 42 1.41406 0 546 1.41406 1
gene 1 1 42 8 0 702 8 1
gene 3 42 42 -1.2047 1 1316 -1.2047 1
gene 3 4 4 -3.0887 1 1726 -3.0887 1
genomeend 81

/* Organism #82 Fitness: 455.01 Error: 194.99 */
genomestart 82
trait 1 0.124175 0.203614 0 0.0407658 0.00564323 0.196938 0.0444357 0.124418 
trait 2 0.377173 0.0956477 0.120191 0.0436036 0.0732034 0.0105923 0.0532087 0.0812472 
trait 3 0.340524 0.00381921 0.20019 0.112238 0.0772614 0.040689 0.0871442 0.0503409 
node 1 3 1 1
node 2 1 1 1
node 3 1 1 1
node 4 3 0 2
node 42 1 0 0
gene 1 1 4 -0.433523 0 1 -0.433523 1
gene 2 2 4 -0.961878 0 2 -0.961878 0
gene 2 3 4 -1.39217 0 3 -1.39217 0
gene 2 2 42 -3.21236 0 446 -3.21236 1
gene 2 42 4 6.2354 0 447 6.2354 1
gene 2 3 42 -0.692059 0 546 -0.692059 1
gene 3 1 42 5.06544 0 702 5.06544 1
gene 3 42 42 5.06017 1 1316 5.06017 1
gene 1 4 4 -0.849626 1 1726 -0.849626 1
genomeend 82

/* Organism #83 Fitness: 467.877 Error: 182.123 */
genomestart 83
trait 1 0.124175 0.54772 0.307632 0.0407658 0.416878 0.196938 0.0444357 0.124418 
trait 2 0.377173 0.102879 0.120191 0.0620991 0.0732034 0.0105923 0.0532087 0.0812472 
trait 3 0.261456 0.00436481 0.180445 0.00929471 0.099796 0.0161333 0.0168849 0.0503409 
node 1 3 1 1
node 2 1 1 1
node 3 3 1 1
node 4 3 0 2
node 42 1 0 0
gene 1 1 4 -1.14258 0 1 -1.14258 1
gene 2 2 4 1.99767 0 2 1.99767 0
gene 2 3 4 -2.51624 0 3 -2.51624 0
gene 2 2 42 -2.58053 0 446 -2.58053 1
gene 2 42 4 7.87509 0 447 7.87509 1
gene 2 3 42 -1.45011 0 546 -1.45011 1
gene 3 1 42 2.77355 0 702 2.77355 1
gene 3 42 42 3.22853 1 1316 3.22853 1
gene 1 4 4 -0.258477 1 1726 -0.258477 1
gene 3 4 42 -0.959667 1 2014 -0.959667 1
genomeend 83

/* Organism #84 Fitness: 462.964 Error: 187.036 */
genomestart 84
trait 1 0.124175 0.210634 0 0.0394919 0.00564323 0.196938 0.0444357 0.124418 
trait 2 0.363141 0.0956477 0.120191 0.0436036 0.134136 0.0357626 0.0532087 0.162049 
trait 3 0.261456 0.00436481 0.162997 0.0155382 0.159077 0.00794801 0.0158296 0.0927577 
node 1 3 1 1
node 2 1 1 1
node 3 3 1 1
node 4 3 0 2
node 42 1 0 0
gene 1 1 4 -0.927068 0 1 -0.927068 1
gene 2 2 4 1.07093 0 2 1.07093 0
gene 2 3 4 -1.14662 0 3 -1.14662 0
gene 2 2 42 -0.450391 0 446 -0.450391 1
gene 2 42 4 6.26509 0 447 6.26509 1
gene 2 3 42 -1.70001 0 546 -1.70001 1
gene 3 1 42 3.75543 0 702 3.75543 1
gene 3 42 42 4.61687 1 1316 4.61687 1
gene 1 4 4 0.642157 1 1726 0.642157 1
gene 2 4 42 -0.201342 1 2140 -0.201342 1
genomeend 84

/* Organism #85 Fitness: 452.905 Error: 197.095 */
genomestart 85
trait 1 0.124175 0.197251 0 0.0394919 0.00546688 0.190783 0.0497668 0.124418 
trait 2 0.377173 0.0956477 0.120191 0.0436036 0.0732034 0.0105923 0.0532087 0.0812472 
trait 3 0.261456 0.00436481 0.193609 0.00929471 0.0933575 0.0325037 0.0168849 0.0503409 
node 1 3 1 1
node 2 1 1 1
node 3 3 1 1
node 4 3 0 2
node 42 1 0 0
gene 1 1 4 -0.713791 0 1 -0.713791 1
gene 2 2 4 0.715725 0 2 0.715725 0
gene 1 3 4 -0.301597 0 3 -0.301597 0
gene 2 2 42 -1.69475 0 446 -1.69475 1
gene 2 42 4 5.84015 0 447 5.84015 1
gene 2 3 42 0.390306 0 546 0.390306 1
gene 3 1 42 5.21863 0 702 5.21863 1
gene 2 42 42 4.25854 1 1316 4.25854 1
gene 1 4 4 0.806857 1 1726 0.806857 1
genomeend 85

/* Organism #86 Fitness: 464.836 Error: 185.164 */
genomestart 86
trait 1 0.124175 0.197251 0 0.0394919 0.00546688 0.190783 0.0497668 0.124418 
trait 2 0.377173 0.0956477 0.120191 0.0436036 0.0732034 0.0105923 0.0532087 0.0812472 
trait 3 0.261456 0.00436481 0.173864 0.00929471 0.103015 0.00794801 0.0168849 0.0503409 
node 1 3 1 1
node 2 1 1 1
node 3 3 1 1
node 4 3 0 2
node 42 1 0 0
gene 1 1 4 -1.09684 0 1 -1.09684 1
gene 2 2 4 -1.52393 0 2 -1.52393 0
gene 2 3 4 -1.18573 0 3 -1.18573 0
gene 2 2 42 -0.741624 0 446 -0.741624 1
gene 2 42 4 7.13515 0 447 7.13515 1
gene 2 3 42 -1.05329 0 546 -1.05329 1
gene 3 1 42 5.23238 0 702 5.23238 1
gene 2 42 42 4.32545 1 1316 4.32545 1
gene 1 4 4 -0.646768 1 1726 -0.646768 1
genomeend 86

/* Organism #87 Fitness: 462.73 Error: 187.27 */
genomestart 87
trait 1 0.124175 0.203614 0 0.0407658 0.00564323 0.196938 0.0444357 0.124418 
trait 2 0.377173 0.11011 0.120191 0.0805947 0.0732034 0.0105923 0.0532087 0.0812472 
trait 3 0.261456 0.00436481 0.173864 0.00929471 0.103015 0.00794801 0.0168849 0.0503409 
node 1 3 1 1
node 2 1 1 1
node 3 3 1 1
node 4 3 0 2
node 42 1 0 0
gene 1 1 4 -1.29011 0 1 -1.29011 1
gene 2 2 4 0.438988 0 2 0.438988 0
gene 2 3 4 0.0307393 0 3 0.0307393 0
gene 2 2 42 -1.2429 0 446 -1.2429 1
gene 2 42 4 6.78995 0 447 6.78995 1
gene 2 3 42 -0.736233 0 546 -0.736233 1
gene 3 1 42 4.10797 0 702 4.10797 1
gene 3 42 42 3.83732 1 1316 3.83732 1
gene 1 4 4 -0.857474 1 1726 -0.857474 1
gene 1 4 42 -1.29362 1 2032 -1.29362 1
genomeend 87

/* Organism #88 Fitness: 2.33939 Error: 647.661 */
genomestart 88
trait 1 0.124175 0.203614 0 0.0407658 0.00564323 0.196938 0.0444357 0.124418 
trait 2 0.373665 0.125407 0.112679 0.0408784 0.0838613 0.0168849 0.0532087 0.101448 
trait 3 0.261456 0.00436481 0.16843 0.0124165 0.131046 0.00794801 0.0163573 0.0715493 
node 1 3 1 1
node 2 1 1 1
node 3 3 1 1
node 4 3 0 2
node 42 1 0 0
gene 1 1 4 -0.0273746 0 1 -0.0273746 1
gene 2 2 4 0.54931 0 2 0.54931 0
gene 2 3 4 -1.99507 0 3 -1.99507 1
gene 2 2 42 -2.85436 0 446 -2.85436 1
gene 2 42 4 -0.663389 0 447 -0.663389 1
gene 2 3 42 0.774875 0 546 0.774875 1
gene 3 1 42 1.64559 0 702 1.64559 1
gene 3 42 42 3.07664 1 1316 3.07664 0
gene 1 4 4 -0.88199 1 1726 -0.88199 1
genomeend 88

/* Organism #89 Fitness: 451.969 Error: 198.031 */
genomestart 89
trait 1 0.124175 0.217654 0 0.0382179 0.00564323 0.196938 0.0444357 0.124418 
trait 2 0.377173 0.163574 0.0901432 0.21062 0.0732034 0.00794425 0.127617 0.298304 
trait 3 0.261456 0.00436481 0.173864 0.00929471 0.103015 0.00794801 0.0168849 0.0503409 
node 1 3 1 1
node 2 1 1 1
node 3 3 1 1
node 4 3 0 2
node 42 1 0 0
gene 1 1 4 -0.584901 0 1 -0.584901 1
gene 2 2 4 -0.842273 0 2 -0.842273 0
gene 2 3 4 -1.46253 0 3 -1.46253 1
gene 2 2 42 0.0374929 0 446 0.0374929 1
gene 2 42 4 6.80319 0 447 6.80319 1
gene 2 3 42 -0.749396 0 546 -0.749396 1
gene 3 1 42 4.98878 0 702 4.98878 1
gene 3 42 42 3.50481 1 1316 3.50481 1
gene 1 4 4 -0.380608 1 1726 -0.380608 1
genomeend 89

/* Organism #90 Fitness: 467.175 Error: 182.825 */
genomestart 90
trait 1 0.343132 0.245372 0 0.0407658 0.00564323 0.196938 0.0444357 0.124418 
trait 2 0.377173 0.155167 0.105167 0.0381532 0.064053 0.0105923 0.0532087 0.0812472 
trait 3 0.261456 0.00436481 0.173864 0.00929471 0.103015 0.00794801 0.0168849 0.0503409 
node 1 3 1 1
node 2 1 1 1
node 3 3 1 1
node 4 3 0 2
node 42 1 0 0
gene 1 1 4 -1.56336 0 1 -1.56336 1
gene 2 2 4 -1.30617 0 2 -1.30617 0
gene 2 3 4 -1.77145 0 3 -1.77145 0
gene 2 2 42 0.47279 0 446 0.47279 1
gene 2 42 4 7.56553 0 447 7.56553 1
gene 2 3 42 -1.58612 0 546 -1.58612 1
gene 3 1 42 4.52179 0 702 4.52179 1
gene 3 42 42 2.50833 1 1316 2.50833 1
gene 1 4 4 1.58029 1 1726 1.58029 1
gene 3 4 42 -2.66169 1 2014 -2.66169 0
genomeend 90

/* Organism #91 Fitness: 461.327 Error: 188.673 */
genomestart 91
trait 1 0.124175 0.210634 0 0.0394919 0.00564323 0.196938 0.0444357 0.124418 
trait 2 0.377173 0.0956477 0.120191 0.0436036 0.0732034 0.0105923 0.0532087 0.0812472 
trait 3 0.261456 0.00436481 0.173864 0.00929471 0.103015 0.00794801 0.0168849 0.0503409 
node 1 3 1 1
node 2 1 1 1
node 3 3 1 1
node 4 3 0 2
node 42 1 0 0
gene 1 1 4 -0.926465 0 1 -0.926465 1
gene 2 2 4 -1.47966 0 2 -1.47966 0
gene 2 3 4 -1.2683 0 3 -1.2683 0
gene 2 2 42 0.563745 0 446 0.563745 1
gene 2 42 4 5.20175 0 447 5.20175 1
gene 2 3 42 -1.31291 0 546 -1.31291 1
gene 3 1 42 3.11877 0 702 3.11877 1
gene 3 42 42 3.12233 1 1316 3.12233 1
gene 1 4 4 0.299114 1 1726 0.299114 1
gene 3 4 42 -0.969897 1 2014 -0.969897 1
genomeend 91

/* Organism #92 Fitness: 463.198 Error: 186.802 */
genomestart 92
trait 1 0.124175 0.203614 0 0.0407658 0.00564323 0.196938 0.0444357 0.124418 
trait 2 0.377173 0.124573 0.120191 0.117586 0.0732034 0.0105923 0.0532087 0.0812472 
trait 3 0.340524 0.00381921 0.16843 0.11536 0.118169 0.00794801 0.0866166 0.0715493 
node 1 3 1 1
node 2 1 1 1
node 3 3 1 1
node 4 3 0 2
node 42 1 0 0
node 166 1 0 0
gene 1 1 4 -0.650381 0 1 -0.650381 1
gene 2 2 4 0.604052 0 2 0.604052 0
gene 2 3 4 -2.35043 0 3 -2.35043 0
gene 2 2 42 -1.02596 0 446 -1.02596 1
gene 2 42 4 6.56057 0 447 6.56057 1
gene 2 3 42 -0.232435 0 546 -0.232435 1
gene 3 1 42 4.50795 0 702 4.50795 1
gene 3 42 42 3.76353 1 1316 3.76353 1
gene 1 4 4 -0.839103 1 1726 -0.839103 1
gene 3 42 166 1 1 2129 0 1
gene 3 166 42 4.06837 0 2130 0 1
genomeend 92

/* Organism #93 Fitness: 2.33939 Error: 647.661 */
genomestart 93
trait 1 0.124175 0.203614 0 0.0407658 0.00564323 0.196938 0.0444357 0.124418 
trait 2 0.377173 0.0956477 0.120191 0.0436036 0.0732034 0.0105923 0.0532087 0.0812472 
trait 3 0.261456 0.00436481 0.162997 0.0155382 0.159077 0.00794801 0.0158296 0.0927577 
node 1 3 1 1
node 2 1 1 1
node 3 3 1 1
node 4 3 0 2
node 42 1 0 0
gene 1 1 4 -1.27601 0 1 -1.27601 1
gene 2 2 4 0.38631 0 2 0.38631 0
gene 2 3 4 -1.53633 0 3 -1.53633 0
gene 2 2 42 -1.73542 0 446 -1.73542 1
gene 2 42 4 6.27358 0 447 6.27358 1
gene 2 3 42 -0.175616 0 546 -0.175616 1
gene 3 1 42 -0.642362 0 702 -0.642362 1
gene 3 42 42 1.34326 1 1316 1.34326 1
gene 1 4 4 0.844719 1 1726 0.844719 1
genomeend 93

/* Organism #94 Fitness: 458.52 Error: 191.48 */
genomestart 94
trait 1 0.124175 0.190888 0 0.0382179 0.00529053 0.184629 0.055098 0.124418 
trait 2 0.377173 0.0956477 0.120191 0.0436036 0.0732034 0.0105923 0.0532087 0.0812472 
trait 3 0.261456 0.00436481 0.162997 0.0155382 0.159077 0.00794801 0.0158296 0.0927577 
node 1 3 1 1
node 2 1 1 1
node 3 3 1 1
node 4 3 0 2
node 42 1 0 0
gene 1 1 4 -0.819931 0 1 -0.819931 1
gene 2 2 4 0.316369 0 2 0.316369 0
gene 2 3 4 -1.05065 0 3 -1.05065 0
gene 2 2 42 -0.107499 0 446 -0.107499 1
gene 2 42 4 8 0 447 8 1
gene 2 3 42 -1.74819 0 546 -1.74819 1
gene 3 1 42 2.41328 0 702 2.41328 1
gene 3 42 42 4.46582 1 1316 4.46582 1
gene 1 4 4 -2.59017 1 1726 -2.59017 1
gene 3 4 42 -0.693391 1 2064 -0.693391 1
genomeend 94

/* Organism #95 Fitness: 466.473 Error: 183.527 */
genomestart 95
trait 1 0.124175 0.217654 0 0.0382179 0.00564323 0.196938 0.0444357 0.124418 
trait 2 0.373665 0.0956477 0.120191 0.0436036 0.0884365 0.0168849 0.0532087 0.101448 
trait 3 0.261456 0.00436481 0.16843 0.0124165 0.131046 0.00794801 0.0163573 0.0715493 
node 1 3 1 1
node 2 3 1 1
node 3 3 1 1
node 4 3 0 2
node 42 1 0 0
gene 1 1 4 -0.636724 0 1 -0.636724 1
gene 3 2 4 0.853476 0 2 0.853476 0
gene 2 3 4 -1.91519 0 3 -1.91519 0
gene 2 2 42 -1.02486 0 446 -1.02486 1
gene 2 42 4 7.17748 0 447 7.17748 1
gene 2 3 42 -0.9087 0 546 -0.9087 1
gene 3 1 42 2.42078 0 702 2.42078 1
gene 3 42 42 2.00131 1 1316 2.00131 1
gene 1 4 4 -1.07146 1 1726 -1.07146 1
genomeend 95

/* Organism #96 Fitness: 463.198 Error: 186.802 */
genomestart 96
trait 1 0.124175 0.203614 0 0.0407658 0.00564323 0.196938 0.0444357 0.124418 
trait 2 0.377173 0.0956477 0.120191 0.0436036 0.0732034 0.0105923 0.0532087 0.0812472 
trait 3 0.261456 0.00436481 0.152131 0.0217817 0.215138 0.00794801 0.0147743 0.135175 
node 1 3 1 1
node 2 1 1 1
node 3 3 1 1
node 4 3 0 2
node 42 1 0 0
gene 1 1 4 -0.563692 0 1 -0.563692 1
gene 2 2 4 0.959473 0 2 0.959473 1
gene 2 3 4 -1.10036 0 3 -1.10036 1
gene 2 2 42 -1.15068 0 446 -1.15068 1
gene 2 42 4 5.98481 0 447 5.98481 1
gene 2 3 42 -2.20909 0 546 -2.20909 1
gene 3 1 42 5.37095 0 702 5.37095 1
gene 3 42 42 3.23483 1 1316 3.23483 1
gene 1 4 4 -1.44791 1 1726 -1.44791 1
genomeend 96

/* Organism #97 Fitness: 453.373 Error: 196.627 */
genomestart 97
trait 1 0.124175 0.203614 0 0.0407658 0.00564323 0.196938 0.0444357 0.124418 
trait 2 0.377173 0.124573 0.120191 0.117586 0.0732034 0.0105923 0.0532087 0.0812472 
trait 3 0.228774 0.00381921 0.187109 0.00813287 0.0901383 0.00695451 0.0553691 0.0503409 
node 1 3 1 1
node 2 1 1 1
node 3 3 1 1
node 4 3 0 2
node 42 1 0 0
gene 1 1 4 -2.53137 0 1 -2.53137 1
gene 2 2 4 0.795872 0 2 0.795872 0
gene 2 3 4 0.409179 0 3 0.409179 0
gene 2 2 42 -4.69813 0 446 -4.69813 1
gene 2 42 4 8 0 447 8 1
gene 2 3 42 1.35389 0 546 1.35389 1
gene 3 1 42 4.15881 0 702 4.15881 1
gene 3 42 42 0.485924 1 1316 0.485924 1
gene 1 4 4 0.580588 1 1726 0.580588 1
gene 3 4 42 0.660659 1 2014 0.660659 1
genomeend 97

/* Organism #98 Fitness: 457.584 Error: 192.416 */
genomestart 98
trait 1 0.124175 0.204271 0 0.0382179 0.00546688 0.190783 0.0497668 0.124418 
trait 2 0.377173 0.0956477 0.120191 0.0436036 0.0732034 0.0105923 0.0532087 0.0812472 
trait 3 0.261456 0.00436481 0.162997 0.0155382 0.159077 0.00794801 0.0158296 0.0927577 
node 1 3 1 1
node 2 1 1 1
node 3 3 1 1
node 4 3 0 2
node 42 1 0 0
gene 1 1 4 -0.500525 0 1 -0.500525 1
gene 2 2 4 -1.27728 0 2 -1.27728 0
gene 2 3 4 -0.64722 0 3 -0.64722 0
gene 2 2 42 1.14574 0 446 1.14574 1
gene 2 42 4 7.533 0 447 7.533 1
gene 2 3 42 -1.05329 0 546 -1.05329 1
gene 3 1 42 1.53769 0 702 1.53769 1
gene 3 42 42 4.77774 1 1316 4.77774 1
gene 1 4 4 -1.25713 1 1726 -1.25713 1
genomeend 98

/* Organism #99 Fitness: 458.52 Error: 191.48 */
genomestart 99
trait 1 0.124175 0.197251 0 0.0394919 0.00546688 0.190783 0.0497668 0.124418 
trait 2 0.377173 0.0956477 0.120191 0.0436036 0.0732034 0.0105923 0.0532087 0.0812472 
trait 3 0.261456 0.00436481 0.16843 0.0124165 0.131046 0.00794801 0.0163573 0.0715493 
node 1 3 1 1
node 2 1 1 1
node 3 3 1 1
node 4 3 0 2
node 42 1 0 0
gene 1 1 4 -0.897294 0 1 -0.897294 1
gene 2 2 4 -2.41134 0 2 -2.41134 0
gene 2 3 4 -1.49369 0 3 -1.49369 0
gene 2 2 42 -0.881489 0 446 -0.881489 1
gene 2 42 4 6.85712 0 447 6.85712 1
gene 2 3 42 -3.2319 0 546 -3.2319 1
gene 3 1 42 3.21813 0 702 3.21813 1
gene 3 42 42 4.99876 1 1316 4.99876 1
gene 1 4 4 -0.420007 1 1726 -0.420007 1
genomeend 99

/* Organism #100 Fitness: 457.35 Error: 192.65 */
genomestart 100
trait 1 0.343132 0.245372 0 0.0407658 0.00564323 0.196938 0.0444357 0.124418 
trait 2 0.377173 0.155167 0.105167 0.0381532 0.064053 0.0105923 0.0532087 0.0812472 
trait 3 0.261456 0.00436481 0.173864 0.00929471 0.103015 0.00794801 0.0168849 0.0503409 
node 1 3 1 1
node 2 1 1 1
node 3 3 1 1
node 4 3 0 2
node 42 1 0 0
gene 1 1 4 -1.56336 0 1 -1.56336 1
gene 2 2 4 -1.30617 0 2 -1.30617 0
gene 2 3 4 -1.77145 0 3 -1.77145 0
gene 2 2 42 0.47279 0 446 0.47279 1
gene 2 42 4 7.56553 0 447 7.56553 1
gene 2 3 42 -1.58612 0 546 -1.58612 1
gene 3 1 42 4.52179 0 702 4.52179 1
gene 3 42 42 2.50833 1 1316 2.50833 1
gene 1 4 4 1.58029 1 1726 1.58029 1
gene 3 4 42 -2.66169 1 2014 -2.66169 0
genomeend 100

/* Organism #101 Fitness: 466.006 Error: 183.994 */
genomestart 101
trait 1 0.124175 0.203614 0 0.0407658 0.00564323 0.196938 0.0444357 0.124418 
trait 2 0.377173 0.102879 0.120191 0.0620991 0.0732034 0.0105923 0.0532087 0.0812472 
trait 3 0.419591 0.00327361 0.16843 0.218304 0.105292 0.00794801 0.156876 0.0715493 
node 1 3 1 1
node 2 1 1 1
node 3 3 1 1
node 4 3 0 2
node 42 1 0 0
gene 1 1 4 -0.669658 0 1 -0.669658 1
gene 2 2 4 0.797177 0 2 0.797177 0
gene 1 3 4 -1.16956 0 3 -1.16956 0
gene 2 2 42 -1.7276 0 446 -1.7276 1
gene 2 42 4 5.94361 0 447 5.94361 1
gene 2 3 42 0.0853498 0 546 0.0853498 1
gene 3 1 42 2.96471 0 702 2.96471 1
gene 3 42 42 3.59649 1 1316 3.59649 1
gene 1 4 4 -0.705985 1 1726 -0.705985 1
genomeend 101

/* Organism #102 Fitness: 444.717 Error: 205.283 */
genomestart 102
trait 1 0.124175 0.217654 0 0.0382179 0.00564323 0.196938 0.0444357 0.124418 
trait 2 0.377173 0.0956477 0.407878 0 0.862271 0.0105923 0 0.0812472 
trait 3 0.261456 0.00436481 0.162997 0.0155382 0.159077 0.00794801 0.0158296 0.0927577 
node 1 3 1 1
node 2 1 1 1
node 3 3 1 1
node 4 3 0 2
node 42 1 0 0
gene 1 1 4 -1.88256 0 1 -1.88256 1
gene 2 2 4 -2.75248 0 2 -2.75248 0
gene 2 3 4 -1.10867 0 3 -1.10867 0
gene 2 2 42 -2.5523 0 446 -2.5523 1
gene 3 42 4 6.13326 0 447 6.13326 1
gene 2 3 42 -0.428937 0 546 -0.428937 1
gene 3 1 42 3.52419 0 702 3.52419 1
gene 3 42 42 2.83964 1 1316 2.83964 1
gene 1 4 4 -0.453769 1 1726 -0.453769 1
genomeend 102

/* Organism #103 Fitness: 418.755 Error: 231.245 */
genomestart 103
trait 1 0.124175 0.190888 0 0.0382179 0.00529053 0.184629 0.055098 0.124418 
trait 2 0.377173 0.0956477 0.120191 0.0436036 0.0732034 0.0105923 0.0532087 0.0812472 
trait 3 0.261456 0.00436481 0.173864 0.00929471 0.103015 0.00794801 0.0168849 0.0503409 
node 1 3 1 1
node 2 1 1 1
node 3 3 1 1
node 4 3 0 2
node 42 1 0 0
gene 1 1 4 0.460598 0 1 0.460598 1
gene 2 2 4 1.74748 0 2 1.74748 0
gene 2 3 4 -1.27906 0 3 -1.27906 0
gene 2 2 42 -3.16617 0 446 -3.16617 1
gene 2 42 4 5.21857 0 447 5.21857 1
gene 2 3 42 -1.69 0 546 -1.69 1
gene 3 1 42 0.402402 0 702 0.402402 1
gene 3 42 42 5.17787 1 1316 5.17787 1
gene 1 4 4 -0.887437 1 1726 -0.887437 0
gene 2 4 42 -0.112986 1 2103 -0.112986 1
genomeend 103

/* Organism #104 Fitness: 424.365 Error: 225.635 */
genomestart 104
trait 1 0.124175 0.203614 0 0.0407658 0.00564323 0.196938 0.0444357 0.124418 
trait 2 0.377173 0.125407 0.112679 0.0408784 0.0686282 0.0105923 0.0532087 0.0812472 
trait 3 0.261456 0.00436481 0.173864 0.00929471 0.103015 0.00794801 0.0168849 0.0503409 
node 1 3 1 1
node 2 1 1 1
node 3 3 1 1
node 4 3 0 2
node 42 1 0 0
gene 1 1 4 -2.52457 0 1 -2.52457 1
gene 3 2 4 2.15037 0 2 2.15037 1
gene 2 3 4 -2.55565 0 3 -2.55565 0
gene 2 2 42 -4.96517 0 446 -4.96517 1
gene 2 42 4 6.7951 0 447 6.7951 1
gene 2 3 42 -3.0373 0 546 -3.0373 1
gene 3 1 42 2.64031 0 702 2.64031 1
gene 3 42 42 3.30463 1 1316 3.30463 0
gene 1 4 4 -0.356283 1 1726 -0.356283 1
genomeend 104

/* Organism #105 Fitness: 464.836 Error: 185.164 */
genomestart 105
trait 1 0.124175 0.101807 0 0.492649 0.00282162 0.196938 0.0222178 0.124418 
trait 2 0.377173 0.197538 0.0751194 0.294128 0.0732034 0.00662021 0.164821 0.406832 
trait 3 0.261456 0.00436481 0.162997 0.0155382 0.159077 0.00794801 0.0158296 0.0927577 
node 1 3 1 1
node 2 1 1 1
node 3 3 1 1
node 4 3 0 2
node 42 1 0 0
node 172 1 0 0
gene 1 1 4 -0.647054 0 1 -0.647054 1
gene 2 2 4 1.40694 0 2 1.40694 0
gene 2 3 4 -0.895462 0 3 -0.895462 0
gene 2 2 42 -0.564483 0 446 -0.564483 1
gene 2 42 4 6.24642 0 447 6.24642 1
gene 2 3 42 -1.88462 0 546 -1.88462 1
gene 3 1 42 5.97593 0 702 5.97593 1
gene 2 42 42 3.19776 1 1316 3.19776 0
gene 1 4 4 0.304054 1 1726 0.304054 1
gene 2 42 172 1 1 2165 0 1
gene 2 172 42 3.19776 0 2166 0 1
genomeend 105

/* Organism #106 Fitness: 464.134 Error: 185.866 */
genomestart 106
trait 1 0.124175 0.197251 0 0.0394919 0.00546688 0.190783 0.0497668 0.124418 
trait 2 0.377173 0.163574 0.0901432 0.21062 0.0732034 0.00794425 0.127617 0.298304 
trait 3 0.261456 0.00436481 0.16843 0.0124165 0.131046 0.00794801 0.0163573 0.0715493 
node 1 3 1 1
node 2 1 1 1
node 3 3 1 1
node 4 3 0 2
node 42 1 0 0
node 173 1 0 0
gene 1 1 4 -0.819931 0 1 -0.819931 1
gene 2 2 4 0.316369 0 2 0.316369 0
gene 2 3 4 -3.85378 0 3 -3.85378 0
gene 2 2 42 -0.107499 0 446 -0.107499 1
gene 2 42 4 7.96159 0 447 7.96159 1
gene 2 3 42 -1.74819 0 546 -1.74819 1
gene 3 1 42 2.41328 0 702 2.41328 1
gene 3 42 42 4.46582 1 1316 4.46582 1
gene 1 4 4 -2.59017 1 1726 -2.59017 0
gene 3 4 42 -0.693391 1 2064 -0.693391 1
gene 1 4 173 1 1 2170 0 1
gene 1 173 4 -2.59017 0 2171 0 1
genomeend 106

/* Organism #107 Fitness: 438.167 Error: 211.833 */
genomestart 107
trait 1 0.124175 0.554741 0.307632 0.0394919 0.416878 0.196938 0.0444357 0.124418 
trait 2 0.363141 0.0956477 0.120191 0.0436036 0.134136 0.0357626 0.0532087 0.162049 
trait 3 0.261456 0.00436481 0.180445 0.00929471 0.099796 0.0161333 0.0168849 0.0503409 
node 1 3 1 1
node 2 1 1 1
node 3 3 1 1
node 4 3 0 2
node 42 1 0 0
gene 1 1 4 -0.300111 0 1 -0.300111 1
gene 2 2 4 -0.483662 0 2 -0.483662 0
gene 2 3 4 0.592288 0 3 0.592288 0
gene 2 2 42 -0.503762 0 446 -0.503762 1
gene 2 42 4 7.60877 0 447 7.60877 1
gene 2 3 42 1.52357 0 546 1.52357 1
gene 3 1 42 5.9497 0 702 5.9497 1
gene 3 42 42 4.87508 1 1316 4.87508 1
gene 1 4 4 -0.760714 1 1726 -0.760714 1
gene 3 4 42 -1.39555 1 2013 -1.39555 1
genomeend 107

/* Organism #108 Fitness: 461.327 Error: 188.673 */
genomestart 108
trait 1 0.124175 0.190888 0 0.0382179 0.00529053 0.184629 0.055098 0.124418 
trait 2 0.377173 0.0956477 0.120191 0.0436036 0.0732034 0.0105923 0.0532087 0.0812472 
trait 3 0.261456 0.00436481 0.173864 0.00929471 0.103015 0.00794801 0.0168849 0.0503409 
node 1 3 1 1
node 2 1 1 1
node 3 3 1 1
node 4 3 0 2
node 42 1 0 0
gene 1 1 4 -0.584277 0 1 -0.584277 1
gene 2 2 4 0.26537 0 2 0.26537 0
gene 2 3 4 -1.84029 0 3 -1.84029 0
gene 2 2 42 -3.47744 0 446 -3.47744 1
gene 2 42 4 7.88798 0 447 7.88798 1
gene 2 3 42 -0.369061 0 546 -0.369061 1
gene 3 1 42 5.80754 0 702 5.80754 1
gene 3 42 42 3.80262 1 1316 3.80262 1
gene 1 4 4 -0.373867 1 1726 -0.373867 0
genomeend 108

/* Organism #109 Fitness: 459.923 Error: 190.077 */
genomestart 109
trait 1 0.124175 0.203614 0 0.0407658 0.00564323 0.196938 0.0444357 0.124418 
trait 2 0.377173 0.163574 0.0901432 0.21062 0.0732034 0.00794425 0.127617 0.298304 
trait 3 0.261456 0.00436481 0.141264 0.0280253 0.2712 0.00794801 0.013719 0.177591 
node 1 3 1 1
node 2 1 1 1
node 3 3 1 1
node 4 3 0 2
node 42 1 0 0
gene 1 1 4 -0.775412 0 1 -0.775412 1
gene 2 2 4 2.25315 0 2 2.25315 1
gene 2 3 4 -2.76401 0 3 -2.76401 1
gene 2 2 42 -1.08285 0 446 -1.08285 1
gene 2 42 4 7.40385 0 447 7.40385 1
gene 2 3 42 -1.3142 0 546 -1.3142 1
gene 3 1 42 2.72494 0 702 2.72494 1
gene 2 42 42 -0.589771 1 1316 -0.589771 1
gene 1 4 4 2.33443 1 1726 2.33443 1
gene 3 4 42 -0.562714 1 2067 -0.562714 1
genomeend 109

/* Organism #110 Fitness: 463.432 Error: 186.568 */
genomestart 110
trait 1 0.124175 0.203614 0 0.0407658 0.00564323 0.196938 0.0444357 0.124418 
trait 2 0.377173 0.11011 0.120191 0.0805947 0.0732034 0.0105923 0.0532087 0.0812472 
trait 3 0.245115 0.00409201 0.175053 0.0118355 0.124608 0.00745126 0.0355994 0.0715493 
node 1 3 1 1
node 2 1 1 1
node 3 3 1 1
node 4 3 0 2
node 42 1 0 0
gene 1 1 4 -1.02125 0 1 -1.02125 1
gene 2 2 4 1.62947 0 2 1.62947 0
gene 2 3 4 -1.01265 0 3 -1.01265 0
gene 2 2 42 -1.64414 0 446 -1.64414 1
gene 2 42 4 7.20813 0 447 7.20813 1
gene 2 3 42 0.172959 0 546 0.172959 1
gene 3 1 42 4.24561 0 702 4.24561 1
gene 3 42 42 3.12119 1 1316 3.12119 1
gene 1 4 4 -0.411157 1 1726 -0.411157 1
genomeend 110

/* Organism #111 Fitness: 469.515 Error: 180.485 */
genomestart 111
trait 1 0.124175 0.210634 0 0.0394919 0.00564323 0.196938 0.0444357 0.124418 
trait 2 0.377173 0.0956477 0.120191 0.0436036 0.0732034 0.0105923 0.0532087 0.0812472 
trait 3 0.261456 0.00436481 0.173864 0.00929471 0.103015 0.00794801 0.0168849 0.0503409 
node 1 3 1 1
node 2 1 1 1
node 3 3 1 1
node 4 3 0 2
node 42 1 0 0
gene 1 1 4 -0.64727 0 1 -0.64727 1
gene 2 2 4 -0.904729 0 2 -0.904729 1
gene 2 3 4 -0.915714 0 3 -0.915714 1
gene 2 2 42 -0.773239 0 446 -0.773239 1
gene 2 42 4 5.55058 0 447 5.55058 1
gene 2 3 42 -0.864185 0 546 -0.864185 1
gene 3 1 42 2.34846 0 702 2.34846 1
gene 3 42 42 3.36066 1 1316 3.36066 1
gene 1 4 4 -0.23704 1 1726 -0.23704 1
gene 3 4 42 -0.969897 1 2014 -0.969897 1
genomeend 111

/* Organism #112 Fitness: 461.093 Error: 188.907 */
genomestart 112
trait 1 0.124175 0.203614 0 0.0407658 0.00564323 0.196938 0.0444357 0.124418 
trait 2 0.34911 0.0956477 0.120191 0.0436036 0.195069 0.0609328 0.0532087 0.24285 
trait 3 0.261456 0.00436481 0.173864 0.00929471 0.103015 0.00794801 0.0168849 0.0503409 
node 1 3 1 1
node 2 1 1 1
node 3 3 1 1
node 4 3 0 2
node 42 1 0 0
gene 1 1 4 -0.665183 0 1 -0.665183 1
gene 2 2 4 -0.48352 0 2 -0.48352 0
gene 2 3 4 -0.784365 0 3 -0.784365 1
gene 2 2 42 0.37904 0 446 0.37904 1
gene 2 42 4 7.46898 0 447 7.46898 1
gene 2 3 42 -0.734222 0 546 -0.734222 1
gene 3 1 42 4.65343 0 702 4.65343 1
gene 3 42 42 2.96969 1 1316 2.96969 1
gene 1 4 4 -1.23474 1 1726 -1.23474 1
gene 2 4 42 -0.201342 1 2140 -0.201342 1
genomeend 112

/* Organism #113 Fitness: 397.94 Error: 252.06 */
genomestart 113
trait 1 0.124175 0.197251 0 0.0394919 0.00546688 0.190783 0.0497668 0.124418 
trait 2 0.377173 0.0956477 0.120191 0.0436036 0.0732034 0.0105923 0.0532087 0.0812472 
trait 3 0.261456 0.00436481 0.146698 0.0249035 0.243169 0.00794801 0.0142467 0.156383 
node 1 3 1 1
node 2 1 1 1
node 3 3 1 1
node 4 3 0 2
node 42 1 0 0
gene 1 1 4 0.665643 0 1 0.665643 1
gene 2 2 4 2.34735 0 2 2.34735 0
gene 2 3 4 1.45429 0 3 1.45429 0
gene 2 2 42 -2.31661 0 446 -2.31661 1
gene 2 42 4 8 0 447 8 1
gene 2 3 42 0.085521 0 546 0.085521 1
gene 3 1 42 5.1236 0 702 5.1236 1
gene 3 42 42 0.585681 1 1316 0.585681 1
gene 1 4 4 -0.807178 1 1726 -0.807178 1
genomeend 113

/* Organism #114 Fitness: 454.075 Error: 195.925 */
genomestart 114
trait 1 0.124175 0.185183 0 0.0394919 0.112736 0.29732 0.12945 0.124418 
trait 2 0.377173 0.0956477 0.120191 0.0436036 0.0732034 0.0105923 0.0532087 0.0812472 
trait 3 0.261456 0.00436481 0.173864 0.00929471 0.103015 0.00794801 0.0168849 0.0503409 
node 1 3 1 1
node 2 1 1 1
node 3 3 1 1
node 4 3 0 2
node 42 1 0 0
gene 1 1 4 -1.04608 0 1 -1.04608 1
gene 2 2 4 -0.0917108 0 2 -0.0917108 0
gene 2 3 4 -1.14667 0 3 -1.14667 0
gene 2 2 42 -2.72845 0 446 -2.72845 1
gene 2 42 4 6.45468 0 447 6.45468 1
gene 2 3 42 -0.736401 0 546 -0.736401 1
gene 3 1 42 4.20191 0 702 4.20191 1
gene 3 42 42 3.33365 1 1316 3.33365 1
gene 1 4 4 -0.00322295 1 1726 -0.00322295 1
genomeend 114

/* Organism #115 Fitness: 2.33939 Error: 647.661 */
genomestart 115
trait 1 0.124175 0.203614 0 0.0407658 0.00564323 0.196938 0.0444357 0.124418 
trait 2 0.373665 0.0956477 0.120191 0.0436036 0.0884365 0.0168849 0.0532087 0.101448 
trait 3 0.419591 0.00327361 0.16843 0.218304 0.105292 0.00794801 0.156876 0.0715493 
node 1 3 1 1
node 2 1 1 1
node 3 3 1 1
node 4 3 0 2
node 42 1 0 0
gene 1 1 4 -1.21565 0 1 -1.21565 1
gene 2 2 4 2.39215 0 2 2.39215 0
gene 2 3 4 -0.79107 0 3 -0.79107 0
gene 2 2 42 -2.50995 0 446 -2.50995 1
gene 2 42 4 4.54996 0 447 4.54996 1
gene 2 3 42 -2.41284 0 546 -2.41284 1
gene 3 1 42 -0.0317017 0 702 -0.0317017 1
gene 3 42 42 4.46841 1 1316 4.46841 1
gene 1 4 4 -1.73173 1 1726 -1.73173 1
genomeend 115

/* Organism #116 Fitness: 2.33939 Error: 647.661 */
genomestart 116
trait 1 0.124175 0.197251 0 0.0394919 0.00546688 0.190783 0.0497668 0.124418 
trait 2 0.377173 0.0956477 0.120191 0.0436036 0.0732034 0.0105923 0.0532087 0.0812472 
trait 3 0.261456 0.00436481 0.188175 0.0124165 0.121388 0.0325037 0.0163573 0.0715493 
node 1 3 1 1
node 2 1 1 1
node 3 3 1 1
node 4 3 0 2
node 42 1 0 0
gene 1 1 4 -0.911952 0 1 -0.911952 1
gene 2 2 4 0.303966 0 2 0.303966 0
gene 2 3 4 -0.587313 0 3 -0.587313 0
gene 2 2 42 0.112845 0 446 0.112845 1
gene 2 42 4 -0.989578 0 447 -0.989578 1
gene 2 3 42 -2.50437 0 546 -2.50437 1
gene 3 1 42 1.31191 0 702 1.31191 1
gene 3 42 42 4.66862 1 1316 4.66862 1
gene 1 4 4 -1.50934 1 1726 -1.50934 1
gene 3 4 42 -2.36946 1 2064 -2.36946 1
genomeend 116

/* Organism #117 Fitness: 466.707 Error: 183.293 */
genomestart 117
trait 1 0.124175 0.210634 0 0.0394919 0.00564323 0.196938 0.0444357 0.124418 
trait 2 0.377173 0.0956477 0.120191 0.0436036 0.0732034 0.0105923 0.0532087 0.0812472 
trait 3 0.261456 0.00436481 0.16843 0.0124165 0.131046 0.00794801 0.0163573 0.0715493 
node 1 3 1 1
node 2 1 1 1
node 3 3 1 1
node 4 3 0 2
node 42 1 0 0
gene 1 1 4 -1.07408 0 1 -1.07408 1
gene 3 2 4 -0.445621 0 2 -0.445621 1
gene 2 3 4 1.2639 0 3 1.2639 0
gene 2 2 42 -1.07226 0 446 -1.07226 1
gene 2 42 4 7.19641 0 447 7.19641 1
gene 2 3 42 -1.36916 0 546 -1.36916 1
gene 3 1 42 1.49317 0 702 1.49317 1
gene 3 42 42 4.16401 1 1316 4.16401 1
gene 1 4 4 1.71105 1 1726 1.71105 1
genomeend 117

/* Organism #118 Fitness: 455.478 Error: 194.522 */
genomestart 118
trait 1 0.124175 0.203614 0 0.0407658 0.00564323 0.196938 0.0444357 0.124418 
trait 2 0.377173 0.11011 0.120191 0.0805947 0.0732034 0.0105923 0.0532087 0.0812472 
trait 3 0.245115 0.00409201 0.175053 0.0118355 0.124608 0.00745126 0.0355994 0.0715493 
node 1 3 1 1
node 2 1 1 1
node 3 3 1 1
node 4 3 0 2
node 42 1 0 0
gene 1 1 4 -0.961487 0 1 -0.961487 1
gene 2 2 4 1.04293 0 2 1.04293 0
gene 2 3 4 -2.07659 0 3 -2.07659 0
gene 2 2 42 -1.57763 0 446 -1.57763 1
gene 2 42 4 7.44365 0 447 7.44365 1
gene 2 3 42 -1.5098 0 546 -1.5098 1
gene 3 1 42 4.87992 0 702 4.87992 1
gene 2 42 42 2.65296 1 1316 2.65296 1
gene 1 4 4 -1.20095 1 1726 -1.20095 1
gene 2 4 42 -0.954267 1 2101 -0.954267 1
genomeend 118

/* Organism #119 Fitness: 2.33939 Error: 647.661 */
genomestart 119
trait 1 0.124175 0.225989 0 0.0318483 0.00529053 0.184629 0.055098 0.124418 
trait 2 0.377173 0.0956477 0.120191 0.0436036 0.0732034 0.0105923 0.0532087 0.0812472 
trait 3 0.261456 0.00436481 0.173864 0.00929471 0.103015 0.00794801 0.0168849 0.0503409 
node 1 3 1 1
node 2 1 1 1
node 3 3 1 1
node 4 1 0 2
node 42 1 0 0
gene 1 1 4 -0.428347 0 1 -0.428347 1
gene 2 2 4 0.946795 0 2 0.946795 0
gene 2 3 4 0.375093 0 3 0.375093 0
gene 2 2 42 -0.119755 0 446 -0.119755 1
gene 2 42 4 0.127545 0 447 0.127545 1
gene 2 3 42 -2.66212 0 546 -2.66212 1
gene 3 1 42 2.99141 0 702 2.99141 1
gene 3 42 42 3.27172 1 1316 3.27172 1
gene 1 4 4 1.59599 1 1726 1.59599 0
genomeend 119

/* Organism #120 Fitness: 465.304 Error: 184.696 */
genomestart 120
trait 1 0.124175 0.166751 0 0.276817 0.217006 0.373665 0.192246 0.124418 
trait 2 0.377173 0.0956477 0.120191 0.0436036 0.0732034 0.0105923 0.0532087 0.0812472 
trait 3 0.261456 0.00436481 0.180445 0.00929471 0.099796 0.0161333 0.0168849 0.0503409 
node 1 3 1 1
node 2 1 1 1
node 3 3 1 1
node 4 3 0 2
node 42 1 0 0
gene 1 1 4 -1.11564 0 1 -1.11564 1
gene 2 2 4 -0.852475 0 2 -0.852475 0
gene 2 3 4 -1.96072 0 3 -1.96072 0
gene 2 2 42 -1.68184 0 446 -1.68184 1
gene 2 42 4 6.41482 0 447 6.41482 1
gene 2 3 42 -2.45967 0 546 -2.45967 1
gene 1 1 42 5.20235 0 702 5.20235 1
gene 3 42 42 2.74909 1 1316 2.74909 1
gene 1 4 4 -0.332464 1 1726 -0.332464 1
genomeend 120

/* Organism #121 Fitness: 387.043 Error: 262.957 */
genomestart 121
trait 1 0.124175 0.203614 0 0.0407658 0.00564323 0.196938 0.0444357 0.124418 
trait 2 0.363141 0.0956477 0.120191 0.0436036 0.134136 0.0357626 0.0532087 0.162049 
trait 3 0.419591 0.00327361 0.173864 0.215182 0.0772614 0.00794801 0.157404 0.0503409 
node 1 3 1 1
node 2 1 1 1
node 3 3 1 1
node 4 3 0 2
node 42 1 0 0
gene 1 1 4 0.994852 0 1 0.994852 1
gene 2 2 4 0.908262 0 2 0.908262 0
gene 1 3 4 -2.10064 0 3 -2.10064 0
gene 2 2 42 -1.52426 0 446 -1.52426 1
gene 2 42 4 5.52315 0 447 5.52315 1
gene 2 3 42 0.225731 0 546 0.225731 1
gene 3 1 42 2.86408 0 702 2.86408 1
gene 3 42 42 4.54132 1 1316 4.54132 1
gene 1 4 4 -1.47908 1 1726 -1.47908 1
gene 2 4 42 -0.201342 1 2140 -0.201342 1
genomeend 121

/* Organism #122 Fitness: 434.658 Error: 215.342 */
genomestart 122
trait 1 0.124175 0.203614 0 0.0407658 0.00564323 0.196938 0.0444357 0.124418 
trait 2 0.377173 0.0956477 0.120191 0.0436036 0.0732034 0.0105923 0.0532087 0.0812472 
trait 3 0.261456 0.00436481 0.187027 0.00929471 0.0965767 0.0243185 0.0168849 0.0503409 
node 1 3 1 1
node 2 1 1 1
node 3 3 1 1
node 4 3 0 2
node 42 1 0 0
gene 1 1 4 -0.551897 0 1 -0.551897 1
gene 2 2 4 0.291563 0 2 0.291563 0
gene 2 3 4 -4.09945 0 3 -4.09945 0
gene 2 2 42 0.331658 0 446 0.331658 1
gene 2 42 4 6.16892 0 447 6.16892 1
gene 2 3 42 -0.43194 0 546 -0.43194 1
gene 3 1 42 3.75543 0 702 3.75543 1
gene 3 42 42 3.19548 1 1316 3.19548 1
gene 1 4 4 0.0480336 1 1726 0.0480336 1
genomeend 122

/* Organism #123 Fitness: 469.749 Error: 180.251 */
genomestart 123
trait 1 0.124175 0.203614 0 0.0407658 0.00564323 0.196938 0.0444357 0.124418 
trait 2 0.377173 0.139035 0.120191 0.154577 0.0732034 0.0105923 0.0532087 0.0812472 
trait 3 0.324183 0.00354641 0.175053 0.114779 0.111731 0.00745126 0.105859 0.0715493 
node 1 3 1 1
node 2 1 1 1
node 3 3 1 1
node 4 3 0 2
node 42 1 0 0
gene 1 1 4 -0.701477 0 1 -0.701477 1
gene 2 2 4 0.201788 0 2 0.201788 0
gene 2 3 4 -2.00804 0 3 -2.00804 0
gene 2 2 42 -2.44653 0 446 -2.44653 1
gene 2 42 4 7.75329 0 447 7.75329 1
gene 2 3 42 -1.51046 0 546 -1.51046 1
gene 3 1 42 4.89806 0 702 4.89806 1
gene 2 42 42 2.35805 1 1316 2.35805 1
gene 1 4 4 -2.53337 1 1726 -2.53337 1
genomeend 123

/* Organism #124 Fitness: 460.625 Error: 189.375 */
genomestart 124
trait 1 0.124175 0.203614 0 0.279365 0.00282162 0.172899 0.0222178 0.124418 
trait 2 0.377173 0.0956477 0.120191 0.0436036 0.0732034 0.0105923 0.0532087 0.0812472 
trait 3 0.419591 0.00327361 0.180445 0.215182 0.0740422 0.0161333 0.157404 0.0503409 
node 1 3 1 1
node 2 1 1 1
node 3 3 1 1
node 4 3 0 2
node 42 1 0 0
gene 1 1 4 -0.717956 0 1 -0.717956 1
gene 2 2 4 0.665202 0 2 0.665202 0
gene 2 3 4 0.478211 0 3 0.478211 0
gene 2 2 42 -1.68184 0 446 -1.68184 1
gene 2 42 4 6.83073 0 447 6.83073 1
gene 2 3 42 0.225731 0 546 0.225731 1
gene 3 1 42 1.77406 0 702 1.77406 1
gene 3 42 42 4.54132 1 1316 4.54132 1
gene 1 4 4 1.66316 1 1726 1.66316 1
genomeend 124

/* Organism #125 Fitness: 2.33939 Error: 647.661 */
genomestart 125
trait 1 0.124175 0.203614 0 0.0407658 0.00564323 0.196938 0.0444357 0.124418 
trait 2 0.34911 0.0956477 0.120191 0.0436036 0.195069 0.0609328 0.0532087 0.24285 
trait 3 0.261456 0.00436481 0.152131 0.0217817 0.215138 0.00794801 0.0147743 0.135175 
node 1 3 1 1
node 2 1 1 1
node 3 3 1 1
node 4 3 0 2
node 42 1 0 0
gene 1 1 4 -1.30231 0 1 -1.30231 1
gene 2 2 4 1.2162 0 2 1.2162 1
gene 2 3 4 -1.38716 0 3 -1.38716 0
gene 2 2 42 -1.32436 0 446 -1.32436 1
gene 2 42 4 6.1164 0 447 6.1164 1
gene 2 3 42 -0.317089 0 546 -0.317089 1
gene 3 1 42 -1.56949 0 702 -1.56949 1
gene 3 42 42 2.02809 1 1316 2.02809 1
gene 1 4 4 1.43949 1 1726 1.43949 1
gene 3 4 42 -1.3851 1 2067 -1.3851 1
genomeend 125

/* Organism #126 Fitness: 463.9 Error: 186.1 */
genomestart 126
trait 1 0.124175 0.197251 0 0.0394919 0.00546688 0.190783 0.0497668 0.124418 
trait 2 0.363141 0.0956477 0.120191 0.0436036 0.134136 0.0357626 0.0532087 0.162049 
trait 3 0.261456 0.00436481 0.173864 0.00929471 0.103015 0.00794801 0.0168849 0.0503409 
node 1 3 1 1
node 2 1 1 1
node 3 3 1 1
node 4 3 0 2
node 42 1 0 0
gene 1 1 4 -0.722121 0 1 -0.722121 1
gene 2 2 4 1.0049 0 2 1.0049 0
gene 2 3 4 -1.37365 0 3 -1.37365 1
gene 2 2 42 -2.35818 0 446 -2.35818 1
gene 2 42 4 6.0712 0 447 6.0712 1
gene 2 3 42 -1.70001 0 546 -1.70001 1
gene 3 1 42 5.03837 0 702 5.03837 1
gene 2 42 42 4.55902 1 1316 4.55902 1
gene 1 4 4 0.0928131 1 1726 0.0928131 1
gene 1 4 42 0.403706 1 2060 0.403706 1
genomeend 126

/* Organism #127 Fitness: 464.602 Error: 185.398 */
genomestart 127
trait 1 0.124175 0.203614 0 0.0407658 0.00564323 0.196938 0.0444357 0.124418 
trait 2 0.377173 0.0956477 0.120191 0.0436036 0.0732034 0.0105923 0.0532087 0.0812472 
trait 3 0.261456 0.00436481 0.173864 0.00929471 0.103015 0.00794801 0.0168849 0.0503409 
node 1 3 1 1
node 2 1 1 1
node 3 3 1 1
node 4 3 0 2
node 42 1 0 0
gene 1 1 4 -0.409583 0 1 -0.409583 1
gene 2 2 4 -1.3804 0 2 -1.3804 0
gene 2 3 4 -0.9177 0 3 -0.9177 0
gene 2 2 42 -0.329395 0 446 -0.329395 1
gene 2 42 4 4.60662 0 447 4.60662 1
gene 2 3 42 -1.23073 0 546 -1.23073 1
gene 3 1 42 1.43049 0 702 1.43049 1
gene 3 42 42 3.97224 1 1316 3.97224 1
gene 1 4 4 -0.800097 1 1726 -0.800097 1
gene 3 4 42 -0.969897 1 2014 -0.969897 1
genomeend 127

/* Organism #128 Fitness: 457.35 Error: 192.65 */
genomestart 128
trait 1 0.124175 0.203614 0 0.0407658 0.00564323 0.196938 0.0444357 0.124418 
trait 2 0.377173 0.153498 0.120191 0.191568 0.0732034 0.0105923 0.0532087 0.0812472 
trait 3 0.196092 0.00327361 0.200355 0.00697103 0.0772614 0.005961 0.0938533 0.0503409 
node 1 3 1 1
node 2 1 1 1
node 3 3 1 1
node 4 3 0 2
node 42 1 0 0
gene 1 1 4 -1.65234 0 1 -1.65234 1
gene 2 2 4 1.04662 0 2 1.04662 0
gene 2 3 4 -2.20506 0 3 -2.20506 0
gene 2 2 42 -3.22763 0 446 -3.22763 1
gene 2 42 4 8 0 447 8 1
gene 2 3 42 -1.65445 0 546 -1.65445 1
gene 3 1 42 4.89806 0 702 4.89806 1
gene 3 42 42 0.567293 1 1316 0.567293 1
gene 1 4 4 -1.72444 1 1726 -1.72444 1
gene 3 4 42 -0.102439 1 2014 -0.102439 1
genomeend 128

/* Organism #129 Fitness: 459.923 Error: 190.077 */
genomestart 129
trait 1 0.124175 0.203614 0 0.0407658 0.00564323 0.196938 0.0444357 0.124418 
trait 2 0.377173 0.155167 0.105167 0.0381532 0.064053 0.0105923 0.0532087 0.0812472 
trait 3 0.261456 0.00436481 0.173864 0.00929471 0.103015 0.00794801 0.0168849 0.0503409 
node 1 3 1 1
node 2 1 1 1
node 3 3 1 1
node 4 3 0 2
node 42 1 0 0
gene 1 1 4 -1.89809 0 1 -1.89809 1
gene 2 2 4 0.0243589 0 2 0.0243589 0
gene 2 3 4 -3.37653 0 3 -3.37653 0
gene 2 2 42 -3.31668 0 446 -3.31668 1
gene 2 42 4 7.75733 0 447 7.75733 1
gene 2 3 42 -1.92662 0 546 -1.92662 1
gene 3 1 42 5.69678 0 702 5.69678 1
gene 3 42 42 3.78828 1 1316 3.78828 0
gene 1 4 4 0.188165 1 1726 0.188165 1
genomeend 129

/* Organism #130 Fitness: 464.836 Error: 185.164 */
genomestart 130
trait 1 0.124175 0.203614 0 0.279365 0.00282162 0.172899 0.0222178 0.124418 
trait 2 0.377173 0.0956477 0.120191 0.0436036 0.0732034 0.0105923 0.0532087 0.0812472 
trait 3 0.261456 0.00436481 0.180445 0.00929471 0.099796 0.0161333 0.0168849 0.0503409 
node 1 3 1 1
node 2 1 1 1
node 3 3 1 1
node 4 3 0 2
node 42 1 0 0
gene 1 1 4 -1.07408 0 1 -1.07408 1
gene 2 2 4 -0.852475 0 2 -0.852475 0
gene 2 3 4 1.2639 0 3 1.2639 0
gene 2 2 42 -0.00409605 0 446 -0.00409605 1
gene 2 42 4 6.66296 0 447 6.66296 1
gene 2 3 42 -2.45967 0 546 -2.45967 1
gene 3 1 42 0.221592 0 702 0.221592 1
gene 3 42 42 5.56505 1 1316 5.56505 1
gene 1 4 4 1.66316 1 1726 1.66316 1
genomeend 130

/* Organism #131 Fitness: 407.287 Error: 242.713 */
genomestart 131
trait 1 0.124175 0.101807 0 0.0407658 0.434013 0.598469 0.384492 0.124418 
trait 2 0.377173 0.0956477 0.120191 0.0436036 0.0732034 0.0105923 0.0532087 0.0812472 
trait 3 0.261456 0.00436481 0.173864 0.00929471 0.103015 0.00794801 0.0168849 0.0503409 
node 1 3 1 1
node 2 1 1 1
node 3 3 1 1
node 4 3 0 2
node 42 1 0 0
node 174 1 0 0
gene 1 1 4 -1.11564 0 1 -1.11564 1
gene 2 2 4 0.632691 0 2 0.632691 1
gene 2 3 4 -1.96072 0 3 -1.96072 0
gene 2 2 42 -0.921567 0 446 -0.921567 1
gene 2 42 4 6.41482 0 447 6.41482 0
gene 2 3 42 0.383278 0 546 0.383278 1
gene 3 1 42 5.51386 0 702 5.51386 1
gene 3 42 42 -0.169907 1 1316 -0.169907 1
gene 1 4 4 -0.332464 1 1726 -0.332464 1
gene 2 42 174 1 0 2172 0 1
gene 2 174 4 6.41482 0 2173 0 1
genomeend 131

/* Organism #132 Fitness: 456.18 Error: 193.82 */
genomestart 132
trait 1 0.124175 0.204271 0 0.0382179 0.00546688 0.190783 0.0497668 0.124418 
trait 2 0.73942 0.0956477 0.120191 0.555199 0.0732034 0 0.0532087 0.0812472 
trait 3 0.261456 0.00436481 0.16843 0.0124165 0.131046 0.00794801 0.0163573 0.0715493 
node 1 3 1 1
node 2 1 1 1
node 3 3 1 1
node 4 3 0 2
node 42 3 0 0
gene 1 1 4 -0.874219 0 1 -0.874219 1
gene 2 2 4 0.863479 0 2 0.863479 0
gene 2 3 4 -2.28216 0 3 -2.28216 0
gene 2 2 42 -0.219873 0 446 -0.219873 1
gene 2 42 4 7.43259 0 447 7.43259 1
gene 2 3 42 -0.927409 0 546 -0.927409 1
gene 3 1 42 3.11562 0 702 3.11562 1
gene 3 42 42 3.78863 1 1316 3.78863 1
gene 1 4 4 0.76593 1 1726 0.76593 1
genomeend 132

/* Organism #133 Fitness: 461.093 Error: 188.907 */
genomestart 133
trait 1 0.124175 0.210634 0 0.0394919 0.00564323 0.196938 0.0444357 0.124418 
trait 2 0.377173 0.11011 0.120191 0.0805947 0.0732034 0.0105923 0.0532087 0.0812472 
trait 3 0.340524 0.00381921 0.16843 0.11536 0.118169 0.00794801 0.0866166 0.0715493 
node 1 3 1 1
node 2 1 1 1
node 3 3 1 1
node 4 3 0 2
node 42 1 0 0
gene 1 1 4 -1.23932 0 1 -1.23932 1
gene 2 2 4 -0.526601 0 2 -0.526601 1
gene 2 3 4 -0.584979 0 3 -0.584979 0
gene 2 2 42 0.141611 0 446 0.141611 1
gene 2 42 4 6.78995 0 447 6.78995 1
gene 2 3 42 -0.0423074 0 546 -0.0423074 1
gene 3 1 42 4.77623 0 702 4.77623 1
gene 3 42 42 2.93666 1 1316 2.93666 1
gene 1 4 4 -0.0203393 1 1726 -0.0203393 1
genomeend 133

/* Organism #134 Fitness: 471.152 Error: 178.848 */
