
/* Species #1 : (Size 59) (AF 247.736) (Age 11)  */


/* Organism #0 Fitness: 268.469 Error: 381.531 */
genomestart 0
trait 1 0.1 0.00459407 0.00681303 0 0 0.00718431 0 0.00101253 
trait 2 0.2 0 0.00231336 0.00639416 0.00687547 0 0 0 
trait 3 0.271875 0 0 0.057515 0.0507212 0.0290053 0 0 
node 1 3 1 1
node 2 3 1 1
node 3 1 1 1
node 4 2 0 2
gene 1 1 4 2.06993 0 1 2.06993 1
gene 3 2 4 1.85837 0 2 1.85837 1
gene 1 3 4 -1.06997 0 3 -1.06997 1
genomeend 0

/* Organism #1 Fitness: 332.203 Error: 317.797 */
genomestart 1
trait 1 0.1 0.00229704 0.00340652 0 0 0.00359216 0 0.000506266 
trait 2 0.2 0 0.00115668 0.00319708 0.00343774 0 0 0 
trait 3 0.285937 0 0.915993 0 0.0760817 0.043508 0 0 
node 1 2 1 1
node 2 2 1 1
node 3 1 1 1
node 4 1 0 2
node 10 1 0 0
gene 1 1 4 2.43164 0 1 2.43164 1
gene 3 2 4 2.09653 0 2 2.09653 0
gene 1 3 4 -3.01658 0 3 -3.01658 1
gene 3 2 10 -1.14676 0 55 -1.14676 1
gene 3 10 4 2.66044 0 56 2.66044 1
gene 2 1 10 1.41801 0 181 1.41801 1
genomeend 1

/* Organism #2 Fitness: 324.675 Error: 325.325 */
genomestart 2
trait 1 0.1 0 0 0 0 0 0 0 
trait 2 0.2 0.0373578 0.00954259 0.0263759 0.0283613 0.339399 0 0 
trait 3 0.307852 0.0292574 0.110736 0.0666907 0 0 0 0 
node 1 3 1 1
node 2 3 1 1
node 3 1 1 1
node 4 2 0 2
node 5 1 0 0
gene 2 1 4 1.75733 0 1 1.75733 1
gene 1 2 4 1.46514 0 2 1.46514 1
gene 3 3 4 -1.38641 0 3 -1.38641 1
gene 2 1 5 1.66001 0 4 1.66001 1
gene 2 5 4 1.26483 0 5 1.26483 1
gene 3 3 5 -4.09401 0 42 -4.09401 0
gene 3 2 5 0.929402 0 182 0.929402 1
genomeend 2

/* Organism #3 Fitness: 201.018 Error: 448.982 */
genomestart 3
trait 1 0.20298 0.0103367 0.0153293 0 0.0138938 0.0856458 0 0.11508 
trait 2 0.1625 0.0169808 0.0066509 0.0183832 0.168497 0.154272 0 0 
trait 3 0.308438 0.0292574 0.110736 0.0654925 0.0190204 0.010877 0 0 
node 1 3 1 1
node 2 1 1 1
node 3 3 1 1
node 4 2 0 2
node 5 1 0 0
gene 2 1 4 0.465866 0 1 0.465866 1
gene 3 2 4 1.51133 0 2 1.51133 1
gene 3 3 4 0.193454 0 3 0.193454 1
gene 2 1 5 1.44027 0 4 1.44027 1
gene 2 5 4 3.00834 0 5 3.00834 1
gene 3 3 5 -2.53943 0 42 -2.53943 0
genomeend 3

/* Organism #4 Fitness: 340.176 Error: 309.824 */
genomestart 4
trait 1 0.1 0 0 0 0 0 0 0 
trait 2 0.2 0.061131 0.00578339 0.0159854 0.0171887 0.55538 0 0 
trait 3 0.298828 0 0 0.00239646 0 0 0 0 
node 1 3 1 1
node 2 3 1 1
node 3 1 1 1
node 4 2 0 2
node 5 1 0 0
gene 2 1 4 2.03836 0 1 2.03836 1
gene 1 2 4 1.51799 0 2 1.51799 1
gene 3 3 4 -0.694944 0 3 -0.694944 1
gene 2 1 5 0.426604 0 4 0.426604 1
gene 2 5 4 0.264902 0 5 0.264902 1
gene 3 3 5 -1.19094 0 42 -1.19094 0
gene 3 2 5 0.929402 0 182 0.929402 1
genomeend 4

/* Organism #5 Fitness: 360.213 Error: 289.787 */
genomestart 5
trait 1 0.1 0 0 0 0 0 0 0 
trait 2 0.2 0.081508 0.00231336 0.00639416 0.00687547 0.740507 0 0 
trait 3 0.298828 0 0 0.00239646 0 0 0 0 
node 1 1 1 1
node 2 3 1 1
node 3 2 1 1
node 4 3 0 2
node 5 1 0 0
gene 2 1 4 2.03836 0 1 2.03836 1
gene 1 2 4 1.51799 0 2 1.51799 1
gene 3 3 4 -1.52581 0 3 -1.52581 1
gene 2 1 5 0.426604 0 4 0.426604 1
gene 2 5 4 0.140209 0 5 0.140209 1
gene 3 3 5 -0.524466 0 42 -0.524466 0
gene 3 2 5 0.929402 0 182 0.929402 1
genomeend 5

/* Organism #6 Fitness: 311.397 Error: 338.603 */
genomestart 6
trait 1 0.538734 0.0608714 0.0902727 0 0.0694689 0.363191 0 0.496045 
trait 2 0.227311 0 0.00312344 0.0451249 0.500659 0.575501 0 0 
trait 3 0.296631 0 0 0.00688981 0.0174354 0.00997057 0 0 
node 1 1 1 1
node 2 2 1 1
node 3 2 1 1
node 4 3 0 2
gene 1 1 4 2.2572 0 1 2.2572 1
gene 2 2 4 -2.87672 0 2 -2.87672 1
gene 3 3 4 -0.895697 0 3 -0.895697 1
gene 2 4 4 0.228867 1 61 0.228867 1
genomeend 6

/* Organism #7 Fitness: 298.362 Error: 351.638 */
genomestart 7
trait 1 0.1 0 0 0 0 0 0 0 
trait 2 0.2 0 0.00925342 0.0255766 0.0275019 0 0 0 
trait 3 0.25166 0 0 0.0988538 0 0 0 0 
node 1 3 1 1
node 2 1 1 1
node 3 3 1 1
node 4 2 0 2
node 11 1 0 0
gene 3 1 4 2.89011 0 1 2.89011 1
gene 3 2 4 1.45064 0 2 1.45064 1
gene 3 3 4 -1.52919 0 3 -1.52919 1
gene 3 3 11 0.756337 0 63 0.756337 1
gene 3 11 4 -3.65388 0 64 -2.05586 1
gene 2 4 4 -0.227967 1 95 -0.227967 1
gene 3 2 11 -0.186668 0 157 -0.186668 1
gene 3 1 11 -0.345482 0 277 -0.345482 1
genomeend 7

/* Organism #8 Fitness: 356.058 Error: 293.942 */
genomestart 8
trait 1 0.1 0 0 0 0 0 0 0 
trait 2 0.2 0 0.0231336 0.0639416 0.128032 0 0 0 
trait 3 0.269531 0 0 0.0623079 0 0 0 0 
node 1 2 1 1
node 2 3 1 1
node 3 1 1 1
node 4 2 0 2
gene 3 1 4 2.11044 0 1 2.11044 1
gene 1 2 4 4.14419 0 2 4.14419 1
gene 3 3 4 1.27809 0 3 1.27809 1
gene 2 4 4 0.0528158 1 18 0.0528158 1
genomeend 8

/* Organism #9 Fitness: 353.389 Error: 296.611 */
genomestart 9
trait 1 0.1 0 0 0 0 0 0 0 
trait 2 0.2 0 0.0208202 0.0575474 0.0915181 0 0 0 
trait 3 0.280078 0 0 0.0407398 0 0 0 0 
node 1 2 1 1
node 2 3 1 1
node 3 1 1 1
node 4 2 0 2
gene 3 1 4 2.11044 0 1 2.11044 1
gene 1 2 4 0.336102 0 2 0.336102 1
gene 3 3 4 2.03379 0 3 2.03379 1
gene 2 4 4 0.0528158 1 18 0.0528158 1
genomeend 9

/* Organism #10 Fitness: 350.18 Error: 299.82 */
genomestart 10
trait 1 0.1 0 0 0 0 0 0 0 
trait 2 0.2 0 0.0208202 0.0575474 0.0915181 0 0 0 
trait 3 0.280078 0 0 0.0407398 0 0 0 0 
node 1 2 1 1
node 2 3 1 1
node 3 1 1 1
node 4 2 0 2
gene 3 1 4 2.11044 0 1 2.11044 1
gene 1 2 4 0.336102 0 2 0.336102 1
gene 3 3 4 2.03379 0 3 2.03379 1
gene 2 4 4 0.0528158 1 18 0.0528158 1
genomeend 10

/* Organism #11 Fitness: 360.594 Error: 289.406 */
genomestart 11
trait 1 0.1 0 0 0 0 0 0 0 
trait 2 0.2 0 0.0219769 0.0607445 0.109775 0 0 0 
trait 3 0.274805 0 0 0.0515238 0 0 0 0 
node 1 2 1 1
node 2 3 1 1
node 3 1 1 1
node 4 2 0 2
gene 3 1 4 2.11044 0 1 2.11044 1
gene 1 2 4 2.24014 0 2 2.24014 1
gene 3 3 4 1.65594 0 3 1.65594 1
gene 2 4 4 0.0528158 1 18 0.0528158 1
genomeend 11

/* Organism #12 Fitness: 297.538 Error: 352.462 */
genomestart 12
trait 1 0.530661 0 0 0 0.896465 0.531419 0 0 
trait 2 0.2 0 0.0287688 0.0575474 0.114798 0.00484185 0 0 
trait 3 0.275391 0 0 0.0503256 0 0 0 0 
node 1 3 1 1
node 2 3 1 1
node 3 1 1 1
node 4 2 0 2
gene 3 1 4 4.11388 0 1 4.11388 1
gene 3 2 4 0.33316 0 2 0.33316 1
gene 3 3 4 -0.458048 0 3 -0.458048 1
gene 2 4 4 0.012368 1 18 0.012368 1
genomeend 12

/* Organism #13 Fitness: 385.189 Error: 264.811 */
genomestart 13
trait 1 0.73655 0 0 0 0 0.513875 0.670412 1 
trait 2 0.175 0.00701998 0.00115668 0.00319708 0.102591 0 0.245635 0 
trait 3 0.3 0 0 0 0.0126803 0.00725133 0 0 
node 1 1 1 1
node 2 2 1 1
node 3 3 1 1
node 4 1 0 2
gene 3 1 4 2.67269 0 1 2.67269 1
gene 3 2 4 -0.22811 0 2 -0.22811 0
gene 2 3 4 1.16209 0 3 1.16209 1
gene 3 4 4 -0.201208 1 61 -0.201208 1
genomeend 13

/* Organism #14 Fitness: 284.405 Error: 365.595 */
genomestart 14
trait 1 0.717877 0.06202 0.0919759 0 0.0833627 0.513875 0 0.690482 
trait 2 0.175 0.00701998 0.00115668 0.00319708 0.102591 0 0.245635 0 
trait 3 0.3 0 0 0 0.0126803 0.00725133 0 0 
node 1 1 1 1
node 2 2 1 1
node 3 3 1 1
node 4 1 0 2
gene 3 1 4 2.25339 0 1 2.25339 1
gene 3 2 4 1.39509 0 2 1.39509 0
gene 2 3 4 1.77003 0 3 1.77003 1
gene 3 4 4 0.224092 1 61 0.224092 1
genomeend 14

/* Organism #15 Fitness: 350.389 Error: 299.611 */
genomestart 15
trait 1 0.1 0 0 0 0 0 0 0 
trait 2 0.2 0 0.0219769 0.0607445 0.109775 0 0 0 
trait 3 0.274805 0 0 0.0515238 0 0 0 0 
node 1 2 1 1
node 2 3 1 1
node 3 1 1 1
node 4 2 0 2
gene 3 1 4 2.11044 0 1 2.11044 1
gene 1 2 4 0.336102 0 2 0.336102 1
gene 3 3 4 2.03379 0 3 2.03379 1
gene 2 4 4 0.0528158 1 18 0.0528158 1
genomeend 15

/* Organism #16 Fitness: 216.561 Error: 433.439 */
genomestart 16
trait 1 0.1 0 0 0 0 0 0 0 
trait 2 0.15 0 0.0173502 0.0479562 0.264692 0 0 0 
trait 3 0.287695 0 0 0.0251628 0.0253606 0.0145027 0 0 
node 1 2 1 1
node 2 3 1 1
node 3 1 1 1
node 4 2 0 2
gene 1 1 4 2.74876 0 1 2.74876 1
gene 3 2 4 -1.29214 0 2 -1.29214 1
gene 1 3 4 0.547931 0 3 0.547931 1
gene 2 4 4 0.785025 1 18 0.785025 1
genomeend 16

/* Organism #17 Fitness: 19.4169 Error: 630.583 */
genomestart 17
trait 1 0.511918 0.0413466 0.0613173 0 0.0555751 0.342583 0 0.460322 
trait 2 0.175 0 0.00115668 0.00319708 0.102591 0 0 0 
trait 3 0.278906 0 0 0.0431362 0.0126803 0.00725133 0 0 
node 1 1 1 1
node 2 2 1 1
node 3 3 1 1
node 4 3 0 2
gene 3 1 4 2.9784 0 1 2.9784 1
gene 2 2 4 1.56012 0 2 1.56012 0
gene 1 3 4 1.38707 0 3 1.38707 1
gene 3 4 4 -1.34007 1 61 -1.34007 1
genomeend 17

/* Organism #18 Fitness: 54.7416 Error: 595.258 */
genomestart 18
trait 1 0.557775 0.0585744 0.0868661 0 0.0694689 0.37945 0 0.515884 
trait 2 0.19375 0 0.00227631 0.000799269 0.0314676 0.00121046 0 0 
trait 3 0.240901 0 0.113868 0.0131805 0.00317007 0.00181283 0 0 
node 1 3 1 1
node 2 3 1 1
node 3 1 1 1
node 4 2 0 2
gene 3 1 4 0.576409 0 1 0.576409 1
gene 2 2 4 0.253217 0 2 0.253217 1
gene 1 3 4 0.701894 0 3 0.701894 1
gene 3 4 4 -1.25109 1 61 -1.25109 1
genomeend 18

/* Organism #19 Fitness: 7.48603 Error: 642.514 */
genomestart 19
trait 1 0.605807 0.06202 0.0919759 0 0.0817152 0.414616 0 0.562759 
trait 2 0.19375 0 0.0035961 0.00719342 0.0354331 0.000605232 0 0 
trait 3 0.240315 0 0.113868 0.0143787 0.00317007 0.00181283 0 0 
node 1 1 1 1
node 2 2 1 1
node 3 3 1 1
node 4 3 0 2
gene 3 1 4 1.8315 0 1 1.8315 1
gene 2 2 4 0.220681 0 2 0.220681 1
gene 2 3 4 0.492442 0 3 0.492442 1
gene 1 4 4 -1.20277 1 188 -1.20277 1
genomeend 19

/* Organism #20 Fitness: 313.34 Error: 336.66 */
genomestart 20
trait 1 0.1 0 0 0 0 0 0 0 
trait 2 0.218343 0.0273541 0.0162521 0.0305551 0.0811354 0.00726278 0 0 
trait 3 0.287549 0 0 0.0254624 0.00317007 0.00181283 0 0 
node 1 3 1 1
node 2 1 1 1
node 3 3 1 1
node 4 2 0 2
node 18 1 0 0
gene 3 1 4 1.97275 0 1 1.97275 1
gene 3 2 4 1.92908 0 2 1.92908 0
gene 3 3 4 0.305874 0 3 0.305874 0
gene 3 4 4 0.0403838 1 57 0.0403838 1
gene 3 3 18 -2.22055 0 158 -2.22055 1
gene 3 18 4 -0.211082 0 159 -0.211082 1
genomeend 20

/* Organism #21 Fitness: 21.9902 Error: 628.01 */
genomestart 21
trait 1 0.219654 0 0.151995 0 0 0 0 0 
trait 2 0.199797 0.0136771 0.0147289 0.0156772 0.0970945 0.0075654 0 0 
trait 3 0.289966 0 0 0.0205197 0.00634014 0.00362566 0 0 
node 1 3 1 1
node 2 1 1 1
node 3 3 1 1
node 4 2 0 2
node 18 1 0 0
gene 3 1 4 2.76764 0 1 2.76764 1
gene 3 2 4 0.460238 0 2 0.460238 1
gene 3 3 4 -1.51837 0 3 -1.51837 0
gene 3 4 4 1.64056 1 57 1.64056 1
gene 3 3 18 -1.18705 0 158 -1.18705 1
gene 3 18 4 2.67978 0 159 2.67978 1
genomeend 21

/* Organism #22 Fitness: 313.35 Error: 336.65 */
genomestart 22
trait 1 0.1 0 0 0 0 0 0 0 
trait 2 0.218343 0.0273541 0.0162521 0.0305551 0.0811354 0.00726278 0 0 
trait 3 0.287549 0 0 0.0254624 0.00317007 0.00181283 0 0 
node 1 3 1 1
node 2 1 1 1
node 3 3 1 1
node 4 2 0 2
node 18 1 0 0
gene 3 1 4 1.97275 0 1 1.97275 1
gene 3 2 4 1.92908 0 2 1.92908 0
gene 3 3 4 0.305874 0 3 0.305874 0
gene 3 4 4 0.0403838 1 57 0.0403838 1
gene 3 3 18 -2.22055 0 158 -2.22055 1
gene 3 18 4 -0.211082 0 159 -0.211082 1
gene 1 2 18 0.0200719 0 319 0.0200719 1
genomeend 22

/* Organism #23 Fitness: 283.216 Error: 366.784 */
genomestart 23
trait 1 0.1 0 0 0 0 0 0 0 
trait 2 0.218343 0.0273541 0.0162521 0.0305551 0.0811354 0.00726278 0 0 
trait 3 0.287549 0 0 0.0254624 0.00317007 0.00181283 0 0 
node 1 3 1 1
node 2 1 1 1
node 3 3 1 1
node 4 2 0 2
node 18 1 0 0
gene 3 1 4 3.1371 0 1 3.1371 1
gene 3 2 4 1.62931 0 2 1.62931 0
gene 3 3 4 -0.776905 0 3 -0.776905 0
gene 3 4 4 0.406439 1 57 0.406439 1
gene 3 3 18 -2.22055 0 158 -2.22055 1
gene 3 18 4 -1.07653 0 159 -1.07653 1
gene 1 1 18 0.847378 0 318 0 1
genomeend 23

/* Organism #24 Fitness: 294.944 Error: 355.056 */
genomestart 24
trait 1 0.1 0 0 0 0 0 0 0 
trait 2 0.218343 0.0273541 0.0162521 0.0305551 0.0811354 0.00726278 0 0 
trait 3 0.287549 0 0 0.0254624 0.00317007 0.00181283 0 0 
node 1 3 1 1
node 2 1 1 1
node 3 3 1 1
node 4 2 0 2
node 18 1 0 0
gene 3 1 4 3.1371 0 1 3.1371 1
gene 3 2 4 1.92908 0 2 1.92908 0
gene 3 3 4 -0.776905 0 3 -0.776905 0
gene 3 4 4 0.406439 1 57 0.406439 1
gene 3 3 18 -1.42543 0 158 -1.42543 1
gene 3 18 4 -1.07653 0 159 -1.07653 1
genomeend 24

/* Organism #25 Fitness: 150.676 Error: 499.324 */
genomestart 25
trait 1 0.1 0 0 0 0 0 0 0 
trait 2 0.218343 0.0273541 0.0162521 0.0305551 0.0811354 0.00726278 0 0 
trait 3 0.287549 0 0 0.0254624 0.00317007 0.00181283 0 0 
node 1 3 1 1
node 2 1 1 1
node 3 3 1 1
node 4 2 0 2
node 18 1 0 0
gene 3 1 4 2.79698 0 1 2.79698 1
gene 3 2 4 0.541963 0 2 0.541963 0
gene 3 3 4 -0.776905 0 3 -0.776905 0
gene 3 4 4 -0.712453 1 57 -0.712453 1
gene 3 3 18 0.104876 0 158 0.104876 1
gene 3 18 4 -1.69093 0 159 -1.69093 1
genomeend 25

/* Organism #26 Fitness: 35.6669 Error: 614.333 */
genomestart 26
trait 1 0.219654 0 0.151995 0 0 0 0 0 
trait 2 0.190422 0.0136771 0.0133831 0.0160768 0.130342 0.00665755 0 0 
trait 3 0.290845 0 0 0.0187223 0.0110953 0.00634491 0 0 
node 1 2 1 1
node 2 2 1 1
node 3 1 1 1
node 4 1 0 2
node 18 1 0 0
gene 3 1 4 1.21198 0 1 1.21198 1
gene 3 2 4 1.63263 0 2 1.63263 0
gene 3 3 4 1.28685 0 3 1.28685 0
gene 3 4 4 -1.27864 1 57 -1.27864 1
gene 3 3 18 -3.143 0 158 -3.143 1
gene 3 18 4 -0.54644 0 159 -0.54644 1
genomeend 26

/* Organism #27 Fitness: 28.3066 Error: 621.693 */
genomestart 27
trait 1 0.1 0 0 0 0 0 0 0 
trait 2 0.222929 0.0341926 0.0163408 0.0381939 0.0897794 0.00665755 0 0 
trait 3 0.28678 0 0 0.027035 0.00396259 0.00226604 0 0 
node 1 2 1 1
node 2 1 1 1
node 3 3 1 1
node 4 2 0 2
node 18 1 0 0
gene 3 1 4 2.45896 0 1 2.45896 1
gene 1 2 4 -0.485308 0 2 -0.485308 1
gene 3 3 4 -0.449169 0 3 -0.449169 0
gene 3 4 4 1.2429 1 57 1.2429 1
gene 3 3 18 -1.14464 0 158 -1.14464 1
gene 3 18 4 0.193722 0 159 0.193722 1
genomeend 27

/* Organism #28 Fitness: 289.913 Error: 360.087 */
genomestart 28
trait 1 0.1 0 0 0 0 0 0 0 
trait 2 0.1625 0 0.000993573 0 0.15164 0.000605232 0 0 
trait 3 0.299414 0 0 0.00119823 0.0951022 0.0543849 0 0 
node 1 2 1 1
node 2 2 1 1
node 3 1 1 1
node 4 1 0 2
node 10 1 0 0
gene 1 1 4 4.02999 0 1 4.02999 1
gene 3 2 4 -0.173751 0 2 -0.173751 1
gene 3 3 4 -1.11289 0 3 -1.11289 1
gene 3 2 10 -1.56108 0 55 -1.56108 1
gene 3 10 4 3.07931 0 56 3.07931 1
genomeend 28

/* Organism #29 Fitness: 18.3851 Error: 631.615 */
genomestart 29
trait 1 0.1 0 0 0 0 0 0 0 
trait 2 0.2 0 0.0138801 0.0383649 0.0412528 0 0 0 
trait 3 0.640625 0 0 0.0191717 0 0 0.198051 0 
node 1 3 1 1
node 2 1 1 1
node 3 3 1 1
node 4 2 0 2
node 5 1 0 0
gene 2 1 4 1.27955 0 1 1.27955 0
gene 1 2 4 0.747943 0 2 0.747943 1
gene 1 3 4 -1.50014 0 3 -1.50014 1
gene 2 1 5 -1.73005 0 4 -1.73005 1
gene 2 5 4 -1.47379 0 5 -1.47379 1
gene 2 4 4 -1.5815 1 73 -1.5815 1
gene 3 2 5 -3.00785 0 112 -3.00785 1
genomeend 29

/* Organism #30 Fitness: 13.3345 Error: 636.666 */
genomestart 30
trait 1 0.1 0 0 0 0 0 0 0 
trait 2 0.2 0 0.0138801 0.0383649 0.0412528 0 0 0 
trait 3 0.640625 0 0 0.0191717 0 0 0.198051 0 
node 1 3 1 1
node 2 1 1 1
node 3 3 1 1
node 4 2 0 2
node 5 1 0 0
gene 2 1 4 1.7026 0 1 1.7026 0
gene 1 2 4 0.56879 0 2 0.56879 1
gene 1 3 4 -1.20642 0 3 -1.20642 1
gene 2 1 5 3.82812 0 4 3.82812 1
gene 2 5 4 5.52231 0 5 5.52231 1
gene 2 4 4 1.40547 1 73 1.40547 1
gene 3 2 5 -1.04387 0 112 -1.04387 1
genomeend 30

/* Organism #31 Fitness: 285.4 Error: 364.6 */
genomestart 31
trait 1 0.1 0 0 0 0 0 0 0 
trait 2 0.1 0 0.00462671 0.0127883 0.410364 0 0 0 
trait 3 0.3 0 0 0 0.0507212 0.0290053 0 0 
node 1 3 1 1
node 2 1 1 1
node 3 3 1 1
node 4 2 0 2
node 5 1 0 0
gene 1 1 4 2.54632 0 1 2.54632 1
gene 3 2 4 1.93119 0 2 1.93119 0
gene 1 3 4 1.92876 0 3 1.92876 1
gene 2 1 5 0.955488 0 4 0.955488 1
gene 2 5 4 1.75029 0 5 1.75029 1
gene 1 5 5 0.479044 1 217 0.479044 1
genomeend 31

/* Organism #32 Fitness: 219.841 Error: 430.159 */
genomestart 32
trait 1 0.20298 0.0103367 0.0153293 0 0.0138938 0.0856458 0 0.11508 
trait 2 0.51887 0 0.00173502 0.356687 0.153886 0 0 0.029014 
trait 3 0.299414 0 0 0.00119823 0.0221905 0.0126898 0 0 
node 1 3 1 1
node 2 1 1 1
node 3 3 1 1
node 4 2 0 2
node 5 1 0 0
gene 3 1 4 1.49484 0 1 1.49484 1
gene 3 2 4 1.39509 0 2 1.39509 0
gene 3 3 4 0.583627 0 3 0.583627 0
gene 2 1 5 1.26289 0 4 1.26289 1
gene 2 5 4 4.29401 0 5 4.29401 1
gene 2 3 5 -0.294219 0 206 0 1
gene 3 2 5 0.832799 0 285 0 1
genomeend 32

/* Organism #33 Fitness: 213.488 Error: 436.512 */
genomestart 33
trait 1 0.1 0.00114852 0.00170326 0 0 0.00179608 0 0.000253133 
trait 2 0.2 0 0.000578339 0.00159854 0.00171887 0 0 0 
trait 3 0.286963 0 0 0.0266606 0.10843 0 0.090704 0 
node 1 1 1 1
node 2 1 1 1
node 3 3 1 1
node 4 2 0 2
gene 1 1 4 3.22322 0 1 3.22322 1
gene 3 2 4 1.49161 0 2 1.49161 0
gene 1 3 4 -4.9289 0 3 -4.9289 1
genomeend 33

/* Organism #34 Fitness: 285.712 Error: 364.288 */
genomestart 34
trait 1 0.1 0 0 0 0 0 0 0 
trait 2 0.1 0 0 0 0 0 0 0.472805 
trait 3 0.261914 0 0 0.0778848 0 0 0 0 
node 1 3 1 1
node 2 1 1 1
node 3 3 1 1
node 4 2 0 2
gene 2 1 4 3.62608 0 1 3.62608 1
gene 3 2 4 2.24501 0 2 2.24501 0
gene 3 3 4 -4.63715 0 3 -4.63715 1
gene 3 4 4 0.52402 1 268 0.52402 1
genomeend 34

/* Organism #35 Fitness: 264.888 Error: 385.112 */
genomestart 35
trait 1 0.1 0 0 0 0 0 0 0 
trait 2 0.2 0 0 0 0 0 0 0 
trait 3 0.254297 0 0 0.0934618 0 0 0 0 
node 1 3 1 1
node 2 1 1 1
node 3 3 1 1
node 4 2 0 2
gene 2 1 4 2.457 0 1 2.457 1
gene 3 2 4 2.8506 0 2 2.8506 0
gene 3 3 4 -4.30942 0 3 -4.30942 1
gene 3 4 4 -0.803994 1 268 -0.803994 1
genomeend 35

/* Organism #36 Fitness: 27.1369 Error: 622.863 */
genomestart 36
trait 1 0.1 0.0768771 0.0163299 0 0 0.0673371 0 0 
trait 2 0.1625 0 0.000993573 0 0.15164 0.000605232 0 0 
trait 3 0.280664 0 0 0.0395415 0.044381 0.0253796 0 0 
node 1 1 1 1
node 2 3 1 1
node 3 2 1 1
node 4 3 0 2
gene 2 1 4 1.53413 0 1 1.53413 1
gene 3 2 4 -0.668584 0 2 -0.668584 0
gene 3 3 4 -1.54486 0 3 -1.54486 1
gene 1 4 4 1.16578 1 122 1.16578 1
genomeend 36

/* Organism #37 Fitness: 320.904 Error: 329.096 */
genomestart 37
trait 1 0.1 0.0814712 0.0231429 0 0 0.0745214 0 0.00101253 
trait 2 0.2 0 0 0 0 0 0 0 
trait 3 0.2625 0.582772 0.674492 0 0.064694 0 0 0 
node 1 1 1 1
node 2 3 1 1
node 3 2 1 1
node 4 3 0 2
gene 2 1 4 2.38016 0 1 2.38016 1
gene 1 2 4 6.2338 0 2 6.2338 0
gene 3 3 4 -2.79208 0 3 -2.79208 1
genomeend 37

/* Organism #38 Fitness: 290.583 Error: 359.417 */
genomestart 38
trait 1 0.1 0.0384386 0.00816496 0 0 0.0336686 0 0 
trait 2 0.2 0 0 0 0 0 0 0 
trait 3 0.269531 0 0 0.0623079 0 0 0 0 
node 1 3 1 1
node 2 1 1 1
node 3 3 1 1
node 4 2 0 2
node 11 1 0 0
gene 2 1 4 1.61061 0 1 1.61061 1
gene 3 2 4 1.80895 0 2 1.80895 1
gene 3 3 4 -2.09299 0 3 -2.09299 0
gene 3 3 11 1.079 0 63 1.079 1
gene 3 11 4 -0.925251 0 64 -0.925251 1
gene 2 4 4 0.199989 1 189 0.199989 1
gene 1 1 11 -1.27447 0 228 -1.27447 1
gene 3 2 11 -0.114592 0 303 -0.114592 1
genomeend 38

/* Organism #39 Fitness: 331.688 Error: 318.312 */
genomestart 39
trait 1 0.923836 0.0826933 0.122635 0 0.11115 0.685166 0 0.920643 
trait 2 0.2 0 0 0 0 0 0 0 
trait 3 0.0893835 0 0.455472 0 0 0 0 0 
node 1 1 1 1
node 2 2 1 1
node 3 3 1 1
node 4 3 0 2
gene 3 1 4 3.5124 0 1 3.5124 1
gene 2 2 4 1.62285 0 2 1.62285 1
gene 2 3 4 -1.21662 0 3 -1.21662 1
gene 3 4 4 -0.273414 1 61 -0.273414 1
genomeend 39

/* Organism #40 Fitness: 206.669 Error: 443.331 */
genomestart 40
trait 1 0.1 0 0 0 0 0 0 0 
trait 2 0.2 0 0.0740274 0.204613 0.220015 0 0 0 
trait 3 0.3 0 0 0 0 0 0 0 
node 1 1 1 1
node 2 2 1 1
node 3 1 1 1
node 4 2 0 2
node 5 1 0 0
gene 2 1 4 1.15125 0 1 1.15125 1
gene 1 2 4 -0.336629 0 2 -0.336629 1
gene 3 3 4 -0.825256 0 3 -0.825256 1
gene 2 1 5 8 0 4 8 1
gene 2 5 4 2.43766 0 5 2.43766 1
gene 3 3 5 0.900182 0 154 0.900182 1
genomeend 40

/* Organism #41 Fitness: 316.575 Error: 333.425 */
genomestart 41
trait 1 0.1 0 0 0 0 0 0 0 
trait 2 0.2 0.0135847 0.00231336 0.00639416 0.00687547 0.123418 0 0 
trait 3 0.29842 0.0973917 0.346012 0.419051 0.109498 0.29195 0.123279 0 
node 1 1 1 1
node 2 1 1 1
node 3 3 1 1
node 4 3 0 2
node 5 1 0 0
gene 2 1 4 2.09036 0 1 2.09036 1
gene 1 2 4 0.589308 0 2 0.589308 1
gene 1 3 4 -1.05322 0 3 -1.05322 1
gene 2 1 5 3.78005 0 4 3.78005 0
gene 2 5 4 1.36316 0 5 1.36316 1
gene 1 5 5 2.27788 1 62 2.27788 1
gene 2 3 5 2.86785 0 66 2.86785 0
genomeend 41

/* Organism #42 Fitness: 176.156 Error: 473.844 */
genomestart 42
trait 1 0.1 0 0 0 0 0 0 0 
trait 2 0.2 0.0135847 0.00231336 0.00639416 0.00687547 0.123418 0 0 
trait 3 0.29842 0.0973917 0.346012 0.419051 0.109498 0.29195 0.123279 0 
node 1 1 1 1
node 2 1 1 1
node 3 3 1 1
node 4 3 0 2
node 5 1 0 0
gene 2 1 4 1.29786 0 1 1.29786 1
gene 1 2 4 0.720144 0 2 0.720144 1
gene 1 3 4 -0.969774 0 3 -0.969774 1
gene 2 1 5 4.00956 0 4 4.00956 0
gene 2 5 4 0.66953 0 5 0.66953 1
gene 1 5 5 3.51846 1 62 3.51846 1
gene 2 3 5 1.11302 0 66 1.11302 0
genomeend 42

/* Organism #43 Fitness: 285.901 Error: 364.099 */
genomestart 43
trait 1 0.1 0 0 0 0 0 0 0 
trait 2 0.2 0.0135847 0.00231336 0.00639416 0.00687547 0.123418 0 0 
trait 3 0.29842 0.0973917 0.346012 0.419051 0.109498 0.29195 0.123279 0 
node 1 1 1 1
node 2 1 1 1
node 3 3 1 1
node 4 3 0 2
node 5 1 0 0
gene 2 1 4 2.30572 0 1 2.30572 1
gene 1 2 4 0.589308 0 2 0.589308 1
gene 1 3 4 -1.05322 0 3 -1.05322 1
gene 2 1 5 5.2555 0 4 5.2555 0
gene 2 5 4 -0.1767 0 5 -0.1767 1
gene 1 5 5 2.22981 1 62 2.22981 1
gene 2 3 5 2.86785 0 66 2.86785 0
genomeend 43

/* Organism #44 Fitness: 177.091 Error: 472.909 */
genomestart 44
trait 1 0.1 0 0 0 0 0 0 0 
trait 2 0.2 0.0135847 0.00231336 0.00639416 0.00687547 0.123418 0 0 
trait 3 0.29842 0.0973917 0.346012 0.419051 0.109498 0.29195 0.123279 0 
node 1 1 1 1
node 2 1 1 1
node 3 3 1 1
node 4 3 0 2
node 5 1 0 0
gene 2 1 4 1.43618 0 1 1.43618 1
gene 1 2 4 1.31602 0 2 1.31602 1
gene 1 3 4 -1.89202 0 3 -1.89202 1
gene 2 1 5 3.50937 0 4 3.50937 0
gene 2 5 4 0.420008 0 5 0.420008 1
gene 1 5 5 0.44823 1 62 0.44823 1
gene 2 3 5 2.38081 0 66 2.38081 1
genomeend 44

/* Organism #45 Fitness: 339.698 Error: 310.302 */
genomestart 45
trait 1 0.1 0 0 0 0 0 0 0 
trait 2 0.1 0 0.00462671 0.0127883 0.410364 0 0 0 
trait 3 0.3 0 0 0 0.0507212 0.0290053 0 0 
node 1 3 1 1
node 2 1 1 1
node 3 3 1 1
node 4 1 0 2
node 5 1 0 0
gene 1 1 4 2.03126 0 1 2.03126 1
gene 3 2 4 0.503683 0 2 0.503683 0
gene 1 3 4 -1.60227 0 3 -1.60227 1
gene 2 1 5 1.67273 0 4 1.67273 0
gene 2 5 4 4.92977 0 5 4.92977 1
gene 2 3 5 -0.529248 0 206 -0.529248 1
genomeend 45

/* Organism #46 Fitness: 292.977 Error: 357.023 */
genomestart 46
trait 1 0.1 0 0 0 0 0 0 0 
trait 2 0.1 0 0.00462671 0.0127883 0.410364 0 0 0 
trait 3 0.3 0 0 0 0.0507212 0.0290053 0 0 
node 1 3 1 1
node 2 1 1 1
node 3 3 1 1
node 4 1 0 2
node 5 1 0 0
gene 1 1 4 2.03126 0 1 2.03126 1
gene 3 2 4 0.503683 0 2 0.503683 0
gene 1 3 4 -1.60227 0 3 -1.60227 1
gene 2 1 5 1.67273 0 4 1.67273 0
gene 2 5 4 4.92977 0 5 4.92977 1
gene 2 3 5 -0.529248 0 206 -0.529248 1
gene 3 2 5 -0.641186 0 315 0 1
genomeend 46

/* Organism #47 Fitness: 312.9 Error: 337.1 */
genomestart 47
trait 1 0.1 0 0 0 0 0 0 0 
trait 2 0.1 0 0.00462671 0.0127883 0.410364 0 0 0 
trait 3 0.3 0 0 0 0.0507212 0.0290053 0 0 
node 1 3 1 1
node 2 1 1 1
node 3 3 1 1
node 4 1 0 2
node 5 1 0 0
gene 1 1 4 2.33024 0 1 2.33024 1
gene 3 2 4 1.46905 0 2 1.46905 0
gene 1 3 4 -1.77927 0 3 -1.77927 1
gene 2 1 5 3.28113 0 4 3.28113 0
gene 2 5 4 6.51736 0 5 6.51736 1
gene 2 3 5 -0.885042 0 206 -0.885042 1
genomeend 47

/* Organism #48 Fitness: 331.03 Error: 318.97 */
genomestart 48
trait 1 0.1 0 0 0 0 0 0 0 
trait 2 0.1 0 0.00462671 0.0127883 0.410364 0 0 0 
trait 3 0.3 0 0 0 0.0507212 0.0290053 0 0 
node 1 1 1 1
node 2 1 1 1
node 3 3 1 1
node 4 1 0 2
node 5 1 0 0
gene 1 1 4 2.03126 0 1 2.03126 1
gene 3 2 4 0.503683 0 2 0.503683 0
gene 1 3 4 -1.60227 0 3 -1.60227 0
gene 2 1 5 1.67273 0 4 1.67273 0
gene 2 5 4 4.92977 0 5 4.92977 1
gene 2 3 5 -0.529248 0 206 -0.529248 1
genomeend 48

/* Organism #49 Fitness: 296.769 Error: 353.231 */
genomestart 49
trait 1 0.1 0 0 0 0 0 0 0 
trait 2 0.1 0 0.00462671 0.0127883 0.410364 0 0 0 
trait 3 0.3 0 0 0 0.0507212 0.0290053 0 0 
node 1 3 1 1
node 2 1 1 1
node 3 3 1 1
node 4 1 0 2
node 5 1 0 0
gene 1 1 4 2.03126 0 1 2.03126 1
gene 3 2 4 0.503683 0 2 0.503683 0
gene 1 3 4 -1.60227 0 3 -1.60227 1
gene 2 1 5 1.67273 0 4 1.67273 0
gene 2 5 4 4.92977 0 5 4.92977 1
gene 2 3 5 -0.529248 0 206 -0.529248 1
gene 3 2 5 -0.641186 0 315 0 1
genomeend 49

/* Organism #50 Fitness: 115.8 Error: 534.2 */
genomestart 50
trait 1 0.1 0 0 0 0 0 0 0 
trait 2 0.1 0 0.00462671 0.0127883 0.410364 0 0 0 
trait 3 0.3 0 0 0 0.0507212 0.0290053 0 0 
node 1 3 1 1
node 2 1 1 1
node 3 3 1 1
node 4 1 0 2
node 5 1 0 0
gene 1 1 4 3.12339 0 1 3.12339 1
gene 3 2 4 1.9973 0 2 1.9973 0
gene 1 3 4 -0.0724353 0 3 -0.0724353 1
gene 2 1 5 1.67273 0 4 1.67273 0
gene 2 5 4 4.17266 0 5 4.17266 1
gene 2 3 5 -0.590943 0 206 -0.590943 1
genomeend 50

/* Organism #51 Fitness: 178.963 Error: 471.037 */
genomestart 51
trait 1 0.1 0 0 0 0 0 0 0 
trait 2 0.1 0 0.00462671 0.0127883 0.410364 0 0 0 
trait 3 0.3 0 0 0 0.0507212 0.0290053 0 0 
node 1 3 1 1
node 2 1 1 1
node 3 3 1 1
node 4 1 0 2
node 5 1 0 0
gene 1 1 4 1.36494 0 1 1.36494 1
gene 3 2 4 1.93192 0 2 1.93192 0
gene 1 3 4 -0.87843 0 3 -0.87843 1
gene 2 1 5 3.34351 0 4 3.34351 0
gene 2 5 4 4.90706 0 5 4.90706 1
gene 2 3 5 -1.53576 0 206 -1.53576 1
genomeend 51

/* Organism #52 Fitness: 331.81 Error: 318.19 */
genomestart 52
trait 1 0.1 0 0 0 0 0 0 0 
trait 2 0.1 0 0.00462671 0.0127883 0.410364 0 0 0 
trait 3 0.3 0 0 0 0.0507212 0.0290053 0 0 
node 1 3 1 1
node 2 1 1 1
node 3 3 1 1
node 4 1 0 2
node 5 1 0 0
gene 1 1 4 2.03126 0 1 2.03126 1
gene 3 2 4 0.503683 0 2 0.503683 0
gene 1 3 4 -1.60227 0 3 -1.60227 1
gene 2 1 5 1.67273 0 4 1.67273 0
gene 2 5 4 4.92977 0 5 4.92977 1
gene 2 3 5 -0.529248 0 206 -0.529248 1
gene 3 2 5 -0.641186 0 315 0 1
genomeend 52

/* Organism #53 Fitness: 225.742 Error: 424.258 */
genomestart 53
trait 1 0.1 0 0 0 0 0 0 0 
trait 2 0.1 0 0.00462671 0.0127883 0.410364 0 0 0 
trait 3 0.3 0 0 0 0.0507212 0.0290053 0 0 
node 1 3 1 1
node 2 1 1 1
node 3 3 1 1
node 4 1 0 2
node 5 1 0 0
gene 1 1 4 3.393 0 1 3.393 1
gene 3 2 4 0.618924 0 2 0.618924 0
gene 1 3 4 -1.53878 0 3 -1.53878 1
gene 2 1 5 0.602737 0 4 0.602737 0
gene 2 5 4 3.21283 0 5 3.21283 1
gene 2 3 5 -1.01433 0 206 -1.01433 1
genomeend 53

/* Organism #54 Fitness: 342.706 Error: 307.294 */
genomestart 54
trait 1 0.1 0 0 0 0 0 0 0 
trait 2 0.1 0 0.00462671 0.0127883 0.410364 0 0 0 
trait 3 0.3 0 0 0 0.0507212 0.0290053 0 0 
node 1 3 1 1
node 2 1 1 1
node 3 3 1 1
node 4 1 0 2
node 5 1 0 0
gene 1 1 4 2.03126 0 1 2.03126 1
gene 3 2 4 0.503683 0 2 0.503683 0
gene 1 3 4 -1.60227 0 3 -1.60227 1
gene 2 1 5 1.67273 0 4 1.67273 0
gene 2 5 4 4.92977 0 5 4.92977 1
gene 2 3 5 -0.529248 0 206 -0.529248 1
gene 3 2 5 -0.641186 0 315 0 1
genomeend 54

/* Organism #55 Fitness: 320.108 Error: 329.892 */
genomestart 55
trait 1 0.1 0 0 0 0 0 0 0 
trait 2 0.1 0 0.00462671 0.0127883 0.410364 0 0 0 
trait 3 0.3 0 0 0 0.0507212 0.0290053 0 0 
node 1 3 1 1
node 2 1 1 1
node 3 3 1 1
node 4 1 0 2
node 5 1 0 0
gene 1 1 4 2.03126 0 1 2.03126 1
gene 3 2 4 0.503683 0 2 0.503683 0
gene 1 3 4 -1.60227 0 3 -1.60227 1
gene 2 1 5 1.67273 0 4 1.67273 0
gene 2 5 4 4.92977 0 5 4.92977 1
gene 2 3 5 -0.529248 0 206 -0.529248 1
gene 3 2 5 -0.641186 0 315 0 1
genomeend 55

/* Organism #56 Fitness: 303.891 Error: 346.109 */
genomestart 56
trait 1 0.1 0 0 0 0 0 0 0 
trait 2 0.1 0 0.00462671 0.0127883 0.410364 0 0 0 
trait 3 0.3 0 0 0 0.0507212 0.0290053 0 0 
node 1 3 1 1
node 2 1 1 1
node 3 3 1 1
node 4 1 0 2
node 5 1 0 0
gene 1 1 4 2.03126 0 1 2.03126 1
gene 3 2 4 0.503683 0 2 0.503683 0
gene 1 3 4 -1.60227 0 3 -1.60227 1
gene 2 1 5 1.67273 0 4 1.67273 0
gene 2 5 4 4.92977 0 5 4.92977 1
gene 2 3 5 -0.529248 0 206 -0.529248 1
gene 3 2 5 -0.641186 0 315 0 1
genomeend 56

/* Organism #57 Fitness: 322.549 Error: 327.451 */
genomestart 57
trait 1 0.1 0 0 0 0 0 0 0 
trait 2 0.1 0 0.00462671 0.0127883 0.410364 0 0 0 
trait 3 0.3 0 0 0 0.0507212 0.0290053 0 0 
node 1 3 1 1
node 2 1 1 1
node 3 3 1 1
node 4 1 0 2
node 5 1 0 0
gene 1 1 4 2.03126 0 1 2.03126 1
gene 3 2 4 0.503683 0 2 0.503683 0
gene 1 3 4 -1.60227 0 3 -1.60227 1
gene 2 1 5 1.67273 0 4 1.67273 0
gene 2 5 4 4.92977 0 5 4.92977 1
gene 2 3 5 -0.529248 0 206 -0.529248 1
gene 3 2 5 -0.641186 0 315 0 1
genomeend 57

/* Organism #58 Fitness: 263.883 Error: 386.117 */
genomestart 58
trait 1 0.1 0 0 0 0 0 0 0 
trait 2 0.1 0 0.00462671 0.0127883 0.410364 0 0 0 
trait 3 0.3 0 0 0 0.0507212 0.0290053 0 0 
node 1 3 1 1
node 2 1 1 1
node 3 3 1 1
node 4 1 0 2
node 5 2 0 0
gene 1 1 4 2.83387 0 1 2.83387 1
gene 3 2 4 1.83702 0 2 1.83702 0
gene 1 3 4 -1.38114 0 3 -1.38114 1
gene 2 1 5 2.88998 0 4 2.88998 0
gene 2 5 4 5.30994 0 5 5.30994 1
gene 2 3 5 -0.529248 0 206 -0.529248 1
genomeend 58

/* Species #2 : (Size 13) (AF 237.67) (Age 11)  */


/* Organism #59 Fitness: 297.334 Error: 352.666 */
genomestart 59
trait 1 0.1 0 0 0 0 0 0 0 
trait 2 0.2 0 0.0138801 0.0383649 0.0412528 0 0 0 
trait 3 0.271875 0.0328991 0.12454 0.307837 0.145998 0.29195 0.147993 0 
node 1 1 1 1
node 2 3 1 1
node 3 1 1 1
node 4 2 0 2
node 5 1 0 0
gene 2 1 4 2.06376 0 1 2.06376 1
gene 1 2 4 3.56577 0 2 3.56577 1
gene 3 3 4 -4.23521 0 3 -4.23521 1
gene 2 1 5 1.07073 0 4 1.07073 0
gene 2 5 4 -1.43816 0 5 -1.43816 1
gene 3 4 4 0.44044 1 120 0.44044 1
gene 3 2 5 0.929402 0 182 0 1
genomeend 59

/* Organism #60 Fitness: 33.2193 Error: 616.781 */
genomestart 60
trait 1 0.1 0 0 0 0 0 0 0 
trait 2 0.2 0 0.0138801 0.0383649 0.0412528 0 0 0 
trait 3 0.271875 0.0328991 0.12454 0.307837 0.145998 0.29195 0.147993 0 
node 1 1 1 1
node 2 3 1 1
node 3 1 1 1
node 4 2 0 2
node 5 1 0 0
gene 2 1 4 2.06376 0 1 2.06376 1
gene 1 2 4 4.54676 0 2 4.54676 1
gene 3 3 4 -4.23521 0 3 -4.23521 1
gene 2 1 5 1.16104 0 4 1.16104 0
gene 2 5 4 -0.180485 0 5 -0.180485 1
gene 3 4 4 1.16441 1 120 1.16441 1
gene 3 2 5 -0.360759 0 182 -0.360759 1
genomeend 60

/* Organism #61 Fitness: 286.075 Error: 363.925 */
genomestart 61
trait 1 0.1 0 0 0 0 0 0 0 
trait 2 0.2 0 0.0138801 0.0383649 0.0412528 0 0 0 
trait 3 0.271875 0.0328991 0.12454 0.307837 0.145998 0.29195 0.147993 0 
node 1 1 1 1
node 2 3 1 1
node 3 1 1 1
node 4 2 0 2
node 5 1 0 0
gene 2 1 4 2.60567 0 1 2.60567 1
gene 1 2 4 4.10413 0 2 4.10413 1
gene 3 3 4 -4.67633 0 3 -4.67633 1
gene 2 1 5 0.527434 0 4 0.527434 0
gene 2 5 4 -1.3044 0 5 -1.3044 1
gene 3 4 4 0.44044 1 120 0.44044 1
gene 2 3 5 0.0117983 0 235 0.0117983 1
genomeend 61

/* Organism #62 Fitness: 276.87 Error: 373.13 */
genomestart 62
trait 1 0.1 0.00989677 0.00246705 0 0 0.00886616 0 6.32832e-05 
trait 2 0.2 0 0.0121451 0.0335693 0.0360962 0 0 0 
trait 3 0.271143 0.0287867 0.108973 0.278044 0.130918 0.257269 0.129494 0 
node 1 1 1 1
node 2 3 1 1
node 3 1 1 1
node 4 2 0 2
node 5 1 0 0
gene 2 1 4 3.14758 0 1 3.14758 1
gene 1 2 4 3.56577 0 2 3.56577 1
gene 3 3 4 -5.11744 0 3 -5.11744 0
gene 2 1 5 1.07073 0 4 1.07073 0
gene 2 5 4 -1.17064 0 5 -1.17064 1
gene 3 4 4 0.44044 1 120 0.44044 1
gene 3 2 5 -0.641186 0 315 0 1
genomeend 62

/* Organism #63 Fitness: 364.064 Error: 285.936 */
genomestart 63
trait 1 0.1 0 0 0 0 0 0 0 
trait 2 0.2 0 0.0138801 0.0383649 0.0412528 0 0 0 
trait 3 0.271875 0.0328991 0.12454 0.307837 0.145998 0.29195 0.147993 0 
node 1 1 1 1
node 2 3 1 1
node 3 1 1 1
node 4 2 0 2
node 5 1 0 0
gene 2 1 4 2.87717 0 1 2.87717 1
gene 1 2 4 4.24112 0 2 4.24112 1
gene 3 3 4 -4.23592 0 3 -4.23592 1
gene 2 1 5 -0.363077 0 4 -0.363077 0
gene 2 5 4 -2.47649 0 5 -2.47649 1
gene 3 4 4 0.0666533 1 120 0.0666533 1
gene 2 3 5 1.23413 0 235 1.23413 1
genomeend 63

/* Organism #64 Fitness: 233.216 Error: 416.784 */
genomestart 64
trait 1 0.1 0.00989677 0.00246705 0 0 0.00886616 0 6.32832e-05 
trait 2 0.2 0 0.0121451 0.0335693 0.0360962 0 0 0 
trait 3 0.271143 0.0287867 0.108973 0.278044 0.130918 0.257269 0.129494 0 
node 1 1 1 1
node 2 3 1 1
node 3 1 1 1
node 4 2 0 2
node 5 1 0 0
gene 2 1 4 2.87662 0 1 2.87662 1
gene 1 2 4 4.37332 0 2 4.37332 1
gene 3 3 4 -4.89688 0 3 -4.89688 0
gene 2 1 5 0.79908 0 4 0.79908 0
gene 2 5 4 -1.23752 0 5 -1.23752 1
gene 3 4 4 0.44044 1 120 0.44044 1
gene 2 3 5 0.0117983 0 235 0.0117983 1
gene 3 2 5 -0.641186 0 315 0 1
genomeend 64

/* Organism #65 Fitness: 312.158 Error: 337.842 */
genomestart 65
trait 1 0.1 0.0197935 0.00493411 0 0 0.0177323 0 0.000126566 
trait 2 0.2 0 0.0104101 0.0287737 0.0309396 0 0 0 
trait 3 0.27041 0.0246743 0.0934051 0.248252 0.115838 0.222588 0.110995 0 
node 1 1 1 1
node 2 3 1 1
node 3 1 1 1
node 4 2 0 2
node 5 1 0 0
gene 2 1 4 3.8565 0 1 3.8565 1
gene 1 2 4 4.82028 0 2 4.82028 1
gene 3 3 4 -3.68633 0 3 -3.68633 0
gene 2 1 5 0.679131 0 4 0.679131 0
gene 2 5 4 -1.78967 0 5 -1.78967 1
gene 3 4 4 0.137692 1 120 0.137692 1
genomeend 65

/* Organism #66 Fitness: 339.803 Error: 310.197 */
genomestart 66
trait 1 0.1 0.0197935 0.00493411 0 0 0.0177323 0 0.000126566 
trait 2 0.2 0 0.0104101 0.0287737 0.0309396 0 0 0 
trait 3 0.27041 0.0246743 0.0934051 0.248252 0.115838 0.222588 0.110995 0 
node 1 1 1 1
node 2 3 1 1
node 3 1 1 1
node 4 2 0 2
node 5 1 0 0
gene 2 1 4 3.14758 0 1 3.14758 1
gene 1 2 4 4.6425 0 2 4.6425 1
gene 3 3 4 -3.64967 0 3 -3.64967 0
gene 2 1 5 1.07073 0 4 1.07073 0
gene 1 5 4 0.0864456 0 5 0.0864456 1
gene 3 4 4 0.44044 1 120 0.44044 1
genomeend 66

/* Organism #67 Fitness: 283.774 Error: 366.226 */
genomestart 67
trait 1 0.1 0.0197935 0.00493411 0 0 0.0177323 0 0.000126566 
trait 2 0.2 0 0.0104101 0.0287737 0.0309396 0 0 0 
trait 3 0.27041 0.0246743 0.0934051 0.248252 0.115838 0.222588 0.110995 0 
node 1 1 1 1
node 2 3 1 1
node 3 1 1 1
node 4 2 0 2
node 5 1 0 0
gene 2 1 4 3.5989 0 1 3.5989 1
gene 3 2 4 3.76896 0 2 3.76896 1
gene 3 3 4 -3.64967 0 3 -3.64967 0
gene 2 1 5 -0.544262 0 4 -0.544262 0
gene 1 5 4 0.0864456 0 5 0.0864456 1
gene 3 4 4 0.623026 1 120 0.623026 1
gene 1 2 5 -1.07637 0 225 -1.07637 1
gene 3 3 5 -0.822688 0 320 -0.822688 1
genomeend 67

/* Organism #68 Fitness: 315.843 Error: 334.157 */
genomestart 68
trait 1 0.1 0.00989677 0.00246705 0 0 0.00886616 0 6.32832e-05 
trait 2 0.2 0 0.0121451 0.0335693 0.0360962 0 0 0 
trait 3 0.271143 0.0287867 0.108973 0.278044 0.130918 0.257269 0.129494 0 
node 1 1 1 1
node 2 3 1 1
node 3 1 1 1
node 4 2 0 2
node 5 1 0 0
gene 2 1 4 2.87662 0 1 2.87662 1
gene 1 2 4 4.37332 0 2 4.37332 1
gene 3 3 4 -4.89688 0 3 -4.89688 0
gene 2 1 5 0.79908 0 4 0.79908 0
gene 2 5 4 -1.23752 0 5 -1.23752 1
gene 3 4 4 0.44044 1 120 0.44044 1
gene 2 3 5 0.0117983 0 235 0.0117983 1
gene 3 2 5 -0.641186 0 315 0 1
genomeend 68

/* Organism #69 Fitness: 28.0726 Error: 621.927 */
genomestart 69
trait 1 0.1 0.0197935 0.00493411 0 0 0.0177323 0 0.000126566 
trait 2 0.2 0 0.0104101 0.0287737 0.0309396 0 0 0 
trait 3 0.27041 0.0246743 0.0934051 0.248252 0.115838 0.222588 0.110995 0 
node 1 1 1 1
node 2 3 1 1
node 3 1 1 1
node 4 3 0 2
node 5 1 0 0
gene 2 1 4 2.94685 0 1 2.94685 1
gene 1 2 4 3.94725 0 2 3.94725 1
gene 3 3 4 -3.3445 0 3 -3.3445 0
gene 2 1 5 -0.253528 0 4 -0.253528 0
gene 2 5 4 -0.0283119 0 5 -0.0283119 1
gene 3 4 4 1.79837 1 120 1.79837 1
genomeend 69

/* Organism #70 Fitness: 139.852 Error: 510.148 */
genomestart 70
trait 1 0.1 0.0814712 0.0231429 0 0 0.0745214 0 0.00101253 
trait 2 0.2 0 0 0 0 0 0 0 
trait 3 0.2625 0 0 0.0766866 0.0253606 0.0145027 0 0 
node 1 1 1 1
node 2 3 1 1
node 3 2 1 1
node 4 3 0 2
gene 2 1 4 2.50364 0 1 2.50364 1
gene 1 2 4 5.39617 0 2 5.39617 0
gene 3 3 4 -4.3716 0 3 -4.3716 1
genomeend 70

/* Organism #71 Fitness: 179.431 Error: 470.569 */
genomestart 71
trait 1 0.1 0.0814712 0.0231429 0 0 0.0745214 0 0.00101253 
trait 2 0.2 0 0 0 0 0 0 0 
trait 3 0.2625 0 0 0.0766866 0.0253606 0.0145027 0 0 
node 1 1 1 1
node 2 3 1 1
node 3 2 1 1
node 4 3 0 2
gene 2 1 4 1.61129 0 1 1.61129 1
gene 1 2 4 5.39617 0 2 5.39617 0
gene 3 3 4 -4.3716 0 3 -4.3716 1
genomeend 71

/* Species #3 : (Size 7) (AF 252.142) (Age 10)  */


/* Organism #72 Fitness: 336.779 Error: 313.221 */
genomestart 72
trait 1 0.923836 0.0826933 0.122635 0 0.11115 0.685166 0 0.920643 
trait 2 0.2 0 0 0 0 0 0 0 
trait 3 0.3 0 0 0 0 0 0 0 
node 1 1 1 1
node 2 2 1 1
node 3 3 1 1
node 4 3 0 2
gene 3 1 4 2.76863 0 1 2.76863 1
gene 2 2 4 -3.57526 0 2 -3.57526 1
gene 3 3 4 -3.91804 0 3 -3.91804 1
gene 3 4 4 0.228867 1 61 0.228867 1
genomeend 72

/* Organism #73 Fitness: 299.172 Error: 350.828 */
genomestart 73
trait 1 0.809591 0.0964755 0.143074 0 0.11115 0.587609 0 0.801608 
trait 2 0.2 0 0 0 0 0 0 0 
trait 3 0.3 0 0 0 0 0 0 0 
node 1 1 1 1
node 2 3 1 1
node 3 3 1 1
node 4 1 0 2
gene 3 1 4 2.76863 0 1 2.76863 1
gene 2 2 4 -5.74526 0 2 -5.74526 1
gene 3 3 4 -0.787035 0 3 -0.787035 1
gene 3 4 4 0.228867 1 61 0.228867 1
genomeend 73

/* Organism #74 Fitness: 300.859 Error: 349.141 */
genomestart 74
trait 1 0.895275 0.0861388 0.127744 0 0.11115 0.660777 0 0.890884 
trait 2 0.2 0 0 0 0 0 0 0 
trait 3 0.3 0 0 0 0 0 0 0 
node 1 1 1 1
node 2 2 1 1
node 3 3 1 1
node 4 3 0 2
gene 3 1 4 3.06156 0 1 3.06156 1
gene 2 2 4 -3.79953 0 2 -3.79953 1
gene 3 3 4 -2.70426 0 3 -2.70426 1
gene 3 4 4 0.228867 1 61 0.228867 1
genomeend 74

/* Organism #75 Fitness: 291.14 Error: 358.86 */
genomestart 75
trait 1 0.923836 0.0826933 0.122635 0 0.11115 0.685166 0 0.920643 
trait 2 0.2 0 0 0 0 0 0 0 
trait 3 0.3 0 0 0 0 0 0 0 
node 1 1 1 1
node 2 2 1 1
node 3 3 1 1
node 4 3 0 2
gene 3 1 4 2.76863 0 1 2.76863 1
gene 2 2 4 -3.57526 0 2 -3.57526 1
gene 3 3 4 -3.91804 0 3 -3.91804 1
gene 3 4 4 0.228867 1 61 0.228867 1
genomeend 75

/* Organism #76 Fitness: 22.4581 Error: 627.542 */
genomestart 76
trait 1 1 0.0964755 0 0 0.11115 0.587609 0 0.801608 
trait 2 0.2 0 0 0 0 0 0 0 
trait 3 0.3 0 0 0 0 0 0 0 
node 1 1 1 1
node 2 3 1 1
node 3 3 1 1
node 4 1 0 2
gene 3 1 4 3.20351 0 1 3.20351 1
gene 2 2 4 -3.57526 0 2 -3.57526 1
gene 3 3 4 0.413554 0 3 0.413554 1
gene 3 4 4 -1.46778 1 61 -1.46778 1
genomeend 76

/* Organism #77 Fitness: 258.439 Error: 391.561 */
genomestart 77
trait 1 0.771509 0.10107 0.149887 0 0.11115 0.55509 0 0.76193 
trait 2 0.2 0 0 0 0 0 0 0 
trait 3 0.3 0 0 0 0 0 0 0 
node 1 1 1 1
node 2 2 1 1
node 3 3 1 1
node 4 3 0 2
gene 1 1 4 4.78533 0 1 4.78533 1
gene 2 2 4 -2.76817 0 2 -2.76817 1
gene 3 3 4 -2.94459 0 3 -2.94459 1
gene 3 4 4 0.333676 1 61 0.333676 1
genomeend 77

/* Organism #78 Fitness: 256.145 Error: 393.855 */
genomestart 78
trait 1 0.380377 0.0344555 0.0510977 0 0.0416813 0.232548 0 0.315482 
trait 2 0.1625 0 0.00157191 0.00159854 0.153359 0.000605232 0 0 
trait 3 0.27832 0 0 0.0443344 0.0190204 0.010877 0 0 
node 1 1 1 1
node 2 2 1 1
node 3 3 1 1
node 4 3 0 2
gene 3 1 4 2.54793 0 1 2.54793 1
gene 2 2 4 -0.941675 0 2 -0.941675 0
gene 2 3 4 1.53311 0 3 1.53311 0
gene 3 4 4 -0.0457439 1 61 -0.0457439 1
genomeend 78

/* Species #4 : (Size 10) (AF 190.469) (Age 10)  */


/* Organism #79 Fitness: 357.917 Error: 292.083 */
genomestart 79
trait 1 0.1 0 0 0 0 0 0 0 
trait 2 0.2 0 0.0185068 0.0511532 0.0550038 0 0 0 
trait 3 0.241406 0 0 0.119823 0 0 0 0 
node 1 3 1 1
node 2 1 1 1
node 3 3 1 1
node 4 2 0 2
node 11 1 0 0
gene 3 1 4 4.26026 0 1 4.26026 1
gene 1 2 4 4.35862 0 2 4.35862 1
gene 3 3 4 0.248101 0 3 0.248101 1
gene 3 3 11 1.8517 0 63 1.8517 1
gene 3 11 4 -0.838868 0 64 -0.838868 1
gene 2 4 4 -0.416412 1 95 -0.416412 1
gene 3 2 11 0.137371 0 157 0 1
gene 3 1 11 -0.345482 0 277 0 1
genomeend 79

/* Organism #80 Fitness: 18.949 Error: 631.051 */
genomestart 80
trait 1 0.1 0 0 0 0 0 0 0 
trait 2 0.2 0 0.0185068 0.0511532 0.0550038 0 0 0 
trait 3 0.241406 0 0 0.119823 0 0 0 0 
node 1 3 1 1
node 2 1 1 1
node 3 1 1 1
node 4 2 0 2
node 11 1 0 0
gene 3 1 4 2.57452 0 1 2.57452 1
gene 1 2 4 3.92698 0 2 3.92698 1
gene 3 3 4 -0.211909 0 3 -0.211909 1
gene 3 3 11 2.36256 0 63 2.36256 1
gene 3 11 4 -1.16831 0 64 -1.16831 1
gene 2 4 4 -1.38901 1 95 -1.38901 1
gene 3 2 11 0.211344 0 157 0.211344 1
gene 1 1 11 -1.3186 0 228 -1.3186 0
genomeend 80

/* Organism #81 Fitness: 15.9078 Error: 634.092 */
genomestart 81
trait 1 0.1 0 0 0 0 0 0 0 
trait 2 0.2 0 0.0185068 0.0511532 0.0550038 0 0 0 
trait 3 0.241406 0 0 0.119823 0 0 0 0 
node 1 3 1 1
node 2 1 1 1
node 3 3 1 1
node 4 2 0 2
node 11 1 0 0
gene 3 1 4 2.9328 0 1 2.9328 1
gene 1 2 4 6.2203 0 2 6.2203 1
gene 3 3 4 -0.598866 0 3 -0.598866 1
gene 3 3 11 2.06232 0 63 2.06232 1
gene 3 11 4 -3.01153 0 64 -3.01153 1
gene 2 4 4 -2.18194 1 95 -2.18194 1
gene 3 2 11 -0.390698 0 157 -0.390698 1
gene 1 1 11 -1.41405 0 228 -1.41405 0
genomeend 81

/* Organism #82 Fitness: 275.314 Error: 374.686 */
genomestart 82
trait 1 0.1 0 0 0 0 0 0 0 
trait 2 0.2 0 0.0185068 0.0511532 0.0550038 0 0 0 
trait 3 0.241406 0 0 0.119823 0 0 0 0 
node 1 3 1 1
node 2 1 1 1
node 3 3 1 1
node 4 2 0 2
node 11 1 0 0
gene 3 1 4 3.81427 0 1 3.81427 1
gene 1 2 4 4.78265 0 2 4.78265 1
gene 3 3 4 0.954691 0 3 0.954691 1
gene 3 3 11 2.15043 0 63 2.15043 1
gene 3 11 4 -1.11584 0 64 -1.11584 1
gene 2 4 4 -0.442479 1 95 -0.442479 1
gene 3 2 11 0.223408 0 157 0.223408 1
gene 1 1 11 -1.31321 0 228 -0.993419 0
genomeend 82

/* Organism #83 Fitness: 315.003 Error: 334.997 */
genomestart 83
trait 1 0.1 0 0 0 0 0 0 0 
trait 2 0.2 0 0.0185068 0.0511532 0.0550038 0 0 0 
trait 3 0.241406 0 0 0.119823 0 0 0 0 
node 1 3 1 1
node 2 1 1 1
node 3 3 1 1
node 4 2 0 2
node 11 1 0 0
gene 3 1 4 4.26026 0 1 4.26026 1
gene 1 2 4 5.84302 0 2 5.84302 1
gene 3 3 4 0.956315 0 3 0.956315 1
gene 3 3 11 1.24183 0 63 1.24183 1
gene 3 11 4 -1.63094 0 64 -1.63094 1
gene 2 4 4 -0.604857 1 95 -0.604857 1
gene 3 2 11 0.341086 0 157 0.341086 1
gene 1 1 11 -0.63958 0 228 0 1
genomeend 83

/* Organism #84 Fitness: 270.487 Error: 379.513 */
genomestart 84
trait 1 0.1 0 0 0 0 0 0 0 
trait 2 0.2 0 0.0138801 0.0383649 0.0412528 0 0 0 
trait 3 0.246533 0 0 0.109338 0 0 0 0 
node 1 3 1 1
node 2 1 1 1
node 3 3 1 1
node 4 2 0 2
node 11 1 0 0
gene 3 1 4 3.57519 0 1 3.57519 1
gene 3 2 4 3.64683 0 2 3.64683 1
gene 3 3 4 -0.286436 0 3 -0.286436 1
gene 3 3 11 0.999083 0 63 0.999083 1
gene 3 11 4 -2.64241 0 64 -1.8434 1
gene 2 4 4 -0.407123 1 95 -0.407123 1
gene 3 2 11 0.0772093 0 157 0.0772093 1
gene 3 1 11 -0.345482 0 277 -0.345482 1
genomeend 84

/* Organism #85 Fitness: 195.194 Error: 454.806 */
genomestart 85
trait 1 0.1 0 0 0 0 0 0 0 
trait 2 0.2 0 0.0185068 0.0511532 0.0550038 0 0 0 
trait 3 0.241406 0 0 0.119823 0 0 0 0 
node 1 3 1 1
node 2 1 1 1
node 3 3 1 1
node 4 2 0 2
node 11 1 0 0
node 31 1 0 0
gene 3 1 4 4.26026 0 1 4.26026 1
gene 1 2 4 5.84302 0 2 5.84302 1
gene 3 3 4 0.596285 0 3 0.596285 1
gene 3 3 11 1.54676 0 63 1.54676 0
gene 3 11 4 -1.63094 0 64 -1.63094 1
gene 2 4 4 -0.595568 1 95 -0.595568 1
gene 3 2 11 0.341086 0 157 0.341086 1
gene 1 1 11 -0.63958 0 228 0 1
gene 3 3 31 1 0 316 0 1
gene 3 31 11 1.54676 0 317 0 1
genomeend 85

/* Organism #86 Fitness: 301.43 Error: 348.57 */
genomestart 86
trait 1 0.1 0 0 0 0 0 0 0 
trait 2 0.2 0 0.0185068 0.0511532 0.0550038 0 0 0 
trait 3 0.241406 0 0 0.119823 0 0 0 0 
node 1 3 1 1
node 2 1 1 1
node 3 3 1 1
node 4 2 0 2
node 11 1 0 0
gene 3 1 4 3.80266 0 1 3.80266 1
gene 1 2 4 7.42455 0 2 7.42455 1
gene 3 3 4 -0.0730817 0 3 -0.0730817 1
gene 3 3 11 2.43682 0 63 2.43682 1
gene 3 11 4 -2.14153 0 64 -2.14153 1
gene 2 4 4 -0.0511004 1 95 -0.0511004 1
gene 3 2 11 -0.997101 0 157 -0.997101 1
gene 1 1 11 -1.24208 0 228 -1.24208 1
genomeend 86

/* Organism #87 Fitness: 141.854 Error: 508.146 */
genomestart 87
trait 1 0.1 0 0 0 0.103452 0.293934 0 0.598393 
trait 2 0.2 0 0.0138801 0.0383649 0.0412528 0 0 0 
trait 3 0.246533 0 0 0.109338 0 0 0 0 
node 1 3 1 1
node 2 1 1 1
node 3 3 1 1
node 4 2 0 2
node 11 1 0 0
gene 3 1 4 2.302 0 1 2.302 1
gene 1 2 4 2.55977 0 2 2.55977 1
gene 3 3 4 0.299756 0 3 0.299756 1
gene 3 3 11 -0.015084 0 63 -0.015084 1
gene 3 11 4 -5.40856 0 64 -5.40856 1
gene 2 4 4 0.898251 1 95 0.898251 1
gene 3 2 11 0.475182 0 157 0.475182 1
gene 3 1 11 0.0516539 0 277 0.0516539 1
genomeend 87

/* Organism #88 Fitness: 12.6327 Error: 637.367 */
genomestart 88
trait 1 0.1 0 0 0 0 0 0 0 
trait 2 0.2 0 0.0185068 0.0511532 0.0550038 0 0 0 
trait 3 0.241406 0 0 0.119823 0 0 0 0 
node 1 3 1 1
node 2 1 1 1
node 3 3 1 1
node 4 2 0 2
node 11 1 0 0
gene 3 1 4 3.89489 0 1 3.89489 1
gene 1 2 4 6.56136 0 2 6.56136 1
gene 3 3 4 0.52612 0 3 0.52612 1
gene 3 3 11 0.509892 0 63 0.509892 1
gene 3 11 4 0.498798 0 64 0.498798 1
gene 2 4 4 -3.27928 1 95 -3.27928 1
gene 3 2 11 -0.17855 0 157 -0.17855 1
gene 1 1 11 0.671694 0 228 0.671694 1
genomeend 88

/* Species #5 : (Size 1) (AF 191.975) (Age 10)  */


/* Organism #89 Fitness: 191.975 Error: 458.025 */
genomestart 89
trait 1 0.1 0 0 0 0 0 0 0 
trait 2 0.175 0 0.018759 0.0463576 0.177049 0.00121046 0 0 
trait 3 0.283887 0 0 0.0329513 0.0126803 0.00725133 0 0 
node 1 2 1 1
node 2 3 1 1
node 3 1 1 1
node 4 2 0 2
gene 3 1 4 3.85993 0 1 3.85993 1
gene 3 2 4 -0.199028 0 2 -0.199028 0
gene 1 3 4 2.773 0 3 2.773 1
gene 2 4 4 0.826054 1 18 0.826054 1
genomeend 89

/* Species #6 : (Size 7) (AF 202.792) (Age 10)  */


/* Organism #90 Fitness: 326.957 Error: 323.043 */
genomestart 90
trait 1 0.695345 0.110258 0.163513 0 0.11115 0.490051 0 0.682573 
trait 2 0.2 0 0 0 0 0 0 0 
trait 3 0.3 0 0 0 0 0 0 0 
node 1 1 1 1
node 2 2 1 1
node 3 3 1 1
node 4 3 0 2
gene 3 1 4 4.80892 0 1 4.80892 1
gene 2 2 4 -2.15746 0 2 -2.15746 1
gene 2 3 4 1.88819 0 3 1.88819 1
gene 1 4 4 0.228191 1 188 0.228191 1
genomeend 90

/* Organism #91 Fitness: 22.2242 Error: 627.776 */
genomestart 91
trait 1 0.605807 0.06202 0.0919759 0 0.0817152 0.414616 0 0.562759 
trait 2 0.19375 0.91592 0 0.00719342 0.0354331 0 0 0.144803 
trait 3 0.240315 0 0.113868 0.0143787 0.00317007 0.00181283 0 0 
node 1 1 1 1
node 2 2 1 1
node 3 3 1 1
node 4 3 0 2
gene 3 1 4 2.59715 0 1 2.59715 1
gene 2 2 4 -0.134215 0 2 -0.134215 1
gene 1 3 4 2.92062 0 3 2.92062 1
gene 1 4 4 1.70152 1 188 1.70152 1
genomeend 91

/* Organism #92 Fitness: 323.541 Error: 326.459 */
genomestart 92
trait 1 0.248836 0.0275644 0.0408782 0 0.0277876 0.122513 0 0.170643 
trait 2 0.15 0 0.00198715 0 0.204126 0.00121046 0 0 
trait 3 0.277734 0 0 0.0455327 0.0253606 0.0145027 0 0 
node 1 3 1 1
node 2 1 1 1
node 3 3 1 1
node 4 2 0 2
node 27 1 0 0
gene 3 1 4 6.24604 0 1 6.24604 1
gene 3 2 4 -0.37557 0 2 -0.37557 0
gene 2 3 4 3.43775 0 3 3.43775 0
gene 1 4 4 0.228191 1 188 0.228191 1
gene 2 3 27 0.761866 0 278 0.761866 1
gene 2 27 4 3.25657 0 279 3.25657 1
genomeend 92

/* Organism #93 Fitness: 25.4993 Error: 624.501 */
genomestart 93
trait 1 0.323254 0.0413466 0.0613173 0 0.0416813 0.183769 0 0.255965 
trait 2 0.175 0 0.00612454 0.00319708 0.117141 0.00302616 0 0 
trait 3 0.283301 0 0 0.0341495 0.0126803 0.00725133 0 0 
node 1 2 1 1
node 2 3 1 1
node 3 1 1 1
node 4 2 0 2
node 27 1 0 0
gene 3 1 4 4.4974 0 1 4.4974 1
gene 3 2 4 -0.213062 0 2 -0.213062 0
gene 2 3 4 1.64906 0 3 1.64906 0
gene 1 4 4 1.95554 1 188 1.95554 1
gene 2 3 27 0.511142 0 278 0.511142 1
gene 2 27 4 2.05731 0 279 2.05731 1
genomeend 93

/* Organism #94 Fitness: 93.5178 Error: 556.482 */
genomestart 94
trait 1 0.0870634 0 0 0.429149 0 0 0 0 
trait 2 0.08125 0.0153862 0.000496786 0 0.0758198 0.000302616 0 0 
trait 3 0.299707 0 0 0.000599114 0.0982722 0.0561978 0 0 
node 1 2 1 1
node 2 2 1 1
node 3 1 1 1
node 4 1 0 2
node 10 1 0 0
gene 1 1 4 4.70316 0 1 4.70316 1
gene 3 2 4 -0.307448 0 2 -0.307448 1
gene 3 3 4 2.69594 0 3 2.69594 1
gene 3 2 10 -2.98163 0 55 -2.98163 1
gene 3 10 4 2.411 0 56 2.411 1
genomeend 94

/* Organism #95 Fitness: 331.639 Error: 318.361 */
genomestart 95
trait 1 0.0741268 0 0 0.858299 0 0 0 0 
trait 2 0 0 0 0 0.793225 0 0 0 
trait 3 0.3 0 0 0 0.101442 0.0580106 0 0 
node 1 2 1 1
node 2 2 1 1
node 3 1 1 1
node 4 1 0 2
node 10 1 0 0
gene 1 1 4 4.30681 0 1 4.30681 1
gene 3 2 4 -1.03073 0 2 -1.03073 1
gene 1 3 4 0.948454 0 3 0.948454 1
gene 3 2 10 -1.08394 0 55 -1.08394 1
gene 3 10 4 3.81828 0 56 3.81828 1
gene 2 1 10 0.0971232 0 141 0.0971232 1
genomeend 95

/* Organism #96 Fitness: 296.168 Error: 353.832 */
genomestart 96
trait 1 0.0741268 0 0 0.858299 0 0 0 0 
trait 2 0 0 0 0 0.793225 0 0 0 
trait 3 0.3 0 0 0 0.101442 0.0580106 0 0 
node 1 2 1 1
node 2 2 1 1
node 3 1 1 1
node 4 1 0 2
node 10 1 0 0
gene 1 1 4 4.68879 0 1 4.68879 1
gene 3 2 4 -0.792454 0 2 -0.792454 1
gene 1 3 4 1.27423 0 3 1.27423 1
gene 3 2 10 -1.08394 0 55 -1.08394 1
gene 3 10 4 3.81828 0 56 3.81828 1
gene 2 1 10 0.729746 0 141 0.729746 1
genomeend 96

/* Species #10 : (Size 2) (AF 297.652) (Age 9)  */


/* Organism #97 Fitness: 272.743 Error: 377.257 */
genomestart 97
trait 1 0 0 0.455985 0 0 0 0 0 
trait 2 0.171875 0 0.0118598 0.0011989 0.146301 0.00696016 0 0 
trait 3 0.293262 0 0 0.0137796 0.0142653 0.00815774 0 0 
node 1 2 1 1
node 2 2 1 1
node 3 1 1 1
node 4 1 0 2
node 18 1 0 0
gene 3 1 4 3.4423 0 1 3.4423 1
gene 2 2 4 2.6173 0 2 2.6173 1
gene 3 3 4 3.96712 0 3 3.96712 0
gene 1 4 4 -0.181126 1 57 -0.181126 1
gene 3 3 18 1.21264 0 158 1.21264 1
gene 3 18 4 3.5954 0 159 3.5954 1
genomeend 97

/* Organism #98 Fitness: 322.561 Error: 327.439 */
genomestart 98
trait 1 0.219654 0 0.151995 0 0 0 0 0 
trait 2 0.195007 0.0205156 0.0134718 0.0237156 0.138986 0.00605232 0 0 
trait 3 0.290076 0 0 0.020295 0.0118878 0.00679812 0 0 
node 1 2 1 1
node 2 2 1 1
node 3 1 1 1
node 4 1 0 2
node 18 2 0 0
gene 3 1 4 1.65821 0 1 1.65821 1
gene 3 2 4 -0.854444 0 2 -0.854444 0
gene 3 3 4 1.43234 0 3 1.43234 1
gene 3 4 4 0.582977 1 57 0.582977 1
gene 1 3 18 0.658404 0 158 0.658404 1
gene 3 18 4 -0.222927 0 159 -0.222927 1
gene 1 1 18 0.847378 0 318 0.847378 1
genomeend 98

/* Species #13 : (Size 9) (AF 226.509) (Age 9)  */


/* Organism #99 Fitness: 282.278 Error: 367.722 */
genomestart 99
trait 1 0.368146 0.327209 0 0.362918 0.0364028 0 0 0 
trait 2 0.2 0 0 0 0 0 0 0 
trait 3 0.2625 0 0 0.0766866 0 0 0 0 
node 1 1 1 1
node 2 3 1 1
node 3 3 1 1
node 4 3 0 2
node 5 1 0 0
gene 2 1 4 1.39696 0 1 1.39696 0
gene 1 2 4 2.66724 0 2 2.66724 1
gene 1 3 4 -2.82741 0 3 -2.82741 1
gene 2 1 5 3.51476 0 4 3.51476 1
gene 2 5 4 3.11574 0 5 3.11574 1
gene 2 5 5 0.14109 1 62 0.14109 1
gene 2 3 5 -1.72065 0 93 -1.72065 1
gene 2 2 5 0.678153 0 148 0.678153 1
genomeend 99

/* Organism #100 Fitness: 233.609 Error: 416.391 */
genomestart 100
trait 1 0.234073 0.163604 0 0.181459 0.0220781 0 0.124758 0 
trait 2 0.2 0 0 0 0 0 0 0 
trait 3 0.13125 0.235962 0 0.0383433 0.303697 0 0.186458 0 
node 1 1 1 1
node 2 3 1 1
node 3 3 1 1
node 4 3 0 2
node 5 1 0 0
gene 2 1 4 0.284431 0 1 0.284431 1
gene 1 2 4 2.66724 0 2 2.66724 1
gene 1 3 4 -2.82741 0 3 -2.82741 1
gene 2 1 5 3.51476 0 4 3.51476 1
gene 2 5 4 3.11574 0 5 3.11574 1
gene 2 5 5 0.13995 1 62 0.13995 1
gene 2 3 5 -1.72065 0 93 -1.72065 1
gene 2 2 5 -0.563925 0 148 -0.884832 1
genomeend 100

/* Organism #101 Fitness: 261.4 Error: 388.6 */
genomestart 101
trait 1 0.1 0 0 0 0.00775349 0 0.249516 0 
trait 2 0.2 0 0 0 0 0 0 0 
trait 3 0 0.471923 0 0 0.607394 0 0.372916 0 
node 1 1 1 1
node 2 3 1 1
node 3 3 1 1
node 4 3 0 2
node 5 1 0 0
gene 2 1 4 0.284431 0 1 0.284431 1
gene 1 2 4 4.67021 0 2 4.67021 1
gene 1 3 4 -5.07641 0 3 -5.07641 1
gene 2 1 5 2.15868 0 4 2.15868 1
gene 2 5 4 3.18451 0 5 3.18451 1
gene 2 5 5 0.13995 1 62 0.13995 1
gene 2 3 5 -1.46168 0 93 -0.993013 1
gene 2 2 5 -0.563925 0 148 -0.884832 1
genomeend 101

/* Organism #102 Fitness: 25.4993 Error: 624.501 */
genomestart 102
trait 1 0.1 0 0 0 0.00775349 0 0.249516 0 
trait 2 0.2 0 0 0 0 0 0 0 
trait 3 0 0.471923 0 0 0.607394 0 0.372916 0 
node 1 1 1 1
node 2 3 1 1
node 3 3 1 1
node 4 3 0 2
node 5 1 0 0
gene 2 1 4 0.284431 0 1 0.284431 1
gene 1 2 4 4.67021 0 2 4.67021 1
gene 1 3 4 -5.07641 0 3 -5.07641 1
gene 2 1 5 2.15868 0 4 2.15868 1
gene 2 5 4 3.18451 0 5 3.18451 1
gene 2 5 5 0.13995 1 62 0.13995 1
gene 2 3 5 -1.46168 0 93 -0.993013 1
gene 2 2 5 -0.563925 0 148 -0.884832 1
gene 2 4 4 -0.988483 1 321 -0.988483 1
genomeend 102

/* Organism #103 Fitness: 312.324 Error: 337.676 */
genomestart 103
trait 1 0.1 0 0 0 0.00775349 0 0.249516 0 
trait 2 0.2 0 0 0 0 0 0 0 
trait 3 0 0.471923 0 0 0.607394 0 0.372916 0 
node 1 1 1 1
node 2 3 1 1
node 3 3 1 1
node 4 3 0 2
node 5 1 0 0
gene 2 1 4 0.284431 0 1 0.284431 1
gene 1 2 4 4.67021 0 2 4.67021 1
gene 1 3 4 -5.07641 0 3 -5.07641 1
gene 2 1 5 2.15868 0 4 2.15868 1
gene 2 5 4 3.18451 0 5 3.18451 1
gene 2 5 5 0.13995 1 62 0.13995 1
gene 2 3 5 -1.46168 0 93 -0.993013 1
gene 2 2 5 -0.563925 0 148 -0.884832 1
genomeend 103

/* Organism #104 Fitness: 310.845 Error: 339.155 */
genomestart 104
trait 1 0.234073 0.163604 0 0.181459 0.0298316 0 0.374274 0 
trait 2 0.2 0 0 0 0 0 0 0 
trait 3 0.2625 0 0 0.0766866 0 0 0 0 
node 1 1 1 1
node 2 3 1 1
node 3 3 1 1
node 4 3 0 2
node 5 1 0 0
gene 2 1 4 1.15775 0 1 1.15775 1
gene 1 2 4 4.50856 0 2 4.50856 1
gene 1 3 4 -5.83705 0 3 -5.83705 0
gene 2 1 5 2.17793 0 4 2.17793 1
gene 2 5 4 3.86825 0 5 3.86825 1
gene 2 5 5 0.191886 1 62 0.191886 1
gene 3 3 5 -1.98603 0 93 -1.98603 1
gene 2 2 5 0.0852649 0 148 0.0852649 1
gene 3 4 4 0.0361408 1 322 0.0361408 1
genomeend 104

/* Organism #105 Fitness: 330.515 Error: 319.485 */
genomestart 105
trait 1 0.234073 0.163604 0 0.181459 0.0259549 0 0.249516 0 
trait 2 0.2 0 0 0 0 0 0 0 
trait 3 0.2625 0 0 0.0766866 0 0 0 0 
node 1 1 1 1
node 2 3 1 1
node 3 3 1 1
node 4 3 0 2
node 5 1 0 0
gene 2 1 4 1.51177 0 1 1.51177 0
gene 1 2 4 2.66724 0 2 2.66724 1
gene 1 3 4 -4.51888 0 3 -4.51888 0
gene 2 1 5 3.33917 0 4 3.33917 1
gene 2 5 4 4.50461 0 5 4.50461 1
gene 2 5 5 0.14109 1 62 0.14109 1
gene 2 3 5 -1.03553 0 93 -1.03553 1
gene 2 2 5 0.678153 0 148 0.678153 1
genomeend 105

/* Organism #106 Fitness: 255.209 Error: 394.791 */
genomestart 106
trait 1 0.1 0 0 0 0.015507 0 0.499032 0 
trait 2 0.2 0 0 0 0 0 0 0 
trait 3 0.2625 0 0 0.0766866 0 0 0 0 
node 1 1 1 1
node 2 3 1 1
node 3 3 1 1
node 4 3 0 2
node 5 1 0 0
gene 2 1 4 -0.405554 0 1 -0.405554 0
gene 1 2 4 4.41817 0 2 4.41817 1
gene 1 3 4 -5.83705 0 3 -5.83705 0
gene 2 1 5 3.33917 0 4 3.33917 1
gene 2 5 4 4.50461 0 5 4.50461 1
gene 2 5 5 0.183592 1 62 0.183592 1
gene 3 3 5 -1.98603 0 93 -1.98603 1
gene 2 2 5 -1.76966 0 148 -1.76966 1
gene 3 4 4 0.0719531 1 281 0.0719531 1
gene 2 4 5 -0.0240647 1 323 -0.0240647 1
genomeend 106

/* Organism #107 Fitness: 26.9029 Error: 623.097 */
genomestart 107
trait 1 0.234073 0.163604 0 0.181459 0.0259549 0 0.249516 0 
trait 2 0.2 0 0 0 0 0 0 0 
trait 3 0.13125 0.235962 0 0.0383433 0.303697 0 0.186458 0 
node 1 1 1 1
node 2 3 1 1
node 3 3 1 1
node 4 3 0 2
node 5 1 0 0
gene 2 1 4 -0.906756 0 1 -0.906756 0
gene 1 2 4 5.28799 0 2 5.28799 1
gene 1 3 4 -5.27663 0 3 -5.27663 0
gene 2 1 5 2.68992 0 4 2.68992 1
gene 2 5 4 1.88478 0 5 1.88478 1
gene 2 5 5 1.87049 1 62 1.87049 1
gene 2 3 5 -2.72372 0 93 -2.72372 1
gene 2 2 5 1.06419 0 148 1.06419 1
genomeend 107

/* Species #15 : (Size 12) (AF 148.812) (Age 9)  */


/* Organism #108 Fitness: 235.276 Error: 414.724 */
genomestart 108
trait 1 0.1 0 0 0.206777 0 0 0 0.0793138 
trait 2 0.2 0 0 0 0 0 0 0 
trait 3 0.3 0 0 0 0 0 0 0 
node 1 1 1 1
node 2 2 1 1
node 3 1 1 1
node 4 3 0 2
node 5 1 0 0
gene 3 1 4 -5.90337 0 1 -5.90337 0
gene 2 2 4 2.03101 0 2 2.03101 1
gene 1 3 4 -0.634353 0 3 -0.634353 1
gene 2 1 5 0.668813 0 4 0.668813 1
gene 2 5 4 3.13955 0 5 3.13955 1
genomeend 108

/* Organism #109 Fitness: 80.007 Error: 569.993 */
genomestart 109
trait 1 0.1 0 0 0.206777 0 0 0 0.0793138 
trait 2 0.2 0 0 0 0 0 0 0 
trait 3 0.3 0 0 0 0 0 0 0 
node 1 1 1 1
node 2 2 1 1
node 3 1 1 1
node 4 3 0 2
node 5 1 0 0
gene 3 1 4 -4.76827 0 1 -4.76827 0
gene 2 2 4 3.29256 0 2 3.29256 1
gene 1 3 4 1.60509 0 3 1.60509 1
gene 2 1 5 0.899686 0 4 0.899686 1
gene 2 5 4 3.63516 0 5 3.63516 1
genomeend 109

/* Organism #110 Fitness: 254.132 Error: 395.868 */
genomestart 110
trait 1 0.1 0 0 0.206777 0 0 0 0.0793138 
trait 2 0.2 0 0 0 0 0 0 0 
trait 3 0.3 0 0 0 0 0 0 0 
node 1 1 1 1
node 2 2 1 1
node 3 1 1 1
node 4 3 0 2
node 5 1 0 0
gene 3 1 4 -5.90337 0 1 -5.90337 0
gene 2 2 4 2.03101 0 2 2.03101 1
gene 1 3 4 1.27963 0 3 1.27963 1
gene 2 1 5 0.668813 0 4 0.668813 1
gene 2 5 4 3.13955 0 5 3.13955 1
genomeend 110

/* Organism #111 Fitness: 2.33939 Error: 647.661 */
genomestart 111
trait 1 0.1 0 0 0.206777 0 0 0 0.0793138 
trait 2 0 0 0 0 0.901585 0 0.628736 0 
trait 3 0.3 0 0 0 0 0 0 0 
node 1 1 1 1
node 2 2 1 1
node 3 1 1 1
node 4 3 0 2
node 5 3 0 0
gene 3 1 4 -6.6503 0 1 -6.6503 0
gene 2 2 4 0.750458 0 2 0.750458 1
gene 1 3 4 1.27963 0 3 1.27963 1
gene 2 1 5 -0.223867 0 4 -0.223867 1
gene 2 5 4 3.13955 0 5 3.13955 1
genomeend 111

/* Organism #112 Fitness: 2.33939 Error: 647.661 */
genomestart 112
trait 1 0.1 0 0 0.206777 0 0 0 0.0793138 
trait 2 0.2 0 0 0 0 0 0 0 
trait 3 0.3 0 0 0 0 0 0 0 
node 1 1 1 1
node 2 2 1 1
node 3 1 1 1
node 4 3 0 2
node 5 1 0 0
gene 3 1 4 -6.46693 0 1 -6.46693 1
gene 2 2 4 3.49133 0 2 3.49133 1
gene 1 3 4 1.14293 0 3 1.14293 1
gene 2 1 5 0.955131 0 4 0.955131 1
gene 2 5 4 2.29081 0 5 2.29081 1
gene 1 2 5 -1.66412 0 225 -1.66412 1
genomeend 112

/* Organism #113 Fitness: 290.398 Error: 359.602 */
genomestart 113
trait 1 0.1 0 0 0.206777 0 0 0 0.0793138 
trait 2 0.2 0 0 0 0 0 0 0 
trait 3 0.3 0 0 0 0 0 0 0 
node 1 1 1 1
node 2 2 1 1
node 3 1 1 1
node 4 3 0 2
node 5 1 0 0
gene 3 1 4 -5.90337 0 1 -5.90337 0
gene 2 2 4 2.03101 0 2 2.03101 1
gene 1 3 4 -0.634353 0 3 -0.634353 1
gene 2 1 5 0.668813 0 4 0.668813 1
gene 2 5 4 3.64952 0 5 3.64952 1
genomeend 113

/* Organism #114 Fitness: 201.947 Error: 448.053 */
genomestart 114
trait 1 0.1 0 0 0.206777 0 0 0 0.0793138 
trait 2 0.2 0 0 0 0 0 0 0 
trait 3 0.3 0 0 0 0 0 0 0 
node 1 1 1 1
node 2 2 1 1
node 3 1 1 1
node 4 3 0 2
node 5 1 0 0
gene 3 1 4 -5.90337 0 1 -5.90337 0
gene 2 2 4 2.03101 0 2 2.03101 1
gene 1 3 4 1.27963 0 3 1.27963 1
gene 2 1 5 0.668813 0 4 0.668813 1
gene 2 5 4 3.13955 0 5 3.13955 1
gene 1 2 5 -0.729888 0 225 0 1
gene 2 5 5 -0.0630742 1 324 -0.0630742 1
genomeend 114

/* Organism #115 Fitness: 2.33939 Error: 647.661 */
genomestart 115
trait 1 0.1 0 0 0.206777 0 0 0 0.0793138 
trait 2 0.2 0 0 0 0 0 0 0 
trait 3 0.3 0 0 0 0 0 0 0 
node 1 1 1 1
node 2 2 1 1
node 3 1 1 1
node 4 3 0 2
node 5 1 0 0
gene 3 1 4 -6.58243 0 1 -6.58243 0
gene 2 2 4 2.68292 0 2 2.68292 1
gene 1 3 4 -0.305497 0 3 -0.305497 1
gene 2 1 5 -0.942308 0 4 -0.942308 1
gene 2 5 4 4.13365 0 5 4.13365 1
genomeend 115

/* Organism #116 Fitness: 2.33939 Error: 647.661 */
genomestart 116
trait 1 0.1 0 0 0.0258471 0 0 0 0.00991423 
trait 2 0.2 0 0.0589906 0.163051 0.175325 0 0 0 
trait 3 0.3 0 0 0 0 0 0 0 
node 1 1 1 1
node 2 3 1 1
node 3 1 1 1
node 4 2 0 2
node 5 1 0 0
gene 2 1 4 -3.23629 0 1 -3.23629 0
gene 1 2 4 1.51733 0 2 1.51733 1
gene 1 3 4 -2.33296 0 3 -2.33296 1
gene 2 1 5 0.278193 0 4 0.278193 1
gene 2 5 4 2.43113 0 5 2.43113 1
gene 2 3 5 -2.11729 0 66 -2.11729 1
gene 1 5 5 -0.421736 1 77 -0.421736 1
gene 2 2 5 -0.0171619 0 148 -0.0171619 1
genomeend 116

/* Organism #117 Fitness: 172.713 Error: 477.287 */
genomestart 117
trait 1 0.1 0 0 0 0 0 0 0 
trait 2 0.2 0 0 0 0 0 0 0 
trait 3 0.2625 0 0 0.0766866 0 0 0 0 
node 1 1 1 1
node 2 3 1 1
node 3 3 1 1
node 4 3 0 2
node 5 1 0 0
gene 2 1 4 -0.941023 0 1 -0.941023 0
gene 1 2 4 1.78596 0 2 1.78596 1
gene 1 3 4 -0.481309 0 3 -0.481309 1
gene 2 1 5 1.21628 0 4 1.21628 1
gene 2 5 4 2.15485 0 5 2.15485 1
gene 2 5 5 0.680736 1 62 0.680736 1
gene 1 2 5 -3.09432 0 225 -3.09432 1
genomeend 117

/* Organism #118 Fitness: 286.819 Error: 363.181 */
genomestart 118
trait 1 0.1 0 0 0 0 0 0 0 
trait 2 0.2 0 0 0 0 0 0 0 
trait 3 0.2625 0 0 0.0766866 0 0 0 0 
node 1 1 1 1
node 2 3 1 1
node 3 3 1 1
node 4 3 0 2
node 5 1 0 0
gene 2 1 4 -0.941023 0 1 -0.941023 0
gene 1 2 4 1.78596 0 2 1.78596 1
gene 1 3 4 -0.481309 0 3 -0.481309 1
gene 2 1 5 1.21628 0 4 1.21628 1
gene 2 5 4 2.15485 0 5 2.15485 1
gene 2 5 5 0.680736 1 62 0.680736 1
gene 1 2 5 -3.09432 0 225 -3.09432 1
genomeend 118

/* Organism #119 Fitness: 255.093 Error: 394.907 */
genomestart 119
trait 1 0.1 0 0 0 0 0 0 0 
trait 2 0.2 0 0 0 0 0 0 0 
trait 3 0.2625 0 0 0.0766866 0 0 0 0 
node 1 1 1 1
node 2 3 1 1
node 3 3 1 1
node 4 3 0 2
node 5 1 0 0
gene 2 1 4 -0.941023 0 1 -0.941023 0
gene 1 2 4 1.78596 0 2 1.78596 1
gene 1 3 4 -0.481309 0 3 -0.481309 1
gene 2 1 5 1.21628 0 4 1.21628 1
gene 2 5 4 2.15485 0 5 2.15485 1
gene 2 5 5 0.680736 1 62 0.680736 1
gene 1 2 5 -3.09432 0 225 -3.09432 1
genomeend 119

/* Species #18 : (Size 12) (AF 292.187) (Age 9)  */


/* Organism #120 Fitness: 335.725 Error: 314.275 */
genomestart 120
trait 1 0.1 0 0 0 0 0 0 0 
trait 2 0.2 0 0 0 0 0 0 0 
trait 3 0.239062 0 0 0.124616 0 0 0 0 
node 1 3 1 1
node 2 1 1 1
node 3 3 1 1
node 4 2 0 2
node 11 1 0 0
gene 2 1 4 4.32716 0 1 4.32716 1
gene 3 2 4 2.81868 0 2 2.81868 1
gene 3 3 4 -5.84365 0 3 -5.84365 1
gene 3 3 11 0.61573 0 63 0.61573 1
gene 3 11 4 0.82129 0 64 0.82129 1
gene 1 1 11 0.4205 0 152 0.4205 1
gene 3 2 11 1.27394 0 157 1.27394 1
genomeend 120

/* Organism #121 Fitness: 24.9354 Error: 625.065 */
genomestart 121
trait 1 0.1 0.00114852 0.00170326 0 0 0.00179608 0 0.000253133 
trait 2 0.2 0 0.000578339 0.00159854 0.00171887 0 0 0 
trait 3 0.286963 0 0 0.0266606 0.10843 0 0.090704 0 
node 1 3 1 1
node 2 1 1 1
node 3 3 1 1
node 4 2 0 2
gene 2 1 4 4.27482 0 1 4.27482 1
gene 3 2 4 2.3584 0 2 2.3584 0
gene 3 3 4 -6.20661 0 3 -6.20661 1
gene 1 4 4 -0.925203 1 325 -0.925203 1
genomeend 121

/* Organism #122 Fitness: 358.043 Error: 291.957 */
genomestart 122
trait 1 0.1 0 0 0 0 0 0 0 
trait 2 0.2 0 0 0 0 0 0 0 
trait 3 0.239062 0 0 0.124616 0 0 0 0 
node 1 3 1 1
node 2 1 1 1
node 3 3 1 1
node 4 2 0 2
node 11 1 0 0
gene 2 1 4 4.32716 0 1 4.32716 1
gene 3 2 4 2.45623 0 2 2.45623 1
gene 3 3 4 -5.58858 0 3 -5.58858 1
gene 3 3 11 0.446679 0 63 0.446679 1
gene 3 11 4 1.39602 0 64 1.39602 1
gene 1 1 11 0.230154 0 152 0.230154 1
gene 3 2 11 0.677535 0 157 0.677535 1
genomeend 122

/* Organism #123 Fitness: 326.845 Error: 323.155 */
genomestart 123
trait 1 0.1 0.00114852 0.00170326 0 0 0.00179608 0 0.000253133 
trait 2 0.2 0 0.000578339 0.00159854 0.00171887 0 0 0 
trait 3 0.256494 0 0 0.0889685 0.10843 0 0.090704 0 
node 1 3 1 1
node 2 1 1 1
node 3 3 1 1
node 4 2 0 2
node 11 1 0 0
gene 2 1 4 2.84055 0 1 2.84055 1
gene 3 2 4 1.59216 0 2 1.59216 1
gene 3 3 4 -7.54265 0 3 -7.54265 1
gene 3 3 11 0.504893 0 63 0.504893 1
gene 3 11 4 1.91173 0 64 1.91173 1
gene 1 1 11 1.57166 0 152 1.57166 1
gene 3 2 11 0.672587 0 157 0.672587 1
genomeend 123

/* Organism #124 Fitness: 234.387 Error: 415.613 */
genomestart 124
trait 1 0.160251 0.246403 0 0.470288 0 0 0 0 
trait 2 0.2 0 0 0 0 0 0 0 
trait 3 0.239062 0 0 0.124616 0 0 0 0 
node 1 1 1 1
node 2 1 1 1
node 3 3 1 1
node 4 2 0 2
node 11 1 0 0
gene 2 1 4 2.96191 0 1 2.96191 1
gene 3 2 4 0.636649 0 2 0.636649 1
gene 3 3 4 -4.92142 0 3 -4.92142 1
gene 3 3 11 -0.0834529 0 63 -0.0834529 1
gene 3 11 4 2.73463 0 64 2.73463 1
gene 1 1 11 1.65407 0 152 1.65407 1
gene 3 2 11 1.86067 0 157 1.86067 1
genomeend 124

/* Organism #125 Fitness: 241.524 Error: 408.476 */
genomestart 125
trait 1 0.130126 0.123201 0 0.235144 0 0 0 0 
trait 2 0.2 0 0 0 0 0 0 0 
trait 3 0.239062 0 0 0.124616 0 0 0 0 
node 1 3 1 1
node 2 1 1 1
node 3 3 1 1
node 4 2 0 2
node 11 1 0 0
gene 2 1 4 3.94678 0 1 3.94678 1
gene 3 2 4 2.73993 0 2 2.73993 1
gene 3 3 4 -6.98746 0 3 -6.98746 1
gene 3 3 11 -0.929013 0 63 -0.929013 1
gene 3 11 4 0.330411 0 64 0.330411 1
gene 1 1 11 -0.0972591 0 152 -0.0972591 1
gene 3 2 11 0.844611 0 157 0.844611 1
genomeend 125

/* Organism #126 Fitness: 312.608 Error: 337.392 */
genomestart 126
trait 1 0.1 0 0 0 0 0 0 0 
trait 2 0.2 0 0 0 0 0 0 0 
trait 3 0.239062 0 0 0.124616 0 0 0 0 
node 1 3 1 1
node 2 1 1 1
node 3 3 1 1
node 4 2 0 2
node 11 1 0 0
gene 2 1 4 4.32716 0 1 4.32716 1
gene 3 2 4 2.81868 0 2 2.81868 1
gene 3 3 4 -5.84365 0 3 -5.84365 1
gene 3 3 11 0.61573 0 63 0.61573 1
gene 3 11 4 0.82129 0 64 0.82129 1
gene 1 1 11 0.4205 0 152 0.4205 1
gene 3 2 11 1.27394 0 157 1.27394 1
genomeend 126

/* Organism #127 Fitness: 348.925 Error: 301.075 */
genomestart 127
trait 1 0.1 0.00229704 0.00340652 0 0 0.00359216 0 0.000506266 
trait 2 0.2 0 0.00115668 0.00319708 0.00343774 0 0 0 
trait 3 0.273926 0 0 0.0533212 0.21686 0 0.181408 0 
node 1 3 1 1
node 2 1 1 1
node 3 3 1 1
node 4 2 0 2
node 11 1 0 0
gene 2 1 4 5.48356 0 1 5.48356 1
gene 3 2 4 2.28009 0 2 2.28009 0
gene 3 3 4 -7.50691 0 3 -7.50691 1
gene 3 3 11 0.376949 0 63 0.376949 1
gene 3 11 4 -0.573024 0 64 -0.573024 1
gene 1 1 11 -0.241728 0 152 -0.241728 1
gene 3 2 11 0.167076 0 157 0.167076 1
genomeend 127

/* Organism #128 Fitness: 300.505 Error: 349.495 */
genomestart 128
trait 1 0.1 0 0 0 0 0 0 0 
trait 2 0.2 0 0 0 0 0 0 0 
trait 3 0.239062 0 0 0.124616 0 0 0 0 
node 1 3 1 1
node 2 1 1 1
node 3 3 1 1
node 4 2 0 2
node 11 1 0 0
gene 2 1 4 1.756 0 1 1.756 1
gene 3 2 4 4.22144 0 2 4.22144 1
gene 3 3 4 -7.59028 0 3 -7.59028 1
gene 3 3 11 1.76716 0 63 1.76716 1
gene 3 11 4 1.77376 0 64 1.77376 1
gene 1 1 11 1.89812 0 152 1.89812 1
gene 3 2 11 1.32903 0 157 1.32903 1
genomeend 128

/* Organism #129 Fitness: 375.845 Error: 274.155 */
genomestart 129
trait 1 0.1 0 0 0 0 0 0 0 
trait 2 0.2 0 0 0 0 0 0 0 
trait 3 0.269531 0 0 0.0623079 0 0 0 0 
node 1 3 1 1
node 2 1 1 1
node 3 3 1 1
node 4 2 0 2
node 11 1 0 0
gene 2 1 4 2.92965 0 1 2.92965 1
gene 3 2 4 0.494444 0 2 0.494444 1
gene 3 3 4 -4.98092 0 3 -4.98092 1
gene 3 3 11 2.1586 0 63 2.1586 1
gene 3 11 4 0.742594 0 64 0.742594 1
gene 1 1 11 1.62114 0 152 1.62114 1
gene 3 2 11 2.17866 0 157 2.17866 1
genomeend 129

/* Organism #130 Fitness: 330.047 Error: 319.953 */
genomestart 130
trait 1 0.130126 0.123201 0 0.235144 0 0 0 0 
trait 2 0.2 0 0 0 0 0 0 0 
trait 3 0.269531 0 0 0.0623079 0 0 0 0 
node 1 3 1 1
node 2 1 1 1
node 3 3 1 1
node 4 2 0 2
gene 2 1 4 4.15109 0 1 4.15109 1
gene 3 2 4 1.19207 0 2 1.19207 1
gene 3 3 4 -6.20661 0 3 -6.20661 1
genomeend 130

/* Organism #131 Fitness: 316.859 Error: 333.141 */
genomestart 131
trait 1 0.1 0 0 0 0 0 0 0 
trait 2 0.2 0 0 0 0 0 0 0 
trait 3 0.288281 0 0 0.0239646 0 0 0 0 
node 1 3 1 1
node 2 1 1 1
node 3 3 1 1
node 4 2 0 2
node 11 1 0 0
gene 2 1 4 3.97229 0 1 3.97229 1
gene 3 2 4 0.204449 0 2 0.204449 1
gene 3 3 4 -6.16488 0 3 -6.16488 1
gene 3 3 11 0.808996 0 63 0.808996 0
gene 3 11 4 -1.53664 0 64 -1.53664 1
gene 1 1 11 -0.94521 0 199 -0.94521 1
genomeend 131

/* Species #21 : (Size 38) (AF 243.475) (Age 9)  */


/* Organism #132 Fitness: 271.592 Error: 378.408 */
genomestart 132
trait 1 0.1 0.00114852 0.00170326 0 0 0.00179608 0 0.000253133 
trait 2 0.1625 0 0.00744432 0.00959123 0.170683 0.00242093 0 0 
trait 3 0.28418 0 0 0.0323522 0.0570613 0.032631 0 0 
node 1 2 1 1
node 2 2 1 1
node 3 1 1 1
node 4 1 0 2
node 10 1 0 0
gene 1 1 4 1.94187 0 1 1.94187 1
gene 3 2 4 -1.25941 0 2 -1.25941 0
gene 3 3 4 0.74425 0 3 0.74425 1
gene 3 2 10 -1.37301 0 55 -1.37301 1
gene 3 10 4 4.13209 0 56 4.13209 1
gene 2 1 10 0.597137 0 181 0.597137 1
genomeend 132

/* Organism #133 Fitness: 2.33939 Error: 647.661 */
genomestart 133
trait 1 0.1 0 0 0 0 0 0 0 
trait 2 0.1625 0 0.00686599 0.00799269 0.168964 0.00242093 0 0 
trait 3 0.276123 0 0 0.0488278 0.044381 0.0253796 0 0 
node 1 2 1 1
node 2 2 1 1
node 3 1 1 1
node 4 1 0 2
node 10 1 0 0
gene 1 1 4 -1.0675 0 1 -1.0675 1
gene 3 2 4 -1.80644 0 2 -1.80644 0
gene 1 3 4 -1.8552 0 3 -1.8552 1
gene 3 2 10 -0.22916 0 55 -0.22916 1
gene 3 10 4 3.46805 0 56 3.46805 1
genomeend 133

/* Organism #134 Fitness: 246 Error: 404 */
genomestart 134
trait 1 0.1 0 0 0 0 0 0 0 
trait 2 0.125 0 0 0 0.297459 0 0 0 
trait 3 0.274365 0 0 0.0524225 0.0634014 0.0362566 0 0 
node 1 2 1 1
node 2 2 1 1
node 3 1 1 1
node 4 1 0 2
node 10 1 0 0
gene 1 1 4 2.52263 0 1 2.52263 1
gene 3 2 4 -0.186234 0 2 -0.186234 0
gene 1 3 4 -3.19517 0 3 -3.19517 1
gene 3 2 10 0.21674 0 55 0.21674 1
gene 3 10 4 2.53364 0 56 2.53364 1
gene 2 10 10 0.982575 1 313 0.982575 1
genomeend 134

/* Organism #135 Fitness: 309.274 Error: 340.726 */
genomestart 135
trait 1 0.1 0.00229704 0.00340652 0 0 0.00359216 0 0.000506266 
trait 2 0.2 0 0.00115668 0.00319708 0.00343774 0 0 0 
trait 3 0.285937 0 0 0.0287575 0.0760817 0.043508 0 0 
node 1 2 1 1
node 2 2 1 1
node 3 1 1 1
node 4 1 0 2
node 10 1 0 0
gene 1 1 4 3.90249 0 1 3.90249 1
gene 3 2 4 2.17856 0 2 2.17856 0
gene 1 3 4 -3.53744 0 3 -3.53744 1
gene 3 2 10 -2.07228 0 55 -2.07228 1
gene 3 10 4 3.09576 0 56 3.09576 1
gene 2 1 10 1.13977 0 181 1.13977 1
genomeend 135

/* Organism #136 Fitness: 256.294 Error: 393.706 */
genomestart 136
trait 1 0.0741268 0 0 0.858299 0 0 0 0 
trait 2 0 0.0307724 0 0 0 0 0 0 
trait 3 0.3 0 0 0 0.101442 0.0580106 0 0 
node 1 2 1 1
node 2 2 1 1
node 3 1 1 1
node 4 1 0 2
node 10 1 0 0
gene 1 1 4 6.7302 0 1 6.7302 1
gene 3 2 4 -0.144359 0 2 -0.144359 1
gene 1 3 4 3.07771 0 3 3.07771 1
gene 3 2 10 -1.20941 0 55 -1.20941 1
gene 3 10 4 3.82791 0 56 3.82791 1
gene 2 1 10 -0.361434 0 141 -0.361434 0
genomeend 136

/* Organism #137 Fitness: 2.33939 Error: 647.661 */
genomestart 137
trait 1 0.1 0 0 0 0 0 0 0 
trait 2 0.14375 0 0.00343299 0.00399635 0.233212 0.00121046 0 0 
trait 3 0.275244 0 0 0.0506251 0.0538912 0.0308181 0 0 
node 1 2 1 1
node 2 2 1 1
node 3 1 1 1
node 4 1 0 2
node 10 1 0 0
node 32 1 0 0
gene 1 1 4 0.727562 0 1 0.727562 0
gene 3 2 4 -0.996337 0 2 -0.996337 1
gene 1 3 4 -2.52519 0 3 -2.52519 1
gene 3 2 10 -0.00620967 0 55 -0.00620967 1
gene 3 10 4 3.00085 0 56 3.00085 1
gene 1 1 32 1 0 326 0 1
gene 1 32 4 0.727562 0 327 0 1
genomeend 137

/* Organism #138 Fitness: 303.647 Error: 346.353 */
genomestart 138
trait 1 0.1 0.00114852 0.00170326 0 0 0.00179608 0 0.000253133 
trait 2 0.1625 0 0.00744432 0.00959123 0.170683 0.00242093 0 0 
trait 3 0.28418 0 0 0.0323522 0.0570613 0.032631 0 0 
node 1 2 1 1
node 2 2 1 1
node 3 1 1 1
node 4 1 0 2
node 10 1 0 0
gene 1 1 4 3.36771 0 1 3.36771 1
gene 3 2 4 0.134104 0 2 0.134104 1
gene 3 3 4 0.213701 0 3 0.213701 1
gene 3 2 10 -1.33543 0 55 -1.33543 1
gene 3 10 4 1.78157 0 56 1.78157 1
gene 2 1 10 0.390567 0 181 0.390567 1
genomeend 138

/* Organism #139 Fitness: 78.0255 Error: 571.975 */
genomestart 139
trait 1 0.1 0.000574259 0.000851629 0 0 0.000898039 0 0.000126566 
trait 2 0.14375 0 0.00372216 0.00479562 0.234071 0.00121046 0 0 
trait 3 0.279272 0 0 0.0423873 0.0602314 0.0344438 0 0 
node 1 2 1 1
node 2 2 1 1
node 3 2 1 1
node 4 1 0 2
node 10 1 0 0
gene 1 1 4 3.60904 0 1 3.60904 1
gene 3 2 4 -1.03514 0 2 -1.03514 0
gene 3 3 4 -1.26141 0 3 -1.26141 1
gene 3 2 10 -0.778404 0 55 -0.778404 1
gene 3 10 4 3.69187 0 56 3.69187 1
gene 2 1 10 -0.64632 0 181 -0.64632 1
genomeend 139

/* Organism #140 Fitness: 293.188 Error: 356.812 */
genomestart 140
trait 1 0.0870634 0 0 0.429149 0 0 0 0 
trait 2 0.0625 0.0153862 0 0 0.14873 0 0 0 
trait 3 0.287183 0 0 0.0262112 0.0824219 0.0471336 0 0 
node 1 2 1 1
node 2 2 1 1
node 3 1 1 1
node 4 1 0 2
node 10 1 0 0
gene 1 1 4 4.17114 0 1 4.17114 1
gene 3 2 4 0.21935 0 2 0.21935 1
gene 1 3 4 -0.726104 0 3 -0.726104 1
gene 3 2 10 -1.82356 0 55 -1.82356 1
gene 3 10 4 4.36865 0 56 4.36865 1
gene 2 1 10 -2.14927 0 141 -2.14927 0
genomeend 140

/* Organism #141 Fitness: 268.933 Error: 381.067 */
genomestart 141
trait 1 0.1 0 0 0 0 0 0 0 
trait 2 0.2 0 0 0 0 0 0 0 
trait 3 0.3 0 0 0 0.101442 0.0580106 0 0 
node 1 2 1 1
node 2 2 1 1
node 3 2 1 1
node 4 1 0 2
node 10 1 0 0
gene 1 1 4 3.74505 0 1 3.74505 1
gene 3 2 4 3.30355 0 2 3.30355 0
gene 1 3 4 -0.492326 0 3 -0.492326 1
gene 3 2 10 -0.825931 0 55 -0.825931 1
gene 3 10 4 2.34597 0 56 2.34597 1
gene 2 3 10 1.90495 0 111 1.90495 1
gene 3 4 4 0.189158 1 161 0.189158 1
gene 2 1 10 1.14167 0 181 1.14167 1
genomeend 141

/* Organism #142 Fitness: 279.635 Error: 370.365 */
genomestart 142
trait 1 0.1 0 0 0 0 0 0 0 
trait 2 0.18125 0 0.00343299 0.00399635 0.0844819 0.00121046 0 0 
trait 3 0.295605 0 0 0.00898671 0.0855919 0.0489465 0 0 
node 1 2 1 1
node 2 2 1 1
node 3 1 1 1
node 4 3 0 2
node 10 1 0 0
gene 1 1 4 4.0653 0 1 4.0653 1
gene 3 2 4 -1.27986 0 2 -1.27986 0
gene 1 3 4 -2.35707 0 3 -2.35707 1
gene 3 2 10 2.66127 0 55 2.66127 0
gene 3 10 4 3.63447 0 56 3.63447 1
gene 2 3 10 2.09847 0 111 2.09847 1
genomeend 142

/* Organism #143 Fitness: 50.5307 Error: 599.469 */
genomestart 143
trait 1 0.1 0.00114852 0.00170326 0 0 0.00179608 0 0.000253133 
trait 2 0.2 0 0.000578339 0.00159854 0.00171887 0 0 0 
trait 3 0.292969 0 0 0.0143787 0.088762 0.0507593 0 0 
node 1 2 1 1
node 2 2 1 1
node 3 1 1 1
node 4 1 0 2
node 10 1 0 0
gene 1 1 4 4.65881 0 1 4.65881 1
gene 3 2 4 2.928 0 2 2.928 0
gene 1 3 4 -0.689995 0 3 -0.689995 1
gene 3 2 10 0.626268 0 55 0.626268 1
gene 3 10 4 3.53841 0 56 3.53841 1
gene 2 3 10 0.727354 0 111 0.728962 1
genomeend 143

/* Organism #144 Fitness: 164.969 Error: 485.031 */
genomestart 144
trait 1 0.1 0.00114852 0.00170326 0 0 0.00179608 0 0.000253133 
trait 2 0.2 0 0.000578339 0.00159854 0.00171887 0 0 0 
trait 3 0.286963 0 0 0.0266606 0.10843 0 0.090704 0 
node 1 1 1 1
node 2 1 1 1
node 3 3 1 1
node 4 2 0 2
gene 2 1 4 5.8423 0 1 5.8423 1
gene 3 2 4 0.0458706 0 2 0.0458706 1
gene 1 3 4 -2.81757 0 3 -2.81757 1
genomeend 144

/* Organism #145 Fitness: 228.657 Error: 421.343 */
genomestart 145
trait 1 0.0741268 0 0 0.858299 0 0 0 0 
trait 2 0 0 0 0 0.793225 0 0 0 
trait 3 0.3 0 0 0 0.101442 0.0580106 0 0 
node 1 2 1 1
node 2 2 1 1
node 3 1 1 1
node 4 1 0 2
node 10 1 0 0
gene 1 1 4 3.41535 0 1 3.41535 1
gene 3 2 4 -0.0749468 0 2 -0.0749468 1
gene 1 3 4 3.01693 0 3 3.01693 1
gene 3 2 10 0.0388422 0 55 0.0388422 1
gene 3 10 4 4.38937 0 56 4.38937 1
gene 2 1 10 0.9776 0 141 0.9776 1
genomeend 145

/* Organism #146 Fitness: 220.786 Error: 429.214 */
genomestart 146
trait 1 0.0870634 0 0 0.429149 0 0 0 0 
trait 2 0.1 0 0 0 0.396613 0 0 0 
trait 3 0.3 0 0 0 0.101442 0.0580106 0 0 
node 1 2 1 1
node 2 2 1 1
node 3 1 1 1
node 4 1 0 2
node 10 1 0 0
gene 1 1 4 2.65699 0 1 2.65699 1
gene 3 2 4 -0.0749468 0 2 -0.0749468 1
gene 1 3 4 3.01693 0 3 3.01693 1
gene 3 2 10 0.0388422 0 55 0.0388422 1
gene 3 10 4 4.38937 0 56 4.38937 1
gene 2 1 10 0.9776 0 141 0.9776 1
genomeend 146

/* Organism #147 Fitness: 322.961 Error: 327.039 */
genomestart 147
trait 1 0.0870634 0 0 0.429149 0 0 0 0 
trait 2 0.1 0 0 0 0.396613 0 0 0 
trait 3 0.3 0 0 0 0.101442 0.0580106 0 0 
node 1 2 1 1
node 2 2 1 1
node 3 1 1 1
node 4 1 0 2
node 10 1 0 0
gene 1 1 4 3.03617 0 1 3.03617 1
gene 3 2 4 -0.391441 0 2 -0.391441 1
gene 1 3 4 0.428727 0 3 0.428727 1
gene 3 2 10 -0.792409 0 55 -0.792409 1
gene 3 10 4 1.65864 0 56 1.65864 1
gene 2 1 10 0.9776 0 141 0.9776 1
genomeend 147

/* Organism #148 Fitness: 241.995 Error: 408.005 */
genomestart 148
trait 1 0.1 0 0 0 0 0 0 0 
trait 2 0.2 0 0 0 0 0 0 0 
trait 3 0.3 0 0 0 0.101442 0.0580106 0 0 
node 1 2 1 1
node 2 2 1 1
node 3 1 1 1
node 4 1 0 2
node 10 1 0 0
gene 1 1 4 3.5464 0 1 3.5464 1
gene 3 2 4 -0.62184 0 2 -0.62184 0
gene 1 3 4 -3.57722 0 3 -3.57722 1
gene 3 2 10 -0.981376 0 55 -0.981376 1
gene 3 10 4 -0.00119997 0 56 -0.00119997 1
gene 2 1 10 -0.252893 0 181 -0.252893 1
genomeend 148

/* Organism #149 Fitness: 2.80726 Error: 647.193 */
genomestart 149
trait 1 0.05 0 0 0.0152285 0 0 0 0 
trait 2 0.1 0 0 0 0.396613 0 0 0 
trait 3 0.3 0 0 0 0.101442 0.0580106 0 0 
node 1 2 1 1
node 2 2 1 1
node 3 1 1 1
node 4 1 0 2
node 10 1 0 0
gene 1 1 4 2.65699 0 1 2.65699 1
gene 3 2 4 -1.44214 0 2 -1.44214 0
gene 1 3 4 2.41499 0 3 2.41499 1
gene 3 2 10 -1.62366 0 55 -1.62366 1
gene 3 10 4 4.30279 0 56 4.30279 1
gene 2 1 10 -2.01895 0 181 -2.01895 1
gene 3 10 10 0.528866 1 339 0.528866 1
genomeend 149

/* Organism #150 Fitness: 287.996 Error: 362.004 */
genomestart 150
trait 1 0.0741268 0 0 0.858299 0 0 0 0 
trait 2 0 0 0 0 0.793225 0 0 0 
trait 3 0.3 0 0 0 0.101442 0.0580106 0 0 
node 1 2 1 1
node 2 2 1 1
node 3 1 1 1
node 4 1 0 2
node 10 1 0 0
gene 1 1 4 5.07078 0 1 5.07078 1
gene 3 2 4 -0.554175 0 2 -0.554175 1
gene 1 3 4 1.50888 0 3 1.50888 1
gene 3 2 10 -1.08394 0 55 -1.08394 1
gene 3 10 4 3.81828 0 56 3.81828 1
gene 2 1 10 1.36237 0 141 1.36237 1
gene 2 4 4 -0.544373 1 309 -0.544373 1
gene 2 3 10 0.484698 0 312 0 1
genomeend 150

/* Organism #151 Fitness: 259.977 Error: 390.023 */
genomestart 151
trait 1 0.0741268 0 0 0.858299 0 0 0 0 
trait 2 0 0 0 0 0.793225 0 0 0 
trait 3 0.3 0 0 0 0.101442 0.0580106 0 0 
node 1 2 1 1
node 2 2 1 1
node 3 1 1 1
node 4 1 0 2
node 10 1 0 0
gene 1 1 4 5.75571 0 1 5.75571 1
gene 3 2 4 -1.85199 0 2 -1.85199 1
gene 1 3 4 0.0801993 0 3 0.0801993 1
gene 3 2 10 -1.41041 0 55 -1.41041 1
gene 1 10 4 4.89502 0 56 4.89502 1
gene 2 1 10 0.988957 0 141 0.988957 1
genomeend 151

/* Organism #152 Fitness: 325.691 Error: 324.309 */
genomestart 152
trait 1 0.0741268 0 0 1 0 0 0.86454 0 
trait 2 0 0 0 0 0.793225 0 0 0 
trait 3 0.3 0 0 0 0.101442 0.0580106 0 0 
node 1 2 1 1
node 2 2 1 1
node 3 3 1 1
node 4 1 0 2
node 10 1 0 0
gene 1 1 4 6.15763 0 1 6.15763 1
gene 3 2 4 -1.03073 0 2 -1.03073 1
gene 1 3 4 0.948454 0 3 0.948454 1
gene 3 2 10 -1.08394 0 55 -1.08394 1
gene 1 10 4 4.09772 0 56 4.09772 1
gene 2 1 10 0.0971232 0 141 0.0971232 1
genomeend 152

/* Organism #153 Fitness: 31.5817 Error: 618.418 */
genomestart 153
trait 1 0.0741268 0 0 0.858299 0 0 0 0 
trait 2 0 0 0 0 0.793225 0 0 0 
trait 3 0.3 0 0 0 0.101442 0.0580106 0 0 
node 1 2 1 1
node 2 2 1 1
node 3 1 1 1
node 4 1 0 2
node 10 1 0 0
gene 1 1 4 4.82442 0 1 4.82442 1
gene 3 2 4 -0.554175 0 2 -0.554175 1
gene 1 3 4 2.45553 0 3 2.45553 1
gene 3 2 10 -2.52913 0 55 -2.52913 1
gene 3 10 4 2.61692 0 56 2.61692 1
gene 2 1 10 0.0588789 0 141 0.0588789 1
gene 2 4 4 1.00838 1 309 1.00838 1
genomeend 153

/* Organism #154 Fitness: 160.716 Error: 489.284 */
genomestart 154
trait 1 0.0741268 0 0 0.858299 0 0 0 0 
trait 2 0 0 0 0 0.793225 0 0 0 
trait 3 0.3 0 0 0 0.101442 0.0580106 0 0 
node 1 2 1 1
node 2 2 1 1
node 3 1 1 1
node 4 1 0 2
node 10 1 0 0
gene 1 1 4 -0.400655 0 1 -0.400655 1
gene 3 2 4 0.0898527 0 2 0.0898527 1
gene 1 3 4 0.728285 0 3 0.728285 1
gene 3 2 10 -1.08394 0 55 -1.08394 1
gene 3 10 4 1.36639 0 56 1.36639 1
gene 2 1 10 1.36237 0 141 1.36237 1
genomeend 154

/* Organism #155 Fitness: 346.215 Error: 303.785 */
genomestart 155
trait 1 0.0741268 0 0 0.858299 0 0 0 0 
trait 2 0 0 0 0 0.793225 0 0 0 
trait 3 0.3 0 0 0 0.101442 0.0580106 0 0 
node 1 2 1 1
node 2 2 1 1
node 3 1 1 1
node 4 1 0 2
node 10 1 0 0
gene 1 1 4 4.30681 0 1 4.30681 1
gene 3 2 4 -0.554175 0 2 -0.554175 1
gene 1 3 4 1.60001 0 3 1.60001 1
gene 3 2 10 -1.08394 0 55 -1.08394 1
gene 3 10 4 3.81828 0 56 3.81828 1
gene 2 1 10 0.0971232 0 141 0.0971232 1
gene 2 3 10 0.484698 0 312 0 1
genomeend 155

/* Organism #156 Fitness: 247.203 Error: 402.797 */
genomestart 156
trait 1 0.0741268 0 0 0.858299 0 0 0 0 
trait 2 0 0 0 0 0.793225 0 0 0 
trait 3 0.3 0 0 0 0.101442 0.0580106 0 0 
node 1 2 1 1
node 2 2 1 1
node 3 1 1 1
node 4 1 0 2
node 10 1 0 0
gene 1 1 4 5.8604 0 1 5.8604 1
gene 3 2 4 0.599578 0 2 0.599578 1
gene 1 3 4 2.46948 0 3 2.46948 1
gene 3 2 10 -0.173462 0 55 -0.173462 1
gene 1 10 4 3.53502 0 56 3.53502 1
gene 2 1 10 2.31483 0 141 2.31483 1
genomeend 156

/* Organism #157 Fitness: 165.758 Error: 484.242 */
genomestart 157
trait 1 0.1 0 0 0 0 0 0 0 
trait 2 0 0 0 0 0.0573896 0 0.535391 0.399477 
trait 3 0.3 0 0 0 0.101442 0.0580106 0 0 
node 1 2 1 1
node 2 2 1 1
node 3 1 1 1
node 4 1 0 2
node 10 1 0 0
gene 1 1 4 5.12012 0 1 5.12012 1
gene 3 2 4 1.63861 0 2 1.63861 1
gene 1 3 4 -0.235009 0 3 -0.235009 1
gene 3 2 10 -2.8004 0 55 -2.8004 1
gene 3 10 4 5.96593 0 56 5.96593 1
gene 3 3 10 0.954996 0 111 0.954996 1
genomeend 157

/* Organism #158 Fitness: 298.293 Error: 351.707 */
genomestart 158
trait 1 0.1 0 0 0 0 0 0 0 
trait 2 0.2 0 0 0 0 0 0 0 
trait 3 0.3 0 0 0 0.101442 0.0580106 0 0 
node 1 2 1 1
node 2 2 1 1
node 3 1 1 1
node 4 1 0 2
node 10 1 0 0
gene 1 1 4 2.45935 0 1 2.45935 1
gene 3 2 4 -0.410457 0 2 -0.410457 0
gene 1 3 4 -3.3138 0 3 -3.3138 1
gene 3 2 10 -1.37301 0 55 -1.37301 1
gene 3 10 4 2.80401 0 56 2.80401 1
gene 1 1 10 0.688607 0 273 0.688607 1
genomeend 158

/* Organism #159 Fitness: 295.719 Error: 354.281 */
genomestart 159
trait 1 0.1 0 0 0 0 0 0 0 
trait 2 0.2 0 0 0 0 0 0 0 
trait 3 0.3 0 0 0 0.101442 0.0580106 0 0 
node 1 2 1 1
node 2 2 1 1
node 3 1 1 1
node 4 1 0 2
node 10 1 0 0
gene 1 1 4 2.45935 0 1 2.45935 1
gene 3 2 4 -0.410457 0 2 -0.410457 0
gene 1 3 4 -3.3138 0 3 -3.3138 1
gene 3 2 10 -1.37301 0 55 -1.37301 1
gene 3 10 4 2.80401 0 56 2.80401 1
gene 3 3 10 0.991421 0 272 0.991421 1
genomeend 159

/* Organism #160 Fitness: 350.051 Error: 299.949 */
genomestart 160
trait 1 0.1 0 0 0 0 0 0 0 
trait 2 0.2 0 0 0 0 0 0 0 
trait 3 0.3 0 0 0 0.101442 0.0580106 0 0 
node 1 2 1 1
node 2 2 1 1
node 3 1 1 1
node 4 1 0 2
node 10 1 0 0
gene 1 1 4 2.45935 0 1 2.45935 1
gene 3 2 4 -0.410457 0 2 -0.410457 0
gene 1 3 4 -3.3138 0 3 -3.3138 1
gene 3 2 10 -1.37301 0 55 -1.37301 1
gene 3 10 4 2.80401 0 56 2.80401 1
gene 1 1 10 0.688607 0 273 0.688607 1
gene 2 3 10 0.484698 0 312 0 1
genomeend 160

/* Organism #161 Fitness: 360.037 Error: 289.963 */
genomestart 161
trait 1 0.1 0 0 0 0 0 0 0 
trait 2 0.2 0 0 0 0 0 0 0 
trait 3 0.3 0 0 0 0.101442 0.0580106 0 0 
node 1 2 1 1
node 2 2 1 1
node 3 1 1 1
node 4 1 0 2
node 10 1 0 0
gene 1 1 4 1.21749 0 1 1.21749 1
gene 3 2 4 -0.518156 0 2 -0.518156 0
gene 1 3 4 -4.44839 0 3 -4.44839 1
gene 3 2 10 -1.75834 0 55 -1.75834 1
gene 3 10 4 1.70532 0 56 1.70532 1
gene 1 1 10 0.688607 0 273 0.688607 1
genomeend 161

/* Organism #162 Fitness: 350.642 Error: 299.358 */
genomestart 162
trait 1 0.1 0 0 0 0 0 0 0 
trait 2 0.2 0 0 0 0 0 0 0 
trait 3 0.3 0 0 0 0.101442 0.0580106 0 0 
node 1 2 1 1
node 2 2 1 1
node 3 1 1 1
node 4 1 0 2
node 10 1 0 0
gene 1 1 4 2.45935 0 1 2.45935 1
gene 3 2 4 -0.410457 0 2 -0.410457 0
gene 1 3 4 -3.3138 0 3 -3.3138 1
gene 3 2 10 -1.37301 0 55 -1.37301 1
gene 3 10 4 2.80401 0 56 2.80401 1
gene 3 3 10 0.991421 0 272 0.991421 1
gene 3 1 10 0.252229 0 345 0 1
genomeend 162

/* Organism #163 Fitness: 313.72 Error: 336.28 */
genomestart 163
trait 1 0.1 0 0 0 0 0 0 0 
trait 2 0.2 0 0 0 0 0 0 0 
trait 3 0.3 0 0 0 0.101442 0.0580106 0 0 
node 1 2 1 1
node 2 2 1 1
node 3 1 1 1
node 4 1 0 2
node 10 1 0 0
gene 1 1 4 2.06209 0 1 2.06209 1
gene 3 2 4 -1.35115 0 2 -1.35115 0
gene 1 3 4 -3.61869 0 3 -3.61869 0
gene 3 2 10 -1.80361 0 55 -1.80361 1
gene 3 10 4 2.11117 0 56 2.11117 1
gene 3 3 10 -0.550866 0 272 -0.550866 1
genomeend 163

/* Organism #164 Fitness: 368.518 Error: 281.482 */
genomestart 164
trait 1 0.1 0 0 0 0 0 0 0 
trait 2 0.2 0 0 0 0 0 0 0 
trait 3 0.3 0 0 0 0.101442 0.0580106 0 0 
node 1 2 1 1
node 2 2 1 1
node 3 1 1 1
node 4 1 0 2
node 10 1 0 0
gene 1 1 4 2.45935 0 1 2.45935 1
gene 3 2 4 -0.410457 0 2 -0.410457 0
gene 1 3 4 -3.3138 0 3 -3.3138 1
gene 3 2 10 -1.37301 0 55 -1.37301 1
gene 3 10 4 2.80401 0 56 2.80401 1
gene 1 1 10 0.688607 0 273 0.688607 1
genomeend 164

/* Organism #165 Fitness: 309.478 Error: 340.522 */
genomestart 165
trait 1 0.1 0 0 0 0 0 0 0 
trait 2 0.2 0 0 0 0 0 0 0 
trait 3 0.3 0 0 0 0.101442 0.0580106 0 0 
node 1 2 1 1
node 2 2 1 1
node 3 1 1 1
node 4 1 0 2
node 10 1 0 0
gene 1 1 4 2.45935 0 1 2.45935 1
gene 3 2 4 -0.410457 0 2 -0.410457 0
gene 1 3 4 -3.3138 0 3 -3.3138 1
gene 3 2 10 -1.37301 0 55 -1.37301 1
gene 3 10 4 2.80401 0 56 2.80401 1
gene 1 1 10 0.688607 0 273 0.688607 1
gene 1 10 10 0.455616 1 347 0.455616 1
genomeend 165

/* Organism #166 Fitness: 285.513 Error: 364.487 */
genomestart 166
trait 1 0.1 0 0 0 0 0 0 0 
trait 2 0.2 0 0 0 0 0 0 0 
trait 3 0.3 0 0 0 0.101442 0.0580106 0 0 
node 1 2 1 1
node 2 2 1 1
node 3 1 1 1
node 4 1 0 2
node 10 1 0 0
gene 1 1 4 2.45935 0 1 2.45935 1
gene 3 2 4 -0.410457 0 2 -0.410457 0
gene 1 3 4 -3.3138 0 3 -3.3138 1
gene 3 2 10 -1.37301 0 55 -1.37301 1
gene 3 10 4 2.80401 0 56 2.80401 1
gene 1 1 10 0.688607 0 273 0.688607 1
gene 2 3 10 0.484698 0 312 0 1
genomeend 166

/* Organism #167 Fitness: 314.045 Error: 335.955 */
genomestart 167
trait 1 0.1 0 0 0 0 0 0 0 
trait 2 0.2 0 0 0 0 0 0 0 
trait 3 0.3 0 0 0 0.101442 0.0580106 0 0 
node 1 2 1 1
node 2 2 1 1
node 3 1 1 1
node 4 1 0 2
node 10 1 0 0
gene 1 1 4 2.45935 0 1 2.45935 1
gene 3 2 4 -0.410457 0 2 -0.410457 0
gene 1 3 4 -3.3138 0 3 -3.3138 1
gene 3 2 10 -1.37301 0 55 -1.37301 1
gene 3 10 4 2.80401 0 56 2.80401 1
gene 1 1 10 0.688607 0 273 0.688607 1
genomeend 167

/* Organism #168 Fitness: 284.073 Error: 365.927 */
genomestart 168
trait 1 0.1 0 0 0 0 0 0 0 
trait 2 0.2 0 0 0 0 0 0 0 
trait 3 0.3 0 0 0 0.101442 0.0580106 0 0 
node 1 2 1 1
node 2 2 1 1
node 3 1 1 1
node 4 1 0 2
node 10 1 0 0
gene 1 1 4 2.45935 0 1 2.45935 1
gene 3 2 4 -0.410457 0 2 -0.410457 0
gene 1 3 4 -3.3138 0 3 -3.3138 1
gene 3 2 10 -1.37301 0 55 -1.37301 1
gene 3 10 4 2.80401 0 56 2.80401 1
gene 1 1 10 0.688607 0 273 0.688607 1
genomeend 168

/* Organism #169 Fitness: 352.832 Error: 297.168 */
genomestart 169
trait 1 0.1 0 0 0 0 0 0 0 
trait 2 0.2 0 0 0 0 0 0 0 
trait 3 0.3 0 0 0 0.101442 0.0580106 0 0 
node 1 2 1 1
node 2 2 1 1
node 3 1 1 1
node 4 1 0 2
node 10 1 0 0
gene 1 1 4 2.45935 0 1 2.45935 1
gene 3 2 4 -0.410457 0 2 -0.410457 0
gene 1 3 4 -3.3138 0 3 -3.3138 1
gene 3 2 10 -1.37301 0 55 -1.37301 1
gene 3 10 4 2.80401 0 56 2.80401 1
gene 1 1 10 0.688607 0 273 0.688607 1
genomeend 169

/* Species #24 : (Size 8) (AF 218.812) (Age 8)  */


/* Organism #170 Fitness: 306.569 Error: 343.431 */
genomestart 170
trait 1 0.1 0 0 0 0 0 0 0 
trait 2 0.1625 0 0.00686599 0.00799269 0.168964 0.00242093 0 0 
trait 3 0.291211 0 0 0.0179734 0.0697416 0.0398823 0 0 
node 1 2 1 1
node 2 2 1 1
node 3 1 1 1
node 4 1 0 2
node 10 1 0 0
gene 1 1 4 2.75924 0 1 2.75924 1
gene 3 2 4 0.332609 0 2 0.332609 0
gene 1 3 4 -0.997299 0 3 -0.997299 1
gene 3 2 10 2.9369 0 55 2.9369 1
gene 3 10 4 2.41065 0 56 2.41065 1
gene 2 3 10 0.564503 0 111 0.564503 1
gene 3 4 4 0.0674456 1 161 0.0674456 1
gene 2 1 10 0.172511 0 181 0.172511 1
genomeend 170

/* Organism #171 Fitness: 317.25 Error: 332.75 */
genomestart 171
trait 1 0.1 0.00229704 0.00340652 0 0 0.00359216 0 0.000506266 
trait 2 0.2 0 0.00115668 0.00319708 0.00343774 0 0 0 
trait 3 0.285937 0 0 0.0287575 0.0760817 0.043508 0 0 
node 1 2 1 1
node 2 2 1 1
node 3 1 1 1
node 4 1 0 2
node 10 1 0 0
gene 1 1 4 3.36216 0 1 3.36216 1
gene 3 2 4 2.81641 0 2 2.81641 0
gene 1 3 4 -1.06305 0 3 -1.06305 1
gene 3 2 10 0.758719 0 55 0.758719 1
gene 3 10 4 2.4078 0 56 2.4078 1
gene 2 3 10 -0.00321583 0 111 0 1
gene 3 4 4 0.0971236 1 161 0.0971236 1
gene 2 1 10 0.0968504 0 181 0.0968504 1
genomeend 171

/* Organism #172 Fitness: 263.209 Error: 386.791 */
genomestart 172
trait 1 0.1 0 0 0 0 0 0 0 
trait 2 0.190625 0 0.000248393 0 0.0379099 0.000151308 0 0 
trait 3 0.299854 0 0 0.000299557 0.0998573 0.0571042 0 0 
node 1 2 1 1
node 2 2 1 1
node 3 1 1 1
node 4 1 0 2
node 10 1 0 0
gene 1 1 4 3.0981 0 1 3.0981 1
gene 3 2 4 1.10637 0 2 1.10637 0
gene 1 3 4 -1.04072 0 3 -1.04072 1
gene 3 2 10 0.2698 0 55 0.2698 1
gene 3 10 4 1.86413 0 56 1.86413 1
gene 2 3 10 -0.666703 0 111 -0.665095 1
gene 3 4 4 0.580482 1 161 0.580482 1
gene 2 1 10 0.660175 0 181 0.61175 1
gene 1 10 10 0.286 1 284 0.286 1
genomeend 172

/* Organism #173 Fitness: 18.2472 Error: 631.753 */
genomestart 173
trait 1 0.1 0 0 0 0 0 0 0 
trait 2 0.195312 0 0.000124197 0 0.018955 7.5654e-05 0 0 
trait 3 0.299927 0 0 0.000149779 0.10065 0.0575574 0 0 
node 1 2 1 1
node 2 2 1 1
node 3 1 1 1
node 4 1 0 2
node 10 1 0 0
gene 1 1 4 4.52678 0 1 4.52678 1
gene 3 2 4 2.07298 0 2 2.07298 0
gene 1 3 4 -0.67883 0 3 -0.67883 1
gene 3 2 10 0.381809 0 55 0.381809 1
gene 3 10 4 3.26658 0 56 3.26658 1
gene 2 3 10 0.39561 0 111 0.396414 1
gene 3 4 4 0.580482 1 161 0.580482 1
gene 2 1 10 0.660175 0 181 0.61175 1
gene 1 10 10 0.286 1 284 0.286 1
gene 2 4 10 0.733902 1 328 0.733902 1
genomeend 173

/* Organism #174 Fitness: 21.9902 Error: 628.01 */
genomestart 174
trait 1 0.1 0 0 0 0 0 0 0 
trait 2 0.190625 0 0.000248393 0 0.0379099 0.000151308 0 0 
trait 3 0.299854 0 0 0.000299557 0.0998573 0.0571042 0 0 
node 1 2 1 1
node 2 2 1 1
node 3 1 1 1
node 4 1 0 2
node 10 1 0 0
gene 1 1 4 1.41128 0 1 1.41128 1
gene 3 2 4 1.95233 0 2 1.95233 0
gene 1 3 4 -0.673738 0 3 -0.673738 1
gene 3 2 10 -1.44138 0 55 -1.44138 1
gene 3 10 4 1.16234 0 56 1.16234 1
gene 2 3 10 0.680691 0 111 0.680691 1
gene 3 4 4 2.09284 1 161 2.09284 1
gene 2 1 10 -0.888247 0 181 -0.888247 1
gene 1 10 10 1.07457 1 284 1.07457 1
genomeend 174

/* Organism #175 Fitness: 295.028 Error: 354.972 */
genomestart 175
trait 1 0.1 0.00229704 0.00340652 0 0 0.00359216 0 0.000506266 
trait 2 0.2 0 0.00115668 0.00319708 0.00343774 0 0 0 
trait 3 0.285937 0 0 0.0287575 0.0760817 0.043508 0 0 
node 1 2 1 1
node 2 2 1 1
node 3 1 1 1
node 4 1 0 2
node 10 1 0 0
gene 1 1 4 3.36216 0 1 3.36216 1
gene 3 2 4 2.81641 0 2 2.81641 0
gene 1 3 4 -1.06305 0 3 -1.06305 1
gene 3 2 10 0.758719 0 55 0.758719 1
gene 3 10 4 2.4078 0 56 2.4078 1
gene 2 3 10 -0.00321583 0 111 0 1
gene 3 4 4 0.0971236 1 161 0.0971236 1
gene 2 1 10 0.0968504 0 181 0.0968504 1
genomeend 175

/* Organism #176 Fitness: 294.04 Error: 355.96 */
genomestart 176
trait 1 0.1 0 0 0 0 0 0 0 
trait 2 0.2 0 0 0 0 0 0 0 
trait 3 0.3 0 0 0 0.101442 0.0580106 0 0 
node 1 2 1 1
node 2 2 1 1
node 3 1 1 1
node 4 1 0 2
node 10 1 0 0
gene 1 1 4 4.21508 0 1 4.21508 1
gene 3 2 4 3.45999 0 2 3.45999 1
gene 1 3 4 1.0539 0 3 1.0539 1
gene 3 2 10 -2.3196 0 55 -2.3196 1
gene 3 10 4 6.18894 0 56 6.18894 1
gene 2 3 10 0.762823 0 111 0.762823 1
genomeend 176

/* Organism #177 Fitness: 234.164 Error: 415.836 */
genomestart 177
trait 1 0.1 0 0 0 0 0 0 0 
trait 2 0.2 0 0 0 0 0 0 0 
trait 3 0.3 0 0 0 0.101442 0.0580106 0 0 
node 1 2 1 1
node 2 2 1 1
node 3 1 1 1
node 4 1 0 2
node 10 1 0 0
gene 1 1 4 6.3627 0 1 6.3627 1
gene 3 2 4 4.03693 0 2 4.03693 1
gene 1 3 4 0.320374 0 3 0.320374 1
gene 3 2 10 -2.34055 0 55 -2.34055 1
gene 2 10 4 5.84861 0 56 5.84861 1
gene 2 3 10 2.05671 0 111 2.05671 1
genomeend 177

/* Species #25 : (Size 22) (AF 157.318) (Age 8)  */


/* Organism #178 Fitness: 295.601 Error: 354.399 */
genomestart 178
trait 1 0.1 0 0 0 0 0 0 0 
trait 2 0.2 0 0 0 0 0 0 0 
trait 3 0.2625 0 0 0.0766866 0 0 0 0 
node 1 1 1 1
node 2 3 1 1
node 3 3 1 1
node 4 3 0 2
node 5 1 0 0
gene 2 1 4 -1.5711 0 1 -1.5711 0
gene 1 2 4 -1.79758 0 2 -1.79758 1
gene 1 3 4 -1.66055 0 3 -1.66055 1
gene 2 1 5 3.70256 0 4 3.70256 1
gene 2 5 4 2.94145 0 5 2.94145 1
gene 2 5 5 0.0963079 1 62 0.0963079 1
gene 1 2 5 -2.12328 0 225 -2.12328 1
genomeend 178

/* Organism #179 Fitness: 256.472 Error: 393.528 */
genomestart 179
trait 1 0.1 0 0 0 0 0 0 0 
trait 2 0.2 0 0 0 0 0 0 0 
trait 3 0.2625 0 0 0.0766866 0 0 0 0 
node 1 1 1 1
node 2 3 1 1
node 3 3 1 1
node 4 3 0 2
node 5 1 0 0
gene 2 1 4 -1.048 0 1 -1.048 0
gene 1 2 4 -1.64574 0 2 -1.64574 1
gene 1 3 4 -1.06406 0 3 -1.06406 1
gene 2 1 5 3.70256 0 4 3.70256 1
gene 2 5 4 2.96487 0 5 2.96487 1
gene 2 5 5 0.0963079 1 62 0.0963079 1
gene 1 2 5 -2.12328 0 225 -2.12328 1
genomeend 179

/* Organism #180 Fitness: 287.933 Error: 362.067 */
genomestart 180
trait 1 0.1 0 0 0 0 0 0 0 
trait 2 0.2 0 0 0 0 0 0 0 
trait 3 0.2625 0 0 0.0766866 0 0 0 0 
node 1 1 1 1
node 2 3 1 1
node 3 3 1 1
node 4 3 0 2
node 5 1 0 0
gene 2 1 4 -1.5711 0 1 -1.5711 0
gene 1 2 4 -1.49391 0 2 -1.49391 1
gene 1 3 4 -0.46758 0 3 -0.46758 1
gene 2 1 5 3.70256 0 4 3.70256 1
gene 2 5 4 2.94145 0 5 2.94145 1
gene 2 5 5 0.0963079 1 62 0.0963079 1
gene 1 2 5 -2.12328 0 225 -2.12328 1
gene 3 3 5 -0.822688 0 320 0 1
genomeend 180

/* Organism #181 Fitness: 259.377 Error: 390.623 */
genomestart 181
trait 1 0.1 0 0 0 0 0 0 0 
trait 2 0.2 0 0 0 0 0 0 0 
trait 3 0.2625 0 0 0.0766866 0 0 0 0 
node 1 1 1 1
node 2 3 1 1
node 3 3 1 1
node 4 3 0 2
node 5 1 0 0
gene 2 1 4 -0.468146 0 1 -0.468146 0
gene 1 2 4 -0.119052 0 2 -0.119052 1
gene 1 3 4 -0.667282 0 3 -0.667282 1
gene 2 1 5 6.50844 0 4 6.50844 1
gene 2 5 4 1.60056 0 5 1.60056 1
gene 2 5 5 -0.309217 1 62 -0.309217 1
gene 1 2 5 -2.93006 0 225 -2.93006 1
genomeend 181

/* Organism #182 Fitness: 298.162 Error: 351.838 */
genomestart 182
trait 1 0.1 0 0 0 0 0 0 0 
trait 2 0.2 0 0.0138801 0.0383649 0.0412528 0 0 0 
trait 3 0.640625 0 0 0.0191717 0 0 0.198051 0 
node 1 3 1 1
node 2 1 1 1
node 3 3 1 1
node 4 2 0 2
node 5 1 0 0
gene 2 1 4 -0.00586771 0 1 -0.00586771 0
gene 1 2 4 -0.935637 0 2 -0.935637 1
gene 1 3 4 -1.20642 0 3 -1.20642 1
gene 2 1 5 3.73804 0 4 3.73804 1
gene 2 5 4 4.36521 0 5 4.36521 1
gene 2 4 4 0.204699 1 73 0.204699 1
gene 3 2 5 -1.76785 0 112 -1.76785 1
genomeend 182

/* Organism #183 Fitness: 304.356 Error: 345.644 */
genomestart 183
trait 1 0.1 0 0 0 0 0 0 0 
trait 2 0.2 0 0.0138801 0.0383649 0.0412528 0 0 0 
trait 3 0.640625 0 0 0.0191717 0 0 0.198051 0 
node 1 3 1 1
node 2 1 1 1
node 3 3 1 1
node 4 2 0 2
node 5 1 0 0
gene 2 1 4 -0.00586771 0 1 -0.00586771 0
gene 1 2 4 -0.935637 0 2 -0.935637 1
gene 1 3 4 -1.20642 0 3 -1.20642 1
gene 2 1 5 3.73804 0 4 3.73804 1
gene 2 5 4 4.36521 0 5 4.36521 1
gene 2 4 4 0.204699 1 73 0.204699 1
gene 3 2 5 -1.76785 0 112 -1.76785 1
genomeend 183

/* Organism #184 Fitness: 24.0293 Error: 625.971 */
genomestart 184
trait 1 0.1 0 0 0 0 0 0 0 
trait 2 0.2 0 0.0138801 0.0383649 0.0412528 0 0 0 
trait 3 0.640625 0 0 0.0191717 0 0 0.198051 0 
node 1 3 1 1
node 2 1 1 1
node 3 3 1 1
node 4 2 0 2
node 5 1 0 0
gene 2 1 4 -1.5704 0 1 -1.5704 0
gene 1 2 4 -2.2629 0 2 -2.2629 1
gene 1 3 4 -2.87217 0 3 -2.87217 1
gene 2 1 5 2.0266 0 4 2.0266 1
gene 2 5 4 4.08471 0 5 4.08471 1
gene 2 4 4 1.96955 1 73 1.96955 1
gene 3 2 5 -2.13063 0 112 -2.13063 1
genomeend 184

/* Organism #185 Fitness: 20.0821 Error: 629.918 */
genomestart 185
trait 1 0.1 0 0 0 0 0 0 0 
trait 2 0.2 0 0 0 0 0 0 0 
trait 3 0.2625 0 0 0.0766866 0 0 0 0 
node 1 1 1 1
node 2 3 1 1
node 3 3 1 1
node 4 1 0 2
node 5 1 0 0
gene 2 1 4 0.916234 0 1 0.916234 0
gene 1 2 4 -1.19732 0 2 -1.19732 1
gene 1 3 4 -1.55619 0 3 -1.55619 1
gene 2 1 5 1.64348 0 4 1.64348 1
gene 2 5 4 0.721139 0 5 0.721139 1
gene 2 5 5 3.31078 1 62 3.31078 1
gene 1 2 5 -0.453078 0 225 -0.453078 1
genomeend 185

/* Organism #186 Fitness: 264.862 Error: 385.138 */
genomestart 186
trait 1 0.1 0 0 0 0 0 0 0 
trait 2 0.2 0 0 0 0 0 0 0 
trait 3 0.2625 0 0 0.0766866 0 0 0 0 
node 1 1 1 1
node 2 3 1 1
node 3 3 1 1
node 4 3 0 2
node 5 1 0 0
gene 2 1 4 -0.0686888 0 1 -0.0686888 0
gene 1 2 4 -1.49391 0 2 -1.49391 0
gene 1 3 4 -1.56251 0 3 -1.56251 1
gene 2 1 5 4.76295 0 4 4.76295 1
gene 2 5 4 1.33629 0 5 1.33629 1
gene 2 5 5 0.717302 1 62 0.717302 1
gene 1 2 5 -1.98519 0 225 -1.98519 1
genomeend 186

/* Organism #187 Fitness: 18.949 Error: 631.051 */
genomestart 187
trait 1 0.1 0 0 0 0 0 0 0 
trait 2 0.2 0 0 0 0 0 0 0 
trait 3 0.2625 0 0 0.0766866 0 0 0 0 
node 1 1 1 1
node 2 3 1 1
node 3 3 1 1
node 4 3 0 2
node 5 1 0 0
gene 2 1 4 -0.553607 0 1 -0.553607 1
gene 1 2 4 -1.92106 0 2 -1.92106 0
gene 1 3 4 -2.42903 0 3 -2.42903 1
gene 2 1 5 4.35268 0 4 4.35268 1
gene 2 5 4 1.33629 0 5 1.33629 1
gene 2 5 5 2.11857 1 62 2.11857 1
gene 1 2 5 -1.98519 0 225 -1.98519 1
genomeend 187

/* Organism #188 Fitness: 144.441 Error: 505.559 */
genomestart 188
trait 1 0.1 0 0 0 0 0 0 0 
trait 2 0.2 0 0 0 0 0 0 0 
trait 3 0.2625 0 0 0.0766866 0 0 0 0 
node 1 2 1 1
node 2 3 1 1
node 3 3 1 1
node 4 3 0 2
node 5 1 0 0
gene 2 1 4 0.526411 0 1 0.526411 0
gene 1 2 4 -1.0976 0 2 -1.0976 0
gene 1 3 4 -0.933713 0 3 -0.933713 1
gene 2 1 5 6.15219 0 4 6.15219 1
gene 2 5 4 1.73896 0 5 1.73896 1
gene 2 5 5 0.732584 1 62 0.732584 1
gene 1 2 5 -3.74579 0 225 -3.74579 1
genomeend 188

/* Organism #189 Fitness: 139.918 Error: 510.082 */
genomestart 189
trait 1 0.1 0 0 0 0 0 0 0 
trait 2 0.2 0 0 0 0 0 0 0 
trait 3 0.2625 0 0 0.0766866 0 0 0 0 
node 1 1 1 1
node 2 3 1 1
node 3 3 1 1
node 4 3 0 2
node 5 1 0 0
gene 2 1 4 -0.796497 0 1 -0.796497 0
gene 1 2 4 -0.776487 0 2 -0.776487 0
gene 1 3 4 -3.11936 0 3 -3.11936 1
gene 2 1 5 5.28765 0 4 5.28765 1
gene 2 5 4 0.507801 0 5 0.507801 1
gene 2 5 5 -0.792533 1 62 -0.792533 1
gene 1 2 5 -0.289808 0 225 -0.289808 1
genomeend 189

/* Organism #190 Fitness: 28.5405 Error: 621.459 */
genomestart 190
trait 1 0.1 0 0 0 0 0 0 0 
trait 2 0.2 0 0 0 0 0 0 0 
trait 3 0.2625 0 0 0.0766866 0 0 0 0 
node 1 1 1 1
node 2 3 1 1
node 3 3 1 1
node 4 3 0 2
node 5 1 0 0
gene 2 1 4 -1.77554 0 1 -1.77554 0
gene 1 2 4 -0.0495379 0 2 -0.0495379 0
gene 1 3 4 -2.30786 0 3 -2.30786 1
gene 2 1 5 6.54114 0 4 6.54114 1
gene 2 5 4 1.39262 0 5 1.39262 1
gene 2 5 5 1.49871 1 62 1.49871 1
gene 1 2 5 -0.46055 0 225 -0.46055 1
genomeend 190

/* Organism #191 Fitness: 2.33939 Error: 647.661 */
genomestart 191
trait 1 0.1 0 0 0 0 0 0 0 
trait 2 0.2 0 0 0 0 0 0 0 
trait 3 0.2625 0 0 0.0766866 0 0 0 0 
node 1 1 1 1
node 2 3 1 1
node 3 3 1 1
node 4 3 0 2
node 5 1 0 0
gene 2 1 4 1.13601 0 1 1.13601 0
gene 1 2 4 -2.81764 0 2 -2.81764 0
gene 1 3 4 -1.48469 0 3 -1.48469 1
gene 2 1 5 -1.54103 0 4 -1.54103 1
gene 2 5 4 -0.406229 0 5 -0.406229 1
gene 2 5 5 0.322274 1 62 0.322274 1
gene 1 2 5 -3.62854 0 225 -3.62854 1
genomeend 191

/* Organism #192 Fitness: 63.8565 Error: 586.144 */
genomestart 192
trait 1 0.1 0 0 0 0 0 0 0 
trait 2 0.2 0 0 0 0 0 0 0 
trait 3 0.2625 0 0 0.0766866 0 0 0 0 
node 1 1 1 1
node 2 3 1 1
node 3 3 1 1
node 4 3 0 2
node 5 1 0 0
gene 2 1 4 -0.937257 0 1 -0.937257 0
gene 1 2 4 -1.51908 0 2 -1.51908 0
gene 1 3 4 -1.90051 0 3 -1.90051 1
gene 2 1 5 5.46744 0 4 5.46744 1
gene 2 5 4 1.2839 0 5 1.2839 1
gene 2 5 5 -0.919948 1 62 -0.919948 1
gene 1 2 5 -1.31269 0 225 -1.31269 1
genomeend 192

/* Organism #193 Fitness: 182.1 Error: 467.9 */
genomestart 193
trait 1 0.1 0 0 0 0 0 0 0 
trait 2 0.2 0 0 0 0 0 0 0 
trait 3 0.2625 0 0 0.0766866 0 0 0 0 
node 1 1 1 1
node 2 3 1 1
node 3 3 1 1
node 4 3 0 2
node 5 1 0 0
gene 2 1 4 -0.0686888 0 1 -0.0686888 0
gene 1 2 4 -1.49391 0 2 -1.49391 0
gene 1 3 4 -1.56251 0 3 -1.56251 1
gene 2 1 5 4.76295 0 4 4.76295 1
gene 2 5 4 1.33629 0 5 1.33629 1
gene 2 5 5 0.717302 1 62 0.717302 1
gene 1 2 5 -1.98519 0 225 -1.98519 1
gene 3 3 5 -0.822688 0 320 0 1
genomeend 193

/* Organism #194 Fitness: 204.756 Error: 445.244 */
genomestart 194
trait 1 0.1 0 0 0 0 0 0 0 
trait 2 0.2 0 0 0 0 0 0 0 
trait 3 0.2625 0 0 0.0766866 0 0 0 0 
node 1 1 1 1
node 2 3 1 1
node 3 2 1 1
node 4 3 0 2
node 5 1 0 0
gene 2 1 4 -0.0686888 0 1 -0.0686888 0
gene 1 2 4 -1.49391 0 2 -1.49391 0
gene 2 3 4 -1.56251 0 3 -1.56251 1
gene 2 1 5 4.76295 0 4 4.76295 1
gene 2 5 4 1.33629 0 5 1.33629 1
gene 2 5 5 0.717302 1 62 0.717302 1
gene 1 2 5 -1.98519 0 225 -1.98519 1
genomeend 194

/* Organism #195 Fitness: 200.885 Error: 449.115 */
genomestart 195
trait 1 0.1 0 0 0 0 0 0 0 
trait 2 0.2 0 0 0 0 0 0 0 
trait 3 0.2625 0 0 0.0766866 0 0 0 0 
node 1 1 1 1
node 2 3 1 1
node 3 3 1 1
node 4 3 0 2
node 5 1 0 0
gene 2 1 4 -1.6206 0 1 -1.6206 0
gene 1 2 4 -2.48247 0 2 -2.48247 0
gene 1 3 4 -1.83153 0 3 -1.83153 1
gene 2 1 5 3.61407 0 4 3.61407 1
gene 2 5 4 1.7574 0 5 1.7574 1
gene 2 5 5 -0.467102 1 62 -0.467102 1
gene 1 2 5 -3.38311 0 225 -3.38311 1
genomeend 195

/* Organism #196 Fitness: 2.33939 Error: 647.661 */
genomestart 196
trait 1 0.1 0 0 0 0 0 0 0 
trait 2 0.2 0.0271693 0.00809675 0.0223795 0.0240642 0.246836 0 0 
trait 3 0.316584 0.0585149 0.221471 0.131584 0 0 0 0 
node 1 1 1 1
node 2 2 1 1
node 3 2 1 1
node 4 3 0 2
node 5 1 0 0
gene 2 1 4 -1.02896 0 1 -1.02896 1
gene 1 2 4 -0.993626 0 2 -0.993626 1
gene 3 3 4 -1.59225 0 3 -1.59225 1
gene 2 1 5 3.29902 0 4 3.29902 1
gene 2 5 4 0.184504 0 5 0.184504 1
gene 3 3 5 -3.4884 0 42 -3.4884 0
gene 1 2 5 -1.85593 0 225 -1.85593 1
genomeend 196

/* Organism #197 Fitness: 222.996 Error: 427.004 */
genomestart 197
trait 1 0.1 0 0 0.0387707 0 0 0 0.0148713 
trait 2 0.2 0 0.0115668 0.0319708 0.0343774 0 0 0 
trait 3 0.28125 0 0 0.0383433 0 0 0 0 
node 1 1 1 1
node 2 3 1 1
node 3 3 1 1
node 4 3 0 2
node 5 1 0 0
gene 2 1 4 -0.941023 0 1 -0.941023 0
gene 1 2 4 1.45982 0 2 1.45982 1
gene 1 3 4 -0.481309 0 3 -0.481309 1
gene 2 1 5 1.33535 0 4 1.33535 1
gene 2 5 4 0.504216 0 5 0.504216 1
gene 2 5 5 0.680736 1 62 0.680736 1
gene 1 2 5 -3.09432 0 225 -3.09432 1
genomeend 197

/* Organism #198 Fitness: 2.33939 Error: 647.661 */
genomestart 198
trait 1 0.1 0 0 0 0 0 0 0 
trait 2 0.2 0 0 0 0 0 0 0 
trait 3 0.2625 0 0 0.0766866 0 0 0 0 
node 1 1 1 1
node 2 3 1 1
node 3 3 1 1
node 4 3 0 2
node 5 1 0 0
gene 2 1 4 -0.941023 0 1 -0.941023 0
gene 1 2 4 -1.39696 0 2 -1.39696 1
gene 1 3 4 0.785702 0 3 0.785702 1
gene 2 1 5 -0.527592 0 4 -0.527592 1
gene 2 5 4 2.15485 0 5 2.15485 1
gene 2 5 5 1.64229 1 62 1.64229 1
gene 1 2 5 -4.18119 0 225 -4.18119 1
genomeend 198

/* Organism #199 Fitness: 236.66 Error: 413.34 */
genomestart 199
trait 1 0.1 0 0 0 0 0 0 0 
trait 2 0.2 0 0 0 0 0 0 0 
trait 3 0.2625 0 0 0.0766866 0 0 0 0 
node 1 1 1 1
node 2 3 1 1
node 3 3 1 1
node 4 3 0 2
node 5 1 0 0
gene 2 1 4 -0.941023 0 1 -0.941023 0
gene 1 2 4 1.78596 0 2 1.78596 1
gene 1 3 4 -0.481309 0 3 -0.481309 1
gene 2 1 5 1.21628 0 4 1.21628 1
gene 2 5 4 2.15485 0 5 2.15485 1
gene 2 5 5 0.680736 1 62 0.680736 1
gene 1 2 5 -3.09432 0 225 -3.09432 1
gene 3 3 5 -0.822688 0 320 0 1
genomeend 199

/* Species #28 : (Size 8) (AF 179.138) (Age 8)  */


/* Organism #200 Fitness: 235.183 Error: 414.817 */
genomestart 200
trait 1 0.687634 0 0 0.547099 0.56381 0 0 0 
trait 2 0.2 0 0.0370137 0.102306 0.110008 0 0 0 
trait 3 0.3 0 0 0 0 0 0 0 
node 1 1 1 1
node 2 3 1 1
node 3 2 1 1
node 4 3 0 2
node 5 1 0 0
gene 2 1 4 -0.234635 0 1 -0.234635 1
gene 1 2 4 -0.206282 0 2 -0.206282 1
