
/* Species #1596 : (Size 213) (AF 0.1651) (Age 24)  */


/* Organism #0 Fitness: 0.134142 Error: 0.765858 */
genomestart 0
trait 1 0.138375 0.000801499 0.187668 0.000586586 0.0764011 0.316837 0 0.0825942 
trait 2 0.0884424 0 0.217772 0.487956 0 0.30657 0.277979 0 
trait 3 0.65 0.00399486 0.341302 0 0.001723 0.0448015 0.200491 0 
node 1 2 1 1
node 2 2 1 1
node 3 1 1 1
node 4 1 0 2
node 5 1 0 0
node 21 1 0 0
node 112 1 0 0
node 131 1 0 0
node 217 3 0 0
gene 3 1 4 1.48602 0 1 1.48602 0
gene 2 2 4 0.905207 0 2 0.905207 1
gene 1 3 4 2.2106 0 3 2.2106 0
gene 1 3 5 2.58925 0 9 2.58925 1
gene 1 5 4 -8 0 10 -8 1
gene 2 2 21 -3.8303 0 204 -3.8303 1
gene 2 21 4 4.59291 0 205 4.59291 1
gene 1 5 5 2.42425 1 246 2.42425 0
gene 1 2 5 -0.0454448 0 569 -0.0454448 1
gene 2 21 5 -2.30689 0 737 -2.30689 1
gene 2 21 112 7.2907 0 1239 7.2907 1
gene 3 112 4 -8 0 1240 -8 1
gene 2 21 21 5.98362 1 1402 5.98362 0
gene 2 21 131 2.39794 0 1479 2.39794 1
gene 2 131 112 0.947924 0 1480 0.947924 1
gene 1 5 131 2.51359 0 1811 2.51359 0
gene 1 1 112 -8 0 1863 -8 0
gene 3 1 5 -3.1836 0 1941 -3.1836 1
gene 2 131 4 -2.47843 0 2025 -2.47843 1
gene 1 5 112 -5.56127 0 2176 -5.56127 1
gene 3 3 112 3.75836 0 2310 3.75836 1
gene 1 2 217 1.87998 0 2786 1.87998 1
gene 1 217 5 0.671288 0 2787 0.671288 1
gene 3 2 131 5.8209 0 2861 5.8209 1
gene 3 2 112 -5.42425 0 2944 -5.42425 1
gene 3 3 131 -2.71196 0 2986 -2.71196 1
genomeend 0

/* Organism #1 Fitness: 0.117279 Error: 0.782721 */
genomestart 1
trait 1 0.115374 0.000400749 0.0938341 0.000293293 0.0781588 0.158418 0 0.0412971 
trait 2 0.107842 0.00385857 0.21998 0.493353 0 0.309903 0.271105 0.00133257 
trait 3 0.637305 0.0119174 0.170651 0 0.0178892 0.0522684 0.202088 0.00732298 
node 1 2 1 1
node 2 2 1 1
node 3 1 1 1
node 4 1 0 2
node 5 1 0 0
node 21 1 0 0
node 112 1 0 0
node 131 1 0 0
node 217 1 0 0
gene 3 1 4 4.27301 0 1 4.27301 1
gene 2 2 4 2.6803 0 2 2.6803 1
gene 1 3 4 0.781304 0 3 0.781304 1
gene 1 3 5 -4.65218 0 9 -4.65218 1
gene 1 5 4 -4.08463 0 10 -4.08463 1
gene 2 2 21 -4.71447 0 204 -4.71447 1
gene 2 21 4 5.81667 0 205 5.81667 1
gene 1 5 5 -3.51612 1 246 -3.51612 0
gene 1 2 5 -1.44433 0 569 -1.44433 0
gene 2 21 5 -0.52996 0 737 -0.52996 1
gene 2 21 112 -0.839328 0 1239 -0.839328 0
gene 3 112 4 -1.79018 0 1240 -1.79018 1
gene 2 21 21 0.0153063 1 1402 0.0153063 0
gene 2 21 131 -1.5571 0 1479 -1.5571 1
gene 2 131 112 1.76339 0 1480 1.76339 1
gene 1 5 131 3.86987 0 1811 3.86987 0
gene 1 1 112 -3.89367 0 1863 -3.89367 0
gene 3 1 5 3.99668 0 1941 3.99668 0
gene 2 131 4 -3.80857 0 2025 -3.80857 1
gene 1 5 112 -5.75124 0 2176 -5.75124 1
gene 3 3 112 -4.16744 0 2310 -4.16744 1
gene 1 2 217 2.98324 0 2786 2.98324 1
gene 1 217 5 2.12894 0 2787 2.12894 1
gene 3 2 131 -3.9444 0 2861 -3.9444 1
gene 3 2 112 -3.12652 0 2944 -3.12652 1
gene 3 3 131 1.51748 0 2986 1.51748 1
gene 1 217 131 -0.793772 0 3256 0 1
genomeend 1

/* Organism #2 Fitness: 0.441908 Error: 0.458092 */
genomestart 2
trait 1 0.115374 0.000400749 0.0938341 0.000293293 0.0781588 0.158418 0 0.0412971 
trait 2 0.107842 0.00385857 0.21998 0.493353 0 0.309903 0.271105 0.00133257 
trait 3 0.637305 0.0119174 0.170651 0 0.0178892 0.0522684 0.202088 0.00732298 
node 1 2 1 1
node 2 2 1 1
node 3 1 1 1
node 4 1 0 2
node 5 1 0 0
node 21 1 0 0
node 112 1 0 0
node 131 1 0 0
node 217 1 0 0
gene 3 1 4 -8 0 1 -8 0
gene 2 2 4 2.91117 0 2 2.91117 0
gene 1 3 4 -0.162339 0 3 -0.162339 0
gene 1 3 5 3.13586 0 9 3.13586 1
gene 1 5 4 8 0 10 8 1
gene 2 2 21 -3.68971 0 204 -3.68971 1
gene 2 21 4 8 0 205 8 0
gene 1 5 5 -6.98478 1 246 -6.98478 0
gene 1 2 5 6.13665 0 569 6.13665 0
gene 1 21 5 3.39114 0 737 3.39114 1
gene 2 21 112 -1.25243 0 1239 -1.25243 0
gene 3 112 4 -7.24306 0 1240 -7.24306 1
gene 2 21 21 -4.1209 1 1402 -4.1209 0
gene 2 21 131 0.368844 0 1479 0.368844 1
gene 2 131 112 0.0519852 0 1480 0.0519852 1
gene 1 5 131 0.760817 0 1811 0.760817 0
gene 1 1 112 -7.17166 0 1863 -7.17166 0
gene 3 1 5 3.46607 0 1941 3.46607 0
gene 2 131 4 -4.43754 0 2025 -4.43754 1
gene 1 5 112 -4.49708 0 2176 -4.49708 1
gene 3 3 112 0.157829 0 2310 0.157829 1
gene 1 2 217 1.63231 0 2786 1.63231 1
gene 1 217 5 6.1279 0 2787 6.1279 1
gene 3 2 131 -4.01596 0 2861 -4.01596 1
gene 3 2 112 0.512386 0 2944 0.512386 1
gene 3 3 131 -3.38456 0 2986 -3.38456 1
gene 1 217 131 2.58098 0 3256 2.58098 1
genomeend 2

/* Organism #3 Fitness: 0.445994 Error: 0.454006 */
genomestart 3
trait 1 0.138375 0.000801499 0.187668 0.000586586 0.0764011 0.316837 0 0.0825942 
trait 2 0.0884424 0 0.217772 0.487956 0 0.30657 0.277979 0 
trait 3 0.65 0.00399486 0.341302 0 0.001723 0.0448015 0.200491 0 
node 1 2 1 1
node 2 2 1 1
node 3 1 1 1
node 4 1 0 2
node 5 1 0 0
node 21 1 0 0
node 112 1 0 0
node 131 1 0 0
node 217 1 0 0
gene 3 1 4 8 0 1 8 0
gene 2 2 4 3.20683 0 2 3.20683 0
gene 1 3 4 3.04044 0 3 3.04044 0
gene 1 3 5 -4.53238 0 9 -4.53238 1
gene 1 5 4 -7.72207 0 10 -7.72207 1
gene 2 2 21 -7.42756 0 204 -7.42756 1
gene 2 21 4 6.79399 0 205 6.79399 1
gene 1 5 5 0.88929 1 246 0.88929 0
gene 1 2 5 -5.14633 0 569 -5.14633 0
gene 2 21 5 -0.945211 0 737 -0.945211 0
gene 2 21 112 5.27747 0 1239 5.27747 0
gene 3 112 4 -4.24683 0 1240 -4.24683 1
gene 2 21 21 3.48513 1 1402 3.48513 0
gene 2 21 131 2.99511 0 1479 2.99511 1
gene 2 131 112 8 0 1480 8 1
gene 1 5 131 4.97294 0 1811 4.97294 0
gene 1 1 112 -6.49652 0 1863 -6.49652 0
gene 3 1 5 -0.00663953 0 1941 -0.00663953 1
gene 2 131 4 0.277681 0 2025 0.277681 1
gene 1 5 112 -5.75124 0 2176 -5.75124 1
gene 3 3 112 -4.16744 0 2310 -4.16744 1
gene 1 2 217 2.98324 0 2786 2.98324 1
gene 1 217 5 2.12894 0 2787 2.12894 1
gene 3 2 131 -3.9444 0 2861 -3.9444 1
gene 3 2 112 -3.12652 0 2944 -3.12652 1
gene 3 3 131 1.51748 0 2986 1.51748 1
gene 1 217 131 -0.793772 0 3256 0 1
genomeend 3

/* Organism #4 Fitness: 0.0161228 Error: 0.883877 */
genomestart 4
trait 1 0.138375 0.000801499 0.187668 0.000586586 0.0764011 0.316837 0 0.0825942 
trait 2 0.0884424 0 0.217772 0.487956 0 0.30657 0.277979 0 
trait 3 0.65 0.00399486 0.341302 0 0.001723 0.0448015 0.200491 0 
node 1 2 1 1
node 2 2 1 1
node 3 1 1 1
node 4 1 0 2
node 5 1 0 0
node 21 1 0 0
node 112 1 0 0
node 131 1 0 0
node 217 1 0 0
gene 3 1 4 4.82345 0 1 4.82345 0
gene 2 2 4 5.81211 0 2 5.81211 0
gene 1 3 4 -0.726183 0 3 -0.726183 0
gene 1 3 5 -5.30976 0 9 -5.30976 1
gene 1 5 4 -4.79749 0 10 -4.79749 1
gene 2 2 21 -5.81586 0 204 -5.81586 1
gene 2 21 4 6.08428 0 205 6.08428 1
gene 1 5 5 0.41031 1 246 0.41031 0
gene 1 2 5 -2.88951 0 569 -2.88951 0
gene 2 21 5 2.43952 0 737 2.43952 0
gene 2 21 112 1.24042 0 1239 1.24042 1
gene 3 112 4 -0.866211 0 1240 -0.866211 1
gene 2 21 21 0.283141 1 1402 0.283141 1
gene 2 21 131 3.88562 0 1479 3.88562 1
gene 2 131 112 6.38681 0 1480 6.38681 1
gene 1 5 131 7.42827 0 1811 7.42827 1
gene 1 1 112 -7.15703 0 1863 -7.15703 0
gene 3 1 5 -2.84202 0 1941 -2.84202 1
gene 2 131 4 0.454435 0 2025 0.454435 1
gene 1 5 112 -4.62063 0 2176 -4.62063 1
gene 3 3 112 -2.89971 0 2310 -2.89971 1
gene 1 2 217 -0.936472 0 2786 -0.936472 1
gene 1 217 5 2.87787 0 2787 2.87787 1
gene 3 2 131 -5.9722 0 2861 -5.9722 1
gene 3 2 112 -5.32423 0 2944 -5.32423 1
gene 3 3 131 -0.192378 0 2986 -0.192378 1
genomeend 4

/* Organism #5 Fitness: 0.445375 Error: 0.454625 */
genomestart 5
trait 1 0.138375 0.000801499 0.187668 0.000586586 0.0764011 0.316837 0 0.0825942 
trait 2 0.0884424 0 0.217772 0.487956 0 0.30657 0.277979 0 
trait 3 0.65 0.00399486 0.341302 0 0.001723 0.0448015 0.200491 0 
node 1 2 1 1
node 2 2 1 1
node 3 1 1 1
node 4 1 0 2
node 5 1 0 0
node 21 1 0 0
node 112 1 0 0
node 131 1 0 0
node 217 1 0 0
gene 3 1 4 8 0 1 8 0
gene 2 2 4 0.633918 0 2 0.633918 0
gene 1 3 4 0.846484 0 3 0.846484 0
gene 1 3 5 -4.53238 0 9 -4.53238 1
gene 1 5 4 -5.81303 0 10 -5.81303 1
gene 2 2 21 -1.54408 0 204 -1.54408 1
gene 2 21 4 7.397 0 205 7.397 1
gene 1 5 5 2.73087 1 246 2.73087 0
gene 1 2 5 -2.68663 0 569 -2.68663 0
gene 2 21 5 -0.945211 0 737 -0.945211 0
gene 2 21 112 1.27609 0 1239 1.27609 1
gene 3 112 4 -3.08811 0 1240 -3.08811 1
gene 2 21 21 5.28225 1 1402 5.28225 1
gene 2 21 131 3.2668 0 1479 3.2668 1
gene 2 131 112 8 0 1480 8 1
gene 1 5 131 6.11156 0 1811 6.11156 0
gene 1 1 112 -6.6078 0 1863 -6.6078 0
gene 3 1 5 -0.00663953 0 1941 -0.00663953 1
gene 2 131 4 0.277681 0 2025 0.277681 1
gene 1 5 112 -5.28818 0 2176 -5.28818 1
gene 3 3 112 -3.74511 0 2310 -3.74511 1
gene 1 2 217 1.52899 0 2786 1.52899 1
gene 1 217 5 1.39193 0 2787 1.39193 1
gene 3 2 131 -3.65511 0 2861 -3.65511 1
gene 3 2 112 -2.69832 0 2944 -2.69832 1
gene 3 3 131 2.35069 0 2986 2.35069 1
genomeend 5

/* Organism #6 Fitness: 0.067667 Error: 0.832333 */
genomestart 6
trait 1 0.138375 0.000801499 0.187668 0.000586586 0.0764011 0.316837 0 0.0825942 
trait 2 0.0884424 0 0.217772 0.487956 0 0.30657 0.277979 0 
trait 3 0.65 0.00399486 0.341302 0 0.001723 0.0448015 0.200491 0 
node 1 2 1 1
node 2 2 1 1
node 3 1 1 1
node 4 1 0 2
node 5 1 0 0
node 21 1 0 0
node 112 1 0 0
node 131 1 0 0
node 217 3 0 0
gene 3 1 4 6.44849 0 1 6.44849 0
gene 2 2 4 1.44687 0 2 1.44687 0
gene 1 3 4 -4.52472 0 3 -4.52472 0
gene 1 3 5 -3.48104 0 9 -3.48104 1
gene 1 5 4 -6.98623 0 10 -6.98623 1
gene 2 2 21 -2.7079 0 204 -2.7079 1
gene 2 21 4 6.25014 0 205 6.25014 1
gene 1 5 5 -3.16199 1 246 -3.16199 0
gene 1 2 5 -6.59048 0 569 -6.59048 0
gene 2 21 5 -2.96174 0 737 -2.96174 0
gene 2 21 112 7.34211 0 1239 7.34211 0
gene 3 112 4 -1.21142 0 1240 -1.21142 1
gene 2 21 21 1.9607 1 1402 1.9607 0
gene 2 21 131 6.64249 0 1479 6.64249 1
gene 2 131 112 4.82401 0 1480 4.82401 1
gene 1 5 131 1.65902 0 1811 1.65902 0
gene 1 1 112 -7.18103 0 1863 -7.18103 0
gene 3 1 5 0.909796 0 1941 0.909796 1
gene 2 131 4 0.277681 0 2025 0.277681 1
gene 1 5 112 -6.91047 0 2176 -6.91047 1
gene 3 3 112 -3.53005 0 2310 -3.53005 1
gene 1 2 217 2.79008 0 2786 2.79008 1
gene 1 217 5 5.9619 0 2787 5.9619 1
gene 3 2 131 0.380162 0 2861 0.380162 1
gene 3 2 112 2.27107 0 2944 2.27107 1
gene 3 3 131 -4.04799 0 2986 -4.04799 1
gene 2 3 217 -0.404932 0 3268 -0.404932 1
genomeend 6

/* Organism #7 Fitness: 0.167532 Error: 0.732468 */
genomestart 7
trait 1 0.138375 0.000801499 0.187668 0.000586586 0.0764011 0.316837 0 0.0825942 
trait 2 0.0884424 0 0.217772 0.487956 0 0.30657 0.277979 0 
trait 3 0.65 0.00399486 0.341302 0 0.001723 0.0448015 0.200491 0 
node 1 2 1 1
node 2 2 1 1
node 3 1 1 1
node 4 1 0 2
node 5 1 0 0
node 21 1 0 0
node 112 1 0 0
node 131 1 0 0
node 217 1 0 0
gene 3 1 4 8 0 1 8 0
gene 2 2 4 -0.215748 0 2 -0.215748 0
gene 2 3 4 6.17806 0 3 6.17806 0
gene 1 3 5 -1.89275 0 9 -1.89275 1
gene 1 5 4 -5.15317 0 10 -5.15317 1
gene 2 2 21 -6.33403 0 204 -6.33403 1
gene 2 21 4 8 0 205 8 1
gene 1 5 5 -2.50583 1 246 -2.50583 0
gene 1 2 5 -2.53662 0 569 -2.53662 0
gene 2 21 5 2.08555 0 737 2.08555 0
gene 2 21 112 4.08768 0 1239 4.08768 0
gene 3 112 4 -2.17442 0 1240 -2.17442 1
gene 2 21 21 -0.00627159 1 1402 -0.00627159 0
gene 2 21 131 0.257425 0 1479 0.257425 1
gene 2 131 112 8 0 1480 8 1
gene 1 5 131 4.23325 0 1811 4.23325 0
gene 1 1 112 -8 0 1863 -8 0
gene 3 1 5 0.339759 0 1941 0.339759 1
gene 2 131 4 0.191983 0 2025 0.191983 1
gene 1 5 112 -4.79388 0 2176 -4.79388 1
gene 3 3 112 -2.07462 0 2310 -2.07462 1
gene 1 2 217 4.3632 0 2786 4.3632 1
gene 1 217 5 4.95693 0 2787 4.95693 1
gene 3 2 131 -0.450466 0 2861 -0.450466 1
gene 3 2 112 0.438085 0 2944 0.438085 1
gene 3 3 131 1.64766 0 2986 1.64766 1
genomeend 7

/* Organism #8 Fitness: 0.0299118 Error: 0.870088 */
genomestart 8
trait 1 0.138375 0.000801499 0.187668 0.000586586 0.0764011 0.316837 0 0.0825942 
trait 2 0.0884424 0 0.217772 0.487956 0 0.30657 0.277979 0 
trait 3 0.65 0.00399486 0.341302 0 0.001723 0.0448015 0.200491 0 
node 1 2 1 1
node 2 2 1 1
node 3 1 1 1
node 4 1 0 2
node 5 1 0 0
node 21 1 0 0
node 112 1 0 0
node 131 1 0 0
node 217 1 0 0
gene 3 1 4 8 0 1 8 0
gene 2 2 4 -0.917878 0 2 -0.917878 0
gene 1 3 4 -0.0415389 0 3 -0.0415389 0
gene 1 3 5 -5.07532 0 9 -5.07532 1
gene 1 5 4 -5.57924 0 10 -5.57924 1
gene 2 2 21 -7.42756 0 204 -7.42756 1
gene 2 21 4 2.06971 0 205 2.06971 1
gene 1 5 5 -2.39791 1 246 -2.39791 0
gene 1 2 5 1.47535 0 569 1.47535 0
gene 2 21 5 -0.744777 0 737 -0.744777 0
gene 2 21 112 6.30466 0 1239 6.30466 0
gene 3 112 4 -1.86237 0 1240 -1.86237 1
gene 2 21 21 -2.06075 1 1402 -2.06075 0
gene 2 21 131 0.779052 0 1479 0.779052 1
gene 2 131 112 7.13471 0 1480 7.13471 1
gene 1 5 131 5.44568 0 1811 5.44568 0
gene 1 1 112 -8 0 1863 -8 0
gene 3 1 5 3.6555 0 1941 3.6555 1
gene 2 131 4 -4.51142 0 2025 -4.51142 1
gene 1 5 112 -7.27139 0 2176 -7.27139 1
gene 3 3 112 -2.98422 0 2310 -2.98422 1
gene 1 2 217 2.85816 0 2786 2.85816 1
gene 1 217 5 -3.76886 0 2787 -3.76886 1
gene 3 2 131 -0.10577 0 2861 -0.10577 1
gene 3 2 112 -4.36812 0 2944 -4.36812 1
gene 3 3 131 1.51748 0 2986 1.51748 1
gene 1 217 131 -1.99966 0 3256 -1.99966 1
genomeend 8

/* Organism #9 Fitness: 0.197684 Error: 0.702316 */
genomestart 9
trait 1 0.138375 0.000801499 0.187668 0.000586586 0.0764011 0.316837 0 0.0825942 
trait 2 0.0884424 0 0.217772 0.487956 0 0.30657 0.277979 0 
trait 3 0.65 0.00399486 0.341302 0 0.001723 0.0448015 0.200491 0 
node 1 2 1 1
node 2 2 1 1
node 3 1 1 1
node 4 1 0 2
node 5 1 0 0
node 21 1 0 0
node 112 1 0 0
node 131 1 0 0
node 217 1 0 0
gene 3 1 4 -2.9811 0 1 -2.9811 0
gene 2 2 4 1.74825 0 2 1.74825 0
gene 1 3 4 -1.1541 0 3 -1.1541 0
gene 1 3 5 -4.46097 0 9 -4.46097 1
gene 1 5 4 -8 0 10 -8 1
gene 2 2 21 -2.89087 0 204 -2.89087 1
gene 2 21 4 0.0473291 0 205 0.0473291 1
gene 1 5 5 -3.2876 1 246 -3.2876 0
gene 1 2 5 -6.77135 0 569 -6.77135 0
gene 2 21 5 -7.78758 0 737 -7.78758 0
gene 2 21 112 1.02515 0 1239 1.02515 0
gene 3 112 4 -3.11756 0 1240 -3.11756 1
gene 2 21 21 1.66858 1 1402 1.66858 0
gene 2 21 131 -0.0421009 0 1479 -0.0421009 1
gene 2 131 112 4.66074 0 1480 4.66074 1
gene 1 5 131 -5.07988 0 1811 -5.07988 0
gene 1 1 112 -5.86772 0 1863 -5.86772 0
gene 3 1 5 -4.97557 0 1941 -4.97557 1
gene 2 131 4 -2.71469 0 2025 -2.71469 1
gene 1 5 112 -2.66189 0 2176 -2.66189 1
gene 3 3 112 -6.52461 0 2310 -6.52461 1
gene 1 2 217 8 0 2786 8 1
gene 1 217 5 3.46927 0 2787 3.46927 1
gene 3 2 131 4.01341 0 2861 4.01341 1
gene 3 2 112 -2.39328 0 2944 -2.39328 1
gene 3 3 131 3.25134 0 2986 3.25134 1
genomeend 9

/* Organism #10 Fitness: 0.00584846 Error: 0.894152 */
genomestart 10
trait 1 0.138375 0.000801499 0.187668 0.000586586 0.0764011 0.316837 0 0.0825942 
trait 2 0.0884424 0 0.217772 0.487956 0 0.30657 0.277979 0 
trait 3 0.65 0.00399486 0.341302 0 0.001723 0.0448015 0.200491 0 
node 1 2 1 1
node 2 2 1 1
node 3 1 1 1
node 4 1 0 2
node 5 1 0 0
node 21 1 0 0
node 112 1 0 0
node 131 1 0 0
node 217 1 0 0
gene 3 1 4 8 0 1 8 0
gene 2 2 4 -5.42267 0 2 -5.42267 0
gene 1 3 4 -1.84059 0 3 -1.84059 0
gene 1 3 5 -2.35544 0 9 -2.35544 1
gene 1 5 4 -7.78238 0 10 -7.78238 1
gene 2 2 21 -5.58168 0 204 -5.58168 1
gene 2 21 4 8 0 205 8 1
gene 1 5 5 -0.344377 1 246 -0.344377 0
gene 1 2 5 -6.43716 0 569 -6.43716 0
gene 2 21 5 -3.63318 0 737 -3.63318 0
gene 2 21 112 0.594193 0 1239 0.594193 0
gene 3 112 4 -0.273877 0 1240 -0.273877 1
gene 2 21 21 0.803025 1 1402 0.803025 0
gene 2 21 131 1.52007 0 1479 1.52007 1
gene 2 131 112 4.95475 0 1480 4.95475 1
gene 1 5 131 8 0 1811 8 0
gene 1 1 112 -5.85698 0 1863 -5.85698 0
gene 3 1 5 1.56838 0 1941 1.56838 1
gene 2 131 4 -0.0664178 0 2025 -0.0664178 1
gene 1 5 112 -0.211708 0 2176 -0.211708 1
gene 3 3 112 0.418918 0 2310 0.418918 1
gene 1 2 217 4.57365 0 2786 4.57365 1
gene 1 217 5 3.87253 0 2787 3.87253 1
gene 3 2 131 1.00213 0 2861 1.00213 1
gene 3 2 112 -1.90667 0 2944 -1.90667 1
gene 3 3 131 8 0 2986 8 1
genomeend 10

/* Organism #11 Fitness: 0.00561453 Error: 0.894385 */
genomestart 11
trait 1 0.138375 0.000801499 0.187668 0.000586586 0.0764011 0.316837 0 0.0825942 
trait 2 0.0884424 0 0.217772 0.487956 0 0.30657 0.277979 0 
trait 3 0.65 0.00399486 0.341302 0 0.001723 0.0448015 0.200491 0 
node 1 2 1 1
node 2 2 1 1
node 3 1 1 1
node 4 1 0 2
node 5 1 0 0
node 21 1 0 0
node 112 1 0 0
node 131 1 0 0
node 217 1 0 0
gene 3 1 4 8 0 1 8 0
gene 2 2 4 4.02035 0 2 4.02035 1
gene 1 3 4 2.04365 0 3 2.04365 0
gene 1 3 5 -4.1916 0 9 -4.1916 1
gene 1 5 4 -3.62448 0 10 -3.62448 1
gene 2 2 21 -3.21379 0 204 -3.21379 1
gene 2 21 4 5.24963 0 205 5.24963 1
gene 1 5 5 -1.34651 1 246 -1.34651 0
gene 1 2 5 -4.68665 0 569 -4.68665 1
gene 2 21 5 -1.26251 0 737 -1.26251 0
gene 2 21 112 5.53797 0 1239 5.53797 1
gene 3 112 4 -4.24683 0 1240 -4.24683 1
gene 2 21 21 4.98252 1 1402 4.98252 0
gene 2 21 131 2.26406 0 1479 2.26406 1
gene 2 131 112 8 0 1480 8 1
gene 1 5 131 2.6345 0 1811 2.6345 0
gene 1 1 112 -3.27304 0 1863 -3.27304 0
gene 3 1 5 -0.00663953 0 1941 -0.00663953 1
gene 2 131 4 0.568027 0 2025 0.568027 1
gene 1 5 112 -6.16005 0 2176 -6.16005 1
gene 3 3 112 -2.49786 0 2310 -2.49786 1
gene 1 2 217 0.49805 0 2786 0.49805 1
gene 1 217 5 2.12894 0 2787 2.12894 1
gene 3 2 131 -3.04365 0 2861 -3.04365 1
gene 3 2 112 -1.48634 0 2944 -1.48634 1
gene 3 3 131 -1.52715 0 2986 -1.52715 1
gene 3 1 21 0.336481 0 3272 0 1
genomeend 11

/* Organism #12 Fitness: 0.0590269 Error: 0.840973 */
genomestart 12
trait 1 0.138375 0.000801499 0.187668 0.000586586 0.0764011 0.316837 0 0.0825942 
trait 2 0.0884424 0 0.217772 0.487956 0 0.30657 0.277979 0 
trait 3 0.65 0.00399486 0.341302 0 0.001723 0.0448015 0.200491 0 
node 1 2 1 1
node 2 2 1 1
node 3 1 1 1
node 4 1 0 2
node 5 1 0 0
node 21 1 0 0
node 112 1 0 0
node 131 1 0 0
node 217 1 0 0
gene 3 1 4 7.12165 0 1 7.12165 0
gene 2 2 4 2.88087 0 2 2.88087 0
gene 1 3 4 5.67157 0 3 5.67157 0
gene 1 3 5 -2.07305 0 9 -2.07305 1
gene 1 5 4 -8 0 10 -8 1
gene 2 2 21 -8 0 204 -8 1
gene 2 21 4 3.17695 0 205 3.17695 1
gene 1 5 5 1.06196 1 246 1.06196 0
gene 1 2 5 -5.96711 0 569 -5.96711 0
gene 2 21 5 1.37338 0 737 1.37338 0
gene 2 21 112 8 0 1239 8 0
gene 3 112 4 -0.460352 0 1240 -0.460352 1
gene 2 21 21 4.67112 1 1402 4.67112 0
gene 2 21 131 7.24782 0 1479 7.24782 1
gene 2 131 112 8 0 1480 8 1
gene 1 5 131 1.93906 0 1811 1.93906 0
gene 1 1 112 -8 0 1863 -8 0
gene 3 1 5 -2.80029 0 1941 -2.80029 1
gene 2 131 4 0.410583 0 2025 0.410583 1
gene 1 5 112 -0.809251 0 2176 -0.809251 1
gene 3 3 112 1.3547 0 2310 1.3547 1
gene 1 2 217 2.30767 0 2786 2.30767 1
gene 1 217 5 1.67493 0 2787 1.67493 1
gene 3 2 131 -7.05306 0 2861 -7.05306 1
gene 3 2 112 -5.7102 0 2944 -5.7102 1
gene 3 3 131 6.71709 0 2986 6.71709 1
gene 2 3 217 1.17123 0 3268 1.17123 1
genomeend 12

/* Organism #13 Fitness: 0.00347113 Error: 0.896529 */
genomestart 13
trait 1 0.138375 0.000801499 0.187668 0.000586586 0.0764011 0.316837 0 0.0825942 
trait 2 0.0884424 0 0.217772 0.487956 0 0.30657 0.277979 0 
trait 3 0.65 0.00399486 0.341302 0 0.001723 0.0448015 0.200491 0 
node 1 2 1 1
node 2 2 1 1
node 3 1 1 1
node 4 1 0 2
node 5 1 0 0
node 21 1 0 0
node 112 1 0 0
node 131 1 0 0
node 217 1 0 0
gene 3 1 4 -0.155373 0 1 -0.155373 0
gene 2 2 4 8 0 2 8 1
gene 1 3 4 2.76718 0 3 2.76718 0
gene 1 3 5 4.42846 0 9 4.42846 1
gene 1 5 4 -7.6934 0 10 -7.6934 1
gene 2 2 21 -8 0 204 -8 1
gene 2 21 4 5.92936 0 205 5.92936 1
gene 1 5 5 -3.36928 1 246 -3.36928 1
gene 1 2 5 -2.3723 0 569 -2.3723 0
gene 2 21 5 1.54751 0 737 1.54751 0
gene 2 21 112 5.89887 0 1239 5.89887 0
gene 3 112 4 -3.98742 0 1240 -3.98742 1
gene 2 21 21 3.85008 1 1402 3.85008 1
gene 2 21 131 2.99511 0 1479 2.99511 1
gene 2 131 112 8 0 1480 8 1
gene 1 5 131 6.66245 0 1811 6.66245 0
gene 1 1 112 -5.58676 0 1863 -5.58676 1
gene 3 1 5 1.25598 0 1941 1.25598 1
gene 2 131 4 -2.95191 0 2025 -2.95191 1
gene 1 5 112 -4.89148 0 2176 -4.89148 1
gene 3 3 112 -6.94543 0 2310 -6.94543 1
gene 1 2 217 3.55762 0 2786 3.55762 1
gene 1 217 5 1.06228 0 2787 1.06228 1
gene 3 2 131 -3.9444 0 2861 -3.9444 1
gene 3 2 112 -7.11974 0 2944 -7.11974 1
gene 3 3 131 3.84111 0 2986 3.84111 1
gene 2 3 21 -0.071929 0 3242 -0.071929 1
genomeend 13

/* Organism #14 Fitness: 0.0819622 Error: 0.818038 */
genomestart 14
trait 1 0.138375 0 0.187668 0.000586586 0.0764011 0.763259 0 0.0825942 
trait 2 0.0884424 0 0.217772 0.487956 0 0.30657 0.277979 0 
trait 3 0.65 0.00399486 0.341302 0 0.001723 0.0448015 0.200491 0 
node 1 2 1 1
node 2 2 1 1
node 3 3 1 1
node 4 1 0 2
node 5 1 0 0
node 21 1 0 0
node 112 1 0 0
node 131 1 0 0
node 217 1 0 0
gene 3 1 4 3.45083 0 1 3.45083 0
gene 2 2 4 8 0 2 8 0
gene 1 3 4 -4.06123 0 3 -4.06123 0
gene 1 3 5 -5.17712 0 9 -5.17712 1
gene 1 5 4 -8 0 10 -8 1
gene 2 2 21 -0.839371 0 204 -0.839371 1
gene 2 21 4 4.99706 0 205 4.99706 1
gene 1 5 5 -2.07954 1 246 -2.07954 0
gene 1 2 5 -8 0 569 -8 0
gene 2 21 5 -0.836366 0 737 -0.836366 0
gene 2 21 112 1.25144 0 1239 1.25144 0
gene 3 112 4 -3.26511 0 1240 -3.26511 1
gene 2 21 21 3.38321 1 1402 3.38321 0
gene 2 21 131 2.99511 0 1479 2.99511 1
gene 2 131 112 8 0 1480 8 1
gene 1 5 131 6.78565 0 1811 6.78565 0
gene 1 1 112 3.61093 0 1863 3.61093 0
gene 3 1 5 -0.398173 0 1941 -0.398173 1
gene 2 131 4 -3.60904 0 2025 -3.60904 1
gene 1 5 112 -4.5403 0 2176 -4.5403 1
gene 3 3 112 -6.98049 0 2310 -6.98049 1
gene 1 2 217 2.98324 0 2786 2.98324 1
gene 1 217 5 -2.48479 0 2787 -2.48479 1
gene 3 2 131 -4.26377 0 2861 -4.26377 1
gene 3 2 112 -6.02648 0 2944 -6.02648 1
gene 3 3 131 -0.102461 0 2986 -0.102461 1
gene 2 217 217 -2.45449 1 3251 -2.45449 1
genomeend 14

/* Organism #15 Fitness: 0.44338 Error: 0.45662 */
genomestart 15
trait 1 0.138375 0.000801499 0.187668 0.000586586 0.0764011 0.316837 0 0.0825942 
trait 2 0.0884424 0 0.217772 0.487956 0 0.30657 0.277979 0 
trait 3 0.65 0.00399486 0.341302 0 0.001723 0.0448015 0.200491 0 
node 1 2 1 1
node 2 2 1 1
node 3 1 1 1
node 4 1 0 2
node 5 1 0 0
node 21 1 0 0
node 112 1 0 0
node 131 1 0 0
node 217 1 0 0
gene 3 1 4 8 0 1 8 0
gene 2 2 4 2.08772 0 2 2.08772 0
gene 1 3 4 1.3408 0 3 1.3408 0
gene 1 3 5 -1.27424 0 9 -1.27424 1
gene 1 5 4 -7.72207 0 10 -7.72207 1
gene 2 2 21 -7.42756 0 204 -7.42756 1
gene 2 21 4 6.79399 0 205 6.79399 1
gene 1 5 5 -4.00356 1 246 -4.00356 0
gene 1 2 5 -8 0 569 -8 0
gene 2 21 5 -0.945211 0 737 -0.945211 0
gene 2 21 112 5.27747 0 1239 5.27747 0
gene 3 112 4 -4.24683 0 1240 -4.24683 1
gene 2 21 21 3.48513 1 1402 3.48513 0
gene 2 21 131 2.75512 0 1479 2.75512 1
gene 2 131 112 -1.72238 0 1480 -1.72238 1
gene 1 5 131 -2.85449 0 1811 -2.85449 0
gene 1 1 112 -6.49652 0 1863 -6.49652 0
gene 3 1 5 -0.00663953 0 1941 -0.00663953 1
gene 2 131 4 0.277681 0 2025 0.277681 1
gene 1 5 112 -5.75124 0 2176 -5.75124 1
gene 3 3 112 -8 0 2310 -8 1
gene 1 2 217 -0.438154 0 2786 -0.438154 1
gene 1 217 5 2.12894 0 2787 2.12894 1
gene 3 2 131 0.0744279 0 2861 0.0744279 1
gene 3 2 112 -6.07131 0 2944 -6.07131 1
gene 3 3 131 4.30173 0 2986 4.30173 1
gene 2 217 112 0.0891806 0 3254 0 1
genomeend 15

/* Organism #16 Fitness: 0.00775187 Error: 0.892248 */
genomestart 16
trait 1 0.138375 0.000801499 0.187668 0.000586586 0.0764011 0.316837 0 0.0825942 
trait 2 0.0884424 0 0.217772 0.487956 0 0.30657 0.277979 0 
trait 3 0.65 0.00399486 0.341302 0 0.001723 0.0448015 0.200491 0 
node 1 2 1 1
node 2 2 1 1
node 3 1 1 1
node 4 1 0 2
node 5 1 0 0
node 21 1 0 0
node 112 1 0 0
node 131 1 0 0
node 217 1 0 0
gene 3 1 4 8 0 1 8 0
gene 2 2 4 3.23686 0 2 3.23686 0
gene 1 3 4 4.23483 0 3 4.23483 0
gene 1 3 5 -0.68844 0 9 -0.68844 1
gene 1 5 4 -8 0 10 -8 1
gene 2 2 21 -8 0 204 -8 1
gene 2 21 4 4.57548 0 205 4.57548 1
gene 1 5 5 5.72523 1 246 5.72523 0
gene 1 2 5 -1.93498 0 569 -1.93498 0
gene 2 21 5 -3.53761 0 737 -3.53761 0
gene 2 21 112 5.88857 0 1239 5.88857 0
gene 3 112 4 -3.64747 0 1240 -3.64747 1
gene 2 21 21 1.92015 1 1402 1.92015 0
gene 2 21 131 3.65108 0 1479 3.65108 1
gene 2 131 112 -0.922455 0 1480 -0.922455 1
gene 1 5 131 8 0 1811 8 0
gene 1 1 112 -6.49652 0 1863 -6.49652 0
gene 3 1 5 0.101949 0 1941 0.101949 1
gene 2 131 4 -4.50913 0 2025 -4.50913 1
gene 1 5 112 0.550814 0 2176 0.550814 1
gene 3 3 112 4.08948 0 2310 4.08948 1
gene 1 2 217 -1.23569 0 2786 -1.23569 1
gene 1 217 5 2.12894 0 2787 2.12894 1
gene 3 2 131 1.12978 0 2861 1.12978 1
gene 3 2 112 -4.72949 0 2944 -4.72949 1
gene 3 3 131 -0.659107 0 2986 -0.659107 1
gene 3 131 217 -4.8826 0 3255 -4.8826 1
genomeend 16

/* Organism #17 Fitness: 0.00584846 Error: 0.894152 */
genomestart 17
trait 1 0.138375 0.000801499 0.187668 0.000586586 0.0764011 0.316837 0 0.0825942 
trait 2 0.0884424 0 0.217772 0.487956 0 0.30657 0.277979 0 
trait 3 0.65 0.00399486 0.341302 0 0.001723 0.0448015 0.200491 0 
node 1 2 1 1
node 2 2 1 1
node 3 1 1 1
node 4 1 0 2
node 5 1 0 0
node 21 1 0 0
node 112 1 0 0
node 131 1 0 0
node 217 1 0 0
gene 3 1 4 -1.31281 0 1 -1.31281 0
gene 2 2 4 7.56061 0 2 7.56061 0
gene 1 3 4 -0.319242 0 3 -0.319242 0
gene 1 3 5 -8 0 9 -8 1
gene 1 5 4 1.67206 0 10 1.67206 1
gene 2 2 21 -6.42003 0 204 -6.42003 1
gene 2 21 4 4.5626 0 205 4.5626 1
gene 1 5 5 -2.78312 1 246 -2.78312 0
gene 1 2 5 -2.76081 0 569 -2.76081 0
gene 1 21 5 4.95063 0 737 4.95063 0
gene 2 21 112 3.18125 0 1239 3.18125 0
gene 3 112 4 -8 0 1240 -8 1
gene 2 21 21 2.42948 1 1402 2.42948 0
gene 2 21 131 2.61461 0 1479 2.61461 1
gene 2 131 112 0.847063 0 1480 0.847063 1
gene 1 5 131 4.14921 0 1811 4.14921 0
gene 1 1 112 -8 0 1863 -8 0
gene 3 1 5 -0.0886152 0 1941 -0.0886152 1
gene 2 131 4 4.88222 0 2025 4.88222 1
gene 1 5 112 -8 0 2176 -8 1
gene 3 3 112 -2.58225 0 2310 -2.58225 1
gene 1 2 217 -0.928994 0 2786 -0.928994 1
gene 1 217 5 -1.00816 0 2787 -1.00816 1
gene 3 2 131 4.83262 0 2861 4.83262 1
gene 3 2 112 -2.88243 0 2944 -2.88243 1
gene 3 3 131 4.8661 0 2986 4.8661 1
genomeend 17

/* Organism #18 Fitness: 0.352135 Error: 0.547865 */
genomestart 18
trait 1 0.138375 0.000801499 0.187668 0.000586586 0.0764011 0.316837 0 0.0825942 
trait 2 0.0884424 0 0.217772 0.487956 0 0.30657 0.277979 0 
trait 3 0.65 0.00399486 0.341302 0 0.001723 0.0448015 0.200491 0 
node 1 2 1 1
node 2 2 1 1
node 3 1 1 1
node 4 1 0 2
node 5 1 0 0
node 21 1 0 0
node 112 1 0 0
node 131 1 0 0
node 217 1 0 0
gene 3 1 4 5.84732 0 1 5.84732 0
gene 2 2 4 0.0651347 0 2 0.0651347 0
gene 1 3 4 -3.71245 0 3 -3.71245 0
gene 1 3 5 -7.77678 0 9 -7.77678 1
gene 1 5 4 -4.06021 0 10 -4.06021 1
gene 2 2 21 -8 0 204 -8 1
gene 2 21 4 2.18022 0 205 2.18022 1
gene 1 5 5 2.10402 1 246 2.10402 0
gene 1 2 5 -3.57388 0 569 -3.57388 0
gene 2 21 5 3.23795 0 737 3.23795 0
gene 2 21 112 3.63154 0 1239 3.63154 0
gene 3 112 4 -3.97813 0 1240 -3.97813 1
gene 2 21 21 4.77217 1 1402 4.77217 0
gene 2 21 131 1.58869 0 1479 1.58869 1
gene 2 131 112 -1.61332 0 1480 -1.61332 1
gene 1 5 131 3.65448 0 1811 3.65448 0
gene 1 1 112 -4.97706 0 1863 -4.97706 0
gene 3 1 5 -0.587534 0 1941 -0.587534 1
gene 2 131 4 -0.934459 0 2025 -0.934459 1
gene 1 5 112 -0.0833504 0 2176 -0.0833504 1
gene 3 3 112 -3.55238 0 2310 -3.55238 1
gene 1 2 217 4.48501 0 2786 4.48501 1
gene 1 217 5 5.78955 0 2787 5.78955 1
gene 3 2 131 -4.16994 0 2861 -4.16994 1
gene 3 2 112 -6.71484 0 2944 -6.71484 1
gene 3 3 131 -2.09975 0 2986 -2.09975 1
genomeend 18

/* Organism #19 Fitness: 0.450225 Error: 0.449775 */
genomestart 19
trait 1 0.138375 0.000801499 0.187668 0.000586586 0.0764011 0.316837 0 0.0825942 
trait 2 0.0884424 0 0.217772 0.487956 0 0.30657 0.277979 0 
trait 3 0.65 0.00399486 0.341302 0 0.001723 0.0448015 0.200491 0 
node 1 2 1 1
node 2 2 1 1
node 3 1 1 1
node 4 1 0 2
node 5 1 0 0
node 21 1 0 0
node 112 1 0 0
node 131 1 0 0
node 217 1 0 0
gene 3 1 4 8 0 1 8 0
gene 2 2 4 1.59783 0 2 1.59783 0
gene 1 3 4 3.04044 0 3 3.04044 0
gene 1 3 5 -4.53238 0 9 -4.53238 1
gene 1 5 4 -7.72207 0 10 -7.72207 1
gene 2 2 21 -7.42756 0 204 -7.42756 1
gene 2 21 4 6.79399 0 205 6.79399 1
gene 1 5 5 0.88929 1 246 0.88929 0
gene 1 2 5 -1.01396 0 569 -1.01396 0
gene 2 21 5 0.876996 0 737 0.876996 0
gene 2 21 112 2.87232 0 1239 2.87232 0
gene 3 112 4 0.437667 0 1240 0.437667 1
gene 2 21 21 3.48513 1 1402 3.48513 0
gene 2 21 131 2.99511 0 1479 2.99511 1
gene 2 131 112 8 0 1480 8 1
gene 1 5 131 5.49687 0 1811 5.49687 0
gene 1 1 112 -3.02194 0 1863 -3.02194 0
gene 3 1 5 -0.00663953 0 1941 -0.00663953 1
gene 2 131 4 0.277681 0 2025 0.277681 1
gene 1 5 112 -5.75124 0 2176 -5.75124 1
gene 3 3 112 -4.16744 0 2310 -4.16744 1
gene 1 2 217 2.98324 0 2786 2.98324 1
gene 1 217 5 2.12894 0 2787 2.12894 1
gene 3 2 131 -3.9444 0 2861 -3.9444 1
gene 3 2 112 -0.672811 0 2944 -0.672811 1
gene 3 3 131 1.51748 0 2986 1.51748 1
genomeend 19

/* Organism #20 Fitness: 0.163993 Error: 0.736007 */
genomestart 20
trait 1 0.138375 0.000801499 0.187668 0.000586586 0.0764011 0.316837 0 0.0825942 
trait 2 0.0884424 0 0.217772 0.487956 0 0.30657 0.277979 0 
trait 3 0.65 0.00399486 0.341302 0 0.001723 0.0448015 0.200491 0 
node 1 2 1 1
node 2 2 1 1
node 3 1 1 1
node 4 1 0 2
node 5 1 0 0
node 21 1 0 0
node 112 1 0 0
node 131 1 0 0
node 217 1 0 0
gene 3 1 4 8 0 1 8 0
gene 2 2 4 3.20683 0 2 3.20683 0
gene 1 3 4 3.04044 0 3 3.04044 0
gene 1 3 5 -4.53238 0 9 -4.53238 1
gene 1 5 4 -7.72207 0 10 -7.72207 1
gene 2 2 21 -7.42756 0 204 -7.42756 1
gene 2 21 4 6.79399 0 205 6.79399 1
gene 1 5 5 0.88929 1 246 0.88929 0
gene 1 2 5 -5.14633 0 569 -5.14633 1
gene 2 21 5 -0.945211 0 737 -0.945211 1
gene 2 21 112 5.27747 0 1239 5.27747 1
gene 3 112 4 -4.24683 0 1240 -4.24683 1
gene 2 21 21 3.48513 1 1402 3.48513 1
gene 2 21 131 2.99511 0 1479 2.99511 1
gene 2 131 112 8 0 1480 8 1
gene 1 5 131 4.97294 0 1811 4.97294 0
gene 1 1 112 -6.49652 0 1863 -6.49652 1
gene 3 1 5 -0.00663953 0 1941 -0.00663953 1
gene 2 131 4 0.277681 0 2025 0.277681 1
gene 1 5 112 -5.75124 0 2176 -5.75124 1
gene 3 3 112 -4.16744 0 2310 -4.16744 1
gene 1 2 217 2.98324 0 2786 2.98324 1
gene 1 217 5 2.12894 0 2787 2.12894 1
gene 3 2 131 -3.9444 0 2861 -3.9444 1
gene 3 2 112 -3.12652 0 2944 -3.12652 1
gene 3 3 131 1.51748 0 2986 1.51748 1
gene 3 131 217 0.638735 0 3255 0 1
genomeend 20

/* Organism #21 Fitness: 0.00584846 Error: 0.894152 */
genomestart 21
trait 1 0.138375 0.000801499 0.187668 0.000586586 0.0764011 0.316837 0 0.0825942 
trait 2 0 0.108166 0.217772 0.487956 0 1 0.563099 0 
trait 3 0.65 0.00399486 0.341302 0 0.001723 0.0448015 0.200491 0 
node 1 2 1 1
node 2 2 1 1
node 3 1 1 1
node 4 1 0 2
node 5 1 0 0
node 21 1 0 0
node 112 1 0 0
node 131 1 0 0
node 217 1 0 0
gene 3 1 4 8 0 1 8 0
gene 2 2 4 -5.33933 0 2 -5.33933 0
gene 1 3 4 6.57492 0 3 6.57492 0
gene 1 3 5 -8 0 9 -8 1
gene 1 5 4 -7.92137 0 10 -7.92137 1
gene 2 2 21 -6.07867 0 204 -6.07867 1
gene 2 21 4 4.93714 0 205 4.93714 1
gene 1 5 5 -2.57604 1 246 -2.57604 0
gene 1 2 5 -7.50653 0 569 -7.50653 0
gene 2 21 5 7.18727 0 737 7.18727 0
gene 2 21 112 1.25387 0 1239 1.25387 0
gene 3 112 4 2.36209 0 1240 2.36209 1
gene 2 21 21 1.19874 1 1402 1.19874 0
gene 2 21 131 1.09243 0 1479 1.09243 1
gene 2 131 112 8 0 1480 8 1
gene 1 5 131 -1.66414 0 1811 -1.66414 0
gene 1 1 112 0.742591 0 1863 0.742591 0
gene 3 1 5 0.230536 0 1941 0.230536 1
gene 2 131 4 -0.258324 0 2025 -0.258324 1
gene 1 5 112 -4.98165 0 2176 -4.98165 1
gene 3 3 112 -6.81364 0 2310 -6.81364 1
gene 1 2 217 0.834851 0 2786 0.834851 1
gene 1 217 5 2.53425 0 2787 2.53425 1
gene 3 2 131 -3.04666 0 2861 -3.04666 1
gene 3 2 112 -3.12652 0 2944 -3.12652 1
gene 3 3 131 6.64396 0 2986 6.64396 1
genomeend 21

/* Organism #22 Fitness: 0.25738 Error: 0.64262 */
genomestart 22
trait 1 0.138375 0.000801499 0.187668 0.000586586 0.0764011 0.316837 0 0.0825942 
trait 2 0.0884424 0 0.217772 0.487956 0 0.30657 0.277979 0 
trait 3 0.65 0.00399486 0.341302 0 0.001723 0.0448015 0.200491 0 
node 1 2 1 1
node 2 2 1 1
node 3 1 1 1
node 4 1 0 2
node 5 1 0 0
node 21 1 0 0
node 112 1 0 0
node 131 1 0 0
node 217 1 0 0
gene 3 1 4 8 0 1 8 0
gene 2 2 4 0.944622 0 2 0.944622 0
gene 1 3 4 4.94028 0 3 4.94028 0
gene 1 3 5 -8 0 9 -8 1
gene 1 5 4 -7.98341 0 10 -7.98341 1
gene 2 2 21 -8 0 204 -8 1
gene 2 21 4 2.63925 0 205 2.63925 1
gene 1 5 5 5.82421 1 246 5.82421 0
gene 1 2 5 1.55065 0 569 1.55065 0
gene 2 21 5 1.69276 0 737 1.69276 0
gene 2 21 112 0.476365 0 1239 0.476365 0
gene 3 112 4 0.243541 0 1240 0.243541 1
gene 2 21 21 8 1 1402 8 0
gene 2 21 131 0.889718 0 1479 0.889718 1
gene 2 131 112 5.635 0 1480 5.635 1
gene 1 5 131 0.694171 0 1811 0.694171 0
gene 1 1 112 -3.45825 0 1863 -3.45825 0
gene 3 1 5 -0.772354 0 1941 -0.772354 1
gene 2 131 4 1.5111 0 2025 1.5111 1
gene 1 5 112 -4.1812 0 2176 -4.1812 1
gene 3 3 112 -0.792968 0 2310 -0.792968 1
gene 1 2 217 6.21306 0 2786 6.21306 1
gene 1 217 5 2.12894 0 2787 2.12894 1
gene 3 2 131 -4.41692 0 2861 -4.41692 1
gene 3 2 112 1.09576 0 2944 1.09576 1
gene 3 3 131 -2.17914 0 2986 -2.17914 1
genomeend 22

/* Organism #23 Fitness: 0.00584846 Error: 0.894152 */
genomestart 23
trait 1 0.138375 0.000801499 0.187668 0.000586586 0.0764011 0.316837 0 0.0825942 
trait 2 0.0884424 0 0.217772 0.487956 0 0.30657 0.277979 0 
trait 3 0.65 0.00399486 0.341302 0 0.001723 0.0448015 0.200491 0 
node 1 2 1 1
node 2 2 1 1
node 3 1 1 1
node 4 1 0 2
node 5 1 0 0
node 21 1 0 0
node 112 1 0 0
node 131 1 0 0
node 217 1 0 0
gene 3 1 4 0.709036 0 1 0.709036 0
gene 2 2 4 -1.61949 0 2 -1.61949 0
gene 1 3 4 -6.0227 0 3 -6.0227 0
gene 1 3 5 -7.85498 0 9 -7.85498 1
gene 1 5 4 -6.69668 0 10 -6.69668 1
gene 2 2 21 -6.68395 0 204 -6.68395 1
gene 2 21 4 -0.562796 0 205 -0.562796 1
gene 1 5 5 1.81161 1 246 1.81161 0
gene 1 2 5 -3.80465 0 569 -3.80465 0
gene 2 21 5 -0.501024 0 737 -0.501024 0
gene 2 21 112 8 0 1239 8 0
gene 3 112 4 -2.14698 0 1240 -2.14698 1
gene 2 21 21 6.7909 1 1402 6.7909 0
gene 2 21 131 -5.17793 0 1479 -5.17793 1
gene 2 131 112 -1.24925 0 1480 -1.24925 1
gene 1 5 131 6.74522 0 1811 6.74522 0
gene 1 1 112 2.8784 0 1863 2.8784 0
gene 3 1 5 2.48943 0 1941 2.48943 1
gene 2 131 4 -4.90214 0 2025 -4.90214 1
gene 1 5 112 -1.74028 0 2176 -1.74028 1
gene 3 3 112 -2.99583 0 2310 -2.99583 1
gene 1 2 217 5.74769 0 2786 5.74769 1
gene 1 217 5 2.79979 0 2787 2.79979 1
gene 3 2 131 6.57403 0 2861 6.57403 1
gene 3 2 112 -3.12652 0 2944 -3.12652 1
gene 3 3 131 -2.61298 0 2986 -2.61298 1
genomeend 23

/* Organism #24 Fitness: 0.445622 Error: 0.454378 */
genomestart 24
trait 1 0.138375 0.000801499 0.187668 0.000586586 0.0764011 0.316837 0 0.0825942 
trait 2 0.0884424 0 0.217772 0.487956 0 0.30657 0.277979 0 
trait 3 0.65 0.00399486 0.341302 0 0.001723 0.0448015 0.200491 0 
node 1 2 1 1
node 2 2 1 1
node 3 1 1 1
node 4 1 0 2
node 5 1 0 0
node 21 1 0 0
node 112 1 0 0
node 131 1 0 0
node 217 1 0 0
gene 3 1 4 8 0 1 8 0
gene 2 2 4 1.44965 0 2 1.44965 0
gene 1 3 4 -1.23016 0 3 -1.23016 0
gene 1 3 5 0.597758 0 9 0.597758 1
gene 1 5 4 -8 0 10 -8 1
gene 2 2 21 -4.17049 0 204 -4.17049 1
gene 2 21 4 8 0 205 8 1
gene 1 5 5 0.601546 1 246 0.601546 0
gene 1 2 5 -6.11802 0 569 -6.11802 0
gene 2 21 5 2.50941 0 737 2.50941 0
gene 2 21 112 -1.64686 0 1239 -1.64686 0
gene 3 112 4 -1.86245 0 1240 -1.86245 1
gene 2 21 21 1.56888 1 1402 1.56888 0
gene 2 21 131 5.96047 0 1479 5.96047 1
gene 2 131 112 8 0 1480 8 1
gene 1 5 131 8 0 1811 8 0
gene 1 1 112 -3.3184 0 1863 -3.3184 0
gene 2 1 5 -0.00663953 0 1941 -0.00663953 1
gene 2 131 4 1.3634 0 2025 1.3634 1
gene 1 5 112 -8 0 2176 -8 1
gene 3 3 112 -3.74491 0 2310 -3.74491 1
gene 1 2 217 1.93996 0 2786 1.93996 1
gene 1 217 5 1.05831 0 2787 1.05831 1
gene 3 2 131 -4.85693 0 2861 -4.85693 1
gene 3 2 112 -1.46827 0 2944 -1.46827 1
gene 3 3 131 4.85264 0 2986 4.85264 1
gene 2 217 217 -0.285181 1 3262 -0.285181 1
genomeend 24

/* Organism #25 Fitness: 0.00608801 Error: 0.893912 */
genomestart 25
trait 1 0.138375 0.000801499 0.187668 0.000586586 0.0764011 0.316837 0 0.0825942 
trait 2 0.0884424 0 0.217772 0.487956 0 0.30657 0.277979 0 
trait 3 0.65 0.00399486 0.341302 0 0.001723 0.0448015 0.200491 0 
node 1 2 1 1
node 2 2 1 1
node 3 1 1 1
node 4 1 0 2
node 5 1 0 0
node 21 1 0 0
node 112 1 0 0
node 131 1 0 0
node 217 1 0 0
gene 3 1 4 8 0 1 8 1
gene 2 2 4 -0.0971902 0 2 -0.0971902 0
gene 1 3 4 0.299099 0 3 0.299099 0
gene 1 3 5 -4.58916 0 9 -4.58916 1
gene 1 5 4 -6.0577 0 10 -6.0577 1
gene 2 2 21 -8 0 204 -8 1
gene 2 21 4 8 0 205 8 1
gene 1 5 5 -2.97292 1 246 -2.97292 0
gene 1 2 5 -7.56072 0 569 -7.56072 0
gene 2 21 5 0.126476 0 737 0.126476 0
gene 2 21 112 7.84687 0 1239 7.84687 0
gene 3 112 4 -5.23936 0 1240 -5.23936 1
gene 2 21 21 4.46302 1 1402 4.46302 0
gene 2 21 131 2.91548 0 1479 2.91548 1
gene 2 131 112 5.61591 0 1480 5.61591 1
gene 1 5 131 3.85546 0 1811 3.85546 0
gene 1 1 112 -2.3187 0 1863 -2.3187 0
gene 3 1 5 1.2396 0 1941 1.2396 1
gene 2 131 4 -1.59069 0 2025 -1.59069 1
gene 1 5 112 -6.82376 0 2176 -6.82376 1
gene 3 3 112 -3.63546 0 2310 -3.63546 1
gene 1 2 217 0.658012 0 2786 0.658012 1
gene 1 217 5 0.842159 0 2787 0.842159 1
gene 3 2 131 -3.9444 0 2861 -3.9444 1
gene 3 2 112 -4.65868 0 2944 -4.65868 1
gene 3 3 131 1.97434 0 2986 1.97434 1
genomeend 25

/* Organism #26 Fitness: 0.103139 Error: 0.796861 */
genomestart 26
trait 1 0.138375 0.000801499 0.187668 0.000586586 0.0764011 0.316837 0 0.0825942 
trait 2 0.0884424 0 0.217772 0.487956 0 0.30657 0.277979 0 
trait 3 0.65 0.00399486 0.341302 0 0.001723 0.0448015 0.200491 0 
node 1 2 1 1
node 2 2 1 1
node 3 1 1 1
node 4 1 0 2
node 5 1 0 0
node 21 1 0 0
node 112 1 0 0
node 131 1 0 0
node 217 1 0 0
gene 3 1 4 7.64775 0 1 7.64775 0
gene 2 2 4 3.20683 0 2 3.20683 0
gene 1 3 4 6.72879 0 3 6.72879 0
gene 1 3 5 -4.53238 0 9 -4.53238 1
gene 1 5 4 -7.72207 0 10 -7.72207 1
gene 2 2 21 -8 0 204 -8 1
gene 2 21 4 6.79399 0 205 6.79399 1
gene 1 5 5 0.88929 1 246 0.88929 0
gene 1 2 5 -5.14633 0 569 -5.14633 0
gene 2 21 5 -0.945211 0 737 -0.945211 0
gene 2 21 112 5.24435 0 1239 5.24435 0
gene 3 112 4 -0.280545 0 1240 -0.280545 1
gene 2 21 21 5.98548 1 1402 5.98548 0
gene 2 21 131 -0.757907 0 1479 -0.757907 1
gene 2 131 112 8 0 1480 8 1
gene 1 5 131 4.97294 0 1811 4.97294 0
gene 1 1 112 -5.64358 0 1863 -5.64358 0
gene 3 1 5 -4.60167 0 1941 -4.60167 1
gene 2 131 4 1.83306 0 2025 1.83306 1
gene 1 5 112 -8 0 2176 -8 1
gene 3 3 112 -4.16744 0 2310 -4.16744 1
gene 1 2 217 6.36115 0 2786 6.36115 1
gene 1 217 5 2.12894 0 2787 2.12894 1
gene 3 2 131 -3.9444 0 2861 -3.9444 1
gene 3 2 112 3.23253 0 2944 3.23253 1
gene 3 3 131 1.51748 0 2986 1.51748 1
gene 1 217 131 -0.793772 0 3256 0 1
gene 1 217 4 0.24372 0 3299 0.24372 1
genomeend 26

/* Organism #27 Fitness: 0.00584846 Error: 0.894152 */
genomestart 27
trait 1 0.138375 0.000801499 0.187668 0.000586586 0.0764011 0.316837 0 0.0825942 
trait 2 0.0884424 0 0.217772 0.487956 0 0.30657 0.277979 0 
trait 3 0.65 0.00399486 0.341302 0 0.001723 0.0448015 0.200491 0 
node 1 2 1 1
node 2 2 1 1
node 3 1 1 1
node 4 1 0 2
node 5 1 0 0
node 21 1 0 0
node 112 1 0 0
node 131 1 0 0
node 217 1 0 0
gene 3 1 4 7.79755 0 1 7.79755 0
gene 2 2 4 3.75725 0 2 3.75725 0
gene 1 3 4 5.13301 0 3 5.13301 0
gene 1 3 5 -8 0 9 -8 1
gene 1 5 4 -4.57771 0 10 -4.57771 1
gene 2 2 21 -8 0 204 -8 1
gene 2 21 4 0.51789 0 205 0.51789 1
gene 1 5 5 6.39493 1 246 6.39493 0
gene 1 2 5 -2.69716 0 569 -2.69716 0
gene 2 21 5 0.887197 0 737 0.887197 0
gene 2 21 112 0.941521 0 1239 0.941521 0
gene 3 112 4 -6.4263 0 1240 -6.4263 1
gene 2 21 21 6.97353 1 1402 6.97353 0
gene 2 21 131 6.00553 0 1479 6.00553 1
gene 2 131 112 8 0 1480 8 1
gene 1 5 131 2.84593 0 1811 2.84593 0
gene 1 1 112 -8 0 1863 -8 0
gene 3 1 5 0.573146 0 1941 0.573146 1
gene 2 131 4 4.82632 0 2025 4.82632 1
gene 1 5 112 6.91845 0 2176 6.91845 1
gene 3 3 112 -1.26243 0 2310 -1.26243 1
gene 1 2 217 7.33856 0 2786 7.33856 1
gene 1 217 5 4.29155 0 2787 4.29155 1
gene 3 2 131 -1.40877 0 2861 -1.40877 1
gene 3 2 112 1.03902 0 2944 1.03902 1
gene 3 3 131 -1.4697 0 2986 -1.4697 1
gene 2 3 21 -0.3337 0 3242 -0.3337 1
genomeend 27

/* Organism #28 Fitness: 0.441246 Error: 0.458754 */
genomestart 28
trait 1 0.138375 0.000801499 0.187668 0.000586586 0.0764011 0.316837 0 0.0825942 
trait 2 0.0884424 0 0.217772 0.487956 0 0.30657 0.277979 0 
trait 3 0.65 0.00399486 0.341302 0 0.001723 0.0448015 0.200491 0 
node 1 2 1 1
node 2 2 1 1
node 3 1 1 1
node 4 1 0 2
node 5 1 0 0
node 21 1 0 0
node 112 1 0 0
node 131 1 0 0
node 217 1 0 0
gene 3 1 4 -2.985 0 1 -2.985 0
gene 2 2 4 3.20683 0 2 3.20683 0
gene 1 3 4 2.47874 0 3 2.47874 0
gene 1 3 5 -4.53238 0 9 -4.53238 1
gene 1 5 4 -8 0 10 -8 1
gene 2 2 21 -7.42756 0 204 -7.42756 1
gene 2 21 4 6.79399 0 205 6.79399 1
gene 1 5 5 0.88929 1 246 0.88929 0
gene 1 2 5 -5.14633 0 569 -5.14633 0
gene 2 21 5 -0.945211 0 737 -0.945211 0
gene 2 21 112 5.27747 0 1239 5.27747 0
gene 3 112 4 -2.72237 0 1240 -2.72237 1
gene 2 21 21 8 1 1402 8 0
gene 2 21 131 2.99511 0 1479 2.99511 1
gene 2 131 112 -3.81007 0 1480 -3.81007 1
gene 1 5 131 4.97294 0 1811 4.97294 0
gene 1 1 112 -6.49652 0 1863 -6.49652 0
gene 3 1 5 -0.00663953 0 1941 -0.00663953 1
gene 2 131 4 0.277681 0 2025 0.277681 1
gene 1 5 112 -2.36102 0 2176 -2.36102 1
gene 3 3 112 0.00375112 0 2310 0.00375112 1
gene 1 2 217 4.40961 0 2786 4.40961 1
gene 1 217 5 -1.76914 0 2787 -1.76914 1
gene 3 2 131 -3.9444 0 2861 -3.9444 1
gene 3 2 112 -3.12652 0 2944 -3.12652 1
gene 3 3 131 1.51748 0 2986 1.51748 1
gene 2 131 131 -0.870109 1 3261 -0.870109 1
genomeend 28

/* Organism #29 Fitness: 0.134078 Error: 0.765922 */
genomestart 29
trait 1 0.138375 0.000801499 0.187668 0.000586586 0.0764011 0.316837 0 0.0825942 
trait 2 0.0884424 0 0.217772 0.487956 0 0.30657 0.277979 0 
trait 3 0.65 0.00399486 0.341302 0 0.001723 0.0448015 0.200491 0 
node 1 2 1 1
node 2 2 1 1
node 3 1 1 1
node 4 1 0 2
node 5 1 0 0
node 21 1 0 0
node 112 1 0 0
node 131 1 0 0
node 217 1 0 0
gene 3 1 4 1.85409 0 1 1.85409 0
gene 2 2 4 3.20683 0 2 3.20683 0
gene 1 3 4 -1.1541 0 3 -1.1541 0
gene 1 3 5 -5.94079 0 9 -5.94079 1
gene 1 5 4 -8 0 10 -8 1
gene 2 2 21 1.18585 0 204 1.18585 1
gene 2 21 4 6.79399 0 205 6.79399 1
gene 1 5 5 -2.00458 1 246 -2.00458 0
gene 1 2 5 -8 0 569 -8 0
gene 2 21 5 -5.09314 0 737 -5.09314 0
gene 2 21 112 0.681691 0 1239 0.681691 0
gene 3 112 4 -4.24683 0 1240 -4.24683 1
gene 2 21 21 -2.99193 1 1402 -2.99193 0
gene 2 21 131 2.35489 0 1479 2.35489 1
gene 2 131 112 4.66074 0 1480 4.66074 1
gene 1 5 131 -0.569793 0 1811 -0.569793 0
gene 1 1 112 -2.30694 0 1863 -2.30694 0
gene 3 1 5 -4.45026 0 1941 -4.45026 1
gene 2 131 4 -1.60367 0 2025 -1.60367 1
gene 1 5 112 -2.66189 0 2176 -2.66189 1
gene 3 3 112 -4.16744 0 2310 -4.16744 1
gene 1 2 217 2.98324 0 2786 2.98324 1
gene 1 217 5 2.12894 0 2787 2.12894 1
gene 3 2 131 -0.852008 0 2861 -0.852008 1
gene 3 2 112 -3.12652 0 2944 -3.12652 1
gene 3 3 131 1.51748 0 2986 1.51748 1
gene 2 3 217 -0.404932 0 3268 -0.404932 1
genomeend 29

/* Organism #30 Fitness: 0.0112008 Error: 0.888799 */
genomestart 30
trait 1 0.138375 0.000801499 0.187668 0.000586586 0.0764011 0.316837 0 0.0825942 
trait 2 0.0884424 0 0.217772 0.487956 0 0.30657 0.277979 0 
trait 3 0.65 0.00399486 0.341302 0 0.001723 0.0448015 0.200491 0 
node 1 2 1 1
node 2 2 1 1
node 3 1 1 1
node 4 1 0 2
node 5 1 0 0
node 21 1 0 0
node 112 1 0 0
node 131 1 0 0
node 217 1 0 0
gene 3 1 4 8 0 1 8 0
gene 2 2 4 3.20683 0 2 3.20683 0
gene 1 3 4 3.04044 0 3 3.04044 0
gene 1 3 5 -4.53238 0 9 -4.53238 1
gene 1 5 4 -7.72207 0 10 -7.72207 1
gene 2 2 21 -7.42756 0 204 -7.42756 1
gene 2 21 4 6.79399 0 205 6.79399 1
gene 1 5 5 0.88929 1 246 0.88929 0
gene 1 2 5 -5.14633 0 569 -5.14633 1
gene 2 21 5 -0.945211 0 737 -0.945211 1
gene 2 21 112 5.27747 0 1239 5.27747 0
gene 3 112 4 -4.24683 0 1240 -4.24683 1
gene 2 21 21 3.48513 1 1402 3.48513 0
gene 2 21 131 2.99511 0 1479 2.99511 1
gene 2 131 112 8 0 1480 8 1
gene 1 5 131 4.97294 0 1811 4.97294 0
gene 1 1 112 -6.49652 0 1863 -6.49652 0
gene 3 1 5 -0.00663953 0 1941 -0.00663953 1
gene 2 131 4 0.277681 0 2025 0.277681 1
gene 1 5 112 -5.75124 0 2176 -5.75124 1
gene 3 3 112 -4.16744 0 2310 -4.16744 1
gene 1 2 217 2.98324 0 2786 2.98324 1
gene 1 217 5 2.12894 0 2787 2.12894 1
gene 3 2 131 -3.9444 0 2861 -3.9444 1
gene 3 2 112 -3.12652 0 2944 -3.12652 1
gene 3 3 131 1.51748 0 2986 1.51748 1
gene 3 131 217 0.638735 0 3255 0 1
gene 2 1 131 -0.308688 0 3284 0 1
genomeend 30

/* Organism #31 Fitness: 0.443016 Error: 0.456984 */
genomestart 31
trait 1 0.138375 0.000801499 0.187668 0.000586586 0.0764011 0.316837 0 0.0825942 
trait 2 0.0884424 0 0.217772 0.487956 0 0.30657 0.277979 0 
trait 3 0.65 0.00399486 0.341302 0 0.001723 0.0448015 0.200491 0 
node 1 2 1 1
node 2 2 1 1
node 3 1 1 1
node 4 1 0 2
node 5 1 0 0
node 21 1 0 0
node 112 1 0 0
node 131 1 0 0
node 217 1 0 0
gene 3 1 4 8 0 1 8 0
gene 2 2 4 3.20683 0 2 3.20683 0
gene 1 3 4 3.04044 0 3 3.04044 0
gene 1 3 5 -4.53238 0 9 -4.53238 1
gene 1 5 4 -7.72207 0 10 -7.72207 1
gene 2 2 21 -7.42756 0 204 -7.42756 1
gene 2 21 4 6.79399 0 205 6.79399 1
gene 1 5 5 0.88929 1 246 0.88929 0
gene 1 2 5 -5.14633 0 569 -5.14633 0
gene 2 21 5 -0.945211 0 737 -0.945211 0
gene 2 21 112 5.27747 0 1239 5.27747 0
gene 3 112 4 -4.24683 0 1240 -4.24683 1
gene 2 21 21 3.48513 1 1402 3.48513 0
gene 2 21 131 2.99511 0 1479 2.99511 1
gene 2 131 112 8 0 1480 8 1
gene 1 5 131 4.97294 0 1811 4.97294 0
gene 1 1 112 -6.49652 0 1863 -6.49652 0
gene 3 1 5 -0.00663953 0 1941 -0.00663953 1
gene 2 131 4 0.277681 0 2025 0.277681 1
gene 1 5 112 -5.75124 0 2176 -5.75124 1
gene 3 3 112 -4.16744 0 2310 -4.16744 1
gene 1 2 217 2.98324 0 2786 2.98324 1
gene 1 217 5 2.12894 0 2787 2.12894 1
gene 3 2 131 -3.9444 0 2861 -3.9444 1
gene 3 2 112 -3.12652 0 2944 -3.12652 1
gene 3 3 131 1.51748 0 2986 1.51748 1
genomeend 31

/* Organism #32 Fitness: 0.443562 Error: 0.456438 */
genomestart 32
trait 1 0.138375 0.000801499 0.187668 0.000586586 0.0764011 0.316837 0 0.0825942 
trait 2 0.0884424 0 0.217772 0.487956 0 0.30657 0.277979 0 
trait 3 0.65 0.00399486 0.341302 0 0.001723 0.0448015 0.200491 0 
node 1 2 1 1
node 2 2 1 1
node 3 1 1 1
node 4 1 0 2
node 5 1 0 0
node 21 1 0 0
node 112 1 0 0
node 131 1 0 0
node 217 1 0 0
gene 3 1 4 8 0 1 8 0
gene 2 2 4 3.2083 0 2 3.2083 0
gene 1 3 4 0.647179 0 3 0.647179 0
gene 1 3 5 -6.20221 0 9 -6.20221 1
gene 1 5 4 -4.11516 0 10 -4.11516 1
gene 2 2 21 -6.53785 0 204 -6.53785 1
gene 2 21 4 3.26666 0 205 3.26666 1
gene 1 5 5 -1.4251 1 246 -1.4251 0
gene 1 2 5 -4.15985 0 569 -4.15985 0
gene 2 21 5 -2.74425 0 737 -2.74425 0
gene 2 21 112 -0.730551 0 1239 -0.730551 0
gene 3 112 4 -4.74938 0 1240 -4.74938 1
gene 2 21 21 7.27326 1 1402 7.27326 0
gene 2 21 131 1.79132 0 1479 1.79132 1
gene 2 131 112 8 0 1480 8 1
gene 1 5 131 3.78361 0 1811 3.78361 0
gene 1 1 112 -4.13153 0 1863 -4.13153 0
gene 3 1 5 -0.00663953 0 1941 -0.00663953 1
gene 2 131 4 1.54013 0 2025 1.54013 1
gene 1 5 112 -2.57123 0 2176 -2.57123 1
gene 3 3 112 -6.40727 0 2310 -6.40727 1
gene 1 2 217 -1.50871 0 2786 -1.50871 1
gene 1 217 5 -0.258484 0 2787 -0.258484 1
gene 3 2 131 -3.85568 0 2861 -3.85568 1
gene 3 2 112 -6.26422 0 2944 -6.26422 1
gene 3 3 131 1.69981 0 2986 1.69981 1
genomeend 32

/* Organism #33 Fitness: 0.442796 Error: 0.457204 */
genomestart 33
trait 1 0.138375 0.000801499 0.187668 0.000586586 0.0764011 0.316837 0 0.0825942 
trait 2 0.0884424 0 0.217772 0.487956 0 0.30657 0.277979 0 
trait 3 0.65 0.00399486 0.341302 0 0.001723 0.0448015 0.200491 0 
node 1 2 1 1
node 2 2 1 1
node 3 1 1 1
node 4 1 0 2
node 5 1 0 0
node 21 1 0 0
node 112 1 0 0
node 131 1 0 0
node 217 1 0 0
gene 3 1 4 8 0 1 8 0
gene 2 2 4 3.20683 0 2 3.20683 0
gene 1 3 4 3.04044 0 3 3.04044 0
gene 1 3 5 -4.53238 0 9 -4.53238 1
gene 1 5 4 -7.72207 0 10 -7.72207 1
gene 2 2 21 -7.42756 0 204 -7.42756 1
gene 2 21 4 6.79399 0 205 6.79399 1
gene 1 5 5 0.88929 1 246 0.88929 0
gene 1 2 5 -5.14633 0 569 -5.14633 0
gene 2 21 5 -0.945211 0 737 -0.945211 0
gene 2 21 112 5.27747 0 1239 5.27747 0
gene 3 112 4 -4.24683 0 1240 -4.24683 1
gene 2 21 21 3.48513 1 1402 3.48513 0
gene 2 21 131 2.99511 0 1479 2.99511 1
gene 2 131 112 8 0 1480 8 1
gene 1 5 131 4.97294 0 1811 4.97294 0
gene 1 1 112 -6.49652 0 1863 -6.49652 0
gene 3 1 5 -0.00663953 0 1941 -0.00663953 1
gene 2 131 4 0.277681 0 2025 0.277681 1
gene 1 5 112 -5.75124 0 2176 -5.75124 1
gene 3 3 112 -4.16744 0 2310 -4.16744 1
gene 1 2 217 2.98324 0 2786 2.98324 1
gene 1 217 5 2.12894 0 2787 2.12894 1
gene 3 2 131 -3.9444 0 2861 -3.9444 1
gene 3 2 112 -3.12652 0 2944 -3.12652 1
gene 3 3 131 1.51748 0 2986 1.51748 1
gene 1 217 131 -0.793772 0 3256 0 1
gene 3 131 5 -0.358673 0 3274 0 1
genomeend 33

/* Organism #34 Fitness: 0.00584846 Error: 0.894152 */
genomestart 34
trait 1 0.138375 0.000801499 0.187668 0.000586586 0.0764011 0.316837 0 0.0825942 
trait 2 0.0884424 0 0.217772 0.487956 0 0.30657 0.277979 0 
trait 3 0.65 0.00399486 0.341302 0 0.001723 0.0448015 0.200491 0 
node 1 2 1 1
node 2 2 1 1
node 3 1 1 1
node 4 1 0 2
node 5 1 0 0
node 21 1 0 0
node 112 1 0 0
node 131 1 0 0
node 217 1 0 0
gene 3 1 4 8 0 1 8 0
gene 2 2 4 2.06461 0 2 2.06461 0
gene 1 3 4 5.70906 0 3 5.70906 0
gene 1 3 5 -8 0 9 -8 1
gene 1 5 4 -8 0 10 -8 1
gene 2 2 21 8 0 204 8 1
gene 2 21 4 -4.672 0 205 -4.672 1
gene 1 5 5 6.6271 1 246 6.6271 0
gene 1 2 5 -1.47115 0 569 -1.47115 0
gene 2 21 5 3.06232 0 737 3.06232 0
gene 2 21 112 5.00662 0 1239 5.00662 0
gene 3 112 4 -7.18433 0 1240 -7.18433 1
gene 2 21 21 -0.849299 1 1402 -0.849299 0
gene 2 21 131 2.23442 0 1479 2.23442 1
gene 2 131 112 2.10825 0 1480 2.10825 1
gene 1 5 131 -1.01959 0 1811 -1.01959 0
gene 1 1 112 -8 0 1863 -8 0
gene 3 1 5 2.61281 0 1941 2.61281 1
gene 2 131 4 -1.70824 0 2025 -1.70824 1
gene 1 5 112 -0.188055 0 2176 -0.188055 1
gene 3 3 112 -7.67519 0 2310 -7.67519 1
gene 1 2 217 7.74015 0 2786 7.74015 1
gene 1 217 5 2.23575 0 2787 2.23575 1
gene 3 2 131 -4.43551 0 2861 -4.43551 1
gene 3 2 112 -5.42514 0 2944 -5.42514 1
gene 3 3 131 4.8315 0 2986 4.8315 1
genomeend 34

/* Organism #35 Fitness: 0.00584846 Error: 0.894152 */
genomestart 35
trait 1 0.138375 0.000801499 0.187668 0.000586586 0.0764011 0.316837 0 0.0825942 
trait 2 0.0884424 0 0.217772 0.487956 0 0.30657 0.277979 0 
trait 3 0.65 0.00399486 0.341302 0 0.001723 0.0448015 0.200491 0 
node 1 2 1 1
node 2 2 1 1
node 3 1 1 1
node 4 1 0 2
node 5 1 0 0
node 21 1 0 0
node 112 1 0 0
node 131 1 0 0
node 217 1 0 0
gene 3 1 4 5.61719 0 1 5.61719 0
gene 2 2 4 0.776109 0 2 0.776109 0
gene 1 3 4 2.34483 0 3 2.34483 0
gene 1 3 5 -3.09464 0 9 -3.09464 1
gene 1 5 4 -0.459995 0 10 -0.459995 1
gene 2 2 21 -8 0 204 -8 1
gene 2 21 4 8 0 205 8 1
gene 1 5 5 -1.96621 1 246 -1.96621 0
gene 1 2 5 -3.33757 0 569 -3.33757 0
gene 2 21 5 -1.04551 0 737 -1.04551 0
gene 2 21 112 1.06651 0 1239 1.06651 0
gene 3 112 4 -2.70122 0 1240 -2.70122 1
gene 2 21 21 6.20369 1 1402 6.20369 0
gene 2 21 131 6.84098 0 1479 6.84098 1
gene 2 131 112 3.00822 0 1480 3.00822 1
gene 1 5 131 8 0 1811 8 0
gene 1 1 112 2.54118 0 1863 2.54118 0
gene 3 1 5 2.77619 0 1941 2.77619 1
gene 2 131 4 0.277681 0 2025 0.277681 1
gene 1 5 112 4.28623 0 2176 4.28623 1
gene 3 3 112 -0.938946 0 2310 -0.938946 1
gene 1 2 217 4.54547 0 2786 4.54547 1
gene 1 217 5 -4.62775 0 2787 -4.62775 1
gene 3 2 131 -6.20844 0 2861 -6.20844 1
gene 3 2 112 -4.80272 0 2944 -4.80272 1
gene 3 3 131 -0.265574 0 2986 -0.265574 1
gene 3 131 217 1.239 0 3255 1.239 1
genomeend 35

/* Organism #36 Fitness: 0.444595 Error: 0.455405 */
genomestart 36
trait 1 0.138375 0.000801499 0.187668 0.000586586 0.0764011 0.316837 0 0.0825942 
trait 2 0.0884424 0 0.217772 0.487956 0 0.30657 0.277979 0 
trait 3 0.65 0.00399486 0.341302 0 0.001723 0.0448015 0.200491 0 
node 1 2 1 1
node 2 2 1 1
node 3 1 1 1
node 4 1 0 2
node 5 1 0 0
node 21 1 0 0
node 112 1 0 0
node 131 1 0 0
node 217 1 0 0
gene 3 1 4 8 0 1 8 0
gene 2 2 4 3.20683 0 2 3.20683 0
gene 1 3 4 3.04044 0 3 3.04044 0
gene 1 3 5 -4.53238 0 9 -4.53238 1
gene 1 5 4 -7.72207 0 10 -7.72207 1
gene 2 2 21 -7.42756 0 204 -7.42756 1
gene 2 21 4 6.79399 0 205 6.79399 1
gene 1 5 5 0.88929 1 246 0.88929 0
gene 1 2 5 -5.14633 0 569 -5.14633 0
gene 2 21 5 -0.945211 0 737 -0.945211 1
gene 2 21 112 5.27747 0 1239 5.27747 0
gene 3 112 4 -4.24683 0 1240 -4.24683 1
gene 2 21 21 3.48513 1 1402 3.48513 1
gene 2 21 131 2.99511 0 1479 2.99511 1
gene 2 131 112 8 0 1480 8 1
gene 1 5 131 4.97294 0 1811 4.97294 0
gene 1 1 112 -6.49652 0 1863 -6.49652 0
gene 3 1 5 -0.00663953 0 1941 -0.00663953 1
gene 2 131 4 0.277681 0 2025 0.277681 1
gene 1 5 112 -5.75124 0 2176 -5.75124 1
gene 3 3 112 -4.16744 0 2310 -4.16744 1
gene 1 2 217 2.98324 0 2786 2.98324 1
gene 1 217 5 2.12894 0 2787 2.12894 1
gene 3 2 131 -3.9444 0 2861 -3.9444 1
gene 3 2 112 -3.12652 0 2944 -3.12652 1
gene 3 3 131 1.51748 0 2986 1.51748 1
gene 1 217 131 -0.793772 0 3256 0 1
genomeend 36

/* Organism #37 Fitness: 0.00584846 Error: 0.894152 */
genomestart 37
trait 1 0.138375 0.000801499 0.187668 0.000586586 0.0764011 0.316837 0 0.0825942 
trait 2 0.0884424 0 0.217772 0.487956 0 0.30657 0.277979 0 
trait 3 0.65 0.00399486 0.341302 0 0.001723 0.0448015 0.200491 0 
node 1 2 1 1
node 2 2 1 1
node 3 1 1 1
node 4 1 0 2
node 5 1 0 0
node 21 1 0 0
node 112 1 0 0
node 131 1 0 0
node 217 1 0 0
gene 3 1 4 6.54638 0 1 6.54638 0
gene 2 2 4 1.57776 0 2 1.57776 0
gene 1 3 4 1.40631 0 3 1.40631 0
gene 1 3 5 -6.40831 0 9 -6.40831 1
gene 1 5 4 -7.38507 0 10 -7.38507 1
gene 2 2 21 -6.80683 0 204 -6.80683 1
gene 2 21 4 1.61893 0 205 1.61893 1
gene 1 5 5 -2.52168 1 246 -2.52168 0
gene 1 2 5 -3.60859 0 569 -3.60859 0
gene 2 21 5 -5.6447 0 737 -5.6447 1
gene 2 21 112 5.4425 0 1239 5.4425 1
gene 3 112 4 -2.04485 0 1240 -2.04485 1
gene 2 21 21 0.456346 1 1402 0.456346 0
gene 2 21 131 -0.510552 0 1479 -0.510552 1
gene 2 131 112 5.99045 0 1480 5.99045 1
gene 1 5 131 6.48647 0 1811 6.48647 1
gene 1 1 112 -7.24826 0 1863 -7.24826 0
gene 3 1 5 -2.57801 0 1941 -2.57801 1
gene 2 131 4 2.16134 0 2025 2.16134 1
gene 1 5 112 -2.89044 0 2176 -2.89044 1
gene 3 3 112 -0.50458 0 2310 -0.50458 1
gene 1 2 217 3.91907 0 2786 3.91907 1
gene 1 217 5 0.955079 0 2787 0.955079 1
gene 3 2 131 -4.62914 0 2861 -4.62914 1
gene 3 2 112 -4.41498 0 2944 -4.41498 1
gene 3 3 131 0.0292369 0 2986 0.0292369 1
genomeend 37

/* Organism #38 Fitness: 0.429116 Error: 0.470884 */
genomestart 38
trait 1 0.138375 0.000801499 0.187668 0.000586586 0.0764011 0.316837 0 0.0825942 
trait 2 0.0884424 0 0.217772 0.487956 0 0.30657 0.277979 0 
trait 3 0.65 0.00399486 0.341302 0 0.001723 0.0448015 0.200491 0 
node 1 2 1 1
node 2 2 1 1
node 3 1 1 1
node 4 1 0 2
node 5 1 0 0
node 21 1 0 0
node 112 1 0 0
node 131 1 0 0
node 217 1 0 0
gene 3 1 4 8 0 1 8 0
gene 2 2 4 3.20683 0 2 3.20683 0
gene 1 3 4 3.04044 0 3 3.04044 0
gene 1 3 5 -4.53238 0 9 -4.53238 1
gene 1 5 4 -7.72207 0 10 -7.72207 1
gene 2 2 21 -7.42756 0 204 -7.42756 1
gene 2 21 4 6.79399 0 205 6.79399 1
gene 1 5 5 0.88929 1 246 0.88929 0
gene 1 2 5 -5.14633 0 569 -5.14633 0
gene 2 21 5 -0.945211 0 737 -0.945211 0
gene 2 21 112 5.27747 0 1239 5.27747 0
gene 3 112 4 -4.24683 0 1240 -4.24683 1
gene 2 21 21 3.48513 1 1402 3.48513 0
gene 2 21 131 2.99511 0 1479 2.99511 1
gene 2 131 112 8 0 1480 8 1
gene 1 5 131 4.97294 0 1811 4.97294 0
gene 1 1 112 -6.49652 0 1863 -6.49652 0
gene 3 1 5 -0.00663953 0 1941 -0.00663953 1
gene 2 131 4 0.277681 0 2025 0.277681 1
gene 1 5 112 -5.75124 0 2176 -5.75124 1
gene 3 3 112 -4.16744 0 2310 -4.16744 1
gene 1 2 217 2.98324 0 2786 2.98324 1
gene 1 217 5 2.12894 0 2787 2.12894 1
gene 3 2 131 -3.9444 0 2861 -3.9444 1
gene 3 2 112 -3.12652 0 2944 -3.12652 1
gene 3 3 131 1.51748 0 2986 1.51748 1
gene 3 131 217 0.638735 0 3255 0 1
gene 2 217 112 -0.580842 0 3300 -0.580842 1
genomeend 38

/* Organism #39 Fitness: 0.110671 Error: 0.789329 */
genomestart 39
trait 1 0.138375 0.000801499 0.187668 0.000586586 0.0764011 0.316837 0 0.0825942 
trait 2 0.0884424 0.827073 0.217772 0.487956 0 0.974967 1 0 
trait 3 0.65 0.00399486 0.341302 0 0.001723 0.0448015 0.200491 0 
node 1 2 1 1
node 2 2 1 1
node 3 1 1 1
node 4 1 0 2
node 5 1 0 0
node 21 1 0 0
node 112 1 0 0
node 131 1 0 0
node 217 1 0 0
gene 3 1 4 8 0 1 8 0
gene 2 2 4 4.16654 0 2 4.16654 0
gene 1 3 4 5.45888 0 3 5.45888 0
gene 1 3 5 -8 0 9 -8 1
gene 1 5 4 -8 0 10 -8 1
gene 2 2 21 -7.20546 0 204 -7.20546 1
gene 2 21 4 7.95281 0 205 7.95281 1
gene 1 5 5 2.87738 1 246 2.87738 0
gene 1 2 5 -8 0 569 -8 0
gene 2 21 5 2.70475 0 737 2.70475 0
gene 2 21 112 8 0 1239 8 0
gene 3 112 4 -2.8378 0 1240 -2.8378 1
gene 2 21 21 6.70486 1 1402 6.70486 0
gene 2 21 131 -0.685648 0 1479 -0.685648 1
gene 2 131 112 6.86645 0 1480 6.86645 1
gene 1 5 131 8 0 1811 8 0
gene 1 1 112 -8 0 1863 -8 0
gene 3 1 5 3.21633 0 1941 3.21633 1
gene 2 131 4 -1.98322 0 2025 -1.98322 1
gene 1 5 112 -8 0 2176 -8 1
gene 3 3 112 -6.02455 0 2310 -6.02455 1
gene 1 2 217 6.04708 0 2786 6.04708 1
gene 1 217 5 6.32634 0 2787 6.32634 1
gene 3 2 131 -6.26343 0 2861 -6.26343 1
gene 3 2 112 0.283592 0 2944 0.283592 1
gene 3 3 131 -1.95374 0 2986 -1.95374 1
gene 2 21 217 1.0291 0 3265 1.0291 1
genomeend 39

/* Organism #40 Fitness: 0.00598793 Error: 0.894012 */
genomestart 40
trait 1 0.138375 0.000801499 0.187668 0.000586586 0.0764011 0.316837 0 0.0825942 
trait 2 1 0 0.217772 0.487956 0 0.441069 0.0325171 0.957895 
trait 3 0.65 0.00399486 0.341302 0 0.001723 0.0448015 0.200491 0 
node 1 2 1 1
node 2 2 1 1
node 3 1 1 1
node 4 1 0 2
node 5 1 0 0
node 21 1 0 0
node 112 1 0 0
node 131 1 0 0
node 217 1 0 0
gene 3 1 4 8 0 1 8 0
gene 2 2 4 1.24642 0 2 1.24642 1
gene 1 3 4 1.04685 0 3 1.04685 0
gene 1 3 5 -3.85082 0 9 -3.85082 1
gene 1 5 4 0.473123 0 10 0.473123 1
gene 2 2 21 0.999973 0 204 0.999973 1
gene 2 21 4 3.70528 0 205 3.70528 1
gene 1 5 5 -0.124225 1 246 -0.124225 0
gene 1 2 5 -4.22696 0 569 -4.22696 0
gene 2 21 5 -0.122393 0 737 -0.122393 0
gene 2 21 112 5.79847 0 1239 5.79847 0
gene 3 112 4 -4.24683 0 1240 -4.24683 1
gene 2 21 21 3.03974 1 1402 3.03974 0
gene 2 21 131 1.53301 0 1479 1.53301 1
gene 2 131 112 8 0 1480 8 1
gene 1 5 131 0.296059 0 1811 0.296059 0
gene 1 1 112 -8 0 1863 -8 0
gene 3 1 5 -0.844243 0 1941 -0.844243 1
gene 2 131 4 0.858372 0 2025 0.858372 1
gene 1 5 112 -5.60986 0 2176 -5.60986 1
gene 3 3 112 -0.828269 0 2310 -0.828269 1
gene 1 2 217 0.14481 0 2786 0.14481 1
gene 1 217 5 2.12894 0 2787 2.12894 1
gene 3 2 131 -4.49931 0 2861 -4.49931 1
gene 3 2 112 0.153837 0 2944 0.153837 1
gene 3 3 131 5.561 0 2986 5.561 1
genomeend 40

/* Organism #41 Fitness: 0.443072 Error: 0.456928 */
genomestart 41
trait 1 0.138375 0.000801499 0.187668 0.000586586 0.0764011 0.316837 0 0.0825942 
trait 2 0.0884424 0 0.217772 0.487956 0 0.30657 0.277979 0 
trait 3 0.65 0.00399486 0.341302 0 0.001723 0.0448015 0.200491 0 
node 1 2 1 1
node 2 2 1 1
node 3 1 1 1
node 4 1 0 2
node 5 1 0 0
node 21 1 0 0
node 112 1 0 0
node 131 1 0 0
node 217 1 0 0
gene 3 1 4 8 0 1 8 0
gene 2 2 4 3.20683 0 2 3.20683 0
gene 1 3 4 3.04044 0 3 3.04044 0
gene 1 3 5 -4.88105 0 9 -4.88105 1
gene 1 5 4 -7.72207 0 10 -7.72207 1
gene 2 2 21 -8 0 204 -8 1
gene 2 21 4 -0.260678 0 205 -0.260678 1
gene 1 5 5 0.88929 1 246 0.88929 0
gene 1 2 5 -5.14633 0 569 -5.14633 0
gene 2 21 5 -0.945211 0 737 -0.945211 0
gene 2 21 112 5.27747 0 1239 5.27747 0
gene 3 112 4 -6.0432 0 1240 -6.0432 1
gene 2 21 21 3.48513 1 1402 3.48513 0
gene 2 21 131 3.53096 0 1479 3.53096 1
gene 2 131 112 8 0 1480 8 1
gene 1 5 131 4.97294 0 1811 4.97294 0
gene 1 1 112 -6.49652 0 1863 -6.49652 0
gene 3 1 5 -0.00663953 0 1941 -0.00663953 1
gene 2 131 4 -1.95701 0 2025 -1.95701 1
gene 1 5 112 -4.64736 0 2176 -4.64736 1
gene 3 3 112 -8 0 2310 -8 1
gene 1 2 217 -2.94826 0 2786 -2.94826 1
gene 1 217 5 2.12894 0 2787 2.12894 1
gene 3 2 131 -5.99422 0 2861 -5.99422 1
gene 3 2 112 -3.12652 0 2944 -3.12652 1
gene 3 3 131 1.51748 0 2986 1.51748 1
genomeend 41

/* Organism #42 Fitness: 0.439171 Error: 0.460829 */
genomestart 42
trait 1 0.138375 0.000801499 0.187668 0.000586586 0.0764011 0.316837 0 0.0825942 
trait 2 0.0884424 0 0.217772 0.487956 0 0.30657 0.277979 0 
trait 3 0.65 0.00399486 0.341302 0 0.001723 0.0448015 0.200491 0 
node 1 2 1 1
node 2 2 1 1
node 3 1 1 1
node 4 1 0 2
node 5 3 0 0
node 21 1 0 0
node 112 1 0 0
node 131 1 0 0
node 217 1 0 0
gene 3 1 4 8 0 1 8 0
gene 2 2 4 5.20738 0 2 5.20738 0
gene 1 3 4 -8 0 3 -8 0
gene 1 3 5 -3.07469 0 9 -3.07469 1
gene 1 5 4 3.95438 0 10 3.95438 1
gene 2 2 21 -1.94918 0 204 -1.94918 1
gene 2 21 4 4.57866 0 205 4.57866 1
gene 1 5 5 0.0653873 1 246 0.0653873 0
gene 1 2 5 -6.56964 0 569 -6.56964 0
gene 2 21 5 -1.08551 0 737 -1.08551 0
gene 2 21 112 3.13777 0 1239 3.13777 0
gene 3 112 4 0.000159892 0 1240 0.000159892 1
gene 2 21 21 4.90141 1 1402 4.90141 0
gene 2 21 131 7.25505 0 1479 7.25505 1
gene 2 131 112 -4.57703 0 1480 -4.57703 1
gene 1 5 131 -3.21179 0 1811 -3.21179 0
gene 1 1 112 -6.65958 0 1863 -6.65958 0
gene 3 1 5 -0.00663953 0 1941 -0.00663953 1
gene 2 131 4 5.16555 0 2025 5.16555 1
gene 1 5 112 -5.49878 0 2176 -5.49878 1
gene 3 3 112 -6.56659 0 2310 -6.56659 1
gene 1 2 217 3.14445 0 2786 3.14445 1
gene 1 217 5 3.96639 0 2787 3.96639 1
gene 3 2 131 -8 0 2861 -8 1
gene 3 2 112 -7.89294 0 2944 -7.89294 1
gene 3 3 131 -1.81539 0 2986 -1.81539 1
genomeend 42

/* Organism #43 Fitness: 0.00584846 Error: 0.894152 */
genomestart 43
trait 1 0.138375 0.000801499 0.187668 0.000586586 0.0764011 0.316837 0 0.0825942 
trait 2 0.0884424 0 0.217772 0.487956 0 0.30657 0.277979 0 
trait 3 0.65 0.00399486 0.341302 0 0.001723 0.0448015 0.200491 0 
node 1 2 1 1
node 2 2 1 1
node 3 1 1 1
node 4 1 0 2
node 5 1 0 0
node 21 1 0 0
node 112 1 0 0
node 131 1 0 0
node 217 1 0 0
gene 3 1 4 8 0 1 8 0
gene 2 2 4 6.43074 0 2 6.43074 0
gene 1 3 4 0.841129 0 3 0.841129 0
gene 1 3 5 -4.42047 0 9 -4.42047 1
gene 1 5 4 -3.56183 0 10 -3.56183 1
gene 2 2 21 -3.71749 0 204 -3.71749 1
gene 2 21 4 5.7124 0 205 5.7124 1
gene 1 5 5 4.43261 1 246 4.43261 0
gene 1 2 5 3.2515 0 569 3.2515 0
gene 2 21 5 1.0701 0 737 1.0701 0
gene 2 21 112 6.61501 0 1239 6.61501 0
gene 3 112 4 -5.19888 0 1240 -5.19888 1
gene 2 21 21 -0.275448 1 1402 -0.275448 0
gene 2 21 131 0.335247 0 1479 0.335247 1
gene 2 131 112 5.93079 0 1480 5.93079 1
gene 1 5 131 1.50509 0 1811 1.50509 0
gene 1 1 112 -8 0 1863 -8 0
gene 3 1 5 2.11214 0 1941 2.11214 1
gene 2 131 4 -4.77491 0 2025 -4.77491 1
gene 1 5 112 -8 0 2176 -8 1
gene 3 3 112 -2.88463 0 2310 -2.88463 1
gene 1 2 217 2.98324 0 2786 2.98324 1
gene 1 217 5 3.68533 0 2787 3.68533 1
gene 3 2 131 -3.9444 0 2861 -3.9444 1
gene 3 2 112 -7.31317 0 2944 -7.31317 1
gene 3 3 131 2.97465 0 2986 2.97465 1
gene 2 3 217 -0.404932 0 3268 -0.404932 1
genomeend 43

/* Organism #44 Fitness: 0.446589 Error: 0.453411 */
genomestart 44
trait 1 0.138375 0.000801499 0.187668 0.000586586 0.0764011 0.316837 0 0.0825942 
trait 2 0.0884424 0 0.217772 0.487956 0 0.30657 0.277979 0 
trait 3 0.65 0.00399486 0.341302 0 0.001723 0.0448015 0.200491 0 
node 1 2 1 1
node 2 2 1 1
node 3 1 1 1
node 4 1 0 2
node 5 1 0 0
node 21 1 0 0
node 112 1 0 0
node 131 1 0 0
node 217 1 0 0
gene 3 1 4 7.35538 0 1 7.35538 0
gene 2 2 4 1.24642 0 2 1.24642 0
gene 1 3 4 3.04044 0 3 3.04044 0
gene 1 3 5 -2.79572 0 9 -2.79572 1
gene 1 5 4 -8 0 10 -8 1
gene 2 2 21 -4.91385 0 204 -4.91385 1
gene 2 21 4 6.15236 0 205 6.15236 1
gene 1 5 5 0.744779 1 246 0.744779 0
gene 1 2 5 -8 0 569 -8 0
gene 2 21 5 -3.27874 0 737 -3.27874 0
gene 2 21 112 4.42041 0 1239 4.42041 0
gene 3 112 4 -2.96838 0 1240 -2.96838 1
gene 2 21 21 3.03974 1 1402 3.03974 0
gene 2 21 131 1.79296 0 1479 1.79296 1
gene 2 131 112 1.8396 0 1480 1.8396 1
gene 1 5 131 1.51917 0 1811 1.51917 0
gene 1 1 112 -8 0 1863 -8 0
gene 3 1 5 -0.00663953 0 1941 -0.00663953 1
gene 2 131 4 -1.10379 0 2025 -1.10379 1
gene 1 5 112 -2.02158 0 2176 -2.02158 1
gene 3 3 112 -4.16744 0 2310 -4.16744 1
gene 1 2 217 0.14481 0 2786 0.14481 1
gene 1 217 5 2.12894 0 2787 2.12894 1
gene 3 2 131 0.43316 0 2861 0.43316 1
gene 3 2 112 -1.49184 0 2944 -1.49184 1
gene 3 3 131 5.561 0 2986 5.561 1
genomeend 44

/* Organism #45 Fitness: 0.444238 Error: 0.455762 */
genomestart 45
trait 1 0.138375 0.000801499 0.187668 0.000586586 0.0764011 0.316837 0 0.0825942 
trait 2 0.0884424 0 0.217772 0.487956 0 0.30657 0.277979 0 
trait 3 0.65 0.00399486 0.341302 0 0.001723 0.0448015 0.200491 0 
node 1 2 1 1
node 2 2 1 1
node 3 1 1 1
node 4 1 0 2
node 5 1 0 0
node 21 1 0 0
node 112 1 0 0
node 131 1 0 0
node 217 1 0 0
gene 3 1 4 8 0 1 8 0
gene 2 2 4 5.16567 0 2 5.16567 0
gene 1 3 4 7.82356 0 3 7.82356 0
gene 1 3 5 -7.96408 0 9 -7.96408 1
gene 1 5 4 -8 0 10 -8 1
gene 2 2 21 -7.42756 0 204 -7.42756 1
gene 2 21 4 4.93 0 205 4.93 1
gene 1 5 5 -3.95668 1 246 -3.95668 0
gene 1 2 5 -2.76081 0 569 -2.76081 0
gene 2 21 5 -5.43465 0 737 -5.43465 0
gene 2 21 112 -0.164719 0 1239 -0.164719 0
gene 3 112 4 -0.0998953 0 1240 -0.0998953 1
gene 2 21 21 6.06841 1 1402 6.06841 0
gene 2 21 131 4.3855 0 1479 4.3855 1
gene 2 131 112 3.47729 0 1480 3.47729 1
gene 1 5 131 3.38055 0 1811 3.38055 0
gene 1 1 112 -6.49652 0 1863 -6.49652 0
gene 3 1 5 -0.0886152 0 1941 -0.0886152 1
gene 2 131 4 -0.30542 0 2025 -0.30542 1
gene 1 5 112 2.94892 0 2176 2.94892 1
gene 3 3 112 -0.00944809 0 2310 -0.00944809 1
gene 1 2 217 -1.46231 0 2786 -1.46231 1
gene 1 217 5 2.49209 0 2787 2.49209 1
gene 3 2 131 -2.76128 0 2861 -2.76128 1
gene 3 2 112 1.80316 0 2944 1.80316 1
gene 3 3 131 3.26389 0 2986 3.26389 1
gene 2 217 131 -0.315137 0 3301 -0.315137 1
genomeend 45

/* Organism #46 Fitness: 0.105232 Error: 0.794768 */
genomestart 46
trait 1 0.138375 0.000801499 0.187668 0.000586586 0.0764011 0.316837 0 0.0825942 
trait 2 0.0884424 0 0.217772 0.487956 0 0.30657 0.277979 0 
trait 3 0.65 0.00399486 0.341302 0 0.001723 0.0448015 0.200491 0 
node 1 2 1 1
node 2 2 1 1
node 3 1 1 1
node 4 1 0 2
node 5 1 0 0
node 21 1 0 0
node 112 1 0 0
node 131 1 0 0
node 217 1 0 0
gene 3 1 4 -0.282655 0 1 -0.282655 0
gene 2 2 4 -2.25431 0 2 -2.25431 0
gene 1 3 4 -1.92634 0 3 -1.92634 0
gene 1 3 5 6.08315 0 9 6.08315 1
gene 1 5 4 -1.64877 0 10 -1.64877 1
gene 2 2 21 -8 0 204 -8 1
gene 2 21 4 5.56155 0 205 5.56155 1
gene 1 5 5 -3.76862 1 246 -3.76862 0
gene 1 2 5 -8 0 569 -8 1
gene 2 21 5 -3.128 0 737 -3.128 0
gene 2 21 112 1.17096 0 1239 1.17096 0
gene 3 112 4 -3.1891 0 1240 -3.1891 1
gene 2 21 21 0.566765 1 1402 0.566765 0
gene 2 21 131 5.7495 0 1479 5.7495 1
gene 2 131 112 8 0 1480 8 1
gene 1 5 131 8 0 1811 8 0
gene 1 1 112 -7.83295 0 1863 -7.83295 0
gene 3 1 5 2.73399 0 1941 2.73399 1
gene 2 131 4 6.01558 0 2025 6.01558 1
gene 1 5 112 -4.15783 0 2176 -4.15783 1
gene 3 3 112 -1.36076 0 2310 -1.36076 1
gene 1 2 217 0.45228 0 2786 0.45228 1
gene 1 217 5 3.18953 0 2787 3.18953 1
gene 3 2 131 -8 0 2861 -8 1
gene 3 2 112 -2.98569 0 2944 -2.98569 1
gene 3 3 131 -4.60429 0 2986 -4.60429 1
genomeend 46

/* Organism #47 Fitness: 0.00584846 Error: 0.894152 */
genomestart 47
trait 1 0.138375 0.000801499 0.187668 0.000586586 0.0764011 0.316837 0 0.0825942 
trait 2 0.0884424 0 0.217772 0.487956 0 0.30657 0.277979 0 
trait 3 0.65 0.00399486 0.341302 0 0.001723 0.0448015 0.200491 0 
node 1 2 1 1
node 2 2 1 1
node 3 1 1 1
node 4 1 0 2
node 5 1 0 0
node 21 1 0 0
node 112 1 0 0
node 131 1 0 0
node 217 1 0 0
gene 3 1 4 8 0 1 8 0
gene 2 2 4 4.04334 0 2 4.04334 0
gene 1 3 4 -5.73753 0 3 -5.73753 0
gene 1 3 5 -4.27097 0 9 -4.27097 1
gene 1 5 4 -8 0 10 -8 1
gene 2 2 21 -7.56797 0 204 -7.56797 1
gene 2 21 4 6.34824 0 205 6.34824 1
gene 1 5 5 2.04896 1 246 2.04896 0
gene 1 2 5 -6.62641 0 569 -6.62641 0
gene 2 21 5 1.32902 0 737 1.32902 0
gene 2 21 112 5.52866 0 1239 5.52866 0
gene 3 112 4 -6.80522 0 1240 -6.80522 1
gene 2 21 21 -2.7857 1 1402 -2.7857 0
gene 2 21 131 4.74081 0 1479 4.74081 1
gene 2 131 112 8 0 1480 8 1
gene 1 5 131 2.71817 0 1811 2.71817 0
gene 1 1 112 -8 0 1863 -8 0
gene 3 1 5 2.68121 0 1941 2.68121 1
gene 2 131 4 2.75359 0 2025 2.75359 1
gene 1 5 112 -0.941463 0 2176 -0.941463 1
gene 3 3 112 -6.17077 0 2310 -6.17077 1
gene 1 2 217 -2.6681 0 2786 -2.6681 1
gene 1 217 5 0.133455 0 2787 0.133455 1
gene 3 2 131 -7.26781 0 2861 -7.26781 1
gene 3 2 112 -2.13411 0 2944 -2.13411 1
gene 3 3 131 2.45717 0 2986 2.45717 0
gene 1 217 131 -2.84103 0 3256 -2.84103 1
genomeend 47

/* Organism #48 Fitness: 0.170482 Error: 0.729518 */
genomestart 48
trait 1 0.138375 0.000801499 0.187668 0.000586586 0.0764011 0.316837 0 0.0825942 
trait 2 0.0884424 0 0.217772 0.487956 0 0.30657 0.277979 0 
trait 3 0.65 0.00399486 0.341302 0 0.001723 0.0448015 0.200491 0 
node 1 2 1 1
node 2 2 1 1
node 3 1 1 1
node 4 1 0 2
node 5 1 0 0
node 21 1 0 0
node 112 1 0 0
node 131 1 0 0
node 217 1 0 0
gene 3 1 4 8 0 1 8 0
gene 2 2 4 -1.85619 0 2 -1.85619 0
gene 1 3 4 -3.71854 0 3 -3.71854 0
gene 1 3 5 -3.7125 0 9 -3.7125 1
gene 1 5 4 -7.86104 0 10 -7.86104 1
gene 2 2 21 -8 0 204 -8 1
gene 2 21 4 8 0 205 8 1
gene 1 5 5 0.561402 1 246 0.561402 0
gene 1 2 5 -8 0 569 -8 1
gene 2 21 5 -0.662161 0 737 -0.662161 0
gene 2 21 112 3.06078 0 1239 3.06078 0
gene 3 112 4 -4.17273 0 1240 -4.17273 1
gene 2 21 21 7.89264 1 1402 7.89264 1
gene 2 21 131 -4.56722 0 1479 -4.56722 1
gene 2 131 112 7.45407 0 1480 7.45407 1
gene 1 5 131 3.96715 0 1811 3.96715 0
gene 1 1 112 -7.24826 0 1863 -7.24826 0
gene 3 1 5 -4.59512 0 1941 -4.59512 1
gene 2 131 4 0.741183 0 2025 0.741183 1
gene 1 5 112 -3.32643 0 2176 -3.32643 1
gene 3 3 112 -8 0 2310 -8 1
gene 1 2 217 2.99762 0 2786 2.99762 1
gene 1 217 5 4.16243 0 2787 4.16243 1
gene 3 2 131 -2.98576 0 2861 -2.98576 1
gene 3 2 112 1.75378 0 2944 1.75378 1
gene 3 3 131 -2.04729 0 2986 -2.04729 1
gene 1 217 131 1.22125 0 3256 1.22125 1
genomeend 48

/* Organism #49 Fitness: 0.0474653 Error: 0.852535 */
genomestart 49
trait 1 0.138375 0.000801499 0.187668 0.000586586 0.0764011 0.316837 0 0.0825942 
trait 2 0.0884424 0 0.217772 0.487956 0 0.30657 0.277979 0 
trait 3 0.65 0.00399486 0.341302 0 0.001723 0.0448015 0.200491 0 
node 1 2 1 1
node 2 2 1 1
node 3 1 1 1
node 4 1 0 2
node 5 1 0 0
node 21 1 0 0
node 112 1 0 0
node 131 1 0 0
node 217 1 0 0
gene 3 1 4 8 0 1 8 0
gene 2 2 4 3.99248 0 2 3.99248 0
gene 1 3 4 -0.369499 0 3 -0.369499 0
gene 1 3 5 -0.0325179 0 9 -0.0325179 1
gene 1 5 4 -6.01653 0 10 -6.01653 1
gene 2 2 21 -4.14297 0 204 -4.14297 1
gene 2 21 4 8 0 205 8 1
gene 1 5 5 -2.9626 1 246 -2.9626 0
gene 1 2 5 -2.00534 0 569 -2.00534 0
gene 2 21 5 3.30815 0 737 3.30815 0
gene 2 21 112 0.293941 0 1239 0.293941 0
gene 3 112 4 5.04174 0 1240 5.04174 1
gene 2 21 21 -1.06756 1 1402 -1.06756 0
gene 2 21 131 6.66341 0 1479 6.66341 1
gene 2 131 112 -6.46815 0 1480 -6.46815 1
gene 1 5 131 -5.1112 0 1811 -5.1112 0
gene 1 1 112 -4.44619 0 1863 -4.44619 0
gene 3 1 5 -2.32809 0 1941 -2.32809 1
gene 2 131 4 -3.85045 0 2025 -3.85045 1
gene 1 5 112 3.52723 0 2176 3.52723 1
gene 3 3 112 -5.49595 0 2310 -5.49595 1
gene 1 2 217 0.144753 0 2786 0.144753 1
gene 1 217 5 3.76098 0 2787 3.76098 1
gene 3 2 131 -4.27748 0 2861 -4.27748 1
gene 3 2 112 -0.122039 0 2944 -0.122039 1
gene 3 3 131 -1.17258 0 2986 -1.17258 1
gene 3 131 217 4.13277 0 3255 4.13277 1
genomeend 49

/* Organism #50 Fitness: 0.127149 Error: 0.772851 */
genomestart 50
trait 1 0.138375 0.000801499 0.187668 0.000586586 0.0764011 0.316837 0 0.0825942 
trait 2 0.0884424 0 0.217772 0.487956 0 0.30657 0.277979 0 
trait 3 0.65 0.00399486 0.341302 0 0.001723 0.0448015 0.200491 0 
node 1 2 1 1
node 2 2 1 1
node 3 1 1 1
node 4 1 0 2
node 5 1 0 0
node 21 1 0 0
node 112 1 0 0
node 131 1 0 0
node 217 1 0 0
gene 3 1 4 5.40606 0 1 5.40606 0
gene 2 2 4 7.88775 0 2 7.88775 0
gene 1 3 4 -1.67764 0 3 -1.67764 0
gene 1 3 5 -8 0 9 -8 1
gene 1 5 4 -8 0 10 -8 1
gene 2 2 21 -3.63171 0 204 -3.63171 1
gene 2 21 4 7.62948 0 205 7.62948 1
gene 1 5 5 -2.0724 1 246 -2.0724 0
gene 1 2 5 -3.24526 0 569 -3.24526 0
gene 2 21 5 3.47121 0 737 3.47121 0
gene 2 21 112 8 0 1239 8 0
gene 3 112 4 -1.16029 0 1240 -1.16029 1
gene 2 21 21 6.69003 1 1402 6.69003 0
gene 2 21 131 0.363874 0 1479 0.363874 1
gene 2 131 112 8 0 1480 8 1
gene 1 5 131 5.59245 0 1811 5.59245 0
gene 1 1 112 -8 0 1863 -8 0
gene 3 1 5 -2.52683 0 1941 -2.52683 1
gene 2 131 4 0.631189 0 2025 0.631189 1
gene 1 5 112 -1.58701 0 2176 -1.58701 1
gene 3 3 112 -4.468 0 2310 -4.468 1
gene 1 2 217 3.89051 0 2786 3.89051 1
gene 1 217 5 5.5526 0 2787 5.5526 1
gene 3 2 131 -8 0 2861 -8 1
gene 3 2 112 -8 0 2944 -8 1
gene 3 3 131 -1.49376 0 2986 -1.49376 1
genomeend 50

/* Organism #51 Fitness: 0.00584846 Error: 0.894152 */
genomestart 51
trait 1 0.138375 0.000801499 0.187668 0.000586586 0.0764011 0.316837 0 0.0825942 
trait 2 0.0884424 0 0.217772 0.487956 0 0.30657 0.277979 0 
trait 3 0.65 0.00399486 0.341302 0 0.001723 0.0448015 0.200491 0 
node 1 2 1 1
node 2 2 1 1
node 3 1 1 1
node 4 1 0 2
node 5 1 0 0
node 21 1 0 0
node 112 1 0 0
node 131 1 0 0
node 217 1 0 0
node 244 1 0 0
gene 3 1 4 8 0 1 8 1
gene 2 2 4 3.20683 0 2 3.20683 0
gene 1 3 4 3.04044 0 3 3.04044 1
gene 1 3 5 -4.53238 0 9 -4.53238 1
gene 1 5 4 -7.72207 0 10 -7.72207 1
gene 2 2 21 -7.42756 0 204 -7.42756 1
gene 2 21 4 6.79399 0 205 6.79399 1
gene 1 5 5 0.88929 1 246 0.88929 0
gene 1 2 5 -5.14633 0 569 -5.14633 0
gene 2 21 5 -0.945211 0 737 -0.945211 0
gene 2 21 112 5.27747 0 1239 5.27747 0
gene 3 112 4 -4.24683 0 1240 -4.24683 1
gene 2 21 21 3.48513 1 1402 3.48513 0
gene 2 21 131 2.99511 0 1479 2.99511 1
gene 2 131 112 8 0 1480 8 1
gene 1 5 131 4.97294 0 1811 4.97294 0
gene 1 1 112 -6.49652 0 1863 -6.49652 0
gene 3 1 5 -0.00663953 0 1941 -0.00663953 1
gene 2 131 4 0.277681 0 2025 0.277681 1
gene 1 5 112 -5.75124 0 2176 -5.75124 1
gene 3 3 112 -4.16744 0 2310 -4.16744 1
gene 1 2 217 2.98324 0 2786 2.98324 1
gene 1 217 5 2.12894 0 2787 2.12894 1
gene 3 2 131 -3.9444 0 2861 -3.9444 1
gene 3 2 112 -3.12652 0 2944 -3.12652 1
gene 3 3 131 1.51748 0 2986 1.51748 1
gene 2 217 217 -0.242585 1 3251 -0.242585 1
gene 2 21 244 1 1 3302 0 1
gene 2 244 21 3.48513 0 3303 0 1
genomeend 51

/* Organism #52 Fitness: 0.00350908 Error: 0.896491 */
genomestart 52
trait 1 0.138375 0.000801499 0.187668 0.000586586 0.0764011 0.316837 0 0.0825942 
trait 2 0.0884424 0 0.217772 0.487956 0 0.30657 0.277979 0 
trait 3 0.65 0.00399486 0.341302 0 0.001723 0.0448015 0.200491 0 
node 1 2 1 1
node 2 2 1 1
node 3 1 1 1
node 4 1 0 2
node 5 1 0 0
node 21 1 0 0
node 112 1 0 0
node 131 1 0 0
node 217 1 0 0
gene 3 1 4 8 0 1 8 0
gene 2 2 4 1.61597 0 2 1.61597 0
gene 1 3 4 0.84388 0 3 0.84388 0
gene 1 3 5 -5.38815 0 9 -5.38815 1
gene 1 5 4 -7.04424 0 10 -7.04424 1
gene 2 2 21 -5.47732 0 204 -5.47732 1
gene 2 21 4 7.397 0 205 7.397 1
gene 1 5 5 -1.00833 1 246 -1.00833 0
gene 1 2 5 -6.57317 0 569 -6.57317 0
gene 2 21 5 -3.18652 0 737 -3.18652 1
gene 2 21 112 4.66433 0 1239 4.66433 0
gene 3 112 4 -3.18138 0 1240 -3.18138 1
gene 2 21 21 5.03045 1 1402 5.03045 1
gene 2 21 131 3.51977 0 1479 3.51977 1
gene 2 131 112 8 0 1480 8 1
gene 1 5 131 6.48647 0 1811 6.48647 0
gene 1 1 112 -7.24826 0 1863 -7.24826 1
gene 3 1 5 -2.37433 0 1941 -2.37433 1
gene 2 131 4 1.13586 0 2025 1.13586 1
gene 1 5 112 -3.58013 0 2176 -3.58013 1
gene 3 3 112 -4.0316 0 2310 -4.0316 1
gene 1 2 217 2.98324 0 2786 2.98324 1
gene 1 217 5 0.165358 0 2787 0.165358 1
gene 3 2 131 -1.57342 0 2861 -1.57342 1
gene 3 2 112 -3.87853 0 2944 -3.87853 1
gene 3 3 131 2.29582 0 2986 2.29582 1
gene 2 4 4 -0.846121 1 3269 -0.846121 1
genomeend 52

/* Organism #53 Fitness: 0.449054 Error: 0.450946 */
genomestart 53
trait 1 0.138375 0.000801499 0.187668 0.000586586 0.0764011 0.316837 0 0.0825942 
trait 2 0.0884424 0 0.217772 0.487956 0 0.30657 0.277979 0 
trait 3 0.65 0.00399486 0.341302 0 0.001723 0.0448015 0.200491 0 
node 1 2 1 1
node 2 2 1 1
node 3 1 1 1
node 4 1 0 2
node 5 1 0 0
node 21 1 0 0
node 112 1 0 0
node 131 1 0 0
node 217 1 0 0
gene 3 1 4 7.66736 0 1 7.66736 0
gene 2 2 4 0.883164 0 2 0.883164 1
gene 1 3 4 3.37785 0 3 3.37785 0
gene 1 3 5 -0.703381 0 9 -0.703381 1
gene 1 5 4 -6.02839 0 10 -6.02839 1
gene 2 2 21 -8 0 204 -8 1
gene 2 21 4 4.08555 0 205 4.08555 1
gene 1 5 5 -0.215674 1 246 -0.215674 0
gene 1 2 5 -8 0 569 -8 0
gene 2 21 5 -0.945211 0 737 -0.945211 0
gene 2 21 112 3.80305 0 1239 3.80305 0
gene 3 112 4 2.39243 0 1240 2.39243 1
gene 2 21 21 0.353385 1 1402 0.353385 0
gene 2 21 131 -3.2736 0 1479 -3.2736 1
gene 2 131 112 7.46531 0 1480 7.46531 1
gene 1 5 131 -1.39887 0 1811 -1.39887 0
gene 1 1 112 -8 0 1863 -8 0
gene 3 1 5 -0.00663953 0 1941 -0.00663953 1
gene 2 131 4 2.46947 0 2025 2.46947 1
gene 1 5 112 -3.95021 0 2176 -3.95021 1
gene 3 3 112 -8 0 2310 -8 1
gene 1 2 217 5.12178 0 2786 5.12178 1
gene 1 217 5 2.4568 0 2787 2.4568 1
gene 3 2 131 -3.04091 0 2861 -3.04091 1
gene 3 2 112 -3.45335 0 2944 -3.45335 1
gene 3 3 131 1.05964 0 2986 1.05964 1
gene 3 217 4 3.26194 0 3260 3.26194 1
genomeend 53

/* Organism #54 Fitness: 0.0362126 Error: 0.863787 */
genomestart 54
trait 1 0.138375 0.000801499 0.187668 0.000586586 0.0764011 0.316837 0 0.0825942 
trait 2 0.0884424 0 0.217772 0.487956 0 0.30657 0.277979 0 
trait 3 0.65 0.00399486 0.341302 0 0.001723 0.0448015 0.200491 0 
node 1 2 1 1
node 2 2 1 1
node 3 1 1 1
node 4 1 0 2
node 5 1 0 0
node 21 1 0 0
node 112 1 0 0
node 131 1 0 0
node 217 1 0 0
gene 3 1 4 8 0 1 8 0
gene 2 2 4 -3.31984 0 2 -3.31984 0
gene 1 3 4 2.2345 0 3 2.2345 0
gene 1 3 5 -3.76784 0 9 -3.76784 1
gene 1 5 4 -8 0 10 -8 1
gene 2 2 21 -3.90328 0 204 -3.90328 1
gene 2 21 4 4.76211 0 205 4.76211 1
gene 1 5 5 -1.51955 1 246 -1.51955 0
gene 1 2 5 -6.032 0 569 -6.032 0
gene 2 21 5 4.7473 0 737 4.7473 0
gene 2 21 112 8 0 1239 8 0
gene 3 112 4 -2.77641 0 1240 -2.77641 1
gene 2 21 21 5.19366 1 1402 5.19366 0
gene 2 21 131 0.765804 0 1479 0.765804 1
gene 2 131 112 6.65413 0 1480 6.65413 1
gene 1 5 131 3.15614 0 1811 3.15614 0
gene 1 1 112 -8 0 1863 -8 0
gene 3 1 5 1.53249 0 1941 1.53249 1
gene 2 131 4 0.620796 0 2025 0.620796 1
gene 1 5 112 -1.46983 0 2176 -1.46983 1
gene 3 3 112 -8 0 2310 -8 1
gene 1 2 217 1.69564 0 2786 1.69564 1
gene 1 217 5 3.26878 0 2787 3.26878 1
gene 3 2 131 -8 0 2861 -8 1
gene 3 2 112 -3.12652 0 2944 -3.12652 1
gene 3 3 131 -1.49376 0 2986 -1.49376 1
genomeend 54

/* Organism #55 Fitness: 0.441315 Error: 0.458685 */
genomestart 55
trait 1 0.138375 0.000801499 0.187668 0.000586586 0.0764011 0.316837 0 0.0825942 
trait 2 0.0884424 0 0.217772 0.487956 0 0.30657 0.277979 0 
trait 3 0.65 0.00399486 0.341302 0 0.001723 0.0448015 0.200491 0 
node 1 2 1 1
node 2 2 1 1
node 3 1 1 1
node 4 1 0 2
node 5 1 0 0
node 21 1 0 0
node 112 1 0 0
node 131 1 0 0
node 217 1 0 0
gene 3 1 4 8 0 1 8 0
gene 2 2 4 3.20683 0 2 3.20683 0
gene 1 3 4 3.04044 0 3 3.04044 0
gene 1 3 5 -4.53238 0 9 -4.53238 1
gene 1 5 4 -7.72207 0 10 -7.72207 1
gene 2 2 21 -7.42756 0 204 -7.42756 1
gene 2 21 4 6.79399 0 205 6.79399 1
gene 1 5 5 0.88929 1 246 0.88929 0
gene 1 2 5 -5.14633 0 569 -5.14633 0
gene 2 21 5 -0.945211 0 737 -0.945211 0
gene 2 21 112 5.27747 0 1239 5.27747 0
gene 3 112 4 -4.24683 0 1240 -4.24683 1
gene 2 21 21 3.48513 1 1402 3.48513 0
gene 2 21 131 2.99511 0 1479 2.99511 1
gene 2 131 112 8 0 1480 8 1
gene 1 5 131 4.97294 0 1811 4.97294 0
gene 1 1 112 -6.49652 0 1863 -6.49652 0
gene 3 1 5 -0.00663953 0 1941 -0.00663953 1
gene 2 131 4 0.277681 0 2025 0.277681 1
gene 1 5 112 -5.75124 0 2176 -5.75124 1
gene 3 3 112 -4.16744 0 2310 -4.16744 1
gene 1 2 217 2.98324 0 2786 2.98324 1
gene 1 217 5 2.12894 0 2787 2.12894 1
gene 3 2 131 -3.9444 0 2861 -3.9444 1
gene 3 2 112 -3.12652 0 2944 -3.12652 1
gene 3 3 131 1.51748 0 2986 1.51748 1
gene 2 3 21 -0.071929 0 3242 0 1
genomeend 55

/* Organism #56 Fitness: 0.168541 Error: 0.731459 */
genomestart 56
trait 1 0.138375 0.000801499 0.187668 0.000586586 0.0764011 0.316837 0 0.0825942 
trait 2 0.0884424 0 0.217772 0.487956 0 0.30657 0.277979 0 
trait 3 0.65 0.00399486 0.341302 0 0.001723 0.0448015 0.200491 0 
node 1 2 1 1
node 2 2 1 1
node 3 1 1 1
node 4 1 0 2
node 5 1 0 0
node 21 1 0 0
node 112 1 0 0
node 131 1 0 0
node 217 1 0 0
gene 3 1 4 3.29319 0 1 3.29319 0
gene 2 2 4 -2.61637 0 2 -2.61637 0
gene 1 3 4 1.04834 0 3 1.04834 0
gene 1 3 5 -2.502 0 9 -2.502 1
gene 1 5 4 -6.582 0 10 -6.582 1
gene 2 2 21 -1.17222 0 204 -1.17222 1
gene 2 21 4 8 0 205 8 1
gene 1 5 5 -2.89107 1 246 -2.89107 0
gene 1 2 5 0.832344 0 569 0.832344 0
gene 2 21 5 6.38649 0 737 6.38649 0
gene 2 21 112 8 0 1239 8 0
gene 3 112 4 -5.8919 0 1240 -5.8919 1
gene 2 21 21 6.35402 1 1402 6.35402 0
gene 2 21 131 1.12346 0 1479 1.12346 1
gene 2 131 112 5.4914 0 1480 5.4914 1
gene 1 5 131 8 0 1811 8 0
gene 1 1 112 -8 0 1863 -8 0
gene 3 1 5 -1.33263 0 1941 -1.33263 1
gene 2 131 4 -0.0418322 0 2025 -0.0418322 1
gene 1 5 112 -0.295456 0 2176 -0.295456 1
gene 3 3 112 2.58987 0 2310 2.58987 1
gene 1 2 217 0.405505 0 2786 0.405505 1
gene 1 217 5 4.97448 0 2787 4.97448 1
gene 3 2 131 -0.0180921 0 2861 -0.0180921 1
gene 3 2 112 1.39629 0 2944 1.39629 1
gene 3 3 131 0.581998 0 2986 0.581998 1
genomeend 56

/* Organism #57 Fitness: 0.00584846 Error: 0.894152 */
genomestart 57
trait 1 0.138375 0.000801499 0.187668 0.000586586 0.0764011 0.316837 0 0.0825942 
trait 2 0.0884424 0 0.217772 0.487956 0 0.30657 0.277979 0 
trait 3 0.65 0.00399486 0.341302 0 0.001723 0.0448015 0.200491 0 
node 1 2 1 1
node 2 2 1 1
node 3 1 1 1
node 4 1 0 2
node 5 1 0 0
node 21 1 0 0
node 112 1 0 0
node 131 1 0 0
node 217 1 0 0
gene 3 1 4 8 0 1 8 1
gene 2 2 4 0.554755 0 2 0.554755 0
gene 1 3 4 2.13841 0 3 2.13841 0
gene 1 3 5 0.606255 0 9 0.606255 1
gene 1 5 4 -8 0 10 -8 1
gene 2 2 21 -8 0 204 -8 1
gene 2 21 4 8 0 205 8 1
gene 1 5 5 -5.08342 1 246 -5.08342 0
gene 1 2 5 -6.92839 0 569 -6.92839 1
gene 2 21 5 0.291482 0 737 0.291482 0
gene 2 21 112 7.36261 0 1239 7.36261 0
gene 3 112 4 0.478043 0 1240 0.478043 1
gene 2 21 21 7.02338 1 1402 7.02338 0
gene 2 21 131 -1.12435 0 1479 -1.12435 1
gene 2 131 112 8 0 1480 8 1
gene 1 5 131 6.14289 0 1811 6.14289 0
gene 1 1 112 -7.95964 0 1863 -7.95964 0
gene 3 1 5 -4.33134 0 1941 -4.33134 1
gene 2 131 4 0.397604 0 2025 0.397604 1
gene 1 5 112 -4.38498 0 2176 -4.38498 1
gene 3 3 112 0.149412 0 2310 0.149412 1
gene 1 2 217 7.37076 0 2786 7.37076 1
gene 1 217 5 -0.563035 0 2787 -0.563035 1
gene 3 2 131 -0.0685618 0 2861 -0.0685618 1
gene 3 2 112 0.915101 0 2944 0.915101 1
gene 3 3 131 -2.97447 0 2986 -2.97447 1
genomeend 57

/* Organism #58 Fitness: 0.0564491 Error: 0.843551 */
genomestart 58
trait 1 0.138375 0.000801499 0.187668 0.000586586 0.0764011 0.316837 0 0.0825942 
trait 2 0.0884424 0 0.217772 0.487956 0 0.30657 0.277979 0 
trait 3 0.65 0.00399486 0.341302 0 0.001723 0.0448015 0.200491 0 
node 1 2 1 1
node 2 2 1 1
node 3 1 1 1
node 4 1 0 2
node 5 1 0 0
node 21 1 0 0
node 112 1 0 0
node 131 1 0 0
node 217 1 0 0
node 245 1 0 0
gene 3 1 4 4.35835 0 1 4.35835 0
gene 2 2 4 3.20683 0 2 3.20683 0
gene 1 3 4 4.13575 0 3 4.13575 0
gene 1 3 5 -4.53238 0 9 -4.53238 1
gene 1 5 4 -7.72207 0 10 -7.72207 1
gene 2 2 21 -7.42756 0 204 -7.42756 1
gene 2 21 4 6.79399 0 205 6.79399 1
gene 1 5 5 0.88929 1 246 0.88929 0
gene 1 2 5 -5.14633 0 569 -5.14633 0
gene 2 21 5 -4.60847 0 737 -4.60847 0
gene 2 21 112 7.32406 0 1239 7.32406 0
gene 3 112 4 -4.24683 0 1240 -4.24683 1
gene 2 21 21 3.48513 1 1402 3.48513 0
gene 2 21 131 2.99511 0 1479 2.99511 1
gene 2 131 112 8 0 1480 8 1
gene 1 5 131 4.97294 0 1811 4.97294 0
gene 1 1 112 -8 0 1863 -8 0
gene 3 1 5 -2.44674 0 1941 -2.44674 1
gene 2 131 4 0.277681 0 2025 0.277681 1
gene 1 5 112 -4.43089 0 2176 -4.43089 1
gene 3 3 112 -4.16744 0 2310 -4.16744 1
gene 1 2 217 2.98324 0 2786 2.98324 0
gene 1 217 5 1.22092 0 2787 1.22092 1
gene 3 2 131 -2.47422 0 2861 -2.47422 1
gene 3 2 112 -3.12652 0 2944 -3.12652 1
gene 3 3 131 2.72144 0 2986 2.72144 1
gene 1 217 131 -0.793772 0 3256 0 1
gene 1 2 245 1 0 3304 0 1
gene 1 245 217 2.98324 0 3305 0 1
genomeend 58

/* Organism #59 Fitness: 0.0495015 Error: 0.850498 */
genomestart 59
trait 1 0.138375 0.000801499 0.187668 0.000586586 0.0764011 0.316837 0 0.0825942 
trait 2 0.0884424 0 0.217772 0.487956 0 0.30657 0.277979 0 
trait 3 0.65 0.00399486 0.341302 0 0.001723 0.0448015 0.200491 0 
node 1 2 1 1
node 2 2 1 1
node 3 1 1 1
node 4 1 0 2
node 5 1 0 0
node 21 1 0 0
node 112 1 0 0
node 131 1 0 0
node 217 1 0 0
gene 3 1 4 1.29276 0 1 1.29276 0
gene 2 2 4 -0.828204 0 2 -0.828204 0
gene 1 3 4 3.04044 0 3 3.04044 0
gene 1 3 5 -4.53238 0 9 -4.53238 1
gene 1 5 4 -7.72207 0 10 -7.72207 1
gene 2 2 21 -8 0 204 -8 1
gene 2 21 4 4.72605 0 205 4.72605 1
gene 1 5 5 0.88929 1 246 0.88929 0
gene 1 2 5 -1.6309 0 569 -1.6309 0
gene 2 21 5 -0.945211 0 737 -0.945211 0
gene 2 21 112 -4.32331 0 1239 -4.32331 0
gene 3 112 4 -4.24683 0 1240 -4.24683 1
gene 2 21 21 3.48513 1 1402 3.48513 0
gene 2 21 131 2.99511 0 1479 2.99511 1
gene 2 131 112 8 0 1480 8 1
gene 1 5 131 4.46382 0 1811 4.46382 0
gene 1 1 112 -7.57529 0 1863 -7.57529 0
gene 3 1 5 -2.85512 0 1941 -2.85512 1
gene 2 131 4 0.277681 0 2025 0.277681 1
gene 1 5 112 -8 0 2176 -8 1
gene 3 3 112 -4.16744 0 2310 -4.16744 1
gene 1 2 217 -1.33781 0 2786 -1.33781 1
gene 1 217 5 2.12894 0 2787 2.12894 1
gene 3 2 131 -3.9444 0 2861 -3.9444 1
gene 3 2 112 -3.12652 0 2944 -3.12652 1
gene 3 3 131 2.41756 0 2986 2.41756 1
gene 2 3 21 -0.071929 0 3242 0 1
gene 3 131 217 0.158209 0 3306 0.158209 1
genomeend 59

/* Organism #60 Fitness: 0.0678628 Error: 0.832137 */
genomestart 60
trait 1 0.138375 0.000801499 0.187668 0.000586586 0.0764011 0.316837 0 0.0825942 
trait 2 0.0884424 0 0.217772 0.487956 0 0.30657 0.277979 0 
trait 3 0.65 0.00399486 0.341302 0 0.001723 0.0448015 0.200491 0 
node 1 2 1 1
node 2 2 1 1
node 3 1 1 1
node 4 1 0 2
node 5 1 0 0
node 21 1 0 0
node 112 1 0 0
node 131 1 0 0
node 217 1 0 0
gene 3 1 4 0.999184 0 1 0.999184 0
gene 2 2 4 6.84236 0 2 6.84236 0
gene 1 3 4 8 0 3 8 0
gene 1 3 5 -8 0 9 -8 1
gene 1 5 4 -0.874429 0 10 -0.874429 1
gene 2 2 21 -6.13551 0 204 -6.13551 1
gene 2 21 4 1.87387 0 205 1.87387 1
gene 1 5 5 8 1 246 8 0
gene 1 2 5 -7.24534 0 569 -7.24534 0
gene 2 21 5 1.39884 0 737 1.39884 0
gene 2 21 112 -1.54606 0 1239 -1.54606 0
gene 3 112 4 -2.50463 0 1240 -2.50463 1
gene 2 21 21 3.58922 1 1402 3.58922 0
gene 2 21 131 8 0 1479 8 1
gene 2 131 112 1.25312 0 1480 1.25312 1
gene 1 5 131 -1.47182 0 1811 -1.47182 0
gene 1 1 112 -3.95096 0 1863 -3.95096 0
gene 3 1 5 -2.80865 0 1941 -2.80865 1
gene 2 131 4 6.81711 0 2025 6.81711 1
gene 1 5 112 -8 0 2176 -8 1
gene 3 3 112 -7.36658 0 2310 -7.36658 1
gene 1 2 217 1.2758 0 2786 1.2758 1
gene 1 217 5 3.248 0 2787 3.248 1
gene 3 2 131 -2.72132 0 2861 -2.72132 1
gene 3 2 112 -2.86561 0 2944 -2.86561 1
gene 3 3 131 3.45716 0 2986 3.45716 1
genomeend 60

/* Organism #61 Fitness: 0.162252 Error: 0.737748 */
genomestart 61
trait 1 0.138375 0.000801499 0.187668 0.000586586 0.0764011 0.316837 0 0.0825942 
trait 2 0.0884424 0 0.217772 0.487956 0 0.30657 0.277979 0 
trait 3 0.65 0.00399486 0.341302 0 0.001723 0.0448015 0.200491 0 
node 1 2 1 1
node 2 2 1 1
node 3 1 1 1
node 4 1 0 2
node 5 1 0 0
node 21 1 0 0
node 112 1 0 0
node 131 1 0 0
node 217 1 0 0
gene 3 1 4 8 0 1 8 0
gene 2 2 4 3.20683 0 2 3.20683 0
gene 1 3 4 3.04044 0 3 3.04044 0
gene 1 3 5 -4.53238 0 9 -4.53238 1
gene 1 5 4 -7.72207 0 10 -7.72207 1
gene 2 2 21 -7.42756 0 204 -7.42756 1
gene 2 21 4 6.79399 0 205 6.79399 1
gene 1 5 5 0.88929 1 246 0.88929 0
gene 1 2 5 -5.14633 0 569 -5.14633 0
gene 2 21 5 -0.945211 0 737 -0.945211 0
gene 2 21 112 5.27747 0 1239 5.27747 0
gene 3 112 4 -4.24683 0 1240 -4.24683 1
gene 2 21 21 3.48513 1 1402 3.48513 1
gene 2 21 131 2.99511 0 1479 2.99511 1
gene 2 131 112 8 0 1480 8 1
gene 1 5 131 4.97294 0 1811 4.97294 1
gene 1 1 112 -6.49652 0 1863 -6.49652 1
gene 3 1 5 -0.00663953 0 1941 -0.00663953 1
gene 2 131 4 0.277681 0 2025 0.277681 1
gene 1 5 112 -5.75124 0 2176 -5.75124 1
gene 3 3 112 -4.16744 0 2310 -4.16744 1
gene 1 2 217 2.98324 0 2786 2.98324 1
gene 1 217 5 2.12894 0 2787 2.12894 1
gene 3 2 131 -3.9444 0 2861 -3.9444 1
gene 3 2 112 -3.12652 0 2944 -3.12652 1
gene 3 3 131 1.51748 0 2986 1.51748 1
gene 2 21 217 -0.665086 0 3265 0 1
genomeend 61

/* Organism #62 Fitness: 0.118994 Error: 0.781006 */
genomestart 62
trait 1 0.138375 0.000801499 0.187668 0.000586586 0.0764011 0.316837 0 0.0825942 
trait 2 0.0884424 0 0.217772 0.487956 0 0.30657 0.277979 0 
trait 3 0.65 0.00399486 0.341302 0 0.001723 0.0448015 0.200491 0 
node 1 2 1 1
node 2 2 1 1
node 3 1 1 1
node 4 1 0 2
node 5 1 0 0
node 21 1 0 0
node 112 1 0 0
node 131 1 0 0
node 217 1 0 0
gene 3 1 4 2.36866 0 1 2.36866 0
gene 2 2 4 0.904014 0 2 0.904014 1
gene 1 3 4 -1.8341 0 3 -1.8341 0
gene 1 3 5 -6.59039 0 9 -6.59039 1
gene 1 5 4 -7.88029 0 10 -7.88029 1
gene 2 2 21 -4.89073 0 204 -4.89073 1
gene 2 21 4 8 0 205 8 1
gene 1 5 5 -5.52785 1 246 -5.52785 0
gene 1 2 5 -3.55606 0 569 -3.55606 0
gene 2 21 5 0.103999 0 737 0.103999 1
gene 2 21 112 5.04903 0 1239 5.04903 0
gene 3 112 4 -7.27421 0 1240 -7.27421 1
gene 2 21 21 6.95317 1 1402 6.95317 0
gene 2 21 131 3.94372 0 1479 3.94372 1
gene 2 131 112 2.84498 0 1480 2.84498 1
gene 1 5 131 4.54994 0 1811 4.54994 0
gene 1 1 112 -8 0 1863 -8 0
gene 3 1 5 0.0879058 0 1941 0.0879058 1
gene 2 131 4 0.472881 0 2025 0.472881 1
gene 1 5 112 -3.25756 0 2176 -3.25756 1
gene 3 3 112 -5.44227 0 2310 -5.44227 1
gene 1 2 217 4.46803 0 2786 4.46803 1
gene 1 217 5 3.73443 0 2787 3.73443 1
gene 3 2 131 0.818881 0 2861 0.818881 1
gene 3 2 112 -4.59892 0 2944 -4.59892 1
gene 3 3 131 1.23988 0 2986 1.23988 1
gene 1 217 217 3.90507 1 3262 3.90507 1
genomeend 62

/* Organism #63 Fitness: 0.00584846 Error: 0.894152 */
genomestart 63
trait 1 0.138375 0.000801499 0.187668 0.000586586 0.0764011 0.316837 0 0.0825942 
trait 2 0.0884424 0 0.217772 0.487956 0 0.30657 0.277979 0 
trait 3 0.65 0.00399486 0.341302 0 0.001723 0.0448015 0.200491 0 
node 1 2 1 1
node 2 3 1 1
node 3 1 1 1
node 4 1 0 2
node 5 1 0 0
node 21 1 0 0
node 112 1 0 0
node 131 1 0 0
node 217 1 0 0
gene 3 1 4 7.73854 0 1 7.73854 0
gene 2 2 4 -1.80205 0 2 -1.80205 0
gene 1 3 4 8 0 3 8 0
gene 1 3 5 -5.22432 0 9 -5.22432 1
gene 1 5 4 -2.10942 0 10 -2.10942 1
gene 2 2 21 -4.80953 0 204 -4.80953 1
gene 2 21 4 6.96047 0 205 6.96047 1
gene 1 5 5 -2.90127 1 246 -2.90127 0
gene 1 2 5 -5.31963 0 569 -5.31963 0
gene 2 21 5 3.68244 0 737 3.68244 0
gene 2 21 112 3.64988 0 1239 3.64988 0
gene 3 112 4 -2.5056 0 1240 -2.5056 1
gene 2 21 21 4.31672 1 1402 4.31672 0
gene 2 21 131 8 0 1479 8 1
gene 2 131 112 7.46676 0 1480 7.46676 1
gene 1 5 131 0.891508 0 1811 0.891508 0
gene 1 1 112 -3.54031 0 1863 -3.54031 0
gene 3 1 5 -2.95892 0 1941 -2.95892 1
gene 2 131 4 1.29846 0 2025 1.29846 1
gene 1 5 112 -5.03186 0 2176 -5.03186 1
gene 3 3 112 -3.86885 0 2310 -3.86885 1
gene 1 2 217 -2.90151 0 2786 -2.90151 1
gene 1 217 5 0.392121 0 2787 0.392121 1
gene 3 2 131 -0.909368 0 2861 -0.909368 1
gene 3 2 112 0.0450588 0 2944 0.0450588 1
gene 3 3 131 -4.82802 0 2986 -4.82802 1
genomeend 63

/* Organism #64 Fitness: 0.286639 Error: 0.613361 */
genomestart 64
trait 1 0.138375 0.000801499 0.187668 0.000586586 0.0764011 0.316837 0 0.0825942 
trait 2 0.0884424 0 0.217772 0.487956 0 0.30657 0.277979 0 
trait 3 0.65 0.00399486 0.341302 0 0.001723 0.0448015 0.200491 0 
node 1 2 1 1
node 2 2 1 1
node 3 1 1 1
node 4 1 0 2
node 5 1 0 0
node 21 1 0 0
node 112 1 0 0
node 131 1 0 0
node 217 1 0 0
gene 3 1 4 3.08412 0 1 3.08412 0
gene 2 2 4 8 0 2 8 0
gene 1 3 4 -4.94226 0 3 -4.94226 0
gene 1 3 5 -7.0967 0 9 -7.0967 1
gene 1 5 4 -0.344333 0 10 -0.344333 1
gene 2 2 21 3.86861 0 204 3.86861 1
gene 2 21 4 0.828479 0 205 0.828479 1
gene 1 5 5 -4.60128 1 246 -4.60128 0
gene 1 2 5 -0.918438 0 569 -0.918438 0
gene 2 21 5 -3.50219 0 737 -3.50219 0
gene 2 21 112 -2.89331 0 1239 -2.89331 0
gene 3 112 4 -3.46129 0 1240 -3.46129 1
gene 2 21 21 -1.69154 1 1402 -1.69154 0
gene 2 21 131 4.70171 0 1479 4.70171 1
gene 2 131 112 7.45921 0 1480 7.45921 1
gene 1 5 131 3.29517 0 1811 3.29517 0
gene 1 1 112 -4.80567 0 1863 -4.80567 0
gene 3 1 5 -4.45026 0 1941 -4.45026 1
gene 2 131 4 0.251212 0 2025 0.251212 0
gene 1 5 112 -5.85533 0 2176 -5.85533 1
gene 3 3 112 -4.51998 0 2310 -4.51998 1
gene 1 2 217 6.494 0 2786 6.494 1
gene 1 217 5 6.67006 0 2787 6.67006 1
gene 3 2 131 -0.852008 0 2861 -0.852008 1
gene 3 2 112 -7.60536 0 2944 -7.60536 1
gene 3 3 131 -0.24125 0 2986 -0.24125 1
genomeend 64

/* Organism #65 Fitness: 0.197714 Error: 0.702286 */
genomestart 65
trait 1 0.138375 0.000801499 0.187668 0.000586586 0.0764011 0.316837 0 0.0825942 
trait 2 0.0884424 0 0.217772 0.487956 0 0.30657 0.277979 0 
trait 3 0.65 0.00399486 0.341302 0 0.001723 0.0448015 0.200491 0 
node 1 2 1 1
node 2 2 1 1
node 3 1 1 1
node 4 1 0 2
node 5 1 0 0
node 21 1 0 0
node 112 1 0 0
node 131 1 0 0
node 217 1 0 0
gene 3 1 4 8 0 1 8 0
gene 2 2 4 3.54509 0 2 3.54509 0
gene 1 3 4 3.76694 0 3 3.76694 0
gene 1 3 5 -8 0 9 -8 1
gene 1 5 4 -8 0 10 -8 1
gene 2 2 21 -7.50951 0 204 -7.50951 1
gene 2 21 4 8 0 205 8 1
gene 1 5 5 2.06875 1 246 2.06875 0
gene 1 2 5 -8 0 569 -8 0
gene 2 21 5 -0.66072 0 737 -0.66072 0
gene 2 21 112 7.73491 0 1239 7.73491 0
gene 3 112 4 -7.15802 0 1240 -7.15802 1
gene 2 21 21 3.48513 1 1402 3.48513 0
gene 2 21 131 4.23884 0 1479 4.23884 1
gene 2 131 112 -2.6746 0 1480 -2.6746 1
gene 1 5 131 7.38594 0 1811 7.38594 0
gene 1 1 112 -8 0 1863 -8 0
gene 3 1 5 -4.07986 0 1941 -4.07986 1
gene 2 131 4 1.85763 0 2025 1.85763 1
gene 1 5 112 -0.901613 0 2176 -0.901613 1
gene 3 3 112 -4.57827 0 2310 -4.57827 1
gene 1 2 217 2.98324 0 2786 2.98324 1
gene 1 217 5 5.17396 0 2787 5.17396 1
gene 3 2 131 -8 0 2861 -8 1
gene 3 2 112 -4.77908 0 2944 -4.77908 1
gene 3 3 131 1.51748 0 2986 1.51748 1
gene 3 217 217 0.915099 1 3307 0.915099 1
genomeend 65

/* Organism #66 Fitness: 0.063389 Error: 0.836611 */
genomestart 66
trait 1 0.138375 0.000801499 0.187668 0.000586586 0.0764011 0.316837 0 0.0825942 
trait 2 0.0884424 0 0.217772 0.139435 0 0.30657 0.277979 0 
trait 3 0.65 0.00399486 0.341302 0 0.001723 0.0448015 0.200491 0 
node 1 2 1 1
node 2 2 1 1
node 3 1 1 1
node 4 1 0 2
node 5 1 0 0
node 21 1 0 0
node 112 1 0 0
node 131 1 0 0
node 217 1 0 0
gene 3 1 4 3.23646 0 1 3.23646 0
gene 2 2 4 3.1573 0 2 3.1573 0
gene 1 3 4 -4.58865 0 3 -4.58865 0
gene 1 3 5 -8 0 9 -8 1
gene 1 5 4 4.58464 0 10 4.58464 1
gene 2 2 21 -5.32784 0 204 -5.32784 1
gene 2 21 4 6.5745 0 205 6.5745 1
gene 1 5 5 -0.801713 1 246 -0.801713 0
gene 1 2 5 -6.3907 0 569 -6.3907 0
gene 2 21 5 2.11869 0 737 2.11869 0
gene 2 21 112 6.79669 0 1239 6.79669 0
gene 3 112 4 -4.43196 0 1240 -4.43196 1
gene 2 21 21 7.7279 1 1402 7.7279 0
gene 2 21 131 3.8442 0 1479 3.8442 1
gene 2 131 112 2.62235 0 1480 2.62235 1
gene 1 5 131 4.06362 0 1811 4.06362 0
gene 1 1 112 -2.60414 0 1863 -2.60414 0
gene 3 1 5 1.80434 0 1941 1.80434 1
gene 2 131 4 1.90357 0 2025 1.90357 1
gene 1 5 112 3.22097 0 2176 3.22097 1
gene 3 3 112 -7.9069 0 2310 -7.9069 1
gene 1 2 217 -1.48492 0 2786 -1.48492 1
gene 1 217 5 -3.20454 0 2787 -3.20454 1
gene 3 2 131 -2.05867 0 2861 -2.05867 1
gene 3 2 112 -0.292636 0 2944 -0.292636 1
gene 3 3 131 3.68459 0 2986 3.68459 1
gene 2 131 131 1.32572 1 3261 1.32572 1
genomeend 66

/* Organism #67 Fitness: 0.00584846 Error: 0.894152 */
genomestart 67
trait 1 0.138375 0.000801499 0.187668 0.000586586 0.0764011 0.316837 0 0.0825942 
trait 2 0.0884424 0 0.217772 0.487956 0 0.30657 0.277979 0 
trait 3 0.65 0.00399486 0.341302 0 0.001723 0.0448015 0.200491 0 
node 1 2 1 1
node 2 2 1 1
node 3 1 1 1
node 4 1 0 2
node 5 1 0 0
node 21 1 0 0
node 112 1 0 0
node 131 1 0 0
node 217 1 0 0
gene 3 1 4 6.51788 0 1 6.51788 0
gene 2 2 4 3.86458 0 2 3.86458 0
gene 1 3 4 2.2611 0 3 2.2611 0
gene 1 3 5 -8 0 9 -8 1
gene 1 5 4 -8 0 10 -8 1
gene 2 2 21 -8 0 204 -8 1
gene 2 21 4 8 0 205 8 1
gene 1 5 5 1.16264 1 246 1.16264 0
gene 1 2 5 -8 0 569 -8 0
gene 2 21 5 -5.68555 0 737 -5.68555 0
gene 2 21 112 5.20514 0 1239 5.20514 0
gene 3 112 4 -2.92171 0 1240 -2.92171 1
gene 2 21 21 0.384048 1 1402 0.384048 0
gene 2 21 131 6.75518 0 1479 6.75518 1
gene 2 131 112 5.72268 0 1480 5.72268 1
gene 1 5 131 0.777599 0 1811 0.777599 0
gene 1 1 112 -2.74374 0 1863 -2.74374 0
gene 3 1 5 4.32691 0 1941 4.32691 1
gene 2 131 4 -2.21593 0 2025 -2.21593 1
gene 1 5 112 -2.32551 0 2176 -2.32551 1
gene 3 3 112 -0.171893 0 2310 -0.171893 1
gene 1 2 217 6.33827 0 2786 6.33827 1
gene 1 217 5 2.76129 0 2787 2.76129 1
gene 3 2 131 -7.1274 0 2861 -7.1274 1
gene 3 2 112 -3.12652 0 2944 -3.12652 1
gene 3 3 131 0.624349 0 2986 0.624349 1
gene 2 217 21 -0.0394527 0 3259 -0.0394527 1
genomeend 67

/* Organism #68 Fitness: 0.0460474 Error: 0.853953 */
genomestart 68
trait 1 0.138375 0.000801499 0.187668 0.000586586 0.0764011 0.316837 0 0.0825942 
trait 2 0.0884424 0 0.217772 0.487956 0 0.30657 0.277979 0 
trait 3 0.65 0.00399486 0.341302 0 0.001723 0.0448015 0.200491 0 
node 1 2 1 1
node 2 1 1 1
node 3 1 1 1
node 4 1 0 2
node 5 1 0 0
node 21 1 0 0
node 112 1 0 0
node 131 1 0 0
node 217 1 0 0
gene 3 1 4 5.22339 0 1 5.22339 0
gene 2 2 4 3.09217 0 2 3.09217 0
gene 1 3 4 -2.88063 0 3 -2.88063 0
gene 1 3 5 -3.47549 0 9 -3.47549 1
gene 1 5 4 -3.38399 0 10 -3.38399 1
gene 2 2 21 -4.17094 0 204 -4.17094 1
gene 2 21 4 0.101656 0 205 0.101656 1
gene 1 5 5 -2.2458 1 246 -2.2458 0
gene 1 2 5 -8 0 569 -8 0
gene 2 21 5 -3.15047 0 737 -3.15047 0
gene 2 21 112 7.92359 0 1239 7.92359 0
gene 3 112 4 -6.40913 0 1240 -6.40913 1
gene 2 21 21 8 1 1402 8 0
gene 2 21 131 7.22973 0 1479 7.22973 1
gene 2 131 112 8 0 1480 8 1
gene 1 5 131 8 0 1811 8 0
gene 1 1 112 -3.38112 0 1863 -3.38112 0
gene 3 1 5 -3.17978 0 1941 -3.17978 1
gene 2 131 4 2.4608 0 2025 2.4608 1
gene 1 5 112 -6.81821 0 2176 -6.81821 1
gene 3 3 112 -8 0 2310 -8 1
gene 1 2 217 8 0 2786 8 1
gene 1 217 5 3.99262 0 2787 3.99262 1
gene 3 2 131 -2.67879 0 2861 -2.67879 1
gene 3 2 112 2.63706 0 2944 2.63706 1
gene 3 3 131 -1.32215 0 2986 -1.32215 0
genomeend 68

/* Organism #69 Fitness: 0.0469553 Error: 0.853045 */
genomestart 69
trait 1 0.138375 0.000801499 0.187668 0.000586586 0.0764011 0.316837 0 0.0825942 
trait 2 0.0884424 0 0.217772 0.487956 0 0.30657 0.277979 0 
trait 3 0.65 0.00399486 0.341302 0 0.001723 0.0448015 0.200491 0 
node 1 2 1 1
node 2 2 1 1
node 3 1 1 1
node 4 1 0 2
node 5 1 0 0
node 21 1 0 0
node 112 1 0 0
node 131 1 0 0
node 217 1 0 0
gene 3 1 4 8 0 1 8 0
gene 2 2 4 4.37062 0 2 4.37062 0
gene 1 3 4 3.04044 0 3 3.04044 0
gene 1 3 5 -3.82957 0 9 -3.82957 1
gene 1 5 4 -8 0 10 -8 1
gene 2 2 21 -3.72962 0 204 -3.72962 1
gene 2 21 4 6.79399 0 205 6.79399 1
gene 1 5 5 0.88929 1 246 0.88929 0
gene 1 2 5 -4.53178 0 569 -4.53178 0
gene 2 21 5 -0.945211 0 737 -0.945211 0
gene 2 21 112 5.27747 0 1239 5.27747 0
gene 3 112 4 -4.24683 0 1240 -4.24683 1
gene 2 21 21 4.36244 1 1402 4.36244 0
gene 2 21 131 1.12165 0 1479 1.12165 1
gene 2 131 112 8 0 1480 8 1
gene 1 5 131 2.7663 0 1811 2.7663 0
gene 1 1 112 -8 0 1863 -8 0
gene 3 1 5 -2.6341 0 1941 -2.6341 1
gene 2 131 4 0.277681 0 2025 0.277681 1
gene 1 5 112 -5.75124 0 2176 -5.75124 1
gene 3 3 112 -1.35453 0 2310 -1.35453 1
gene 1 2 217 2.98324 0 2786 2.98324 1
gene 1 217 5 2.12894 0 2787 2.12894 1
gene 3 2 131 -3.9444 0 2861 -3.9444 1
gene 3 2 112 -4.48446 0 2944 -4.48446 1
gene 3 3 131 1.43129 0 2986 1.43129 1
gene 2 217 217 -0.242585 1 3251 -0.242585 1
gene 1 131 131 -0.00671987 1 3308 -0.00671987 1
genomeend 69

/* Organism #70 Fitness: 0.447758 Error: 0.452242 */
genomestart 70
trait 1 0.138375 0.000801499 0.187668 0.000586586 0.0764011 0.316837 0 0.0825942 
trait 2 0.0884424 0 0.217772 0.487956 0 0.30657 0.277979 0 
trait 3 0.65 0.00399486 0.341302 0 0.001723 0.0448015 0.200491 0 
node 1 2 1 1
node 2 2 1 1
node 3 1 1 1
node 4 1 0 2
node 5 1 0 0
node 21 1 0 0
node 112 1 0 0
node 131 1 0 0
node 217 1 0 0
gene 3 1 4 8 0 1 8 0
gene 2 2 4 -1.59436 0 2 -1.59436 0
gene 1 3 4 3.04044 0 3 3.04044 0
gene 1 3 5 -4.53238 0 9 -4.53238 1
gene 1 5 4 -8 0 10 -8 1
gene 2 2 21 -7.32401 0 204 -7.32401 1
gene 2 21 4 4.53888 0 205 4.53888 1
gene 1 5 5 0.88929 1 246 0.88929 0
gene 1 2 5 -5.14633 0 569 -5.14633 0
gene 2 21 5 -0.945211 0 737 -0.945211 0
gene 2 21 112 5.27747 0 1239 5.27747 0
gene 3 112 4 -4.24683 0 1240 -4.24683 1
gene 2 21 21 -0.643001 1 1402 -0.643001 0
gene 2 21 131 2.99511 0 1479 2.99511 1
gene 2 131 112 8 0 1480 8 1
gene 1 5 131 4.97294 0 1811 4.97294 0
gene 1 1 112 -6.49652 0 1863 -6.49652 0
gene 3 1 5 -0.00663953 0 1941 -0.00663953 1
gene 2 131 4 0.277681 0 2025 0.277681 1
gene 1 5 112 -5.75124 0 2176 -5.75124 1
gene 3 3 112 -3.93987 0 2310 -3.93987 1
gene 1 2 217 2.98324 0 2786 2.98324 1
gene 1 217 5 2.12894 0 2787 2.12894 1
gene 3 2 131 -3.9444 0 2861 -3.9444 1
gene 3 2 112 -3.12652 0 2944 -3.12652 1
gene 3 3 131 1.51748 0 2986 1.51748 1
gene 1 217 131 -0.793772 0 3256 0 1
gene 1 217 4 0.24372 0 3299 0 1
genomeend 70

/* Organism #71 Fitness: 0.00584846 Error: 0.894152 */
genomestart 71
trait 1 0.138375 0.000801499 0.187668 0.000586586 0.0764011 0.316837 0 0.0825942 
trait 2 0.0884424 0 0.217772 0.487956 0 0.30657 0.277979 0 
trait 3 0.65 0.00399486 0.341302 0 0.001723 0.0448015 0.200491 0 
node 1 2 1 1
node 2 2 1 1
node 3 2 1 1
node 4 1 0 2
node 5 1 0 0
node 21 1 0 0
node 112 1 0 0
node 131 1 0 0
node 217 1 0 0
gene 3 1 4 7.60293 0 1 7.60293 0
gene 2 2 4 -0.722914 0 2 -0.722914 0
gene 1 3 4 4.55513 0 3 4.55513 0
gene 1 3 5 -2.02535 0 9 -2.02535 1
gene 1 5 4 -8 0 10 -8 1
gene 2 2 21 -4.73104 0 204 -4.73104 1
gene 2 21 4 -2.38875 0 205 -2.38875 1
gene 1 5 5 1.22476 1 246 1.22476 0
gene 1 2 5 -3.08738 0 569 -3.08738 0
gene 2 21 5 -8 0 737 -8 0
gene 2 21 112 0.744139 0 1239 0.744139 0
gene 3 112 4 1.91348 0 1240 1.91348 1
gene 2 21 21 -4.76092 1 1402 -4.76092 0
gene 2 21 131 -3.65421 0 1479 -3.65421 1
gene 2 131 112 2.81252 0 1480 2.81252 1
gene 1 5 131 7.37774 0 1811 7.37774 0
gene 1 1 112 -7.15602 0 1863 -7.15602 0
gene 3 1 5 2.80228 0 1941 2.80228 1
gene 2 131 4 2.13157 0 2025 2.13157 1
