
/* Species #1 : (Size 11) (AF 381.803) (Age 29)  */


/* Organism #0 Fitness: 516.068 Error: 133.932 */
genomestart 0
trait 1 0.021875 0 0 0 0.321578 0.684049 0.0146826 0.33592 
trait 2 0.0990361 0.0212025 0 0.677183 0 0.0116913 0.032169 0.0119744 
trait 3 0.3 0 0 0 0.0141628 0 0 0 
node 1 2 1 1
node 2 1 1 1
node 3 2 1 1
node 4 2 0 2
node 7 1 0 0
gene 1 1 4 -0.282218 0 1 -0.282218 1
gene 2 2 4 0.20797 0 2 0.20797 1
gene 1 3 4 -5.27415 0 3 -5.27415 1
gene 1 1 7 5.27909 0 51 5.27909 1
gene 1 7 4 1.7575 0 52 1.7575 1
gene 2 3 7 0.407838 0 167 0.407838 1
gene 1 7 7 2.59802 1 303 2.59802 1
gene 3 2 7 -0.76418 0 474 -0.76418 1
genomeend 0

/* Organism #1 Fitness: 516.536 Error: 133.464 */
genomestart 1
trait 1 0.0203125 0 0 0 0.326772 0.69672 0.0146826 0.342638 
trait 2 0.0950626 0.0212025 0 0.652455 0 0.0116913 0.032169 0.0119744 
trait 3 0.3 0 0 0 0.0141628 0 0 0 
node 1 2 1 1
node 2 1 1 1
node 3 2 1 1
node 4 2 0 2
node 7 1 0 0
gene 1 1 4 -0.167603 0 1 -0.167603 1
gene 2 2 4 0.209151 0 2 0.209151 1
gene 1 3 4 -6.75237 0 3 -6.75237 1
gene 1 1 7 5.27909 0 51 5.27909 1
gene 1 7 4 1.89433 0 52 1.89433 1
gene 2 3 7 0.407838 0 167 0.407838 1
gene 1 7 7 2.59802 1 303 2.59802 1
gene 3 2 7 -0.76418 0 474 -0.76418 1
genomeend 1

/* Organism #2 Fitness: 519.578 Error: 130.422 */
genomestart 2
trait 1 0.021875 0 0 0 0.321578 0.684049 0.0146826 0.33592 
trait 2 0.0990361 0.0212025 0 0.677183 0 0.0116913 0.032169 0.0119744 
trait 3 0.3 0 0 0 0.0141628 0 0 0 
node 1 2 1 1
node 2 1 1 1
node 3 2 1 1
node 4 2 0 2
node 7 1 0 0
gene 1 1 4 -0.282218 0 1 -0.282218 1
gene 2 2 4 0.20797 0 2 0.20797 1
gene 1 3 4 -5.27415 0 3 -5.27415 1
gene 1 1 7 5.27909 0 51 5.27909 1
gene 1 7 4 1.7575 0 52 1.7575 1
gene 2 3 7 0.407838 0 167 0.407838 1
gene 1 7 7 2.59802 1 303 2.59802 1
gene 3 2 7 -0.76418 0 474 -0.76418 1
genomeend 2

/* Organism #3 Fitness: 427.318 Error: 222.682 */
genomestart 3
trait 1 0.0398437 0 0 0 0.2309 0.513092 0.0110054 0.258658 
trait 2 0.124686 0.0106012 0 0.551501 0 0.00584565 0.0160845 0.00598719 
trait 3 0.296597 0.00365358 0.0444423 0 0.0107727 0 0.0438649 0.0364127 
node 1 2 1 1
node 2 1 1 1
node 3 2 1 1
node 4 2 0 2
node 7 1 0 0
gene 1 1 4 1.02049 0 1 1.02049 1
gene 2 2 4 1.04006 0 2 1.04006 1
gene 1 3 4 -6.5523 0 3 -6.5523 1
gene 1 1 7 2.18825 0 51 2.18825 1
gene 1 7 4 1.2522 0 52 1.2522 1
gene 1 4 4 -1.25269 1 81 -1.25269 1
gene 3 7 7 4.20682 1 111 4.20682 1
gene 3 2 7 -0.72428 0 155 -0.72428 1
gene 1 3 7 1.08256 0 318 1.08256 1
genomeend 3

/* Organism #4 Fitness: 506.243 Error: 143.757 */
genomestart 4
trait 1 0.0398437 0 0 0 0.2309 0.513092 0.0110054 0.258658 
trait 2 0.124686 0.0106012 0 0.551501 0 0.00584565 0.0160845 0.00598719 
trait 3 0.296597 0.00365358 0.0444423 0 0.0107727 0 0.0438649 0.0364127 
node 1 2 1 1
node 2 1 1 1
node 3 2 1 1
node 4 2 0 2
node 7 1 0 0
gene 1 1 4 -0.396039 0 1 -0.396039 1
gene 2 2 4 -0.622379 0 2 -0.622379 1
gene 1 3 4 -4.39942 0 3 -4.39942 1
gene 1 1 7 3.88542 0 51 3.88542 1
gene 1 7 4 2.05523 0 52 2.05523 1
gene 2 3 7 0.407838 0 167 0.407838 1
gene 1 7 7 2.59802 1 303 2.59802 1
gene 3 2 7 -0.76418 0 474 -0.76418 1
genomeend 4

/* Organism #5 Fitness: 176.624 Error: 473.376 */
genomestart 5
trait 1 0.559216 0 0 0 0.67353 1 0 0 
trait 2 0.0990361 0.0212025 0 0.677183 0 0.0116913 0.032169 0.0119744 
trait 3 0.3 0 0 0 0.0141628 0 0 0 
node 1 2 1 1
node 2 1 1 1
node 3 2 1 1
node 4 2 0 2
node 7 1 0 0
gene 1 1 4 -1.52789 0 1 -1.52789 1
gene 2 2 4 1.18386 0 2 1.18386 1
gene 1 3 4 -3.50129 0 3 -3.50129 1
gene 1 1 7 4.05949 0 51 4.05949 1
gene 1 7 4 0.392076 0 52 0.392076 1
gene 2 3 7 -0.840536 0 167 -0.840536 1
gene 1 7 7 3.31726 1 303 3.31726 1
gene 3 2 7 -0.893896 0 474 -0.893896 1
genomeend 5

/* Organism #6 Fitness: 173.115 Error: 476.885 */
genomestart 6
trait 1 0.015625 0 0 0 0.280442 0.684269 0.0146563 0.362793 
trait 2 0.100672 0 0 0.851637 0 0 0 0 
trait 3 0.3 0 0 0 0.0147651 0 0 0 
node 1 2 1 1
node 2 1 1 1
node 3 2 1 1
node 4 2 0 2
node 7 1 0 0
gene 1 1 4 -0.344818 0 1 -0.344818 1
gene 2 2 4 -1.46663 0 2 -1.46663 1
gene 1 3 4 -2.93397 0 3 -2.93397 1
gene 1 1 7 2.41677 0 51 2.41677 1
gene 1 7 4 1.91898 0 52 1.91898 1
gene 2 3 7 2.32909 0 167 2.32909 1
gene 1 7 7 3.3603 1 303 3.3603 1
gene 3 2 7 -1.27838 0 474 -1.27838 1
gene 1 4 4 -1.73387 1 725 -1.73387 1
genomeend 6

/* Organism #7 Fitness: 441.428 Error: 208.572 */
genomestart 7
trait 1 0.03125 0 0 0 0.352329 0.658486 0.014709 0.295609 
trait 2 0.186289 0.0424049 0 0.552183 0 0.268272 0.064338 0 
trait 3 0.3 0 0 0 0.0135606 0 0 0 
node 1 2 1 1
node 2 3 1 1
node 3 3 1 1
node 4 2 0 2
node 7 1 0 0
gene 1 1 4 1.40759 0 1 1.40759 1
gene 2 2 4 -0.217828 0 2 -0.217828 1
gene 1 3 4 -8 0 3 -8 1
gene 1 1 7 6.30299 0 51 6.30299 1
gene 1 7 4 2.06592 0 52 2.06592 1
gene 1 4 4 8 1 119 8 1
gene 2 7 7 2.00534 1 255 2.00534 1
gene 2 3 7 1.43518 0 294 1.43518 1
gene 1 4 7 -1.56562 1 338 -1.56562 1
gene 2 2 7 -0.326898 0 425 -0.326898 1
genomeend 7

/* Organism #8 Fitness: 508.115 Error: 141.885 */
genomestart 8
trait 1 0.0109375 0 0 0 0.296022 0.722284 0.0146563 0.382949 
trait 2 0.0887517 0 0 0.777455 0 0 0 0 
trait 3 0.3 0 0 0 0.0147651 0 0 0 
node 1 2 1 1
node 2 1 1 1
node 3 2 1 1
node 4 2 0 2
node 7 1 0 0
gene 1 1 4 -0.167603 0 1 -0.167603 1
gene 2 2 4 -0.836227 0 2 -0.836227 1
gene 1 3 4 -5.30084 0 3 -5.30084 1
gene 1 1 7 3.77135 0 51 3.77135 1
gene 1 7 4 2.99005 0 52 2.99005 1
gene 2 3 7 0.407838 0 167 0.407838 1
gene 1 7 7 1.58613 1 303 1.58613 1
gene 3 2 7 -2.09155 0 474 -2.09155 1
gene 1 4 4 -0.331997 1 725 -0.331997 1
genomeend 8

/* Organism #9 Fitness: 2.33939 Error: 647.661 */
genomestart 9
trait 1 0.310004 0.0292229 0.245148 0.016514 0.0091986 0 0.0817569 0.153823 
trait 2 0.206134 0 0.102784 0.146866 0 0.0609342 0.212963 0.122387 
trait 3 0.3 0 0 0 0.0559519 0 0 0 
node 1 3 1 1
node 2 1 1 1
node 3 2 1 1
node 4 1 0 2
node 16 1 0 0
gene 1 1 4 -0.243512 0 1 -0.243512 1
gene 3 2 4 0.675693 0 2 0.675693 1
gene 3 3 4 -5.40811 0 3 -5.40811 1
gene 1 4 4 0.765384 1 44 0.765384 1
gene 3 4 16 4.39793 1 141 4.39793 1
gene 1 16 4 5.88085 0 142 5.88085 1
gene 2 3 16 2.97448 0 348 2.97448 1
gene 2 16 16 1.05347 1 730 1.05347 1
gene 3 2 16 -1.59458 0 915 -1.59458 1
genomeend 9

/* Organism #10 Fitness: 412.465 Error: 237.535 */
genomestart 10
trait 1 0.046875 0 0 0 0.346828 0.569619 0.0151999 0.228426 
trait 2 0.127552 0.0636074 0 0.526091 0 0.0350739 0.0965069 0.0359232 
trait 3 0.3 0 0 0 0.0129583 0 0 0 
node 1 2 1 1
node 2 1 1 1
node 3 2 1 1
node 4 2 0 2
node 7 1 0 0
gene 1 1 4 1.5714 0 1 1.5714 1
gene 2 2 4 0.20797 0 2 0.20797 1
gene 1 3 4 -7.38133 0 3 -7.38133 1
gene 1 1 7 6.57422 0 51 6.57422 1
gene 1 7 4 3.18603 0 52 3.18603 1
gene 1 4 4 6.67061 1 119 6.67061 1
gene 2 7 7 2.87677 1 255 2.87677 1
gene 2 3 7 -0.486595 0 294 -0.486595 1
gene 1 4 7 -1.32217 1 338 -1.32217 1
gene 2 2 7 0.645408 0 425 0.645408 1
genomeend 10

/* Species #2 : (Size 14) (AF 450.599) (Age 29)  */


/* Organism #11 Fitness: 495.482 Error: 154.518 */
genomestart 11
trait 1 0.0955502 0.0543367 0 0 0.000392593 0.112696 0.0274916 0.510608 
trait 2 0.201863 0 0.00341982 0 0 0 0.00339759 0.00487022 
trait 3 0.3 0 0 0 0.0451015 0 0 0 
node 1 3 1 1
node 2 3 1 1
node 3 2 1 1
node 4 3 0 2
node 9 1 0 0
gene 1 1 4 -0.373464 0 1 -0.373464 1
gene 1 2 4 -6.72612 0 2 -6.72612 0
gene 3 3 4 -6.15806 0 3 -6.15806 1
gene 1 4 4 1.02448 1 50 1.02448 1
gene 3 2 9 0.019331 0 64 0.019331 1
gene 3 9 4 2.93372 0 65 2.93372 1
gene 1 1 9 1.92494 0 175 1.92494 1
gene 1 3 9 1.88681 0 295 1.88681 1
genomeend 11

/* Organism #12 Fitness: 509.284 Error: 140.716 */
genomestart 12
trait 1 0.0956893 0.0543367 0 0 0.000380325 0.113738 0.0276111 0.516819 
trait 2 0.201804 0 0.00331295 0 0 0 0.00329141 0.00471802 
trait 3 0.3 0 0 0 0.0436921 0 0 0 
node 1 3 1 1
node 2 3 1 1
node 3 2 1 1
node 4 3 0 2
node 9 1 0 0
gene 1 1 4 -0.373464 0 1 -0.373464 1
gene 1 2 4 -6.72612 0 2 -6.72612 0
gene 3 3 4 -4.66826 0 3 -4.66826 1
gene 1 4 4 0.998856 1 50 0.998856 1
gene 3 2 9 0.473011 0 64 0.473011 1
gene 3 9 4 2.62263 0 65 2.62263 1
gene 1 1 9 2.21111 0 175 2.21111 1
gene 1 3 9 1.82197 0 295 1.82197 1
genomeend 12

/* Organism #13 Fitness: 500.628 Error: 149.372 */
genomestart 13
trait 1 0.0969408 0.0529783 0 0 0.000269908 0.123115 0.0287053 0.575186 
trait 2 0.201281 0.205661 0.190912 0 0 0.0271242 0.219998 0.00304389 
trait 3 0.3 0 0 0 0.0310073 0 0 0 
node 1 3 1 1
node 2 2 1 1
node 3 2 1 1
node 4 3 0 2
node 9 1 0 0
gene 1 1 4 -0.442818 0 1 -0.442818 1
gene 1 2 4 -5.94446 0 2 -5.94446 0
gene 3 3 4 -5.54109 0 3 -5.54109 1
gene 1 4 4 2.74693 1 50 2.74693 1
gene 3 2 9 1.44715 0 64 1.44715 1
gene 3 9 4 2.31398 0 65 2.31398 1
gene 1 1 9 1.89856 0 175 1.89856 1
gene 1 3 9 1.49403 0 295 1.49403 1
gene 1 9 9 0.545898 1 1092 0.545898 1
genomeend 13

/* Organism #14 Fitness: 515.367 Error: 134.633 */
genomestart 14
trait 1 0.0956893 0.0543367 0 0 0.000380325 0.113738 0.0276111 0.516819 
trait 2 0.201804 0 0.00331295 0 0 0 0.00329141 0.00471802 
trait 3 0.3 0 0 0 0.0436921 0 0 0 
node 1 3 1 1
node 2 3 1 1
node 3 2 1 1
node 4 3 0 2
node 9 1 0 0
gene 1 1 4 -0.373464 0 1 -0.373464 1
gene 1 2 4 -6.72612 0 2 -6.72612 1
gene 3 3 4 -4.66826 0 3 -4.66826 1
gene 1 4 4 0.998856 1 50 0.998856 1
gene 3 2 9 0.473011 0 64 0.473011 1
gene 3 9 4 2.62263 0 65 2.62263 1
gene 1 1 9 2.21111 0 175 2.21111 1
gene 1 3 9 1.82197 0 295 1.82197 1
genomeend 14

/* Organism #15 Fitness: 482.615 Error: 167.385 */
genomestart 15
trait 1 0.0958283 0.0543367 0 0 0.000368056 0.11478 0.0277305 0.523031 
trait 2 0.201746 0 0.00320608 0 0 0 0.00318524 0.00456583 
trait 3 0 0 0 0.261949 0.0422827 0.711258 0.343834 0.877568 
node 1 3 1 1
node 2 3 1 1
node 3 2 1 1
node 4 3 0 2
node 9 1 0 0
gene 1 1 4 -0.49442 0 1 -0.49442 1
gene 1 2 4 -7.42629 0 2 -7.42629 0
gene 3 3 4 -0.243144 0 3 -0.243144 1
gene 1 4 4 0.522055 1 50 0.522055 1
gene 3 2 9 -0.40622 0 64 -0.40622 1
gene 3 9 4 3.83078 0 65 3.83078 1
gene 1 1 9 2.28264 0 175 2.28264 1
gene 1 3 9 1.59906 0 295 1.59906 1
gene 2 9 9 1.51074 1 1061 1.51074 1
genomeend 15

/* Organism #16 Fitness: 507.179 Error: 142.821 */
genomestart 16
trait 1 0.0963845 0.0536575 0 0 0.000318982 0.118947 0.0282179 0.549108 
trait 2 0.201513 0.10283 0.097059 0 0 0.0135621 0.111592 0.00380486 
trait 3 0.3 0 0 0 0.036645 0 0 0 
node 1 3 1 1
node 2 3 1 1
node 3 2 1 1
node 4 3 0 2
node 9 1 0 0
gene 1 1 4 -0.373464 0 1 -0.373464 1
gene 1 2 4 -6.72612 0 2 -6.72612 0
gene 3 3 4 -3.17846 0 3 -3.17846 1
gene 1 4 4 0.973233 1 50 0.973233 1
gene 3 2 9 0.926691 0 64 0.926691 1
gene 3 9 4 2.31153 0 65 2.31153 1
gene 1 1 9 1.89856 0 175 1.89856 1
gene 1 3 9 1.75714 0 295 1.75714 1
genomeend 16

/* Organism #17 Fitness: 513.027 Error: 136.973 */
genomestart 17
trait 1 0.0955502 0.0543367 0 0 0.000392593 0.112696 0.0274916 0.510608 
trait 2 0.201863 0 0.00341982 0 0 0 0.00339759 0.00487022 
trait 3 0.3 0 0 0 0.0451015 0 0 0 
node 1 3 1 1
node 2 3 1 1
node 3 2 1 1
node 4 3 0 2
node 9 1 0 0
gene 1 1 4 -0.373464 0 1 -0.373464 1
gene 1 2 4 -6.72612 0 2 -6.72612 1
gene 3 3 4 -6.15806 0 3 -6.15806 1
gene 1 4 4 1.02448 1 50 1.02448 1
gene 3 2 9 0.019331 0 64 0.019331 1
gene 3 9 4 2.93372 0 65 2.93372 1
gene 1 1 9 1.92494 0 175 1.92494 1
gene 1 3 9 1.88681 0 295 1.88681 1
gene 3 4 9 -0.32787 1 1093 -0.32787 1
genomeend 17

/* Organism #18 Fitness: 511.624 Error: 138.376 */
genomestart 18
trait 1 0.0958283 0.0543367 0 0 0.000368056 0.11478 0.0277305 0.523031 
trait 2 0.201746 0 0.00320608 0 0 0 0.00318524 0.00456583 
trait 3 0.3 0 0 0 0.0422827 0 0 0 
node 1 3 1 1
node 2 3 1 1
node 3 2 1 1
node 4 3 0 2
node 9 1 0 0
gene 1 1 4 -0.373464 0 1 -0.373464 1
gene 1 2 4 -6.72612 0 2 -6.72612 0
gene 3 3 4 -3.17846 0 3 -3.17846 1
gene 1 4 4 0.973233 1 50 0.973233 1
gene 3 2 9 0.926691 0 64 0.926691 1
gene 3 9 4 2.31153 0 65 2.31153 1
gene 1 1 9 2.49728 0 175 2.49728 1
gene 1 3 9 1.75714 0 295 1.75714 1
genomeend 18

/* Organism #19 Fitness: 475.831 Error: 174.169 */
genomestart 19
trait 1 0.0962455 0.0536575 0 0 0.000331251 0.117905 0.0280985 0.542897 
trait 2 0.201572 0.10283 0.0971659 0 0 0.0135621 0.111698 0.00395705 
trait 3 0.3 0 0 0 0.0380544 0 0 0 
node 1 3 1 1
node 2 3 1 1
node 3 2 1 1
node 4 3 0 2
node 9 1 0 0
gene 1 1 4 -0.373464 0 1 -0.373464 1
gene 1 2 4 -6.72612 0 2 -6.72612 0
gene 3 3 4 -6.15806 0 3 -6.15806 1
gene 1 4 4 2.74693 1 50 2.74693 1
gene 3 2 9 1.44715 0 64 1.44715 1
gene 3 9 4 2.93372 0 65 2.93372 1
gene 1 1 9 1.89856 0 175 1.89856 1
gene 1 3 9 1.49403 0 295 1.49403 1
genomeend 19

/* Organism #20 Fitness: 177.793 Error: 472.207 */
genomestart 20
trait 1 0.0962455 0.0536575 0 0 0.000331251 0.117905 0.0280985 0.542897 
trait 2 0.201572 0.10283 0.0971659 0 0 0.0135621 0.111698 0.00395705 
trait 3 0.3 0 0 0 0.0380544 0 0 0 
node 1 3 1 1
node 2 3 1 1
node 3 2 1 1
node 4 3 0 2
node 9 1 0 0
gene 1 1 4 -0.784792 0 1 -0.784792 1
gene 2 2 4 -8 0 2 -8 0
gene 3 3 4 -6.15806 0 3 -6.15806 1
gene 1 4 4 0.528902 1 50 0.528902 1
gene 3 2 9 0.71431 0 64 0.71431 1
gene 3 9 4 2.61078 0 65 2.61078 1
gene 1 1 9 2.2841 0 175 2.2841 1
gene 1 3 9 1.07931 0 295 1.07931 1
genomeend 20

/* Organism #21 Fitness: 176.39 Error: 473.61 */
genomestart 21
trait 1 0.0958283 0.0543367 0 0 0.000368056 0.11478 0.0277305 0.523031 
trait 2 0.201746 0 0.00320608 0 0 0 0.00318524 0.00456583 
trait 3 0.3 0 0 0 0.0422827 0 0 0 
node 1 3 1 1
node 2 3 1 1
node 3 2 1 1
node 4 3 0 2
node 9 1 0 0
gene 1 1 4 -1.365 0 1 -1.365 1
gene 1 2 4 -8 0 2 -8 0
gene 3 3 4 -2.1193 0 3 -2.1193 1
gene 1 4 4 0.398323 1 50 0.398323 1
gene 3 2 9 0.108231 0 64 0.108231 1
gene 3 9 4 2.25317 0 65 2.25317 1
gene 1 1 9 2.68286 0 175 2.68286 1
gene 1 3 9 1.73843 0 295 1.73843 1
genomeend 21

/* Organism #22 Fitness: 462.964 Error: 187.036 */
genomestart 22
trait 1 0.0958283 0.0543367 0 0 0.000368056 0.11478 0.0277305 0.523031 
trait 2 0.201746 0 0.00320608 0 0 0 0.00318524 0.00456583 
trait 3 0.3 0 0 0 0.0422827 0 0 0 
node 1 3 1 1
node 2 3 1 1
node 3 2 1 1
node 4 3 0 2
node 9 1 0 0
gene 1 1 4 -0.114217 0 1 -0.114217 1
gene 1 2 4 -1.06289 0 2 -1.06289 0
gene 3 3 4 -0.64824 0 3 -0.64824 1
gene 1 4 4 1.02448 1 50 1.02448 1
gene 3 2 9 -1.40529 0 64 -1.40529 1
gene 3 9 4 2.93372 0 65 2.93372 1
gene 1 1 9 1.86256 0 175 1.86256 1
gene 1 3 9 1.86238 0 295 1.86238 1
gene 2 9 9 1.05185 1 1061 1.05185 1
genomeend 22

/* Organism #23 Fitness: 516.77 Error: 133.23 */
genomestart 23
trait 1 0.0955502 0.0543367 0 0 0.000392593 0.112696 0.0274916 0.510608 
trait 2 0.201863 0 0.00341982 0 0 0 0.00339759 0.00487022 
trait 3 0.3 0 0 0 0.0451015 0 0 0 
node 1 3 1 1
node 2 3 1 1
node 3 2 1 1
node 4 3 0 2
node 9 1 0 0
gene 1 1 4 -0.373464 0 1 -0.373464 1
gene 1 2 4 -6.72612 0 2 -6.72612 0
gene 3 3 4 -6.15806 0 3 -6.15806 1
gene 1 4 4 1.02448 1 50 1.02448 1
gene 3 2 9 0.019331 0 64 0.019331 1
gene 3 9 4 2.93372 0 65 2.93372 1
gene 1 1 9 1.92494 0 175 1.92494 1
gene 1 3 9 1.88681 0 295 1.88681 1
genomeend 23

/* Organism #24 Fitness: 463.432 Error: 186.568 */
genomestart 24
trait 1 0.0956893 0.0543367 0 0 0.000380325 0.113738 0.0276111 0.516819 
trait 2 0.201804 0 0.00331295 0 0 0 0.00329141 0.00471802 
trait 3 0.3 0 0 0 0.0436921 0 0 0 
node 1 3 1 1
node 2 3 1 1
node 3 2 1 1
node 4 3 0 2
node 9 1 0 0
gene 1 1 4 -0.373464 0 1 -0.373464 1
gene 1 2 4 -6.72612 0 2 -6.72612 0
gene 3 3 4 -6.15806 0 3 -6.15806 1
gene 1 4 4 1.02448 1 50 1.02448 1
gene 3 2 9 0.926691 0 64 0.926691 1
gene 3 9 4 2.31153 0 65 2.31153 1
gene 1 1 9 2.49728 0 175 2.49728 1
gene 1 3 9 1.75714 0 295 1.75714 1
genomeend 24

/* Species #3 : (Size 9) (AF 261.553) (Age 28)  */


/* Organism #25 Fitness: 296.948 Error: 353.052 */
genomestart 25
trait 1 0.1 0.347755 0 0 0 0.0400016 0.294004 0.196273 
trait 2 0.2 0 0 0 0 0 0 0 
trait 3 0.3 0 0 0 0 0 0 0 
node 1 3 1 1
node 2 3 1 1
node 3 2 1 1
node 4 3 0 2
node 9 1 0 0
gene 1 1 4 6.0748 0 1 6.0748 1
gene 1 2 4 -8 0 2 -8 0
gene 3 3 4 3.70861 0 3 3.70861 1
gene 1 4 4 0.8217 1 50 0.8217 1
gene 3 2 9 -1.08623 0 64 -1.08623 1
gene 3 9 4 1.46638 0 65 1.46638 1
gene 1 1 9 -1.35353 0 175 -1.35353 1
gene 1 3 9 -2.6539 0 484 -2.6539 1
gene 2 9 9 0.674943 1 704 0.674943 1
genomeend 25

/* Organism #26 Fitness: 291.601 Error: 358.399 */
genomestart 26
trait 1 0.1 0.347755 0 0 0 0.0400016 0.294004 0.196273 
trait 2 0.2 0 0 0 0 0 0 0 
trait 3 0.3 0 0 0 0 0 0 0 
node 1 3 1 1
node 2 3 1 1
node 3 2 1 1
node 4 3 0 2
node 9 1 0 0
gene 1 1 4 6.0748 0 1 6.0748 1
gene 1 2 4 -8 0 2 -8 0
gene 3 3 4 3.70861 0 3 3.70861 1
gene 1 4 4 0.8217 1 50 0.8217 1
gene 3 2 9 -1.08623 0 64 -1.08623 1
gene 3 9 4 1.46638 0 65 1.46638 1
gene 1 1 9 -1.35353 0 175 -1.35353 1
gene 1 3 9 -2.6539 0 484 -2.6539 1
gene 2 9 9 0.674943 1 704 0.674943 1
genomeend 26

/* Organism #27 Fitness: 2.33939 Error: 647.661 */
genomestart 27
trait 1 0.1 0.347755 0 0 0 0.0400016 0.294004 0.196273 
trait 2 0.2 0 0 0 0 0 0 0 
trait 3 0.3 0 0 0 0 0 0 0 
node 1 3 1 1
node 2 3 1 1
node 3 2 1 1
node 4 3 0 2
node 9 1 0 0
gene 1 1 4 -1.51722 0 1 -1.51722 1
gene 1 2 4 -1.28666 0 2 -1.28666 1
gene 3 3 4 4.49766 0 3 4.49766 1
gene 1 4 4 2.15141 1 50 2.15141 1
gene 3 2 9 -0.32705 0 64 -0.32705 1
gene 3 9 4 -1.73843 0 65 -1.73843 1
gene 1 1 9 -0.727558 0 175 -0.727558 1
gene 1 3 9 -2.81491 0 484 -2.81491 1
gene 2 9 9 -0.38363 1 704 -0.38363 0
genomeend 27

/* Organism #28 Fitness: 297.235 Error: 352.765 */
genomestart 28
trait 1 0.1 0.347755 0 0 0 0.0665101 0.235999 0.191526 
trait 2 0.2 0.362977 0 0 0 0 0 0 
trait 3 0.3 0 0 0 0 0 0 0 
node 1 3 1 1
node 2 3 1 1
node 3 2 1 1
node 4 3 0 2
node 9 1 0 0
gene 1 1 4 6.29641 0 1 6.29641 1
gene 1 2 4 -6.39586 0 2 -6.39586 0
gene 3 3 4 3.70861 0 3 3.70861 1
gene 1 4 4 0.8217 1 50 0.8217 1
gene 3 2 9 -0.621548 0 64 -0.621548 1
gene 3 9 4 3.19744 0 65 3.19744 1
gene 1 1 9 -1.35353 0 175 -1.35353 1
gene 1 3 9 -2.6539 0 484 -2.6539 0
gene 2 9 9 1.44125 1 704 1.44125 1
genomeend 28

/* Organism #29 Fitness: 295.901 Error: 354.099 */
genomestart 29
trait 1 0.1 0.347755 0 0 0 0.0400016 0.294004 0.196273 
trait 2 0.2 0 0 0 0 0 0 0 
trait 3 0.3 0 0 0 0 0 0 0 
node 1 3 1 1
node 2 3 1 1
node 3 2 1 1
node 4 3 0 2
node 9 1 0 0
gene 1 1 4 6.26936 0 1 6.26936 1
gene 1 2 4 -8 0 2 -8 0
gene 3 3 4 5.37175 0 3 5.37175 1
gene 1 4 4 1.12934 1 50 1.12934 1
gene 3 2 9 -2.59067 0 64 -2.59067 1
gene 3 9 4 2.7969 0 65 2.7969 1
gene 1 1 9 -2.07445 0 175 -2.07445 1
gene 1 3 9 -4.23259 0 484 -4.23259 1
gene 2 9 9 2.14688 1 704 2.14688 1
genomeend 29

/* Organism #30 Fitness: 287.301 Error: 362.699 */
genomestart 30
trait 1 0.1 0.347755 0 0 0 0.0400016 0.294004 0.196273 
trait 2 0.2 0 0 0 0 0 0 0 
trait 3 0.3 0 0 0 0 0 0 0 
node 1 3 1 1
node 2 3 1 1
node 3 2 1 1
node 4 3 0 2
node 9 1 0 0
gene 1 1 4 7.82268 0 1 7.82268 1
gene 1 2 4 -8 0 2 -8 0
gene 3 3 4 4.43907 0 3 4.43907 1
gene 1 4 4 -1.45139 1 50 -1.45139 1
gene 3 2 9 -1.08623 0 64 -1.08623 1
gene 3 9 4 1.46638 0 65 1.46638 1
gene 1 1 9 -1.7995 0 175 -1.7995 1
gene 1 3 9 -2.15335 0 484 -2.15335 1
gene 2 9 9 0.256661 1 704 0.256661 1
genomeend 30

/* Organism #31 Fitness: 297.137 Error: 352.863 */
genomestart 31
trait 1 0.1 0.347755 0 0 0 0.0665101 0.235999 0.191526 
trait 2 0.2 0.362977 0 0 0 0 0 0 
trait 3 0.3 0 0 0 0 0 0 0 
node 1 3 1 1
node 2 3 1 1
node 3 2 1 1
node 4 3 0 2
node 9 1 0 0
gene 1 1 4 6.1856 0 1 6.1856 1
gene 1 2 4 -7.19793 0 2 -7.19793 0
gene 3 3 4 2.3342 0 3 2.3342 1
gene 1 4 4 -1.28555 1 50 -1.28555 1
gene 3 2 9 -0.85389 0 64 -0.85389 1
gene 3 9 4 2.33191 0 65 2.33191 1
gene 1 1 9 -1.28569 0 175 -1.28569 1
gene 1 3 9 -2.76923 0 484 -2.76923 0
gene 2 9 9 1.0581 1 704 1.0581 1
gene 2 4 9 -0.174984 1 1094 -0.174984 1
genomeend 31

/* Organism #32 Fitness: 293.13 Error: 356.87 */
genomestart 32
trait 1 0.1 0.347755 0 0 0 0.0665101 0.235999 0.191526 
trait 2 0.2 0.362977 0 0 0 0 0 0 
trait 3 0.3 0 0 0 0 0 0 0 
node 1 3 1 1
node 2 3 1 1
node 3 2 1 1
node 4 3 0 2
node 9 1 0 0
gene 1 1 4 6.1856 0 1 6.1856 1
gene 1 2 4 -7.19793 0 2 -7.19793 0
gene 3 3 4 2.3342 0 3 2.3342 1
gene 1 4 4 -1.28555 1 50 -1.28555 1
gene 3 2 9 -0.85389 0 64 -0.85389 1
gene 3 9 4 2.33191 0 65 2.33191 1
gene 1 1 9 -1.28569 0 175 -1.28569 1
gene 1 3 9 -2.76923 0 484 -2.76923 1
gene 2 9 9 1.0581 1 704 1.0581 1
genomeend 32

/* Organism #33 Fitness: 292.385 Error: 357.615 */
genomestart 33
trait 1 0.1 0.347755 0 0 0 0.0400016 0.294004 0.196273 
trait 2 0.2 0 0 0 0 0 0 0 
trait 3 0.540882 0 0 0 0.710608 0 0.691936 0 
node 1 3 1 1
node 2 3 1 1
node 3 2 1 1
node 4 3 0 2
node 9 1 0 0
gene 1 1 4 6.40198 0 1 6.40198 1
gene 1 2 4 -6.37818 0 2 -6.37818 0
gene 3 3 4 2.38999 0 3 2.38999 1
gene 1 4 4 -0.907668 1 50 -0.907668 1
gene 3 2 9 -1.26818 0 64 -1.26818 1
gene 1 9 4 2.528 0 65 2.528 1
gene 1 1 9 -1.10776 0 175 -1.10776 1
gene 1 3 9 -1.84011 0 484 -1.84011 1
gene 2 9 9 0.295497 1 704 0.295497 1
genomeend 33

/* Species #4 : (Size 15) (AF 401.214) (Age 28)  */


/* Organism #34 Fitness: 507.179 Error: 142.821 */
genomestart 34
trait 1 0.1 0 0 0 0 0 0.0728182 0 
trait 2 0.196338 0.0248466 0 0.190411 0 0.121726 0.037698 0.0140325 
trait 3 0.535059 0 0.0454194 0.0301085 0.561263 0 0 0 
node 1 2 1 1
node 2 3 1 1
node 3 3 1 1
node 4 2 0 2
node 8 1 0 0
gene 1 1 4 -0.454944 0 1 -0.454944 1
gene 2 2 4 1.9621 0 2 1.9621 0
gene 2 3 4 -3.79597 0 3 -3.79597 1
gene 2 2 8 1.48268 0 53 1.48268 1
gene 2 8 4 2.35019 0 54 2.35019 1
gene 1 3 8 4.47592 0 136 4.47592 1
gene 2 1 8 7.07837 0 184 7.07837 1
gene 1 8 8 1.68556 1 302 1.68556 1
gene 1 4 4 -0.118432 1 982 -0.118432 1
genomeend 34

/* Organism #35 Fitness: 486.124 Error: 163.876 */
genomestart 35
trait 1 0.1 0 0 0 0 0 0.0728182 0 
trait 2 0.196338 0.0248466 0 0.190411 0 0.121726 0.037698 0.0140325 
trait 3 0.524121 0 0.0454194 0.0301085 0.54999 0 0 0 
node 1 2 1 1
node 2 3 1 1
node 3 3 1 1
node 4 2 0 2
node 8 1 0 0
gene 2 1 4 -0.641357 0 1 -0.641357 1
gene 2 2 4 -0.738228 0 2 -0.738228 0
gene 2 3 4 -3.31188 0 3 -3.31188 0
gene 2 2 8 -1.37427 0 53 -1.37427 1
gene 2 8 4 2.47813 0 54 2.47813 1
gene 1 3 8 4.01149 0 136 4.01149 1
gene 3 1 8 6.73033 0 184 6.73033 1
gene 1 8 8 2.74282 1 302 2.74282 1
genomeend 35

/* Organism #36 Fitness: 506.477 Error: 143.523 */
genomestart 36
trait 1 0.1 0 0 0 0 0 0.0722759 0 
trait 2 0.196069 0.0266687 0 0.188015 0 0.121371 0.0404625 0.0150615 
trait 3 0.508838 0 0.0487501 0.0323164 0.537206 0 0 0 
node 1 2 1 1
node 2 3 1 1
node 3 3 1 1
node 4 2 0 2
node 8 1 0 0
gene 2 1 4 -0.880184 0 1 -0.880184 1
gene 2 2 4 -0.738228 0 2 -0.738228 0
gene 2 3 4 -3.72152 0 3 -3.72152 0
gene 3 2 8 -1.83382 0 53 -1.83382 1
gene 2 8 4 4.18921 0 54 4.18921 1
gene 1 3 8 3.88517 0 136 3.88517 1
gene 3 1 8 5.15022 0 184 5.15022 1
gene 1 8 8 2.52694 1 302 2.52694 1
genomeend 36

/* Organism #37 Fitness: 175.922 Error: 474.078 */
genomestart 37
trait 1 0.1 0 0 0 0 0 0.0733604 0 
trait 2 0.196606 0.0230246 0 0.192808 0 0.122081 0.0349335 0.0130034 
trait 3 0.550342 0 0.0420886 0.0279005 0.574047 0 0 0 
node 1 3 1 1
node 2 3 1 1
node 3 3 1 1
node 4 2 0 2
node 8 1 0 0
gene 2 1 4 -1.59304 0 1 -1.59304 1
gene 2 2 4 2.11852 0 2 2.11852 1
gene 2 3 4 -3.31188 0 3 -3.31188 0
gene 2 2 8 0.535231 0 53 0.535231 1
gene 2 8 4 2.47813 0 54 2.47813 1
gene 1 3 8 4.44334 0 136 4.44334 1
gene 3 1 8 4.07523 0 184 4.07523 1
gene 1 8 8 -0.355396 1 302 -0.355396 1
gene 1 4 4 -1.19364 1 982 -1.19364 1
genomeend 37

/* Organism #38 Fitness: 511.624 Error: 138.376 */
genomestart 38
trait 1 0.1 0 0 0 0 0 0.0730893 0 
trait 2 0.196472 0.0239356 0 0.19161 0 0.121904 0.0363158 0.013518 
trait 3 0.537231 0 0.043754 0.0290045 0.562019 0 0 0 
node 1 2 1 1
node 2 3 1 1
node 3 3 1 1
node 4 2 0 2
node 8 1 0 0
gene 1 1 4 -0.454944 0 1 -0.454944 1
gene 2 2 4 0.739901 0 2 0.739901 1
gene 2 3 4 -3.31188 0 3 -3.31188 1
gene 2 2 8 -0.689092 0 53 -0.689092 1
gene 2 8 4 2.39116 0 54 2.39116 1
gene 1 3 8 4.01149 0 136 4.01149 1
gene 3 1 8 4.96274 0 184 4.96274 1
gene 1 8 8 1.68556 1 302 1.68556 1
gene 1 4 4 -0.118432 1 982 -0.118432 1
genomeend 38

/* Organism #39 Fitness: 2.57332 Error: 647.427 */
genomestart 39
trait 1 0.1 0 0 0 0 0 0.0728182 0 
trait 2 0.196338 0.0248466 0 0.190411 0 0.121726 0.037698 0.0140325 
trait 3 0.535059 0 0.0454194 0.0301085 0.561263 0 0 0 
node 1 2 1 1
node 2 3 1 1
node 3 3 1 1
node 4 2 0 2
node 8 1 0 0
gene 1 1 4 0.100889 0 1 0.100889 1
gene 2 2 4 1.01187 0 2 1.01187 0
gene 2 3 4 -5.19404 0 3 -5.19404 0
gene 2 2 8 1.71409 0 53 1.71409 1
gene 2 8 4 -1.75462 0 54 -1.75462 1
gene 1 3 8 6.2478 0 136 6.2478 1
gene 3 1 8 4.7398 0 184 4.7398 1
gene 1 8 8 0.165134 1 302 0.165134 1
gene 1 4 4 -0.572982 1 982 -0.572982 1
genomeend 39

/* Organism #40 Fitness: 179.665 Error: 470.335 */
genomestart 40
trait 1 0.1 0 0 0 0 0 0.0722759 0 
trait 2 0.196069 0.0266687 0 0.188015 0 0.121371 0.0404625 0.0150615 
trait 3 0.508838 0 0.0487501 0.0323164 0.537206 0 0 0 
node 1 2 1 1
node 2 2 1 1
node 3 3 1 1
node 4 2 0 2
node 8 1 0 0
gene 2 1 4 -1.7724 0 1 -1.7724 1
gene 2 2 4 1.56952 0 2 1.56952 0
gene 2 3 4 -5.91208 0 3 -5.91208 1
gene 2 2 8 -2.0406 0 53 -2.0406 1
gene 2 8 4 2.85461 0 54 2.85461 1
gene 1 3 8 3.46787 0 136 3.46787 1
gene 3 1 8 4.31124 0 184 4.31124 1
gene 1 8 8 3.77218 1 302 3.77218 1
genomeend 40

/* Organism #41 Fitness: 478.638 Error: 171.362 */
genomestart 41
trait 1 0.1 0 0 0 0 0 0.0717337 0 
trait 2 0.195801 0.0284908 0 0.185618 0 0.121017 0.0432271 0.0160906 
trait 3 0.482617 0 0.0520809 0.0345244 0.513148 0 0 0 
node 1 2 1 1
node 2 3 1 1
node 3 3 1 1
node 4 2 0 2
node 8 1 0 0
gene 2 1 4 -1.55782 0 1 -1.55782 1
gene 2 2 4 -0.365632 0 2 -0.365632 1
gene 2 3 4 -2.9565 0 3 -2.9565 0
gene 2 2 8 0.841417 0 53 0.841417 1
gene 2 8 4 3.19909 0 54 3.19909 1
gene 1 3 8 4.79182 0 136 4.79182 1
gene 2 1 8 6.80572 0 184 6.80572 1
gene 1 8 8 3.64341 1 302 3.64341 1
gene 1 4 4 0.0378099 1 1095 0.0378099 1
genomeend 41

/* Organism #42 Fitness: 510.22 Error: 139.78 */
genomestart 42
trait 1 0.1 0 0 0 0 0 0.0730893 0 
trait 2 0.196472 0.0239356 0 0.19161 0 0.121904 0.0363158 0.013518 
trait 3 0.537231 0 0.043754 0.0290045 0.562019 0 0 0 
node 1 2 1 1
node 2 3 1 1
node 3 3 1 1
node 4 2 0 2
node 8 1 0 0
gene 1 1 4 -0.454944 0 1 -0.454944 1
gene 2 2 4 1.9621 0 2 1.9621 0
gene 2 3 4 -3.79597 0 3 -3.79597 1
gene 2 2 8 1.48268 0 53 1.48268 1
gene 2 8 4 2.35019 0 54 2.35019 1
gene 1 3 8 4.47592 0 136 4.47592 1
gene 2 1 8 7.07837 0 184 7.07837 1
gene 1 8 8 1.68556 1 302 1.68556 1
gene 1 4 4 -0.118432 1 982 -0.118432 1
genomeend 42

/* Organism #43 Fitness: 505.307 Error: 144.693 */
genomestart 43
trait 1 0.1 0 0 0 0 0 0.0722759 0 
trait 2 0.196069 0.0266687 0 0.188015 0 0.121371 0.0404625 0.0150615 
trait 3 0.508838 0 0.0487501 0.0323164 0.537206 0 0 0 
node 1 2 1 1
node 2 3 1 1
node 3 3 1 1
node 4 2 0 2
node 8 1 0 0
gene 1 1 4 -0.54815 0 1 -0.54815 1
gene 2 2 4 0.611934 0 2 0.611934 0
gene 2 3 4 -4.3895 0 3 -4.3895 0
gene 2 2 8 -0.175571 0 53 -0.175571 1
gene 2 8 4 3.2697 0 54 3.2697 1
gene 1 3 8 4.75959 0 136 4.75959 1
gene 2 1 8 6.90435 0 184 6.90435 1
gene 1 8 8 2.10625 1 302 2.10625 1
gene 1 4 4 -0.118432 1 982 -0.118432 1
genomeend 43

/* Organism #44 Fitness: 515.601 Error: 134.399 */
genomestart 44
trait 1 0.1 0 0 0 0 0 0.0736315 0 
trait 2 0.196741 0.0221135 0 0.194006 0 0.122259 0.0335512 0.0124889 
trait 3 0.552515 0 0.0404232 0.0267965 0.574803 0 0 0 
node 1 2 1 1
node 2 3 1 1
node 3 3 1 1
node 4 2 0 2
node 8 1 0 0
gene 1 1 4 -0.573167 0 1 -0.573167 1
gene 2 2 4 0.739901 0 2 0.739901 1
gene 2 3 4 -3.31188 0 3 -3.31188 1
gene 2 2 8 -1.37427 0 53 -1.37427 1
gene 2 8 4 2.47813 0 54 2.47813 1
gene 1 3 8 4.01149 0 136 4.01149 1
gene 3 1 8 4.96274 0 184 4.96274 1
gene 1 8 8 2.74282 1 302 2.74282 1
gene 1 4 4 -0.158213 1 982 -0.158213 1
genomeend 44

/* Organism #45 Fitness: 501.798 Error: 148.202 */
genomestart 45
trait 1 0.1 0 0 0 0 0 0.0730893 0 
trait 2 0.196472 0.0239356 0 0.19161 0 0.121904 0.0363158 0.013518 
trait 3 0.537231 0 0.043754 0.0290045 0.562019 0 0 0 
node 1 2 1 1
node 2 3 1 1
node 3 3 1 1
node 4 2 0 2
node 8 1 0 0
gene 1 1 4 -0.573167 0 1 -0.573167 1
gene 2 2 4 0.34424 0 2 0.34424 1
gene 2 3 4 -3.72152 0 3 -3.72152 0
gene 2 2 8 -0.689092 0 53 -0.689092 1
gene 2 8 4 3.00377 0 54 3.00377 1
gene 1 3 8 4.01149 0 136 4.01149 1
gene 3 1 8 4.96274 0 184 4.96274 1
gene 1 8 8 2.56366 1 302 2.56366 1
gene 1 4 4 -0.158213 1 982 -0.158213 1
genomeend 45

/* Organism #46 Fitness: 449.265 Error: 200.735 */
genomestart 46
trait 1 0.306238 0.00400413 0.152279 0.00861772 0.174743 0.0461811 0.232608 0 
trait 2 0.199609 0.0165942 0 0.262429 0 0.20622 0.200382 0 
trait 3 0.3 0 0 0 0.148661 0 0 0 
node 1 3 1 1
node 2 1 1 1
node 3 2 1 1
node 4 2 0 2
node 8 1 0 0
gene 1 1 4 0.596398 0 1 0.596398 0
gene 2 2 4 -0.810856 0 2 -0.810856 0
gene 2 3 4 -5.43226 0 3 -5.43226 1
gene 2 2 8 2.04383 0 53 2.04383 1
gene 2 8 4 2.46436 0 54 2.46436 1
gene 1 8 8 -1.60687 1 94 -1.60687 1
gene 2 1 8 1.28158 0 215 1.28158 1
gene 1 3 8 2.273 0 314 2.273 1
gene 2 4 4 2.26725 1 560 2.26725 1
genomeend 46

/* Organism #47 Fitness: 242.022 Error: 407.978 */
genomestart 47
trait 1 0.306238 0.00400413 0.152279 0.00861772 0.174743 0.0461811 0.232608 0 
trait 2 0.199609 0.0331884 0 0 0 0.0464913 0.102278 0 
trait 3 0.3 0 0 0 0.148661 0 0 0 
node 1 3 1 1
node 2 1 1 1
node 3 2 1 1
node 4 2 0 2
node 8 1 0 0
gene 1 1 4 1.59776 0 1 1.59776 0
gene 2 2 4 1.36569 0 2 1.36569 0
gene 2 3 4 -5.34344 0 3 -5.34344 1
gene 2 2 8 3.27 0 53 3.27 1
gene 2 8 4 1.85874 0 54 1.85874 1
gene 1 8 8 -1.6945 1 94 -1.6945 1
gene 2 1 8 1.07828 0 215 1.07828 1
gene 1 3 8 -0.00521398 0 314 -0.00521398 1
gene 2 4 4 3.27152 1 560 3.27152 1
genomeend 47

/* Organism #48 Fitness: 445.789 Error: 204.211 */
genomestart 48
trait 1 0.306238 0.00400413 0.152279 0.00861772 0.174743 0.0461811 0.232608 0 
trait 2 0.199609 0.0331884 0 0 0 0.0464913 0.102278 0 
trait 3 0.3 0 0 0 0.148661 0 0 0 
node 1 3 1 1
node 2 1 1 1
node 3 2 1 1
node 4 2 0 2
node 8 1 0 0
gene 1 1 4 0.596398 0 1 0.596398 0
gene 2 2 4 -0.810856 0 2 -0.810856 0
gene 2 3 4 -5.43226 0 3 -5.43226 1
gene 2 2 8 2.04383 0 53 2.04383 1
gene 2 8 4 2.46436 0 54 2.46436 1
gene 1 8 8 -1.60687 1 94 -1.60687 1
gene 2 1 8 1.28158 0 215 1.28158 1
gene 1 3 8 2.273 0 314 2.273 1
gene 2 4 4 2.26725 1 560 2.26725 1
genomeend 48

/* Species #6 : (Size 11) (AF 394.792) (Age 28)  */


/* Organism #49 Fitness: 514.197 Error: 135.803 */
genomestart 49
trait 1 0.1 0 0 0 0 0 0.0110638 0 
trait 2 0.15 0 0 0 0 0.188647 0.4208 0 
trait 3 0.3 0 0 0 0 0 0 0 
node 1 2 1 1
node 2 1 1 1
node 3 2 1 1
node 4 2 0 2
node 7 1 0 0
node 13 1 0 0
gene 1 1 4 -0.225459 0 1 -0.225459 1
gene 1 2 4 2.0445 0 2 2.0445 1
gene 2 3 4 -5.16823 0 3 -5.16823 1
gene 1 1 7 -0.518836 0 51 -0.518836 1
gene 1 7 4 1.95844 0 52 1.95844 1
gene 1 1 13 2.35929 0 117 2.35929 1
gene 1 13 7 5.79327 0 118 5.79327 1
gene 1 7 7 0.948524 1 139 0.948524 1
gene 2 3 13 0.677205 0 456 0.677205 1
gene 1 13 4 0.269236 0 726 0.269236 1
gene 3 2 13 0.510203 0 953 0.510203 1
gene 1 2 7 -0.186967 0 1033 0 1
gene 2 13 13 -0.0169262 1 1063 -0.0169262 1
genomeend 49

/* Organism #50 Fitness: 517.004 Error: 132.996 */
genomestart 50
trait 1 0.1 0 0 0 0 0 0.0110638 0 
trait 2 0.1375 0 0 0 0 0.235103 0.383229 0 
trait 3 0.3 0 0 0 0 0 0 0 
node 1 2 1 1
node 2 1 1 1
node 3 2 1 1
node 4 2 0 2
node 7 1 0 0
node 13 1 0 0
gene 1 1 4 -0.225459 0 1 -0.225459 1
gene 1 2 4 2.86546 0 2 2.86546 1
gene 2 3 4 -5.16823 0 3 -5.16823 1
gene 1 1 7 -0.518836 0 51 -0.518836 1
gene 1 7 4 1.95844 0 52 1.95844 1
gene 1 1 13 2.35929 0 117 2.35929 1
gene 1 13 7 5.79327 0 118 5.79327 1
gene 1 7 7 0.948524 1 139 0.948524 1
gene 2 3 13 0.677205 0 456 0.677205 1
gene 1 13 4 0.269236 0 726 0.269236 1
gene 3 2 13 0.510203 0 953 0.510203 1
gene 1 2 7 -0.186967 0 1033 0 1
gene 2 13 13 -0.0169262 1 1063 -0.0169262 1
genomeend 50

/* Organism #51 Fitness: 179.899 Error: 470.101 */
genomestart 51
trait 1 0.1 0 0 0 0 0 0.0110638 0 
trait 2 0.1125 0 0 0 0 0.328016 0.308086 0 
trait 3 0.3 0 0 0 0 0 0 0 
node 1 2 1 1
node 2 1 1 1
node 3 2 1 1
node 4 2 0 2
node 7 1 0 0
node 13 1 0 0
gene 1 1 4 -0.589174 0 1 -0.589174 1
gene 1 2 4 3.43097 0 2 3.43097 1
gene 2 3 4 -1.54975 0 3 -1.54975 1
gene 1 1 7 -0.337604 0 51 -0.337604 1
gene 1 7 4 -0.157305 0 52 -0.157305 1
gene 1 1 13 1.87292 0 117 1.87292 1
gene 1 13 7 1.46562 0 118 1.46562 1
gene 1 7 7 1.49166 1 139 1.49166 1
gene 2 3 13 1.19639 0 456 1.19639 1
gene 1 13 4 2.39266 0 726 2.39266 1
gene 1 2 13 1.18415 0 868 1.18415 1
gene 2 3 7 -0.307949 0 1065 -0.307949 1
genomeend 51

/* Organism #52 Fitness: 514.899 Error: 135.101 */
genomestart 52
trait 1 0.1 0 0 0 0 0 0.0110638 0 
trait 2 0.125 0 0 0 0 0.28156 0.345657 0 
trait 3 0.3 0 0 0 0 0 0 0 
node 1 2 1 1
node 2 1 1 1
node 3 2 1 1
node 4 2 0 2
node 7 1 0 0
node 13 1 0 0
gene 1 1 4 -0.225459 0 1 -0.225459 1
gene 1 2 4 2.86546 0 2 2.86546 1
gene 2 3 4 -5.16823 0 3 -5.16823 1
gene 1 1 7 -0.880554 0 51 -0.880554 1
gene 1 7 4 1.95844 0 52 1.95844 1
gene 1 1 13 2.57128 0 117 2.57128 1
gene 1 13 7 7.17392 0 118 7.17392 1
gene 1 7 7 0.948524 1 139 0.948524 1
gene 2 3 13 0.677205 0 456 0.677205 1
gene 1 13 4 0.269236 0 726 0.269236 1
gene 3 2 13 0.510203 0 953 0.510203 1
gene 1 2 7 -0.186967 0 1033 0 1
gene 2 13 13 -0.0169262 1 1063 -0.0169262 1
gene 1 4 4 -0.410673 1 1096 -0.410673 1
genomeend 52

/* Organism #53 Fitness: 178.729 Error: 471.271 */
genomestart 53
trait 1 0.1 0 0 0 0 0 0.0110638 0 
trait 2 0.1125 0 0 0 0 0.328016 0.308086 0 
trait 3 0.3 0 0 0 0 0 0 0 
node 1 2 1 1
node 2 1 1 1
node 3 2 1 1
node 4 2 0 2
node 7 1 0 0
node 13 1 0 0
gene 1 1 4 -1.69505 0 1 -1.69505 1
gene 1 2 4 2.86546 0 2 2.86546 1
gene 2 3 4 0.49052 0 3 0.49052 1
gene 1 1 7 -0.218645 0 51 -0.218645 1
gene 1 7 4 1.31004 0 52 1.31004 1
gene 1 1 13 4.14244 0 117 4.14244 1
gene 1 13 7 8 0 118 8 1
gene 1 7 7 -1.14958 1 139 -1.14958 1
gene 2 3 13 0.81476 0 456 0.81476 1
gene 1 13 4 0.859506 0 726 0.859506 1
gene 1 2 13 2.9764 0 868 2.9764 1
gene 2 3 7 -0.307949 0 1065 -0.307949 1
genomeend 53

/* Organism #54 Fitness: 494.546 Error: 155.454 */
genomestart 54
trait 1 0.1 0 0 0 0 0 0.0110638 0 
trait 2 0.1 0 0 0 0 0.374473 0.270514 0 
trait 3 0.3 0 0 0 0 0 0 0 
node 1 2 1 1
node 2 1 1 1
node 3 2 1 1
node 4 2 0 2
node 7 1 0 0
node 13 1 0 0
gene 1 1 4 -0.225459 0 1 -0.225459 1
gene 1 2 4 2.86546 0 2 2.86546 1
gene 2 3 4 -5.97725 0 3 -5.97725 1
gene 1 1 7 -0.880554 0 51 -0.880554 1
gene 1 7 4 0.661648 0 52 0.661648 1
gene 1 1 13 2.57128 0 117 2.57128 1
gene 1 13 7 7.17392 0 118 7.17392 1
gene 1 7 7 0.923681 1 139 0.923681 1
gene 2 3 13 -0.276253 0 456 -0.276253 1
gene 1 13 4 0.733091 0 726 0.733091 1
gene 1 2 13 1.26918 0 868 1.26918 1
genomeend 54

/* Organism #55 Fitness: 434.059 Error: 215.941 */
genomestart 55
trait 1 0.1 0 0 0 0 0 0.0110638 0 
trait 2 0.1375 0 0 0 0 0.235103 0.383229 0 
trait 3 0.232466 0 0 0 0 0 0 0.810126 
node 1 2 1 1
node 2 1 1 1
node 3 2 1 1
node 4 2 0 2
node 7 1 0 0
node 13 1 0 0
gene 1 1 4 0.0474191 0 1 0.0474191 1
gene 1 2 4 1.30225 0 2 1.30225 1
gene 2 3 4 -4.53033 0 3 -4.53033 1
gene 1 1 7 1.26398 0 51 1.26398 1
gene 1 7 4 0.892511 0 52 0.892511 1
gene 1 1 13 2.3972 0 117 2.3972 1
gene 1 13 7 7.45525 0 118 7.45525 1
gene 1 7 7 1.89973 1 139 1.89973 1
gene 2 3 13 0.118079 0 456 0.118079 1
gene 1 13 4 0.0445596 0 726 0.0445596 1
gene 3 2 13 0.530768 0 953 0.530768 1
gene 1 2 7 -0.0033846 0 1033 -0.0033846 1
gene 2 13 13 -0.586058 1 1063 -0.586058 1
genomeend 55

/* Organism #56 Fitness: 179.197 Error: 470.803 */
genomestart 56
trait 1 0.1 0 0 0 0 0 0.0110638 0 
trait 2 0.1125 0 0 0 0 0.328016 0.308086 0 
trait 3 0.3 0 0 0 0 0 0 0 
node 1 2 1 1
node 2 1 1 1
node 3 2 1 1
node 4 2 0 2
node 7 1 0 0
node 13 1 0 0
gene 1 1 4 -0.384368 0 1 -0.384368 1
gene 1 2 4 2.29971 0 2 2.29971 1
gene 2 3 4 -6.21039 0 3 -6.21039 1
gene 1 1 7 1.01114 0 51 1.01114 0
gene 1 7 4 0.0344103 0 52 0.0344103 1
gene 1 1 13 3.7249 0 117 3.7249 1
gene 1 13 7 5.99021 0 118 5.99021 1
gene 1 7 7 2.07802 1 139 2.07802 1
gene 2 3 13 -0.24688 0 456 -0.24688 1
gene 1 13 4 1.59154 0 726 1.59154 1
gene 1 2 13 1.26918 0 868 1.26918 1
gene 2 2 7 -0.47152 0 1064 -0.47152 1
genomeend 56

/* Organism #57 Fitness: 498.757 Error: 151.243 */
genomestart 57
trait 1 0.1 0 0 0 0 0 0.0110638 0 
trait 2 0.125 0 0 0 0 0.28156 0.345657 0 
trait 3 0.3 0 0 0 0 0 0 0 
node 1 2 1 1
node 2 1 1 1
node 3 2 1 1
node 4 2 0 2
node 7 1 0 0
node 13 1 0 0
gene 1 1 4 -0.225459 0 1 -0.225459 1
gene 1 2 4 2.86546 0 2 2.86546 1
gene 2 3 4 -5.16823 0 3 -5.16823 1
gene 1 1 7 -0.880554 0 51 -0.880554 1
gene 1 7 4 1.95844 0 52 1.95844 1
gene 1 1 13 2.35929 0 117 2.35929 1
gene 1 13 7 7.17392 0 118 7.17392 1
gene 1 7 7 0.923681 1 139 0.923681 1
gene 2 3 13 -0.276253 0 456 -0.276253 1
gene 1 13 4 0.269236 0 726 0.269236 1
gene 3 2 13 0.510203 0 953 0.510203 1
gene 1 2 7 -0.186967 0 1033 0 1
gene 2 13 13 -0.0169262 1 1063 -0.0169262 1
gene 1 4 4 0.276396 1 1097 0.276396 1
genomeend 57

/* Organism #58 Fitness: 421.091 Error: 228.909 */
genomestart 58
trait 1 0.1 0 0 0 0 0 0.0110638 0 
trait 2 0.1 0 0 0 0 0.374473 0.270514 0 
trait 3 0.3 0 0 0 0 0 0 0 
node 1 2 1 1
node 2 1 1 1
node 3 2 1 1
node 4 2 0 2
node 7 1 0 0
node 13 1 0 0
gene 1 1 4 0.119562 0 1 0.119562 1
gene 1 2 4 3.77112 0 2 3.77112 1
gene 2 3 4 -3.84734 0 3 -3.84734 1
gene 1 1 7 -0.72562 0 51 -0.72562 1
gene 1 7 4 2.78029 0 52 2.78029 1
gene 1 1 13 0.195581 0 117 0.195581 1
gene 1 13 7 5.11611 0 118 5.11611 1
gene 1 7 7 -1.58468 1 139 -1.58468 1
gene 2 3 13 1.00228 0 456 1.00228 1
gene 1 13 4 0.348909 0 726 0.348909 1
gene 1 2 13 -0.982625 0 868 -0.982625 1
genomeend 58

/* Organism #59 Fitness: 410.332 Error: 239.668 */
genomestart 59
trait 1 0.1 0 0 0 0 0 0.0110638 0 
trait 2 0.1375 0 0 0 0 0.235103 0.383229 0 
trait 3 0.3 0 0 0 0 0 0 0 
node 1 2 1 1
node 2 1 1 1
node 3 2 1 1
node 4 2 0 2
node 7 1 0 0
node 13 1 0 0
gene 1 1 4 0.87809 0 1 0.87809 1
gene 1 2 4 2.55999 0 2 2.55999 1
gene 2 3 4 -6.49898 0 3 -6.49898 1
gene 1 1 7 -1.79692 0 51 -1.79692 1
gene 1 7 4 2.51489 0 52 2.51489 1
gene 1 1 13 3.55528 0 117 3.55528 1
gene 1 13 7 7.36394 0 118 7.36394 1
gene 1 7 7 1.91323 1 139 1.91323 1
gene 2 3 13 1.28831 0 456 1.28831 1
gene 1 13 4 0.173983 0 726 0.173983 1
gene 3 2 13 -0.469107 0 953 -0.469107 1
gene 1 2 7 -0.644359 0 1033 -0.644359 1
gene 2 13 13 -0.0169262 1 1063 -0.0169262 1
genomeend 59

/* Species #7 : (Size 27) (AF 333.555) (Age 28)  */


/* Organism #60 Fitness: 512.325 Error: 137.675 */
genomestart 60
trait 1 0.1 0 0 0 0 0 0 0 
trait 2 0.2 0 0 0 0 0 0 0 
trait 3 0.28782 0.00835104 0.530154 0 0 0 0.157015 0.198299 
node 1 2 1 1
node 2 3 1 1
node 3 3 1 1
node 4 2 0 2
node 7 1 0 0
gene 3 1 4 -0.251 0 1 -0.251 1
gene 1 2 4 -3.46215 0 2 -3.46215 1
gene 3 3 4 -4.27037 0 3 -4.27037 1
gene 1 1 7 2.05552 0 51 2.05552 1
gene 1 7 4 2.41173 0 52 2.41173 1
gene 1 4 4 2.12985 1 81 2.12985 1
gene 2 7 7 0.686622 1 111 0.686622 1
gene 3 2 7 0.498484 0 155 0.498484 1
gene 1 3 7 0.01883 0 318 0.01883 1
genomeend 60

/* Organism #61 Fitness: 275.684 Error: 374.316 */
genomestart 61
trait 1 0.1 0 0 0 0 0 0 0 
trait 2 0.2 0 0 0 0 0 0 0 
trait 3 0.28782 0.00835104 0.530154 0 0 0 0.157015 0.198299 
node 1 2 1 1
node 2 3 1 1
node 3 3 1 1
node 4 2 0 2
node 7 1 0 0
gene 2 1 4 1.56751 0 1 1.56751 1
gene 1 2 4 -3.12546 0 2 -3.12546 1
gene 3 3 4 -0.301855 0 3 -0.301855 1
gene 1 1 7 1.14956 0 51 1.14956 1
gene 1 7 4 1.17355 0 52 1.17355 1
gene 1 4 4 2.12985 1 81 2.12985 1
gene 2 7 7 1.34512 1 111 1.34512 0
gene 3 2 7 1.3993 0 155 1.3993 1
gene 1 3 7 -0.9981 0 318 -0.9981 1
genomeend 61

/* Organism #62 Fitness: 386.723 Error: 263.277 */
genomestart 62
trait 1 0.1 0 0 0 0 0 0 0 
trait 2 0.2 0 0 0 0 0 0 0 
trait 3 0.28782 0.00835104 0.530154 0 0 0 0.157015 0.198299 
node 1 2 1 1
node 2 3 1 1
node 3 3 1 1
node 4 2 0 2
node 7 1 0 0
gene 3 1 4 1.47849 0 1 1.47849 1
gene 1 2 4 -4.43905 0 2 -4.43905 1
gene 3 3 4 -4.90605 0 3 -4.90605 1
gene 1 1 7 3.36679 0 51 3.36679 1
gene 1 7 4 3.90766 0 52 3.90766 1
gene 1 4 4 1.15624 1 81 1.15624 1
gene 2 7 7 2.40139 1 111 2.40139 1
gene 3 2 7 1.98335 0 155 1.98335 1
gene 1 3 7 1.68904 0 318 1.68904 1
genomeend 62

/* Organism #63 Fitness: 503.904 Error: 146.096 */
genomestart 63
trait 1 0.1 0 0 0 0 0 0 0 
trait 2 0.2 0 0 0 0 0 0 0 
trait 3 0.28782 0.00835104 0.530154 0 0 0 0.157015 0.198299 
node 1 2 1 1
node 2 3 1 1
node 3 3 1 1
node 4 2 0 2
node 7 1 0 0
gene 3 1 4 -0.251 0 1 -0.251 1
gene 1 2 4 -3.46215 0 2 -3.46215 1
gene 3 3 4 -4.27037 0 3 -4.27037 1
gene 1 1 7 2.05552 0 51 2.05552 1
gene 1 7 4 2.41173 0 52 2.41173 1
gene 1 4 4 2.12985 1 81 2.12985 1
gene 2 7 7 0.686622 1 111 0.686622 0
gene 3 2 7 0.498484 0 155 0.498484 1
gene 1 3 7 0.01883 0 318 0.01883 1
genomeend 63

/* Organism #64 Fitness: 181.068 Error: 468.932 */
genomestart 64
trait 1 0.1 0 0 0 0 0 0 0 
trait 2 0.2 0 0 0 0 0 0 0 
trait 3 0.28782 0.00835104 0.530154 0 0 0 0.157015 0.198299 
node 1 2 1 1
node 2 3 1 1
node 3 3 1 1
node 4 2 0 2
node 7 1 0 0
gene 3 1 4 -1.93918 0 1 -1.93918 1
gene 1 2 4 -2.36711 0 2 -2.36711 1
gene 3 3 4 -3.28229 0 3 -3.28229 1
gene 1 1 7 2.93004 0 51 2.93004 1
gene 1 7 4 2.62335 0 52 2.62335 1
gene 1 4 4 0.574004 1 81 0.574004 1
gene 2 7 7 0.739141 1 111 0.739141 1
gene 3 2 7 0.420588 0 155 0.420588 1
gene 1 3 7 -0.587058 0 318 -0.587058 1
genomeend 64

/* Organism #65 Fitness: 327.584 Error: 322.416 */
genomestart 65
trait 1 0.1 0 0 0 0 0 0 0 
trait 2 0.2 0 0 0 0 0 0 0 
trait 3 0.28782 0.00835104 0.530154 0 0 0 0.157015 0.198299 
node 1 2 1 1
node 2 3 1 1
node 3 3 1 1
node 4 2 0 2
node 7 1 0 0
gene 3 1 4 0.479786 0 1 0.479786 1
gene 1 2 4 -1.33667 0 2 -1.33667 1
gene 3 3 4 -3.03277 0 3 -3.03277 1
gene 1 1 7 0.666289 0 51 0.666289 1
gene 1 7 4 1.76589 0 52 1.76589 1
gene 1 4 4 1.59456 1 81 1.59456 1
gene 2 7 7 1.32299 1 111 1.32299 1
gene 3 2 7 -0.611853 0 155 -0.611853 1
gene 1 3 7 -1.64351 0 318 -1.64351 1
genomeend 65

/* Organism #66 Fitness: 493.142 Error: 156.858 */
genomestart 66
trait 1 0.1 0 0 0 0 0 0 0 
trait 2 0.2 0 0 0 0 0 0 0 
trait 3 0.28782 0.00835104 0.530154 0 0 0 0.157015 0.198299 
node 1 2 1 1
node 2 3 1 1
node 3 3 1 1
node 4 2 0 2
node 7 1 0 0
gene 3 1 4 -1.15219 0 1 -1.15219 1
gene 1 2 4 -5.11253 0 2 -5.11253 1
gene 3 3 4 -4.58069 0 3 -4.58069 1
gene 1 1 7 1.39903 0 51 1.39903 1
gene 1 7 4 2.67975 0 52 2.67975 1
gene 1 4 4 0.692795 1 81 0.692795 1
gene 2 7 7 0.235332 1 111 0.235332 1
gene 3 2 7 1.82792 0 155 1.82792 1
gene 1 3 7 0.787151 0 318 0.787151 1
genomeend 66

/* Organism #67 Fitness: 501.096 Error: 148.904 */
genomestart 67
trait 1 0.1 0 0 0 0 0 0 0 
trait 2 0.2 0 0 0 0 0 0 0 
trait 3 0.28782 0.00835104 0.530154 0 0 0 0.157015 0.198299 
node 1 2 1 1
node 2 3 1 1
node 3 3 1 1
node 4 2 0 2
node 7 1 0 0
gene 3 1 4 -0.251 0 1 -0.251 1
gene 1 2 4 -3.46215 0 2 -3.46215 1
gene 3 3 4 -4.27037 0 3 -4.27037 1
gene 1 1 7 2.05552 0 51 2.05552 1
gene 1 7 4 2.41173 0 52 2.41173 1
gene 1 4 4 2.12985 1 81 2.12985 1
gene 2 7 7 0.686622 1 111 0.686622 0
gene 3 2 7 0.498484 0 155 0.498484 1
gene 1 3 7 0.01883 0 318 0.01883 1
genomeend 67

/* Organism #68 Fitness: 364.005 Error: 285.995 */
genomestart 68
trait 1 0.1 0 0 0 0 0 0 0 
trait 2 0 0.677535 0 0 0 0 0 0 
trait 3 0.28782 0.00835104 0.530154 0 0 0 0.157015 0.198299 
node 1 2 1 1
node 2 3 1 1
node 3 3 1 1
node 4 2 0 2
node 7 1 0 0
gene 3 1 4 0.964212 0 1 0.964212 1
gene 1 2 4 -3.30342 0 2 -3.30342 1
gene 3 3 4 -4.6512 0 3 -4.6512 1
gene 1 1 7 3.42434 0 51 3.42434 1
gene 1 7 4 3.24757 0 52 3.24757 1
gene 1 4 4 2.16091 1 81 2.16091 1
gene 2 7 7 -0.0419553 1 111 -0.0419553 1
gene 3 2 7 -0.672731 0 155 -0.672731 1
gene 1 3 7 -0.561032 0 318 -0.561032 1
genomeend 68

/* Organism #69 Fitness: 178.963 Error: 471.037 */
genomestart 69
trait 1 0.1 0 0 0 0 0 0 0 
trait 2 0.2 0 0 0 0 0 0 0 
trait 3 0.28782 0.00835104 0.530154 0 0 0 0.157015 0.198299 
node 1 2 1 1
node 2 3 1 1
node 3 3 1 1
node 4 2 0 2
node 7 1 0 0
gene 3 1 4 -1.67259 0 1 -1.67259 1
gene 1 2 4 -3.38478 0 2 -3.38478 1
gene 3 3 4 -5.70749 0 3 -5.70749 1
gene 1 1 7 2.12459 0 51 2.12459 1
gene 1 7 4 0.700079 0 52 0.700079 1
gene 1 4 4 1.10019 1 81 1.10019 1
gene 2 7 7 -0.028452 1 111 -0.028452 1
gene 3 2 7 -0.677843 0 155 -0.677843 1
gene 1 3 7 0.370361 0 318 0.370361 1
genomeend 69

/* Organism #70 Fitness: 510.688 Error: 139.312 */
genomestart 70
trait 1 0.1 0 0 0 0 0 0 0 
trait 2 0.2 0 0 0 0 0 0 0 
trait 3 0.28782 0.00835104 0.530154 0 0 0 0.157015 0.198299 
node 1 2 1 1
node 2 3 1 1
node 3 3 1 1
node 4 2 0 2
node 7 1 0 0
gene 3 1 4 -0.251 0 1 -0.251 1
gene 1 2 4 -3.46215 0 2 -3.46215 1
gene 3 3 4 -4.27037 0 3 -4.27037 1
gene 1 1 7 2.05552 0 51 2.05552 1
gene 1 7 4 2.41173 0 52 2.41173 1
gene 1 4 4 2.12985 1 81 2.12985 1
gene 2 7 7 0.686622 1 111 0.686622 0
gene 3 2 7 0.498484 0 155 0.498484 1
gene 1 3 7 0.01883 0 318 0.01883 1
genomeend 70

/* Organism #71 Fitness: 342.252 Error: 307.748 */
genomestart 71
trait 1 0.1 0 0 0 0 0 0 0 
trait 2 0.2 0 0 0 0 0 0 0 
trait 3 0.28782 0.00835104 0.530154 0 0 0 0.157015 0.198299 
node 1 2 1 1
node 2 3 1 1
node 3 3 1 1
node 4 2 0 2
node 7 1 0 0
gene 3 1 4 -1.86266 0 1 -1.86266 1
gene 1 2 4 -4.65561 0 2 -4.65561 1
gene 3 3 4 -2.51512 0 3 -2.51512 1
gene 1 1 7 0.797386 0 51 0.797386 1
gene 1 7 4 2.84923 0 52 2.84923 1
gene 1 4 4 2.28061 1 81 2.28061 1
gene 2 7 7 2.20793 1 111 2.20793 1
gene 3 2 7 1.06887 0 155 1.06887 1
gene 1 3 7 1.79476 0 318 1.79476 1
genomeend 71

/* Organism #72 Fitness: 506.477 Error: 143.523 */
genomestart 72
trait 1 0.1 0 0 0 0 0 0 0 
trait 2 0.2 0 0 0 0 0 0 0 
trait 3 0.28782 0.00835104 0.530154 0 0 0 0.157015 0.198299 
node 1 2 1 1
node 2 3 1 1
node 3 3 1 1
node 4 2 0 2
node 7 1 0 0
gene 3 1 4 -0.251 0 1 -0.251 1
gene 1 2 4 -3.46215 0 2 -3.46215 1
gene 3 3 4 -4.27037 0 3 -4.27037 1
gene 1 1 7 2.05552 0 51 2.05552 1
gene 1 7 4 2.41173 0 52 2.41173 1
gene 1 4 4 2.12985 1 81 2.12985 1
gene 2 7 7 0.686622 1 111 0.686622 1
gene 3 2 7 0.498484 0 155 0.498484 1
gene 1 3 7 0.01883 0 318 0.01883 1
genomeend 72

/* Organism #73 Fitness: 278.359 Error: 371.641 */
genomestart 73
trait 1 0.1 0 0 0 0 0 0 0 
trait 2 0.2 0 0 0 0 0 0 0 
trait 3 0.28782 0.00835104 0.530154 0 0 0 0.157015 0.198299 
node 1 2 1 1
node 2 3 1 1
node 3 3 1 1
node 4 2 0 2
node 7 1 0 0
gene 3 1 4 0.222285 0 1 0.222285 1
gene 1 2 4 -5.09769 0 2 -5.09769 1
gene 3 3 4 -0.0395862 0 3 -0.0395862 1
gene 1 1 7 0.81931 0 51 0.81931 1
gene 1 7 4 0.976566 0 52 0.976566 1
gene 1 4 4 0.631274 1 81 0.631274 1
gene 2 7 7 0.686622 1 111 0.686622 1
gene 3 2 7 1.63941 0 155 1.63941 1
gene 1 3 7 -0.0463509 0 318 -0.0463509 1
genomeend 73

/* Organism #74 Fitness: 390.852 Error: 259.148 */
genomestart 74
trait 1 0.1 0 0 0 0 0 0 0 
trait 2 0.2 0 0 0 0 0 0 0 
trait 3 0.28782 0 0.480205 0 0.750866 0 0 0.198299 
node 1 2 1 1
node 2 3 1 1
node 3 3 1 1
node 4 2 0 2
node 7 1 0 0
gene 3 1 4 1.14308 0 1 1.14308 1
gene 1 2 4 -3.25683 0 2 -3.25683 1
gene 3 3 4 -4.74291 0 3 -4.74291 1
gene 1 1 7 1.90973 0 51 1.90973 1
gene 1 7 4 3.27126 0 52 3.27126 1
gene 1 4 4 1.08907 1 81 1.08907 1
gene 2 7 7 2.10319 1 111 2.10319 1
gene 3 2 7 0.214138 0 155 0.214138 1
gene 1 3 7 -1.66732 0 318 -1.66732 1
genomeend 74

/* Organism #75 Fitness: 342.72 Error: 307.28 */
genomestart 75
trait 1 0.1 0 0 0 0 0 0 0 
trait 2 0.2 0 0 0 0 0 0 0 
trait 3 0.28782 0.00835104 0.530154 0 0 0 0.157015 0.198299 
node 1 2 1 1
node 2 3 1 1
node 3 3 1 1
node 4 2 0 2
node 7 1 0 0
gene 3 1 4 -1.8206 0 1 -1.8206 1
gene 1 2 4 -0.235482 0 2 -0.235482 1
gene 3 3 4 1.94467 0 3 1.94467 1
gene 1 1 7 2.08025 0 51 2.08025 1
gene 1 7 4 1.99459 0 52 1.99459 1
gene 1 4 4 3.20244 1 81 3.20244 1
gene 2 7 7 -0.730513 1 111 -0.730513 1
gene 3 2 7 -0.279034 0 155 -0.279034 1
gene 1 3 7 -0.333283 0 318 -0.333283 1
genomeend 75

/* Organism #76 Fitness: 312.25 Error: 337.75 */
genomestart 76
trait 1 0.1 0 0 0 0 0 0 0 
trait 2 0.2 0 0 0 0 0 0 0 
trait 3 0.28782 0.00835104 0.530154 0 0 0 0.157015 0.198299 
node 1 2 1 1
node 2 3 1 1
node 3 3 1 1
node 4 2 0 2
node 7 1 0 0
gene 3 1 4 1.12168 0 1 1.12168 1
gene 1 2 4 2.14531 0 2 2.14531 1
gene 3 3 4 0.60054 0 3 0.60054 1
gene 1 1 7 3.45882 0 51 3.45882 1
gene 1 7 4 3.51125 0 52 3.51125 1
gene 1 4 4 4.17095 1 81 4.17095 1
gene 2 7 7 0.211329 1 111 0.211329 1
gene 3 2 7 -1.04663 0 155 -1.04663 1
gene 1 3 7 -2.14981 0 318 -2.14981 1
genomeend 76

/* Organism #77 Fitness: 336.76 Error: 313.24 */
genomestart 77
trait 1 0.1 0 0 0 0 0 0 0 
trait 2 0.2 0 0 0 0 0 0 0 
trait 3 0.28782 0.00835104 0.530154 0 0 0 0.157015 0.198299 
node 1 2 1 1
node 2 3 1 1
node 3 3 1 1
node 4 2 0 2
node 7 1 0 0
gene 3 1 4 -0.159483 0 1 -0.159483 1
gene 1 2 4 1.14294 0 2 1.14294 1
gene 3 3 4 3.31693 0 3 3.31693 1
gene 1 1 7 1.48158 0 51 1.48158 1
gene 1 7 4 3.11964 0 52 3.11964 1
gene 1 4 4 2.45354 1 81 2.45354 1
gene 2 7 7 1.81387 1 111 1.81387 1
gene 3 2 7 1.48242 0 155 1.48242 1
gene 1 3 7 -1.59455 0 318 -1.59455 1
genomeend 77

/* Organism #78 Fitness: 412.668 Error: 237.332 */
genomestart 78
trait 1 0.0789063 0 0 0 0.0701104 0.171067 0.00366407 0.0906984 
trait 2 0.175168 0 0 0.212909 0 0 0 0 
trait 3 0.290507 0.0078291 0.309519 0 0.00369127 0 0.122372 0.135562 
node 1 2 1 1
node 2 3 1 1
node 3 3 1 1
node 4 2 0 2
node 7 1 0 0
gene 1 1 4 -0.720682 0 1 -0.720682 1
gene 1 2 4 -2.19958 0 2 -2.19958 1
gene 3 3 4 -4.38407 0 3 -4.38407 1
gene 1 1 7 0.324681 0 51 0.324681 1
gene 1 7 4 1.42702 0 52 1.42702 1
gene 1 4 4 2.65373 1 81 2.65373 1
gene 2 7 7 1.20187 1 111 1.20187 1
gene 3 2 7 0.498484 0 155 0.498484 1
gene 1 3 7 0.719285 0 318 0.719285 1
genomeend 78

/* Organism #79 Fitness: 2.33939 Error: 647.661 */
genomestart 79
trait 1 0.0881171 0.00293534 0.00789947 0.147 0.00134398 0 0.0287108 0.12819 
trait 2 0.252431 0.075091 0.0181915 0.0580951 0 0.0602277 0.167923 0.034922 
trait 3 0.3 0 0.0966403 0 0.0155495 0.406209 0 0 
node 1 2 1 1
node 2 3 1 1
node 3 3 1 1
node 4 3 0 2
node 7 1 0 0
gene 1 1 4 -0.504494 0 1 -0.504494 1
gene 3 2 4 -3.86775 0 2 -3.86775 1
gene 3 3 4 -5.81327 0 3 -5.81327 1
gene 1 1 7 0.577895 0 51 0.577895 0
gene 1 7 4 1.29225 0 52 1.29225 0
gene 1 4 4 3.01933 1 119 3.01933 1
gene 3 2 7 -4.69605 0 233 -4.69605 1
gene 2 7 7 -1.23417 1 737 -1.23417 1
gene 3 3 7 3.57746 0 825 3.57746 1
genomeend 79

/* Organism #80 Fitness: 352.46 Error: 297.54 */
genomestart 80
trait 1 0.0881171 0.00293534 0.00789947 0.147 0.00134398 0 0.0287108 0.12819 
trait 2 0.252431 0.075091 0.0181915 0.0580951 0 0.0602277 0.167923 0.034922 
trait 3 0.3 0 0.0966403 0 0.0155495 0.406209 0 0 
node 1 2 1 1
node 2 3 1 1
node 3 3 1 1
node 4 2 0 2
node 7 1 0 0
gene 1 1 4 1.59644 0 1 1.59644 1
gene 3 2 4 -2.24027 0 2 -2.24027 1
gene 3 3 4 -4.07975 0 3 -4.07975 1
gene 1 1 7 0.433117 0 51 0.433117 0
gene 1 7 4 2.46386 0 52 2.46386 0
gene 1 4 4 1.24973 1 119 1.24973 1
gene 3 2 7 -1.57824 0 233 -1.57824 1
gene 2 7 7 -0.131329 1 737 -0.131329 1
gene 3 3 7 1.89966 0 825 1.89966 1
genomeend 80

/* Organism #81 Fitness: 2.33939 Error: 647.661 */
genomestart 81
trait 1 0.0789063 0 0 0 0.0701104 0.171067 0.00366407 0.0906984 
trait 2 0.175168 0 0 0.212909 0 0 0 0 
trait 3 0.290507 0.0078291 0.309519 0 0.00369127 0 0.122372 0.135562 
node 1 2 1 1
node 2 3 1 1
node 3 3 1 1
node 4 2 0 2
node 7 1 0 0
gene 1 1 4 -2.09462 0 1 -2.09462 1
gene 1 2 4 -3.24367 0 2 -3.24367 1
gene 3 3 4 -4.38407 0 3 -4.38407 1
gene 1 1 7 0.324681 0 51 0.324681 1
gene 1 7 4 -1.24883 0 52 -1.24883 1
gene 1 4 4 -0.0315269 1 81 -0.0315269 1
gene 2 7 7 1.33306 1 111 1.33306 1
gene 3 2 7 0.498484 0 155 0.498484 1
gene 1 3 7 0.0839537 0 318 0.0839537 1
genomeend 81

/* Organism #82 Fitness: 2.33939 Error: 647.661 */
genomestart 82
trait 1 0.0835117 0.00146767 0.00394973 0.0734998 0.0357272 0.0855336 0.0161874 0.109444 
trait 2 0.213799 0.0375455 0.00909576 0.135502 0 0.0301138 0.0839617 0.017461 
trait 3 0.295254 0.00391455 0.20308 0 0.00962038 0.203104 0.0611862 0.0677812 
node 1 2 1 1
node 2 3 1 1
node 3 3 1 1
node 4 2 0 2
node 7 1 0 0
gene 1 1 4 -0.720682 0 1 -0.720682 1
gene 1 2 4 -2.19958 0 2 -2.19958 1
gene 3 3 4 -4.38407 0 3 -4.38407 1
gene 1 1 7 0.433117 0 51 0.433117 0
gene 1 7 4 1.42702 0 52 1.42702 0
gene 1 4 4 2.65373 1 81 2.65373 1
gene 2 7 7 1.20187 1 111 1.20187 1
gene 3 2 7 0.498484 0 155 0.498484 1
gene 1 3 7 0.719285 0 318 0.719285 1
gene 3 4 7 0.242267 0 1110 0.242267 1
genomeend 82

/* Organism #83 Fitness: 344.756 Error: 305.244 */
genomestart 83
trait 1 0.0881171 0.00293534 0.2341 0.147 0.388491 0 0.68027 0 
trait 2 0.252431 0.075091 0.0181915 0.0580951 0 0.0602277 0.167923 0.034922 
trait 3 0.3 0 0.0966403 0 0.0155495 0.406209 0 0 
node 1 2 1 1
node 2 3 1 1
node 3 3 1 1
node 4 2 0 2
node 7 1 0 0
gene 1 1 4 1.86781 0 1 1.86781 1
gene 3 2 4 -3.16193 0 2 -3.16193 1
gene 3 3 4 -4.11773 0 3 -4.11773 1
gene 1 1 7 1.5368 0 51 1.5368 0
gene 1 7 4 1.66102 0 52 1.66102 0
gene 1 4 4 -1.13405 1 119 -1.13405 1
gene 3 2 7 -2.31257 0 233 -2.31257 1
gene 2 7 7 1.19993 1 737 1.19993 1
gene 3 3 7 2.76278 0 825 2.76278 1
genomeend 83

/* Organism #84 Fitness: 408.294 Error: 241.706 */
genomestart 84
trait 1 0.1 0 0 0 0 0 0 0 
trait 2 0.2 0 0 0 0 0 0 0 
trait 3 0.285912 0.0167021 0.721005 0.174677 0 0 0.245887 0.980639 
node 1 2 1 1
node 2 3 1 1
node 3 3 1 1
node 4 2 0 2
node 7 1 0 0
gene 3 1 4 -1.99542 0 1 -1.99542 0
gene 1 2 4 -0.394778 0 2 -0.394778 0
gene 3 3 4 -1.10235 0 3 -1.10235 1
gene 1 1 7 1.83089 0 51 1.83089 1
gene 2 7 4 2.79448 0 52 2.79448 1
gene 1 4 4 -1.17838 1 81 -1.17838 1
gene 3 7 7 3.17845 1 111 3.17845 1
gene 1 4 7 -0.00173204 1 191 -0.00173204 1
gene 1 3 7 2.35523 0 214 2.35523 1
gene 3 2 7 -1.63154 0 276 -1.63154 1
genomeend 84

/* Organism #85 Fitness: 297.126 Error: 352.874 */
genomestart 85
trait 1 0.1 0 0 0 0 0 0 0 
trait 2 0.2 0 0 0 0 0 0 0 
trait 3 0.285912 0.0167021 0.721005 0.174677 0 0 0.245887 0.980639 
node 1 2 1 1
node 2 3 1 1
node 3 3 1 1
node 4 2 0 2
node 7 1 0 0
gene 3 1 4 -1.62585 0 1 -1.62585 0
gene 1 2 4 -0.430599 0 2 -0.430599 1
gene 3 3 4 0.297585 0 3 0.297585 1
gene 1 1 7 1.63489 0 51 1.63489 1
gene 2 7 4 1.0786 0 52 1.0786 1
gene 1 4 4 -0.856901 1 81 -0.856901 1
gene 3 7 7 2.64605 1 111 2.64605 1
gene 1 4 7 1.42907 1 191 1.42907 1
gene 1 3 7 3.32042 0 214 3.32042 1
gene 3 2 7 -1.63154 0 276 -1.63154 1
genomeend 85

/* Organism #86 Fitness: 438.82 Error: 211.18 */
genomestart 86
trait 1 0.1 0 0 0 0 0 0 0 
trait 2 0.2 0 0 0 0 0 0 0 
trait 3 0.285912 0.0167021 0.721005 0.174677 0 0 0.245887 0.980639 
node 1 2 1 1
node 2 3 1 1
node 3 3 1 1
node 4 2 0 2
node 7 1 0 0
gene 3 1 4 -2.42425 0 1 -2.42425 0
gene 1 2 4 0.18426 0 2 0.18426 1
gene 3 3 4 -1.50431 0 3 -1.50431 1
gene 1 1 7 2.63901 0 51 2.63901 1
gene 2 7 4 2.23034 0 52 2.23034 1
gene 1 4 4 -1.52748 1 81 -1.52748 1
gene 3 7 7 2.28299 1 111 2.28299 1
gene 1 4 7 0.834612 1 191 0.834612 1
gene 1 3 7 0.907219 0 214 0.907219 1
gene 3 2 7 -1.07156 0 276 -1.07156 1
genomeend 86

/* Species #10 : (Size 16) (AF 427.555) (Age 27)  */


/* Organism #87 Fitness: 510.688 Error: 139.312 */
genomestart 87
trait 1 0.0811182 0.000343889 0.0025675 0.267877 0.0043817 0.0519232 0.0475038 0.0165458 
trait 2 0.174041 0.0676615 0.00236657 0.175657 0 0.147993 0.211269 0 
trait 3 0.3 0.356759 0 0 0.00036427 0 0 0 
node 1 3 1 1
node 2 1 1 1
node 3 3 1 1
node 4 2 0 2
node 19 1 0 0
gene 3 1 4 -0.682357 0 1 -0.682357 1
gene 1 2 4 -2.60922 0 2 -2.60922 1
gene 3 3 4 -4.14592 0 3 -4.14592 1
gene 1 4 4 0.0832372 1 140 0.0832372 1
gene 3 1 19 1.85835 0 179 1.85835 1
gene 3 19 4 7.04836 0 180 7.04836 1
gene 1 2 19 -1.79425 0 389 -1.79425 1
gene 2 3 19 -0.35338 0 426 -0.35338 1
gene 3 19 19 2.70813 1 475 2.70813 1
gene 1 4 19 0.93706 1 1036 0.93706 1
genomeend 87

/* Organism #88 Fitness: 375.735 Error: 274.265 */
genomestart 88
trait 1 0.0811182 0.000343889 0.0025675 0.267877 0.0043817 0.0519232 0.0475038 0.0165458 
trait 2 0.174041 0.0676615 0.00236657 0.175657 0 0.147993 0.211269 0 
trait 3 0.3 0.356759 0 0 0.00036427 0 0 0 
node 1 3 1 1
node 2 1 1 1
node 3 3 1 1
node 4 2 0 2
node 19 1 0 0
gene 3 1 4 0.452432 0 1 0.452432 1
gene 1 2 4 -4.13243 0 2 -4.13243 1
gene 3 3 4 -3.56113 0 3 -3.56113 1
gene 1 4 4 0.675146 1 140 0.675146 1
gene 3 1 19 2.75766 0 179 2.75766 1
gene 3 19 4 5.83327 0 180 5.83327 1
gene 1 2 19 -0.961547 0 389 -0.961547 1
gene 2 3 19 -2.40355 0 426 -2.40355 1
gene 3 19 19 3.89771 1 475 3.89771 1
gene 1 4 19 0.531374 1 1036 0.531374 1
genomeend 88

/* Organism #89 Fitness: 495.248 Error: 154.752 */
genomestart 89
trait 1 0 0.000343889 0.0025675 0.267877 0.419866 0.0519232 0 0 
trait 2 0.174041 0.0676615 0.00236657 0.175657 0 0.147993 0.211269 0 
trait 3 0.3 0.356759 0 0 0.00036427 0 0 0 
node 1 3 1 1
node 2 1 1 1
node 3 3 1 1
node 4 2 0 2
node 19 1 0 0
gene 3 1 4 -2.41279 0 1 -2.41279 1
gene 1 2 4 -2.60922 0 2 -2.60922 1
gene 3 3 4 -3.11931 0 3 -3.11931 1
gene 1 4 4 -1.09206 1 140 -1.09206 1
gene 3 1 19 0.266665 0 179 0.266665 1
gene 3 19 4 8 0 180 8 1
gene 1 2 19 -0.425285 0 389 -0.425285 1
gene 3 3 19 0.12291 0 426 0.12291 1
gene 3 19 19 3.26767 1 475 3.26767 1
gene 1 4 19 1.40838 1 1036 1.40838 1
genomeend 89

/* Organism #90 Fitness: 2.33939 Error: 647.661 */
genomestart 90
trait 1 0.0845081 0.000318097 0.00237494 0.24086 0.00443635 0.0454328 0.0494382 0.016509 
trait 2 0.176578 0.0678099 0.00207075 0.179574 0 0.155349 0.21152 0 
trait 3 0.3 0.401354 0 0 0.00033695 0 0 0 
node 1 3 1 1
node 2 1 1 1
node 3 3 1 1
node 4 2 0 2
node 19 1 0 0
gene 3 1 4 -3.38808 0 1 -3.38808 1
gene 1 2 4 -0.925994 0 2 -0.925994 1
gene 3 3 4 -3.11455 0 3 -3.11455 1
gene 1 4 4 0.567112 1 140 0.567112 1
gene 3 1 19 2.58874 0 179 2.58874 1
gene 3 19 4 -0.0755241 0 180 -0.0755241 1
gene 1 2 19 -0.871693 0 389 -0.871693 1
gene 3 3 19 2.00949 0 426 2.00949 1
gene 3 19 19 5.38581 1 475 5.38581 1
genomeend 90

/* Organism #91 Fitness: 490.569 Error: 159.431 */
genomestart 91
trait 1 0.0811182 0.000343889 0.0025675 0.267877 0.0043817 0.0519232 0.0475038 0.0165458 
trait 2 0.174041 0.0676615 0.00236657 0.175657 0 0.147993 0.211269 0 
trait 3 0.3 0.356759 0 0 0.00036427 0 0 0 
node 1 3 1 1
node 2 1 1 1
node 3 3 1 1
node 4 2 0 2
node 19 1 0 0
gene 3 1 4 -1.75167 0 1 -1.75167 1
gene 1 2 4 -1.47069 0 2 -1.47069 1
gene 3 3 4 -4.56529 0 3 -4.56529 1
gene 1 4 4 -1.06395 1 140 -1.06395 1
gene 2 1 19 2.99039 0 179 2.99039 1
gene 3 19 4 5.91715 0 180 5.91715 1
gene 1 2 19 -1.47217 0 389 -1.47217 1
gene 2 3 19 0.497241 0 426 0.497241 1
gene 3 19 19 0.815715 1 475 0.815715 1
gene 1 4 19 -1.18878 1 1036 -1.18878 1
genomeend 91

/* Organism #92 Fitness: 498.055 Error: 151.945 */
genomestart 92
trait 1 0.0828131 0.000330993 0.00247122 0.254368 0.00440902 0.048678 0.048471 0.0165274 
trait 2 0.17531 0.0677357 0.00221866 0.177615 0 0.151671 0.211395 0 
trait 3 0.3 0.379056 0 0 0.00035061 0 0 0 
node 1 3 1 1
node 2 1 1 1
node 3 3 1 1
node 4 2 0 2
node 19 1 0 0
gene 3 1 4 -0.824426 0 1 -0.824426 1
gene 1 2 4 -1.40662 0 2 -1.40662 1
gene 3 3 4 -2.97635 0 3 -2.97635 1
gene 1 4 4 -1.37726 1 140 -1.37726 1
gene 3 1 19 4.02933 0 179 4.02933 1
gene 3 19 4 6.13679 0 180 6.13679 1
gene 1 2 19 -2.15308 0 389 -2.15308 1
gene 2 3 19 -1.12899 0 426 -1.12899 1
gene 3 19 19 4.71901 1 475 4.71901 1
gene 1 4 19 -1.72658 1 1036 -1.72658 1
genomeend 92

/* Organism #93 Fitness: 512.793 Error: 137.207 */
genomestart 93
trait 1 0.0811182 0.000343889 0.0025675 0.267877 0.0043817 0.0519232 0.0475038 0.0165458 
trait 2 0.174041 0.0676615 0.00236657 0.175657 0 0.147993 0.211269 0 
trait 3 0.3 0.356759 0 0 0.00036427 0 0 0 
node 1 3 1 1
node 2 1 1 1
node 3 3 1 1
node 4 2 0 2
node 19 1 0 0
gene 3 1 4 -0.682357 0 1 -0.682357 1
gene 1 2 4 -2.60922 0 2 -2.60922 1
gene 3 3 4 -4.14592 0 3 -4.14592 1
gene 1 4 4 0.0832372 1 140 0.0832372 1
gene 3 1 19 1.85835 0 179 1.85835 1
gene 3 19 4 7.04836 0 180 7.04836 1
gene 1 2 19 -1.79425 0 389 -1.79425 1
gene 2 3 19 -0.35338 0 426 -0.35338 1
gene 3 19 19 2.70813 1 475 2.70813 1
gene 1 4 19 0.93706 1 1036 0.93706 1
genomeend 93

/* Organism #94 Fitness: 467.409 Error: 182.591 */
genomestart 94
trait 1 0.0811182 0.000343889 0.0025675 0.267877 0.0043817 0.0519232 0.0475038 0.0165458 
trait 2 0.174041 0.0676615 0.00236657 0.175657 0 0.147993 0.211269 0 
trait 3 0.3 0.356759 0 0 0.00036427 0 0 0 
node 1 3 1 1
node 2 1 1 1
node 3 3 1 1
node 4 2 0 2
node 19 1 0 0
gene 3 1 4 -0.682357 0 1 -0.682357 1
gene 1 2 4 -2.60922 0 2 -2.60922 1
gene 3 3 4 -4.14592 0 3 -4.14592 1
gene 1 4 4 0.0832372 1 140 0.0832372 1
gene 3 1 19 1.85835 0 179 1.85835 1
gene 3 19 4 7.04836 0 180 7.04836 1
gene 1 2 19 -1.79425 0 389 -1.79425 1
gene 2 3 19 -0.35338 0 426 -0.35338 1
gene 3 19 19 2.70813 1 475 2.70813 1
gene 1 4 19 0.93706 1 1036 0.93706 1
genomeend 94

/* Organism #95 Fitness: 512.091 Error: 137.909 */
genomestart 95
trait 1 0.0811182 0.000343889 0.0025675 0.267877 0.0043817 0.0519232 0.0475038 0.0165458 
trait 2 0.174041 0.0676615 0.00236657 0.175657 0 0.147993 0.211269 0 
trait 3 0.3 0.356759 0 0 0.00036427 0 0 0 
node 1 3 1 1
node 2 1 1 1
node 3 3 1 1
node 4 2 0 2
node 19 1 0 0
gene 3 1 4 -0.824426 0 1 -0.824426 1
gene 1 2 4 -2.60922 0 2 -2.60922 1
gene 3 3 4 -2.97635 0 3 -2.97635 1
gene 1 4 4 0.0832372 1 140 0.0832372 1
gene 3 1 19 1.85835 0 179 1.85835 1
gene 3 19 4 5.37746 0 180 5.37746 1
gene 1 2 19 -2.15308 0 389 -2.15308 1
gene 2 3 19 -0.35338 0 426 -0.35338 1
gene 3 19 19 1.86682 1 475 1.86682 1
gene 1 4 19 -1.72658 1 1036 -1.72658 1
genomeend 95

/* Organism #96 Fitness: 281.831 Error: 368.169 */
genomestart 96
trait 1 0.0845081 0.000318097 0.00237494 0.24086 0.00443635 0.0454328 0.0494382 0.016509 
trait 2 0.176578 0.0678099 0.00207075 0.179574 0 0.155349 0.21152 0 
trait 3 0.3 0.401354 0 0 0.00033695 0 0 0 
node 1 2 1 1
node 2 1 1 1
node 3 3 1 1
node 4 2 0 2
node 19 1 0 0
gene 3 1 4 1.03653 0 1 1.03653 1
gene 1 2 4 -3.01142 0 2 -3.01142 1
gene 3 3 4 0.9955 0 3 0.9955 1
gene 1 4 4 2.66743 1 140 2.66743 1
gene 3 1 19 3.19645 0 179 3.19645 1
gene 3 19 4 4.86658 0 180 4.86658 1
gene 1 2 19 -2.68426 0 389 -2.68426 1
gene 1 3 19 0.0446587 0 426 0.0446587 1
gene 3 19 19 -0.778905 1 475 -0.778905 1
gene 1 4 19 -0.472895 1 1036 -0.472895 1
genomeend 96

/* Organism #97 Fitness: 492.207 Error: 157.793 */
genomestart 97
trait 1 0.0811182 0.000343889 0.0025675 0.267877 0.0043817 0.0519232 0.0475038 0.0165458 
trait 2 0.174041 0.0676615 0.00236657 0.40461 0 0.147993 0.516772 0 
trait 3 0.3 0.356759 0 0 0.00036427 0 0 0 
node 1 3 1 1
node 2 1 1 1
node 3 3 1 1
node 4 2 0 2
node 19 1 0 0
gene 3 1 4 -1.71825 0 1 -1.71825 1
gene 1 2 4 -4.36241 0 2 -4.36241 1
gene 3 3 4 -3.82058 0 3 -3.82058 1
gene 1 4 4 -2.17868 1 140 -2.17868 1
gene 3 1 19 0.416891 0 179 0.416891 1
gene 3 19 4 6.53031 0 180 6.53031 1
gene 1 2 19 -2.10031 0 389 -2.10031 1
gene 2 3 19 0.102041 0 426 0.102041 1
gene 3 19 19 1.04158 1 475 1.04158 1
gene 1 4 19 0.93706 1 1036 0.93706 1
genomeend 97

/* Organism #98 Fitness: 505.307 Error: 144.693 */
genomestart 98
trait 1 0.0811182 0.000343889 0.0025675 0.267877 0.0043817 0.0519232 0.0475038 0.0165458 
trait 2 0.174041 0.0676615 0.00236657 0.175657 0 0.147993 0.211269 0 
trait 3 0.3 0.356759 0 0 0.00036427 0 0 0 
node 1 3 1 1
node 2 1 1 1
node 3 3 1 1
node 4 2 0 2
node 19 1 0 0
gene 3 1 4 -0.682357 0 1 -0.682357 1
gene 1 2 4 -2.60922 0 2 -2.60922 1
gene 3 3 4 -4.14592 0 3 -4.14592 1
gene 1 4 4 0.0832372 1 140 0.0832372 1
gene 3 1 19 1.85835 0 179 1.85835 1
gene 3 19 4 7.04836 0 180 7.04836 1
gene 1 2 19 -1.79425 0 389 -1.79425 1
gene 2 3 19 -0.35338 0 426 -0.35338 1
gene 3 19 19 2.70813 1 475 2.70813 1
gene 1 4 19 0.93706 1 1036 0.93706 1
genomeend 98

/* Organism #99 Fitness: 511.624 Error: 138.376 */
genomestart 99
trait 1 0.0811182 0.000343889 0.0025675 0.267877 0.0043817 0.0519232 0.0475038 0.0165458 
trait 2 0.174041 0.0676615 0.00236657 0.175657 0 0.147993 0.211269 0 
trait 3 0.3 0.356759 0 0 0.00036427 0 0 0 
node 1 3 1 1
node 2 1 1 1
node 3 3 1 1
node 4 2 0 2
node 19 1 0 0
gene 3 1 4 -1.33132 0 1 -1.33132 1
gene 1 2 4 -1.94117 0 2 -1.94117 1
gene 3 3 4 -4.14592 0 3 -4.14592 1
gene 1 4 4 0.447344 1 140 0.447344 1
gene 2 1 19 2.93145 0 179 2.93145 1
gene 3 19 4 6.38896 0 180 6.38896 1
gene 1 2 19 -2.58237 0 389 -2.58237 1
gene 2 3 19 0.177128 0 426 0.177128 1
gene 3 19 19 0.0842903 1 475 0.0842903 1
gene 1 4 19 -0.919055 1 1036 -0.919055 1
genomeend 99

/* Organism #100 Fitness: 345.059 Error: 304.941 */
genomestart 100
trait 1 0.0845081 0.000318097 0.00237494 0.24086 0.00443635 0.0454328 0.0494382 0.016509 
trait 2 0.176578 0.0678099 0.00207075 0.179574 0 0.155349 0.21152 0 
trait 3 0.3 0.401354 0 0 0.00033695 0 0 0 
node 1 3 1 1
node 2 1 1 1
node 3 3 1 1
node 4 2 0 2
node 19 1 0 0
gene 3 1 4 -3.10213 0 1 -3.10213 1
gene 1 2 4 -0.338356 0 2 -0.338356 1
gene 3 3 4 -3.23951 0 3 -3.23951 1
gene 1 4 4 1.05481 1 140 1.05481 1
gene 3 1 19 2.72432 0 179 2.72432 1
gene 3 19 4 5.71198 0 180 5.71198 1
gene 1 2 19 -2.52175 0 389 -2.52175 1
gene 3 3 19 -0.263388 0 426 -0.263388 1
gene 3 19 19 6.03382 1 475 6.03382 1
genomeend 100

/* Organism #101 Fitness: 419.598 Error: 230.402 */
genomestart 101
trait 1 0.0811182 0.000343889 0.0025675 0.267877 0.0043817 0.0519232 0.0475038 0.0165458 
trait 2 0.174041 0.0676615 0.00236657 0.175657 0 0.147993 0.211269 0 
trait 3 0.3 0.356759 0 0 0.00036427 0 0 0 
node 1 3 1 1
node 2 1 1 1
node 3 3 1 1
node 4 2 0 2
node 19 1 0 0
gene 3 1 4 0.244923 0 1 0.244923 1
gene 1 2 4 -2.98043 0 2 -2.98043 1
gene 3 3 4 -4.14252 0 3 -4.14252 1
gene 1 4 4 -0.122908 1 140 -0.122908 1
gene 3 1 19 0.241303 0 179 0.241303 1
gene 3 19 4 7.35272 0 180 7.35272 1
gene 1 2 19 -2.22957 0 389 -2.22957 1
gene 2 3 19 -0.269094 0 426 -0.269094 1
gene 3 19 19 3.27511 1 475 3.27511 1
gene 1 4 19 1.87524 1 1036 1.87524 1
genomeend 101

/* Organism #102 Fitness: 420.323 Error: 229.677 */
genomestart 102
trait 1 0.0718276 0.000343889 0.00461088 0.30251 0.00368927 0.064904 0.0311025 0.0199325 
trait 2 0.171967 0.041546 0.00937038 0.0902043 0 0.0557164 0.137159 0 
trait 3 0.3 0 0 0 0.135669 0 0 0 
node 1 3 1 1
node 2 1 1 1
node 3 3 1 1
node 4 2 0 2
node 19 1 0 0
gene 3 1 4 -0.897873 0 1 -0.897873 0
gene 1 2 4 1.53125 0 2 1.53125 1
gene 3 3 4 -5.87932 0 3 -5.87932 1
gene 1 4 4 0.954532 1 140 0.954532 1
gene 3 1 19 3.54685 0 179 3.54685 1
gene 2 19 4 6.44883 0 180 6.44883 1
gene 3 19 19 -3.13846 1 238 -3.13846 1
gene 3 3 19 0.537206 0 508 0.537206 1
gene 2 2 19 -2.17767 0 675 -2.17767 1
genomeend 102

/* Species #12 : (Size 9) (AF 420.125) (Age 27)  */


/* Organism #103 Fitness: 502.266 Error: 147.734 */
genomestart 103
trait 1 0.100951 0 0 0 0.00157037 0 0.0251036 0.0128446 
trait 2 0.152197 0 0 0 0 0.159694 0 0.0408851 
trait 3 0.3 0 0 0 0 0 0 0 
node 1 2 1 1
node 2 2 1 1
node 3 2 1 1
node 4 1 0 2
node 11 2 0 0
gene 1 1 4 -0.338687 0 1 -0.338687 1
gene 2 2 4 2.93594 0 2 2.93594 0
gene 2 3 4 -4.3219 0 3 -4.3219 1
gene 1 4 4 0.695982 1 44 0.695982 1
gene 2 3 11 0.439567 0 100 0.439567 1
gene 2 11 4 2.82493 0 101 2.82493 1
gene 1 2 11 0.455142 0 222 0.455142 1
gene 1 1 11 2.0372 0 350 2.0372 1
gene 2 4 11 -2.20313 1 443 -2.20313 1
gene 2 11 11 1.4144 1 490 1.4144 1
genomeend 103

/* Organism #104 Fitness: 495.248 Error: 154.752 */
genomestart 104
trait 1 0.100951 0 0 0 0.00157037 0 0.0251036 0.0128446 
trait 2 0.2 0 0.038231 0 0.219892 0 0 0 
trait 3 0.3 0 0 0 0 0 0 0 
node 1 2 1 1
node 2 2 1 1
node 3 2 1 1
node 4 1 0 2
node 11 1 0 0
gene 1 1 4 -0.253237 0 1 -0.253237 1
gene 2 2 4 2.93594 0 2 2.93594 0
gene 2 3 4 -5.74172 0 3 -5.74172 0
gene 1 4 4 0.412242 1 44 0.412242 1
gene 2 3 11 0.843575 0 100 0.843575 1
gene 2 11 4 2.82493 0 101 2.82493 1
gene 1 2 11 0.65307 0 222 0.65307 1
gene 1 1 11 1.91159 0 350 1.91159 1
gene 2 4 11 -1.54729 1 443 -1.54729 1
gene 2 11 11 1.49988 1 490 1.49988 1
genomeend 104

/* Organism #105 Fitness: 494.78 Error: 155.22 */
genomestart 105
trait 1 0.100951 0 0 0 0.00157037 0 0.0251036 0.0128446 
trait 2 0.2 0 0.0764621 0 0.439784 0 0 0 
trait 3 0.3 0 0 0 0 0 0 0 
node 1 2 1 1
node 2 2 1 1
node 3 2 1 1
node 4 1 0 2
node 11 1 0 0
gene 1 1 4 -0.253237 0 1 -0.253237 1
gene 2 2 4 2.93594 0 2 2.93594 0
gene 2 3 4 -4.71089 0 3 -4.71089 0
gene 1 4 4 0.412242 1 44 0.412242 1
gene 2 3 11 0.843575 0 100 0.843575 1
gene 2 11 4 1.8865 0 101 1.8865 1
gene 1 2 11 0.65307 0 222 0.65307 1
gene 1 1 11 2.0372 0 350 2.0372 1
gene 2 4 11 -1.54729 1 443 -1.54729 1
gene 2 11 11 1.49988 1 490 1.49988 1
genomeend 105

/* Organism #106 Fitness: 491.271 Error: 158.729 */
genomestart 106
trait 1 0.100951 0 0 0 0.00157037 0 0.0251036 0.0128446 
trait 2 0.2 0 0 0 0 0 0 0 
trait 3 0.3 0 0 0 0 0 0 0 
node 1 2 1 1
node 2 2 1 1
node 3 2 1 1
node 4 1 0 2
node 11 1 0 0
gene 1 1 4 -0.253237 0 1 -0.253237 1
gene 2 2 4 1.59663 0 2 1.59663 0
gene 2 3 4 -5.74172 0 3 -5.74172 0
gene 1 4 4 0.695982 1 44 0.695982 1
gene 2 3 11 0.708906 0 100 0.708906 1
gene 2 11 4 2.82493 0 101 2.82493 1
gene 2 2 11 0.850998 0 222 0.850998 1
gene 1 1 11 1.91159 0 350 1.91159 1
gene 2 4 11 -2.20313 1 443 -2.20313 1
gene 2 11 11 1.58536 1 490 1.58536 1
genomeend 106

/* Organism #107 Fitness: 489.633 Error: 160.367 */
genomestart 107
trait 1 0.100951 0 0 0 0.00157037 0 0.0251036 0.0128446 
trait 2 0.176099 0 0.038231 0 0.219892 0.0798469 0 0.0204426 
trait 3 0.3 0 0 0 0 0 0 0 
node 1 2 1 1
node 2 2 1 1
node 3 2 1 1
node 4 1 0 2
node 11 2 0 0
gene 1 1 4 -0.295962 0 1 -0.295962 1
gene 2 2 4 2.93594 0 2 2.93594 0
gene 2 3 4 -4.51639 0 3 -4.51639 0
gene 1 4 4 0.554112 1 44 0.554112 1
gene 2 3 11 0.641571 0 100 0.641571 1
gene 2 11 4 2.35571 0 101 2.35571 1
gene 1 2 11 0.554106 0 222 0.554106 1
gene 1 1 11 2.0372 0 350 2.0372 1
gene 2 4 11 -1.87521 1 443 -1.87521 1
gene 2 11 11 1.45714 1 490 1.45714 1
genomeend 107

/* Organism #108 Fitness: 179.899 Error: 470.101 */
genomestart 108
trait 1 0.100951 0 0 0 0.00157037 0 0.0251036 0.0128446 
trait 2 0.2 0 0.038231 0 0.219892 0 0 0 
trait 3 0.3 0 0 0 0 0 0 0 
node 1 2 1 1
node 2 2 1 1
node 3 2 1 1
node 4 1 0 2
node 11 1 0 0
gene 1 1 4 -0.72036 0 1 -0.72036 1
gene 2 2 4 1.23633 0 2 1.23633 0
gene 2 3 4 -6.11045 0 3 -6.11045 0
gene 1 4 4 -0.123429 1 44 -0.123429 1
gene 2 3 11 1.42348 0 100 1.42348 1
gene 2 11 4 1.21946 0 101 1.21946 1
gene 1 2 11 0.852848 0 222 0.852848 1
gene 1 1 11 0.80272 0 350 0.80272 1
gene 2 4 11 -0.648715 1 443 -0.648715 1
gene 2 11 11 0.798181 1 490 0.798181 1
genomeend 108

/* Organism #109 Fitness: 298.813 Error: 351.187 */
genomestart 109
trait 1 0.100951 0 0 0 0.00157037 0 0.0251036 0.0128446 
trait 2 0.2 0 0 0 0 0 0 0 
trait 3 0.3 0 0 0 0 0 0 0 
node 1 2 1 1
node 2 2 1 1
node 3 2 1 1
node 4 1 0 2
node 11 1 0 0
gene 1 1 4 1.42732 0 1 1.42732 1
gene 2 2 4 1.90863 0 2 1.90863 0
gene 2 3 4 -4.84321 0 3 -4.84321 0
gene 1 4 4 1.91405 1 44 1.91405 1
gene 2 3 11 1.67428 0 100 1.67428 1
gene 2 11 4 1.75014 0 101 1.75014 1
gene 2 2 11 1.85425 0 222 1.85425 1
gene 1 1 11 1.57089 0 350 1.57089 1
gene 2 4 11 -1.00009 1 443 -1.00009 1
gene 2 11 11 3.15986 1 490 3.15986 1
genomeend 109

/* Organism #110 Fitness: 312.207 Error: 337.793 */
genomestart 110
trait 1 0.100951 0 0 0 0.00157037 0 0.0251036 0.0128446 
trait 2 0.2 0 0 0 0 0 0 0 
trait 3 0.3 0 0 0 0 0 0 0 
node 1 2 1 1
node 2 2 1 1
node 3 2 1 1
node 4 1 0 2
node 11 1 0 0
gene 1 1 4 0.00466765 0 1 0.00466765 1
gene 2 2 4 3.32663 0 2 3.32663 0
gene 2 3 4 -6.67705 0 3 -6.67705 0
gene 1 4 4 0.757431 1 44 0.757431 1
gene 2 3 11 0.888942 0 100 0.888942 1
gene 2 11 4 2.08618 0 101 2.08618 1
gene 1 2 11 1.68757 0 222 1.68757 1
gene 1 1 11 3.2389 0 350 3.2389 1
gene 2 4 11 -0.565508 1 443 -0.565508 1
gene 2 11 11 3.14821 1 490 3.14821 1
genomeend 110

/* Organism #111 Fitness: 517.004 Error: 132.996 */
genomestart 111
trait 1 0.100951 0 0 0 0.00157037 0 0.0251036 0.0128446 
trait 2 0.2 0 0 0 0 0 0 0 
trait 3 0.3 0 0 0 0 0 0 0 
node 1 2 1 1
node 2 2 1 1
node 3 2 1 1
node 4 1 0 2
node 11 2 0 0
gene 1 1 4 -0.338687 0 1 -0.338687 1
gene 2 2 4 1.59663 0 2 1.59663 0
gene 2 3 4 -4.3219 0 3 -4.3219 1
gene 1 4 4 0.695982 1 44 0.695982 1
gene 2 3 11 0.439567 0 100 0.439567 1
gene 2 11 4 2.82493 0 101 2.82493 1
gene 1 2 11 0.850998 0 222 0.850998 1
gene 1 1 11 1.66038 0 350 1.66038 1
gene 2 4 11 -2.20313 1 443 -2.20313 1
gene 2 11 11 1.58536 1 490 1.58536 1
genomeend 111

/* Species #14 : (Size 14) (AF 402.718) (Age 27)  */


/* Organism #112 Fitness: 510.922 Error: 139.078 */
genomestart 112
trait 1 0.1 0 0 0 0 0 0.0110638 0 
trait 2 0.2 0 0 0 0 0 0 0 
trait 3 0.3 0 0 0 0 0 0.052241 0.0645722 
node 1 2 1 1
node 2 1 1 1
node 3 2 1 1
node 4 2 0 2
node 7 1 0 0
node 13 1 0 0
gene 1 1 4 -0.256561 0 1 -0.256561 1
gene 1 2 4 1.99965 0 2 1.99965 1
gene 2 3 4 -3.34456 0 3 -3.34456 1
gene 1 1 7 1.2055 0 51 1.2055 1
gene 1 7 4 1.98237 0 52 1.98237 1
gene 1 1 13 5.11411 0 117 5.11411 1
gene 1 13 7 0.766519 0 118 0.766519 1
gene 1 7 7 2.03682 1 169 2.03682 1
gene 3 13 4 -0.0845239 0 462 -0.0845239 1
gene 1 2 7 0.120769 0 644 0.120769 1
gene 1 3 7 1.0679 0 870 1.07559 1
gene 3 4 4 -0.860668 1 1038 -0.860668 1
genomeend 112

/* Organism #113 Fitness: 178.261 Error: 471.739 */
genomestart 113
trait 1 0.1 0 0 0 0 0 0.0110638 0 
trait 2 0.2 0 0 0 0 0 0 0 
trait 3 0.3 0 0 0 0 0 0.052241 0.0645722 
node 1 2 1 1
node 2 1 1 1
node 3 2 1 1
node 4 2 0 2
node 7 1 0 0
node 13 1 0 0
gene 1 1 4 -1.77169 0 1 -1.77169 1
gene 1 2 4 0.58441 0 2 0.58441 1
gene 2 3 4 -2.26667 0 3 -2.26667 1
gene 1 1 7 1.54289 0 51 1.54289 1
gene 1 7 4 2.23474 0 52 2.23474 1
gene 1 1 13 1.37429 0 117 1.37429 1
gene 1 13 7 -1.37644 0 118 -1.37644 1
gene 1 7 7 0.399051 1 169 0.399051 0
gene 3 13 4 1.10746 0 462 1.10746 1
gene 1 2 7 -0.0294607 0 644 -0.0294607 1
gene 1 3 7 1.92331 0 870 1.92331 1
gene 1 3 13 2.31028 0 1037 2.31028 1
genomeend 113

/* Organism #114 Fitness: 4.67877 Error: 645.321 */
genomestart 114
trait 1 0.1 0 0 0 0 0 0.0110638 0 
trait 2 0.2 0 0 0 0 0 0 0 
trait 3 0.3 0 0 0 0 0 0.052241 0.0645722 
node 1 2 1 1
node 2 1 1 1
node 3 2 1 1
node 4 2 0 2
node 7 1 0 0
node 13 1 0 0
gene 1 1 4 1.08544 0 1 1.08544 1
gene 1 2 4 2.11819 0 2 2.11819 1
gene 2 3 4 -3.9333 0 3 -3.9333 1
gene 1 1 7 1.6026 0 51 1.6026 1
gene 1 7 4 -0.100173 0 52 -0.100173 1
gene 1 1 13 4.89328 0 117 4.89328 1
gene 1 13 7 0.119664 0 118 0.119664 1
gene 1 7 7 3.34073 1 169 3.34073 1
gene 3 13 4 -1.3919 0 462 -1.3919 1
gene 1 2 7 2.23312 0 644 2.23312 1
gene 1 3 7 0.0974331 0 870 0.0974331 1
gene 3 4 4 -1.2275 1 1038 -1.2275 1
genomeend 114

/* Organism #115 Fitness: 433.19 Error: 216.81 */
genomestart 115
trait 1 0.1 0 0 0 0 0 0.0110638 0 
trait 2 0.2 0 0 0 0 0 0 0 
trait 3 0.3 0 0 0 0 0 0.052241 0.0645722 
node 1 2 1 1
node 2 1 1 1
node 3 2 1 1
node 4 2 0 2
node 7 1 0 0
node 13 1 0 0
gene 1 1 4 0.118273 0 1 0.118273 1
gene 1 2 4 2.95961 0 2 2.95961 1
gene 2 3 4 -4.70542 0 3 -4.70542 1
gene 1 1 7 0.41757 0 51 0.41757 0
gene 1 7 4 1.22556 0 52 1.22556 1
gene 1 1 13 5.71872 0 117 5.71872 1
gene 1 13 7 0.934302 0 118 0.934302 1
gene 1 7 7 0.69445 1 169 0.69445 1
gene 3 13 4 0.136288 0 462 0.136288 1
gene 1 2 7 0.452543 0 644 0.452543 1
gene 1 3 7 2.76053 0 870 2.76053 1
gene 3 4 4 -0.688661 1 1038 -0.688661 1
genomeend 115

/* Organism #116 Fitness: 491.505 Error: 158.495 */
genomestart 116
trait 1 0.1 0 0 0 0 0 0.0110638 0 
trait 2 0.2 0 0 0 0 0 0 0 
trait 3 0.3 0 0 0 0 0 0.052241 0.0645722 
node 1 2 1 1
node 2 1 1 1
node 3 2 1 1
node 4 2 0 2
node 7 1 0 0
node 13 1 0 0
gene 1 1 4 -0.213552 0 1 -0.213552 1
gene 1 2 4 1.9828 0 2 1.9828 1
gene 2 3 4 -3.30344 0 3 -3.30344 1
gene 1 1 7 1.46036 0 51 1.46036 1
gene 1 7 4 1.77164 0 52 1.77164 1
gene 1 1 13 4.94956 0 117 4.94956 1
gene 1 13 7 0.391923 0 118 0.391923 1
gene 1 7 7 1.73699 1 169 1.73699 1
gene 3 13 4 -0.0963488 0 462 -0.0963488 1
gene 1 2 7 0.563714 0 644 0.563714 1
gene 1 3 7 0.526259 0 870 0.537796 1
gene 3 4 4 -0.860668 1 1038 -0.860668 1
gene 3 2 13 -0.894631 0 1098 -0.894631 1
genomeend 116

/* Organism #117 Fitness: 511.156 Error: 138.844 */
genomestart 117
trait 1 0.1 0 0 0 0 0 0.0110638 0 
trait 2 0.2 0 0 0 0 0 0 0 
trait 3 0.3 0 0 0 0 0 0.052241 0.0645722 
node 1 2 1 1
node 2 1 1 1
node 3 2 1 1
node 4 2 0 2
node 7 1 0 0
node 13 1 0 0
gene 1 1 4 -0.256561 0 1 -0.256561 1
gene 1 2 4 1.99965 0 2 1.99965 1
gene 2 3 4 -3.34456 0 3 -3.34456 1
gene 1 1 7 1.2055 0 51 1.2055 1
gene 1 7 4 1.98237 0 52 1.98237 1
gene 1 1 13 5.11411 0 117 5.11411 1
gene 1 13 7 0.766519 0 118 0.766519 1
gene 1 7 7 2.03682 1 169 2.03682 1
gene 3 13 4 -0.0845239 0 462 -0.0845239 1
gene 1 2 7 0.120769 0 644 0.120769 1
gene 1 3 7 1.0679 0 870 1.07559 1
gene 3 4 4 -0.860668 1 1038 -0.860668 1
genomeend 117

/* Organism #118 Fitness: 484.955 Error: 165.045 */
genomestart 118
trait 1 0.1 0 0 0 0 0 0.0110638 0 
trait 2 0.2 0 0 0 0 0 0 0 
trait 3 0.3 0 0 0 0 0 0.052241 0.0645722 
node 1 2 1 1
node 2 1 1 1
node 3 2 1 1
node 4 2 0 2
node 7 1 0 0
node 13 1 0 0
gene 1 1 4 -0.213552 0 1 -0.213552 1
gene 1 2 4 1.9828 0 2 1.9828 1
gene 2 3 4 -3.30344 0 3 -3.30344 1
gene 1 1 7 1.46036 0 51 1.46036 1
gene 1 7 4 1.77164 0 52 1.77164 1
gene 1 1 13 4.94956 0 117 4.94956 1
gene 1 13 7 0.391923 0 118 0.391923 1
gene 1 7 7 1.73699 1 169 1.73699 1
gene 3 13 4 -0.0963488 0 462 -0.0963488 1
gene 1 2 7 0.563714 0 644 0.563714 1
gene 1 3 7 0.526259 0 870 0.537796 1
gene 3 4 4 -0.860668 1 1038 -0.860668 1
genomeend 118

/* Organism #119 Fitness: 423.897 Error: 226.103 */
genomestart 119
trait 1 0.1 0 0 0 0 0 0.0110638 0 
trait 2 0.2 0 0 0 0 0 0 0 
trait 3 0.3 0 0 0 0 0 0.052241 0.0645722 
node 1 2 1 1
node 2 1 1 1
node 3 2 1 1
node 4 2 0 2
node 7 1 0 0
node 13 1 0 0
gene 1 1 4 0.722507 0 1 0.722507 1
gene 1 2 4 2.51618 0 2 2.51618 1
gene 2 3 4 -4.7323 0 3 -4.7323 1
gene 1 1 7 2.49087 0 51 2.49087 1
gene 1 7 4 1.57681 0 52 1.57681 1
gene 1 1 13 4.57263 0 117 4.57263 1
gene 1 13 7 -0.417122 0 118 -0.417122 1
gene 1 7 7 0.435584 1 169 0.435584 1
gene 3 13 4 -0.509171 0 462 -0.509171 1
gene 1 2 7 1.48431 0 644 1.48431 1
gene 1 3 7 0.132236 0 870 0.132236 1
gene 3 7 13 0.554902 1 986 0.554902 1
genomeend 119

/* Organism #120 Fitness: 410.527 Error: 239.473 */
genomestart 120
trait 1 0.1 0 0 0 0 0 0.0110638 0 
trait 2 0.2 0 0 0 0 0 0 0 
trait 3 0.3 0 0 0 0 0 0.052241 0.0645722 
node 1 2 1 1
node 2 2 1 1
node 3 2 1 1
node 4 2 0 2
node 7 1 0 0
node 13 1 0 0
gene 1 1 4 0.97315 0 1 0.97315 1
gene 1 2 4 0.927273 0 2 0.927273 1
gene 2 3 4 -3.55334 0 3 -3.55334 1
gene 1 1 7 1.2055 0 51 1.2055 1
gene 1 7 4 1.16073 0 52 1.16073 1
gene 1 1 13 -1.52763 0 117 -1.52763 1
gene 1 13 7 2.21651 0 118 2.21651 1
gene 1 7 7 3.11226 1 169 3.11226 1
gene 3 13 4 -0.164656 0 462 -0.164656 1
gene 1 2 7 0.431113 0 644 0.431113 1
gene 1 3 7 0.0789903 0 870 0.0789903 1
gene 3 4 4 0.650699 1 1038 0.650699 1
genomeend 120

/* Organism #121 Fitness: 515.601 Error: 134.399 */
genomestart 121
trait 1 0.1 0 0 0 0 0 0.0110638 0 
trait 2 0.2 0 0 0 0 0 0 0 
trait 3 0.3 0 0 0 0 0 0.052241 0.0645722 
node 1 2 1 1
node 2 1 1 1
node 3 2 1 1
node 4 2 0 2
node 7 1 0 0
node 13 1 0 0
gene 1 1 4 -0.384251 0 1 -0.384251 1
gene 1 2 4 1.99965 0 2 1.99965 1
gene 2 3 4 -3.30344 0 3 -3.30344 1
gene 1 1 7 1.46036 0 51 1.46036 1
gene 1 7 4 2.40385 0 52 2.40385 1
gene 1 1 13 5.41666 0 117 5.41666 1
gene 1 13 7 0.766519 0 118 0.766519 1
gene 1 7 7 2.33665 1 169 2.33665 0
gene 3 13 4 -0.0963488 0 462 -0.0963488 1
gene 1 2 7 -0.248009 0 644 -0.248009 1
gene 1 3 7 1.0679 0 870 1.07559 1
gene 1 3 13 0.726124 0 1037 0.726124 1
gene 1 13 13 -0.704998 1 1099 -0.704998 1
genomeend 121

/* Organism #122 Fitness: 177.559 Error: 472.441 */
genomestart 122
trait 1 0.1 0 0 0 0 0 0.0110638 0 
trait 2 0.2 0 0 0 0 0 0 0 
trait 3 0.3 0 0 0 0 0 0.052241 0.0645722 
node 1 2 1 1
node 2 1 1 1
node 3 2 1 1
node 4 2 0 2
node 7 1 0 0
node 13 1 0 0
gene 1 1 4 -1.59522 0 1 -1.59522 1
gene 1 2 4 1.5803 0 2 1.5803 1
gene 2 3 4 -1.77169 0 3 -1.77169 1
gene 1 1 7 2.3063 0 51 2.3063 1
gene 1 7 4 1.90492 0 52 1.90492 1
gene 1 1 13 4.24637 0 117 4.24637 1
gene 1 13 7 1.14967 0 118 1.14967 1
gene 1 7 7 1.46156 1 169 1.46156 0
gene 3 13 4 0.964647 0 462 0.964647 1
gene 1 2 7 -1.07468 0 644 -1.07468 1
gene 1 3 7 -0.0153827 0 870 -0.0153827 1
gene 1 3 13 -0.941056 0 1037 -0.941056 1
genomeend 122

/* Organism #123 Fitness: 510.688 Error: 139.312 */
genomestart 123
trait 1 0.1 0 0 0 0 0 0.0110638 0 
trait 2 0.2 0 0 0 0 0 0 0 
trait 3 0.3 0 0 0 0 0 0.052241 0.0645722 
node 1 2 1 1
node 2 1 1 1
node 3 2 1 1
node 4 2 0 2
node 7 1 0 0
node 13 1 0 0
gene 1 1 4 -0.170543 0 1 -0.170543 1
gene 1 2 4 1.99965 0 2 1.99965 1
gene 2 3 4 -3.26233 0 3 -3.26233 1
gene 1 1 7 1.2055 0 51 1.2055 1
gene 1 7 4 1.98237 0 52 1.98237 1
gene 1 1 13 5.11411 0 117 5.11411 1
gene 1 13 7 0.0173263 0 118 0.0173263 1
gene 1 7 7 2.03682 1 169 2.03682 1
gene 3 13 4 -0.108174 0 462 -0.108174 1
gene 1 2 7 0.120769 0 644 0.120769 1
gene 1 3 7 1.0679 0 870 1.07559 1
gene 3 4 4 -0.860668 1 1038 -0.860668 1
genomeend 123

/* Organism #124 Fitness: 492.909 Error: 157.091 */
genomestart 124
trait 1 0.1 0 0 0 0 0 0.0110638 0 
trait 2 0.2 0 0 0 0 0 0 0 
trait 3 0.3 0 0 0 0 0 0.052241 0.0645722 
node 1 2 1 1
node 2 1 1 1
node 3 2 1 1
node 4 2 0 2
node 7 1 0 0
node 13 1 0 0
gene 1 1 4 -0.425923 0 1 -0.425923 1
gene 1 2 4 1.96594 0 2 1.96594 1
gene 2 3 4 -3.26233 0 3 -3.26233 1
gene 1 1 7 1.71523 0 51 1.71523 1
gene 1 7 4 1.5609 0 52 1.5609 1
gene 1 1 13 4.78502 0 117 4.78502 1
gene 1 13 7 1.51571 0 118 1.51571 1
gene 1 7 7 1.43716 1 169 1.43716 0
gene 3 13 4 -0.0845239 0 462 -0.0845239 1
gene 1 2 7 1.00666 0 644 1.00666 1
gene 1 3 7 -0.0153827 0 870 0 1
gene 1 3 13 0.726124 0 1037 0.726124 1
gene 3 2 13 -0.894631 0 1098 0 1
genomeend 124

/* Organism #125 Fitness: 492.207 Error: 157.793 */
genomestart 125
trait 1 0.1 0 0 0 0 0 0.0110638 0 
trait 2 0.2 0 0 0 0 0 0 0 
trait 3 0.3 0 0 0 0 0 0.052241 0.0645722 
node 1 2 1 1
node 2 1 1 1
node 3 2 1 1
node 4 2 0 2
node 7 1 0 0
node 13 1 0 0
gene 1 1 4 -0.915716 0 1 -0.915716 1
gene 1 2 4 1.94629 0 2 1.94629 1
gene 2 3 4 -1.53457 0 3 -1.53457 1
gene 1 1 7 1.54556 0 51 1.54556 1
gene 1 7 4 1.5609 0 52 1.5609 1
gene 1 1 13 4.78502 0 117 4.78502 1
gene 1 13 7 1.79073 0 118 1.79073 1
gene 1 7 7 0.116533 1 169 0.116533 1
gene 3 13 4 1.00204 0 462 1.00204 1
gene 1 2 7 -0.361857 0 644 -0.361857 1
gene 1 3 7 0.82915 0 870 0.82915 1
gene 3 7 13 -1.58107 1 986 -1.58107 1
gene 3 3 13 0.213666 0 1066 0.213666 1
genomeend 125

/* Species #16 : (Size 11) (AF 405.035) (Age 26)  */


/* Organism #126 Fitness: 496.418 Error: 153.582 */
genomestart 126
trait 1 0.105004 0.000521838 0.0300275 0.000294894 0.00192429 0.00212282 0.0127261 0.00630409 
trait 2 0.206054 0.011719 0.0515107 0 0 0 0.0513681 0 
trait 3 0.278906 0 0.00168418 0.489186 0.00351956 0.16285 0 0 
node 1 2 1 1
node 2 3 1 1
node 3 3 1 1
node 4 2 0 2
node 21 2 0 0
gene 1 1 4 -1.3069 0 1 -1.3069 1
gene 1 2 4 -2.7837 0 2 -2.7837 1
gene 3 3 4 -0.243736 0 3 -0.243736 0
gene 2 4 4 3.98998 1 41 3.98998 1
gene 3 2 21 1.77635 0 206 1.77635 1
gene 3 21 4 3.23745 0 207 3.23745 1
gene 1 1 21 2.76271 0 305 2.76271 1
gene 3 21 21 1.44601 1 354 1.44601 1
gene 1 3 21 -0.379996 0 511 -0.379996 1
genomeend 126

/* Organism #127 Fitness: 372.196 Error: 277.804 */
genomestart 127
trait 1 0.105004 0.000521838 0.0300275 0.000294894 0.00192429 0.00212282 0.0127261 0.00630409 
trait 2 0.206054 0.011719 0.0515107 0 0 0 0.0513681 0 
trait 3 0.278906 0 0.00168418 0.489186 0.00351956 0.16285 0 0 
node 1 2 1 1
node 2 3 1 1
node 3 3 1 1
node 4 2 0 2
node 21 2 0 0
gene 1 1 4 -1.55697 0 1 -1.55697 1
gene 1 2 4 -2.19927 0 2 -2.19927 1
gene 3 3 4 4.09127 0 3 4.09127 1
gene 2 4 4 3.24832 1 41 3.24832 1
gene 3 2 21 -1.20462 0 206 -1.20462 1
gene 3 21 4 2.32243 0 207 2.32243 1
gene 1 1 21 3.46528 0 305 3.46528 1
gene 3 21 21 0.25658 1 354 0.25658 1
gene 1 3 21 0.402074 0 511 0.402074 1
genomeend 127

/* Organism #128 Fitness: 492.207 Error: 157.793 */
genomestart 128
trait 1 0.105004 0.000521838 0.0300275 0.000294894 0.00192429 0.00212282 0.0127261 0.00630409 
trait 2 0.206054 0.011719 0.0515107 0 0 0 0.0513681 0 
trait 3 0.278906 0 0.00168418 0.489186 0.00351956 0.16285 0 0 
node 1 2 1 1
node 2 3 1 1
node 3 3 1 1
node 4 2 0 2
node 21 1 0 0
gene 1 1 4 -1.92288 0 1 -1.92288 1
gene 1 2 4 -1.35303 0 2 -1.35303 1
gene 3 3 4 5.81059 0 3 5.81059 1
gene 2 4 4 3.22919 1 41 3.22919 1
gene 3 2 21 2.34814 0 206 2.34814 1
gene 3 21 4 4.2897 0 207 4.2897 1
gene 1 1 21 2.38136 0 305 2.38136 1
gene 3 21 21 -0.678729 1 354 -0.678729 1
gene 1 3 21 -0.332846 0 511 -0.332846 1
genomeend 128

/* Organism #129 Fitness: 377.109 Error: 272.891 */
genomestart 129
trait 1 0.105004 0.000521838 0.0300275 0.000294894 0.00192429 0.00212282 0.0127261 0.00630409 
trait 2 0.206054 0.011719 0.0515107 0 0 0 0.0513681 0 
trait 3 0.278906 0 0.00168418 0.489186 0.00351956 0.16285 0 0 
node 1 2 1 1
node 2 3 1 1
node 3 3 1 1
node 4 2 0 2
node 21 1 0 0
gene 1 1 4 -0.735794 0 1 -0.735794 1
gene 1 2 4 -1.78303 0 2 -1.78303 1
gene 3 3 4 3.7612 0 3 3.7612 1
gene 2 4 4 3.65651 1 41 3.65651 1
gene 3 2 21 0.495667 0 206 0.495667 1
gene 3 21 4 0.399117 0 207 0.399117 1
gene 1 1 21 0.35077 0 305 0.35077 1
gene 3 21 21 -0.0725772 1 354 -0.0725772 1
gene 1 3 21 -0.138536 0 511 -0.138536 1
gene 3 4 21 -1.33453 1 1069 -1.33453 1
genomeend 129

/* Organism #130 Fitness: 178.495 Error: 471.505 */
genomestart 130
trait 1 0.105004 0.000521838 0.0300275 0.000294894 0.00192429 0.00212282 0.0127261 0.00630409 
trait 2 0.206054 0.011719 0.0515107 0 0 0 0.0513681 0 
trait 3 0.278906 0 0.00168418 0.489186 0.00351956 0.16285 0 0 
node 1 2 1 1
node 2 3 1 1
node 3 3 1 1
node 4 2 0 2
node 21 2 0 0
gene 1 1 4 -2.96829 0 1 -2.96829 1
gene 1 2 4 -3.93434 0 2 -3.93434 1
gene 3 3 4 2.75309 0 3 2.75309 0
gene 2 4 4 3.07434 1 41 3.07434 1
gene 3 2 21 0.383262 0 206 0.383262 1
gene 3 21 4 2.68671 0 207 2.68671 1
gene 1 1 21 4.67685 0 305 4.67685 1
gene 3 21 21 -0.711303 1 354 -0.711303 1
gene 1 3 21 -1.71195 0 511 -1.71195 1
genomeend 130

/* Organism #131 Fitness: 495.482 Error: 154.518 */
genomestart 131
trait 1 0.105004 0.000521838 0.0300275 0.000294894 0.00192429 0.00212282 0.0127261 0.00630409 
trait 2 0.206054 0.011719 0.0515107 0 0 0 0.0513681 0 
trait 3 0.278906 0 0.00168418 0.489186 0.00351956 0.16285 0 0 
node 1 2 1 1
node 2 3 1 1
node 3 3 1 1
node 4 2 0 2
node 21 1 0 0
gene 1 1 4 -0.935668 0 1 -0.935668 1
gene 1 2 4 -2.47554 0 2 -2.47554 1
gene 3 3 4 4.32 0 3 4.32 0
gene 2 4 4 2.8165 1 41 2.8165 1
gene 3 2 21 1.93272 0 206 1.93272 1
gene 3 21 4 3.23745 0 207 3.23745 1
gene 1 1 21 3.48623 0 305 3.48623 1
gene 3 21 21 0.647653 1 354 0.647653 1
gene 1 3 21 -1.52557 0 511 -1.52557 1
genomeend 131

/* Organism #132 Fitness: 273.527 Error: 376.473 */
genomestart 132
trait 1 0.105004 0.000521838 0.0300275 0.000294894 0.00192429 0.00212282 0.0127261 0.00630409 
trait 2 0.206054 0.011719 0.0515107 0 0 0 0.0513681 0 
trait 3 0.278906 0 0.00168418 0.489186 0.00351956 0.16285 0 0 
node 1 2 1 1
node 2 3 1 1
node 3 3 1 1
node 4 2 0 2
node 21 2 0 0
gene 1 1 4 1.03735 0 1 1.03735 1
gene 1 2 4 1.2811 0 2 1.2811 1
gene 3 3 4 -1.72672 0 3 -1.72672 0
gene 2 4 4 3.64868 1 41 3.64868 1
gene 3 2 21 -1.41027 0 206 -1.41027 1
gene 3 21 4 4.45545 0 207 4.45545 1
gene 1 1 21 1.11714 0 305 1.11714 1
gene 3 21 21 -2.49777 1 354 -2.49777 1
gene 1 3 21 0.764901 0 511 0.764901 1
genomeend 132

/* Organism #133 Fitness: 491.037 Error: 158.963 */
genomestart 133
trait 1 0.105004 0.000521838 0.0300275 0.000294894 0.00192429 0.00212282 0.0127261 0.00630409 
trait 2 0.206054 0.011719 0.0515107 0 0 0 0.0513681 0 
trait 3 0.278906 0 0.00168418 0.489186 0.00351956 0.16285 0 0 
node 1 2 1 1
node 2 3 1 1
node 3 3 1 1
node 4 2 0 2
node 21 2 0 0
gene 1 1 4 -1.08478 0 1 -1.08478 1
gene 1 2 4 -2.51135 0 2 -2.51135 1
gene 3 3 4 3.7612 0 3 3.7612 0
gene 2 4 4 3.64041 1 41 3.64041 1
gene 3 2 21 1.77635 0 206 1.77635 1
gene 3 21 4 3.23745 0 207 3.23745 1
gene 1 1 21 3.48623 0 305 3.48623 1
gene 3 21 21 0.647653 1 354 0.647653 1
gene 1 3 21 -1.52557 0 511 -1.52557 1
gene 1 4 21 -0.543428 1 1100 -0.543428 1
genomeend 133

/* Organism #134 Fitness: 480.276 Error: 169.724 */
genomestart 134
trait 1 0.105004 0.000521838 0.0300275 0.000294894 0.00192429 0.00212282 0.0127261 0.00630409 
trait 2 0.206054 0.011719 0.0515107 0 0 0 0.0513681 0 
trait 3 0.278906 0 0.00168418 0.489186 0.00351956 0.16285 0 0 
node 1 2 1 1
node 2 3 1 1
node 3 3 1 1
node 4 2 0 2
node 21 1 0 0
gene 1 1 4 -0.935668 0 1 -0.935668 1
gene 1 2 4 -2.47554 0 2 -2.47554 1
gene 3 3 4 4.32 0 3 4.32 0
gene 2 4 4 2.8165 1 41 2.8165 1
gene 3 2 21 1.93272 0 206 1.93272 1
gene 3 21 4 2.71125 0 207 2.71125 1
gene 1 1 21 2.03379 0 305 2.03379 1
gene 3 21 21 -0.0725772 1 354 -0.0725772 1
gene 1 3 21 -1.36786 0 511 -1.36786 1
gene 3 4 21 -0.972671 1 1069 -0.972671 1
genomeend 134

/* Organism #135 Fitness: 297.547 Error: 352.453 */
genomestart 135
trait 1 0.105004 0.000521838 0.0300275 0.000294894 0.00192429 0.00212282 0.0127261 0.00630409 
trait 2 0.206054 0.011719 0.0515107 0 0 0 0.0513681 0 
trait 3 0.278906 0 0.00168418 0.489186 0.00351956 0.16285 0 0 
node 1 2 1 1
node 2 3 1 1
node 3 1 1 1
node 4 2 0 2
node 21 2 0 0
gene 1 1 4 -1.08478 0 1 -1.08478 0
gene 1 2 4 -3.34512 0 2 -3.34512 1
gene 3 3 4 3.7612 0 3 3.7612 0
gene 2 4 4 4.52209 1 41 4.52209 1
gene 3 2 21 1.77635 0 206 1.77635 1
gene 3 21 4 3.23745 0 207 3.23745 1
gene 1 1 21 3.48623 0 305 3.48623 1
gene 3 21 21 0.647653 1 354 0.647653 1
gene 1 3 21 -1.52557 0 511 -1.52557 1
genomeend 135

/* Organism #136 Fitness: 501.096 Error: 148.904 */
genomestart 136
trait 1 0.105004 0.000521838 0.0300275 0.000294894 0.00192429 0.00212282 0.0127261 0.00630409 
trait 2 0.206054 0.011719 0.0515107 0 0 0 0.0513681 0 
trait 3 0.278906 0 0.00168418 0.489186 0.00351956 0.16285 0 0 
node 1 2 1 1
node 2 3 1 1
node 3 3 1 1
node 4 2 0 2
node 21 1 0 0
gene 1 1 4 -0.935668 0 1 -0.935668 1
gene 1 2 4 -2.47554 0 2 -2.47554 1
gene 3 3 4 4.32 0 3 4.32 0
gene 2 4 4 3.98998 1 41 3.98998 1
gene 3 2 21 1.93272 0 206 1.93272 1
gene 3 21 4 3.23745 0 207 3.23745 1
gene 1 1 21 2.03379 0 305 2.03379 1
gene 3 21 21 -0.0725772 1 354 -0.0725772 1
gene 1 3 21 -0.379996 0 511 -0.379996 1
genomeend 136

/* Species #18 : (Size 6) (AF 286.787) (Age 26)  */


/* Organism #137 Fitness: 413.197 Error: 236.803 */
genomestart 137
trait 1 0.310004 0.0292229 0.245148 0.016514 0.0091986 0 0.0817569 0.153823 
trait 2 0.206134 0 0.102784 0.146866 0 0.0609342 0.212963 0.122387 
trait 3 0.3 0 0 0 0.0559519 0 0 0 
node 1 3 1 1
node 2 1 1 1
node 3 2 1 1
node 4 1 0 2
node 16 1 0 0
gene 1 1 4 0.12694 0 1 0.12694 1
gene 3 2 4 -1.04402 0 2 -1.04402 1
gene 3 3 4 -6.53765 0 3 -6.53765 1
gene 1 4 4 1.62823 1 44 1.62823 1
gene 3 4 16 3.1093 1 141 3.1093 1
gene 1 16 4 4.28926 0 142 4.28926 1
gene 2 3 16 2.97448 0 348 2.97448 1
gene 2 16 16 0.128606 1 730 0.128606 1
gene 3 2 16 -1.33034 0 915 -1.33034 1
genomeend 137

/* Organism #138 Fitness: 437.888 Error: 212.112 */
genomestart 138
trait 1 0.310004 0.0292229 0.245148 0.016514 0.0091986 0 0.0817569 0.153823 
trait 2 0.206134 0 0.102784 0.146866 0 0.0609342 0.212963 0.122387 
trait 3 0.3 0 0 0 0.0559519 0 0 0 
node 1 3 1 1
node 2 1 1 1
node 3 2 1 1
node 4 1 0 2
node 16 1 0 0
gene 1 1 4 0.452989 0 1 0.452989 1
gene 3 2 4 -1.11504 0 2 -1.11504 1
gene 3 3 4 -7.81602 0 3 -7.81602 1
gene 1 4 4 -0.548698 1 44 -0.548698 1
gene 1 4 16 1.46121 1 141 1.46121 1
gene 1 16 4 1.6824 0 142 1.6824 1
gene 2 3 16 4.01027 0 348 4.01027 1
gene 2 16 16 0.11257 1 730 0.11257 1
gene 1 2 16 -0.39339 0 956 -0.39339 1
gene 1 1 16 0.467354 0 1070 0.467354 1
genomeend 138

/* Organism #139 Fitness: 2.33939 Error: 647.661 */
genomestart 139
trait 1 0.310004 0.0292229 0.245148 0.016514 0.0091986 0 0.0817569 0.153823 
trait 2 0.206134 0 0.102784 0.146866 0 0.0609342 0.212963 0.122387 
trait 3 0.3 0 0 0 0.0559519 0 0 0 
node 1 3 1 1
node 2 1 1 1
node 3 2 1 1
node 4 1 0 2
node 16 1 0 0
gene 1 1 4 -0.547675 0 1 -0.547675 1
gene 3 2 4 0.191768 0 2 0.191768 1
gene 3 3 4 -7.31255 0 3 -7.31255 1
gene 1 4 4 0.665311 1 44 0.665311 1
gene 3 4 16 4.6061 1 141 4.6061 1
gene 1 16 4 3.19311 0 142 3.19311 1
gene 2 3 16 1.76086 0 348 1.76086 1
gene 2 16 16 0.0112969 1 730 0.0112969 1
gene 3 2 16 -1.02891 0 915 -1.02891 1
genomeend 139

/* Organism #140 Fitness: 438.425 Error: 211.575 */
genomestart 140
trait 1 0.443449 0.0292229 0 0 0.0091986 0.947198 0.0817569 0.153823 
trait 2 0.206134 0 0.102784 0.146866 0 0.0609342 0.212963 0.122387 
trait 3 0.3 0 0 0 0.0559519 0 0 0 
node 1 3 1 1
node 2 1 1 1
node 3 2 1 1
node 4 1 0 2
node 16 1 0 0
gene 1 1 4 0.125181 0 1 0.125181 1
gene 3 2 4 -0.345898 0 2 -0.345898 1
gene 3 3 4 -6.63479 0 3 -6.63479 1
gene 1 4 4 0.791962 1 44 0.791962 1
gene 3 4 16 3.1093 1 141 3.1093 1
gene 1 16 4 4.28926 0 142 4.28926 1
gene 2 3 16 2.40259 0 348 2.40259 1
gene 2 16 16 0.265172 1 730 0.265172 0
gene 1 2 16 -0.262793 0 956 -0.262793 1
gene 1 1 16 -0.26121 0 1070 -0.26121 1
genomeend 140

/* Organism #141 Fitness: 426.531 Error: 223.469 */
genomestart 141
trait 1 0.310004 0.0292229 0.245148 0.016514 0.0091986 0 0.0817569 0.153823 
trait 2 0.206134 0 0.102784 0.146866 0 0.0609342 0.212963 0.122387 
trait 3 0.3 0 0 0 0.0559519 0 0 0 
node 1 3 1 1
node 2 1 1 1
node 3 2 1 1
node 4 1 0 2
node 16 1 0 0
gene 1 1 4 0.125181 0 1 0.125181 1
gene 3 2 4 -0.345898 0 2 -0.345898 1
gene 3 3 4 -6.63479 0 3 -6.63479 1
gene 1 4 4 0.791962 1 44 0.791962 1
gene 1 4 16 0.924756 1 141 0.924756 1
gene 1 16 4 3.64301 0 142 3.64301 1
gene 2 3 16 2.40259 0 348 2.40259 1
gene 2 16 16 0.265172 1 730 0.265172 1
gene 1 2 16 -0.262793 0 956 -0.262793 1
gene 1 1 16 -0.26121 0 1070 -0.26121 1
genomeend 141

/* Organism #142 Fitness: 2.33939 Error: 647.661 */
genomestart 142
trait 1 0.310004 0.0292229 0.245148 0.016514 0.0091986 0 0.0817569 0.153823 
trait 2 0.206134 0 0.102784 0.146866 0 0.0609342 0.212963 0.122387 
trait 3 0.3 0 0 0 0.0559519 0 0 0 
node 1 3 1 1
node 2 1 1 1
node 3 2 1 1
node 4 1 0 2
node 16 1 0 0
gene 1 1 4 -1.37923 0 1 -1.37923 1
gene 3 2 4 -0.993554 0 2 -0.993554 1
gene 3 3 4 -7.50389 0 3 -7.50389 1
gene 1 4 4 2.2362 1 44 2.2362 1
gene 3 4 16 3.10148 1 141 3.10148 1
gene 1 16 4 4.70899 0 142 4.70899 1
gene 2 3 16 2.6651 0 348 2.6651 1
gene 2 16 16 1.61854 1 730 1.61854 1
gene 3 2 16 -2.09874 0 915 -2.09874 1
gene 2 1 16 -0.570397 0 1041 -0.570397 1
genomeend 142

/* Species #19 : (Size 11) (AF 263.253) (Age 26)  */


/* Organism #143 Fitness: 433.345 Error: 216.655 */
genomestart 143
trait 1 0.268956 0.451378 0.442469 0.00318854 0.00293345 0 0.0525626 0.0617511 
trait 2 0.180364 0.19075 0.155637 0.0453815 0 0.0114252 0.504493 0.0344214 
trait 3 0.334983 0 0.00672043 0 0.0653802 0 0 0 
node 1 2 1 1
node 2 1 1 1
node 3 2 1 1
node 4 2 0 2
node 12 1 0 0
gene 1 1 4 1.0413 0 1 1.0413 1
gene 3 2 4 2.99047 0 2 2.99047 1
gene 3 3 4 -4.69571 0 3 -4.69571 1
gene 3 3 12 2.86495 0 108 2.86495 1
gene 3 12 4 2.0462 0 109 2.0462 1
gene 3 1 12 -0.205597 0 356 -0.205597 1
gene 1 4 4 0.217323 1 483 0.217323 0
gene 1 12 12 2.06127 1 649 2.06127 1
gene 3 2 12 -0.0169988 0 778 -0.0169988 1
gene 3 4 12 0.265111 1 874 0.265111 1
genomeend 143

/* Organism #144 Fitness: 2.33939 Error: 647.661 */
genomestart 144
trait 1 0.268956 0.451378 0.442469 0.00318854 0.00293345 0 0.0525626 0.0617511 
trait 2 0.180364 0.19075 0.155637 0.0453815 0 0.0114252 0.504493 0.0344214 
trait 3 0.334983 0 0.00672043 0 0.0653802 0 0 0 
node 1 2 1 1
node 2 1 1 1
node 3 2 1 1
node 4 3 0 2
node 12 1 0 0
gene 2 1 4 -0.47957 0 1 -0.47957 1
gene 3 2 4 1.79683 0 2 1.79683 1
gene 3 3 4 -4.69571 0 3 -4.69571 1
gene 3 3 12 5.34481 0 108 5.34481 1
gene 3 12 4 1.81452 0 109 1.81452 1
gene 3 1 12 -1.19212 0 356 -1.19212 1
gene 1 4 4 0.808968 1 483 0.808968 1
gene 1 12 12 2.07688 1 649 2.07688 1
gene 3 2 12 1.1991 0 778 1.1991 1
gene 3 4 12 -0.487979 1 874 -0.487979 1
genomeend 144

/* Organism #145 Fitness: 319.363 Error: 330.637 */
genomestart 145
trait 1 0.268956 0.451378 0.442469 0.00318854 0.00293345 0 0.0525626 0.0617511 
trait 2 0.180364 0.0953752 0.181576 0.0502281 0 0.0133294 0.504493 0.0401582 
trait 3 0.334983 0 0.00672043 0 0.0653802 0 0 0 
node 1 2 1 1
node 2 1 1 1
node 3 2 1 1
node 4 2 0 2
node 12 1 0 0
gene 1 1 4 2.39543 0 1 2.39543 1
gene 3 2 4 2.99047 0 2 2.99047 1
gene 3 3 4 0.697739 0 3 0.697739 1
gene 3 3 12 3.71874 0 108 3.71874 1
gene 3 12 4 3.09522 0 109 3.09522 1
gene 3 1 12 -1.15137 0 356 -1.15137 1
gene 1 4 4 0.770755 1 483 0.770755 1
gene 1 12 12 -0.00929942 1 649 -0.00929942 1
gene 3 2 12 -0.271135 0 778 -0.271135 1
gene 3 4 12 -1.53192 1 874 -1.53192 1
genomeend 145

/* Organism #146 Fitness: 273.624 Error: 376.376 */
genomestart 146
trait 1 0.268956 0.451378 0.442469 0.00318854 0.00293345 0 0.0525626 0.0617511 
trait 2 0.180364 0.19075 0.155637 0.0453815 0 0.0114252 0.504493 0.0344214 
trait 3 0.334983 0 0.00672043 0 0.0653802 0 0 0 
node 1 2 1 1
node 2 1 1 1
node 3 2 1 1
node 4 2 0 2
node 12 1 0 0
gene 1 1 4 2.34563 0 1 2.34563 1
gene 3 2 4 3.05367 0 2 3.05367 1
gene 3 3 4 -3.77814 0 3 -3.77814 1
gene 3 3 12 2.67164 0 108 2.67164 1
gene 3 12 4 0.699905 0 109 0.699905 1
gene 3 1 12 1.00033 0 356 1.00033 1
gene 1 4 4 -1.09357 1 483 -1.09357 1
gene 1 12 12 1.776 1 649 1.776 1
gene 3 2 12 -0.640867 0 778 -0.640867 1
gene 3 4 12 0.265111 1 874 0.265111 1
genomeend 146

/* Organism #147 Fitness: 431.648 Error: 218.352 */
genomestart 147
trait 1 0.268956 0.451378 0.442469 0.00318854 0.00293345 0 0.0525626 0.0617511 
trait 2 0.180364 0.19075 0.155637 0.0453815 0 0.0114252 0.504493 0.0344214 
trait 3 0.334983 0 0.00672043 0 0.0653802 0 0 0 
node 1 2 1 1
node 2 1 1 1
node 3 2 1 1
node 4 2 0 2
node 12 1 0 0
gene 1 1 4 1.0413 0 1 1.0413 1
gene 3 2 4 2.99047 0 2 2.99047 1
gene 3 3 4 -4.69571 0 3 -4.69571 1
gene 3 3 12 2.86495 0 108 2.86495 1
gene 3 12 4 1.81452 0 109 1.81452 1
gene 3 1 12 -0.205597 0 356 -0.205597 1
gene 1 4 4 0.217323 1 483 0.217323 0
gene 1 12 12 2.06127 1 649 2.06127 1
gene 3 2 12 1.43491 0 778 1.43491 1
gene 3 4 12 0.265111 1 874 0.265111 1
genomeend 147

/* Organism #148 Fitness: 175.922 Error: 474.078 */
genomestart 148
trait 1 0.268956 0.451378 0.442469 0.00318854 0.00293345 0 0.0525626 0.0617511 
trait 2 0.180364 0.19075 0.155637 0.0453815 0 0.0114252 0.504493 0.0344214 
trait 3 0.334983 0 0.00672043 0 0.0653802 0 0 0 
node 1 2 1 1
node 2 1 1 1
node 3 2 1 1
node 4 2 0 2
node 12 1 0 0
gene 1 1 4 0.249812 0 1 0.249812 1
gene 3 2 4 1.59177 0 2 1.59177 1
gene 3 3 4 -2.94073 0 3 -2.94073 1
gene 3 3 12 4.57253 0 108 4.57253 1
gene 3 12 4 1.7569 0 109 1.7569 1
gene 3 1 12 -0.234494 0 356 -0.234494 1
gene 1 4 4 -0.832145 1 483 -0.832145 1
gene 1 12 12 -0.472662 1 649 -0.472662 1
gene 3 2 12 1.06778 0 778 1.06778 0
gene 3 4 12 0.00609701 1 874 0.00609701 1
genomeend 148

/* Organism #149 Fitness: 423.448 Error: 226.552 */
genomestart 149
trait 1 0.268956 0.451378 0.442469 0.00318854 0.00293345 0 0.0525626 0.0617511 
trait 2 0.180364 0.0953752 0.181576 0.0502281 0 0.0133294 0.504493 0.0401582 
trait 3 0.334983 0 0.00672043 0 0.0653802 0 0 0 
node 1 2 1 1
node 2 1 1 1
node 3 2 1 1
node 4 2 0 2
node 12 1 0 0
gene 3 1 4 0.996717 0 1 0.996717 1
gene 3 2 4 0.374745 0 2 0.374745 1
gene 3 3 4 -4.69571 0 3 -4.69571 1
gene 3 3 12 4.57253 0 108 4.57253 1
gene 3 12 4 1.81452 0 109 1.81452 1
gene 3 1 12 -0.122272 0 356 -0.122272 1
gene 1 4 4 0.217323 1 483 0.217323 1
gene 1 12 12 0.27743 1 649 0.27743 1
gene 3 2 12 1.43491 0 778 1.43491 1
gene 3 4 12 -0.894959 1 874 -0.894959 1
genomeend 149

/* Organism #150 Fitness: 2.33939 Error: 647.661 */
genomestart 150
trait 1 0.268956 0.451378 0.442469 0.00318854 0.00293345 0 0.0525626 0.0617511 
trait 2 0.180364 0.19075 0.155637 0.0453815 0 0.0114252 0.504493 0.0344214 
trait 3 0.334983 0 0.00672043 0 0.0653802 0 0 0 
node 1 2 1 1
node 2 1 1 1
node 3 2 1 1
node 4 2 0 2
node 12 1 0 0
gene 3 1 4 0.203519 0 1 0.203519 0
gene 3 2 4 2.83827 0 2 2.83827 1
gene 3 3 4 -6.3627 0 3 -6.3627 1
gene 3 3 12 2.28866 0 108 2.28866 1
gene 3 12 4 -0.750895 0 109 -0.750895 1
gene 3 1 12 -1.95343 0 356 -1.95343 1
gene 1 4 4 2.90423 1 483 2.90423 0
gene 1 12 12 1.6982 1 649 1.6982 1
gene 3 2 12 0.00667356 0 778 0.00667356 1
gene 3 4 12 0.265111 1 874 0.265111 1
genomeend 150

/* Organism #151 Fitness: 2.33939 Error: 647.661 */
genomestart 151
trait 1 0.268956 0.451378 0.442469 0.00318854 0.00293345 0 0.0525626 0.0617511 
trait 2 0.180364 0.19075 0.155637 0.0453815 0 0.0114252 0.504493 0.0344214 
trait 3 0.334983 0 0.00672043 0 0.0653802 0 0 0 
node 1 2 1 1
node 2 1 1 1
node 3 2 1 1
node 4 2 0 2
node 12 1 0 0
gene 3 1 4 -0.117992 0 1 -0.117992 1
gene 3 2 4 1.83016 0 2 1.83016 1
gene 3 3 4 0.684326 0 3 0.684326 1
gene 3 3 12 1.81755 0 108 1.81755 1
gene 3 12 4 -0.0490101 0 109 -0.0490101 1
gene 3 1 12 0.132316 0 356 0.132316 1
gene 1 4 4 -0.479953 1 483 -0.479953 0
gene 1 12 12 1.55891 1 649 1.55891 1
gene 3 2 12 -0.0169988 0 778 -0.0169988 1
gene 3 4 12 -0.999014 1 874 -0.999014 1
genomeend 151

/* Organism #152 Fitness: 432.8 Error: 217.2 */
genomestart 152
trait 1 0.268956 0.451378 0.442469 0.00318854 0.00293345 0 0.0525626 0.0617511 
trait 2 0.180364 0.19075 0.155637 0.0453815 0 0.0114252 0.504493 0.0344214 
trait 3 0.334983 0 0.00672043 0 0.0653802 0 0 0 
node 1 2 1 1
node 2 1 1 1
node 3 2 1 1
node 4 2 0 2
node 12 1 0 0
gene 1 1 4 1.0413 0 1 1.0413 1
gene 3 2 4 2.99047 0 2 2.99047 1
