
/* Species #249 : (Size 1) (AF 494.078) (Age 38)  */


/* Organism #0 Fitness: 494.078 Error: 155.922 */
genomestart 0
trait 1 0.250954 0.00644938 0.298239 0.00251657 0.0136602 0.227402 0.519822 0.0137988 
trait 2 0.216677 0.0363283 0.0663577 0.0447687 0.072475 0.159858 0.345853 0.0288063 
trait 3 0.66307 0.208185 0.119016 0 0.638725 0.0526922 0 0 
node 1 3 1 1
node 2 3 1 1
node 3 2 1 1
node 4 2 0 2
node 12 3 0 0
node 38 1 0 0
node 77 1 0 0
node 168 1 0 0
node 230 1 0 0
node 327 1 0 0
gene 1 1 4 -2.02119 0 1 -2.02119 1
gene 3 2 4 1.26112 0 2 1.26112 0
gene 2 3 4 -2.3843 0 3 -2.3843 1
gene 3 3 12 0.669087 0 108 0.669087 0
gene 3 12 4 -0.402859 0 109 -0.402859 0
gene 1 2 12 -1.4164 0 213 -1.4164 0
gene 3 1 12 4.57915 0 224 4.57915 1
gene 1 4 12 -2.21809 1 306 -2.21809 0
gene 3 1 38 -3.228 0 419 -3.228 0
gene 3 38 12 2.01023 0 420 2.01023 1
gene 2 2 38 -1.60987 0 494 -1.60987 0
gene 2 38 4 1.86963 0 696 1.86963 0
gene 3 38 77 4.51364 0 994 4.51364 0
gene 3 77 12 2.64365 0 995 2.64365 0
gene 3 2 77 0.917104 0 1765 0.917104 0
gene 1 77 77 3.26551 1 1813 3.26551 1
gene 2 38 38 0.627136 1 1901 0.627136 0
gene 3 12 168 -1.03813 0 1937 -1.03813 0
gene 3 168 4 0.829637 0 1938 0.829637 1
gene 2 3 168 1.28363 0 2096 1.28363 1
gene 2 1 168 0.304269 0 2131 0.304269 1
gene 3 2 168 0.509555 0 2329 0.509555 1
gene 2 38 230 -0.0595505 0 2460 -0.0595505 1
gene 2 230 4 4.63838 0 2461 4.63838 1
gene 2 77 4 -0.581046 0 2768 -0.581046 1
gene 2 3 38 1.26271 0 2818 1.26271 0
gene 1 12 230 0.89152 0 2860 0.89152 0
gene 3 1 230 0.70082 0 2896 0.70082 1
gene 2 12 77 0.956882 1 3023 0.956882 1
gene 3 168 230 0.841618 0 3050 0.841618 1
gene 2 77 168 0.524561 0 3168 0.524561 1
gene 2 3 230 -1.39586 0 3268 -1.39586 1
gene 3 77 230 -0.196649 0 3411 -0.196649 1
gene 2 2 230 1.04375 0 3515 1.04375 1
gene 1 3 77 -0.893349 0 3571 -0.893349 1
gene 2 168 38 0.363078 0 3637 0.363078 1
gene 3 2 327 1 0 3741 1 1
gene 3 327 77 1.8178 0 3742 1.8178 1
genomeend 0

/* Species #254 : (Size 169) (AF 438.999) (Age 11)  */


/* Organism #1 Fitness: 510.688 Error: 139.312 */
genomestart 1
trait 1 0.096993 0.00933408 0.216351 0.0148198 0.0670884 0.0174233 0.545934 0.0231276 
trait 2 0.204932 0.0512286 0.10499 0.0565035 0.0550925 0.32822 0.121249 0.0963536 
trait 3 0.675825 0.180406 0.120955 0.0259363 0.313443 0.052981 0.0173218 0.112482 
node 1 3 1 1
node 2 3 1 1
node 3 2 1 1
node 4 2 0 2
node 12 1 0 0
node 38 1 0 0
node 77 1 0 0
node 168 1 0 0
node 230 1 0 0
node 276 1 0 0
gene 1 1 4 -0.501854 0 1 -0.501854 1
gene 3 2 4 1.45569 0 2 1.45569 1
gene 2 3 4 -5.32455 0 3 -5.32455 1
gene 3 3 12 -0.998654 0 108 -0.998654 0
gene 3 12 4 -2.55172 0 109 -2.55172 1
gene 1 2 12 -0.60124 0 213 -0.60124 0
gene 3 1 12 5.85533 0 224 5.85533 0
gene 1 4 12 -0.00219996 1 306 -0.00219996 1
gene 3 1 38 -0.391079 0 419 -0.391079 0
gene 3 38 12 1.16661 0 420 1.16661 1
gene 2 2 38 -0.844326 0 494 -0.844326 0
gene 2 38 4 1.19686 0 696 1.19686 0
gene 3 38 77 2.0184 0 994 2.0184 0
gene 3 77 12 1.84907 0 995 1.84907 0
gene 3 2 77 0.918855 0 1765 0.918855 1
gene 1 77 77 1.47294 1 1813 1.47294 1
gene 2 38 38 1.42056 1 1901 1.42056 0
gene 3 12 168 1.9727 0 1937 1.9727 0
gene 3 168 4 3.43073 0 1938 3.43073 1
gene 2 3 168 -0.598154 0 2096 -0.598154 1
gene 2 1 168 1.68752 0 2131 1.68752 1
gene 3 2 168 0.592427 0 2329 0.592427 1
gene 2 38 230 1.14388 0 2460 0.968225 0
gene 2 230 4 0.658268 0 2461 0.658268 1
gene 2 77 4 1.06462 0 2768 1.06462 1
gene 2 3 38 1.05198 0 2818 1.05198 0
gene 1 12 230 0.897658 0 2860 0.884734 0
gene 1 1 77 0.142756 0 2897 0.142756 0
gene 2 168 168 0.495795 1 2929 0.495795 1
gene 3 2 276 1.32599 0 2973 1.07599 0
gene 3 276 4 0.0569327 0 2974 -0.0902907 1
gene 1 168 77 -0.85496 1 3019 -0.85496 1
gene 2 4 230 1.35636 1 3101 1.35636 1
gene 1 3 276 0.420237 0 3247 0.420237 1
gene 2 77 230 0.880895 0 3364 0.676812 1
gene 2 38 168 -0.0699032 0 3415 -0.39925 0
gene 1 2 230 0.91498 0 3462 0.732637 1
gene 3 230 276 -0.771436 0 3593 -0.771436 1
gene 2 168 77 -0.931986 0 3631 0 1
gene 1 276 12 0.0545253 0 4069 0.0545253 1
genomeend 1

/* Organism #2 Fitness: 501.33 Error: 148.67 */
genomestart 2
trait 1 0.0932943 0.00809154 0.248268 0.0122593 0.0889816 0.0161194 0.549949 0.0189271 
trait 2 0.206167 0.0372867 0.110499 0.0490581 0.0554693 0.251536 0.0894351 0.0675371 
trait 3 0.685088 0.179852 0.123122 0.0241082 0.308512 0.0526756 0.0207019 0.106753 
node 1 3 1 1
node 2 3 1 1
node 3 3 1 1
node 4 2 0 2
node 12 1 0 0
node 38 1 0 0
node 77 1 0 0
node 168 1 0 0
node 230 1 0 0
node 276 1 0 0
gene 1 1 4 -0.57509 0 1 -0.57509 1
gene 3 2 4 0.601985 0 2 0.601985 1
gene 2 3 4 -4.85945 0 3 -4.85945 1
gene 3 3 12 -1.91469 0 108 -1.91469 1
gene 3 12 4 -3.26732 0 109 -3.26732 1
gene 1 2 12 2.21999 0 213 2.21999 1
gene 3 1 12 2.68023 0 224 2.68023 1
gene 1 4 12 0.669627 1 306 0.669627 1
gene 3 1 38 -0.923472 0 419 -0.923472 0
gene 3 38 12 1.17081 0 420 1.17081 0
gene 2 2 38 -1.86189 0 494 -1.86189 0
gene 2 38 4 2.23076 0 696 2.23076 0
gene 3 38 77 1.42288 0 994 1.42288 0
gene 3 77 12 1.66743 0 995 1.66743 0
gene 3 2 77 0.651969 0 1765 0.651969 0
gene 1 77 77 1.54547 1 1813 1.54547 1
gene 2 38 38 2.35571 1 1901 2.35571 1
gene 3 12 168 2.54094 0 1937 2.54094 0
gene 3 168 4 3.65015 0 1938 3.65015 1
gene 2 3 168 -0.0396492 0 2096 -0.0396492 1
gene 2 1 168 0.960781 0 2131 0.960781 1
gene 1 2 168 1.10406 0 2329 1.10406 1
gene 2 38 230 -0.220861 0 2460 -0.224278 0
gene 2 230 4 1.26622 0 2461 1.26622 1
gene 2 77 4 0.840571 0 2768 0.840571 1
gene 2 3 38 0.707366 0 2818 0.707366 0
gene 1 12 230 1.54971 0 2860 1.53679 1
gene 1 1 77 0.718292 0 2897 0.718292 1
gene 2 168 168 2.43908 1 2929 2.43908 1
gene 3 2 276 1.72856 0 2973 1.72856 0
gene 3 276 4 1.19984 0 2974 0.905391 1
gene 1 168 77 2.19474 1 3019 2.19474 1
gene 2 4 230 1.45924 1 3101 1.45924 1
gene 1 3 276 1.36616 0 3247 1.36616 1
gene 2 77 230 0.816333 0 3364 0.816333 1
gene 2 38 168 0.439129 0 3415 0 0
gene 1 2 230 0.243123 0 3462 0 1
gene 3 230 276 -0.940203 0 3593 -0.940203 1
gene 2 168 77 -0.931986 0 3631 0 1
genomeend 2

/* Organism #3 Fitness: 180.133 Error: 469.867 */
genomestart 3
trait 1 0.096993 0.00933408 0.216351 0.0148198 0.0670884 0.0174233 0.545934 0.0231276 
trait 2 0.204932 0.0512286 0.10499 0.0565035 0.0550925 0.32822 0.121249 0.0963536 
trait 3 0.675825 0.180406 0.120955 0.0259363 0.313443 0.052981 0.0173218 0.112482 
node 1 3 1 1
node 2 3 1 1
node 3 2 1 1
node 4 2 0 2
node 12 1 0 0
node 38 1 0 0
node 77 1 0 0
node 168 1 0 0
node 230 1 0 0
node 276 1 0 0
gene 1 1 4 -1.27531 0 1 -1.27531 1
gene 3 2 4 -0.159209 0 2 -0.159209 1
gene 2 3 4 -4.60482 0 3 -4.60482 1
gene 3 3 12 -1.14375 0 108 -1.14375 0
gene 3 12 4 -1.89163 0 109 -1.89163 1
gene 1 2 12 1.15648 0 213 1.15648 0
gene 3 1 12 5.9624 0 224 5.9624 0
gene 1 4 12 0.460743 1 306 0.460743 1
gene 3 1 38 -1.68744 0 419 -1.68744 0
gene 3 38 12 0.166041 0 420 0.166041 1
gene 2 2 38 -2.14981 0 494 -2.14981 0
gene 2 38 4 1.36839 0 696 1.36839 0
gene 3 38 77 2.65684 0 994 2.65684 0
gene 3 77 12 0.395906 0 995 0.395906 0
gene 3 2 77 -0.478314 0 1765 -0.478314 1
gene 1 77 77 2.03383 1 1813 2.03383 1
gene 2 38 38 0.182738 1 1901 0.182738 0
gene 3 12 168 3.37107 0 1937 3.37107 0
gene 3 168 4 4.90444 0 1938 4.90444 1
gene 2 3 168 -0.645183 0 2096 -0.645183 1
gene 2 1 168 1.70398 0 2131 1.70398 1
gene 3 2 168 0.239466 0 2329 0.239466 1
gene 2 38 230 2.76428 0 2460 2.76428 0
gene 2 230 4 0.11446 0 2461 0.11446 1
gene 2 77 4 -0.402612 0 2768 -0.402612 1
gene 2 3 38 -0.374225 0 2818 -0.374225 0
gene 1 12 230 0.936449 0 2860 0.936449 0
gene 1 1 77 1.13084 0 2897 1.13084 0
gene 2 168 168 -0.304003 1 2929 -0.304003 1
gene 3 2 276 -0.1859 0 2973 -0.1859 0
gene 3 276 4 0.342667 0 2974 0.342667 1
gene 1 168 77 -0.235076 1 3019 -0.235076 1
gene 2 4 230 1.51549 1 3101 1.51549 1
gene 1 3 276 0.420237 0 3247 0.420237 1
gene 2 77 230 0.880895 0 3364 0.880895 1
gene 2 38 168 -0.0699032 0 3415 -0.0699032 0
gene 1 2 230 2.56747 0 3462 2.56747 1
gene 3 230 276 -0.119152 0 3593 -0.119152 1
gene 2 168 77 -0.926943 0 3631 -0.926943 1
gene 1 276 12 1.10793 0 4069 1.10793 1
genomeend 3

/* Organism #4 Fitness: 178.729 Error: 471.271 */
genomestart 4
trait 1 0.0999938 0.00994987 0.19378 0.0157816 0.0490636 0.0170518 0.543435 0.0251015 
trait 2 0.200722 0.0648222 0.103711 0.0644508 0.0541414 0.391718 0.147055 0.125034 
trait 3 0.662967 0.180441 0.123426 0.0285324 0.317284 0.0529584 0.0204429 0.115705 
node 1 3 1 1
node 2 3 1 1
node 3 3 1 1
node 4 2 0 2
node 12 1 0 0
node 38 1 0 0
node 77 1 0 0
node 168 1 0 0
node 230 1 0 0
node 276 1 0 0
gene 1 1 4 -0.590732 0 1 -0.590732 1
gene 3 2 4 0.818119 0 2 0.818119 0
gene 2 3 4 -3.519 0 3 -3.519 1
gene 3 3 12 -0.311398 0 108 -0.311398 0
gene 3 12 4 -3.34103 0 109 -3.34103 0
gene 1 2 12 0.459924 0 213 0.459924 0
gene 3 1 12 5.23683 0 224 5.23683 1
gene 1 4 12 0.915687 1 306 0.915687 0
gene 3 1 38 -2.16176 0 419 -2.16176 0
gene 3 38 12 1.44276 0 420 1.44276 0
gene 2 2 38 -0.21463 0 494 -0.21463 0
gene 2 38 4 1.98032 0 696 1.98032 0
gene 3 38 77 1.95224 0 994 1.95224 0
gene 3 77 12 2.77974 0 995 2.77974 0
gene 3 2 77 0.221553 0 1765 0.221553 1
gene 1 77 77 2.66087 1 1813 2.66087 1
gene 2 38 38 0.874211 1 1901 0.874211 0
gene 3 12 168 1.82758 0 1937 1.82758 0
gene 3 168 4 1.61213 0 1938 1.61213 1
gene 2 3 168 -1.55368 0 2096 -1.55368 0
gene 2 1 168 0.735368 0 2131 0.735368 1
gene 3 2 168 1.57965 0 2329 1.57965 1
gene 2 38 230 0.590084 0 2460 0.590084 0
gene 2 230 4 -0.87105 0 2461 -0.87105 1
gene 2 77 4 1.38147 0 2768 1.38147 1
gene 2 3 38 0.824283 0 2818 0.824283 0
gene 1 12 230 2.94888 0 2860 2.94888 1
gene 1 1 77 1.69386 0 2897 1.69386 0
gene 2 168 168 0.0527004 1 2929 0.0527004 1
gene 3 2 276 2.59097 0 2973 2.59097 1
gene 3 276 4 -0.492034 0 2974 -0.492034 1
gene 1 168 77 -0.206765 1 3019 -0.206765 1
gene 2 4 230 3.9321 1 3101 3.9321 1
gene 2 168 230 -1.80239 0 3149 -1.80239 1
gene 1 3 230 -1.08199 0 3190 -1.08199 1
gene 2 276 168 -0.448739 0 3340 -0.448739 1
gene 2 276 276 -0.767643 1 3391 -0.767643 1
gene 1 3 77 0.704602 0 3571 0.704602 1
gene 2 12 12 1.32553 1 3762 1.32553 1
gene 1 230 230 1.41293 1 4125 1.41293 1
genomeend 4

/* Organism #5 Fitness: 175.688 Error: 474.312 */
genomestart 5
trait 1 0.0989077 0.00947256 0.199934 0.0170232 0.0491196 0.0176109 0.548382 0.0284337 
trait 2 0.205035 0.037418 0.108079 0.0398697 0.0550225 0.207565 0.0640419 0.0384371 
trait 3 0.66791 0.180188 0.121483 0.0254352 0.314262 0.0524721 0.0183718 0.114831 
node 1 3 1 1
node 2 3 1 1
node 3 2 1 1
node 4 2 0 2
node 12 1 0 0
node 38 1 0 0
node 77 1 0 0
node 168 1 0 0
node 230 1 0 0
node 276 1 0 0
gene 1 1 4 -2.64211 0 1 -2.64211 1
gene 3 2 4 0.798284 0 2 0.798284 0
gene 2 3 4 -4.50349 0 3 -4.50349 1
gene 3 3 12 1.26209 0 108 1.26209 0
gene 3 12 4 -2.87688 0 109 -2.87688 1
gene 1 2 12 0.85953 0 213 0.85953 1
gene 3 1 12 6.38242 0 224 6.38242 0
gene 1 4 12 0.671286 1 306 0.671286 0
gene 3 1 38 -3.15085 0 419 -3.15085 0
gene 3 38 12 1.58636 0 420 1.58636 1
gene 2 2 38 -2.82589 0 494 -2.82589 0
gene 2 38 4 1.38396 0 696 1.38396 1
gene 3 38 77 0.915934 0 994 0.915934 0
gene 3 77 12 2.00614 0 995 2.00614 0
gene 3 2 77 -1.7277 0 1765 -1.7277 0
gene 1 77 77 0.78606 1 1813 0.78606 1
gene 2 38 38 2.16438 1 1901 2.16438 1
gene 3 12 168 1.59032 0 1937 1.59032 1
gene 3 168 4 1.20666 0 1938 1.20666 1
gene 2 3 168 3.07171 0 2096 3.07171 0
gene 2 1 168 0.441847 0 2131 0.441847 1
gene 3 2 168 0.232272 0 2329 0.232272 1
gene 2 38 230 -1.29455 0 2460 -1.29455 1
gene 2 230 4 0.480176 0 2461 0.480176 0
gene 2 77 4 0.0116033 0 2768 0.0116033 1
gene 2 3 38 2.93947 0 2818 2.93947 0
gene 1 12 230 -1.2882 0 2860 -1.2882 1
gene 1 1 77 -0.384301 0 2897 -0.384301 0
gene 2 168 168 0.832841 1 2929 0.832841 1
gene 3 2 276 0.0670956 0 2973 0.0670956 1
gene 3 276 4 0.118899 0 2974 0.118899 1
gene 1 168 77 -0.674144 1 3019 -0.674144 1
gene 2 4 230 0.678447 1 3101 0.678447 0
gene 1 3 276 -0.643811 0 3247 -0.643811 1
gene 2 77 230 2.59838 0 3364 2.59838 1
gene 2 38 168 1.66204 0 3415 1.66204 1
gene 1 2 230 0.985181 0 3462 0.985181 1
gene 3 230 276 -0.146364 0 3593 -0.146364 1
gene 1 168 230 4.04007 0 3629 4.04007 1
gene 3 38 276 3.29431 0 3738 3.29431 1
gene 3 1 230 0.471951 0 3834 0.471951 1
gene 1 77 168 -1.21641 0 4131 -1.21641 1
genomeend 5

/* Organism #6 Fitness: 340.848 Error: 309.152 */
genomestart 6
trait 1 0.0991812 0.00921999 0.192553 0.0165349 0.0485061 0.018707 0.539084 0.0267448 
trait 2 0.303312 0.0514232 0.105602 0.0593775 0.0548919 0.372134 0.0826049 0.188886 
trait 3 0.672825 0.180396 0.121806 0.0283595 0.315297 0.0523011 0.0180023 0.114575 
node 1 3 1 1
node 2 3 1 1
node 3 2 1 1
node 4 2 0 2
node 12 1 0 0
node 38 1 0 0
node 77 1 0 0
node 168 1 0 0
node 230 1 0 0
node 276 1 0 0
gene 1 1 4 -1.65916 0 1 -1.65916 1
gene 3 2 4 1.88709 0 2 1.88709 1
gene 2 3 4 -6.74218 0 3 -6.74218 1
gene 3 3 12 -1.2776 0 108 -1.2776 0
gene 3 12 4 -2.99277 0 109 -2.99277 0
gene 1 2 12 1.54074 0 213 1.54074 0
gene 3 1 12 5.48109 0 224 5.48109 1
gene 1 4 12 -2.54305 1 306 -2.54305 0
gene 3 1 38 -1.42955 0 419 -1.42955 0
gene 3 38 12 3.25737 0 420 3.25737 1
gene 2 2 38 -2.08099 0 494 -2.08099 0
gene 2 38 4 2.58998 0 696 2.58998 0
gene 3 38 77 1.02321 0 994 1.02321 1
gene 3 77 12 2.2192 0 995 2.2192 0
gene 3 2 77 0.682574 0 1765 0.682574 0
gene 1 77 77 0.326648 1 1813 0.326648 1
gene 2 38 38 2.85162 1 1901 2.85162 0
gene 3 12 168 0.451247 0 1937 0.451247 0
gene 3 168 4 3.42902 0 1938 3.42902 1
gene 2 3 168 -0.348577 0 2096 -0.348577 0
gene 2 1 168 1.20328 0 2131 1.20328 1
gene 3 2 168 0.0827758 0 2329 0.0827758 1
gene 2 38 230 2.14204 0 2460 2.14204 1
gene 2 230 4 2.09623 0 2461 2.09623 1
gene 2 77 4 -0.87846 0 2768 -0.87846 1
gene 2 3 38 -0.979468 0 2818 -0.979468 0
gene 1 12 230 0.591141 0 2860 0.591141 1
gene 1 1 77 0.229222 0 2897 0.229222 0
gene 2 168 168 0.108164 1 2929 0.108164 1
gene 3 2 276 -0.0475911 0 2973 -0.0475911 0
gene 3 276 4 -0.153365 0 2974 -0.153365 1
gene 1 168 77 0.583827 1 3019 0.583827 1
gene 2 4 230 -0.592317 1 3101 -0.592317 1
gene 1 3 276 -0.443786 0 3247 -0.443786 1
gene 2 77 230 1.27836 0 3364 1.27836 1
gene 2 38 168 -0.247369 0 3415 -0.247369 1
gene 1 2 230 0.281572 0 3462 0.281572 1
gene 3 230 276 -1.87962 0 3593 -1.87962 1
gene 1 168 230 1.59634 0 3629 1.59634 1
gene 3 38 276 0.520971 0 3738 0.520971 1
gene 3 1 230 -1.31746 0 3834 -1.31746 1
gene 2 1 276 0.259795 0 4058 0.259795 1
genomeend 6

/* Organism #7 Fitness: 509.986 Error: 140.014 */
genomestart 7
trait 1 0.0964405 0.0932669 0.189097 0.0126301 0.0567833 0.0176638 0.551266 0.103033 
trait 2 0.304055 0.0457883 0.107615 0.057086 0.0552608 0.312064 0.0535536 0.158423 
trait 3 0.672754 0.179513 0.121147 0.0250864 0.313064 0.052433 0.0179657 0.112741 
node 1 3 1 1
node 2 3 1 1
node 3 2 1 1
node 4 1 0 2
node 12 1 0 0
node 38 1 0 0
node 77 1 0 0
node 168 1 0 0
node 230 2 0 0
node 276 1 0 0
gene 1 1 4 -1.03484 0 1 -1.03484 1
gene 3 2 4 1.94124 0 2 1.94124 0
gene 2 3 4 -4.8275 0 3 -4.8275 1
gene 3 3 12 -1.94095 0 108 -1.94095 0
gene 3 12 4 -1.17305 0 109 -1.17305 0
gene 1 2 12 1.56625 0 213 1.56625 0
gene 3 1 12 4.50749 0 224 4.50749 0
gene 1 4 12 -1.88443 1 306 -1.88443 0
gene 3 1 38 -0.431998 0 419 -0.431998 0
gene 3 38 12 0.830803 0 420 0.830803 0
gene 2 2 38 0.167 0 494 0.167 0
gene 2 38 4 1.74682 0 696 1.74682 0
gene 3 38 77 0.826368 0 994 0.826368 0
gene 3 77 12 2.95256 0 995 2.95256 0
gene 3 2 77 0.493957 0 1765 0.493957 0
gene 1 77 77 0.126322 1 1813 0.126322 1
gene 2 38 38 1.5143 1 1901 1.5143 0
gene 3 12 168 1.70434 0 1937 1.70434 1
gene 3 168 4 5.88332 0 1938 5.88332 1
gene 2 3 168 1.44079 0 2096 1.44079 0
gene 2 1 168 1.41876 0 2131 1.41876 1
gene 3 2 168 0.432943 0 2329 0.432943 1
gene 2 38 230 1.66929 0 2460 1.6627 0
gene 2 230 4 -0.642288 0 2461 -0.642288 1
gene 2 77 4 1.39645 0 2768 1.39645 1
gene 2 3 38 0.992493 0 2818 0.992493 0
gene 1 12 230 0.524973 0 2860 0.492075 0
gene 1 1 77 -0.137813 0 2897 -0.137813 0
gene 2 168 168 0.672213 1 2929 0.672213 1
gene 3 2 276 0.500469 0 2973 0.250469 0
gene 3 276 4 -0.492034 0 2974 -0.492034 1
gene 1 168 77 -0.778228 1 3019 -0.778228 1
gene 2 4 230 0.979926 1 3101 0.979926 1
gene 1 3 276 0.936342 0 3247 0.936342 1
gene 2 77 230 0.816333 0 3364 0.816333 1
gene 2 38 168 0.439129 0 3415 0.439129 1
gene 1 2 230 1.88576 0 3462 1.88576 1
gene 3 230 276 -0.446154 0 3593 -0.446154 1
gene 1 168 230 2.05004 0 3629 2.05004 1
gene 3 38 276 1.4169 0 3738 1.4169 1
gene 3 1 230 0.370448 0 3834 0.370448 1
gene 2 1 276 0.37958 0 4058 0 1
gene 3 77 168 0.418068 0 4182 0.418068 1
genomeend 7

/* Organism #8 Fitness: 518.174 Error: 131.826 */
genomestart 8
trait 1 0.100096 0.00914514 0.19253 0.0196387 0.0310961 0.0181966 0.558136 0.0253959 
trait 2 0.199412 0.056549 0.105571 0.0533904 0.0538064 0.329459 0.118892 0.0974105 
trait 3 0.661324 0.181281 0.126758 0.0315949 0.31965 0.0525754 0.0251384 0.117556 
node 1 3 1 1
node 2 3 1 1
node 3 2 1 1
node 4 2 0 2
node 12 1 0 0
node 38 3 0 0
node 77 1 0 0
node 168 1 0 0
node 230 1 0 0
node 276 1 0 0
gene 1 1 4 -0.294182 0 1 -0.294182 1
gene 3 2 4 1.41871 0 2 1.41871 0
gene 2 3 4 -6.56683 0 3 -6.56683 1
gene 3 3 12 -1.13962 0 108 -1.13962 0
gene 3 12 4 -1.23324 0 109 -1.23324 1
gene 1 2 12 0.852613 0 213 0.852613 0
gene 3 1 12 5.86722 0 224 5.86722 1
gene 1 4 12 -2.01232 1 306 -2.01232 0
gene 3 1 38 -3.70915 0 419 -3.70915 0
gene 3 38 12 0.594413 0 420 0.594413 1
gene 2 2 38 -0.115002 0 494 -0.115002 0
gene 2 38 4 0.991681 0 696 0.991681 0
gene 3 38 77 -1.35041 0 994 -1.35041 1
gene 3 77 12 -1.43298 0 995 -1.43298 1
gene 3 2 77 -1.1056 0 1765 -1.1056 0
gene 1 77 77 0.44432 1 1813 0.44432 1
gene 2 38 38 1.497 1 1901 1.497 0
gene 3 12 168 2.79063 0 1937 2.79063 1
gene 3 168 4 4.81244 0 1938 4.81244 1
gene 2 3 168 0.671178 0 2096 0.671178 0
gene 2 1 168 1.82583 0 2131 1.82583 1
gene 3 2 168 2.09744 0 2329 2.09744 1
gene 2 38 230 -0.947609 0 2460 -0.947609 0
gene 2 230 4 2.7008 0 2461 2.7008 1
gene 2 77 4 0.498848 0 2768 0.498848 0
gene 2 3 38 -1.08666 0 2818 -1.08666 0
gene 2 12 230 -0.995847 0 2860 -0.995847 0
gene 1 1 77 -0.940691 0 2897 -0.940691 1
gene 2 168 168 0.541185 1 2929 0.541185 1
gene 3 2 276 -0.243608 0 2973 -0.243608 0
gene 3 276 4 -1.73367 0 2974 -1.73367 1
gene 1 168 77 1.70471 1 3019 1.70471 1
gene 2 4 230 0.314637 1 3101 0.314637 1
gene 1 3 276 -1.24365 0 3247 -1.24365 1
gene 2 276 77 0.626085 0 3397 0.626085 1
gene 2 3 77 -1.94741 0 3470 -1.94741 1
gene 2 38 276 -1.93021 0 3561 -1.93021 1
gene 2 168 230 -0.315773 0 3583 -0.315773 1
gene 2 12 12 -2.17967 1 3716 -2.17967 1
gene 1 230 230 1.4632 1 3835 1.4632 1
gene 3 276 276 0.404077 1 4023 0.404077 1
gene 3 12 276 1.31196 0 4057 1.31196 1
genomeend 8

/* Organism #9 Fitness: 498.055 Error: 151.945 */
genomestart 9
trait 1 0.0953643 0.00899248 0.223769 0.0147421 0.0667992 0.0171929 0.55183 0.0247775 
trait 2 0.204865 0.0383393 0.10859 0.0447926 0.0547792 0.202418 0.060749 0.037855 
trait 3 0.677537 0.179524 0.120411 0.0243231 0.310999 0.0528828 0.0165172 0.112491 
node 1 3 1 1
node 2 3 1 1
node 3 3 1 1
node 4 2 0 2
node 12 1 0 0
node 38 1 0 0
node 77 2 0 0
node 168 1 0 0
node 230 1 0 0
node 276 1 0 0
gene 1 1 4 -0.437652 0 1 -0.437652 1
gene 3 2 4 1.94702 0 2 1.94702 0
gene 2 3 4 -5.29226 0 3 -5.29226 1
gene 3 3 12 -0.644954 0 108 -0.644954 0
gene 3 12 4 -3.02665 0 109 -3.02665 0
gene 1 2 12 1.49249 0 213 1.49249 0
gene 1 1 12 3.72396 0 224 3.72396 1
gene 1 4 12 -0.845288 1 306 -0.845288 0
gene 3 1 38 -1.90548 0 419 -1.90548 1
gene 3 38 12 1.13716 0 420 1.13716 0
gene 2 2 38 -1.10658 0 494 -1.10658 1
gene 2 38 4 1.29483 0 696 1.29483 0
gene 3 38 77 0.507236 0 994 0.507236 0
gene 3 77 12 1.81858 0 995 1.81858 0
gene 3 2 77 0.221496 0 1765 0.221496 1
gene 1 77 77 0.930641 1 1813 0.930641 0
gene 2 38 38 2.02447 1 1901 2.02447 0
gene 3 12 168 1.72696 0 1937 1.72696 1
gene 3 168 4 3.37743 0 1938 3.37743 1
gene 2 3 168 0.614829 0 2096 0.614829 0
gene 2 1 168 1.69227 0 2131 1.69227 1
gene 3 2 168 -0.286109 0 2329 -0.286109 1
gene 2 38 230 1.034 0 2460 1.03315 0
gene 2 230 4 1.41465 0 2461 1.39962 1
gene 2 77 4 0.240296 0 2768 0.240296 1
gene 2 3 38 0.217746 0 2818 0.217746 0
gene 1 12 230 0.794252 0 2860 0.777803 1
gene 1 1 77 -0.0679469 0 2897 -0.0679469 1
gene 2 168 168 0.780559 1 2929 0.780559 1
gene 3 2 276 1.00791 0 2973 0.867285 0
gene 3 276 4 0.906374 0 2974 0.391092 1
gene 1 168 77 0.241686 1 3019 0.241686 1
gene 2 4 230 0.138298 1 3101 0.138298 1
gene 1 3 276 0.978858 0 3247 0.978858 1
gene 2 77 230 0.816333 0 3364 0 1
gene 2 38 168 0.439129 0 3415 0 1
gene 1 2 230 1.88576 0 3462 1.88576 1
gene 3 230 276 -0.446154 0 3593 -0.446154 1
gene 1 168 230 2.05004 0 3629 2.05004 1
gene 3 38 276 1.4169 0 3738 1.4169 1
gene 3 1 230 0.370448 0 3834 0.370448 1
gene 2 168 77 -0.499688 0 4120 0 1
gene 3 12 276 0.11393 0 4183 0.11393 1
genomeend 9

/* Organism #10 Fitness: 495.95 Error: 154.05 */
genomestart 10
trait 1 0.0982315 0.0940454 0.179619 0.0138071 0.0523288 0.0164353 0.550024 0.101685 
trait 2 0.203311 0.0505107 0.106788 0.0534868 0.0548627 0.32454 0.119691 0.0959567 
trait 3 0.667872 0.179879 0.121696 0.0264926 0.315691 0.0530533 0.0186796 0.115172 
node 1 3 1 1
node 2 3 1 1
node 3 2 1 1
node 4 1 0 2
node 12 1 0 0
node 38 1 0 0
node 77 1 0 0
node 168 1 0 0
node 230 1 0 0
node 276 1 0 0
gene 1 1 4 -0.565809 0 1 -0.565809 1
gene 3 2 4 1.80118 0 2 1.80118 0
gene 2 3 4 -5.6868 0 3 -5.6868 1
gene 3 3 12 -0.160866 0 108 -0.160866 0
gene 3 12 4 -2.68268 0 109 -2.68268 1
gene 1 2 12 -0.442251 0 213 -0.442251 0
gene 3 1 12 6.15691 0 224 6.15691 1
gene 1 4 12 0.0561051 1 306 0.0561051 1
gene 3 1 38 -0.846146 0 419 -0.846146 0
gene 3 38 12 1.3372 0 420 1.3372 0
gene 2 2 38 -0.458137 0 494 -0.458137 0
gene 2 38 4 1.91558 0 696 1.91558 1
gene 3 38 77 1.76128 0 994 1.76128 0
gene 3 77 12 0.264075 0 995 0.264075 1
gene 3 2 77 0.644137 0 1765 0.644137 0
gene 1 77 77 1.70965 1 1813 1.70965 1
gene 2 38 38 1.76669 1 1901 1.76669 0
gene 3 12 168 2.28751 0 1937 2.28751 1
gene 3 168 4 3.61022 0 1938 3.61022 1
gene 2 3 168 -1.5632 0 2096 -1.5632 0
gene 2 1 168 1.45299 0 2131 1.45299 1
gene 3 2 168 0.850311 0 2329 0.850311 1
gene 2 38 230 1.75479 0 2460 1.64542 1
gene 2 230 4 -0.131954 0 2461 -0.131954 0
gene 2 77 4 0.434884 0 2768 0.434884 1
gene 2 3 38 0.774817 0 2818 0.774817 0
gene 1 12 230 1.55737 0 2860 1.55737 1
gene 1 1 77 0.499448 0 2897 0.499448 1
gene 2 168 168 0.906085 1 2929 0.906085 1
gene 3 2 276 1.18475 0 2973 0.997248 0
gene 3 276 4 0.209358 0 2974 0.0621343 1
gene 1 168 77 -1.34414 1 3019 -1.34414 1
gene 2 4 230 1.44507 1 3101 1.44507 1
gene 1 3 276 0.268361 0 3247 0.268361 1
gene 2 276 77 -0.532778 0 3397 -0.532778 1
gene 2 3 77 -2.32927 0 3470 -2.32927 1
gene 2 38 276 -0.0439075 0 3561 -0.0439075 1
gene 2 168 230 0.668026 0 3583 0.668026 1
gene 3 230 230 -0.750034 1 3836 -0.750034 1
gene 3 230 276 0.839265 0 3957 0.839265 1
gene 3 77 276 -0.331091 1 4184 -0.331091 1
genomeend 10

/* Organism #11 Fitness: 478.638 Error: 171.362 */
genomestart 11
trait 1 0.0969299 0.0096326 0.171614 0.0191567 0.0318447 0.0191581 0.524857 0.0552126 
trait 2 0.202421 0.03661 0.109901 0.0377817 0.0541909 0.202413 0.0598267 0.0379639 
trait 3 0.653173 0.18044 0.121181 0.0220091 0.316581 0.0530868 0.016328 0.119875 
node 1 3 1 1
node 2 3 1 1
node 3 2 1 1
node 4 2 0 2
node 12 1 0 0
node 38 1 0 0
node 77 3 0 0
node 168 1 0 0
node 230 1 0 0
node 276 1 0 0
gene 1 1 4 -0.320702 0 1 -0.320702 1
gene 3 2 4 0.142969 0 2 0.142969 0
gene 2 3 4 -2.73809 0 3 -2.73809 1
gene 3 3 12 1.5837 0 108 1.5837 0
gene 3 12 4 -0.676801 0 109 -0.676801 0
gene 1 2 12 -1.00286 0 213 -1.00286 0
gene 3 1 12 -1.36214 0 224 -1.36214 1
gene 1 4 12 -2.66647 1 306 -2.66647 0
gene 3 1 38 -2.17065 0 419 -2.17065 1
gene 3 38 12 4.81177 0 420 4.81177 0
gene 2 2 38 4.82182 0 494 4.82182 0
gene 2 38 4 0.269657 0 696 0.269657 0
gene 3 38 77 -1.1216 0 994 -1.1216 0
gene 3 77 12 0.413157 0 995 0.413157 0
gene 3 2 77 -1.49591 0 1765 -1.49591 0
gene 1 77 77 0.108734 1 1813 0.108734 1
gene 2 38 38 1.56968 1 1901 1.56968 0
gene 3 12 168 0.406642 0 1937 0.406642 1
gene 3 168 4 6.34507 0 1938 6.34507 1
gene 2 3 168 -3.15762 0 2096 -3.15762 1
gene 2 1 168 2.26475 0 2131 2.26475 1
gene 3 2 168 -0.911223 0 2329 -0.911223 1
gene 2 38 230 1.24498 0 2460 1.24498 0
gene 2 230 4 2.63438 0 2461 2.63438 1
gene 2 77 4 1.76137 0 2768 1.76137 1
gene 2 3 38 -0.176717 0 2818 -0.176717 0
gene 1 12 230 2.69104 0 2860 2.69104 1
gene 1 1 77 0.171263 0 2897 0.171263 0
gene 2 168 168 0.776373 1 2929 0.776373 1
gene 3 2 276 3.42861 0 2973 3.42861 0
gene 3 276 4 0.626345 0 2974 0.626345 1
gene 1 168 77 -1.20288 1 3019 -1.20288 1
gene 2 4 230 2.20263 1 3101 2.20263 1
gene 1 3 276 0.524946 0 3247 0.524946 1
gene 2 276 77 -3.97235 0 3397 -3.97235 1
gene 2 3 77 1.18821 0 3470 1.18821 1
gene 2 38 276 0.377821 0 3561 0.377821 1
gene 2 168 230 1.29129 0 3583 1.29129 1
gene 2 12 12 -1.02359 1 3716 -1.02359 1
gene 2 276 38 1.71295 1 3886 1.71295 1
gene 1 77 230 0.95672 0 3961 0.95672 1
gene 3 2 230 -0.225872 0 3995 -0.225872 1
genomeend 11

/* Organism #12 Fitness: 365.009 Error: 284.991 */
genomestart 12
trait 1 0.0937015 0.00946417 0.192578 0.0158926 0.0350722 0.0149692 0.52181 0.0840724 
trait 2 0.201164 0.0438007 0.109976 0.0420043 0.0546796 0.235377 0.0756822 0.0528491 
trait 3 0.65671 0.180099 0.125413 0.0270542 0.317143 0.0524031 0.0239922 0.116752 
node 1 3 1 1
node 2 3 1 1
node 3 2 1 1
node 4 2 0 2
node 12 3 0 0
node 38 1 0 0
node 77 1 0 0
node 168 1 0 0
node 230 1 0 0
node 276 1 0 0
gene 1 1 4 1.46474 0 1 1.46474 1
gene 3 2 4 0.372576 0 2 0.372576 0
gene 2 3 4 -5.05827 0 3 -5.05827 1
gene 3 3 12 -1.29453 0 108 -1.29453 1
gene 3 12 4 -1.55949 0 109 -1.55949 0
gene 1 2 12 -2.45859 0 213 -2.45859 1
gene 3 1 12 0.553124 0 224 0.553124 1
gene 1 4 12 1.59204 1 306 1.59204 1
gene 3 1 38 -5.12456 0 419 -5.12456 0
gene 3 38 12 3.44479 0 420 3.44479 1
gene 2 2 38 -0.783466 0 494 -0.783466 0
gene 2 38 4 2.36399 0 696 2.36399 0
gene 3 38 77 -0.106198 0 994 -0.106198 0
gene 3 77 12 0.948285 0 995 0.948285 0
gene 3 2 77 1.26374 0 1765 1.26374 0
gene 1 77 77 -0.701162 1 1813 -0.701162 1
gene 2 38 38 0.195648 1 1901 0.195648 0
gene 3 12 168 0.369198 0 1937 0.369198 0
gene 3 168 4 7.28094 0 1938 7.28094 1
gene 2 3 168 -0.428633 0 2096 -0.428633 1
gene 2 1 168 1.1484 0 2131 1.1484 1
gene 3 2 168 1.48511 0 2329 1.48511 1
gene 2 38 230 1.28866 0 2460 1.28866 0
gene 2 230 4 2.86913 0 2461 2.86913 1
gene 2 77 4 -0.137452 0 2768 -0.137452 1
gene 2 3 38 -1.5303 0 2818 -1.5303 0
gene 1 12 230 -1.67519 0 2860 -1.67519 0
gene 1 1 77 -0.41482 0 2897 -0.41482 0
gene 2 168 168 -1.08463 1 2929 -1.08463 1
gene 3 2 276 0.32991 0 2973 0.32991 1
gene 3 276 4 0.790535 0 2974 0.790535 1
gene 1 168 77 0.674588 1 3019 0.674588 1
gene 2 4 230 2.42503 1 3101 2.42503 1
gene 1 3 276 2.89724 0 3247 2.89724 1
gene 2 276 77 -1.5689 0 3397 -1.5689 1
gene 2 3 77 0.0709721 0 3470 0.0709721 1
gene 2 38 276 -0.394647 0 3561 -0.394647 1
gene 2 168 230 -0.545062 0 3583 -0.545062 1
gene 2 12 12 0.637173 1 3716 0.637173 1
gene 1 1 230 -1.06702 0 3761 -1.06702 1
gene 3 38 168 0.111078 0 3844 0.111078 1
gene 2 77 230 -1.32258 0 3897 -1.32258 1
gene 3 168 276 -1.4766 0 3938 -1.4766 1
genomeend 12

/* Organism #13 Fitness: 506.009 Error: 143.991 */
genomestart 13
trait 1 0.0959742 0.177734 0.163126 0.0110589 0.0479913 0.0185819 0.559798 0.178143 
trait 2 0.203727 0.0552421 0.105702 0.0559361 0.0550614 0.222662 0.0609799 0.0377864 
trait 3 0.671088 0.17972 0.120206 0.025688 0.314719 0.052847 0.0162381 0.114904 
node 1 3 1 1
node 2 3 1 1
node 3 2 1 1
node 4 1 0 2
node 12 1 0 0
node 38 1 0 0
node 77 1 0 0
node 168 1 0 0
node 230 1 0 0
node 276 1 0 0
gene 1 1 4 -0.58905 0 1 -0.58905 1
gene 3 2 4 1.94124 0 2 1.94124 0
gene 2 3 4 -6.08598 0 3 -6.08598 1
gene 3 3 12 0.821057 0 108 0.821057 0
gene 3 12 4 -1.17305 0 109 -1.17305 0
gene 1 2 12 1.08983 0 213 1.08983 0
gene 3 1 12 4.50749 0 224 4.50749 0
gene 1 4 12 -1.88443 1 306 -1.88443 0
gene 3 1 38 -2.42121 0 419 -2.42121 0
gene 3 38 12 0.830803 0 420 0.830803 0
gene 2 2 38 0.167 0 494 0.167 0
gene 2 38 4 1.74682 0 696 1.74682 0
gene 3 38 77 0.826368 0 994 0.826368 0
gene 3 77 12 -1.43798 0 995 -1.43798 0
gene 3 2 77 0.493957 0 1765 0.493957 0
gene 1 77 77 0.780548 1 1813 0.780548 1
gene 2 38 38 0.757551 1 1901 0.757551 0
gene 3 12 168 2.57904 0 1937 2.57904 0
gene 3 168 4 2.58617 0 1938 2.58617 1
gene 2 3 168 -0.986187 0 2096 -0.986187 0
gene 2 1 168 2.94536 0 2131 2.94536 1
gene 3 2 168 0.958123 0 2329 0.958123 1
gene 2 38 230 2.20762 0 2460 2.20762 0
gene 2 230 4 -0.642288 0 2461 -0.642288 1
gene 2 77 4 1.39645 0 2768 1.39645 1
gene 2 3 38 0.992493 0 2818 0.992493 0
gene 1 12 230 1.6667 0 2860 1.6667 0
gene 1 1 77 -0.137813 0 2897 -0.137813 0
gene 2 168 168 0.408875 1 2929 0.408875 1
gene 3 2 276 0.500469 0 2973 0.250469 1
gene 3 276 4 -0.492034 0 2974 -0.492034 1
gene 1 168 77 -0.778228 1 3019 -0.778228 1
gene 2 4 230 0.979926 1 3101 0.979926 1
gene 2 168 230 -1.62538 0 3149 -1.62538 1
gene 1 3 230 -0.736066 0 3190 -0.736066 1
gene 2 276 168 -0.479512 0 3340 -0.479512 1
gene 2 276 276 -0.212607 1 3391 -0.212607 1
gene 1 3 77 1.4711 0 3571 1.4711 1
gene 2 12 12 -0.255322 1 3762 -0.255322 1
genomeend 13

/* Organism #14 Fitness: 487.06 Error: 162.94 */
genomestart 14
trait 1 0.09838 0.00906841 0.197704 0.017405 0.048925 0.0186136 0.543152 0.0233071 
trait 2 0.205194 0.0372493 0.109683 0.0384392 0.0554397 0.204454 0.0627626 0.0399684 
trait 3 0.667565 0.179633 0.120375 0.0253677 0.315178 0.052695 0.0167645 0.116153 
node 1 3 1 1
node 2 3 1 1
node 3 2 1 1
node 4 1 0 2
node 12 1 0 0
node 38 1 0 0
node 77 1 0 0
node 168 1 0 0
node 230 2 0 0
node 276 1 0 0
gene 1 1 4 -0.137705 0 1 -0.137705 1
gene 3 2 4 -0.600612 0 2 -0.600612 0
gene 2 3 4 -5.85823 0 3 -5.85823 1
gene 3 3 12 -0.635899 0 108 -0.635899 1
gene 3 12 4 -2.11577 0 109 -2.11577 0
gene 1 2 12 1.91487 0 213 1.91487 0
gene 3 1 12 4.86381 0 224 4.86381 1
gene 1 4 12 -1.65131 1 306 -1.65131 1
gene 3 1 38 -3.3276 0 419 -3.3276 0
gene 3 38 12 1.2903 0 420 1.2903 0
gene 2 2 38 -2.20471 0 494 -2.20471 1
gene 2 38 4 1.13599 0 696 1.13599 1
gene 3 38 77 1.72834 0 994 1.72834 0
gene 3 77 12 1.16705 0 995 1.16705 0
gene 3 2 77 -0.220091 0 1765 -0.220091 0
gene 1 77 77 1.92775 1 1813 1.92775 1
gene 2 38 38 1.65469 1 1901 1.65469 0
gene 3 12 168 1.81442 0 1937 1.81442 0
gene 3 168 4 2.43772 0 1938 2.43772 1
gene 2 3 168 0.451442 0 2096 0.451442 0
gene 2 1 168 0.999748 0 2131 0.999748 1
gene 3 2 168 0.0810483 0 2329 0.0810483 1
gene 2 38 230 -0.00239005 0 2460 -0.00239005 0
gene 2 230 4 0.763872 0 2461 0.763872 1
gene 2 77 4 -0.15928 0 2768 -0.15928 1
gene 2 3 38 0.729862 0 2818 0.729862 1
gene 1 12 230 1.9966 0 2860 1.9966 1
gene 1 1 77 -0.627055 0 2897 -0.627055 0
gene 2 168 168 1.50107 1 2929 1.50107 1
gene 3 2 276 -0.542783 0 2973 -0.542783 1
gene 3 276 4 -0.329311 0 2974 -0.329311 1
gene 1 168 77 -1.52425 1 3019 -1.52425 1
gene 2 4 230 1.34453 1 3101 1.34453 1
gene 2 168 230 -0.120395 0 3149 -0.120395 1
gene 1 3 230 1.09926 0 3190 1.09926 1
gene 2 276 168 -1.37393 0 3340 -1.37393 1
gene 2 276 276 -0.455792 1 3391 -0.455792 1
gene 3 38 168 -1.58788 0 3579 -1.58788 1
gene 3 1 230 -1.42175 0 3640 -1.42175 1
gene 1 12 276 -1.06189 0 3743 -1.06189 1
gene 3 230 230 -1.84629 1 3892 -1.84629 1
gene 1 77 230 -1.84063 0 3961 -1.84063 1
genomeend 14

/* Organism #15 Fitness: 500.862 Error: 149.138 */
genomestart 15
trait 1 0.0950952 0.00784248 0.231614 0.0194288 0.0423585 0.0185403 0.581166 0.0212092 
trait 2 0.202225 0.036084 0.111928 0.0387116 0.0545684 0.199206 0.0603513 0.0391396 
trait 3 0.660739 0.179894 0.122775 0.0266402 0.318336 0.0528257 0.0200705 0.117172 
node 1 3 1 1
node 2 3 1 1
node 3 2 1 1
node 4 2 0 2
node 12 1 0 0
node 38 1 0 0
node 77 2 0 0
node 168 1 0 0
node 230 1 0 0
node 276 1 0 0
gene 1 1 4 -0.621381 0 1 -0.621381 1
gene 3 2 4 1.37528 0 2 1.37528 0
gene 2 3 4 -6.18209 0 3 -6.18209 1
gene 3 3 12 -0.748636 0 108 -0.748636 0
gene 3 12 4 -2.71215 0 109 -2.71215 0
gene 1 2 12 1.01381 0 213 1.01381 0
gene 3 1 12 4.39944 0 224 4.39944 1
gene 1 4 12 -0.809688 1 306 -0.809688 0
gene 3 1 38 -2.24381 0 419 -2.24381 0
gene 3 38 12 1.99549 0 420 1.99549 0
gene 2 2 38 -0.962473 0 494 -0.962473 0
gene 2 38 4 0.768214 0 696 0.768214 0
gene 3 38 77 2.15001 0 994 2.15001 1
gene 3 77 12 0.868323 0 995 0.868323 0
gene 3 2 77 -0.123979 0 1765 -0.123979 0
gene 1 77 77 -0.365215 1 1813 -0.365215 1
gene 2 38 38 1.62673 1 1901 1.62673 0
gene 3 12 168 1.87852 0 1937 1.87852 0
gene 3 168 4 4.16092 0 1938 4.16092 1
gene 2 3 168 0.074127 0 2096 0.074127 0
gene 2 1 168 1.1488 0 2131 1.1488 1
gene 3 2 168 0.234383 0 2329 0.234383 1
gene 2 38 230 -0.0214304 0 2460 -0.0757517 0
gene 2 230 4 0.55071 0 2461 0.55071 1
gene 2 77 4 1.79057 0 2768 1.79057 1
gene 2 3 38 -0.250808 0 2818 -0.250808 0
gene 1 12 230 0.808188 0 2860 0.808188 0
gene 1 1 77 0.312296 0 2897 0.312296 0
gene 2 168 168 0.897272 1 2929 0.897272 1
gene 3 2 276 0.862238 0 2973 0.612238 0
gene 3 276 4 0.506602 0 2974 0.212155 1
gene 1 168 77 -0.566676 1 3019 -0.566676 1
gene 2 4 230 0.738559 1 3101 0.738559 1
gene 1 3 276 0.770079 0 3247 0.770079 0
gene 2 77 230 0.816333 0 3364 0 1
gene 2 38 168 0.439129 0 3415 0 1
gene 1 2 230 0.243123 0 3462 0 1
gene 2 230 230 -0.290951 1 3723 -0.290951 1
gene 1 3 230 0.662937 0 3876 0 1
gene 3 1 230 0.472179 0 3945 0 1
gene 3 168 77 0.755594 0 4067 0.755594 1
gene 1 12 12 -0.0220974 1 4150 -0.0220974 1
gene 3 4 12 0.268747 0 4185 0.268747 1
genomeend 15

/* Organism #16 Fitness: 492.207 Error: 157.793 */
genomestart 16
trait 1 0.0998137 0.0102962 0.198822 0.0146655 0.0425059 0.0151688 0.552609 0.0359666 
trait 2 0.202024 0.0498371 0.105186 0.0521294 0.0536658 0.321499 0.118623 0.0957774 
trait 3 0.0240232 0.879265 0.537621 0 0.993572 0.933336 0.205136 0.474337 
node 1 3 1 1
node 2 3 1 1
node 3 3 1 1
node 4 2 0 2
node 12 1 0 0
node 38 3 0 0
node 77 1 0 0
node 168 1 0 0
node 230 1 0 0
node 276 2 0 0
gene 1 1 4 -2.6396 0 1 -2.6396 1
gene 3 2 4 1.32754 0 2 1.32754 0
gene 2 3 4 -4.73662 0 3 -4.73662 1
gene 3 3 12 -2.28872 0 108 -2.28872 0
gene 3 12 4 -3.85823 0 109 -3.85823 0
gene 1 2 12 1.10385 0 213 1.10385 0
gene 3 1 12 4.60883 0 224 4.60883 1
gene 1 4 12 -1.46218 1 306 -1.46218 1
gene 3 1 38 -1.42391 0 419 -1.42391 0
gene 3 38 12 3.52254 0 420 3.52254 0
gene 2 2 38 -2.37313 0 494 -2.37313 0
gene 2 38 4 1.43617 0 696 1.43617 1
gene 3 38 77 -1.61084 0 994 -1.61084 0
gene 3 77 12 2.18489 0 995 2.18489 0
gene 3 2 77 -1.47217 0 1765 -1.47217 0
gene 1 77 77 1.75081 1 1813 1.75081 1
gene 2 38 38 -0.651562 1 1901 -0.651562 0
gene 3 12 168 -1.26151 0 1937 -1.26151 0
gene 3 168 4 7.25449 0 1938 7.25449 1
gene 2 3 168 -1.50444 0 2096 -1.50444 0
gene 2 1 168 0.482768 0 2131 0.482768 1
gene 3 2 168 -2.3429 0 2329 -2.3429 1
gene 2 38 230 1.89374 0 2460 1.89374 1
gene 2 230 4 4.28291 0 2461 4.28291 1
gene 2 77 4 -1.70832 0 2768 -1.70832 1
gene 2 3 38 0.45445 0 2818 0.45445 0
gene 1 12 230 0.164383 0 2860 0.164383 1
gene 1 1 77 1.23563 0 2897 1.23563 1
gene 2 168 168 2.53112 1 2929 2.53112 1
gene 3 2 276 -0.81493 0 2973 -0.81493 0
gene 3 276 4 0.656276 0 2974 0.656276 1
gene 1 168 77 1.12573 1 3019 1.12573 1
gene 2 4 230 0.935266 1 3101 0.935266 1
gene 1 3 276 1.36427 0 3247 1.36427 1
gene 2 276 77 1.42883 0 3397 1.42883 1
gene 2 3 77 -0.100403 0 3470 -0.100403 1
gene 2 38 276 -0.0710584 0 3561 -0.0710584 1
gene 2 168 230 0.689171 0 3583 0.689171 1
gene 2 12 12 0.104169 1 3716 0.104169 1
gene 1 230 230 -1.79532 1 3835 -1.79532 1
gene 1 3 230 -0.640926 0 3998 -0.640926 1
gene 2 1 276 0.37958 0 4058 0.37958 1
genomeend 16

/* Organism #17 Fitness: 179.431 Error: 470.569 */
genomestart 17
trait 1 0.0937164 0.00844527 0.221488 0.0167652 0.0809496 0.0196414 0.539703 0.0221259 
trait 2 0.207055 0.0394506 0.109116 0.049649 0.0547458 0.203073 0.059254 0.0387926 
trait 3 0.688543 0.180584 0.118223 0.024007 0.309885 0.0537676 0.0114271 0.112057 
node 1 3 1 1
node 2 3 1 1
node 3 2 1 1
node 4 2 0 2
node 12 1 0 0
node 38 1 0 0
node 77 2 0 0
node 168 1 0 0
node 230 1 0 0
node 276 1 0 0
gene 1 1 4 -2.12285 0 1 -2.12285 1
gene 3 2 4 2.76305 0 2 2.76305 1
gene 2 3 4 -5.03469 0 3 -5.03469 0
gene 3 3 12 1.60957 0 108 1.60957 1
gene 3 12 4 -2.81483 0 109 -2.81483 0
gene 1 2 12 2.93606 0 213 2.93606 1
gene 3 1 12 2.53344 0 224 2.53344 1
gene 1 4 12 0.172417 1 306 0.172417 0
gene 3 1 38 0.574368 0 419 0.574368 0
gene 3 38 12 0.532715 0 420 0.532715 1
gene 2 2 38 0.925164 0 494 0.925164 1
gene 2 38 4 2.37713 0 696 2.37713 0
gene 3 38 77 0.417581 0 994 0.417581 0
gene 3 77 12 0.296741 0 995 0.296741 0
gene 3 2 77 1.72718 0 1765 1.72718 0
gene 1 77 77 0.442235 1 1813 0.442235 1
gene 2 38 38 -1.73263 1 1901 -1.73263 1
gene 3 12 168 -1.63191 0 1937 -1.63191 0
gene 3 168 4 2.66775 0 1938 2.66775 1
gene 2 3 168 -0.192168 0 2096 -0.192168 0
gene 2 1 168 1.38395 0 2131 1.38395 1
gene 3 2 168 -0.651025 0 2329 -0.651025 1
gene 2 38 230 1.20613 0 2460 1.20613 1
gene 2 230 4 -1.21615 0 2461 -1.21615 1
gene 2 77 4 0.2377 0 2768 0.2377 1
gene 2 3 38 1.94042 0 2818 1.94042 0
gene 1 12 230 1.31006 0 2860 1.31006 1
gene 1 1 77 -0.874943 0 2897 -0.874943 0
gene 2 168 168 0.349399 1 2929 0.349399 1
gene 3 2 276 1.61563 0 2973 1.61563 0
gene 3 276 4 -0.324399 0 2974 -0.324399 1
gene 1 168 77 -1.65872 1 3019 -1.65872 1
gene 2 4 230 -1.17184 1 3101 -1.17184 1
gene 1 3 276 -0.514195 0 3247 -0.514195 1
gene 2 276 77 1.58128 0 3397 1.58128 1
gene 2 3 77 -0.818083 0 3470 -0.818083 1
gene 2 38 276 1.94889 0 3561 1.94889 1
gene 2 168 230 -0.234157 0 3583 -0.234157 1
gene 2 12 12 -0.795812 1 3716 -0.795812 1
gene 2 276 38 -0.883439 1 3886 -0.883439 1
gene 1 77 230 -1.21858 0 3961 -1.21858 1
gene 3 2 230 -0.22631 0 3995 -0.22631 1
genomeend 17

/* Organism #18 Fitness: 498.055 Error: 151.945 */
genomestart 18
trait 1 0.100085 0.00882969 0.195139 0.0206358 0.0311221 0.0178294 0.561193 0.0256104 
trait 2 0.199195 0.0475366 0.109244 0.0458984 0.054111 0.317868 0.118712 0.0977325 
trait 3 0.656374 0.181311 0.12837 0.0306968 0.32049 0.0526083 0.0276939 0.117478 
node 1 3 1 1
node 2 3 1 1
node 3 2 1 1
node 4 2 0 2
node 12 1 0 0
node 38 3 0 0
node 77 1 0 0
node 168 1 0 0
node 230 1 0 0
node 276 1 0 0
gene 1 1 4 -0.364882 0 1 -0.364882 1
gene 3 2 4 0.656394 0 2 0.656394 0
gene 2 3 4 -7.58046 0 3 -7.58046 1
gene 3 3 12 -1.0196 0 108 -1.0196 0
gene 3 12 4 -0.965529 0 109 -0.965529 0
gene 1 2 12 1.18534 0 213 1.18534 0
gene 3 1 12 1.31023 0 224 1.31023 1
gene 1 4 12 -2.24773 1 306 -2.24773 0
gene 3 1 38 -3.15619 0 419 -3.15619 0
gene 3 38 12 -1.6023 0 420 -1.6023 1
gene 2 2 38 -0.113715 0 494 -0.113715 0
gene 2 38 4 1.34503 0 696 1.34503 0
gene 3 38 77 1.30372 0 994 1.30372 0
gene 3 77 12 -2.76364 0 995 -2.76364 0
gene 3 2 77 -1.15949 0 1765 -1.15949 0
gene 1 77 77 -1.39875 1 1813 -1.39875 1
gene 2 38 38 4.638 1 1901 4.638 0
gene 3 12 168 -0.526747 0 1937 -0.526747 0
gene 3 168 4 7.29065 0 1938 7.29065 1
gene 2 3 168 1.69698 0 2096 1.69698 0
gene 2 1 168 2.43963 0 2131 2.43963 1
gene 3 2 168 3.30209 0 2329 3.30209 1
gene 2 38 230 -2.70584 0 2460 -2.70584 0
gene 2 230 4 4.76677 0 2461 4.76677 1
gene 2 77 4 1.58457 0 2768 1.58457 1
gene 2 3 38 0.146462 0 2818 0.146462 0
gene 1 12 230 0.563633 0 2860 0.563633 0
gene 1 1 77 -1.6252 0 2897 -1.6252 0
gene 2 168 168 3.62255 1 2929 3.62255 1
gene 3 2 276 0.665035 0 2973 0.665035 1
gene 3 276 4 -1.41775 0 2974 -1.41775 1
gene 1 168 77 1.22838 1 3019 1.22838 1
gene 2 4 230 0.667289 1 3101 0.667289 1
gene 1 3 276 1.02729 0 3247 1.02729 0
gene 2 276 77 3.34304 0 3397 3.34304 1
gene 2 3 77 0.604479 0 3470 0.604479 1
gene 2 38 276 -5.25754 0 3561 -5.25754 1
gene 2 168 230 -3.32763 0 3583 -3.32763 1
gene 2 12 12 -3.55747 1 3716 -3.55747 1
gene 1 230 230 1.10983 1 3835 1.10983 1
gene 3 276 276 -1.43103 1 4023 -1.43103 1
gene 3 12 276 -1.51441 0 4057 -1.51441 1
genomeend 18

/* Organism #19 Fitness: 511.156 Error: 138.844 */
genomestart 19
trait 1 0.0992411 0.00937767 0.190203 0.0154701 0.0479788 0.0174745 0.538958 0.0272301 
trait 2 0.303507 0.0437952 0.107014 0.0546555 0.0548487 0.339359 0.0696368 0.174202 
trait 3 0.670727 0.180463 0.121981 0.026558 0.315488 0.0527535 0.0185924 0.115431 
node 1 3 1 1
node 2 3 1 1
node 3 2 1 1
node 4 2 0 2
node 12 1 0 0
node 38 1 0 0
node 77 1 0 0
node 168 1 0 0
node 230 2 0 0
node 276 1 0 0
gene 1 1 4 -0.544763 0 1 -0.544763 1
gene 3 2 4 1.06212 0 2 1.06212 0
gene 2 3 4 -5.46757 0 3 -5.46757 1
gene 3 3 12 -0.847879 0 108 -0.847879 0
gene 3 12 4 -3.48784 0 109 -3.48784 0
gene 1 2 12 1.56625 0 213 1.56625 0
gene 3 1 12 6.161 0 224 6.161 1
gene 1 4 12 -0.543372 1 306 -0.543372 0
gene 3 1 38 0.629988 0 419 0.629988 0
gene 3 38 12 1.41766 0 420 1.41766 0
gene 2 2 38 -0.389728 0 494 -0.389728 0
gene 2 38 4 1.52831 0 696 1.52831 0
gene 3 38 77 0.0721663 0 994 0.0721663 0
gene 3 77 12 1.29038 0 995 1.29038 0
gene 3 2 77 0.602058 0 1765 0.602058 0
gene 1 77 77 0.155314 1 1813 0.155314 1
gene 2 38 38 1.9917 1 1901 1.9917 0
gene 3 12 168 1.68747 0 1937 1.68747 0
gene 3 168 4 5.88332 0 1938 5.88332 1
gene 2 3 168 1.44079 0 2096 1.44079 0
gene 2 1 168 1.24288 0 2131 1.24288 1
gene 3 2 168 0.432943 0 2329 0.432943 1
gene 2 38 230 1.66929 0 2460 1.6627 0
gene 2 230 4 1.07763 0 2461 1.07763 0
gene 2 77 4 0.194638 0 2768 0.194638 1
gene 2 3 38 -0.714655 0 2818 -0.714655 0
gene 1 12 230 0.524973 0 2860 0.492075 0
gene 1 1 77 -0.856999 0 2897 -0.856999 0
gene 2 168 168 0.672213 1 2929 0.672213 1
gene 3 2 276 0.930726 0 2973 0.930726 0
gene 3 276 4 1.47862 0 2974 1.47862 1
gene 1 168 77 -0.228706 1 3019 -0.228706 1
gene 2 4 230 0.368441 1 3101 0.368441 1
gene 1 3 276 0.936342 0 3247 0.936342 1
gene 2 77 230 0.816333 0 3364 0.816333 1
gene 2 38 168 0.439129 0 3415 0.439129 1
gene 1 2 230 1.88576 0 3462 1.88576 1
gene 3 230 276 -0.446154 0 3593 -0.446154 1
gene 1 168 230 2.05004 0 3629 2.05004 1
gene 3 38 276 1.4169 0 3738 1.4169 1
gene 3 1 230 0.370448 0 3834 0.370448 1
gene 2 1 276 0.37958 0 4058 0 1
genomeend 19

/* Organism #20 Fitness: 512.091 Error: 137.909 */
genomestart 20
trait 1 0.102559 0.0101478 0.185225 0.0172429 0.0300326 0.0154926 0.554533 0.0398563 
trait 2 0.200102 0.0487415 0.108181 0.0471292 0.0539953 0.319471 0.118243 0.0948127 
trait 3 0.655675 0.180543 0.128281 0.0301833 0.317479 0.0521834 0.0285406 0.116174 
node 1 3 1 1
node 2 3 1 1
node 3 3 1 1
node 4 2 0 2
node 12 1 0 0
node 38 1 0 0
node 77 1 0 0
node 168 1 0 0
node 230 1 0 0
node 276 1 0 0
gene 1 1 4 -0.820638 0 1 -0.820638 1
gene 3 2 4 1.23875 0 2 1.23875 0
gene 2 3 4 -3.90933 0 3 -3.90933 1
gene 3 3 12 -0.974354 0 108 -0.974354 0
gene 3 12 4 -4.0958 0 109 -4.0958 0
gene 1 2 12 1.61529 0 213 1.61529 0
gene 3 1 12 5.01861 0 224 5.01861 1
gene 1 4 12 -0.558013 1 306 -0.558013 1
gene 3 1 38 -2.65189 0 419 -2.65189 0
gene 3 38 12 1.57338 0 420 1.57338 1
gene 2 2 38 -2.00718 0 494 -2.00718 0
gene 2 38 4 0.979279 0 696 0.979279 1
gene 3 38 77 1.28348 0 994 1.28348 0
gene 3 77 12 1.48407 0 995 1.48407 0
gene 3 2 77 0.62157 0 1765 0.62157 1
gene 1 77 77 0.296963 1 1813 0.296963 1
gene 2 38 38 0.773421 1 1901 0.773421 0
gene 3 12 168 2.04017 0 1937 2.04017 1
gene 3 168 4 4.53506 0 1938 4.53506 1
gene 2 3 168 0.62406 0 2096 0.62406 0
gene 2 1 168 2.04357 0 2131 2.04357 1
gene 3 2 168 0.610995 0 2329 0.610995 1
gene 2 38 230 1.63643 0 2460 1.63643 1
gene 2 230 4 1.74768 0 2461 1.74768 1
gene 2 77 4 0.518768 0 2768 0.518768 1
gene 2 3 38 0.268141 0 2818 0.268141 1
gene 1 12 230 -0.439856 0 2860 -0.464529 0
gene 1 1 77 -0.500777 0 2897 -0.500777 1
gene 2 168 168 1.65151 1 2929 1.65151 1
gene 3 2 276 0.732767 0 2973 0.357767 0
gene 3 276 4 0.948353 0 2974 0.948353 1
gene 1 168 77 0.837133 1 3019 0.837133 1
gene 2 4 230 0.707158 1 3101 0.707158 1
gene 1 3 276 -0.0729237 0 3247 -0.0729237 1
gene 2 276 77 1.21831 0 3397 1.21831 1
gene 2 3 77 -0.754073 0 3470 -0.754073 1
gene 2 38 276 -0.500507 0 3561 -0.500507 1
gene 2 168 230 -0.533486 0 3583 -0.533486 1
gene 2 12 12 1.12502 1 3716 1.12502 1
gene 1 230 230 -0.150801 1 3835 -0.150801 1
gene 1 3 230 0.0878514 0 3998 0 1
gene 2 1 276 0.37958 0 4058 0.37958 1
gene 3 230 77 0.969756 0 4154 0.969756 1
genomeend 20

/* Organism #21 Fitness: 512.091 Error: 137.909 */
genomestart 21
trait 1 0.100803 0.0100194 0.174572 0.0184528 0.0320137 0.0190793 0.542577 0.0286132 
trait 2 0.201949 0.0512785 0.104283 0.0501251 0.0535672 0.272441 0.0897698 0.0683473 
trait 3 0.668061 0.181292 0.121482 0.0288855 0.317588 0.0530786 0.0163443 0.119342 
node 1 3 1 1
node 2 3 1 1
node 3 2 1 1
node 4 2 0 2
node 12 1 0 0
node 38 1 0 0
node 77 1 0 0
node 168 1 0 0
node 230 1 0 0
node 276 1 0 0
gene 1 1 4 -1.4877 0 1 -1.4877 1
gene 3 2 4 3.97212 0 2 3.97212 0
gene 2 3 4 -7.38206 0 3 -7.38206 1
gene 3 3 12 -0.418391 0 108 -0.418391 0
gene 3 12 4 -2.0281 0 109 -2.0281 0
gene 1 2 12 1.14489 0 213 1.14489 1
gene 1 1 12 2.89769 0 224 2.89769 1
gene 1 4 12 -0.622718 1 306 -0.622718 0
gene 3 1 38 -3.8771 0 419 -3.8771 0
gene 3 38 12 1.99213 0 420 1.99213 1
gene 2 2 38 -1.0922 0 494 -1.0922 1
gene 2 38 4 2.75783 0 696 2.75783 1
gene 3 38 77 0.985634 0 994 0.985634 0
gene 3 77 12 -0.389312 0 995 -0.389312 0
gene 3 2 77 -0.765182 0 1765 -0.765182 0
gene 1 77 77 1.69707 1 1813 1.69707 1
gene 2 38 38 1.29752 1 1901 1.29752 1
gene 3 12 168 0.984699 0 1937 0.984699 0
gene 3 168 4 5.01756 0 1938 5.01756 1
gene 2 3 168 -1.59029 0 2096 -1.59029 0
gene 2 1 168 0.0251195 0 2131 0.0251195 1
gene 3 2 168 0.431156 0 2329 0.431156 1
gene 2 38 230 -0.206234 0 2460 -0.206234 0
gene 2 230 4 0.378877 0 2461 0.378877 1
gene 2 77 4 1.27156 0 2768 1.27156 1
gene 2 3 38 -0.657076 0 2818 -0.657076 0
gene 1 12 230 0.741497 0 2860 0.741497 0
gene 1 1 77 1.99073 0 2897 1.99073 1
gene 2 168 168 1.76314 1 2929 1.76314 1
gene 3 2 276 -0.0233678 0 2973 -0.0233678 0
gene 3 276 4 0.790561 0 2974 0.790561 1
gene 1 168 77 -1.48805 1 3019 -1.48805 1
gene 2 4 230 0.780344 1 3101 0.780344 1
gene 1 3 276 -1.44838 0 3247 -1.44838 0
gene 2 276 77 0.942855 0 3397 0.942855 1
gene 2 3 77 -3.53944 0 3470 -3.53944 1
gene 2 38 276 -1.06935 0 3561 -1.06935 0
gene 2 168 230 -0.503532 0 3583 -0.503532 1
gene 3 230 230 0.102324 1 3836 0.102324 1
gene 3 230 276 0.803646 0 3957 0.803646 1
gene 1 12 12 -1.3501 1 4065 -1.3501 1
genomeend 21

/* Organism #22 Fitness: 2.33939 Error: 647.661 */
genomestart 22
trait 1 0.0984423 0.00907528 0.204953 0.0164606 0.0546557 0.017395 0.547702 0.0241477 
trait 2 0.202236 0.040058 0.109145 0.046888 0.0547063 0.335506 0.132641 0.111534 
trait 3 0.66721 0.179739 0.123519 0.0275041 0.316063 0.0524806 0.0216176 0.113846 
node 1 3 1 1
node 2 3 1 1
node 3 2 1 1
node 4 2 0 2
node 12 1 0 0
node 38 1 0 0
node 77 1 0 0
node 168 1 0 0
node 230 1 0 0
node 276 1 0 0
gene 1 1 4 -0.427241 0 1 -0.427241 1
gene 3 2 4 0.607356 0 2 0.607356 0
gene 2 3 4 -5.51316 0 3 -5.51316 1
gene 3 3 12 1.59269 0 108 1.59269 1
gene 3 12 4 -4.60703 0 109 -4.60703 1
gene 1 2 12 -0.17799 0 213 -0.17799 0
gene 3 1 12 2.15414 0 224 2.15414 1
gene 1 4 12 -0.952375 1 306 -0.952375 1
gene 3 1 38 -0.954885 0 419 -0.954885 0
gene 3 38 12 0.734229 0 420 0.734229 1
gene 2 2 38 -0.37003 0 494 -0.37003 0
gene 2 38 4 0.924833 0 696 0.924833 0
gene 3 38 77 2.92082 0 994 2.92082 0
gene 3 77 12 -0.182694 0 995 -0.182694 0
gene 3 2 77 1.7543 0 1765 1.7543 1
gene 1 77 77 1.70582 1 1813 1.70582 1
gene 2 38 38 1.78138 1 1901 1.78138 0
gene 3 12 168 -0.495543 0 1937 -0.495543 0
gene 3 168 4 3.89053 0 1938 3.89053 1
gene 2 3 168 -0.925542 0 2096 -0.925542 1
gene 2 1 168 2.74963 0 2131 2.74963 1
gene 3 2 168 0.848461 0 2329 0.848461 1
gene 2 38 230 1.7735 0 2460 1.7735 0
gene 2 230 4 0.744545 0 2461 0.744545 1
gene 2 77 4 2.83387 0 2768 2.83387 1
gene 2 3 38 0.315227 0 2818 0.315227 0
gene 1 12 230 0.591765 0 2860 0.591765 1
gene 1 1 77 -1.76455 0 2897 -1.76455 0
gene 2 168 168 -1.11821 1 2929 -1.11821 1
gene 3 2 276 -0.499255 0 2973 -0.499255 1
gene 3 276 4 0.38716 0 2974 0.38716 1
gene 1 168 77 -0.378468 1 3019 -0.378468 0
gene 2 4 230 2.8942 1 3101 2.8942 1
gene 1 3 276 1.73337 0 3247 1.73337 1
gene 2 276 77 -0.570107 0 3397 -0.570107 1
gene 2 3 77 -1.9257 0 3470 -1.9257 1
gene 2 38 276 -3.44163 0 3561 -3.44163 1
gene 2 168 230 0.706657 0 3583 0.706657 1
gene 2 12 12 1.04307 1 3716 1.04307 1
gene 1 230 230 -1.36311 1 3835 -1.36311 1
gene 3 276 276 -0.83876 1 4023 -0.83876 1
gene 3 12 276 0.326212 0 4057 0.326212 1
genomeend 22

/* Organism #23 Fitness: 509.284 Error: 140.716 */
genomestart 23
trait 1 0.100734 0.00945379 0.173534 0.0176899 0.0301164 0.0187721 0.538923 0.0251109 
trait 2 0.202401 0.0435 0.108401 0.0423388 0.0543911 0.235918 0.0758026 0.0550579 
trait 3 0.664284 0.181332 0.123262 0.02728 0.318264 0.0533603 0.0191961 0.119889 
node 1 3 1 1
node 2 3 1 1
node 3 2 1 1
node 4 2 0 2
node 12 1 0 0
node 38 3 0 0
node 77 1 0 0
node 168 1 0 0
node 230 1 0 0
node 276 1 0 0
gene 1 1 4 -0.601454 0 1 -0.601454 1
gene 3 2 4 1.30001 0 2 1.30001 0
gene 2 3 4 -6.39796 0 3 -6.39796 1
gene 3 3 12 -1.88535 0 108 -1.88535 0
gene 3 12 4 -2.20067 0 109 -2.20067 1
gene 1 2 12 1.13544 0 213 1.13544 0
gene 1 1 12 4.09778 0 224 4.09778 1
gene 1 4 12 -0.665498 1 306 -0.665498 0
gene 3 1 38 -2.22928 0 419 -2.22928 0
gene 3 38 12 1.00043 0 420 1.00043 0
gene 2 2 38 -1.58296 0 494 -1.58296 0
gene 2 38 4 1.47452 0 696 1.47452 0
gene 3 38 77 0.605424 0 994 0.605424 1
gene 3 77 12 -0.225528 0 995 -0.225528 0
gene 3 2 77 0.466096 0 1765 0.466096 0
gene 1 77 77 0.947127 1 1813 0.947127 1
gene 2 38 38 1.96079 1 1901 1.96079 0
gene 3 12 168 2.46147 0 1937 2.46147 0
gene 3 168 4 3.85514 0 1938 3.85514 1
gene 2 3 168 0.652066 0 2096 0.652066 0
gene 2 1 168 0.861893 0 2131 0.861893 1
gene 3 2 168 0.337583 0 2329 0.337583 1
gene 2 38 230 0.335394 0 2460 0.331976 1
gene 2 230 4 1.53614 0 2461 1.46097 1
gene 2 77 4 2.08209 0 2768 2.08209 1
gene 2 3 38 0.557608 0 2818 0.557608 1
gene 1 12 230 0.739777 0 2860 0.739777 1
gene 1 1 77 0.543698 0 2897 0.543698 0
gene 2 168 168 0.286472 1 2929 0.286472 1
gene 3 2 276 0.191511 0 2973 -0.0584888 0
gene 3 276 4 0.79887 0 2974 0.430812 1
gene 1 168 77 0.0378294 1 3019 0.0378294 1
gene 2 4 230 0.971805 1 3101 0.971805 1
gene 2 168 230 -0.1113 0 3149 0 1
gene 1 3 230 0.664606 0 3190 0 1
gene 2 276 168 -0.479512 0 3340 -0.479512 1
gene 2 276 276 -0.212607 1 3391 -0.212607 1
gene 3 38 168 0.970308 0 3579 0.970308 1
gene 3 1 230 -0.305923 0 3640 0 1
gene 1 12 276 0.152606 0 3743 0.152606 1
gene 3 230 230 -0.336304 1 3892 -0.336304 1
gene 1 77 230 -0.313133 0 3961 -0.313133 1
gene 1 77 168 -0.548486 0 4131 -0.548486 1
genomeend 23

/* Organism #24 Fitness: 488.464 Error: 161.536 */
genomestart 24
trait 1 0.0958143 0.009025 0.226899 0.0158846 0.0675717 0.0173494 0.554091 0.0258595 
trait 2 0.205245 0.0536779 0.105468 0.0560933 0.0547652 0.272789 0.0893974 0.0671444 
trait 3 0.680376 0.179687 0.120417 0.0279758 0.311695 0.0527314 0.0164129 0.112128 
node 1 3 1 1
node 2 3 1 1
node 3 2 1 1
node 4 2 0 2
node 12 1 0 0
node 38 1 0 0
node 77 1 0 0
node 168 1 0 0
node 230 1 0 0
node 276 1 0 0
node 328 1 0 0
gene 1 1 4 -2.04218 0 1 -2.04218 1
gene 3 2 4 1.75218 0 2 1.75218 0
gene 2 3 4 -4.322 0 3 -4.322 1
gene 3 3 12 0.786126 0 108 0.786126 1
gene 3 12 4 -2.90602 0 109 -2.90602 0
gene 1 2 12 0.214843 0 213 0.214843 0
gene 3 1 12 2.56229 0 224 2.56229 1
gene 1 4 12 -0.427697 1 306 -0.427697 0
gene 3 1 38 -3.70204 0 419 -3.70204 0
gene 3 38 12 1.74859 0 420 1.74859 1
gene 2 2 38 0.386086 0 494 0.386086 0
gene 2 38 4 2.96996 0 696 2.96996 0
gene 3 38 77 -0.752809 0 994 -0.752809 0
gene 3 77 12 0.760601 0 995 0.760601 0
gene 3 2 77 -0.317366 0 1765 -0.317366 0
gene 1 77 77 -0.376876 1 1813 -0.376876 1
gene 2 38 38 1.3965 1 1901 1.3965 0
gene 3 12 168 3.27999 0 1937 3.27999 1
gene 3 168 4 2.37066 0 1938 2.37066 1
gene 2 3 168 -0.265202 0 2096 -0.265202 0
gene 2 1 168 3.50161 0 2131 3.50161 1
gene 3 2 168 -1.13818 0 2329 -1.13818 1
gene 2 38 230 -0.434653 0 2460 -0.434653 0
gene 2 230 4 1.97754 0 2461 1.97754 1
gene 2 77 4 2.87541 0 2768 2.87541 1
gene 2 3 38 0.750282 0 2818 0.750282 0
gene 1 12 230 -0.744901 0 2860 -0.744901 0
gene 1 1 77 1.31618 0 2897 1.31618 1
gene 2 168 168 2.59834 1 2929 2.59834 1
gene 3 2 276 2.38597 0 2973 2.38597 0
gene 3 276 4 -0.298597 0 2974 -0.298597 1
gene 1 168 77 2.10005 1 3019 2.10005 1
gene 2 4 230 0.91995 1 3101 0.91995 1
gene 1 3 276 -0.873977 0 3247 -0.873977 0
gene 2 276 77 -0.921926 0 3397 -0.921926 1
gene 2 3 77 -2.3163 0 3470 -2.3163 1
gene 2 38 276 -0.229733 0 3561 -0.229733 0
gene 2 168 230 -0.915641 0 3583 -0.915641 1
gene 2 12 12 -0.663114 1 3716 -0.663114 1
gene 3 2 328 0.219732 0 3752 0.219732 1
gene 3 328 276 0.108615 0 3753 0.108615 1
gene 3 77 168 1.3704 0 3939 1.3704 1
gene 2 276 276 -1.42809 1 4133 -1.42809 1
genomeend 24

/* Organism #25 Fitness: 178.261 Error: 471.739 */
genomestart 25
trait 1 0.0998384 0.00935633 0.17905 0.016336 0.028232 0.0166928 0.535681 0.0426776 
trait 2 0.101458 0.20054 0.140852 0.0169764 0.0549927 0.260001 0.090195 0.0206094 
trait 3 0.652768 0.180583 0.126477 0.0259082 0.318073 0.0525788 0.0252896 0.117949 
node 1 3 1 1
node 2 3 1 1
node 3 2 1 1
node 4 2 0 2
node 12 1 0 0
node 38 1 0 0
node 77 1 0 0
node 168 1 0 0
node 230 1 0 0
node 276 1 0 0
gene 1 1 4 -0.0812266 0 1 -0.0812266 1
gene 3 2 4 -0.47552 0 2 -0.47552 0
gene 2 3 4 -4.10253 0 3 -4.10253 1
gene 3 3 12 -2.13171 0 108 -2.13171 0
gene 3 12 4 -2.04731 0 109 -2.04731 0
gene 1 2 12 1.35967 0 213 1.35967 1
gene 3 1 12 1.14557 0 224 1.14557 1
gene 1 4 12 -1.20889 1 306 -1.20889 0
gene 3 1 38 -2.13552 0 419 -2.13552 0
gene 3 38 12 0.552698 0 420 0.552698 0
gene 2 2 38 -2.08855 0 494 -2.08855 0
gene 2 38 4 1.00174 0 696 1.00174 0
gene 3 38 77 -0.793738 0 994 -0.793738 0
gene 3 77 12 -0.512779 0 995 -0.512779 0
gene 3 2 77 -2.07277 0 1765 -2.07277 1
gene 1 77 77 0.936646 1 1813 0.936646 1
gene 2 38 38 -0.0514331 1 1901 -0.0514331 0
gene 3 12 168 3.4133 0 1937 3.4133 0
gene 3 168 4 5.36212 0 1938 5.36212 1
gene 2 3 168 -0.974267 0 2096 -0.974267 1
gene 2 1 168 1.20094 0 2131 1.20094 1
gene 3 2 168 -1.65361 0 2329 -1.65361 1
gene 2 38 230 0.199796 0 2460 0.199796 0
gene 2 230 4 -1.6607 0 2461 -1.6607 1
gene 2 77 4 1.51361 0 2768 1.51361 1
gene 2 3 38 -0.485972 0 2818 -0.485972 1
gene 1 12 230 -1.34748 0 2860 -1.34748 1
gene 1 1 77 -0.665572 0 2897 -0.665572 0
gene 2 168 168 -0.522659 1 2929 -0.522659 1
gene 3 2 276 0.525152 0 2973 0.525152 1
gene 3 276 4 0.116725 0 2974 0.116725 1
gene 1 168 77 -1.49453 1 3019 -1.49453 1
gene 2 4 230 2.4018 1 3101 2.4018 1
gene 2 168 230 0.601011 0 3149 0.601011 1
gene 1 3 230 -0.68326 0 3190 -0.68326 1
gene 2 276 168 -2.27704 0 3340 -2.27704 1
gene 2 276 276 0.268252 1 3391 0.268252 1
gene 3 38 168 1.31373 0 3579 1.31373 1
gene 3 1 230 -1.89506 0 3640 -1.89506 1
gene 1 12 276 0.961861 0 3743 0.961861 1
gene 3 230 230 0.477984 1 3892 0.477984 1
gene 1 77 230 -1.1093 0 3961 -1.1093 1
gene 1 77 168 0.455492 0 4131 0.455492 1
genomeend 25

/* Organism #26 Fitness: 485.656 Error: 164.344 */
genomestart 26
trait 1 0.0994962 0.00939076 0.202072 0.0168014 0.0419115 0.017108 0.553743 0.030835 
trait 2 0.202908 0.0432222 0.109843 0.0433537 0.0546807 0.26044 0.0893927 0.06728 
trait 3 0.663481 0.180192 0.124693 0.0275758 0.315737 0.052672 0.0229639 0.115912 
node 1 3 1 1
node 2 3 1 1
node 3 2 1 1
node 4 1 0 2
node 12 1 0 0
node 38 1 0 0
node 77 1 0 0
node 168 1 0 0
node 230 1 0 0
node 276 1 0 0
gene 1 1 4 -1.31406 0 1 -1.31406 1
gene 3 2 4 -0.206593 0 2 -0.206593 0
gene 2 3 4 -2.95635 0 3 -2.95635 1
gene 3 3 12 -2.02961 0 108 -2.02961 0
gene 3 12 4 -4.71424 0 109 -4.71424 0
gene 1 2 12 -0.147426 0 213 -0.147426 0
gene 3 1 12 5.88139 0 224 5.88139 1
gene 1 4 12 0.941264 1 306 0.941264 0
gene 3 1 38 -1.17132 0 419 -1.17132 0
gene 3 38 12 1.36065 0 420 1.36065 0
gene 2 2 38 -1.64819 0 494 -1.64819 0
gene 2 38 4 1.7394 0 696 1.7394 1
gene 1 38 77 1.57335 0 994 1.57335 0
gene 3 77 12 2.3802 0 995 2.3802 0
gene 3 2 77 1.84453 0 1765 1.84453 1
gene 1 77 77 -0.45102 1 1813 -0.45102 1
gene 2 38 38 2.40224 1 1901 2.40224 0
gene 3 12 168 2.14833 0 1937 2.14833 0
gene 3 168 4 3.9455 0 1938 3.9455 1
gene 2 3 168 1.0712 0 2096 1.0712 0
gene 2 1 168 3.57037 0 2131 3.57037 1
gene 3 2 168 -0.230753 0 2329 -0.230753 1
gene 2 38 230 1.73947 0 2460 1.73947 0
gene 2 230 4 1.09404 0 2461 1.09404 1
gene 2 77 4 1.64508 0 2768 1.64508 1
gene 2 3 38 0.344497 0 2818 0.344497 0
gene 1 12 230 -1.55702 0 2860 -1.55702 0
gene 1 1 77 -1.06249 0 2897 -1.06249 0
gene 2 168 168 0.695712 1 2929 0.695712 1
gene 3 2 276 2.02909 0 2973 2.02909 0
gene 3 276 4 1.51229 0 2974 1.51229 1
gene 1 168 77 -0.803159 1 3019 -0.803159 1
gene 2 4 230 -0.54027 1 3101 -0.54027 1
gene 2 168 230 -0.222409 0 3149 -0.222409 1
gene 1 3 230 -0.563668 0 3190 -0.563668 1
gene 2 276 168 -0.479512 0 3340 -0.479512 1
gene 2 276 276 0.437795 1 3391 0.437795 1
gene 3 38 168 0.970308 0 3579 0.970308 1
gene 3 1 230 1.46722 0 3640 1.46722 1
gene 1 12 276 -1.27235 0 3743 -1.27235 1
gene 3 230 230 1.58928 1 3892 1.58928 1
gene 1 77 230 0.581533 0 3961 0.581533 1
genomeend 26

/* Organism #27 Fitness: 509.986 Error: 140.014 */
genomestart 27
trait 1 0.10004 0.00923023 0.192627 0.0178057 0.0330429 0.017657 0.552715 0.0256411 
trait 2 0.200836 0.0652999 0.104812 0.0597213 0.0544106 0.366112 0.133004 0.111742 
trait 3 0.664753 0.180515 0.124403 0.0328518 0.319702 0.0524316 0.0219652 0.117652 
node 1 3 1 1
node 2 3 1 1
node 3 2 1 1
node 4 2 0 2
node 12 1 0 0
node 38 1 0 0
node 77 1 0 0
node 168 1 0 0
node 230 1 0 0
node 276 1 0 0
gene 1 1 4 -1.14328 0 1 -1.14328 1
gene 3 2 4 1.08861 0 2 1.08861 0
gene 2 3 4 -3.78871 0 3 -3.78871 1
gene 3 3 12 -1.20302 0 108 -1.20302 0
gene 3 12 4 -4.00348 0 109 -4.00348 0
gene 1 2 12 0.255568 0 213 0.255568 0
gene 3 1 12 4.39944 0 224 4.39944 1
gene 1 4 12 -0.809688 1 306 -0.809688 0
gene 3 1 38 -2.24381 0 419 -2.24381 0
gene 3 38 12 0.782517 0 420 0.782517 1
gene 2 2 38 -2.01609 0 494 -2.01609 0
gene 2 38 4 1.3098 0 696 1.3098 0
gene 3 38 77 1.16501 0 994 1.16501 0
gene 3 77 12 -0.328343 0 995 -0.328343 0
gene 3 2 77 -0.0345037 0 1765 -0.0345037 0
gene 1 77 77 -0.365215 1 1813 -0.365215 1
gene 2 38 38 1.87212 1 1901 1.87212 0
gene 3 12 168 1.87852 0 1937 1.87852 0
gene 3 168 4 5.67006 0 1938 5.67006 1
gene 2 3 168 0.074127 0 2096 0.074127 0
gene 2 1 168 1.1488 0 2131 1.1488 1
gene 3 2 168 0.312798 0 2329 0.312798 1
gene 2 38 230 -0.409272 0 2460 -0.416352 0
gene 2 230 4 1.8098 0 2461 1.8098 1
gene 2 77 4 0.71097 0 2768 0.71097 0
gene 2 3 38 -0.250808 0 2818 -0.250808 0
gene 1 12 230 -0.273609 0 2860 -0.273609 0
gene 1 1 77 -0.349586 0 2897 -0.349586 0
gene 2 168 168 0.166909 1 2929 0.166909 1
gene 3 2 276 0.862238 0 2973 0.612238 0
gene 3 276 4 0.629859 0 2974 0.629859 1
gene 1 168 77 0.215825 1 3019 0.215825 1
gene 2 4 230 -0.19771 1 3101 -0.19771 1
gene 1 3 276 -0.38392 0 3247 -0.38392 1
gene 2 77 230 0.816333 0 3364 0.816333 1
gene 2 38 168 0.439129 0 3415 0 1
gene 1 2 230 1.88576 0 3462 1.88576 1
gene 2 230 230 -0.290951 1 3723 -0.290951 1
gene 1 3 230 0.662937 0 3876 0 1
gene 3 1 230 0.472179 0 3945 0 1
gene 3 168 77 0.755594 0 4067 0.755594 1
gene 2 276 168 0.371112 0 4186 0.371112 1
genomeend 27

/* Organism #28 Fitness: 457.35 Error: 192.65 */
genomestart 28
trait 1 0.09115 0.00938333 0.220421 0.0144397 0.0343705 0.0157133 0.540806 0.0864486 
trait 2 0.203574 0.0371512 0.110334 0.0359483 0.0549735 0.201856 0.0612494 0.0377387 
trait 3 0.666281 0.180107 0.12175 0.0243642 0.315945 0.0528467 0.01825 0.117955 
node 1 3 1 1
node 2 3 1 1
node 3 2 1 1
node 4 1 0 2
node 12 1 0 0
node 38 3 0 0
node 77 1 0 0
node 168 1 0 0
node 230 1 0 0
node 276 1 0 0
gene 1 1 4 -0.71289 0 1 -0.71289 1
gene 3 2 4 0.199813 0 2 0.199813 0
gene 2 3 4 -5.37647 0 3 -5.37647 1
gene 3 3 12 -2.64637 0 108 -2.64637 0
gene 3 12 4 -4.76454 0 109 -4.76454 0
gene 1 2 12 1.133 0 213 1.133 0
gene 3 1 12 5.93201 0 224 5.93201 1
gene 1 4 12 -1.06274 1 306 -1.06274 0
gene 3 1 38 -3.89225 0 419 -3.89225 0
gene 3 38 12 0.747462 0 420 0.747462 0
gene 2 2 38 -0.0208833 0 494 -0.0208833 0
gene 2 38 4 0.732163 0 696 0.732163 0
gene 3 38 77 -0.849171 0 994 -0.849171 0
gene 3 77 12 2.10185 0 995 2.10185 0
gene 3 2 77 -0.745559 0 1765 -0.745559 0
gene 1 77 77 -1.40352 1 1813 -1.40352 1
gene 2 38 38 1.33758 1 1901 1.33758 0
gene 3 12 168 0.464873 0 1937 0.464873 0
gene 3 168 4 5.94761 0 1938 5.94761 1
gene 2 3 168 -0.518182 0 2096 -0.518182 0
gene 2 1 168 1.30424 0 2131 1.30424 1
gene 3 2 168 1.59516 0 2329 1.59516 1
gene 2 38 230 -0.51294 0 2460 -0.51294 0
gene 2 230 4 1.52964 0 2461 1.40938 1
gene 2 77 4 0.252664 0 2768 0.252664 1
gene 2 3 38 2.13893 0 2818 2.13893 0
gene 1 12 230 1.96156 0 2860 1.96156 0
gene 1 1 77 1.41571 0 2897 1.41571 0
gene 2 168 168 0.373717 1 2929 0.373717 1
gene 3 2 276 0.989755 0 2973 0.989755 1
gene 3 276 4 -0.833973 0 2974 -0.833973 1
gene 1 168 77 -0.418984 1 3019 -0.418984 1
gene 2 4 230 0.863359 1 3101 0.863359 1
gene 1 3 276 2.79126 0 3247 2.79126 1
gene 2 276 77 0.625949 0 3397 0.625949 1
gene 3 276 168 -1.47649 0 3548 -1.47649 1
gene 1 230 168 -0.808137 0 3628 -0.808137 1
gene 3 230 38 2.0839 1 3896 2.0839 1
gene 2 276 38 -0.297993 0 3993 -0.297993 1
gene 3 77 230 -0.0931853 0 4155 -0.0931853 1
gene 2 77 38 0.0302324 0 4187 0.0302324 1
genomeend 28

/* Organism #29 Fitness: 445.66 Error: 204.34 */
genomestart 29
trait 1 0.0996084 0.00944084 0.188061 0.0187589 0.0376965 0.0187927 0.548283 0.0280262 
trait 2 0.203054 0.0362655 0.109311 0.0364925 0.0546833 0.201182 0.0613206 0.0393685 
trait 3 0.661828 0.179734 0.121022 0.0260077 0.316671 0.0526459 0.0173621 0.118101 
node 1 3 1 1
node 2 3 1 1
node 3 2 1 1
node 4 1 0 2
node 12 1 0 0
node 38 1 0 0
node 77 1 0 0
node 168 1 0 0
node 230 2 0 0
node 276 1 0 0
gene 1 1 4 1.17596 0 1 1.17596 1
gene 3 2 4 1.81804 0 2 1.81804 0
gene 2 3 4 -6.90885 0 3 -6.90885 1
gene 3 3 12 1.29975 0 108 1.29975 0
gene 3 12 4 -2.67011 0 109 -2.67011 0
gene 1 2 12 0.957487 0 213 0.957487 0
gene 3 1 12 3.60214 0 224 3.60214 1
gene 1 4 12 -2.03654 1 306 -2.03654 0
gene 3 1 38 -3.05243 0 419 -3.05243 0
gene 3 38 12 2.64521 0 420 2.64521 0
gene 2 2 38 0.261725 0 494 0.261725 0
gene 2 38 4 1.76029 0 696 1.76029 0
gene 3 38 77 0.0683545 0 994 0.0683545 0
gene 3 77 12 0.566922 0 995 0.566922 0
gene 3 2 77 1.26313 0 1765 1.26313 0
gene 1 77 77 2.5346 1 1813 2.5346 1
gene 2 38 38 -0.0727161 1 1901 -0.0727161 0
gene 3 12 168 3.42837 0 1937 3.42837 0
gene 3 168 4 4.70677 0 1938 4.70677 1
gene 2 3 168 -0.164906 0 2096 -0.164906 0
gene 2 1 168 2.4963 0 2131 2.4963 1
gene 3 2 168 0.0138331 0 2329 0.0138331 1
gene 2 38 230 2.36415 0 2460 2.36415 0
gene 2 230 4 3.35831 0 2461 3.35831 1
gene 2 77 4 1.82858 0 2768 1.82858 1
gene 2 3 38 0.431512 0 2818 0.431512 0
gene 1 12 230 1.60629 0 2860 1.60629 0
gene 1 1 77 -0.910001 0 2897 -0.910001 0
gene 2 168 168 -0.502948 1 2929 -0.502948 1
gene 3 2 276 2.45897 0 2973 2.45897 0
gene 3 276 4 -2.45935 0 2974 -2.45935 1
gene 1 168 77 1.26769 1 3019 1.26769 1
gene 2 4 230 1.76588 1 3101 1.76588 1
gene 1 3 276 0.470316 0 3247 0.470316 1
gene 2 77 230 0.47492 0 3364 0.47492 1
gene 2 38 168 0.439129 0 3415 0.439129 1
gene 1 2 230 0.896889 0 3462 0.896889 1
gene 3 230 276 -0.446154 0 3593 -0.446154 1
gene 1 168 230 0.580703 0 3629 0.580703 1
gene 3 38 276 1.95675 0 3738 1.95675 1
gene 3 1 230 -0.438757 0 3834 -0.438757 1
gene 2 168 77 -0.499688 0 4120 -0.499688 1
genomeend 29

/* Organism #30 Fitness: 512.559 Error: 137.441 */
genomestart 30
trait 1 0.0957558 0.00914467 0.213913 0.0147914 0.0576253 0.0175699 0.551247 0.0246964 
trait 2 0 0.298202 0 0.967413 0 0.208098 0.00904853 0.0382929 
trait 3 0.678044 0.180651 0.11936 0.0238157 0.313829 0.0538148 0.0142499 0.116101 
node 1 3 1 1
node 2 3 1 1
node 3 2 1 1
node 4 2 0 2
node 12 1 0 0
node 38 1 0 0
node 77 1 0 0
node 168 1 0 0
node 230 1 0 0
node 276 1 0 0
gene 1 1 4 -0.492737 0 1 -0.492737 1
gene 3 2 4 -0.248126 0 2 -0.248126 0
gene 2 3 4 -6.9788 0 3 -6.9788 1
gene 3 3 12 0.276638 0 108 0.276638 0
gene 3 12 4 -2.47095 0 109 -2.47095 0
gene 1 2 12 1.71993 0 213 1.71993 1
gene 3 1 12 3.21086 0 224 3.21086 1
gene 1 4 12 -1.12006 1 306 -1.12006 0
gene 3 1 38 -1.28256 0 419 -1.28256 0
gene 3 38 12 1.8054 0 420 1.8054 0
gene 2 2 38 -0.433515 0 494 -0.433515 0
gene 2 38 4 0.600254 0 696 0.600254 0
gene 3 38 77 1.91267 0 994 1.91267 0
gene 3 77 12 1.56652 0 995 1.56652 0
gene 3 2 77 -0.604194 0 1765 -0.604194 0
gene 1 77 77 -0.19215 1 1813 -0.19215 1
gene 2 38 38 1.79444 1 1901 1.79444 1
gene 3 12 168 1.90387 0 1937 1.90387 0
gene 3 168 4 4.27382 0 1938 4.27382 1
gene 2 3 168 0.290327 0 2096 0.290327 0
gene 2 1 168 2.05291 0 2131 2.05291 1
gene 3 2 168 -0.556172 0 2329 -0.556172 1
gene 2 38 230 3.0365 0 2460 3.0365 0
gene 2 230 4 1.03708 0 2461 1.02957 0
gene 2 77 4 0.2377 0 2768 0.2377 1
gene 2 3 38 -0.239161 0 2818 -0.239161 0
gene 1 12 230 -0.103433 0 2860 -0.103433 0
gene 1 1 77 2.23419 0 2897 2.23419 0
gene 2 168 168 0.563489 1 2929 0.563489 1
gene 3 2 276 0.666185 0 2973 0.166185 0
gene 3 276 4 1.24296 0 2974 0.654063 1
gene 1 168 77 0.112249 1 3019 0.112249 1
gene 2 4 230 0.413961 1 3101 0.413961 1
gene 1 3 276 0.771939 0 3247 0.771939 0
gene 2 276 77 -0.135373 0 3397 -0.135373 1
gene 2 3 77 0.603148 0 3470 0.603148 1
gene 2 38 276 0.332883 0 3561 0.332883 1
gene 2 168 230 -0.894051 0 3583 -0.894051 1
gene 2 12 12 0.252282 1 3716 0.252282 1
gene 2 276 38 -0.883439 1 3886 -0.883439 1
gene 1 77 230 -0.313133 0 3961 0 1
gene 3 2 230 0.851199 0 3995 0 1
genomeend 30

/* Organism #31 Fitness: 491.505 Error: 158.495 */
genomestart 31
trait 1 0.0967886 0.178011 0.157138 0.012631 0.0495512 0.0172815 0.555052 0.178438 
trait 2 0.205961 0.0380436 0.108928 0.0418863 0.0556166 0.207569 0.06393 0.0384561 
trait 3 0.671525 0.179527 0.119384 0.0245255 0.314623 0.0530592 0.0157869 0.115671 
node 1 3 1 1
node 2 3 1 1
node 3 2 1 1
node 4 1 0 2
node 12 1 0 0
node 38 1 0 0
node 77 1 0 0
node 168 1 0 0
node 230 1 0 0
node 276 1 0 0
gene 1 1 4 -0.237898 0 1 -0.237898 1
gene 3 2 4 1.05475 0 2 1.05475 0
gene 2 3 4 -6.79936 0 3 -6.79936 1
gene 3 3 12 0.536994 0 108 0.536994 0
gene 3 12 4 -0.595562 0 109 -0.595562 0
gene 1 2 12 -1.10285 0 213 -1.10285 0
gene 3 1 12 1.54244 0 224 1.54244 0
gene 1 4 12 1.3418 1 306 1.3418 1
gene 3 1 38 -0.458754 0 419 -0.458754 0
gene 3 38 12 1.64091 0 420 1.64091 0
gene 2 2 38 1.04547 0 494 1.04547 0
gene 2 38 4 2.05879 0 696 2.05879 0
gene 3 38 77 0.826368 0 994 0.826368 0
gene 3 77 12 -0.797479 0 995 -0.797479 0
gene 3 2 77 0.237066 0 1765 0.237066 0
gene 1 77 77 1.58245 1 1813 1.58245 1
gene 2 38 38 2.42285 1 1901 2.42285 0
gene 3 12 168 3.4016 0 1937 3.4016 0
gene 3 168 4 3.10559 0 1938 3.10559 1
gene 2 3 168 -2.41911 0 2096 -2.41911 0
gene 2 1 168 2.17753 0 2131 2.17753 1
gene 3 2 168 -0.45655 0 2329 -0.45655 1
gene 2 38 230 1.91482 0 2460 1.91482 1
gene 2 230 4 -0.343683 0 2461 -0.343683 0
gene 2 77 4 0.22031 0 2768 0.22031 1
gene 2 3 38 1.05753 0 2818 1.05753 0
gene 1 12 230 1.36872 0 2860 1.36872 0
gene 1 1 77 0.521349 0 2897 0.521349 0
gene 2 168 168 1.67239 1 2929 1.67239 1
gene 3 2 276 1.12709 0 2973 1.12709 0
gene 3 276 4 2.57908 0 2974 2.57908 1
gene 1 168 77 -0.0665255 1 3019 -0.0665255 1
gene 2 4 230 0.452326 1 3101 0.452326 1
gene 1 3 276 -0.967383 0 3247 -0.967383 1
gene 2 276 77 0.496224 0 3397 0.496224 1
gene 2 3 77 -2.42528 0 3470 -2.42528 1
gene 2 38 276 -1.54367 0 3561 -1.54367 1
gene 2 168 230 0.668026 0 3583 0.668026 1
gene 3 230 230 0.753959 1 3836 0.753959 1
gene 3 230 276 1.93051 0 3957 1.93051 1
genomeend 31

/* Organism #32 Fitness: 508.582 Error: 141.418 */
genomestart 32
trait 1 0.0980047 0.0091204 0.221321 0.018675 0.0368768 0.0166128 0.578389 0.0234837 
trait 2 0.198813 0.0500095 0.106887 0.0481433 0.0535244 0.268844 0.0901591 0.0662223 
trait 3 0.655658 0.180723 0.127898 0.027837 0.317093 0.0525736 0.0276301 0.115895 
node 1 3 1 1
node 2 3 1 1
node 3 2 1 1
node 4 2 0 2
node 12 1 0 0
node 38 1 0 0
node 77 1 0 0
node 168 1 0 0
node 230 1 0 0
node 276 1 0 0
gene 1 1 4 -0.49343 0 1 -0.49343 1
gene 3 2 4 1.38515 0 2 1.38515 0
gene 2 3 4 -6.0687 0 3 -6.0687 1
gene 3 3 12 -1.1208 0 108 -1.1208 0
gene 3 12 4 -4.6457 0 109 -4.6457 0
gene 1 2 12 0.130897 0 213 0.130897 1
gene 3 1 12 4.97418 0 224 4.97418 1
gene 1 4 12 0.30781 1 306 0.30781 1
gene 3 1 38 -3.87058 0 419 -3.87058 0
gene 3 38 12 0.792823 0 420 0.792823 0
gene 2 2 38 -1.35908 0 494 -1.35908 0
gene 2 38 4 0.282648 0 696 0.282648 1
gene 3 38 77 0.634263 0 994 0.634263 0
gene 3 77 12 1.89021 0 995 1.89021 0
gene 3 2 77 2.12681 0 1765 2.12681 1
gene 1 77 77 0.131197 1 1813 0.131197 1
gene 2 38 38 -1.1738 1 1901 -1.1738 0
gene 3 12 168 1.77513 0 1937 1.77513 0
gene 3 168 4 3.30704 0 1938 3.30704 1
gene 2 3 168 -0.481577 0 2096 -0.481577 0
gene 2 1 168 1.58361 0 2131 1.58361 1
gene 3 2 168 1.82083 0 2329 1.82083 1
gene 2 38 230 3.67076 0 2460 3.67076 0
gene 2 230 4 0.0540255 0 2461 0.0540255 1
gene 2 77 4 1.60786 0 2768 1.60786 1
gene 2 3 38 0.024189 0 2818 0.024189 0
gene 1 12 230 2.43072 0 2860 2.43072 0
gene 1 1 77 0.205514 0 2897 0.205514 0
gene 2 168 168 1.39274 1 2929 1.39274 1
gene 3 2 276 1.38649 0 2973 0.886494 1
gene 3 276 4 -1.20394 0 2974 -1.20394 1
gene 1 168 77 0.904313 1 3019 0.904313 1
gene 2 4 230 3.0919 1 3101 3.0919 1
gene 1 3 276 1.51085 0 3247 1.51085 1
gene 2 276 77 -0.259197 0 3397 -0.259197 1
gene 2 3 230 0.361383 0 3473 0.361383 1
gene 1 77 230 -2.25935 0 3517 -2.25935 1
gene 2 12 276 -1.68638 1 3691 -1.68638 1
gene 1 168 12 0.662392 0 4188 0.662392 1
genomeend 32

/* Organism #33 Fitness: 432.067 Error: 217.933 */
genomestart 33
trait 1 0.102161 0.00974863 0.16986 0.0182723 0.0307616 0.0172864 0.541198 0.0309659 
trait 2 0.199791 0.0416602 0.109744 0.0417257 0.0543838 0.259156 0.0900985 0.0680737 
trait 3 0.644557 0.179949 0.124971 0.0251506 0.319726 0.0525183 0.023495 0.118445 
node 1 3 1 1
node 2 3 1 1
node 3 3 1 1
node 4 2 0 2
node 12 3 0 0
node 38 1 0 0
node 77 1 0 0
node 168 1 0 0
node 230 1 0 0
node 276 1 0 0
gene 1 1 4 0.758403 0 1 0.758403 1
gene 3 2 4 2.14671 0 2 2.14671 0
gene 2 3 4 -6.52166 0 3 -6.52166 1
gene 3 3 12 -0.593543 0 108 -0.593543 0
gene 3 12 4 -3.37041 0 109 -3.37041 1
gene 1 2 12 -0.0216321 0 213 -0.0216321 0
gene 3 1 12 1.20786 0 224 1.20786 1
gene 1 4 12 0.680268 1 306 0.680268 0
gene 3 1 38 -1.31943 0 419 -1.31943 0
gene 3 38 12 1.83503 0 420 1.83503 1
gene 2 2 38 -1.18357 0 494 -1.18357 0
gene 2 38 4 0.000849855 0 696 0.000849855 0
gene 2 38 77 3.28305 0 994 3.28305 0
gene 3 77 12 -1.31096 0 995 -1.31096 0
gene 3 2 77 0.602864 0 1765 0.602864 0
gene 1 77 77 -0.979012 1 1813 -0.979012 0
gene 2 38 38 3.11053 1 1901 3.11053 0
gene 3 12 168 0.254934 0 1937 0.254934 0
gene 3 168 4 4.40777 0 1938 4.40777 1
gene 2 3 168 1.23194 0 2096 1.23194 1
gene 2 1 168 0.776719 0 2131 0.776719 1
gene 3 2 168 -0.389398 0 2329 -0.389398 1
gene 2 38 230 0.0785748 0 2460 0.0785748 0
gene 2 230 4 0.518534 0 2461 0.518534 1
gene 2 77 4 1.21814 0 2768 1.21814 1
gene 2 3 38 1.79949 0 2818 1.79949 0
gene 1 12 230 1.75755 0 2860 1.75755 0
gene 1 1 77 1.8469 0 2897 1.8469 1
gene 2 168 168 1.22656 1 2929 1.22656 1
gene 3 2 276 1.02485 0 2973 1.02485 1
gene 3 276 4 0.144351 0 2974 0.144351 1
gene 1 168 77 0.240164 1 3019 0.240164 1
gene 2 4 230 -0.463099 1 3101 -0.463099 1
gene 1 3 276 -1.25225 0 3247 -1.25225 1
gene 2 77 230 -1.03891 0 3364 -1.03891 1
gene 2 38 168 -0.61149 0 3415 -0.61149 0
gene 1 2 230 1.21783 0 3462 1.21783 1
gene 2 230 230 -0.269144 1 3723 -0.269144 1
genomeend 33

/* Organism #34 Fitness: 513.495 Error: 136.505 */
genomestart 34
trait 1 0.0938299 0.00950788 0.195426 0.0153358 0.0346579 0.0144973 0.523817 0.0885938 
trait 2 0.201472 0.043 0.110328 0.0415678 0.0548643 0.260365 0.0899983 0.0670251 
trait 3 0.659149 0.180048 0.125685 0.0277623 0.317108 0.0522181 0.0245979 0.116246 
node 1 3 1 1
node 2 3 1 1
node 3 3 1 1
node 4 2 0 2
node 12 3 0 0
node 38 3 0 0
node 77 1 0 0
node 168 1 0 0
node 230 1 0 0
node 276 1 0 0
gene 1 1 4 -0.79513 0 1 -0.79513 1
gene 3 2 4 0.858234 0 2 0.858234 0
gene 2 3 4 -4.96633 0 3 -4.96633 1
gene 3 3 12 -2.0626 0 108 -2.0626 0
gene 3 12 4 -4.24276 0 109 -4.24276 0
gene 1 2 12 1.49191 0 213 1.49191 0
gene 3 1 12 4.82642 0 224 4.82642 1
gene 1 4 12 -0.815708 1 306 -0.815708 1
gene 3 1 38 -3.07942 0 419 -3.07942 0
gene 3 38 12 1.70079 0 420 1.70079 1
gene 2 2 38 -2.15183 0 494 -2.15183 0
gene 2 38 4 1.65736 0 696 1.65736 0
gene 3 38 77 1.52826 0 994 1.52826 0
gene 3 77 12 1.60834 0 995 1.60834 0
gene 3 2 77 0.646441 0 1765 0.646441 0
gene 1 77 77 -0.348984 1 1813 -0.348984 1
gene 2 38 38 1.11857 1 1901 1.11857 0
gene 3 12 168 2.64166 0 1937 2.64166 0
gene 3 168 4 5.47552 0 1938 5.47552 1
gene 2 3 168 0.00578523 0 2096 0.00578523 0
gene 2 1 168 1.62362 0 2131 1.62362 1
gene 3 2 168 0.848824 0 2329 0.848824 1
gene 2 38 230 0.177071 0 2460 0.174645 0
gene 2 230 4 1.71767 0 2461 1.65754 1
gene 2 77 4 0.512813 0 2768 0.512813 1
gene 2 3 38 1.19782 0 2818 1.19782 0
gene 1 12 230 0.498768 0 2860 0.494656 0
gene 1 1 77 -0.0845341 0 2897 -0.0845341 1
gene 2 168 168 0.960365 1 2929 0.960365 1
gene 3 2 276 0.344498 0 2973 0.281998 1
gene 3 276 4 1.27376 0 2974 1.20015 1
gene 1 168 77 0.000223873 1 3019 0.000223873 1
gene 2 4 230 1.18508 1 3101 1.18508 1
gene 1 3 276 1.44342 0 3247 1.44342 1
gene 2 276 77 1.36469 0 3397 1.36469 1
gene 2 3 77 -0.754073 0 3470 -0.754073 1
gene 2 38 276 -0.500507 0 3561 -0.500507 1
gene 2 168 230 -0.533486 0 3583 -0.533486 1
gene 2 12 12 1.12502 1 3716 1.12502 1
gene 1 230 230 -0.453115 1 3835 -0.453115 1
gene 1 3 230 0.0878514 0 3998 0 1
gene 2 1 276 0.37958 0 4058 0.37958 1
gene 2 1 230 0.761383 0 4189 0.761383 1
genomeend 34

/* Organism #35 Fitness: 510.922 Error: 139.078 */
genomestart 35
trait 1 0.0951601 0.00849977 0.232488 0.0148081 0.0689925 0.0169459 0.555661 0.0227549 
trait 2 0.204657 0.0428 0.10883 0.0502697 0.0550914 0.311968 0.117934 0.0964235 
trait 3 0.677142 0.17961 0.12192 0.0264978 0.312582 0.052513 0.0190061 0.111123 
node 1 3 1 1
node 2 3 1 1
node 3 2 1 1
node 4 2 0 2
node 12 1 0 0
node 38 1 0 0
node 77 2 0 0
node 168 1 0 0
node 230 1 0 0
node 276 1 0 0
gene 1 1 4 -0.406543 0 1 -0.406543 1
gene 3 2 4 1.0671 0 2 1.0671 0
gene 2 3 4 -5.78031 0 3 -5.78031 1
gene 3 3 12 -1.43371 0 108 -1.43371 0
gene 3 12 4 -3.15351 0 109 -3.15351 0
gene 1 2 12 0.540352 0 213 0.540352 1
gene 3 1 12 3.367 0 224 3.367 1
gene 1 4 12 -0.194971 1 306 -0.194971 0
gene 3 1 38 -2.24381 0 419 -2.24381 0
gene 3 38 12 0.529007 0 420 0.529007 0
gene 2 2 38 -0.887125 0 494 -0.887125 0
gene 2 38 4 2.9628 0 696 2.9628 1
gene 3 38 77 0.278324 0 994 0.278324 0
gene 3 77 12 1.68337 0 995 1.68337 0
gene 3 2 77 -0.567856 0 1765 -0.567856 1
gene 1 77 77 -0.365215 1 1813 -0.365215 0
gene 2 38 38 1.57569 1 1901 1.57569 0
gene 3 12 168 2.47912 0 1937 2.47912 0
gene 3 168 4 4.75094 0 1938 4.75094 1
gene 2 3 168 0.074127 0 2096 0.074127 0
gene 2 1 168 2.86047 0 2131 2.86047 1
gene 3 2 168 -0.326682 0 2329 -0.326682 1
gene 2 38 230 0.769862 0 2460 0.768153 0
gene 2 230 4 1.25051 0 2461 1.25051 1
gene 2 77 4 0.470475 0 2768 0.470475 1
gene 2 3 38 0.636036 0 2818 0.636036 0
gene 1 12 230 0.808188 0 2860 0.808188 0
gene 1 1 77 -0.349586 0 2897 -0.349586 0
gene 2 168 168 1.1023 1 2929 1.1023 1
gene 3 2 276 0.862238 0 2973 0.612238 0
gene 3 276 4 0.106802 0 2974 -0.187644 1
gene 1 168 77 -0.566676 1 3019 -0.566676 1
gene 2 4 230 -0.19771 1 3101 -0.19771 1
gene 1 3 276 1.0491 0 3247 1.0491 0
gene 2 77 230 0.816333 0 3364 0.816333 1
gene 2 38 168 0.439129 0 3415 0 0
gene 1 2 230 0.243123 0 3462 0 1
gene 3 230 276 -0.940203 0 3593 -0.940203 1
gene 2 168 77 -0.931986 0 3631 0 1
gene 2 230 230 0.302192 1 4190 0.302192 1
genomeend 35

/* Organism #36 Fitness: 485.189 Error: 164.811 */
genomestart 36
trait 1 0.0986632 0.0938116 0.172458 0.0157382 0.046758 0.0176043 0.54945 0.102799 
trait 2 0.203942 0.0428079 0.108055 0.0461036 0.0547618 0.28971 0.105137 0.0821065 
trait 3 0.669288 0.18046 0.122061 0.0273387 0.315685 0.0527093 0.0185702 0.115335 
node 1 3 1 1
node 2 3 1 1
node 3 2 1 1
node 4 2 0 2
node 12 1 0 0
node 38 1 0 0
node 77 1 0 0
node 168 1 0 0
node 230 1 0 0
node 276 1 0 0
gene 1 1 4 -0.540887 0 1 -0.540887 1
gene 3 2 4 1.97334 0 2 1.97334 0
gene 2 3 4 0.773835 0 3 0.773835 1
gene 3 3 12 -0.766121 0 108 -0.766121 0
gene 3 12 4 -2.22167 0 109 -2.22167 1
gene 1 2 12 1.37508 0 213 1.37508 0
gene 3 1 12 -0.352048 0 224 -0.352048 1
gene 1 4 12 0.361405 1 306 0.361405 0
gene 3 1 38 -0.292772 0 419 -0.292772 0
gene 3 38 12 2.22875 0 420 2.22875 0
gene 2 2 38 -1.25341 0 494 -1.25341 0
gene 2 38 4 1.14175 0 696 1.14175 0
gene 3 38 77 0.362161 0 994 0.362161 0
gene 3 77 12 -0.546382 0 995 -0.546382 0
gene 3 2 77 -1.26785 0 1765 -1.26785 0
gene 1 77 77 1.61552 1 1813 1.61552 1
gene 2 38 38 -0.941017 1 1901 -0.941017 0
gene 3 12 168 1.79613 0 1937 1.79613 0
gene 3 168 4 5.11749 0 1938 5.11749 1
gene 2 3 168 -0.926276 0 2096 -0.926276 0
gene 2 1 168 4.05153 0 2131 4.05153 1
gene 3 2 168 1.32515 0 2329 1.32515 1
gene 2 38 230 3.927 0 2460 3.927 0
gene 2 230 4 -0.642288 0 2461 -0.642288 0
gene 2 77 4 -0.214747 0 2768 -0.214747 1
gene 2 3 38 -0.203174 0 2818 -0.203174 0
gene 1 12 230 -0.248346 0 2860 -0.248346 0
gene 1 1 77 0.374212 0 2897 0.374212 0
gene 2 168 168 1.55548 1 2929 1.55548 1
gene 3 2 276 1.12709 0 2973 1.12709 0
gene 3 276 4 0.989563 0 2974 0.989563 1
gene 1 168 77 0.65092 1 3019 0.65092 1
gene 2 4 230 0.553711 1 3101 0.553711 1
gene 1 3 276 -0.957655 0 3247 -0.957655 1
gene 2 276 77 0.741472 0 3397 0.741472 1
gene 2 3 77 -2.32927 0 3470 -2.32927 1
gene 2 38 276 2.71747 0 3561 2.71747 0
gene 2 168 230 -1.08855 0 3583 -1.08855 1
gene 2 12 12 -0.215796 1 3716 -0.215796 1
gene 1 230 230 1.61966 1 3835 1.61966 1
genomeend 36

/* Organism #37 Fitness: 508.816 Error: 141.184 */
genomestart 37
trait 1 0.094196 0.00863319 0.242918 0.0123296 0.0901186 0.0159045 0.546301 0.0204132 
trait 2 0.2059 0.0408354 0.108955 0.0552068 0.0553477 0.387559 0.16064 0.139687 
trait 3 0.687103 0.179504 0.121248 0.025691 0.310057 0.0527693 0.0180811 0.107598 
node 1 3 1 1
node 2 3 1 1
node 3 3 1 1
node 4 2 0 2
node 12 1 0 0
node 38 1 0 0
node 77 1 0 0
node 168 1 0 0
node 230 1 0 0
node 276 1 0 0
gene 1 1 4 -1.19172 0 1 -1.19172 1
gene 3 2 4 1.63493 0 2 1.63493 0
gene 2 3 4 -5.78031 0 3 -5.78031 1
gene 3 3 12 -1.43371 0 108 -1.43371 0
gene 3 12 4 -4.00348 0 109 -4.00348 0
gene 1 2 12 0.540352 0 213 0.540352 0
gene 3 1 12 3.367 0 224 3.367 0
gene 1 4 12 -1.48606 1 306 -1.48606 0
gene 3 1 38 0.655702 0 419 0.655702 0
gene 3 38 12 1.60026 0 420 1.60026 0
gene 2 2 38 -2.01609 0 494 -2.01609 0
gene 2 38 4 0.655452 0 696 0.655452 0
gene 3 38 77 1.38075 0 994 1.38075 0
gene 3 77 12 1.68337 0 995 1.68337 0
gene 3 2 77 -0.567856 0 1765 -0.567856 1
gene 1 77 77 0.562431 1 1813 0.562431 0
gene 2 38 38 2.59703 1 1901 2.59703 1
gene 3 12 168 1.92677 0 1937 1.92677 0
gene 3 168 4 4.75094 0 1938 4.75094 1
gene 2 3 168 -0.0755024 0 2096 -0.0755024 0
gene 2 1 168 2.33667 0 2131 2.33667 1
gene 3 2 168 -0.326682 0 2329 -0.326682 1
gene 2 38 230 0.439834 0 2460 0.433242 0
gene 2 230 4 0.0727397 0 2461 0.0727397 1
gene 2 77 4 0.470475 0 2768 0.470475 1
gene 2 3 38 0.636036 0 2818 0.636036 0
gene 1 12 230 1.27695 0 2860 1.2511 0
gene 1 1 77 -0.186131 0 2897 -0.186131 0
gene 2 168 168 1.1023 1 2929 1.1023 1
gene 3 2 276 1.30417 0 2973 1.30417 0
gene 3 276 4 0.106802 0 2974 -0.187644 1
gene 1 168 77 0.451922 1 3019 0.451922 0
gene 2 4 230 0.931227 1 3101 0.931227 1
gene 1 3 276 1.0491 0 3247 1.0491 1
gene 2 77 230 0.816333 0 3364 0.816333 1
gene 2 38 168 -0.165521 0 3415 -0.165521 0
gene 1 2 230 0.243123 0 3462 0 1
gene 3 230 276 -0.940203 0 3593 -0.940203 1
gene 2 168 77 -0.931986 0 3631 0 1
gene 3 168 230 0.534214 0 4191 0.534214 1
genomeend 37

/* Organism #38 Fitness: 494.546 Error: 155.454 */
genomestart 38
trait 1 0.101158 0.00890414 0.170746 0.0170317 0.0279297 0.0184967 0.534121 0.0224662 
trait 2 0.202916 0.0358516 0.113229 0.0339528 0.0553618 0.199445 0.0615152 0.0412188 
trait 3 0.658485 0.181314 0.126118 0.0260689 0.318352 0.053395 0.0238485 0.119699 
node 1 3 1 1
node 2 3 1 1
node 3 2 1 1
node 4 2 0 2
node 12 1 0 0
node 38 1 0 0
node 77 1 0 0
node 168 1 0 0
node 230 1 0 0
node 276 1 0 0
gene 1 1 4 -0.544699 0 1 -0.544699 1
gene 3 2 4 0.734156 0 2 0.734156 0
gene 2 3 4 -5.54802 0 3 -5.54802 1
gene 3 3 12 -2.64637 0 108 -2.64637 0
gene 3 12 4 -1.89821 0 109 -1.89821 0
gene 1 2 12 0.779085 0 213 0.779085 0
gene 3 1 12 5.93201 0 224 5.93201 1
gene 1 4 12 -0.69177 1 306 -0.69177 0
gene 3 1 38 -1.70656 0 419 -1.70656 0
gene 3 38 12 0.771032 0 420 0.771032 0
gene 2 2 38 -2.75632 0 494 -2.75632 0
gene 2 38 4 1.04647 0 696 1.04647 1
gene 3 38 77 0.398149 0 994 0.398149 0
gene 3 77 12 -0.328343 0 995 -0.328343 0
gene 3 2 77 0.330135 0 1765 0.330135 0
gene 1 77 77 -0.0881679 1 1813 -0.0881679 1
gene 2 38 38 1.7365 1 1901 1.7365 0
gene 3 12 168 3.23547 0 1937 3.23547 0
gene 3 168 4 4.12636 0 1938 4.12636 1
gene 2 3 168 0.711932 0 2096 0.711932 0
gene 2 1 168 0.48091 0 2131 0.48091 1
gene 3 2 168 1.03513 0 2329 1.03513 1
gene 2 38 230 -0.234356 0 2460 -0.241192 0
gene 2 230 4 1.52964 0 2461 1.40938 1
gene 2 77 4 0.71097 0 2768 0.71097 1
gene 2 3 38 0.87618 0 2818 0.87618 0
gene 1 12 230 0.536455 0 2860 0.536455 1
gene 1 1 77 -0.922535 0 2897 -0.922535 0
gene 2 168 168 0.285052 1 2929 0.285052 1
gene 3 2 276 -0.14764 0 2973 -0.64764 1
gene 3 276 4 0.605903 0 2974 0.0170092 1
gene 1 168 77 0.215825 1 3019 0.215825 1
gene 2 4 230 1.06319 1 3101 1.06319 1
gene 2 168 230 -0.1113 0 3149 0 1
gene 1 3 230 0.664606 0 3190 0 1
gene 2 276 168 -0.479512 0 3340 -0.479512 1
gene 2 276 276 -0.212607 1 3391 -0.212607 1
gene 3 38 168 0.970308 0 3579 0.970308 1
gene 3 1 230 -0.305923 0 3640 0 1
gene 1 12 276 0.152606 0 3743 0.152606 1
gene 3 230 230 -0.336304 1 3892 -0.336304 1
gene 1 77 230 -0.313133 0 3961 -0.313133 1
gene 1 77 168 -0.548486 0 4131 -0.548486 1
gene 2 1 276 0.917044 0 4192 0.917044 1
genomeend 38

/* Organism #39 Fitness: 441.356 Error: 208.644 */
genomestart 39
trait 1 0.101863 0.00957191 0.174419 0.0174351 0.0291826 0.017534 0.542093 0.0264757 
trait 2 0.204541 0.036299 0.110586 0.0347643 0.0556799 0.211356 0.0670704 0.0393481 
trait 3 1 0.181405 0 0.0261269 0.0657478 0.0530773 0 0 
node 1 3 1 1
node 2 3 1 1
node 3 2 1 1
node 4 2 0 2
node 12 1 0 0
node 38 3 0 0
node 77 1 0 0
node 168 1 0 0
node 230 1 0 0
node 276 1 0 0
gene 1 1 4 0.0430132 0 1 0.0430132 1
gene 3 2 4 2.03568 0 2 2.03568 0
gene 2 3 4 -4.21382 0 3 -4.21382 1
gene 3 3 12 -2.91572 0 108 -2.91572 0
gene 3 12 4 -3.12656 0 109 -3.12656 0
gene 1 2 12 1.84155 0 213 1.84155 0
gene 3 1 12 4.67315 0 224 4.67315 0
gene 1 4 12 0.271692 1 306 0.271692 0
gene 3 1 38 -0.343969 0 419 -0.343969 0
gene 3 38 12 1.43553 0 420 1.43553 0
gene 2 2 38 0.153968 0 494 0.153968 0
gene 2 38 4 2.83968 0 696 2.83968 1
gene 3 38 77 3.07478 0 994 3.07478 0
gene 3 77 12 2.38137 0 995 2.38137 0
gene 3 2 77 -0.463589 0 1765 -0.463589 0
gene 1 77 77 0.133875 1 1813 0.133875 1
gene 2 38 38 0.938835 1 1901 0.938835 0
gene 3 12 168 1.59204 0 1937 1.59204 0
gene 3 168 4 3.69096 0 1938 3.69096 1
gene 2 3 168 1.38296 0 2096 1.38296 0
gene 2 1 168 3.04462 0 2131 3.04462 1
gene 3 2 168 0.563485 0 2329 0.563485 1
gene 2 38 230 -0.496014 0 2460 -0.496014 0
gene 2 230 4 0.853875 0 2461 0.853875 1
gene 2 77 4 1.15428 0 2768 1.15428 1
gene 2 3 38 0.0575193 0 2818 0.0575193 0
gene 1 12 230 0.66272 0 2860 0.66272 0
gene 1 1 77 -1.68224 0 2897 -1.68224 0
gene 2 168 168 -1.10521 1 2929 -1.10521 1
gene 3 2 276 0.189798 0 2973 0.189798 0
gene 3 276 4 0.0255026 0 2974 0.0255026 1
gene 1 168 77 1.2768 1 3019 1.2768 1
gene 2 4 230 0.818095 1 3101 0.818095 0
gene 2 168 230 -1.37294 0 3149 -1.37294 1
gene 1 3 230 1.67639 0 3190 1.67639 1
gene 2 276 168 -0.479512 0 3340 -0.479512 1
gene 2 276 276 -1.01454 1 3391 -1.01454 1
gene 3 38 168 1.26835 0 3579 1.26835 1
gene 3 1 230 -0.305923 0 3640 -0.305923 1
gene 1 12 276 -1.34343 0 3743 -1.34343 1
gene 3 230 230 -0.336304 1 3892 -0.336304 1
gene 1 77 230 -0.351126 0 3961 -0.351126 1
genomeend 39

/* Organism #40 Fitness: 513.495 Error: 136.505 */
genomestart 40
trait 1 0.100688 0.00921769 0.180497 0.0175748 0.042193 0.0182177 0.538189 0.0257925 
trait 2 0.205212 0.0348973 0.109624 0.0390803 0.0556133 0.262126 0.0955384 0.0691341 
trait 3 0.664453 0.181603 0.123066 0.0262009 0.318454 0.0527337 0.0200911 0.116261 
node 1 3 1 1
node 2 3 1 1
node 3 2 1 1
node 4 2 0 2
node 12 1 0 0
node 38 1 0 0
node 77 2 0 0
node 168 1 0 0
node 230 1 0 0
node 276 1 0 0
gene 1 1 4 -0.993525 0 1 -0.993525 1
gene 3 2 4 0.919101 0 2 0.919101 0
gene 2 3 4 -5.61499 0 3 -5.61499 1
gene 3 3 12 -1.15483 0 108 -1.15483 0
gene 3 12 4 -1.59828 0 109 -1.59828 0
gene 1 2 12 0.681222 0 213 0.681222 1
gene 3 1 12 3.97793 0 224 3.97793 0
gene 1 4 12 -0.271665 1 306 -0.271665 0
gene 3 1 38 -2.54836 0 419 -2.54836 0
gene 3 38 12 2.2874 0 420 2.2874 1
gene 2 2 38 -1.87546 0 494 -1.87546 0
gene 2 38 4 0.585324 0 696 0.585324 0
gene 3 38 77 1.95293 0 994 1.95293 0
gene 3 77 12 0.999518 0 995 0.999518 1
gene 3 2 77 0.947501 0 1765 0.947501 0
gene 1 77 77 -0.128524 1 1813 -0.128524 1
gene 2 38 38 2.34074 1 1901 2.34074 0
gene 3 12 168 0.991403 0 1937 0.991403 0
gene 3 168 4 5.95738 0 1938 5.95738 1
gene 2 3 168 1.22138 0 2096 1.22138 0
gene 2 1 168 1.81097 0 2131 1.81097 1
gene 3 2 168 0.239532 0 2329 0.239532 1
gene 2 38 230 1.27298 0 2460 1.27298 0
gene 2 230 4 0.561832 0 2461 0.561832 1
gene 2 77 4 0.883861 0 2768 0.883861 1
gene 2 3 38 1.56245 0 2818 1.56245 1
gene 1 12 230 0.641305 0 2860 0.628381 1
gene 1 1 77 0.656858 0 2897 0.656858 0
gene 2 168 168 0.882687 1 2929 0.882687 1
gene 3 2 276 1.89045 0 2973 1.64045 0
gene 3 276 4 0.988381 0 2974 0.841158 1
gene 1 168 77 0.62988 1 3019 0.62988 1
gene 2 4 230 -0.0870273 1 3101 -0.0870273 0
gene 2 168 230 -0.293813 0 3149 -0.293813 1
gene 1 3 230 -1.38646 0 3190 -1.38646 1
gene 2 276 168 -0.597254 0 3340 -0.597254 1
gene 2 276 276 1.56818 1 3391 1.56818 1
gene 3 38 168 2.0365 0 3579 2.0365 1
gene 3 1 230 0.254744 0 3640 0.254744 1
gene 1 12 276 -0.664823 0 3743 -0.664823 1
gene 3 230 230 0.829054 1 3892 0.829054 1
gene 1 77 230 1.12968 0 3961 1.12968 1
gene 2 77 276 1.29177 0 4064 1.29177 1
genomeend 40

/* Organism #41 Fitness: 476.299 Error: 173.701 */
genomestart 41
trait 1 0.0978 0.00925159 0.195188 0.0158437 0.047714 0.0170894 0.535594 0.0377542 
trait 2 0.202883 0.0424464 0.108071 0.0458531 0.0548754 0.289391 0.105808 0.0824718 
trait 3 0.660276 0.180428 0.123575 0.0245476 0.315963 0.0522874 0.0210653 0.114314 
node 1 3 1 1
node 2 3 1 1
node 3 2 1 1
node 4 2 0 2
node 12 1 0 0
node 38 1 0 0
node 77 1 0 0
node 168 1 0 0
node 230 1 0 0
node 276 1 0 0
gene 1 1 4 -0.594929 0 1 -0.594929 1
gene 3 2 4 1.47922 0 2 1.47922 0
gene 2 3 4 1.18474 0 3 1.18474 1
gene 3 3 12 -0.939429 0 108 -0.939429 0
gene 3 12 4 1.05074 0 109 1.05074 0
gene 1 2 12 -1.763 0 213 -1.763 0
gene 3 1 12 2.54371 0 224 2.54371 0
gene 1 4 12 0.457066 1 306 0.457066 0
gene 3 1 38 -1.3313 0 419 -1.3313 0
gene 3 38 12 -1.3609 0 420 -1.3609 1
gene 2 2 38 -0.388548 0 494 -0.388548 0
gene 2 38 4 -1.24263 0 696 -1.24263 0
gene 3 38 77 1.86417 0 994 1.86417 0
gene 3 77 12 1.80407 0 995 1.80407 0
gene 3 2 77 0.430766 0 1765 0.430766 0
gene 1 77 77 -1.32238 1 1813 -1.32238 1
gene 2 38 38 1.7343 1 1901 1.7343 1
gene 3 12 168 0.754271 0 1937 0.754271 0
gene 3 168 4 4.02452 0 1938 4.02452 1
gene 2 3 168 -0.30107 0 2096 -0.30107 0
gene 2 1 168 0.574974 0 2131 0.574974 1
gene 3 2 168 -0.798748 0 2329 -0.798748 1
gene 2 38 230 -0.0275413 0 2460 -0.0275413 0
gene 2 230 4 0.14247 0 2461 0.14247 1
gene 2 77 4 1.69911 0 2768 1.69911 1
gene 2 3 38 -0.496548 0 2818 -0.496548 0
gene 1 12 230 -0.96722 0 2860 -0.96722 0
gene 1 1 77 -1.24454 0 2897 -1.24454 0
gene 2 168 168 1.45254 1 2929 1.45254 1
gene 3 2 276 -1.16842 0 2973 -1.16842 0
gene 3 276 4 2.55448 0 2974 2.55448 1
gene 1 168 77 0.724824 1 3019 0.724824 1
gene 2 4 230 -0.657805 1 3101 -0.657805 1
gene 1 3 276 -0.40377 0 3247 -0.40377 1
gene 2 77 230 -0.860898 0 3364 -0.860898 1
gene 2 38 168 1.53555 0 3415 1.53555 0
gene 1 2 230 1.94784 0 3462 1.94784 1
gene 3 230 276 0.146977 0 3593 0.146977 1
gene 2 168 77 0.238182 0 3631 0.238182 1
gene 1 276 12 0.295308 0 4069 0.295308 1
genomeend 41

/* Organism #42 Fitness: 516.77 Error: 133.23 */
genomestart 42
trait 1 0.102559 0.0101478 0.185225 0.0172429 0.0300326 0.0154926 0.554533 0.0398563 
trait 2 0.200102 0.0487415 0.108181 0.0471292 0.0539953 0.319471 0.118243 0.0948127 
trait 3 0.655675 0.180543 0.128281 0.0301833 0.317479 0.0521834 0.0285406 0.116174 
node 1 3 1 1
node 2 3 1 1
node 3 3 1 1
node 4 2 0 2
node 12 1 0 0
node 38 1 0 0
node 77 1 0 0
node 168 1 0 0
node 230 1 0 0
node 276 1 0 0
gene 1 1 4 -0.820638 0 1 -0.820638 1
gene 3 2 4 1.23875 0 2 1.23875 0
gene 2 3 4 -3.90933 0 3 -3.90933 1
gene 3 3 12 -0.974354 0 108 -0.974354 0
gene 3 12 4 -4.0958 0 109 -4.0958 0
gene 1 2 12 1.61529 0 213 1.61529 0
gene 3 1 12 5.01861 0 224 5.01861 1
gene 1 4 12 -0.558013 1 306 -0.558013 1
gene 3 1 38 -2.65189 0 419 -2.65189 0
gene 3 38 12 1.57338 0 420 1.57338 1
gene 2 2 38 -2.00718 0 494 -2.00718 0
gene 2 38 4 0.979279 0 696 0.979279 1
gene 3 38 77 1.28348 0 994 1.28348 0
gene 3 77 12 1.48407 0 995 1.48407 0
gene 3 2 77 0.62157 0 1765 0.62157 1
gene 1 77 77 0.296963 1 1813 0.296963 1
gene 2 38 38 0.773421 1 1901 0.773421 0
gene 3 12 168 2.04017 0 1937 2.04017 1
gene 3 168 4 4.53506 0 1938 4.53506 1
gene 2 3 168 0.62406 0 2096 0.62406 0
gene 2 1 168 2.04357 0 2131 2.04357 1
gene 3 2 168 0.610995 0 2329 0.610995 1
gene 2 38 230 1.63643 0 2460 1.63643 1
gene 2 230 4 1.74768 0 2461 1.74768 1
gene 2 77 4 0.518768 0 2768 0.518768 1
gene 2 3 38 0.268141 0 2818 0.268141 1
gene 1 12 230 -0.439856 0 2860 -0.464529 0
gene 1 1 77 -0.500777 0 2897 -0.500777 1
gene 2 168 168 1.65151 1 2929 1.65151 1
gene 3 2 276 0.732767 0 2973 0.357767 0
gene 3 276 4 0.948353 0 2974 0.948353 1
gene 1 168 77 0.837133 1 3019 0.837133 1
gene 2 4 230 0.707158 1 3101 0.707158 1
gene 1 3 276 -0.0729237 0 3247 -0.0729237 1
gene 2 276 77 1.21831 0 3397 1.21831 1
gene 2 3 77 -0.754073 0 3470 -0.754073 1
gene 2 38 276 -0.500507 0 3561 -0.500507 1
gene 2 168 230 -0.533486 0 3583 -0.533486 1
gene 2 12 12 1.12502 1 3716 1.12502 1
gene 1 230 230 -0.150801 1 3835 -0.150801 1
gene 1 3 230 0.0878514 0 3998 0 1
gene 2 1 276 0.37958 0 4058 0.37958 1
gene 3 230 77 0.969756 0 4154 0.969756 1
genomeend 42

/* Organism #43 Fitness: 507.881 Error: 142.119 */
genomestart 43
trait 1 0.0971676 0.00873967 0.209672 0.0163859 0.0539109 0.0190194 0.548259 0.0219022 
trait 2 0.206309 0.0379523 0.10967 0.0415433 0.0555148 0.207705 0.0634511 0.0395489 
trait 3 0.671732 0.180382 0.120564 0.0251855 0.314662 0.0529154 0.0166219 0.115036 
node 1 3 1 1
node 2 3 1 1
node 3 2 1 1
node 4 1 0 2
node 12 1 0 0
node 38 1 0 0
node 77 1 0 0
node 168 1 0 0
node 230 1 0 0
node 276 1 0 0
gene 1 1 4 -1.04269 0 1 -1.04269 1
gene 3 2 4 -0.324514 0 2 -0.324514 1
gene 2 3 4 -6.64329 0 3 -6.64329 1
gene 3 3 12 -0.0975925 0 108 -0.0975925 0
gene 3 12 4 -2.25874 0 109 -2.25874 0
gene 1 2 12 2.27385 0 213 2.27385 0
gene 3 1 12 5.71853 0 224 5.71853 0
gene 1 4 12 0.884064 1 306 0.884064 0
gene 3 1 38 -2.09558 0 419 -2.09558 0
gene 3 38 12 2.16418 0 420 2.16418 0
gene 2 2 38 -0.130347 0 494 -0.130347 0
gene 2 38 4 2.17956 0 696 2.17956 0
gene 3 38 77 0.150754 0 994 0.150754 0
gene 3 77 12 1.06937 0 995 1.06937 0
gene 3 2 77 1.18347 0 1765 1.18347 0
gene 1 77 77 0.298788 1 1813 0.298788 1
gene 2 38 38 3.4798 1 1901 3.4798 0
gene 3 12 168 2.94907 0 1937 2.94907 0
gene 3 168 4 2.61731 0 1938 2.61731 1
gene 2 3 168 -1.11627 0 2096 -1.11627 0
gene 2 1 168 2.62954 0 2131 2.62954 1
gene 3 2 168 1.93831 0 2329 1.93831 1
gene 2 38 230 0.777571 0 2460 0.777571 0
gene 2 230 4 1.45455 0 2461 1.45455 0
gene 2 77 4 2.5019 0 2768 2.5019 1
gene 2 3 38 0.997347 0 2818 0.997347 0
gene 1 12 230 -0.0103168 0 2860 -0.0103168 0
gene 1 1 77 -1.32406 0 2897 -1.32406 0
gene 2 168 168 -0.336447 1 2929 -0.336447 1
gene 3 2 276 0.094251 0 2973 0.094251 0
gene 3 276 4 0.160483 0 2974 0.160483 1
gene 1 168 77 0.770364 1 3019 0.770364 1
gene 2 4 230 -0.842491 1 3101 -0.842491 0
gene 1 3 276 1.67089 0 3247 1.67089 1
gene 2 77 230 1.29552 0 3364 1.29552 1
gene 2 38 168 -1.91389 0 3415 -1.91389 1
gene 1 2 230 -0.970829 0 3462 -0.970829 1
gene 2 230 230 -1.55303 1 3723 -1.55303 1
gene 2 276 276 -0.914276 1 3785 -0.914276 1
gene 1 12 12 1.35969 1 3837 1.35969 1
gene 3 1 276 0.0812385 0 3882 0.0812385 1
gene 2 276 77 -0.466063 0 4019 -0.466063 1
gene 1 38 276 -0.941033 0 4126 -0.941033 1
genomeend 43

/* Organism #44 Fitness: 507.413 Error: 142.587 */
genomestart 44
trait 1 0.0988269 0.00932053 0.204479 0.0191954 0.0346251 0.0178568 0.565921 0.0261726 
trait 2 0.200933 0.0428293 0.108073 0.0417745 0.0540158 0.234581 0.0758116 0.0532688 
trait 3 0.658071 0.180288 0.12392 0.0269128 0.317826 0.0529668 0.021643 0.118447 
node 1 3 1 1
node 2 3 1 1
node 3 2 1 1
node 4 1 0 2
node 12 1 0 0
node 38 1 0 0
node 77 1 0 0
node 168 1 0 0
node 230 1 0 0
node 276 1 0 0
gene 1 1 4 -0.71289 0 1 -0.71289 1
gene 3 2 4 1.66382 0 2 1.66382 0
gene 2 3 4 -6.0687 0 3 -6.0687 1
gene 3 3 12 -1.1208 0 108 -1.1208 0
gene 3 12 4 -1.39781 0 109 -1.39781 0
gene 1 2 12 0.130897 0 213 0.130897 0
gene 3 1 12 5.76233 0 224 5.76233 1
gene 1 4 12 -2.40236 1 306 -2.40236 0
gene 3 1 38 -3.87058 0 419 -3.87058 0
gene 3 38 12 0.792823 0 420 0.792823 0
gene 2 2 38 -1.35908 0 494 -1.35908 0
gene 2 38 4 0.469693 0 696 0.469693 0
gene 3 38 77 0.634263 0 994 0.634263 0
gene 3 77 12 1.89021 0 995 1.89021 0
gene 3 2 77 2.12681 0 1765 2.12681 0
gene 1 77 77 0.131197 1 1813 0.131197 1
gene 2 38 38 -1.1738 1 1901 -1.1738 0
gene 3 12 168 1.92677 0 1937 1.92677 0
gene 3 168 4 4.2873 0 1938 4.2873 1
gene 2 3 168 -0.481577 0 2096 -0.481577 0
gene 2 1 168 1.58361 0 2131 1.58361 1
gene 3 2 168 1.59516 0 2329 1.59516 1
gene 2 38 230 0.932094 0 2460 0.932094 0
gene 2 230 4 0.0540255 0 2461 0.0540255 1
gene 2 77 4 1.60786 0 2768 1.60786 1
gene 2 3 38 0.634767 0 2818 0.634767 0
gene 1 12 230 2.43072 0 2860 2.43072 0
gene 1 1 77 0.205514 0 2897 0.205514 0
gene 2 168 168 1.39274 1 2929 1.39274 1
gene 3 2 276 1.38649 0 2973 0.886494 1
gene 3 276 4 -1.20394 0 2974 -1.20394 1
gene 1 168 77 0.369139 1 3019 0.369139 1
gene 2 4 230 3.0919 1 3101 3.0919 1
gene 1 3 276 1.51085 0 3247 1.51085 1
gene 2 276 77 -0.259197 0 3397 -0.259197 1
gene 2 3 230 0.361383 0 3473 0.361383 1
gene 1 77 230 -2.25935 0 3517 -2.25935 1
gene 2 12 276 -1.68638 1 3691 -1.68638 1
gene 2 230 230 0.203187 1 4193 0.203187 1
genomeend 44

/* Organism #45 Fitness: 523.087 Error: 126.913 */
genomestart 45
trait 1 0.0885839 0.00746398 0.283661 0.00922995 0.112328 0.0164685 0.558936 0.0204362 
trait 2 0.208889 0.041474 0.110298 0.0565284 0.056127 0.202735 0.0597036 0.0372834 
trait 3 0.696622 0.178328 0.118933 0.0226439 0.304615 0.0530831 0.0156827 0.104098 
node 1 3 1 1
node 2 3 1 1
node 3 3 1 1
node 4 2 0 2
node 12 1 0 0
node 38 1 0 0
node 77 1 0 0
node 168 1 0 0
node 230 1 0 0
node 276 1 0 0
gene 1 1 4 -0.422337 0 1 -0.422337 1
gene 3 2 4 -1.2309 0 2 -1.2309 0
gene 2 3 4 -5.38882 0 3 -5.38882 1
gene 3 3 12 -0.186882 0 108 -0.186882 0
gene 3 12 4 -3.03486 0 109 -3.03486 0
gene 1 2 12 1.59196 0 213 1.59196 0
gene 3 1 12 2.9314 0 224 2.9314 1
gene 1 4 12 0.404799 1 306 0.404799 0
gene 3 1 38 0.424576 0 419 0.424576 1
gene 3 38 12 0.986211 0 420 0.986211 0
gene 2 2 38 -1.11137 0 494 -1.11137 0
gene 2 38 4 1.31532 0 696 1.31532 0
gene 3 38 77 0.398149 0 994 0.398149 0
gene 3 77 12 1.66257 0 995 1.66257 0
gene 3 2 77 0.721243 0 1765 0.721243 0
gene 1 77 77 1.12424 1 1813 1.12424 0
gene 2 38 38 1.84387 1 1901 1.84387 0
gene 3 12 168 2.0178 0 1937 2.0178 0
gene 3 168 4 2.57658 0 1938 2.57658 1
gene 2 3 168 0.67274 0 2096 0.67274 0
gene 2 1 168 1.38928 0 2131 1.38928 1
gene 3 2 168 -0.419026 0 2329 -0.419026 1
gene 2 38 230 1.16363 0 2460 1.15219 0
gene 2 230 4 1.73306 0 2461 1.73306 1
gene 2 77 4 -0.284463 0 2768 -0.284463 1
gene 2 3 38 0.761793 0 2818 0.761793 0
gene 1 12 230 0.442373 0 2860 0.409034 0
gene 1 1 77 0.645546 0 2897 0.645546 0
gene 2 168 168 0.999921 1 2929 0.999921 1
gene 3 2 276 1.18841 0 2973 1.18841 0
gene 3 276 4 1.47395 0 2974 0.885052 1
gene 1 168 77 0.252924 1 3019 0.252924 1
gene 2 4 230 1.30874 1 3101 1.30874 1
gene 1 3 276 1.06812 0 3247 1.06812 1
gene 2 77 230 0.816333 0 3364 0.816333 1
gene 2 38 168 0.439129 0 3415 0 0
gene 1 2 230 0.243123 0 3462 0 1
gene 3 230 276 -0.940203 0 3593 -0.940203 1
gene 2 168 77 -0.931986 0 3631 0 1
gene 1 230 230 0.321988 1 4128 0.321988 1
gene 3 38 276 0.765369 0 4194 0.765369 1
genomeend 45

/* Organism #46 Fitness: 398.951 Error: 251.049 */
genomestart 46
trait 1 0.0996846 0.00985174 0.200505 0.0171346 0.0306068 0.0181235 0.563139 0.0352254 
trait 2 0.202494 0.0426319 0.107952 0.0418089 0.0543391 0.260965 0.0897651 0.0674485 
trait 3 0.662829 0.180092 0.121572 0.0269186 0.318099 0.0530242 0.0182598 0.119546 
node 1 3 1 1
node 2 3 1 1
node 3 2 1 1
node 4 1 0 2
node 12 1 0 0
node 38 1 0 0
node 77 1 0 0
node 168 1 0 0
node 230 1 0 0
node 276 1 0 0
gene 1 1 4 0.152828 0 1 0.152828 1
gene 3 2 4 2.556 0 2 2.556 0
gene 2 3 4 -3.58699 0 3 -3.58699 1
gene 3 3 12 -0.711774 0 108 -0.711774 1
gene 3 12 4 -3.66143 0 109 -3.66143 0
gene 1 2 12 -0.299213 0 213 -0.299213 0
gene 3 1 12 4.35119 0 224 4.35119 1
gene 1 4 12 -0.604808 1 306 -0.604808 0
gene 3 1 38 -1.38392 0 419 -1.38392 1
gene 3 38 12 1.75785 0 420 1.75785 1
gene 2 2 38 -1.98544 0 494 -1.98544 0
gene 2 38 4 0.148861 0 696 0.148861 0
gene 3 38 77 0.1219 0 994 0.1219 0
gene 3 77 12 1.26255 0 995 1.26255 1
gene 3 2 77 1.38339 0 1765 1.38339 0
gene 1 77 77 -2.00021 1 1813 -2.00021 1
gene 2 38 38 0.400095 1 1901 0.400095 0
gene 3 12 168 2.88568 0 1937 2.88568 0
gene 3 168 4 5.9244 0 1938 5.9244 1
gene 2 3 168 -1.58654 0 2096 -1.58654 0
gene 2 1 168 1.47597 0 2131 1.47597 1
gene 3 2 168 -0.413858 0 2329 -0.413858 1
gene 2 38 230 -0.706988 0 2460 -0.706988 1
gene 2 230 4 0.0061946 0 2461 0.0061946 1
gene 2 77 4 3.49427 0 2768 3.49427 1
gene 2 3 38 2.85333 0 2818 2.85333 1
gene 1 12 230 -0.120965 0 2860 -0.120965 1
gene 1 1 77 2.34781 0 2897 2.34781 1
gene 2 168 168 -0.127579 1 2929 -0.127579 1
gene 3 2 276 -0.869395 0 2973 -0.869395 1
gene 3 276 4 1.2378 0 2974 1.2378 1
gene 1 168 77 0.394285 1 3019 0.394285 1
gene 2 4 230 -0.434922 1 3101 -0.434922 1
gene 1 3 276 0.0364227 0 3247 0.0364227 1
gene 2 276 77 1.31434 0 3397 1.31434 1
gene 3 276 168 -2.67242 0 3548 -2.67242 1
gene 1 230 168 -1.46598 0 3628 -1.46598 1
gene 3 230 38 2.71286 1 3896 2.71286 1
gene 2 276 38 -0.48798 0 3993 -0.48798 1
gene 3 77 230 0.21069 0 4155 0.21069 1
genomeend 46

/* Organism #47 Fitness: 512.325 Error: 137.675 */
genomestart 47
trait 1 0.0998137 0.0102962 0.198822 0.0146655 0.0425059 0.0151688 0.552609 0.0359666 
trait 2 0.202024 0.0498371 0.105186 0.0521294 0.0536658 0.321499 0.118623 0.0957774 
trait 3 0 0.180525 0 0 0 0.933336 0.0201493 0.522981 
node 1 3 1 1
node 2 3 1 1
node 3 3 1 1
node 4 2 0 2
node 12 1 0 0
node 38 3 0 0
node 77 1 0 0
node 168 1 0 0
node 230 1 0 0
node 276 1 0 0
gene 1 1 4 -0.842386 0 1 -0.842386 1
gene 3 2 4 2.00566 0 2 2.00566 0
gene 2 3 4 -4.73615 0 3 -4.73615 1
gene 3 3 12 -1.01749 0 108 -1.01749 0
gene 3 12 4 -3.32432 0 109 -3.32432 0
gene 1 2 12 1.73636 0 213 1.73636 0
gene 3 1 12 4.1715 0 224 4.1715 1
gene 1 4 12 -0.999333 1 306 -0.999333 1
gene 3 1 38 0.340511 0 419 0.340511 0
gene 3 38 12 3.43837 0 420 3.43837 0
gene 2 2 38 -2.00243 0 494 -2.00243 0
gene 2 38 4 1.06926 0 696 1.06926 1
gene 3 38 77 -1.92175 0 994 -1.92175 0
gene 3 77 12 1.06571 0 995 1.06571 0
gene 3 2 77 -2.09933 0 1765 -2.09933 0
gene 1 77 77 2.02911 1 1813 2.02911 1
gene 2 38 38 0.558184 1 1901 0.558184 0
gene 3 12 168 0.396987 0 1937 0.396987 0
gene 3 168 4 5.86195 0 1938 5.86195 1
gene 2 3 168 0.0431583 0 2096 0.0431583 0
gene 2 1 168 0.279398 0 2131 0.279398 1
gene 3 2 168 -0.592781 0 2329 -0.592781 1
gene 2 38 230 1.41759 0 2460 1.41759 1
gene 2 230 4 2.50916 0 2461 2.50916 1
gene 2 77 4 -0.262717 0 2768 -0.262717 1
gene 2 3 38 -1.08633 0 2818 -1.08633 0
gene 1 12 230 1.05171 0 2860 1.05171 1
gene 1 1 77 2.21278 0 2897 2.21278 1
gene 2 168 168 3.51213 1 2929 3.51213 1
gene 3 2 276 0.400068 0 2973 0.400068 0
gene 3 276 4 0.743838 0 2974 0.743838 1
gene 1 168 77 2.1188 1 3019 2.1188 1
gene 2 4 230 2.66046 1 3101 2.66046 1
gene 1 3 276 1.74243 0 3247 1.74243 1
gene 2 276 77 0.163345 0 3397 0.163345 1
gene 2 3 77 0.350527 0 3470 0.350527 1
gene 2 38 276 -0.0710584 0 3561 -0.0710584 1
gene 2 168 230 -0.172921 0 3583 -0.172921 1
gene 2 12 12 1.25413 1 3716 1.25413 1
gene 1 230 230 -0.453115 1 3835 -0.453115 1
gene 1 3 230 0.442788 0 3998 0.442788 1
gene 2 1 276 0.37958 0 4058 0.37958 1
gene 2 38 168 -0.6833 0 4195 -0.6833 1
genomeend 47

